{"learner":{"attributes":{"best_iteration":"33","best_ntree_limit":"34"},"feature_names":["ATF_01","ATF_02","ATF_03","ATF_04","ATF_05","ATF_06","ATF_07","ATF_08","ATF_09","ATF_10","ATF_11","ATF_12","ATF_13","ATF_14","ATF_15","ATF_16","ATF_17","ATF_18","ATF_19","ATF_20","ATF_21","ATF_22","ATF_23","ATF_24","ATF_25","ATF_26","ATF_27","ATF_28","ATF_29","ATF_30","ATF_31","ATF_32","ATF_33","ATF_34","ATF_35","ATF_36","ATF_37","ATF_38","ATF_39","ATF_40","ATF_41","ATF_42","ATF_43","ATF_44","ATF_45","ATF_46","ATF_47","ATF_48","ATF_49","ATF_50"],"feature_types":["float","float","float","float","float","float","float","float","float","float","float","float","float","float","float","float","float","float","float","float","float","float","float","float","float","float","float","float","float","float","float","float","float","float","float","float","float","float","float","float","float","float","float","float","float","float","float","float","float","float"],"gradient_booster":{"model":{"gbtree_model_param":{"num_trees":"34","size_leaf_vector":"0"},"tree_info":[0,0,0,0,0,0,0,0,0,0,0,0,0,0,0,0,0,0,0,0,0,0,0,0,0,0,0,0,0,0,0,0,0,0],"trees":[{"base_weights":[1.5488547E2,1.0827463E2,1.6543877E2,1.1530748E2,4.748074E1,1.845591E2,1.5026233E2],"categories":[],"categories_nodes":[],"categories_segments":[],"categories_sizes":[],"default_left":[true,true,true,false,false,false,false],"id":0,"left_children":[1,3,5,-1,-1,-1,-1],"loss_changes":[6.24506E5,9.884825E4,2.80728E5,0E0,0E0,0E0,0E0],"parents":[2147483647,0,0,1,1,2,2],"right_children":[2,4,6,-1,-1,-1,-1],"split_conditions":[7.3590796E2,6.9172296E2,8.197921E2,3.4592247E1,1.4244223E1,5.5367733E1,4.50787E1],"split_indices":[0,0,1,0,0,0,0],"split_type":[0,0,0,0,0,0,0],"sum_hessian":[1.305E3,2.43E2,1.062E3,2.17E2,2.6E1,4.65E2,5.97E2],"tree_param":{"num_deleted":"0","num_feature":"50","num_nodes":"7","size_leaf_vector":"0"}},{"base_weights":[1.0975069E2,1.2734393E2,9.669055E1,1.3391531E2,1.18177574E2,1.0983844E2,6.729781E1],"categories":[],"categories_nodes":[],"categories_segments":[],"categories_sizes":[],"default_left":[true,true,true,false,false,false,false],"id":1,"left_children":[1,3,5,-1,-1,-1,-1],"loss_changes":[2.87078E5,1.7425E4,2.8322E5,0E0,0E0,0E0,0E0],"parents":[2147483647,0,0,1,1,2,2],"right_children":[2,4,6,-1,-1,-1,-1],"split_conditions":[-7.482746E0,-1.4210855E-14,8.9538345E1,4.0174595E1,3.5453274E1,3.2951534E1,2.0189344E1],"split_indices":[10,15,9,0,0,0,0],"split_type":[0,0,0,0,0,0,0],"sum_hessian":[1.302E3,5.51E2,7.51E2,3.13E2,2.38E2,5.17E2,2.34E2],"tree_param":{"num_deleted":"0","num_feature":"50","num_nodes":"7","size_leaf_vector":"0"}},{"base_weights":[7.6373314E1,5.3851574E1,8.115987E1,5.7060028E1,8.218996E0,9.2286644E1,7.404498E1],"categories":[],"categories_nodes":[],"categories_segments":[],"categories_sizes":[],"default_left":[true,true,true,false,false,false,false],"id":2,"left_children":[1,3,5,-1,-1,-1,-1],"loss_changes":[1.42024E5,3.4815812E4,8.16735E4,0E0,0E0,0E0,0E0],"parents":[2147483647,0,0,1,1,2,2],"right_children":[2,4,6,-1,-1,-1,-1],"split_conditions":[7.3590796E2,6.9172296E2,-7.147402E0,1.711801E1,2.465699E0,2.7685995E1,2.2213495E1],"split_indices":[0,0,16,0,0,0,0],"split_type":[0,0,0,0,0,0,0],"sum_hessian":[1.357E3,2.4E2,1.117E3,2.24E2,1.6E1,4.31E2,6.86E2],"tree_param":{"num_deleted":"0","num_feature":"50","num_nodes":"7","size_leaf_vector":"0"}},{"base_weights":[5.1944958E1,6.223192E1,4.4448883E1,5.43272E1,6.542609E1,1.9082458E1,5.3162697E1],"categories":[],"categories_nodes":[],"categories_segments":[],"categories_sizes":[],"default_left":[true,true,true,false,false,false,false],"id":3,"left_children":[1,3,5,-1,-1,-1,-1],"loss_changes":[9.50115E4,9.878125E3,1.6189075E5,0E0,0E0,0E0,0E0],"parents":[2147483647,0,0,1,1,2,2],"right_children":[2,4,6,-1,-1,-1,-1],"split_conditions":[-7.482746E0,-7.443615E1,-1.734049E-1,1.629816E1,1.9627827E1,5.7247376E0,1.594881E1],"split_indices":[10,6,36,0,0,0,0],"split_type":[0,0,0,0,0,0,0],"sum_hessian":[1.267E3,5.31E2,7.36E2,1.58E2,3.73E2,1.89E2,5.47E2],"tree_param":{"num_deleted":"0","num_feature":"50","num_nodes":"7","size_leaf_vector":"0"}},{"base_weights":[3.688773E1,3.985786E1,2.308977E1,5.6266068E1,3.6674244E1,2.5526232E1,1.7973557E0],"categories":[],"categories_nodes":[],"categories_segments":[],"categories_sizes":[],"default_left":[true,true,true,false,false,false,false],"id":4,"left_children":[1,3,5,-1,-1,-1,-1],"loss_changes":[5.2437875E4,5.3830375E4,1.2041734E4,0E0,0E0,0E0,0E0],"parents":[2147483647,0,0,1,1,2,2],"right_children":[2,4,6,-1,-1,-1,-1],"split_conditions":[5.4852266E0,4.77891E1,1.08827194E2,1.6879822E1,1.1002274E1,7.65787E0,5.3920674E-1],"split_indices":[5,14,7,0,0,0,0],"split_type":[0,0,0,0,0,0,0],"sum_hessian":[1.301E3,1.069E3,2.32E2,1.71E2,8.98E2,2.08E2,2.4E1],"tree_param":{"num_deleted":"0","num_feature":"50","num_nodes":"7","size_leaf_vector":"0"}},{"base_weights":[2.6779116E1,3.4369923E1,2.129217E1,2.8662893E1,3.6468407E1,-8.621074E0,2.3811348E1],"categories":[],"categories_nodes":[],"categories_segments":[],"categories_sizes":[],"default_left":[true,true,true,false,false,false,false],"id":5,"left_children":[1,3,5,-1,-1,-1,-1],"loss_changes":[5.3830188E4,5.5176875E3,5.770253E4,0E0,0E0,0E0,0E0],"parents":[2147483647,0,0,1,1,2,2],"right_children":[2,4,6,-1,-1,-1,-1],"split_conditions":[-7.482746E0,-7.443615E1,-2.425188E1,8.598868E0,1.0940522E1,-2.5863223E0,7.1434045E0],"split_indices":[10,6,5,0,0,0,0],"split_type":[0,0,0,0,0,0,0],"sum_hessian":[1.309E3,5.47E2,7.62E2,1.51E2,3.96E2,5.9E1,7.03E2],"tree_param":{"num_deleted":"0","num_feature":"50","num_nodes":"7","size_leaf_vector":"0"}},{"base_weights":[1.8459251E1,2.085618E1,8.608056E0,2.6725277E1,1.6790592E1,1.0730002E1,-7.4520106E0],"categories":[],"categories_nodes":[],"categories_segments":[],"categories_sizes":[],"default_left":[true,true,true,false,false,false,false],"id":6,"left_children":[1,3,5,-1,-1,-1,-1],"loss_changes":[3.0021E4,2.4080688E4,8.667768E3,0E0,0E0,0E0,0E0],"parents":[2147483647,0,0,1,1,2,2],"right_children":[2,4,6,-1,-1,-1,-1],"split_conditions":[1.8461094E1,-3.11164E0,9.528806E2,8.017584E0,5.037178E0,3.2190008E0,-2.2356033E0],"split_indices":[42,15,0,0,0,0,0],"split_type":[0,0,0,0,0,0,0],"sum_hessian":[1.278E3,1.027E3,2.51E2,4.18E2,6.09E2,2.22E2,2.9E1],"tree_param":{"num_deleted":"0","num_feature":"50","num_nodes":"7","size_leaf_vector":"0"}},{"base_weights":[1.3614286E1,1.2607432E1,3.2871937E1,1.937064E1,1.0002737E1],"categories":[],"categories_nodes":[],"categories_segments":[],"categories_sizes":[],"default_left":[true,true,false,false,false],"id":7,"left_children":[1,3,-1,-1,-1],"loss_changes":[2.5974875E4,2.2619094E4,0E0,0E0,0E0],"parents":[2147483647,0,0,1,1],"right_children":[2,4,-1,-1,-1],"split_conditions":[4.412482E0,-7.641548E0,9.861582E0,5.811192E0,3.0008214E0],"split_indices":[30,16,0,0,0],"split_type":[0,0,0,0,0],"sum_hessian":[1.36E3,1.294E3,6.6E1,3.58E2,9.36E2],"tree_param":{"num_deleted":"0","num_feature":"50","num_nodes":"5","size_leaf_vector":"0"}},{"base_weights":[8.758037E0,5.553955E0,1.34265585E1,7.6164055E0,-1.6846498E1,1.4139675E1,7.474075E0],"categories":[],"categories_nodes":[],"categories_segments":[],"categories_sizes":[],"default_left":[true,true,true,false,false,false,false],"id":8,"left_children":[1,3,5,-1,-1,-1,-1],"loss_changes":[1.9834953E4,3.6672367E4,2.1907734E3,0E0,0E0,0E0,0E0],"parents":[2147483647,0,0,1,1,2,2],"right_children":[2,4,6,-1,-1,-1,-1],"split_conditions":[2.6848309E1,3.013868E1,2.433747E2,2.2849216E0,-5.05395E0,4.241903E0,2.2422225E0],"split_indices":[27,24,7,0,0,0,0],"split_type":[0,0,0,0,0,0,0],"sum_hessian":[1.33E3,7.9E2,5.4E2,7.24E2,6.6E1,4.81E2,5.9E1],"tree_param":{"num_deleted":"0","num_feature":"50","num_nodes":"7","size_leaf_vector":"0"}},{"base_weights":[5.3623695E0,6.662143E0,-2.9661996E0,1.5516899E1,5.5598044E0,-1.9480821E0,-1.1062196E1],"categories":[],"categories_nodes":[],"categories_segments":[],"categories_sizes":[],"default_left":[true,true,true,false,false,false,false],"id":9,"left_children":[1,3,5,-1,-1,-1,-1],"loss_changes":[1.3757012E4,1.0631246E4,1.3961903E3,0E0,0E0,0E0,0E0],"parents":[2147483647,0,0,1,1,2,2],"right_children":[2,4,6,-1,-1,-1,-1],"split_conditions":[5.851363E0,-2.6656246E-1,4.137704E0,4.65507E0,1.6679415E0,-5.844247E-1,-3.3186588E0],"split_indices":[15,25,16,0,0,0,0],"split_type":[0,0,0,0,0,0,0],"sum_hessian":[1.268E3,1.097E3,1.71E2,1.2E2,9.77E2,1.53E2,1.8E1],"tree_param":{"num_deleted":"0","num_feature":"50","num_nodes":"7","size_leaf_vector":"0"}},{"base_weights":[4.8433604E0,1.2025197E1,2.629807E0,1.4351536E1,2.4464335E0,7.011695E-1,1.0904857E1],"categories":[],"categories_nodes":[],"categories_segments":[],"categories_sizes":[],"default_left":[true,true,true,false,false,false,false],"id":10,"left_children":[1,3,5,-1,-1,-1,-1],"loss_changes":[2.0634967E4,6.783625E3,1.5872128E4,0E0,0E0,0E0,0E0],"parents":[2147483647,0,0,1,1,2,2],"right_children":[2,4,6,-1,-1,-1,-1],"split_conditions":[-2.7505135E1,9.322853E2,2.1221092E0,4.305461E0,7.339301E-1,2.1035086E-1,3.2714572E0],"split_indices":[11,0,21,0,0,0,0],"split_type":[0,0,0,0,0,0,0],"sum_hessian":[1.299E3,3.05E2,9.94E2,2.45E2,6E1,8.07E2,1.87E2],"tree_param":{"num_deleted":"0","num_feature":"50","num_nodes":"7","size_leaf_vector":"0"}},{"base_weights":[1.3114227E0,-3.7406235E0,2.9771216E0,-1.0047724E0,-8.514172E0,4.331164E0,-6.3631546E-1],"categories":[],"categories_nodes":[],"categories_segments":[],"categories_sizes":[],"default_left":[true,true,true,false,false,false,false],"id":11,"left_children":[1,3,5,-1,-1,-1,-1],"loss_changes":[1.1093939E4,4.261973E3,4.851467E3,0E0,0E0,0E0,0E0],"parents":[2147483647,0,0,1,1,2,2],"right_children":[2,4,6,-1,-1,-1,-1],"split_conditions":[1.2347208E1,8.255185E0,9.285069E0,-3.0143175E-1,-2.5542517E0,1.2993492E0,-1.9089465E-1],"split_indices":[32,32,47,0,0,0,0],"split_type":[0,0,0,0,0,0,0],"sum_hessian":[1.316E3,3.26E2,9.9E2,2.08E2,1.18E2,7.2E2,2.7E2],"tree_param":{"num_deleted":"0","num_feature":"50","num_nodes":"7","size_leaf_vector":"0"}},{"base_weights":[3.1853616E0,-3.1269433E0,5.3145857E0,-1.4124635E1,5.8663137E-2,8.8104755E-2,7.525659E0],"categories":[],"categories_nodes":[],"categories_segments":[],"categories_sizes":[],"default_left":[true,true,true,false,false,false,false],"id":12,"left_children":[1,3,5,-1,-1,-1,-1],"loss_changes":[1.7300861E4,1.1386982E4,1.1116336E4,0E0,0E0,0E0,0E0],"parents":[2147483647,0,0,1,1,2,2],"right_children":[2,4,6,-1,-1,-1,-1],"split_conditions":[-1.7804465E-1,3.003211E2,4.224623E1,-4.2373905E0,1.7598942E-2,2.6431428E-2,2.2576978E0],"split_indices":[36,2,17,0,0,0,0],"split_type":[0,0,0,0,0,0,0],"sum_hessian":[1.285E3,3.24E2,9.61E2,7.2E1,2.52E2,2.86E2,6.75E2],"tree_param":{"num_deleted":"0","num_feature":"50","num_nodes":"7","size_leaf_vector":"0"}},{"base_weights":[5.4589015E-1,1.739973E0,-6.209031E0,3.7759984E0,-3.7482885E-1,-9.068955E0,-4.952939E0],"categories":[],"categories_nodes":[],"categories_segments":[],"categories_sizes":[],"default_left":[true,true,true,false,false,false,false],"id":13,"left_children":[1,3,5,-1,-1,-1,-1],"loss_changes":[1.041586E4,4.724867E3,6.5199365E2,0E0,0E0,0E0,0E0],"parents":[2147483647,0,0,1,1,2,2],"right_children":[2,4,6,-1,-1,-1,-1],"split_conditions":[5.851363E0,2.5261578E1,1.105148E2,1.1327995E0,-1.12448655E-1,-2.7206867E0,-1.4858818E0],"split_indices":[15,27,2,0,0,0,0],"split_type":[0,0,0,0,0,0,0],"sum_hessian":[1.289E3,1.096E3,1.93E2,5.58E2,5.38E2,5.7E1,1.36E2],"tree_param":{"num_deleted":"0","num_feature":"50","num_nodes":"7","size_leaf_vector":"0"}},{"base_weights":[7.0211905E-1,8.532771E0,-2.8705448E-1,-1.4901912E0,1.0724634E1,2.0519302E0,-3.356374E0],"categories":[],"categories_nodes":[],"categories_segments":[],"categories_sizes":[],"default_left":[true,true,true,false,false,false,false],"id":14,"left_children":[1,3,5,-1,-1,-1,-1],"loss_changes":[9.669301E3,3.0916367E3,7.9685E3,0E0,0E0,0E0,0E0],"parents":[2147483647,0,0,1,1,2,2],"right_children":[2,4,6,-1,-1,-1,-1],"split_conditions":[4.24404E1,5.017669E2,-5.0220623E0,-4.470574E-1,3.2173903E0,6.1557907E-1,-1.0069122E0],"split_indices":[14,0,10,0,0,0,0],"split_type":[0,0,0,0,0,0,0],"sum_hessian":[1.247E3,1.39E2,1.108E3,2.5E1,1.14E2,6.29E2,4.79E2],"tree_param":{"num_deleted":"0","num_feature":"50","num_nodes":"7","size_leaf_vector":"0"}},{"base_weights":[2.178301E0,7.3123474E0,5.9959865E-1,5.0948853E0,9.466699E0,2.0834875E0,-3.2346182E0],"categories":[],"categories_nodes":[],"categories_segments":[],"categories_sizes":[],"default_left":[true,true,true,false,false,false,false],"id":15,"left_children":[1,3,5,-1,-1,-1,-1],"loss_changes":[1.0337763E4,1.3849268E3,5.565431E3,0E0,0E0,0E0,0E0],"parents":[2147483647,0,0,1,1,2,2],"right_children":[2,4,6,-1,-1,-1,-1],"split_conditions":[-1.5769693E0,1.0906092E2,8.2952747E2,1.5284656E0,2.8400097E0,6.2504625E-1,-9.703855E-1],"split_indices":[40,2,1,0,0,0,0],"split_type":[0,0,0,0,0,0,0],"sum_hessian":[1.275E3,2.99E2,9.76E2,1.49E2,1.5E2,7.04E2,2.72E2],"tree_param":{"num_deleted":"0","num_feature":"50","num_nodes":"7","size_leaf_vector":"0"}},{"base_weights":[6.625323E-1,1.7795509E0,-1.3372822E0,7.021909E0,1.4636496E0,-2.7194905E0,3.9999166E0],"categories":[],"categories_nodes":[],"categories_segments":[],"categories_sizes":[],"default_left":[true,true,true,false,false,false,false],"id":16,"left_children":[1,3,5,-1,-1,-1,-1],"loss_changes":[2.8348762E3,1.3377612E3,3.3674675E3,0E0,0E0,0E0,0E0],"parents":[2147483647,0,0,1,1,2,2],"right_children":[2,4,6,-1,-1,-1,-1],"split_conditions":[9.2522833E2,6.70292E1,1.4002659E3,2.1065729E0,4.390949E-1,-8.158472E-1,1.199975E0],"split_indices":[0,2,0,0,0,0,0],"split_type":[0,0,0,0,0,0,0],"sum_hessian":[1.267E3,8.13E2,4.54E2,4.5E1,7.68E2,3.61E2,9.3E1],"tree_param":{"num_deleted":"0","num_feature":"50","num_nodes":"7","size_leaf_vector":"0"}},{"base_weights":[-1.2490445E-1,-3.89287E0,2.4329302E0,-2.707981E0,-8.163681E0,-2.4419005E0,3.709495E0],"categories":[],"categories_nodes":[],"categories_segments":[],"categories_sizes":[],"default_left":[true,true,true,false,false,false,false],"id":17,"left_children":[1,3,5,-1,-1,-1,-1],"loss_changes":[1.2895253E4,2.7155898E3,4.968819E3,0E0,0E0,0E0,0E0],"parents":[2147483647,0,0,1,1,2,2],"right_children":[2,4,6,-1,-1,-1,-1],"split_conditions":[-5.3626604E0,-1.4012489E-1,6.9382776E2,-8.123944E-1,-2.4491043E0,-7.325702E-1,1.1128485E0],"split_indices":[15,35,1,0,0,0,0],"split_type":[0,0,0,0,0,0,0],"sum_hessian":[1.336E3,5.4E2,7.96E2,4.24E2,1.16E2,1.65E2,6.31E2],"tree_param":{"num_deleted":"0","num_feature":"50","num_nodes":"7","size_leaf_vector":"0"}},{"base_weights":[9.612738E-2,1.2644914E0,-4.6950207E0,-7.907704E-1,4.304407E0,-3.0030928E0,-6.9123163E0],"categories":[],"categories_nodes":[],"categories_segments":[],"categories_sizes":[],"default_left":[true,true,true,false,false,false,false],"id":18,"left_children":[1,3,5,-1,-1,-1,-1],"loss_changes":[7.1095513E3,6.3824307E3,9.133662E2,0E0,0E0,0E0,0E0],"parents":[2147483647,0,0,1,1,2,2],"right_children":[2,4,6,-1,-1,-1,-1],"split_conditions":[2.3354542E1,8.1356705E1,8.197921E2,-2.3723114E-1,1.2913222E0,-9.0092784E-1,-2.073695E0],"split_indices":[29,12,1,0,0,0,0],"split_type":[0,0,0,0,0,0,0],"sum_hessian":[1.268E3,1.02E3,2.48E2,6.09E2,4.11E2,1.42E2,1.06E2],"tree_param":{"num_deleted":"0","num_feature":"50","num_nodes":"7","size_leaf_vector":"0"}},{"base_weights":[-2.4284742E0,-4.280352E0,1.4840152E0,-4.559606E0,6.9340644E0,-1.0373901E-1,2.8381085E0],"categories":[],"categories_nodes":[],"categories_segments":[],"categories_sizes":[],"default_left":[true,true,true,false,false,false,false],"id":19,"left_children":[1,3,5,-1,-1,-1,-1],"loss_changes":[9.055922E3,2.6872754E3,8.645813E2,0E0,0E0,0E0,0E0],"parents":[2147483647,0,0,1,1,2,2],"right_children":[2,4,6,-1,-1,-1,-1],"split_conditions":[6.1833168E1,2.2613617E1,-2.5368161E0,-1.3678819E0,2.0802195E0,-3.1121703E-2,8.514326E-1],"split_indices":[17,5,21,0,0,0,0],"split_type":[0,0,0,0,0,0,0],"sum_hessian":[1.248E3,8.47E2,4.01E2,8.27E2,2E1,1.85E2,2.16E2],"tree_param":{"num_deleted":"0","num_feature":"50","num_nodes":"7","size_leaf_vector":"0"}},{"base_weights":[3.5654294E-1,2.0340486E0,-8.360798E-1,1.6678872E0,5.784826E0,-4.2468085E0,2.8822398E-1],"categories":[],"categories_nodes":[],"categories_segments":[],"categories_sizes":[],"default_left":[true,true,true,false,false,false,false],"id":20,"left_children":[1,3,5,-1,-1,-1,-1],"loss_changes":[2.56651E3,7.2236816E2,2.8772456E3,0E0,0E0,0E0,0E0],"parents":[2147483647,0,0,1,1,2,2],"right_children":[2,4,6,-1,-1,-1,-1],"split_conditions":[-2.3295805E0,3.3468222E2,-7.3165274E-1,5.003662E-1,1.7354478E0,-1.2740426E0,8.64672E-2],"split_indices":[20,2,20,0,0,0,0],"split_type":[0,0,0,0,0,0,0],"sum_hessian":[1.281E3,5.32E2,7.49E2,4.86E2,4.6E1,1.85E2,5.64E2],"tree_param":{"num_deleted":"0","num_feature":"50","num_nodes":"7","size_leaf_vector":"0"}},{"base_weights":[9.643996E-1,-3.3748102E-1,8.613014E0,6.859609E-1,-4.556952E0,9.3593645E0,5.088922E0],"categories":[],"categories_nodes":[],"categories_segments":[],"categories_sizes":[],"default_left":[true,true,true,false,false,false,false],"id":21,"left_children":[1,3,5,-1,-1,-1,-1],"loss_changes":[1.2459843E4,4.623796E3,4.3106836E2,0E0,0E0,0E0,0E0],"parents":[2147483647,0,0,1,1,2,2],"right_children":[2,4,6,-1,-1,-1,-1],"split_conditions":[3.1165592E1,3.4988475E-1,1.2510854E3,2.0578827E-1,-1.3670857E0,2.8078094E0,1.5266767E0],"split_indices":[27,31,0,0,0,0,0],"split_type":[0,0,0,0,0,0,0],"sum_hessian":[1.25E3,1.069E3,1.81E2,8.61E2,2.08E2,1.48E2,3.3E1],"tree_param":{"num_deleted":"0","num_feature":"50","num_nodes":"7","size_leaf_vector":"0"}},{"base_weights":[5.027074E-1,1.6428391E0,-5.152981E0,-1.232986E0,3.1086981E0,-3.3737843E0,-8.841097E0],"categories":[],"categories_nodes":[],"categories_segments":[],"categories_sizes":[],"default_left":[true,true,true,false,false,false,false],"id":22,"left_children":[1,3,5,-1,-1,-1,-1],"loss_changes":[8.339578E3,4.539769E3,1.3941011E3,0E0,0E0,0E0,0E0],"parents":[2147483647,0,0,1,1,2,2],"right_children":[2,4,6,-1,-1,-1,-1],"split_conditions":[2.1658124E-2,-1.3546603E0,8.061383E2,-3.6989582E-1,9.326095E-1,-1.0121354E0,-2.6523292E0],"split_indices":[41,40,0,0,0,0,0],"split_type":[0,0,0,0,0,0,0],"sum_hessian":[1.291E3,1.075E3,2.16E2,3.63E2,7.12E2,1.47E2,6.9E1],"tree_param":{"num_deleted":"0","num_feature":"50","num_nodes":"7","size_leaf_vector":"0"}},{"base_weights":[-1.838322E-1,-1.3535904E0,3.931268E0,-5.427244E0,-3.447859E-1,8.163007E0,-8.5834444E-1],"categories":[],"categories_nodes":[],"categories_segments":[],"categories_sizes":[],"default_left":[true,true,true,false,false,false,false],"id":23,"left_children":[1,3,5,-1,-1,-1,-1],"loss_changes":[6.2630947E3,4.161073E3,5.844302E3,0E0,0E0,0E0,0E0],"parents":[2147483647,0,0,1,1,2,2],"right_children":[2,4,6,-1,-1,-1,-1],"split_conditions":[5.1220957E-2,-2.6948795E-1,6.313901E0,-1.6281734E0,-1.0343578E-1,2.4489021E0,-2.5750333E-1],"split_indices":[36,30,16,0,0,0,0],"split_type":[0,0,0,0,0,0,0],"sum_hessian":[1.299E3,1.012E3,2.87E2,2E2,8.12E2,1.52E2,1.35E2],"tree_param":{"num_deleted":"0","num_feature":"50","num_nodes":"7","size_leaf_vector":"0"}},{"base_weights":[5.986146E-2,-2.192232E0,2.5928907E0,-1.1647975E0,-4.8829165E0,5.189108E0,-1.19297296E-1],"categories":[],"categories_nodes":[],"categories_segments":[],"categories_sizes":[],"default_left":[true,true,true,false,false,false,false],"id":24,"left_children":[1,3,5,-1,-1,-1,-1],"loss_changes":[7.1877983E3,1.8382346E3,4.1761865E3,0E0,0E0,0E0,0E0],"parents":[2147483647,0,0,1,1,2,2],"right_children":[2,4,6,-1,-1,-1,-1],"split_conditions":[-6.6479087E-1,4.5634384E1,5.253743E-1,-3.4943926E-1,-1.464875E0,1.5567324E0,-3.578919E-2],"split_indices":[45,19,25,0,0,0,0],"split_type":[0,0,0,0,0,0,0],"sum_hessian":[1.258E3,6.66E2,5.92E2,4.83E2,1.83E2,3.02E2,2.9E2],"tree_param":{"num_deleted":"0","num_feature":"50","num_nodes":"7","size_leaf_vector":"0"}},{"base_weights":[1.0445913E0,-2.2704556E0,2.8268185E0,-7.510637E-1,-4.6190505E0,3.3242562E0,5.15472E-1],"categories":[],"categories_nodes":[],"categories_segments":[],"categories_sizes":[],"default_left":[true,true,true,false,false,false,false],"id":25,"left_children":[1,3,5,-1,-1,-1,-1],"loss_changes":[7.5334224E3,1.5880532E3,9.514297E2,0E0,0E0,0E0,0E0],"parents":[2147483647,0,0,1,1,2,2],"right_children":[2,4,6,-1,-1,-1,-1],"split_conditions":[-7.3361244E0,-7.81132E-1,2.743524E0,-2.2531912E-1,-1.3857152E0,9.972769E-1,1.546416E-1],"split_indices":[16,45,15,0,0,0,0],"split_type":[0,0,0,0,0,0,0],"sum_hessian":[1.273E3,4.45E2,8.28E2,2.71E2,1.74E2,6.81E2,1.47E2],"tree_param":{"num_deleted":"0","num_feature":"50","num_nodes":"7","size_leaf_vector":"0"}},{"base_weights":[1.3208042E0,1.985199E-1,4.3507233E0,-1.4353591E0,3.4500353E0,1.7163467E0,5.146468E0],"categories":[],"categories_nodes":[],"categories_segments":[],"categories_sizes":[],"default_left":[true,true,true,false,false,false,false],"id":26,"left_children":[1,3,5,-1,-1,-1,-1],"loss_changes":[4.3652896E3,4.988155E3,7.185801E2,0E0,0E0,0E0,0E0],"parents":[2147483647,0,0,1,1,2,2],"right_children":[2,4,6,-1,-1,-1,-1],"split_conditions":[2.8580372E1,-3.3167726E-1,-6.429284E1,-4.3060777E-1,1.0350107E0,5.14904E-1,1.5439405E0],"split_indices":[27,45,6,0,0,0,0],"split_type":[0,0,0,0,0,0,0],"sum_hessian":[1.283E3,9.37E2,3.46E2,6.24E2,3.13E2,8.1E1,2.65E2],"tree_param":{"num_deleted":"0","num_feature":"50","num_nodes":"7","size_leaf_vector":"0"}},{"base_weights":[1.5913418E-1,-5.653962E-1,9.221653E0,1.1951871E-1,-6.1130743E0],"categories":[],"categories_nodes":[],"categories_segments":[],"categories_sizes":[],"default_left":[true,true,false,false,false],"id":27,"left_children":[1,3,-1,-1,-1],"loss_changes":[8.514841E3,4.564155E3,0E0,0E0,0E0],"parents":[2147483647,0,0,1,1],"right_children":[2,4,-1,-1,-1],"split_conditions":[2.0831297E-1,4.9768303E1,2.766496E0,3.5855614E-2,-1.8339224E0],"split_indices":[41,19,0,0,0],"split_type":[0,0,0,0,0],"sum_hessian":[1.295E3,1.2E3,9.5E1,1.069E3,1.31E2],"tree_param":{"num_deleted":"0","num_feature":"50","num_nodes":"5","size_leaf_vector":"0"}},{"base_weights":[-9.889628E-1,4.6191108E-1,-3.844547E0,-2.6585078E0,1.494794E0,-4.475572E0,-1.9907401E0],"categories":[],"categories_nodes":[],"categories_segments":[],"categories_sizes":[],"default_left":[true,true,true,false,false,false,false],"id":28,"left_children":[1,3,5,-1,-1,-1,-1],"loss_changes":[5.288362E3,2.7338782E3,4.9410352E2,0E0,0E0,0E0,0E0],"parents":[2147483647,0,0,1,1,2,2],"right_children":[2,4,6,-1,-1,-1,-1],"split_conditions":[-2.5205606E-1,6.8794945E1,1.6332825E2,-7.975524E-1,4.4843823E-1,-1.3426716E0,-5.9722203E-1],"split_indices":[21,12,2,0,0,0,0],"split_type":[0,0,0,0,0,0,0],"sum_hessian":[1.275E3,8.46E2,4.29E2,2.1E2,6.36E2,3.19E2,1.1E2],"tree_param":{"num_deleted":"0","num_feature":"50","num_nodes":"7","size_leaf_vector":"0"}},{"base_weights":[1.8204099E-1,-2.4734402E0,3.5567837E0,9.2509294E-1,-5.0021462E0,6.0132537E0,1.3866502E0],"categories":[],"categories_nodes":[],"categories_segments":[],"categories_sizes":[],"default_left":[true,true,true,false,false,false,false],"id":29,"left_children":[1,3,5,-1,-1,-1,-1],"loss_changes":[1.164091E4,6.252387E3,3.0409185E3,0E0,0E0,0E0,0E0],"parents":[2147483647,0,0,1,1,2,2],"right_children":[2,4,6,-1,-1,-1,-1],"split_conditions":[4.2976906E1,-3.828887E-3,2.3814543E2,2.775279E-1,-1.500644E0,1.8039762E0,4.159951E-1],"split_indices":[19,30,2,0,0,0,0],"split_type":[0,0,0,0,0,0,0],"sum_hessian":[1.297E3,7.26E2,5.71E2,3.1E2,4.16E2,2.67E2,3.04E2],"tree_param":{"num_deleted":"0","num_feature":"50","num_nodes":"7","size_leaf_vector":"0"}},{"base_weights":[1.472572E0,-5.0932944E-1,4.8961763E0,-1.3881713E0,1.9201325E0,8.015349E0,4.5871338E-1],"categories":[],"categories_nodes":[],"categories_segments":[],"categories_sizes":[],"default_left":[true,true,true,false,false,false,false],"id":30,"left_children":[1,3,5,-1,-1,-1,-1],"loss_changes":[8.6061875E3,1.7192964E3,6.4324893E3,0E0,0E0,0E0,0E0],"parents":[2147483647,0,0,1,1,2,2],"right_children":[2,4,6,-1,-1,-1,-1],"split_conditions":[3.8672134E1,9.3897296E2,4.7624256E1,-4.1645142E-1,5.760398E-1,2.404605E0,1.3761403E-1],"split_indices":[22,0,19,0,0,0,0],"split_type":[0,0,0,0,0,0,0],"sum_hessian":[1.267E3,8.03E2,4.64E2,5.9E2,2.13E2,2.72E2,1.92E2],"tree_param":{"num_deleted":"0","num_feature":"50","num_nodes":"7","size_leaf_vector":"0"}},{"base_weights":[7.277556E-1,-5.5649567E-1,4.412993E0,-2.097443E0,2.428141E0,8.898221E0,2.200601E0],"categories":[],"categories_nodes":[],"categories_segments":[],"categories_sizes":[],"default_left":[true,true,true,false,false,false,false],"id":31,"left_children":[1,3,5,-1,-1,-1,-1],"loss_changes":[6.1171953E3,4.415696E3,3.294728E3,0E0,0E0,0E0,0E0],"parents":[2147483647,0,0,1,1,2,2],"right_children":[2,4,6,-1,-1,-1,-1],"split_conditions":[-4.092676E-3,4.16184E1,9.0513245E1,-6.2923294E-1,7.284424E-1,2.6694665E0,6.6018033E-1],"split_indices":[41,19,2,0,0,0,0],"split_type":[0,0,0,0,0,0,0],"sum_hessian":[1.291E3,9.58E2,3.33E2,6.32E2,3.26E2,1.09E2,2.24E2],"tree_param":{"num_deleted":"0","num_feature":"50","num_nodes":"7","size_leaf_vector":"0"}},{"base_weights":[2.0598274E-1,-2.322536E0,1.8892583E0,-3.0397666E0,4.692245E0,-2.6267939E0,2.4908462E0],"categories":[],"categories_nodes":[],"categories_segments":[],"categories_sizes":[],"default_left":[true,true,true,false,false,false,false],"id":32,"left_children":[1,3,5,-1,-1,-1,-1],"loss_changes":[5.580002E3,2.6506199E3,2.1446665E3,0E0,0E0,0E0,0E0],"parents":[2147483647,0,0,1,1,2,2],"right_children":[2,4,6,-1,-1,-1,-1],"split_conditions":[1.5446284E1,3.0886646E2,-3.803978E1,-9.1193E-1,1.4076736E0,-7.880382E-1,7.472539E-1],"split_indices":[37,2,5,0,0,0,0],"split_type":[0,0,0,0,0,0,0],"sum_hessian":[1.309E3,5.23E2,7.86E2,4.75E2,4.8E1,9.2E1,6.94E2],"tree_param":{"num_deleted":"0","num_feature":"50","num_nodes":"7","size_leaf_vector":"0"}},{"base_weights":[-1.231642E-1,-9.9831676E-1,4.381037E0,1.6783055E0,-1.8271899E0,3.313173E0,6.9155016E0],"categories":[],"categories_nodes":[],"categories_segments":[],"categories_sizes":[],"default_left":[true,true,true,false,false,false,false],"id":33,"left_children":[1,3,5,-1,-1,-1,-1],"loss_changes":[5.3061797E3,2.5034067E3,5.698032E2,0E0,0E0,0E0,0E0],"parents":[2147483647,0,0,1,1,2,2],"right_children":[2,4,6,-1,-1,-1,-1],"split_conditions":[1.0539283E1,1.216189E1,8.0579004E2,5.034917E-1,-5.48157E-1,9.93952E-1,2.0746505E0],"split_indices":[47,29,0,0,0,0,0],"split_type":[0,0,0,0,0,0,0],"sum_hessian":[1.344E3,1.126E3,2.18E2,2.66E2,8.6E2,1.55E2,6.3E1],"tree_param":{"num_deleted":"0","num_feature":"50","num_nodes":"7","size_leaf_vector":"0"}}]},"name":"gbtree"},"learner_model_param":{"base_score":"5E-1","num_class":"0","num_feature":"50"},"objective":{"name":"reg:squarederror","reg_loss_param":{"scale_pos_weight":"1"}}},"version":[1,5,0]}