{"learner":{"attributes":{"best_iteration":"25","best_ntree_limit":"26"},"feature_names":["PC_001","PC_002"],"feature_types":["float","float"],"gradient_booster":{"model":{"gbtree_model_param":{"num_trees":"26","size_leaf_vector":"0"},"tree_info":[0,0,0,0,0,0,0,0,0,0,0,0,0,0,0,0,0,0,0,0,0,0,0,0,0,0],"trees":[{"base_weights":[2.1485959E2,2.091521E2,2.2453493E2,2.08154E2,2.2668309E2,2.1411955E2,2.369677E2,2.0218108E2,2.1754897E2],"categories":[],"categories_nodes":[],"categories_segments":[],"categories_sizes":[],"default_left":[true,true,true,false,false,true,false,false,false],"id":0,"left_children":[1,3,5,-1,-1,7,-1,-1,-1],"loss_changes":[2.97696E5,2.176E4,2.47352E5,0E0,0E0,7.724E3,0E0,0E0,0E0],"parents":[2147483647,0,0,1,1,2,2,5,5],"right_children":[2,4,6,-1,-1,8,-1,-1,-1],"split_conditions":[1.8079735E1,1.01304E2,8.295914E0,6.2446205E1,6.800493E1,3.0064053E1,7.109031E1,6.0654324E1,6.5264694E1],"split_indices":[0,1,1,0,0,0,0,0,0],"split_type":[0,0,0,0,0,0,0,0,0],"sum_hessian":[6.24E3,3.939E3,2.301E3,3.739E3,2E2,1.262E3,1.039E3,2.95E2,9.67E2],"tree_param":{"num_deleted":"0","num_feature":"2","num_nodes":"9","size_leaf_vector":"0"}},{"base_weights":[1.5045418E2,1.4858028E2,1.6581383E2,1.457245E2,1.5432605E2,1.5822731E2,1.7538667E2,1.8110385E2,1.5113742E2,1.4301854E2,1.5456085E2],"categories":[],"categories_nodes":[],"categories_segments":[],"categories_sizes":[],"default_left":[true,true,true,false,true,false,false,false,true,false,false],"id":1,"left_children":[1,3,5,-1,7,-1,-1,-1,9,-1,-1],"loss_changes":[1.54992E5,6.8936E4,2.0908E4,0E0,1.2914E5,0E0,0E0,0E0,2.3588E4,0E0,0E0],"parents":[2147483647,0,0,1,1,2,2,4,4,8,8],"right_children":[2,4,6,-1,8,-1,-1,-1,10,-1,-1],"split_conditions":[9.2834465E1,1.8079735E1,7.5880356E1,4.3717354E1,1.8185993E1,4.7468193E1,5.2616005E1,5.4331158E1,3.829699E1,4.2905563E1,4.6368256E1],"split_indices":[1,0,0,0,0,0,0,0,0,0,0],"split_type":[0,0,0,0,0,0,0,0,0,0,0],"sum_hessian":[6.24E3,5.571E3,6.69E2,3.739E3,1.832E3,3.83E2,2.86E2,1.89E2,1.643E3,5E2,1.143E3],"tree_param":{"num_deleted":"0","num_feature":"2","num_nodes":"11","size_leaf_vector":"0"}},{"base_weights":[1.05363976E2,1.0403981E2,1.16219055E2,1.0108103E2,1.07047966E2,1.17524445E2,8.996502E1,1.0330221E2,9.814667E1,1.0422005E2,1.1388114E2,1.1272272E2,1.2295399E2,9.962842E1,1.0582895E2,9.143692E1,1.0330864E2,9.1810974E1,1.050035E2,1.2265299E2,1.0829451E2,1.08407394E2,1.2873972E2,1.0623376E2,8.217962E1,9.413767E1,7.686901E1,9.307289E1,1.0498101E2,1.0526289E2,6.900036E1,1.1032228E2,1.2730917E2,9.70204E1,1.1166146E2,9.508798E1,7.6181564E1,6.767547E1,9.029125E1,1.17700294E2,1.0265284E2,1.0563386E2,8.336799E1],"categories":[],"categories_nodes":[],"categories_segments":[],"categories_sizes":[],"default_left":[true,true,true,true,true,true,false,true,true,true,true,false,true,false,true,true,true,false,true,true,true,false,false,false,false,true,true,false,true,true,false,false,false,false,false,false,false,false,false,false,false,false,false],"id":2,"left_children":[1,3,5,7,9,11,-1,13,15,17,19,-1,21,-1,23,25,27,-1,29,31,33,-1,-1,-1,-1,35,37,-1,39,41,-1,-1,-1,-1,-1,-1,-1,-1,-1,-1,-1,-1,-1],"loss_changes":[7.7616E4,3.8776E4,1.2388E4,8.288E3,4.1194E4,2.695E3,0E0,4.216E3,3.3432E4,9.356E3,2.5579E4,0E0,1.01985E4,0E0,1.35E2,1.4285E4,2.0745E3,0E0,9.836E3,3.2365E3,7.8805E3,0E0,0E0,0E0,0E0,5.545E2,5.1186875E3,0E0,5.3005E3,5.944E3,0E0,0E0,0E0,0E0,0E0,0E0,0E0,0E0,0E0,0E0,0E0,0E0,0E0],"parents":[2147483647,0,0,1,1,2,2,3,3,4,4,5,5,7,7,8,8,9,9,10,10,12,12,14,14,15,15,16,16,18,18,19,19,20,20,25,25,26,26,28,28,29,29],"right_children":[2,4,6,8,10,12,-1,14,16,18,20,-1,22,-1,24,26,28,-1,30,32,34,-1,-1,-1,-1,36,38,-1,40,42,-1,-1,-1,-1,-1,-1,-1,-1,-1,-1,-1,-1,-1],"split_conditions":[9.2834465E1,-3.4915146E1,1.7747937E2,-3.4314396E1,4.7176394E0,7.5880356E1,2.6989508E1,-5.362264E1,-7.566275E1,-8.837352E1,1.2418733E1,3.381682E1,1.410575E2,2.9888527E1,-4.4040504E1,-7.8347626E1,-1.9467773E1,2.7543293E1,3.850478E0,9.023811E0,2.9040037E1,3.252222E1,3.8621918E1,3.1870129E1,2.4653887E1,5.916623E1,-7.710672E1,2.792187E1,-1.1051273E1,9.759665E1,2.0700108E1,3.3096687E1,3.8192753E1,2.9106121E1,3.349844E1,2.8526396E1,2.285447E1,2.030264E1,2.7087378E1,3.531009E1,3.0795853E1,3.1690159E1,2.5010397E1],"split_indices":[1,0,1,1,1,0,0,1,0,1,1,0,1,0,0,0,1,0,1,1,1,0,0,0,0,1,0,0,1,0,0,0,0,0,0,0,0,0,0,0,0,0,0],"split_type":[0,0,0,0,0,0,0,0,0,0,0,0,0,0,0,0,0,0,0,0,0,0,0,0,0,0,0,0,0,0,0,0,0,0,0,0,0,0,0,0,0,0,0],"sum_hessian":[6.24E3,5.571E3,6.69E2,2.826E3,2.745E3,6.34E2,3.5E1,1.589E3,1.237E3,1.953E3,7.92E2,3.48E2,2.86E2,6.64E2,9.25E2,5.46E2,6.91E2,1.23E2,1.83E3,3E2,4.92E2,8.7E1,1.99E2,9.06E2,1.9E1,4.56E2,9E1,1.05E2,5.86E2,1.815E3,1.5E1,8.9E1,2.11E2,1.2E2,3.72E2,4.29E2,2.7E1,5.7E1,3.3E1,8.3E1,5.03E2,1.781E3,3.4E1],"tree_param":{"num_deleted":"0","num_feature":"2","num_nodes":"43","size_leaf_vector":"0"}},{"base_weights":[7.385893E1,7.199094E1,7.775233E1,7.099465E1,7.576919E1,7.1666794E1,8.1647385E1,7.2172714E1,6.6375046E1,8.245891E1,7.29756E1,6.667235E1,7.475103E1,8.67726E1,7.9623146E1,7.106932E1,7.9884926E1,5.3934216E1,6.711168E1,7.703277E1,9.128727E1,7.385459E1,4.6910717E1,7.03964E1,4.5247395E1,7.632596E1,6.533333E1,6.873872E1,8.358347E1,7.25223E1,6.7643875E1,6.969009E1,6.2322906E1,8.155771E1,7.1437614E1,7.451408E1,6.228692E1,7.238239E1,8.426339E1,5.9136234E1,7.1182335E1,8.048824E1,8.911858E1,7.178014E1,8.377403E1,6.0934982E1,6.9521355E1,4.7431797E1,7.046184E1,3.35318E1,6.4246895E1,7.20569E1,4.9594013E1,6.667545E1,5.05559E1,7.401173E1,5.2867874E1],"categories":[],"categories_nodes":[],"categories_segments":[],"categories_sizes":[],"default_left":[true,true,true,true,true,true,true,true,true,true,true,true,true,false,true,true,false,false,true,false,false,true,false,true,false,true,false,true,true,true,true,true,true,false,true,false,true,true,false,false,false,false,false,false,false,false,false,false,false,false,false,false,false,false,false,false,false],"id":3,"left_children":[1,3,5,7,9,11,13,15,17,19,21,23,25,-1,27,29,-1,-1,31,-1,-1,33,-1,35,-1,37,-1,39,41,43,45,47,49,-1,51,-1,53,55,-1,-1,-1,-1,-1,-1,-1,-1,-1,-1,-1,-1,-1,-1,-1,-1,-1,-1,-1],"loss_changes":[3.9788E4,1.0548E4,4.1816E4,1.3518E4,1.0204E4,7.2315E3,5.7375E3,1.7034E4,2.7585E3,4.848125E3,1.0763E4,2.17085E4,2.1625E3,0E0,3.24465E4,6.761E3,0E0,0E0,3.71975E3,0E0,0E0,5.32625E3,0E0,4.17425E3,0E0,6.64075E3,0E0,1.468875E3,3.877E3,7.614E3,4.7445E3,3.803875E3,1.1029375E4,0E0,2.703E3,0E0,1.5199375E3,4.958125E3,0E0,0E0,0E0,0E0,0E0,0E0,0E0,0E0,0E0,0E0,0E0,0E0,0E0,0E0,0E0,0E0,0E0,0E0,0E0],"parents":[2147483647,0,0,1,1,2,2,3,3,4,4,5,5,6,6,7,7,8,8,9,9,10,10,11,11,12,12,14,14,15,15,18,18,21,21,23,23,25,25,27,27,28,28,29,29,30,30,31,31,32,32,34,34,36,36,37,37],"right_children":[2,4,6,8,10,12,14,16,18,20,22,24,26,-1,28,30,-1,-1,32,-1,-1,34,-1,36,-1,38,-1,40,42,44,46,48,50,-1,52,-1,54,56,-1,-1,-1,-1,-1,-1,-1,-1,-1,-1,-1,-1,-1,-1,-1,-1,-1,-1,-1],"split_conditions":[5.1054864E0,3.324887E1,-2.1758945E1,-8.341115E-1,-6.1060997E1,2.1901226E1,2.0264606E1,-3.0060993E1,-9.265001E1,-6.921858E1,9.759665E1,2.1420494E1,-3.8691372E1,2.603178E1,5.0279316E1,-3.4314396E1,2.3965479E1,1.6180265E1,-3.9772835E1,2.310983E1,2.7386183E1,4.2587967E1,1.40732155E1,1.4839474E1,1.3574219E1,-5.649199E1,1.9599998E1,2.6113647E1,1.410575E2,-3.638431E1,-1.0206923E2,4.3536282E-1,8.369972E0,2.4467314E1,7.475039E-1,2.2354223E1,-5.1419285E1,1.731463E2,2.5279018E1,1.7740871E1,2.1354702E1,2.4146475E1,2.6735577E1,2.1534044E1,2.5132212E1,1.8280495E1,2.0856407E1,1.422954E1,2.1138552E1,1.005954E1,1.9274069E1,2.1617071E1,1.4878204E1,2.0002636E1,1.5166771E1,2.2203518E1,1.5860363E1],"split_indices":[1,0,0,0,1,1,0,0,1,1,0,1,0,0,0,1,0,0,1,0,0,0,0,1,0,0,0,1,1,1,0,0,0,0,1,0,0,1,0,0,0,0,0,0,0,0,0,0,0,0,0,0,0,0,0,0,0],"split_type":[0,0,0,0,0,0,0,0,0,0,0,0,0,0,0,0,0,0,0,0,0,0,0,0,0,0,0,0,0,0,0,0,0,0,0,0,0,0,0,0,0,0,0,0,0,0,0,0,0,0,0,0,0,0,0,0,0],"sum_hessian":[6.24E3,4.23E3,2.01E3,3.363E3,8.67E2,7.92E2,1.218E3,2.668E3,6.95E2,2.47E2,6.2E2,3.11E2,4.81E2,3.33E2,8.85E2,2.343E3,3.25E2,4.3E1,6.52E2,1.59E2,8.8E1,5.98E2,2.2E1,2.63E2,4.8E1,4.06E2,7.5E1,2.41E2,6.44E2,1.631E3,7.12E2,4.15E2,2.37E2,1.35E2,4.63E2,1.69E2,9.4E1,2.78E2,1.28E2,5.4E1,1.87E2,4.23E2,2.21E2,1.537E3,9.4E1,1.63E2,5.49E2,1.6E1,3.99E2,1.6E1,2.21E2,4.48E2,1.5E1,6.5E1,2.9E1,2.54E2,2.4E1],"tree_param":{"num_deleted":"0","num_feature":"2","num_nodes":"57","size_leaf_vector":"0"}},{"base_weights":[5.1795185E1,5.109985E1,5.7500572E1,4.8679855E1,5.2185078E1,5.809448E1,4.5427494E1,5.010067E1,4.3094223E1,5.0998272E1,5.5003647E1,3.6494946E1,5.149899E1,4.6152214E1,5.132111E1,5.8308155E1,4.084657E1,5.0009026E1,5.3418137E1,5.9892555E1,5.2502228E1,6.0485703E1,4.4284584E1,6.121921E1,5.005669E1,4.321818E1,3.6119793E1,5.1864624E1,4.6982643E1,6.115184E1,5.1031754E1,5.3893887E1,6.2770348E1,5.0119274E1,5.778218E1,3.2487755E1,4.5665123E1,5.6548874E1,6.9071754E1,5.050222E1,3.7182774E1,4.0974556E1,5.501496E1,4.0750114E1,3.240167E1,4.9157127E1,5.4312534E1,3.245651E1,4.784442E1,5.2038315E1,6.4833855E1,5.1647366E1,3.3449383E1,5.632676E1,4.7782284E1,5.003431E1,6.0327877E1],"categories":[],"categories_nodes":[],"categories_segments":[],"categories_sizes":[],"default_left":[true,true,true,true,true,false,true,true,true,true,true,false,false,true,true,false,true,true,true,true,true,false,true,true,true,true,true,true,true,true,true,false,false,true,true,false,false,false,false,false,false,false,false,false,false,false,false,false,false,false,false,false,false,false,false,false,false],"id":4,"left_children":[1,3,5,7,9,-1,11,13,15,17,19,-1,-1,21,23,-1,25,27,29,31,33,-1,35,37,39,41,43,45,47,49,51,-1,-1,53,55,-1,-1,-1,-1,-1,-1,-1,-1,-1,-1,-1,-1,-1,-1,-1,-1,-1,-1,-1,-1,-1,-1],"loss_changes":[2.1821E4,1.2093E4,2.16525E3,1.164975E4,1.0017E4,0E0,7.296875E1,4.286E3,9.9288125E3,3.818E3,1.058875E4,0E0,0E0,6.3160625E3,1.002675E4,0E0,1.9925625E3,8.4575E3,1.1127E4,3.056125E3,6.553E3,0E0,3.4185E3,2.7490625E2,3.4735E3,3.1980938E3,6.0784375E2,5.237E3,7.810875E3,2.5655625E3,4.7235E3,0E0,0E0,4.924625E3,1.4588125E3,0E0,0E0,0E0,0E0,0E0,0E0,0E0,0E0,0E0,0E0,0E0,0E0,0E0,0E0,0E0,0E0,0E0,0E0,0E0,0E0,0E0,0E0],"parents":[2147483647,0,0,1,1,2,2,3,3,4,4,6,6,7,7,8,8,9,9,10,10,13,13,14,14,16,16,17,17,18,18,19,19,20,20,22,22,23,23,24,24,25,25,26,26,27,27,28,28,29,29,30,30,33,33,34,34],"right_children":[2,4,6,8,10,-1,12,14,16,18,20,-1,-1,22,24,-1,26,28,30,32,34,-1,36,38,40,42,44,46,48,50,52,-1,-1,54,56,-1,-1,-1,-1,-1,-1,-1,-1,-1,-1,-1,-1,-1,-1,-1,-1,-1,-1,-1,-1,-1,-1],"split_conditions":[9.2834465E1,-7.2165794E1,1.7747937E2,-1.1236656E1,5.1054864E0,1.7428345E1,-6.2009098E1,-6.8490036E1,-1.1809999E2,3.8707436E1,1.2266874E1,1.0948484E1,1.54496975E1,-1.05803246E2,-1.3355887E2,1.7492447E1,-8.1955025E1,9.3549716E-1,-6.1060997E1,9.023811E0,5.043165E1,1.8145712E1,-1.0147795E2,-4.5553623E1,-7.276521E1,-8.455823E1,2.1420494E1,-4.5272392E1,9.860273E0,-7.491504E1,9.759665E1,1.6168167E1,1.8831104E1,-5.582837E1,2.943483E1,9.746326E0,1.3699537E1,1.6964663E1,2.0721527E1,1.5150666E1,1.1154833E1,1.2292367E1,1.650449E1,1.2225035E1,9.720501E0,1.4747139E1,1.629376E1,9.736953E0,1.4353327E1,1.5611495E1,1.9450157E1,1.549421E1,1.0034815E1,1.689803E1,1.4334685E1,1.5010293E1,1.8098364E1],"split_indices":[1,0,1,1,1,0,0,1,0,0,1,0,0,1,0,0,0,0,1,1,0,0,1,1,0,0,1,0,0,1,0,0,0,0,1,0,0,0,0,0,0,0,0,0,0,0,0,0,0,0,0,0,0,0,0,0,0],"split_type":[0,0,0,0,0,0,0,0,0,0,0,0,0,0,0,0,0,0,0,0,0,0,0,0,0,0,0,0,0,0,0,0,0,0,0,0,0,0,0,0,0,0,0,0,0,0,0,0,0,0,0,0,0,0,0,0,0],"sum_hessian":[6.24E3,5.571E3,6.69E2,1.739E3,3.832E3,6.34E2,3.5E1,1.38E3,3.59E2,2.71E3,1.122E3,1.7E1,1.8E1,3.35E2,1.045E3,4.3E1,3.16E2,1.939E3,7.71E2,3.72E2,7.5E2,3.5E1,3E2,1.13E2,9.32E2,2.05E2,1.11E2,1.192E3,7.47E2,1.76E2,5.95E2,1.27E2,2.45E2,5.24E2,2.26E2,3.4E1,2.66E2,7.6E1,3.7E1,8.98E2,3.4E1,1.76E2,2.9E1,4.5E1,6.6E1,5.76E2,6.16E2,4.4E1,7.03E2,5.5E1,1.21E2,5.73E2,2.2E1,1.37E2,3.87E2,6.1E1,1.65E2],"tree_param":{"num_deleted":"0","num_feature":"2","num_nodes":"57","size_leaf_vector":"0"}},{"base_weights":[3.632596E1,3.56324E1,3.9485966E1,3.248919E1,3.5913906E1,3.8032772E1,4.515359E1,4.1592514E1,3.110642E1,3.971344E1,3.5620506E1,4.1832165E1,3.66981E1,3.2632027E1,4.6367805E1,2.8995165E1,3.746957E1,3.6236656E1,4.460142E1,1.7911987E1,3.573879E1,4.037687E1,4.8819942E1,1.9512333E1,3.7170437E1,4.378995E1,2.7967669E1,3.3717022E1,4.1608425E1,3.8002293E1,2.5556068E1,5.1427944E1,4.218009E1,2.6254658E1,7.2628274E0,3.392524E1,3.6616474E1,4.2996166E1,3.4848392E1,3.3411728E1,3.854978E1,2.8919022E1,2.1703064E1,3.6725124E1,2.5186625E1,3.3542255E1,4.2545853E1,3.4423584E1,2.3280937E1,4.6044567E1,3.6340736E1,3.9915493E1,3.0126688E1,4.0828377E1,3.507973E1],"categories":[],"categories_nodes":[],"categories_segments":[],"categories_sizes":[],"default_left":[true,true,true,true,true,true,true,false,true,true,true,true,true,false,false,true,true,true,true,true,true,true,false,false,true,false,true,true,false,true,false,false,false,false,false,true,true,false,false,true,true,false,false,false,false,false,false,false,false,false,false,false,false,false,false],"id":5,"left_children":[1,3,5,7,9,11,13,-1,15,17,19,21,23,-1,-1,25,27,29,31,33,35,37,-1,-1,39,-1,41,43,-1,45,-1,-1,-1,-1,-1,47,49,-1,-1,51,53,-1,-1,-1,-1,-1,-1,-1,-1,-1,-1,-1,-1,-1,-1],"loss_changes":[1.22715E4,3.3705E3,7.45775E3,4.144125E3,3.8215E3,2.99325E3,1.8621875E3,0E0,4.0051562E3,3.9579688E3,8.513E3,3.1690625E2,4.70525E3,0E0,0E0,3.1685469E3,1.04296875E1,2.7438281E3,1.2625E1,2.5634336E3,5.6655E3,1.2819375E3,0E0,0E0,2.0819375E3,0E0,9.9940625E2,4.3501562E2,0E0,1.9570938E3,0E0,0E0,0E0,0E0,0E0,6.77875E3,5.897E3,0E0,0E0,2.6859375E3,2.276E3,0E0,0E0,0E0,0E0,0E0,0E0,0E0,0E0,0E0,0E0,0E0,0E0,0E0,0E0],"parents":[2147483647,0,0,1,1,2,2,3,3,4,4,5,5,6,6,8,8,9,9,10,10,11,11,12,12,15,15,16,16,17,17,18,18,19,19,20,20,21,21,24,24,26,26,27,27,29,29,35,35,36,36,39,39,40,40],"right_children":[2,4,6,8,10,12,14,-1,16,18,20,22,24,-1,-1,26,28,30,32,34,36,38,-1,-1,40,-1,42,44,-1,46,-1,-1,-1,-1,-1,48,50,-1,-1,52,54,-1,-1,-1,-1,-1,-1,-1,-1,-1,-1,-1,-1,-1,-1],"split_conditions":[4.9477566E1,-7.883034E1,1.410575E2,-1.05803246E2,-1.2652083E2,5.2575264E1,7.5880356E1,1.2477755E1,1.4385051E1,-4.115097E1,-1.25723465E2,8.698703E1,5.3059937E1,9.789608E0,1.3910342E1,-1.769274E2,-8.722721E1,-5.172495E1,-3.5610905E1,-1.2601124E2,-6.69901E1,7.62391E1,1.4645984E1,5.8537E0,-3.44468E1,1.3136986E1,1.3764249E1,3.789489E1,1.2482528E1,-6.55691E1,7.666821E0,1.5428384E1,1.2654028E1,7.8763976E0,2.1788483E0,-6.8696655E1,-6.594565E1,1.289885E1,1.0454518E1,-6.3485893E1,8.3765305E1,8.675707E0,6.5109196E0,1.1017538E1,7.555988E0,1.0062677E1,1.2763757E1,1.0327076E1,6.9842815E0,1.3813371E1,1.0902222E1,1.1974648E1,9.038007E0,1.2248513E1,1.052392E1],"split_indices":[0,1,1,1,0,0,0,0,0,1,0,1,0,0,0,0,1,1,1,0,0,1,0,0,1,0,0,0,0,1,0,0,0,0,0,0,0,0,0,1,0,0,0,0,0,0,0,0,0,0,0,0,0,0,0],"split_type":[0,0,0,0,0,0,0,0,0,0,0,0,0,0,0,0,0,0,0,0,0,0,0,0,0,0,0,0,0,0,0,0,0,0,0,0,0,0,0,0,0,0,0,0,0,0,0,0,0,0,0,0,0,0,0],"sum_hessian":[6.24E3,5.127E3,1.113E3,4.31E2,4.696E3,8.92E2,2.21E2,5.3E1,3.78E2,3.27E2,4.369E3,2.24E2,6.68E2,2.2E1,1.99E2,2.88E2,9E1,1.96E2,1.31E2,3E1,4.339E3,1.91E2,3.3E1,1.9E1,6.49E2,1.6E1,2.72E2,5.2E1,3.8E1,1.66E2,3E1,2.9E1,1.02E2,1.6E1,1.4E1,1.428E3,2.911E3,1.25E2,6.6E1,1.81E2,4.68E2,2.33E2,3.9E1,3.6E1,1.6E1,8.8E1,7.8E1,1.362E3,6.6E1,7.8E1,2.833E3,5.7E1,1.24E2,2.76E2,1.92E2],"tree_param":{"num_deleted":"0","num_feature":"2","num_nodes":"55","size_leaf_vector":"0"}},{"base_weights":[2.5475256E1,2.5166655E1,2.9419027E1,2.4259184E1,2.590268E1,2.0848196E1,3.037398E1,2.466975E1,2.116606E1,4.054577E1,2.5797338E1,2.6295E1,1.3784497E1,3.6671207E1,2.93696E1,2.5855412E1,2.2834894E1,1.6873226E1,2.9045553E1,2.1133537E1,2.5978966E1,2.8689121E1,3.8664288E1,2.2839575E1,2.6896202E1,9.117137E0,2.3437962E1,3.3397964E1,1.5392862E1,1.2162223E1,3.14056E1,2.7667223E1,1.9453064E1,2.8691778E1,2.5571558E1,2.5922003E1,3.0126871E1,2.3682827E1,1.3983315E1,2.6038895E1,3.1697283E1,3.0916489E1,2.2462048E1,6.8048415E0,1.8665565E1,3.4656353E1,2.7189444E1,1.5354911E1,2.1746286E1,2.7487162E1,4.849235E1,2.4666313E1,2.7206755E1,2.7770601E1,2.0206888E1,3.6614216E1,2.7719E1],"categories":[],"categories_nodes":[],"categories_segments":[],"categories_sizes":[],"default_left":[true,true,true,true,true,true,true,true,true,false,true,false,false,false,true,true,true,true,true,true,true,true,false,true,true,false,true,false,true,false,true,false,true,true,true,true,true,false,false,false,false,false,false,false,false,false,false,false,false,false,false,false,false,false,false,false,false],"id":6,"left_children":[1,3,5,7,9,11,13,15,17,-1,19,-1,-1,-1,21,23,25,27,29,31,33,35,-1,37,39,-1,41,-1,43,-1,45,-1,47,49,51,53,55,-1,-1,-1,-1,-1,-1,-1,-1,-1,-1,-1,-1,-1,-1,-1,-1,-1,-1,-1,-1],"loss_changes":[6.85525E3,3.24225E3,3.0253125E3,2.793625E3,3.867E3,1.4843164E3,1.4529062E3,4.411125E3,1.009725E4,0E0,2.132E3,0E0,0E0,0E0,1.1044375E3,3.7455625E3,7.3227812E3,4.50075E3,3.9611953E3,8.232656E2,2.628375E3,5.319375E2,0E0,2.3797344E3,3.40175E3,0E0,5.66975E3,0E0,5.213129E3,0E0,3.5975E2,0E0,6.246836E2,7.9455625E3,3.2575E3,7.066406E2,2.2810469E3,0E0,0E0,0E0,0E0,0E0,0E0,0E0,0E0,0E0,0E0,0E0,0E0,0E0,0E0,0E0,0E0,0E0,0E0,0E0,0E0],"parents":[2147483647,0,0,1,1,2,2,3,3,4,4,5,5,6,6,7,7,8,8,10,10,14,14,15,15,16,16,17,17,18,18,19,19,20,20,21,21,23,23,24,24,26,26,28,28,30,30,32,32,33,33,34,34,35,35,36,36],"right_children":[2,4,6,8,10,12,14,16,18,-1,20,-1,-1,-1,22,24,26,28,30,32,34,36,-1,38,40,-1,42,-1,44,-1,46,-1,48,50,52,54,56,-1,-1,-1,-1,-1,-1,-1,-1,-1,-1,-1,-1,-1,-1,-1,-1,-1,-1,-1,-1],"split_conditions":[7.516087E1,-4.861738E1,-1.4141516E1,-5.9085922E1,-4.736498E1,-2.5429459E1,7.9129196E1,-3.4314396E1,2.1522903E1,1.2163732E1,-8.837352E1,7.8885E0,4.1353493E0,1.1001363E1,1.499664E2,-6.8490036E1,-3.228766E1,-6.755807E1,-5.649199E1,-9.691402E1,-6.425189E1,8.543733E1,1.1599287E1,-7.079592E1,-6.758001E1,2.7351413E0,-1.2174635E2,1.001939E1,-5.670253E1,3.648667E0,-5.2345825E1,8.300167E0,-9.582965E1,-6.494646E1,9.005886E0,8.5148865E1,8.680448E1,7.1048484E0,4.194995E0,7.811669E0,9.509185E0,9.274947E0,6.7386146E0,2.0414526E0,5.59967E0,1.0396906E1,8.156834E0,4.6064734E0,6.523886E0,8.246149E0,1.4547706E1,7.399894E0,8.162026E0,8.331181E0,6.0620666E0,1.0984265E1,8.315701E0],"split_indices":[0,0,1,0,0,1,0,1,1,0,1,0,0,0,1,1,1,1,0,1,1,0,0,1,0,0,0,0,0,0,0,0,1,1,1,0,0,0,0,0,0,0,0,0,0,0,0,0,0,0,0,0,0,0,0,0,0],"split_type":[0,0,0,0,0,0,0,0,0,0,0,0,0,0,0,0,0,0,0,0,0,0,0,0,0,0,0,0,0,0,0,0,0,0,0,0,0,0,0,0,0,0,0,0,0,0,0,0,0,0,0,0,0,0,0,0,0],"sum_hessian":[6.24E3,5.794E3,4.46E2,2.61E3,3.184E3,4.7E1,3.99E2,2.298E3,3.12E2,2E1,3.164E3,2.5E1,2.2E1,5E1,3.49E2,1.388E3,9.1E2,2.04E2,1.08E2,1.23E2,3.041E3,3.29E2,2E1,3.62E2,1.026E3,3.9E1,8.71E2,1.5E1,1.89E2,1.4E1,9.4E1,2.2E1,1.01E2,3.88E2,2.653E3,1.19E2,2.1E2,3.29E2,3.3E1,8.76E2,1.5E2,9.7E1,7.74E2,5.3E1,1.36E2,4.9E1,4.5E1,3.9E1,6.2E1,3.68E2,2E1,1.718E3,9.35E2,8.7E1,3.2E1,5.3E1,1.57E2],"tree_param":{"num_deleted":"0","num_feature":"2","num_nodes":"57","size_leaf_vector":"0"}},{"base_weights":[1.786881E1,1.749181E1,1.9588192E1,1.7562462E1,6.709112E0,1.7982622E1,2.1298395E1,1.6659277E1,1.7987635E1,7.1269125E-1,1.0672789E1,2.249307E1,1.7206942E1,2.7438393E1,2.0282122E1,1.7442839E1,1.0848814E1,2.4110567E1,1.7816504E1,1.4853551E1,2.8444376E1,8.489415E0,1.751488E1,2.3554893E1,3.2219578E1,1.9889547E1,3.2311073E1,1.7117216E1,2.8759703E1,1.6435724E1,8.300623E0,2.0060255E1,3.6656353E1,8.955712E0,1.7974846E1,1.3450842E0,2.3604939E1,1.8529531E1,1.5978822E1,2.6243662E1,1.59187E1,1.853519E1,2.1782034E1,1.8025963E1,1.4722019E1,1.3197859E1,1.7923805E1,1.0743297E1,6.340357E0,2.547055E1,1.22576E1,3.6600199E0,1.3962512E1,3.277427E1,1.7838226E1,2.0958273E1,1.5532922E1,9.159803E0,1.8085794E1,2.3976196E1,1.7057095E1,3.17106E1,1.969289E1],"categories":[],"categories_nodes":[],"categories_segments":[],"categories_sizes":[],"default_left":[true,true,true,true,true,true,true,true,true,false,false,true,true,true,true,true,true,true,true,true,false,false,true,true,false,true,false,true,false,true,true,true,false,true,true,false,false,true,true,false,false,true,true,false,false,false,false,false,false,false,false,false,false,false,false,false,false,false,false,false,false,false,false],"id":7,"left_children":[1,3,5,7,9,11,13,15,17,-1,-1,19,21,23,25,27,29,31,33,35,-1,-1,37,39,-1,41,-1,43,-1,45,47,49,-1,51,53,-1,-1,55,57,-1,-1,59,61,-1,-1,-1,-1,-1,-1,-1,-1,-1,-1,-1,-1,-1,-1,-1,-1,-1,-1,-1,-1],"loss_changes":[3.70275E3,3.78875E3,2.675875E3,1.656625E3,8.2426904E2,1.6456875E3,2.7755938E3,7.2956562E3,3.1865E3,0E0,0E0,3.3056367E3,1.1935312E3,5.965156E2,1.5390312E3,4.8399375E3,2.6824043E3,3.8887656E3,4.554625E3,4.4605273E3,0E0,0E0,4.5514062E2,4.8564062E2,0E0,7.4965625E2,0E0,2.8014688E3,0E0,5.7353516E1,5.9266797E2,2.6850332E3,0E0,1.5662793E3,6.08975E3,0E0,0E0,1.7414062E3,2.6934727E3,0E0,0E0,1.7544219E3,3.1506094E3,0E0,0E0,0E0,0E0,0E0,0E0,0E0,0E0,0E0,0E0,0E0,0E0,0E0,0E0,0E0,0E0,0E0,0E0,0E0,0E0],"parents":[2147483647,0,0,1,1,2,2,3,3,4,4,5,5,6,6,7,7,8,8,11,11,12,12,13,13,14,14,15,15,16,16,17,17,18,18,19,19,22,22,23,23,25,25,27,27,29,29,30,30,31,31,33,33,34,34,37,37,38,38,41,41,42,42],"right_children":[2,4,6,8,10,12,14,16,18,-1,-1,20,22,24,26,28,30,32,34,36,-1,-1,38,40,-1,42,-1,44,-1,46,48,50,-1,52,54,-1,-1,56,58,-1,-1,60,62,-1,-1,-1,-1,-1,-1,-1,-1,-1,-1,-1,-1,-1,-1,-1,-1,-1,-1,-1,-1],"split_conditions":[4.9477566E1,4.9048946E1,3.9496548E1,-7.566275E1,4.9115677E1,-6.3485893E1,7.62391E1,-8.070458E1,-7.35141E1,2.1380739E-1,3.2018368E0,-7.491504E1,-5.902411E1,6.0547928E1,1.5231192E2,-8.132559E1,-4.3351307E1,-7.4142136E1,-7.2165794E1,6.0219704E1,8.533313E0,2.5468247E0,6.7301544E1,5.4541565E1,9.665874E0,1.4149077E2,9.693322E0,-9.64867E1,8.627912E0,-7.8766235E1,-1.1143816E1,-7.496925E1,1.0996906E1,-4.406214E1,-7.1848236E1,4.0352526E-1,7.081482E0,-2.4712976E1,-3.3471294E1,7.873099E0,4.7756104E0,5.103382E1,1.418636E2,5.407789E0,4.416606E0,3.9593577E0,5.377142E0,3.222989E0,1.9021071E0,7.6411653E0,3.6772802E0,1.098006E0,4.1887536E0,9.832281E0,5.351468E0,6.2874823E0,4.659877E0,2.747941E0,5.4257383E0,7.192859E0,5.1171284E0,9.513181E0,5.9078674E0],"split_indices":[0,0,1,0,0,1,1,0,0,0,0,1,1,1,1,0,1,0,0,0,0,0,0,1,0,1,0,0,0,0,1,0,0,1,0,0,0,1,1,0,0,0,1,0,0,0,0,0,0,0,0,0,0,0,0,0,0,0,0,0,0,0,0],"split_type":[0,0,0,0,0,0,0,0,0,0,0,0,0,0,0,0,0,0,0,0,0,0,0,0,0,0,0,0,0,0,0,0,0,0,0,0,0,0,0,0,0,0,0,0,0,0,0,0,0,0,0,0,0,0,0,0,0,0,0,0,0,0,0],"sum_hessian":[6.24E3,5.127E3,1.113E3,5.093E3,3.4E1,5.8E2,5.33E2,1.643E3,3.45E3,1.4E1,2E1,8.1E1,4.99E2,7.2E1,4.61E2,1.446E3,1.97E2,9E1,3.36E3,3.7E1,4.4E1,1.8E1,4.81E2,4.3E1,2.9E1,4.49E2,1.2E1,1.408E3,3.8E1,6E1,1.37E2,7E1,2E1,6E1,3.3E3,1.5E1,2.2E1,2.83E2,1.98E2,3E1,1.3E1,2.68E2,1.81E2,1.016E3,3.92E2,2.2E1,3.8E1,5.9E1,7.8E1,4E1,3E1,3E1,3E1,2.8E1,3.272E3,1.53E2,1.3E2,4.8E1,1.5E2,5.4E1,2.14E2,2.9E1,1.52E2],"tree_param":{"num_deleted":"0","num_feature":"2","num_nodes":"63","size_leaf_vector":"0"}},{"base_weights":[1.2536452E1,1.2058872E1,1.3444089E1,1.2200665E1,2.1428285E0,1.6464432E1,1.2476073E1,1.168628E1,1.39403105E1,-5.4615073E0,4.6299887E0,1.3199388E1,2.0007631E1,6.96933E0,1.3318623E1,1.2416185E1,8.693185E0,1.5980676E1,1.2105941E1,1.29999E0,7.0134497E0,2.7412819E1,1.1962557E1,-2.7961287E-1,8.127563E0,1.2591296E1,1.5351346E1,1.2031886E1,1.9036E1,1.0455643E1,4.562473E0,1.3379062E1,1.8053814E1,7.1049943E0,1.2713206E1,9.813474E0,1.3335032E1,1.0006895E1,-9.339496E0,7.012119E0,1.9680332E1,1.449478E1,1.135727E1,2.0512753E1,1.4728012E1,1.2255535E1,4.707995E0,1.6010023E1,3.0135836E1,-3.558206E0,1.100451E1,2.2423053E0,1.3539907E1,1.894666E1,1.22922735E1,2.177076E1,1.466299E1,1.1124548E1,1.8365473E0,1.7218689E1,1.1659105E1,1.1699542E1,-1.0553637E0,1.0571849E1,1.629958E1,8.501007E0,-3.6827952E-1,1.3433815E1,2.9525303E1,8.630637E0,1.3173842E1,1.4056185E1,2.3831697E1,1.4320787E1,2.2925838E1],"categories":[],"categories_nodes":[],"categories_segments":[],"categories_sizes":[],"default_left":[true,true,true,true,true,true,true,true,true,false,true,true,false,true,true,true,true,true,true,false,false,false,true,true,true,true,true,true,true,true,true,true,true,true,true,true,true,false,false,true,false,true,true,true,true,false,false,false,false,false,false,false,false,false,false,false,false,false,false,false,false,false,false,false,false,false,false,false,false,false,false,false,false,false,false],"id":8,"left_children":[1,3,5,7,9,11,13,15,17,-1,19,21,-1,23,25,27,29,31,33,-1,-1,-1,35,37,39,41,43,45,47,49,51,53,55,57,59,61,63,-1,-1,65,-1,67,69,71,73,-1,-1,-1,-1,-1,-1,-1,-1,-1,-1,-1,-1,-1,-1,-1,-1,-1,-1,-1,-1,-1,-1,-1,-1,-1,-1,-1,-1,-1,-1],"loss_changes":[2.543125E3,5.73725E3,6.0601562E3,3.453125E3,1.1411655E3,5.7169375E3,7.4559688E3,6.7191875E3,3.2386719E3,0E0,3.4804395E2,4.4537266E3,0E0,1.8325938E3,1.8913125E3,6.156375E3,4.4369023E3,2.0830625E3,1.3886484E3,0E0,0E0,0E0,6.124297E2,2.9824905E3,2.2846553E3,2.2876719E3,8.786328E2,3.8325312E3,4.0854727E3,3.354293E3,3.8438623E3,9.470117E2,2.6678047E3,1.1442937E3,1.8556641E3,2.1032822E3,1.0646113E3,0E0,0E0,1.9041562E3,0E0,6.0937344E3,3.0463906E3,4.5788965E2,7.766797E2,0E0,0E0,0E0,0E0,0E0,0E0,0E0,0E0,0E0,0E0,0E0,0E0,0E0,0E0,0E0,0E0,0E0,0E0,0E0,0E0,0E0,0E0,0E0,0E0,0E0,0E0,0E0,0E0,0E0,0E0],"parents":[2147483647,0,0,1,1,2,2,3,3,4,4,5,5,6,6,7,7,8,8,10,10,11,11,13,13,14,14,15,15,16,16,17,17,18,18,22,22,23,23,24,24,25,25,26,26,27,27,28,28,29,29,30,30,31,31,32,32,33,33,34,34,35,35,36,36,39,39,41,41,42,42,43,43,44,44],"right_children":[2,4,6,8,10,12,14,16,18,-1,20,22,-1,24,26,28,30,32,34,-1,-1,-1,36,38,40,42,44,46,48,50,52,54,56,58,60,62,64,-1,-1,66,-1,68,70,72,74,-1,-1,-1,-1,-1,-1,-1,-1,-1,-1,-1,-1,-1,-1,-1,-1,-1,-1,-1,-1,-1,-1,-1,-1,-1,-1,-1,-1,-1,-1],"split_conditions":[2.4853644E0,1.9817502E0,1.2266874E1,3.0064053E1,2.00362E0,9.023811E0,2.1901226E1,-8.341115E-1,4.8841988E1,-1.6384523E0,2.073708E0,2.72264E0,6.00229E0,1.42625675E1,7.516087E1,-1.8634274E1,-3.9772835E1,4.0049423E1,4.9353897E1,3.8999704E-1,2.104035E0,8.223846E0,4.514217E0,1.3013756E1,-3.5920162E1,-3.8691372E1,7.9129196E1,-2.5859568E1,-1.235692E1,4.3536282E-1,-4.461869E0,3.0591133E1,-3.1665783E1,4.9048946E1,5.2575264E1,1.7565462E1,-2.1508617E1,3.0020688E0,-2.801849E0,-5.1419285E1,5.9041E0,-4.403592E1,6.1005653E1,7.686836E1,1.5070192E2,3.6766608E0,1.4123986E0,4.803007E0,9.040751E0,-1.0674618E0,3.3013532E0,6.726916E-1,4.0619726E0,5.683998E0,3.6876822E0,6.531228E0,4.398897E0,3.3373644E0,5.509642E-1,5.165607E0,3.4977317E0,3.5098627E0,-3.166091E-1,3.1715548E0,4.889874E0,2.5503023E0,-1.1048386E-1,4.0301447E0,8.857592E0,2.5891912E0,3.952153E0,4.2168555E0,7.1495094E0,4.2962365E0,6.877752E0],"split_indices":[1,1,1,0,1,1,1,0,0,0,1,1,0,1,0,0,1,0,0,0,0,0,1,1,0,0,0,0,1,0,1,0,1,0,0,0,0,0,0,0,0,0,1,0,1,0,0,0,0,0,0,0,0,0,0,0,0,0,0,0,0,0,0,0,0,0,0,0,0,0,0,0,0,0,0],"split_type":[0,0,0,0,0,0,0,0,0,0,0,0,0,0,0,0,0,0,0,0,0,0,0,0,0,0,0,0,0,0,0,0,0,0,0,0,0,0,0,0,0,0,0,0,0,0,0,0,0,0,0,0,0,0,0,0,0,0,0,0,0,0,0,0,0,0,0,0,0,0,0,0,0,0,0],"sum_hessian":[6.24E3,4.098E3,2.142E3,4.04E3,5.8E1,5.16E2,1.626E3,3.124E3,9.16E2,1.4E1,4.4E1,2.71E2,2.45E2,2.17E2,1.409E3,2.509E3,6.15E2,4.3E2,4.86E2,1.9E1,2.5E1,2E1,2.51E2,3E1,1.87E2,1.043E3,3.66E2,2.374E3,1.35E2,4.3E2,1.85E2,1.94E2,2.36E2,5.4E1,4.32E2,1.01E2,1.5E2,1.4E1,1.6E1,1.72E2,1.5E1,4.06E2,6.37E2,3.6E1,3.3E2,2.303E3,7.1E1,1.08E2,2.7E1,1.6E1,4.14E2,1.48E2,3.7E1,2.9E1,1.65E2,1.1E2,1.26E2,3E1,2.4E1,7.9E1,3.53E2,8.6E1,1.5E1,8E1,7E1,1.43E2,2.9E1,3.81E2,2.5E1,2.57E2,3.8E2,1.4E1,2.2E1,3.17E2,1.3E1],"tree_param":{"num_deleted":"0","num_feature":"2","num_nodes":"75","size_leaf_vector":"0"}},{"base_weights":[8.797243E0,6.875337E0,8.938631E0,1.2701217E1,6.027124E0,1.0045141E1,8.53615E0,1.4973296E1,7.7277384E0,4.8780346E0,1.0858964E1,9.434904E0,1.4704802E1,2.250116E-1,8.654629E0,1.6188736E1,4.2028294E0,1.3478893E1,7.704212E0,8.024248E0,1.0769609E1,2.1849895E1,1.2029044E1,7.5440936E0,-3.806109E0,1.3081143E1,8.492267E0,-1.1346793E0,4.9106197E0,3.4275477E0,1.11252165E1,9.566819E0,2.9327636E0,2.0418154E1,9.66514E0,1.5875653E1,2.3667233E1,1.629456E1,9.975032E0,5.954978E0,1.3845821E1,-4.2466397E0,8.62645E0,1.0738184E1,3.8863752E0,1.06100645E1,1.6626014E0,4.6604076E-1,2.3219538E1,1.2976881E1,3.074769E1,8.634549E0,1.1384067E1,1.1765857E1,2.5694916E0,1.8636467E1,1.0977624E1,-1.0540488E1,-8.447645E-1,2.3611286E1,8.571928E0],"categories":[],"categories_nodes":[],"categories_segments":[],"categories_sizes":[],"default_left":[true,true,true,true,true,true,true,false,false,true,true,true,true,true,true,false,true,false,true,true,true,true,true,false,false,true,true,false,true,false,false,true,true,true,true,false,false,false,true,false,true,true,true,false,false,false,false,false,false,false,false,false,false,false,false,false,false,false,false,false,false],"id":9,"left_children":[1,3,5,7,9,11,13,-1,-1,15,17,19,21,23,25,-1,27,-1,29,31,33,35,37,-1,-1,39,41,-1,43,-1,-1,45,47,49,51,-1,-1,-1,53,-1,55,57,59,-1,-1,-1,-1,-1,-1,-1,-1,-1,-1,-1,-1,-1,-1,-1,-1,-1,-1],"loss_changes":[1.6344375E3,2.0582148E3,2.50175E3,4.9449707E2,2.0513203E3,4.251625E3,4.19975E3,0E0,0E0,2.2841714E3,4.9125293E2,2.4892656E3,3.1211484E3,1.8284637E3,2.9124688E3,0E0,1.1087012E3,0E0,4.739348E2,5.22625E3,7.2622266E3,1.3455664E2,9.8520703E2,0E0,0E0,7.18584E2,6.9782812E3,0E0,1.498231E3,0E0,0E0,4.212578E3,7.845748E3,5.0584004E3,1.0177539E3,0E0,0E0,0E0,1.1766113E3,0E0,1.609166E3,9.1176404E2,3.0811562E3,0E0,0E0,0E0,0E0,0E0,0E0,0E0,0E0,0E0,0E0,0E0,0E0,0E0,0E0,0E0,0E0,0E0,0E0],"parents":[2147483647,0,0,1,1,2,2,3,3,4,4,5,5,6,6,9,9,10,10,11,11,12,12,13,13,14,14,16,16,18,18,19,19,20,20,21,21,22,22,25,25,26,26,28,28,31,31,32,32,33,33,34,34,38,38,40,40,41,41,42,42],"right_children":[2,4,6,8,10,12,14,-1,-1,16,18,20,22,24,26,-1,28,-1,30,32,34,36,38,-1,-1,40,42,-1,44,-1,-1,46,48,50,52,-1,-1,-1,54,-1,56,58,60,-1,-1,-1,-1,-1,-1,-1,-1,-1,-1,-1,-1,-1,-1,-1,-1,-1,-1],"split_conditions":[-7.9635605E1,-1.05803246E2,-4.6515465E1,-9.2623886E1,2.4405733E1,-4.780565E1,-4.62081E1,4.491989E0,2.3183217E0,-1.769274E2,3.789489E1,-3.5389763E1,-8.7597824E1,-7.521013E1,-1.2650902E2,4.856621E0,-1.7626901E2,4.0436683E0,3.8513336E1,-5.7671444E1,-1.991679E1,-4.7326912E1,-4.736374E1,2.2632282E0,-1.1418327E0,-4.115097E1,-1.23923965E2,-3.404038E-1,-9.685563E1,1.0282644E0,3.3375652E0,-5.06885E1,-5.0165863E1,-3.0095829E1,4.049193E1,4.7626963E0,7.10017E0,4.888368E0,-6.3076797E1,1.7864934E0,-1.0296318E1,-1.2513615E2,-1.2186556E2,3.2214553E0,1.1659126E0,3.1830194E0,4.9878043E-1,1.3981223E-1,6.965862E0,3.8930645E0,9.224307E0,2.590365E0,3.41522E0,3.5297573E0,7.708475E-1,5.5909405E0,3.2932873E0,-3.1621466E0,-2.5342935E-1,7.083386E0,2.5715785E0],"split_indices":[1,1,1,0,0,1,1,0,0,0,0,0,0,0,0,0,0,0,0,0,0,1,1,0,0,1,0,0,1,0,0,1,1,0,0,0,0,0,0,0,1,0,0,0,0,0,0,0,0,0,0,0,0,0,0,0,0,0,0,0,0],"split_type":[0,0,0,0,0,0,0,0,0,0,0,0,0,0,0,0,0,0,0,0,0,0,0,0,0,0,0,0,0,0,0,0,0,0,0,0,0,0,0,0,0,0,0,0,0,0,0,0,0,0,0,0,0,0,0,0,0,0,0,0,0],"sum_hessian":[6.24E3,4.31E2,5.809E3,5.3E1,3.78E2,1.543E3,4.266E3,3.5E1,1.8E1,3.07E2,7.1E1,1.367E3,1.76E2,6E1,4.206E3,1.6E1,2.91E2,3.7E1,3.4E1,6.68E2,6.99E2,4.6E1,1.3E2,2.1E1,3.9E1,1.46E2,4.06E3,3.4E1,2.57E2,1.6E1,1.8E1,5.12E2,1.56E2,7E1,6.29E2,1.3E1,3.3E1,4E1,9E1,1.5E1,1.31E2,4.2E1,4.018E3,3.7E1,2.2E2,4.52E2,6E1,1.4E2,1.6E1,4.2E1,2.8E1,3.97E2,2.32E2,7.2E1,1.8E1,4.7E1,8.4E1,1.4E1,2.8E1,1.3E1,4.005E3],"tree_param":{"num_deleted":"0","num_feature":"2","num_nodes":"61","size_leaf_vector":"0"}},{"base_weights":[6.172991E0,5.6636715E0,6.7287927E0,5.807483E0,5.289851E-1,1.0159285E1,6.28003E0,5.671917E0,1.0389861E1,-1.1457018E1,4.575295E0,8.797363E0,1.48281765E1,6.9401085E-1,6.4726057E0,5.824986E0,-5.834581E0,1.50747795E1,1.5558177E-2,6.27663E0,1.1946551E0,1.1513058E1,6.8338227E0,1.7033388E1,1.0195258E1,1.1645628E1,-4.523873E0,7.8316383E0,6.1559596E0,5.6802316E0,1.1481529E1,-1.5377733E1,4.9546156E0,9.793909E0,2.1557615E1,7.6465707E0,5.257126E0,5.410921E0,1.3134211E1,9.682691E0,5.850992E0,1.9423714E1,1.2111086E1,7.126893E0,1.59780655E1,-2.197493E0,-1.0415826E1,5.311168E0,1.1624187E1,2.9867651E0,6.769811E0,5.84028E0,-3.597866E0,1.35140705E1,9.742374E0,1.4140864E1,4.103731E0,2.0265654E1,1.1722971E1,5.156496E0,1.0368699E1,-4.991527E0,-4.8383567E-1,4.6780844E0,1.839217E1,3.9504638E0,-1.4365125E1,8.606221E0,6.3372025E0],"categories":[],"categories_nodes":[],"categories_segments":[],"categories_sizes":[],"default_left":[true,true,true,true,true,true,true,true,true,false,true,true,true,true,true,true,true,true,false,true,false,true,true,true,false,true,true,true,true,true,true,false,false,true,false,false,false,false,true,false,true,false,false,false,false,true,false,true,false,true,true,false,false,false,false,false,false,false,false,false,false,false,false,false,false,false,false,false,false],"id":10,"left_children":[1,3,5,7,9,11,13,15,17,-1,19,21,23,25,27,29,31,33,-1,35,-1,37,39,41,-1,43,45,47,49,51,53,-1,-1,55,-1,-1,-1,-1,57,-1,59,-1,-1,-1,-1,61,-1,63,-1,65,67,-1,-1,-1,-1,-1,-1,-1,-1,-1,-1,-1,-1,-1,-1,-1,-1,-1,-1],"loss_changes":[1.7285938E3,2.406414E3,4.5223125E3,1.9128125E3,4.417337E3,2.0505703E3,2.832211E3,5.467547E3,4.3740137E3,0E0,3.8361035E2,1.3503984E3,6.027988E2,5.1385225E3,1.0487031E3,2.4280625E3,4.2976714E3,1.9114385E3,0E0,2.2650879E1,0E0,1.026999E3,3.8573926E2,3.5305273E2,0E0,4.5386304E2,8.132334E2,4.507467E3,4.0106797E3,4.432797E3,1.3345898E2,0E0,0E0,8.32428E2,0E0,0E0,0E0,0E0,6.3801074E2,0E0,3.230376E2,0E0,0E0,0E0,0E0,2.1304568E2,0E0,2.3072754E3,0E0,5.708782E3,1.3238281E3,0E0,0E0,0E0,0E0,0E0,0E0,0E0,0E0,0E0,0E0,0E0,0E0,0E0,0E0,0E0,0E0,0E0,0E0],"parents":[2147483647,0,0,1,1,2,2,3,3,4,4,5,5,6,6,7,7,8,8,10,10,11,11,12,12,13,13,14,14,15,15,16,16,17,17,19,19,21,21,22,22,23,23,25,25,26,26,27,27,28,28,29,29,30,30,33,33,38,38,40,40,45,45,47,47,49,49,50,50],"right_children":[2,4,6,8,10,12,14,16,18,-1,20,22,24,26,28,30,32,34,-1,36,-1,38,40,42,-1,44,46,48,50,52,54,-1,-1,56,-1,-1,-1,-1,58,-1,60,-1,-1,-1,-1,62,-1,64,-1,66,68,-1,-1,-1,-1,-1,-1,-1,-1,-1,-1,-1,-1,-1,-1,-1,-1,-1,-1],"split_conditions":[-2.1758945E1,-2.5859568E1,-3.1499714E-1,-2.9150488E1,-2.5228674E1,-4.7500005E0,9.860273E0,-3.241469E1,3.0607496E1,-3.4371054E0,-2.2809649E1,-1.3457494E1,-2.362112E0,-5.927443E1,2.0230402E1,-3.4915146E1,-3.0417019E1,-2.7287119E1,4.667453E-3,-2.417212E1,3.5839653E-1,-1.626543E1,-5.1276924E1,1.6287155E1,3.0585775E0,6.36472E-1,-3.433043E1,6.5237103E0,3.0869347E1,-3.8691372E1,-3.4288136E1,-4.6133204E0,1.4863847E0,-2.80629E1,6.4672847E0,2.2939713E0,1.5771378E0,1.6232764E0,-7.0950475E0,2.9048073E0,-5.8619423E0,5.827114E0,3.6333258E0,2.138068E0,4.79342E0,7.34388E-1,-3.124748E0,1.9990585E1,3.4872563E0,3.0493881E1,4.3456375E1,1.7520841E0,-1.0793599E0,4.054221E0,2.9227123E0,4.2422595E0,1.2311194E0,6.079696E0,3.5168915E0,1.5469489E0,3.1106098E0,-1.4974582E0,-1.451507E-1,1.4034253E0,5.517651E0,1.1851392E0,-4.3095374E0,2.5818665E0,1.9011608E0],"split_indices":[0,0,0,0,0,0,0,0,1,0,0,0,0,1,0,0,0,0,0,0,0,1,1,1,0,0,1,1,0,0,0,0,0,0,0,0,0,0,1,0,0,0,0,0,0,0,0,0,0,0,0,0,0,0,0,0,0,0,0,0,0,0,0,0,0,0,0,0,0],"split_type":[0,0,0,0,0,0,0,0,0,0,0,0,0,0,0,0,0,0,0,0,0,0,0,0,0,0,0,0,0,0,0,0,0,0,0,0,0,0,0,0,0,0,0,0,0,0,0,0,0,0,0,0,0,0,0,0,0,0,0,0,0,0,0,0,0,0,0,0,0],"sum_hessian":[6.24E3,3.262E3,2.978E3,3.173E3,8.9E1,3.42E2,2.636E3,3.084E3,8.9E1,2.2E1,6.7E1,2.67E2,7.5E1,8.8E1,2.548E3,3.044E3,4E1,6.1E1,2.8E1,4.4E1,2.3E1,1.1E2,1.57E2,4.9E1,2.6E1,2.8E1,6E1,4.77E2,2.071E3,2.97E3,7.4E1,2.1E1,1.9E1,3.5E1,2.6E1,1.6E1,2.8E1,2.4E1,8.6E1,3.8E1,1.19E2,3.1E1,1.8E1,1.5E1,1.3E1,4.4E1,1.6E1,2.88E2,1.89E2,3.37E2,1.734E3,2.92E3,5E1,3.1E1,4.3E1,1.9E1,1.6E1,1.2E1,7.4E1,1.05E2,1.4E1,1.6E1,2.8E1,2.76E2,1.2E1,3.2E2,1.7E1,3.27E2,1.407E3],"tree_param":{"num_deleted":"0","num_feature":"2","num_nodes":"69","size_leaf_vector":"0"}},{"base_weights":[4.331105E0,3.5460317E0,4.610864E0,4.0289745E0,-1.2643217E-3,9.640207E0,4.5083175E0,3.8229291E0,1.1369721E1,3.674523E0,-1.6260598E0,6.8995204E0,1.8447283E1,-1.3965641E0,4.5882835E0,4.4683905E0,2.1428857E0,1.173308E0,5.05538E0,-7.0183444E0,-7.587308E-1,1.061793E1,1.7590588E0,8.438626E-1,-7.2449546E0,1.52152815E1,4.517521E0,3.5763743E0,1.2435238E1,-1.1963659E1,3.0928063E0,6.2571187E0,3.1321232E0,2.7564294E0,-2.617946E0,1.2370402E1,7.691415E0,-2.1956553E0,4.3723335E0,-4.8665247E0,1.2589071E1,3.9048815E0,5.058941E0,4.567267E0,-2.3435273E0,2.6360876E1,9.339982E0,3.5835106E0,-8.726715E0,1.4342796E0,3.68828E0,-3.8868032E0,-2.121947E0,4.4351673E0,-8.429591E0,2.0098276E1,4.7890005E0],"categories":[],"categories_nodes":[],"categories_segments":[],"categories_sizes":[],"default_left":[true,true,true,true,true,true,true,true,false,true,true,true,false,true,true,true,true,false,true,false,true,true,true,true,false,false,true,true,true,false,true,false,false,true,true,false,false,false,false,false,false,true,true,false,false,false,false,false,false,false,false,false,false,false,false,false,false],"id":11,"left_children":[1,3,5,7,9,11,13,15,-1,17,19,21,-1,23,25,27,29,-1,31,-1,33,35,37,39,-1,-1,41,43,45,-1,47,-1,-1,49,51,-1,-1,-1,-1,-1,-1,53,55,-1,-1,-1,-1,-1,-1,-1,-1,-1,-1,-1,-1,-1,-1],"loss_changes":[1.3543594E3,2.8164102E3,2.3279297E3,2.145164E3,1.1885106E3,2.0692285E3,2.1350469E3,1.5183477E3,0E0,2.0475159E2,6.4008496E2,1.3384407E3,0E0,8.053901E2,3.2761406E3,7.1828965E3,5.30324E3,0E0,7.054071E1,0E0,7.9146893E2,1.1512842E2,3.2997754E2,3.0794011E3,0E0,0E0,1.4463438E3,5.3839463E3,4.150338E3,0E0,2.171432E3,0E0,0E0,4.6455902E1,4.147113E1,0E0,0E0,0E0,0E0,0E0,0E0,1.3629162E4,9.415668E3,0E0,0E0,0E0,0E0,0E0,0E0,0E0,0E0,0E0,0E0,0E0,0E0,0E0,0E0],"parents":[2147483647,0,0,1,1,2,2,3,3,4,4,5,5,6,6,7,7,9,9,10,10,11,11,13,13,14,14,15,15,16,16,18,18,20,20,21,21,22,22,23,23,26,26,27,27,28,28,30,30,33,33,34,34,41,41,42,42],"right_children":[2,4,6,8,10,12,14,16,-1,18,20,22,-1,24,26,28,30,-1,32,-1,34,36,38,40,-1,-1,42,44,46,-1,48,-1,-1,50,52,-1,-1,-1,-1,-1,-1,54,56,-1,-1,-1,-1,-1,-1,-1,-1,-1,-1,-1,-1,-1,-1],"split_conditions":[-7.566275E1,-8.070458E1,-7.35141E1,-8.132559E1,-4.3351307E1,-7.4142136E1,-7.2165794E1,-9.64867E1,3.4109166E0,-7.8766235E1,-3.3271404E1,-7.496925E1,5.534185E0,-1.6840548E1,-7.1848236E1,-1.0065651E2,-9.5169235E1,3.5199243E-1,-7.730281E1,-2.1055033E0,-1.1143816E1,4.950317E0,-7.4606705E1,-4.406214E1,-2.1734865E0,4.5645847E0,-1.9542038E1,-1.1125871E2,-1.0043947E2,-3.589098E0,6.638026E1,1.8771356E0,9.39637E-1,-7.751883E1,-7.7866554E1,3.7111208E0,2.3074245E0,-6.5869665E-1,1.3117001E0,-1.4599575E0,3.7767215E0,-2.496254E1,-1.7550098E1,1.3701801E0,-7.0305824E-1,7.908263E0,2.8019948E0,1.0750532E0,-2.6180146E0,4.3028387E-1,1.106484E0,-1.166041E0,-6.3658416E-1,1.3305502E0,-2.5288775E0,6.0294833E0,1.4367002E0],"split_indices":[0,0,0,0,1,0,0,0,0,0,1,0,0,1,0,0,0,0,0,0,1,1,0,1,0,0,1,0,0,0,1,0,0,0,0,0,0,0,0,0,0,1,1,0,0,0,0,0,0,0,0,0,0,0,0,0,0],"split_type":[0,0,0,0,0,0,0,0,0,0,0,0,0,0,0,0,0,0,0,0,0,0,0,0,0,0,0,0,0,0,0,0,0,0,0,0,0,0,0,0,0,0,0,0,0,0,0,0,0,0,0,0,0,0,0,0,0],"sum_hessian":[6.24E3,1.643E3,4.597E3,1.446E3,1.97E2,9E1,4.507E3,1.408E3,3.8E1,6E1,1.37E2,7E1,2E1,6E1,4.447E3,1.016E3,3.92E2,2.2E1,3.8E1,1.8E1,1.19E2,4E1,3E1,4.4E1,1.6E1,2.8E1,4.419E3,9.15E2,1.01E2,2.4E1,3.68E2,2.2E1,1.6E1,4.1E1,7.8E1,2.3E1,1.7E1,1.2E1,1.8E1,3E1,1.4E1,2.077E3,2.342E3,7.84E2,1.31E2,1.7E1,8.4E1,3.54E2,1.4E1,1.8E1,2.3E1,2E1,5.8E1,1.992E3,8.5E1,4E1,2.302E3],"tree_param":{"num_deleted":"0","num_feature":"2","num_nodes":"57","size_leaf_vector":"0"}},{"base_weights":[3.0371606E0,2.8274186E0,3.9999256E0,2.9949832E0,7.2045326E-2,3.8911848E0,1.2910105E1,2.8690271E0,9.315863E0,6.3428283E0,-1.8705513E0,3.1244752E0,4.63036E0,3.0385313E0,9.487448E-1,1.3435577E1,3.8953679E0,8.024202E-1,2.0153728E1,-4.463283E0,2.825861E0,3.4815843E0,-1.8043377E-1,8.160169E0,3.7572284E0,2.635464E0,3.9955306E0,3.0673192E0,-4.901973E0,1.5640703E1,1.1625177E1,6.4884076E0,7.751465E-2,3.6215358E0,-6.204893E0,-5.521852E0,2.903036E0,8.508076E0,6.9528455E-1,6.6553497E0,3.057708E0,-2.557541E0,2.1182208E0,6.1398487E0,1.3343027E1,2.8577924E0,5.7080646E0,2.7400627E0,-6.779023E0,2.8937337E0,6.4282036E0,1.9099255E0,5.3139873E0,-1.5370665E1,-3.082508E0,-1.9436228E0,8.996087E0,-1.3763611E0,-6.2318335E0,1.3055042E0,-5.001475E-1,8.413607E0,5.6977506E0,-3.7368125E-1,3.6077268E0,4.5616727E0,7.805635E0,7.231833E0,1.906894E0,1.2878981E1,4.051583E0],"categories":[],"categories_nodes":[],"categories_segments":[],"categories_sizes":[],"default_left":[true,true,true,true,true,true,false,true,true,true,true,true,true,true,true,true,true,true,false,true,true,true,true,true,true,true,true,true,true,false,false,false,false,true,false,true,false,false,true,true,true,false,false,true,false,true,true,false,false,false,false,false,false,false,false,false,false,false,false,false,false,false,false,false,false,false,false,false,false,false,false],"id":12,"left_children":[1,3,5,7,9,11,-1,13,15,17,19,21,23,25,27,29,31,33,-1,35,37,39,41,43,45,47,49,51,53,-1,-1,-1,-1,55,-1,57,-1,-1,59,61,63,-1,-1,65,-1,67,69,-1,-1,-1,-1,-1,-1,-1,-1,-1,-1,-1,-1,-1,-1,-1,-1,-1,-1,-1,-1,-1,-1,-1,-1],"loss_changes":[1.2489531E3,2.3673984E3,1.0291172E3,3.821875E3,3.6054375E3,6.1007227E2,0E0,1.540293E3,2.0467676E3,5.3400894E3,2.7645103E3,6.426636E2,1.6921719E3,1.6697344E3,4.7995757E3,2.975879E1,4.1529053E2,1.029947E3,0E0,1.1545022E3,9.7470233E2,6.401846E2,3.004814E2,1.0698896E3,7.7328125E2,3.0397656E3,3.4363203E3,7.283301E2,1.9145034E3,0E0,0E0,0E0,0E0,1.1241636E3,0E0,3.681548E2,0E0,0E0,4.4421516E1,4.8032715E1,8.223364E2,0E0,0E0,1.7733447E2,0E0,1.2755828E3,1.6226865E3,0E0,0E0,0E0,0E0,0E0,0E0,0E0,0E0,0E0,0E0,0E0,0E0,0E0,0E0,0E0,0E0,0E0,0E0,0E0,0E0,0E0,0E0,0E0,0E0],"parents":[2147483647,0,0,1,1,2,2,3,3,4,4,5,5,7,7,8,8,9,9,10,10,11,11,12,12,13,13,14,14,15,15,16,16,17,17,19,19,20,20,21,21,22,22,23,23,24,24,25,25,26,26,27,27,28,28,33,33,35,35,38,38,39,39,40,40,43,43,45,45,46,46],"right_children":[2,4,6,8,10,12,-1,14,16,18,20,22,24,26,28,30,32,34,-1,36,38,40,42,44,46,48,50,52,54,-1,-1,-1,-1,56,-1,58,-1,-1,60,62,64,-1,-1,66,-1,68,70,-1,-1,-1,-1,-1,-1,-1,-1,-1,-1,-1,-1,-1,-1,-1,-1,-1,-1,-1,-1,-1,-1,-1,-1],"split_conditions":[4.9477566E1,4.3456375E1,1.5231192E2,4.1598785E1,-5.864689E1,2.943483E1,3.8730316E0,2.783638E1,4.273858E1,-6.579435E1,4.8609337E1,2.451308E1,7.62391E1,2.1520789E0,-1.8762764E1,4.2106487E1,4.528658E0,4.8055786E1,6.0461187E0,1.2713542E2,4.876722E1,5.181356E1,9.093742E1,6.0547928E1,8.543733E1,1.9817502E0,-2.1758945E1,-3.0368713E1,-1.0364239E1,4.692211E0,3.4875534E0,1.9465224E0,2.3254395E-2,-6.660219E1,-1.861468E0,-3.3395256E1,8.709109E-1,2.5524228E0,4.908026E1,-5.240342E1,5.4483093E1,-7.672623E-1,6.354663E-1,4.847654E1,4.002908E0,5.103382E1,8.627565E1,8.2201886E-1,-2.0337071E0,8.6812013E-1,1.9284612E0,5.7297766E-1,1.5941962E0,-4.6111994E0,-9.247525E-1,-5.8308685E-1,2.6988263E0,-4.1290835E-1,-1.8695501E0,3.9165127E-1,-1.5004426E-1,2.5240822E0,1.7093252E0,-1.1210438E-1,1.0823181E0,1.3685019E0,2.3416905E0,2.16955E0,5.720682E-1,3.8636944E0,1.2154748E0],"split_indices":[0,0,1,0,1,1,0,0,0,1,0,1,1,1,1,0,1,0,0,1,0,0,0,1,0,1,0,1,1,0,0,0,0,1,0,1,0,0,0,1,0,0,0,1,0,0,0,0,0,0,0,0,0,0,0,0,0,0,0,0,0,0,0,0,0,0,0,0,0,0,0],"split_type":[0,0,0,0,0,0,0,0,0,0,0,0,0,0,0,0,0,0,0,0,0,0,0,0,0,0,0,0,0,0,0,0,0,0,0,0,0,0,0,0,0,0,0,0,0,0,0,0,0,0,0,0,0,0,0,0,0,0,0,0,0,0,0,0,0,0,0,0,0,0,0],"sum_hessian":[6.24E3,5.127E3,1.113E3,4.833E3,2.94E2,1.101E3,1.2E1,4.74E3,9.3E1,6.9E1,2.25E2,5.43E2,5.58E2,4.355E3,3.85E2,5.2E1,4.1E1,5E1,1.9E1,1.45E2,8E1,4.9E2,5.3E1,1.09E2,4.49E2,3.067E3,1.288E3,2.83E2,1.02E2,2E1,3.2E1,2.4E1,1.7E1,3.6E1,1.4E1,1.27E2,1.8E1,2.1E1,5.9E1,5.6E1,4.34E2,2.6E1,2.7E1,8E1,2.9E1,3.09E2,1.4E2,3.034E3,3.3E1,8.88E2,4E2,1.88E2,9.5E1,1.4E1,8.8E1,1.8E1,1.8E1,1.9E1,1.08E2,3.9E1,2E1,1.7E1,3.9E1,6E1,3.74E2,4.3E1,3.7E1,5.4E1,2.55E2,2.5E1,1.15E2],"tree_param":{"num_deleted":"0","num_feature":"2","num_nodes":"71","size_leaf_vector":"0"}},{"base_weights":[2.1325047E0,1.0974413E0,2.2730389E0,1.6532792E0,-4.9724355E0,7.560584E0,2.114036E0,1.0213115E0,3.8856063E0,-1.811149E0,-6.7448964E0,2.821577E1,5.386691E0,1.0223352E1,2.0400267E0,1.3442591E0,-9.558503E0,5.224657E0,5.105362E-1,-2.472632E0,-1.0492534E1,6.90768E0,2.8188932E0,6.1836405E0,1.2441058E1,-6.7502866E0,2.096512E0,7.546577E-1,4.014527E0,1.7296207E0,7.789851E0,-1.2792182E0,2.9328034E0,4.1830945E0,1.5790438E1,1.5249456E-1,1.0807197E1,1.9996218E1,2.0243077E0,4.7433653E0,1.782714E-1,1.6788797E0,5.2505507E0,4.3242297E0,-3.1034672E0,9.02306E0,6.075404E0,6.3065596E0,2.3656616E-2,3.2007134E0,-3.1932926E0,-2.813002E0,2.1219413E0],"categories":[],"categories_nodes":[],"categories_segments":[],"categories_sizes":[],"default_left":[true,true,true,true,true,true,true,true,true,false,true,false,true,true,true,true,false,true,true,false,false,true,true,false,false,false,true,true,true,true,true,false,false,true,false,true,false,false,true,false,false,false,false,false,false,false,false,false,false,false,false,false,false],"id":13,"left_children":[1,3,5,7,9,11,13,15,17,-1,19,-1,21,23,25,27,-1,29,31,-1,-1,33,35,-1,-1,-1,37,39,41,43,45,-1,-1,47,-1,49,-1,-1,51,-1,-1,-1,-1,-1,-1,-1,-1,-1,-1,-1,-1,-1,-1],"loss_changes":[9.05334E2,2.5318735E3,4.6030117E3,9.63812E2,3.4078906E2,7.0323564E3,3.1810234E3,1.8442144E3,6.797605E2,0E0,6.144918E2,0E0,5.507446E2,3.530957E2,2.6397715E3,8.172294E2,0E0,9.547947E2,1.945033E2,0E0,0E0,2.136314E3,1.1911521E3,0E0,0E0,0E0,6.751285E3,9.8314197E2,2.6255505E2,6.027988E2,7.626611E1,0E0,0E0,6.2695276E2,0E0,4.4876456E2,0E0,0E0,2.478377E3,0E0,0E0,0E0,0E0,0E0,0E0,0E0,0E0,0E0,0E0,0E0,0E0,0E0,0E0],"parents":[2147483647,0,0,1,1,2,2,3,3,4,4,5,5,6,6,7,7,8,8,10,10,12,12,13,13,14,14,15,15,17,17,18,18,21,21,22,22,26,26,27,27,28,28,29,29,30,30,33,33,35,35,38,38],"right_children":[2,4,6,8,10,12,14,16,18,-1,20,-1,22,24,26,28,-1,30,32,-1,-1,34,36,-1,-1,-1,38,40,42,44,46,-1,-1,48,-1,50,-1,-1,52,-1,-1,-1,-1,-1,-1,-1,-1,-1,-1,-1,-1,-1,-1],"split_conditions":[-6.894153E1,-7.07277E1,-6.5269684E1,-7.491504E1,-1.08839355E2,-8.778253E1,-1.5234795E2,-7.5203735E1,-7.168458E1,-5.4334474E-1,-7.0178345E1,8.464731E0,4.5625942E1,-1.6019351E2,-6.4899765E1,2.7004253E1,-2.867551E0,-9.204978E1,-7.136119E1,-7.417896E-1,-3.1477602E0,3.373074E1,4.9673225E1,1.8550922E0,3.7323177E0,-2.0250862E0,-6.425189E1,-1.05803246E2,-9.0442604E1,-1.4337907E2,-7.249055E1,-3.837655E-1,8.79841E-1,2.248042E1,4.7371316E0,4.8055786E1,3.2421591E0,5.9988656E0,-6.176326E1,1.4230096E0,5.3481422E-2,5.0366396E-1,1.5751653E0,1.297269E0,-9.310402E-1,2.706918E0,1.8226213E0,1.8919679E0,7.096985E-3,9.602141E-1,-9.5798784E-1,-8.439007E-1,6.3658243E-1],"split_indices":[1,1,1,1,0,0,0,1,1,0,1,0,0,0,1,0,0,0,1,0,0,0,0,0,0,0,1,1,1,0,1,0,0,0,0,0,0,0,1,0,0,0,0,0,0,0,0,0,0,0,0,0,0],"split_type":[0,0,0,0,0,0,0,0,0,0,0,0,0,0,0,0,0,0,0,0,0,0,0,0,0,0,0,0,0,0,0,0,0,0,0,0,0,0,0,0,0,0,0,0,0,0,0,0,0,0,0,0,0],"sum_hessian":[6.24E3,7.47E2,5.493E3,6.85E2,6.2E1,1.59E2,5.334E3,5.35E2,1.5E2,2.3E1,3.9E1,1.4E1,1.45E2,4.7E1,5.287E3,5.2E2,1.5E1,1.07E2,4.3E1,1.9E1,2E1,9E1,5.5E1,1.8E1,2.9E1,3.3E1,5.254E3,4.27E2,9.3E1,4.6E1,6.1E1,2.5E1,1.8E1,7E1,2E1,4.2E1,1.3E1,2E1,5.234E3,5.3E1,3.74E2,3.3E1,6E1,3E1,1.6E1,3.3E1,2.8E1,4.6E1,2.4E1,2.2E1,2E1,1.03E2,5.131E3],"tree_param":{"num_deleted":"0","num_feature":"2","num_nodes":"53","size_leaf_vector":"0"}},{"base_weights":[1.4974563E0,2.023234E0,1.2537469E0,1.5730377E0,5.6821313E0,-4.3211446E0,1.3342828E0,1.7191639E0,-9.537407E0,1.1385212E1,3.9849105E0,5.271738E-1,-6.879691E0,4.504133E0,1.219212E0,1.5661724E0,1.4153456E1,1.3833896E1,9.373249E0,4.9896135E0,1.8299816E0,1.2199825E0,6.0841255E0,-5.438392E0,1.3543657E0,7.359157E-1,2.355967E0,5.869933E0,1.17069645E1,3.4534347E0,9.373123E0,-2.4630127E0,3.9850333E0,4.4261894E0,-7.8446615E-1,1.1478682E1,4.6594353E0,-9.1093E0,1.2780188E1,1.3139751E1,1.2465024E0,1.7449915E0,-4.2717433E0,8.515399E0,1.8460923E0,5.3335304E0,1.6219361E0,5.286632E0,2.1427622E0,-1.4431953E-2,5.7382417E0,-7.526419E0,-1.1376783E1,1.5271053E1,9.13786E0,-3.746734E0,1.3987119E0],"categories":[],"categories_nodes":[],"categories_segments":[],"categories_sizes":[],"default_left":[true,true,true,true,true,true,true,true,false,true,true,false,false,true,true,true,false,false,true,true,true,true,true,true,true,true,true,false,false,true,false,false,true,false,false,false,true,true,false,true,true,false,false,false,false,false,false,false,false,false,false,false,false,false,false,false,false],"id":14,"left_children":[1,3,5,7,9,11,13,15,-1,17,19,-1,-1,21,23,25,-1,-1,27,29,31,33,35,37,39,41,43,-1,-1,45,-1,-1,47,-1,-1,-1,49,51,-1,53,55,-1,-1,-1,-1,-1,-1,-1,-1,-1,-1,-1,-1,-1,-1,-1,-1],"loss_changes":[7.97166E2,3.2443232E3,1.9215586E3,2.8738022E3,2.0453784E3,7.603103E2,1.5290415E3,3.2841006E3,0E0,1.1173828E2,3.5459985E2,0E0,0E0,7.553506E2,3.6614512E3,1.1248145E3,0E0,0E0,1.7655298E2,7.3529004E2,5.1865454E2,3.1837936E2,7.0738745E2,5.5335947E3,5.044307E3,4.2470117E3,2.7479531E3,0E0,0E0,2.874812E2,0E0,0E0,7.7394226E1,0E0,0E0,0E0,4.0345886E2,1.5843604E2,0E0,1.6750781E2,3.0042705E3,0E0,0E0,0E0,0E0,0E0,0E0,0E0,0E0,0E0,0E0,0E0,0E0,0E0,0E0,0E0,0E0],"parents":[2147483647,0,0,1,1,2,2,3,3,4,4,5,5,6,6,7,7,9,9,10,10,13,13,14,14,15,15,18,18,19,19,20,20,21,21,22,22,23,23,24,24,25,25,26,26,29,29,32,32,36,36,37,37,39,39,40,40],"right_children":[2,4,6,8,10,12,14,16,-1,18,20,-1,-1,22,24,26,-1,-1,28,30,32,34,36,38,40,42,44,-1,-1,46,-1,-1,48,-1,-1,-1,50,52,-1,54,56,-1,-1,-1,-1,-1,-1,-1,-1,-1,-1,-1,-1,-1,-1,-1,-1],"split_conditions":[-4.6515465E1,-4.9186794E1,-4.62081E1,-4.9512283E1,-8.7597824E1,-7.521013E1,-1.2650902E2,-5.011209E1,-2.8612223E0,-9.729866E1,-6.3076797E1,1.5815215E-1,-2.0639074E0,-1.4569353E2,-1.1868306E2,-3.5389763E1,4.246037E0,4.150169E0,-9.417929E1,-6.9009995E1,-6.2396988E1,-1.5419943E2,-1.4339833E2,-1.3758368E1,-1.13746155E2,-5.7671444E1,-1.991679E1,1.76098E0,3.5120895E0,-4.7451477E1,2.811937E0,-7.389038E-1,-2.1381817E0,1.3278569E0,-2.3533985E-1,3.4436047E0,-3.8846245E1,-1.2221446E2,3.8340564E0,-1.16448074E2,-1.0241542E2,5.2349746E-1,-1.281523E0,2.5546198E0,5.538277E-1,1.6000592E0,4.8658085E-1,1.5859897E0,6.428287E-1,-4.3295864E-3,1.7214726E0,-2.2579257E0,-3.4130352E0,4.581316E0,2.7413583E0,-1.1240202E0,4.196136E-1],"split_indices":[1,1,1,1,0,0,0,1,0,0,0,0,0,0,0,0,0,0,0,0,0,0,0,1,0,0,0,0,0,1,0,0,0,0,0,0,1,0,0,0,0,0,0,0,0,0,0,0,0,0,0,0,0,0,0,0,0],"split_type":[0,0,0,0,0,0,0,0,0,0,0,0,0,0,0,0,0,0,0,0,0,0,0,0,0,0,0,0,0,0,0,0,0,0,0,0,0,0,0,0,0,0,0,0,0,0,0,0,0,0,0,0,0,0,0,0,0],"sum_hessian":[6.24E3,1.974E3,4.266E3,1.759E3,2.15E2,6E1,4.206E3,1.737E3,2.2E1,4.8E1,1.67E2,2.1E1,3.9E1,1.46E2,4.06E3,1.717E3,2E1,1.9E1,2.9E1,1.13E2,5.4E1,4.8E1,9.8E1,8E1,3.98E3,8.38E2,8.79E2,1.3E1,1.6E1,8.5E1,2.8E1,1.8E1,3.6E1,1.8E1,3E1,1.9E1,7.9E1,6.7E1,1.3E1,3.5E1,3.945E3,6.98E2,1.4E2,6.6E1,8.13E2,4.1E1,4.4E1,2E1,1.6E1,1.5E1,6.4E1,4.2E1,2.5E1,2.1E1,1.4E1,1.16E2,3.829E3],"tree_param":{"num_deleted":"0","num_feature":"2","num_nodes":"57","size_leaf_vector":"0"}},{"base_weights":[1.0528115E0,8.9047945E-1,1.8647083E0,1.0149947E0,-7.3870295E-1,5.094282E0,1.6510224E0,9.313343E-1,5.223711E0,-6.48734E0,1.5902467E-1,3.0257661E0,8.905732E0,1.4198829E0,4.978173E0,8.3942795E-1,2.7637134E0,8.203365E0,1.3392973E0,-2.5205564E0,-1.2311487E1,3.4864898E0,-9.416209E-1,4.0534954E0,6.0736305E-1,1.632204E0,-2.815381E0,6.5117493E0,2.6922286E0,9.873914E-1,-2.3923576E0,5.4069686E0,1.0704027E0,1.0166024E1,6.705814E0,2.9282367E0,-9.4196826E-1,1.0107636E0,1.086313E1,-2.9519653E0,4.0046838E-1,1.289752E0,5.472653E0,-7.558717E0,-8.004203E-1,3.3390453E0,9.041595E0,-2.4772305E0,7.6693854E0,8.1895447E-1,4.152258E0,-6.0908856E0,-1.2647455E0,3.6210122E0,8.136987E0,-3.911519E0,2.9159186E0,3.8747227E0,-2.7392116E0,-3.8836756E0,1.0773541E0,5.063477E0,-4.2342493E-1,1.4481876E0,-2.5629082E0,7.614142E0,-3.0298483E0,2.9468477E0,-5.2437806E0],"categories":[],"categories_nodes":[],"categories_segments":[],"categories_sizes":[],"default_left":[true,true,true,true,true,true,true,true,true,true,true,true,false,true,true,true,true,true,true,false,false,true,true,false,false,true,true,true,true,true,true,true,true,false,false,false,false,true,false,true,true,true,true,false,true,false,false,false,false,false,false,false,false,false,false,false,false,false,false,false,false,false,false,false,false,false,false,false,false],"id":15,"left_children":[1,3,5,7,9,11,13,15,17,19,21,23,-1,25,27,29,31,33,35,-1,-1,37,39,-1,-1,41,43,45,47,49,51,53,55,-1,-1,-1,-1,57,-1,59,61,63,65,-1,67,-1,-1,-1,-1,-1,-1,-1,-1,-1,-1,-1,-1,-1,-1,-1,-1,-1,-1,-1,-1,-1,-1,-1,-1],"loss_changes":[8.208838E2,1.0562207E3,7.086179E2,1.6972021E3,1.9104944E3,4.7763232E2,7.4351074E2,7.9609863E2,1.076989E3,1.124125E3,1.1789004E3,1.04412994E2,0E0,8.2649695E2,2.0332605E2,2.1618508E3,1.0057549E3,8.7605225E1,1.549996E2,0E0,0E0,1.4500232E3,6.541131E2,0E0,0E0,1.1384543E3,4.1448584E2,2.6678845E2,7.136875E2,2.298974E3,8.1805664E2,3.9959668E2,1.2894016E3,0E0,0E0,0E0,0E0,6.6574E2,0E0,3.6833734E2,5.6305E2,4.9264062E2,1.3158386E3,0E0,5.482674E2,0E0,0E0,0E0,0E0,0E0,0E0,0E0,0E0,0E0,0E0,0E0,0E0,0E0,0E0,0E0,0E0,0E0,0E0,0E0,0E0,0E0,0E0,0E0,0E0],"parents":[2147483647,0,0,1,1,2,2,3,3,4,4,5,5,6,6,7,7,8,8,9,9,10,10,11,11,13,13,14,14,15,15,16,16,17,17,18,18,21,21,22,22,25,25,26,26,27,27,28,28,29,29,30,30,31,31,32,32,37,37,39,39,40,40,41,41,42,42,44,44],"right_children":[2,4,6,8,10,12,14,16,18,20,22,24,-1,26,28,30,32,34,36,-1,-1,38,40,-1,-1,42,44,46,48,50,52,54,56,-1,-1,-1,-1,58,-1,60,62,64,66,-1,68,-1,-1,-1,-1,-1,-1,-1,-1,-1,-1,-1,-1,-1,-1,-1,-1,-1,-1,-1,-1,-1,-1,-1,-1],"split_conditions":[5.043165E1,4.3456375E1,5.103382E1,4.1598785E1,4.4218826E1,5.956156E1,1.4918762E2,1.01304E2,4.273858E1,4.37675E1,-5.864689E1,5.0727554E1,2.6717198E0,1.4777545E2,8.099331E1,4.4850872E1,1.5303516E2,4.2106487E1,4.528658E0,-7.56167E-1,-3.6934464E0,-6.579435E1,4.8609337E1,1.2160487E0,1.8220893E-1,1.4166486E2,7.5880356E1,7.8124954E1,8.168352E1,2.1901226E1,-7.07888E1,-7.970901E1,-5.4597885E1,3.0498073E0,2.0117443E0,8.784711E-1,-2.8259048E-1,-6.614092E1,3.258939E0,1.2713542E2,4.876722E1,1.4133356E2,8.680448E1,-2.267615E0,1.4903674E2,1.0017136E0,2.7124786E0,-7.431692E-1,2.3008158E0,2.4568635E-1,1.2456775E0,-1.8272657E0,-3.7942365E-1,1.0863037E0,2.441096E0,-1.1734557E0,8.747756E-1,1.1624168E0,-8.217635E-1,-1.1651027E0,3.2320625E-1,1.5190432E0,-1.2702748E-1,4.344563E-1,-7.688725E-1,2.2842426E0,-9.0895456E-1,8.8405436E-1,-1.5731343E0],"split_indices":[0,0,0,0,0,1,1,1,0,0,1,0,0,1,0,1,1,0,1,0,0,1,0,0,0,1,0,0,0,1,0,0,0,0,0,0,0,1,0,1,0,1,0,0,1,0,0,0,0,0,0,0,0,0,0,0,0,0,0,0,0,0,0,0,0,0,0,0,0],"split_type":[0,0,0,0,0,0,0,0,0,0,0,0,0,0,0,0,0,0,0,0,0,0,0,0,0,0,0,0,0,0,0,0,0,0,0,0,0,0,0,0,0,0,0,0,0,0,0,0,0,0,0,0,0,0,0,0,0,0,0,0,0,0,0,0,0,0,0,0,0],"sum_hessian":[6.24E3,5.202E3,1.038E3,4.833E3,3.69E2,6.3E1,9.75E2,4.74E3,9.3E1,4.9E1,3.2E2,4.2E1,2.1E1,9.13E2,6.2E1,4.515E3,2.25E2,5.2E1,4.1E1,3E1,1.9E1,7.9E1,2.41E2,2.9E1,1.3E1,8.7E2,4.3E1,3.6E1,2.6E1,4.318E3,1.97E2,8.7E1,1.38E2,2E1,3.2E1,2.4E1,1.7E1,6E1,1.9E1,9.6E1,1.45E2,8E2,7E1,1.2E1,3.1E1,1.7E1,1.9E1,1.3E1,1.3E1,4.101E3,2.17E2,4.5E1,1.52E2,5.4E1,3.3E1,3.7E1,1.01E2,3.4E1,2.6E1,7.8E1,1.8E1,2.1E1,1.24E2,7.69E2,3.1E1,5.6E1,1.4E1,1.7E1,1.4E1],"tree_param":{"num_deleted":"0","num_feature":"2","num_nodes":"69","size_leaf_vector":"0"}},{"base_weights":[7.3942125E-1,7.131247E0,7.218469E-1,-5.434751E0,7.565358E-1,7.234314E-1,4.0713973E0,1.1992992E0,5.055163E-1,-2.7919226E0,8.598738E0,7.113135E-1,3.1945443E0,-5.899871E0,5.51389E-1,4.145284E0,1.35942545E1,8.237231E-1,-5.205027E0,-7.978922E0,3.6782384E0,3.1093913E-1,1.4218776E0],"categories":[],"categories_nodes":[],"categories_segments":[],"categories_sizes":[],"default_left":[true,false,true,false,true,true,true,true,true,false,true,true,true,false,true,false,false,false,false,false,false,false,false],"id":16,"left_children":[1,-1,3,-1,5,7,9,11,13,-1,15,17,19,-1,21,-1,-1,-1,-1,-1,-1,-1,-1],"loss_changes":[6.9591846E2,0E0,1.3335581E3,0E0,6.7643335E2,6.3517114E2,1.9194346E3,1.8720066E3,1.2394058E3,0E0,7.6679834E2,1.03379E3,2.0722637E3,0E0,8.740502E2,0E0,0E0,0E0,0E0,0E0,0E0,0E0,0E0],"parents":[2147483647,0,0,2,2,4,4,5,5,6,6,7,7,8,8,10,10,11,11,12,12,14,14],"right_children":[2,-1,4,-1,6,8,10,12,14,-1,16,18,20,-1,22,-1,-1,-1,-1,-1,-1,-1,-1],"split_conditions":[-1.769274E2,2.1393743E0,-1.7626901E2,-1.6304253E0,1.7316449E2,-4.6515465E1,-5.4597885E1,-5.1295944E1,-4.629136E1,-8.375768E-1,1.7613397E2,-5.179187E1,-1.2346925E2,-1.7699614E0,5.043165E1,1.2435853E0,4.0782766E0,2.4711694E-1,-1.5615082E0,-2.3936768E0,1.1034715E0,9.3281746E-2,4.265633E-1],"split_indices":[0,0,0,0,1,1,0,1,1,0,1,1,0,0,0,0,0,0,0,0,0,0,0],"split_type":[0,0,0,0,0,0,0,0,0,0,0,0,0,0,0,0,0,0,0,0,0,0,0],"sum_hessian":[6.24E3,1.6E1,6.224E3,3.4E1,6.19E3,6.13E3,6E1,1.924E3,4.206E3,2.4E1,3.6E1,1.547E3,3.77E2,2.9E1,4.177E3,2E1,1.6E1,1.519E3,2.8E1,1.5E1,3.62E2,3.274E3,9.03E2],"tree_param":{"num_deleted":"0","num_feature":"2","num_nodes":"23","size_leaf_vector":"0"}},{"base_weights":[5.177806E-1,-2.4869636E-1,6.2204105E-1,1.614425E-1,-4.7107053E0,4.2303176E0,4.983203E-1,-2.628792E-1,1.6665748E0,-2.264389E0,-6.060727E0,1.9366806E1,2.8536649E0,6.033688E0,4.477704E-1,-2.3895029E-2,-8.028371E0,2.596643E0,-6.541963E-1,-2.76223E0,-8.9135475E0,3.773837E0,6.686844E-1,2.847107E0,7.8507333E0,-2.1467674E0,5.159338E-1,5.1177187E0,-1.9693175E-1,2.2385357E-1,4.353489E0,2.1077108E0,-2.0133433E0,-9.879205E-1,5.000115E0,-1.4757273E0,6.4414673E0,-1.2971217E1,2.8811696E0,4.319517E0,4.177767E-1,-6.722476E-1,2.002272E0,2.0852926E0,-3.1837032E0,5.293343E0,3.101471E0,1.4420524E0,6.9923162E0,5.562897E-1,-2.6842492E0,-1.6529303E1,-6.557129E0,1.4110629E1,-3.886911E-1,5.9103017E0,-5.2013564E0,-2.2031164E0,5.5548555E-1],"categories":[],"categories_nodes":[],"categories_segments":[],"categories_sizes":[],"default_left":[true,true,true,true,true,true,true,true,true,false,true,false,true,true,true,true,false,true,true,false,false,true,true,false,false,true,true,false,true,true,true,false,false,false,true,true,false,true,true,true,true,false,false,false,false,false,false,false,false,false,false,false,false,false,false,false,false,false,false],"id":17,"left_children":[1,3,5,7,9,11,13,15,17,-1,19,-1,21,23,25,27,-1,29,31,-1,-1,33,35,-1,-1,37,39,-1,41,43,45,-1,-1,-1,47,49,-1,51,53,55,57,-1,-1,-1,-1,-1,-1,-1,-1,-1,-1,-1,-1,-1,-1,-1,-1,-1,-1],"loss_changes":[4.9889307E2,1.3696328E3,2.450516E3,4.3855905E2,1.9433875E2,3.7371929E3,1.4839421E3,9.9453284E2,3.276285E2,0E0,3.5177954E2,0E0,3.3525037E2,2.5557605E2,9.3241345E2,4.6453528E2,0E0,4.4923706E2,1.6941241E2,0E0,0E0,6.9396985E2,6.4084625E2,0E0,0E0,7.3847E3,1.9142211E3,0E0,5.292308E2,3.0475806E2,5.6539185E1,0E0,0E0,0E0,6.562239E2,9.481123E1,0E0,8.7295605E2,3.42033E3,1.984532E3,1.8072683E3,0E0,0E0,0E0,0E0,0E0,0E0,0E0,0E0,0E0,0E0,0E0,0E0,0E0,0E0,0E0,0E0,0E0,0E0],"parents":[2147483647,0,0,1,1,2,2,3,3,4,4,5,5,6,6,7,7,8,8,10,10,12,12,13,13,14,14,15,15,17,17,18,18,21,21,22,22,25,25,26,26,28,28,29,29,30,30,34,34,35,35,37,37,38,38,39,39,40,40],"right_children":[2,4,6,8,10,12,14,16,18,-1,20,-1,22,24,26,28,-1,30,32,-1,-1,34,36,-1,-1,38,40,-1,42,44,46,-1,-1,-1,48,50,-1,52,54,56,58,-1,-1,-1,-1,-1,-1,-1,-1,-1,-1,-1,-1,-1,-1,-1,-1,-1,-1],"split_conditions":[-6.894153E1,-7.07277E1,-6.515468E1,-7.491504E1,-1.08839355E2,-8.778253E1,-1.5234795E2,-7.5203735E1,-7.168458E1,-6.7931676E-1,-7.0178345E1,5.810042E0,4.5963043E1,-1.6019351E2,-6.176326E1,-1.769274E2,-2.4085114E0,-9.204978E1,1.3306368E1,-8.28669E-1,-2.6740644E0,-6.789619E1,4.9673225E1,8.541321E-1,2.35522E0,-4.669329E1,-5.9111214E1,1.5353156E0,-7.9635605E1,-1.4337907E2,-7.249055E1,6.3231325E-1,-6.04003E-1,-2.9637617E-1,-2.4319235E1,4.7011612E1,1.9324403E0,-6.2132935E1,-6.425189E1,4.982698E1,-5.3331818E1,-2.0167428E-1,6.006816E-1,6.255878E-1,-9.5511097E-1,1.588003E0,9.304413E-1,4.3261573E-1,2.0976949E0,1.6688691E-1,-8.052748E-1,-4.958791E0,-1.9671388E0,4.233189E0,-1.1660733E-1,1.7730906E0,-1.560407E0,-6.609349E-1,1.6664568E-1],"split_indices":[1,1,1,1,0,0,0,1,1,0,1,0,0,0,1,0,0,0,0,0,0,1,0,0,0,0,1,0,1,0,1,0,0,0,0,0,0,1,1,0,1,0,0,0,0,0,0,0,0,0,0,0,0,0,0,0,0,0,0],"split_type":[0,0,0,0,0,0,0,0,0,0,0,0,0,0,0,0,0,0,0,0,0,0,0,0,0,0,0,0,0,0,0,0,0,0,0,0,0,0,0,0,0,0,0,0,0,0,0,0,0,0,0,0,0,0,0,0,0,0,0],"sum_hessian":[6.24E3,7.47E2,5.493E3,6.85E2,6.2E1,1.81E2,5.312E3,5.35E2,1.5E2,2.3E1,3.9E1,1.4E1,1.67E2,4.7E1,5.265E3,5.2E2,1.5E1,1.07E2,4.3E1,1.9E1,2E1,1.17E2,5E1,1.8E1,2.9E1,1.34E2,5.131E3,1.6E1,5.04E2,4.6E1,6.1E1,1.4E1,2.9E1,2.4E1,9.3E1,3.7E1,1.3E1,4.2E1,9.2E1,1.28E2,5.003E3,4.15E2,8.9E1,3E1,1.6E1,3.3E1,2.8E1,3.4E1,5.9E1,1.4E1,2.3E1,2.6E1,1.6E1,2E1,7.2E1,1.1E2,1.8E1,2.49E2,4.754E3],"tree_param":{"num_deleted":"0","num_feature":"2","num_nodes":"59","size_leaf_vector":"0"}},{"base_weights":[3.6357427E-1,-1.1755992E-1,5.355232E-1,5.0994456E-1,-1.1335703E0,4.684553E0,4.5165068E-1,-1.9071338E-1,4.7590075E0,-4.8011656E0,-2.6668417E-1,2.883353E0,1.0551251E1,-4.6907816E0,4.8252842E-1,5.1777077E-1,-6.3681507E0,7.778721E0,1.473857E-1,-1.7070994E0,-1.6490334E1,1.1668392E1,-7.532859E-1,5.125866E0,-1.7556271E-1,6.521638E-2,8.540512E-1,-4.95908E-2,1.4319068E1,-1.784732E1,-1.6785107E0,9.802597E0,-4.4958496E0,-4.831617E0,4.6397953E0,-8.040934E0,1.895986E0,-9.498639E0,-1.21517494E-1,6.343739E0,3.217265E0,-1.6921011E0,8.71309E-1,4.996969E-1,-5.6621995E0,1.1890179E1,6.5957016E-1,4.4722974E-1,-8.087924E0,1.9808342E1,9.254129E0,2.1646204E0,-7.9141054E0,3.6262994E0,1.7553452E1,5.7918177E0,2.8272095E0,-3.4309256E0,-1.0609078E1,7.173417E0,-7.3645887E0,-5.787759E0,-1.1621323E1,1.7724815E1,-1.0196818E0,-3.3665311E0,7.176831E-1,-1.0216131E1,-6.501323E-1,6.1951523E0,4.8544988E-1],"categories":[],"categories_nodes":[],"categories_segments":[],"categories_sizes":[],"default_left":[true,true,true,true,true,true,true,true,true,true,true,true,false,false,true,true,true,true,true,true,false,false,true,true,true,true,true,true,true,false,true,true,false,false,true,true,true,true,true,false,false,false,false,true,true,false,true,false,false,false,false,false,false,false,false,false,false,false,false,false,false,false,false,false,false,false,false,false,false,false,false],"id":18,"left_children":[1,3,5,7,9,11,13,15,17,19,21,23,-1,-1,25,27,29,31,33,35,-1,-1,37,39,41,43,45,47,49,-1,51,53,-1,-1,55,57,59,61,63,-1,-1,-1,-1,65,67,-1,69,-1,-1,-1,-1,-1,-1,-1,-1,-1,-1,-1,-1,-1,-1,-1,-1,-1,-1,-1,-1,-1,-1,-1,-1],"loss_changes":[5.163839E2,1.048712E3,1.5979402E3,3.028659E3,1.9953749E3,9.3118286E2,7.180737E2,3.82846E3,2.0041653E3,4.3118965E3,2.9648728E3,4.8793567E2,0E0,0E0,6.9483765E2,6.147516E3,4.8150283E3,2.2053433E3,1.3197455E3,2.2060947E3,0E0,0E0,2.706114E3,7.4892334E1,5.0690598E1,5.258437E3,5.081076E3,3.018792E3,6.785791E2,0E0,1.5748046E3,3.5267148E3,0E0,0E0,4.8357605E1,3.7797192E2,3.082896E3,1.9268042E2,7.3593276E3,0E0,0E0,0E0,0E0,1.6576444E3,3.3942256E3,0E0,2.2437432E3,0E0,0E0,0E0,0E0,0E0,0E0,0E0,0E0,0E0,0E0,0E0,0E0,0E0,0E0,0E0,0E0,0E0,0E0,0E0,0E0,0E0,0E0,0E0,0E0],"parents":[2147483647,0,0,1,1,2,2,3,3,4,4,5,5,6,6,7,7,8,8,9,9,10,10,11,11,14,14,15,15,16,16,17,17,18,18,19,19,22,22,23,23,24,24,25,25,26,26,27,27,28,28,30,30,31,31,34,34,35,35,36,36,37,37,38,38,43,43,44,44,46,46],"right_children":[2,4,6,8,10,12,14,16,18,20,22,24,-1,-1,26,28,30,32,34,36,-1,-1,38,40,42,44,46,48,50,-1,52,54,-1,-1,56,58,60,62,64,-1,-1,-1,-1,66,68,-1,70,-1,-1,-1,-1,-1,-1,-1,-1,-1,-1,-1,-1,-1,-1,-1,-1,-1,-1,-1,-1,-1,-1,-1,-1],"split_conditions":[-7.566275E1,-9.64867E1,-7.35141E1,-1.01539825E2,-8.8405624E1,-7.4142136E1,-7.2609985E1,-1.1125871E2,-9.9054726E1,-9.093664E1,-8.693797E1,-7.496925E1,3.1653755E0,-1.4072345E0,-1.9542038E1,-1.1240991E2,-1.0655099E2,-9.47502E0,-9.735399E1,-9.449364E1,-4.9471E0,3.5005178E0,-8.6363754E1,4.950317E0,-7.4606705E1,-2.6367653E1,-1.7550098E1,-1.15344955E2,-1.1176869E2,-5.3541965E0,-1.04265396E2,-1.0065651E2,-1.3487549E0,-1.4494851E0,-9.729866E1,-9.569749E1,-3.2296036E1,-8.663606E1,-8.623396E1,1.9031218E0,9.651795E-1,-5.0763035E-1,2.613927E-1,-6.758001E1,4.8386513E1,3.5670538E0,-7.0128815E1,1.3416892E-1,-2.4263773E0,5.942503E0,2.776239E0,6.4938617E-1,-2.3742318E0,1.0878899E0,5.2660356E0,1.7375454E0,8.481629E-1,-1.0292777E0,-3.1827238E0,2.1520252E0,-2.2093768E0,-1.7363278E0,-3.486397E0,5.317445E0,-3.0590457E-1,-1.0099593E0,2.1530493E-1,-3.0648396E0,-1.950397E-1,1.8585458E0,1.4563496E-1],"split_indices":[0,0,0,0,0,0,0,0,0,0,0,0,0,0,1,0,0,1,0,0,0,0,0,1,0,1,1,0,0,0,0,0,0,0,0,0,1,0,0,0,0,0,0,0,0,0,0,0,0,0,0,0,0,0,0,0,0,0,0,0,0,0,0,0,0,0,0,0,0,0,0],"split_type":[0,0,0,0,0,0,0,0,0,0,0,0,0,0,0,0,0,0,0,0,0,0,0,0,0,0,0,0,0,0,0,0,0,0,0,0,0,0,0,0,0,0,0,0,0,0,0,0,0,0,0,0,0,0,0,0,0,0,0,0,0,0,0,0,0,0,0,0,0,0,0],"sum_hessian":[6.24E3,1.643E3,4.597E3,1.016E3,6.27E2,9E1,4.507E3,8.73E2,1.43E2,1.19E2,5.08E2,7E1,2E1,2.6E1,4.481E3,7.84E2,8.9E1,8.6E1,5.7E1,9.5E1,2.4E1,1.9E1,4.89E2,4E1,3E1,2.111E3,2.37E3,7.54E2,3E1,2.5E1,6.4E1,7.4E1,1.2E1,2.7E1,3E1,3.4E1,6.1E1,3.2E1,4.57E2,2.3E1,1.7E1,1.2E1,1.8E1,1.963E3,1.48E2,4E1,2.33E3,7.11E2,4.3E1,1.3E1,1.7E1,4E1,2.4E1,4.2E1,3.2E1,1.7E1,1.3E1,1.3E1,2.1E1,3.9E1,2.2E1,1.3E1,1.9E1,2.1E1,4.36E2,1.04E2,1.859E3,7.7E1,7.1E1,7E1,2.26E3],"tree_param":{"num_deleted":"0","num_feature":"2","num_nodes":"71","size_leaf_vector":"0"}},{"base_weights":[2.553796E-1,2.3203813E-1,2.616334E0,-3.560249E-1,3.1294337E-1,-2.2876356E0,5.859115E0,-6.253623E-2,-3.5461392E0,2.8114805E0,2.2631732E-1,2.6635103E0,9.461973E0,2.3783367E0,-2.7066356E-1,-1.7419529E0,-4.5399976E0,1.3415302E1,1.8479756E0,4.1590676E0,1.9001338E-1,4.4654455E0,-1.7013614E0,-1.4189041E0,3.9267588E-1,-2.1795259E0,-6.5718756E0,2.5885172E0,3.206689E-1,1.9108261E0,5.4443183E0,-2.6429412E0,2.2188778E-1,3.5464442E0,-1.8031263E0,2.3359766E0,-3.2913524E-1,1.6447401E0,7.821332E0,-1.0302912E0,4.447141E0,-1.3260654E0,-6.016861E0,7.599476E0,1.93082E-1],"categories":[],"categories_nodes":[],"categories_segments":[],"categories_sizes":[],"default_left":[true,true,true,true,true,false,true,true,true,true,true,false,false,true,true,false,true,false,true,true,true,false,false,true,true,false,false,true,true,false,false,true,true,false,false,false,false,false,false,false,false,false,false,false,false],"id":19,"left_children":[1,3,5,7,9,-1,11,13,15,17,19,-1,-1,21,23,-1,25,-1,27,29,31,-1,-1,33,35,-1,-1,37,39,-1,-1,41,43,-1,-1,-1,-1,-1,-1,-1,-1,-1,-1,-1,-1],"loss_changes":[3.4332275E2,2.9418723E2,9.83456E2,7.0010254E2,1.17549E3,0E0,4.007904E2,3.491402E2,1.0505719E2,1.8346725E3,7.4920337E2,0E0,0E0,4.6739514E2,4.826963E2,0E0,1.7752405E2,0E0,1.8918372E2,1.2829541E2,4.7068176E2,0E0,0E0,4.4900372E2,5.6465265E2,0E0,0E0,5.45199E2,3.1676505E2,0E0,0E0,2.4971722E2,1.0927836E3,0E0,0E0,0E0,0E0,0E0,0E0,0E0,0E0,0E0,0E0,0E0,0E0],"parents":[2147483647,0,0,1,1,2,2,3,3,4,4,6,6,7,7,8,8,9,9,10,10,13,13,14,14,16,16,18,18,19,19,20,20,23,23,24,24,27,27,28,28,31,31,32,32],"right_children":[2,4,6,8,10,-1,12,14,16,18,20,-1,-1,22,24,-1,26,-1,28,30,32,-1,-1,34,36,-1,-1,38,40,-1,-1,42,44,-1,-1,-1,-1,-1,-1,-1,-1,-1,-1,-1,-1],"split_conditions":[1.7316449E2,-6.894153E1,-5.4597885E1,-7.07277E1,-6.515468E1,-6.862907E-1,1.7613397E2,-1.05803246E2,-1.08839355E2,-8.778253E1,-1.5234795E2,7.9905313E-1,2.838592E0,-9.2623886E1,-1.6316284E2,-5.2258587E-1,-7.0178345E1,4.024591E0,4.5625942E1,-1.6019351E2,-1.4535567E2,1.3396337E0,-5.1040846E-1,-1.769274E2,1.2946362E1,-6.5385777E-1,-1.9715627E0,4.2947838E1,4.9673225E1,5.7324785E-1,1.6332955E0,-1.4587685E2,-1.4339833E2,1.0639333E0,-5.409379E-1,7.00793E-1,-9.874058E-2,4.9342206E-1,2.3463998E0,-3.0908737E-1,1.3341424E0,-3.9781964E-1,-1.8050584E0,2.2798429E0,5.7924602E-2],"split_indices":[1,1,0,1,1,0,1,1,0,0,0,0,0,0,0,0,1,0,0,0,0,0,0,0,0,0,0,0,0,0,0,0,0,0,0,0,0,0,0,0,0,0,0,0,0],"split_type":[0,0,0,0,0,0,0,0,0,0,0,0,0,0,0,0,0,0,0,0,0,0,0,0,0,0,0,0,0,0,0,0,0,0,0,0,0,0,0,0,0,0,0,0,0],"sum_hessian":[6.24E3,6.18E3,6E1,7.47E2,5.433E3,2.4E1,3.6E1,6.85E2,6.2E1,1.81E2,5.252E3,2E1,1.6E1,5.3E1,6.32E2,2.3E1,3.9E1,1.4E1,1.67E2,4.7E1,5.205E3,3.5E1,1.8E1,2.31E2,4.01E2,1.9E1,2E1,1.12E2,5.5E1,1.8E1,2.9E1,5.7E1,5.148E3,1.6E1,2.15E2,1.08E2,2.93E2,9.6E1,1.6E1,4.2E1,1.3E1,4.2E1,1.5E1,1.9E1,5.129E3],"tree_param":{"num_deleted":"0","num_feature":"2","num_nodes":"45","size_leaf_vector":"0"}},{"base_weights":[1.8068844E-1,2.1872586E-2,4.8244318E-1,1.2390749E-1,-4.270268E0,1.8693877E0,3.3755228E-2,3.998148E-2,1.2937226E1,-2.8581862E0,-5.483978E0,6.3693714E-1,3.269588E0,-2.4286308E0,4.1444063E-1,1.7803381E-1,-2.5915816E0,-4.7423673E0,6.3496757E-1,-9.058165E0,-3.8424008E0,5.1729827E0,-2.962557E-1,4.3687677E0,3.0603533E0,-9.858999E-1,-4.3213196E0,2.469928E0,1.0971064E-1,1.326066E-1,7.270512E0,-7.0482793E0,2.424948E-1,-3.3889945E0,-5.714756E0,-1.7325592E-1,8.11038E0,4.4479942E-1,-2.6596951E0,-2.80277E0,6.3936906E0,-7.239437E0,-2.0256877E0,5.8790503E0,-2.5849938E0,-6.6710367E0,4.0893742E-1,3.9015415E-1,-3.425608E-1,-3.421701E0,-9.168052E0,8.57213E0,-8.295914E-1,-1.7534225E0,2.3636103E0,-5.691649E0,-6.779044E-1,-4.3456966E-1,-4.6980276E0,-5.424096E0,-1.0024423E1,-5.5756803E0,7.880387E-1,4.603006E0,1.30083685E1,-3.7024245E0,-1.2340729E0,-1.1693249E1,-3.2457098E-1,1.9405262E-1,1.880321E0],"categories":[],"categories_nodes":[],"categories_segments":[],"categories_sizes":[],"default_left":[true,true,true,true,true,true,true,true,false,true,true,true,true,true,true,true,true,true,false,false,false,true,true,false,false,true,true,true,true,true,false,true,true,false,false,false,false,true,true,true,false,true,true,true,true,true,true,false,false,false,false,false,false,false,false,false,false,false,false,false,false,false,false,false,false,false,false,false,false,false,false],"id":20,"left_children":[1,3,5,7,9,11,13,15,-1,17,19,21,23,25,27,29,31,33,-1,-1,-1,35,37,-1,-1,39,41,43,45,47,-1,49,51,-1,-1,-1,-1,53,55,57,-1,59,61,63,65,67,69,-1,-1,-1,-1,-1,-1,-1,-1,-1,-1,-1,-1,-1,-1,-1,-1,-1,-1,-1,-1,-1,-1,-1,-1],"loss_changes":[2.990796E2,1.791737E3,1.339138E3,4.2966636E3,1.4714221E2,9.056239E2,1.5261473E3,1.4430995E3,0E0,3.05771E2,2.5856006E2,1.1910071E3,4.3206543E1,5.910194E2,8.829088E2,1.2149869E3,2.5025723E3,2.0112854E1,0E0,0E0,0E0,7.551985E2,4.110197E2,0E0,0E0,1.6938895E3,6.150342E2,3.1515752E3,2.4963462E3,4.5917432E2,0E0,5.6056885E2,1.096582E3,0E0,0E0,0E0,0E0,7.591614E2,3.3262875E2,4.512818E2,0E0,1.5291016E2,5.4378406E2,9.3173096E2,1.0713843E2,1.6536162E3,3.720928E2,0E0,0E0,0E0,0E0,0E0,0E0,0E0,0E0,0E0,0E0,0E0,0E0,0E0,0E0,0E0,0E0,0E0,0E0,0E0,0E0,0E0,0E0,0E0,0E0],"parents":[2147483647,0,0,1,1,2,2,3,3,4,4,5,5,6,6,7,7,9,9,10,10,11,11,12,12,13,13,14,14,15,15,16,16,17,17,21,21,22,22,25,25,26,26,27,27,28,28,29,29,31,31,32,32,37,37,38,38,39,39,41,41,42,42,43,43,44,44,45,45,46,46],"right_children":[2,4,6,8,10,12,14,16,-1,18,20,22,24,26,28,30,32,34,-1,-1,-1,36,38,-1,-1,40,42,44,46,48,-1,50,52,-1,-1,-1,-1,54,56,58,-1,60,62,64,66,68,70,-1,-1,-1,-1,-1,-1,-1,-1,-1,-1,-1,-1,-1,-1,-1,-1,-1,-1,-1,-1,-1,-1,-1,-1],"split_conditions":[2.2074032E0,8.0218E-1,1.2266874E1,-7.993883E-1,1.9817502E0,9.023811E0,2.1901226E1,-8.359232E0,3.8811681E0,1.0602952E0,-5.4048656E1,3.114982E0,1.0623458E1,-5.762574E1,2.6713947E1,-9.268E0,-6.505499E0,-1.0536032E1,1.9049028E-1,-2.7174494E0,-1.1527203E0,-6.89842E1,7.9300375E0,1.3106303E0,9.18106E-1,-7.641667E1,-4.62117E1,-2.655808E1,2.9245506E1,-3.9200676E1,2.1811538E0,-9.2624115E1,-1.15717865E2,-1.0166984E0,-1.7144269E0,-5.1976778E-2,2.433114E0,4.514217E0,-9.870883E0,-8.5533806E1,1.9181073E0,-5.1419285E1,1.42625675E1,2.5495758E1,5.487878E1,-9.964474E0,8.669241E1,1.1704625E-1,-1.0276824E-1,-1.0265104E0,-2.7504156E0,2.571639E0,-2.4887742E-1,-5.260268E-1,7.090831E-1,-1.7074947E0,-2.0337133E-1,-1.303709E-1,-1.4094083E0,-1.6272289E0,-3.0073268E0,-1.6727041E0,2.3641162E-1,1.3809018E0,3.9025106E0,-1.1107274E0,-3.7022188E-1,-3.5079749E0,-9.73713E-2,5.821579E-2,5.6409633E-1],"split_indices":[1,1,1,1,1,1,1,1,0,1,0,1,1,0,1,1,1,0,0,0,0,0,1,0,0,0,0,0,1,1,0,0,0,0,0,0,0,1,0,0,0,0,1,1,0,0,0,0,0,0,0,0,0,0,0,0,0,0,0,0,0,0,0,0,0,0,0,0,0,0,0],"split_type":[0,0,0,0,0,0,0,0,0,0,0,0,0,0,0,0,0,0,0,0,0,0,0,0,0,0,0,0,0,0,0,0,0,0,0,0,0,0,0,0,0,0,0,0,0,0,0,0,0,0,0,0,0,0,0,0,0,0,0,0,0,0,0,0,0,0,0,0,0,0,0],"sum_hessian":[6.24E3,4.089E3,2.151E3,3.995E3,9.4E1,5.25E2,1.626E3,3.97E3,2.5E1,4.5E1,4.9E1,2.8E2,2.45E2,2.17E2,1.409E3,3.773E3,1.97E2,2.9E1,1.6E1,1.4E1,3.5E1,4.7E1,2.33E2,3.6E1,2.09E2,1.24E2,9.3E1,1.81E2,1.228E3,3.75E3,2.3E1,7.6E1,1.21E2,1.4E1,1.5E1,1.7E1,3E1,1.78E2,5.5E1,1E2,2.4E1,4E1,5.3E1,1.08E2,7.3E1,5.1E1,1.177E3,2.432E3,1.318E3,2.9E1,4.7E1,1.3E1,1.08E2,8.3E1,9.5E1,2.1E1,3.4E1,4.5E1,5.5E1,2.6E1,1.4E1,2.3E1,3E1,9.3E1,1.5E1,3.9E1,3.4E1,2.8E1,2.3E1,1.028E3,1.49E2],"tree_param":{"num_deleted":"0","num_feature":"2","num_nodes":"71","size_leaf_vector":"0"}},{"base_weights":[1.2587519E-1,-2.25938E-1,2.516375E-1,-1.3643233E-1,-4.8787193E0,2.8791697E0,1.985414E-1,-2.7432823E-1,1.5673106E0,-7.157972E0,-1.1722177E0,1.5103537E0,7.3699684E0,-3.3552241E0,2.1990533E-1,4.2584095E-2,-1.7176746E0,9.349764E0,3.7781468E-1,2.8424475E0,-3.0016893E-1,5.1870837E0,1.8975863E-1,-7.700588E-1,7.2479916E-1,-4.0738306E0,-1.3630092E-1,1.4110897E0,-3.02644E0,4.5262547E0,4.3945736E-1,-1.3850332E0,4.5790502E-1,-1.3703631E-1,4.7719198E-1,-2.5933793E-1,-4.9436717E0,-2.3277357E0,1.4610533E0,-1.8120492E0,-4.920515E0,8.2797575E0,-1.6599615E0,2.0535128E0,9.879085E-2,1.5548655E-1,-3.940877E0,8.453884E0,3.366851E-1],"categories":[],"categories_nodes":[],"categories_segments":[],"categories_sizes":[],"default_left":[true,true,true,true,true,true,true,true,true,false,false,true,false,false,true,true,true,false,true,true,true,false,true,true,true,true,true,true,false,false,false,false,false,true,true,false,false,false,false,false,false,false,false,false,false,false,false,false,false],"id":21,"left_children":[1,3,5,7,9,11,13,15,17,-1,-1,19,-1,-1,21,23,25,-1,27,29,31,-1,33,35,37,39,41,43,-1,-1,-1,-1,-1,45,47,-1,-1,-1,-1,-1,-1,-1,-1,-1,-1,-1,-1,-1,-1],"loss_changes":[2.7618884E2,6.8397876E2,6.4090283E2,3.7962173E2,2.534989E2,5.482527E2,3.4299597E2,6.8344995E2,1.1165883E3,0E0,0E0,1.7209001E2,0E0,0E0,6.7016846E2,6.802492E2,1.0017289E3,0E0,3.7712885E2,1.6390396E2,2.6128843E1,0E0,4.1862534E2,1.1923867E3,1.5024443E3,1.979054E2,2.091105E3,6.892734E1,0E0,0E0,0E0,0E0,0E0,2.3217266E3,2.6545242E3,0E0,0E0,0E0,0E0,0E0,0E0,0E0,0E0,0E0,0E0,0E0,0E0,0E0,0E0],"parents":[2147483647,0,0,1,1,2,2,3,3,4,4,5,5,6,6,7,7,8,8,11,11,14,14,15,15,16,16,18,18,19,19,20,20,22,22,23,23,24,24,25,25,26,26,27,27,33,33,34,34],"right_children":[2,4,6,8,10,12,14,16,18,-1,-1,20,-1,-1,22,24,26,-1,28,30,32,-1,34,36,38,40,42,44,-1,-1,-1,-1,-1,46,48,-1,-1,-1,-1,-1,-1,-1,-1,-1,-1,-1,-1,-1,-1],"split_conditions":[-7.566275E1,-7.632915E1,-7.35141E1,2.5108E1,-7.590196E1,-7.4142136E1,-7.2609985E1,-1.2657646E1,3.3305164E1,-2.1473916E0,-3.5166532E-1,-7.496925E1,2.2109907E0,-1.0065672E0,-7.220677E1,-4.98694E1,-3.0821643E0,2.8049293E0,-8.975133E1,4.950317E0,-7.4606705E1,1.5561252E0,-1.9542038E1,-5.3470024E1,-1.1868306E2,-1.102428E2,1.5050142E0,-1.187427E2,-9.07932E-1,1.3578764E0,1.3183722E-1,-4.1551E-1,1.3737151E-1,-2.6367653E1,-1.7550098E1,-7.7801384E-2,-1.4831016E0,-6.9832075E-1,4.38316E-1,-5.4361475E-1,-1.4761546E0,2.4839272E0,-4.9798846E-1,6.160539E-1,2.9637255E-2,4.664597E-2,-1.1822631E0,2.5361652E0,1.0100553E-1],"split_indices":[0,0,0,1,0,0,0,1,1,0,0,0,0,0,0,1,1,0,0,1,0,0,1,1,0,0,1,0,0,0,0,0,0,1,1,0,0,0,0,0,0,0,0,0,0,0,0,0,0],"split_type":[0,0,0,0,0,0,0,0,0,0,0,0,0,0,0,0,0,0,0,0,0,0,0,0,0,0,0,0,0,0,0,0,0,0,0,0,0,0,0,0,0,0,0,0,0,0,0,0,0],"sum_hessian":[6.24E3,1.643E3,4.597E3,1.613E3,3E1,9E1,4.507E3,1.493E3,1.2E2,1.8E1,1.2E1,7E1,2E1,2.6E1,4.481E3,1.225E3,2.68E2,1.5E1,1.05E2,4E1,3E1,2.6E1,4.455E3,5.59E2,6.66E2,1.07E2,1.61E2,8.1E1,2.4E1,2.3E1,1.7E1,1.2E1,1.8E1,2.085E3,2.37E3,4.99E2,6E1,1.29E2,5.37E2,3E1,7.7E1,2.4E1,1.37E2,5.4E1,2.7E1,1.937E3,1.48E2,4E1,2.33E3],"tree_param":{"num_deleted":"0","num_feature":"2","num_nodes":"49","size_leaf_vector":"0"}},{"base_weights":[8.8702984E-2,1.1995249E-1,-1.0627637E0,7.943012E-2,4.8135657E0,-1.7757307E0,1.4517096E0,1.05472125E-1,-8.618671E0,7.986678E0,-3.5458903E0,-3.7841241E0,-9.87668E-1,7.940918E-2,6.099902E0,1.562266E1,3.3316192E-1,-2.4670737E0,-4.42128E0,-1.889166E0,4.5218474E-1,1.0156115E-1,-3.214913E0,4.8642185E-2,2.2795258E0],"categories":[],"categories_nodes":[],"categories_segments":[],"categories_sizes":[],"default_left":[true,true,true,true,true,true,false,true,false,true,false,true,true,true,false,false,false,false,false,false,false,true,false,false,false],"id":22,"left_children":[1,3,5,7,9,11,-1,13,-1,15,-1,17,19,21,-1,-1,-1,-1,-1,-1,-1,23,-1,-1,-1],"loss_changes":[2.2469595E2,1.1554409E3,2.983794E2,1.3658944E3,1.4076458E3,2.0043597E2,0E0,9.383167E2,0E0,2.2155952E3,0E0,1.9302368E1,1.2286853E2,4.3701328E2,0E0,0E0,0E0,0E0,0E0,0E0,0E0,6.8508386E2,0E0,0E0,0E0],"parents":[2147483647,0,0,1,1,2,2,3,3,4,4,5,5,7,7,9,9,11,11,12,12,13,13,21,21],"right_children":[2,4,6,8,10,12,-1,14,-1,16,-1,18,20,22,-1,-1,-1,-1,-1,-1,-1,24,-1,-1,-1],"split_conditions":[9.1403275E1,8.669241E1,1.1432474E2,8.627565E1,1.418636E2,5.8915815E0,4.355129E-1,8.543733E1,-2.5856016E0,8.92492E1,-1.0637672E0,9.759665E1,9.528497E1,8.497232E1,1.8299707E0,4.686798E0,9.994858E-2,-7.4012214E-1,-1.3263841E0,-5.667498E-1,1.3565543E-1,7.626877E1,-9.644739E-1,1.4592656E-2,6.8385774E-1],"split_indices":[0,0,0,0,1,1,0,0,0,0,0,0,0,0,0,0,0,0,0,0,0,0,0,0,0],"split_type":[0,0,0,0,0,0,0,0,0,0,0,0,0,0,0,0,0,0,0,0,0,0,0,0,0],"sum_hessian":[6.24E3,6.076E3,1.64E2,6.025E3,5.1E1,1.28E2,3.6E1,6.008E3,1.7E1,3.7E1,1.4E1,3.5E1,9.3E1,5.983E3,2.5E1,1.8E1,1.9E1,1.3E1,2.2E1,5.7E1,3.6E1,5.944E3,3.9E1,5.804E3,1.4E2],"tree_param":{"num_deleted":"0","num_feature":"2","num_nodes":"25","size_leaf_vector":"0"}},{"base_weights":[6.21996E-2,-7.515352E-1,1.0140694E-1,9.5613986E-1,-2.3843968E0,2.6035619E0,6.689188E-2,-1.4415594E0,2.2893984E0,-3.9431453E0,-6.6034E-1,4.157647E0,1.8355302E0,-2.8825788E0,1.0038554E-1,2.494428E0,-3.3121374E0,-1.3867188E0,3.2148345E0,-4.4740458E0,-3.3402112E0,3.2829573E0,-1.962544E0,2.134036E0,1.1419115E0,-3.3152275E0,-1.9295734E0,4.643127E0,7.679401E-2,1.913458E0,4.2406335E0,-1.3087307E0,-3.3085651E0,1.6065727E0,2.576943E0,6.830755E0,1.2569392E0,1.0701388E0,1.7040825E-2,2.7458268E-1,2.2493389E0,-6.49209E0,5.4239575E-2],"categories":[],"categories_nodes":[],"categories_segments":[],"categories_sizes":[],"default_left":[true,true,true,true,true,true,true,true,true,true,true,false,true,true,true,false,false,false,true,false,false,false,true,true,false,false,false,true,true,false,false,false,false,false,false,false,false,true,true,false,false,false,false],"id":23,"left_children":[1,3,5,7,9,11,13,15,17,19,21,-1,23,25,27,-1,-1,-1,29,-1,-1,-1,31,33,-1,-1,-1,35,37,-1,-1,-1,-1,-1,-1,-1,-1,39,41,-1,-1,-1,-1],"loss_changes":[1.9919139E2,8.0254974E2,5.1411176E2,4.5404245E2,3.924397E2,8.904907E1,5.8067224E2,3.83753E2,3.140411E2,9.703247E0,3.710263E2,0E0,9.157883E0,2.0815918E1,6.2230237E2,0E0,0E0,0E0,8.93371E1,0E0,0E0,0E0,4.319249E1,4.7373962E0,0E0,0E0,0E0,2.1364575E2,3.43116E2,0E0,0E0,0E0,0E0,0E0,0E0,0E0,0E0,3.070857E2,1.3209375E3,0E0,0E0,0E0,0E0],"parents":[2147483647,0,0,1,1,2,2,3,3,4,4,5,5,6,6,7,7,8,8,9,9,10,10,12,12,13,13,14,14,18,18,22,22,23,23,27,27,28,28,37,37,38,38],"right_children":[2,4,6,8,10,12,14,16,18,20,22,-1,24,26,28,-1,-1,-1,30,-1,-1,-1,32,34,-1,-1,-1,36,38,-1,-1,-1,-1,-1,-1,-1,-1,40,42,-1,-1,-1,-1],"split_conditions":[-8.837352E1,-9.685563E1,-8.4071304E1,-1.7626901E2,-9.582718E1,-7.67938E1,-7.9635605E1,-1.769274E2,-1.0676581E2,-7.8833176E1,-9.4768555E1,1.2472942E0,3.8157005E1,-7.66764E1,-7.7529655E1,7.483284E-1,-9.9364126E-1,-4.1601565E-1,-1.7557689E2,-1.3422137E0,-1.0020634E0,9.8488724E-1,2.572961E1,2.6091108E1,3.4257346E-1,-9.945683E-1,-5.78872E-1,3.3068516E1,-1.2652083E2,5.7403743E-1,1.2721901E0,-3.9261922E-1,-9.9256957E-1,4.8197183E-1,7.730829E-1,2.0492268E0,3.7708178E-1,-4.115097E1,-1.25723465E2,8.237481E-2,6.748017E-1,-1.9476272E0,1.6271872E-2],"split_indices":[1,1,1,0,1,0,1,0,1,0,1,0,0,0,1,0,0,0,0,0,0,0,0,0,0,0,0,0,0,0,0,0,0,0,0,0,0,1,0,0,0,0,0],"split_type":[0,0,0,0,0,0,0,0,0,0,0,0,0,0,0,0,0,0,0,0,0,0,0,0,0,0,0,0,0,0,0,0,0,0,0,0,0,0,0,0,0,0,0],"sum_hessian":[6.24E3,2.86E2,5.954E3,1.4E2,1.46E2,8E1,5.874E3,5E1,9E1,7.6E1,7E1,2.5E1,5.5E1,6.5E1,5.809E3,1.6E1,3.4E1,1.8E1,7.2E1,3.7E1,3.9E1,1.7E1,5.3E1,3.7E1,1.8E1,4.3E1,2.2E1,2.9E1,5.78E3,3.3E1,3.9E1,3.7E1,1.6E1,1.9E1,1.8E1,1.7E1,1.2E1,3.27E2,5.453E3,1.96E2,1.31E2,3E1,5.423E3],"tree_param":{"num_deleted":"0","num_feature":"2","num_nodes":"43","size_leaf_vector":"0"}},{"base_weights":[4.3699063E-2,3.2025906E-1,-8.431821E-2,-1.009093E-1,1.5399357E0,-1.2030829E0,1.894432E-1,1.11845456E-1,-2.7048085E0,2.9592466E0,6.7990947E-1,-7.4067867E-1,-1.1804007E1,4.5769067E0,-2.9517928E-2,4.2543747E-2,4.7494674E0,3.733786E0,-5.027406E0,1.0005188E0,7.018527E0,-2.804421E0,1.4875835E0,2.1726255E0,-1.400255E0,9.357071E0,2.1886725E0,-1.5333445E0,1.2193834E-1,1.4365502E-1,-3.6239216E0,-7.30911E0,4.841441E0,2.5005355E0,-4.309902E0,-7.007972E-1,9.95029E0,-1.3539273E0,-6.708658E0,8.220504E0,8.87252E-1,-7.424262E-1,1.1688578E1,-4.373711E0,-6.084527E-1,8.083447E0,1.1653579E1,-9.1692543E-1,2.688682E0,-8.6917925E0,9.022598E-1,1.1266352E1,5.394329E-2,-1.3288555E-1,2.0684457E0,-1.3407687E0,-4.709633E0,-7.3989445E-1,3.157326E0,6.1011577E0,1.3697057E1,-3.1348524E0,-3.5896963E-1,-7.546879E0,1.781223E0,3.0007195E0,-5.177818E0,-1.0774901E0,-2.2687063E1,1.2244044E1,-1.1738765E0,4.445834E0,1.8879942E0,-1.3812991E0,-1.1457956E1,-2.8139083E0,1.9049367E0,-2.2870169E0,1.3597697E-1],"categories":[],"categories_nodes":[],"categories_segments":[],"categories_sizes":[],"default_left":[true,true,true,true,true,true,true,true,true,true,true,true,false,true,true,true,false,false,true,true,true,true,true,true,true,true,true,true,true,true,true,false,false,true,false,false,true,true,false,false,true,true,false,true,true,false,false,false,true,true,true,false,true,false,false,false,false,false,false,false,false,false,false,false,false,false,false,false,false,false,false,false,false,false,false,false,false,false,false],"id":24,"left_children":[1,3,5,7,9,11,13,15,17,19,21,23,-1,25,27,29,-1,-1,31,33,35,37,39,41,43,45,47,49,51,53,55,-1,-1,57,-1,-1,59,61,-1,-1,63,65,-1,67,69,-1,-1,-1,71,73,75,-1,77,-1,-1,-1,-1,-1,-1,-1,-1,-1,-1,-1,-1,-1,-1,-1,-1,-1,-1,-1,-1,-1,-1,-1,-1,-1,-1],"loss_changes":[2.2098624E2,1.01469165E3,1.3071017E3,8.1411664E2,6.1685486E2,4.103961E3,3.2943208E3,4.365739E2,1.6786948E3,1.5116238E3,8.962743E2,1.5498872E3,0E0,1.840353E3,7.442918E2,4.972867E2,0E0,0E0,1.8818452E3,1.0463207E3,1.4101091E3,3.3070126E2,1.0355385E3,4.1418623E3,1.5441729E3,6.3743164E1,1.7327643E2,5.220951E3,2.249196E3,6.949038E2,8.292386E1,0E0,0E0,2.1942108E2,0E0,0E0,5.654136E2,7.861221E1,0E0,0E0,1.8079316E3,1.9248038E3,0E0,8.305905E3,3.7932688E3,0E0,0E0,0E0,1.2526465E2,1.5210474E3,8.4001025E2,0E0,5.672059E2,0E0,0E0,0E0,0E0,0E0,0E0,0E0,0E0,0E0,0E0,0E0,0E0,0E0,0E0,0E0,0E0,0E0,0E0,0E0,0E0,0E0,0E0,0E0,0E0,0E0,0E0],"parents":[2147483647,0,0,1,1,2,2,3,3,4,4,5,5,6,6,7,7,8,8,9,9,10,10,11,11,13,13,14,14,15,15,18,18,19,19,20,20,21,21,22,22,23,23,24,24,25,25,26,26,27,27,28,28,29,29,30,30,33,33,36,36,37,37,40,40,41,41,43,43,44,44,48,48,49,49,50,50,52,52],"right_children":[2,4,6,8,10,12,14,16,18,20,22,24,-1,26,28,30,-1,-1,32,34,36,38,40,42,44,46,48,50,52,54,56,-1,-1,58,-1,-1,60,62,-1,-1,64,66,-1,68,70,-1,-1,-1,72,74,76,-1,78,-1,-1,-1,-1,-1,-1,-1,-1,-1,-1,-1,-1,-1,-1,-1,-1,-1,-1,-1,-1,-1,-1,-1,-1,-1,-1],"split_conditions":[-4.6515465E1,-5.3331818E1,-3.272093E1,-5.5282814E1,-5.06885E1,-3.342195E1,-2.9115334E1,-5.5801506E1,-1.2700754E2,-5.1295944E1,-5.011209E1,-1.1168494E2,-3.541202E0,4.241494E0,-2.485902E1,-5.645868E1,1.4248402E0,1.1201359E0,-3.5389763E1,-5.179187E1,-7.715132E1,-4.978669E0,-4.9512283E1,-1.1880228E2,-8.6363754E1,-4.4212296E1,2.6716038E1,-2.5558905E1,-2.4568958E1,-5.9348087E1,-1.13786606E2,-2.192733E0,1.4524324E0,-9.588588E1,-1.2929707E0,-2.1023917E-1,-5.103435E1,-7.840289E1,-2.0125976E0,2.4661512E0,-4.9186794E1,-1.2650902E2,3.5065734E0,-3.721765E1,-8.6163284E1,2.4250343E0,3.4960737E0,-2.7507764E-1,4.2587967E1,-2.7600039E1,2.9467781E1,3.3799057E0,-1.9489258E1,-3.9865665E-2,6.205337E-1,-4.0223062E-1,-1.41289E0,-2.2196834E-1,9.4719785E-1,1.8303474E0,4.109117E0,-9.4045573E-1,-1.0769089E-1,-2.2640638E0,5.3436697E-1,9.002159E-1,-1.5533454E0,-3.2324705E-1,-6.8061194E0,3.6732135E0,-3.5216296E-1,1.3337502E0,5.6639826E-1,-4.1438976E-1,-3.437387E0,-8.4417254E-1,5.7148105E-1,-6.861051E-1,4.079309E-2],"split_indices":[1,1,1,1,1,1,1,1,0,1,1,0,0,0,1,1,0,0,0,1,0,0,1,0,0,0,0,0,1,1,0,0,0,0,0,0,1,0,0,0,1,0,0,1,0,0,0,0,0,1,0,0,1,0,0,0,0,0,0,0,0,0,0,0,0,0,0,0,0,0,0,0,0,0,0,0,0,0,0],"split_type":[0,0,0,0,0,0,0,0,0,0,0,0,0,0,0,0,0,0,0,0,0,0,0,0,0,0,0,0,0,0,0,0,0,0,0,0,0,0,0,0,0,0,0,0,0,0,0,0,0,0,0,0,0,0,0,0,0,0,0,0,0,0,0,0,0,0,0,0,0,0,0,0,0,0,0,0,0,0,0],"sum_hessian":[6.24E3,1.974E3,4.266E3,1.468E3,5.06E2,8.38E2,3.428E3,1.358E3,1.1E2,1.9E2,3.16E2,8.04E2,3.4E1,1.62E2,3.266E3,1.339E3,1.9E1,2.9E1,8.1E1,1.29E2,6.1E1,5.9E1,2.57E2,1.48E2,6.56E2,5.3E1,1.09E2,2.98E2,2.968E3,1.304E3,3.5E1,6.6E1,1.5E1,1.01E2,2.8E1,1.7E1,4.4E1,4.4E1,1.5E1,2E1,2.37E2,1.14E2,3.4E1,1.37E2,5.19E2,3.7E1,1.6E1,1.5E1,9.4E1,7.5E1,2.23E2,1.7E1,2.951E3,1.141E3,1.63E2,1.2E1,2.3E1,1.7E1,8.4E1,2.3E1,2.1E1,1.5E1,2.9E1,2.2E1,2.15E2,6.2E1,5.2E1,1.17E2,2E1,2.1E1,4.98E2,2.8E1,6.6E1,2.1E1,5.4E1,4.7E1,1.76E2,9.9E1,2.852E3],"tree_param":{"num_deleted":"0","num_feature":"2","num_nodes":"79","size_leaf_vector":"0"}},{"base_weights":[3.140476E-2,1.5398688E-2,1.652751E0,4.2441405E-2,-1.9245406E0,-9.8798156E-1,5.2455826E0,2.6146289E-2,4.540927E0,-3.8735034E0,-1.1390624E0,1.2358564E-1,-2.8536814E-1,-3.1748385E0,-5.34166E-1,8.595154E-3,2.055835E0,-8.559391E0,-1.8694374E-1,-3.7479836E-1,-7.1271724E-1,-6.254333E-2,1.1108066E0,2.9255948E0,1.9029915E0,4.7950726E0,-2.4306606E-1],"categories":[],"categories_nodes":[],"categories_segments":[],"categories_sizes":[],"default_left":[true,true,true,true,true,false,false,true,false,false,true,true,true,false,true,true,true,false,true,false,false,false,false,false,false,false,false],"id":25,"left_children":[1,3,5,7,9,-1,-1,11,-1,-1,13,15,17,-1,19,21,23,-1,25,-1,-1,-1,-1,-1,-1,-1,-1],"loss_changes":[1.6193713E2,3.2434454E2,5.8393274E2,4.4681174E2,1.2571158E2,0E0,0E0,1.8446474E2,0E0,0E0,7.465301E1,1.0285012E3,1.1776016E3,0E0,1.1271839E0,3.4271964E2,2.8996216E1,0E0,4.0155597E2,0E0,0E0,0E0,0E0,0E0,0E0,0E0,0E0],"parents":[2147483647,0,0,1,1,2,2,3,3,4,4,7,7,10,10,11,11,12,12,14,14,15,15,16,16,18,18],"right_children":[2,4,6,8,10,-1,-1,12,-1,-1,14,16,18,-1,20,22,24,-1,26,-1,-1,-1,-1,-1,-1,-1,-1],"split_conditions":[1.7316449E2,1.5303516E2,-5.2094864E1,1.5231192E2,1.5422635E2,-2.9639447E-1,1.5736748E0,1.3013756E1,1.3622781E0,-1.1620511E0,-5.7730957E1,9.023811E0,1.42625675E1,-9.524516E-1,2.9220043E1,6.0219704E1,1.0623458E1,-2.5678174E0,1.4785479E1,-1.1243951E-1,-2.1381518E-1,-1.8763E-2,3.33242E-1,8.7767845E-1,5.7089746E-1,1.4385219E0,-7.291982E-2],"split_indices":[1,1,0,1,1,0,0,1,0,0,0,1,1,0,0,0,1,0,1,0,0,0,0,0,0,0,0],"split_type":[0,0,0,0,0,0,0,0,0,0,0,0,0,0,0,0,0,0,0,0,0,0,0,0,0,0,0],"sum_hessian":[6.24E3,6.18E3,6E1,6.096E3,8.4E1,3.5E1,2.5E1,6.075E3,2.1E1,2.3E1,6.1E1,4.628E3,1.447E3,1.3E1,4.8E1,4.369E3,2.59E2,1.6E1,1.431E3,2.7E1,2.1E1,4.105E3,2.64E2,3.6E1,2.23E2,1.5E1,1.416E3],"tree_param":{"num_deleted":"0","num_feature":"2","num_nodes":"27","size_leaf_vector":"0"}}]},"name":"gbtree"},"learner_model_param":{"base_score":"5E-1","num_class":"0","num_feature":"2"},"objective":{"name":"reg:squarederror","reg_loss_param":{"scale_pos_weight":"1"}}},"version":[1,5,0]}