{"learner":{"attributes":{"best_iteration":"29","best_ntree_limit":"30"},"feature_names":["LD_01","LD_02"],"feature_types":["float","float"],"gradient_booster":{"model":{"gbtree_model_param":{"num_trees":"30","size_leaf_vector":"0"},"tree_info":[0,0,0,0,0,0,0,0,0,0,0,0,0,0,0,0,0,0,0,0,0,0,0,0,0,0,0,0,0,0],"trees":[{"base_weights":[1.5581183E2,1.5916205E2,1.4887756E2,1.582426E2,1.7733316E2,1.6134543E2,1.4549438E2,1.590689E2,1.3660231E2,1.5364337E2,1.7206169E2,1.4102045E2,1.5061105E2,1.5054196E2,1.6071474E2,1.0579606E2,1.558374E2,1.5863022E2,1.3743193E2,1.064208E2,1.415151E2],"categories":[],"categories_nodes":[],"categories_segments":[],"categories_sizes":[],"default_left":[true,true,true,true,false,true,true,true,true,true,false,true,false,false,false,false,false,false,false,false,false],"id":0,"left_children":[1,3,5,7,-1,9,11,13,15,17,-1,19,-1,-1,-1,-1,-1,-1,-1,-1,-1],"loss_changes":[1.27968E5,4.5232E4,6.6876E4,5.3104E4,0E0,1.0541E4,1.7564E4,3.2296E4,7.89155E4,2.7E1,0E0,6.86E2,0E0,0E0,0E0,0E0,0E0,0E0,0E0,0E0,0E0],"parents":[2147483647,0,0,1,1,2,2,3,3,5,5,6,6,7,7,8,8,9,9,11,11],"right_children":[2,4,6,8,-1,10,12,14,16,18,-1,20,-1,-1,-1,-1,-1,-1,-1,-1,-1],"split_conditions":[7.4796124E0,1.2488975E1,-1.7072847E1,7.186469E0,5.319995E1,1.6608128E1,5.597721E0,-1.1048965E1,8.566779E0,-2.155719E1,5.161851E1,-1.623084E1,4.518332E1,4.516259E1,4.8214424E1,3.173882E1,4.675122E1,4.7589066E1,4.122958E1,3.192624E1,4.2454533E1],"split_indices":[1,0,0,0,0,1,0,0,0,0,0,0,0,0,0,0,0,0,0,0,0],"split_type":[0,0,0,0,0,0,0,0,0,0,0,0,0,0,0,0,0,0,0,0,0],"sum_hessian":[6.527E3,4.386E3,2.141E3,4.184E3,2.02E2,4.47E2,1.694E3,4.024E3,1.6E2,2.69E2,1.78E2,9.19E2,7.75E2,6.66E2,3.358E3,6.4E1,9.6E1,1.99E2,7E1,1.6E1,9.03E2],"tree_param":{"num_deleted":"0","num_feature":"2","num_nodes":"21","size_leaf_vector":"0"}},{"base_weights":[1.09142586E2,1.12640945E2,1.0575941E2,1.1044179E2,1.19899605E2,1.14324554E2,1.04268776E2,1.1296174E2,9.505206E1,1.2064712E2,7.2998566E1,1.1060011E2,1.2180559E2,9.661509E1,1.0606776E2,1.0090525E2,1.158595E2,1.0445246E2,8.2511475E1,1.2500373E2,1.0630748E2,7.689105E1,9.921662E1,1.1270106E2,1.0282789E2],"categories":[],"categories_nodes":[],"categories_segments":[],"categories_sizes":[],"default_left":[true,true,true,true,true,true,true,true,true,false,false,true,false,true,true,false,false,false,false,false,false,false,false,false,false],"id":1,"left_children":[1,3,5,7,9,11,13,15,17,-1,-1,19,-1,21,23,-1,-1,-1,-1,-1,-1,-1,-1,-1,-1],"loss_changes":[6.5352E4,3.7744E4,3.066E4,8.4822E4,1.6822E4,1.35E1,2.9022E4,6.2096E4,3.29955E4,0E0,0E0,7.36225E3,0E0,2.0798E4,3.7818E4,0E0,0E0,0E0,0E0,0E0,0E0,0E0,0E0,0E0,0E0],"parents":[2147483647,0,0,1,1,2,2,3,3,4,4,5,5,6,6,7,7,8,8,11,11,13,13,14,14],"right_children":[2,4,6,8,10,12,14,16,18,-1,-1,20,-1,22,24,-1,-1,-1,-1,-1,-1,-1,-1,-1,-1],"split_conditions":[4.033393E0,2.6957831E0,-1.7072847E1,2.1703181E0,2.1928682E0,1.7327719E1,-6.881608E0,-1.1048965E1,-6.5681314E0,3.6194138E1,2.189957E1,8.040184E0,3.654168E1,4.4738274E0,6.6501584E0,3.0271576E1,3.475785E1,3.133574E1,2.4753443E1,3.750112E1,3.1892244E1,2.3067316E1,2.9764988E1,3.3810318E1,3.0848368E1],"split_indices":[1,1,0,1,0,1,0,0,0,0,0,1,0,1,1,0,0,0,0,0,0,0,0,0,0],"split_type":[0,0,0,0,0,0,0,0,0,0,0,0,0,0,0,0,0,0,0,0,0,0,0,0,0],"sum_hessian":[6.527E3,3.193E3,3.334E3,2.463E3,7.3E2,4.83E2,2.851E3,2.111E3,3.52E2,7.17E2,1.3E1,3.33E2,1.5E2,5.53E2,2.298E3,4.16E2,1.695E3,1.97E2,1.55E2,7E1,2.63E2,6.8E1,4.85E2,7.43E2,1.555E3],"tree_param":{"num_deleted":"0","num_feature":"2","num_nodes":"25","size_leaf_vector":"0"}},{"base_weights":[7.646149E1,8.116186E1,7.5036995E1,7.69706E1,8.889233E1,3.6738472E1,7.524433E1,7.529517E1,9.071989E1,6.36468E1,8.941104E1,4.6507393E1,2.2949816E1,7.674235E1,7.128039E1,7.615969E1,5.6170853E1,8.624305E1,9.637176E1,7.498786E1,8.10618E1,6.529933E1,7.424539E1],"categories":[],"categories_nodes":[],"categories_segments":[],"categories_sizes":[],"default_left":[true,true,true,true,true,true,true,true,false,false,true,false,false,true,true,false,false,false,false,false,false,false,false],"id":2,"left_children":[1,3,5,7,9,11,13,15,-1,-1,17,-1,-1,19,21,-1,-1,-1,-1,-1,-1,-1,-1],"loss_changes":[3.762E4,4.1953E4,3.712E4,1.5837E4,1.158E3,2.8389727E3,2.419E4,1.0321E4,0E0,0E0,2.935E3,0E0,0E0,2.1294E4,1.96955E4,0E0,0E0,0E0,0E0,0E0,0E0,0E0,0E0],"parents":[2147483647,0,0,1,1,2,2,3,3,4,4,5,5,6,6,7,7,10,10,13,13,14,14],"right_children":[2,4,6,8,10,12,14,16,-1,-1,18,-1,-1,20,22,-1,-1,-1,-1,-1,-1,-1,-1],"split_conditions":[1.3325276E0,-5.806042E0,1.3911738E0,9.502643E-1,-9.694317E0,1.3695567E0,-2.4325125E0,8.0554575E-1,2.7215967E1,1.9094042E1,1.1850676E1,1.3952218E1,6.884945E0,-4.8283443E0,9.357292E0,2.2847908E1,1.6851257E1,2.5872915E1,2.8911528E1,2.2496359E1,2.431854E1,1.95898E1,2.2273619E1],"split_indices":[1,0,1,1,1,1,0,1,0,0,0,0,0,0,1,0,0,0,0,0,0,0,0],"split_type":[0,0,0,0,0,0,0,0,0,0,0,0,0,0,0,0,0,0,0,0,0,0,0],"sum_hessian":[6.527E3,1.505E3,5.022E3,9.83E2,5.22E2,2.8E1,4.994E3,8.82E2,1.01E2,1.3E1,5.09E2,1.5E1,1.3E1,3.611E3,1.383E3,8.41E2,4.1E1,3.59E2,1.5E2,2.581E3,1.03E3,4.66E2,9.17E2],"tree_param":{"num_deleted":"0","num_feature":"2","num_nodes":"23","size_leaf_vector":"0"}},{"base_weights":[5.3561382E1,5.4955517E1,5.0349953E1,5.3215893E1,5.7494198E1,4.9494286E1,6.3257355E1,5.3528667E1,3.306225E1,6.3143387E1,5.570847E1,5.480285E1,4.8208992E1,4.903596E1,6.612391E1,6.0630985E1,5.298674E1,2.562742E1,3.8736336E1,5.1244995E1,6.406097E1,5.894094E1,4.248621E1,5.1125202E1,6.1467785E1,4.1517666E1,5.1490425E1],"categories":[],"categories_nodes":[],"categories_segments":[],"categories_sizes":[],"default_left":[true,true,true,true,true,true,true,true,true,true,true,true,true,false,false,false,false,false,false,false,false,false,false,false,false,false,false],"id":3,"left_children":[1,3,5,7,9,11,13,15,17,19,21,23,25,-1,-1,-1,-1,-1,-1,-1,-1,-1,-1,-1,-1,-1,-1],"loss_changes":[2.646E4,1.6995E4,1.8825E4,1.53E4,1.49835E4,1.01105E4,1.6495312E3,7.0445E3,8.6346484E2,1.4445E3,5.74185E4,5.608E3,3.108325E4,0E0,0E0,0E0,0E0,0E0,0E0,0E0,0E0,0E0,0E0,0E0,0E0,0E0,0E0],"parents":[2147483647,0,0,1,1,2,2,3,3,4,4,5,5,6,6,7,7,8,8,9,9,10,10,11,11,12,12],"right_children":[2,4,6,8,10,12,14,16,18,20,22,24,26,-1,-1,-1,-1,-1,-1,-1,-1,-1,-1,-1,-1,-1,-1],"split_conditions":[7.868488E0,-5.3660793E0,3.2898567E1,-5.3948665E0,1.3325276E0,-1.7072847E1,-2.1444954E1,-1.4264606E1,-5.3806505E0,-8.106022E0,-2.1421509E0,1.6608128E1,-2.3014054E0,1.4710789E1,1.9837173E1,1.8189297E1,1.5896023E1,7.688226E0,1.1620901E1,1.5373499E1,1.921829E1,1.7682283E1,1.2745864E1,1.5337562E1,1.8440336E1,1.24553E1,1.5447128E1],"split_indices":[1,0,1,0,1,0,0,0,0,1,0,1,0,0,0,0,0,0,0,0,0,0,0,0,0,0,0],"split_type":[0,0,0,0,0,0,0,0,0,0,0,0,0,0,0,0,0,0,0,0,0,0,0,0,0,0,0],"sum_hessian":[6.527E3,4.54E3,1.987E3,2.707E3,1.833E3,1.868E3,1.19E2,2.664E3,4.3E1,4.32E2,1.401E3,3.56E2,1.512E3,2.3E1,9.6E1,1.81E2,2.483E3,2.1E1,2.2E1,3.5E1,3.97E2,1.123E3,2.78E2,2.35E2,1.21E2,5.02E2,1.01E3],"tree_param":{"num_deleted":"0","num_feature":"2","num_nodes":"27","size_leaf_vector":"0"}},{"base_weights":[3.752585E1,3.915213E1,3.5957073E1,3.7844135E1,4.5094376E1,2.835707E1,3.6617317E1,3.703791E1,4.727681E1,4.5972694E1,2.8863527E1,2.2388153E1,4.0723656E1,4.2819756E1,3.599551E1,3.9113987E1,3.4421974E1,3.629854E1,4.934789E1,5.2615562E1,4.3672653E1,1.6322077E1,2.5774231E1,4.3011723E1,2.6873497E1,4.104436E1,5.377046E1,3.9375515E1,3.4305233E1],"categories":[],"categories_nodes":[],"categories_segments":[],"categories_sizes":[],"default_left":[true,true,true,true,true,true,true,true,true,true,false,true,true,true,true,false,false,false,false,false,false,false,false,false,false,false,false,false,false],"id":4,"left_children":[1,3,5,7,9,11,13,15,17,19,-1,21,23,25,27,-1,-1,-1,-1,-1,-1,-1,-1,-1,-1,-1,-1,-1,-1],"loss_changes":[1.5246E4,2.31185E4,1.5696E4,1.820425E4,6.813125E3,1.9092188E4,1.02795E4,1.1807E4,2.8243125E3,5.952625E3,0E0,3.37925E3,1.6011562E3,3.1200938E3,1.460025E4,0E0,0E0,0E0,0E0,0E0,0E0,0E0,0E0,0E0,0E0,0E0,0E0,0E0,0E0],"parents":[2147483647,0,0,1,1,2,2,3,3,4,4,5,5,6,6,7,7,8,8,9,9,11,11,12,12,13,13,14,14],"right_children":[2,4,6,8,10,12,14,16,18,20,-1,22,24,26,28,-1,-1,-1,-1,-1,-1,-1,-1,-1,-1,-1,-1,-1,-1],"split_conditions":[4.033393E0,3.0282593E0,4.941203E0,1.1958618E1,-3.2943063E0,-6.5299797E0,-2.1254744E1,1.3325276E0,-8.106022E0,3.382329E0,8.659059E0,4.4738274E0,4.8606253E0,-2.1444954E1,7.4796124E0,1.1734197E1,1.0326592E1,1.0889562E1,1.4804367E1,1.5784669E1,1.3101796E1,4.896623E0,7.73227E0,1.2903518E1,8.06205E0,1.2313309E1,1.6131138E1,1.18126545E1,1.0291571E1],"split_indices":[1,1,1,0,0,0,0,1,1,1,0,1,0,0,1,0,0,0,0,0,0,0,0,0,0,0,0,0,0],"split_type":[0,0,0,0,0,0,0,0,0,0,0,0,0,0,0,0,0,0,0,0,0,0,0,0,0,0,0,0,0],"sum_hessian":[6.527E3,3.193E3,3.334E3,2.623E3,5.7E2,2.7E2,3.064E3,2.421E3,2.02E2,5.39E2,3.1E1,1.84E2,8.6E1,2.73E2,2.791E3,1.342E3,1.079E3,3.5E1,1.67E2,1.33E2,4.06E2,6.8E1,1.16E2,7.2E1,1.4E1,2.39E2,3.4E1,9.23E2,1.868E3],"tree_param":{"num_deleted":"0","num_feature":"2","num_nodes":"29","size_leaf_vector":"0"}},{"base_weights":[2.6294048E1,2.7433195E1,2.519518E1,2.3329826E1,2.8365559E1,2.922387E1,2.4502655E1,2.6627844E1,-3.1563973E0,4.08345E1,2.7617245E1,3.6032143E1,2.798568E1,1.7674332E1,2.52274E1,3.0671932E1,2.409162E1,-2.7304983E1,1.5991339E1,5.568704E1,3.787006E1,1.6411242E1,2.8518343E1,2.4191162E1,3.283216E1,1.5719255E1,3.675273E1,4.171566E1,2.4983871E1],"categories":[],"categories_nodes":[],"categories_segments":[],"categories_sizes":[],"default_left":[true,true,true,true,true,true,true,true,true,true,true,false,true,true,true,false,false,false,false,false,false,false,false,false,false,false,false,false,false],"id":5,"left_children":[1,3,5,7,9,11,13,15,17,19,21,-1,23,25,27,-1,-1,-1,-1,-1,-1,-1,-1,-1,-1,-1,-1,-1,-1],"loss_changes":[7.4805E3,1.1558E4,8.58875E3,5.2233188E4,2.3113375E4,3.0716875E3,1.3668125E4,4.707375E3,3.1416824E4,4.2754062E3,2.4311875E4,0E0,6.81925E3,9.754305E3,9.301375E3,0E0,0E0,0E0,0E0,0E0,0E0,0E0,0E0,0E0,0E0,0E0,0E0,0E0,0E0],"parents":[2147483647,0,0,1,1,2,2,3,3,4,4,5,5,6,6,7,7,8,8,9,9,10,10,12,12,13,13,14,14],"right_children":[2,4,6,8,10,12,14,16,18,20,22,-1,24,26,28,-1,-1,-1,-1,-1,-1,-1,-1,-1,-1,-1,-1,-1,-1],"split_conditions":[4.033393E0,-1.1048965E1,-1.7072847E1,-1.1276758E1,-1.0500076E1,8.040184E0,-9.712931E0,5.512591E-1,-1.1240162E1,-1.1001781E1,-9.892605E0,1.0809643E1,1.6608128E1,1.9935913E1,-9.466114E0,9.20158E0,7.227486E0,-8.191495E0,4.797402E0,1.6706112E1,1.1361018E1,4.9233727E0,8.555503E0,7.257349E0,9.849648E0,4.715777E0,1.102582E1,1.2514699E1,7.4951615E0],"split_indices":[1,0,0,0,0,1,0,1,0,0,0,0,1,1,0,0,0,0,0,0,0,0,0,0,0,0,0,0,0],"split_type":[0,0,0,0,0,0,0,0,0,0,0,0,0,0,0,0,0,0,0,0,0,0,0,0,0,0,0,0,0],"sum_hessian":[6.527E3,3.193E3,3.334E3,5.96E2,2.597E3,4.83E2,2.851E3,5.3E2,6.6E1,1.44E2,2.453E3,7E1,4.13E2,2.76E2,2.575E3,2E2,3.3E2,2.9E1,3.7E1,2.1E1,1.23E2,1.84E2,2.269E3,2.35E2,1.78E2,2.52E2,2.4E1,3.5E1,2.54E3],"tree_param":{"num_deleted":"0","num_feature":"2","num_nodes":"29","size_leaf_vector":"0"}},{"base_weights":[1.842395E1,1.8061316E1,2.1231655E1,1.8631716E1,1.4083613E1,2.364473E1,1.908117E1,1.8444782E1,4.0522236E1,-6.013116E0,1.5104331E1,2.4207413E1,1.1364283E1,7.7016387E0,2.0194635E1,1.8516697E1,-1.5972164E1,5.4617214E1,1.8694641E1,-1.184996E0,-1.1339544E1,1.0873512E1,2.032366E1,1.7393625E1,2.4959415E1,5.038711E0,1.05381E1,1.9524279E1,2.8081007E1],"categories":[],"categories_nodes":[],"categories_segments":[],"categories_sizes":[],"default_left":[true,true,true,true,true,true,true,true,true,true,true,true,false,true,true,false,false,false,false,false,false,false,false,false,false,false,false,false,false],"id":6,"left_children":[1,3,5,7,9,11,13,15,17,19,21,23,-1,25,27,-1,-1,-1,-1,-1,-1,-1,-1,-1,-1,-1,-1,-1,-1],"loss_changes":[6.26325E3,1.2869875E4,3.3940938E3,1.9954375E4,1.5065375E4,2.1088438E3,4.8747344E3,1.27155E4,1.1900648E4,9.1236145E2,1.5126031E4,1.2516562E3,0E0,2.2637329E2,1.36025E3,0E0,0E0,0E0,0E0,0E0,0E0,0E0,0E0,0E0,0E0,0E0,0E0,0E0,0E0],"parents":[2147483647,0,0,1,1,2,2,3,3,4,4,5,5,6,6,7,7,8,8,9,9,10,10,11,11,13,13,14,14],"right_children":[2,4,6,8,10,12,14,16,18,20,22,24,-1,26,28,-1,-1,-1,-1,-1,-1,-1,-1,-1,-1,-1,-1,-1,-1],"split_conditions":[9.097033E0,9.2842686E-1,1.2776795E1,-1.4999184E-1,1.3087485E0,1.5914782E1,1.4170878E1,-9.336139E-1,6.7759454E-1,1.1481004E0,9.5588045E0,-8.106022E0,3.4092848E0,2.2319843E1,1.5016611E1,5.5550094E0,-4.7916493E0,1.6385164E1,5.6083927E0,-3.5549882E-1,-3.4018633E0,3.2620537E0,6.0970984E0,5.2180877E0,7.487825E0,1.5116134E0,3.1614301E0,5.8572836E0,8.424302E0],"split_indices":[0,0,1,0,0,0,1,0,0,0,1,1,0,0,1,0,0,0,0,0,0,0,0,0,0,0,0,0,0],"split_type":[0,0,0,0,0,0,0,0,0,0,0,0,0,0,0,0,0,0,0,0,0,0,0,0,0,0,0,0,0],"sum_hessian":[6.527E3,5.787E3,7.4E2,5.058E3,7.29E2,3.44E2,3.96E2,5.017E3,4.1E1,3.5E1,6.94E2,3.28E2,1.6E1,3.6E1,3.6E2,5.007E3,1E1,2.4E1,1.7E1,1.9E1,1.6E1,3.85E2,3.09E2,3.5E1,2.93E2,2E1,1.6E1,3.35E2,2.5E1],"tree_param":{"num_deleted":"0","num_feature":"2","num_nodes":"29","size_leaf_vector":"0"}},{"base_weights":[1.2906483E1,1.3499799E1,1.1473381E1,1.303096E1,1.643632E1,5.2849665E0,1.2372239E1,1.3131503E1,-3.2801067E1,1.7571135E1,-9.600675E0,7.5637407E0,-5.909198E0,2.7209202E1,1.1973733E1,1.175924E1,1.4578019E1,2.3277164E1,1.5342402E1,-6.3008175E0,-1.1820506E1,4.5658436E0,1.3762892E1,2.4998703E0,-1.0203012E1,3.888746E1,1.0411014E1,1.9182978E1,1.1294979E1],"categories":[],"categories_nodes":[],"categories_segments":[],"categories_sizes":[],"default_left":[true,true,true,true,true,true,true,true,false,true,true,true,true,true,true,false,false,false,false,false,false,false,false,false,false,false,false,false,false],"id":7,"left_children":[1,3,5,7,9,11,13,15,-1,17,19,21,23,25,27,-1,-1,-1,-1,-1,-1,-1,-1,-1,-1,-1,-1,-1,-1],"loss_changes":[5.39575E3,6.1340625E3,1.06035E4,1.87755E4,1.8812938E4,6.2943936E3,9.571906E3,7.715E3,0E0,7.3367812E3,1.2329956E2,3.7283828E3,1.5419994E3,8.0306035E3,7.769203E3,0E0,0E0,0E0,0E0,0E0,0E0,0E0,0E0,0E0,0E0,0E0,0E0,0E0,0E0],"parents":[2147483647,0,0,1,1,2,2,3,3,4,4,5,5,6,6,7,7,9,9,10,10,11,11,12,12,13,13,14,14],"right_children":[2,4,6,8,10,12,14,16,-1,18,20,22,24,26,28,-1,-1,-1,-1,-1,-1,-1,-1,-1,-1,-1,-1,-1,-1],"split_conditions":[8.189898E0,5.780341E0,9.26838E0,5.71416E0,-2.1421509E0,9.053213E0,9.449282E0,-6.086669E0,-9.840321E0,6.3861337E0,-2.056513E0,8.91381E0,-2.7840896E0,3.1679509E0,-2.4692188E1,3.5277722E0,4.373406E0,6.9831495E0,4.6027207E0,-1.8902453E0,-3.5461519E0,1.3697531E0,4.1288676E0,7.4996114E-1,-3.0609038E0,1.1666238E1,3.1233041E0,5.7548933E0,3.3884938E0],"split_indices":[1,1,1,1,0,1,1,0,0,1,0,1,0,0,0,0,0,0,0,0,0,0,0,0,0,0,0,0,0],"split_type":[0,0,0,0,0,0,0,0,0,0,0,0,0,0,0,0,0,0,0,0,0,0,0,0,0,0,0,0,0],"sum_hessian":[6.527E3,4.61E3,1.917E3,3.98E3,6.3E2,2.44E2,1.673E3,3.972E3,8E0,6.04E2,2.6E1,2.03E2,4.1E1,4.2E1,1.631E3,2.043E3,1.929E3,1.67E2,4.37E2,1.2E1,1.4E1,1.38E2,6.5E1,1.4E1,2.7E1,2.4E1,1.8E1,1.38E2,1.493E3],"tree_param":{"num_deleted":"0","num_feature":"2","num_nodes":"29","size_leaf_vector":"0"}},{"base_weights":[9.039336E0,9.844092E0,8.206987E0,8.995826E0,1.3051049E1,-2.1022078E1,8.396535E0,9.808456E0,5.532704E0,1.7632597E1,1.1603274E1,-2.6951529E1,-1.318153E1,7.53209E-1,8.650904E0,4.9680324E0,1.098448E1,9.849249E0,1.2284627E0,2.1504879E1,9.3463745E0,6.9778385E0,1.3857083E1,1.0641223E1,-1.1655347E0,8.396278E0,1.4434315E1],"categories":[],"categories_nodes":[],"categories_segments":[],"categories_sizes":[],"default_left":[true,true,true,true,true,true,true,true,true,true,true,false,false,true,true,false,false,false,false,false,false,false,false,false,false,false,false],"id":8,"left_children":[1,3,5,7,9,11,13,15,17,19,21,-1,-1,23,25,-1,-1,-1,-1,-1,-1,-1,-1,-1,-1,-1,-1],"loss_changes":[4.291875E3,8.897844E3,1.7988547E4,7.330297E3,4.378836E3,6.210303E2,6.2052812E3,1.2036203E4,9.296205E3,5.061211E3,5.407633E3,0E0,0E0,1.9855493E3,4.4321094E3,0E0,0E0,0E0,0E0,0E0,0E0,0E0,0E0,0E0,0E0,0E0,0E0],"parents":[2147483647,0,0,1,1,2,2,3,3,4,4,5,5,6,6,7,7,8,8,9,9,10,10,13,13,14,14],"right_children":[2,4,6,8,10,12,14,16,18,20,22,-1,-1,24,26,-1,-1,-1,-1,-1,-1,-1,-1,-1,-1,-1,-1],"split_conditions":[4.37129E0,3.0282593E0,4.4738274E0,2.1804726E0,3.3881721E0,-7.542259E0,4.77734E0,-1.1048965E1,-6.5106564E0,-4.1973524E0,-7.858706E0,-8.085459E0,-3.9544592E0,-8.276095E0,2.741578E1,1.4904097E0,3.295344E0,2.9547749E0,3.6853883E-1,6.451464E0,2.8039124E0,2.0933516E0,4.157125E0,3.192367E0,-3.4966043E-1,2.5188837E0,4.3302946E0],"split_indices":[1,1,1,1,1,0,1,0,0,0,0,0,0,0,1,0,0,0,0,0,0,0,0,0,0,0,0],"split_type":[0,0,0,0,0,0,0,0,0,0,0,0,0,0,0,0,0,0,0,0,0,0,0,0,0,0,0],"sum_hessian":[6.527E3,3.313E3,3.214E3,2.623E3,6.9E2,2E1,3.194E3,2.123E3,5E2,1.63E2,5.27E2,1E1,1E1,1.03E2,3.091E3,4.16E2,1.707E3,2.49E2,2.51E2,1.1E2,5.3E1,1.74E2,3.53E2,1.6E1,8.7E1,2.963E3,1.28E2],"tree_param":{"num_deleted":"0","num_feature":"2","num_nodes":"27","size_leaf_vector":"0"}},{"base_weights":[6.330789E0,6.1047072E0,8.931166E0,6.5506296E0,4.786941E0,1.781493E1,7.9481807E0,6.8237047E0,-3.8162985E-1,-8.164382E0,5.3236766E0,2.0595078E1,1.2048625E1,1.3976059E0,9.091038E0,4.684203E0,7.255664E0,-7.638709E0,5.233448E0,-1.5131962E1,-5.9620805E0,4.0610156E0,8.076728E0,3.63964E0,-6.5368643E0,9.745718E0,1.5148757E0],"categories":[],"categories_nodes":[],"categories_segments":[],"categories_sizes":[],"default_left":[true,true,true,true,true,true,true,true,true,true,true,false,false,true,true,false,false,false,false,false,false,false,false,false,false,false,false],"id":9,"left_children":[1,3,5,7,9,11,13,15,17,19,21,-1,-1,23,25,-1,-1,-1,-1,-1,-1,-1,-1,-1,-1,-1,-1],"loss_changes":[3.7832656E3,3.4996562E3,4.3993594E3,8.496625E3,1.06305E4,5.6944824E2,3.5058867E3,3.9556875E3,7.008067E3,8.458096E2,5.052836E3,0E0,0E0,1.2868359E3,1.9692227E3,0E0,0E0,0E0,0E0,0E0,0E0,0E0,0E0,0E0,0E0,0E0,0E0],"parents":[2147483647,0,0,1,1,2,2,3,3,4,4,5,5,6,6,7,7,8,8,9,9,10,10,13,13,14,14],"right_children":[2,4,6,8,10,12,14,16,18,20,22,-1,-1,24,26,-1,-1,-1,-1,-1,-1,-1,-1,-1,-1,-1,-1],"split_conditions":[1.2914688E1,8.39736E0,1.2994491E1,7.0569267E0,8.91381E0,1.4286394E1,1.3178046E1,2.360006E-1,8.566779E0,8.5250025E0,5.597721E0,6.1785235E0,3.6145875E0,1.3054236E1,1.5914782E1,1.405261E0,2.1766992E0,-2.2916129E0,1.5700345E0,-4.539589E0,-1.7886242E0,1.2183048E0,2.4230185E0,1.0918921E0,-1.9610593E0,2.9237156E0,4.544627E-1],"split_indices":[0,1,0,0,1,1,0,1,0,1,0,0,0,0,0,0,0,0,0,0,0,0,0,0,0,0,0],"split_type":[0,0,0,0,0,0,0,0,0,0,0,0,0,0,0,0,0,0,0,0,0,0,0,0,0,0,0],"sum_hessian":[6.527E3,6.008E3,5.19E2,4.486E3,1.522E3,5E1,4.69E2,4.316E3,1.7E2,6E1,1.462E3,3.2E1,1.8E1,7E1,3.99E2,7.27E2,3.589E3,7.4E1,9.6E1,1.3E1,4.7E1,1.004E3,4.58E2,5.5E1,1.5E1,3.67E2,3.2E1],"tree_param":{"num_deleted":"0","num_feature":"2","num_nodes":"27","size_leaf_vector":"0"}},{"base_weights":[4.433464E0,4.3015647E0,7.7148623E0,4.37449E0,-1.2743906E1,-1.7672516E0,8.679143E0,4.319069E0,2.0612947E1,-1.5886891E1,-4.692725E0,6.4133224E0,1.1673051E1,4.580409E0,-5.9508845E-2,-9.351366E0,9.146778E0,1.4453942E1,9.942824E0],"categories":[],"categories_nodes":[],"categories_segments":[],"categories_sizes":[],"default_left":[true,true,true,true,true,false,true,true,false,false,false,true,true,false,false,false,false,false,false],"id":10,"left_children":[1,3,5,7,9,-1,11,13,-1,-1,-1,15,17,-1,-1,-1,-1,-1,-1],"loss_changes":[2.7922266E3,7.859539E3,2.310336E3,5.5374453E3,6.086748E2,0E0,1.4718105E3,7.131539E3,0E0,0E0,0E0,5.7736885E3,3.230088E2,0E0,0E0,0E0,0E0,0E0,0E0],"parents":[2147483647,0,0,1,1,2,2,3,3,4,4,6,6,7,7,11,11,12,12],"right_children":[2,4,6,8,10,-1,12,14,-1,-1,-1,16,18,-1,-1,-1,-1,-1,-1],"split_conditions":[1.9917654E1,1.8725574E1,-2.1444954E1,1.809385E1,-4.311871E0,-5.301755E-1,3.2898567E1,1.5320356E1,6.1838846E0,-4.7660675E0,-1.4078176E0,-2.0278683E1,-1.5167204E1,1.3741227E0,-1.7852655E-2,-2.80541E0,2.7440336E0,4.336183E0,2.9828475E0],"split_indices":[1,1,0,1,0,0,1,1,0,0,0,0,0,0,0,0,0,0,0],"split_type":[0,0,0,0,0,0,0,0,0,0,0,0,0,0,0,0,0,0,0],"sum_hessian":[6.527E3,6.277E3,2.5E2,6.251E3,2.6E1,2.3E1,2.27E2,6.231E3,2E1,1.8E1,8E0,1.31E2,9.6E1,5.88E3,3.51E2,1.9E1,1.12E2,3.4E1,6.2E1],"tree_param":{"num_deleted":"0","num_feature":"2","num_nodes":"19","size_leaf_vector":"0"}},{"base_weights":[3.104658E0,6.9641747E0,2.978426E0,4.310504E0,2.0745222E1,-1.2534849E1,3.0518959E0,7.104651E0,-4.92672E0,1.8191208E1,3.007996E0,3.0759923E0,1.10873995E1,-4.2288413E0,-6.4455857E0,5.8113475E0,2.8100774E0],"categories":[],"categories_nodes":[],"categories_segments":[],"categories_sizes":[],"default_left":[true,true,true,true,false,false,true,true,true,false,true,false,false,false,false,false,false],"id":11,"left_children":[1,3,5,7,-1,-1,9,11,13,-1,15,-1,-1,-1,-1,-1,-1],"loss_changes":[3.159668E3,7.444073E3,7.244949E3,4.52597E3,0E0,0E0,4.1283633E3,2.1159429E3,1.6202026E1,0E0,3.466371E3,0E0,0E0,0E0,0E0,0E0,0E0],"parents":[2147483647,0,0,1,1,2,2,3,3,6,6,7,7,8,8,10,10],"right_children":[2,4,6,8,-1,-1,10,12,14,-1,16,-1,-1,-1,-1,-1,-1],"split_conditions":[-2.4692188E1,-2.5239103E1,-2.3713562E1,-2.6601562E1,6.223567E0,-3.760455E0,-2.2712044E1,-2.9086187E1,-2.6017075E1,5.4573627E0,-1.6986573E0,9.2279774E-1,3.32622E0,-1.2686524E0,-1.9336758E0,1.7434043E0,8.4302324E-1],"split_indices":[0,0,0,0,0,0,0,0,0,0,1,0,0,0,0,0,0],"split_type":[0,0,0,0,0,0,0,0,0,0,0,0,0,0,0,0,0],"sum_hessian":[6.527E3,2.05E2,6.322E3,1.73E2,3.2E1,2.9E1,6.293E3,1.33E2,4E1,1.7E1,6.276E3,6.7E1,6.6E1,3E1,1E1,4.12E2,5.864E3],"tree_param":{"num_deleted":"0","num_feature":"2","num_nodes":"17","size_leaf_vector":"0"}},{"base_weights":[2.1750352E0,1.983083E0,3.6714509E0,2.0432587E0,-1.985296E1,9.86502E0,3.071372E0,1.9999146E0,1.5064395E1,8.722496E0,1.217205E1,4.3936056E-1,3.8651922E0,2.1292562E0,-3.8908331E0,1.6277956E0,-4.111614E0,1.0153354E1,3.174636E0],"categories":[],"categories_nodes":[],"categories_segments":[],"categories_sizes":[],"default_left":[true,true,true,true,false,true,true,true,false,false,false,true,true,false,false,false,false,false,false],"id":12,"left_children":[1,3,5,7,-1,9,11,13,-1,-1,-1,15,17,-1,-1,-1,-1,-1,-1],"loss_changes":[1.8678223E3,7.6459766E3,2.7237236E3,3.228088E3,0E0,6.515869E1,1.4127876E3,4.393131E3,0E0,0E0,0E0,8.612419E2,2.2257783E3,0E0,0E0,0E0,0E0,0E0,0E0],"parents":[2147483647,0,0,1,1,2,2,3,3,5,5,6,6,7,7,11,11,12,12],"right_children":[2,4,6,8,-1,10,12,14,-1,-1,-1,16,18,-1,-1,-1,-1,-1,-1],"split_conditions":[9.097033E0,8.329066E0,9.81544E0,7.731378E0,-5.9558883E0,9.56825E0,1.2914688E1,7.0569267E0,4.5193186E0,2.6167488E0,3.6516154E0,1.2607311E1,1.2994491E1,6.387769E-1,-1.16725E0,4.8833868E-1,-1.2334843E0,3.0460062E0,9.523908E-1],"split_indices":[0,0,0,0,0,0,0,0,0,0,0,0,0,0,0,0,0,0,0],"split_type":[0,0,0,0,0,0,0,0,0,0,0,0,0,0,0,0,0,0,0],"sum_hessian":[6.527E3,5.787E3,7.4E2,5.772E3,1.5E1,6.4E1,6.76E2,5.754E3,1.8E1,4.6E1,1.8E1,1.57E2,5.19E2,5.631E3,1.23E2,1.25E2,3.2E1,5E1,4.69E2],"tree_param":{"num_deleted":"0","num_feature":"2","num_nodes":"19","size_leaf_vector":"0"}},{"base_weights":[1.5236806E0,2.458508E0,1.2430965E0,1.4709581E0,9.416302E0,-2.1250256E1,1.3734397E0,-2.1886118E-1,3.8078182E0,1.1670617E1,6.322128E0,-8.461279E0,-3.434835E1,5.285524E0,1.2303069E0,1.2059124E0,-1.4649264E1,8.120133E-1,6.0950193E0,9.244548E0,2.3970718E1,3.09908E0,7.1298265E0,3.2309382E0,1.4090821E1,-9.517231E0,1.2973484E0],"categories":[],"categories_nodes":[],"categories_segments":[],"categories_sizes":[],"default_left":[true,true,true,true,true,true,true,true,true,true,true,false,false,true,true,false,false,false,false,false,false,false,false,false,false,false,false],"id":13,"left_children":[1,3,5,7,9,11,13,15,17,19,21,-1,-1,23,25,-1,-1,-1,-1,-1,-1,-1,-1,-1,-1,-1,-1],"loss_changes":[1.7092236E3,1.0334129E4,1.4755893E4,5.213343E3,1.2305879E3,4.5671953E3,2.7904365E3,1.57872295E4,3.7910635E3,2.971377E3,1.8876758E2,0E0,0E0,3.1385312E3,3.4853062E3,0E0,0E0,0E0,0E0,0E0,0E0,0E0,0E0,0E0,0E0,0E0,0E0],"parents":[2147483647,0,0,1,1,2,2,3,3,4,4,5,5,6,6,7,7,8,8,9,9,10,10,13,13,14,14],"right_children":[2,4,6,8,10,12,14,16,18,20,22,-1,-1,24,26,-1,-1,-1,-1,-1,-1,-1,-1,-1,-1,-1,-1],"split_conditions":[1.3325276E0,9.5907897E-1,1.3911738E0,-6.0610895E0,1.112194E0,1.3695567E0,-2.4692188E1,-6.813728E0,-4.928553E0,1.0771782E0,1.1832535E0,-2.5383837E0,-1.0304505E1,-2.5239103E1,-2.3713562E1,3.6177373E-1,-4.3947797E0,2.43604E-1,1.8285059E0,2.7733645E0,7.191216E0,9.2972404E-1,2.138948E0,9.692815E-1,4.2272468E0,-2.8551693E0,3.8920453E-1],"split_indices":[1,1,1,0,1,1,0,0,1,1,1,0,0,0,0,0,0,0,0,0,0,0,0,0,0,0,0],"split_type":[0,0,0,0,0,0,0,0,0,0,0,0,0,0,0,0,0,0,0,0,0,0,0,0,0,0,0],"sum_hessian":[6.527E3,1.505E3,5.022E3,1.319E3,1.86E2,2.8E1,4.994E3,7.66E2,5.53E2,1.06E2,8E1,1.5E1,1.3E1,1.75E2,4.819E3,6.98E2,6.8E1,2.4E2,3.13E2,9E1,1.6E1,1.7E1,6.3E1,1.43E2,3.2E1,2.9E1,4.79E3],"tree_param":{"num_deleted":"0","num_feature":"2","num_nodes":"27","size_leaf_vector":"0"}},{"base_weights":[1.0667225E0,9.7453E-1,3.3683894E0,1.0258763E0,-1.0951101E1,7.8534794E0,1.6248472E0,9.8555917E-1,1.29416275E1,-1.3144197E1,-5.104441E0,1.3114406E1,2.2178562E0,-4.1243343E0,4.0188856E0,1.2909886E0,-4.6452054E-1,-3.5887277E0,4.684039E0,-8.463684E0,-1.5268676E0,-5.09439E0,6.0443544E0],"categories":[],"categories_nodes":[],"categories_segments":[],"categories_sizes":[],"default_left":[true,true,true,true,true,true,true,true,false,false,false,false,true,true,true,false,false,false,false,false,false,false,false],"id":14,"left_children":[1,3,5,7,9,11,13,15,-1,-1,-1,-1,17,19,21,-1,-1,-1,-1,-1,-1,-1,-1],"loss_changes":[1.381937E3,3.8554907E3,1.9500454E3,2.990766E3,2.791079E2,2.0463159E3,2.5215796E3,2.760734E3,0E0,0E0,0E0,0E0,5.180132E2,5.95728E2,2.4119592E3,0E0,0E0,0E0,0E0,0E0,0E0,0E0,0E0],"parents":[2147483647,0,0,1,1,2,2,3,3,4,4,5,5,6,6,7,7,12,12,13,13,14,14],"right_children":[2,4,6,8,10,12,14,16,-1,-1,-1,-1,18,20,22,-1,-1,-1,-1,-1,-1,-1,-1],"split_conditions":[1.9917654E1,1.8725574E1,2.209222E1,1.809385E1,-4.311871E0,-9.616745E0,2.741578E1,1.0344601E1,3.8824885E0,-3.9432595E0,-1.5313324E0,3.9343219E0,-2.2413814E0,-1.9506294E1,-2.1444954E1,3.872966E-1,-1.3935617E-1,-1.0766183E0,1.4052118E0,-2.5391054E0,-4.580603E-1,-1.5283171E0,1.8133065E0],"split_indices":[1,1,1,1,0,0,1,1,0,0,0,0,0,0,0,0,0,0,0,0,0,0,0],"split_type":[0,0,0,0,0,0,0,0,0,0,0,0,0,0,0,0,0,0,0,0,0,0,0],"sum_hessian":[6.527E3,6.277E3,2.5E2,6.251E3,2.6E1,6.9E1,1.81E2,6.231E3,2E1,1.8E1,8E0,3.5E1,3.4E1,5.3E1,1.28E2,5.147E3,1.084E3,1E1,2.4E1,1.9E1,3.4E1,2.3E1,1.05E2],"tree_param":{"num_deleted":"0","num_feature":"2","num_nodes":"23","size_leaf_vector":"0"}},{"base_weights":[7.467361E-1,2.2240348E0,6.082844E-1,1.1883062E0,6.852855E0,-8.778373E0,6.651187E-1,2.434623E0,-2.7767203E0,8.267935E0,-2.1017922E-1,-1.2209532E1,-5.422969E0,9.075528E0,6.194211E-1,-3.0796726E0,3.118298E0,5.7948527E0,-7.0249834E0,7.0581765E0,9.394062E0,4.8305225E0,1.2108837E1,-9.3264043E-1,9.445214E-1],"categories":[],"categories_nodes":[],"categories_segments":[],"categories_sizes":[],"default_left":[true,true,true,true,true,true,true,true,true,true,false,false,false,true,true,false,false,false,false,false,false,false,false,false,false],"id":15,"left_children":[1,3,5,7,9,11,13,15,17,19,-1,-1,-1,21,23,-1,-1,-1,-1,-1,-1,-1,-1,-1,-1],"loss_changes":[1.3338484E3,2.6718154E3,3.1907366E3,2.2700496E3,1.02120264E3,3.4825342E2,2.275406E3,1.3253284E3,4.0462817E3,4.949414E1,0E0,0E0,0E0,3.5355322E2,2.9798955E3,0E0,0E0,0E0,0E0,0E0,0E0,0E0,0E0,0E0,0E0],"parents":[2147483647,0,0,1,1,2,2,3,3,4,4,5,5,6,6,7,7,8,8,9,9,13,13,14,14],"right_children":[2,4,6,8,10,12,14,16,18,20,-1,-1,-1,22,24,-1,-1,-1,-1,-1,-1,-1,-1,-1,-1],"split_conditions":[-1.7072847E1,-1.9630508E1,-1.5681114E1,-2.1254744E1,2.209222E1,-1.6275066E1,-1.4418749E1,-3.977009E-1,7.025832E0,1.7743843E1,-6.305377E-2,-3.6628597E0,-1.6268908E0,-1.5179686E1,-9.892605E0,-9.239018E-1,9.354895E-1,1.7384559E0,-2.107495E0,2.117453E0,2.8182187E0,1.4491568E0,3.6326513E0,-2.7979213E-1,2.8335643E-1],"split_indices":[0,0,0,0,1,0,0,1,1,1,0,0,0,0,0,0,0,0,0,0,0,0,0,0,0],"split_type":[0,0,0,0,0,0,0,0,0,0,0,0,0,0,0,0,0,0,0,0,0,0,0,0,0],"sum_hessian":[6.527E3,5.58E2,5.969E3,4.57E2,1.01E2,3.5E1,5.934E3,3.48E2,1.09E2,8.4E1,1.7E1,1.6E1,1.9E1,3.1E1,5.903E3,3.8E1,3.1E2,3.6E1,7.3E1,4.4E1,4E1,1.4E1,1.7E1,1.022E3,4.881E3],"tree_param":{"num_deleted":"0","num_feature":"2","num_nodes":"25","size_leaf_vector":"0"}},{"base_weights":[5.233754E-1,1.4292156E0,2.8272322E-1,2.0059316E-1,1.0920416E1,-6.365199E0,6.6122377E-1,1.3214431E0,-1.6600048E1,2.2672987E1,8.938968E0,-1.0578889E0,-1.4461292E1,6.043124E0,5.2201474E-1,5.816981E0,3.5773224E-1,-3.6867695E1,-5.9420314E0,5.76365E0,1.3372212E1,-2.2824482E1,2.016986E0,-3.820661E1,-1.22243395E1,8.830152E0,-9.676927E0,-6.160983E0,6.433861E-1],"categories":[],"categories_nodes":[],"categories_segments":[],"categories_sizes":[],"default_left":[true,true,true,true,true,true,true,true,true,false,true,true,true,true,true,false,false,false,false,false,false,false,false,false,false,false,false,false,false],"id":16,"left_children":[1,3,5,7,9,11,13,15,17,-1,19,21,23,25,27,-1,-1,-1,-1,-1,-1,-1,-1,-1,-1,-1,-1,-1,-1],"loss_changes":[1.4226504E3,1.5973517E4,1.2985502E4,2.2882768E4,3.4534043E3,1.19299375E4,3.6544849E3,4.932521E3,1.6197914E4,0E0,1.8373936E3,1.1357132E4,5.375838E3,5.47435E3,3.8649185E3,0E0,0E0,0E0,0E0,0E0,0E0,0E0,0E0,0E0,0E0,0E0,0E0,0E0,0E0],"parents":[2147483647,0,0,1,1,2,2,3,3,4,4,5,5,6,6,7,7,8,8,10,10,11,11,12,12,13,13,14,14],"right_children":[2,4,6,8,10,12,14,16,18,-1,20,22,24,26,28,-1,-1,-1,-1,-1,-1,-1,-1,-1,-1,-1,-1,-1,-1],"split_conditions":[-1.0668698E1,-1.1048965E1,-9.892605E0,-1.1276758E1,-1.1001781E1,-1.0163627E1,-9.559153E0,5.512591E-1,-1.1250212E1,6.8018966E0,1.5649022E0,-1.0527061E1,-1.0152348E1,1.2681548E1,-9.155397E0,1.7450943E0,1.07319675E-1,-1.1060308E1,-1.7826095E0,1.7290951E0,4.011664E0,-6.847345E0,6.050958E-1,-1.1461984E1,-3.667302E0,2.6490455E0,-2.903078E0,-1.848295E0,1.9301584E-1],"split_indices":[0,0,0,0,0,0,0,1,0,0,1,0,0,1,0,0,0,0,0,0,0,0,0,0,0,0,0,0,0],"split_type":[0,0,0,0,0,0,0,0,0,0,0,0,0,0,0,0,0,0,0,0,0,0,0,0,0,0,0,0,0],"sum_hessian":[6.527E3,1.369E3,5.158E3,1.213E3,1.56E2,2.77E2,4.881E3,1.138E3,7.5E1,2.1E1,1.35E2,1.68E2,1.09E2,1.22E2,4.759E3,2E2,9.38E2,2.5E1,5E1,8E1,5.5E1,2E1,1.48E2,8E0,1.01E2,1.04E2,1.8E1,8.4E1,4.675E3],"tree_param":{"num_deleted":"0","num_feature":"2","num_nodes":"29","size_leaf_vector":"0"}},{"base_weights":[3.6304006E-1,8.158533E-1,-1.0382961E-1,4.705256E-2,3.0408933E0,-2.1274967E1,3.5355903E-2,2.325776E-1,-2.6671324E1,4.280278E0,7.1463275E-1,-2.531519E1,-1.5300656E1,-4.490064E0,2.7540773E-1,7.401479E-2,1.6947397E1,-2.0027628E0,5.0888844E0,-1.04409485E1,2.1011217E0,-5.6663017E0,-3.9493498E-1,1.5312168E1,5.4186843E-2],"categories":[],"categories_nodes":[],"categories_segments":[],"categories_sizes":[],"default_left":[true,true,true,true,true,true,true,true,false,true,true,false,false,true,true,false,false,false,false,false,false,false,false,false,false],"id":17,"left_children":[1,3,5,7,9,11,13,15,-1,17,19,-1,-1,21,23,-1,-1,-1,-1,-1,-1,-1,-1,-1,-1],"loss_changes":[1.380135E3,5.668826E3,9.474443E3,1.2220074E4,2.4504863E3,1.19549805E2,3.472078E3,6.4868E3,0E0,2.829874E3,4.615663E3,0E0,0E0,7.732744E2,1.0094933E4,0E0,0E0,0E0,0E0,0E0,0E0,0E0,0E0,0E0,0E0],"parents":[2147483647,0,0,1,1,2,2,3,3,4,4,5,5,6,6,7,7,9,9,10,10,13,13,14,14],"right_children":[2,4,6,8,10,12,14,16,-1,18,20,-1,-1,22,24,-1,-1,-1,-1,-1,-1,-1,-1,-1,-1],"split_conditions":[4.37129E0,2.6957831E0,4.4738274E0,2.6877398E0,3.6722991E0,-7.542259E0,5.0190315E0,2.6711807E0,-8.001397E0,-1.3447899E1,3.7656903E0,-7.5945573E0,-4.590197E0,-5.9679804E0,5.0625176E0,2.2204438E-2,5.0842195E0,-6.008289E-1,1.5266653E0,-3.1322846E0,6.303365E-1,-1.6998906E0,-1.18480496E-1,4.593651E0,1.6256053E-2],"split_indices":[1,1,1,1,1,0,1,1,0,0,1,0,0,0,1,0,0,0,0,0,0,0,0,0,0],"split_type":[0,0,0,0,0,0,0,0,0,0,0,0,0,0,0,0,0,0,0,0,0,0,0,0,0],"sum_hessian":[6.527E3,3.313E3,3.214E3,2.463E3,8.5E2,2E1,3.194E3,2.447E3,1.6E1,5.54E2,2.96E2,1E1,1E1,1.6E2,3.034E3,2.425E3,2.2E1,6.3E1,4.91E2,3.2E1,2.64E2,1.24E2,3.6E1,4.3E1,2.991E3],"tree_param":{"num_deleted":"0","num_feature":"2","num_nodes":"25","size_leaf_vector":"0"}},{"base_weights":[2.5200713E-1,7.139802E-1,-2.0343895E-1,1.9488692E-1,6.035812E0,-8.386643E0,2.013473E-1,7.380997E-1,-9.110909E0,2.991077E1,4.0459805E0,1.2857347E0,-1.35707445E1,7.3491254E0,-1.17880814E-1,2.7266228E-1,8.876824E0,-2.0985476E1,-3.3589916E0,1.6113565E0,1.3845946E1,8.964587E0,-2.6922097E0,-1.7585827E1,-1.0974747E1,8.213055E0,-3.0578191E0,-2.3153923E1,-2.1598516E-3],"categories":[],"categories_nodes":[],"categories_segments":[],"categories_sizes":[],"default_left":[true,true,true,true,true,true,true,true,true,false,true,true,true,true,true,false,false,false,false,false,false,false,false,false,false,false,false,false,false],"id":18,"left_children":[1,3,5,7,9,11,13,15,17,-1,19,21,23,25,27,-1,-1,-1,-1,-1,-1,-1,-1,-1,-1,-1,-1,-1,-1],"loss_changes":[1.3736614E3,8.952173E3,1.08930205E4,1.4939275E4,1.3561037E4,7.789548E3,7.1519395E3,1.0573862E4,1.106266E4,0E0,6.3481045E3,1.7041671E3,8.597383E2,1.2298901E3,7.999875E3,0E0,0E0,0E0,0E0,0E0,0E0,0E0,0E0,0E0,0E0,0E0,0E0,0E0,0E0],"parents":[2147483647,0,0,1,1,2,2,3,3,4,4,5,5,6,6,7,7,8,8,10,10,11,11,12,12,13,13,14,14],"right_children":[2,4,6,8,10,12,14,16,18,-1,20,22,24,26,28,-1,-1,-1,-1,-1,-1,-1,-1,-1,-1,-1,-1,-1,-1],"split_conditions":[-5.7583485E0,-6.086669E0,-5.3660793E0,-6.4947853E0,-6.077793E0,1.6825376E0,-5.112853E0,-6.7659626E0,-6.21963E0,8.973231E0,7.008707E0,-5.500144E0,3.9798787E0,1.5208349E1,-5.102852E0,8.179869E-2,2.6630473E0,-6.295643E0,-1.0076976E0,4.8340696E-1,4.1537843E0,2.6893764E0,-8.0766296E-1,-5.2757483E0,-3.2924242E0,2.4639165E0,-9.1734576E-1,-6.946177E0,-6.479555E-4],"split_indices":[0,0,0,0,0,1,0,0,0,0,1,0,1,1,0,0,0,0,0,0,0,0,0,0,0,0,0,0,0],"split_type":[0,0,0,0,0,0,0,0,0,0,0,0,0,0,0,0,0,0,0,0,0,0,0,0,0,0,0,0,0],"sum_hessian":[6.527E3,3.24E3,3.287E3,2.953E3,2.87E2,1.54E2,3.133E3,2.791E3,1.62E2,2.1E1,2.66E2,5.4E1,1E2,1.33E2,3E3,2.641E3,1.5E2,5.2E1,1.1E2,2.14E2,5.2E1,1.8E1,3.6E1,3.7E1,6.3E1,1.23E2,1E1,1.4E1,2.986E3],"tree_param":{"num_deleted":"0","num_feature":"2","num_nodes":"29","size_leaf_vector":"0"}},{"base_weights":[1.7593527E-1,-2.287304E-3,1.4113691E0,1.0398963E-1,-7.9829464E0,1.7339025E0,-1.4964773E1,7.28002E-1,-5.910095E-1,-9.221266E0,-3.2156641E0,5.408735E0,1.0148304E0,5.94314E-1,1.0257528E1,-7.884465E0,-3.2716092E-1,-6.1521697E0,-9.722057E0,3.8566964E0,9.289464E0,-2.1370702E0,1.4649091E0],"categories":[],"categories_nodes":[],"categories_segments":[],"categories_sizes":[],"default_left":[true,true,true,true,true,true,false,true,true,true,false,true,true,false,false,false,false,false,false,false,false,false,false],"id":19,"left_children":[1,3,5,7,9,11,-1,13,15,17,-1,19,21,-1,-1,-1,-1,-1,-1,-1,-1,-1,-1],"loss_changes":[1.4373527E3,4.8404316E3,4.3729116E3,2.4429612E3,4.13104E2,2.129626E3,0E0,3.775088E3,5.125861E3,3.0870117E1,0E0,7.5921484E2,9.635252E2,0E0,0E0,0E0,0E0,0E0,0E0,0E0,0E0,0E0,0E0],"parents":[2147483647,0,0,1,1,2,2,3,3,4,4,5,5,7,7,8,8,9,9,11,11,12,12],"right_children":[2,4,6,8,10,12,-1,14,16,18,-1,20,22,-1,-1,-1,-1,-1,-1,-1,-1,-1,-1],"split_conditions":[7.4858136E0,7.0569267E0,1.6709991E1,4.37129E0,7.3057485E0,9.81544E0,-4.4894323E0,4.1503057E0,4.7424297E0,7.186469E0,-9.6469927E-1,1.2685254E1,1.1858594E1,1.782942E-1,3.0772586E0,-2.3653398E0,-9.814828E-2,-1.845651E0,-2.9166174E0,1.157009E0,2.7868392E0,-6.411211E-1,4.3947273E-1],"split_indices":[0,0,1,1,0,0,0,1,1,0,0,1,0,0,0,0,0,0,0,0,0,0,0],"split_type":[0,0,0,0,0,0,0,0,0,0,0,0,0,0,0,0,0,0,0,0,0,0,0],"sum_hessian":[6.527E3,5.705E3,8.22E2,5.631E3,7.4E1,8.07E2,1.5E1,2.967E3,2.664E3,5.8E1,1.6E1,1.31E2,6.76E2,2.927E3,4E1,9.2E1,2.572E3,1E1,4.8E1,9.5E1,3.6E1,8.4E1,5.92E2],"tree_param":{"num_deleted":"0","num_feature":"2","num_nodes":"23","size_leaf_vector":"0"}},{"base_weights":[1.2228118E-1,1.3498896E0,7.3137796E-3,5.922518E-1,4.738598E0,-2.5787318E0,1.3741082E-1,2.2038965E0,-9.1988903E-1,5.7396607E0,-2.518993E-1,8.127922E-2,-7.844183E0,1.7041279E1,7.771884E-2,-4.1548634E0,3.5396993E0,5.668589E0,-3.49596E0,4.882943E0,6.5399685E0,-6.2162695E0,1.5340387E0,-5.351966E0,-1.5097836E1,4.261933E0,-1.9760635E-2],"categories":[],"categories_nodes":[],"categories_segments":[],"categories_sizes":[],"default_left":[true,true,true,true,true,true,true,true,true,true,false,true,true,false,true,false,false,false,false,false,false,false,false,false,false,false,false],"id":20,"left_children":[1,3,5,7,9,11,13,15,17,19,-1,21,23,-1,25,-1,-1,-1,-1,-1,-1,-1,-1,-1,-1,-1,-1],"loss_changes":[9.2131903E2,1.4323777E3,2.0088824E3,1.1181888E3,5.1101758E2,4.0063987E3,5.734985E3,1.9003861E3,4.042273E3,2.634497E1,0E0,1.7569613E3,1.6546538E3,0E0,2.3111038E3,0E0,0E0,0E0,0E0,0E0,0E0,0E0,0E0,0E0,0E0,0E0,0E0],"parents":[2147483647,0,0,1,1,2,2,3,3,4,4,5,5,6,6,7,7,8,8,9,9,11,11,12,12,14,14],"right_children":[2,4,6,8,10,12,14,16,18,20,-1,22,24,-1,26,-1,-1,-1,-1,-1,-1,-1,-1,-1,-1,-1,-1],"split_conditions":[-1.7072847E1,-1.9630508E1,-1.2310997E1,1.4921019E1,2.209222E1,-1.3288523E1,-1.1939592E1,-3.977009E-1,-2.6601562E1,1.7743843E1,-7.556979E-2,-1.5681114E1,1.0767273E1,5.112384E0,-1.1607412E1,-1.246459E0,1.0619098E0,1.7005768E0,-1.0487881E0,1.464883E0,1.9619906E0,-1.8648809E0,4.602116E-1,-1.6055899E0,-4.5293508E0,1.27858E0,-5.928191E-3],"split_indices":[0,0,0,1,1,0,0,1,0,1,0,0,1,0,0,0,0,0,0,0,0,0,0,0,0,0,0],"split_type":[0,0,0,0,0,0,0,0,0,0,0,0,0,0,0,0,0,0,0,0,0,0,0,0,0,0,0],"sum_hessian":[6.527E3,5.58E2,5.969E3,4.57E2,1.01E2,2.85E2,5.684E3,2.21E2,2.36E2,8.4E1,1.7E1,1.9E2,9.5E1,1.9E1,5.665E3,3.8E1,1.83E2,6.6E1,1.7E2,4.4E1,4E1,3.5E1,1.55E2,7.2E1,2.3E1,1.28E2,5.537E3],"tree_param":{"num_deleted":"0","num_feature":"2","num_nodes":"27","size_leaf_vector":"0"}},{"base_weights":[8.601129E-2,-2.6812881E-2,1.4702257E0,1.0507372E-1,-1.2949099E1,9.083847E0,5.884047E-1,4.1084737E-2,6.414769E0,-8.110382E0,-1.874191E1,1.2089247E0,1.264927E1,8.202967E0,-4.6029292E-2,7.812842E-2,-2.4288834E1,3.7381558E0,9.147075E0,2.003491E1,5.3753147E0,3.484573E0,1.2203506E1,3.8878167E-1,-1.0750372E1],"categories":[],"categories_nodes":[],"categories_segments":[],"categories_sizes":[],"default_left":[true,true,true,true,true,true,true,true,true,false,false,false,true,true,true,false,false,false,false,false,false,false,false,false,false],"id":21,"left_children":[1,3,5,7,9,11,13,15,17,-1,-1,-1,19,21,23,-1,-1,-1,-1,-1,-1,-1,-1,-1,-1],"loss_changes":[1.0195357E3,1.0290077E4,3.2978696E3,2.412956E3,1.5578125E3,1.4166572E3,2.1356516E3,5.335612E3,4.046062E2,0E0,0E0,0E0,1.772605E3,5.992639E2,1.9078151E3,0E0,0E0,0E0,0E0,0E0,0E0,0E0,0E0,0E0,0E0],"parents":[2147483647,0,0,1,1,2,2,3,3,4,4,5,5,6,6,7,7,8,8,12,12,13,13,14,14],"right_children":[2,4,6,8,10,12,14,16,18,-1,-1,-1,20,22,24,-1,-1,-1,-1,-1,-1,-1,-1,-1,-1],"split_conditions":[1.6056545E1,1.5528864E1,1.658012E1,1.5478964E1,-1.0980192E1,4.3139653E0,-2.2296171E1,1.5384674E1,-1.0569182E1,-2.4331148E0,-5.6225734E0,3.626774E-1,7.8030853E0,-2.4844967E1,7.945031E0,2.3438526E-2,-7.28665E0,1.1214468E0,2.7441225E0,6.0104733E0,1.6125945E0,1.0453719E0,3.661052E0,1.166345E-1,-3.2251117E0],"split_indices":[1,1,1,1,0,0,0,1,0,0,0,0,0,0,0,0,0,0,0,0,0,0,0,0,0],"split_type":[0,0,0,0,0,0,0,0,0,0,0,0,0,0,0,0,0,0,0,0,0,0,0,0,0],"sum_hessian":[6.527E3,6.036E3,4.91E2,5.976E3,6E1,5E1,4.41E2,5.917E3,5.9E1,3.4E1,2.6E1,1.6E1,3.4E1,3.3E1,4.08E2,5.909E3,8E0,3.1E1,2.8E1,1.6E1,1.8E1,1.6E1,1.7E1,3.93E2,1.5E1],"tree_param":{"num_deleted":"0","num_feature":"2","num_nodes":"25","size_leaf_vector":"0"}},{"base_weights":[5.9922278E-2,-7.481768E-2,9.940247E-1,1.09443694E-1,-3.176509E0,1.1654847E0,-7.726829E0,-7.0996564E-3,1.6091007E1,-1.3319693E1,-1.2933514E0,3.581918E0,6.926122E-1,3.8420957E-1,-1.4112426E0,2.4446163E1,1.0434272E1,-3.446298E0,5.723933E0,1.1445673E0,5.0070457E0,9.249202E-1,-3.868943E0],"categories":[],"categories_nodes":[],"categories_segments":[],"categories_sizes":[],"default_left":[true,true,true,true,true,true,false,true,true,false,true,true,true,false,false,false,false,false,false,false,false,false,false],"id":22,"left_children":[1,3,5,7,9,11,-1,13,15,-1,17,19,21,-1,-1,-1,-1,-1,-1,-1,-1,-1,-1],"loss_changes":[8.2169446E2,3.2614517E3,1.2396184E3,1.0033644E4,6.095161E3,9.2079224E2,0E0,2.9395723E3,1.5881748E3,0E0,4.1139507E3,4.5277588E2,7.2098584E2,0E0,0E0,0E0,0E0,0E0,0E0,0E0,0E0,0E0,0E0],"parents":[2147483647,0,0,1,1,2,2,3,3,4,4,5,5,7,7,8,8,10,10,11,11,12,12],"right_children":[2,4,6,8,10,12,-1,14,16,-1,18,20,22,-1,-1,-1,-1,-1,-1,-1,-1,-1,-1],"split_conditions":[7.4858136E0,6.4068055E0,1.6709991E1,6.2079477E0,6.5320086E0,9.81544E0,-2.3180487E0,8.39736E0,6.3336096E0,-3.995908E0,6.5683494E0,7.731378E0,1.5914782E1,1.1526287E-1,-4.233728E-1,7.3338494E0,3.1302817E0,-1.0338894E0,1.71718E0,3.433702E-1,1.5021138E0,2.7747607E-1,-1.1606829E0],"split_indices":[0,0,1,0,0,0,0,1,0,0,1,0,0,0,0,0,0,0,0,0,0,0,0],"split_type":[0,0,0,0,0,0,0,0,0,0,0,0,0,0,0,0,0,0,0,0,0,0,0],"sum_hessian":[6.527E3,5.705E3,8.22E2,5.386E3,3.19E2,8.07E2,1.5E1,5.348E3,3.8E1,4.9E1,2.7E2,1.31E2,6.76E2,4.183E3,1.165E3,1.4E1,2.4E1,2.07E2,6.3E1,4.9E1,8.2E1,6.44E2,3.2E1],"tree_param":{"num_deleted":"0","num_feature":"2","num_nodes":"23","size_leaf_vector":"0"}},{"base_weights":[4.2784035E-2,1.5714678E0,-6.84959E-2,-5.0463337E-1,5.6713223E0,-3.8240604E0,1.0110952E-1,1.3263974E0,-5.1974635E0,2.3320124E1,3.0682802E0,-1.5864443E1,-1.7200649E0,2.6381063E0,-7.9956494E-2,3.8697323E-1,9.464718E0,-3.0758586E0,-1.0598352E1,-6.2555623E0,4.1484966E0,-6.1995745E0,-1.6103605E-2,-2.3666371E-1,1.07010565E1,-5.5782356E0,5.2791983E-3],"categories":[],"categories_nodes":[],"categories_segments":[],"categories_sizes":[],"default_left":[true,true,true,true,true,true,true,true,true,false,true,false,true,true,true,false,false,false,false,false,false,false,false,false,false,false,false],"id":23,"left_children":[1,3,5,7,9,11,13,15,17,-1,19,-1,21,23,25,-1,-1,-1,-1,-1,-1,-1,-1,-1,-1,-1,-1],"loss_changes":[1.1105975E3,3.7735508E3,3.87695E3,2.541745E3,6.7735938E3,6.6352686E3,2.6755464E3,1.6247937E3,9.1846094E2,0E0,1.3453525E3,0E0,1.7173049E3,8.996035E3,2.5480774E3,0E0,0E0,0E0,0E0,0E0,0E0,0E0,0E0,0E0,0E0,0E0,0E0],"parents":[2147483647,0,0,1,1,2,2,3,3,4,4,5,5,6,6,7,7,8,8,10,10,12,12,13,13,14,14],"right_children":[2,4,6,8,10,12,14,16,18,-1,20,-1,22,24,26,-1,-1,-1,-1,-1,-1,-1,-1,-1,-1,-1,-1],"split_conditions":[-1.6986573E0,-4.0687065E0,-2.0271784E-1,-6.4263096E0,-3.805924E0,-7.9197245E0,5.031448E-1,-6.4710956E0,1.1090102E0,6.9960375E0,-3.5644746E0,-4.759333E0,-1.363657E0,4.6481833E-1,6.91629E-1,1.16091974E-1,2.8394156E0,-9.227576E-1,-3.1795058E0,-1.8766688E0,1.244549E0,-1.8598725E0,-4.8310817E-3,-7.0999116E-2,3.2103171E0,-1.6734707E0,1.5837596E-3],"split_indices":[1,1,1,1,1,0,1,1,0,0,1,0,1,1,1,0,0,0,0,0,0,0,0,0,0,0,0],"split_type":[0,0,0,0,0,0,0,0,0,0,0,0,0,0,0,0,0,0,0,0,0,0,0,0,0,0,0],"sum_hessian":[6.527E3,4.42E2,6.085E3,2.94E2,1.48E2,2.62E2,5.823E3,2.12E2,8.2E1,1.8E1,1.3E2,3.8E1,2.24E2,3.87E2,5.436E3,1.91E2,2.1E1,6E1,2.2E1,1.3E1,1.17E2,6.1E1,1.63E2,2.86E2,1.01E2,8.2E1,5.354E3],"tree_param":{"num_deleted":"0","num_feature":"2","num_nodes":"27","size_leaf_vector":"0"}},{"base_weights":[2.995595E-2,-4.7400672E-2,2.1108532E0,1.4594032E-1,-9.143624E-1,-5.7835555E0,2.9987915E0,-1.5211591E-2,4.6195664E0,-3.1143708E0,1.3297839E0,6.964933E0,2.197584E0,6.0118124E-2,-1.006012E1,1.1235677E1,1.5943911E0,1.1161633E0,-7.651072E0,1.00314245E1,5.813961E-1,8.97797E0,1.5143508E0],"categories":[],"categories_nodes":[],"categories_segments":[],"categories_sizes":[],"default_left":[true,true,true,true,true,false,true,true,true,true,true,false,true,false,false,false,false,false,false,false,false,false,false],"id":24,"left_children":[1,3,5,7,9,-1,11,13,15,17,19,-1,21,-1,-1,-1,-1,-1,-1,-1,-1,-1,-1],"loss_changes":[1.05092E3,1.0552965E3,1.6576246E3,3.7114353E3,5.671979E3,0E0,6.5518933E2,3.7613047E3,3.5647517E3,1.1140287E4,3.6996108E3,0E0,8.0637146E2,0E0,0E0,0E0,0E0,0E0,0E0,0E0,0E0,0E0,0E0],"parents":[2147483647,0,0,1,1,2,2,3,3,4,4,6,6,7,7,8,8,9,9,10,10,12,12],"right_children":[2,4,6,8,10,-1,12,14,16,18,20,-1,22,-1,-1,-1,-1,-1,-1,-1,-1,-1,-1],"split_conditions":[2.0336607E1,1.0344601E1,-2.1444954E1,9.5588045E0,4.775684E0,-1.7350668E0,-2.1216274E1,9.552956E0,9.900991E0,-1.4247271E1,6.7341795E0,2.08948E0,2.0412434E1,1.8035438E-2,-3.0180361E0,3.3707032E0,4.7831735E-1,3.34849E-1,-2.2953217E0,3.0094275E0,1.7441884E-1,2.693391E0,4.5430526E-1],"split_indices":[1,1,0,1,0,0,0,1,1,0,0,0,1,0,0,0,0,0,0,0,0,0,0],"split_type":[0,0,0,0,0,0,0,0,0,0,0,0,0,0,0,0,0,0,0,0,0,0,0],"sum_hessian":[6.527E3,6.294E3,2.33E2,5.147E3,1.147E3,2.3E1,2.1E2,4.969E3,1.78E2,5.79E2,5.68E2,3.4E1,1.76E2,4.933E3,3.6E1,5.5E1,1.23E2,3E2,2.79E2,4.4E1,5.24E2,1.5E1,1.61E2],"tree_param":{"num_deleted":"0","num_feature":"2","num_nodes":"23","size_leaf_vector":"0"}},{"base_weights":[2.1822222E-2,-9.783262E-2,1.4899817E0,-1.7271843E-2,-7.9898643E0,7.9165535E0,1.0257059E0,2.6095703E-1,-7.2088176E-1,-5.6623335E0,-1.0711112E1,3.42486E0,1.1942568E1,6.9389524E0,5.524598E-1,-1.8578534E-1,7.4398327E0,-3.018662E0,8.528891E-2,-3.726414E0,-6.287645E0,4.5306726E0,8.827942E0,-4.7477984E-1,1.3937567E0],"categories":[],"categories_nodes":[],"categories_segments":[],"categories_sizes":[],"default_left":[true,true,true,true,true,true,true,true,true,true,false,false,false,true,true,false,false,false,false,false,false,false,false,false,false],"id":25,"left_children":[1,3,5,7,9,11,13,15,17,19,-1,-1,-1,21,23,-1,-1,-1,-1,-1,-1,-1,-1,-1,-1],"loss_changes":[1.1469352E3,3.8381152E3,1.4598612E3,1.1702731E3,3.2571094E2,5.558579E2,1.2834402E3,1.3740633E4,3.1382283E3,1.8938965E1,0E0,0E0,0E0,1.1467676E2,3.696809E2,0E0,0E0,0E0,0E0,0E0,0E0,0E0,0E0,0E0,0E0],"parents":[2147483647,0,0,1,1,2,2,3,3,4,4,5,5,6,6,7,7,8,8,9,9,13,13,14,14],"right_children":[2,4,6,8,10,12,14,16,18,20,-1,-1,-1,22,24,-1,-1,-1,-1,-1,-1,-1,-1,-1,-1],"split_conditions":[1.6056545E1,1.5528864E1,1.6430927E1,-2.7124352E0,-1.0980192E1,4.3139653E0,-2.2296171E1,-3.2949858E0,5.597721E0,-2.333535E1,-3.2133338E0,1.0274581E0,3.5827706E0,-2.4844967E1,1.9917654E1,-5.5735603E-2,2.2319498E0,-9.0559864E-1,2.5586674E-2,-1.1179242E0,-1.8862935E0,1.3592018E0,2.6483827E0,-1.4243396E-1,4.1812703E-1],"split_indices":[1,1,1,0,0,0,0,0,0,0,0,0,0,0,1,0,0,0,0,0,0,0,0,0,0],"split_type":[0,0,0,0,0,0,0,0,0,0,0,0,0,0,0,0,0,0,0,0,0,0,0,0,0],"sum_hessian":[6.527E3,6.036E3,4.91E2,5.976E3,6E1,3.2E1,4.59E2,4.283E3,1.693E3,3.4E1,2.6E1,1.6E1,1.6E1,3.3E1,4.26E2,4.033E3,2.5E2,4.39E2,1.254E3,1E1,2.4E1,1.6E1,1.7E1,1.92E2,2.34E2],"tree_param":{"num_deleted":"0","num_feature":"2","num_nodes":"25","size_leaf_vector":"0"}},{"base_weights":[1.5886577E-2,3.8435066E-1,-4.5096806E-1,2.8734648E-1,1.5664778E1,-6.2322216E0,-2.646811E-2,-1.16080046E-1,1.3909684E0,-1.2786909E0,-1.9666744E1,1.4111507E0,-4.001961E-1,5.2270796E-2,-1.4859744E1,1.6439693E1,1.1055722E0,-7.8214903E0,9.259356E0,-2.374639E1,-1.4516868E1,1.8567131E1,-5.169978E-1,2.9165301E0,-6.618404E-1],"categories":[],"categories_nodes":[],"categories_segments":[],"categories_sizes":[],"default_left":[true,true,true,true,false,true,true,true,true,true,true,true,true,false,false,false,false,false,false,false,false,false,false,false,false],"id":26,"left_children":[1,3,5,7,-1,9,11,13,15,17,19,21,23,-1,-1,-1,-1,-1,-1,-1,-1,-1,-1,-1,-1],"loss_changes":[1.1231144E3,5.404285E3,7.0677637E3,1.6150122E3,0E0,1.3084869E4,1.44262E3,6.595739E3,4.152123E3,1.006993E4,7.6878906E2,1.8335521E4,1.8512173E3,0E0,0E0,0E0,0E0,0E0,0E0,0E0,0E0,0E0,0E0,0E0,0E0],"parents":[2147483647,0,0,1,1,2,2,3,3,5,5,6,6,7,7,8,8,9,9,10,10,11,11,12,12],"right_children":[2,4,6,8,-1,10,12,14,16,18,20,22,24,-1,-1,-1,-1,-1,-1,-1,-1,-1,-1,-1,-1],"split_conditions":[-4.934463E0,-4.93696E0,-4.3266134E0,6.6607556E0,4.6994333E0,-4.459325E0,2.0660367E0,5.873999E0,7.107315E0,-4.7543373E0,-4.3971825E0,-3.0129375E0,-3.6573122E0,1.5681239E-2,-4.4579234E0,4.931908E0,3.3167168E-1,-2.3464472E0,2.7778068E0,-7.123917E0,-4.3550606E0,5.5701394E0,-1.5509935E-1,8.7495905E-1,-1.9855212E-1],"split_indices":[0,0,0,1,0,0,1,1,1,0,0,0,0,0,0,0,0,0,0,0,0,0,0,0,0],"split_type":[0,0,0,0,0,0,0,0,0,0,0,0,0,0,0,0,0,0,0,0,0,0,0,0,0],"sum_hessian":[6.527E3,3.648E3,2.879E3,3.626E3,2.2E1,1.96E2,2.683E3,2.656E3,9.7E2,1.44E2,5.2E1,5.53E2,2.13E3,2.627E3,2.9E1,1.7E1,9.53E2,8.9E1,5.5E1,2.7E1,2.5E1,5.5E1,4.98E2,1.55E2,1.975E3],"tree_param":{"num_deleted":"0","num_feature":"2","num_nodes":"25","size_leaf_vector":"0"}},{"base_weights":[1.1205384E-2,1.1160659E0,-9.671915E-2,7.0771587E-1,6.7729373E0,-2.644624E1,-1.2277738E-2,8.026796E0,4.7027358E-1,4.9923992E-1,1.0673197E1,3.621349E-1,-4.912967E-1,-1.4087927E1,8.9503527E-1,-3.1575063E-1,1.6018336E0,-4.781169E0,-1.7050473E-1],"categories":[],"categories_nodes":[],"categories_segments":[],"categories_sizes":[],"default_left":[true,true,true,true,true,false,true,false,true,false,false,true,true,false,false,false,false,false,false],"id":27,"left_children":[1,3,5,7,9,-1,11,-1,13,-1,-1,15,17,-1,-1,-1,-1,-1,-1],"loss_changes":[7.7851685E2,1.3373071E3,1.3233919E4,9.398828E2,9.4896423E2,0E0,1.0637279E3,0E0,3.2714536E3,0E0,0E0,2.7981104E3,3.5799443E3,0E0,0E0,0E0,0E0,0E0,0E0],"parents":[2147483647,0,0,1,1,2,2,3,3,4,4,6,6,8,8,11,11,12,12],"right_children":[2,4,6,8,10,-1,12,-1,14,-1,-1,16,18,-1,-1,-1,-1,-1,-1],"split_conditions":[-1.2992785E0,-1.342141E0,-9.522996E-1,-3.198714E1,-6.07878E0,-7.933872E0,-4.934463E0,2.408039E0,-2.6764261E1,1.4977199E-1,3.2019591E0,-7.858706E0,-4.3266134E0,-4.2263784E0,2.6851058E-1,-9.472519E-2,4.8055008E-1,-1.4343507E0,-5.115142E-2],"split_indices":[1,1,1,0,0,0,0,0,0,0,0,0,0,0,0,0,0,0,0],"split_type":[0,0,0,0,0,0,0,0,0,0,0,0,0,0,0,0,0,0,0],"sum_hessian":[6.527E3,5.8E2,5.947E3,5.42E2,3.8E1,1.8E1,5.929E3,1.6E1,5.26E2,1.5E1,2.3E1,3.328E3,2.601E3,1.4E1,5.12E2,2.152E3,1.176E3,1.8E2,2.421E3],"tree_param":{"num_deleted":"0","num_feature":"2","num_nodes":"19","size_leaf_vector":"0"}},{"base_weights":[6.7362324E-3,-2.5275013E-1,4.121556E-1,-1.2313505E-1,-1.9964464E1,6.4820294E0,-1.6299242E-2,2.1530844E-1,-1.8672698E0,-3.276415E1,-1.2455484E1,3.7386742E0,1.5460341E1,-2.405721E1,7.4886814E-2,1.1824013E-1,7.9613166E0,-6.2930784E0,5.138143E-1,-1.6778843E1,-7.3189125E0,8.235295E0,-2.1646354E0,1.8331186E1,6.486264E0,5.0779696E0,-8.836072E-2],"categories":[],"categories_nodes":[],"categories_segments":[],"categories_sizes":[],"default_left":[true,true,true,true,true,true,true,true,true,false,true,true,true,false,true,false,false,false,false,false,false,false,false,false,false,false,false],"id":28,"left_children":[1,3,5,7,9,11,13,15,17,-1,19,21,23,-1,25,-1,-1,-1,-1,-1,-1,-1,-1,-1,-1,-1,-1],"loss_changes":[6.8685504E2,1.016874E4,6.6266045E3,2.335593E3,2.090834E3,4.0801562E3,5.2214204E3,2.4908286E3,6.7793105E3,0E0,2.769275E2,3.4686697E3,8.858633E2,0E0,1.9385748E3,0E0,0E0,0E0,0E0,0E0,0E0,0E0,0E0,0E0,0E0,0E0,0E0],"parents":[2147483647,0,0,1,1,2,2,3,3,4,4,5,5,6,6,7,7,8,8,10,10,11,11,12,12,14,14],"right_children":[2,4,6,8,10,12,14,16,18,-1,20,22,24,-1,26,-1,-1,-1,-1,-1,-1,-1,-1,-1,-1,-1,-1],"split_conditions":[5.780341E0,5.628149E0,6.3861337E0,4.37129E0,-5.594041E0,6.288807E0,6.4438705E0,4.1503057E0,-6.118498E0,-9.829245E0,-5.19615E0,5.873999E0,-2.6606598E0,-7.2171636E0,6.6501584E0,3.5472043E-2,2.388395E0,-1.8879236E0,1.5414429E-1,-5.0336533E0,-2.195674E0,2.4705887E0,-6.4939064E-1,5.4993563E0,1.9458793E0,1.5233909E0,-2.6508218E-2],"split_indices":[1,1,1,1,0,1,1,1,0,0,0,1,0,0,1,0,0,0,0,0,0,0,0,0,0,0,0],"split_type":[0,0,0,0,0,0,0,0,0,0,0,0,0,0,0,0,0,0,0,0,0,0,0,0,0,0,0],"sum_hessian":[6.527E3,3.98E3,2.547E3,3.955E3,2.5E1,1.67E2,2.38E3,3.313E3,6.42E2,8E0,1.7E1,1.29E2,3.8E1,8E0,2.372E3,3.273E3,4E1,2.24E2,4.18E2,8E0,9E0,7.3E1,5.6E1,2.8E1,1E1,7.4E1,2.298E3],"tree_param":{"num_deleted":"0","num_feature":"2","num_nodes":"27","size_leaf_vector":"0"}},{"base_weights":[2.7474742E-3,3.8087457E-1,-3.6997536E-1,2.3095697E-1,1.4947683E1,-1.0467777E1,-1.8541178E-1,-5.1050514E-1,8.894139E-1,-5.7416005E0,-1.5856521E1,1.2605262E0,-4.4134638E-1,-2.112056E0,1.4791219E0,4.925161E0,4.8957042E-2,-1.1499833E0,3.2093387E0,-1.5849941E1,-2.9961312E-1],"categories":[],"categories_nodes":[],"categories_segments":[],"categories_sizes":[],"default_left":[true,true,true,true,false,true,true,true,true,false,false,true,true,false,false,false,false,false,false,false,false],"id":29,"left_children":[1,3,5,7,-1,9,11,13,15,-1,-1,17,19,-1,-1,-1,-1,-1,-1,-1,-1],"loss_changes":[9.2017505E2,7.0743115E3,6.12586E3,1.5671549E3,0E0,1.4115791E3,1.195868E3,4.8147227E3,5.7659395E3,0E0,0E0,2.2867393E3,5.9900854E3,0E0,0E0,0E0,0E0,0E0,0E0,0E0,0E0],"parents":[2147483647,0,0,1,1,2,2,3,3,5,5,6,6,7,7,8,8,11,11,12,12],"right_children":[2,4,6,8,-1,10,12,14,16,-1,-1,18,20,-1,-1,-1,-1,-1,-1,-1,-1],"split_conditions":[-5.7583485E0,-5.764093E0,-5.5990963E0,2.3651218E0,4.4843054E0,-5.7226334E0,1.3325276E0,-9.1624975E0,3.5462801E0,-1.7224802E0,-4.7569566E0,-4.928553E0,1.5282096E0,-6.336168E-1,4.4373658E-1,1.4775484E0,1.4687113E-2,-3.44995E-1,9.6280164E-1,-4.7549825E0,-8.988394E-2],"split_indices":[0,0,0,1,0,0,1,0,1,0,0,1,1,0,0,0,0,0,0,0,0],"split_type":[0,0,0,0,0,0,0,0,0,0,0,0,0,0,0,0,0,0,0,0,0],"sum_hessian":[6.527E3,3.24E3,3.287E3,3.208E3,3.2E1,5.8E1,3.229E3,1.509E3,1.699E3,3.2E1,2.6E1,4.85E2,2.744E3,8.36E2,6.73E2,2.92E2,1.407E3,2.17E2,2.68E2,2.4E1,2.72E3],"tree_param":{"num_deleted":"0","num_feature":"2","num_nodes":"21","size_leaf_vector":"0"}}]},"name":"gbtree"},"learner_model_param":{"base_score":"5E-1","num_class":"0","num_feature":"2"},"objective":{"name":"reg:squarederror","reg_loss_param":{"scale_pos_weight":"1"}}},"version":[1,5,0]}