{"learner":{"attributes":{"best_iteration":"28","best_ntree_limit":"29"},"feature_names":["ATF_01","ATF_02","ATF_03","ATF_04","ATF_05","ATF_06","ATF_07","ATF_08","ATF_09","ATF_10","ATF_11","ATF_12","ATF_13","ATF_14","ATF_15","ATF_16","ATF_17","ATF_18","ATF_19","ATF_20","ATF_21","ATF_22","ATF_23","ATF_24","ATF_25","ATF_26","ATF_27","ATF_28","ATF_29","ATF_30","ATF_31","ATF_32","ATF_33","ATF_34","ATF_35","ATF_36","ATF_37","ATF_38","ATF_39","ATF_40","ATF_41","ATF_42","ATF_43","ATF_44","ATF_45","ATF_46","ATF_47","ATF_48","ATF_49","ATF_50"],"feature_types":["float","float","float","float","float","float","float","float","float","float","float","float","float","float","float","float","float","float","float","float","float","float","float","float","float","float","float","float","float","float","float","float","float","float","float","float","float","float","float","float","float","float","float","float","float","float","float","float","float","float"],"gradient_booster":{"model":{"gbtree_model_param":{"num_trees":"29","size_leaf_vector":"0"},"tree_info":[0,0,0,0,0,0,0,0,0,0,0,0,0,0,0,0,0,0,0,0,0,0,0,0,0,0,0,0,0],"trees":[{"base_weights":[1.5213092E2,1.8319106E2,1.3386414E2,1.0057288E2,1.4856062E2],"categories":[],"categories_nodes":[],"categories_segments":[],"categories_sizes":[],"default_left":[true,false,true,false,false],"id":0,"left_children":[1,-1,3,-1,-1],"loss_changes":[7.07382E5,0E0,3.84298E5,0E0,0E0],"parents":[2147483647,0,0,2,2],"right_children":[2,-1,4,-1,-1],"split_conditions":[-7.482746E0,5.4957317E1,-1.734049E-1,3.0171865E1,4.4568188E1],"split_indices":[10,0,36,0,0],"split_type":[0,0,0,0,0],"sum_hessian":[1.289E3,4.74E2,8.15E2,2.52E2,5.63E2],"tree_param":{"num_deleted":"0","num_feature":"50","num_nodes":"5","size_leaf_vector":"0"}},{"base_weights":[1.0640645E2,1.2915723E2,9.277072E1,1.3390169E2,1.202284E2,1.0419021E2,7.114156E1],"categories":[],"categories_nodes":[],"categories_segments":[],"categories_sizes":[],"default_left":[true,true,true,false,false,false,false],"id":1,"left_children":[1,3,5,-1,-1,-1,-1],"loss_changes":[3.86655E5,4.193E3,1.91912E5,0E0,0E0,0E0,0E0],"parents":[2147483647,0,0,1,1,2,2],"right_children":[2,4,6,-1,-1,-1,-1],"split_conditions":[-7.482746E0,1.863401E2,8.9538345E1,4.017051E1,3.6068523E1,3.1257063E1,2.134247E1],"split_indices":[10,7,9,0,0,0,0],"split_type":[0,0,0,0,0,0,0],"sum_hessian":[1.284E3,4.78E2,8.06E2,3.03E2,1.75E2,5.25E2,2.81E2],"tree_param":{"num_deleted":"0","num_feature":"50","num_nodes":"7","size_leaf_vector":"0"}},{"base_weights":[7.674718E1,5.012216E1,8.211792E1,5.547548E1,-2.5259566E0,8.6645294E1,6.51424E1],"categories":[],"categories_nodes":[],"categories_segments":[],"categories_sizes":[],"default_left":[true,true,true,false,false,false,false],"id":2,"left_children":[1,3,5,-1,-1,-1,-1],"loss_changes":[1.879275E5,6.4400125E4,8.01255E4,0E0,0E0,0E0,0E0],"parents":[2147483647,0,0,1,1,2,2],"right_children":[2,4,6,-1,-1,-1,-1],"split_conditions":[7.3590796E2,6.9172296E2,9.867493E2,1.6642645E1,-7.5778705E-1,2.599359E1,1.954272E1],"split_indices":[0,0,1,0,0,0,0],"split_type":[0,0,0,0,0,0,0],"sum_hessian":[1.342E3,2.27E2,1.115E3,2.06E2,2.1E1,8.77E2,2.38E2],"tree_param":{"num_deleted":"0","num_feature":"50","num_nodes":"7","size_leaf_vector":"0"}},{"base_weights":[5.2788063E1,6.370198E1,4.6272484E1,6.932677E1,5.863014E1,5.334274E1,3.4169926E1],"categories":[],"categories_nodes":[],"categories_segments":[],"categories_sizes":[],"default_left":[true,true,true,false,false,false,false],"id":3,"left_children":[1,3,5,-1,-1,-1,-1],"loss_changes":[8.60115E4,9.200875E3,6.5519375E4,0E0,0E0,0E0,0E0],"parents":[2147483647,0,0,1,1,2,2],"right_children":[2,4,6,-1,-1,-1,-1],"split_conditions":[-7.482746E0,-3.838664E0,-1.6299047E0,2.079803E1,1.7589043E1,1.6002823E1,1.0250978E1],"split_indices":[10,15,15,0,0,0,0],"split_type":[0,0,0,0,0,0,0],"sum_hessian":[1.25E3,4.64E2,7.86E2,2.14E2,2.5E2,4.94E2,2.92E2],"tree_param":{"num_deleted":"0","num_feature":"50","num_nodes":"7","size_leaf_vector":"0"}},{"base_weights":[3.8236576E1,2.8248037E1,4.3728725E1,3.278536E1,5.010646E0,1.5022554E1,4.544139E1],"categories":[],"categories_nodes":[],"categories_segments":[],"categories_sizes":[],"default_left":[true,true,true,false,false,false,false],"id":4,"left_children":[1,3,5,-1,-1,-1,-1],"loss_changes":[6.914825E4,4.8125188E4,3.9927E4,0E0,0E0,0E0,0E0],"parents":[2147483647,0,0,1,1,2,2],"right_children":[2,4,6,-1,-1,-1,-1],"split_conditions":[4.571634E1,1.27293625E1,1.2347208E1,9.835608E0,1.5031939E0,4.5067663E0,1.3632418E1],"split_indices":[17,11,32,0,0,0,0],"split_type":[0,0,0,0,0,0,0],"sum_hessian":[1.282E3,4.57E2,8.25E2,3.82E2,7.5E1,4.7E1,7.78E2],"tree_param":{"num_deleted":"0","num_feature":"50","num_nodes":"7","size_leaf_vector":"0"}},{"base_weights":[2.6646286E1,2.9020369E1,1.5099176E1,3.4562485E1,2.5470451E1],"categories":[],"categories_nodes":[],"categories_segments":[],"categories_sizes":[],"default_left":[true,true,false,false,false],"id":5,"left_children":[1,3,-1,-1,-1],"loss_changes":[3.5556125E4,2.0525E4,0E0,0E0,0E0],"parents":[2147483647,0,0,1,1],"right_children":[2,4,-1,-1,-1],"split_conditions":[1.8461094E1,-3.11164E0,4.529753E0,1.0368746E1,7.6411357E0],"split_indices":[42,15,0,0,0],"split_type":[0,0,0,0,0],"sum_hessian":[1.312E3,1.087E3,2.25E2,4.21E2,6.66E2],"tree_param":{"num_deleted":"0","num_feature":"50","num_nodes":"5","size_leaf_vector":"0"}},{"base_weights":[1.7485096E1,1.9901903E1,6.455881E0,3.0075834E1,1.693292E1,2.7657685E0,7.9798155E0],"categories":[],"categories_nodes":[],"categories_segments":[],"categories_sizes":[],"default_left":[true,true,true,false,false,false,false],"id":6,"left_children":[1,3,5,-1,-1,-1,-1],"loss_changes":[3.2871E4,3.0150031E4,1.2375908E3,0E0,0E0,0E0,0E0],"parents":[2147483647,0,0,1,1,2,2],"right_children":[2,4,6,-1,-1,-1,-1],"split_conditions":[1.8461094E1,-1.5769693E0,9.879138E1,9.022751E0,5.0798764E0,8.297306E-1,2.3939447E0],"split_indices":[42,40,2,0,0,0,0],"split_type":[0,0,0,0,0,0,0],"sum_hessian":[1.237E3,1.014E3,2.23E2,2.27E2,7.87E2,6.6E1,1.57E2],"tree_param":{"num_deleted":"0","num_feature":"50","num_nodes":"7","size_leaf_vector":"0"}},{"base_weights":[1.0454924E1,1.2840691E1,-4.649027E-1,4.396572E0,1.6624437E1,4.2474194E0,-1.8036549E1],"categories":[],"categories_nodes":[],"categories_segments":[],"categories_sizes":[],"default_left":[true,true,true,false,false,false,false],"id":7,"left_children":[1,3,5,-1,-1,-1,-1],"loss_changes":[3.546297E4,3.56155E4,2.0363404E4,0E0,0E0,0E0,0E0],"parents":[2147483647,0,0,1,1,2,2],"right_children":[2,4,6,-1,-1,-1,-1],"split_conditions":[1.3122122E1,-1.3203093E-1,9.96772E1,1.3189716E0,4.9873314E0,1.2742258E0,-5.410965E0],"split_indices":[5,30,7,0,0,0,0],"split_type":[0,0,0,0,0,0,0],"sum_hessian":[1.36E3,1.116E3,2.44E2,3.46E2,7.7E2,1.93E2,5.1E1],"tree_param":{"num_deleted":"0","num_feature":"50","num_nodes":"7","size_leaf_vector":"0"}},{"base_weights":[8.582631E0,-3.2022133E0,9.811258E0,-2.309975E0,-3.4596572E0,1.9691578E1,8.656E0],"categories":[],"categories_nodes":[],"categories_segments":[],"categories_sizes":[],"default_left":[true,true,true,false,false,false,false],"id":8,"left_children":[1,3,5,-1,-1,-1,-1],"loss_changes":[1.9086008E4,2.072107E1,1.3435422E4,0E0,0E0,0E0,0E0],"parents":[2147483647,0,0,1,1,2,2],"right_children":[2,4,6,-1,-1,-1,-1],"split_conditions":[2.013656E1,7.1368835E2,8.085195E0,-6.929925E-1,-1.0378972E0,5.9074736E0,2.5968E0],"split_indices":[22,0,37,0,0,0,0],"split_type":[0,0,0,0,0,0,0],"sum_hessian":[1.315E3,1.24E2,1.191E3,3E1,9.4E1,1.23E2,1.068E3],"tree_param":{"num_deleted":"0","num_feature":"50","num_nodes":"7","size_leaf_vector":"0"}},{"base_weights":[7.5781884E0,8.4418976E-1,1.0518071E1,-1.3972345E1,4.308173E0,9.072719E0,2.1410965E1],"categories":[],"categories_nodes":[],"categories_segments":[],"categories_sizes":[],"default_left":[true,true,true,false,false,false,false],"id":9,"left_children":[1,3,5,-1,-1,-1,-1],"loss_changes":[2.4935547E4,1.9768701E4,1.3613297E4,0E0,0E0,0E0,0E0],"parents":[2147483647,0,0,1,1,2,2],"right_children":[2,4,6,-1,-1,-1,-1],"split_conditions":[-1.503528E-1,2.966455E2,1.3299961E3,-4.191704E0,1.292452E0,2.7218156E0,6.42329E0],"split_indices":[36,2,0,0,0,0,0],"split_type":[0,0,0,0,0,0,0],"sum_hessian":[1.259E3,3.83E2,8.76E2,7.2E1,3.11E2,7.75E2,1.01E2],"tree_param":{"num_deleted":"0","num_feature":"50","num_nodes":"7","size_leaf_vector":"0"}},{"base_weights":[6.2375298E0,-4.4780087E-1,7.620465E0,1.6791389E0,-2.3701097E1,1.1460838E1,4.561629E0],"categories":[],"categories_nodes":[],"categories_segments":[],"categories_sizes":[],"default_left":[true,true,true,false,false,false,false],"id":10,"left_children":[1,3,5,-1,-1,-1,-1],"loss_changes":[1.1495422E4,1.0623888E4,1.2047207E4,0E0,0E0,0E0,0E0],"parents":[2147483647,0,0,1,1,2,2],"right_children":[2,4,6,-1,-1,-1,-1],"split_conditions":[7.3590796E2,6.9172296E2,-3.11164E0,5.037417E-1,-7.1103296E0,3.4382517E0,1.3684887E0],"split_indices":[0,0,15,0,0,0,0],"split_type":[0,0,0,0,0,0,0],"sum_hessian":[1.242E3,2.13E2,1.029E3,1.96E2,1.7E1,4.55E2,5.74E2],"tree_param":{"num_deleted":"0","num_feature":"50","num_nodes":"7","size_leaf_vector":"0"}},{"base_weights":[2.5642715E0,1.2471287E1,1.6970222E0,8.955365E-1,1.1261558E1],"categories":[],"categories_nodes":[],"categories_segments":[],"categories_sizes":[],"default_left":[true,false,true,false,false],"id":11,"left_children":[1,-1,3,-1,-1],"loss_changes":[1.1096691E4,0E0,9.119928E3,0E0,0E0],"parents":[2147483647,0,0,2,2],"right_children":[2,-1,4,-1,-1],"split_conditions":[8.46129E1,3.7413862E0,1.2696172E-1,2.6866096E-1,3.3784673E0],"split_indices":[2,0,36,0,0],"split_type":[0,0,0,0,0],"sum_hessian":[1.293E3,1.03E2,1.19E3,1.099E3,9.1E1],"tree_param":{"num_deleted":"0","num_feature":"50","num_nodes":"5","size_leaf_vector":"0"}},{"base_weights":[1.1185805E0,2.8918045E0,-8.653139E0,4.4695764E0,-5.789049E0,-1.6084991E1,-2.4938672E0],"categories":[],"categories_nodes":[],"categories_segments":[],"categories_sizes":[],"default_left":[true,true,true,false,false,false,false],"id":12,"left_children":[1,3,5,-1,-1,-1,-1],"loss_changes":[2.244674E4,1.5037136E4,9.069071E3,0E0,0E0,0E0,0E0],"parents":[2147483647,0,0,1,1,2,2],"right_children":[2,4,6,-1,-1,-1,-1],"split_conditions":[1.8884937E1,1.303502E2,7.115494E1,1.340873E0,-1.7367148E0,-4.8254976E0,-7.481602E-1],"split_indices":[5,9,12,0,0,0,0],"split_type":[0,0,0,0,0,0,0],"sum_hessian":[1.293E3,1.095E3,1.98E2,9.27E2,1.68E2,8.9E1,1.09E2],"tree_param":{"num_deleted":"0","num_feature":"50","num_nodes":"7","size_leaf_vector":"0"}},{"base_weights":[8.4625375E-1,-3.446901E0,4.855843E0,6.845635E0,-4.9881716E0,6.641631E0,2.765238E0],"categories":[],"categories_nodes":[],"categories_segments":[],"categories_sizes":[],"default_left":[true,true,true,false,false,false,false],"id":13,"left_children":[1,3,5,-1,-1,-1,-1],"loss_changes":[2.1774965E4,9.726795E3,2.4232627E3,0E0,0E0,0E0,0E0],"parents":[2147483647,0,0,1,1,2,2],"right_children":[2,4,6,-1,-1,-1,-1],"split_conditions":[4.776719E1,1.7813349E-1,-7.147402E0,2.0536907E0,-1.4964515E0,1.9924895E0,8.295714E-1],"split_indices":[17,25,16,0,0,0,0],"split_type":[0,0,0,0,0,0,0],"sum_hessian":[1.263E3,6.1E2,6.53E2,7.9E1,5.31E2,3.51E2,3.02E2],"tree_param":{"num_deleted":"0","num_feature":"50","num_nodes":"7","size_leaf_vector":"0"}},{"base_weights":[2.199066E0,7.548088E0,3.2136214E-1,5.746614E0,1.5917359E1,-7.745509E0,9.7912395E-1],"categories":[],"categories_nodes":[],"categories_segments":[],"categories_sizes":[],"default_left":[true,true,true,false,false,false,false],"id":14,"left_children":[1,3,5,-1,-1,-1,-1],"loss_changes":[1.2562467E4,4.8085625E3,4.92632E3,0E0,0E0,0E0,0E0],"parents":[2147483647,0,0,1,1,2,2],"right_children":[2,4,6,-1,-1,-1,-1],"split_conditions":[-1.4793327E0,2.5316483E1,-8.950312E-1,1.7239842E0,4.775208E0,-2.3236527E0,2.937372E-1],"split_indices":[40,5,40,0,0,0,0],"split_type":[0,0,0,0,0,0,0],"sum_hessian":[1.25E3,3.24E2,9.26E2,2.68E2,5.6E1,6.9E1,8.57E2],"tree_param":{"num_deleted":"0","num_feature":"50","num_nodes":"7","size_leaf_vector":"0"}},{"base_weights":[5.754047E-1,-8.097311E-1,3.799799E0,-1.4279321E0,5.604579E0,-3.9465122E0,4.621932E0],"categories":[],"categories_nodes":[],"categories_segments":[],"categories_sizes":[],"default_left":[true,true,true,false,false,false,false],"id":15,"left_children":[1,3,5,-1,-1,-1,-1],"loss_changes":[5.648384E3,3.5173228E3,2.4382695E3,0E0,0E0,0E0,0E0],"parents":[2147483647,0,0,1,1,2,2],"right_children":[2,4,6,-1,-1,-1,-1],"split_conditions":[-4.092676E-3,3.4452444E2,5.017669E2,-4.2837965E-1,1.6813737E0,-1.1839538E0,1.3865796E0],"split_indices":[41,2,0,0,0,0,0],"split_type":[0,0,0,0,0,0,0],"sum_hessian":[1.263E3,8.84E2,3.79E2,8.07E2,7.7E1,3.6E1,3.43E2],"tree_param":{"num_deleted":"0","num_feature":"50","num_nodes":"7","size_leaf_vector":"0"}},{"base_weights":[6.4014775E-1,3.4950433E0,-1.964833E0,1.8495879E0,8.575538E0,1.329762E0,-2.6919801E0],"categories":[],"categories_nodes":[],"categories_segments":[],"categories_sizes":[],"default_left":[true,true,true,false,false,false,false],"id":16,"left_children":[1,3,5,-1,-1,-1,-1],"loss_changes":[9.384858E3,5.016694E3,1.5847122E3,0E0,0E0,0E0,0E0],"parents":[2147483647,0,0,1,1,2,2],"right_children":[2,4,6,-1,-1,-1,-1],"split_conditions":[3.331003E1,2.6020437E-1,1.06834915E2,5.548764E-1,2.5726614E0,3.989286E-1,-8.0759406E-1],"split_indices":[22,31,2,0,0,0,0],"split_type":[0,0,0,0,0,0,0],"sum_hessian":[1.26E3,6.01E2,6.59E2,4.55E2,1.46E2,1.19E2,5.4E2],"tree_param":{"num_deleted":"0","num_feature":"50","num_nodes":"7","size_leaf_vector":"0"}},{"base_weights":[5.614288E-1,1.251674E0,-1.13435135E1,7.685998E-1,1.1856129E1,-9.986885E0,-1.2644169E1],"categories":[],"categories_nodes":[],"categories_segments":[],"categories_sizes":[],"default_left":[true,true,true,false,false,false,false],"id":17,"left_children":[1,3,5,-1,-1,-1,-1],"loss_changes":[1.0795336E4,6.348207E3,7.685547E-1,0E0,0E0,0E0,0E0],"parents":[2147483647,0,0,1,1,2,2],"right_children":[2,4,6,-1,-1,-1,-1],"split_conditions":[3.1643433E1,1.837764E1,1.4055681E3,2.3057996E-1,3.5568388E0,-2.9960656E0,-3.7932508E0],"split_indices":[6,10,0,0,0,0,0],"split_type":[0,0,0,0,0,0,0],"sum_hessian":[1.311E3,1.24E3,7.1E1,1.187E3,5.3E1,3.9E1,3.2E1],"tree_param":{"num_deleted":"0","num_feature":"50","num_nodes":"7","size_leaf_vector":"0"}},{"base_weights":[2.5639167E-1,-1.1042486E0,5.764019E0,2.3551822E-1,-5.301682E0,7.783266E0,4.383687E0],"categories":[],"categories_nodes":[],"categories_segments":[],"categories_sizes":[],"default_left":[true,true,true,false,false,false,false],"id":18,"left_children":[1,3,5,-1,-1,-1,-1],"loss_changes":[9.343764E3,5.6248306E3,6.5432715E2,0E0,0E0,0E0,0E0],"parents":[2147483647,0,0,1,1,2,2],"right_children":[2,4,6,-1,-1,-1,-1],"split_conditions":[2.1221092E0,4.5634384E1,8.0980054E2,7.0655465E-2,-1.5905046E0,2.33498E0,1.3151062E0],"split_indices":[21,19,0,0,0,0,0],"split_type":[0,0,0,0,0,0,0],"sum_hessian":[1.245E3,9.99E2,2.46E2,7.58E2,2.41E2,9.8E1,1.48E2],"tree_param":{"num_deleted":"0","num_feature":"50","num_nodes":"7","size_leaf_vector":"0"}},{"base_weights":[2.787565E-1,2.487209E0,-4.473823E0,4.7610245E0,-8.0149585E-1,-3.5381906E0,-6.376166E0],"categories":[],"categories_nodes":[],"categories_segments":[],"categories_sizes":[],"default_left":[true,true,true,false,false,false,false],"id":19,"left_children":[1,3,5,-1,-1,-1,-1],"loss_changes":[1.286854E4,6.262824E3,6.698179E2,0E0,0E0,0E0,0E0],"parents":[2147483647,0,0,1,1,2,2],"right_children":[2,4,6,-1,-1,-1,-1],"split_conditions":[7.5570333E-1,1.8475893E1,1.8884937E1,1.4283074E0,-2.4044876E-1,-1.0614573E0,-1.9128498E0],"split_indices":[21,37,5,0,0,0,0],"split_type":[0,0,0,0,0,0,0],"sum_hessian":[1.224E3,8.36E2,3.88E2,4.94E2,3.42E2,2.62E2,1.26E2],"tree_param":{"num_deleted":"0","num_feature":"50","num_nodes":"7","size_leaf_vector":"0"}},{"base_weights":[-3.3771512E-1,-1.1495932E0,2.5444973E0,-1.7316815E0,2.6232517E0,3.209558E0,2.0773075E0],"categories":[],"categories_nodes":[],"categories_segments":[],"categories_sizes":[],"default_left":[true,true,true,false,false,false,false],"id":20,"left_children":[1,3,5,-1,-1,-1,-1],"loss_changes":[3.0659917E3,2.2489858E3,8.281702E1,0E0,0E0,0E0,0E0],"parents":[2147483647,0,0,1,1,2,2],"right_children":[2,4,6,-1,-1,-1,-1],"split_conditions":[2.1221092E0,2.1664019E0,8.0980054E2,-5.195045E-1,7.8697556E-1,9.6286744E-1,6.2319225E-1],"split_indices":[21,30,0,0,0,0,0],"split_type":[0,0,0,0,0,0,0],"sum_hessian":[1.308E3,1.021E3,2.87E2,8.85E2,1.36E2,1.16E2,1.71E2],"tree_param":{"num_deleted":"0","num_feature":"50","num_nodes":"7","size_leaf_vector":"0"}},{"base_weights":[3.5929015E-1,1.6852019E0,-6.2919536E0,3.4369636E0,-4.9262106E-1,-1.0234411E1,-5.7471867E0],"categories":[],"categories_nodes":[],"categories_segments":[],"categories_sizes":[],"default_left":[true,true,true,false,false,false,false],"id":21,"left_children":[1,3,5,-1,-1,-1,-1],"loss_changes":[1.0610996E4,3.8281648E3,3.707251E2,0E0,0E0,0E0,0E0],"parents":[2147483647,0,0,1,1,2,2],"right_children":[2,4,6,-1,-1,-1,-1],"split_conditions":[2.392416E-2,7.76803E-1,6.136745E2,1.0310891E0,-1.4778632E-1,-3.0703235E0,-1.724156E0],"split_indices":[41,30,0,0,0,0,0],"split_type":[0,0,0,0,0,0,0],"sum_hessian":[1.201E3,1.002E3,1.99E2,5.55E2,4.47E2,2.2E1,1.77E2],"tree_param":{"num_deleted":"0","num_feature":"50","num_nodes":"7","size_leaf_vector":"0"}},{"base_weights":[1.9107233E0,-1.1880527E1,2.668281E0,-1.1800814E-1,4.780641E0],"categories":[],"categories_nodes":[],"categories_segments":[],"categories_sizes":[],"default_left":[true,false,true,false,false],"id":22,"left_children":[1,-1,3,-1,-1],"loss_changes":[1.3237553E4,0E0,7.057454E3,0E0,0E0],"parents":[2147483647,0,0,2,2],"right_children":[2,-1,4,-1,-1],"split_conditions":[-1.2657213E1,-3.5641582E0,-8.8930674E-2,-3.5402443E-2,1.4341924E0],"split_indices":[15,0,41,0,0],"split_type":[0,0,0,0,0],"sum_hessian":[1.263E3,6.5E1,1.198E3,5.17E2,6.81E2],"tree_param":{"num_deleted":"0","num_feature":"50","num_nodes":"5","size_leaf_vector":"0"}},{"base_weights":[5.40241E-1,-3.450166E-2,1.0964505E1,2.282301E0,-1.63011E0,6.7780504E0,1.3351903E1],"categories":[],"categories_nodes":[],"categories_segments":[],"categories_sizes":[],"default_left":[true,true,true,false,false,false,false],"id":23,"left_children":[1,3,5,-1,-1,-1,-1],"loss_changes":[7.567351E3,4.4323784E3,5.6915283E2,0E0,0E0,0E0,0E0],"parents":[2147483647,0,0,1,1,2,2],"right_children":[2,4,6,-1,-1,-1,-1],"split_conditions":[2.6914696E1,-4.9024994E1,1.0147849E3,6.846903E-1,-4.89033E-1,2.0334153E0,4.005571E0],"split_indices":[10,6,0,0,0,0,0],"split_type":[0,0,0,0,0,0,0],"sum_hessian":[1.262E3,1.197E3,6.5E1,4.88E2,7.09E2,2.5E1,4E1],"tree_param":{"num_deleted":"0","num_feature":"50","num_nodes":"7","size_leaf_vector":"0"}},{"base_weights":[-2.0157704E0,-1.4383214E0,-1.2731258E1,-5.8849937E-1,-6.6385374E0],"categories":[],"categories_nodes":[],"categories_segments":[],"categories_sizes":[],"default_left":[true,true,false,false,false],"id":24,"left_children":[1,3,-1,-1,-1],"loss_changes":[7.499679E3,5.0959175E3,0E0,0E0,0E0],"parents":[2147483647,0,0,1,1],"right_children":[2,4,-1,-1,-1],"split_conditions":[2.5316483E1,1.303502E2,-3.8193777E0,-1.7654982E-1,-1.9915613E0],"split_indices":[5,9,0,0,0],"split_type":[0,0,0,0,0],"sum_hessian":[1.214E3,1.153E3,6.1E1,9.92E2,1.61E2],"tree_param":{"num_deleted":"0","num_feature":"50","num_nodes":"5","size_leaf_vector":"0"}},{"base_weights":[-2.3004411E-1,-8.699717E0,-4.1046605E-2,-7.585644E-1,2.4742703E0],"categories":[],"categories_nodes":[],"categories_segments":[],"categories_sizes":[],"default_left":[true,false,true,false,false],"id":25,"left_children":[1,-1,3,-1,-1],"loss_changes":[2.0534014E3,0E0,2.2686863E3,0E0,0E0],"parents":[2147483647,0,0,2,2],"right_children":[2,-1,4,-1,-1],"split_conditions":[5.017669E2,-2.609915E0,1.1326786E-2,-2.2756933E-1,7.4228114E-1],"split_indices":[0,0,41,0,0],"split_type":[0,0,0,0,0],"sum_hessian":[1.282E3,2.7E1,1.255E3,9.77E2,2.78E2],"tree_param":{"num_deleted":"0","num_feature":"50","num_nodes":"5","size_leaf_vector":"0"}},{"base_weights":[-5.4177785E-1,-5.2499475E0,5.060047E-1,-6.3231373E0,-7.730688E-1,-6.6790575E-1,3.7229776E0],"categories":[],"categories_nodes":[],"categories_segments":[],"categories_sizes":[],"default_left":[true,true,true,false,false,false,false],"id":26,"left_children":[1,3,5,-1,-1,-1,-1],"loss_changes":[6.287474E3,1.1097651E3,3.9413113E3,0E0,0E0,0E0,0E0],"parents":[2147483647,0,0,1,1,2,2],"right_children":[2,4,6,-1,-1,-1,-1],"split_conditions":[-1.2192148E0,1.2449355E1,6.455868E1,-1.8969413E0,-2.3192064E-1,-2.0037173E-1,1.1168933E0],"split_indices":[45,5,17,0,0,0,0],"split_type":[0,0,0,0,0,0,0],"sum_hessian":[1.273E3,2.31E2,1.042E3,1.86E2,4.5E1,7.64E2,2.78E2],"tree_param":{"num_deleted":"0","num_feature":"50","num_nodes":"7","size_leaf_vector":"0"}},{"base_weights":[4.9603912E-1,-3.5337276E0,2.3605416E0,2.0117743E0,-4.544843E0,1.5301132E0,9.389964E0],"categories":[],"categories_nodes":[],"categories_segments":[],"categories_sizes":[],"default_left":[true,true,true,false,false,false,false],"id":27,"left_children":[1,3,5,-1,-1,-1,-1],"loss_changes":[9.903635E3,2.3473223E3,5.2451577E3,0E0,0E0,0E0,0E0],"parents":[2147483647,0,0,1,1,2,2],"right_children":[2,4,6,-1,-1,-1,-1],"split_conditions":[-4.7478372E-1,8.701929E1,1.5444442E1,6.035323E-1,-1.363453E0,4.59034E-1,2.8169894E0],"split_indices":[31,12,10,0,0,0,0],"split_type":[0,0,0,0,0,0,0],"sum_hessian":[1.316E3,4.16E2,9E2,6.4E1,3.52E2,8.06E2,9.4E1],"tree_param":{"num_deleted":"0","num_feature":"50","num_nodes":"7","size_leaf_vector":"0"}},{"base_weights":[-5.875132E-1,6.373288E-1,-7.3711405E0,-1.0261099E0,3.9808724E0,1.3228003E0,-8.534628E0],"categories":[],"categories_nodes":[],"categories_segments":[],"categories_sizes":[],"default_left":[true,true,true,false,false,false,false],"id":28,"left_children":[1,3,5,-1,-1,-1,-1],"loss_changes":[1.0648362E4,6.0441777E3,1.9938877E3,0E0,0E0,0E0,0E0],"parents":[2147483647,0,0,1,1,2,2],"right_children":[2,4,6,-1,-1,-1,-1],"split_conditions":[1.3122122E1,9.322853E2,1.4395336E1,-3.07833E-1,1.1942618E0,3.968401E-1,-2.5603886E0],"split_indices":[5,0,6,0,0,0,0],"split_type":[0,0,0,0,0,0,0],"sum_hessian":[1.28E3,1.085E3,1.95E2,7.25E2,3.6E2,2.3E1,1.72E2],"tree_param":{"num_deleted":"0","num_feature":"50","num_nodes":"7","size_leaf_vector":"0"}}]},"name":"gbtree"},"learner_model_param":{"base_score":"5E-1","num_class":"0","num_feature":"50"},"objective":{"name":"reg:squarederror","reg_loss_param":{"scale_pos_weight":"1"}}},"version":[1,5,0]}