{"learner":{"attributes":{"best_iteration":"32","best_ntree_limit":"33"},"feature_names":["PC_001","PC_002"],"feature_types":["float","float"],"gradient_booster":{"model":{"gbtree_model_param":{"num_trees":"33","size_leaf_vector":"0"},"tree_info":[0,0,0,0,0,0,0,0,0,0,0,0,0,0,0,0,0,0,0,0,0,0,0,0,0,0,0,0,0,0,0,0,0],"trees":[{"base_weights":[2.185608E2,2.1558203E2,2.3751918E2,2.1170256E2,2.231904E2,2.3004659E2,2.4882408E2,2.1276035E2,1.9971274E2,2.5102574E2,2.18949E2,2.0551842E2,2.2347884E2],"categories":[],"categories_nodes":[],"categories_segments":[],"categories_sizes":[],"default_left":[true,true,true,true,true,false,false,false,false,false,true,false,false],"id":0,"left_children":[1,3,5,7,9,-1,-1,-1,-1,-1,11,-1,-1],"loss_changes":[3.08512E5,1.15536E5,1.4984E4,4.08E3,1.62736E5,0E0,0E0,0E0,0E0,0E0,5.1896E4,0E0,0E0],"parents":[2147483647,0,0,1,1,2,2,3,3,4,4,10,10],"right_children":[2,4,6,8,10,-1,-1,-1,-1,-1,12,-1,-1],"split_conditions":[8.0250305E1,1.7363623E1,7.5880356E1,-8.341115E-1,1.8185993E1,6.901398E1,7.4647224E1,6.3828106E1,5.9913822E1,7.5307724E1,3.324887E1,6.165553E1,6.7043655E1],"split_indices":[1,0,0,0,0,0,0,0,0,0,0,0,0],"split_type":[0,0,0,0,0,0,0,0,0,0,0,0,0],"sum_hessian":[6.368E3,5.514E3,8.54E2,3.671E3,1.843E3,5.27E2,3.27E2,3.358E3,3.13E2,2.36E2,1.607E3,4.17E2,1.19E3],"tree_param":{"num_deleted":"0","num_feature":"2","num_nodes":"13","size_leaf_vector":"0"}},{"base_weights":[1.5306657E2,1.4881729E2,1.5984348E2,1.4566666E2,1.5113034E2,1.5148895E2,1.6915204E2,1.4976271E2,1.3868886E2,1.5294223E2,1.4041312E2,1.4267993E2,1.544603E2,1.4326047E2,1.5298993E2,1.5627179E2,1.3536948E2,1.3849458E2,1.2387811E2],"categories":[],"categories_nodes":[],"categories_segments":[],"categories_sizes":[],"default_left":[true,true,true,true,true,true,false,true,true,false,false,false,false,false,false,false,true,false,false],"id":1,"left_children":[1,3,5,7,9,11,-1,13,15,-1,-1,-1,-1,-1,-1,-1,17,-1,-1],"loss_changes":[1.59616E5,6.616E3,1.64208E5,2.756E4,2.2004E4,1.1882E4,0E0,1.78E2,1.6141E4,0E0,0E0,0E0,0E0,0E0,0E0,0E0,2.415E3,0E0,0E0],"parents":[2147483647,0,0,1,1,2,2,3,3,4,4,5,5,7,7,8,8,16,16],"right_children":[2,4,6,8,10,12,-1,14,16,-1,-1,-1,-1,-1,-1,-1,18,-1,-1],"split_conditions":[1.8079735E1,-7.4142136E1,8.295914E0,-3.4314396E1,-3.1499714E-1,3.0869347E1,5.0745613E1,-6.3381287E1,-1.3301817E2,4.588267E1,4.2123936E1,4.280398E1,4.633809E1,4.297814E1,4.589698E1,4.688154E1,2.1420494E1,4.1548378E1,3.7163437E1],"split_indices":[0,0,1,1,0,0,0,1,0,0,0,0,0,0,0,0,1,0,0],"split_type":[0,0,0,0,0,0,0,0,0,0,0,0,0,0,0,0,0,0,0],"sum_hessian":[6.368E3,3.928E3,2.44E3,1.69E3,2.238E3,1.295E3,1.145E3,1.052E3,6.38E2,1.903E3,3.35E2,3.39E2,9.56E2,3.64E2,6.88E2,9.4E1,5.44E2,4.19E2,1.25E2],"tree_param":{"num_deleted":"0","num_feature":"2","num_nodes":"19","size_leaf_vector":"0"}},{"base_weights":[1.0721606E2,1.05660774E2,1.171227E2,1.02882355E2,1.0841694E2,1.18169136E2,9.2198135E1,1.0595194E2,9.882388E1,1.0576552E2,1.16224945E2,1.128015E2,1.2372876E2,7.279727E1,1.0252929E2,1.0194983E2,1.0869555E2,9.442816E1,1.0188778E2,9.548448E1,1.0641853E2,1.2720479E2,1.0932517E2,1.1497842E2,1.2892949E2,9.662537E1,7.3700745E1,1.0260778E2,8.3086334E1,5.7370453E1,1.0992649E2],"categories":[],"categories_nodes":[],"categories_segments":[],"categories_sizes":[],"default_left":[true,true,true,true,true,true,true,true,true,true,true,false,true,false,false,false,false,true,true,false,false,false,true,false,false,false,false,false,false,false,false],"id":2,"left_children":[1,3,5,7,9,11,13,15,17,19,21,-1,23,-1,-1,-1,-1,25,27,-1,-1,-1,29,-1,-1,-1,-1,-1,-1,-1,-1],"loss_changes":[8.576E4,3.108E4,1.1405E4,2.3986E4,4.464E4,1.0424E4,3.5303125E2,6.058E3,6.621E3,3.694E3,3.8139E4,0E0,2.9695E3,0E0,0E0,0E0,0E0,1.606E4,9.235E2,0E0,0E0,0E0,7.096E3,0E0,0E0,0E0,0E0,0E0,0E0,0E0,0E0],"parents":[2147483647,0,0,1,1,2,2,3,3,4,4,5,5,6,6,7,7,8,8,9,9,10,10,12,12,17,17,18,18,22,22],"right_children":[2,4,6,8,10,12,14,16,18,20,22,-1,24,-1,-1,-1,-1,26,28,-1,-1,-1,30,-1,-1,-1,-1,-1,-1,-1,-1],"split_conditions":[8.0250305E1,-3.4915146E1,1.7747937E2,-3.4314396E1,8.295914E0,1.410575E2,-6.2009098E1,-5.362264E1,-7.670262E1,-8.837352E1,1.2418733E1,3.384045E1,7.5880356E1,2.1839182E1,3.0758787E1,3.058495E1,3.2608665E1,-7.7866554E1,-3.894581E1,2.8645346E1,3.1925562E1,3.8161438E1,1.42625675E1,3.4493526E1,3.867885E1,2.8987612E1,2.2110224E1,3.0782335E1,2.4925901E1,1.7211136E1,3.2977947E1],"split_indices":[1,0,1,1,1,1,0,1,0,1,1,0,0,0,0,0,0,0,0,0,0,0,1,0,0,0,0,0,0,0,0],"split_type":[0,0,0,0,0,0,0,0,0,0,0,0,0,0,0,0,0,0,0,0,0,0,0,0,0,0,0,0,0,0,0],"sum_hessian":[6.368E3,5.514E3,8.54E2,2.765E3,2.749E3,8.16E2,3.8E1,1.56E3,1.205E3,2.063E3,6.86E2,4.26E2,3.9E2,1.6E1,2.2E1,6.5E2,9.1E2,5.08E2,6.97E2,1.32E2,1.931E3,2.58E2,4.28E2,1.54E2,2.36E2,4.56E2,5.2E1,6.67E2,3E1,6E0,4.22E2],"tree_param":{"num_deleted":"0","num_feature":"2","num_nodes":"31","size_leaf_vector":"0"}},{"base_weights":[7.512637E1,7.400221E1,8.210021E1,7.4151146E1,4.6260086E1,7.127102E1,8.353213E1,7.2817635E1,7.677673E1,8.06872E1,5.7623642E1,7.951049E1,8.715702E1,7.335838E1,6.727714E1,9.056901E1,7.488487E1,7.236021E1,7.904677E1,4.387814E1,6.823386E1,6.920975E1,7.746535E1],"categories":[],"categories_nodes":[],"categories_segments":[],"categories_sizes":[],"default_left":[true,true,true,true,false,true,true,true,true,false,false,false,false,true,true,false,true,false,false,false,false,false,false],"id":3,"left_children":[1,3,5,7,-1,9,11,13,15,-1,-1,-1,-1,17,19,-1,21,-1,-1,-1,-1,-1,-1],"loss_changes":[4.3856E4,1.9274E4,7.615E3,1.354E4,0E0,9.357625E3,4.2515E3,5.98E3,4.0759E4,0E0,0E0,0E0,0E0,1.3064E4,4.52775E3,0E0,1.8187E4,0E0,0E0,0E0,0E0,0E0,0E0],"parents":[2147483647,0,0,1,1,2,2,3,3,5,5,6,6,7,7,8,8,13,13,14,14,16,16],"right_children":[2,4,6,8,-1,10,12,14,16,-1,-1,-1,-1,18,20,-1,22,-1,-1,-1,-1,-1,-1],"split_conditions":[7.914836E1,7.4253296E1,-5.649199E1,1.8079735E1,1.3878026E1,-1.13839935E2,1.410575E2,-8.341115E-1,1.8185993E1,2.4206161E1,1.7287094E1,2.3853148E1,2.6147108E1,-2.9150488E1,4.3536282E-1,2.7170704E1,3.8707436E1,2.1708063E1,2.3714031E1,1.3163443E1,2.0470158E1,2.0762924E1,2.3239605E1],"split_indices":[1,1,0,0,0,0,1,0,0,0,0,0,0,0,0,0,0,0,0,0,0,0,0],"split_type":[0,0,0,0,0,0,0,0,0,0,0,0,0,0,0,0,0,0,0,0,0,0,0],"sum_hessian":[6.368E3,5.494E3,8.74E2,5.463E3,3.1E1,1.08E2,7.66E2,3.642E3,1.821E3,6.1E1,4.7E1,3.74E2,3.92E2,3.307E3,3.35E2,2.14E2,1.607E3,2.825E3,4.82E2,1.5E1,3.2E2,5.11E2,1.096E3],"tree_param":{"num_deleted":"0","num_feature":"2","num_nodes":"23","size_leaf_vector":"0"}},{"base_weights":[5.2628586E1,5.1596657E1,5.657815E1,4.9700226E1,5.260063E1,5.257801E1,6.0741165E1,5.1453266E1,4.5445007E1,5.2784843E1,4.2152313E1,6.082339E1,5.128703E1,5.3282997E1,6.1585575E1,5.1063057E1,7.523739E1,5.6819817E1,4.2293083E1,5.255474E1,6.2715256E1,2.1556208E1,4.7710423E1,6.6554016E1,5.143543E1,4.6526962E1,5.32798E1,6.7781494E1,6.036008E1,5.1487175E1,3.3589455E1,4.0446175E1,4.919342E1,5.2802715E1,4.1331566E1,6.76071E1,4.7594475E1,3.6920715E1,5.77592E1,7.576247E1,4.5444355E1,5.6308582E1,6.3516254E1],"categories":[],"categories_nodes":[],"categories_segments":[],"categories_sizes":[],"default_left":[true,true,true,true,true,true,true,true,true,true,true,true,true,false,true,true,false,false,true,true,true,false,false,false,true,true,false,false,true,false,false,false,false,false,false,false,false,false,false,false,false,false,false],"id":4,"left_children":[1,3,5,7,9,11,13,15,17,19,21,23,25,-1,27,29,-1,-1,31,33,35,-1,-1,-1,37,39,-1,-1,41,-1,-1,-1,-1,-1,-1,-1,-1,-1,-1,-1,-1,-1,-1],"loss_changes":[2.3038E4,7.021E3,1.8605E4,1.0865E4,4.112E3,4.065625E3,7.175E2,7.722E3,1.64195E4,4.087E3,6.0690234E3,1.2034688E3,3.117625E3,0E0,1.9125E2,7.3785E3,0E0,0E0,3.2991875E3,6.623E3,1.812125E3,0E0,0E0,0E0,1.2636406E3,2.3174375E3,0E0,0E0,2.561375E3,0E0,0E0,0E0,0E0,0E0,0E0,0E0,0E0,0E0,0E0,0E0,0E0,0E0,0E0],"parents":[2147483647,0,0,1,1,2,2,3,3,4,4,5,5,6,6,7,7,8,8,9,9,10,10,11,11,12,12,14,14,15,15,18,18,19,19,20,20,24,24,25,25,28,28],"right_children":[2,4,6,8,10,12,14,16,18,20,22,24,26,-1,28,30,-1,-1,32,34,36,-1,-1,-1,38,40,-1,-1,42,-1,-1,-1,-1,-1,-1,-1,-1,-1,-1,-1,-1,-1,-1],"split_conditions":[4.8587837E1,-7.2165794E1,3.070182E1,-2.4281578E1,4.819114E1,-6.6439926E1,5.043165E1,-2.4868288E1,-1.1951137E2,4.507363E1,4.8541702E1,5.9224712E1,-3.883405E1,1.59848995E1,7.62391E1,-2.8985092E1,2.2571217E1,1.7045946E1,-7.710672E1,4.3456375E1,4.743715E1,6.4668627E0,1.43131275E1,1.9966206E1,6.0219704E1,4.885591E1,1.5983941E1,2.033445E1,1.410575E2,1.5446153E1,1.0076837E1,1.2133853E1,1.4758027E1,1.5840816E1,1.239947E1,2.0282131E1,1.4278343E1,1.1076215E1,1.732776E1,2.272874E1,1.3633307E1,1.6892576E1,1.9054876E1],"split_indices":[0,0,1,1,0,1,0,1,0,0,0,0,1,0,1,1,0,0,0,0,0,0,0,0,0,0,0,0,1,0,0,0,0,0,0,0,0,0,0,0,0,0,0],"split_type":[0,0,0,0,0,0,0,0,0,0,0,0,0,0,0,0,0,0,0,0,0,0,0,0,0,0,0,0,0,0,0,0,0,0,0,0,0,0,0,0,0,0,0],"sum_hessian":[6.368E3,5.06E3,1.308E3,1.769E3,3.291E3,6.74E2,6.34E2,1.245E3,5.24E2,3.23E3,6.1E1,8.5E1,5.89E2,7.1E1,5.63E2,1.228E3,1.7E1,1.1E2,4.14E2,3.163E3,6.7E1,1.4E1,4.7E1,4.9E1,3.6E1,1.81E2,4.08E2,8.4E1,4.79E2,1.197E3,3.1E1,3.32E2,8.2E1,3.091E3,7.2E1,4.8E1,1.9E1,1.3E1,2.3E1,4E0,1.77E2,2.18E2,2.61E2],"tree_param":{"num_deleted":"0","num_feature":"2","num_nodes":"43","size_leaf_vector":"0"}},{"base_weights":[3.689474E1,3.6065968E1,3.9644394E1,3.6154083E1,1.013396E1,3.8547424E1,4.453411E1,3.0928387E1,3.6473328E1,4.493058E1,3.749765E1,3.4904716E1,4.5402596E1,4.087858E1,2.8562757E1,3.7943787E1,3.570431E1,4.246928E1,5.70151E1,3.5223568E1,4.022318E1,4.217932E1,2.7313164E1,3.6159023E1,4.1123367E1,3.425403E1,3.8701336E1,2.080379E1,3.5678913E1,4.360074E1,3.6042126E1],"categories":[],"categories_nodes":[],"categories_segments":[],"categories_sizes":[],"default_left":[true,true,true,true,false,true,true,true,true,true,true,false,false,false,true,true,true,false,false,true,true,false,false,false,false,false,false,false,false,false,false],"id":5,"left_children":[1,3,5,7,-1,9,11,13,15,17,19,-1,-1,-1,21,23,25,-1,-1,27,29,-1,-1,-1,-1,-1,-1,-1,-1,-1,-1],"loss_changes":[1.3084E4,1.08415E4,6.1415E3,7.0265E3,0E0,6.383E3,6.0634375E2,5.6114688E3,3.848E3,2.4863125E3,5.029125E3,0E0,0E0,0E0,2.8635156E3,7.38825E3,1.187925E4,0E0,0E0,3.0331875E3,5.00925E3,0E0,0E0,0E0,0E0,0E0,0E0,0E0,0E0,0E0,0E0],"parents":[2147483647,0,0,1,1,2,2,3,3,5,5,6,6,7,7,8,8,9,9,10,10,14,14,15,15,16,16,19,19,20,20],"right_children":[2,4,6,8,-1,10,12,14,16,18,20,-1,-1,-1,22,24,26,-1,-1,28,30,-1,-1,-1,-1,-1,-1,-1,-1,-1,-1],"split_conditions":[4.4218826E1,4.37675E1,1.410575E2,-8.837352E1,3.040188E0,-6.1060997E1,7.5880356E1,-1.05803246E2,-4.4799973E1,-6.579435E1,2.943483E1,1.04714155E1,1.3620779E1,1.2263574E1,-1.769274E2,-5.30188E1,-2.1758945E1,1.2740785E1,1.710453E1,-5.902411E1,1.02004906E2,1.2653797E1,8.19395E0,1.0847708E1,1.233701E1,1.0276209E1,1.1610401E1,6.241137E0,1.0703674E1,1.3080222E1,1.0812638E1],"split_indices":[0,0,1,1,0,1,0,1,1,1,1,0,0,0,0,1,0,0,0,1,1,0,0,0,0,0,0,0,0,0,0],"split_type":[0,0,0,0,0,0,0,0,0,0,0,0,0,0,0,0,0,0,0,0,0,0,0,0,0,0,0,0,0,0,0],"sum_hessian":[6.368E3,4.904E3,1.464E3,4.887E3,1.7E1,1.203E3,2.61E2,2.87E2,4.6E3,1.64E2,1.039E3,2.5E1,2.36E2,5.2E1,2.35E2,1.563E3,3.037E3,1.4E2,2.4E1,5.74E2,4.65E2,1.7E1,2.18E2,1.009E3,5.54E2,2.055E3,9.82E2,1.9E1,5.55E2,2.52E2,2.13E2],"tree_param":{"num_deleted":"0","num_feature":"2","num_nodes":"31","size_leaf_vector":"0"}},{"base_weights":[2.5853952E1,2.5014471E1,2.7671307E1,2.5822586E1,2.2992285E1,3.5662407E1,2.6308565E1,2.245061E1,2.6376797E1,1.8443653E1,2.4344831E1,1.6362913E1,2.7544298E1,2.8846384E1,2.1533283E1,2.8687881E1,2.5780676E1,1.9259193E1,-4.1404934E0,2.9292694E1,2.307797E1,1.9524395E1,5.2851033E0,2.579682E1,2.9811068E1,3.0690691E1,2.151648E1,1.9739504E1,2.6409496E1,2.2554062E1,3.0509014E1,2.7488888E1,2.4168253E1,3.0666311E1,1.7676416E1,2.6428108E1,3.5999687E1,-1.0235199E1,2.3308182E1,2.6058002E1,1.2365323E1,2.7213778E1,2.157641E1,2.4891844E1,3.080889E1],"categories":[],"categories_nodes":[],"categories_segments":[],"categories_sizes":[],"default_left":[true,true,true,true,true,false,true,true,true,true,true,true,true,true,true,true,true,true,false,true,true,true,false,true,true,false,false,false,false,false,false,false,false,false,false,false,false,false,false,false,false,false,false,false,false],"id":6,"left_children":[1,3,5,7,9,-1,11,13,15,17,19,21,23,25,27,29,31,33,-1,35,37,39,-1,41,43,-1,-1,-1,-1,-1,-1,-1,-1,-1,-1,-1,-1,-1,-1,-1,-1,-1,-1,-1,-1],"loss_changes":[9.0245E3,6.54275E3,2.0874E4,5.2235E3,7.27825E3,0E0,2.0627E4,1.9955312E3,2.934625E3,5.457867E3,5.372875E3,6.6210938E3,5.267625E3,5.6132812E1,2.9249375E3,5.3216562E3,5.2025E3,4.549422E3,0E0,2.7566562E3,6.1667188E3,6.6471914E3,0E0,4.603625E3,2.458E3,0E0,0E0,0E0,0E0,0E0,0E0,0E0,0E0,0E0,0E0,0E0,0E0,0E0,0E0,0E0,0E0,0E0,0E0,0E0,0E0],"parents":[2147483647,0,0,1,1,2,2,3,3,4,4,6,6,7,7,8,8,9,9,10,10,11,11,12,12,13,13,14,14,15,15,16,16,17,17,19,19,20,20,21,21,23,23,24,24],"right_children":[2,4,6,8,10,-1,12,14,16,18,20,22,24,26,28,30,32,34,-1,36,38,40,-1,42,44,-1,-1,-1,-1,-1,-1,-1,-1,-1,-1,-1,-1,-1,-1,-1,-1,-1,-1,-1,-1],"split_conditions":[9.023811E0,-2.7105293E1,1.3013756E1,-7.863185E1,-1.9489258E1,1.0698723E1,2.1901226E1,-1.05803246E2,-6.425189E1,8.451692E1,-1.2092754E1,2.1420494E1,5.043165E1,-5.962016E0,1.4385051E1,-8.778253E1,-5.8780598E1,-9.7580956E1,-1.242148E0,2.4194138E1,-1.1754902E1,-5.762574E1,1.5855311E0,2.7276083E1,4.847654E1,9.207208E0,6.454944E0,5.921851E0,7.922849E0,6.7662187E0,9.152704E0,8.246667E0,7.2504764E0,9.199894E0,5.302925E0,7.928433E0,1.0799907E1,-3.0705597E0,6.992455E0,7.817401E0,3.709597E0,8.164134E0,6.4729233E0,7.4675536E0,9.242667E0],"split_indices":[1,1,1,1,1,0,1,1,1,0,1,1,0,0,0,0,0,0,0,0,1,0,0,0,1,0,0,0,0,0,0,0,0,0,0,0,0,0,0,0,0,0,0,0,0],"split_type":[0,0,0,0,0,0,0,0,0,0,0,0,0,0,0,0,0,0,0,0,0,0,0,0,0,0,0,0,0,0,0,0,0,0,0,0,0,0,0,0,0,0,0,0,0],"sum_hessian":[6.368E3,4.366E3,2.002E3,3.111E3,1.255E3,2.88E2,1.714E3,4.45E2,2.666E3,2.91E2,9.64E2,1.91E2,1.523E3,5.2E1,3.93E2,5.37E2,2.129E3,2.81E2,1E1,1.92E2,7.72E2,1.48E2,4.3E1,8.67E2,6.56E2,3.9E1,1.3E1,2.91E2,1.02E2,1.26E2,4.11E2,1.026E3,1.103E3,3.2E1,2.49E2,1.38E2,5.4E1,5E0,7.67E2,7.6E1,7.2E1,6.45E2,2.22E2,1.15E2,5.41E2],"tree_param":{"num_deleted":"0","num_feature":"2","num_nodes":"45","size_leaf_vector":"0"}},{"base_weights":[1.812163E1,1.7519846E1,1.9782738E1,1.796084E1,1.4036965E1,2.4553185E1,1.9358383E1,1.754457E1,2.5118183E1,1.6150637E1,9.895088E0,2.6416626E1,8.008773E0,1.1202725E1,1.9840631E1,1.7902895E1,1.3659578E1,2.5552176E1,1.5249298E1,2.673635E1,1.5393686E1,7.557117E0,1.5020575E1,2.226844E1,3.0466953E1,3.7097866E1,8.539751E0,2.026646E1,1.672742E1,1.7103273E1,2.014883E1,7.006716E0,1.5920136E1,3.6492848E0,1.5982381E1,2.2669086E0,9.169893E0,2.025486E1,9.448832E0,1.0148945E1,2.254342E0,2.001392E1,2.7815134E1,1.1253716E1,1.782012E1],"categories":[],"categories_nodes":[],"categories_segments":[],"categories_sizes":[],"default_left":[true,true,true,true,true,true,true,true,true,true,true,true,false,true,true,true,true,false,false,false,true,true,true,false,false,false,true,true,true,false,false,false,false,false,false,false,false,false,false,false,false,false,false,false,false],"id":7,"left_children":[1,3,5,7,9,11,13,15,17,19,21,23,-1,25,27,29,31,-1,-1,-1,33,35,37,-1,-1,-1,39,41,43,-1,-1,-1,-1,-1,-1,-1,-1,-1,-1,-1,-1,-1,-1,-1,-1],"loss_changes":[6.02E3,6.94225E3,2.93775E3,1.1935625E4,4.4888594E3,3.9196016E3,5.88575E3,5.225E3,5.783125E2,2.3929297E3,2.0674395E3,1.3377266E3,0E0,5.820464E3,1.603125E3,6.109875E3,4.941617E3,0E0,0E0,0E0,2.2163281E3,1.0627671E3,1.4418037E3,0E0,0E0,0E0,8.065049E2,1.8910625E3,8.8802344E2,0E0,0E0,0E0,0E0,0E0,0E0,0E0,0E0,0E0,0E0,0E0,0E0,0E0,0E0,0E0,0E0],"parents":[2147483647,0,0,1,1,2,2,3,3,4,4,5,5,6,6,7,7,8,8,9,9,10,10,11,11,13,13,14,14,15,15,16,16,20,20,21,21,22,22,26,26,27,27,28,28],"right_children":[2,4,6,8,10,12,14,16,18,20,22,24,-1,26,28,30,32,-1,-1,-1,34,36,38,-1,-1,-1,40,42,44,-1,-1,-1,-1,-1,-1,-1,-1,-1,-1,-1,-1,-1,-1,-1,-1],"split_conditions":[3.8707436E1,1.9115608E1,4.273858E1,1.8079735E1,-2.7262192E1,-6.5897045E0,4.4218826E1,-3.1499714E-1,1.8185993E1,-9.4768555E1,2.1220531E1,4.1598244E1,2.402632E0,-4.889035E1,9.061743E1,-4.5272392E1,9.860273E0,7.6656528E0,4.5747895E0,8.0209055E0,-9.0442604E1,2.4980062E1,2.7276083E1,6.6805325E0,9.140086E0,1.112936E1,4.37675E1,8.669241E1,-2.0535954E1,5.1309824E0,6.0446496E0,2.1020148E0,4.776041E0,1.0947855E0,4.7947145E0,6.800726E-1,2.750968E0,6.0764585E0,2.8346496E0,3.0446837E0,6.763027E-1,6.004176E0,8.344541E0,3.376115E0,5.346036E0],"split_indices":[0,0,0,0,1,1,0,0,0,1,1,0,0,1,0,0,0,0,0,0,1,0,0,0,0,0,0,0,1,0,0,0,0,0,0,0,0,0,0,0,0,0,0,0,0],"split_type":[0,0,0,0,0,0,0,0,0,0,0,0,0,0,0,0,0,0,0,0,0,0,0,0,0,0,0,0,0,0,0,0,0,0,0,0,0,0,0,0,0,0,0,0,0],"sum_hessian":[6.368E3,4.683E3,1.685E3,4.153E3,5.3E2,1.33E2,1.552E3,3.928E3,2.25E2,3.49E2,1.81E2,1.19E2,1.4E1,8.8E1,1.464E3,3.593E3,3.35E2,2.14E2,1.1E1,2.1E1,3.28E2,1.26E2,5.5E1,6.2E1,5.7E1,7E0,8.1E1,1.283E3,1.81E2,2.656E3,9.37E2,8.6E1,2.49E2,1.6E1,3.12E2,3E1,9.6E1,2.7E1,2.8E1,6.4E1,1.7E1,1.245E3,3.8E1,3.2E1,1.49E2],"tree_param":{"num_deleted":"0","num_feature":"2","num_nodes":"45","size_leaf_vector":"0"}},{"base_weights":[1.2702834E1,1.2409893E1,1.489425E1,1.2446971E1,-5.9676347E0,2.5915684E1,1.4539263E1,1.3337282E1,1.1981953E1,1.4945692E1,7.0070543E0,1.2369098E1,1.6966703E1,2.2111647E1,1.1763237E1,1.4144151E1,2.6066696E1,-1.1212606E0,1.2710284E1,1.1830615E1,1.5575024E1,1.9671495E1,1.19491625E1,3.0281832E1,1.08881235E1,-4.4481638E-1,1.2000512E1,1.6106625E1,1.3575976E1,2.1840815E1,3.86732E1,6.2531214E0,1.4621452E1],"categories":[],"categories_nodes":[],"categories_segments":[],"categories_sizes":[],"default_left":[true,true,true,true,false,false,true,true,true,true,true,true,true,true,true,true,true,false,true,false,false,false,false,false,false,false,false,false,false,false,false,false,false],"id":8,"left_children":[1,3,5,7,-1,-1,9,11,13,15,17,19,21,23,25,27,29,-1,31,-1,-1,-1,-1,-1,-1,-1,-1,-1,-1,-1,-1,-1,-1],"loss_changes":[3.90375E3,3.9065625E3,2.5419219E3,2.1640625E3,0E0,0E0,2.1147188E3,6.526375E3,7.9306875E3,5.7551875E3,1.8222E3,2.4345938E3,5.207078E3,6.7310547E3,1.0494156E4,4.9829688E2,1.5526582E3,0E0,1.9240698E2,0E0,0E0,0E0,0E0,0E0,0E0,0E0,0E0,0E0,0E0,0E0,0E0,0E0,0E0],"parents":[2147483647,0,0,1,1,2,2,3,3,6,6,7,7,8,8,9,9,10,10,11,11,12,12,13,13,14,14,15,15,16,16,18,18],"right_children":[2,4,6,8,-1,-1,10,12,14,16,18,20,22,24,26,28,30,-1,32,-1,-1,-1,-1,-1,-1,-1,-1,-1,-1,-1,-1,-1,-1],"split_conditions":[9.2834465E1,8.993715E1,1.02004906E2,-4.722035E1,-1.7902905E0,7.7747054E0,1.7747937E2,-5.2464653E1,-1.365108E2,1.6999335E2,-6.2009098E1,4.070828E1,-1.5894028E1,-1.0296318E1,-1.23923965E2,1.1270498E1,-4.522133E1,-3.3637822E-1,-5.4597885E1,3.5491846E0,4.6725073E0,5.9014487E0,3.584749E0,9.08455E0,3.2664373E0,-1.3344492E-1,3.6001537E0,4.8319874E0,4.072793E0,6.5522447E0,1.160196E1,1.8759365E0,4.386436E0],"split_indices":[1,1,1,1,0,0,1,1,0,1,0,0,0,1,0,0,0,0,0,0,0,0,0,0,0,0,0,0,0,0,0,0,0],"split_type":[0,0,0,0,0,0,0,0,0,0,0,0,0,0,0,0,0,0,0,0,0,0,0,0,0,0,0,0,0,0,0,0,0],"sum_hessian":[6.368E3,5.623E3,7.45E2,5.612E3,1.1E1,2.1E1,7.24E2,1.916E3,3.696E3,6.86E2,3.8E1,1.516E3,4E2,7.6E1,3.62E3,6.42E2,4.4E1,1.6E1,2.2E1,1.302E3,2.14E2,2.58E2,1.42E2,4.3E1,3.3E1,6.9E1,3.551E3,1.38E2,5.04E2,3.5E1,9E0,6E0,1.6E1],"tree_param":{"num_deleted":"0","num_feature":"2","num_nodes":"33","size_leaf_vector":"0"}},{"base_weights":[8.903364E0,8.52208E0,9.972844E0,8.804381E0,6.3705335E0,1.4449165E1,9.632068E0,8.500254E0,1.4052664E1,7.853951E0,3.336093E0,1.6078537E1,2.4061666E0,4.364721E0,9.945489E0,8.729341E0,5.6381464E0,1.4338767E1,7.7556014E0,7.2475657E0,1.8042675E1,1.7451929E0,6.884454E0,1.3409132E1,1.787241E1,2.3271235E1,2.4669545E0,9.850575E0,2.600018E1,8.658484E0,2.644231E1,-5.4671593E0,7.6145487E0,7.517509E0,-9.437126E0,5.0556617E0,1.08159445E-1,1.0687512E1,2.9751399E0,3.606337E0,-1.7845358E0,1.394982E1,9.615053E0],"categories":[],"categories_nodes":[],"categories_segments":[],"categories_sizes":[],"default_left":[true,true,true,true,true,true,true,true,true,true,true,true,false,true,true,true,true,false,false,true,false,true,true,false,false,false,true,true,false,false,false,false,false,false,false,false,false,false,false,false,false,false,false],"id":9,"left_children":[1,3,5,7,9,11,13,15,17,19,21,23,-1,25,27,29,31,-1,-1,33,-1,35,37,-1,-1,-1,39,41,-1,-1,-1,-1,-1,-1,-1,-1,-1,-1,-1,-1,-1,-1,-1],"loss_changes":[2.512125E3,2.7998125E3,2.40525E3,6.5109375E3,2.4450352E3,2.2375234E3,2.5204219E3,2.5269062E3,2.9596094E2,2.1428457E3,1.01539136E3,2.4878125E2,0E0,3.1359238E3,1.97625E3,4.3345E3,6.494505E3,0E0,0E0,1.6428125E3,0E0,6.877103E2,8.0077466E2,0E0,0E0,0E0,4.0364966E2,1.2735156E3,0E0,0E0,0E0,0E0,0E0,0E0,0E0,0E0,0E0,0E0,0E0,0E0,0E0,0E0,0E0],"parents":[2147483647,0,0,1,1,2,2,3,3,4,4,5,5,6,6,7,7,8,8,9,9,10,10,11,11,13,13,14,14,15,15,16,16,19,19,21,21,22,22,26,26,27,27],"right_children":[2,4,6,8,10,12,14,16,18,20,22,24,-1,26,28,30,32,-1,-1,34,-1,36,38,-1,-1,-1,40,42,-1,-1,-1,-1,-1,-1,-1,-1,-1,-1,-1,-1,-1,-1,-1],"split_conditions":[4.0049423E1,1.9115608E1,4.273858E1,1.8079735E1,-2.7262192E1,-6.5897045E0,4.4218826E1,9.3549716E-1,1.8185993E1,-3.0368713E1,2.1220531E1,4.1598244E1,7.2185E-1,-4.889035E1,1.5373773E2,6.36472E-1,9.860273E0,4.3016305E0,2.3266804E0,-3.3429783E1,5.4128027E0,-1.7586388E1,2.7276083E1,4.02274E0,5.361723E0,6.9813704E0,4.37675E1,4.743715E1,7.800054E0,2.5975454E0,7.9326935E0,-1.6401478E0,2.2843647E0,2.2552528E0,-2.831138E0,1.5166986E0,3.2447834E-2,3.2062538E0,8.92542E-1,1.0819012E0,-5.3536075E-1,4.184946E0,2.884516E0],"split_indices":[0,0,0,0,1,1,0,0,0,1,1,0,0,1,1,0,0,0,0,1,0,1,0,0,0,0,0,0,0,0,0,0,0,0,0,0,0,0,0,0,0,0,0],"split_type":[0,0,0,0,0,0,0,0,0,0,0,0,0,0,0,0,0,0,0,0,0,0,0,0,0,0,0,0,0,0,0,0,0,0,0,0,0,0,0,0,0,0,0],"sum_hessian":[6.368E3,4.701E3,1.667E3,4.153E3,5.48E2,1.15E2,1.552E3,3.928E3,2.25E2,3.67E2,1.81E2,1.01E2,1.4E1,8.8E1,1.464E3,3.635E3,2.93E2,2.14E2,1.1E1,3.48E2,1.9E1,1.26E2,5.5E1,4.4E1,5.7E1,7E0,8.1E1,1.457E3,7E0,3.622E3,1.3E1,4.4E1,2.49E2,3.43E2,5E0,4.1E1,8.5E1,2.7E1,2.8E1,6.4E1,1.7E1,7.6E1,1.381E3],"tree_param":{"num_deleted":"0","num_feature":"2","num_nodes":"43","size_leaf_vector":"0"}},{"base_weights":[6.2418966E0,5.5420218E0,6.7114363E0,5.626609E0,-1.1482929E1,6.659163E0,2.589364E1,5.9286466E0,3.1457553E0,7.906845E-1,6.767539E0,7.1053886E0,4.145301E0,-9.906082E0,6.541525E0,8.048769E0,-3.9538982E0,9.871187E0,6.6045837E0,6.088913E0,1.3453007E1,5.2430964E0,-1.0452423E0,-5.7746825E0,-1.4126344E1,2.0470464E0,1.1099112E1,1.3016278E1,4.0688353E0,-2.0588415E1,1.1372694E1,2.2865138E0,6.838875E0],"categories":[],"categories_nodes":[],"categories_segments":[],"categories_sizes":[],"default_left":[true,true,true,true,false,true,false,true,true,true,true,true,true,true,true,true,false,true,true,false,false,false,false,false,false,false,false,false,false,false,false,false,false],"id":10,"left_children":[1,3,5,7,-1,9,-1,11,13,15,17,19,21,23,25,27,-1,29,31,-1,-1,-1,-1,-1,-1,-1,-1,-1,-1,-1,-1,-1,-1],"loss_changes":[2.0557812E3,3.7555703E3,3.6449062E3,1.8928438E3,0E0,2.4102031E3,0E0,4.7405234E3,1.2430369E4,2.442385E3,1.82075E3,8.744695E3,5.16801E3,9.2968896E2,4.5247217E3,5.006089E2,0E0,8.649443E3,3.5718125E3,0E0,0E0,0E0,0E0,0E0,0E0,0E0,0E0,0E0,0E0,0E0,0E0,0E0,0E0],"parents":[2147483647,0,0,1,1,2,2,3,3,5,5,7,7,8,8,9,9,10,10,11,11,12,12,13,13,14,14,15,15,17,17,18,18],"right_children":[2,4,6,8,-1,10,-1,12,14,16,18,20,22,24,26,28,-1,30,32,-1,-1,-1,-1,-1,-1,-1,-1,-1,-1,-1,-1,-1,-1],"split_conditions":[-4.9623306E1,-5.0731537E1,1.6809933E2,-5.7671444E1,-3.4448788E0,-9.582965E1,7.7680926E0,-3.4314396E1,-5.670751E1,1.3764249E1,-4.2400795E1,-6.758001E1,-6.8555466E1,-5.7004166E1,2.1522903E1,-5.962016E0,-1.1861695E0,-5.0620705E1,-3.4915146E1,1.826674E0,4.035902E0,1.572929E0,-3.135727E-1,-1.7324048E0,-4.237903E0,6.141139E-1,3.3297336E0,3.9048836E0,1.2206507E0,-6.1765246E0,3.4118083E0,6.8595415E-1,2.0516624E0],"split_indices":[0,0,1,0,0,1,0,1,0,0,0,0,0,0,1,0,0,1,0,0,0,0,0,0,0,0,0,0,0,0,0,0,0],"split_type":[0,0,0,0,0,0,0,0,0,0,0,0,0,0,0,0,0,0,0,0,0,0,0,0,0,0,0,0,0,0,0,0,0],"sum_hessian":[6.368E3,2.562E3,3.806E3,2.55E3,1.2E1,3.797E3,9E0,2.272E3,2.78E2,6.9E1,3.728E3,1.367E3,9.05E2,5.7E1,2.21E2,2.7E1,4.2E1,1.83E2,3.545E3,1.18E3,1.87E2,7.47E2,1.58E2,3E1,2.7E1,1.12E2,1.09E2,1.1E1,1.6E1,8E0,1.75E2,1.83E2,3.362E3],"tree_param":{"num_deleted":"0","num_feature":"2","num_nodes":"33","size_leaf_vector":"0"}},{"base_weights":[4.371419E0,3.972736E0,5.092047E0,4.150498E0,-8.954219E0,2.4939453E1,4.8951955E0,3.9758964E0,9.384828E0,-1.9461693E1,-4.6353455E0,3.676904E0,5.6581593E0,4.253847E0,-4.162302E0,1.3151192E1,2.6766396E0,-6.937499E0,-1.8244629E-1,4.474545E0,-1.3492134E-1,1.3364178E1,5.2541413E0,4.373215E0,-6.489511E-1,-1.2619586E1,2.8257823E0,9.572633E0,1.9484623E1,2.1150672E0,4.3732853E0,3.994961E0,1.5714507E1,5.4495354E0,-3.3911157E0,1.1777729E1,1.818445E1,-1.3047881E0,5.4936795E0],"categories":[],"categories_nodes":[],"categories_segments":[],"categories_sizes":[],"default_left":[true,true,true,true,true,false,true,true,true,false,true,true,true,true,true,true,true,false,false,true,true,true,true,false,false,false,false,false,false,false,false,false,false,false,false,false,false,false,false],"id":11,"left_children":[1,3,5,7,9,-1,11,13,15,-1,17,19,21,23,25,27,29,-1,-1,31,33,35,37,-1,-1,-1,-1,-1,-1,-1,-1,-1,-1,-1,-1,-1,-1,-1,-1],"loss_changes":[1.8096016E3,9.470141E3,8.727258E3,3.6640703E3,2.4510933E3,0E0,2.0650195E3,8.88709E3,3.2493105E3,0E0,4.1903583E2,2.6366895E3,4.220008E3,2.2220547E3,7.7186875E3,1.6946396E3,3.648407E1,0E0,0E0,3.8022148E3,2.7642756E3,3.0583203E2,2.0668945E3,0E0,0E0,0E0,0E0,0E0,0E0,0E0,0E0,0E0,0E0,0E0,0E0,0E0,0E0,0E0,0E0],"parents":[2147483647,0,0,1,1,2,2,3,3,4,4,6,6,7,7,8,8,10,10,11,11,12,12,13,13,14,14,15,15,16,16,19,19,20,20,21,21,22,22],"right_children":[2,4,6,8,10,-1,12,14,16,-1,18,20,22,24,26,28,30,-1,-1,32,34,36,38,-1,-1,-1,-1,-1,-1,-1,-1,-1,-1,-1,-1,-1,-1,-1,-1],"split_conditions":[2.4853644E0,1.9817502E0,2.72264E0,-2.9899127E0,2.00362E0,7.4818363E0,-2.1758945E1,-7.6115484E0,8.0218E-1,-5.838508E0,5.8468056E-1,-3.8691372E1,-1.3457494E1,7.07865E1,-6.505499E0,-7.993883E-1,1.3224338E1,-2.0812497E0,-5.4733887E-2,-4.080548E1,1.717268E1,-1.3578544E1,5.0799093E0,1.3119646E0,-1.9468534E-1,-3.785876E0,8.4773475E-1,2.87179E0,5.845387E0,6.345202E-1,1.3119856E0,1.1984884E0,4.714352E0,1.6348606E0,-1.0173347E0,3.5333188E0,5.455335E0,-3.9143646E-1,1.648104E0],"split_indices":[1,1,1,1,1,0,0,1,1,0,0,0,0,0,1,1,0,0,0,0,1,0,1,0,0,0,0,0,0,0,0,0,0,0,0,0,0,0,0],"split_type":[0,0,0,0,0,0,0,0,0,0,0,0,0,0,0,0,0,0,0,0,0,0,0,0,0,0,0,0,0,0,0,0,0,0,0,0,0,0,0],"sum_hessian":[6.368E3,4.104E3,2.264E3,4.049E3,5.5E1,2.1E1,2.243E3,3.92E3,1.29E2,1.5E1,4E1,8.66E2,1.377E3,3.791E3,1.29E2,8.2E1,4.7E1,2.6E1,1.4E1,7.16E2,1.5E2,6.7E1,1.31E3,3.701E3,9E1,5.8E1,7.1E1,5.4E1,2.8E1,3.7E1,1E1,6.88E2,2.8E1,5.5E1,9.5E1,5.3E1,1.4E1,4.6E1,1.264E3],"tree_param":{"num_deleted":"0","num_feature":"2","num_nodes":"39","size_leaf_vector":"0"}},{"base_weights":[3.0639381E0,6.711766E-1,3.147424E0,4.0391374E0,-5.714445E0,3.9544873E0,2.838246E0,1.102022E1,3.0015485E0,-7.675225E0,-4.0767665E0,3.88054E0,2.8276104E1,-5.2658254E-1,3.1786866E0,-3.8182163E0,5.591551E0,3.3220673E0,5.702331E0,-1.7430256E1,8.537871E-1,1.6561335E1,3.027337E0,6.402439E0,1.6851896E0,3.5309448E0,-2.2084243E0,-9.723257E0,6.503414E0,-6.453232E0,-3.0298555E1,-1.7493193E0,2.0184746E0,1.9557528E1,1.2845083E1,7.668837E0,2.8743951E0],"categories":[],"categories_nodes":[],"categories_segments":[],"categories_sizes":[],"default_left":[true,true,true,true,true,true,true,false,true,false,false,true,false,true,true,false,true,true,true,true,true,true,true,false,false,false,false,false,false,false,false,false,false,false,false,false,false],"id":12,"left_children":[1,3,5,7,9,11,13,-1,15,-1,-1,17,-1,19,21,-1,23,25,27,29,31,33,35,-1,-1,-1,-1,-1,-1,-1,-1,-1,-1,-1,-1,-1,-1],"loss_changes":[1.2701719E3,4.6684907E3,1.5243594E3,9.9549854E2,2.0954443E2,2.9513516E3,5.1026914E3,0E0,2.2292505E3,0E0,0E0,1.7086387E3,0E0,9.581543E3,8.1408086E3,0E0,2.774641E2,1.5118633E3,4.969033E3,4.1834004E3,1.155617E3,2.4983984E2,2.8174805E3,0E0,0E0,0E0,0E0,0E0,0E0,0E0,0E0,0E0,0E0,0E0,0E0,0E0,0E0],"parents":[2147483647,0,0,1,1,2,2,3,3,4,4,5,5,6,6,8,8,11,11,13,13,14,14,16,16,17,17,18,18,19,19,20,20,21,21,22,22],"right_children":[2,4,6,8,10,12,14,-1,16,-1,-1,18,-1,20,22,-1,24,26,28,30,32,34,36,-1,-1,-1,-1,-1,-1,-1,-1,-1,-1,-1,-1,-1,-1],"split_conditions":[-9.582718E1,-9.685563E1,-4.722035E1,-1.769274E2,-7.8833176E1,-4.726944E1,-4.1769417E1,3.306066E0,-1.7626901E2,-2.3025675E0,-1.22303E0,-5.2464653E1,8.482832E0,-1.0855327E2,-4.0338753E1,-1.1454649E0,-5.962016E0,-5.3470024E1,-1.2346925E2,-1.2699391E2,-7.4142136E1,-1.1304148E2,-1.2564574E2,1.9207318E0,5.055569E-1,1.0592835E0,-6.625273E-1,-2.9169772E0,1.9510243E0,-1.9359696E0,-9.089567E0,-5.2479583E-1,6.055424E-1,5.8672585E0,3.8535252E0,2.3006513E0,8.623186E-1],"split_indices":[1,1,1,0,0,1,1,0,0,0,0,1,0,0,1,0,0,1,0,0,0,0,0,0,0,0,0,0,0,0,0,0,0,0,0,0,0],"split_type":[0,0,0,0,0,0,0,0,0,0,0,0,0,0,0,0,0,0,0,0,0,0,0,0,0,0,0,0,0,0,0,0,0,0,0,0,0],"sum_hessian":[6.368E3,2.15E2,6.153E3,1.41E2,7.4E1,1.701E3,4.452E3,1.7E1,1.24E2,3.2E1,4.2E1,1.697E3,4E0,4.09E2,4.043E3,3.4E1,9E1,1.301E3,3.96E2,3E1,3.79E2,4.4E1,3.999E3,7.4E1,1.6E1,1.254E3,4.7E1,1.9E1,3.77E2,1.7E1,1.3E1,1.17E2,2.62E2,2.2E1,2.2E1,1.26E2,3.873E3],"tree_param":{"num_deleted":"0","num_feature":"2","num_nodes":"37","size_leaf_vector":"0"}},{"base_weights":[2.14647E0,1.8661783E0,2.653513E0,1.991869E0,-7.2572765E0,1.6974571E1,2.5119278E0,1.865245E0,5.7957196E0,-1.4796523E1,-4.138125E0,4.055625E0,2.0334024E0,2.0586953E0,-3.7918992E0,1.5684685E1,4.2702093E0,-5.7637115E0,-9.361938E-1,1.8865165E0,5.857939E0,-2.8619306E0,2.648803E0,1.9401383E0,6.859124E0,-9.7455845E0,1.1394806E0,6.4992733E0,1.0698448E0,3.833422E0,-1.5641296E0,8.271162E0,5.6081705E0,-4.729775E-1,-1.088675E1,6.1832185E0,2.4538739E0],"categories":[],"categories_nodes":[],"categories_segments":[],"categories_sizes":[],"default_left":[true,true,true,true,true,false,true,true,true,false,true,true,true,true,true,false,true,false,false,true,true,true,true,false,false,false,false,false,false,false,false,false,false,false,false,false,false],"id":13,"left_children":[1,3,5,7,9,-1,11,13,15,-1,17,19,21,23,25,-1,27,-1,-1,29,31,33,35,-1,-1,-1,-1,-1,-1,-1,-1,-1,-1,-1,-1,-1,-1],"loss_changes":[9.0021094E2,4.721795E3,4.5499824E3,1.9399053E3,1.2556694E3,0E0,1.6493936E3,4.2988555E3,1.894167E3,0E0,2.080097E2,2.0609385E3,5.174174E3,2.1448105E3,3.8278894E3,0E0,8.0630176E2,0E0,0E0,1.6317716E3,1.2780664E2,3.675667E3,1.0348037E3,0E0,0E0,0E0,0E0,0E0,0E0,0E0,0E0,0E0,0E0,0E0,0E0,0E0,0E0],"parents":[2147483647,0,0,1,1,2,2,3,3,4,4,6,6,7,7,8,8,10,10,11,11,12,12,13,13,14,14,16,16,19,19,20,20,21,21,22,22],"right_children":[2,4,6,8,10,-1,12,14,16,-1,18,20,22,24,26,-1,28,-1,-1,30,32,34,36,-1,-1,-1,-1,-1,-1,-1,-1,-1,-1,-1,-1,-1,-1],"split_conditions":[2.4853644E0,1.9817502E0,2.72264E0,-2.9899127E0,2.00362E0,5.0923715E0,1.3013756E1,-7.6115484E0,-1.1440819E2,-4.438957E0,5.8468056E-1,9.023811E0,2.1901226E1,-1.05919075E1,-6.505499E0,4.7054057E0,8.0218E-1,-1.7291135E0,-2.8085816E-1,6.6926627E0,9.953961E0,2.1420494E1,-9.7019485E1,5.820415E-1,2.0577374E0,-2.9236755E0,3.418442E-1,1.949782E0,3.2095346E-1,1.1500267E0,-4.692389E-1,2.4813488E0,1.6824512E0,-1.4189325E-1,-3.2660253E0,1.8549656E0,7.361622E-1],"split_indices":[1,1,1,1,1,0,1,1,0,0,0,1,1,1,1,0,1,0,0,1,1,1,0,0,0,0,0,0,0,0,0,0,0,0,0,0,0],"split_type":[0,0,0,0,0,0,0,0,0,0,0,0,0,0,0,0,0,0,0,0,0,0,0,0,0,0,0,0,0,0,0,0,0,0,0,0,0],"sum_hessian":[6.368E3,4.104E3,2.264E3,4.049E3,5.5E1,2.1E1,2.243E3,3.92E3,1.29E2,1.5E1,4E1,5.29E2,1.714E3,3.791E3,1.29E2,1.6E1,1.13E2,2.6E1,1.4E1,2.41E2,2.88E2,1.91E2,1.523E3,3.701E3,9E1,5.8E1,7.1E1,6.6E1,4.7E1,1.54E2,8.7E1,2.4E1,2.64E2,1.48E2,4.3E1,7.8E1,1.445E3],"tree_param":{"num_deleted":"0","num_feature":"2","num_nodes":"37","size_leaf_vector":"0"}},{"base_weights":[1.5040505E0,1.4109135E0,2.7903512E0,1.4641879E0,-1.9919819E0,1.2255615E1,2.3459952E0,1.4239002E0,1.160905E1,-5.629363E0,4.468591E-1,1.4864446E1,5.6598425E0,-7.83279E0,2.6981483E0,1.9335613E0,1.1737868E0,-3.4401584E-1,3.3754017E0,1.0328059E1,1.9800247E0,1.6951721E0,6.203064E0,6.58022E0,1.0649575E0,2.285116E1,1.4875139E0,2.545172E0,-5.1890473E0],"categories":[],"categories_nodes":[],"categories_segments":[],"categories_sizes":[],"default_left":[true,true,true,true,true,true,true,true,false,false,true,false,false,false,true,true,true,false,false,true,true,false,false,false,false,false,false,false,false],"id":14,"left_children":[1,3,5,7,9,11,13,15,-1,-1,17,-1,-1,-1,19,21,23,-1,-1,25,27,-1,-1,-1,-1,-1,-1,-1,-1],"loss_changes":[7.59084E2,1.0799453E3,1.7756001E3,2.3744346E3,8.1864703E2,2.4280737E2,1.4943601E3,7.4064355E2,0E0,0E0,1.308634E2,0E0,0E0,0E0,2.16028E3,1.9406147E3,2.2947285E3,0E0,0E0,3.7301836E3,1.4920344E3,0E0,0E0,0E0,0E0,0E0,0E0,0E0,0E0],"parents":[2147483647,0,0,1,1,2,2,3,3,4,4,5,5,6,6,7,7,10,10,14,14,15,15,16,16,19,19,20,20],"right_children":[2,4,6,8,10,12,14,16,-1,-1,18,-1,-1,-1,20,22,24,-1,-1,26,28,-1,-1,-1,-1,-1,-1,-1,-1],"split_conditions":[1.410575E2,1.3965692E2,1.4133356E2,1.3716959E2,9.0243164E1,8.5868904E1,1.4149077E2,-4.722035E1,3.4827151E0,-1.688809E0,9.528497E1,4.459334E0,1.6979529E0,-2.349837E0,1.418636E2,-4.780565E1,-1.4339833E2,-1.0320476E-1,1.0126206E0,8.70695E1,8.627565E1,5.0855166E-1,1.8609192E0,1.9740661E0,3.1948727E-1,6.855348E0,4.462542E-1,7.6355165E-1,-1.5567143E0],"split_indices":[1,1,1,1,0,0,1,1,0,0,0,0,0,0,1,1,0,0,0,0,0,0,0,0,0,0,0,0,0],"split_type":[0,0,0,0,0,0,0,0,0,0,0,0,0,0,0,0,0,0,0,0,0,0,0,0,0,0,0,0,0],"sum_hessian":[6.368E3,5.94E3,4.28E2,5.849E3,9.1E1,1.8E1,4.1E2,5.827E3,2.2E1,3.6E1,5.5E1,1.2E1,6E0,1.3E1,3.97E2,1.916E3,3.911E3,4.4E1,1.1E1,3.3E1,3.64E2,1.816E3,1E2,7.6E1,3.835E3,1.3E1,2E1,3.38E2,2.6E1],"tree_param":{"num_deleted":"0","num_feature":"2","num_nodes":"29","size_leaf_vector":"0"}},{"base_weights":[1.055613E0,8.488101E-1,1.5630149E0,1.1123604E0,-1.9894692E0,8.276549E0,1.4810934E0,9.8012865E-1,3.523643E0,-1.6521002E0,-1.2338347E1,-8.033275E0,1.5698327E0,1.1599956E0,-9.4672143E-1,-2.2959225E0,4.8536496E0,3.2289052E0,1.2974732E0,7.4995077E-1,2.3202608E0,-1.3182503E1,-3.3388898E-1,-9.935872E-1,-5.173802E0,8.029406E0,2.957316E-1,1.9440169E0,7.537424E0,3.9149E0,9.707765E-1],"categories":[],"categories_nodes":[],"categories_segments":[],"categories_sizes":[],"default_left":[true,true,true,true,true,false,true,true,false,true,false,false,true,true,true,true,true,true,true,false,false,false,false,false,false,false,false,false,false,false,false],"id":15,"left_children":[1,3,5,7,9,-1,11,13,-1,15,-1,-1,17,19,21,23,25,27,29,-1,-1,-1,-1,-1,-1,-1,-1,-1,-1,-1,-1],"loss_changes":[6.669863E2,3.3885413E3,1.0013589E3,1.3175332E3,1.3238013E3,0E0,1.5509226E3,1.3627969E3,0E0,1.57766E3,0E0,0E0,8.1187744E2,1.7081436E3,2.515089E3,1.2729152E3,4.8976996E2,1.3914824E3,1.3241772E3,0E0,0E0,0E0,0E0,0E0,0E0,0E0,0E0,0E0,0E0,0E0,0E0],"parents":[2147483647,0,0,1,1,2,2,3,3,4,4,6,6,7,7,9,9,12,12,13,13,14,14,15,15,16,16,17,17,18,18],"right_children":[2,4,6,8,10,-1,12,14,-1,16,-1,-1,18,20,22,24,26,28,30,-1,-1,-1,-1,-1,-1,-1,-1,-1,-1,-1,-1],"split_conditions":[3.0869347E1,1.8185993E1,-9.4768555E1,1.8079735E1,3.0493881E1,2.482965E0,-9.0442604E1,-3.1499714E-1,1.0570929E0,3.008213E1,-3.7015045E0,-2.4099824E0,4.273858E1,-4.5272392E1,4.3536282E-1,2.783638E1,3.038359E1,4.1598785E1,-6.1060997E1,2.2498524E-1,6.9607824E-1,-3.954751E0,-1.001667E-1,-2.9807618E-1,-1.5521406E0,2.4088218E0,8.871949E-2,5.832051E-1,2.2612274E0,1.1744701E0,2.9123297E-1],"split_indices":[0,0,1,0,0,0,1,0,0,0,0,0,0,0,0,0,0,0,1,0,0,0,0,0,0,0,0,0,0,0,0],"split_type":[0,0,0,0,0,0,0,0,0,0,0,0,0,0,0,0,0,0,0,0,0,0,0,0,0,0,0,0,0,0,0],"sum_hessian":[6.368E3,4.526E3,1.842E3,4.142E3,3.84E2,2.1E1,1.821E3,3.928E3,2.14E2,3.73E2,1.1E1,1.6E1,1.805E3,3.593E3,3.35E2,3.4E2,3.3E1,2.53E2,1.552E3,2.656E3,9.37E2,1.5E1,3.2E2,2.35E2,1.05E2,1.9E1,1.4E1,1.96E2,5.7E1,1.71E2,1.381E3],"tree_param":{"num_deleted":"0","num_feature":"2","num_nodes":"31","size_leaf_vector":"0"}},{"base_weights":[7.388109E-1,6.6553345E0,7.219286E-1,-1.275155E0,8.0191606E-1,2.6057653E0,-2.334293E0,1.478981E0,5.815859E-1,3.5499985E0,-2.781699E-1,-3.0926561E0,8.404167E-1,1.1835243E0,1.9587942E1,-2.393001E1,6.775204E-1,2.8955598E0,4.8357253E0,-6.527664E-1,-5.176219E0,5.9064407E0,-5.7650504E0,1.4514667E0,-4.3012066E0,1.669436E1,2.9882267E1,3.6867687E-1,1.6061547E0],"categories":[],"categories_nodes":[],"categories_segments":[],"categories_sizes":[],"default_left":[true,false,true,true,true,true,true,true,true,true,false,true,true,true,true,false,true,false,false,false,false,false,false,false,false,false,false,false,false],"id":16,"left_children":[1,-1,3,5,7,9,11,13,15,17,-1,19,21,23,25,-1,27,-1,-1,-1,-1,-1,-1,-1,-1,-1,-1,-1,-1],"loss_changes":[6.3135913E2,0E0,1.01570166E3,1.013138E3,9.103181E2,1.4531223E2,4.6726257E2,7.997087E3,1.0856663E4,1.9654999E1,0E0,7.896726E2,1.3056624E3,2.1753608E3,2.1603418E2,0E0,1.3166924E3,0E0,0E0,0E0,0E0,0E0,0E0,0E0,0E0,0E0,0E0,0E0,0E0],"parents":[2147483647,0,0,2,2,3,3,4,4,5,5,6,6,7,7,8,8,9,9,11,11,12,12,13,13,14,14,16,16],"right_children":[2,-1,4,6,8,10,12,14,16,18,-1,20,22,24,26,-1,28,-1,-1,-1,-1,-1,-1,-1,-1,-1,-1,-1,-1],"split_conditions":[-1.769274E2,1.9966004E0,-8.941681E1,-1.05803246E2,-4.9512283E1,-5.962016E0,2.5832499E1,-5.011209E1,-4.9186794E1,-9.2623886E1,-8.345097E-2,-9.685563E1,3.789489E1,-5.06885E1,-3.5617313E1,-7.1790032E0,4.8609337E1,8.6866796E-1,1.4507177E0,-1.9582993E-1,-1.5528657E0,1.7719322E0,-1.7295152E0,4.3544003E-1,-1.290362E0,5.0083084E0,8.964681E0,1.10603064E-1,4.8184642E-1],"split_indices":[0,0,1,1,1,0,0,1,1,0,0,1,0,1,0,0,0,0,0,0,0,0,0,0,0,0,0,0,0],"split_type":[0,0,0,0,0,0,0,0,0,0,0,0,0,0,0,0,0,0,0,0,0,0,0,0,0,0,0,0,0],"sum_hessian":[6.368E3,1.7E1,6.351E3,2.44E2,6.107E3,5.2E1,1.92E2,1.498E3,4.609E3,3.9E1,1.3E1,1.55E2,3.7E1,1.475E3,2.3E1,1.7E1,4.592E3,2.8E1,1.1E1,7.2E1,8.3E1,2.1E1,1.6E1,1.407E3,6.8E1,2E1,3E0,3.447E3,1.145E3],"tree_param":{"num_deleted":"0","num_feature":"2","num_nodes":"29","size_leaf_vector":"0"}},{"base_weights":[5.1859456E-1,5.403105E-1,-3.0199218E0,4.9141204E-1,7.359966E0,-6.0428133E0,1.2475156E0,-2.391636E-1,5.875765E-1,1.3788994E1,3.6858184E0,-6.6212177E0,-3.7748587E0,1.8702994E-1,-1.4002093E1,7.9696007E0,5.150312E-1,-3.572126E-1,1.1807602E1,4.774741E-1,-3.030717E0,-2.0927479E1,-8.549911E0,6.1930285E0,8.912479E0,3.3876243E0,3.522495E-1],"categories":[],"categories_nodes":[],"categories_segments":[],"categories_sizes":[],"default_left":[true,true,true,true,true,true,false,true,true,false,true,false,false,true,true,true,true,false,false,false,false,false,false,false,false,false,false],"id":17,"left_children":[1,3,5,7,9,11,-1,13,15,-1,17,-1,-1,19,21,23,25,-1,-1,-1,-1,-1,-1,-1,-1,-1,-1],"loss_changes":[4.9103955E2,2.1075872E3,5.1063858E2,4.4183655E2,1.0121299E3,5.177063E0,0E0,4.296291E3,2.9713074E3,0E0,9.893164E2,0E0,0E0,6.6593054E2,6.517583E2,3.5259766E1,2.5720405E3,0E0,0E0,0E0,0E0,0E0,0E0,0E0,0E0,0E0,0E0],"parents":[2147483647,0,0,1,1,2,2,3,3,4,4,5,5,7,7,8,8,10,10,13,13,14,14,15,15,16,16],"right_children":[2,4,6,8,10,12,-1,14,16,-1,18,-1,-1,20,22,24,26,-1,-1,-1,-1,-1,-1,-1,-1,-1,-1],"split_conditions":[1.7747937E2,1.6999335E2,-5.4597885E1,-6.952953E1,-5.1861984E1,-6.2009098E1,3.7425467E-1,-7.0178345E1,-1.5519681E2,4.1366982E0,-4.522133E1,-1.9863654E0,-1.1324576E0,-7.168458E1,-1.0034063E1,-1.6019351E2,-6.2837902E1,-1.0716379E-1,3.5422807E0,1.4324224E-1,-9.092151E-1,-6.278244E0,-2.5649734E0,1.8579086E0,2.673744E0,1.0162873E0,1.05674855E-1],"split_indices":[1,1,0,1,0,0,0,1,0,0,0,0,0,1,0,0,1,0,0,0,0,0,0,0,0,0,0],"split_type":[0,0,0,0,0,0,0,0,0,0,0,0,0,0,0,0,0,0,0,0,0,0,0,0,0,0,0],"sum_hessian":[6.368E3,6.33E3,3.8E1,6.286E3,4.4E1,2.2E1,1.6E1,7.31E2,5.555E3,1.5E1,2.9E1,1.6E1,6E0,7.1E2,2.1E1,5.3E1,5.502E3,2E1,9E0,6.52E2,5.8E1,8E0,1.3E1,2.1E1,3.2E1,2.94E2,5.208E3],"tree_param":{"num_deleted":"0","num_feature":"2","num_nodes":"27","size_leaf_vector":"0"}},{"base_weights":[3.6314642E-1,-1.8133023E-1,4.907537E-1,6.86728E-1,-4.201817E0,2.583865E1,3.8214415E-1,-1.3610694E-1,1.1408677E1,-2.3154268E1,-2.8674798E0,-6.5025606E0,4.7299632E-1,5.490099E-1,-4.698653E0,1.733475E1,5.1656976E0,8.581084E0,-4.0340843E0,2.705387E0,-9.210726E0,3.2269237E0,3.421383E-1,-6.1327625E-2,1.6338453E1,-1.5405363E1,-2.1637745E0,2.0019485E1,1.3878961E1,1.4598838E0,8.790407E0,-1.089644E1,-2.2912383E0,-8.342174E0,-1.1410721E1,2.2133462E0,1.2709232E1,-7.3306108E0,4.9058154E-1],"categories":[],"categories_nodes":[],"categories_segments":[],"categories_sizes":[],"default_left":[true,true,true,true,true,false,true,true,true,false,true,true,true,true,true,true,true,false,true,false,true,true,true,false,false,false,false,false,false,false,false,false,false,false,false,false,false,false,false],"id":18,"left_children":[1,3,5,7,9,-1,11,13,15,-1,17,19,21,23,25,27,29,-1,31,-1,33,35,37,-1,-1,-1,-1,-1,-1,-1,-1,-1,-1,-1,-1,-1,-1,-1,-1],"loss_changes":[4.4260193E2,4.2258057E3,1.4195728E4,8.788657E3,5.370732E3,0E0,3.217471E3,2.897142E3,2.5371953E3,0E0,2.732518E3,1.6956738E3,1.8270709E3,7.7683354E3,3.2506318E3,5.615332E1,4.7073688E2,0E0,2.175679E3,0E0,4.171875E0,2.1824126E3,5.5207563E3,0E0,0E0,0E0,0E0,0E0,0E0,0E0,0E0,0E0,0E0,0E0,0E0,0E0,0E0,0E0,0E0],"parents":[2147483647,0,0,1,1,2,2,3,3,4,4,6,6,7,7,8,8,10,10,11,11,12,12,13,13,14,14,15,15,16,16,18,18,20,20,21,21,22,22],"right_children":[2,4,6,8,10,-1,12,14,16,-1,18,20,22,24,26,28,30,-1,32,-1,34,36,38,-1,-1,-1,-1,-1,-1,-1,-1,-1,-1,-1,-1,-1,-1,-1,-1],"split_conditions":[-8.6363754E1,-9.8053635E1,-8.623396E1,-1.0065651E2,-9.735399E1,7.751595E0,-8.579172E1,-1.1125871E2,-9.47502E0,-6.946281E0,-9.729866E1,-8.609779E1,-7.744426E1,-1.1240991E2,-1.0655099E2,-1.00144455E2,-9.934975E1,2.5743253E0,-9.5169235E1,8.116162E-1,-8.595207E1,-7.826026E1,-7.590196E1,-1.8398289E-2,4.901536E0,-4.621609E0,-6.491324E-1,6.005846E0,4.163688E0,4.3796515E-1,2.6371222E0,-3.268932E0,-6.873715E-1,-2.5026522E0,-3.4232163E0,6.640039E-1,3.81277E0,-2.1991832E0,1.4717446E-1],"split_indices":[0,0,0,0,0,0,0,0,1,0,0,0,0,0,0,0,0,0,0,0,0,0,0,0,0,0,0,0,0,0,0,0,0,0,0,0,0,0,0],"split_type":[0,0,0,0,0,0,0,0,0,0,0,0,0,0,0,0,0,0,0,0,0,0,0,0,0,0,0,0,0,0,0,0,0,0,0,0,0,0,0],"sum_hessian":[6.368E3,1.209E3,5.159E3,9.95E2,2.14E2,2.1E1,5.138E3,9.25E2,7E1,1.3E1,2.01E2,6.6E1,5.072E3,8.05E2,1.2E2,3.5E1,3.5E1,1.8E1,1.83E2,1.5E1,5.1E1,2.29E2,4.843E3,7.76E2,2.9E1,2.2E1,9.8E1,1.7E1,1.8E1,1.8E1,1.7E1,3.6E1,1.47E2,4E1,1.1E1,2.08E2,2.1E1,9.1E1,4.752E3],"tree_param":{"num_deleted":"0","num_feature":"2","num_nodes":"39","size_leaf_vector":"0"}},{"base_weights":[2.557118E-1,-7.3053027E-3,5.599697E-1,2.0089607E-1,-6.915354E0,1.1253854E1,4.0181208E-1,1.23696394E-1,1.4347299E1,-3.040561E0,-1.5054272E1,1.1887063E1,6.9976807E0,2.7489584E-2,1.4499769E0,2.4828999E-1,-9.550085E0,3.3809059E0,-5.3732533E0,5.6947523E-1,-2.3180451E0,8.550615E0,1.0880952E0,1.9865912E-1,6.9319077E0,-1.1191446E1,-6.739857E0,2.3967423E0,4.2081165E0,-9.410719E0,-1.4358498E0,-1.7708652E-1,2.4272752E0,1.5603455E0,-2.9484491E0,2.2996521E-1,1.3048053E1,2.8067904E0,5.5249337E-2],"categories":[],"categories_nodes":[],"categories_segments":[],"categories_sizes":[],"default_left":[true,true,true,true,true,true,true,true,false,true,false,false,false,true,true,true,true,true,true,true,true,true,true,false,false,false,false,false,false,false,false,false,false,false,false,false,false,false,false],"id":19,"left_children":[1,3,5,7,9,11,13,15,-1,17,-1,-1,-1,19,21,23,25,27,29,31,33,35,37,-1,-1,-1,-1,-1,-1,-1,-1,-1,-1,-1,-1,-1,-1,-1,-1],"loss_changes":[5.0968362E2,4.915942E3,4.9899453E3,3.6218054E3,3.1078887E3,3.270508E1,1.1420958E3,3.9810376E3,0E0,1.0517385E3,0E0,0E0,0E0,2.7294146E3,1.9590027E3,1.0800098E3,1.1830029E2,5.382324E0,7.9724146E2,2.4192922E3,9.8991675E2,1.3815986E3,1.2957024E3,0E0,0E0,0E0,0E0,0E0,0E0,0E0,0E0,0E0,0E0,0E0,0E0,0E0,0E0,0E0,0E0],"parents":[2147483647,0,0,1,1,2,2,3,3,4,4,5,5,6,6,7,7,9,9,13,13,14,14,15,15,16,16,17,17,18,18,19,19,20,20,21,21,22,22],"right_children":[2,4,6,8,10,12,14,16,-1,18,-1,-1,-1,20,22,24,26,28,30,32,34,36,38,-1,-1,-1,-1,-1,-1,-1,-1,-1,-1,-1,-1,-1,-1,-1,-1],"split_conditions":[-1.8432182E1,-2.4568958E1,-1.7550098E1,-2.485902E1,-2.9496355E1,-7.7169046E0,5.043165E1,-2.4963135E1,4.3041897E0,-2.3211807E1,-4.5162816E0,3.566119E0,2.0993042E0,1.9534864E1,5.103382E1,-2.5086636E1,-1.0398275E1,-5.7498825E1,-2.0599113E1,-2.1758945E1,-1.1590084E1,5.956156E1,7.62391E1,5.9597738E-2,2.0795724E0,-3.357434E0,-2.0219572E0,7.1902275E-1,1.262435E0,-2.8232157E0,-4.3075496E-1,-5.312596E-2,7.2818255E-1,4.6810368E-1,-8.845348E-1,6.898957E-2,3.914416E0,8.4203714E-1,1.6574802E-2],"split_indices":[1,1,1,1,0,0,0,1,0,1,0,0,0,0,0,1,0,0,1,0,1,1,1,0,0,0,0,0,0,0,0,0,0,0,0,0,0,0,0],"split_type":[0,0,0,0,0,0,0,0,0,0,0,0,0,0,0,0,0,0,0,0,0,0,0,0,0,0,0,0,0,0,0,0,0,0,0,0,0,0,0],"sum_hessian":[6.368E3,3.416E3,2.952E3,3.317E3,9.9E1,4.2E1,2.91E3,3.3E3,1.7E1,6.8E1,3.1E1,3.5E1,7E0,2.145E3,7.65E2,3.259E3,4.1E1,1.8E1,5E1,1.743E3,4.02E2,3.6E1,7.29E2,3.236E3,2.3E1,2.4E1,1.7E1,1E1,8E0,2.4E1,2.6E1,1.244E3,4.99E2,5.6E1,3.46E2,1.3E1,2.3E1,2.73E2,4.56E2],"tree_param":{"num_deleted":"0","num_feature":"2","num_nodes":"39","size_leaf_vector":"0"}},{"base_weights":[1.7994663E-1,5.622334E-1,-1.6233753E-2,-2.494493E-3,3.1172364E0,-3.7534945E0,1.4775023E-1,1.0207687E-1,-2.6354122E1,1.3255739E1,2.237982E0,9.2085585E-2,-1.05447855E1,-1.558987E-1,1.3218765E0,2.6944146E-1,-5.524687E0,6.887881E0,7.1388316E-1,7.5897408E0,-3.0562153E0,-1.45214615E1,-8.543046E0,1.4544363E-1,-1.9060404E0,7.9669223E0,7.74341E-1,4.6964955E-2,1.59335375E1,-7.6104474E0,1.51863985E1,1.7346141E0,1.2118844E1,-1.9008627E1,1.4582438E0,4.112065E0,1.2264131E1,-1.5730907E0,-1.6393091E1,-9.339579E0,-2.884783E0,-9.90434E-2,1.5776874E0,-7.6413527E0,-1.2672975E0,5.046962E0,1.9956175E1,4.289903E0,3.3569226E-1],"categories":[],"categories_nodes":[],"categories_segments":[],"categories_sizes":[],"default_left":[true,true,true,true,true,true,true,true,false,false,true,true,true,true,true,true,true,true,true,true,true,false,true,true,true,true,true,false,false,false,false,false,false,false,false,false,false,false,false,false,false,false,false,false,false,false,false,false,false],"id":20,"left_children":[1,3,5,7,9,11,13,15,-1,-1,17,19,21,23,25,27,29,31,33,35,37,-1,39,41,43,45,47,-1,-1,-1,-1,-1,-1,-1,-1,-1,-1,-1,-1,-1,-1,-1,-1,-1,-1,-1,-1,-1,-1],"loss_changes":[4.776661E2,3.1166318E3,2.580657E3,4.8801475E3,3.455834E3,4.6235835E3,1.4384166E3,1.6626843E3,0E0,0E0,2.553456E3,2.7141516E3,3.854004E2,1.6910953E3,3.0100635E3,5.9723584E3,2.318692E3,2.3781113E3,4.0355398E3,5.0227344E2,1.5764121E3,0E0,1.7587207E2,9.582077E2,1.7157728E3,2.1047954E3,1.1813483E3,0E0,0E0,0E0,0E0,0E0,0E0,0E0,0E0,0E0,0E0,0E0,0E0,0E0,0E0,0E0,0E0,0E0,0E0,0E0,0E0,0E0,0E0],"parents":[2147483647,0,0,1,1,2,2,3,3,4,4,5,5,6,6,7,7,10,10,11,11,12,12,13,13,14,14,15,15,16,16,17,17,18,18,19,19,20,20,22,22,23,23,24,24,25,25,26,26],"right_children":[2,4,6,8,10,12,14,16,-1,-1,18,20,22,24,26,28,30,32,34,36,38,-1,40,42,44,46,48,-1,-1,-1,-1,-1,-1,-1,-1,-1,-1,-1,-1,-1,-1,-1,-1,-1,-1,-1,-1,-1,-1],"split_conditions":[-6.2767914E1,-7.2165794E1,-5.6684624E1,-7.220677E1,-7.1848236E1,-5.7671444E1,6.1005653E1,-7.35141E1,-7.906237E0,3.976722E0,-5.0057995E1,-5.3081642E1,-5.7807583E1,1.4814443E1,7.616647E1,-7.4142136E1,-7.222658E1,-5.865477E1,-4.8754845E1,-5.918567E1,2.6911827E1,-4.3564386E0,-5.670751E1,4.514217E0,1.9638956E1,6.758846E1,-3.0345387E1,1.4089487E-2,4.7800612E0,-2.2831342E0,4.5559196E0,5.2038425E-1,3.6356533E0,-5.702588E0,4.3747318E-1,1.2336195E0,3.6792393E0,-4.7192723E-1,-4.9179277E0,-2.8018737E0,-8.6543494E-1,-2.9713022E-2,4.7330624E-1,-2.2924058E0,-3.8018927E-1,1.5140886E0,5.9868526E0,1.286971E0,1.0070768E-1],"split_indices":[0,0,0,0,0,0,1,0,0,0,1,1,1,1,1,0,0,1,1,0,1,0,0,1,1,1,0,0,0,0,0,0,0,0,0,0,0,0,0,0,0,0,0,0,0,0,0,0,0],"split_type":[0,0,0,0,0,0,0,0,0,0,0,0,0,0,0,0,0,0,0,0,0,0,0,0,0,0,0,0,0,0,0,0,0,0,0,0,0,0,0,0,0,0,0,0,0,0,0,0,0],"sum_hessian":[6.368E3,2.159E3,4.209E3,1.769E3,3.9E2,1.76E2,4.033E3,1.763E3,6E0,3E1,3.6E2,1.13E2,6.3E1,3.205E3,8.28E2,1.713E3,5E1,8.8E1,2.72E2,3.3E1,8E1,1.9E1,4.4E1,2.735E3,4.7E2,6.2E1,7.66E2,1.69E3,2.3E1,4.6E1,4E0,4.5E1,4.3E1,9E0,2.63E2,2E1,1.3E1,7.3E1,7E0,3.8E1,6E0,2.337E3,3.98E2,4.6E1,4.24E2,5.1E1,1.1E1,8.4E1,6.82E2],"tree_param":{"num_deleted":"0","num_feature":"2","num_nodes":"49","size_leaf_vector":"0"}},{"base_weights":[1.2599169E-1,4.5821567E0,1.1334418E-1,-3.9860997E0,1.3603604E-1,1.545599E-1,-2.8502681E0,1.270029E-1,3.969913E0,-5.251948E0,-9.511891E-1,4.8910615E-1,-5.0445925E-2,8.616136E0,1.3595973E0,-2.1429837E0,-4.0449792E-1],"categories":[],"categories_nodes":[],"categories_segments":[],"categories_sizes":[],"default_left":[true,false,true,false,true,true,true,true,true,false,true,false,false,false,false,false,false],"id":21,"left_children":[1,-1,3,-1,5,7,9,11,13,-1,15,-1,-1,-1,-1,-1,-1],"loss_changes":[3.584335E2,0E0,5.9143085E2,0E0,3.4993887E2,6.59773E2,1.7288263E2,4.007176E2,5.340505E2,0E0,1.4118668E1,0E0,0E0,0E0,0E0,0E0,0E0],"parents":[2147483647,0,0,2,2,4,4,5,5,6,6,7,7,8,8,10,10],"right_children":[2,-1,4,-1,6,8,10,12,14,-1,16,-1,-1,-1,-1,-1,-1],"split_conditions":[-1.769274E2,1.374647E0,-1.7626901E2,-1.19583E0,1.7747937E2,1.6999335E2,-6.2009098E1,-6.369419E1,-5.1861984E1,-1.5755844E0,-5.4597885E1,1.4673185E-1,-1.5133779E-2,2.5848408E0,4.078792E-1,-6.428951E-1,-1.2134938E-1],"split_indices":[0,0,0,0,1,1,0,0,0,0,0,0,0,0,0,0,0],"split_type":[0,0,0,0,0,0,0,0,0,0,0,0,0,0,0,0,0],"sum_hessian":[6.368E3,1.7E1,6.351E3,3.4E1,6.317E3,6.279E3,3.8E1,6.235E3,4.4E1,1.6E1,2.2E1,2.05E3,4.185E3,1.5E1,2.9E1,6E0,1.6E1],"tree_param":{"num_deleted":"0","num_feature":"2","num_nodes":"17","size_leaf_vector":"0"}},{"base_weights":[8.8348456E-2,1.1413041E-1,-1.8656213E0,3.9749753E-2,1.1637676E0,-1.2053479E1,-3.0490822E-1,1.2755936E-1,-2.9241898E0,5.857079E0,2.937988E-1,-8.150563E-1,5.9442025E-1,6.0277518E-2,4.1862497E0,-6.216674E0,-1.2811785E0,-9.877737E-2,8.140147E0,-1.2171334E1,6.9386506E-1,-9.9987626E-1,-6.769959E-1,1.3656777E-1,-1.8280079E0,5.7970457E0,-1.2757305E0,4.981959E0,-2.9189162E0,4.4768066E0,9.886491E0,4.0068632E-1,1.2883991E1],"categories":[],"categories_nodes":[],"categories_segments":[],"categories_sizes":[],"default_left":[true,true,true,true,true,false,true,true,true,true,true,true,false,true,true,false,true,false,true,false,true,false,false,false,false,false,false,false,false,false,false,false,false],"id":22,"left_children":[1,3,5,7,9,-1,11,13,15,17,19,21,-1,23,25,-1,27,-1,29,-1,31,-1,-1,-1,-1,-1,-1,-1,-1,-1,-1,-1,-1],"loss_changes":[3.2106506E2,4.907968E2,1.3160518E3,1.5286338E3,1.6968215E3,0E0,3.3976208E1,1.5573743E3,9.0625574E2,8.8464966E2,1.7638267E3,5.2235603E-1,0E0,8.0870197E2,8.2562195E2,0E0,1.1838827E3,0E0,2.5642017E2,0E0,1.2171064E3,0E0,0E0,0E0,0E0,0E0,0E0,0E0,0E0,0E0,0E0,0E0,0E0],"parents":[2147483647,0,0,1,1,2,2,3,3,4,4,6,6,7,7,8,8,9,9,10,10,11,11,13,13,14,14,16,16,18,18,20,20],"right_children":[2,4,6,8,10,-1,12,14,16,18,20,22,-1,24,26,-1,28,-1,30,-1,32,-1,-1,-1,-1,-1,-1,-1,-1,-1,-1,-1,-1],"split_conditions":[9.759665E1,7.516087E1,1.0013823E2,6.7301544E1,7.9129196E1,-3.6160438E0,2.943483E1,6.4004364E1,-3.235713E1,1.9475838E1,7.967584E1,5.8915815E0,1.7832609E-1,5.2575264E1,1.4621126E1,-1.8650023E0,3.8994598E-1,-2.9633211E-2,7.686836E1,-3.6514003E0,1.5315283E2,-2.9996288E-1,-2.0309877E-1,4.0970333E-2,-5.484024E-1,1.7391138E0,-3.8271916E-1,1.4945877E0,-8.756749E-1,1.343042E0,2.9659474E0,1.202059E-1,3.8651974E0],"split_indices":[0,0,0,0,0,0,1,0,1,1,0,1,0,0,1,0,1,0,0,0,1,0,0,0,0,0,0,0,0,0,0,0,0],"split_type":[0,0,0,0,0,0,0,0,0,0,0,0,0,0,0,0,0,0,0,0,0,0,0,0,0,0,0,0,0,0,0,0,0],"sum_hessian":[6.368E3,6.286E3,8.2E1,5.871E3,4.15E2,1E1,7.2E1,5.703E3,1.68E2,6.4E1,3.51E2,4.6E1,2.6E1,5.611E3,9.2E1,5.5E1,1.13E2,1.8E1,4.6E1,1E1,3.41E2,1.7E1,2.9E1,5.394E3,2.17E2,7.1E1,2.1E1,2.3E1,9E1,1.6E1,3E1,3.34E2,7E0],"tree_param":{"num_deleted":"0","num_feature":"2","num_nodes":"33","size_leaf_vector":"0"}},{"base_weights":[6.188725E-2,-1.0248313E0,1.0774973E-1,8.160793E-1,-2.487886E0,2.9789379E0,6.482848E-2,-8.1609696E-1,2.7408156E0,-5.2723475E0,-1.3283204E0,-6.7027986E-1,5.4241624E0,-3.5387647E0,1.1947266E-1,-2.8642342E0,1.6839342E0,3.2451832E0,2.412498E0,9.816515E-1,-3.0676494E0,4.1876326E0,6.084147E0,-9.5001644E-1,-7.9814506E0,1.084589E1,7.7722475E-2,4.569131E-1,2.0006673E0,5.9654665E-1,-2.0592535E0,6.40093E-1,-1.3415024E-1],"categories":[],"categories_nodes":[],"categories_segments":[],"categories_sizes":[],"default_left":[true,true,true,true,true,true,true,true,true,false,true,false,true,true,true,false,false,false,false,true,false,false,false,true,false,false,true,false,false,false,false,false,false],"id":23,"left_children":[1,3,5,7,9,11,13,15,17,-1,19,-1,21,23,25,-1,-1,-1,-1,27,-1,-1,-1,29,-1,-1,31,-1,-1,-1,-1,-1,-1],"loss_changes":[3.175389E2,6.969154E2,7.5301917E2,3.635103E2,4.5793884E2,8.067198E2,1.1864441E3,3.2740884E2,9.474182E-1,0E0,4.1684485E2,0E0,1.8590698E1,1.0275072E3,2.6565796E3,0E0,0E0,0E0,0E0,2.3148117E1,0E0,0E0,0E0,1.0072773E2,0E0,0E0,7.045064E2,0E0,0E0,0E0,0E0,0E0,0E0],"parents":[2147483647,0,0,1,1,2,2,3,3,4,4,5,5,6,6,7,7,8,8,10,10,12,12,13,13,14,14,19,19,23,23,26,26],"right_children":[2,4,6,8,10,12,14,16,18,-1,20,-1,22,24,26,-1,-1,-1,-1,28,-1,-1,-1,30,-1,-1,32,-1,-1,-1,-1,-1,-1],"split_conditions":[-1.6381781E2,-1.7468765E2,-1.5519681E2,-1.0147795E2,-1.7001202E2,-6.2779816E1,-1.4535567E2,-1.7598256E2,-1.7652173E2,-1.5817043E0,-1.6746559E2,-2.0108397E-1,-1.6019351E2,-1.462147E2,-1.4339833E2,-8.592703E-1,5.051803E-1,9.73555E-1,7.237494E-1,-1.6832768E2,-9.202948E-1,1.2562898E0,1.8252442E0,-1.4920273E2,-2.3944352E0,3.2537673E0,-4.666902E1,1.3707393E-1,6.0020024E-1,1.78964E-1,-6.1777604E-1,1.9202791E-1,-4.024507E-2],"split_indices":[0,0,0,1,0,1,0,0,0,0,0,0,0,0,0,0,0,0,0,0,0,0,0,0,0,0,1,0,0,0,0,0,0],"split_type":[0,0,0,0,0,0,0,0,0,0,0,0,0,0,0,0,0,0,0,0,0,0,0,0,0,0,0,0,0,0,0,0,0],"sum_hessian":[6.368E3,2.57E2,6.111E3,1.14E2,1.43E2,8.9E1,6.022E3,6.2E1,5.2E1,4.1E1,1.02E2,3.6E1,5.3E1,8.9E1,5.933E3,3.4E1,2.8E1,1.7E1,3.5E1,4.4E1,5.8E1,2.1E1,3.2E1,5.7E1,3.2E1,2.2E1,5.911E3,3E1,1.4E1,2.4E1,3.3E1,1.617E3,4.294E3],"tree_param":{"num_deleted":"0","num_feature":"2","num_nodes":"33","size_leaf_vector":"0"}},{"base_weights":[4.380115E-2,-1.3443518E-1,3.1608927E-1,-1.6869798E-2,-7.688223E0,2.9539378E0,1.4433399E-1,-1.1384405E-1,3.9283562E0,-3.8986342E0,-1.3884411E1,1.2315173E0,1.0335697E1,-3.6649165E0,3.1749445E-1,1.3300683E-1,-1.5197508E0,1.2929112E1,2.2624724E0,-3.286632E0,-5.102037E0,1.0455365E1,-2.0518203E-1,5.7657094E0,1.3222412E1,-7.008288E0,-5.013332E-1,8.557384E0,1.7681526E-1,-1.7430216E-1,2.8139622E0,-3.571559E0,7.6586895E-2,1.3349868E0,1.1479113E1,4.0127196E0,-3.4155643E0,-3.2558727E0,-8.6783695E0,-1.447282E0,-1.6609862E-1,-6.014517E0,1.2041829E1,-3.4345884E0,3.094311E-1],"categories":[],"categories_nodes":[],"categories_segments":[],"categories_sizes":[],"default_left":[true,true,true,true,true,true,true,true,true,true,false,true,true,true,true,true,true,false,true,false,false,false,true,false,false,true,true,true,true,false,false,false,false,false,false,false,false,false,false,false,false,false,false,false,false],"id":24,"left_children":[1,3,5,7,9,11,13,15,17,19,-1,21,23,25,27,29,31,-1,33,-1,-1,-1,35,-1,-1,37,39,41,43,-1,-1,-1,-1,-1,-1,-1,-1,-1,-1,-1,-1,-1,-1,-1,-1],"loss_changes":[3.0914047E2,3.4189163E3,1.141296E3,1.4512107E3,1.331249E3,1.9453033E3,1.5624641E3,1.2849788E3,1.3352217E3,1.1217957E1,0E0,1.6718843E3,3.0633862E2,1.0859209E3,2.6240317E3,2.5957175E3,1.811558E3,0E0,6.51443E2,0E0,0E0,0E0,1.5032241E3,0E0,0E0,2.8508618E2,1.6883804E1,2.0018757E3,1.0681174E3,0E0,0E0,0E0,0E0,0E0,0E0,0E0,0E0,0E0,0E0,0E0,0E0,0E0,0E0,0E0,0E0],"parents":[2147483647,0,0,1,1,2,2,3,3,4,4,5,5,6,6,7,7,8,8,9,9,11,11,12,12,13,13,14,14,15,15,16,16,18,18,22,22,25,25,26,26,27,27,28,28],"right_children":[2,4,6,8,10,12,14,16,18,20,-1,22,24,26,28,30,32,-1,34,-1,-1,-1,36,-1,-1,38,40,42,44,-1,-1,-1,-1,-1,-1,-1,-1,-1,-1,-1,-1,-1,-1,-1,-1],"split_conditions":[-6.505499E0,-7.6115484E0,8.0218E-1,-1.05919075E1,-5.3071793E1,-7.993883E-1,2.4853644E0,-2.6802559E1,-7.027214E1,-9.2624115E1,-4.1653233E0,-1.15717865E2,-4.6993984E1,-3.687596E1,3.114982E0,-3.272093E1,-2.0599113E1,3.8787339E0,4.6361732E1,-9.8598963E-1,-1.5306112E0,3.1366098E0,-4.088113E0,1.7297128E0,3.9667237E0,-6.984353E1,9.0553737E-1,-6.89842E1,4.514217E0,-5.2290652E-2,8.441887E-1,-1.0714678E0,2.2976069E-2,4.0049607E-1,3.443734E0,1.2038159E0,-1.0246693E0,-9.767619E-1,-2.6035109E0,-4.341846E-1,-4.982959E-2,-1.8043551E0,3.6125488E0,-1.0303766E0,9.282933E-2],"split_indices":[1,1,1,1,0,1,1,1,0,0,0,0,0,0,1,1,1,0,0,0,0,0,1,0,0,0,1,0,1,0,0,0,0,0,0,0,0,0,0,0,0,0,0,0,0],"split_type":[0,0,0,0,0,0,0,0,0,0,0,0,0,0,0,0,0,0,0,0,0,0,0,0,0,0,0,0,0,0,0,0,0,0,0,0,0,0,0,0,0,0,0,0,0],"sum_hessian":[6.368E3,3.849E3,2.519E3,3.791E3,5.8E1,1.53E2,2.366E3,3.701E3,9E1,3.7E1,2.1E1,1.25E2,2.8E1,1.02E2,2.264E3,3.149E3,5.52E2,1.3E1,7.7E1,2.7E1,1E1,1.6E1,1.09E2,1.2E1,1.6E1,4.9E1,5.3E1,3.7E1,2.227E3,2.826E3,3.23E2,2.41E2,3.11E2,7.1E1,6E0,4.7E1,6.2E1,1.6E1,3.3E1,1.3E1,4E1,7E0,3E1,7.8E1,2.149E3],"tree_param":{"num_deleted":"0","num_feature":"2","num_nodes":"45","size_leaf_vector":"0"}},{"base_weights":[3.1696334E-2,2.97198E-1,-1.0084325E-1,6.0916823E-1,-2.529685E0,-3.708629E0,6.615934E-2,4.8464185E-1,1.2358907E1,-1.4648415E1,-1.0415344E0,-9.609553E0,4.3777394E0,2.4226973E0,-1.1835363E-1,1.6778547E-2,1.9751426E0,2.2479889E1,9.2505045E0,1.8821068E0,-3.5536804E0,-6.5115633E0,-1.355772E1,1.3608304E1,6.4186466E-1,9.500541E0,-1.0927134E0,-2.6724403E0,1.8069279E-1,2.2377604E-1,-8.555846E0,8.970102E0,1.2555236E0,4.8126383E0,1.8938854E1,-3.1714482E0,5.441711E0,-1.0690546E1,-1.7911384E0,-7.605448E0,-2.1397214E0,-6.0350943E0,-1.7619371E1,1.0535479E1,2.5570354E1,3.3008194E0,2.1218812E-1,4.069373E0,1.9160374E1,-4.616923E0,1.7110989E0,-1.5849198E0,-1.7436241E1,5.670597E0,4.2222936E-2],"categories":[],"categories_nodes":[],"categories_segments":[],"categories_sizes":[],"default_left":[true,true,true,true,true,true,true,true,true,false,true,true,true,true,true,true,true,false,true,true,true,true,true,true,true,true,true,true,true,false,false,false,false,false,false,false,false,false,false,false,false,false,false,false,false,false,false,false,false,false,false,false,false,false,false],"id":25,"left_children":[1,3,5,7,9,11,13,15,17,-1,19,21,23,25,27,29,31,-1,33,35,37,39,41,43,45,47,49,51,53,-1,-1,-1,-1,-1,-1,-1,-1,-1,-1,-1,-1,-1,-1,-1,-1,-1,-1,-1,-1,-1,-1,-1,-1,-1,-1],"loss_changes":[2.2415176E2,1.8720581E3,2.560308E3,2.7900947E3,3.7900217E3,9.012874E3,1.7664922E3,1.3193542E3,4.2125146E2,0E0,1.3948203E3,1.2449385E3,2.7500044E3,7.3504307E3,2.8784456E3,2.558986E3,2.2639731E3,0E0,6.397793E2,1.6002598E3,1.2639125E3,2.850105E2,1.3297168E3,5.760215E2,6.556405E1,5.0635176E3,1.9643821E3,6.31446E3,2.5646292E3,0E0,0E0,0E0,0E0,0E0,0E0,0E0,0E0,0E0,0E0,0E0,0E0,0E0,0E0,0E0,0E0,0E0,0E0,0E0,0E0,0E0,0E0,0E0,0E0,0E0,0E0],"parents":[2147483647,0,0,1,1,2,2,3,3,4,4,5,5,6,6,7,7,8,8,10,10,11,11,12,12,13,13,14,14,15,15,16,16,18,18,19,19,20,20,21,21,22,22,23,23,24,24,25,25,26,26,27,27,28,28],"right_children":[2,4,6,8,10,12,14,16,18,-1,20,22,24,26,28,30,32,-1,34,36,38,40,42,44,46,48,50,52,54,-1,-1,-1,-1,-1,-1,-1,-1,-1,-1,-1,-1,-1,-1,-1,-1,-1,-1,-1,-1,-1,-1,-1,-1,-1,-1],"split_conditions":[-4.4799973E1,4.885591E1,-4.1832428E1,4.644117E1,4.9353897E1,-7.4142136E1,-1.1168494E2,-5.1295944E1,4.69366E1,-4.3945246E0,-6.3485893E1,-4.3351307E1,-1.20391445E1,-3.4314396E1,-3.272093E1,-5.179187E1,-5.0736717E1,6.743967E0,4.782733E1,-7.491504E1,-5.902411E1,-4.400949E1,-1.2699391E2,-6.088052E1,3.4244568E1,-1.1880228E2,-6.7938895E0,-3.342195E1,-3.1474237E1,6.7132816E-2,-2.5667539E0,2.6910307E0,3.766571E-1,1.4437915E0,5.6816564E0,-9.514345E-1,1.6325134E0,-3.207164E0,-5.3734154E-1,-2.2816343E0,-6.4191645E-1,-1.8105284E0,-5.2858114E0,3.1606438E0,7.671107E0,9.902459E-1,6.365644E-2,1.220812E0,5.748112E0,-1.3850769E0,5.133297E-1,-4.7547597E-1,-5.2308726E0,1.7011791E0,1.2666881E-2],"split_indices":[1,0,1,0,0,0,0,1,0,0,1,1,0,1,1,1,1,0,0,1,1,1,0,0,0,0,1,1,1,0,0,0,0,0,0,0,0,0,0,0,0,0,0,0,0,0,0,0,0,0,0,0,0,0,0],"split_type":[0,0,0,0,0,0,0,0,0,0,0,0,0,0,0,0,0,0,0,0,0,0,0,0,0,0,0,0,0,0,0,0,0,0,0,0,0,0,0,0,0,0,0,0,0,0,0,0,0,0,0,0,0,0,0],"sum_hessian":[6.368E3,2.12E3,4.248E3,1.91E3,2.1E2,1.87E2,4.061E3,1.891E3,1.9E1,2.2E1,1.88E2,1.08E2,7.9E1,2.94E2,3.767E3,1.44E3,4.51E2,3E0,1.6E1,8.7E1,1.01E2,6.2E1,4.6E1,2.2E1,5.7E1,9.7E1,1.97E2,3.94E2,3.373E3,1.407E3,3.3E1,4.1E1,4.1E2,1.2E1,4E0,3.6E1,5.1E1,1.9E1,8.2E1,4.9E1,1.3E1,1.7E1,2.9E1,1.9E1,3E0,7E0,5E1,6.3E1,3.4E1,8.7E1,1.1E2,3.68E2,2.6E1,8.2E1,3.291E3],"tree_param":{"num_deleted":"0","num_feature":"2","num_nodes":"55","size_leaf_vector":"0"}},{"base_weights":[2.390623E-2,-4.6043393E-1,1.0235756E-1,7.267121E-2,-5.6317873E0,5.5346513E0,-7.843852E-3,-2.7087808E-1,8.968175E0,-1.1682799E1,-2.5057132E0,2.1257691E0,7.329183E0,-1.6419418E1,3.501567E-2,1.0595122E-1,-7.602004E0,1.2844492E1,5.6703815E0,-1.9446402E1,-5.515386E0,-4.4174027E0,4.157367E0,3.1889403E0,5.62316E-1,1.0961319E1,3.4934583E0,-2.08136E0,1.1785925E-1,-3.2426122E-1,8.288752E0,-2.5308125E1,-2.787457E0,-7.565875E0,-2.348066E0,8.4233654E-1,6.0977836E0,-6.9698644E-1,-9.69526E0,1.8732096E1,3.8148984E-2],"categories":[],"categories_nodes":[],"categories_segments":[],"categories_sizes":[],"default_left":[true,true,true,true,true,true,true,true,true,true,true,true,true,false,true,true,true,false,false,false,false,true,false,false,false,false,true,true,true,false,false,false,false,false,false,false,false,false,false,false,false],"id":26,"left_children":[1,3,5,7,9,11,13,15,17,19,21,23,25,-1,27,29,31,-1,-1,-1,-1,33,-1,-1,-1,-1,35,37,39,-1,-1,-1,-1,-1,-1,-1,-1,-1,-1,-1,-1],"loss_changes":[2.4205083E2,2.4485144E3,3.281823E3,2.4656006E3,1.5407471E3,6.512107E2,3.7806045E3,2.1473325E3,3.1066577E2,1.2334233E3,7.316782E2,6.303331E1,9.5087036E2,0E0,9.4017957E2,2.6077412E3,3.1688386E3,0E0,0E0,0E0,0E0,2.6890576E2,0E0,0E0,0E0,0E0,2.4342142E2,2.12242E3,7.6554136E3,0E0,0E0,0E0,0E0,0E0,0E0,0E0,0E0,0E0,0E0,0E0,0E0],"parents":[2147483647,0,0,1,1,2,2,3,3,4,4,5,5,6,6,7,7,8,8,9,9,10,10,11,11,12,12,14,14,15,15,16,16,21,21,26,26,27,27,28,28],"right_children":[2,4,6,8,10,12,14,16,18,20,22,24,26,-1,28,30,32,-1,-1,-1,-1,34,-1,-1,-1,-1,36,38,40,-1,-1,-1,-1,-1,-1,-1,-1,-1,-1,-1,-1],"split_conditions":[-1.01539825E2,-1.1125871E2,-9.8053635E1,-1.1240991E2,-9.36381E0,-1.0065651E2,-9.735399E1,-1.15344955E2,-1.1176869E2,-1.0273063E2,-1.406071E0,-3.9306503E1,-9.47502E0,-4.9258256E0,-8.6363754E1,-1.1868306E2,-1.15054825E2,3.8533478E0,1.7011145E0,-5.8339205E0,-1.6546159E0,-1.06374756E2,1.2472103E0,9.5668215E-1,1.6869481E-1,3.288396E0,-9.934975E1,-8.693797E1,-8.623396E1,-9.727837E-2,2.4866257E0,-7.5924377E0,-8.3623713E-1,-2.2697625E0,-7.0441985E-1,2.5270098E-1,1.8293351E0,-2.0909594E-1,-2.9085782E0,5.619629E0,1.1444695E-2],"split_indices":[0,0,0,0,1,0,0,0,0,0,1,1,1,0,0,0,0,0,0,0,0,0,0,0,0,0,0,0,0,0,0,0,0,0,0,0,0,0,0,0,0],"split_type":[0,0,0,0,0,0,0,0,0,0,0,0,0,0,0,0,0,0,0,0,0,0,0,0,0,0,0,0,0,0,0,0,0,0,0,0,0,0,0,0,0],"sum_hessian":[6.368E3,8.87E2,5.481E3,8.05E2,8.2E1,1.08E2,5.373E3,7.76E2,2.9E1,2.7E1,5.5E1,3.8E1,7E1,1.3E1,5.36E3,7.39E2,3.7E1,1.2E1,1.7E1,1.1E1,1.6E1,4.3E1,1.2E1,2.2E1,1.6E1,3.5E1,3.5E1,2.01E2,5.159E3,7.03E2,3.6E1,7E0,3E1,1.6E1,2.7E1,1.8E1,1.7E1,1.71E2,3E1,2.1E1,5.138E3],"tree_param":{"num_deleted":"0","num_feature":"2","num_nodes":"41","size_leaf_vector":"0"}},{"base_weights":[1.585252E-2,-7.49763E-2,3.6701283E-1,-1.6939154E-2,-4.7541823E0,8.663545E0,2.1846017E-1,1.0881699E-1,-1.2235761E0,-1.5183211E1,-1.3960654E0,1.4384375E1,6.7020874E0,-1.7965581E0,7.352713E-1,2.954027E-2,4.253243E0,-4.10074E0,3.6523402E-1,-1.0455896E1,-9.6269363E-1,3.0995862E0,3.3589327E-1,5.154201E-2,-1.2179617E1,6.457062E0,-4.308585E0,-8.204698E0,-1.7447938E0,1.535672E0,-7.6252836E-1,3.5115995E0,-1.7399358E0,2.5451236E0,4.753883E0,-7.9047785E0,6.166504E-1],"categories":[],"categories_nodes":[],"categories_segments":[],"categories_sizes":[],"default_left":[true,true,true,true,true,true,true,true,true,false,false,false,false,true,true,true,true,true,true,false,true,true,true,false,false,false,false,false,false,false,false,false,false,false,false,false,false],"id":27,"left_children":[1,3,5,7,9,11,13,15,17,-1,-1,-1,-1,19,21,23,25,27,29,-1,31,33,35,-1,-1,-1,-1,-1,-1,-1,-1,-1,-1,-1,-1,-1,-1],"loss_changes":[2.0316982E2,1.374324E3,1.611413E3,7.588432E2,2.1501611E3,1.6168152E2,1.3415819E3,1.4879066E3,2.1591357E3,0E0,0E0,0E0,0E0,1.8889823E3,9.6682056E2,1.1946556E3,1.6316617E3,1.6100271E3,4.0376364E2,0E0,8.4421375E2,1.236532E2,2.0362394E3,0E0,0E0,0E0,0E0,0E0,0E0,0E0,0E0,0E0,0E0,0E0,0E0,0E0,0E0],"parents":[2147483647,0,0,1,1,2,2,3,3,4,4,5,5,6,6,7,7,8,8,13,13,14,14,15,15,16,16,17,17,18,18,20,20,21,21,22,22],"right_children":[2,4,6,8,10,12,14,16,18,-1,-1,-1,-1,20,22,24,26,28,30,-1,32,34,36,-1,-1,-1,-1,-1,-1,-1,-1,-1,-1,-1,-1,-1,-1],"split_conditions":[4.8587837E1,4.819114E1,4.876722E1,4.4850872E1,4.8541702E1,4.8648952E1,-3.883405E1,2.9268276E1,7.914836E1,-4.5549636E0,-4.1881964E-1,4.3153124E0,2.0106263E0,4.9353897E1,-2.4663807E1,2.895272E1,1.9664463E1,-3.606022E1,1.5303516E2,-3.136769E0,5.235642E1,6.7932785E1,-2.0535954E1,1.5462603E-2,-3.6538851E0,1.9371186E0,-1.2925756E0,-2.4614093E0,-5.2343816E-1,4.607016E-1,-2.2875851E-1,1.0534799E0,-5.2198076E-1,7.635371E-1,1.4261649E0,-2.3714337E0,1.8499513E-1],"split_indices":[0,0,0,1,0,0,1,1,1,0,0,0,0,0,1,1,0,0,1,0,0,0,1,0,0,0,0,0,0,0,0,0,0,0,0,0,0],"split_type":[0,0,0,0,0,0,0,0,0,0,0,0,0,0,0,0,0,0,0,0,0,0,0,0,0,0,0,0,0,0,0,0,0,0,0,0,0],"sum_hessian":[6.368E3,5.06E3,1.308E3,4.999E3,6.1E1,2.2E1,1.286E3,4.528E3,4.71E2,1.4E1,4.7E1,4E0,1.8E1,2.62E2,1.024E3,4.444E3,8.4E1,1.67E2,3.04E2,2.2E1,2.4E2,1.47E2,8.77E2,4.437E3,7E0,6.7E1,1.7E1,6E1,1.07E2,1.49E2,1.55E2,3.5E1,2.05E2,1.12E2,3.5E1,2.8E1,8.49E2],"tree_param":{"num_deleted":"0","num_feature":"2","num_nodes":"37","size_leaf_vector":"0"}},{"base_weights":[1.0001901E-2,4.564589E-2,-1.051273E0,1.140628E-2,1.5083357E1,-9.071414E0,-6.409059E-1,3.7294418E-2,-6.88659E0,5.406761E0,-1.0255642E0,4.5272764E-3,6.481705E0,2.148135E0,-1.4617431E0,3.7851408E-2,-5.4553485E0,8.130225E0,7.2593117E-1,3.370697E0,5.0800395E-1,-5.6215806E0,-1.1570982E0],"categories":[],"categories_nodes":[],"categories_segments":[],"categories_sizes":[],"default_left":[true,true,true,true,false,false,true,true,false,false,true,true,true,true,true,false,false,false,false,false,false,false,false],"id":28,"left_children":[1,3,5,7,-1,-1,9,11,-1,-1,13,15,17,19,21,-1,-1,-1,-1,-1,-1,-1,-1],"loss_changes":[2.4097496E2,3.1730662E3,6.7546497E2,1.098501E3,0E0,0E0,4.661494E2,1.2939893E3,0E0,0E0,2.620042E2,1.1097108E3,2.8824182E2,4.4406387E1,2.0259534E2,0E0,0E0,0E0,0E0,0E0,0E0,0E0,0E0],"parents":[2147483647,0,0,1,1,2,2,3,3,6,6,7,7,10,10,11,11,12,12,13,13,14,14],"right_children":[2,4,6,8,-1,-1,10,12,-1,-1,14,16,18,20,22,-1,-1,-1,-1,-1,-1,-1,-1],"split_conditions":[8.680448E1,8.669241E1,8.710291E1,8.627565E1,4.5250072E0,-2.7214243E0,8.8738815E1,8.543733E1,-2.065977E0,1.6220285E0,-2.5429459E1,8.5148865E1,1.440558E2,1.1444992E2,-2.0535954E1,1.1355422E-2,-1.6366047E0,2.4390676E0,2.1777935E-1,1.0112091E0,1.524012E-1,-1.6864742E0,-3.4712946E-1],"split_indices":[0,0,0,0,0,0,0,0,0,0,1,0,1,0,1,0,0,0,0,0,0,0,0],"split_type":[0,0,0,0,0,0,0,0,0,0,0,0,0,0,0,0,0,0,0,0,0,0,0],"sum_hessian":[6.368E3,6.162E3,2.06E2,6.149E3,1.3E1,9E0,1.97E2,6.127E3,2.2E1,1.1E1,1.86E2,6.097E3,3E1,2.2E1,1.64E2,6.061E3,3.6E1,2.3E1,7E0,1.2E1,1E1,1E1,1.54E2],"tree_param":{"num_deleted":"0","num_feature":"2","num_nodes":"23","size_leaf_vector":"0"}},{"base_weights":[7.242848E-3,2.713358E-1,-1.245878E-1,1.6863395E-1,5.4774637E0,-2.250494E0,-1.6264044E-2,6.2675107E-1,-6.384591E-1,2.4436085E1,2.7674482E0,-6.5319114E0,2.534455E0,6.8895416E0,-9.3950294E-2,-9.753936E-2,3.9442892E0,-4.9640703E0,-4.0831724E-1,4.0607157E0,1.701097E0,-4.1323013E0,-9.609433E0,6.2848873E0,1.5657194E-1,6.1207995E0,1.1815317E1,-1.3791555E0,7.22134E-2,1.3044998E-1,-8.75765E0,1.0439773E1,1.1756961E0,-6.6113853E-1,-7.7415853E0,-1.2367694E0,2.625681E-1,-4.7645316E0,-1.5791724E0,-4.2585974E0,-1.249962E1,4.5620685E0,1.978833E1,-7.530748E-1,1.692209E0,-6.849134E-1,-1.2435949E1,3.3470557E0,-4.5552693E-2],"categories":[],"categories_nodes":[],"categories_segments":[],"categories_sizes":[],"default_left":[true,true,true,true,true,true,true,true,true,false,true,true,true,true,true,true,true,true,true,false,false,true,true,true,true,false,false,true,true,false,false,false,false,false,false,false,false,false,false,false,false,false,false,false,false,false,false,false,false],"id":29,"left_children":[1,3,5,7,9,11,13,15,17,-1,19,21,23,25,27,29,31,33,35,-1,-1,37,39,41,43,-1,-1,45,47,-1,-1,-1,-1,-1,-1,-1,-1,-1,-1,-1,-1,-1,-1,-1,-1,-1,-1,-1,-1],"loss_changes":[2.2177402E2,1.1331304E3,9.784492E2,7.698356E2,2.0388788E3,4.236746E3,2.170197E3,3.1913843E3,7.485831E2,0E0,4.4118195E1,7.6524023E2,8.729887E2,9.808008E1,8.543173E2,2.155227E3,4.2677627E3,4.4903705E2,3.9883078E2,0E0,0E0,9.4168335E1,6.736201E2,7.9375586E2,8.648448E1,0E0,0E0,3.5071323E3,1.3665648E3,0E0,0E0,0E0,0E0,0E0,0E0,0E0,0E0,0E0,0E0,0E0,0E0,0E0,0E0,0E0,0E0,0E0,0E0,0E0,0E0],"parents":[2147483647,0,0,1,1,2,2,3,3,4,4,5,5,6,6,7,7,8,8,10,10,11,11,12,12,13,13,14,14,15,15,16,16,17,17,18,18,21,21,22,22,23,23,24,24,27,27,28,28],"right_children":[2,4,6,8,10,12,14,16,18,-1,20,22,24,26,28,30,32,34,36,-1,-1,38,40,42,44,-1,-1,46,48,-1,-1,-1,-1,-1,-1,-1,-1,-1,-1,-1,-1,-1,-1,-1,-1,-1,-1,-1,-1],"split_conditions":[-4.4799973E1,-4.6142223E1,-4.1769417E1,1.1791673E1,-6.058857E1,-7.4142136E1,-4.0338753E1,-3.5389763E1,1.33294735E1,7.330826E0,-9.247556E0,-4.3351307E1,-4.3142174E1,-7.663617E1,-3.272093E1,-4.0478928E1,-1.5150411E1,1.2946362E1,3.1135647E1,1.2182148E0,5.103291E-1,-4.400949E1,-1.2699391E2,-4.373658E1,4.9958927E1,1.8362399E0,3.5445952E0,-3.342195E1,-3.0906109E1,3.9134994E-2,-2.6272953E0,3.131932E0,3.5270885E-1,-1.9834156E-1,-2.3224757E0,-3.7103084E-1,7.877043E-2,-1.4293596E0,-4.7375172E-1,-1.2775793E0,-3.7498863E0,1.3686206E0,5.936499E0,-2.2592245E-1,5.076627E-1,-2.0547403E-1,-3.730785E0,1.0041168E0,-1.3665808E-2],"split_indices":[1,1,1,0,0,0,1,0,0,0,0,1,1,0,1,0,0,0,0,0,0,1,0,1,0,0,0,1,1,0,0,0,0,0,0,0,0,0,0,0,0,0,0,0,0,0,0,0,0],"split_type":[0,0,0,0,0,0,0,0,0,0,0,0,0,0,0,0,0,0,0,0,0,0,0,0,0,0,0,0,0,0,0,0,0,0,0,0,0,0,0,0,0,0,0,0,0,0,0,0,0],"sum_hessian":[6.368E3,2.12E3,4.248E3,2.08E3,4E1,2.05E2,4.043E3,1.327E3,7.53E2,4E0,3.6E1,1.08E2,9.7E1,4.4E1,3.999E3,1.09E3,2.37E2,3.7E1,7.16E2,1.5E1,2.1E1,6.2E1,4.6E1,3.7E1,6E1,4E1,4E0,4.57E2,3.542E3,1.063E3,2.7E1,7E1,1.67E2,1.5E1,2.2E1,3.2E2,3.96E2,4.9E1,1.3E1,1.7E1,2.9E1,3.4E1,3E0,3.8E1,2.2E1,4.31E2,2.6E1,1.22E2,3.42E3],"tree_param":{"num_deleted":"0","num_feature":"2","num_nodes":"49","size_leaf_vector":"0"}},{"base_weights":[6.6800197E-3,-1.4991352E-1,1.8787658E-1,4.5857456E-2,-2.4503937E0,7.9937305E0,7.250744E-2,-2.30868E-2,1.8821543E0,-2.8948382E-1,-3.616118E0,8.404355E0,5.1467037E0,-6.431658E0,1.2653357E-1,5.8568202E-2,-6.468927E0,-1.2707007E1,2.8103209E0,-3.9448166E0,1.3764172E0,-1.03706875E1,-1.7789067E0,-8.839901E0,-5.1018333E-1,-1.1718827E0,3.357532E-1,1.0010037E-2,9.11404E0,-7.593211E0,-4.4484596E0,4.543676E0,2.3892262E0,-5.1145315E0,-2.4341328E0,8.011555E0,-1.0890702E0,-2.5299988E1,-5.379846E0,-3.3421162E-1,-4.6610312E0,-3.134728E-1,-5.860391E0,4.2336574E0,5.526836E-2],"categories":[],"categories_nodes":[],"categories_segments":[],"categories_sizes":[],"default_left":[true,true,true,true,true,true,true,true,true,true,true,false,false,true,true,true,true,false,true,true,true,true,true,false,false,true,true,false,false,false,false,false,false,false,false,false,false,false,false,false,false,false,false,false,false],"id":30,"left_children":[1,3,5,7,9,11,13,15,17,19,21,-1,-1,23,25,27,29,-1,31,33,35,37,39,-1,-1,41,43,-1,-1,-1,-1,-1,-1,-1,-1,-1,-1,-1,-1,-1,-1,-1,-1,-1,-1],"loss_changes":[1.8074355E2,1.5390173E3,2.6587585E3,3.9884015E2,6.74052E2,7.0146484E0,1.02372424E3,1.5988584E3,1.5794042E3,5.839249E2,2.140817E3,0E0,0E0,3.3773853E2,7.849308E2,1.3190602E3,5.2541992E1,0E0,6.797412E1,4.0562622E1,1.0884092E3,2.620751E3,5.730454E2,0E0,0E0,1.6120525E3,2.719904E3,0E0,0E0,0E0,0E0,0E0,0E0,0E0,0E0,0E0,0E0,0E0,0E0,0E0,0E0,0E0,0E0,0E0,0E0],"parents":[2147483647,0,0,1,1,2,2,3,3,4,4,5,5,6,6,7,7,8,8,9,9,10,10,13,13,14,14,15,15,16,16,18,18,19,19,20,20,21,21,22,22,25,25,26,26],"right_children":[2,4,6,8,10,12,14,16,18,20,22,-1,-1,24,26,28,30,-1,32,34,36,38,40,-1,-1,42,44,-1,-1,-1,-1,-1,-1,-1,-1,-1,-1,-1,-1,-1,-1,-1,-1,-1,-1],"split_conditions":[-1.8432182E1,-2.6802559E1,-1.7550098E1,-2.8054451E1,-7.072769E1,-7.7169046E0,-1.6724949E1,-2.9115334E1,-3.079702E1,-1.0797208E2,-1.9655724E0,2.5213065E0,1.5440112E0,6.1002968E1,-7.710672E1,-2.9210882E1,-3.037585E1,-3.8121023E0,3.5755074E1,-1.1768265E2,-9.7580956E1,-2.5175365E1,-2.496254E1,-2.6519704E0,-1.5305501E-1,-8.1342606E1,-6.8555466E1,3.0030112E-3,2.7342122E0,-2.2779634E0,-1.334538E0,1.3631028E0,7.167679E-1,-1.5343596E0,-7.3023987E-1,2.4034665E0,-3.2672107E-1,-7.589997E0,-1.613954E0,-1.0026349E-1,-1.3983095E0,-9.404185E-2,-1.7581174E0,1.2700973E0,1.6580509E-2],"split_indices":[1,1,1,1,0,0,1,1,0,0,0,0,0,0,0,1,0,0,0,0,0,1,1,0,0,0,0,0,0,0,0,0,0,0,0,0,0,0,0,0,0,0,0,0,0],"split_type":[0,0,0,0,0,0,0,0,0,0,0,0,0,0,0,0,0,0,0,0,0,0,0,0,0,0,0,0,0,0,0,0,0,0,0,0,0,0,0,0,0,0,0,0,0],"sum_hessian":[6.368E3,3.416E3,2.952E3,3.149E3,2.67E2,4.2E1,2.91E3,3.036E3,1.13E2,9.4E1,1.73E2,3.5E1,7E0,2.3E1,2.887E3,2.999E3,3.7E1,6E0,1.07E2,2.9E1,6.5E1,3.6E1,1.37E2,1.6E1,7E0,4E2,2.487E3,2.984E3,1.5E1,2.2E1,1.5E1,1.9E1,8.8E1,1.5E1,1.4E1,1.7E1,4.8E1,8E0,2.8E1,9.2E1,4.5E1,3.39E2,6.1E1,1.66E2,2.321E3],"tree_param":{"num_deleted":"0","num_feature":"2","num_nodes":"45","size_leaf_vector":"0"}},{"base_weights":[2.6625784E-3,-5.83501E-1,4.573043E-2,-1.5393765E-1,-5.824715E0,2.7185502E0,-2.3107432E-2,-6.772785E-1,1.2335953E0,1.7385067E0,1.3762505E1,-1.0032698E1,2.7309591E-2,5.962913E-1,-1.4871855E0,3.5136838E0,-9.105146E-1,2.4371986E0,-3.05484E0,-5.2413664E0,-1.4791883E1,1.1701087E1,8.935766E-4,-5.6362647E-1,1.9638108E0,-3.7151434E0,-8.0329037E-1,2.133574E0,4.3272815E0,4.3766966E-1,-1.8750467E0,3.790637E0,1.0881102E0,1.2205776E0,-7.7002E-2],"categories":[],"categories_nodes":[],"categories_segments":[],"categories_sizes":[],"default_left":[true,true,true,true,false,true,true,true,true,true,false,true,true,true,true,true,true,true,false,false,false,false,true,false,false,false,false,false,false,false,false,false,false,false,false],"id":31,"left_children":[1,3,5,7,-1,9,11,13,15,17,-1,19,21,23,25,27,29,31,-1,-1,-1,-1,33,-1,-1,-1,-1,-1,-1,-1,-1,-1,-1,-1,-1],"loss_changes":[1.6081085E2,9.807283E2,1.0918666E3,2.9420117E2,0E0,1.5887837E3,2.9202007E3,3.041399E2,5.4585156E2,4.6961737E2,0E0,5.8375244E2,1.775611E3,1.8352103E2,2.712798E2,5.140155E1,7.624194E1,2.1681018E2,0E0,0E0,0E0,0E0,5.460098E2,0E0,0E0,0E0,0E0,0E0,0E0,0E0,0E0,0E0,0E0,0E0,0E0],"parents":[2147483647,0,0,1,1,2,2,3,3,5,5,6,6,7,7,8,8,9,9,11,11,12,12,13,13,14,14,15,15,16,16,17,17,22,22],"right_children":[2,4,6,8,-1,10,12,14,16,18,-1,20,22,24,26,28,30,32,-1,-1,-1,-1,34,-1,-1,-1,-1,-1,-1,-1,-1,-1,-1,-1,-1],"split_conditions":[-1.4535567E2,-1.462147E2,-1.2652083E2,-7.075E1,-1.7474146E0,-1.2750351E2,-1.25723465E2,-1.7468765E2,-1.5519681E2,-1.2801343E2,4.1287518E0,-1.2601124E2,-1.2486018E2,-1.0147795E2,-1.7001202E2,-1.6019351E2,-1.4920273E2,3.4816383E1,-9.1645205E-1,-1.57241E0,-4.4375653E0,3.5103261E0,-7.168458E1,-1.6908795E-1,5.891433E-1,-1.1145431E0,-2.4098712E-1,6.400722E-1,1.2981845E0,1.3130091E-1,-5.6251407E-1,1.1371912E0,3.2643306E-1,3.661733E-1,-2.31006E-2],"split_indices":[0,0,0,1,0,0,0,0,0,0,0,0,0,1,0,0,0,1,0,0,0,0,1,0,0,0,0,0,0,0,0,0,0,0,0],"split_type":[0,0,0,0,0,0,0,0,0,0,0,0,0,0,0,0,0,0,0,0,0,0,0,0,0,0,0,0,0,0,0,0,0,0,0],"sum_hessian":[6.368E3,4.35E2,5.933E3,4.03E2,3.2E1,1.48E2,5.785E3,2.93E2,1.1E2,1.37E2,1.1E1,2.8E1,5.757E3,1.14E2,1.79E2,5.3E1,5.7E1,1.2E2,1.7E1,1.5E1,1.3E1,1.2E1,5.745E3,6.2E1,5.2E1,4.1E1,1.38E2,2.1E1,3.2E1,2.4E1,3.3E1,5.9E1,6.1E1,3.44E2,5.401E3],"tree_param":{"num_deleted":"0","num_feature":"2","num_nodes":"35","size_leaf_vector":"0"}},{"base_weights":[2.0752696E-3,2.2832178E-1,-1.106228E-1,1.264986E-1,9.107123E0,-2.2905297E0,7.748605E-3,3.0689877E-1,-2.793472E0,-1.9554207E-1,-7.361273E0,1.969581E0,-5.6526363E-2,4.3429565E-2,4.8144827E0,7.669439E-1,-6.3664613E0,4.3203044E0,-2.3039234E0,-1.0658346E1,-5.7323227E0,4.5336762E-1,7.3684373E0,-3.0504873E0,2.2918496E-2,1.5986139E-1,-4.7815394E0,5.6143513E0,1.579566E0,-8.611167E0,-3.2208624E0,2.729145E0,8.216919E0,-3.966361E0,7.468804E-2,-6.346939E0,-1.489127E0,2.495716E0,-2.0428255E0,1.9482084E1,3.8879886E0,-9.671231E0,1.6016553E-1,4.5725355E0,-1.6859062E-2],"categories":[],"categories_nodes":[],"categories_segments":[],"categories_sizes":[],"default_left":[true,true,true,true,false,true,true,true,true,true,true,true,true,true,true,false,true,true,true,false,true,true,true,true,true,false,false,false,false,false,false,false,false,false,false,false,false,false,false,false,false,false,false,false,false],"id":32,"left_children":[1,3,5,7,-1,9,11,13,15,17,19,21,23,25,27,-1,29,31,33,-1,35,37,39,41,43,-1,-1,-1,-1,-1,-1,-1,-1,-1,-1,-1,-1,-1,-1,-1,-1,-1,-1,-1,-1],"loss_changes":[1.6241911E2,1.9136637E3,1.097198E3,1.1044263E3,0E0,2.325029E3,5.0878546E2,2.344132E3,1.5568845E3,1.4952494E3,2.8263208E2,1.0444441E3,9.293686E2,1.0490458E3,2.731704E2,0E0,4.0298242E2,2.8758167E2,4.2340564E2,0E0,1.0790576E2,5.2000604E2,1.1047598E3,2.1484968E3,6.8904004E2,0E0,0E0,0E0,0E0,0E0,0E0,0E0,0E0,0E0,0E0,0E0,0E0,0E0,0E0,0E0,0E0,0E0,0E0,0E0,0E0],"parents":[2147483647,0,0,1,1,2,2,3,3,5,5,6,6,7,7,8,8,9,9,10,10,11,11,12,12,13,13,14,14,16,16,17,17,18,18,20,20,21,21,22,22,23,23,24,24],"right_children":[2,4,6,8,-1,10,12,14,16,18,20,22,24,26,28,-1,30,32,34,-1,36,38,40,42,44,-1,-1,-1,-1,-1,-1,-1,-1,-1,-1,-1,-1,-1,-1,-1,-1,-1,-1,-1,-1],"split_conditions":[-6.369419E1,-6.415903E1,-5.6684624E1,6.1222927E1,2.7321372E0,-5.7671444E1,-5.399313E1,2.2609333E1,-1.187427E2,-4.924552E1,-5.7807583E1,-5.5368538E1,-4.9623306E1,2.1420494E1,-7.005462E1,2.3008317E-1,-7.07888E1,-5.918567E1,8.476775E0,-3.197504E0,-5.670751E1,-5.6025726E1,-5.5081635E1,1.822083E1,-4.736498E1,4.795842E-2,-1.4344618E0,1.6843054E0,4.7386983E-1,-2.5833502E0,-9.6625876E-1,8.187435E-1,2.4650757E0,-1.1899084E0,2.2406412E-2,-1.9040818E0,-4.4673812E-1,7.4871486E-1,-6.128477E-1,5.8446255E0,1.1663966E0,-2.9013696E0,4.8049662E-2,1.3717607E0,-5.0577186E-3],"split_indices":[0,0,0,1,0,0,0,1,0,1,1,0,0,1,0,0,0,0,1,0,0,0,0,1,0,0,0,0,0,0,0,0,0,0,0,0,0,0,0,0,0,0,0,0,0],"split_type":[0,0,0,0,0,0,0,0,0,0,0,0,0,0,0,0,0,0,0,0,0,0,0,0,0,0,0,0,0,0,0,0,0,0,0,0,0,0,0,0,0,0,0,0,0],"sum_hessian":[6.368E3,2.117E3,4.251E3,2.094E3,2.3E1,2.18E2,4.033E3,1.973E3,1.21E2,1.55E2,6.3E1,1.27E2,3.906E3,1.865E3,1.08E2,6.1E1,6E1,4.9E1,1.06E2,1.9E1,4.4E1,1E2,2.7E1,1E2,3.806E3,1.822E3,4.3E1,8.6E1,2.2E1,3.4E1,2.6E1,3.6E1,1.3E1,6.2E1,4.4E1,3.8E1,6E0,5.5E1,4.5E1,5E0,2.2E1,3.2E1,6.8E1,3.2E1,3.774E3],"tree_param":{"num_deleted":"0","num_feature":"2","num_nodes":"45","size_leaf_vector":"0"}}]},"name":"gbtree"},"learner_model_param":{"base_score":"5E-1","num_class":"0","num_feature":"2"},"objective":{"name":"reg:squarederror","reg_loss_param":{"scale_pos_weight":"1"}}},"version":[1,5,0]}