{"learner":{"attributes":{"best_iteration":"221","best_ntree_limit":"222"},"feature_names":["LD_01","LD_02","ATF_01","ATF_02","ATF_03","ATF_04","ATF_05","ATF_06","ATF_07","ATF_08","ATF_09","ATF_10","ATF_11","ATF_12","ATF_13","ATF_14","ATF_15","ATF_16","ATF_17","ATF_18","ATF_19","ATF_20","ATF_21","ATF_22","ATF_23","ATF_24","ATF_25","ATF_26","ATF_27","ATF_28","ATF_29","ATF_30","ATF_31","ATF_32","ATF_33","ATF_34","ATF_35","ATF_36","ATF_37","ATF_38","ATF_39","ATF_40","ATF_41","ATF_42","ATF_43","ATF_44","ATF_45","ATF_46","ATF_47","ATF_48","ATF_49","ATF_50"],"feature_types":["float","float","float","float","float","float","float","float","float","float","float","float","float","float","float","float","float","float","float","float","float","float","float","float","float","float","float","float","float","float","float","float","float","float","float","float","float","float","float","float","float","float","float","float","float","float","float","float","float","float","float","float"],"gradient_booster":{"model":{"gbtree_model_param":{"num_trees":"222","size_leaf_vector":"0"},"tree_info":[0,0,0,0,0,0,0,0,0,0,0,0,0,0,0,0,0,0,0,0,0,0,0,0,0,0,0,0,0,0,0,0,0,0,0,0,0,0,0,0,0,0,0,0,0,0,0,0,0,0,0,0,0,0,0,0,0,0,0,0,0,0,0,0,0,0,0,0,0,0,0,0,0,0,0,0,0,0,0,0,0,0,0,0,0,0,0,0,0,0,0,0,0,0,0,0,0,0,0,0,0,0,0,0,0,0,0,0,0,0,0,0,0,0,0,0,0,0,0,0,0,0,0,0,0,0,0,0,0,0,0,0,0,0,0,0,0,0,0,0,0,0,0,0,0,0,0,0,0,0,0,0,0,0,0,0,0,0,0,0,0,0,0,0,0,0,0,0,0,0,0,0,0,0,0,0,0,0,0,0,0,0,0,0,0,0,0,0,0,0,0,0,0,0,0,0,0,0,0,0,0,0,0,0,0,0,0,0,0,0,0,0,0,0,0,0,0,0,0,0,0,0],"trees":[{"base_weights":[2.1583966E2,1.3538518E2,2.2346678E2,1.75E2,1.01147156E2,2.532593E2,2.1556642E2,2.0519568E2,2.3001176E2],"categories":[],"categories_nodes":[],"categories_segments":[],"categories_sizes":[],"default_left":[true,true,true,false,false,false,true,false,false],"id":0,"left_children":[1,3,5,-1,-1,-1,7,-1,-1],"loss_changes":[3.870624E6,7.32351E5,1.311744E6,0E0,0E0,0E0,6.41184E5,0E0,0E0],"parents":[2147483647,0,0,1,1,2,2,6,6],"right_children":[2,4,6,-1,-1,-1,8,-1,-1],"split_conditions":[7.524866E1,6.828715E2,-1.8138876E1,5.2500004E1,3.0344149E1,7.597779E1,-6.204175E-1,6.1558704E1,6.900353E1],"split_indices":[4,3,12,0,0,0,37,0,0],"split_type":[0,0,0,0,0,0,0,0,0],"sum_hessian":[6.356E3,5.52E2,5.804E3,2.54E2,2.98E2,1.21E3,4.594E3,2.683E3,1.911E3],"tree_param":{"num_deleted":"0","num_feature":"52","num_nodes":"9","size_leaf_vector":"0"}},{"base_weights":[1.5113329E2,9.4919426E1,1.5646233E2,1.2270588E2,7.0904495E1,1.2846536E2,1.6154622E2,1.3413992E2,7.735498E1,1.7539946E2,1.5547516E2],"categories":[],"categories_nodes":[],"categories_segments":[],"categories_sizes":[],"default_left":[true,true,true,false,false,true,true,false,false,false,false],"id":1,"left_children":[1,3,5,-1,-1,7,9,-1,-1,-1,-1],"loss_changes":[1.889488E6,3.60311E5,8.05504E5,0E0,0E0,2.49779E5,3.85592E5,0E0,0E0,0E0,0E0],"parents":[2147483647,0,0,1,1,2,2,5,5,6,6],"right_children":[2,4,6,-1,-1,8,10,-1,-1,-1,-1],"split_conditions":[7.524866E1,6.6596936E2,6.0365883E1,3.6811764E1,2.1271349E1,1.06848946E2,-7.641548E0,4.0241978E1,2.3206495E1,5.261984E1,4.6642548E1],"split_indices":[4,2,14,0,0,9,18,0,0,0,0],"split_type":[0,0,0,0,0,0,0,0,0,0,0],"sum_hessian":[6.356E3,5.52E2,5.804E3,2.54E2,2.98E2,8.96E2,4.908E3,8.05E2,9.1E1,1.487E3,3.421E3],"tree_param":{"num_deleted":"0","num_feature":"52","num_nodes":"11","size_leaf_vector":"0"}},{"base_weights":[1.05828026E2,5.8024223E1,1.0916557E2,7.844134E1,4.970429E1,9.035057E1,1.1310258E2,1.0246672E2,7.914241E1,1.00432785E2,1.1778276E2],"categories":[],"categories_nodes":[],"categories_segments":[],"categories_sizes":[],"default_left":[true,true,true,false,false,true,true,false,false,false,false],"id":2,"left_children":[1,3,5,-1,-1,7,9,-1,-1,-1,-1],"loss_changes":[1.007904E6,6.69365E4,4.29864E5,0E0,0E0,1.32172E5,2.7926E5,0E0,0E0,0E0,0E0],"parents":[2147483647,0,0,1,1,2,2,5,5,6,6],"right_children":[2,4,6,-1,-1,8,10,-1,-1,-1,-1],"split_conditions":[1.5395504E1,6.349027E2,6.0365883E1,2.3532402E1,1.4911287E1,0E0,-1.7804465E-1,3.0740017E1,2.3742723E1,3.0129837E1,3.533483E1],"split_indices":[26,2,14,0,0,17,38,0,0,0,0],"split_type":[0,0,0,0,0,0,0,0,0,0,0],"sum_hessian":[6.356E3,4.16E2,5.94E3,1.18E2,2.98E2,1.032E3,4.908E3,4.92E2,5.4E2,1.33E3,3.578E3],"tree_param":{"num_deleted":"0","num_feature":"52","num_nodes":"11","size_leaf_vector":"0"}},{"base_weights":[7.410454E1,4.0709145E1,7.643609E1,5.510669E1,3.484287E1,9.375614E1,7.377706E1,5.1726437E1,6.765933E1,7.976816E1,9.4617035E1,9.481796E1,7.2120766E1],"categories":[],"categories_nodes":[],"categories_segments":[],"categories_sizes":[],"default_left":[true,true,true,true,false,true,true,false,false,false,false,false,false],"id":3,"left_children":[1,3,5,7,-1,9,11,-1,-1,-1,-1,-1,-1],"loss_changes":[4.91864E5,3.329975E4,2.66696E5,1.5495E3,0E0,1.93E3,1.72812E5,0E0,0E0,0E0,0E0,0E0,0E0],"parents":[2147483647,0,0,1,1,2,2,3,3,5,5,6,6],"right_children":[2,4,6,8,-1,10,12,-1,-1,-1,-1,-1,-1],"split_conditions":[1.5395504E1,6.349027E2,-3.026213E1,1.4453819E1,1.0452861E1,-2.3894553E0,2.013656E1,1.5517932E1,2.02978E1,2.3930449E1,2.838511E1,2.844539E1,2.163623E1],"split_indices":[26,2,13,1,0,1,24,0,0,0,0,0,0],"split_type":[0,0,0,0,0,0,0,0,0,0,0,0,0],"sum_hessian":[6.356E3,4.16E2,5.94E3,1.18E2,2.98E2,7.86E2,5.154E3,9.7E1,2.1E1,5.1E1,7.35E2,3.72E2,4.782E3],"tree_param":{"num_deleted":"0","num_feature":"52","num_nodes":"13","size_leaf_vector":"0"}},{"base_weights":[5.189656E1,4.3504074E1,5.6877766E1,3.1599459E1,5.1519054E1,5.186821E1,6.414701E1,3.884196E1,2.097038E1,4.585071E1,5.8378998E1,6.0220325E1,4.8005177E1,5.239008E1,6.8658134E1],"categories":[],"categories_nodes":[],"categories_segments":[],"categories_sizes":[],"default_left":[true,true,true,true,true,true,true,false,false,false,false,false,false,false,false],"id":4,"left_children":[1,3,5,7,9,11,13,-1,-1,-1,-1,-1,-1,-1,-1],"loss_changes":[2.63278E5,2.24697E5,1.41826E5,7.285644E4,5.238375E4,7.3415E4,8.2429E4,0E0,0E0,0E0,0E0,0E0,0E0,0E0,0E0],"parents":[2147483647,0,0,1,1,2,2,3,3,4,4,5,5,6,6],"right_children":[2,4,6,8,10,12,14,-1,-1,-1,-1,-1,-1,-1,-1],"split_conditions":[1.1295903E2,5.357373E0,-3.7764025E0,8.639783E1,-4.0745173E0,-1.8138876E1,3.3281522E0,1.1652589E1,6.2911143E0,1.3755214E1,1.75137E1,1.80661E1,1.4401553E1,1.5717025E1,2.059744E1],"split_indices":[9,49,0,9,0,12,1,0,0,0,0,0,0,0,0],"split_type":[0,0,0,0,0,0,0,0,0,0,0,0,0,0,0],"sum_hessian":[6.356E3,2.371E3,3.985E3,9.56E2,1.415E3,2.364E3,1.621E3,5.67E2,3.89E2,7.79E2,6.36E2,7.43E2,1.621E3,4.53E2,1.168E3],"tree_param":{"num_deleted":"0","num_feature":"52","num_nodes":"15","size_leaf_vector":"0"}},{"base_weights":[3.6346153E1,4.260057E1,3.2622646E1,4.7228127E1,4.0273033E1,2.6552116E1,3.7828945E1,3.8949684E1,4.11675E1,3.2923002E0,2.775699E1,4.2089176E1,2.6660131E1],"categories":[],"categories_nodes":[],"categories_segments":[],"categories_sizes":[],"default_left":[true,true,true,false,true,true,true,false,false,false,false,false,false],"id":5,"left_children":[1,3,5,-1,7,9,11,-1,-1,-1,-1,-1,-1],"loss_changes":[1.46655E5,2.3614E4,1.25068E5,0E0,2.7025E2,5.1615125E4,1.0094075E5,0E0,0E0,0E0,0E0,0E0,0E0],"parents":[2147483647,0,0,1,1,2,2,4,4,5,5,6,6],"right_children":[2,4,6,-1,8,10,12,-1,-1,-1,-1,-1,-1],"split_conditions":[-2.3295805E0,-1.4407428E1,-1.4653319E-1,1.4168439E1,6.264178E2,-2.2689031E-1,1.5154294E2,1.1684906E1,1.235025E1,9.876901E-1,8.327098E0,1.2626754E1,7.9980397E0],"split_indices":[22,12,42,0,3,38,4,0,0,0,0,0,0],"split_type":[0,0,0,0,0,0,0,0,0,0,0,0,0],"sum_hessian":[6.356E3,2.368E3,3.988E3,7.86E2,1.582E3,1.844E3,2.144E3,6.56E2,9.26E2,9.1E1,1.753E3,1.55E3,5.94E2],"tree_param":{"num_deleted":"0","num_feature":"52","num_nodes":"13","size_leaf_vector":"0"}},{"base_weights":[2.5453024E1,2.3805925E1,3.347888E1,3.0004696E1,2.1864721E1,4.651232E1,2.8612923E1,3.331829E1,2.8257744E1,3.464868E1,2.0891794E1,3.916743E1,4.9590897E1,3.466466E1,2.4869373E1],"categories":[],"categories_nodes":[],"categories_segments":[],"categories_sizes":[],"default_left":[true,true,true,true,true,true,true,false,false,false,false,false,false,false,false],"id":6,"left_children":[1,3,5,7,9,11,13,-1,-1,-1,-1,-1,-1,-1,-1],"loss_changes":[8.32385E4,6.285425E4,6.7163E4,6.329125E3,4.931375E4,4.66025E3,1.7012688E4,0E0,0E0,0E0,0E0,0E0,0E0,0E0,0E0],"parents":[2147483647,0,0,1,1,2,2,3,3,4,4,5,5,6,6],"right_children":[2,4,6,8,10,12,14,-1,-1,-1,-1,-1,-1,-1,-1],"split_conditions":[1.4140744E1,-7.641548E0,1.472344E1,1.7022786E0,-1.2657213E1,-1.5314452E-1,-7.3361244E0,9.995487E0,8.477324E0,1.0394605E1,6.2675385E0,1.175023E1,1.487727E1,1.0399399E1,7.460812E0],"split_indices":[1,18,1,1,17,42,18,0,0,0,0,0,0,0,0],"split_type":[0,0,0,0,0,0,0,0,0,0,0,0,0,0,0],"sum_hessian":[6.356E3,5.277E3,1.079E3,1.255E3,4.022E3,2.91E2,7.88E2,4.27E2,8.28E2,2.82E2,3.74E3,9E1,2.01E2,2.98E2,4.9E2],"tree_param":{"num_deleted":"0","num_feature":"52","num_nodes":"15","size_leaf_vector":"0"}},{"base_weights":[1.7829643E1,1.4432786E1,2.2872126E1,-4.6943674E0,1.54182205E1,3.4238953E1,2.0255667E1,4.4550257E0,-7.294231E0,2.0531519E1,1.2592821E1,2.332103E1,4.7776352E1,1.4485597E1,2.8052376E1],"categories":[],"categories_nodes":[],"categories_segments":[],"categories_sizes":[],"default_left":[true,true,true,true,true,true,true,false,false,false,false,false,false,false,false],"id":7,"left_children":[1,3,5,7,9,11,13,-1,-1,-1,-1,-1,-1,-1,-1],"loss_changes":[1.08556375E5,7.171575E4,7.535375E4,4.480698E3,5.1967688E4,6.938656E4,9.321269E4,0E0,0E0,0E0,0E0,0E0,0E0,0E0,0E0],"parents":[2147483647,0,0,1,1,2,2,3,3,4,4,5,5,6,6],"right_children":[2,4,6,8,10,12,14,-1,-1,-1,-1,-1,-1,-1,-1],"split_conditions":[-3.7764025E0,-2.0026264E0,-3.3106353E0,5.301968E2,-2.3295805E0,-3.332741E0,9.357292E0,1.3365078E0,-2.1882694E0,6.159456E0,3.7778466E0,6.9963093E0,1.4332906E1,4.3456793E0,8.415713E0],"split_indices":[0,1,0,3,22,0,1,0,0,0,0,0,0,0,0],"split_type":[0,0,0,0,0,0,0,0,0,0,0,0,0,0,0],"sum_hessian":[6.356E3,3.8E3,2.556E3,1.86E2,3.614E3,4.76E2,2.08E3,4.1E1,1.45E2,1.284E3,2.33E3,2.65E2,2.11E2,1.197E3,8.83E2],"tree_param":{"num_deleted":"0","num_feature":"52","num_nodes":"15","size_leaf_vector":"0"}},{"base_weights":[1.2487544E1,1.010534E1,1.6023825E1,-3.2906153E0,1.0795503E1,2.4011986E1,1.4185104E1,6.6947514E-1,-8.595605E0,1.5659386E1,8.689645E0,1.6351025E1,3.351106E1,1.0143551E1,1.9646185E1],"categories":[],"categories_nodes":[],"categories_segments":[],"categories_sizes":[],"default_left":[true,true,true,true,true,true,true,false,false,false,false,false,false,false,false],"id":8,"left_children":[1,3,5,7,9,11,13,-1,-1,-1,-1,-1,-1,-1,-1],"loss_changes":[5.3390312E4,3.517725E4,3.7216562E4,3.934295E3,3.6891094E4,3.4164312E4,4.573097E4,0E0,0E0,0E0,0E0,0E0,0E0,0E0,0E0],"parents":[2147483647,0,0,1,1,2,2,3,3,4,4,5,5,6,6],"right_children":[2,4,6,8,10,12,14,-1,-1,-1,-1,-1,-1,-1,-1],"split_conditions":[-3.7764025E0,-2.0026264E0,-3.3106353E0,1.0386581E0,1.9676075E0,-3.332741E0,9.357292E0,2.0084254E-1,-2.5786815E0,4.697816E0,2.6068935E0,4.905308E0,1.0053318E1,3.0430653E0,5.8938556E0],"split_indices":[0,1,0,27,1,0,1,0,0,0,0,0,0,0,0],"split_type":[0,0,0,0,0,0,0,0,0,0,0,0,0,0,0],"sum_hessian":[6.356E3,3.8E3,2.556E3,1.86E2,3.614E3,4.76E2,2.08E3,1.07E2,7.9E1,1.09E3,2.524E3,2.65E2,2.11E2,1.197E3,8.83E2],"tree_param":{"num_deleted":"0","num_feature":"52","num_nodes":"15","size_leaf_vector":"0"}},{"base_weights":[8.745817E0,1.0764248E1,5.0209904E0,7.398262E0,1.2365022E1,-3.3282097E-2,8.795926E0,1.1284814E1,3.6043916E0,1.0174767E1,1.6073334E1,6.1639123E0,-3.9845986E0,7.6081514E0,1.3517303E1],"categories":[],"categories_nodes":[],"categories_segments":[],"categories_sizes":[],"default_left":[true,true,true,true,true,true,true,false,false,false,false,false,false,false,false],"id":9,"left_children":[1,3,5,7,9,11,13,-1,-1,-1,-1,-1,-1,-1,-1],"loss_changes":[4.7739812E4,2.2118625E4,4.266217E4,1.9585023E4,2.25135E4,2.3458693E4,7.0753125E3,0E0,0E0,0E0,0E0,0E0,0E0,0E0,0E0],"parents":[2147483647,0,0,1,1,2,2,3,3,4,4,5,5,6,6],"right_children":[2,4,6,8,10,12,14,-1,-1,-1,-1,-1,-1,-1,-1],"split_conditions":[4.273303E0,-1.7804465E-1,3.306593E1,7.6744666E2,-3.443799E0,6.2400037E2,1.4140744E1,3.3854444E0,1.0813175E0,3.0524302E0,4.8220005E0,1.8491738E0,-1.1953796E0,2.2824454E0,4.055191E0],"split_indices":[8,38,24,2,0,2,1,0,0,0,0,0,0,0,0],"split_type":[0,0,0,0,0,0,0,0,0,0,0,0,0,0,0],"sum_hessian":[6.356E3,4.121E3,2.235E3,1.33E3,2.791E3,9.56E2,1.279E3,6.56E2,6.74E2,1.757E3,1.034E3,3.72E2,5.84E2,1.024E3,2.55E2],"tree_param":{"num_deleted":"0","num_feature":"52","num_nodes":"15","size_leaf_vector":"0"}},{"base_weights":[6.125115E0,-5.4156632E0,6.56118E0,-1.7170355E0,-1.2289438E1,5.6690526E0,1.1661922E1,-7.577667E0,5.1596963E-1,-3.5923817E1,-8.062267E0,6.0199084E0,-6.6427345E0,1.582264E1,9.360439E0],"categories":[],"categories_nodes":[],"categories_segments":[],"categories_sizes":[],"default_left":[true,true,true,true,true,true,true,false,false,false,false,false,false,false,false],"id":10,"left_children":[1,3,5,7,9,11,13,-1,-1,-1,-1,-1,-1,-1,-1],"loss_changes":[3.2027344E4,5.877158E3,2.7810344E4,1.9931068E3,7.8028027E3,2.2571344E4,8.575477E3,0E0,0E0,0E0,0E0,0E0,0E0,0E0,0E0],"parents":[2147483647,0,0,1,1,2,2,3,3,4,4,5,5,6,6],"right_children":[2,4,6,8,10,12,14,-1,-1,-1,-1,-1,-1,-1,-1],"split_conditions":[-2.3713562E1,1.1926576E0,1.4140744E1,-2.9086187E1,7.6139905E2,1.1980305E1,1.0831219E-1,-2.2733002E0,1.547909E-1,-1.0777145E1,-2.4186802E0,1.8059726E0,-1.9928204E0,4.7467923E0,2.808132E0],"split_indices":[0,27,1,0,2,1,32,0,0,0,0,0,0,0,0],"split_type":[0,0,0,0,0,0,0,0,0,0,0,0,0,0,0],"sum_hessian":[6.356E3,2.31E2,6.125E3,1.51E2,8E1,5.215E3,9.1E2,4.1E1,1.1E2,1.1E1,6.9E1,5.071E3,1.44E2,3.22E2,5.88E2],"tree_param":{"num_deleted":"0","num_feature":"52","num_nodes":"15","size_leaf_vector":"0"}},{"base_weights":[4.2863326E0,-2.990791E0,4.796394E0,1.1908224E0,-4.6450424E0,-4.1908946E0,5.1296973E0,-2.0282633E0,5.5227065E0,-4.200265E0,-9.799756E0,-2.2448122E1,-2.5941246E0,1.1148971E1,4.7252154E0],"categories":[],"categories_nodes":[],"categories_segments":[],"categories_sizes":[],"default_left":[true,true,true,true,true,true,true,false,false,false,false,false,false,false,false],"id":11,"left_children":[1,3,5,7,9,11,13,-1,-1,-1,-1,-1,-1,-1,-1],"loss_changes":[2.3610133E4,2.8901045E3,1.7817734E4,1.6706215E3,6.4435596E2,6.1512705E3,1.3895641E4,0E0,0E0,0E0,0E0,0E0,0E0,0E0,0E0],"parents":[2147483647,0,0,1,1,2,2,3,3,4,4,5,5,6,6],"right_children":[2,4,6,8,10,12,14,-1,-1,-1,-1,-1,-1,-1,-1],"split_conditions":[1.5395504E1,6.349027E2,-2.3713562E1,-4.98742E0,7.114027E0,5.734514E1,-1.2657213E1,-6.08479E-1,1.6568121E0,-1.2600795E0,-2.9399269E0,-6.734437E0,-7.782374E-1,3.3446913E0,1.4175646E0],"split_indices":[26,2,0,0,0,14,17,0,0,0,0,0,0,0,0],"split_type":[0,0,0,0,0,0,0,0,0,0,0,0,0,0,0],"sum_hessian":[6.356E3,4.16E2,5.94E3,1.18E2,2.98E2,2.12E2,5.728E3,6.8E1,5E1,2.76E2,2.2E1,1.6E1,1.96E2,3.59E2,5.369E3],"tree_param":{"num_deleted":"0","num_feature":"52","num_nodes":"15","size_leaf_vector":"0"}},{"base_weights":[2.999498E0,5.3821497E0,1.7865399E0,8.606224E0,4.2886815E0,7.5412693E0,1.2273779E0,5.688253E0,1.6708197E1,-7.809124E-1,5.504733E0,4.01548E0,1.2059062E1,-7.185592E-2,3.8188128E0],"categories":[],"categories_nodes":[],"categories_segments":[],"categories_sizes":[],"default_left":[true,true,true,true,true,true,true,false,false,false,false,false,false,false,false],"id":12,"left_children":[1,3,5,7,9,11,13,-1,-1,-1,-1,-1,-1,-1,-1],"loss_changes":[1.8362477E4,7.5215977E3,1.3550662E4,1.2718555E4,9.886615E3,5.8930156E3,1.2935828E4,0E0,0E0,0E0,0E0,0E0,0E0,0E0,0E0],"parents":[2147483647,0,0,1,1,2,2,3,3,4,4,5,5,6,6],"right_children":[2,4,6,8,10,12,14,-1,-1,-1,-1,-1,-1,-1,-1],"split_conditions":[-7.3361244E0,1.7022786E0,5.6378765E0,2.341972E0,2.9432638E0,-3.3856788E0,8.355483E0,1.706476E0,5.0124593E0,-2.3427373E-1,1.65142E0,1.2046441E0,3.6177187E0,-2.1556776E-2,1.145644E0],"split_indices":[18,1,34,0,1,0,18,0,0,0,0,0,0,0,0],"split_type":[0,0,0,0,0,0,0,0,0,0,0,0,0,0,0],"sum_hessian":[6.356E3,2.143E3,4.213E3,5.41E2,1.602E3,3.72E2,3.841E3,3.99E2,1.42E2,3.1E2,1.292E3,2.1E2,1.62E2,2.559E3,1.282E3],"tree_param":{"num_deleted":"0","num_feature":"52","num_nodes":"15","size_leaf_vector":"0"}},{"base_weights":[2.1018648E0,5.6506677E0,1.6001579E0,9.779431E0,2.725067E0,2.740601E0,9.8809734E-2,1.2892542E1,6.346259E0,-1.2155302E1,3.6041617E0,1.9475275E0,6.1082625E0,-3.660993E0,2.1888754E0],"categories":[],"categories_nodes":[],"categories_segments":[],"categories_sizes":[],"default_left":[true,true,true,true,true,true,true,false,false,false,false,false,false,false,false],"id":13,"left_children":[1,3,5,7,9,11,13,-1,-1,-1,-1,-1,-1,-1,-1],"loss_changes":[1.130934E4,9.479615E3,9.538408E3,3.402416E3,6.087351E3,8.443867E3,1.8914928E4,0E0,0E0,0E0,0E0,0E0,0E0,0E0,0E0],"parents":[2147483647,0,0,1,1,2,2,3,3,4,4,5,5,6,6],"right_children":[2,4,6,8,10,12,14,-1,-1,-1,-1,-1,-1,-1,-1],"split_conditions":[-3.026213E1,2.3941884E0,5.1420605E-1,-8.417554E0,2.6711807E0,1.4140744E1,5.624963E0,3.8677628E0,1.9038779E0,-3.6465907E0,1.0812485E0,5.8425826E-1,1.8324789E0,-1.098298E0,6.5666264E-1],"split_indices":[13,1,32,0,1,1,49,0,0,0,0,0,0,0,0],"split_type":[0,0,0,0,0,0,0,0,0,0,0,0,0,0,0],"sum_hessian":[6.356E3,7.86E2,5.57E3,3.25E2,4.61E2,3.165E3,2.405E3,1.69E2,1.56E2,2.5E1,4.36E2,2.563E3,6.02E2,8.59E2,1.546E3],"tree_param":{"num_deleted":"0","num_feature":"52","num_nodes":"15","size_leaf_vector":"0"}},{"base_weights":[1.4721202E0,-1.0812341E1,1.5948285E0,-6.125626E0,-2.2188814E1,4.3160377E0,1.213117E0,-3.2423143E0,-9.711816E0,3.0531862E0,6.3787627E0,4.3944895E-1,2.3550344E0],"categories":[],"categories_nodes":[],"categories_segments":[],"categories_sizes":[],"default_left":[true,true,true,true,false,true,true,false,false,false,false,false,false],"id":14,"left_children":[1,3,5,7,-1,9,11,-1,-1,-1,-1,-1,-1],"loss_changes":[9.599821E3,3.2231313E3,6.5334863E3,4.44156E2,0E0,1.9967295E3,4.8774585E3,0E0,0E0,0E0,0E0,0E0,0E0],"parents":[2147483647,0,0,1,1,2,2,3,3,5,5,6,6],"right_children":[2,4,6,8,-1,10,12,-1,-1,-1,-1,-1,-1],"split_conditions":[-2.9086187E1,1.0091033E0,-1.2593037E1,3.6666094E3,-6.6566443E0,-3.7764025E0,-3.697366E0,-9.7269434E-1,-2.913545E0,9.159559E-1,1.9136289E0,1.3183469E-1,7.065103E-1],"split_indices":[0,32,18,20,0,0,0,0,0,0,0,0,0],"split_type":[0,0,0,0,0,0,0,0,0,0,0,0,0],"sum_hessian":[6.356E3,6.2E1,6.294E3,4.5E1,1.7E1,7.73E2,5.521E3,2.6E1,1.9E1,4.81E2,2.92E2,3.292E3,2.229E3],"tree_param":{"num_deleted":"0","num_feature":"52","num_nodes":"13","size_leaf_vector":"0"}},{"base_weights":[1.0294011E0,8.179304E-1,7.5691924E0,2.3675995E0,9.184751E-2,-4.2444367E0,1.3331359E1,9.639666E-1,5.6690426E0,-5.9354E0,9.707274E-1,-1.1158533E0,-1.2525334E1,1.4773541E1,5.3178163E0],"categories":[],"categories_nodes":[],"categories_segments":[],"categories_sizes":[],"default_left":[true,true,true,true,true,true,true,false,false,false,false,false,false,false,false],"id":15,"left_children":[1,3,5,7,9,11,13,-1,-1,-1,-1,-1,-1,-1,-1],"loss_changes":[8.785373E3,6.929817E3,1.3602933E4,9.100373E3,2.2227627E4,1.6959172E3,1.4700742E3,0E0,0E0,0E0,0E0,0E0,0E0,0E0,0E0],"parents":[2147483647,0,0,1,1,2,2,3,3,4,4,5,5,6,6],"right_children":[2,4,6,8,10,12,14,-1,-1,-1,-1,-1,-1,-1,-1],"split_conditions":[2.120243E1,2.069364E0,-2.0278683E1,2.221894E1,2.9432638E0,-2.1216274E1,2.75779E1,2.8919E-1,1.7007128E0,-1.7806201E0,2.9121822E-1,-3.3475602E-1,-3.7576005E0,4.4320626E0,1.5953449E0],"split_indices":[1,1,0,31,1,0,8,0,0,0,0,0,0,0,0],"split_type":[0,0,0,0,0,0,0,0,0,0,0,0,0,0,0],"sum_hessian":[6.356E3,6.158E3,1.98E2,1.964E3,4.194E3,6.5E1,1.33E2,1.379E3,5.85E2,5.33E2,3.661E3,4.8E1,1.7E1,1.12E2,2.1E1],"tree_param":{"num_deleted":"0","num_feature":"52","num_nodes":"15","size_leaf_vector":"0"}},{"base_weights":[7.209666E-1,-4.352365E0,9.1298294E-1,-5.7193003E0,2.593713E-1,1.5673784E0,-2.8328806E-1,-1.7062168E1,-4.802075E0,3.3305633E0,-6.6209035E0,2.9368725E0,9.5073295E-1,1.0414152E-1,-9.77426E0],"categories":[],"categories_nodes":[],"categories_segments":[],"categories_sizes":[],"default_left":[true,true,true,true,true,true,true,false,false,false,false,false,false,false,false],"id":16,"left_children":[1,3,5,7,9,11,13,-1,-1,-1,-1,-1,-1,-1,-1],"loss_changes":[6.1967236E3,1.4639985E3,4.7960874E3,1.780376E3,1.1631061E3,3.3413965E3,7.9692573E3,0E0,0E0,0E0,0E0,0E0,0E0,0E0,0E0],"parents":[2147483647,0,0,1,1,2,2,3,3,4,4,5,5,6,6],"right_children":[2,4,6,8,10,12,14,-1,-1,-1,-1,-1,-1,-1,-1],"split_conditions":[-2.3713562E1,-2.875936E-1,4.273303E0,5.734514E1,1.3103275E1,-8.25041E0,2.2515732E1,-5.1186504E0,-1.4406226E0,9.9916905E-1,-1.9862711E0,8.810618E-1,2.852199E-1,3.1242456E-2,-2.932278E0],"split_indices":[0,47,8,14,36,0,34,0,0,0,0,0,0,0,0],"split_type":[0,0,0,0,0,0,0,0,0,0,0,0,0,0,0],"sum_hessian":[6.356E3,2.31E2,6.125E3,1.78E2,5.3E1,3.959E3,2.166E3,1.2E1,1.66E2,3.7E1,1.6E1,1.228E3,2.731E3,2.082E3,8.4E1],"tree_param":{"num_deleted":"0","num_feature":"52","num_nodes":"15","size_leaf_vector":"0"}},{"base_weights":[5.032162E-1,-1.5997761E-1,1.5177315E0,-8.923489E0,2.8794163E-1,9.031318E0,-4.6372518E-2,4.9534687E-1,-9.929609E0,9.28354E0,-6.4608194E-2,-9.713926E0,1.0859249E1,-2.15501E0,2.766772E0],"categories":[],"categories_nodes":[],"categories_segments":[],"categories_sizes":[],"default_left":[true,true,true,true,true,true,true,false,false,false,false,false,false,false,false],"id":17,"left_children":[1,3,5,7,9,11,13,-1,-1,-1,-1,-1,-1,-1,-1],"loss_changes":[4.277361E3,1.5095522E4,2.953327E4,1.7770205E3,1.160474E4,1.4942246E4,1.235025E4,0E0,0E0,0E0,0E0,0E0,0E0,0E0,0E0],"parents":[2147483647,0,0,1,1,2,2,3,3,4,4,5,5,6,6],"right_children":[2,4,6,8,10,12,14,-1,-1,-1,-1,-1,-1,-1,-1],"split_conditions":[-3.697366E0,-2.0026264E0,-3.3106353E0,1.5395504E1,-1.2992785E0,3.163263E0,9.328178E0,1.4860407E-1,-2.9788828E0,2.785062E0,-1.9382458E-2,-2.914178E0,3.2577748E0,-6.4650303E-1,8.3003163E-1],"split_indices":[0,1,0,26,1,1,1,0,0,0,0,0,0,0,0],"split_type":[0,0,0,0,0,0,0,0,0,0,0,0,0,0,0],"sum_hessian":[6.356E3,3.844E3,2.512E3,1.86E2,3.658E3,4.32E2,2.08E3,1.8E1,1.68E2,1.37E2,3.521E3,3.8E1,3.94E2,1.189E3,8.91E2],"tree_param":{"num_deleted":"0","num_feature":"52","num_nodes":"15","size_leaf_vector":"0"}},{"base_weights":[3.523214E-1,1.6391667E0,-2.4048296E-1,3.8517268E0,1.0486217E-1,-6.436279E0,2.7268305E-1,-3.4944222E0,5.459113E0,-5.239826E0,2.1999574E0,-8.6495084E-1,-2.4044792E1,-1.9751322E0,1.3893785E0],"categories":[],"categories_nodes":[],"categories_segments":[],"categories_sizes":[],"default_left":[true,true,true,true,true,true,true,false,false,false,false,false,false,false,false],"id":18,"left_children":[1,3,5,7,9,11,13,-1,-1,-1,-1,-1,-1,-1,-1],"loss_changes":[4.849816E3,6.8060513E3,1.3841995E4,9.713526E3,1.328072E4,3.2647434E4,1.0095958E4,0E0,0E0,0E0,0E0,0E0,0E0,0E0,0E0],"parents":[2147483647,0,0,1,1,2,2,3,3,4,4,5,5,6,6],"right_children":[2,4,6,8,10,12,14,-1,-1,-1,-1,-1,-1,-1,-1],"split_conditions":[2.1050086E0,-8.25041E0,2.6711807E0,7.524866E1,-6.0818615E0,6.6461134E0,-6.881608E0,-1.0483267E0,1.637734E0,-1.5719479E0,6.599872E-1,-2.5948527E-1,-7.213438E0,-5.9253967E-1,4.1681358E-1],"split_indices":[1,0,1,4,0,0,0,0,0,0,0,0,0,0,0],"split_type":[0,0,0,0,0,0,0,0,0,0,0,0,0,0,0],"sum_hessian":[6.356E3,2.004E3,4.352E3,8.2E2,1.184E3,3.32E2,4.02E3,1.47E2,6.73E2,3.33E2,8.51E2,2.53E2,7.9E1,1.334E3,2.686E3],"tree_param":{"num_deleted":"0","num_feature":"52","num_nodes":"15","size_leaf_vector":"0"}},{"base_weights":[2.4537331E-1,8.315445E-2,5.2647734E0,8.8534886E-1,-1.1935744E0,1.144299E1,2.1128535E0,-1.0625536E-1,8.976905E0,-5.389106E0,-3.0857265E-1,1.6126015E1,8.07995E0,-4.093928E0,6.96735E0],"categories":[],"categories_nodes":[],"categories_segments":[],"categories_sizes":[],"default_left":[true,true,true,true,true,true,true,false,false,false,false,false,false,false,false],"id":19,"left_children":[1,3,5,7,9,11,13,-1,-1,-1,-1,-1,-1,-1,-1],"loss_changes":[5.1756943E3,6.3090107E3,3.850998E3,3.0354309E4,8.824263E3,9.248994E2,4.03592E3,0E0,0E0,0E0,0E0,0E0,0E0,0E0,0E0],"parents":[2147483647,0,0,1,1,2,2,3,3,4,4,5,5,6,6],"right_children":[2,4,6,8,10,12,14,-1,-1,-1,-1,-1,-1,-1,-1],"split_conditions":[2.120243E1,5.542713E0,2.342051E1,5.0190315E0,7.0173826E0,8.9538345E1,4.9569725E1,-3.187661E-2,2.6930716E0,-1.6167318E0,-9.2571795E-2,4.837805E0,2.4239852E0,-1.2281784E0,2.0902052E0],"split_indices":[1,1,1,1,1,11,1,0,0,0,0,0,0,0,0],"split_type":[0,0,0,0,0,0,0,0,0,0,0,0,0,0,0],"sum_hessian":[6.356E3,6.158E3,1.98E2,3.782E3,2.376E3,6.6E1,1.32E2,3.37E3,4.12E2,4.13E2,1.963E3,2.6E1,4E1,5.8E1,7.4E1],"tree_param":{"num_deleted":"0","num_feature":"52","num_nodes":"15","size_leaf_vector":"0"}},{"base_weights":[1.7318942E-1,1.2812954E0,-4.7744426E-1,3.0866272E0,9.0417874E-1,-7.9634433E0,-3.014061E-1,-3.6665673E0,4.2000904E0,-7.9230466E0,1.037105E0,-1.2671596E1,-9.394483E-1,-5.754781E-1,2.3182342E0],"categories":[],"categories_nodes":[],"categories_segments":[],"categories_sizes":[],"default_left":[true,true,true,true,true,true,true,false,false,false,false,false,false,false,false],"id":20,"left_children":[1,3,5,7,9,11,13,-1,-1,-1,-1,-1,-1,-1,-1],"loss_changes":[4.5838247E3,1.5984995E3,5.2767925E3,3.0682898E3,2.292767E3,3.030539E3,2.8121865E3,0E0,0E0,0E0,0E0,0E0,0E0,0E0,0E0],"parents":[2147483647,0,0,1,1,2,2,3,3,4,4,5,5,6,6],"right_children":[2,4,6,8,10,12,14,-1,-1,-1,-1,-1,-1,-1,-1],"split_conditions":[1.0831219E-1,7.4285764E-1,7.3590796E2,-1.1628689E1,8.960907E-1,-3.7408445E0,1.2154652E1,-1.0999702E0,1.2600272E0,-2.376914E0,3.111315E-1,-3.8014789E0,-2.818345E-1,-1.7264342E-1,6.954703E-1],"split_indices":[32,1,2,0,1,0,0,0,0,0,0,0,0,0,0],"split_type":[0,0,0,0,0,0,0,0,0,0,0,0,0,0,0],"sum_hessian":[6.356E3,2.351E3,4.005E3,4.05E2,1.946E3,9.1E1,3.914E3,5.7E1,3.48E2,2.8E1,1.918E3,5.4E1,3.7E1,3.544E3,3.7E2],"tree_param":{"num_deleted":"0","num_feature":"52","num_nodes":"15","size_leaf_vector":"0"}},{"base_weights":[1.2037171E-1,1.5452968E0,-2.0302317E-1,-2.0252903E0,2.6949744E0,-1.0635744E1,-1.3001345E-1,-5.02526E0,-1.1066331E0,-4.2636433E-1,4.3149633E0,-2.3381512E0,-1.4687118E1,-5.435539E-1,1.4277757E0],"categories":[],"categories_nodes":[],"categories_segments":[],"categories_sizes":[],"default_left":[true,true,true,true,true,true,true,false,false,false,false,false,false,false,false],"id":21,"left_children":[1,3,5,7,9,11,13,-1,-1,-1,-1,-1,-1,-1,-1],"loss_changes":[2.9297048E3,4.832967E3,3.9456948E3,7.853948E2,4.502155E3,1.1758584E3,3.3165188E3,0E0,0E0,0E0,0E0,0E0,0E0,0E0,0E0],"parents":[2147483647,0,0,1,1,2,2,3,3,4,4,5,5,6,6],"right_children":[2,4,6,8,10,12,14,-1,-1,-1,-1,-1,-1,-1,-1],"split_conditions":[8.0554575E-1,1.0469173E2,8.5406667E-1,-4.0687065E0,-2.3894553E0,8.5929004E2,1.4140744E1,-1.507578E0,-3.3198994E-1,-1.279093E-1,1.294489E0,-7.014454E-1,-4.4061356E0,-1.6306618E-1,4.2833275E-1],"split_indices":[1,4,1,1,1,2,1,0,0,0,0,0,0,0,0],"split_type":[0,0,0,0,0,0,0,0,0,0,0,0,0,0,0],"sum_hessian":[6.356E3,1.175E3,5.181E3,2.86E2,8.89E2,3.5E1,5.146E3,6.6E1,2.2E2,3.04E2,5.85E2,1.2E1,2.3E1,4.067E3,1.079E3],"tree_param":{"num_deleted":"0","num_feature":"52","num_nodes":"15","size_leaf_vector":"0"}},{"base_weights":[8.339455E-2,5.759662E-1,-6.762745E-1,1.230556E0,-6.0072193E0,-2.2748237E0,3.4809263E0,5.5132277E-2,5.8889465E0,1.4120668E-1,-1.9367355E1,6.350809E-1,-5.573694E0,-1.5237288E0,5.534606E0],"categories":[],"categories_nodes":[],"categories_segments":[],"categories_sizes":[],"default_left":[true,true,true,true,true,true,true,false,false,false,false,false,false,false,false],"id":22,"left_children":[1,3,5,7,9,11,13,-1,-1,-1,-1,-1,-1,-1,-1],"loss_changes":[2.3791245E3,1.6628309E4,1.6628287E4,1.9213496E4,2.8670924E4,1.7349652E4,7.1516143E3,0E0,0E0,0E0,0E0,0E0,0E0,0E0,0E0],"parents":[2147483647,0,0,1,1,2,2,3,3,4,4,5,5,6,6],"right_children":[2,4,6,8,10,12,14,-1,-1,-1,-1,-1,-1,-1,-1],"split_conditions":[5.71416E0,7.186469E0,5.9366736E0,-3.443799E0,2.134606E0,-5.236903E0,-4.109375E-1,1.6539684E-2,1.766684E0,4.2362005E-2,-5.810207E0,1.9052427E-1,-1.6721083E0,-4.5711866E-1,1.6603819E0],"split_indices":[1,0,0,0,1,0,42,0,0,0,0,0,0,0,0],"split_type":[0,0,0,0,0,0,0,0,0,0,0,0,0,0,0],"sum_hessian":[6.356E3,3.856E3,2.5E3,3.508E3,3.48E2,1.806E3,6.94E2,2.802E3,7.06E2,2.39E2,1.09E2,9.6E2,8.46E2,2.02E2,4.92E2],"tree_param":{"num_deleted":"0","num_feature":"52","num_nodes":"15","size_leaf_vector":"0"}},{"base_weights":[5.7706133E-2,3.0487427E-1,-1.3563867E0,4.093542E-1,-5.7412405E0,-3.8299765E-2,-6.399891E0,1.4583035E0,-7.969028E-2,-1.1045735E1,-2.2903097E0,-4.216876E0,2.209152E0,-1.0502762E1,-3.5988176E0],"categories":[],"categories_nodes":[],"categories_segments":[],"categories_sizes":[],"default_left":[true,true,true,true,true,true,true,false,false,false,false,false,false,false,false],"id":23,"left_children":[1,3,5,7,9,11,13,-1,-1,-1,-1,-1,-1,-1,-1],"loss_changes":[2.222304E3,3.421098E3,6.288552E3,2.729698E3,1.6588027E3,7.0620684E3,2.2147212E3,0E0,0E0,0E0,0E0,0E0,0E0,0E0,0E0],"parents":[2147483647,0,0,1,1,2,2,3,3,4,4,5,5,6,6],"right_children":[2,4,6,8,10,12,14,-1,-1,-1,-1,-1,-1,-1,-1],"split_conditions":[1.2303484E3,2.3463556E1,7.9900713E0,-8.25041E0,-5.963442E0,-7.565312E0,1.4258088E1,4.3749106E-1,-2.3907084E-2,-3.3137207E0,-6.870929E-1,-1.2650628E0,6.627456E-1,-3.1508286E0,-1.0796453E0],"split_indices":[2,13,1,0,0,0,1,0,0,0,0,0,0,0,0],"split_type":[0,0,0,0,0,0,0,0,0,0,0,0,0,0,0],"sum_hessian":[6.356E3,5.411E3,9.45E2,5.32E3,9.1E1,7.5E2,1.95E2,1.691E3,3.629E3,3.5E1,5.6E1,2.62E2,4.88E2,7.8E1,1.17E2],"tree_param":{"num_deleted":"0","num_feature":"52","num_nodes":"15","size_leaf_vector":"0"}},{"base_weights":[3.907157E-2,1.1805747E0,-3.3334187E-1,2.8979216E0,-9.542681E-1,-1.0539228E0,4.556966E-1,1.6865258E0,1.6250324E1,-2.8325334E0,1.713701E0,1.0532626E0,-2.266448E0,3.2438107E0,-2.703538E-1],"categories":[],"categories_nodes":[],"categories_segments":[],"categories_sizes":[],"default_left":[true,true,true,true,true,true,true,false,false,false,false,false,false,false,false],"id":24,"left_children":[1,3,5,7,9,11,13,-1,-1,-1,-1,-1,-1,-1,-1],"loss_changes":[2.7028247E3,5.7368047E3,2.726186E3,1.3996355E4,3.5026396E3,6.4052563E3,4.6345254E3,0E0,0E0,0E0,0E0,0E0,0E0,0E0,0E0],"parents":[2147483647,0,0,1,1,2,2,3,3,4,4,5,5,6,6],"right_children":[2,4,6,8,10,12,14,-1,-1,-1,-1,-1,-1,-1,-1],"split_conditions":[-3.1900058E0,5.5695944E0,4.7424297E0,5.014731E0,1.3357939E1,-8.25041E0,5.71416E0,5.059578E-1,4.8750973E0,-8.4976006E-1,5.141103E-1,3.159788E-1,-6.7993444E-1,9.731432E-1,-8.110614E-2],"split_indices":[22,1,1,1,1,0,1,0,0,0,0,0,0,0,0],"split_type":[0,0,0,0,0,0,0,0,0,0,0,0,0,0,0],"sum_hessian":[6.356E3,1.563E3,4.793E3,8.66E2,6.97E2,2.505E3,2.288E3,7.95E2,7.1E1,4.09E2,2.88E2,9.15E2,1.59E3,4.72E2,1.816E3],"tree_param":{"num_deleted":"0","num_feature":"52","num_nodes":"15","size_leaf_vector":"0"}},{"base_weights":[2.8225893E-2,-6.2685795E0,9.123948E-2,-3.2234805E0,-1.3702245E1,1.992235E0,-1.0828431E-1,-1.843203E0,-6.5854774E0,-7.0250273E0,3.3984241E0,3.0773094E-1,-1.3571305E0],"categories":[],"categories_nodes":[],"categories_segments":[],"categories_sizes":[],"default_left":[true,true,true,true,false,true,true,false,false,false,false,false,false],"id":25,"left_children":[1,3,5,7,-1,9,11,-1,-1,-1,-1,-1,-1],"loss_changes":[2.5229297E3,1.3819146E3,2.3878704E3,2.013241E2,0E0,7.606501E3,2.9607512E3,0E0,0E0,0E0,0E0,0E0,0E0],"parents":[2147483647,0,0,1,1,2,2,3,3,5,5,6,6],"right_children":[2,4,6,8,-1,10,12,-1,-1,-1,-1,-1,-1],"split_conditions":[-2.9086187E1,1.0091033E0,-5.562262E-1,1.7124786E2,-4.1106734E0,-7.769239E0,-2.3758996E0,-5.5296093E-1,-1.9756433E0,-2.1075082E0,1.0195273E0,9.231929E-2,-4.0713918E-1],"split_indices":[0,32,1,9,0,0,0,0,0,0,0,0,0],"split_type":[0,0,0,0,0,0,0,0,0,0,0,0,0],"sum_hessian":[6.356E3,6.2E1,6.294E3,4.5E1,1.7E1,5.97E2,5.697E3,3.3E1,1.2E1,8E1,5.17E2,4.274E3,1.423E3],"tree_param":{"num_deleted":"0","num_feature":"52","num_nodes":"13","size_leaf_vector":"0"}},{"base_weights":[1.8494371E-2,-4.7679788E-1,7.5474286E-1,-2.4206997E-1,-7.050915E0,3.3711133E0,-1.930136E-1,-3.7783676E-1,1.2411335E1,-1.0310672E1,-1.0055896E0,8.414429E0,1.5524149E0,-2.8045566E0,1.1433777E0],"categories":[],"categories_nodes":[],"categories_segments":[],"categories_sizes":[],"default_left":[true,true,true,true,true,true,true,false,false,false,false,false,false,false,false],"id":26,"left_children":[1,3,5,7,9,11,13,-1,-1,-1,-1,-1,-1,-1,-1],"loss_changes":[2.3184917E3,5.863725E3,6.3411973E3,6.311145E3,2.5711567E3,6.22408E3,6.5575083E3,0E0,0E0,0E0,0E0,0E0,0E0,0E0,0E0],"parents":[2147483647,0,0,1,1,2,2,3,3,4,4,5,5,6,6],"right_children":[2,4,6,8,10,12,14,-1,-1,-1,-1,-1,-1,-1,-1],"split_conditions":[-3.7764025E0,-4.439055E0,-2.8793535E0,-4.5869875E0,-4.0745173E0,6.63139E2,5.725888E0,-1.1335103E-1,3.7234006E0,-3.0932016E0,-3.016769E-1,2.5243287E0,4.657245E-1,-8.41367E-1,3.4301332E-1],"split_indices":[0,0,0,0,0,6,0,0,0,0,0,0,0,0,0],"split_type":[0,0,0,0,0,0,0,0,0,0,0,0,0,0,0],"sum_hessian":[6.356E3,3.8E3,2.556E3,3.67E3,1.3E2,6.79E2,1.877E3,3.632E3,3.8E1,8.4E1,4.6E1,1.79E2,5E2,6.35E2,1.242E3],"tree_param":{"num_deleted":"0","num_feature":"52","num_nodes":"15","size_leaf_vector":"0"}},{"base_weights":[1.3374079E-2,-9.102289E-2,3.2443666E0,-3.529128E-2,-7.0396924E0,-2.9413347E0,6.266844E0,6.136148E-2,-3.0640693E0,-1.5233991E1,-2.2104092E0,-6.10279E0,2.487563E0,1.2312567E1,5.034342E0],"categories":[],"categories_nodes":[],"categories_segments":[],"categories_sizes":[],"default_left":[true,true,true,true,true,true,true,false,false,false,false,false,false,false,false],"id":27,"left_children":[1,3,5,7,9,11,13,-1,-1,-1,-1,-1,-1,-1,-1],"loss_changes":[2.1445483E3,2.384889E3,3.738965E3,1.7891206E3,1.9053838E3,1.1479532E3,9.3649756E2,0E0,0E0,0E0,0E0,0E0,0E0,0E0,0E0],"parents":[2147483647,0,0,1,1,2,2,3,3,4,4,5,5,6,6],"right_children":[2,4,6,8,10,12,14,-1,-1,-1,-1,-1,-1,-1,-1],"split_conditions":[2.120243E1,1.9775965E1,-2.0278683E1,2.5938733E0,-9.566271E0,-5.684342E-14,-1.868108E1,1.8408446E-2,-9.192208E-1,-4.5701976E0,-6.631228E-1,-1.830837E0,7.4626887E-1,3.6937702E0,1.5103027E0],"split_indices":[1,1,0,23,0,12,0,0,0,0,0,0,0,0,0],"split_type":[0,0,0,0,0,0,0,0,0,0,0,0,0,0,0],"sum_hessian":[6.356E3,6.158E3,1.98E2,6.11E3,4.8E1,6.5E1,1.33E2,5.922E3,1.88E2,1.7E1,3.1E1,4.1E1,2.4E1,2.1E1,1.12E2],"tree_param":{"num_deleted":"0","num_feature":"52","num_nodes":"15","size_leaf_vector":"0"}},{"base_weights":[9.050486E-3,6.127345E-2,-5.2092447E0,-1.2802927E-1,2.289392E0,-1.1297244E1,-3.2392602E0,-1.8271137E-2,-2.0563696E1,9.444137E0,1.2191756E0,-5.312085E0,1.8132813E0],"categories":[],"categories_nodes":[],"categories_segments":[],"categories_sizes":[],"default_left":[true,true,true,true,true,false,true,false,false,false,false,false,false],"id":28,"left_children":[1,3,5,7,9,-1,11,-1,-1,-1,-1,-1,-1],"loss_changes":[1.7326959E3,2.655454E3,7.1898096E2,1.3015641E4,3.763449E3,0E0,5.228109E2,0E0,0E0,0E0,0E0,0E0,0E0],"parents":[2147483647,0,0,1,1,2,2,3,3,4,4,6,6],"right_children":[2,4,6,8,10,-1,12,-1,-1,-1,-1,-1,-1],"split_conditions":[1.5716629E1,1.2154652E1,8.639783E1,1.1328238E1,1.2914688E1,-3.3891733E0,1.7979366E1,-5.4813414E-3,-6.169109E0,2.833241E0,3.657527E-1,-1.5936257E0,5.439844E-1],"split_indices":[0,0,9,0,0,0,0,0,0,0,0,0,0],"split_type":[0,0,0,0,0,0,0,0,0,0,0,0,0],"sum_hessian":[6.356E3,6.294E3,6.2E1,5.802E3,4.92E2,1.4E1,4.8E1,5.772E3,3E1,6.3E1,4.29E2,3.4E1,1.4E1],"tree_param":{"num_deleted":"0","num_feature":"52","num_nodes":"13","size_leaf_vector":"0"}},{"base_weights":[5.1670983E-3,6.040415E-1,-4.170496E-1,-6.318022E-1,1.4406881E0,-1.9186732E0,-2.8837467E-2,3.9070857E-1,-5.040777E0,7.630913E0,1.0183171E0,-5.502627E0,-3.705164E-1,1.6879436E0,-7.452433E-1],"categories":[],"categories_nodes":[],"categories_segments":[],"categories_sizes":[],"default_left":[true,true,true,true,true,true,true,false,false,false,false,false,false,false,false],"id":29,"left_children":[1,3,5,7,9,11,13,-1,-1,-1,-1,-1,-1,-1,-1],"loss_changes":[1.6076497E3,2.719203E3,2.1737595E3,4.789704E3,4.0918784E3,4.2481294E3,3.646717E3,0E0,0E0,0E0,0E0,0E0,0E0,0E0,0E0],"parents":[2147483647,0,0,1,1,2,2,3,3,4,4,5,5,6,6],"right_children":[2,4,6,8,10,12,14,-1,-1,-1,-1,-1,-1,-1,-1],"split_conditions":[2.727963E-1,-6.881608E0,-1.734049E-1,1.181766E0,7.22075E1,-9.444514E0,-8.25041E0,1.1721257E-1,-1.5122333E0,2.289274E0,3.0549514E-1,-1.6507882E0,-1.1115492E-1,5.063831E-1,-2.23573E-1],"split_indices":[32,0,38,27,4,0,0,0,0,0,0,0,0,0,0],"split_type":[0,0,0,0,0,0,0,0,0,0,0,0,0,0,0],"sum_hessian":[6.356E3,2.628E3,3.728E3,1.061E3,1.567E3,7.65E2,2.963E3,8.62E2,1.99E2,9.9E1,1.468E3,2.3E2,5.35E2,8.72E2,2.091E3],"tree_param":{"num_deleted":"0","num_feature":"52","num_nodes":"15","size_leaf_vector":"0"}},{"base_weights":[3.5731837E-3,-2.619972E0,6.9563106E-2,2.8969965E0,-5.173509E0,6.588277E0,-9.15355E-3,5.4475026E0,-1.2011375E0,-3.8080902E0,-1.2701323E1,1.3466364E1,2.108868E0,-7.689413E0,7.315907E-2],"categories":[],"categories_nodes":[],"categories_segments":[],"categories_sizes":[],"default_left":[true,true,true,true,true,true,true,false,false,false,false,false,false,false,false],"id":30,"left_children":[1,3,5,7,9,11,13,-1,-1,-1,-1,-1,-1,-1,-1],"loss_changes":[1.1007539E3,2.212682E3,3.1825005E3,5.2915894E2,1.0514443E3,2.2515237E3,3.875208E3,0E0,0E0,0E0,0E0,0E0,0E0,0E0,0E0],"parents":[2147483647,0,0,1,1,2,2,3,3,4,4,5,5,6,6],"right_children":[2,4,6,8,10,12,14,-1,-1,-1,-1,-1,-1,-1,-1],"split_conditions":[-6.509948E0,-8.648897E0,-6.239132E0,-2.0242056E-2,5.4348754E-3,-2.2439379E1,-4.0687065E0,1.6342509E0,-3.6034128E-1,-1.1424271E0,-3.810397E0,4.0399094E0,6.326604E-1,-2.306824E0,2.1947721E-2],"split_indices":[1,1,1,43,48,7,1,0,0,0,0,0,0,0,0],"split_type":[0,0,0,0,0,0,0,0,0,0,0,0,0,0,0],"sum_hessian":[6.356E3,1.55E2,6.201E3,4.9E1,1.06E2,7.3E1,6.128E3,3E1,1.9E1,9.1E1,1.5E1,2.8E1,4.5E1,6.4E1,6.064E3],"tree_param":{"num_deleted":"0","num_feature":"52","num_nodes":"15","size_leaf_vector":"0"}},{"base_weights":[2.3030306E-3,5.9251237E-1,-3.069491E-1,3.0890435E-1,8.356414E0,-1.7655277E1,-1.2200519E-1,-2.094836E0,8.706736E-1,4.8990397E0,1.7964977E1,-5.4006634E0,-2.3807642E1,4.4357935E-1,-1.444652E0],"categories":[],"categories_nodes":[],"categories_segments":[],"categories_sizes":[],"default_left":[true,true,true,true,true,true,true,false,false,false,false,false,false,false,false],"id":31,"left_children":[1,3,5,7,9,11,13,-1,-1,-1,-1,-1,-1,-1,-1],"loss_changes":[1.1604838E3,4.810782E3,1.3383573E4,2.8510571E3,2.4699595E3,3.188796E3,3.0894158E3,0E0,0E0,0E0,0E0,0E0,0E0,0E0,0E0],"parents":[2147483647,0,0,1,1,2,2,3,3,4,4,5,5,6,6],"right_children":[2,4,6,8,10,12,14,-1,-1,-1,-1,-1,-1,-1,-1],"split_conditions":[2.3941884E0,2.2670398E0,2.4377651E0,-1.3194098E0,6.534619E1,-6.284375E-1,1.0476781E0,-6.284508E-1,2.612021E-1,1.469712E0,5.3894935E0,-1.6201991E0,-7.142293E0,1.330738E-1,-4.333956E-1],"split_indices":[1,1,1,28,19,42,23,0,0,0,0,0,0,0,0],"split_type":[0,0,0,0,0,0,0,0,0,0,0,0,0,0,0],"sum_hessian":[6.356E3,2.185E3,4.171E3,2.109E3,7.6E1,4.3E1,4.128E3,3.99E2,1.71E3,5.7E1,1.9E1,1.5E1,2.8E1,2.892E3,1.236E3],"tree_param":{"num_deleted":"0","num_feature":"52","num_nodes":"15","size_leaf_vector":"0"}},{"base_weights":[1.2081207E-3,-2.5183792E0,9.6628144E-2,-3.133984E0,4.547821E0,7.383797E0,2.697047E-2,-3.521401E0,2.240507E0,4.6319113E0,1.75467E1,-3.7050138E0,1.01593085E-1],"categories":[],"categories_nodes":[],"categories_segments":[],"categories_sizes":[],"default_left":[true,true,true,true,false,true,true,false,false,false,false,false,false],"id":32,"left_children":[1,3,5,7,-1,9,11,-1,-1,-1,-1,-1,-1],"loss_changes":[1.5285875E3,1.0234498E3,3.1094026E3,4.5347388E2,0E0,1.5408198E3,1.6905347E3,0E0,0E0,0E0,0E0,0E0,0E0],"parents":[2147483647,0,0,1,1,2,2,3,3,5,5,6,6],"right_children":[2,4,6,8,-1,10,12,-1,-1,-1,-1,-1,-1],"split_conditions":[-2.3713562E1,2.0831297E-1,-2.2133232E1,3.3692406E1,1.3643464E0,7.262557E0,-1.9942926E1,-1.0564203E0,6.721521E-1,1.3895735E0,5.26401E0,-1.1115042E0,3.0477926E-2],"split_indices":[0,43,0,1,0,18,0,0,0,0,0,0,0],"split_type":[0,0,0,0,0,0,0,0,0,0,0,0,0],"sum_hessian":[6.356E3,2.31E2,6.125E3,2.13E2,1.8E1,5.7E1,6.068E3,1.99E2,1.4E1,4.6E1,1.1E1,1.18E2,5.95E3],"tree_param":{"num_deleted":"0","num_feature":"52","num_nodes":"13","size_leaf_vector":"0"}},{"base_weights":[1.880626E-3,-8.05483E-2,2.3915331E0,-3.5545487E-2,-7.717539E0,5.537781E0,4.8107186E-1,2.1268925E-1,-7.107284E-1,-3.4731574E0,-9.695015E0,1.2797806E1,4.1949096E0,-6.4485846E0,1.5522163E0],"categories":[],"categories_nodes":[],"categories_segments":[],"categories_sizes":[],"default_left":[true,true,true,true,true,true,true,false,false,false,false,false,false,false,false],"id":33,"left_children":[1,3,5,7,9,11,13,-1,-1,-1,-1,-1,-1,-1,-1],"loss_changes":[1.2523721E3,2.1120205E3,1.2716222E3,1.0243783E3,2.6848145E2,7.262566E2,9.972237E2,0E0,0E0,0E0,0E0,0E0,0E0,0E0,0E0],"parents":[2147483647,0,0,1,1,2,2,3,3,4,4,5,5,6,6],"right_children":[2,4,6,8,10,12,14,-1,-1,-1,-1,-1,-1,-1,-1],"split_conditions":[2.0412434E1,1.9775965E1,2.342051E1,8.083368E0,1.1925425E1,-2.6948795E-1,2.741578E1,6.380678E-2,-2.1321853E-1,-1.0419472E0,-2.9085045E0,3.8393419E0,1.2584729E0,-1.9345754E0,4.656649E-1],"split_indices":[1,1,1,1,39,32,1,0,0,0,0,0,0,0,0],"split_type":[0,0,0,0,0,0,0,0,0,0,0,0,0,0,0],"sum_hessian":[6.356E3,6.145E3,2.11E2,6.11E3,3.5E1,7.9E1,1.32E2,4.468E3,1.642E3,1.2E1,2.3E1,1.1E1,6.8E1,1.7E1,1.15E2],"tree_param":{"num_deleted":"0","num_feature":"52","num_nodes":"15","size_leaf_vector":"0"}},{"base_weights":[1.2374201E-3,-3.6588642E-1,6.030518E-1,-2.8500775E-1,-1.7080004E1,3.0970461E0,-1.0376822E-1,-4.7340746E0,-6.27753E-2,-1.7591984E1,3.8557904E0,-2.769602E0,6.3802075E-1],"categories":[],"categories_nodes":[],"categories_segments":[],"categories_sizes":[],"default_left":[true,true,true,true,false,true,true,false,false,false,false,false,false],"id":34,"left_children":[1,3,5,7,-1,9,11,-1,-1,-1,-1,-1,-1],"loss_changes":[1.4047388E3,5.3334526E3,4.2469194E3,3.8863894E3,0E0,8.418998E3,3.7154858E3,0E0,0E0,0E0,0E0,0E0,0E0],"parents":[2147483647,0,0,1,1,2,2,3,3,5,5,6,6],"right_children":[2,4,6,8,-1,10,12,-1,-1,-1,-1,-1,-1],"split_conditions":[-3.5679526E0,-3.6047173E0,-2.8793535E0,-2.0026264E0,-5.1240015E0,1.7384028E0,-1.4999184E-1,-1.4202224E0,-1.883259E-2,-5.2775955E0,1.1567372E0,-8.3088064E-1,1.9140624E-1],"split_indices":[0,0,0,1,0,1,0,0,0,0,0,0,0],"split_type":[0,0,0,0,0,0,0,0,0,0,0,0,0],"sum_hessian":[6.356E3,3.948E3,2.408E3,3.93E3,1.8E1,5.31E2,1.877E3,1.86E2,3.744E3,1.8E1,5.13E2,4.08E2,1.469E3],"tree_param":{"num_deleted":"0","num_feature":"52","num_nodes":"13","size_leaf_vector":"0"}},{"base_weights":[-9.165607E-4,3.7018154E-2,-3.7913628E0,-3.6634993E-2,3.6728306E0,-1.5687803E0,-7.5885158E0,3.5792496E-2,-5.222864E0,6.771869E0,-6.6495544E-1,-3.0528812E0,1.8625817E0,-5.5643973E0,-8.980258E0],"categories":[],"categories_nodes":[],"categories_segments":[],"categories_sizes":[],"default_left":[true,true,true,true,true,true,true,false,false,false,false,false,false,false,false],"id":35,"left_children":[1,3,5,7,9,11,13,-1,-1,-1,-1,-1,-1,-1,-1],"loss_changes":[9.142102E2,1.6858663E3,5.197828E2,2.3181724E3,1.6848738E3,2.1447821E2,1.482251E1,0E0,0E0,0E0,0E0,0E0,0E0,0E0,0E0],"parents":[2147483647,0,0,1,1,2,2,3,3,4,4,5,5,6,6],"right_children":[2,4,6,8,10,12,14,-1,-1,-1,-1,-1,-1,-1,-1],"split_conditions":[1.5716629E1,1.4088612E1,-4.3772578E-1,1.3805201E1,1.4707768E1,1.7979366E1,2.8618193E0,1.0737749E-2,-1.5668594E0,2.031561E0,-1.9948664E-1,-9.158644E-1,5.5877453E-1,-1.6693193E0,-2.6940775E0],"split_indices":[0,0,22,0,0,0,27,0,0,0,0,0,0,0,0],"split_type":[0,0,0,0,0,0,0,0,0,0,0,0,0,0,0],"sum_hessian":[6.356E3,6.294E3,6.2E1,6.17E3,1.24E2,4E1,2.2E1,6.086E3,8.4E1,7.2E1,5.2E1,2.8E1,1.2E1,1.1E1,1.1E1],"tree_param":{"num_deleted":"0","num_feature":"52","num_nodes":"15","size_leaf_vector":"0"}},{"base_weights":[-1.3444573E-3,-2.1666448E-1,6.175866E-1,-9.674461E-1,2.629826E-1,1.9655418E0,-4.3496314E-2,-3.5809398E-1,-3.9486082E0,1.0045777E1,4.4104703E-2,1.4863973E0,1.0061452E1,-8.572145E0,2.5256702E-1],"categories":[],"categories_nodes":[],"categories_segments":[],"categories_sizes":[],"default_left":[true,true,true,true,true,true,true,false,false,false,false,false,false,false,false],"id":36,"left_children":[1,3,5,7,9,11,13,-1,-1,-1,-1,-1,-1,-1,-1],"loss_changes":[8.473201E2,1.6988942E3,1.4623975E3,3.339272E3,6.16418E3,2.0797644E3,2.7847375E3,0E0,0E0,0E0,0E0,0E0,0E0,0E0,0E0],"parents":[2147483647,0,0,1,1,2,2,3,3,4,4,5,5,6,6],"right_children":[2,4,6,8,10,12,14,-1,-1,-1,-1,-1,-1,-1,-1],"split_conditions":[9.251785E0,-6.881608E0,-8.27128E0,-7.9519978E0,-6.65961E0,-8.985264E0,-7.858706E0,-1.074282E-1,-1.1845825E0,3.0137334E0,1.3231412E-2,4.459192E-1,3.0184357E0,-2.5716438E0,7.577011E-2],"split_indices":[49,0,0,0,0,0,0,0,0,0,0,0,0,0,0],"split_type":[0,0,0,0,0,0,0,0,0,0,0,0,0,0,0],"sum_hessian":[6.356E3,4.716E3,1.64E3,1.838E3,2.878E3,5.39E2,1.101E3,1.527E3,3.11E2,6.2E1,2.816E3,5.1E2,2.9E1,3.6E1,1.065E3],"tree_param":{"num_deleted":"0","num_feature":"52","num_nodes":"15","size_leaf_vector":"0"}},{"base_weights":[-5.1821914E-4,1.4645785E0,-1.6109069E-1,-6.3055915E-1,4.78663E0,-3.013699E-1,1.4975146E0,-3.2113092E0,1.7855949E0,2.9680867E0,1.2722263E1,-2.1532534E-1,-1.4874817E1,7.8367096E-1,1.2151686E1],"categories":[],"categories_nodes":[],"categories_segments":[],"categories_sizes":[],"default_left":[true,true,true,true,true,true,true,false,false,false,false,false,false,false,false],"id":37,"left_children":[1,3,5,7,9,11,13,-1,-1,-1,-1,-1,-1,-1,-1],"loss_changes":[1.4957468E3,4.373996E3,1.3336382E3,2.4126333E3,3.469043E3,6.622754E3,3.3900962E3,0E0,0E0,0E0,0E0,0E0,0E0,0E0,0E0],"parents":[2147483647,0,0,1,1,2,2,3,3,4,4,5,5,6,6],"right_children":[2,4,6,8,10,12,14,-1,-1,-1,-1,-1,-1,-1,-1],"split_conditions":[-5.562262E-1,-2.3894553E0,1.2154652E1,5.1125383E-1,9.422062E0,1.1328238E1,1.4897711E1,-9.633928E-1,5.356785E-1,8.9042604E-1,3.8166792E0,-6.459761E-2,-4.4624453E0,2.351013E-1,3.645506E0],"split_indices":[1,1,0,0,49,0,1,0,0,0,0,0,0,0,0],"split_type":[0,0,0,0,0,0,0,0,0,0,0,0,0,0,0],"sum_hessian":[6.356E3,6.27E2,5.729E3,3.85E2,2.42E2,5.283E3,4.46E2,1.86E2,1.99E2,1.98E2,4.4E1,5.253E3,3E1,4.19E2,2.7E1],"tree_param":{"num_deleted":"0","num_feature":"52","num_nodes":"15","size_leaf_vector":"0"}},{"base_weights":[2.04119E-4,3.232047E-1,-3.9135265E-1,4.6047032E-1,-1.9943703E0,-1.4009043E0,3.9717197E-2,2.9391906E-1,4.474528E0,-3.0998194E0,4.188926E0,-4.2321677E0,-1.1203481E-1,2.153069E0,-8.326051E-1],"categories":[],"categories_nodes":[],"categories_segments":[],"categories_sizes":[],"default_left":[true,true,true,true,true,true,true,false,false,false,false,false,false,false,false],"id":38,"left_children":[1,3,5,7,9,11,13,-1,-1,-1,-1,-1,-1,-1,-1],"loss_changes":[8.041157E2,1.1092603E3,1.2507839E3,2.198202E3,1.3458723E3,3.1377769E3,3.7164934E3,0E0,0E0,0E0,0E0,0E0,0E0,0E0,0E0],"parents":[2147483647,0,0,1,1,2,2,3,3,4,4,5,5,6,6],"right_children":[2,4,6,8,10,12,14,-1,-1,-1,-1,-1,-1,-1,-1],"split_conditions":[5.1420605E-1,1.3297768E1,3.185239E1,1.2154652E1,1.4793124E1,-9.444514E0,-8.407164E0,8.817572E-2,1.3423584E0,-9.299459E-1,1.2566779E0,-1.2696503E0,-3.3610445E-2,6.4592075E-1,-2.4978155E-1],"split_indices":[32,0,50,0,1,0,0,0,0,0,0,0,0,0,0],"split_type":[0,0,0,0,0,0,0,0,0,0,0,0,0,0,0],"sum_hessian":[6.356E3,3.483E3,2.873E3,3.289E3,1.94E2,8.59E2,2.014E3,3.159E3,1.3E2,1.65E2,2.9E1,2.68E2,5.91E2,5.88E2,1.426E3],"tree_param":{"num_deleted":"0","num_feature":"52","num_nodes":"15","size_leaf_vector":"0"}},{"base_weights":[2.763408E-4,-4.4999456E0,2.3755716E-2,-1.2516754E0,-1.0080112E1,7.6584953E-1,-1.4095156E-1,2.5432652E-1,7.248203E0,-3.1538115E0,6.548889E-2],"categories":[],"categories_nodes":[],"categories_segments":[],"categories_sizes":[],"default_left":[true,true,true,false,false,true,true,false,false,false,false],"id":39,"left_children":[1,3,5,-1,-1,7,9,-1,-1,-1,-1],"loss_changes":[6.718028E2,5.8553723E2,7.732016E2,0E0,0E0,3.8080945E3,3.2201768E3,0E0,0E0,0E0,0E0],"parents":[2147483647,0,0,1,1,2,2,5,5,6,6],"right_children":[2,4,6,-1,-1,8,10,-1,-1,-1,-1],"split_conditions":[-3.4814354E1,2.772894E1,-1.0941994E1,-3.7550262E-1,-3.0240338E0,-1.1228668E1,-1.0023151E1,7.629796E-2,2.174461E0,-9.4614345E-1,1.9646667E-2],"split_indices":[0,29,0,0,0,0,0,0,0,0,0],"split_type":[0,0,0,0,0,0,0,0,0,0,0],"sum_hessian":[6.356E3,3.2E1,6.324E3,2.1E1,1.1E1,1.148E3,5.176E3,1.065E3,8.3E1,3.31E2,4.845E3],"tree_param":{"num_deleted":"0","num_feature":"52","num_nodes":"11","size_leaf_vector":"0"}},{"base_weights":[-1.3754153E-4,3.694431E-1,-2.1962522E-1,-1.5542327E-1,1.0906327E0,-1.5876515E-1,-3.4822185E0,4.016385E-1,-2.8802946E0,5.7308435E0,-7.598726E-3,-4.1288394E-1,4.5002437E-1,-1.04066215E-1,-5.7063627E0],"categories":[],"categories_nodes":[],"categories_segments":[],"categories_sizes":[],"default_left":[true,true,true,true,true,true,true,false,false,false,false,false,false,false,false],"id":40,"left_children":[1,3,5,7,9,11,13,-1,-1,-1,-1,-1,-1,-1,-1],"loss_changes":[5.1575073E2,8.9690265E2,7.9150964E2,2.0837454E3,5.085877E3,6.0616473E2,5.4789154E2,0E0,0E0,0E0,0E0,0E0,0E0,0E0,0E0],"parents":[2147483647,0,0,1,1,2,2,3,3,4,4,5,5,6,6],"right_children":[2,4,6,8,10,12,14,-1,-1,-1,-1,-1,-1,-1,-1],"split_conditions":[-2.3295805E0,-3.7764025E0,1.4707768E1,-5.73675E0,-3.3106353E0,-3.2030423E0,8.647833E2,1.2049156E-1,-8.640884E-1,1.7192532E0,-2.2796178E-3,-1.2386519E-1,1.3500732E-1,-3.1219866E-2,-1.7119089E0],"split_indices":[22,0,0,0,0,0,2,0,0,0,0,0,0,0,0],"split_type":[0,0,0,0,0,0,0,0,0,0,0,0,0,0,0],"sum_hessian":[6.356E3,2.368E3,3.988E3,1.371E3,9.97E2,3.916E3,7.2E1,1.139E3,2.32E2,1.9E2,8.07E2,2.763E3,1.153E3,2.9E1,4.3E1],"tree_param":{"num_deleted":"0","num_feature":"52","num_nodes":"15","size_leaf_vector":"0"}},{"base_weights":[-2.1470198E-4,2.7767137E-1,-6.57638E-1,4.7959395E-2,5.258796E0,-5.5020986E0,-2.8163785E-1,1.1797749E-1,-8.68512E0,-1.2322136E0,7.8455253E0,-3.457178E0,-2.0622929E1,1.3246996E1,-5.0878084E-1],"categories":[],"categories_nodes":[],"categories_segments":[],"categories_sizes":[],"default_left":[true,true,true,true,true,true,true,false,false,false,false,false,false,false,false],"id":41,"left_children":[1,3,5,7,9,11,13,-1,-1,-1,-1,-1,-1,-1,-1],"loss_changes":[1.1615352E3,5.113285E3,3.4392979E3,2.613851E3,3.317392E3,4.133945E3,5.396666E3,0E0,0E0,0E0,0E0,0E0,0E0,0E0,0E0],"parents":[2147483647,0,0,1,1,2,2,3,3,4,4,5,5,6,6],"right_children":[2,4,6,8,10,12,14,-1,-1,-1,-1,-1,-1,-1,-1],"split_conditions":[8.083368E0,7.566694E0,8.787246E0,7.3218126E0,9.024752E0,8.63933E0,8.933388E0,3.539325E-2,-2.605536E0,-3.696641E-1,2.3536577E0,-1.0371535E0,-6.1868787E0,3.974099E0,-1.5263426E-1],"split_indices":[1,1,1,1,36,1,1,0,0,0,0,0,0,0,0],"split_type":[0,0,0,0,0,0,0,0,0,0,0,0,0,0,0],"sum_hessian":[6.356E3,4.468E3,1.888E3,4.272E3,1.96E2,1.35E2,1.753E3,4.239E3,3.3E1,5.6E1,1.4E2,1.2E2,1.5E1,2.8E1,1.725E3],"tree_param":{"num_deleted":"0","num_feature":"52","num_nodes":"15","size_leaf_vector":"0"}},{"base_weights":[-7.817903E-4,2.2314754E-1,-3.6203203E-1,4.2181376E-1,-3.95992E-1,-5.3897035E-1,1.1647053E0,3.327039E-1,1.2928027E1,-6.109409E0,4.808195E-1,-3.9859858E-1,-5.67019E0,1.8444042E1,3.0306584E-1],"categories":[],"categories_nodes":[],"categories_segments":[],"categories_sizes":[],"default_left":[true,true,true,true,true,true,true,false,false,false,false,false,false,false,false],"id":42,"left_children":[1,3,5,7,9,11,13,-1,-1,-1,-1,-1,-1,-1,-1],"loss_changes":[5.143273E2,4.8295032E2,6.578744E2,3.3077754E3,4.782086E3,1.5686672E3,3.7612158E3,0E0,0E0,0E0,0E0,0E0,0E0,0E0,0E0],"parents":[2147483647,0,0,1,1,2,2,3,3,4,4,5,5,6,6],"right_children":[2,4,6,8,10,12,14,-1,-1,-1,-1,-1,-1,-1,-1],"split_conditions":[1.3945897E0,-2.3758996E0,1.28053E1,-2.4325125E0,-1.4999184E-1,9.56825E0,1.2936152E1,9.9811174E-2,3.8784082E0,-1.8328227E0,1.4424585E-1,-1.19579576E-1,-1.7010571E0,5.5332127E0,9.0919755E-2],"split_indices":[27,0,0,0,0,0,0,0,0,0,0,0,0,0,0],"split_type":[0,0,0,0,0,0,0,0,0,0,0,0,0,0,0],"sum_hessian":[6.356E3,3.924E3,2.432E3,2.971E3,9.53E2,2.18E3,2.52E2,2.951E3,2E1,1.26E2,8.27E2,2.123E3,5.7E1,1.1E1,2.41E2],"tree_param":{"num_deleted":"0","num_feature":"52","num_nodes":"15","size_leaf_vector":"0"}},{"base_weights":[4.1294264E-4,-1.2429993E-1,5.442701E-1,1.3705298E-1,-3.036314E0,3.1771145E0,-4.8299155E-1,4.689655E-2,7.299875E0,-7.421609E0,-8.407064E-1,4.235352E0,-4.6803594E0,-1.297574E1,1.9538571E-1],"categories":[],"categories_nodes":[],"categories_segments":[],"categories_sizes":[],"default_left":[true,true,true,true,true,true,true,false,false,false,false,false,false,false,false],"id":43,"left_children":[1,3,5,7,9,11,13,-1,-1,-1,-1,-1,-1,-1,-1],"loss_changes":[4.3123746E2,3.936636E3,3.2092139E3,3.0651492E3,4.0954534E3,2.7887424E3,7.2400117E3,0E0,0E0,0E0,0E0,0E0,0E0,0E0,0E0],"parents":[2147483647,0,0,1,1,2,2,3,3,4,4,5,5,6,6],"right_children":[2,4,6,8,10,12,14,-1,-1,-1,-1,-1,-1,-1,-1],"split_conditions":[6.001901E0,-2.186925E0,7.186469E0,-2.3579907E0,-1.4999184E-1,3.135307E1,7.3057485E0,1.4068966E-2,2.1899626E0,-2.2264829E0,-2.5221193E-1,1.2706057E0,-1.4041078E0,-3.8927224E0,5.8615714E-2],"split_indices":[0,0,0,0,0,26,0,0,0,0,0,0,0,0,0],"split_type":[0,0,0,0,0,0,0,0,0,0,0,0,0,0,0],"sum_hessian":[6.356E3,5.171E3,1.185E3,4.746E3,4.25E2,3.32E2,8.53E2,4.688E3,5.8E1,1.41E2,2.84E2,2.93E2,3.9E1,4.3E1,8.1E2],"tree_param":{"num_deleted":"0","num_feature":"52","num_nodes":"15","size_leaf_vector":"0"}},{"base_weights":[-3.7722717E-4,-6.7641866E-1,1.06508814E-1,-4.7926726E0,1.9714762E-1,7.935402E-1,-2.2525425E-1,-1.601912E0,-7.4259324E0,2.969527E0,-6.369323E-1,3.5961777E-1,6.613599E0,-2.6675043E0,3.288958E-2],"categories":[],"categories_nodes":[],"categories_segments":[],"categories_sizes":[],"default_left":[true,true,true,true,true,true,true,false,false,false,false,false,false,false,false],"id":44,"left_children":[1,3,5,7,9,11,13,-1,-1,-1,-1,-1,-1,-1,-1],"loss_changes":[4.59425E2,3.122117E3,1.2515233E3,1.2652236E3,1.6598721E3,4.513133E3,2.334651E3,0E0,0E0,0E0,0E0,0E0,0E0,0E0,0E0],"parents":[2147483647,0,0,1,1,2,2,3,3,4,4,5,5,6,6],"right_children":[2,4,6,8,10,12,14,-1,-1,-1,-1,-1,-1,-1,-1],"split_conditions":[5.734514E1,-1.0008536E1,-8.25041E0,-1.3288523E1,7.977086E1,-8.985264E0,-7.2008715E0,-4.8057362E-1,-2.2277799E0,8.908581E-1,-1.910797E-1,1.0788534E-1,1.9840797E0,-8.002513E-1,9.866874E-3],"split_indices":[14,0,0,0,4,0,0,0,0,0,0,0,0,0,0],"split_type":[0,0,0,0,0,0,0,0,0,0,0,0,0,0,0],"sum_hessian":[6.356E3,8.67E2,5.489E3,1.51E2,7.16E2,1.787E3,3.702E3,6.9E1,8.2E1,1.65E2,5.51E2,1.664E3,1.23E2,3.53E2,3.349E3],"tree_param":{"num_deleted":"0","num_feature":"52","num_nodes":"15","size_leaf_vector":"0"}},{"base_weights":[-3.751401E-4,2.1267198E-1,-5.044023E-1,6.077455E-1,-2.1305356E0,-2.1703475E0,1.6514252E0,2.9466426E-1,3.7449267E0,1.621042E0,-8.182151E0,-8.519588E-2,-4.9276495E0,1.355343E1,1.443929E0],"categories":[],"categories_nodes":[],"categories_segments":[],"categories_sizes":[],"default_left":[true,true,true,true,true,true,true,false,false,false,false,false,false,false,false],"id":45,"left_children":[1,3,5,7,9,11,13,-1,-1,-1,-1,-1,-1,-1,-1],"loss_changes":[6.827316E2,4.138424E3,6.787909E3,3.7557832E3,1.4656765E4,6.128433E3,2.015398E3,0E0,0E0,0E0,0E0,0E0,0E0,0E0,0E0],"parents":[2147483647,0,0,1,1,2,2,3,3,4,4,5,5,6,6],"right_children":[2,4,6,8,10,12,14,-1,-1,-1,-1,-1,-1,-1,-1],"split_conditions":[8.083368E0,-2.186925E0,2.6855712E0,6.5806065E0,1.7404723E0,-6.2501097E0,8.933378E0,8.839928E-2,1.123478E0,4.8631263E-1,-2.4546454E0,-2.5558764E-2,-1.4782948E0,4.066029E0,4.331787E-1],"split_indices":[1,0,0,1,1,0,1,0,0,0,0,0,0,0,0],"split_type":[0,0,0,0,0,0,0,0,0,0,0,0,0,0,0],"sum_hessian":[6.356E3,4.468E3,1.888E3,3.824E3,6.44E2,1.065E3,8.23E2,3.478E3,3.46E2,3.98E2,2.46E2,6.07E2,4.58E2,1.3E1,8.1E2],"tree_param":{"num_deleted":"0","num_feature":"52","num_nodes":"15","size_leaf_vector":"0"}},{"base_weights":[9.246005E-5,2.5789618E-1,-3.786538E-1,7.968042E-2,1.06126585E1,-9.880694E0,-2.5141224E-1,1.5379667E0,-3.027263E-1,7.4649925E0,2.0397366E1,-1.8527805E1,-1.165051E0,-9.285234E-1,1.1614586E0],"categories":[],"categories_nodes":[],"categories_segments":[],"categories_sizes":[],"default_left":[true,true,true,true,true,true,true,false,false,false,false,false,false,false,false],"id":46,"left_children":[1,3,5,7,9,11,13,-1,-1,-1,-1,-1,-1,-1,-1],"loss_changes":[6.2080914E2,6.9802344E3,3.1108308E3,2.0749553E3,1.8188687E3,2.5408286E3,2.4329353E3,0E0,0E0,0E0,0E0,0E0,0E0,0E0,0E0],"parents":[2147483647,0,0,1,1,2,2,3,3,4,4,5,5,6,6],"right_children":[2,4,6,8,10,12,14,-1,-1,-1,-1,-1,-1,-1,-1],"split_conditions":[5.542713E0,5.362779E0,5.5956135E0,-1.0387794E1,1.779094E1,-1.0176749E1,2.6855712E0,4.6139005E-1,-9.081789E-2,2.239498E0,6.11921E0,-5.558342E0,-3.4951532E-1,-2.7855703E-1,3.484376E-1],"split_indices":[1,1,1,0,44,0,0,0,0,0,0,0,0,0,0],"split_type":[0,0,0,0,0,0,0,0,0,0,0,0,0,0,0],"sum_hessian":[6.356E3,3.782E3,2.574E3,3.719E3,6.3E1,3.3E1,2.541E3,7.72E2,2.947E3,4.9E1,1.4E1,1.6E1,1.7E1,1.718E3,8.23E2],"tree_param":{"num_deleted":"0","num_feature":"52","num_nodes":"15","size_leaf_vector":"0"}},{"base_weights":[5.2189524E-4,-1.10038325E-1,6.1092716E-1,-1.0666032E0,4.8653476E-2,-2.7571323E0,-8.346102E-1,1.3448831E-1,-6.2367576E-1],"categories":[],"categories_nodes":[],"categories_segments":[],"categories_sizes":[],"default_left":[true,true,false,true,true,false,false,false,false],"id":47,"left_children":[1,3,-1,5,7,-1,-1,-1,-1],"loss_changes":[4.2907916E2,8.171859E2,0E0,2.981172E2,2.6658533E2,0E0,0E0,0E0,0E0],"parents":[2147483647,0,0,1,1,3,3,4,4],"right_children":[2,4,-1,6,8,-1,-1,-1,-1],"split_conditions":[1.122514E2,-1.734049E-1,1.8327816E-1,7.9089075E2,8.29175E-3,-8.2713974E-1,-2.5038308E-1,4.0346496E-2,-1.8710274E-1],"split_indices":[50,38,0,2,48,0,0,0,0],"split_type":[0,0,0,0,0,0,0,0,0],"sum_hessian":[6.356E3,5.382E3,9.74E2,7.65E2,4.617E3,9.1E1,6.74E2,4.095E3,5.22E2],"tree_param":{"num_deleted":"0","num_feature":"52","num_nodes":"9","size_leaf_vector":"0"}},{"base_weights":[2.0313368E-4,-7.4933E-2,1.5723612E0,-5.2454058E-2,-1.1414932E1,2.033051E0,-5.9453664E0,1.5272628E-1,-8.8218635E-1,6.5219355E0,1.2151704E0],"categories":[],"categories_nodes":[],"categories_segments":[],"categories_sizes":[],"default_left":[true,true,true,true,false,true,false,false,false,false,false],"id":48,"left_children":[1,3,5,7,-1,9,-1,-1,-1,-1,-1],"loss_changes":[7.51044E2,1.546202E3,1.016456E3,1.0313073E3,0E0,9.980305E2,0E0,0E0,0E0,0E0,0E0],"parents":[2147483647,0,0,1,1,2,2,3,3,5,5],"right_children":[2,4,6,8,-1,10,-1,-1,-1,-1,-1],"split_conditions":[1.809385E1,1.7846497E1,2.5316483E1,9.795107E0,-3.4244797E0,1.9917654E1,-1.78361E0,4.5817886E-2,-2.6465592E-1,1.9565808E0,3.6455113E-1],"split_indices":[1,1,7,1,0,1,0,0,0,0,0],"split_type":[0,0,0,0,0,0,0,0,0,0,0],"sum_hessian":[6.356E3,6.067E3,2.89E2,6.056E3,1.1E1,2.73E2,1.6E1,4.856E3,1.2E3,4.1E1,2.32E2],"tree_param":{"num_deleted":"0","num_feature":"52","num_nodes":"11","size_leaf_vector":"0"}},{"base_weights":[-3.4949635E-4,-5.2989364E-2,1.5257117E0,-3.374525E-2,-6.989073E0,3.8221352E0,1.329328E-1,-1.9132228E0,8.576833E-3,1.3233739E0,7.5289216E0,-2.3730295E0,1.8227956E0],"categories":[],"categories_nodes":[],"categories_segments":[],"categories_sizes":[],"default_left":[true,true,true,true,false,true,true,false,false,false,false,false,false],"id":49,"left_children":[1,3,5,7,-1,9,11,-1,-1,-1,-1,-1,-1],"loss_changes":[5.1074918E2,8.2012463E2,6.775548E2,4.8761746E2,0E0,7.3102637E2,5.67545E2,0E0,0E0,0E0,0E0,0E0,0E0],"parents":[2147483647,0,0,1,1,2,2,3,3,5,5,6,6],"right_children":[2,4,6,8,-1,10,12,-1,-1,-1,-1,-1,-1],"split_conditions":[2.0412434E1,2.0336607E1,2.342051E1,-6.611761E0,-2.096722E0,8.647833E2,4.1181206E1,-5.7396686E-1,2.5730499E-3,3.970122E-1,2.2586765E0,-7.119089E-1,5.468387E-1],"split_indices":[1,1,1,1,0,2,1,0,0,0,0,0,0],"split_type":[0,0,0,0,0,0,0,0,0,0,0,0,0],"sum_hessian":[6.356E3,6.145E3,2.11E2,6.129E3,1.6E1,7.9E1,1.32E2,1.34E2,5.995E3,4.8E1,3.1E1,5.3E1,7.9E1],"tree_param":{"num_deleted":"0","num_feature":"52","num_nodes":"13","size_leaf_vector":"0"}},{"base_weights":[-2.762436E-4,-2.363709E-1,3.8674662E-1,-1.7579454E-1,-1.275686E1,5.577389E-1,-3.9257195E0,-3.0368087E-1,4.353956E0,2.7122085E0,3.9306227E-3,3.6220877E0,-8.412746E0],"categories":[],"categories_nodes":[],"categories_segments":[],"categories_sizes":[],"default_left":[true,true,true,true,false,true,true,false,false,false,false,false,false],"id":50,"left_children":[1,3,5,7,-1,9,11,-1,-1,-1,-1,-1,-1],"loss_changes":[5.809561E2,2.992859E3,1.7785825E3,2.2785237E3,0E0,2.7657412E3,3.1462551E3,0E0,0E0,0E0,0E0,0E0,0E0],"parents":[2147483647,0,0,1,1,2,2,3,3,5,5,6,6],"right_children":[2,4,6,8,-1,10,12,-1,-1,-1,-1,-1,-1],"split_conditions":[-3.5679526E0,-3.6047173E0,1.4832975E3,1.4832975E3,-3.827058E0,-2.9461002E0,4.267811E0,-9.110426E-2,1.3061869E0,8.136626E-1,1.1791869E-3,1.0866264E0,-2.523824E0],"split_indices":[0,0,2,2,0,0,1,0,0,0,0,0,0],"split_type":[0,0,0,0,0,0,0,0,0,0,0,0,0],"sum_hessian":[6.356E3,3.948E3,2.408E3,3.93E3,1.8E1,2.317E3,9.1E1,3.823E3,1.07E2,4.73E2,1.844E3,3.4E1,5.7E1],"tree_param":{"num_deleted":"0","num_feature":"52","num_nodes":"13","size_leaf_vector":"0"}},{"base_weights":[-6.987419E-4,2.9468167E0,-2.0298954E-2,5.0150093E-2,5.841095E0,-3.7983508E0,2.2038797E-2,-1.4586626E0,-1.0476414E1,1.0211767E0,-6.828851E-2],"categories":[],"categories_nodes":[],"categories_segments":[],"categories_sizes":[],"default_left":[true,true,true,false,false,true,true,false,false,false,false],"id":51,"left_children":[1,3,5,-1,-1,7,9,-1,-1,-1,-1],"loss_changes":[3.6731595E2,3.5182498E2,1.0103546E3,0E0,0E0,1.0784392E3,5.638579E2,0E0,0E0,0E0,0E0],"parents":[2147483647,0,0,1,1,2,2,5,5,6,6],"right_children":[2,4,6,-1,-1,8,10,-1,-1,-1,-1],"split_conditions":[-9.171492E0,8.025095E2,-6.747529E0,1.5045028E-2,1.7523285E0,1.7233259E-3,-5.562262E-1,-4.375988E-1,-3.1429243E0,3.0635303E-1,-2.0486554E-2],"split_indices":[1,3,1,0,0,48,1,0,0,0,0],"split_type":[0,0,0,0,0,0,0,0,0,0,0],"sum_hessian":[6.356E3,4.1E1,6.315E3,2.1E1,2E1,6.9E1,6.246E3,5.2E1,1.7E1,5.17E2,5.729E3],"tree_param":{"num_deleted":"0","num_feature":"52","num_nodes":"11","size_leaf_vector":"0"}},{"base_weights":[-7.257538E-4,-3.8149567E0,1.9174697E-2,-1.440533E0,-7.8501534E0,9.764448E-1,-9.4603986E-2,6.394707E-1,1.3922242E1,-8.863154E0,-8.467398E-3],"categories":[],"categories_nodes":[],"categories_segments":[],"categories_sizes":[],"default_left":[true,true,true,false,false,true,true,false,false,false,false],"id":52,"left_children":[1,3,5,-1,-1,7,9,-1,-1,-1,-1],"loss_changes":[4.8260065E2,3.048734E2,6.88992E2,0E0,0E0,2.922629E3,4.2703516E3,0E0,0E0,0E0,0E0],"parents":[2147483647,0,0,1,1,2,2,5,5,6,6],"right_children":[2,4,6,-1,-1,8,10,-1,-1,-1,-1],"split_conditions":[-3.4814354E1,2.772894E1,-1.3367894E1,-4.3215993E-1,-2.355046E0,-1.3467102E1,-1.2816595E1,1.9184121E-1,4.176673E0,-2.6589465E0,-2.5402193E-3],"split_indices":[0,29,0,0,0,0,0,0,0,0,0],"split_type":[0,0,0,0,0,0,0,0,0,0,0],"sum_hessian":[6.356E3,3.2E1,6.324E3,2.1E1,1.1E1,6.71E2,5.653E3,6.55E2,1.6E1,5.4E1,5.599E3],"tree_param":{"num_deleted":"0","num_feature":"52","num_nodes":"11","size_leaf_vector":"0"}},{"base_weights":[-6.8462564E-4,-1.0140619E0,6.48151E-2,8.8499933E-1,-2.9777515E0,2.8827708E0,-4.3466028E-2,5.9798336E0,3.705992E-1,-4.5574746E0,7.882253E-1,1.5291138E0,8.78836E0,-2.0228693E0,1.0564482E-1],"categories":[],"categories_nodes":[],"categories_segments":[],"categories_sizes":[],"default_left":[true,true,true,true,true,true,true,false,false,false,false,false,false,false,false],"id":53,"left_children":[1,3,5,7,9,11,13,-1,-1,-1,-1,-1,-1,-1,-1],"loss_changes":[4.2201752E2,1.4420936E3,1.82237E3,5.140782E2,1.1339404E3,1.7532667E3,1.6979196E3,0E0,0E0,0E0,0E0,0E0,0E0,0E0,0E0],"parents":[2147483647,0,0,1,1,2,2,3,3,4,4,5,5,6,6],"right_children":[2,4,6,8,10,12,14,-1,-1,-1,-1,-1,-1,-1,-1],"split_conditions":[-2.3894553E0,-1.3648779E1,-6.69066E-1,-4.5908204E-1,1.8884937E1,8.877637E1,4.7369868E-1,1.7939502E0,1.1117977E-1,-1.3672425E0,2.364676E-1,4.5873415E-1,2.636508E0,-6.068608E-1,3.1693447E-2],"split_indices":[1,7,1,42,7,50,1,0,0,0,0,0,0,0,0],"split_type":[0,0,0,0,0,0,0,0,0,0,0,0,0,0,0],"sum_hessian":[6.356E3,3.85E2,5.971E3,1.96E2,1.89E2,2.2E2,5.751E3,1.7E1,1.79E2,1.33E2,5.6E1,1.8E2,4E1,4.02E2,5.349E3],"tree_param":{"num_deleted":"0","num_feature":"52","num_nodes":"15","size_leaf_vector":"0"}},{"base_weights":[3.8551425E-5,1.9112334E-1,-2.9464918E-1,1.0063493E-1,1.5960323E1,-9.213427E0,-6.790377E-2,1.8070853E-1,-8.12586E0,-3.8850112E0,-1.4416518E1,4.739213E0,-2.3497273E-1],"categories":[],"categories_nodes":[],"categories_segments":[],"categories_sizes":[],"default_left":[true,true,true,true,false,true,true,false,false,false,false,false,false],"id":54,"left_children":[1,3,5,7,-1,9,11,-1,-1,-1,-1,-1,-1],"loss_changes":[3.5802118E2,5.5020615E3,5.057126E3,2.528338E3,0E0,1.662894E3,1.9607264E3,0E0,0E0,0E0,0E0,0E0,0E0],"parents":[2147483647,0,0,1,1,2,2,3,3,5,5,6,6],"right_children":[2,4,6,8,-1,10,12,-1,-1,-1,-1,-1,-1],"split_conditions":[5.71416E0,5.628149E0,5.820649E0,5.5695944E0,4.7880974E0,-7.391199E-1,6.2905507E0,5.421256E-2,-2.4377582E0,-1.1655034E0,-4.3249555E0,1.4217639E0,-7.049182E-2],"split_indices":[1,1,1,1,0,47,1,0,0,0,0,0,0],"split_type":[0,0,0,0,0,0,0,0,0,0,0,0,0],"sum_hessian":[6.356E3,3.856E3,2.5E3,3.835E3,2.1E1,6.1E1,2.439E3,3.799E3,3.6E1,3.1E1,3E1,8.1E1,2.358E3],"tree_param":{"num_deleted":"0","num_feature":"52","num_nodes":"13","size_leaf_vector":"0"}},{"base_weights":[-2.447851E-4,6.845839E-1,-8.715317E-2,-4.6528566E-1,2.192043E0,-8.687692E0,-2.1097757E-2,-3.7044685E0,1.3870558E-1,-3.4809253E-1,3.776463E0,-1.736609E1,-3.8992884E0,1.9273388E1,-8.330081E-2],"categories":[],"categories_nodes":[],"categories_segments":[],"categories_sizes":[],"default_left":[true,true,true,true,true,true,true,false,false,false,false,false,false,false,false],"id":55,"left_children":[1,3,5,7,9,11,13,-1,-1,-1,-1,-1,-1,-1,-1],"loss_changes":[3.7841147E2,1.242121E3,3.205105E3,7.9678406E2,1.2489535E3,1.719179E3,6.722591E3,0E0,0E0,0E0,0E0,0E0,0E0,0E0,0E0],"parents":[2147483647,0,0,1,1,2,2,3,3,4,4,5,5,6,6],"right_children":[2,4,6,8,10,12,14,-1,-1,-1,-1,-1,-1,-1,-1],"split_conditions":[-1.3288523E1,-1.9942926E1,-1.2816595E1,-6.669663E-1,-7.1687496E-1,1.2645147E1,-1.2696445E1,-1.1113406E0,4.1611675E-2,-1.0442776E-1,1.132939E0,-5.2098274E0,-1.1697866E0,5.7820168E0,-2.4990244E-2],"split_indices":[0,0,0,33,42,34,0,0,0,0,0,0,0,0,0],"split_type":[0,0,0,0,0,0,0,0,0,0,0,0,0,0,0],"sum_hessian":[6.356E3,7.15E2,5.641E3,4.06E2,3.09E2,4.2E1,5.599E3,6.3E1,3.43E2,1.19E2,1.9E2,1.4E1,2.8E1,1.7E1,5.582E3],"tree_param":{"num_deleted":"0","num_feature":"52","num_nodes":"15","size_leaf_vector":"0"}},{"base_weights":[-2.723251E-4,-2.2567998E-1,2.4236122E-1,-2.411308E-2,-6.3511643E0,2.5414436E0,-1.9344251E-1,-1.4242314E-1,5.7605166E0,-2.1009457E0,-1.0032589E1,7.483558E0,5.7145697E-1,-2.59288E0,1.3972141E-1],"categories":[],"categories_nodes":[],"categories_segments":[],"categories_sizes":[],"default_left":[true,true,true,true,true,true,true,false,false,false,false,false,false,false,false],"id":56,"left_children":[1,3,5,7,9,11,13,-1,-1,-1,-1,-1,-1,-1,-1],"loss_changes":[3.477283E2,4.0694014E3,3.0684585E3,2.185361E3,1.6218423E3,4.746843E3,2.0588328E3,0E0,0E0,0E0,0E0,0E0,0E0,0E0,0E0],"parents":[2147483647,0,0,1,1,2,2,3,3,4,4,5,5,6,6],"right_children":[2,4,6,8,10,12,14,-1,-1,-1,-1,-1,-1,-1,-1],"split_conditions":[4.7424297E0,4.37129E0,5.542713E0,4.1277657E0,-1.3016647E-1,-2.2439379E1,6.5806065E0,-4.272694E-2,1.728155E0,-6.302837E-1,-3.0097768E0,2.2450676E0,1.714371E-1,-7.7786404E-1,4.1916423E-2],"split_indices":[1,1,1,1,38,7,1,0,0,0,0,0,0,0,0],"split_type":[0,0,0,0,0,0,0,0,0,0,0,0,0,0,0],"sum_hessian":[6.356E3,3.295E3,3.061E3,3.191E3,1.04E2,4.87E2,2.574E3,3.128E3,6.3E1,4.9E1,5.5E1,1.38E2,3.49E2,3.13E2,2.261E3],"tree_param":{"num_deleted":"0","num_feature":"52","num_nodes":"15","size_leaf_vector":"0"}},{"base_weights":[-2.3520186E-4,3.1624055E-1,-1.447337E-1,1.7098105E0,-1.256139E0,-1.3856938E0,4.597342E-1,7.063047E-1,6.661357E0,-4.700917E0,3.1064534E-1,6.363968E-1,-2.6539626E0,1.3416425E1,3.348641E-1],"categories":[],"categories_nodes":[],"categories_segments":[],"categories_sizes":[],"default_left":[true,true,true,true,true,true,true,false,false,false,false,false,false,false,false],"id":57,"left_children":[1,3,5,7,9,11,13,-1,-1,-1,-1,-1,-1,-1,-1],"loss_changes":[2.9075305E2,4.3692515E3,3.2749133E3,5.2474277E3,5.0586587E3,3.6690022E3,4.74567E3,0E0,0E0,0E0,0E0,0E0,0E0,0E0,0E0],"parents":[2147483647,0,0,1,1,2,2,3,3,4,4,5,5,6,6],"right_children":[2,4,6,8,10,12,14,-1,-1,-1,-1,-1,-1,-1,-1],"split_conditions":[-8.25041E0,3.3875506E0,2.7396202E0,1.3092602E1,7.586628E0,-5.562262E-1,2.8806164E0,2.1189143E-1,1.9984071E0,-1.4102751E0,9.3193606E-2,1.9091906E-1,-7.9618883E-1,4.0249276E0,1.0045924E-1],"split_indices":[0,1,1,13,1,1,1,0,0,0,0,0,0,0,0],"split_type":[0,0,0,0,0,0,0,0,0,0,0,0,0,0,0],"sum_hessian":[6.356E3,1.992E3,4.364E3,1.056E3,9.36E2,1.429E3,2.935E3,8.79E2,1.77E2,2.92E2,6.44E2,5.51E2,8.78E2,2.7E1,2.908E3],"tree_param":{"num_deleted":"0","num_feature":"52","num_nodes":"15","size_leaf_vector":"0"}},{"base_weights":[5.2648823E-4,4.0576595E-1,-1.316794E-1,-1.1817844E0,8.900342E-1,5.4706675E-1,-3.1618422E-1,6.777424E-2,-8.100194E0,7.1283264E0,5.20347E-1,-2.1352856E0,1.718421E0,-8.96013E0,-2.560884E-1],"categories":[],"categories_nodes":[],"categories_segments":[],"categories_sizes":[],"default_left":[true,true,true,true,true,true,true,false,false,false,false,false,false,false,false],"id":58,"left_children":[1,3,5,7,9,11,13,-1,-1,-1,-1,-1,-1,-1,-1],"loss_changes":[3.4062997E2,1.2034553E3,6.005349E2,3.1646038E3,2.7614448E3,3.2242036E3,1.9560878E3,0E0,0E0,0E0,0E0,0E0,0E0,0E0,0E0],"parents":[2147483647,0,0,1,1,2,2,3,3,4,4,5,5,6,6],"right_children":[2,4,6,8,10,12,14,-1,-1,-1,-1,-1,-1,-1,-1],"split_conditions":[-3.1900058E0,-1.0432039E1,-1.0387794E1,-1.0941994E1,-9.495258E0,9.625387E3,-1.0208696E1,2.0332273E-2,-2.4300582E0,2.138498E0,1.561041E-1,-6.405857E-1,5.155263E-1,-2.688039E0,-7.682653E-2],"split_indices":[22,0,0,0,0,5,0,0,0,0,0,0,0,0,0],"split_type":[0,0,0,0,0,0,0,0,0,0,0,0,0,0,0],"sum_hessian":[6.356E3,1.563E3,4.793E3,3.65E2,1.198E3,1.024E3,3.769E3,3.1E2,5.5E1,6.6E1,1.132E3,3.11E2,7.13E2,2.5E1,3.744E3],"tree_param":{"num_deleted":"0","num_feature":"52","num_nodes":"15","size_leaf_vector":"0"}},{"base_weights":[-1.0332627E-4,2.0030946E-1,-2.9434285E-1,-3.950575E-3,3.862087E-1,-1.0741565E0,-7.670036E-2,2.7023548E-1,-5.8420792E-2,2.7690753E-1,5.170624E-1,-1.7916067E0,-9.3173707E-1,2.273379E-1,-4.2119586E-1],"categories":[],"categories_nodes":[],"categories_segments":[],"categories_sizes":[],"default_left":[true,true,true,true,true,true,true,false,false,false,false,false,false,false,false],"id":59,"left_children":[1,3,5,7,9,11,13,-1,-1,-1,-1,-1,-1,-1,-1],"loss_changes":[3.749272E2,1.4361081E2,4.3711786E2,2.6943546E1,2.817572E1,5.575525E1,2.1114647E2,0E0,0E0,0E0,0E0,0E0,0E0,0E0,0E0],"parents":[2147483647,0,0,1,1,2,2,3,3,4,4,5,5,6,6],"right_children":[2,4,6,8,10,12,14,-1,-1,-1,-1,-1,-1,-1,-1],"split_conditions":[6.524508E-1,1.534466E1,5.624963E0,7.524866E1,-1.1252338E1,9.2906696E2,7.3021364E0,8.107065E-2,-1.752624E-2,8.307226E-2,1.5511873E-1,-5.37482E-1,-2.7952114E-1,6.820137E-2,-1.2635876E-1],"split_indices":[32,34,49,4,7,3,51,0,0,0,0,0,0,0,0],"split_type":[0,0,0,0,0,0,0,0,0,0,0,0,0,0,0],"sum_hessian":[6.356E3,3.781E3,2.575E3,1.802E3,1.979E3,5.61E2,2.014E3,2.98E2,1.504E3,1.08E3,8.99E2,9.1E1,4.7E2,1.07E3,9.44E2],"tree_param":{"num_deleted":"0","num_feature":"52","num_nodes":"15","size_leaf_vector":"0"}},{"base_weights":[-1.618891E-4,1.9076876E-1,-4.31763E-1,-6.026973E-3,3.6084797E0,-1.6256431E0,9.2604566E-1,1.0038691E-1,-1.0219145E1,-1.18090905E-1,4.7170177E0,-1.2242229E0,-1.784222E1,5.242447E0,4.1243863E-1],"categories":[],"categories_nodes":[],"categories_segments":[],"categories_sizes":[],"default_left":[true,true,true,true,true,true,true,false,false,false,false,false,false,false,false],"id":60,"left_children":[1,3,5,7,9,11,13,-1,-1,-1,-1,-1,-1,-1,-1],"loss_changes":[5.239365E2,2.9648025E3,3.162574E3,4.5319683E3,9.920073E2,6.7351865E3,2.0218987E3,0E0,0E0,0E0,0E0,0E0,0E0,0E0,0E0],"parents":[2147483647,0,0,1,1,2,2,3,3,4,4,5,5,6,6],"right_children":[2,4,6,8,10,12,14,-1,-1,-1,-1,-1,-1,-1,-1],"split_conditions":[7.8659306E0,6.818817E0,-1.4999184E-1,6.7050543E0,-9.657654E0,-1.3058028E0,-1.1420784E-3,3.0116074E-2,-3.0657437E0,-3.5427272E-2,1.4151053E0,-3.672669E-1,-5.3526664E0,1.5727341E0,1.2373159E-1],"split_indices":[1,1,0,1,0,0,27,0,0,0,0,0,0,0,0],"split_type":[0,0,0,0,0,0,0,0,0,0,0,0,0,0,0],"sum_hessian":[6.356E3,4.407E3,1.949E3,4.168E3,2.39E2,1.037E3,9.12E2,4.126E3,4.2E1,5.5E1,1.84E2,1.013E3,2.4E1,9.6E1,8.16E2],"tree_param":{"num_deleted":"0","num_feature":"52","num_nodes":"15","size_leaf_vector":"0"}},{"base_weights":[-1.0095572E-3,-1.0404457E0,6.617452E-2,-2.759014E0,5.7161796E-1,1.768112E0,-6.0134274E-3,5.555316E-1,-4.8390384E0,4.7814727E0,-1.8337805E0,8.0953133E-1,5.9678774E0,-1.5919601E0,1.06930815E-1],"categories":[],"categories_nodes":[],"categories_segments":[],"categories_sizes":[],"default_left":[true,true,true,true,true,true,true,false,false,false,false,false,false,false,false],"id":61,"left_children":[1,3,5,7,9,11,13,-1,-1,-1,-1,-1,-1,-1,-1],"loss_changes":[4.440008E2,1.0709675E3,7.3372687E2,1.291929E3,2.0340437E3,9.7344147E2,1.0265481E3,0E0,0E0,0E0,0E0,0E0,0E0,0E0,0E0],"parents":[2147483647,0,0,1,1,2,2,3,3,4,4,5,5,6,6],"right_children":[2,4,6,8,10,12,14,-1,-1,-1,-1,-1,-1,-1,-1],"split_conditions":[-2.3894553E0,5.1125383E-1,-5.562262E-1,-4.109375E-1,7.0154147E0,9.422062E0,4.7369868E-1,1.6665949E-1,-1.4517115E0,1.4344418E0,-5.501342E-1,2.4285941E-1,1.7903633E0,-4.7758803E-1,3.2079246E-2],"split_indices":[1,0,1,42,0,49,1,0,0,0,0,0,0,0,0],"split_type":[0,0,0,0,0,0,0,0,0,0,0,0,0,0,0],"sum_hessian":[6.356E3,3.85E2,5.971E3,1.86E2,1.99E2,2.42E2,5.729E3,7.2E1,1.14E2,7.2E1,1.27E2,1.98E2,4.4E1,3.8E2,5.349E3],"tree_param":{"num_deleted":"0","num_feature":"52","num_nodes":"15","size_leaf_vector":"0"}},{"base_weights":[-5.1588845E-4,1.4805228E-1,-3.3635587E-1,-1.8056246E-2,2.3213189E0,-1.1755066E0,6.180525E-1,1.379817E-1,-6.385175E0,1.3707566E1,1.0210309E0,3.5758448E-1,-3.477852E0,1.8551815E0,-1.0910528E0],"categories":[],"categories_nodes":[],"categories_segments":[],"categories_sizes":[],"default_left":[true,true,true,true,true,true,true,false,false,false,false,false,false,false,false],"id":62,"left_children":[1,3,5,7,9,11,13,-1,-1,-1,-1,-1,-1,-1,-1],"loss_changes":[3.1723315E2,1.5913217E3,1.5624669E3,4.070307E3,4.6200947E3,3.6650776E3,1.932456E3,0E0,0E0,0E0,0E0,0E0,0E0,0E0,0E0],"parents":[2147483647,0,0,1,1,2,2,3,3,4,4,5,5,6,6],"right_children":[2,4,6,8,10,12,14,-1,-1,-1,-1,-1,-1,-1,-1],"split_conditions":[7.8659306E0,6.5806065E0,-1.4999184E-1,6.2905507E0,6.7050543E0,-6.2501097E0,1.4321732E1,4.139451E-2,-1.9155526E0,4.11227E0,3.0630928E-1,1.07275344E-1,-1.0433557E0,5.5655444E-1,-3.2731584E-1],"split_indices":[1,1,0,1,1,0,1,0,0,0,0,0,0,0,0],"split_type":[0,0,0,0,0,0,0,0,0,0,0,0,0,0,0],"sum_hessian":[6.356E3,4.407E3,1.949E3,4.095E3,3.12E2,1.037E3,9.12E2,3.998E3,9.7E1,3.1E1,2.81E2,6.23E2,4.14E2,5.29E2,3.83E2],"tree_param":{"num_deleted":"0","num_feature":"52","num_nodes":"15","size_leaf_vector":"0"}},{"base_weights":[-7.199139E-5,-7.810296E-1,6.2266685E-2,1.8872917E0,-1.6407933E0,5.77349E0,2.2214973E-2,-9.7345835E-1,5.1369066E0,2.6331267E-1,-2.8051267E0,1.0182444E0,1.3948032E1,1.6761707E-1,-6.541018E-1],"categories":[],"categories_nodes":[],"categories_segments":[],"categories_sizes":[],"default_left":[true,true,true,true,true,true,true,false,false,false,false,false,false,false,false],"id":63,"left_children":[1,3,5,7,9,11,13,-1,-1,-1,-1,-1,-1,-1,-1],"loss_changes":[3.0953195E2,1.0813359E3,1.346718E3,1.0740793E3,7.8999554E2,1.5795476E3,5.7518945E2,0E0,0E0,0E0,0E0,0E0,0E0,0E0,0E0],"parents":[2147483647,0,0,1,1,2,2,3,3,4,4,5,5,6,6],"right_children":[2,4,6,8,10,12,14,-1,-1,-1,-1,-1,-1,-1,-1],"split_conditions":[-1.4251413E0,-7.670267E1,-1.360987E0,6.361097E0,-6.4710956E0,-1.3728743E0,5.4570227E0,-2.9203752E-1,1.541072E0,7.8993805E-2,-8.41538E-1,3.0547333E-1,4.18441E0,5.0285123E-2,-1.9623055E-1],"split_indices":[1,8,1,0,1,1,0,0,0,0,0,0,0,0,0],"split_type":[0,0,0,0,0,0,0,0,0,0,0,0,0,0,0],"sum_hessian":[6.356E3,4.69E2,5.887E3,1.14E2,3.55E2,4E1,5.847E3,6.1E1,5.3E1,1.35E2,2.2E2,2.6E1,1.4E1,4.813E3,1.034E3],"tree_param":{"num_deleted":"0","num_feature":"52","num_nodes":"15","size_leaf_vector":"0"}},{"base_weights":[7.1324455E-4,-1.461825E-1,3.1940198E-1,-7.354508E-2,-5.717198E0,5.533612E0,5.2238056E-3,-2.8354907E-1,1.1584167E0,4.655538E0,-8.96141E0,1.1223442E-2,8.187081E0,-3.5559016E-1,1.6662337E0],"categories":[],"categories_nodes":[],"categories_segments":[],"categories_sizes":[],"default_left":[true,true,true,true,true,true,true,false,false,false,false,false,false,false,false],"id":64,"left_children":[1,3,5,7,9,11,13,-1,-1,-1,-1,-1,-1,-1,-1],"loss_changes":[2.9764343E2,1.7606782E3,3.2861821E3,1.1120349E3,1.926196E3,1.6704058E3,1.1350968E3,0E0,0E0,0E0,0E0,0E0,0E0,0E0,0E0],"parents":[2147483647,0,0,1,1,2,2,3,3,4,4,5,5,6,6],"right_children":[2,4,6,8,10,12,14,-1,-1,-1,-1,-1,-1,-1,-1],"split_conditions":[-3.2030423E0,-3.2949858E0,-2.9461002E0,1.8461094E1,9.1641266E1,1.3566902E1,-2.875936E-1,-8.5064724E-2,3.4752503E-1,1.3966615E0,-2.688423E0,3.3670326E-3,2.4561245E0,-1.06677055E-1,4.9987012E-1],"split_indices":[0,0,0,44,9,34,47,0,0,0,0,0,0,0,0],"split_type":[0,0,0,0,0,0,0,0,0,0,0,0,0,0,0],"sum_hessian":[6.356E3,4.351E3,2.005E3,4.296E3,5.5E1,1.13E2,1.892E3,3.671E3,6.25E2,1.3E1,4.2E1,3.7E1,7.6E1,1.555E3,3.37E2],"tree_param":{"num_deleted":"0","num_feature":"52","num_nodes":"15","size_leaf_vector":"0"}},{"base_weights":[7.87167E-4,-3.4543354E-2,1.1233467E0,1.1362767E-2,-3.6165435E0,-5.293982E-2,8.098936E0,-5.824783E-2,1.1560156E0,-9.081871E0,-1.8255808E0,5.6007094E0,-1.8192916E0,5.841816E0,1.0253935E1],"categories":[],"categories_nodes":[],"categories_segments":[],"categories_sizes":[],"default_left":[true,true,true,true,true,true,true,false,false,false,false,false,false,false,false],"id":65,"left_children":[1,3,5,7,9,11,13,-1,-1,-1,-1,-1,-1,-1,-1],"loss_changes":[2.5216132E2,1.0136229E3,1.5922552E3,4.8507935E2,7.468996E2,1.6779071E3,7.629285E1,0E0,0E0,0E0,0E0,0E0,0E0,0E0,0E0],"parents":[2147483647,0,0,1,1,2,2,3,3,4,4,5,5,6,6],"right_children":[2,4,6,8,10,12,14,-1,-1,-1,-1,-1,-1,-1,-1],"split_conditions":[1.4015978E1,1.3805201E1,1.4897711E1,1.0874108E1,-1.176504E0,1.429101E1,9.6284515E-1,-1.747435E-2,3.468047E-1,-2.7245615E0,-5.476743E-1,1.6802129E0,-5.457875E-1,1.7525449E0,3.0761807E0],"split_indices":[0,0,1,0,42,0,32,0,0,0,0,0,0,0,0],"split_type":[0,0,0,0,0,0,0,0,0,0,0,0,0,0,0],"sum_hessian":[6.356E3,6.163E3,1.93E2,6.086E3,7.7E1,1.66E2,2.7E1,5.738E3,3.48E2,1.8E1,5.9E1,3.9E1,1.27E2,1.5E1,1.2E1],"tree_param":{"num_deleted":"0","num_feature":"52","num_nodes":"15","size_leaf_vector":"0"}},{"base_weights":[1.0249108E-3,1.241903E-1,-3.4332407E-1,2.9320326E-2,5.582405E0,-9.503117E0,-9.615851E-2,7.7484705E-2,-1.3786658E1,8.231207E0,-4.71793E0,-1.6661352E1,-2.8436985E0,4.458918E0,-2.758648E-1],"categories":[],"categories_nodes":[],"categories_segments":[],"categories_sizes":[],"default_left":[true,true,true,true,true,true,true,false,false,false,false,false,false,false,false],"id":66,"left_children":[1,3,5,7,9,11,13,-1,-1,-1,-1,-1,-1,-1,-1],"loss_changes":[2.6965494E2,2.4247908E3,3.791262E3,3.0647449E3,2.2215173E3,2.0500862E3,1.337146E3,0E0,0E0,0E0,0E0,0E0,0E0,0E0,0E0],"parents":[2147483647,0,0,1,1,2,2,3,3,4,4,5,5,6,6],"right_children":[2,4,6,8,10,12,14,-1,-1,-1,-1,-1,-1,-1,-1],"split_conditions":[9.053213E0,8.787246E0,9.26838E0,8.63933E0,3.755557E2,-7.77707E-1,9.543078E0,2.3245413E-2,-4.135998E0,2.4693623E0,-1.415379E0,-4.998406E0,-8.531096E-1,1.3376755E0,-8.275945E-2],"split_indices":[1,1,1,1,45,47,1,0,0,0,0,0,0,0,0],"split_type":[0,0,0,0,0,0,0,0,0,0,0,0,0,0,0],"sum_hessian":[6.356E3,4.682E3,1.674E3,4.603E3,7.9E1,4.3E1,1.631E3,4.588E3,1.5E1,6.3E1,1.6E1,2E1,2.3E1,6.1E1,1.57E3],"tree_param":{"num_deleted":"0","num_feature":"52","num_nodes":"15","size_leaf_vector":"0"}},{"base_weights":[-4.826429E-4,-3.908756E-2,1.118698E0,-2.3411639E-2,-5.689341E0,6.4955986E-1,6.4617796E0,7.9896003E-1,-1.1113696E-1,-7.5644135E-1,2.0923493E0],"categories":[],"categories_nodes":[],"categories_segments":[],"categories_sizes":[],"default_left":[true,true,true,true,false,true,false,false,false,false,false],"id":67,"left_children":[1,3,5,7,-1,9,-1,-1,-1,-1,-1],"loss_changes":[2.7470346E2,5.4423596E2,5.2721106E2,4.4232425E2,0E0,3.991812E2,0E0,0E0,0E0,0E0,0E0],"parents":[2147483647,0,0,1,1,2,2,3,3,5,5],"right_children":[2,4,6,8,-1,10,-1,-1,-1,-1,-1],"split_conditions":[2.0412434E1,2.0336607E1,3.135307E1,-1.3288523E1,-1.7068024E0,-1.9074302E0,1.9385339E0,2.3968802E-1,-3.3341087E-2,-2.2693242E-1,6.277048E-1],"split_indices":[1,1,26,0,0,23,0,0,0,0,0],"split_type":[0,0,0,0,0,0,0,0,0,0,0],"sum_hessian":[6.356E3,6.145E3,2.11E2,6.129E3,1.6E1,1.95E2,1.6E1,5.9E2,5.539E3,9.9E1,9.6E1],"tree_param":{"num_deleted":"0","num_feature":"52","num_nodes":"11","size_leaf_vector":"0"}},{"base_weights":[-2.0468068E-4,-4.702906E-1,7.8315586E-2,2.6300192E-2,-8.664545E0,1.2034953E1,2.9831275E-2,4.8680064E-1,-2.8136718E0,-5.4615498E0,-1.4937677E1,-3.1907476E-2,2.3962674E0],"categories":[],"categories_nodes":[],"categories_segments":[],"categories_sizes":[],"default_left":[true,true,true,true,true,false,true,false,false,false,false,false,false],"id":68,"left_children":[1,3,5,7,9,-1,11,-1,-1,-1,-1,-1,-1],"loss_changes":[2.346818E2,3.703192E3,3.1578975E3,1.1247771E3,9.6324365E2,0E0,7.929656E2,0E0,0E0,0E0,0E0,0E0,0E0],"parents":[2147483647,0,0,1,1,2,2,3,3,4,4,6,6],"right_children":[2,4,6,8,10,-1,12,-1,-1,-1,-1,-1,-1],"split_conditions":[-1.1628689E1,-1.1698774E1,-1.1607412E1,1.0945171E3,2.976197E1,3.610486E0,1.9333755E1,1.460402E-1,-8.441016E-1,-1.638465E0,-4.481303E0,-9.572243E-3,7.1888024E-1],"split_indices":[0,0,0,2,26,0,1,0,0,0,0,0,0],"split_type":[0,0,0,0,0,0,0,0,0,0,0,0,0],"sum_hessian":[6.356E3,9.09E2,5.447E3,8.58E2,5.1E1,2.1E1,5.426E3,7.39E2,1.19E2,3.5E1,1.6E1,5.289E3,1.37E2],"tree_param":{"num_deleted":"0","num_feature":"52","num_nodes":"13","size_leaf_vector":"0"}},{"base_weights":[-5.3882226E-4,1.15313366E-1,-3.7541792E-1,6.686251E-2,1.5750791E1,-4.86776E0,-2.710487E-2,9.58137E-2,-9.926072E0,-1.8195652E0,-1.4914986E1,7.0070114E0,-1.9751509E-1],"categories":[],"categories_nodes":[],"categories_segments":[],"categories_sizes":[],"default_left":[true,true,true,true,false,true,true,false,false,false,false,false,false],"id":69,"left_children":[1,3,5,7,-1,9,11,-1,-1,-1,-1,-1,-1],"loss_changes":[2.761314E2,3.6783777E3,2.3485452E3,1.4020663E3,0E0,3.280459E3,1.6723513E3,0E0,0E0,0E0,0E0,0E0,0E0],"parents":[2147483647,0,0,1,1,2,2,3,3,5,5,6,6],"right_children":[2,4,6,8,-1,10,12,-1,-1,-1,-1,-1,-1],"split_conditions":[9.795107E0,9.664902E0,1.0090378E1,9.5588045E0,4.7252374E0,1.008544E1,1.0286536E1,2.874411E-2,-2.9778218E0,-5.458696E-1,-4.474496E0,2.1021035E0,-5.9254527E-2],"split_indices":[1,1,1,1,0,1,1,0,0,0,0,0,0],"split_type":[0,0,0,0,0,0,0,0,0,0,0,0,0],"sum_hessian":[6.356E3,4.856E3,1.5E3,4.842E3,1.4E1,1.07E2,1.393E3,4.829E3,1.3E1,8.3E1,2.4E1,3.2E1,1.361E3],"tree_param":{"num_deleted":"0","num_feature":"52","num_nodes":"13","size_leaf_vector":"0"}},{"base_weights":[-5.6917657E-4,-9.7496927E-1,3.633278E-2,-1.739112E0,1.5760776E0,3.5445447E0,2.7996395E-3,-2.0884178E0,2.2191916E0,3.8515308E0,-1.4287192E0,6.747039E0,-2.4192324E0,1.4150955E-1,-2.5156793E-1],"categories":[],"categories_nodes":[],"categories_segments":[],"categories_sizes":[],"default_left":[true,true,true,true,true,true,true,false,false,false,false,false,false,false,false],"id":70,"left_children":[1,3,5,7,9,11,13,-1,-1,-1,-1,-1,-1,-1,-1],"loss_changes":[2.2861577E2,4.5499347E2,7.206611E2,2.5213043E2,3.7471558E2,1.1240623E3,2.1416995E2,0E0,0E0,0E0,0E0,0E0,0E0,0E0,0E0],"parents":[2147483647,0,0,1,1,2,2,3,3,4,4,5,5,6,6],"right_children":[2,4,6,8,10,12,14,-1,-1,-1,-1,-1,-1,-1,-1],"split_conditions":[-2.3713562E1,-2.875936E-1,-2.2133232E1,1.3901787E1,-8.625071E0,-7.1054274E-15,6.2905507E0,-6.2652534E-1,6.657575E-1,1.1554593E0,-4.2861578E-1,2.0241117E0,-7.2576976E-1,4.2452864E-2,-7.547038E-2],"split_indices":[0,47,0,12,7,7,1,0,0,0,0,0,0,0,0],"split_type":[0,0,0,0,0,0,0,0,0,0,0,0,0,0,0],"sum_hessian":[6.356E3,2.31E2,6.125E3,1.78E2,5.3E1,5.7E1,6.068E3,1.64E2,1.4E1,3E1,2.3E1,3.7E1,2E1,3.927E3,2.141E3],"tree_param":{"num_deleted":"0","num_feature":"52","num_nodes":"15","size_leaf_vector":"0"}},{"base_weights":[-7.715086E-5,-2.003592E-1,2.155106E-1,1.0965685E-1,-2.5446875E0,5.8120675E0,1.263397E-1,-5.548365E-2,9.018943E0,-5.53679E0,3.7978566E0,1.0603348E1,3.5273244E0,-8.825484E0,2.1320832E-1],"categories":[],"categories_nodes":[],"categories_segments":[],"categories_sizes":[],"default_left":[true,true,true,true,true,true,true,false,false,false,false,false,false,false,false],"id":71,"left_children":[1,3,5,7,9,11,13,-1,-1,-1,-1,-1,-1,-1,-1],"loss_changes":[2.7452798E2,2.395744E3,1.5273569E3,4.2848794E3,7.327381E3,4.8804712E2,2.3464438E3,0E0,0E0,0E0,0E0,0E0,0E0,0E0,0E0],"parents":[2147483647,0,0,1,1,2,2,3,3,4,4,5,5,6,6],"right_children":[2,4,6,8,10,12,14,-1,-1,-1,-1,-1,-1,-1,-1],"split_conditions":[4.7424297E0,3.6722991E0,4.941203E0,3.6308022E0,-3.7408445E0,1.3268963E1,5.0190315E0,-1.6645096E-2,2.705683E0,-1.6610371E0,1.139357E0,3.1810045E0,1.0581974E0,-2.6476455E0,6.39625E-2],"split_indices":[1,1,1,1,0,34,1,0,0,0,0,0,0,0,0],"split_type":[0,0,0,0,0,0,0,0,0,0,0,0,0,0,0],"sum_hessian":[6.356E3,3.295E3,3.061E3,2.911E3,3.84E2,4.7E1,3.014E3,2.859E3,5.2E1,2.61E2,1.23E2,1.4E1,3.3E1,2.8E1,2.986E3],"tree_param":{"num_deleted":"0","num_feature":"52","num_nodes":"15","size_leaf_vector":"0"}},{"base_weights":[5.4670364E-4,2.613902E-1,-1.1855104E-1,1.2058583E0,-9.104685E-1,-1.0138808E0,3.2029268E-1,4.663018E-1,4.427487E0,-5.5925894E0,-1.945555E-1,-3.7603226E0,-2.2616799E-1,1.2421386E1,2.2866522E-1],"categories":[],"categories_nodes":[],"categories_segments":[],"categories_sizes":[],"default_left":[true,true,true,true,true,true,true,false,false,false,false,false,false,false,false],"id":72,"left_children":[1,3,5,7,9,11,13,-1,-1,-1,-1,-1,-1,-1,-1],"loss_changes":[1.9751674E2,2.206917E3,1.7153763E3,2.6282998E3,2.982184E3,3.1058022E3,3.245922E3,0E0,0E0,0E0,0E0,0E0,0E0,0E0,0E0],"parents":[2147483647,0,0,1,1,2,2,3,3,4,4,5,5,6,6],"right_children":[2,4,6,8,10,12,14,-1,-1,-1,-1,-1,-1,-1,-1],"split_conditions":[-8.25041E0,3.5462801E0,2.803138E0,1.0476781E0,5.5956135E0,-6.193738E0,2.8806164E0,1.3989055E-1,1.3282461E0,-1.6777769E0,-5.8366653E-2,-1.1280968E0,-6.78504E-2,3.7264159E0,6.859957E-2],"split_indices":[0,1,1,23,1,0,1,0,0,0,0,0,0,0,0],"split_type":[0,0,0,0,0,0,0,0,0,0,0,0,0,0,0],"sum_hessian":[6.356E3,1.992E3,4.364E3,1.103E3,8.89E2,1.435E3,2.929E3,8.98E2,2.05E2,1.17E2,7.72E2,3.19E2,1.116E3,2.1E1,2.908E3],"tree_param":{"num_deleted":"0","num_feature":"52","num_nodes":"15","size_leaf_vector":"0"}},{"base_weights":[7.480419E-4,1.2123921E-1,-3.670231E-1,2.7989915E-1,-5.295816E-1,1.6916939E0,-8.058476E-1,8.684862E-2,1.5358756E0,-8.591145E0,-2.0796008E-1,4.2805883E-1,4.431912E0,-1.0181975E1,-6.5813905E-1],"categories":[],"categories_nodes":[],"categories_segments":[],"categories_sizes":[],"default_left":[true,true,true,true,true,true,true,false,false,false,false,false,false,false,false],"id":73,"left_children":[1,3,5,7,9,11,13,-1,-1,-1,-1,-1,-1,-1,-1],"loss_changes":[2.8174335E2,4.9465656E2,1.418822E3,9.3360675E2,2.4328262E3,9.537902E2,1.785404E3,0E0,0E0,0E0,0E0,0E0,0E0,0E0,0E0],"parents":[2147483647,0,0,1,1,2,2,3,3,4,4,5,5,6,6],"right_children":[2,4,6,8,10,12,14,-1,-1,-1,-1,-1,-1,-1,-1],"split_conditions":[4.137704E0,3.3637614E0,-1.0163627E1,-3.2030423E0,5.597721E0,-1.1628689E1,-9.962639E0,2.6054585E-2,4.6076268E-1,-2.5773435E0,-6.238803E-2,1.2841766E-1,1.3295736E0,-3.0545928E0,-1.9744173E-1],"split_indices":[18,0,0,0,0,0,0,0,0,0,0,0,0,0,0],"split_type":[0,0,0,0,0,0,0,0,0,0,0,0,0,0,0],"sum_hessian":[6.356E3,4.788E3,1.568E3,3.85E3,9.38E2,2.75E2,1.293E3,3.338E3,5.12E2,3.5E1,9.03E2,1.89E2,8.6E1,1.9E1,1.274E3],"tree_param":{"num_deleted":"0","num_feature":"52","num_nodes":"15","size_leaf_vector":"0"}},{"base_weights":[-9.97366E-5,-2.0978057E0,2.0894E-2,-3.3994534E0,1.9382505E0,2.1408218E-1,-2.161738E-1,-8.043343E-1,-6.429852E0,5.28414E-2,8.79177E0,-6.9503794E0,-1.1702827E-1],"categories":[],"categories_nodes":[],"categories_segments":[],"categories_sizes":[],"default_left":[true,true,true,true,false,true,true,false,false,false,false,false,false],"id":74,"left_children":[1,3,5,7,-1,9,11,-1,-1,-1,-1,-1,-1],"loss_changes":[2.7999777E2,3.3756104E2,2.883491E2,3.72312E2,0E0,4.797416E3,1.8866793E3,0E0,0E0,0E0,0E0,0E0,0E0],"parents":[2147483647,0,0,1,1,2,2,3,3,5,5,6,6],"right_children":[2,4,6,8,-1,10,12,-1,-1,-1,-1,-1,-1],"split_conditions":[-2.9086187E1,1.0658141E-14,-4.8736234E0,4.4113618E-1,5.814752E-1,-5.029763E0,-4.8290043E0,-2.413003E-1,-1.9289557E0,1.585242E-2,2.637531E0,-2.085114E0,-3.5108484E-2],"split_indices":[0,17,0,32,0,0,0,0,0,0,0,0,0],"split_type":[0,0,0,0,0,0,0,0,0,0,0,0,0],"sum_hessian":[6.356E3,6.2E1,6.294E3,4.7E1,1.5E1,3.468E3,2.826E3,2.6E1,2.1E1,3.405E3,6.3E1,4E1,2.786E3],"tree_param":{"num_deleted":"0","num_feature":"52","num_nodes":"13","size_leaf_vector":"0"}},{"base_weights":[-2.3612598E-4,-6.2593706E-2,5.7790667E-1,-8.234634E-3,-6.007436E0,9.052942E0,6.986539E-2,1.4399502E-1,-4.890651E-1,-1.5975462E0,-1.6778662E1,1.4956863E1,4.8844037E0,-1.4395592E1,5.019268E-1],"categories":[],"categories_nodes":[],"categories_segments":[],"categories_sizes":[],"default_left":[true,true,true,true,true,true,true,false,false,false,false,false,false,false,false],"id":75,"left_children":[1,3,5,7,9,11,13,-1,-1,-1,-1,-1,-1,-1,-1],"loss_changes":[2.292161E2,1.8545435E3,2.6645757E3,4.16413E2,2.443191E3,7.8832007E2,3.663455E3,0E0,0E0,0E0,0E0,0E0,0E0,0E0,0E0],"parents":[2147483647,0,0,1,1,2,2,3,3,4,4,5,5,6,6],"right_children":[2,4,6,8,10,12,14,-1,-1,-1,-1,-1,-1,-1,-1],"split_conditions":[1.0874108E1,9.56825E0,1.1328238E1,4.137704E0,-7.1054274E-15,8.025095E2,1.1858594E1,4.3198507E-2,-1.4671955E-1,-4.7926387E-1,-5.033599E0,4.487059E0,1.4653212E0,-4.318678E0,1.5057804E-1],"split_indices":[0,0,0,18,7,3,0,0,0,0,0,0,0,0,0],"split_type":[0,0,0,0,0,0,0,0,0,0,0,0,0,0,0],"sum_hessian":[6.356E3,5.738E3,6.18E2,5.687E3,5.1E1,3.4E1,5.84E2,4.32E3,1.367E3,3.7E1,1.4E1,1.3E1,2.1E1,1.6E1,5.68E2],"tree_param":{"num_deleted":"0","num_feature":"52","num_nodes":"15","size_leaf_vector":"0"}},{"base_weights":[-7.696615E-4,1.357681E-1,-2.012297E-1,4.4127926E-2,3.1028694E-1,-6.5593284E-1,-8.792475E-3,9.997995E-2,-7.400858E-2,2.712004E-1,4.2988214E-1,-8.1067497E-1,-5.1231706E-1,-5.641497E-1,5.8570646E-2],"categories":[],"categories_nodes":[],"categories_segments":[],"categories_sizes":[],"default_left":[true,true,true,true,true,true,true,false,false,false,false,false,false,false,false],"id":76,"left_children":[1,3,5,7,9,11,13,-1,-1,-1,-1,-1,-1,-1,-1],"loss_changes":[1.7402074E2,6.0471596E1,2.253989E2,1.6377441E1,5.9697037E0,1.6607819E1,6.778362E1,0E0,0E0,0E0,0E0,0E0,0E0,0E0,0E0],"parents":[2147483647,0,0,1,1,2,2,3,3,4,4,5,5,6,6],"right_children":[2,4,6,8,10,12,14,-1,-1,-1,-1,-1,-1,-1,-1],"split_conditions":[6.524508E-1,2.9942688E2,-1.734049E-1,-2.487027E-1,9.3624426E2,3.1016333E2,8.929682E1,2.9993987E-2,-2.2202574E-2,8.136012E-2,1.2896465E-1,-2.432025E-1,-1.5369512E-1,-1.6924492E-1,1.7571194E-2],"split_indices":[32,35,38,47,2,4,9,0,0,0,0,0,0,0,0],"split_type":[0,0,0,0,0,0,0,0,0,0,0,0,0,0,0],"sum_hessian":[6.356E3,3.781E3,2.575E3,2.48E3,1.301E3,7.65E2,1.81E3,1.684E3,7.96E2,9.83E2,3.18E2,3.66E2,3.99E2,1.95E2,1.615E3],"tree_param":{"num_deleted":"0","num_feature":"52","num_nodes":"15","size_leaf_vector":"0"}},{"base_weights":[-5.924488E-4,1.7041872E-1,-1.8386228E-1,3.2132212E-2,8.301081E0,-4.992297E0,1.0101662E-2,8.376479E-2,-7.512379E0,6.4508233E0,1.4393603E1,-2.5132575E0,-1.0870185E1,3.7926245E0,-1.5715177E-1],"categories":[],"categories_nodes":[],"categories_segments":[],"categories_sizes":[],"default_left":[true,true,true,true,true,true,true,false,false,false,false,false,false,false,false],"id":77,"left_children":[1,3,5,7,9,11,13,-1,-1,-1,-1,-1,-1,-1,-1],"loss_changes":[1.9926727E2,3.6977563E3,2.8623933E3,1.2607996E3,5.2714966E2,1.7066909E3,1.8675165E3,0E0,0E0,0E0,0E0,0E0,0E0,0E0,0E0],"parents":[2147483647,0,0,1,1,2,2,3,3,4,4,5,5,6,6],"right_children":[2,4,6,8,10,12,14,-1,-1,-1,-1,-1,-1,-1,-1],"split_conditions":[-5.300255E0,-5.3806505E0,-5.102852E0,-5.3948665E0,-5.3358045E0,1.2514818E0,-4.8736234E0,2.512944E-2,-2.2537138E0,1.9352471E0,4.3180814E0,-7.539773E-1,-3.2610557E0,1.1377873E0,-4.7145534E-2],"split_indices":[0,0,0,0,0,27,0,0,0,0,0,0,0,0,0],"split_type":[0,0,0,0,0,0,0,0,0,0,0,0,0,0,0],"sum_hessian":[6.356E3,3.288E3,3.068E3,3.234E3,5.4E1,1.18E2,2.95E3,3.213E3,2.1E1,4.3E1,1.1E1,8.4E1,3.4E1,1.24E2,2.826E3],"tree_param":{"num_deleted":"0","num_feature":"52","num_nodes":"15","size_leaf_vector":"0"}},{"base_weights":[-2.400517E-4,5.753174E-2,-6.252058E-1,-1.4921923E-2,1.6992863E0,-9.354483E0,-9.128303E-2,4.2367104E-2,-3.7156177E0,-2.6902795E0,3.0986161E0,-1.3632466E1,-5.507468E0,3.108403E-1,-1.1055243E1],"categories":[],"categories_nodes":[],"categories_segments":[],"categories_sizes":[],"default_left":[true,true,true,true,true,true,true,false,false,false,false,false,false,false,false],"id":78,"left_children":[1,3,5,7,9,11,13,-1,-1,-1,-1,-1,-1,-1,-1],"loss_changes":[2.2955795E2,6.92321E2,2.5066348E3,1.182109E3,1.5193787E3,4.3510107E2,2.2431394E3,0E0,0E0,0E0,0E0,0E0,0E0,0E0,0E0],"parents":[2147483647,0,0,1,1,2,2,3,3,4,4,5,5,6,6],"right_children":[2,4,6,8,10,12,14,-1,-1,-1,-1,-1,-1,-1,-1],"split_conditions":[1.5528864E1,1.4748088E1,1.5910806E1,1.4573492E1,-1.503528E-1,2.727963E-1,9.332163E0,1.2710132E-2,-1.1146853E0,-8.070839E-1,9.2958486E-1,-4.0897403E0,-1.6522405E0,9.325209E-2,-3.316573E0],"split_indices":[1,1,1,1,38,32,0,0,0,0,0,0,0,0,0],"split_type":[0,0,0,0,0,0,0,0,0,0,0,0,0,0,0],"sum_hessian":[6.356E3,5.819E3,5.37E2,5.574E3,2.45E2,3E1,5.07E2,5.49E3,8.4E1,5.9E1,1.86E2,1.3E1,1.7E1,4.9E2,1.7E1],"tree_param":{"num_deleted":"0","num_feature":"52","num_nodes":"15","size_leaf_vector":"0"}},{"base_weights":[-1.731132E-3,-4.803667E-1,7.821749E-2,6.9865145E-2,-4.888361E0,5.482711E0,3.21903E-2,-2.4166641E0,3.3812463E-1,-8.6325035E0,-2.5888958E0,3.1290207E0,8.662743E0,-1.8676744E0,8.234206E-2],"categories":[],"categories_nodes":[],"categories_segments":[],"categories_sizes":[],"default_left":[true,true,true,true,true,true,true,false,false,false,false,false,false,false,false],"id":79,"left_children":[1,3,5,7,9,11,13,-1,-1,-1,-1,-1,-1,-1,-1],"loss_changes":[2.4329616E2,2.2074727E3,1.3550333E3,5.411156E2,8.472136E2,3.1719543E2,5.1495996E2,0E0,0E0,0E0,0E0,0E0,0E0,0E0,0E0],"parents":[2147483647,0,0,1,1,2,2,3,3,4,4,5,5,6,6],"right_children":[2,4,6,8,10,12,14,-1,-1,-1,-1,-1,-1,-1,-1],"split_conditions":[-1.1628689E1,-1.2081549E1,-1.1569466E1,-1.5790701E0,-7.391199E-1,9.049578E2,-1.1240162E1,-7.2499925E-1,1.014374E-1,-2.5897512E0,-7.766688E-1,9.387062E-1,2.5988228E0,-5.603023E-1,2.4702618E-2],"split_indices":[0,0,0,28,47,2,0,0,0,0,0,0,0,0,0],"split_type":[0,0,0,0,0,0,0,0,0,0,0,0,0,0,0],"sum_hessian":[6.356E3,9.09E2,5.447E3,8.09E2,1E2,4.5E1,5.402E3,7.8E1,7.31E2,3.7E1,6.3E1,2.7E1,1.8E1,1.38E2,5.264E3],"tree_param":{"num_deleted":"0","num_feature":"52","num_nodes":"15","size_leaf_vector":"0"}},{"base_weights":[-1.3671463E-3,3.5392258E-1,-1.08499266E-1,-2.2995148E0,1.0231808E0,-7.534806E0,-2.3929745E-2,6.3452315E0,-2.8799832E0,3.756636E0,3.300048E-1,8.027632E0,-1.4125232E1,4.2352586E0,-8.290635E-2],"categories":[],"categories_nodes":[],"categories_segments":[],"categories_sizes":[],"default_left":[true,true,true,true,true,true,true,false,false,false,false,false,false,false,false],"id":80,"left_children":[1,3,5,7,9,11,13,-1,-1,-1,-1,-1,-1,-1,-1],"loss_changes":[2.4200452E2,2.6181577E3,3.067791E3,1.5086206E3,2.2288994E3,5.7543623E3,1.2138618E3,0E0,0E0,0E0,0E0,0E0,0E0,0E0,0E0],"parents":[2147483647,0,0,1,1,2,2,3,3,4,4,5,5,6,6],"right_children":[2,4,6,8,10,12,14,-1,-1,-1,-1,-1,-1,-1,-1],"split_conditions":[1.3695567E0,-1.1240162E1,1.5005234E0,1.954705E1,-8.61516E0,-1.142835E1,1.7022786E0,1.9035696E0,-8.63995E-1,1.1269908E0,9.9001445E-2,2.4082897E0,-4.23757E0,1.2705777E0,-2.4871906E-2],"split_indices":[1,0,1,24,0,0,1,0,0,0,0,0,0,0,0],"split_type":[0,0,0,0,0,0,0,0,0,0,0,0,0,0,0],"sum_hessian":[6.356E3,1.472E3,4.884E3,2.96E2,1.176E3,5.4E1,4.83E3,1.8E1,2.78E2,2.37E2,9.39E2,1.6E1,3.8E1,6.5E1,4.765E3],"tree_param":{"num_deleted":"0","num_feature":"52","num_nodes":"15","size_leaf_vector":"0"}},{"base_weights":[-6.918914E-4,-4.9983904E-2,5.7060874E-1,-2.4344217E-2,-1.1566247E1,2.1417347E1,-2.3750864E-2,-4.7247373E-2,3.3841522E0,-6.4718204E0,3.9410192E-1],"categories":[],"categories_nodes":[],"categories_segments":[],"categories_sizes":[],"default_left":[true,true,true,true,false,false,true,false,false,false,false],"id":81,"left_children":[1,3,5,7,-1,-1,9,-1,-1,-1,-1],"loss_changes":[1.790452E2,1.7279534E3,6.2576904E3,4.5613947E2,0E0,0E0,1.3281677E3,0E0,0E0,0E0,0E0],"parents":[2147483647,0,0,1,1,2,2,3,3,6,6],"right_children":[2,4,6,8,-1,-1,10,-1,-1,-1,-1],"split_conditions":[1.2756098E1,1.2666317E1,1.2914688E1,1.2154652E1,-3.4698741E0,6.4252043E0,4.24404E1,-1.4174213E-2,1.0152457E0,-1.9415462E0,1.1823058E-1],"split_indices":[0,0,0,0,0,0,16,0,0,0,0],"split_type":[0,0,0,0,0,0,0,0,0,0,0],"sum_hessian":[6.356E3,5.852E3,5.04E2,5.84E3,1.2E1,1.3E1,4.91E2,5.802E3,3.8E1,2.9E1,4.62E2],"tree_param":{"num_deleted":"0","num_feature":"52","num_nodes":"11","size_leaf_vector":"0"}},{"base_weights":[-1.4867778E-4,3.4976074E-1,-7.8317754E-2,1.4688279E-1,9.562659E0,-2.5039418E0,3.2111392E-3,-2.7627082E0,6.020963E-1,1.3565588E1,4.095688E0,-8.676181E-1,-6.2729335E0,2.85244E0,-8.136234E-2],"categories":[],"categories_nodes":[],"categories_segments":[],"categories_sizes":[],"default_left":[true,true,true,true,true,true,true,false,false,false,false,false,false,false,false],"id":82,"left_children":[1,3,5,7,9,11,13,-1,-1,-1,-1,-1,-1,-1,-1],"loss_changes":[1.7390465E2,2.1686135E3,1.0277587E3,1.507603E3,4.9153687E2,1.0368296E3,1.2120662E3,0E0,0E0,0E0,0E0,0E0,0E0,0E0,0E0],"parents":[2147483647,0,0,1,1,2,2,3,3,4,4,5,5,6,6],"right_children":[2,4,6,8,10,12,14,-1,-1,-1,-1,-1,-1,-1,-1],"split_conditions":[7.4285764E-1,6.91629E-1,1.0337646E0,-1.1628689E1,-3.3167726E-1,9.5907897E-1,1.3695567E0,-8.288125E-1,1.806289E-1,4.0696764E0,1.2287064E0,-2.6028544E-1,-1.8818802E0,8.557321E-1,-2.4408702E-2],"split_indices":[1,1,1,0,47,1,1,0,0,0,0,0,0,0,0],"split_type":[0,0,0,0,0,0,0,0,0,0,0,0,0,0,0],"sum_hessian":[6.356E3,1.16E3,5.196E3,1.136E3,2.4E1,1.68E2,5.028E3,1.53E2,9.83E2,1.3E1,1.1E1,1.18E2,5E1,1.44E2,4.884E3],"tree_param":{"num_deleted":"0","num_feature":"52","num_nodes":"15","size_leaf_vector":"0"}},{"base_weights":[4.2448574E-4,1.9723309E0,-1.5205785E-2,3.6342566E0,-2.1477792E0,-2.2920663E0,1.626219E-2,1.2502791E0,7.7558875E0,-8.271807E0,-6.9891566E-1,1.7269033E0,-1.0255541E-2],"categories":[],"categories_nodes":[],"categories_segments":[],"categories_sizes":[],"default_left":[true,true,true,true,false,true,true,false,false,false,false,false,false],"id":83,"left_children":[1,3,5,7,-1,9,11,-1,-1,-1,-1,-1,-1],"loss_changes":[1.9596184E2,3.5017145E2,4.5199405E2,3.4403445E2,0E0,8.135086E2,2.8230743E2,0E0,0E0,0E0,0E0,0E0,0E0],"parents":[2147483647,0,0,1,1,2,2,3,3,5,5,6,6],"right_children":[2,4,6,8,-1,10,12,-1,-1,-1,-1,-1,-1],"split_conditions":[-8.648897E0,1.827705E1,-6.611761E0,8.5929004E2,-6.443338E-1,5.301968E2,-6.239132E0,3.7508374E-1,2.3267663E0,-2.481542E0,-2.096747E-1,5.18071E-1,-3.0766623E-3],"split_indices":[1,44,1,2,0,3,1,0,0,0,0,0,0],"split_type":[0,0,0,0,0,0,0,0,0,0,0,0,0],"sum_hessian":[6.356E3,4.9E1,6.307E3,3.5E1,1.4E1,8.5E1,6.222E3,2.3E1,1.2E1,1.7E1,6.8E1,9.4E1,6.128E3],"tree_param":{"num_deleted":"0","num_feature":"52","num_nodes":"13","size_leaf_vector":"0"}},{"base_weights":[2.8352856E-4,-3.0163249E-2,8.916479E-1,-3.8564606E-3,-4.904774E0,-3.5924524E-1,4.5119915E0,1.9182457E-1,-1.5633628E-1,-1.3953625E0,-1.0196533E1,2.2869933E0,-1.3455845E0,5.600456E0,1.3086202E0],"categories":[],"categories_nodes":[],"categories_segments":[],"categories_sizes":[],"default_left":[true,true,true,true,true,true,true,false,false,false,false,false,false,false,false],"id":84,"left_children":[1,3,5,7,9,11,13,-1,-1,-1,-1,-1,-1,-1,-1],"loss_changes":[1.7255061E2,7.883721E2,9.5264014E2,1.8251558E2,5.9861383E2,4.1286133E2,1.8095593E2,0E0,0E0,0E0,0E0,0E0,0E0,0E0,0E0],"parents":[2147483647,0,0,1,1,2,2,3,3,4,4,5,5,6,6],"right_children":[2,4,6,8,10,12,14,-1,-1,-1,-1,-1,-1,-1,-1],"split_conditions":[1.3943969E1,1.3829847E1,9.422062E0,