{"learner":{"attributes":{"best_iteration":"57","best_ntree_limit":"58"},"feature_names":["PC_001","PC_002"],"feature_types":["float","float"],"gradient_booster":{"model":{"gbtree_model_param":{"num_trees":"58","size_leaf_vector":"0"},"tree_info":[0,0,0,0,0,0,0,0,0,0,0,0,0,0,0,0,0,0,0,0,0,0,0,0,0,0,0,0,0,0,0,0,0,0,0,0,0,0,0,0,0,0,0,0,0,0,0,0,0,0,0,0,0,0,0,0,0,0],"trees":[{"base_weights":[2.1511229E2,2.0788214E2,2.2627971E2,2.0676625E2,2.2544429E2,2.1478822E2,2.387807E2,2.0156354E2,2.1852388E2],"categories":[],"categories_nodes":[],"categories_segments":[],"categories_sizes":[],"default_left":[true,true,true,false,false,true,false,false,false],"id":0,"left_children":[1,3,5,-1,-1,7,-1,-1,-1],"loss_changes":[4.63584E5,2.8848E4,3.0412E5,0E0,0E0,2.0128E4,0E0,0E0,0E0],"parents":[2147483647,0,0,1,1,2,2,5,5],"right_children":[2,4,6,-1,-1,8,-1,-1,-1],"split_conditions":[1.8079735E1,1.01304E2,8.295914E0,6.2029877E1,6.763329E1,3.0064053E1,7.163422E1,6.0469063E1,6.555717E1],"split_indices":[0,1,1,0,0,0,0,0,0],"split_type":[0,0,0,0,0,0,0,0,0],"sum_hessian":[6.323E3,3.85E3,2.473E3,3.632E3,2.18E2,1.298E3,1.175E3,2.98E2,1E3],"tree_param":{"num_deleted":"0","num_feature":"2","num_nodes":"9","size_leaf_vector":"0"}},{"base_weights":[1.5063036E2,1.4555116E2,1.584757E2,1.4475345E2,1.5811983E2,1.5044878E2,1.672074E2,1.4178172E2,1.4724557E2,1.4321268E2,1.543249E2,1.6312053E2,1.782444E2,1.4548074E2,1.3262865E2,1.4916678E2,1.368781E2,1.6529187E2,1.5064497E2,1.8084302E2,1.5742049E2,1.5397327E2,1.8316232E2],"categories":[],"categories_nodes":[],"categories_segments":[],"categories_sizes":[],"default_left":[true,true,true,true,false,true,true,true,true,false,true,true,true,false,false,false,false,false,false,false,false,false,false],"id":1,"left_children":[1,3,5,7,-1,9,11,13,15,-1,17,19,21,-1,-1,-1,-1,-1,-1,-1,-1,-1,-1],"loss_changes":[2.28928E5,1.572E4,1.4824E5,6.032E3,0E0,1.4334E4,2.3968E4,3.772E4,1.8424E4,0E0,8.718E3,5.942E4,8.443E3,0E0,0E0,0E0,0E0,0E0,0E0,0E0,0E0,0E0,0E0],"parents":[2147483647,0,0,1,1,2,2,3,3,5,5,6,6,7,7,8,8,10,10,11,11,12,12],"right_children":[2,4,6,8,-1,10,12,14,16,-1,18,20,22,-1,-1,-1,-1,-1,-1,-1,-1,-1,-1],"split_conditions":[1.8079735E1,1.01304E2,8.295914E0,-7.2165794E1,4.743595E1,3.829699E1,1.410575E2,-2.8985092E1,-8.341115E-1,4.2963806E1,-6.1060997E1,2.1426397E1,7.5880356E1,4.3644226E1,3.9788597E1,4.4750034E1,4.106343E1,4.9587563E1,4.5193493E1,5.4252907E1,4.7226147E1,4.6191982E1,5.49487E1],"split_indices":[0,1,1,0,0,0,1,1,0,0,1,0,0,0,0,0,0,0,0,0,0,0,0],"split_type":[0,0,0,0,0,0,0,0,0,0,0,0,0,0,0,0,0,0,0,0,0,0,0],"sum_hessian":[6.323E3,3.85E3,2.473E3,3.632E3,2.18E2,1.298E3,1.175E3,1.683E3,1.949E3,4.66E2,8.32E2,8.69E2,3.06E2,1.188E3,4.95E2,1.633E3,3.16E2,1.98E2,6.34E2,2.04E2,6.65E2,5.7E1,2.49E2],"tree_param":{"num_deleted":"0","num_feature":"2","num_nodes":"23","size_leaf_vector":"0"}},{"base_weights":[1.05529335E2,1.036952E2,1.16510544E2,9.9950066E1,1.0673138E2,1.11404465E2,1.2428271E2,1.0018884E2,7.6594376E1,1.0464474E2,1.1285923E2,1.12834496E2,9.031499E1,1.12425964E2,1.2843341E2,1.0070423E2,9.1784195E1,1.0251975E2,1.0817628E2,1.2629267E2,1.0594286E2],"categories":[],"categories_nodes":[],"categories_segments":[],"categories_sizes":[],"default_left":[true,true,true,true,true,true,true,true,false,true,true,false,false,false,false,false,false,false,false,false,false],"id":2,"left_children":[1,3,5,7,9,11,13,15,-1,17,19,-1,-1,-1,-1,-1,-1,-1,-1,-1,-1],"loss_changes":[1.15288E5,5.1056E4,2.1752E4,5.966E3,2.6332E4,6.427E3,2.638E3,1.232E3,0E0,5.712E3,5.5839E4,0E0,0E0,0E0,0E0,0E0,0E0,0E0,0E0,0E0,0E0],"parents":[2147483647,0,0,1,1,2,2,3,3,4,4,5,5,6,6,7,7,9,9,10,10],"right_children":[2,4,6,8,10,12,14,16,-1,18,20,-1,-1,-1,-1,-1,-1,-1,-1,-1,-1],"split_conditions":[7.914836E1,-4.5272392E1,7.5880356E1,7.4253296E1,8.295914E0,1.7747937E2,1.410575E2,-5.399313E1,2.2978313E1,3.8707436E1,1.1983281E1,3.385035E1,2.7094498E1,3.372779E1,3.8530025E1,3.0211271E1,2.753526E1,3.0755926E1,3.2452885E1,3.7887802E1,3.178286E1],"split_indices":[1,0,0,1,1,1,1,0,0,0,1,0,0,0,0,0,0,0,0,0,0],"split_type":[0,0,0,0,0,0,0,0,0,0,0,0,0,0,0,0,0,0,0,0,0],"sum_hessian":[6.323E3,5.427E3,8.96E2,2.445E3,2.982E3,5.5E2,3.46E2,2.417E3,2.8E1,2.238E3,7.44E2,5.11E2,3.9E1,9.7E1,2.49E2,2.267E3,1.5E2,1.416E3,8.22E2,2.47E2,4.97E2],"tree_param":{"num_deleted":"0","num_feature":"2","num_nodes":"21","size_leaf_vector":"0"}},{"base_weights":[7.392537E1,7.251723E1,8.1349815E1,7.0169E1,7.4428734E1,6.816711E1,8.359598E1,6.9612915E1,7.759325E1,6.435307E1,7.48753E1,8.130331E1,5.8360313E1,7.9240974E1,8.594933E1,7.0228455E1,3.6401184E1,7.904698E1,5.319774E1,7.970624E1,5.979223E1,7.499792E1,4.719966E1,8.302043E1,7.390135E1],"categories":[],"categories_nodes":[],"categories_segments":[],"categories_sizes":[],"default_left":[true,true,true,true,true,true,true,true,true,true,true,false,false,true,false,false,false,false,false,false,false,false,false,false,false],"id":3,"left_children":[1,3,5,7,9,11,13,15,17,19,21,-1,-1,23,-1,-1,-1,-1,-1,-1,-1,-1,-1,-1,-1],"loss_changes":[6.0216E4,1.868E4,2.3912E4,4.536E3,8.316E3,1.47075625E4,1.9005E3,4.342E4,1.43375E3,4.40725E3,5.924E3,0E0,0E0,1.41E2,0E0,0E0,0E0,0E0,0E0,0E0,0E0,0E0,0E0,0E0,0E0],"parents":[2147483647,0,0,1,1,2,2,3,3,4,4,5,5,6,6,7,7,8,8,9,9,10,10,13,13],"right_children":[2,4,6,8,10,12,14,16,18,20,22,-1,-1,24,-1,-1,-1,-1,-1,-1,-1,-1,-1,-1,-1],"split_conditions":[6.1005653E1,-4.5272392E1,-5.649199E1,2.2389847E1,-8.837352E1,-1.187427E2,5.043165E1,2.1420494E1,4.4570877E1,5.69482E0,6.0017212E1,2.4390993E1,1.7508095E1,2.9220043E1,2.5784801E1,2.1068537E1,1.0920356E1,2.3714096E1,1.5959322E1,2.3911873E1,1.793767E1,2.2499376E1,1.4159899E1,2.490613E1,2.2170406E1],"split_indices":[1,0,0,1,1,0,0,1,1,0,1,0,0,0,0,0,0,0,0,0,0,0,0,0,0],"split_type":[0,0,0,0,0,0,0,0,0,0,0,0,0,0,0,0,0,0,0,0,0,0,0,0,0],"sum_hessian":[6.323E3,5.324E3,9.99E2,2.406E3,2.918E3,1.5E2,8.49E2,2.248E3,1.58E2,1.3E2,2.788E3,6.1E1,8.9E1,3.1E2,5.39E2,2.206E3,4.2E1,1.47E2,1.1E1,2.6E1,1.04E2,2.774E3,1.4E1,1.73E2,1.37E2],"tree_param":{"num_deleted":"0","num_feature":"2","num_nodes":"25","size_leaf_vector":"0"}},{"base_weights":[5.178965E1,5.002706E1,5.5504158E1,5.01719E1,2.9145721E1,6.566557E1,5.3823433E1,4.91371E1,5.4060875E1,1.9549389E1,4.830271E1,6.661334E1,5.0669006E1,5.0047245E1,5.954669E1,5.0125046E1,4.5266376E1,5.8965042E1,5.2021797E1,4.1265408E1,5.2010918E1,4.866527E1,6.0661648E1],"categories":[],"categories_nodes":[],"categories_segments":[],"categories_sizes":[],"default_left":[true,true,true,true,true,true,true,true,true,false,false,false,false,true,true,false,false,false,false,false,false,false,false],"id":4,"left_children":[1,3,5,7,9,11,13,15,17,-1,-1,-1,-1,19,21,-1,-1,-1,-1,-1,-1,-1,-1],"loss_changes":[3.8628E4,1.1539E4,3.10665E4,1.452E4,4.93849E3,6.4725E2,3.4711E4,1.0664E4,5.8025E3,0E0,0E0,0E0,0E0,1.608125E4,5.395E3,0E0,0E0,0E0,0E0,0E0,0E0,0E0,0E0],"parents":[2147483647,0,0,1,1,2,2,3,3,4,4,5,5,6,6,7,7,8,8,13,13,14,14],"right_children":[2,4,6,8,10,12,14,16,18,-1,-1,-1,-1,20,22,-1,-1,-1,-1,-1,-1,-1,-1],"split_conditions":[8.295914E0,9.759665E1,1.2266874E1,3.324887E1,1.16991486E2,5.4628815E1,5.043165E1,-8.341115E-1,-6.1060997E1,5.8648167E0,1.4490814E1,1.9984003E1,1.5200703E1,2.1901226E1,2.943483E1,1.5037515E1,1.3579913E1,1.7689514E1,1.560654E1,1.2379622E1,1.5603276E1,1.4599582E1,1.8198496E1],"split_indices":[1,0,1,0,0,0,0,0,1,0,0,0,0,1,1,0,0,0,0,0,0,0,0],"split_type":[0,0,0,0,0,0,0,0,0,0,0,0,0,0,0,0,0,0,0,0,0,0,0],"sum_hessian":[6.323E3,4.298E3,2.025E3,4.267E3,3.1E1,2.82E2,1.743E3,3.381E3,8.86E2,2.2E1,9E0,2.62E2,2E1,1.056E3,6.87E2,2.684E3,6.97E2,2.52E2,6.34E2,1.97E2,8.59E2,6.8E1,6.19E2],"tree_param":{"num_deleted":"0","num_feature":"2","num_nodes":"23","size_leaf_vector":"0"}},{"base_weights":[3.6280937E1,3.4888344E1,3.8737343E1,3.404882E1,3.767238E1,3.206107E1,3.9641285E1,3.525023E1,3.1342745E1,4.03205E1,3.3659763E1,4.404193E1,2.6155012E1,3.862466E1,4.2986385E1,3.4066757E1,4.1751057E1,2.3684269E1,3.2534233E1,2.977981E1,4.0995567E1,1.8779997E1,3.5184517E1,3.1954432E1,2.318689E1,4.2829952E1,3.6638645E1,3.8876705E1,4.6250134E1],"categories":[],"categories_nodes":[],"categories_segments":[],"categories_sizes":[],"default_left":[true,true,true,true,true,true,true,true,true,true,true,false,true,true,true,false,false,false,false,false,false,false,false,false,false,false,false,false,false],"id":5,"left_children":[1,3,5,7,9,11,13,15,17,19,21,-1,23,25,27,-1,-1,-1,-1,-1,-1,-1,-1,-1,-1,-1,-1,-1,-1],"loss_changes":[2.02815E4,8.174E3,1.248275E4,9.03525E3,8.503625E3,1.8448531E4,5.15125E3,1.5134E4,8.0624375E3,2.72125E3,7.8472188E3,0E0,2.4951797E3,1.13425E4,4.3450625E3,0E0,0E0,0E0,0E0,0E0,0E0,0E0,0E0,0E0,0E0,0E0,0E0,0E0,0E0],"parents":[2147483647,0,0,1,1,2,2,3,3,4,4,5,5,6,6,7,7,8,8,9,9,10,10,12,12,13,13,14,14],"right_children":[2,4,6,8,10,12,14,16,18,20,22,-1,24,26,28,-1,-1,-1,-1,-1,-1,-1,-1,-1,-1,-1,-1,-1,-1],"split_conditions":[2.4853644E0,3.0869347E1,-7.256499E1,-3.4376442E1,5.2575264E1,-1.2107295E2,7.516087E1,-4.1471832E1,-3.218886E1,-9.0442604E1,5.4483093E1,1.321258E1,2.1420494E1,1.2266874E1,1.410575E2,1.0220028E1,1.2525317E1,7.105281E0,9.76027E0,8.933944E0,1.2298671E1,5.6339993E0,1.0555355E1,9.586329E0,6.956067E0,1.2848987E1,1.0991594E1,1.1663012E1,1.3875041E1],"split_indices":[1,0,0,1,0,0,0,1,1,1,0,0,1,1,1,0,0,0,0,0,0,0,0,0,0,0,0,0,0],"split_type":[0,0,0,0,0,0,0,0,0,0,0,0,0,0,0,0,0,0,0,0,0,0,0,0,0,0,0,0,0],"sum_hessian":[6.323E3,4.045E3,2.278E3,3.118E3,9.27E2,2.76E2,2.002E3,2.151E3,9.67E2,5.53E2,3.74E2,8.9E1,1.87E2,1.545E3,4.57E2,1.825E3,3.26E2,1.33E2,8.34E2,3.6E1,5.17E2,3.6E1,3.38E2,6E1,1.27E2,4.89E2,1.056E3,2.08E2,2.49E2],"tree_param":{"num_deleted":"0","num_feature":"2","num_nodes":"29","size_leaf_vector":"0"}},{"base_weights":[2.5421349E1,2.446901E1,2.7429583E1,2.4565668E1,1.0812611E1,3.3908356E1,2.6464972E1,3.4517136E1,2.4429955E1,3.843129E0,2.5761158E1,3.4541798E1,2.5084522E1,2.208003E1,2.8091303E1,8.809454E0,2.4551138E1,5.499856E-1,8.069217E0,3.422987E1,2.1257116E1,2.5803566E1,3.0162647E1],"categories":[],"categories_nodes":[],"categories_segments":[],"categories_sizes":[],"default_left":[true,true,true,true,true,true,true,false,true,true,false,false,false,true,true,false,false,false,false,false,false,false,false],"id":6,"left_children":[1,3,5,7,9,11,13,-1,15,17,-1,-1,-1,19,21,-1,-1,-1,-1,-1,-1,-1,-1],"loss_changes":[1.14235E4,5.409E3,1.1764125E4,4.921E3,3.234872E3,5.8121875E2,1.1988E4,0E0,7.76025E3,3.1565567E2,0E0,0E0,0E0,4.1015312E3,5.3156875E3,0E0,0E0,0E0,0E0,0E0,0E0,0E0,0E0],"parents":[2147483647,0,0,1,1,2,2,3,3,4,4,5,5,6,6,8,8,9,9,13,13,14,14],"right_children":[2,4,6,8,10,12,14,-1,16,18,-1,-1,-1,20,22,-1,-1,-1,-1,-1,-1,-1,-1],"split_conditions":[8.295914E0,9.759665E1,1.135637E1,-1.05803246E2,1.16991486E2,5.4628815E1,2.9284718E1,1.0355141E1,-1.0147795E2,1.0013823E2,7.728348E0,1.0362539E1,7.525357E0,-1.2233546E2,4.9477566E1,2.6428363E0,7.3653417E0,1.6499569E-1,2.4207652E0,1.0268961E1,6.3771353E0,7.7410703E0,9.048795E0],"split_indices":[1,0,1,1,0,0,1,0,1,0,0,0,0,0,0,0,0,0,0,0,0,0,0],"split_type":[0,0,0,0,0,0,0,0,0,0,0,0,0,0,0,0,0,0,0,0,0,0,0],"sum_hessian":[6.323E3,4.298E3,2.025E3,4.267E3,3.1E1,2.58E2,1.767E3,5.4E1,4.213E3,2.2E1,9E0,2.38E2,2E1,4.82E2,1.285E3,3.3E1,4.18E3,1.3E1,9E0,2.8E1,4.54E2,6.17E2,6.68E2],"tree_param":{"num_deleted":"0","num_feature":"2","num_nodes":"23","size_leaf_vector":"0"}},{"base_weights":[1.7807909E1,1.607144E1,1.8586432E1,1.7607916E1,1.1973804E1,1.7275564E1,1.9707535E1,1.9224625E1,1.4264567E1,-8.35873E-1,1.3086006E1,1.7882235E1,2.1588953E0,3.2636566E1,1.9468803E1,1.84123E1,3.7427456E1,9.247485E0,2.0199654E1,9.025331E0,-1.31205845E1,7.0304976E0,1.6029001E1,2.357891E1,1.7271889E1,6.090528E0,-6.4754665E-1,3.3914013E0,1.96295E1],"categories":[],"categories_nodes":[],"categories_segments":[],"categories_sizes":[],"default_left":[true,true,true,true,true,true,true,true,true,true,true,true,true,false,true,false,false,false,false,false,false,false,false,false,false,false,false,false,false],"id":7,"left_children":[1,3,5,7,9,11,13,15,17,19,21,23,25,-1,27,-1,-1,-1,-1,-1,-1,-1,-1,-1,-1,-1,-1,-1,-1],"loss_changes":[8.250625E3,1.2160656E4,6.067E3,7.439E3,7.690039E3,1.8468125E4,6.596375E3,1.349125E4,1.3778531E4,5.4486675E3,8.7266875E3,6.3380625E3,8.756219E2,0E0,5.8834375E3,0E0,0E0,0E0,0E0,0E0,0E0,0E0,0E0,0E0,0E0,0E0,0E0,0E0,0E0],"parents":[2147483647,0,0,1,1,2,2,3,3,4,4,5,5,6,6,7,7,8,8,9,9,10,10,11,11,12,12,14,14],"right_children":[2,4,6,8,10,12,14,16,18,20,22,24,26,-1,28,-1,-1,-1,-1,-1,-1,-1,-1,-1,-1,-1,-1,-1,-1],"split_conditions":[-6.69901E1,-8.070458E1,-1.9542038E1,-3.4314396E1,-4.8702744E1,-2.496254E1,-1.7550098E1,-3.542072E1,-3.0821643E0,-5.0057995E1,-7.566275E1,-5.7671444E1,1.1698214E1,9.79097E0,-1.6382435E1,5.52369E0,1.1228237E1,2.7742457E0,6.0598965E0,2.7075992E0,-3.9361756E0,2.1091495E0,4.8087006E0,7.0736737E0,5.1815667E0,1.8271585E0,-1.9426401E-1,1.0174204E0,5.88885E0],"split_indices":[0,0,1,1,1,1,1,1,1,1,0,0,0,0,1,0,0,0,0,0,0,0,0,0,0,0,0,0,0],"split_type":[0,0,0,0,0,0,0,0,0,0,0,0,0,0,0,0,0,0,0,0,0,0,0,0,0,0,0,0,0],"sum_hessian":[6.323E3,1.964E3,4.359E3,1.426E3,5.38E2,2.017E3,2.342E3,9.58E2,4.68E2,4.3E1,4.95E2,1.939E3,7.8E1,4E1,2.302E3,9.19E2,3.9E1,2.55E2,2.13E2,2.4E1,1.9E1,1.63E2,3.32E2,1.84E2,1.755E3,3.2E1,4.6E1,2.3E1,2.279E3],"tree_param":{"num_deleted":"0","num_feature":"2","num_nodes":"29","size_leaf_vector":"0"}},{"base_weights":[1.2475317E1,1.1283137E1,1.3158121E1,1.1656168E1,-2.8997762E0,1.30612755E1,3.0955238E1,1.4247874E1,1.085172E1,-8.345014E0,-3.6741203E-1,2.1836124E1,1.2942271E1,1.9189543E1,4.4510662E1,9.670281E0,2.0806013E1,1.4387442E1,9.437806E0,-1.235199E0,2.5330262E0,2.5917046E1,1.3384155E1,7.6386023E0,1.3121043E1],"categories":[],"categories_nodes":[],"categories_segments":[],"categories_sizes":[],"default_left":[true,true,true,true,true,true,true,true,true,false,true,true,true,false,false,false,false,false,false,false,false,false,false,false,false],"id":8,"left_children":[1,3,5,7,9,11,13,15,17,-1,19,21,23,-1,-1,-1,-1,-1,-1,-1,-1,-1,-1,-1,-1],"loss_changes":[4.9994375E3,1.2255219E4,6.5158125E3,4.5385E3,8.242936E2,3.889125E3,2.4951309E3,1.5709664E4,8.472844E3,0E0,1.0884122E2,1.4466973E3,3.6393125E3,0E0,0E0,0E0,0E0,0E0,0E0,0E0,0E0,0E0,0E0,0E0,0E0],"parents":[2147483647,0,0,1,1,2,2,3,3,4,4,5,5,6,6,7,7,8,8,10,10,11,11,12,12],"right_children":[2,4,6,8,10,12,14,16,18,-1,20,22,24,-1,-1,-1,-1,-1,-1,-1,-1,-1,-1,-1,-1],"split_conditions":[-5.6684624E1,-5.7671444E1,1.7613397E2,-1.3355887E2,-5.7807583E1,-5.6025726E1,-4.5616096E1,-6.55691E1,-4.666902E1,-2.5035043E0,-5.670751E1,5.2211967E1,-8.837352E1,5.756863E0,1.3353199E1,2.9010844E0,6.241804E0,4.3162327E0,2.831342E0,-3.705597E-1,7.599079E-1,7.775114E0,4.015247E0,2.2915807E0,3.9363132E0],"split_indices":[0,0,1,0,1,0,0,1,1,0,0,1,1,0,0,0,0,0,0,0,0,0,0,0,0],"split_type":[0,0,0,0,0,0,0,0,0,0,0,0,0,0,0,0,0,0,0,0,0,0,0,0,0],"sum_hessian":[6.323E3,2.309E3,4.014E3,2.25E3,5.9E1,3.994E3,2E1,5.29E2,1.721E3,1.8E1,4.1E1,5.1E1,3.943E3,1.2E1,8E0,3.13E2,2.16E2,4.89E2,1.232E3,3.2E1,9E0,3.3E1,1.8E1,1.3E2,3.813E3],"tree_param":{"num_deleted":"0","num_feature":"2","num_nodes":"25","size_leaf_vector":"0"}},{"base_weights":[8.740836E0,8.2686615E0,9.991904E0,8.620087E0,5.4039965E0,1.7931808E1,9.302357E0,8.292599E0,1.3377018E1,7.5054784E0,-1.833978E-1,1.9980162E1,-1.4915848E0,1.6679373E1,8.437685E0,8.66744E0,3.0664282E0,4.3872375E0,1.4061868E1,3.5874137E-1,7.87305E0,-2.5823617E0,1.6086435E1,1.4834088E1,2.5051777E1,1.3294693E1,2.6355698E1,-1.7980318E0,9.543712E0],"categories":[],"categories_nodes":[],"categories_segments":[],"categories_sizes":[],"default_left":[true,true,true,true,true,true,true,true,true,true,true,true,false,true,true,false,false,false,false,false,false,false,false,false,false,false,false,false,false],"id":9,"left_children":[1,3,5,7,9,11,13,15,17,19,21,23,-1,25,27,-1,-1,-1,-1,-1,-1,-1,-1,-1,-1,-1,-1,-1,-1],"loss_changes":[3.653125E3,4.5812812E3,9.293875E3,6.2653125E3,5.9309893E3,5.4804766E3,1.0014156E4,7.48025E3,1.5513477E3,9.612617E2,5.466814E3,2.8646445E3,0E0,5.0863164E3,1.6172195E4,0E0,0E0,0E0,0E0,0E0,0E0,0E0,0E0,0E0,0E0,0E0,0E0,0E0,0E0],"parents":[2147483647,0,0,1,1,2,2,3,3,4,4,5,5,6,6,7,7,8,8,9,9,10,10,11,11,13,13,14,14],"right_children":[2,4,6,8,10,12,14,16,18,20,22,24,-1,26,28,-1,-1,-1,-1,-1,-1,-1,-1,-1,-1,-1,-1,-1,-1],"split_conditions":[3.8707436E1,2.0230402E1,4.273858E1,1.7363623E1,-1.7586388E1,-6.5897045E0,-6.1060997E1,9.3549716E-1,-7.2339066E1,2.091912E1,1.5694763E2,4.1598244E1,-4.4747546E-1,-6.602249E1,4.8541702E1,2.6002321E0,9.199285E-1,1.3161713E0,4.2185607E0,1.07622415E-1,2.361915E0,-7.7470857E-1,4.8259306E0,4.450227E0,7.5155334E0,3.988408E0,7.9067097E0,-5.394096E-1,2.8631136E0],"split_indices":[0,0,0,0,1,1,1,0,1,0,1,0,0,1,0,0,0,0,0,0,0,0,0,0,0,0,0,0,0],"split_type":[0,0,0,0,0,0,0,0,0,0,0,0,0,0,0,0,0,0,0,0,0,0,0,0,0,0,0,0,0],"sum_hessian":[6.323E3,4.596E3,1.727E3,4.092E3,5.04E2,1.36E2,1.591E3,3.831E3,2.61E2,3.66E2,1.38E2,1.23E2,1.3E1,1.65E2,1.426E3,3.574E3,2.57E2,1.9E1,2.42E2,1.8E1,3.48E2,1.21E2,1.7E1,6.3E1,6E1,1.24E2,4.1E1,1.39E2,1.287E3],"tree_param":{"num_deleted":"0","num_feature":"2","num_nodes":"29","size_leaf_vector":"0"}},{"base_weights":[6.125117E0,1.3975569E1,6.055276E0,1.5779072E1,8.593337E0,1.1431525E0,6.182071E0,1.878652E1,-9.6230495E-1,5.3268557E0,6.739285E0,1.9259559E0,-3.6814394E0,5.5240126E0,-3.9241226E0,6.6799045E0,3.0329834E1],"categories":[],"categories_nodes":[],"categories_segments":[],"categories_sizes":[],"default_left":[true,true,true,false,false,true,true,false,true,true,true,false,false,false,false,false,false],"id":10,"left_children":[1,3,5,-1,-1,7,9,-1,11,13,15,-1,-1,-1,-1,-1,-1],"loss_changes":[3.3826875E3,3.982832E2,3.8981094E3,0E0,0E0,5.924509E3,2.8767031E3,0E0,1.1301508E3,4.428203E3,4.9762188E3,0E0,0E0,0E0,0E0,0E0,0E0],"parents":[2147483647,0,0,1,1,2,2,5,5,6,6,8,8,9,9,10,10],"right_children":[2,4,6,-1,-1,8,10,-1,12,14,16,-1,-1,-1,-1,-1,-1],"split_conditions":[-1.05803246E2,-5.962016E0,-9.582718E1,4.7337217E0,2.5780013E0,-1.769274E2,-4.6458633E1,5.6359563E0,-1.737539E2,-5.0731537E1,1.6809933E2,5.777868E-1,-1.1044319E0,1.6572038E0,-1.1772368E0,2.0039713E0,9.09895E0],"split_indices":[1,0,1,0,0,0,0,0,0,0,1,0,0,0,0,0,0],"split_type":[0,0,0,0,0,0,0,0,0,0,0,0,0,0,0,0,0],"sum_hessian":[6.323E3,5.4E1,6.269E3,3.9E1,1.5E1,1.58E2,6.111E3,1.6E1,1.42E2,2.415E3,3.696E3,6.9E1,7.3E1,2.365E3,5E1,3.688E3,8E0],"tree_param":{"num_deleted":"0","num_feature":"2","num_nodes":"17","size_leaf_vector":"0"}},{"base_weights":[4.2913766E0,4.1248384E0,6.142272E0,4.2521496E0,-2.3844109E0,5.4349294E0,1.937275E1,4.0402093E0,5.995895E0,-3.955327E0,7.288294E0,1.6096752E1,4.785429E0,4.2342234E0,-2.0703955E0,5.286201E0,1.5313539E1,-2.9215043E0,-1.1034779E1,3.7190742E0,9.651123E0,2.0879368E1,1.2732389E1,2.200012E0,6.624097E0],"categories":[],"categories_nodes":[],"categories_segments":[],"categories_sizes":[],"default_left":[true,true,true,true,true,true,false,true,true,true,true,true,true,false,false,false,false,false,false,false,false,false,false,false,false],"id":11,"left_children":[1,3,5,7,9,11,-1,13,15,17,19,21,23,-1,-1,-1,-1,-1,-1,-1,-1,-1,-1,-1,-1],"loss_changes":[1.9240156E3,4.82075E3,4.761121E3,2.0801094E3,1.7306686E3,3.3507734E3,0E0,6.0313203E3,3.9858438E3,6.776948E2,9.904205E1,1.8468799E2,2.21017E3,0E0,0E0,0E0,0E0,0E0,0E0,0E0,0E0,0E0,0E0,0E0,0E0],"parents":[2147483647,0,0,1,1,2,2,3,3,4,4,5,5,7,7,8,8,9,9,10,10,11,11,12,12],"right_children":[2,4,6,8,10,12,-1,14,16,18,20,22,24,-1,-1,-1,-1,-1,-1,-1,-1,-1,-1,-1,-1],"split_conditions":[7.516087E1,7.07865E1,1.5055516E2,4.9477566E1,1.500555E2,7.728255E1,5.811825E0,4.819114E1,8.60673E1,7.36826E1,7.36189E1,5.4174995E1,1.4065099E2,1.270267E0,-6.2111866E-1,1.5858604E0,4.594062E0,-8.764513E-1,-3.3104336E0,1.1157223E0,2.895337E0,6.2638106E0,3.819717E0,6.600036E-1,1.9872291E0],"split_indices":[0,0,1,0,1,0,0,0,1,0,0,1,1,0,0,0,0,0,0,0,0,0,0,0,0],"split_type":[0,0,0,0,0,0,0,0,0,0,0,0,0,0,0,0,0,0,0,0,0,0,0,0,0],"sum_hessian":[6.323E3,5.804E3,5.19E2,5.693E3,1.11E2,4.94E2,2.5E1,5.079E3,6.14E2,9.6E1,1.5E1,2.7E1,4.67E2,4.923E3,1.56E2,5.72E2,4.2E1,8.5E1,1.1E1,7E0,8E0,9E0,1.8E1,1.95E2,2.72E2],"tree_param":{"num_deleted":"0","num_feature":"2","num_nodes":"25","size_leaf_vector":"0"}},{"base_weights":[3.0079505E0,8.668672E0,2.9578154E0,9.925189E0,4.985587E0,-6.2500954E0,3.0075366E0,4.9978714E0,2.845208E0,1.819384E0,1.0091002E1,-6.7245665E0,2.963932E0],"categories":[],"categories_nodes":[],"categories_segments":[],"categories_sizes":[],"default_left":[true,true,true,false,false,false,true,true,true,false,false,false,false],"id":12,"left_children":[1,3,5,-1,-1,-1,7,9,11,-1,-1,-1,-1],"loss_changes":[1.7691211E3,2.0504932E2,2.889379E3,0E0,0E0,0E0,2.0008828E3,7.5740254E3,6.574457E3,0E0,0E0,0E0,0E0],"parents":[2147483647,0,0,1,1,2,2,6,6,7,7,8,8],"right_children":[2,4,6,-1,-1,-1,8,10,12,-1,-1,-1,-1],"split_conditions":[-1.05803246E2,-5.962016E0,-1.0147795E2,2.9775567E0,1.4956762E0,-1.8750287E0,-1.3355887E2,-5.4947586E1,-1.25723465E2,5.458152E-1,3.0273008E0,-2.01737E0,8.8917965E-1],"split_indices":[1,0,1,0,0,0,0,1,0,0,0,0,0],"split_type":[0,0,0,0,0,0,0,0,0,0,0,0,0],"sum_hessian":[6.323E3,5.4E1,6.269E3,3.9E1,1.5E1,3.3E1,6.236E3,4.68E2,5.768E3,2.89E2,1.79E2,7E1,5.698E3],"tree_param":{"num_deleted":"0","num_feature":"2","num_nodes":"13","size_leaf_vector":"0"}},{"base_weights":[2.1063664E0,1.1772835E1,2.0799813E0,1.298515E0,2.4288342E0,1.6823637E0,-9.853077E0,9.780111E0,2.3550653E0,2.526459E-1,2.9075873E0,-1.7459816E1,-4.974502E0,1.309506E1,6.610149E0,1.516588E0,3.0612013E0],"categories":[],"categories_nodes":[],"categories_segments":[],"categories_sizes":[],"default_left":[true,false,true,true,true,true,true,true,true,false,false,false,false,false,false,false,false],"id":13,"left_children":[1,-1,3,5,7,9,11,13,15,-1,-1,-1,-1,-1,-1,-1,-1],"loss_changes":[1.5884453E3,0E0,1.7165117E3,8.359319E3,2.341375E3,3.3012651E3,2.3252983E3,3.6529492E2,2.5519531E3,0E0,0E0,0E0,0E0,0E0,0E0,0E0,0E0],"parents":[2147483647,0,0,2,2,3,3,4,4,5,5,6,6,7,7,8,8],"right_children":[2,-1,4,6,8,10,12,14,16,-1,-1,-1,-1,-1,-1,-1,-1],"split_conditions":[-1.769274E2,3.5318506E0,-6.69901E1,-6.8696655E1,-6.640986E1,-4.1471832E1,1.4809319E1,-7.158229E1,-1.9542038E1,7.579377E-2,8.7227625E-1,-5.237945E0,-1.4923507E0,3.9285183E0,1.9830447E0,4.549764E-1,9.183604E-1],"split_indices":[0,0,0,0,0,1,1,1,1,0,0,0,0,0,0,0,0],"split_type":[0,0,0,0,0,0,0,0,0,0,0,0,0,0,0,0,0],"sum_hessian":[6.323E3,1.6E1,6.307E3,1.948E3,4.359E3,1.884E3,6.4E1,4.2E1,4.317E3,8.7E2,1.014E3,2.4E1,4E1,1.9E1,2.3E1,1.975E3,2.342E3],"tree_param":{"num_deleted":"0","num_feature":"2","num_nodes":"17","size_leaf_vector":"0"}},{"base_weights":[1.4752539E0,2.2392368E0,1.1316139E0,1.4002125E0,8.906725E0,-4.7519577E1,1.231873E0,1.6435987E0,-1.9649689E1,1.4587518E1,4.5180693E0,-5.242246E1,-2.023966E1,1.1813856E1,1.0562892E0,1.430095E0,2.179956E1,-1.2135959E1,-2.5949823E1,2.2695333E1,1.1833171E1,-4.3264995E0,6.345593E0,5.957123E0,2.458762E1,-2.9536116E0,1.3992342E0],"categories":[],"categories_nodes":[],"categories_segments":[],"categories_sizes":[],"default_left":[true,true,true,true,true,true,true,true,true,true,true,false,false,true,true,false,false,false,false,false,false,false,false,false,false,false,false],"id":14,"left_children":[1,3,5,7,9,11,13,15,17,19,21,-1,-1,23,25,-1,-1,-1,-1,-1,-1,-1,-1,-1,-1,-1,-1],"loss_changes":[1.6577383E3,1.0957726E4,2.134495E4,8.962131E3,5.39399E3,1.4274023E2,8.0810825E3,7.3878413E3,6.318237E2,1.852957E3,2.0479114E3,0E0,0E0,5.165218E3,5.898136E3,0E0,0E0,0E0,0E0,0E0,0E0,0E0,0E0,0E0,0E0,0E0,0E0],"parents":[2147483647,0,0,1,1,2,2,3,3,4,4,5,5,6,6,7,7,8,8,9,9,10,10,13,13,14,14],"right_children":[2,4,6,8,10,12,14,16,18,20,22,-1,-1,24,26,-1,-1,-1,-1,-1,-1,-1,-1,-1,-1,-1,-1],"split_conditions":[-4.666902E1,-4.9186794E1,-4.6357124E1,-4.9512283E1,-7.669206E1,-6.792302E1,-1.4339833E2,-4.967678E1,-7.287519E1,-9.729866E1,-7.189018E1,-1.5726738E1,-6.0718985E0,-1.4569353E2,-1.0065651E2,4.290285E-1,6.5398684E0,-3.6407878E0,-7.7849474E0,6.8086004E0,3.5499513E0,-1.2979499E0,1.9036779E0,1.7871369E0,7.376286E0,-8.8608354E-1,4.1977027E-1],"split_indices":[1,1,1,1,0,0,0,1,0,0,0,0,0,0,0,0,0,0,0,0,0,0,0,0,0,0,0],"split_type":[0,0,0,0,0,0,0,0,0,0,0,0,0,0,0,0,0,0,0,0,0,0,0,0,0,0,0],"sum_hessian":[6.323E3,1.96E3,4.363E3,1.742E3,2.18E2,8E0,4.355E3,1.723E3,1.9E1,9.4E1,1.24E2,6E0,2E0,7E1,4.285E3,1.706E3,1.7E1,1E1,9E0,2.2E1,7.2E1,2.1E1,1.03E2,4.9E1,2.1E1,3.37E2,3.948E3],"tree_param":{"num_deleted":"0","num_feature":"2","num_nodes":"27","size_leaf_vector":"0"}},{"base_weights":[1.0316347E0,5.4745097E0,9.924975E-1,6.425597E0,2.754633E0,-8.2164896E-1,1.1086955E0,5.535046E0,8.042296E0,2.0936929E-1,-5.883353E0,6.7189975E0,9.919056E-1,-1.2083492E0,4.186707E0,-7.593491E0,-4.1510706E0,4.171306E0,1.3594797E1,-5.108543E0,1.0796001E0],"categories":[],"categories_nodes":[],"categories_segments":[],"categories_sizes":[],"default_left":[true,true,true,true,false,true,true,false,false,true,true,true,true,false,false,false,false,false,false,false,false],"id":15,"left_children":[1,3,5,7,-1,9,11,-1,-1,13,15,17,19,-1,-1,-1,-1,-1,-1,-1,-1],"loss_changes":[1.0941919E3,1.2457617E2,1.3226279E3,1.3075562E1,0E0,1.973904E3,3.8545864E3,0E0,0E0,1.7812637E3,1.5807495E2,2.0453818E3,3.0944658E3,0E0,0E0,0E0,0E0,0E0,0E0,0E0,0E0],"parents":[2147483647,0,0,1,1,2,2,3,3,5,5,6,6,9,9,10,10,11,11,12,12],"right_children":[2,4,6,8,-1,10,12,-1,-1,14,16,18,20,-1,-1,-1,-1,-1,-1,-1,-1],"split_conditions":[-1.05803246E2,-5.962016E0,-7.9635605E1,-9.2623886E1,8.263899E-1,-8.4071304E1,-1.5519681E2,1.6605139E0,2.412689E0,-8.837352E1,-8.207893E1,-1.5953857E2,-1.4535567E2,-3.6250478E-1,1.2560122E0,-2.2780473E0,-1.2453213E0,1.2513919E0,4.078439E0,-1.532563E0,3.2388005E-1],"split_indices":[1,0,1,0,0,1,0,0,0,1,1,0,0,0,0,0,0,0,0,0,0],"split_type":[0,0,0,0,0,0,0,0,0,0,0,0,0,0,0,0,0,0,0,0,0],"sum_hessian":[6.323E3,5.4E1,6.269E3,3.9E1,1.5E1,3.77E2,5.892E3,2.8E1,1.1E1,3.14E2,6.3E1,1.19E2,5.773E3,2.32E2,8.2E1,3E1,3.3E1,8.8E1,3.1E1,8.1E1,5.692E3],"tree_param":{"num_deleted":"0","num_feature":"2","num_nodes":"21","size_leaf_vector":"0"}},{"base_weights":[7.2315204E-1,2.0834956E0,5.8725214E-1,1.7070332E0,1.957224E1,-2.0012989E1,6.843035E-1,1.2703457E-1,3.6846833E0,-9.530385E0,-2.9066095E1,2.1920687E1,6.321338E-1,7.792164E-1,-8.158362E0,8.413675E0,2.4002323E0,-2.4783742E0,7.767458E-1],"categories":[],"categories_nodes":[],"categories_segments":[],"categories_sizes":[],"default_left":[true,true,true,true,false,true,true,true,true,false,false,false,true,false,false,false,false,false,false],"id":16,"left_children":[1,3,5,7,-1,9,11,13,15,-1,-1,-1,17,-1,-1,-1,-1,-1,-1],"loss_changes":[1.167898E3,3.7457239E3,1.1511567E4,1.7587294E3,0E0,2.285293E3,6.3288525E3,1.7030829E3,1.4983447E3,0E0,0E0,0E0,2.5712786E3,0E0,0E0,0E0,0E0,0E0,0E0],"parents":[2147483647,0,0,1,1,2,2,3,3,5,5,6,6,7,7,8,8,12,12],"right_children":[2,4,6,8,-1,10,12,14,16,-1,-1,-1,18,-1,-1,-1,-1,-1,-1],"split_conditions":[-1.2652083E2,-1.2750351E2,-1.25723465E2,-6.55691E1,5.8716726E0,-1.2601124E2,-1.2486018E2,-1.5639336E2,-1.5234795E2,-2.8591156E0,-8.719829E0,6.576206E0,-1.01539825E2,2.3376493E-1,-2.4475088E0,2.5241027E0,7.200697E-1,-7.435123E-1,2.3302375E-1],"split_indices":[0,0,0,1,0,0,0,0,0,0,0,0,0,0,0,0,0,0,0],"split_type":[0,0,0,0,0,0,0,0,0,0,0,0,0,0,0,0,0,0,0],"sum_hessian":[6.323E3,5.73E2,5.75E3,5.62E2,1.1E1,2.6E1,5.724E3,3.13E2,2.49E2,1.3E1,1.3E1,1.3E1,5.711E3,2.91E2,2.2E1,5.2E1,1.97E2,2.53E2,5.458E3],"tree_param":{"num_deleted":"0","num_feature":"2","num_nodes":"19","size_leaf_vector":"0"}},{"base_weights":[5.0643224E-1,8.166116E0,4.8570916E-1,-4.795235E0,5.142456E-1,1.7592196E0,3.6759523E-1,1.2324983E0,1.9491987E1,-2.200116E1,4.5148733E-1],"categories":[],"categories_nodes":[],"categories_segments":[],"categories_sizes":[],"default_left":[true,false,true,false,true,true,true,false,false,false,false],"id":17,"left_children":[1,-1,3,-1,5,7,9,-1,-1,-1,-1],"loss_changes":[9.9985547E2,0E0,9.530786E2,0E0,1.1450173E3,6.149866E3,1.0546826E4,0E0,0E0,0E0,0E0],"parents":[2147483647,0,0,2,2,4,4,5,5,6,6],"right_children":[2,-1,4,-1,6,8,10,-1,-1,-1,-1],"split_conditions":[-1.769274E2,2.4498348E0,-1.7626901E2,-1.4385706E0,-1.16448074E2,-1.1868306E2,-1.15054825E2,3.697495E-1,5.847596E0,-6.600348E0,1.354462E-1],"split_indices":[0,0,0,0,0,0,0,0,0,0,0],"split_type":[0,0,0,0,0,0,0,0,0,0,0],"sum_hessian":[6.323E3,1.6E1,6.307E3,3.3E1,6.274E3,6.6E2,5.614E3,6.42E2,1.8E1,2E1,5.594E3],"tree_param":{"num_deleted":"0","num_feature":"2","num_nodes":"11","size_leaf_vector":"0"}},{"base_weights":[3.5461777E-1,3.8513055E-1,-4.4485664E0,3.590709E-1,1.8517496E1,-9.176994E0,6.077937E0,-2.1807129E-2,7.3983455E-1,-1.0495822E1,-5.753522E0,2.7321863E-1,-7.3198886E0,5.318051E0,2.2005825E-1],"categories":[],"categories_nodes":[],"categories_segments":[],"categories_sizes":[],"default_left":[true,true,true,true,false,true,false,true,true,false,false,false,false,false,false],"id":18,"left_children":[1,3,5,7,-1,9,-1,11,13,-1,-1,-1,-1,-1,-1],"loss_changes":[9.285488E2,2.9631587E3,2.0467296E3,9.103349E2,0E0,6.603125E1,0E0,6.7606504E3,7.468547E3,0E0,0E0,0E0,0E0,0E0,0E0],"parents":[2147483647,0,0,1,1,2,2,3,3,5,5,7,7,8,8],"right_children":[2,4,6,8,-1,10,-1,12,14,-1,-1,-1,-1,-1,-1],"split_conditions":[1.7747937E2,1.7613397E2,-5.4597885E1,-2.1758945E1,5.555249E0,-6.2009098E1,1.8233812E0,-2.7209019E1,-2.362112E0,-3.1487467E0,-1.7260567E0,8.1965595E-2,-2.1959667E0,1.5954154E0,6.601748E-2],"split_indices":[1,1,0,0,0,0,0,0,0,0,0,0,0,0,0],"split_type":[0,0,0,0,0,0,0,0,0,0,0,0,0,0,0],"sum_hessian":[6.323E3,6.284E3,3.9E1,6.276E3,8E0,2.7E1,1.2E1,3.138E3,3.138E3,1.8E1,9E0,3.017E3,1.21E2,3.19E2,2.819E3],"tree_param":{"num_deleted":"0","num_feature":"2","num_nodes":"15","size_leaf_vector":"0"}},{"base_weights":[2.4855147E-1,1.9080974E-2,8.6820465E-1,2.845072E-1,-2.0542178E0,7.805481E0,3.5346422E-1,5.7538953E-2,3.0735242E0,-5.1489E-1,-6.3141193E0,9.690388E0,-6.8888497E0,6.064407E0,-3.1112584E-1,3.2739902E-1,-3.7282264E0,8.545913E0,2.7444005E0,-4.1011176E0,-1.0000817E-1,-2.0246873E0,-1.1456534E1,6.618313E0,1.1797812E1,5.808988E-1,1.046874E1,-7.0965595E0,4.2666286E-1],"categories":[],"categories_nodes":[],"categories_segments":[],"categories_sizes":[],"default_left":[true,true,true,true,true,true,true,true,true,true,true,true,false,true,true,false,false,false,false,false,false,false,false,false,false,false,false,false,false],"id":19,"left_children":[1,3,5,7,9,11,13,15,17,19,21,23,-1,25,27,-1,-1,-1,-1,-1,-1,-1,-1,-1,-1,-1,-1,-1,-1],"loss_changes":[8.992065E2,2.5408054E3,6.0999033E3,2.5907668E3,3.4328186E3,3.3350537E3,6.0442207E3,3.8691E3,5.3128345E2,5.739041E2,3.0428716E3,6.017051E2,0E0,4.0030186E3,7.1468984E3,0E0,0E0,0E0,0E0,0E0,0E0,0E0,0E0,0E0,0E0,0E0,0E0,0E0,0E0],"parents":[2147483647,0,0,1,1,2,2,3,3,4,4,5,5,6,6,7,7,8,8,9,9,10,10,11,11,13,13,14,14],"right_children":[2,4,6,8,10,12,14,16,18,20,22,24,-1,26,28,-1,-1,-1,-1,-1,-1,-1,-1,-1,-1,-1,-1,-1,-1],"split_conditions":[4.0049423E1,2.0230402E1,4.273858E1,1.4000367E1,-1.7586388E1,-6.5897045E0,-6.1060997E1,-3.1499714E-1,1.4407311E1,2.2521198E1,2.8848286E1,4.1598244E1,-2.066655E0,-6.921858E1,4.8541702E1,9.821971E-2,-1.1184679E0,2.5637739E0,8.233202E-1,-1.2303354E0,-3.000245E-2,-6.074062E-1,-3.4369605E0,1.9854939E0,3.5393438E0,1.7426965E-1,3.1406224E0,-2.128968E0,1.2799886E-1],"split_indices":[0,0,0,0,1,1,1,0,0,0,0,0,0,1,0,0,0,0,0,0,0,0,0,0,0,0,0,0,0],"split_type":[0,0,0,0,0,0,0,0,0,0,0,0,0,0,0,0,0,0,0,0,0,0,0,0,0,0,0,0,0],"sum_hessian":[6.323E3,4.615E3,1.708E3,4.092E3,5.23E2,1.17E2,1.591E3,3.785E3,3.07E2,3.85E2,1.38E2,1.04E2,1.3E1,1.65E2,1.426E3,3.534E3,2.51E2,1.6E1,2.91E2,3.9E1,3.46E2,7.6E1,6.2E1,4.4E1,6E1,7.4E1,9.1E1,1.39E2,1.287E3],"tree_param":{"num_deleted":"0","num_feature":"2","num_nodes":"29","size_leaf_vector":"0"}},{"base_weights":[1.7427407E-1,6.88076E-2,1.5708373E0,1.3867757E-1,-4.055649E0,7.6216435E0,3.9864188E-1,6.8851106E-2,9.683313E0,-9.585491E0,-2.378628E-1,3.2711802E0,2.2643816E1,9.77684E-1,-7.700732E0,1.7205906E-1,-1.551474E0,1.2262306E1,6.781398E0,-1.3003521E0,3.6217418E0,1.1019158E1,-1.5545611E0,-8.532693E-2,5.623537E0,-1.1073637E1,8.508949E-1],"categories":[],"categories_nodes":[],"categories_segments":[],"categories_sizes":[],"default_left":[true,true,true,true,true,true,true,true,true,false,true,true,false,true,true,false,false,false,false,false,false,false,false,false,false,false,false],"id":20,"left_children":[1,3,5,7,9,11,13,15,17,-1,19,21,-1,23,25,-1,-1,-1,-1,-1,-1,-1,-1,-1,-1,-1,-1],"loss_changes":[9.3135767E2,1.6953234E3,3.1461326E3,3.8541853E3,2.0666719E3,4.631374E3,1.7568539E3,9.606714E2,2.311731E2,0E0,2.4665605E2,2.148345E3,0E0,1.7240487E3,7.305183E2,0E0,0E0,0E0,0E0,0E0,0E0,0E0,0E0,0E0,0E0,0E0,0E0],"parents":[2147483647,0,0,1,1,2,2,3,3,4,4,5,5,6,6,7,7,8,8,10,10,11,11,13,13,14,14],"right_children":[2,4,6,8,10,12,14,16,18,-1,20,22,-1,24,26,-1,-1,-1,-1,-1,-1,-1,-1,-1,-1,-1,-1],"split_conditions":[1.410575E2,1.3965692E2,1.418636E2,1.2826111E2,9.0243164E1,1.4166486E2,8.627565E1,7.4253296E1,1.5096273E1,-2.8756475E0,9.528497E1,8.634995E1,6.793145E0,8.168352E1,8.873617E1,5.161772E-2,-4.654422E-1,3.678692E0,2.0344195E0,-3.9010563E-1,1.0865226E0,3.3057477E0,-4.6636835E-1,-2.559808E-2,1.6870612E0,-3.3220913E0,2.5526848E-1],"split_indices":[1,1,1,1,0,1,0,1,0,0,0,0,0,0,0,0,0,0,0,0,0,0,0,0,0,0,0],"split_type":[0,0,0,0,0,0,0,0,0,0,0,0,0,0,0,0,0,0,0,0,0,0,0,0,0,0,0],"sum_hessian":[6.323E3,5.88E3,4.43E2,5.783E3,9.7E1,7.1E1,3.72E2,5.742E3,4.1E1,3.9E1,5.8E1,5.6E1,1.5E1,3.48E2,2.4E1,5.399E3,3.43E2,2E1,2.1E1,4.6E1,1.2E1,2.1E1,3.5E1,2.84E2,6.4E1,1.7E1,7E0],"tree_param":{"num_deleted":"0","num_feature":"2","num_nodes":"27","size_leaf_vector":"0"}},{"base_weights":[1.23783894E-1,-1.8960007E-1,5.953622E-1,8.153729E-3,-1.1377794E1,7.5108523E0,1.708845E-1,-1.2273523E-1,3.4465568E0,-7.7054267E0,-1.4816664E1,1.9886658E1,5.725772E0,-3.5909352E0,6.1409855E-1,2.8935972E-1,-2.4782133E0,-8.874658E-1,4.2833915E0,3.245493E0,1.5426666E1,-1.2566404E0,-1.0391817E1,8.2434225E0,3.5850325E-1],"categories":[],"categories_nodes":[],"categories_segments":[],"categories_sizes":[],"default_left":[true,true,true,true,true,true,true,true,true,false,false,false,true,true,true,false,false,false,false,false,false,false,false,false,false],"id":21,"left_children":[1,3,5,7,9,11,13,15,17,-1,-1,-1,19,21,23,-1,-1,-1,-1,-1,-1,-1,-1,-1,-1],"loss_changes":[9.347057E2,8.407621E3,7.410782E3,1.6813561E3,7.1933203E2,3.111537E3,3.9703584E3,3.4941968E3,5.0068127E2,0E0,0E0,0E0,3.0537925E3,3.9716328E3,4.150585E3,0E0,0E0,0E0,0E0,0E0,0E0,0E0,0E0,0E0,0E0],"parents":[2147483647,0,0,1,1,2,2,3,3,4,4,5,5,6,6,7,7,8,8,12,12,13,13,14,14],"right_children":[2,4,6,8,10,12,14,16,18,-1,-1,-1,20,22,24,-1,-1,-1,-1,-1,-1,-1,-1,-1,-1],"split_conditions":[-6.505499E0,-7.6115484E0,8.0218E-1,-1.090074E1,-9.2624115E1,-1.15717865E2,-7.6081535E1,-2.7105293E1,-5.44436E1,-2.311628E0,-4.444999E0,5.9659977E0,-7.993883E-1,-8.125429E1,-7.1783844E1,8.680792E-2,-7.43464E-1,-2.6623973E-1,1.2850175E0,9.736479E-1,4.6280003E0,-3.7699214E-1,-3.1175454E0,2.4730268E0,1.0755098E-1],"split_indices":[1,1,1,1,0,0,0,1,0,0,0,0,1,0,0,0,0,0,0,0,0,0,0,0,0],"split_type":[0,0,0,0,0,0,0,0,0,0,0,0,0,0,0,0,0,0,0,0,0,0,0,0,0],"sum_hessian":[6.323E3,3.799E3,2.524E3,3.734E3,6.5E1,1.45E2,2.379E3,3.598E3,1.36E2,3.3E1,3.2E1,1.7E1,1.28E2,2.5E2,2.129E3,3.063E3,5.35E2,2.2E1,1.14E2,1.03E2,2.5E1,1.87E2,6.3E1,6.8E1,2.061E3],"tree_param":{"num_deleted":"0","num_feature":"2","num_nodes":"25","size_leaf_vector":"0"}},{"base_weights":[8.732535E-2,-7.924779E-2,7.399495E-1,1.439802E-1,-2.306978E0,6.478197E0,1.2203139E-1,-5.2572407E-2,3.3712301E0,-5.077481E-1,-5.5403013E0,1.2527202E1,3.1533868E0,-1.127845E1,3.315656E-1,8.32745E-2,-3.5614836E0,7.9292445E0,2.901382E0,-1.4149108E0,1.2081842E1,-3.1245583E1,-4.19519E0,4.532724E0,1.5054672E1,6.555739E0,1.8746142E0,-2.3006123E1,1.4745373E0,-3.290434E0,9.29356E-1],"categories":[],"categories_nodes":[],"categories_segments":[],"categories_sizes":[],"default_left":[true,true,true,true,true,true,true,true,true,true,true,true,true,true,true,false,false,false,false,false,false,false,false,false,false,false,false,false,false,false,false],"id":22,"left_children":[1,3,5,7,9,11,13,15,17,19,21,23,25,27,29,-1,-1,-1,-1,-1,-1,-1,-1,-1,-1,-1,-1,-1,-1,-1,-1],"loss_changes":[6.875385E2,2.5061853E3,4.559066E3,2.906017E3,2.6674155E3,2.4744707E3,2.7795144E3,2.0590547E3,5.402283E2,3.3976533E3,5.5394614E3,8.208169E2,3.44479E2,3.1747437E3,2.4757126E3,0E0,0E0,0E0,0E0,0E0,0E0,0E0,0E0,0E0,0E0,0E0,0E0,0E0,0E0,0E0,0E0],"parents":[2147483647,0,0,1,1,2,2,3,3,4,4,5,5,6,6,7,7,8,8,9,9,10,10,11,11,12,12,13,13,14,14],"right_children":[2,4,6,8,10,12,14,16,18,20,22,24,26,28,30,-1,-1,-1,-1,-1,-1,-1,-1,-1,-1,-1,-1,-1,-1,-1,-1],"split_conditions":[2.9284718E1,1.2266874E1,4.4115005E1,9.023811E0,-3.8938965E1,-3.784763E1,4.879863E1,3.850478E0,9.953961E0,-4.106511E1,1.42625675E1,-8.286343E1,1.9664463E1,2.1835033E1,-5.649199E1,2.498235E-2,-1.0684451E0,2.3787735E0,8.704146E-1,-4.2447326E-1,3.624553E0,-9.373675E0,-1.2585571E0,1.3598173E0,4.516402E0,1.9667218E0,5.623843E-1,-6.901837E0,4.423612E-1,-9.871302E-1,2.788068E-1],"split_indices":[1,1,1,1,0,0,1,1,1,0,1,0,0,0,0,0,0,0,0,0,0,0,0,0,0,0,0,0,0,0,0],"split_type":[0,0,0,0,0,0,0,0,0,0,0,0,0,0,0,0,0,0,0,0,0,0,0,0,0,0,0,0,0,0,0],"sum_hessian":[6.323E3,5.038E3,1.285E3,4.58E3,4.58E2,1.24E2,1.161E3,4.318E3,2.62E2,2.95E2,1.63E2,4.3E1,8.1E1,2E1,1.141E3,4.158E3,1.6E2,2.3E1,2.39E2,2.76E2,1.9E1,7E0,1.56E2,1.1E1,3.2E1,2.1E1,6E1,1E1,1E1,1.61E2,9.8E2],"tree_param":{"num_deleted":"0","num_feature":"2","num_nodes":"31","size_leaf_vector":"0"}},{"base_weights":[6.0499746E-2,8.197971E-1,-8.396961E-2,-1.6515128E-1,8.807353E0,-1.4682055E1,7.2497823E-3,9.0790266E-1,-7.4345927E0,2.4617376E1,5.6862063E0,-8.552098E0,-1.8238922E1,1.245209E1,-4.004341E-2,2.2091587E-1,1.9497726E1,-4.434254E1,-5.018318E0,1.481767E1,-5.9722166E0,-6.0543785E0,3.5157945E-2],"categories":[],"categories_nodes":[],"categories_segments":[],"categories_sizes":[],"default_left":[true,true,true,true,true,true,true,true,true,false,true,false,false,false,true,false,false,false,false,false,false,false,false],"id":23,"left_children":[1,3,5,7,9,11,13,15,17,-1,19,-1,-1,-1,21,-1,-1,-1,-1,-1,-1,-1,-1],"loss_changes":[6.9378125E2,7.955326E3,7.0763804E3,7.035003E3,5.3373594E3,5.635327E2,3.1092527E3,1.003367E4,1.0122326E4,0E0,1.009559E4,0E0,0E0,0E0,2.3805947E3,0E0,0E0,0E0,0E0,0E0,0E0,0E0,0E0],"parents":[2147483647,0,0,1,1,2,2,3,3,4,4,5,5,6,6,7,7,8,8,10,10,14,14],"right_children":[2,4,6,8,10,12,14,16,18,-1,20,-1,-1,-1,22,-1,-1,-1,-1,-1,-1,-1,-1],"split_conditions":[-9.64867E1,-1.0065651E2,-9.449364E1,-1.1125871E2,-1.0043947E2,-9.569749E1,-9.399068E1,-1.1240991E2,-1.0951782E2,7.3852134E0,-3.893097E1,-2.5656295E0,-5.471677E0,3.7356272E0,-8.8405624E1,6.627476E-2,5.849318E0,-1.3302763E1,-1.5054955E0,4.445301E0,-1.7916651E0,-1.8163136E0,1.0547384E-2],"split_indices":[0,0,0,0,0,0,0,0,0,0,1,0,0,0,0,0,0,0,0,0,0,0,0],"split_type":[0,0,0,0,0,0,0,0,0,0,0,0,0,0,0,0,0,0,0,0,0,0,0],"sum_hessian":[6.323E3,1.01E3,5.313E3,9E2,1.1E2,3.2E1,5.281E3,7.85E2,1.15E2,1.7E1,9.3E1,1.3E1,1.9E1,1.9E1,5.262E3,7.58E2,2.7E1,6E0,1.09E2,5.2E1,4.1E1,6.4E1,5.198E3],"tree_param":{"num_deleted":"0","num_feature":"2","num_nodes":"23","size_leaf_vector":"0"}},{"base_weights":[4.156885E-2,-3.129544E-1,4.43053E-1,1.001391E-1,-4.587973E0,9.410365E0,2.8293523E-1,-2.70499E-1,4.3097653E0,3.4262848E0,-5.5723763E0,4.377791E0,1.1945911E1,-1.9315356E0,6.176606E-1,-1.1871421E-2,-1.279331E1,1.0254552E1,2.562523E0,-1.2781053E1,1.7642458E1,-8.532699E0,-3.402454E0,2.5311115E0,6.600586E0,3.7870078E0,-4.162228E0,3.8993804E0,3.5138738E-1],"categories":[],"categories_nodes":[],"categories_segments":[],"categories_sizes":[],"default_left":[true,true,true,true,true,true,true,true,true,true,true,true,false,true,true,false,false,false,false,false,false,false,false,false,false,false,false,false,false],"id":24,"left_children":[1,3,5,7,9,11,13,15,17,19,21,23,-1,25,27,-1,-1,-1,-1,-1,-1,-1,-1,-1,-1,-1,-1,-1,-1],"loss_changes":[9.002681E2,5.932394E3,4.2559976E3,4.7817656E3,2.354315E3,6.1123975E2,2.1619062E3,9.12339E3,2.5496948E3,7.828898E3,1.6668164E3,6.128418E1,0E0,4.90143E3,2.2120518E3,0E0,0E0,0E0,0E0,0E0,0E0,0E0,0E0,0E0,0E0,0E0,0E0,0E0,0E0],"parents":[2147483647,0,0,1,1,2,2,3,3,4,4,5,5,6,6,7,7,8,8,9,9,10,10,11,11,13,13,14,14],"right_children":[2,4,6,8,10,12,14,16,18,20,22,24,-1,26,28,-1,-1,-1,-1,-1,-1,-1,-1,-1,-1,-1,-1,-1,-1],"split_conditions":[-1.9489258E1,-2.7105293E1,-1.7550098E1,-3.221752E1,-9.7580956E1,-1.7695675E1,-7.710672E1,-3.342195E1,-3.1474237E1,-1.1020706E2,2.2649035E1,-4.394347E1,3.5837736E0,-1.13746155E2,-6.81738E1,-3.5614264E-3,-3.8379931E0,3.0763657E0,7.687569E-1,-3.834316E0,5.2927375E0,-2.5598097E0,-1.0207362E0,7.593335E-1,1.9801759E0,1.1361024E0,-1.2486684E0,1.1698142E0,1.05416216E-1],"split_indices":[1,1,1,1,0,1,0,1,1,0,0,0,0,0,0,0,0,0,0,0,0,0,0,0,0,0,0,0,0],"split_type":[0,0,0,0,0,0,0,0,0,0,0,0,0,0,0,0,0,0,0,0,0,0,0,0,0,0,0,0,0],"sum_hessian":[6.323E3,3.358E3,2.965E3,3.063E3,2.95E2,5.1E1,2.914E3,2.816E3,2.47E2,3.2E1,2.63E2,1.8E1,3.3E1,3.82E2,2.532E3,2.76E3,5.6E1,5.5E1,1.92E2,1.5E1,1.7E1,1.1E2,1.53E2,1.1E1,7E0,1.07E2,2.75E2,1.89E2,2.343E3],"tree_param":{"num_deleted":"0","num_feature":"2","num_nodes":"29","size_leaf_vector":"0"}},{"base_weights":[2.9942164E-2,5.4779844E0,1.5254996E-2,-3.7933385E0,3.588877E-2,3.7603796E0,-3.0949349E-3,4.2885857E0,2.9567928E0,-3.107077E0,4.7690615E-2],"categories":[],"categories_nodes":[],"categories_segments":[],"categories_sizes":[],"default_left":[true,false,true,false,true,true,true,false,false,false,false],"id":25,"left_children":[1,-1,3,-1,5,7,9,-1,-1,-1,-1],"loss_changes":[5.0593958E2,0E0,4.9585446E2,0E0,9.111068E2,1.4909424E1,9.792343E2,0E0,0E0,0E0,0E0],"parents":[2147483647,0,0,2,2,4,4,5,5,6,6],"right_children":[2,-1,4,-1,6,8,10,-1,-1,-1,-1],"split_conditions":[-1.769274E2,1.6433954E0,-1.7626901E2,-1.1380016E0,-1.7468765E2,-1.7557689E2,-9.582718E1,1.2865758E0,8.870379E-1,-9.321231E-1,1.4307185E-2],"split_indices":[0,0,0,0,0,0,1,0,0,0,0],"split_type":[0,0,0,0,0,0,0,0,0,0,0],"sum_hessian":[6.323E3,1.6E1,6.307E3,3.3E1,6.274E3,6.4E1,6.21E3,3.6E1,2.8E1,9.9E1,6.111E3],"tree_param":{"num_deleted":"0","num_feature":"2","num_nodes":"11","size_leaf_vector":"0"}},{"base_weights":[2.1232702E-2,4.958174E-1,-1.2682717E-1,3.3815688E-1,1.0204125E1,-6.6623936E0,1.7264767E-2,-1.5510887E0,9.5519936E-1,-1.2822903E1,-3.9916072E0,1.7686204E0,-2.6450738E-1,-5.8032423E-1,-3.5955193E1,1.1030082E1,4.925011E-1,-6.7736425E0,-1.6815498E1,-7.9829826E0,1.496541E0,2.558833E-1,5.17665E0,-1.3643E1,-7.0840456E-2],"categories":[],"categories_nodes":[],"categories_segments":[],"categories_sizes":[],"default_left":[true,true,true,true,false,true,true,true,true,true,true,true,true,false,false,false,false,false,false,false,false,false,false,false,false],"id":26,"left_children":[1,3,5,7,-1,9,11,13,15,17,19,21,23,-1,-1,-1,-1,-1,-1,-1,-1,-1,-1,-1,-1],"loss_changes":[4.4443103E2,2.2985974E3,4.540158E3,1.7279497E3,0E0,1.6599702E3,2.3287217E3,1.2169508E4,5.2016094E3,6.348174E2,1.6329359E3,3.3703413E3,1.0531332E4,0E0,0E0,0E0,0E0,0E0,0E0,0E0,0E0,0E0,0E0,0E0,0E0],"parents":[2147483647,0,0,1,1,2,2,3,3,5,5,6,6,7,7,8,8,9,9,10,10,11,11,12,12],"right_children":[2,4,6,8,-1,10,12,14,16,18,20,22,24,-1,-1,-1,-1,-1,-1,-1,-1,-1,-1,-1,-1],"split_conditions":[-7.783556E1,-7.826026E1,-7.566275E1,-6.3381287E1,3.0612378E0,-3.3271404E1,-6.2837902E1,-6.549361E1,-5.9001373E1,-7.659179E1,-7.710672E1,-6.789619E1,-6.169356E1,-1.7409727E-1,-1.0786558E1,3.3090246E0,1.4775033E-1,-2.0320928E0,-5.0446496E0,-2.3948948E0,4.4896233E-1,7.676499E-2,1.5529951E0,-4.0929003E0,-2.1252137E-2],"split_indices":[0,0,0,1,0,1,1,1,1,0,0,1,1,0,0,0,0,0,0,0,0,0,0,0,0],"split_type":[0,0,0,0,0,0,0,0,0,0,0,0,0,0,0,0,0,0,0,0,0,0,0,0,0],"sum_hessian":[6.323E3,1.503E3,4.82E3,1.48E3,2.3E1,1.03E2,4.717E3,3.64E2,1.116E3,3E1,7.3E1,6.53E2,4.064E3,3.55E2,9E0,4.8E1,1.068E3,1.3E1,1.7E1,4.2E1,3.1E1,4.53E2,2E2,5.7E1,4.007E3],"tree_param":{"num_deleted":"0","num_feature":"2","num_nodes":"25","size_leaf_vector":"0"}},{"base_weights":[1.2342922E-2,-2.6804492E-1,3.2987845E-1,2.2321189E-2,-3.272821E0,6.6799154E0,2.1648848E-1,-2.702366E-1,3.0142593E0,2.285442E0,-3.9552069E0,1.6864929E0,7.9784803E0,-6.9070053E0,2.7552974E-1,-5.9217073E-2,-1.8468822E1,8.689981E0,2.0875995E0,-9.338312E0,1.2490699E1,-9.414026E0,-3.1616886E0,8.474284E0,4.8740044E0,5.9250298E0,1.821348E-1],"categories":[],"categories_nodes":[],"categories_segments":[],"categories_sizes":[],"default_left":[true,true,true,true,true,true,true,true,true,true,true,false,true,false,true,false,false,false,false,false,false,false,false,false,false,false,false],"id":27,"left_children":[1,3,5,7,9,11,13,15,17,19,21,-1,23,-1,25,-1,-1,-1,-1,-1,-1,-1,-1,-1,-1,-1,-1],"loss_changes":[5.631338E2,2.9307507E3,2.1341648E3,2.6827793E3,1.1317317E3,3.2372705E2,1.2278942E3,1.0720905E4,1.4176924E3,4.0312139E3,1.1137974E3,0E0,2.1803955E1,0E0,1.5248407E3,0E0,0E0,0E0,0E0,0E0,0E0,0E0,0E0,0E0,0E0,0E0,0E0],"parents":[2147483647,0,0,1,1,2,2,3,3,4,4,5,5,6,6,7,7,8,8,9,9,10,10,12,12,14,14],"right_children":[2,4,6,8,10,12,14,16,18,20,22,-1,24,-1,26,-1,-1,-1,-1,-1,-1,-1,-1,-1,-1,-1,-1],"split_conditions":[-1.9489258E1,-2.7105293E1,-1.7550098E1,-3.272093E1,-9.7580956E1,-7.92211E1,-1.6724949E1,-3.342195E1,-6.331423E1,-1.1020706E2,-8.409169E1,5.059479E-1,-7.7169046E0,-2.0721016E0,-1.4590325E1,-1.7765123E-2,-5.540647E0,2.6069946E0,6.262799E-1,-2.8014936E0,3.7472098E0,-2.824208E0,-9.485066E-1,2.5422854E0,1.4622014E0,1.777509E0,5.4640446E-2],"split_indices":[1,1,1,1,0,0,1,1,0,0,0,0,0,0,1,0,0,0,0,0,0,0,0,0,0,0,0],"split_type":[0,0,0,0,0,0,0,0,0,0,0,0,0,0,0,0,0,0,0,0,0,0,0,0,0,0,0],"sum_hessian":[6.323E3,3.358E3,2.965E3,3.063E3,2.95E2,5.1E1,2.914E3,2.791E3,2.72E2,3.2E1,2.63E2,1.1E1,4E1,2.3E1,2.891E3,2.76E3,3.1E1,3.7E1,2.35E2,1.5E1,1.7E1,3.2E1,2.31E2,3.3E1,7E0,4.6E1,2.845E3],"tree_param":{"num_deleted":"0","num_feature":"2","num_nodes":"27","size_leaf_vector":"0"}},{"base_weights":[8.498234E-3,2.8277361E0,-1.6233278E-2,4.5845704E0,2.2843325E0,-4.0245283E-1,1.907382E-1,-1.0795724E-1,-1.1821564E1,4.0372133E0,7.147866E-3,-2.633906E-1,1.0801882E1,-1.7298529E1,-2.8198202E0,8.748195E0,7.181519E-2,-1.1997745E1,7.8382485E-2],"categories":[],"categories_nodes":[],"categories_segments":[],"categories_sizes":[],"default_left":[true,true,true,false,false,true,true,true,true,true,true,false,false,false,false,false,false,false,false],"id":28,"left_children":[1,3,5,-1,-1,7,9,11,13,15,17,-1,-1,-1,-1,-1,-1,-1,-1],"loss_changes":[4.4098053E2,4.203415E1,5.012782E2,0E0,0E0,7.3567E3,2.8832866E3,3.6215818E3,2.6628438E3,3.4740225E3,3.3343691E3,0E0,0E0,0E0,0E0,0E0,0E0,0E0,0E0],"parents":[2147483647,0,0,1,1,2,2,5,5,6,6,7,7,8,8,9,9,10,10],"right_children":[2,4,6,-1,-1,8,10,12,14,16,18,-1,-1,-1,-1,-1,-1,-1,-1],"split_conditions":[-1.05803246E2,-1.1089691E2,-4.2018982E1,1.3753712E0,6.8529975E-1,-4.3720856E1,-3.9200676E1,-4.4025215E1,3.6752148E0,-9.311023E1,-3.8479214E1,-7.9017185E-2,3.2405646E0,-5.189559E0,-8.459461E-1,2.6244586E0,2.1544559E-2,-3.5993235E0,2.3514746E-2],"split_indices":[1,1,1,0,0,1,1,1,0,0,1,0,0,0,0,0,0,0,0],"split_type":[0,0,0,0,0,0,0,0,0,0,0,0,0,0,0,0,0,0,0],"sum_hessian":[6.323E3,5.4E1,6.269E3,1.1E1,4.3E1,2.187E3,4.082E3,2.133E3,5.4E1,1.85E2,3.897E3,2.104E3,2.9E1,3.3E1,2.1E1,8.4E1,1.01E2,2.2E1,3.875E3],"tree_param":{"num_deleted":"0","num_feature":"2","num_nodes":"19","size_leaf_vector":"0"}},{"base_weights":[5.6710313E-3,-1.1679474E-1,5.4980624E-1,8.993541E-3,-2.6970644E0,3.1793058E-1,6.8818717E0,-9.2484E-2,4.855713E0,-2.9771849E1,-8.8813156E-1,1.8670377E0,-8.2640684E-1,1.9197254E0,9.670813E0,-2.4966178E-2,-7.2623215E0,-5.806779E0,6.7829704E0,1.9413197E1,-1.3413681E0,5.422604E-2,4.020542E0,-4.273887E0,2.3388289E-1,-4.6110153E-1,3.8227131E0,1.2178079E1,4.4413786E0],"categories":[],"categories_nodes":[],"categories_segments":[],"categories_sizes":[],"default_left":[true,true,true,true,true,true,true,true,true,false,true,true,true,true,true,false,false,false,false,false,false,false,false,false,false,false,false,false,false],"id":29,"left_children":[1,3,5,7,9,11,13,15,17,-1,19,21,23,25,27,-1,-1,-1,-1,-1,-1,-1,-1,-1,-1,-1,-1,-1,-1],"loss_changes":[4.2148254E2,1.6757672E3,1.7039207E3,2.4222354E3,1.172791E4,1.9905137E3,5.4883923E2,2.3350774E3,2.1148735E3,0E0,2.1055347E3,1.861941E3,2.3623416E3,7.425362E1,2.8681372E2,0E0,0E0,0E0,0E0,0E0,0E0,0E0,0E0,0E0,0E0,0E0,0E0,0E0,0E0],"parents":[2147483647,0,0,1,1,2,2,3,3,4,4,5,5,6,6,7,7,8,8,10,10,11,11,12,12,13,13,14,14],"right_children":[2,4,6,8,10,12,14,16,18,-1,20,22,24,26,28,-1,-1,-1,-1,-1,-1,-1,-1,-1,-1,-1,-1,-1,-1],"split_conditions":[5.043165E1,4.819114E1,1.5055516E2,4.4218826E1,4.8541702E1,6.7301544E1,7.5627144E1,4.3456375E1,-6.660219E1,-8.931555E0,-6.789099E1,-9.696626E0,7.516087E1,7.36189E1,8.223837E1,-7.489854E-3,-2.1786966E0,-1.7420337E0,2.0348911E0,5.8239594E0,-4.0241045E-1,1.6267814E-2,1.2061627E0,-1.2821662E0,7.016487E-2,-1.3833046E-1,1.146814E0,3.6534238E0,1.3324137E0],"split_indices":[0,0,1,0,0,0,0,0,1,0,1,1,0,0,0,0,0,0,0,0,0,0,0,0,0,0,0,0,0],"split_type":[0,0,0,0,0,0,0,0,0,0,0,0,0,0,0,0,0,0,0,0,0,0,0,0,0,0,0,0,0],"sum_hessian":[6.323E3,5.162E3,1.161E3,4.923E3,2.39E2,1.121E3,4E1,4.823E3,1E2,1.4E1,2.25E2,4.76E2,6.45E2,1.5E1,2.5E1,4.779E3,4.4E1,1.5E1,8.5E1,4E0,2.21E2,2.59E2,2.17E2,1.51E2,4.94E2,7E0,8E0,1.6E1,9E0],"tree_param":{"num_deleted":"0","num_feature":"2","num_nodes":"29","size_leaf_vector":"0"}},{"base_weights":[4.066704E-3,2.292064E-2,-2.9584599E0,4.2934567E-3,1.30118E1,-5.993112E0,3.8052886E0,-2.3736335E-2,2.602633E0,-6.9185295E0,-3.6355088E0,2.956523E-2,-1.7409459E0,-2.4508351E-1,4.6534314E0],"categories":[],"categories_nodes":[],"categories_segments":[],"categories_sizes":[],"default_left":[true,true,true,true,false,true,false,true,true,false,false,false,false,false,false],"id":30,"left_children":[1,3,5,7,-1,9,-1,11,13,-1,-1,-1,-1,-1,-1],"loss_changes":[3.5329666E2,1.5205763E3,8.4383057E2,4.572214E2,0E0,3.5937073E1,0E0,5.68544E2,3.9242664E2,0E0,0E0,0E0,0E0,0E0,0E0],"parents":[2147483647,0,0,1,1,2,2,3,3,5,5,7,7,8,8],"right_children":[2,4,6,8,-1,10,-1,12,14,-1,-1,-1,-1,-1,-1],"split_conditions":[1.7747937E2,1.7613397E2,-5.4597885E1,1.5694763E2,3.9035401E0,-6.2009098E1,1.1415867E0,1.4777545E2,-5.1861984E1,-2.075559E0,-1.0906527E0,8.86957E-3,-5.222838E-1,-7.3525056E-2,1.3960295E0],"split_indices":[1,1,0,1,0,0,0,1,0,0,0,0,0,0,0],"split_type":[0,0,0,0,0,0,0,0,0,0,0,0,0,0,0],"sum_hessian":[6.323E3,6.284E3,3.9E1,6.276E3,8E0,2.7E1,1.2E1,6.21E3,6.6E1,1.8E1,9E0,6.024E3,1.86E2,2.8E1,3.8E1],"tree_param":{"num_deleted":"0","num_feature":"2","num_nodes":"15","size_leaf_vector":"0"}},{"base_weights":[3.2755558E-3,-9.8205306E-2,5.1193076E-1,-3.7197337E-2,-6.470354E0,9.846422E0,7.531743E-2,-6.479685E-2,1.1955593E1,-9.337853E0,-5.319095E0,6.6755147E0,1.6843884E1,-2.9628375E0,7.9557365E-1,7.729603E-2,-1.1698546E0,5.2257247E0,-4.0468965E0,-8.301384E0,9.8837155E-1],"categories":[],"categories_nodes":[],"categories_segments":[],"categories_sizes":[],"default_left":[true,true,true,true,true,true,true,true,false,false,false,false,false,true,true,false,false,false,false,false,false],"id":31,"left_children":[1,3,5,7,9,11,13,15,-1,-1,-1,-1,-1,17,19,-1,-1,-1,-1,-1,-1],"loss_changes":[3.264874E2,2.0496477E3,4.286751E3,1.7298938E3,1.1539307E2,9.304087E2,2.2037368E3,8.186402E2,0E0,0E0,0E0,0E0,0E0,1.7343867E3,1.4358584E3,0E0,0E0,0E0,0E0,0E0,0E0],"parents":[2147483647,0,0,1,1,2,2,3,3,4,4,5,5,6,6,7,7,13,13,14,14],"right_children":[2,4,6,8,10,12,14,16,-1,-1,-1,-1,-1,18,20,-1,-1,-1,-1,-1,-1],"split_conditions":[5.130571E1,5.103382E1,5.2575264E1,5.086883E1,5.1212837E1,9.9983635E0,-3.44468E1,4.4850872E1,3.586678E0,-2.801356E0,-1.5957286E0,2.0026546E0,5.0531654E0,-7.5203735E1,5.3059937E1,2.318881E-2,-3.509564E-1,1.5677174E0,-1.214069E0,-2.4904153E0,2.9651147E-1],"split_indices":[0,0,0,0,0,1,1,1,0,0,0,0,0,1,0,0,0,0,0,0,0],"split_type":[0,0,0,0,0,0,0,0,0,0,0,0,0,0,0,0,0,0,0,0,0],"sum_hessian":[6.323E3,5.272E3,1.051E3,5.223E3,4.9E1,4.6E1,1.005E3,5.212E3,1.1E1,1.2E1,3.7E1,3.3E1,1.3E1,1.92E2,8.13E2,4.619E3,5.93E2,2.2E1,1.7E2,1.6E1,7.97E2],"tree_param":{"num_deleted":"0","num_feature":"2","num_nodes":"21","size_leaf_vector":"0"}},{"base_weights":[2.9341946E-3,4.9915254E-2,-1.6878517E0,6.280387E-3,4.2685456E0,-2.613785E0,-1.3765587E-1,3.788278E-2,-9.5901E0,1.5385458E1,4.7397995E-1,-1.3640587E0,-7.118696E0,1.2648675E-1,-5.1409686E-1,2.5471088E-3,6.3140464E0,-7.861879E0,3.1646914E0,-2.2362697E0,7.011995E-1,-8.597342E0,-4.3367233E0,-1.7858887E-2,5.46875E-1],"categories":[],"categories_nodes":[],"categories_segments":[],"categories_sizes":[],"default_left":[true,true,true,true,true,true,true,true,false,false,true,true,true,true,false,false,false,false,false,false,false,false,false,false,false],"id":32,"left_children":[1,3,5,7,9,11,13,15,-1,-1,17,19,21,23,-1,-1,-1,-1,-1,-1,-1,-1,-1,-1,-1],"loss_changes":[5.0243063E2,1.1327976E3,2.4508987E2,1.8478755E3,2.65029E3,5.926896E2,6.5282435E0,1.3468081E3,0E0,0E0,1.1014911E3,1.5468202E2,5.7327393E1,2.3763337E0,0E0,0E0,0E0,0E0,0E0,0E0,0E0,0E0,0E0,0E0,0E0],"parents":[2147483647,0,0,1,1,2,2,3,3,4,4,5,5,6,6,7,7,10,10,11,11,12,12,13,13],"right_children":[2,4,6,8,10,12,14,16,-1,-1,18,20,22,24,-1,-1,-1,-1,-1,-1,-1,-1,-1,-1,-1],"split_conditions":[9.1403275E1,8.669241E1,1.07703026E2,8.627565E1,8.680448E1,9.759665E1,2.943483E1,8.543733E1,-2.8770301E0,4.615638E0,8.7367935E1,9.528497E1,1.0013823E2,1.2351613E2,-1.5422906E-1,7.6413265E-4,1.894214E0,-2.3585637E0,9.4940746E-1,-6.708809E-1,2.1035986E-1,-2.5792027E0,-1.301017E0,-5.3576664E-3,1.640625E-1],"split_indices":[0,0,0,0,0,0,1,0,0,0,0,0,0,0,0,0,0,0,0,0,0,0,0,0,0],"split_type":[0,0,0,0,0,0,0,0,0,0,0,0,0,0,0,0,0,0,0,0,0,0,0,0,0],"sum_hessian":[6.323E3,6.153E3,1.7E2,6.091E3,6.2E1,1.06E2,6.4E1,6.072E3,1.9E1,1.5E1,4.7E1,8.4E1,2.2E1,3.8E1,2.6E1,6.039E3,3.3E1,1.1E1,3.6E1,5.9E1,2.5E1,1.3E1,9E0,2.9E1,9E0],"tree_param":{"num_deleted":"0","num_feature":"2","num_nodes":"25","size_leaf_vector":"0"}},{"base_weights":[1.721203E-3,6.0020275E-2,-1.0473171E0,-2.3052437E-2,2.6247919E0,-7.1196804E0,3.780432E-4,4.6840977E-2,-3.5761778E0,6.6560893E0,1.1159445E0,-4.055135E0,-7.707825E0,2.4983654E0,-1.1098405E0,-4.8181944E-2,2.5042176E0,-2.7804997E0,-9.975121E0,1.7924184E0,1.2499148E1,-2.8866822E-1,7.177686E0,4.9757624E0,-2.4571278E0,-2.7035139E0,-6.369499E-1],"categories":[],"categories_nodes":[],"categories_segments":[],"categories_sizes":[],"default_left":[true,true,true,true,true,true,true,true,true,true,true,false,false,true,true,false,false,false,false,false,false,false,false,false,false,false,false],"id":33,"left_children":[1,3,5,7,9,11,13,15,17,19,21,-1,-1,23,25,-1,-1,-1,-1,-1,-1,-1,-1,-1,-1,-1,-1],"loss_changes":[3.868258E2,1.2767312E3,2.118544E3,1.4417816E3,1.1361033E3,5.7061035E1,7.931666E2,1.3297101E3,5.425121E2,1.4269509E3,1.1770591E3,0E0,0E0,1.0925779E3,1.4749738E2,0E0,0E0,0E0,0E0,0E0,0E0,0E0,0E0,0E0,0E0,0E0,0E0],"parents":[2147483647,0,0,1,1,2,2,3,3,4,4,5,5,6,6,7,7,8,8,9,9,10,10,13,13,14,14],"right_children":[2,4,6,8,10,12,14,16,18,20,22,-1,-1,24,26,-1,-1,-1,-1,-1,-1,-1,-1,-1,-1,-1,-1],"split_conditions":[8.497232E1,7.516087E1,8.543733E1,7.07865E1,5.4541565E1,8.5148865E1,8.8738815E1,6.0219704E1,7.417882E1,4.847654E1,1.5055516E2,-1.2165405E0,-2.3123477E0,1.418636E2,-4.5824723E0,-1.4454584E-2,7.5126535E-1,-8.3414996E-1,-2.9925363E0,5.377255E-1,3.7497447E0,-8.660047E-2,2.153306E0,1.4927287E0,-7.371384E-1,-8.1105417E-1,-1.9108498E-1],"split_indices":[0,0,0,0,1,0,0,0,0,1,1,0,0,1,1,0,0,0,0,0,0,0,0,0,0,0,0],"split_type":[0,0,0,0,0,0,0,0,0,0,0,0,0,0,0,0,0,0,0,0,0,0,0,0,0,0,0],"sum_hessian":[6.323E3,5.991E3,3.32E2,5.804E3,1.87E2,4.8E1,2.84E2,5.693E3,1.11E2,5E1,1.37E2,9E0,3.9E1,8.7E1,1.97E2,5.482E3,2.11E2,1E2,1.1E1,2.8E1,2.2E1,1.12E2,2.5E1,5.8E1,2.9E1,4.4E1,1.53E2],"tree_param":{"num_deleted":"0","num_feature":"2","num_nodes":"27","size_leaf_vector":"0"}},{"base_weights":[1.1199599E-3,6.57006E-1,-8.32653E-2,1.1245275E-2,5.6890774E0,-2.6169987E1,-3.662535E-2,5.535059E-1,-4.634558E0,1.2610028E1,2.0622468E0,-3.0560246E0,3.915672E-2,-5.3287226E-1,3.8315609E0,4.1241555E0,-1.02894535E1,-5.9781337E0,8.961835E0,5.7684135E0,-6.8848825E0,5.2085304E0,-4.5531303E-2],"categories":[],"categories_nodes":[],"categories_segments":[],"categories_sizes":[],"default_left":[true,true,true,true,true,false,true,true,true,false,true,true,true,false,false,false,false,false,false,false,false,false,false],"id":34,"left_children":[1,3,5,7,9,-1,11,13,15,-1,17,19,21,-1,-1,-1,-1,-1,-1,-1,-1,-1,-1],"loss_changes":[3.5006985E2,2.3428357E3,6.817335E3,1.6148765E3,2.0322866E3,0E0,1.2803469E3,2.0461748E3,3.3609194E3,0E0,3.104717E3,4.6686045E3,2.3901E3,0E0,0E0,0E0,0E0,0E0,0E0,0E0,0E0,0E0,0E0],"parents":[2147483647,0,0,1,1,2,2,3,3,4,4,6,6,7,7,8,8,10,10,11,11,12,12],"right_children":[2,4,6,8,10,-1,12,14,16,-1,18,20,22,-1,-1,-1,-1,-1,-1,-1,-1,-1,-1],"split_conditions":[-1.15344955E2,-1.23923965E2,-1.15054825E2,-1.2652083E2,-1.2098297E2,-7.8509965E0,-1.01539825E2,-4.115097E1,-5.4815758E1,3.7830086E0,-1.1868306E2,-3.8239822E1,-9.9054726E1,-1.5986168E-1,1.1494683E0,1.2372468E0,-3.086836E0,-1.7934402E0,2.6885505E0,1.7305242E0,-2.0654647E0,1.5625592E0,-1.3659392E-2],"split_indices":[0,0,0,0,0,0,0,1,1,0,0,1,0,0,0,0,0,0,0,0,0,0,0],"split_type":[0,0,0,0,0,0,0,0,0,0,0,0,0,0,0,0,0,0,0,0,0,0,0],"sum_hessian":[6.323E3,7.2E2,5.603E3,6.39E2,8.1E1,9E0,5.594E3,5.73E2,6.6E1,2.7E1,5.4E1,1.36E2,5.458E3,4.31E2,1.42E2,2.6E1,4E1,2.5E1,2.9E1,4.1E1,9.5E1,8.7E1,5.371E3],"tree_param":{"num_deleted":"0","num_feature":"2","num_nodes":"23","size_leaf_vector":"0"}},{"base_weights":[3.3611318E-4,3.356393E-1,-1.5033527E-1,-2.3625319E-1,4.885744E0,-3.6518166E1,-7.516061E-2,-6.2340748E-2,-1.52156925E1,7.2335544E0,1.1707175E0,-2.4372072E0,1.15884386E-1,-2.1837734E-1,1.4738593E1,-9.677463E0,-1.9786177E1,8.074105E0,2.03871E0,7.332443E0,-5.681577E-1,-1.2604306E1,-9.303464E-1,1.0265538E1,9.016889E-3],"categories":[],"categories_nodes":[],"categories_segments":[],"categories_sizes":[],"default_left":[true,true,true,true,true,false,true,true,true,true,true,true,true,false,false,false,false,false,false,false,false,false,false,false,false],"id":35,"left_children":[1,3,5,7,9,-1,11,13,15,17,19,21,23,-1,-1,-1,-1,-1,-1,-1,-1,-1,-1,-1,-1],"loss_changes":[3.195427E2,5.104011E3,1.1928165E4,4.53976E3,1.9016885E3,0E0,1.9659589E3,3.9847747E3,3.1476807E2,5.686543E2,9.2561053E2,4.9827256E3,4.372204E3,0E0,0E0,0E0,0E0,0E0,0E0,0E0,0E0,0E0,0E0,0E0,0E0],"parents":[2147483647,0,0,1,1,2,2,3,3,4,4,6,6,7,7,8,8,9,9,10,10,11,11,12,12],"right_children":[2,4,6,8,10,-1,12,14,16,18,20,22,24,-1,-1,-1,-1,-1,-1,-1,-1,-1,-1,-1,-1],"split_conditions":[-4.666902E1,-4.9186794E1,-4.6357124E1,-4.9512283E1,-4.726944E1,-1.095545E1,-4.1471832E1,-4.967678E1,-7.287519E1,-2.1381817E0,-8.166885E1,-8.641592E1,-4.0338753E1,-6.55132E-2,4.421578E0,-2.9032388E0,-5.935853E0,2.4222317E0,6.1161304E-1,2.199733E0,-1.704473E-1,-3.781292E0,-2.7910393E-1,3.0796616E0,2.705067E-3],"split_indices":[1,1,1,1,1,0,1,1,0,0,0,0,1,0,0,0,0,0,0,0,0,0,0,0,0],"split_type":[0,0,0,0,0,0,0,0,0,0,0,0,0,0,0,0,0,0,0,0,0,0,0,0,0],"sum_hessian":[6.323E3,1.96E3,4.363E3,1.742E3,2.18E2,8E0,4.355E3,1.723E3,1.9E1,1.33E2,8.5E1,3.25E2,4.03E3,1.706E3,1.7E1,1E1,9E0,1.14E2,1.9E1,1.8E1,6.7E1,4.1E1,2.84E2,4.1E1,3.989E3],"tree_param":{"num_deleted":"0","num_feature":"2","num_nodes":"25","size_leaf_vector":"0"}},{"base_weights":[-1.5597069E-3,-2.6625875E-1,2.2228022E-1,-5.000823E-2,-1.338286E1,7.439538E0,8.490602E-2,-1.8826172E-1,7.7014823E0,-2.549516E1,-1.0244563E1,1.0817688E1,4.511597E0,-1.2435382E1,1.9750684E-1,-1.1931628E0,2.3944062E-1,5.5207014E0,9.217785E0,-1.5458733E1,-2.5874786E0,8.058414E0,1.28557825E1,-1.338509E-1,9.164481E0,9.4882E-1,-2.420586E1,8.373076E0,6.8501667E-3],"categories":[],"categories_nodes":[],"categories_segments":[],"categories_sizes":[],"default_left":[true,true,true,true,true,true,true,true,true,false,true,true,true,true,true,false,false,false,false,false,false,false,false,false,false,false,false,false,false],"id":36,"left_children":[1,3,5,7,9,11,13,15,17,-1,19,21,23,25,27,-1,-1,-1,-1,-1,-1,-1,-1,-1,-1,-1,-1,-1,-1],"loss_changes":[3.7475757E2,8.219427E3,3.397119E3,3.0578542E3,1.525377E3,5.8422046E2,4.7450054E3,1.205011E3,1.1444751E2,0E0,1.5170889E3,5.948877E1,7.7935706E2,4.7491206E3,5.1982964E3,0E0,0E0,0E0,0E0,0E0,0E0,0E0,0E0,0E0,0E0,0E0,0E0,0E0,0E0],"parents":[2147483647,0,0,1,1,2,2,3,3,4,4,5,5,6,6,7,7,8,8,10,10,11,11,12,12,13,13,14,14],"right_children":[2,4,6,8,10,12,14,16,18,-1,20,22,24,26,28,-1,-1,-1,-1,-1,-1,-1,-1,-1,-1,-1,-1,-1,-1],"split_conditions":[-3.4915146E1,-3.8691372E1,-3.3456223E1,-3.9738293E1,-4.600254E1,-3.4288136E1,-3.0417019E1,-4.9186794E1,6.128269E0,-7.648548E0,-3.838606E1,-3.484124E1,-3.3612698E1,-3.241469E1,-2.7209019E1,-3.5794884E-1,7.183219E-2,1.6562105E0,2.7653356E0,-4.63762E0,-7.762436E-1,2.4175243E0,3.856735E0,-4.0155273E-2,2.7493443E0,2.84646E-1,-7.2617583E0,2.511923E0,2.05505E-3],"split_indices":[0,0,0,0,1,0,0,1,1,0,0,0,0,0,0,0,0,0,0,0,0,0,0,0,0,0,0,0,0],"split_type":[0,0,0,0,0,0,0,0,0,0,0,0,0,0,0,0,0,0,0,0,0,0,0,0,0,0,0,0,0],"sum_hessian":[6.323E3,2.897E3,3.426E3,2.851E3,4.6E1,6.3E1,3.363E3,2.802E3,4.9E1,8E0,3.8E1,2.8E1,3.5E1,2.9E1,3.334E3,8.36E2,1.966E3,2.2E1,2.7E1,2.2E1,1.6E1,1.4E1,1.4E1,1.8E1,1.7E1,1.4E1,1.5E1,7.5E1,3.259E3],"tree_param":{"num_deleted":"0","num_feature":"2","num_nodes":"29","size_leaf_vector":"0"}},{"base_weights":[-1.7918412E-3,1.2046193E0,-7.117884E-2,6.146032E-1,6.93807E0,-4.3895736E0,-1.1148407E-2,1.9524331E0,-1.5103287E-1,-6.6667905E0,2.1257072E-3,9.050563E0,-4.505664E-2,-7.54301E-3,4.208397E0,-1.6112089E0,1.688189E0,7.509057E-1,-1.85137E-1],"categories":[],"categories_nodes":[],"categories_segments":[],"categories_sizes":[],"default_left":[true,true,true,true,false,true,true,true,true,false,false,false,true,false,false,false,false,false,false],"id":37,"left_children":[1,3,5,7,-1,9,11,13,15,-1,-1,-1,17,-1,-1,-1,-1,-1,-1],"loss_changes":[5.29463E2,1.1594287E3,1.5504363E3,3.2089792E2,0E0,8.200841E2,1.8132808E3,5.040982E2,5.398376E2,0E0,0E0,0E0,6.5563983E2,0E0,0E0,0E0,0E0,0E0,0E0],"parents":[2147483647,0,0,1,1,2,2,3,3,5,5,6,6,7,7,8,8,12,12],"right_children":[2,4,6,8,-1,10,12,14,16,-1,-1,-1,18,-1,-1,-1,-1,-1,-1],"split_conditions":[-1.5519681E2,-1.5953857E2,-1.4535567E2,-1.7468765E2,2.0814211E0,-1.7934309E1,-1.4339833E2,-1.0147795E2,-1.66123E2,-2.0000372E0,6.377122E-4,2.715169E0,-5.9152798E1,-2.2629031E-3,1.2625191E0,-4.833627E-1,5.0645673E-1,2.2527172E-1,-5.55411E-2],"split_indices":[0,0,0,0,0,1,0,1,0,0,0,0,1,0,0,0,0,0,0],"split_type":[0,0,0,0,0,0,0,0,0,0,0,0,0,0,0,0,0,0,0],"sum_hessian":[6.323E3,3.43E2,5.98E3,3.12E2,3.1E1,8.1E1,5.899E3,1.13E2,1.99E2,5.3E1,2.8E1,2.1E1,5.878E3,6.1E1,5.2E1,1.11E2,8.8E1,8.79E2,4.999E3],"tree_param":{"num_deleted":"0","num_feature":"2","num_nodes":"19","size_leaf_vector":"0"}},{"base_weights":[-5.80553E-4,6.860531E-1,-8.740323E-2,4.0646344E-1,1.0832895E1,-9.749812E0,-5.1121194E-2,5.882205E-1,-4.271937E0,-1.2907435E0,-1.8925713E1,3.8521786E0,-9.127952E-2,2.183506E-1,9.021381E0,-2.707328E0,-5.0806093E0,9.657754E0,-2.086231E0,-3.133618E1,-5.173396E-2],"categories":[],"categories_nodes":[],"categories_segments":[],"categories_sizes":[],"default_left":[true,true,true,true,false,true,true,true,true,false,false,true,true,false,false,false,false,false,false,false,false],"id":38,"left_children":[1,3,5,7,-1,9,11,13,15,-1,-1,17,19,-1,-1,-1,-1,-1,-1,-1,-1],"loss_changes":[3.7706757E2,2.0098331E3,1.9679625E3,5.909427E2,0E0,1.6055826E3,8.773678E2,2.078518E3,1.9141785E1,0E0,0E0,1.9852739E3,6.8423506E3,0E0,0E0,0E0,0E0,0E0,0E0,0E0,0E0],"parents":[2147483647,0,0,1,1,2,2,3,3,5,5,6,6,7,7,8,8,11,11,12,12],"right_children":[2,4,6,8,-1,10,12,14,16,-1,-1,18,20,-1,-1,-1,-1,-1,-1,-1,-1],"split_conditions":[-1.16448074E2,-1.1868306E2,-1.15054825E2,-1.2098297E2,3.2498686E0,-1.15344955E2,-1.1125871E2,-1.23923965E2,-1.2003685E2,-3.8722306E-1,-5.677714E0,-1.3503453E1,-1.0951782E2,6.5505184E-2,2.7064145E0,-8.1219846E-1,-1.5241829E0,2.8973262E0,-6.2586933E-1,-9.400854E0,-1.5520188E-2],"split_indices":[0,0,0,0,0,0,0,0,0,0,0,1,0,0,0,0,0,0,0,0,0],"split_type":[0,0,0,0,0,0,0,0,0,0,0,0,0,0,0,0,0,0,0,0,0],"sum_hessian":[6.323E3,7.09E2,5.614E3,6.91E2,1.8E1,2E1,5.594E3,6.66E2,2.5E1,1.1E1,9E0,5.6E1,5.538E3,6.39E2,2.7E1,1E1,1.5E1,2.8E1,2.8E1,6E0,5.532E3],"tree_param":{"num_deleted":"0","num_feature":"2","num_nodes":"21","size_leaf_vector":"0"}},{"base_weights":[-1.9140973E-3,-2.2751707E-1,2.3472482E-1,-2.5510436E-2,-3.7845447E0,5.823E0,-8.0807224E-2,-2.0185485E-1,9.453458E0,-8.725548E0,-1.4275638E0,4.514669E0,9.211557E0,-2.6744168E0,1.5535752E-1,-8.4777124E-2,-9.871422E0,6.563636E0,1.3314348E1,1.3276192E1,-9.366964E0,7.064331E-1,-7.781969E0,8.410163E0,2.9582884E0,1.1065089E1,3.1922543E0,8.274684E0,-5.539003E0,1.3046243E1,7.303755E-2],"categories":[],"categories_nodes":[],"categories_segments":[],"categories_sizes":[],"default_left":[true,true,true,true,true,true,true,true,true,true,true,true,true,true,true,false,false,false,false,false,false,false,false,false,false,false,false,false,false,false,false],"id":39,"left_children":[1,3,5,7,9,11,13,15,17,19,21,23,25,27,29,-1,-1,-1,-1,-1,-1,-1,-1,-1,-1,-1,-1,-1,-1,-1,-1],"loss_changes":[3.3766928E2,2.3265461E3,5.4437153E3,5.125249E3,2.0139216E3,6.899165E2,1.7908088E3,3.4067568E3,5.374175E2,9.14646E2,1.619171E3,7.087278E2,4.6674097E2,7.6988057E3,2.8430027E3,0E0,0E0,0E0,0E0,0E0,0E0,0E0,0E0,0E0,0E0,0E0,0E0,0E0,0E0,0E0,0E0],"parents":[2147483647,0,0,1,1,2,2,3,3,4,4,5,5,6,6,7,7,8,8,9,9,10,10,11,11,12,12,13,13,14,14],"right_children":[2,4,6,8,10,12,14,16,18,20,22,24,26,28,30,-1,-1,-1,-1,-1,-1,-1,-1,-1,-1,-1,-1,-1,-1,-1,-1],"split_conditions":[-1.8634274E1,-2.7209019E1,-9.307119E0,-2.9150488E1,-2.5228674E1,-1.0756524E1,1.1246927E1,-3.241469E1,-2.7287119E1,-5.0267563E1,-2.1130962E1,-1.5650455E1,-1.0171371E1,-6.048088E1,1.19217205E1,-2.5433138E-2,-2.9614267E0,1.9690908E0,3.9943047E0,3.9828577E0,-2.8100893E0,2.1192995E-1,-2.334591E0,2.5230489E0,8.874866E-1,3.319527E0,9.5767635E-1,2.4824052E0,-1.661701E0,3.913873E0,2.1911265E-2],"split_indices":[0,0,0,0,0,0,0,0,0,1,0,0,0,1,0,0,0,0,0,0,0,0,0,0,0,0,0,0,0,0,0],"split_type":[0,0,0,0,0,0,0,0,0,0,0,0,0,0,0,0,0,0,0,0,0,0,0,0,0,0,0,0,0,0,0],"sum_hessian":[6.323E3,3.237E3,3.086E3,3.064E3,1.73E2,1.64E2,2.922E3,3.009E3,5.5E1,5.5E1,1.18E2,1.2E2,4.4E1,2.43E2,2.679E3,2.974E3,3.5E1,3.3E1,2.2E1,1E0,5.4E1,8.9E1,2.9E1,3.3E1,8.7E1,3.3E1,1.1E1,5E1,1.93E2,1.6E1,2.663E3],"tree_param":{"num_deleted":"0","num_feature":"2","num_nodes":"31","size_leaf_vector":"0"}},{"base_weights":[9.4964006E-4,-2.4656393E-1,1.9655024E-1,-1.0620923E-1,-1.2348837E1,4.7975216E0,8.8564366E-2,5.618259E-2,-3.8773263E0,-1.913635E1,-6.0065284E0,5.8722987E0,2.2980974E0,-9.781445E0,1.5470299E-1,-1.5905155E-1,2.139735E0,3.4064405E0,-5.656123E0,-3.9138823E0,-8.1331005E0,2.9784224E0,1.8385839E-2],"categories":[],"categories_nodes":[],"categories_segments":[],"categories_sizes":[],"default_left":[true,true,true,true,true,true,true,true,true,false,true,false,false,false,true,false,false,false,false,false,false,false,false],"id":40,"left_children":[1,3,5,7,9,11,13,15,17,-1,19,-1,-1,-1,21,-1,-1,-1,-1,-1,-1,-1,-1],"loss_changes":[3.0621735E2,4.7412095E3,1.7549106E3,1.6910504E3,1.2626094E3,2.0409705E2,2.255593E3,1.1878402E3,1.49629E3,0E0,4.8270874E1,0E0,0E0,0E0,1.3206105E3,0E0,0E0,0E0,0E0,0E0,0E0,0E0,0E0],"parents":[2147483647,0,0,1,1,2,2,3,3,4,4,5,5,6,6,7,7,8,8,10,10,14,14],"right_children":[2,4,6,8,10,12,14,16,18,-1,20,-1,-1,-1,22,-1,-1,-1,-1,-1,-1,-1,-1],"split_conditions":[-3.272093E1,-3.342195E1,-3.1474237E1,5.8432434E1,-3.32486E1,4.642272E1,-3.1239979E1,4.070828E1,-7.5203735E1,-5.7409053E0,-2.6679337E1,1.7616897E0,6.894292E-1,-2.9344335E0,-2.7271564E1,-4.7715466E-2,6.419205E-1,1.0219322E0,-1.6968371E0,-1.1741648E0,-2.4399302E0,8.9352673E-1,5.515752E-3],"split_indices":[1,1,1,0,1,0,1,0,1,0,0,0,0,0,1,0,0,0,0,0,0,0,0],"split_type":[0,0,0,0,0,0,0,0,0,0,0,0,0,0,0,0,0,0,0,0,0,0,0],"sum_hessian":[6.323E3,2.791E3,3.532E3,2.76E3,3.1E1,8E1,3.452E3,2.647E3,1.13E2,1.4E1,1.7E1,5.5E1,2.5E1,2.2E1,3.43E3,2.4E3,2.47E2,2.2E1,9.1E1,1E1,7E0,1.57E2,3.273E3],"tree_param":{"num_deleted":"0","num_feature":"2","num_nodes":"23","size_leaf_vector":"0"}},{"base_weights":[-7.583551E-4,-4.0594068E-1,1.1643579E-1,2.6002818E-1,-3.9041562E0,1.6143882E0,-6.9976814E-2,-1.40410215E-2,8.160423E0,-1.8402773E1,-2.5674198E0,3.67584E-1,3.4572968E0,-2.671566E1,-1.4907683E-2,2.0075783E-1,-6.160233E0,5.701237E0,1.1878985E1,-5.6490006E0,8.47993E-1,1.0842562E0,-1.0615879E1,5.79458E0,1.6533035E0,-3.0292645E1,-9.464147E0,7.7026706E0,-5.765104E-2],"categories":[],"categories_nodes":[],"categories_segments":[],"categories_sizes":[],"default_left":[true,true,true,true,true,true,true,true,true,false,true,true,true,true,true,false,false,false,false,false,false,false,false,false,false,false,false,false,false],"id":41,"left_children":[1,3,5,7,9,11,13,15,17,-1,19,21,23,25,27,-1,-1,-1,-1,-1,-1,-1,-1,-1,-1,-1,-1,-1,-1],"loss_changes":[3.0034238E2,3.306863E3,1.3700507E3,2.583264E3,4.3522E3,1.2464055E3,6.4031377E3,1.5247417E3,2.9806055E2,0E0,2.2044883E3,2.5697615E3,9.1382056E2,2.6868115E2,1.4373805E3,0E0,0E0,0E0,0E0,0E0,0E0,0E0,0E0,0E0,0E0,0E0,0E0,0E0,0E0],"parents":[2147483647,0,0,1,1,2,2,3,3,4,4,5,5,6,6,7,7,8,8,10,10,11,11,12,12,13,13,14,14],"right_children":[2,4,6,8,10,12,14,16,18,-1,20,22,24,26,28,-1,-1,-1,-1,-1,-1,-1,-1,-1,-1,-1,-1,-1,-1],"split_conditions":[-5.362264E1,-5.9152798E1,-4.666902E1,-5.9348087E1,-5.8801273E1,-4.9186794E1,-4.6357124E1,-6.1060997E1,-3.841389E1,-5.520832E0,-3.5389763E1,-4.9512283E1,-7.669206E1,-6.792302E1,-4.629136E1,6.0227353E-2,-1.84807E0,1.7103713E0,3.5636957E0,-1.6947002E0,2.5439793E-1,3.2527685E-1,-3.184764E0,1.7383741E0,4.9599108E-1,-9.087793E0,-2.8392441E0,2.3108013E0,-1.7295312E-2],"split_indices":[1,1,1,1,1,1,1,1,0,0,0,1,0,0,1,0,0,0,0,0,0,0,0,0,0,0,0,0,0],"split_type":[0,0,0,0,0,0,0,0,0,0,0,0,0,0,0,0,0,0,0,0,0,0,0,0,0,0,0,0,0],"sum_hessian":[6.323E3,1.418E3,4.905E3,1.192E3,2.26E2,5.42E2,4.363E3,1.153E3,3.9E1,1.8E1,2.08E2,3.24E2,2.18E2,8E0,4.355E3,1.115E3,3.8E1,2.5E1,1.4E1,1.09E2,9.9E1,3.05E2,1.9E1,9.4E1,1.24E2,6E0,2E0,2.3E1,4.332E3],"tree_param":{"num_deleted":"0","num_feature":"2","num_nodes":"29","size_leaf_vector":"0"}},{"base_weights":[-2.7065917E-3,-3.079214E-1,1.3485071E-1,-1.1726596E-1,-5.8791227E0,2.082301E0,8.316748E-3,-1.0243555E0,6.7554754E-1,-1.2131901E1,-1.9230603E0,2.668613E0,-4.885085E0,-5.8580227E0,1.13279E-1,-5.110177E-1,-6.417766E0,3.6987846E0,-8.48169E-2,3.4042954E-1,-4.5618606E0,1.2364436E0,7.5056796E0,4.5535703E0,-1.7975912E1,2.1102731E0,-7.649516E0,4.6602087E0,-3.2484975E-2],"categories":[],"categories_nodes":[],"categories_segments":[],"categories_sizes":[],"default_left":[true,true,true,true,true,true,true,true,true,false,true,true,true,true,true,false,false,false,false,false,false,false,false,false,false,false,false,false,false],"id":42,"left_children":[1,3,5,7,9,11,13,15,17,-1,19,21,23,25,27,-1,-1,-1,-1,-1,-1,-1,-1,-1,-1,-1,-1,-1,-1],"loss_changes":[2.655517E2,2.086494E3,1.0743676E3,1.3678015E3,1.5845344E3,1.0996635E3,2.522136E3,2.4525054E3,2.3335571E3,0E0,2.4644183E2,1.6948845E3,2.67661E3,1.0439534E3,2.6671724E3,0E0,0E0,0E0,0E0,0E0,0E0,0E0,0E0,0E0,0E0,0E0,0E0,0E0,0E0],"parents":[2147483647,0,0,1,1,2,2,3,3,4,4,5,5,6,6,7,7,8,8,10,10,11,11,12,12,13,13,14,14],"right_children":[2,4,6,8,10,12,14,16,18,-1,20,22,24,26,28,-1,-1,-1,-1,-1,-1,-1,-1,-1,-1,-1,-1,-1,-1],"split_conditions":[-6.69901E1,-6.8696655E1,-5.9085922E1,-4.1471832E1,1.4809319E1,2.6911827E1,-5.670751E1,-4.3890915E1,-3.6301193E1,-3.6395705E0,-6.772507E1,-6.2396988E1,-6.2246895E1,-6.733827E1,-5.399313E1,-1.533053E-1,-1.9253299E0,1.1096355E0,-2.5445072E-2,1.0212887E-1,-1.3685582E0,3.7093312E-1,2.251704E0,1.3660711E0,-5.3927736E0,6.33082E-1,-2.2948549E0,1.3980627E0,-9.745493E-3],"split_indices":[0,0,0,1,1,1,0,1,1,0,0,0,0,1,0,0,0,0,0,0,0,0,0,0,0,0,0,0,0],"split_type":[0,0,0,0,0,0,0,0,0,0,0,0,0,0,0,0,0,0,0,0,0,0,0,0,0,0,0,0,0],"sum_hessian":[6.323E3,1.964E3,4.359E3,1.9E3,6.4E1,2.65E2,4.094E3,8.86E2,1.014E3,2.4E1,4E1,2.45E2,2E1,7.1E1,4.023E3,8.1E2,7.6E1,2.03E2,8.11E2,2.2E1,1.8E1,1.9E2,5.5E1,1.2E1,8E0,1.3E1,5.8E1,1.24E2,3.899E3],"tree_param":{"num_deleted":"0","num_feature":"2","num_nodes":"29","size_leaf_vector":"0"}},{"base_weights":[-3.0889565E-3,6.3324153E-1,-8.35505E-2,4.3379766E-1,7.863869E0,-2.76781E0,1.1482942E-2,5.839963E-1,-3.4360604E0,-3.4653656E0,1.0274237E1,6.53789E0,-5.2908543E-2,2.0155726E-1,3.9498703E0,-3.1038952E-1,-5.7033825E0,9.584614E0,-1.106698E0,-2.716284E0,6.621051E-2],"categories":[],"categories_nodes":[],"categories_segments":[],"categories_sizes":[],"default_left":[true,true,true,true,false,true,true,true,false,true,false,true,true,false,false,false,false,false,false,false,false],"id":43,"left_children":[1,3,5,7,-1,9,11,13,-1,15,-1,17,19,-1,-1,-1,-1,-1,-1,-1,-1],"loss_changes":[3.2384256E2,1.0204828E3,1.432387E3,4.0422998E2,0E0,1.7823339E3,2.279755E3,8.577942E2,0E0,1.2903723E3,0E0,1.2450276E3,1.7044939E3,0E0,0E0,0E0,0E0,0E0,0E0,0E0,0E0],"parents":[2147483647,0,0,1,1,2,2,3,3,5,5,6,6,7,7,9,9,11,11,12,12],"right_children":[2,4,6,8,-1,10,12,14,-1,16,-1,18,20,-1,-1,-1,-1,-1,-1,-1,-1],"split_conditions":[-1.16448074E2,-1.1868306E2,-1.0065651E2,-1.2098297E2,2.359161E0,-1.406071E0,-9.9054726E1,-1.25723465E2,-1.0308182E0,-1.1125871E2,3.082271E0,-9.47502E0,-8.6363754E1,6.046718E-2,1.1849612E0,-9.311686E-2,-1.7110149E0,2.8753843E0,-3.3200943E-1,-8.1488526E-1,1.9863153E-2],"split_indices":[0,0,0,0,0,1,0,0,0,0,0,1,0,0,0,0,0,0,0,0,0],"split_type":[0,0,0,0,0,0,0,0,0,0,0,0,0,0,0,0,0,0,0,0,0],"sum_hessian":[6.323E3,7.09E2,5.614E3,6.91E2,1.8E1,1.91E2,5.423E3,6.66E2,2.5E1,1.82E2,9E0,5.2E1,5.371E3,5.99E2,6.7E1,7.6E1,1.06E2,3.7E1,1.5E1,2.29E2,5.142E3],"tree_param":{"num_deleted":"0","num_feature":"2","num_nodes":"21","size_leaf_vector":"0"}},{"base_weights":[-1.2802375E-3,1.2106513E0,-3.7795883E-2,3.170615E-1,6.006615E0,-4.5046573E0,-7.7665187E-3,1.4176583E0,-2.5416908E0,-2.5380194E0,-5.057185E0,2.1557631E0,-5.117327E-2,3.4282316E-2,3.0091991E0,-1.6371704E0,-2.7275054E0,1.2153478E0,4.7039256E0,-2.848017E0,-1.2293212E-2],"categories":[],"categories_nodes":[],"categories_segments":[],"categories_sizes":[],"default_left":[true,true,true,true,false,true,true,true,true,false,false,true,true,false,false,false,false,false,false,false,false],"id":44,"left_children":[1,3,5,7,-1,9,11,13,15,-1,-1,17,19,-1,-1,-1,-1,-1,-1,-1,-1],"loss_changes":[2.7991098E2,7.909359E2,8.2356616E2,4.975777E2,0E0,3.1716248E1,5.729723E2,2.5089056E2,2.92984E0,0E0,0E0,2.818429E2,6.5034753E2,0E0,0E0,0E0,0E0,0E0,0E0,0E0,0E0],"parents":[2147483647,0,0,1,1,2,2,3,3,5,5,6,6,7,7,8,8,11,11,12,12],"right_children":[2,4,6,8,-1,10,12,14,16,-1,-1,18,20,-1,-1,-1,-1,-1,-1,-1,-1],"split_conditions":[-1.6832768E2,-1.7001202E2,-1.66123E2,-1.7468765E2,1.8019847E0,-1.6746559E2,-1.5519681E2,-1.0147795E2,-1.7286467E2,-7.614059E-1,-1.5171556E0,-1.5953857E2,-1.4535567E2,1.0284695E-2,9.027598E-1,-4.9115115E-1,-8.1825167E-1,3.6460435E-1,1.4111778E0,-8.544051E-1,-3.6879638E-3],"split_indices":[0,0,0,0,0,0,0,1,0,0,0,0,0,0,0,0,0,0,0,0,0],"split_type":[0,0,0,0,0,0,0,0,0,0,0,0,0,0,0,0,0,0,0,0,0],"sum_hessian":[6.323E3,1.84E2,6.139E3,1.56E2,2.8E1,4E1,6.099E3,1.13E2,4.3E1,1E1,3E1,1.19E2,5.98E3,6.1E1,5.2E1,9E0,3.4E1,8.8E1,3.1E1,8.1E1,5.899E3],"tree_param":{"num_deleted":"0","num_feature":"2","num_nodes":"21","size_leaf_vector":"0"}},{"base_weights":[-8.848674E-4,-9.0423495E-2,3.644622E-1,-1.7911632E-2,-1.0249643E1,6.067726E0,2.0900285E-1,-7.604767E-2,4.580656E0,-1.5986685E1,-9.238652E-2,4.4824424E0,1.4048828E1,-4.680886E0,3.4120882E-1,9.216352E-4,-6.391394E0,2.538739E1,3.1171963E0,2.116026E0,5.13921E0,-4.7968086E-2,-6.784577E0,-4.4213586E0,4.861118E-1],"categories":[],"categories_nodes":[],"categories_segments":[],"categories_sizes":[],"default_left":[true,true,true,true,true,true,true,true,true,false,false,true,false,true,true,false,false,false,false,false,false,false,false,false,false],"id":45,"left_children":[1,3,5,7,9,11,13,15,17,-1,-1,19,-1,21,23,-1,-1,-1,-1,-1,-1,-1,-1,-1,-1],"loss_changes":[2.0690788E2,3.742069E3,1.1025807E3,1.3490913E3,2.0963367E3,3.5455322E2,7.857681E2,2.4221816E3,1.8392013E3,0E0,0E0,3.4196655E1,0E0,3.115539E2,8.178596E2,0E0,0E0,0E0,0E0,0E0,0E0,0E0,0E0,0E0,0E0],"parents":[2147483647,0,0,1,1,2,2,3,3,4,4,5,5,6,6,7,7,8,8,11,11,13,13,14,14],"right_children":[2,4,6,8,10,12,14,16,18,-1,-1,20,-1,22,24,-1,-1,-1,-1,-1,-1,-1,-1,-1,-1],"split_conditions":[4.9477566E1,4.9048946E1,4.9942245E1,4.8587837E1,4.9305817E1,4.9725815E1,5.0279316E1,4.819114E1,4.8648952E1,-4.7960057E0,-2.7715957E-2,9.632168E0,4.2146487E0,5.0145363E1,-7.491504E1,2.7649058E-4,-1.9174184E0,7.616217E0,9.351589E-1,6.348078E-1,1.5417632E0,-1.4390427E-2,-2.0353732E0,-1.3264077E0,1.4583354E-1],"split_indices":[0,0,0,0,0,0,0,0,0,0,0,1,0,0,1,0,0,0,0,0,0,0,0,0,0],"split_type":[0,0,0,0,0,0,0,0,0,0,0,0,0,0,0,0,0,0,0,0,0,0,0,0,0],"sum_hessian":[6.323E3,5.079E3,1.244E3,5.044E3,3.5E1,3.2E1,1.212E3,4.982E3,6.2E1,2.2E1,1.3E1,2.8E1,4E0,3.1E1,1.181E3,4.923E3,5.9E1,3E0,5.9E1,7E0,2.1E1,1E1,2.1E1,3.4E1,1.147E3],"tree_param":{"num_deleted":"0","num_feature":"2","num_nodes":"25","size_leaf_vector":"0"}},{"base_weights":[1.6880699E-4,4.5869075E-2,-8.2216203E-1,-1.0596797E-2,1.789159E0,-5.136541E0,-7.750683E-2,4.517747E-3,-7.3075194E0,3.7311566E0,-7.6672995E-1,-3.034436E0,-5.5336537E0,3.7337215E0,-5.914126E-1,-5.7879135E-2,6.348132E-1,5.777794E0,1.5368882E0,-1.1720793E1,1.8606094E0,4.8988385E0,-6.652641E-1,-7.6843567E0,1.9962033E-2],"categories":[],"categories_nodes":[],"categories_segments":[],"categories_sizes":[],"default_left":[true,true,true,true,true,true,true,true,false,true,true,false,false,true,true,false,false,false,false,false,false,false,false,false,false],"id":46,"left_children":[1,3,5,7,9,11,13,15,-1,17,19,-1,-1,21,23,-1,-1,-1,-1,-1,-1,-1,-1,-1,-1],"loss_changes":[2.3769829E2,5.898498E2,1.0694392E3,6.4026447E2,9.360044E2,2.4112305E1,5.6041266E2,2.279059E2,0E0,4.7164343E2,2.381771E3,0E0,0E0,1.7752036E2,1.0929379E3,0E0,0E0,0E0,0E0,0E0,0E0,0E0,0E0,0E0,0E0],"parents":[2147483647,0,0,1,1,2,2,3,3,4,4,5,5,6,6,7,7,9,9,10,10,13,13,14,14],"right_children":[2,4,6,8,10,12,14,16,-1,18,20,-1,-1,22,24,-1,-1,-1,-1,-1,-1,-1,-1,-1,-1],"split_conditions":[8.497232E1,7.516087E1,8.543733E1,7.417882E1,1.4903674E2,8.5148865E1,8.627565E1,5.130571E1,-2.192256E0,8.010851E1,1.4918762E2,-9.1033083E-1,-1.6600962E0,1.440558E2,8.669241E1,-1.7363742E-2,1.9044396E-1,1.7333382E0,4.6106648E-1,-3.516238E0,5.5818284E-1,1.4696516E0,-1.9957925E-1,-2.3053071E0,5.9886104E-3],"split_indices":[0,0,0,0,1,0,0,0,0,0,1,0,0,1,0,0,0,0,0,0,0,0,0,0,0],"split_type":[0,0,0,0,0,0,0,0,0,0,0,0,0,0,0,0,0,0,0,0,0,0,0,0,0],"sum_hessian":[6.323E3,5.991E3,3.32E2,5.804E3,1.87E2,4.8E1,2.84E2,5.793E3,1.1E1,1.06E2,8.1E1,9E0,3.9E1,3.3E1,2.51E2,5.272E3,5.21E2,5.4E1,5.2E1,1.5E1,6.6E1,2.6E1,7E0,1.9E1,2.32E2],"tree_param":{"num_deleted":"0","num_feature":"2","num_nodes":"25","size_leaf_vector":"0"}},{"base_weights":[-8.902987E-4,5.513539E-1,-5.6008935E-2,3.0095297E-1,1.2253384E1,-8.894967E0,-1.4313235E-2,4.1891146E-1,-4.0363913E0,1.3369387E1,-4.7113914E-2,1.9154108E-1,3.0900247E0,-4.6749682E0,-2.4312327E-2],"categories":[],"categories_nodes":[],"categories_segments":[],"categories_sizes":[],"default_left":[true,true,true,true,false,false,true,true,false,false,true,false,false,false,false],"id":47,"left_children":[1,3,5,7,-1,-1,9,11,-1,-1,13,-1,-1,-1,-1],"loss_changes":[1.9252676E2,1.6782465E3,2.1193838E3,2.8973663E2,0E0,0E0,2.5138733E3,3.328334E2,0E0,0E0,6.026305E2,0E0,0E0,0E0,0E0],"parents":[2147483647,0,0,1,1,2,2,3,3,6,6,7,7,10,10],"right_children":[2,4,6,8,-1,-1,10,12,-1,-1,14,-1,-1,-1,-1],"split_conditions":[-1.2652083E2,-1.2750351E2,-1.25723465E2,-1.2801343E2,3.6760151E0,-2.6684902E0,-1.2486018E2,-1.4169534E2,-1.2109175E0,4.010816E0,-1.23923965E2,5.7462323E-2,9.2700744E-1,-1.4024905E0,-7.2936984E-3],"split_indices":[0,0,0,0,0,0,0,0,0,0,0,0,0,0,0],"split_type":[0,0,0,0,0,0,0,0,0,0,0,0,0,0,0],"sum_hessian":[6.323E3,5.73E2,5.75E3,5.62E2,1.1E1,2.6E1,5.724E3,5.48E2,1.4E1,1.3E1,5.711E3,5.06E2,4.2E1,2.7E1,5.684E3],"tree_param":{"num_deleted":"0","num_feature":"2","num_nodes":"15","size_leaf_vector":"0"}},{"base_weights":[-8.851739E-5,-2.3774495E-2,1.2903825E0,-1.1288499E-2,-5.1805706E0,-9.679709E-1,4.5303326E0,-2.3387954E-2,8.310357E0,3.3001568E0,-1.941501E0,2.680098E0,5.921672E0,-5.4251766E-3,-4.122692E0,-3.40122E0,3.1484327E0,7.529975E0,4.7885385E0],"categories":[],"categories_nodes":[],"categories_segments":[],"categories_sizes":[],"default_left":[true,true,true,true,false,true,true,true,false,false,true,false,true,false,false,false,false,false,false],"id":48,"left_children":[1,3,5,7,-1,9,11,13,-1,-1,15,-1,17,-1,-1,-1,-1,-1,-1],"loss_changes":[1.9333049E2,3.998537E2,8.385177E2,6.24154E2,0E0,2.8895752E2,1.05121704E2,4.5570392E2,0E0,0E0,4.2678143E2,0E0,1.1325378E1,0E0,0E0,0E0,0E0,0E0,0E0],"parents":[2147483647,0,0,1,1,2,2,3,3,5,5,6,6,7,7,10,10,12,12],"right_children":[2,4,6,8,-1,10,12,14,-1,-1,16,-1,18,-1,-1,-1,-1,-1,-1],"split_conditions":[1.5694763E2,1.5496338E2,-5.1861984E1,1.5422635E2,-1.5541712E0,1.6999335E2,-4.522133E1,1.5303516E2,2.4931073E0,9.900471E-1,2.1185764E2,8.0402946E-1,-7.636552E0,-1.627553E-3,-1.2368077E0,-1.0203661E0,9.4452983E-1,2.2589927E0,1.4365616E0],"split_indices":[1,1,0,1,0,1,0,1,0,0,1,0,0,0,0,0,0,0,0],"split_type":[0,0,0,0,0,0,0,0,0,0,0,0,0,0,0,0,0,0,0],"sum_hessian":[6.323E3,6.21E3,1.13E2,6.196E3,1.4E1,6.7E1,4.6E1,6.188E3,8E0,1.2E1,5.5E1,2.1E1,2.5E1,6.162E3,2.6E1,4.3E1,1.2E1,8E0,1.7E1],"tree_param":{"num_deleted":"0","num_feature":"2","num_nodes":"19","size_leaf_vector":"0"}},{"base_weights":[7.515388E-4,-9.475059E-2,2.9571497E-1,5.3437825E-2,-3.7331808E0,1.6253773E0,-1.4623456E-1,-6.587184E-2,1.933894E0,-1.0524844E0,-1.19272175E1,3.9553885E0,-2.0668764E0,-2.5092793E0,2.3908795E-1,-7.1105384E-4,-5.212354E0,5.3633747E0,1.5982709E0,9.349637E-1,-5.6499805E0,-9.321605E0,-2.3138681E1,7.582639E0,2.3582957E0,-4.1872315E0,3.5136715E-1,-5.022473E0,3.6165483E0,6.64331E0,-2.0590511E-1],"categories":[],"categories_nodes":[],"categories_segments":[],"categories_sizes":[],"default_left":[true,true,true,true,true,true,true,true,true,true,true,true,true,true,true,false,false,false,false,false,false,false,false,false,false,false,false,false,false,false,false],"id":49,"left_children":[1,3,5,7,9,11,13,15,17,19,21,23,25,27,29,-1,-1,-1,-1,-1,-1,-1,-1,-1,-1,-1,-1,-1,-1,-1,-1],"loss_changes":[1.7817279E2,2.5763694E3,9.093224E2,1.0303729E3,4.0950374E3,3.3289304E3,1.0586407E3,1.448368E3,3.0680554E2,1.302777E3,1.1280962E3,1.3550723E3,7.7060156E2,2.5276128E3,2.8512024E3,0E0,0E0,0E0,0E0,0E0,0E0,0E0,0E0,0E0,0E0,0E0,0E0,0E0,0E0,0E0,0E0],"parents":[2147483647,0,0,1,1,2,2,3,3,4,4,5,5,6,6,7,7,8,8,9,9,10,10,11,11,12,12,13,13,14,14],"right_children":[2,4,6,8,10,12,14,16,18,20,22,24,26,28,30,-1,-1,-1,-1,-1,-1,-1,-1,-1,-1,-1,-1,-1,-1,-1,-1],"split_conditions":[2.1901226E1,1.3013756E1,4.4115005E1,9.023811E0,-5.1419285E1,4.3281437E1,6.1005653E1,7.9300375E0,9.953961E0,2.1420494E1,-1.438262E0,-7.005462E1,2.9040037E1,5.0263508E1,7.283638E1,-2.1331616E-4,-1.5637063E0,1.6090125E0,4.7948128E-1,2.8048912E-1,-1.6949942E0,-2.7964816E0,-6.9416046E0,2.274792E0,7.074887E-1,-1.2561696E0,1.0541015E-1,-1.5067419E0,1.0849645E0,1.9929931E0,-6.1771534E-2],"split_indices":[1,1,1,1,0,0,1,1,1,1,0,0,1,0,1,0,0,0,0,0,0,0,0,0,0,0,0,0,0,0,0],"split_type":[0,0,0,0,0,0,0,0,0,0,0,0,0,0,0,0,0,0,0,0,0,0,0,0,0,0,0,0,0,0,0],"sum_hessian":[6.323E3,4.777E3,1.546E3,4.591E3,1.86E2,3.85E2,1.161E3,4.318E3,2.73E2,1.41E2,4.5E1,2.36E2,1.49E2,1.62E2,9.99E2,4.265E3,5.3E1,2.3E1,2.5E2,9.9E1,4.2E1,3.8E1,7E0,7.1E1,1.65E2,7.9E1,7E1,1.15E2,4.7E1,6.4E1,9.35E2],"tree_param":{"num_deleted":"0","num_feature":"2","num_nodes":"31","size_leaf_vector":"0"}},{"base_weights":[-6.264548E-4,-1.9817242E-1,1.6642602E-1,-1.1584847E-1,-1.4142846E1,1.6029826E0,-1.8781102E-1,-6.652465E-2,-4.649903E0,-1.7044258E1,-9.670007E0,1.2585094E0,1.577691E1,-1.3083045E1,-2.3014552E-3,-1.5659606E-1,4.9842095E0,-8.786302E0,6.437549E0,1.5930212E0,-6.998301E0,-1.4591911E1,-9.696065E0,-1.7214135E0,1.6073069E-1],"categories":[],"categories_nodes":[],"categories_segments":[],"categories_sizes":[],"default_left":[true,true,true,true,true,true,true,true,true,false,false,true,false,true,true,false,false,false,false,false,false,false,false,false,false],"id":50,"left_children":[1,3,5,7,9,11,13,15,17,-1,-1,19,-1,21,23,-1,-1,-1,-1,-1,-1,-1,-1,-1,-1],"loss_changes":[2.087284E2,3.3252097E3,1.7442383E3,6.442121E2,5.5800293E1,3.2905068E3,6.57849E3,1.2982318E3,1.4782878E3,0E0,0E0,1.8423551E3,0E0,5.7825195E1,7.6037036E2,0E0,0E0,0E0,0E0,0E0,0E0,0E0,0E0,0E0,0E0],"parents":[2147483647,0,0,1,1,2,2,3,3,4,4,5,5,6,6,7,7,8,8,11,11,13,13,14,14],"right_children":[2,4,6,8,10,12,14,16,18,-1,-1,20,-1,22,24,-1,-1,-1,-1,-1,-1,-1,-1,-1,-1],"split_conditions":[-3.4915146E1,-3.714608E1,9.3549716E-1,-3.8691372E1,-3.5453568E1,6.36472E-1,9.860273E0,-3.9738293E1,-3.838606E1,-5.1132774E0,-2.9010022E0,-3.1499714E-1,4.733073E0,8.369972E0,-7.491504E1,-4.697882E-2,1.4952629E0,-2.6358905E0,1.9312648E0,4.7790638E-1,-2.0994904E0,-4.3775735E0,-2.9088197E0,-5.1642406E-1,4.8219208E-2],"split_indices":[0,0,0,0,0,0,0,0,0,0,0,0,0,0,1,0,0,0,0,0,0,0,0,0,0],"split_type":[0,0,0,0,0,0,0,0,0,0,0,0,0,0,0,0,0,0,0,0,0,0,0,0,0],"sum_hessian":[6.323E3,2.897E3,3.426E3,2.881E3,1.6E1,6.77E2,2.749E3,2.851E3,3E1,8E0,8E0,6.62E2,1.5E1,3.8E1,2.711E3,2.802E3,4.9E1,2.2E1,8E0,6.37E2,2.5E1,2.4E1,1.4E1,2.34E2,2.477E3],"tree_param":{"num_deleted":"0","num_feature":"2","num_nodes":"25","size_leaf_vector":"0"}},{"base_weights":[-2.3206654E-3,3.903926E-1,-7.765132E-2,2.6667944E-1,8.644901E0,-8.632155E0,1.687037E-2,-1.090046E-1,2.1502516E0,-6.7312045E0,-2.7435995E1,7.9547424E0,-4.7135677E-2,3.3842295E-2,-3.8287234E0,1.6172302E1,1.154119E0,-9.8439045E0,-4.79183E-1,1.5858154E0,1.2665362E1,-6.966867E0,-9.737062E-3],"categories":[],"categories_nodes":[],"categories_segments":[],"categories_sizes":[],"default_left":[true,true,true,true,false,true,true,true,true,true,false,true,true,false,false,false,false,false,false,false,false,false,false],"id":51,"left_children":[1,3,5,7,-1,9,11,13,15,17,-1,19,21,-1,-1,-1,-1,-1,-1,-1,-1,-1,-1],"loss_changes":[1.8711542E2,1.0372676E3,4.2913125E3,7.106929E2,0E0,1.888543E3,2.667752E3,4.4540112E2,2.3139614E3,1.0461592E3,0E0,1.2399822E3,1.3479608E3,0E0,0E0,0E0,0E0,0E0,0E0,0E0,0E0,0E0,0E0],"parents":[2147483647,0,0,1,1,2,2,3,3,5,5,6,6,7,7,8,8,9,9,11,11,12,12],"right_children":[2,4,6,8,-1,10,12,14,16,18,-1,20,22,-1,-1,-1,-1,-1,-1,-1,-1,-1,-1],"split_conditions":[-6.2837902E1,-6.3105167E1,-6.176326E1,4.070828E1,2.5934706E0,-6.1892532E1,-6.1060997E1,-6.433289E1,4.39077E1,6.4774895E-1,-8.230799E0,-1.4035327E2,-6.0051945E1,1.0152689E-2,-1.148617E0,4.851691E0,3.4623572E-1,-2.9531715E0,-1.437549E-1,4.7574463E-1,3.799609E0,-2.0900602E0,-2.9211189E-3],"split_indices":[1,1,1,0,0,1,1,1,0,0,0,0,1,0,0,0,0,0,0,0,0,0,0],"split_type":[0,0,0,0,0,0,0,0,0,0,0,0,0,0,0,0,0,0,0,0,0,0,0],"sum_hessian":[6.323E3,1.017E3,5.306E3,1.003E3,1.4E1,5.7E1,5.249E3,8.37E2,1.66E2,5.3E1,4E0,4.1E1,5.208E3,8.07E2,3E1,1E1,1.56E2,3.5E1,1.8E1,1.8E1,2.3E1,2.7E1,5.181E3],"tree_param":{"num_deleted":"0","num_feature":"2","num_nodes":"23","size_leaf_vector":"0"}},{"base_weights":[-2.0231626E-3,2.4861855E-2,-9.695576E-1,-6.898172E-3,3.0956116E0,-1.5606875E0,1.8449519E-2,1.10950265E-2,-5.470188E0,5.8528676E0,-3.5976586E0,-7.4829245E-1,-4.495161E0,-2.2146225E-1,1.3601105E0,3.7155303E-3,7.4723763E0,9.435465E0,1.3091635E0,-2.5804427E0,-1.09537735E1,-1.4506353E0,9.0127915E-1,-5.5649185E0,-2.5479844E0,-5.0486248E-2,-4.032333E-1],"categories":[],"categories_nodes":[],"categories_segments":[],"categories_sizes":[],"default_left":[true,true,true,true,true,true,true,true,false,true,true,true,true,true,false,false,false,false,false,false,false,false,false,false,false,false,false],"id":52,"left_children":[1,3,5,7,9,11,13,15,-1,17,19,21,23,25,-1,-1,-1,-1,-1,-1,-1,-1,-1,-1,-1,-1,-1],"loss_changes":[1.6452515E2,6.002032E2,9.989972E1,5.989168E2,1.1837253E3,2.5171918E2,2.1223429E1,3.3435464E2,0E0,7.201692E2,1.13906815E2,9.978543E1,3.3729828E1,1.720037E0,0E0,0E0,0E0,0E0,0E0,0E0,0E0,0E0,0E0,0E0,0E0,0E0,0E0],"parents":[2147483647,0,0,1,1,2,2,3,3,4,4,5,5,6,6,7,7,9,9,10,10,11,11,12,12,13,13],"right_children":[2,4,6,8,10,12,14,16,-1,18,20,22,24,26,-1,-1,-1,-1,-1,-1,-1,-1,-1,-1,-1,-1,-1],"split_conditions":[9.1403275E1,8.669241E1,1.07703026E2,8.627565E1,1.418636E2,9.759665E1,1.236132E2,8.617903E1,-1.6410565E0,8.92492E1,1.4298189E2,9.528497E1,1.0013823E2,1.1432474E2,4.0803316E-1,1.1146591E-3,2.241713E0,2.8306396E0,3.9274904E-1,-7.7413285E-1,-3.286132E0,-4.3519062E-1,2.7038375E-1,-1.6694757E0,-7.6439536E-1,-1.5145875E-2,-1.2096999E-1],"split_indices":[0,0,0,0,1,0,0,0,0,0,1,0,0,0,0,0,0,0,0,0,0,0,0,0,0,0,0],"split_type":[0,0,0,0,0,0,0,0,0,0,0,0,0,0,0,0,0,0,0,0,0,0,0,0,0,0,0],"sum_hessian":[6.323E3,6.153E3,1.7E2,6.091E3,6.2E1,1.06E2,6.4E1,6.072E3,1.9E1,4.4E1,1.8E1,8.4E1,2.2E1,5.5E1,9E0,6.067E3,5E0,2.4E1,2E1,1.7E1,1E0,5.9E1,2.5E1,1.3E1,9E0,2.9E1,2.6E1],"tree_param":{"num_deleted":"0","num_feature":"2","num_nodes":"27","size_leaf_vector":"0"}},{"base_weights":[-1.8206119E-3,8.5226244E-1,-2.7554087E-2,2.166303E-1,4.264055E0,-3.211579E0,-6.1487467E-3,9.97589E-1,-1.811686E0,-1.8483914E0,-3.5916915E0,-2.3204231E0,1.916165E-2,-3.2679445E-1,2.000998E0,-1.1976624E0,-1.935359E0,1.8726717E0,-3.1930904E0,1.5267047E0,-1.1420554E-2],"categories":[],"categories_nodes":[],"categories_segments":[],"categories_sizes":[],"default_left":[true,true,true,true,false,true,true,true,true,false,false,true,true,false,false,false,false,false,false,false,false],"id":53,"left_children":[1,3,5,7,-1,9,11,13,15,-1,-1,17,19,-1,-1,-1,-1,-1,-1,-1,-1],"loss_changes":[1.3901567E2,4.0027557E2,4.1845282E2,2.5050024E2,0E0,1.4605896E1,3.5735318E2,1.5214828E2,1.0233612E0,0E0,0E0,2.4748532E2,2.78255E2,0E0,0E0,0E0,0E0,0E0,0E0,0E0,0E0],"parents":[2147483647,0,0,1,1,2,2,3,3,5,5,6,6,7,7,8,8,11,11,12,12],"right_children":[2,4,6,8,-1,10,12,14,16,-1,-1,18,20,-1,-1,-1,-1,-1,-1,-1,-1],"split_conditions":[-1.6832768E2,-1.7001202E2,-1.66123E2,-1.7468765E2,1.2792165E0,-1.6746559E2,-9.582965E1,-1.7626901E2,-1.7286467E2,-5.5451745E-1,-1.0775075E0,-5.962016E0,-1.5519681E2,-9.803834E-2,6.002994E-1,-3.592987E-1,-5.806077E-1,5.6180155E-1,-9.5792717E-1,4.5801142E-1,-3.4261663E-3],"split_indices":[0,0,0,0,0,0,1,0,0,0,0,0,0,0,0,0,0,0,0,0,0],"split_type":[0,0,0,0,0,0,0,0,0,0,0,0,0,0,0,0,0,0,0,0,0],"sum_hessian":[6.323E3,1.84E2,6.139E3,1.56E2,2.8E1,4E1,6.099E3,1.13E2,4.3E1,1E1,3E1,6.5E1,6.034E3,4.9E1,6.4E1,9E0,3.4E1,1.1E1,5.4E1,1.19E2,5.915E3],"tree_param":{"num_deleted":"0","num_feature":"2","num_nodes":"21","size_leaf_vector":"0"}},{"base_weights":[-1.3836131E-3,-2.4082801E-1,8.984605E-2,-1.5182094E-1,-2.2318323E1,7.375888E0,3.6959235E-2,-1.1640652E-3,-4.5975E0,5.276597E0,9.041303E0,7.6024926E-1,-7.506003E-2,-2.1100372E-1,2.0575533E1,-3.4024117E0,-6.216221E0,3.9851415E-1,1.0410328E1,-3.4551563E0,1.4790124E-2],"categories":[],"categories_nodes":[],"categories_segments":[],"categories_sizes":[],"default_left":[true,true,true,true,false,true,true,true,true,false,false,true,true,false,false,false,false,false,false,false,false],"id":54,"left_children":[1,3,5,7,-1,9,11,13,15,-1,-1,17,19,-1,-1,-1,-1,-1,-1,-1,-1],"loss_changes":[1.3816582E2,3.4256292E3,1.7645641E3,1.1647284E3,0E0,6.766699E1,3.6854703E2,7.271211E3,8.911719E1,0E0,0E0,2.1252227E3,1.196334E3,0E0,0E0,0E0,0E0,0E0,0E0,0E0,0E0],"parents":[2147483647,0,0,1,1,2,2,3,3,5,5,6,6,7,7,8,8,11,11,12,12],"right_children":[2,4,6,8,-1,10,12,14,16,-1,-1,18,20,-1,-1,-1,-1,-1,-1,-1,-1],"split_conditions":[-7.2165794E1,-7.220677E1,-7.1848236E1,-7.383501E1,-6.695497E0,-7.205588E1,-6.425189E1,-7.4142136E1,-1.6840548E1,1.5829792E0,2.712391E0,-6.494646E1,-6.169356E1,-6.3301116E-2,6.1726604E0,-1.0207236E0,-1.8648664E0,1.1955425E-1,3.1230986E0,-1.036547E0,4.4370373E-3],"split_indices":[0,0,0,0,0,0,1,0,1,0,0,1,1,0,0,0,0,0,0,0,0],"split_type":[0,0,0,0,0,0,0,0,0,0,0,0,0,0,0,0,0,0,0,0,0],"sum_hessian":[6.323E3,1.744E3,4.579E3,1.738E3,6E0,3.2E1,4.547E3,1.682E3,5.6E1,1.6E1,1.6E1,6.09E2,3.938E3,1.666E3,1.6E1,3.4E1,2.2E1,5.88E2,2.1E1,1.01E2,3.837E3],"tree_param":{"num_deleted":"0","num_feature":"2","num_nodes":"21","size_leaf_vector":"0"}},{"base_weights":[-4.8833434E-4,2.874167E0,-8.235426E-3,-1.4747313E-1,1.3709405E-1,8.128856E-3,-2.8732374E0,2.9795415E0,-1.3308787E-1,-1.0807378E-1,6.2206745E0,-1.6780891E1,-2.5311096E0,2.011897E0,7.2632604E0,-3.2225072E0,2.9502135E-2],"categories":[],"categories_nodes":[],"categories_segments":[],"categories_sizes":[],"default_left":[true,false,true,true,true,true,true,true,true,false,false,false,false,false,false,false,false],"id":55,"left_children":[1,-1,3,5,7,9,11,13,15,-1,-1,-1,-1,-1,-1,-1,-1],"loss_changes":[1.4086053E2,0E0,1.2766475E2,1.366584E3,2.3711443E3,2.2017886E3,7.8545154E2,1.0962783E3,1.4166055E3,0E0,0E0,0E0,0E0,0E0,0E0,0E0,0E0],"parents":[2147483647,0,0,2,2,3,3,4,4,5,5,6,6,7,7,8,8],"right_children":[2,-1,4,6,8,10,12,14,16,-1,-1,-1,-1,-1,-1,-1,-1],"split_conditions":[-1.769274E2,8.6225015E-1,-1.8634274E1,-2.7209019E1,-2.362112E0,-2.9150488E1,-5.0893227E1,-4.7500005E0,1.1246927E1,-3.2422137E-2,1.8662025E0,-5.0342674E0,-7.593329E-1,6.0356915E-1,2.1789782E0,-9.6675223E-1,8.850641E-3],"split_indices":[0,0,0,0,0,0,1,0,0,0,0,0,0,0,0,0,0],"split_type":[0,0,0,0,0,0,0,0,0,0,0,0,0,0,0,0,0],"sum_hessian":[6.323E3,1.6E1,6.307E3,3.221E3,3.086E3,3.048E3,1.73E2,2.67E2,2.819E3,2.993E3,5.5E1,3E0,1.7E2,2.19E2,4.8E1,1.4E2,2.679E3],"tree_param":{"num_deleted":"0","num_feature":"2","num_nodes":"17","size_leaf_vector":"0"}},{"base_weights":[-5.417015E-4,2.2735533E-1,-1.02949016E-1,-1.0631568E-1,2.4600966E0,-1.5459558E1,-7.1196854E-2,5.89814E-2,-3.9159636E0,1.0824169E1,1.8171833E0,-1.7859236E0,4.389164E-2,-1.4582841E-1,2.2672615E0,-1.71658E1,-1.9609716E0,-7.3250914E0,2.6437964E0,-4.5660567E0,5.427602E-1,2.994483E0,-2.5632039E-2],"categories":[],"categories_nodes":[],"categories_segments":[],"categories_sizes":[],"default_left":[true,true,true,true,true,false,true,true,true,false,true,true,true,false,false,false,false,false,false,false,false,false,false],"id":56,"left_children":[1,3,5,7,9,-1,11,13,15,-1,17,19,21,-1,-1,-1,-1,-1,-1,-1,-1,-1,-1],"loss_changes":[1.4761496E2,1.4612086E3,2.1268098E3,1.0751693E3,1.3515613E3,0E0,8.597146E2,7.4070874E2,1.8054744E3,0E0,1.8179622E3,1.7763683E3,8.376469E2,0E0,0E0,0E0,0E0,0E0,0E0,0E0,0E0,0E0,0E0],"parents":[2147483647,0,0,1,1,2,2,3,3,4,4,6,6,7,7,8,8,10,10,11,11,12,12],"right_children":[2,4,6,8,10,-1,12,14,16,-1,18,20,22,-1,-1,-1,-1,-1,-1,-1,-1,-1,-1],"split_conditions":[-4.666902E1,-4.967678E1,-4.6357124E1,-5.0736717E1,-4.9512283E1,-4.6378675E0,-4.2018982E1,-5.2464653E1,-5.06885E1,3.2472508E0,-4.9186794E1,-7.4142136E1,-4.0338753E1,-4.3748524E-2,6.8017846E-1,-5.14974E0,-5.882915E-1,-2.1975274E0,7.93139E-1,-1.369817E0,1.6282806E-1,8.9834493E-1,-7.689612E-3],"split_indices":[1,1,1,1,1,0,1,1,1,0,1,0,1,0,0,0,0,0,0,0,0,0,0],"split_type":[0,0,0,0,0,0,0,0,0,0,0,0,0,0,0,0,0,0,0,0,0,0,0],"sum_hessian":[6.323E3,1.96E3,4.363E3,1.706E3,2.54E2,8E0,4.355E3,1.636E3,7E1,1.7E1,2.37E2,2.73E2,4.082E3,1.498E3,1.38E2,8E0,6.2E1,1.9E1,2.18E2,1.24E2,1.49E2,9.3E1,3.989E3],"tree_param":{"num_deleted":"0","num_feature":"2","num_nodes":"23","size_leaf_vector":"0"}},{"base_weights":[-1.6777478E-3,3.3574972E-1,-8.0116816E-2,1.04214564E-1,5.518278E0,-1.0690239E1,-4.068145E-2,2.2991407E-1,-4.9095306E0,4.1361394E0,8.559668E0,-2.0431879E0,8.667298E-3,2.202505E-2,9.687947E0,-6.906906E0,-3.9148386E0,1.9847141E-1,-8.162818E0,5.3895874E0,-1.4061581E-2],"categories":[],"categories_nodes":[],"categories_segments":[],"categories_sizes":[],"default_left":[true,true,true,true,true,false,true,true,true,false,false,true,true,false,false,false,false,false,false,false,false],"id":57,"left_children":[1,3,5,7,9,-1,11,13,15,-1,-1,17,19,-1,-1,-1,-1,-1,-1,-1,-1],"loss_changes":[1.6740733E2,1.4309503E3,2.146866E3,7.214763E2,1.7898071E2,0E0,5.0538928E2,2.1940896E3,2.8590271E1,0E0,0E0,1.6889495E3,6.1060876E2,0E0,0E0,0E0,0E0,0E0,0E0,0E0,0E0],"parents":[2147483647,0,0,1,1,2,2,3,3,4,4,6,6,7,7,8,8,11,11,12,12],"right_children":[2,4,6,8,10,-1,12,14,16,-1,-1,18,20,-1,-1,-1,-1,-1,-1,-1,-1],"split_conditions":[-5.9152798E1,-6.0051945E1,-5.8801273E1,-6.1060997E1,1.7543472E1,-3.2070718E0,-5.5801506E1,-6.1584885E1,1.1265072E1,1.2408419E0,2.5679004E0,-5.645868E1,-5.5282814E1,6.6075153E-3,2.9063842E0,-2.072072E0,-1.1744516E0,5.9541427E-2,-2.4488454E0,1.6168762E0,-4.2184745E-3],"split_indices":[1,1,1,1,0,0,1,1,0,0,0,1,1,0,0,0,0,0,0,0,0],"split_type":[0,0,0,0,0,0,0,0,0,0,0,0,0,0,0,0,0,0,0,0,0],"sum_hessian":[6.323E3,1.192E3,5.131E3,1.142E3,5E1,1.8E1,5.113E3,1.115E3,2.7E1,3.6E1,1.4E1,1.22E2,4.991E3,1.092E3,2.3E1,7E0,2E1,9E1,3.2E1,2E1,4.971E3],"tree_param":{"num_deleted":"0","num_feature":"2","num_nodes":"21","size_leaf_vector":"0"}}]},"name":"gbtree"},"learner_model_param":{"base_score":"5E-1","num_class":"0","num_feature":"2"},"objective":{"name":"reg:squarederror","reg_loss_param":{"scale_pos_weight":"1"}}},"version":[1,5,0]}