{"learner":{"attributes":{"best_iteration":"31","best_ntree_limit":"32"},"feature_names":["PC_001","PC_002"],"feature_types":["float","float"],"gradient_booster":{"model":{"gbtree_model_param":{"num_trees":"32","size_leaf_vector":"0"},"tree_info":[0,0,0,0,0,0,0,0,0,0,0,0,0,0,0,0,0,0,0,0,0,0,0,0,0,0,0,0,0,0,0,0],"trees":[{"base_weights":[2.2214015E2,2.1752574E2,2.3211528E2,2.1786597E2,2.3990062E2],"categories":[],"categories_nodes":[],"categories_segments":[],"categories_sizes":[],"default_left":[true,false,true,false,false],"id":0,"left_children":[1,-1,3,-1,-1],"loss_changes":[2.4128E5,0E0,1.68496E5,0E0,0E0],"parents":[2147483647,0,0,2,2],"right_children":[2,-1,4,-1,-1],"split_conditions":[8.295914E0,6.525773E1,-2.1758945E1,6.5359795E1,7.197019E1],"split_indices":[1,0,0,0,0],"split_type":[0,0,0,0,0],"sum_hessian":[6.338E3,4.349E3,1.989E3,7.13E2,1.276E3],"tree_param":{"num_deleted":"0","num_feature":"2","num_nodes":"5","size_leaf_vector":"0"}},{"base_weights":[1.5553006E2,1.53966E2,1.744284E2,1.5147202E2,1.5825308E2,1.7680386E2,1.4140128E2,1.5241689E2,1.402824E2,1.8178766E2,1.5530077E2,1.5531088E2,1.4928821E2,1.4386302E2,1.5785794E2,1.4725064E2,1.592861E2,1.6483536E2,1.4591974E2],"categories":[],"categories_nodes":[],"categories_segments":[],"categories_sizes":[],"default_left":[true,true,true,true,true,false,false,true,false,false,true,false,true,false,false,true,false,false,false],"id":1,"left_children":[1,3,5,7,9,-1,-1,11,-1,-1,13,-1,15,-1,-1,17,-1,-1,-1],"loss_changes":[1.60512E5,3.872E4,1.2422E4,1.8056E4,1.20044E5,0E0,0E0,7.848E3,0E0,0E0,3.2948E4,0E0,1.0628E4,0E0,0E0,8.782E3,0E0,0E0,0E0],"parents":[2147483647,0,0,1,1,2,2,3,3,4,4,7,7,10,10,12,12,15,15],"right_children":[2,4,6,8,10,-1,-1,12,-1,-1,14,-1,16,-1,-1,18,-1,-1,-1],"split_conditions":[1.4065099E2,1.7363623E1,1.7747937E2,-8.341115E-1,1.8185993E1,5.304116E1,4.2420383E1,-3.400906E1,4.208472E1,5.45363E1,3.0869347E1,4.6593266E1,-2.4727638E1,4.315891E1,4.7357384E1,-1.3301817E2,4.778583E1,4.945061E1,4.3775925E1],"split_indices":[1,0,1,0,0,0,0,1,0,0,0,0,0,0,0,0,0,0,0],"split_type":[0,0,0,0,0,0,0,0,0,0,0,0,0,0,0,0,0,0,0],"sum_hessian":[6.338E3,5.862E3,4.76E2,3.729E3,2.133E3,4.4E2,3.6E1,3.427E3,3.02E2,2.31E2,1.902E3,1.755E3,1.672E3,3.58E2,1.544E3,1.402E3,2.7E2,9E1,1.312E3],"tree_param":{"num_deleted":"0","num_feature":"2","num_nodes":"19","size_leaf_vector":"0"}},{"base_weights":[1.0894521E2,1.0753706E2,1.1973447E2,9.894628E1,1.0826249E2,1.1409965E2,1.26435715E2,1.1554439E2,9.643304E1,1.0573373E2,1.1065233E2,1.1422738E2,1.3048656E2,1.08686356E2,1.02376595E2,1.0855971E2,1.1488436E2,1.0375416E2,1.1147006E2,9.763671E1,1.0571227E2,1.1052119E2,1.042282E2,1.2439783E2,1.08903625E2,1.0699506E2,9.362596E1,1.006372E2,7.665356E1,9.614647E1,1.0731119E2,1.2041181E2,1.0853748E2,9.576507E1,1.0808013E2,1.1314795E2,1.2975438E2,1.0279745E2,1.1434249E2,1.0374676E2,1.1739214E2,1.19979614E2,8.850892E1,7.529803E1,9.971117E1,1.17211426E2,1.04931854E2,1.0185458E2,1.12876526E2,5.9851227E1,9.744646E1,1.08893906E2,7.8678825E1,1.0370086E2,8.903839E1],"categories":[],"categories_nodes":[],"categories_segments":[],"categories_sizes":[],"default_left":[true,true,true,true,true,false,true,false,false,true,true,false,false,true,true,true,true,true,false,true,true,true,true,true,true,true,true,false,false,true,true,false,true,true,true,false,false,false,false,false,false,false,false,false,false,false,false,false,false,false,true,false,false,false,false],"id":2,"left_children":[1,3,5,7,9,-1,11,-1,-1,13,15,-1,-1,17,19,21,23,25,-1,27,29,31,33,35,37,39,41,-1,-1,43,45,-1,47,49,51,-1,-1,-1,-1,-1,-1,-1,-1,-1,-1,-1,-1,-1,-1,-1,53,-1,-1,-1,-1],"loss_changes":[8.3432E4,2.4292E4,1.2874E4,7.588E3,1.954E4,0E0,9.7E2,0E0,0E0,1.399E4,1.0872E4,0E0,0E0,6.723E3,8.699E3,3.62E3,3.51E4,6.2305E3,0E0,2.4395E4,2.97E2,1.0671E4,8.3295E3,4.783E3,5.947E3,2.49E2,6.641875E3,0E0,0E0,5.92625E2,1.5045E3,0E0,1.8022E4,5.520125E3,6.675E2,0E0,0E0,0E0,0E0,0E0,0E0,0E0,0E0,0E0,0E0,0E0,0E0,0E0,0E0,0E0,1.2725E2,0E0,0E0,0E0,0E0],"parents":[2147483647,0,0,1,1,2,2,3,3,4,4,6,6,9,9,10,10,13,13,14,14,15,15,16,16,17,17,19,19,20,20,21,21,22,22,23,23,24,24,25,25,26,26,29,29,30,30,32,32,33,33,34,34,50,50],"right_children":[2,4,6,8,10,-1,12,-1,-1,14,16,-1,-1,18,20,22,24,26,-1,28,30,32,34,36,38,40,42,-1,-1,44,46,-1,48,50,52,-1,-1,-1,-1,-1,-1,-1,-1,-1,-1,-1,-1,-1,-1,-1,54,-1,-1,-1,-1],"split_conditions":[9.2834465E1,-7.9635605E1,7.5880356E1,-1.05803246E2,-3.714608E1,3.4229897E1,1.410575E2,3.466332E1,2.8929913E1,-3.4314396E1,4.7176394E0,3.4268215E1,3.914597E1,-5.237116E1,-7.6206474E1,-2.6802559E1,1.2418733E1,-5.7671444E1,3.344102E1,-7.8347626E1,-1.9467773E1,-1.2295336E0,-1.635564E1,1.040328E1,5.0279316E1,-7.016411E1,-6.3522133E1,3.019116E1,2.2996067E1,-5.2113678E1,-1.0354054E1,3.6123547E1,3.3496475E1,-2.5978127E1,3.850478E0,3.3944386E1,3.8926315E1,3.0839235E1,3.430275E1,3.112403E1,3.5217644E1,3.5993885E1,2.6552677E1,2.2589409E1,2.9913351E1,3.516343E1,3.1479557E1,3.0556376E1,3.386296E1,1.7955368E1,-2.496254E1,3.2668175E1,2.360365E1,3.1110258E1,2.671152E1],"split_indices":[1,1,0,1,0,0,1,0,0,1,1,0,0,1,0,1,1,0,0,0,1,0,1,1,0,0,1,0,0,0,1,0,0,0,1,0,0,0,0,0,0,0,0,0,0,0,0,0,0,0,1,0,0,0,0],"split_type":[0,0,0,0,0,0,0,0,0,0,0,0,0,0,0,0,0,0,0,0,0,0,0,0,0,0,0,0,0,0,0,0,0,0,0,0,0,0,0,0,0,0,0,0,0,0,0,0,0,0,0,0,0,0,0],"sum_hessian":[6.338E3,5.616E3,7.22E2,4.48E2,5.168E3,4.02E2,3.2E2,5.3E1,3.95E2,2.533E3,2.635E3,8.7E1,2.33E2,1.331E3,1.202E3,1.781E3,8.54E2,4.94E2,8.37E2,5.09E2,6.93E2,1.209E3,5.72E2,3.22E2,5.32E2,3.67E2,1.27E2,4.42E2,6.7E1,1.08E2,5.85E2,1.92E2,1.017E3,1.87E2,3.85E2,1.11E2,2.11E2,2.6E2,2.72E2,2.88E2,7.9E1,1.7E1,1.1E2,1.9E1,8.9E1,1.04E2,4.81E2,4.1E2,6.07E2,1E1,1.77E2,3.72E2,1.3E1,9.5E1,8.2E1],"tree_param":{"num_deleted":"0","num_feature":"2","num_nodes":"55","size_leaf_vector":"0"}},{"base_weights":[7.639992E1,7.533375E1,8.3483894E1,6.801013E1,7.576092E1,7.994655E1,8.87337E1,8.152299E1,6.49538E1,7.331231E1,7.695815E1,8.082077E1,6.682263E1,7.560797E1,9.038566E1,7.356514E1,4.800469E1,7.6030945E1,7.943774E1,7.533929E1,7.073473E1,8.012503E1,7.504479E1,9.0022896E1,7.46957E1,7.4262054E1,8.5849E1,6.91394E1,7.884427E1,7.591554E1,8.565979E1,6.710742E1,7.558466E1,7.1581566E1,8.013873E1,7.0526245E1,4.8896503E1,8.486285E1,7.106389E1,4.977377E1,6.972603E1,7.908823E1,7.425056E1,7.9977264E1,6.984269E1,7.512004E1,9.069512E1,5.815251E1,7.146434E1,7.217841E1,5.552093E1,6.9553856E1,7.553539E1,8.4304634E1,4.7746246E1],"categories":[],"categories_nodes":[],"categories_segments":[],"categories_sizes":[],"default_left":[true,true,true,true,true,true,true,false,false,true,true,false,false,false,false,true,false,true,true,true,true,true,true,false,true,false,false,true,false,true,false,true,true,true,true,true,false,false,false,false,true,false,true,true,false,false,false,false,false,false,false,false,false,false,false],"id":3,"left_children":[1,3,5,7,9,11,13,-1,-1,15,17,-1,-1,-1,-1,19,-1,21,23,25,27,29,31,-1,33,-1,-1,35,-1,37,-1,39,41,43,45,47,-1,-1,-1,-1,49,-1,51,53,-1,-1,-1,-1,-1,-1,-1,-1,-1,-1,-1],"loss_changes":[4.1584E4,1.2116E4,8.134E3,7.672875E3,9.622E3,3.36E2,1.2625E2,0E0,0E0,7.544E3,1.954E3,0E0,0E0,0E0,0E0,3.268E3,0E0,4.299E3,3.96565E4,5.365E3,3.2945E3,4.70375E3,3.815E3,0E0,5.1795E3,0E0,0E0,1.263775E4,0E0,6.21075E3,0E0,2.9295E3,3.167E3,5.3125E2,5.16025E3,2.04275E3,0E0,0E0,0E0,0E0,1.729375E2,0E0,3.297E3,5.0406875E3,0E0,0E0,0E0,0E0,0E0,0E0,0E0,0E0,0E0,0E0,0E0],"parents":[2147483647,0,0,1,1,2,2,3,3,4,4,5,5,6,6,9,9,10,10,15,15,17,17,18,18,19,19,20,20,21,21,22,22,24,24,27,27,29,29,31,31,32,32,33,33,34,34,35,35,40,40,42,42,43,43],"right_children":[2,4,6,8,10,12,14,-1,-1,16,18,-1,-1,-1,-1,20,-1,22,24,26,28,30,32,-1,34,-1,-1,36,-1,38,-1,40,42,44,46,48,-1,-1,-1,-1,50,-1,52,54,-1,-1,-1,-1,-1,-1,-1,-1,-1,-1,-1],"split_conditions":[8.085686E1,-8.722721E1,7.5880356E1,-1.05803246E2,-6.7379326E1,1.7747937E2,1.4082458E2,2.4456898E1,1.948614E1,7.4253296E1,8.295914E0,2.4246233E1,2.0046791E1,2.2682392E1,2.7115698E1,-3.4314396E1,1.4401407E1,-6.425189E1,1.3329237E1,-3.638431E1,2.2622978E1,3.8157005E1,-6.084334E1,2.700687E1,5.221982E1,2.2278618E1,2.5754702E1,2.1420494E1,2.3653282E1,1.1791673E1,2.5697939E1,-5.4333183E1,-4.6449703E1,-5.582837E1,5.123906E1,-3.228766E1,1.4668952E1,2.5458855E1,2.1319168E1,1.4932132E1,4.982698E1,2.3726469E1,-3.272093E1,2.6911827E1,2.0952808E1,2.2536013E1,2.7208538E1,1.7445755E1,2.1439302E1,2.1653524E1,1.665628E1,2.0866158E1,2.2660618E1,2.5291391E1,1.4323874E1],"split_indices":[1,1,0,1,0,1,1,0,0,1,1,0,0,0,0,1,0,1,1,1,1,0,1,0,1,0,0,1,0,0,0,0,1,0,0,1,0,0,0,0,0,0,1,1,0,0,0,0,0,0,0,0,0,0,0],"split_type":[0,0,0,0,0,0,0,0,0,0,0,0,0,0,0,0,0,0,0,0,0,0,0,0,0,0,0,0,0,0,0,0,0,0,0,0,0,0,0,0,0,0,0,0,0,0,0,0,0,0,0,0,0,0,0],"sum_hessian":[6.338E3,5.519E3,8.19E2,3.13E2,5.206E3,4.99E2,3.2E2,5.3E1,2.6E2,1.73E3,3.476E3,4.63E2,3.6E1,4.1E1,2.79E2,1.711E3,1.9E1,2.553E3,9.23E2,1.036E3,6.75E2,4.8E2,2.073E3,2.8E2,6.43E2,9.47E2,8.9E1,5.72E2,1.03E2,2.81E2,1.99E2,1.4E2,1.933E3,4.18E2,2.25E2,5.33E2,3.9E1,9.3E1,1.88E2,2.1E1,1.19E2,5.17E2,1.416E3,6.4E1,3.54E2,1.58E2,6.7E1,4.2E1,4.91E2,9.8E1,2.1E1,3.16E2,1.1E3,5.5E1,9E0],"tree_param":{"num_deleted":"0","num_feature":"2","num_nodes":"55","size_leaf_vector":"0"}},{"base_weights":[5.357585E1,5.2981754E1,6.0027287E1,4.8455345E1,5.336167E1,4.6514034E1,6.0952747E1,5.7519E1,4.7136982E1,5.217045E1,5.4467743E1,6.102809E1,4.313388E1,3.5608444E1,4.8056538E1,5.1917595E1,6.2734642E1,5.6381573E1,5.3336884E1,5.3070385E1,4.9339954E1,5.3991444E1,6.3497887E1,4.686022E1,5.4771038E1,5.2532364E1,5.9684414E1,4.393371E1,5.1901123E1,6.234217E1,5.291574E1,4.805355E1,2.2483381E1,6.0087208E1,5.3954826E1,5.340134E1,4.8173668E1,3.330961E1,4.50035E1,5.257589E1,3.368501E1,2.2927599E1,5.3329723E1,4.6720387E1,5.5595856E1,3.837753E1,6.12662E1,5.9586052E1,5.2891544E1,5.0386314E1,5.513342E1,5.5009922E1,4.597707E1,5.341916E1,4.317951E1,4.8584026E1,5.445927E1,5.490065E1,4.9532444E1,5.039343E1,3.902235E1,5.2765743E1,6.2183113E1,4.554435E1,5.4377808E1],"categories":[],"categories_nodes":[],"categories_segments":[],"categories_sizes":[],"default_left":[true,true,true,true,true,false,false,true,true,true,true,false,false,false,false,true,false,true,true,true,true,true,false,true,true,true,false,true,true,false,true,true,false,true,true,true,true,false,true,true,false,false,true,true,false,false,false,true,true,false,false,false,false,false,false,false,false,false,false,false,false,false,false,false,false],"id":4,"left_children":[1,3,5,7,9,-1,-1,11,13,15,17,-1,-1,-1,-1,19,-1,21,23,25,27,29,-1,31,33,35,-1,37,39,-1,41,43,-1,45,47,49,51,-1,53,55,-1,-1,57,59,-1,-1,-1,61,63,-1,-1,-1,-1,-1,-1,-1,-1,-1,-1,-1,-1,-1,-1,-1,-1],"loss_changes":[2.1114E4,7.41E3,3.755625E3,2.797375E3,4.212E3,0E0,0E0,9.346875E1,2.6140625E3,3.6905E3,2.951E3,0E0,0E0,0E0,0E0,4.947E3,0E0,1.366575E4,1.36795E4,3.078E3,8.810625E3,3.519E3,0E0,8.344625E3,2.9455E3,3.5745E3,0E0,1.5014688E3,4.841875E3,0E0,7.20675E3,4.995625E2,0E0,2.2815E3,4.309E3,4.241E3,1.675375E3,0E0,1.331375E3,1.241125E3,0E0,0E0,1.271375E3,5.61125E3,0E0,0E0,0E0,8.43125E1,9.06575E3,0E0,0E0,0E0,0E0,0E0,0E0,0E0,0E0,0E0,0E0,0E0,0E0,0E0,0E0,0E0,0E0],"parents":[2147483647,0,0,1,1,2,2,3,3,4,4,7,7,8,8,9,9,10,10,15,15,17,17,18,18,19,19,20,20,21,21,23,23,24,24,25,25,27,27,28,28,30,30,31,31,33,33,34,34,35,35,36,36,38,38,39,39,42,42,43,43,47,47,48,48],"right_children":[2,4,6,8,10,-1,-1,12,14,16,18,-1,-1,-1,-1,20,-1,22,24,26,28,30,-1,32,34,36,-1,38,40,-1,42,44,-1,46,48,50,52,-1,54,56,-1,-1,58,60,-1,-1,-1,62,64,-1,-1,-1,-1,-1,-1,-1,-1,-1,-1,-1,-1,-1,-1,-1,-1],"split_conditions":[1.3716959E2,-7.863185E1,-5.4597885E1,-1.05803246E2,-3.4915146E1,1.3954211E1,1.8285826E1,-5.962016E0,-1.0147795E2,1.01304E2,2.0230402E1,1.8308428E1,1.2940165E1,1.0682533E1,1.4416962E1,-1.1236656E1,1.8820393E1,1.8079735E1,3.0869347E1,-1.9489258E1,4.150286E0,-3.1362358E1,1.9049366E1,3.0493881E1,-6.425189E1,-3.4314396E1,1.7905325E1,-1.0774464E1,-3.905499E1,1.8702652E1,-3.0417019E1,2.9811104E1,6.7450147E0,3.9125275E1,4.2587967E1,-5.237116E1,-9.9143364E1,9.992883E0,-1.0506506E2,-7.6081535E1,1.0105503E1,6.87828E0,-1.2295336E0,2.783638E1,1.6678757E1,1.1513259E1,1.8379862E1,-3.2926376E1,4.8609337E1,1.5115895E1,1.6540026E1,1.6502977E1,1.3793121E1,1.602575E1,1.2953853E1,1.4575209E1,1.6337782E1,1.6470196E1,1.4859734E1,1.511803E1,1.1706705E1,1.5829723E1,1.8654934E1,1.3663305E1,1.6313343E1],"split_indices":[1,1,0,1,0,0,0,0,1,1,0,0,0,0,0,1,0,0,0,1,1,0,0,0,1,1,0,1,0,0,0,0,0,0,0,1,0,0,0,0,0,0,0,0,0,0,0,1,0,0,0,0,0,0,0,0,0,0,0,0,0,0,0,0,0],"split_type":[0,0,0,0,0,0,0,0,0,0,0,0,0,0,0,0,0,0,0,0,0,0,0,0,0,0,0,0,0,0,0,0,0,0,0,0,0,0,0,0,0,0,0,0,0,0,0,0,0,0,0,0,0,0,0,0,0,0,0,0,0,0,0,0,0],"sum_hessian":[6.338E3,5.812E3,5.26E2,4.6E2,5.352E3,3.7E1,4.89E2,5.3E1,4.07E2,2.6E3,2.752E3,4E1,1.3E1,3.3E1,3.74E2,2.545E3,5.5E1,1.004E3,1.748E3,1.745E3,8E2,7.58E2,2.46E2,3.23E2,1.425E3,1.622E3,1.23E2,2.63E2,5.37E2,8E1,6.78E2,3.07E2,1.6E1,1.8E2,1.245E3,1.343E3,2.79E2,2.7E1,2.36E2,5.16E2,2.1E1,1E1,6.68E2,2.67E2,4E1,1.1E1,1.69E2,1.89E2,1.056E3,5.01E2,8.42E2,6.2E1,2.17E2,3.7E1,1.99E2,1.74E2,3.42E2,4.63E2,2.05E2,1.77E2,9E1,5.8E1,1.31E2,1.83E2,8.73E2],"tree_param":{"num_deleted":"0","num_feature":"2","num_nodes":"65","size_leaf_vector":"0"}},{"base_weights":[3.758005E1,3.6965656E1,4.0988274E1,3.312498E1,3.718191E1,3.8193604E1,4.301458E1,3.6915924E1,2.9137167E1,3.591275E1,3.7708786E1,3.9316895E1,3.234311E1,3.1729572E1,3.939468E1,2.3988226E1,3.0869743E1,3.6424065E1,2.1423328E1,3.8096092E1,3.563533E1,3.557615E1,4.1776237E1,4.117518E1,2.5240108E1,3.475048E1,2.678785E1,3.609378E1,5.839986E1,2.4766375E1,8.974766E0,3.739506E1,4.5362614E1,3.4368877E1,4.171245E1,4.425033E1,2.9583847E1,4.622906E1,3.7634624E1,3.7284733E1,3.0009003E1,2.6451609E1,1.7612389E1,3.8360294E1,3.562062E1,4.031889E1,3.2614075E1,2.1246717E1,3.381964E1,2.5875353E1,4.218555E1,3.6883038E1,4.830755E1,3.2288452E1,2.0883825E1,3.7640343E1,4.3132294E1,2.9568714E1,3.7429047E1,2.1232506E1,3.3189003E1,2.3268923E1,1.447097E1,3.8355167E1,2.6661379E1,4.851834E1,3.6604042E1,3.6133724E1,4.2711033E1,1.3492921E1,3.369887E1,3.794815E1,1.4704778E1,4.575116E1,3.9094563E1,3.4185753E1,2.0818628E1,4.0831146E1,3.5327095E1,3.4815426E1,3.0163536E1],"categories":[],"categories_nodes":[],"categories_segments":[],"categories_sizes":[],"default_left":[true,true,true,true,true,true,false,true,true,true,true,true,false,true,false,false,true,true,true,true,true,true,true,false,false,false,false,true,false,true,false,true,false,true,false,false,true,false,true,true,true,false,false,true,true,false,true,true,true,false,true,true,false,true,false,true,true,true,true,false,true,false,false,false,false,false,false,false,false,false,false,false,false,false,false,false,false,false,false,false,false],"id":5,"left_children":[1,3,5,7,9,11,-1,13,15,17,19,21,-1,23,-1,-1,25,27,29,31,33,35,37,-1,-1,-1,-1,39,-1,41,-1,43,-1,45,-1,-1,47,-1,49,51,53,-1,-1,55,57,-1,59,61,63,-1,65,67,-1,69,-1,71,73,75,77,-1,79,-1,-1,-1,-1,-1,-1,-1,-1,-1,-1,-1,-1,-1,-1,-1,-1,-1,-1,-1,-1],"loss_changes":[1.1758E4,3.2375E3,3.78775E3,3.3991562E3,2.047E3,1.4359375E3,0E0,6.526719E2,5.8871094E2,1.0428875E4,1.512E3,1.650875E3,0E0,2.2094727E3,0E0,0E0,7.7990625E2,8.48925E3,2.024998E3,1.35705E4,3.014875E3,6.071828E3,1.9485625E3,0E0,0E0,0E0,0E0,9.3235E3,0E0,4.048047E1,0E0,3.325E3,0E0,3.7385E3,0E0,0E0,2.3537969E3,0E0,4.7416406E3,3.536125E3,4.3385938E3,0E0,0E0,4.4265E3,9.60775E3,0E0,1.7753438E3,1.0173926E2,7.9551953E2,0E0,9.4571875E2,3.5355E3,0E0,4.6086406E3,0E0,1.029975E4,5.8E2,8.580172E3,3.920875E3,0E0,7.16375E2,0E0,0E0,0E0,0E0,0E0,0E0,0E0,0E0,0E0,0E0,0E0,0E0,0E0,0E0,0E0,0E0,0E0,0E0,0E0,0E0],"parents":[2147483647,0,0,1,1,2,2,3,3,4,4,5,5,7,7,8,8,9,9,10,10,11,11,13,13,16,16,17,17,18,18,19,19,20,20,21,21,22,22,27,27,29,29,31,31,33,33,36,36,38,38,39,39,40,40,43,43,44,44,46,46,47,47,48,48,50,50,51,51,53,53,55,55,56,56,57,57,58,58,60,60],"right_children":[2,4,6,8,10,12,-1,14,16,18,20,22,-1,24,-1,-1,26,28,30,32,34,36,38,-1,-1,-1,-1,40,-1,42,-1,44,-1,46,-1,-1,48,-1,50,52,54,-1,-1,56,58,-1,60,62,64,-1,66,68,-1,70,-1,72,74,76,78,-1,80,-1,-1,-1,-1,-1,-1,-1,-1,-1,-1,-1,-1,-1,-1,-1,-1,-1,-1,-1,-1],"split_conditions":[6.1005653E1,-8.837352E1,4.9477566E1,-9.685563E1,-7.2165794E1,4.8197655E1,1.2904374E1,-1.7626901E2,-9.6717674E1,-7.383501E1,1.3329237E1,-5.649199E1,9.702933E0,-1.769274E2,1.1818404E1,7.196468E0,-9.4768555E1,-7.4142136E1,-7.222658E1,9.953961E0,7.010977E1,-1.187427E2,-2.7714237E1,1.2352554E1,7.572033E0,1.0425144E1,8.036355E0,-8.070458E1,1.7519958E1,-1.6840548E1,2.6924298E0,-2.7271564E1,1.3608785E1,-5.582837E1,1.2513735E1,1.32751E1,-7.07888E1,1.3868719E1,-1.980138E1,-8.132559E1,2.1420494E1,7.935483E0,5.2837167E0,-3.272093E1,-1.9542038E1,1.2095668E1,-5.5368538E1,-7.964224E1,1.731463E2,7.762606E0,1.1270498E1,-3.0821643E0,1.4492265E1,-7.9553665E1,6.2651477E0,-3.342195E1,-2.9115334E1,-2.496254E1,-7.6115484E0,6.369752E0,3.0192421E1,6.980677E0,4.3412914E0,1.1506551E1,7.998414E0,1.4555503E1,1.0981213E1,1.0840117E1,1.2813311E1,4.0478764E0,1.0109662E1,1.1384445E1,4.4114337E0,1.3725348E1,1.1728369E1,1.0255726E1,6.245589E0,1.2249345E1,1.0598129E1,1.0444628E1,9.049061E0],"split_indices":[1,1,0,1,0,0,0,0,1,0,1,0,0,0,0,0,1,0,0,1,0,0,0,0,0,0,0,0,0,1,0,1,0,0,0,0,0,0,0,0,1,0,0,1,1,0,0,0,1,0,0,1,0,0,0,1,1,1,1,0,0,0,0,0,0,0,0,0,0,0,0,0,0,0,0,0,0,0,0,0,0],"split_type":[0,0,0,0,0,0,0,0,0,0,0,0,0,0,0,0,0,0,0,0,0,0,0,0,0,0,0,0,0,0,0,0,0,0,0,0,0,0,0,0,0,0,0,0,0,0,0,0,0,0,0,0,0,0,0,0,0,0,0,0,0,0,0,0,0,0,0,0,0,0,0,0,0,0,0,0,0,0,0,0,0],"sum_hessian":[6.338E3,5.38E3,9.58E2,2.95E2,5.085E3,4.11E2,5.47E2,1.47E2,1.48E2,1.512E3,3.573E3,3.4E2,7.1E1,5.2E1,9.5E1,4.1E1,1.07E2,1.459E3,5.3E1,2.996E3,5.77E2,1.41E2,1.99E2,1.9E1,3.3E1,5.1E1,5.6E1,1.44E3,1.9E1,4.1E1,1.2E1,2.738E3,2.58E2,4.83E2,9.4E1,5.5E1,8.6E1,9.1E1,1.08E2,1.2E3,2.4E2,3.1E1,1E1,1.76E3,9.78E2,1.05E2,3.78E2,3.1E1,5.5E1,3.2E1,7.6E1,1.162E3,3.8E1,1.9E2,5E1,1.537E3,2.23E2,2.29E2,7.49E2,2E1,3.58E2,2.2E1,9E0,3.1E1,2.4E1,3.2E1,4.4E1,1.036E3,1.26E2,1.4E1,1.76E2,1.516E3,2.1E1,1.29E2,9.4E1,1.48E2,8.1E1,2.79E2,4.7E2,2.26E2,1.32E2],"tree_param":{"num_deleted":"0","num_feature":"2","num_nodes":"81","size_leaf_vector":"0"}},{"base_weights":[2.6370394E1,2.6073975E1,3.0475222E1,2.5602684E1,2.7243992E1,2.6609022E1,3.345116E1,2.5980118E1,2.2279016E1,3.0307194E1,2.6218351E1,2.7808115E1,8.328302E0,3.222709E1,4.2395317E1,2.5883965E1,3.6829285E1,9.073397E0,2.450858E1,2.6826202E1,3.1516851E1,4.314632E0,2.6441628E1,2.4533052E1,2.9839571E1,2.595451E1,1.3797524E1,1.3370841E1,6.608235E-2,2.129533E1,2.7396738E1,3.1234676E1,1.8525137E1,3.1990854E1,2.3628292E1,3.165494E1,2.5958338E1,3.1383509E1,1.9829882E1,3.3312935E1,2.2649616E1,2.3792755E1,2.6249977E1,1.4989131E1,7.8063064E0,2.399371E1,1.5945289E1,3.0632324E1,2.1854511E1,2.4966013E1,3.5782173E1,4.044146E1,3.1434189E1,2.0804615E1,2.6486362E1,3.6230404E1,2.4767506E1,1.8982903E1,2.7958712E1,2.6021008E1,2.1954422E1,2.3992702E1,2.6577927E1,2.687267E1,1.9483294E1,1.4648071E1,2.0863873E1,2.2900833E1,3.2229473E1,2.6912073E1,1.7464882E1,2.5456444E1,1.4741519E1,3.8823174E1,2.629315E1,3.4188564E1,2.446326E1,1.8691477E1,2.6414946E1,2.5047846E1,1.2853128E1,3.4840275E1,2.600978E1,1.5375607E1,3.120967E1,1.0722913E1,1.6312792E1,3.7567585E1,2.9152971E1,1.8877348E1,1.3190679E1,2.991723E1,1.659175E1,1.741805E1,2.6843035E1],"categories":[],"categories_nodes":[],"categories_segments":[],"categories_sizes":[],"default_left":[true,true,true,true,true,true,true,true,true,true,true,true,false,false,false,true,false,true,true,true,true,false,true,true,true,true,false,true,false,true,true,true,false,true,false,false,true,true,false,false,true,true,true,false,false,true,true,true,true,false,false,false,false,true,true,false,false,false,false,true,true,true,true,false,true,true,false,false,true,false,true,true,false,false,true,false,false,false,false,false,false,false,false,false,false,false,false,false,false,false,false,false,false,false,false],"id":6,"left_children":[1,3,5,7,9,11,13,15,17,19,21,23,-1,-1,-1,25,-1,27,29,31,33,-1,35,37,39,41,-1,43,-1,45,47,49,-1,51,-1,-1,53,55,-1,-1,57,59,61,-1,-1,63,65,67,69,-1,-1,-1,-1,71,73,-1,-1,-1,-1,75,77,79,81,-1,83,85,-1,-1,87,-1,89,91,-1,-1,93,-1,-1,-1,-1,-1,-1,-1,-1,-1,-1,-1,-1,-1,-1,-1,-1,-1,-1,-1,-1],"loss_changes":[6.9185E3,2.56625E3,3.95375E3,4.73525E3,4.496125E3,3.8894062E3,1.195625E3,3.00875E3,1.2703E4,9.0621875E2,6.092E3,4.3890625E2,0E0,0E0,0E0,2.8545E3,0E0,2.515164E3,2.8967188E3,3.5932031E3,3.7709375E2,0E0,2.342875E3,1.7296445E3,1.8426953E3,1.7675E3,0E0,2.7921143E2,0E0,2.2448438E3,2.8094219E3,1.1876484E3,0E0,6.003125E1,0E0,0E0,2.5920625E3,5.410156E-1,0E0,0E0,1.8953906E2,1.3171094E3,1.794E3,0E0,0E0,1.0216875E3,1.02734375E2,7.4371875E2,1.1950469E3,0E0,0E0,0E0,0E0,2.7836328E3,1.46775E3,0E0,0E0,0E0,0E0,1.7463906E3,3.2758672E3,4.6969375E3,1.25145E4,0E0,1.9285469E3,1.7793164E2,0E0,0E0,4.9779688E2,0E0,1.059375E1,1.9553203E3,0E0,0E0,4.5640625E3,0E0,0E0,0E0,0E0,0E0,0E0,0E0,0E0,0E0,0E0,0E0,0E0,0E0,0E0,0E0,0E0,0E0,0E0,0E0,0E0],"parents":[2147483647,0,0,1,1,2,2,3,3,4,4,5,5,6,6,7,7,8,8,9,9,10,10,11,11,15,15,17,17,18,18,19,19,20,20,22,22,23,23,24,24,25,25,27,27,29,29,30,30,31,31,33,33,36,36,37,37,40,40,41,41,42,42,45,45,46,46,47,47,48,48,53,53,54,54,59,59,60,60,61,61,62,62,64,64,65,65,68,68,70,70,71,71,74,74],"right_children":[2,4,6,8,10,12,14,16,18,20,22,24,-1,-1,-1,26,-1,28,30,32,34,-1,36,38,40,42,-1,44,-1,46,48,50,-1,52,-1,-1,54,56,-1,-1,58,60,62,-1,-1,64,66,68,70,-1,-1,-1,-1,72,74,-1,-1,-1,-1,76,78,80,82,-1,84,86,-1,-1,88,-1,90,92,-1,-1,94,-1,-1,-1,-1,-1,-1,-1,-1,-1,-1,-1,-1,-1,-1,-1,-1,-1,-1,-1,-1],"split_conditions":[1.410575E2,5.1054864E0,7.5880356E1,-7.6115484E0,1.3013756E1,7.417882E1,1.5055516E2,-9.268E0,-6.505499E0,-2.5538094E1,1.42625675E1,1.5694763E2,2.4984908E0,9.668127E0,1.27185955E1,-1.0052292E1,1.1048786E1,-5.3071793E1,-3.0494019E1,-4.2400795E1,7.904187E1,1.2943896E0,-9.7019485E1,1.5303516E2,1.7747937E2,-7.863185E1,4.1392574E0,-9.2624115E1,1.9824706E-2,-6.4123604E1,2.9806132E0,-6.758281E1,5.5575414E0,5.671179E0,7.088488E0,9.496482E0,-7.6081535E1,3.6294865E1,5.9489646E0,9.993881E0,-5.4597885E1,-1.6746559E2,-1.1240991E2,4.4967394E0,2.341892E0,9.5693785E-1,4.150286E0,-2.9899127E0,-1.8537674E1,7.4898043E0,1.07346525E1,1.2132439E1,9.430257E0,-8.082959E1,1.4814443E1,1.0869122E1,7.430252E0,5.694871E0,8.387614E0,-1.05803246E2,1.4385051E1,-1.15344955E2,-9.6462265E1,8.061801E0,-6.6534775E1,-4.3576088E1,6.259162E0,6.87025E0,1.1963203E1,8.073623E0,1.7565462E1,5.916623E1,4.422456E0,1.1646953E1,2.055355E1,1.025657E1,7.3389783E0,5.6074433E0,7.924484E0,7.514354E0,3.8559387E0,1.0452083E1,7.8029346E0,4.6126823E0,9.362901E0,3.216874E0,4.893838E0,1.1270276E1,8.745892E0,5.6632047E0,3.9572036E0,8.975169E0,4.9775248E0,5.225415E0,8.052911E0],"split_indices":[1,1,0,1,1,0,1,1,1,0,1,1,0,0,0,1,0,0,0,0,0,0,0,1,1,1,0,0,0,0,1,0,0,1,0,0,0,0,0,0,0,0,0,0,0,1,1,1,0,0,0,0,0,0,1,0,0,0,0,1,0,0,0,0,0,0,0,0,0,0,0,1,0,0,1,0,0,0,0,0,0,0,0,0,0,0,0,0,0,0,0,0,0,0,0],"split_type":[0,0,0,0,0,0,0,0,0,0,0,0,0,0,0,0,0,0,0,0,0,0,0,0,0,0,0,0,0,0,0,0,0,0,0,0,0,0,0,0,0,0,0,0,0,0,0,0,0,0,0,0,0,0,0,0,0,0,0,0,0,0,0,0,0,0,0,0,0,0,0,0,0,0,0,0,0,0,0,0,0,0,0,0,0,0,0,0,0,0,0,0,0,0,0],"sum_hessian":[6.338E3,5.918E3,4.2E2,4.235E3,1.683E3,1.87E2,2.33E2,3.797E3,4.38E2,4.15E2,1.268E3,1.75E2,1.2E1,2.09E2,2.4E1,3.767E3,3E1,6.4E1,3.74E2,1.13E2,3.02E2,1.3E1,1.255E3,7.2E1,1.03E2,3.744E3,2.3E1,4.3E1,2.1E1,1.81E2,1.93E2,7.2E1,4.1E1,2.82E2,2E1,1.01E2,1.154E3,2.7E1,4.5E1,6.7E1,3.6E1,4.6E2,3.284E3,3.2E1,1.1E1,1.18E2,6.3E1,1.19E2,7.4E1,3.3E1,3.9E1,1.3E1,2.69E2,1.11E2,1.043E3,1.3E1,1.4E1,2.4E1,1.2E1,2.02E2,2.58E2,4.26E2,2.858E3,6.9E1,4.9E1,5.3E1,1E1,2.3E1,9.6E1,3.2E1,4.2E1,6.1E1,5E1,1.3E1,1.03E3,2.9E1,1.73E2,1.52E2,1.06E2,3.88E2,3.8E1,1.8E2,2.678E3,3.8E1,1.1E1,1.8E1,3.5E1,3.1E1,6.5E1,2.9E1,1.3E1,3.9E1,2.2E1,6.2E1,9.68E2],"tree_param":{"num_deleted":"0","num_feature":"2","num_nodes":"95","size_leaf_vector":"0"}},{"base_weights":[1.8513466E1,1.829745E1,2.1506552E1,1.7960545E1,1.9134048E1,1.8896652E1,2.3511488E1,1.8422985E1,1.6670046E1,2.1470861E1,1.8431948E1,1.9740253E1,6.022004E0,2.2734774E1,3.2673306E1,1.8044683E1,2.2414843E1,3.63993E0,1.6937965E1,1.9406378E1,2.2819168E1,2.2251568E1,1.8092203E1,2.1576384E1,1.7613907E1,2.994409E1,2.2096361E1,1.8228924E1,1.2792492E0,2.3753754E1,1.976886E1,-9.354801E0,1.3590081E1,1.3911103E1,1.7543352E1,2.40029E1,1.6424582E1,2.9450197E1,2.2242355E1,1.7101645E1,2.0055199E1,2.4836428E1,1.6235338E1,1.2579291E1,2.0314425E1,9.421279E0,2.2766487E1,1.8393873E1,1.220716E1,-2.3697593E0,3.0456057E0,2.2413876E1,3.8314274E1,1.720926E1,2.2121273E1,1.2085133E1,2.5961102E1,4.5214787E1,1.700178E1,1.9923603E1,2.6347435E1,1.3099917E1,1.8548916E1,1.4400953E1,1.753543E1,2.347877E1,1.8221596E1,1.3515827E1,2.0216295E1,2.6137644E1,1.7889673E1,2.7986706E1,2.1482275E1,1.8540361E1,1.4345583E1,1.4436711E1,7.710222E0,2.438962E1,1.9875847E1,1.60316E1,7.536091E0,9.377313E0,1.7702879E1,1.7227116E1,1.0405779E1,3.0520407E1,1.724057E1,2.0667799E1,2.7568052E1,1.4214018E1,1.885589E1,4.1270905E1,1.8261002E1,2.2629238E1,1.4700642E1,1.828374E1,2.386581E1,9.6801195E0,1.7294558E1,1.7985947E1,2.3366669E1,1.142827E1,2.0583265E1,4.7740865E0,1.2982711E1,1.06770735E1,3.673419E0,2.215956E1,1.6267273E1,1.4401435E1,2.5333885E1,3.3161805E0,1.7423485E1,2.807815E1,1.5567618E1,3.3505466E1,2.4729801E1,2.165419E1,1.7022236E1,2.6478222E1,2.1374567E1,1.0582275E1,2.02318E1],"categories":[],"categories_nodes":[],"categories_segments":[],"categories_sizes":[],"default_left":[true,true,true,true,true,true,true,true,true,true,true,true,false,true,false,true,true,true,true,true,true,false,true,true,true,false,true,true,true,true,true,false,false,true,true,true,true,false,false,true,true,false,true,false,true,false,true,true,true,false,false,true,false,false,false,true,false,false,true,false,false,false,false,true,true,true,true,false,false,false,false,true,true,true,true,false,false,false,true,true,true,true,true,true,false,false,true,true,true,false,true,false,false,true,true,false,false,false,false,false,false,false,false,false,false,false,false,false,false,false,false,false,false,false,false,false,false,false,false,false,false,false,false],"id":7,"left_children":[1,3,5,7,9,11,13,15,17,19,21,23,-1,25,-1,27,29,31,33,35,37,-1,39,41,43,-1,45,47,49,51,53,-1,-1,55,57,59,61,-1,-1,63,65,-1,67,-1,69,-1,71,73,75,-1,-1,77,-1,-1,-1,79,-1,-1,81,-1,-1,-1,-1,83,85,87,89,-1,-1,-1,-1,91,93,95,97,-1,-1,-1,99,101,103,105,107,109,-1,-1,111,113,115,-1,117,-1,-1,119,121,-1,-1,-1,-1,-1,-1,-1,-1,-1,-1,-1,-1,-1,-1,-1,-1,-1,-1,-1,-1,-1,-1,-1,-1,-1,-1,-1,-1],"loss_changes":[3.705E3,1.324625E3,1.7586719E3,2.220875E3,2.367125E3,1.923E3,9.2235156E2,4.2905E3,3.87625E3,6.232656E2,1.2870312E3,3.0710938E2,0E0,3.4629688E2,0E0,8.7645E3,4.6923438E2,3.2303215E3,1.7807812E3,1.771293E3,2.09375E2,0E0,1.9923125E3,1.1638516E3,9.273164E2,0E0,1.5267578E3,2.5705625E3,2.1347177E2,2.4773281E3,1.9132812E2,0E0,0E0,3.8448164E3,1.2973531E4,4.890625E1,4.562168E2,0E0,0E0,6.905469E2,2.0643281E3,0E0,1.2733203E2,0E0,3.0899805E2,0E0,6.9933594E2,1.357125E3,6.707295E2,0E0,0E0,3.1253906E2,0E0,0E0,0E0,2.8593242E3,0E0,0E0,4.6503125E3,0E0,0E0,0E0,0E0,1.1417871E3,2.1118281E3,9.8203125E2,4.0052344E2,0E0,0E0,0E0,0E0,3.768289E3,9.118594E2,3.1688125E3,1.208418E3,0E0,0E0,0E0,7.452539E1,1.6086152E3,1.1264624E3,5.3904736E2,4.9115156E3,1.1699336E3,0E0,0E0,1.6639688E3,2.7375977E3,4.7714844E1,0E0,7.807656E2,0E0,0E0,8.5984375E1,3.7816455E2,0E0,0E0,0E0,0E0,0E0,0E0,0E0,0E0,0E0,0E0,0E0,0E0,0E0,0E0,0E0,0E0,0E0,0E0,0E0,0E0,0E0,0E0,0E0,0E0,0E0,0E0,0E0,0E0],"parents":[2147483647,0,0,1,1,2,2,3,3,4,4,5,5,6,6,7,7,8,8,9,9,10,10,11,11,13,13,15,15,16,16,17,17,18,18,19,19,20,20,22,22,23,23,24,24,26,26,27,27,28,28,29,29,30,30,33,33,34,34,35,35,36,36,39,39,40,40,42,42,44,44,46,46,47,47,48,48,51,51,55,55,58,58,63,63,64,64,65,65,66,66,71,71,72,72,73,73,74,74,78,78,79,79,80,80,81,81,82,82,83,83,86,86,87,87,88,88,90,90,93,93,94,94],"right_children":[2,4,6,8,10,12,14,16,18,20,22,24,-1,26,-1,28,30,32,34,36,38,-1,40,42,44,-1,46,48,50,52,54,-1,-1,56,58,60,62,-1,-1,64,66,-1,68,-1,70,-1,72,74,76,-1,-1,78,-1,-1,-1,80,-1,-1,82,-1,-1,-1,-1,84,86,88,90,-1,-1,-1,-1,92,94,96,98,-1,-1,-1,100,102,104,106,108,110,-1,-1,112,114,116,-1,118,-1,-1,120,122,-1,-1,-1,-1,-1,-1,-1,-1,-1,-1,-1,-1,-1,-1,-1,-1,-1,-1,-1,-1,-1,-1,-1,-1,-1,-1,-1,-1],"split_conditions":[1.410575E2,5.1054864E0,7.5880356E1,-2.7271564E1,1.135637E1,7.417882E1,1.5122462E2,-3.272093E1,-2.693957E1,9.953961E0,-9.7019485E1,-3.0345387E1,1.8066013E0,1.4133356E2,9.801992E0,-3.342195E1,-2.9115334E1,2.0830574E0,-2.485902E1,7.503438E0,-1.8390429E1,6.675471E0,5.043165E1,1.7747937E2,-1.1438337E1,8.983228E0,1.4149077E2,6.1166718E1,-3.8048103E1,-2.9210882E1,3.5755074E1,-2.8064404E0,4.0770245E0,6.762559E1,-2.4568958E1,-3.9887455E1,-2.5538094E1,8.835059E0,6.672707E0,-7.6081535E1,6.0711063E1,7.4509287E0,-5.4597885E1,3.7737875E0,1.1270498E1,2.8263838E0,1.418636E2,-3.402343E1,-4.5361664E1,-7.1092784E-1,9.1368175E-1,-3.1474237E1,1.1494283E1,5.1627784E0,6.636382E0,-2.5732853E1,7.7883306E0,1.3564437E1,-2.0599113E1,5.9770813E0,7.9042306E0,3.9299753E0,5.564675E0,-8.082959E1,-7.437979E1,5.13207E1,7.010977E1,4.0547485E0,6.064889E0,7.8412933E0,5.3669024E0,8.70695E1,8.627565E1,-3.638431E1,-3.3528732E1,4.3310137E0,2.3130667E0,7.3168864E0,5.445709E1,2.9516293E1,5.4670273E1,-2.219873E1,-1.2092754E1,-8.455823E1,3.121734E0,9.156122E0,-7.275435E1,5.103382E1,5.2359467E1,4.2642055E0,5.4174995E1,1.2381272E1,5.4783006E0,7.9129196E1,8.710291E1,5.4851217E0,7.1597433E0,2.904036E0,5.1883674E0,5.3957844E0,7.0100007E0,3.4284813E0,6.1749797E0,1.432226E0,3.8948133E0,3.2031221E0,1.1020257E0,6.647868E0,4.8801823E0,4.3204308E0,7.600166E0,9.9485415E-1,5.2270455E0,8.423446E0,4.6702857E0,1.00516405E1,7.4189405E0,6.4962573E0,5.106671E0,7.9434667E0,6.41237E0,3.1746829E0,6.0695405E0],"split_indices":[1,1,0,1,1,0,1,1,1,1,0,0,0,1,0,1,1,0,1,1,0,0,0,1,0,0,1,0,0,1,0,0,0,0,1,0,0,0,0,0,0,0,0,0,0,0,1,1,1,0,0,1,0,0,0,1,0,0,1,0,0,0,0,0,0,0,0,0,0,0,0,0,0,1,1,0,0,0,0,0,0,1,1,0,0,0,0,0,0,0,1,0,0,0,0,0,0,0,0,0,0,0,0,0,0,0,0,0,0,0,0,0,0,0,0,0,0,0,0,0,0,0,0],"split_type":[0,0,0,0,0,0,0,0,0,0,0,0,0,0,0,0,0,0,0,0,0,0,0,0,0,0,0,0,0,0,0,0,0,0,0,0,0,0,0,0,0,0,0,0,0,0,0,0,0,0,0,0,0,0,0,0,0,0,0,0,0,0,0,0,0,0,0,0,0,0,0,0,0,0,0,0,0,0,0,0,0,0,0,0,0,0,0,0,0,0,0,0,0,0,0,0,0,0,0,0,0,0,0,0,0,0,0,0,0,0,0,0,0,0,0,0,0,0,0,0,0,0,0],"sum_hessian":[6.338E3,5.918E3,4.2E2,4.235E3,1.683E3,1.87E2,2.33E2,3.108E3,1.127E3,3.82E2,1.301E3,1.75E2,1.2E1,2.18E2,1.5E1,2.844E3,2.64E2,2.3E1,1.104E3,1.57E2,2.25E2,1.01E2,1.2E3,8.9E1,8.6E1,1.4E1,2.04E2,2.813E3,3.1E1,1.7E2,9.4E1,1E1,1.3E1,1.88E2,9.16E2,5.9E1,9.8E1,1.4E1,2.11E2,8.04E2,3.96E2,5.3E1,3.6E1,3.2E1,5.4E1,1.1E1,1.93E2,2.736E3,7.7E1,1E1,2.1E1,1.58E2,1.2E1,4.9E1,4.5E1,1.65E2,2.3E1,1.6E1,9E2,2.5E1,3.4E1,4.1E1,5.7E1,1.16E2,6.88E2,1.34E2,2.62E2,2.4E1,1.2E1,1.3E1,4.1E1,3.4E1,1.59E2,2.637E3,9.9E1,5E1,2.7E1,8.4E1,7.4E1,8.7E1,7.8E1,7.7E1,8.23E2,6.6E1,5E1,1.3E1,6.75E2,8.3E1,5.1E1,3.9E1,2.23E2,1.3E1,2.1E1,1.34E2,2.5E1,2.52E3,1.17E2,4E1,5.9E1,5.2E1,2.2E1,4.5E1,4.2E1,5.3E1,2.5E1,6.2E1,1.5E1,1.97E2,6.26E2,5.1E1,1.5E1,9E0,6.66E2,3.2E1,5.1E1,1.3E1,3.8E1,8.4E1,1.39E2,2.8E1,1.06E2,1.6E1,9E0],"tree_param":{"num_deleted":"0","num_feature":"2","num_nodes":"123","size_leaf_vector":"0"}},{"base_weights":[1.301398E1,1.274605E1,1.4469631E1,1.279173E1,3.5872982E0,1.211334E1,1.4919141E1,1.0816856E1,1.2905176E1,1.5329122E1,1.0317105E1,1.8675482E1,1.45366E1,1.585853E1,9.651971E0,1.3690882E1,1.2524906E1,6.289476E0,1.1877198E1,1.4908925E1,2.4400892E1,1.23228035E1,1.527095E1,1.8971588E1,1.148852E1,1.7257362E1,8.929829E0,1.3039677E1,2.3649548E1,1.9365307E1,1.23630705E1,7.69805E0,2.4208083E0,1.3173788E1,9.888063E0,1.770536E1,1.0736723E1,3.342009E1,1.7129595E1,1.3806144E1,9.6794195E0,1.9562786E1,1.4817572E1,5.4438615E0,9.503614E0,1.108012E1,1.4489494E1,3.0041399E1,2.1755964E1,1.4000629E1,3.1351913E1,5.747653E0,1.2578658E1,5.6392355E0,1.2249756E1,1.6777225E1,1.055544E1,8.332022E0,1.1742813E1,1.7290108E1,2.4171804E1,1.1309661E1,1.5344367E1,1.2833176E1,8.478952E0,1.260848E1,1.4354999E0,2.1682367E1,1.3062506E1,1.8463928E1,2.3906128E1,-4.438422E0,1.11951275E1,2.1849812E1,1.2475997E1,1.9387108E1,1.3228836E1,8.91986E0,1.2106108E1,7.55805E0,1.2659143E1,2.0441591E1,1.4649751E1,9.045014E0,4.3756013E0,1.1087329E1,2.2592806E1,-5.148539E0,9.239463E0,1.9051916E1,3.0656208E1,1.1092892E1,1.5412841E1,8.867605E0,-1.1712261E1,8.962338E0,1.8784533E1,1.0543678E1,1.2791616E1,1.8360386E1,2.5502043E1,1.18118515E1,1.6012356E1],"categories":[],"categories_nodes":[],"categories_segments":[],"categories_sizes":[],"default_left":[true,true,true,true,false,true,true,true,true,false,true,true,true,true,true,true,true,true,true,true,true,true,true,false,false,false,true,true,true,true,true,false,false,false,true,false,false,false,false,true,true,true,true,false,true,true,true,false,true,false,false,true,true,false,false,true,true,false,false,false,false,true,true,false,true,true,true,true,true,false,false,true,true,false,true,false,false,false,false,false,false,true,true,false,false,false,false,false,false,false,false,false,false,false,false,false,false,false,false,false,false,false,false],"id":8,"left_children":[1,3,5,7,-1,9,11,13,15,-1,17,19,21,23,25,27,29,31,33,35,37,39,41,-1,-1,-1,43,45,47,49,51,-1,-1,-1,53,-1,-1,-1,-1,55,57,59,61,-1,63,65,67,-1,69,-1,-1,71,73,-1,-1,75,77,-1,-1,-1,-1,79,81,-1,83,85,87,89,91,-1,-1,93,95,-1,97,-1,-1,-1,-1,-1,-1,99,101,-1,-1,-1,-1,-1,-1,-1,-1,-1,-1,-1,-1,-1,-1,-1,-1,-1,-1,-1,-1],"loss_changes":[2.287875E3,2.197375E3,8.5515625E2,1.0556875E3,0E0,7.776094E2,9.025156E2,1.5853359E3,1.334375E3,0E0,5.976299E2,1.1888945E3,1.0245938E3,5.1666504E2,1.1804922E3,1.02818125E4,3.5333125E3,1.5574231E2,6.574805E1,3.4659766E2,1.1982227E3,6.152832E2,7.92E2,0E0,0E0,0E0,3.963086E2,4.2003906E3,5.4466406E2,4.5124844E3,4.6798438E3,0E0,0E0,0E0,2.720913E2,0E0,0E0,0E0,0E0,9.818828E2,1.02333496E2,1.0580859E2,7.63375E2,0E0,5.428164E2,9.666383E3,8.738953E3,0E0,1.24875E2,0E0,0E0,5.9869463E3,2.797875E3,0E0,0E0,3.084453E2,4.418994E1,0E0,0E0,0E0,0E0,2.587129E2,1.2513203E3,0E0,3.065127E2,8.360914E3,4.7232954E3,2.8151016E3,3.2361562E3,0E0,0E0,3.7817236E3,1.01783496E3,0E0,1.8124688E3,0E0,0E0,0E0,0E0,0E0,0E0,5.8365234E1,1.3151094E3,0E0,0E0,0E0,0E0,0E0,0E0,0E0,0E0,0E0,0E0,0E0,0E0,0E0,0E0,0E0,0E0,0E0,0E0,0E0,0E0],"parents":[2147483647,0,0,1,1,2,2,3,3,5,5,6,6,7,7,8,8,10,10,11,11,12,12,13,13,14,14,15,15,16,16,17,17,18,18,19,19,20,20,21,21,22,22,26,26,27,27,28,28,29,29,30,30,34,34,39,39,40,40,41,41,42,42,44,44,45,45,46,46,48,48,51,51,52,52,55,55,56,56,61,61,62,62,64,64,65,65,66,66,67,67,68,68,71,71,72,72,74,74,81,81,82,82],"right_children":[2,4,6,8,-1,10,12,14,16,-1,18,20,22,24,26,28,30,32,34,36,38,40,42,-1,-1,-1,44,46,48,50,52,-1,-1,-1,54,-1,-1,-1,-1,56,58,60,62,-1,64,66,68,-1,70,-1,-1,72,74,-1,-1,76,78,-1,-1,-1,-1,80,82,-1,84,86,88,90,92,-1,-1,94,96,-1,98,-1,-1,-1,-1,-1,-1,100,102,-1,-1,-1,-1,-1,-1,-1,-1,-1,-1,-1,-1,-1,-1,-1,-1,-1,-1,-1,-1],"split_conditions":[5.904476E1,5.806398E1,-5.4383736E1,-8.837352E1,1.0761895E0,-1.187427E2,-2.7714237E1,-1.05803246E2,-4.722035E1,4.598737E0,-7.07888E1,-4.7560005E1,4.9477566E1,-9.2623886E1,-1.769274E2,-4.780565E1,-1.365108E2,-7.964224E1,-6.0073467E1,-5.1861984E1,-3.6111412E1,4.8197655E1,7.62391E1,5.691477E0,3.446556E0,5.177209E0,-1.7626901E2,-4.834865E1,-9.729866E1,-1.4569353E2,-1.1868306E2,2.309415E0,7.2624254E-1,3.9521365E0,-5.649199E1,5.3116083E0,3.2210171E0,1.0026028E1,5.138879E0,1.5303516E2,4.87061E1,6.684582E1,8.60673E1,1.6331586E0,-9.685563E1,-5.7671444E1,-1.991679E1,9.01242E0,-8.262103E1,4.200189E0,9.405575E0,-3.717792E1,-1.13746155E2,1.6917707E0,3.674927E0,1.445036E1,7.60622E-1,2.4996066E0,3.522844E0,5.1870327E0,7.2515416E0,5.1212837E1,6.1831802E1,3.849953E0,3.789489E1,-6.472881E1,-5.6335884E1,-5.1316704E1,3.324887E1,5.539179E0,7.1718388E0,-1.2699391E2,-1.3758368E1,6.5549436E0,-3.9779404E1,5.8161325E0,3.968651E0,2.6759582E0,3.6318324E0,2.267415E0,3.797743E0,5.071035E1,1.410575E2,2.7135043E0,1.3126805E0,3.3261988E0,6.777842E0,-1.5445617E0,2.771839E0,5.715575E0,9.196863E0,3.3278677E0,4.6238523E0,2.6602817E0,-3.5136786E0,2.6887016E0,5.63536E0,3.1631036E0,3.837485E0,5.508116E0,7.6506133E0,3.5435555E0,4.803707E0],"split_indices":[1,1,0,1,0,0,0,1,1,0,0,0,0,0,0,1,0,0,0,0,0,0,1,0,0,0,0,0,0,0,0,0,0,0,0,0,0,0,0,1,0,1,1,0,1,0,0,0,0,0,0,1,0,0,0,0,0,0,0,0,0,0,0,0,0,0,0,1,0,0,0,0,1,0,1,0,0,0,0,0,0,0,1,0,0,0,0,0,0,0,0,0,0,0,0,0,0,0,0,0,0,0,0],"split_type":[0,0,0,0,0,0,0,0,0,0,0,0,0,0,0,0,0,0,0,0,0,0,0,0,0,0,0,0,0,0,0,0,0,0,0,0,0,0,0,0,0,0,0,0,0,0,0,0,0,0,0,0,0,0,0,0,0,0,0,0,0,0,0,0,0,0,0,0,0,0,0,0,0,0,0,0,0,0,0,0,0,0,0,0,0,0,0,0,0,0,0,0,0,0,0,0,0,0,0,0,0,0,0],"sum_hessian":[6.338E3,5.361E3,9.77E2,5.334E3,2.7E1,1.61E2,8.16E2,2.95E2,5.039E3,5.5E1,1.06E2,7.1E1,7.45E2,5.3E1,2.42E2,1.632E3,3.407E3,3.1E1,7.5E1,4.5E1,2.6E1,1.9E2,5.55E2,2.9E1,2.4E1,1.9E1,2.23E2,1.534E3,9.8E1,7.6E1,3.331E3,2.2E1,9E0,4.2E1,3.3E1,2.5E1,2E1,1E1,1.6E1,1.19E2,7.1E1,4.9E1,5.06E2,3.3E1,1.9E2,6.56E2,8.78E2,1.9E1,7.9E1,5.4E1,2.2E1,1.06E2,3.225E3,1.3E1,2E1,6E1,5.9E1,4.6E1,2.5E1,3.6E1,1.3E1,6.9E1,4.37E2,4.2E1,1.48E2,5.66E2,9E1,1.43E2,7.35E2,3.5E1,4.4E1,3.7E1,6.9E1,3.3E1,3.192E3,3.2E1,2.8E1,3.2E1,2.7E1,2E1,4.9E1,4.9E1,3.88E2,1.29E2,1.9E1,4.93E2,7.3E1,4.9E1,4.1E1,1.13E2,3E1,4.03E2,3.32E2,1.3E1,2.4E1,5.5E1,1.4E1,4.53E2,2.739E3,3.8E1,1.1E1,1.29E2,2.59E2],"tree_param":{"num_deleted":"0","num_feature":"2","num_nodes":"103","size_leaf_vector":"0"}},{"base_weights":[9.144215E0,8.794122E0,9.844712E0,8.435083E0,9.969008E0,1.1261353E1,9.489965E0,9.019174E0,5.9762807E0,1.2153004E1,8.172173E0,1.8272596E1,1.0989842E1,-4.9805713E0,9.605179E0,8.850036E0,2.4966213E1,-2.3920724E0,6.386104E0,1.4553075E1,1.0423632E1,7.459952E0,1.7459642E1,8.728725E0,1.1929085E1,1.959108E1,9.515336E0,9.349227E0,5.5283227E0,6.643173E0,-9.692153E0,7.311271E0,2.12089E0,8.834046E0,2.1805899E1,1.1883577E1,4.6071067E0,1.1796605E1,6.533558E0,1.1484581E1,6.9095945E0,7.356132E0,1.2268839E1,7.7678804E0,1.0051766E1,8.658083E0,1.1946104E1,-1.4480028E0,7.329024E0,1.5123254E1,6.841949E0,5.5310855E0,-1.7989577E0,1.0931845E1,2.7496011E0,2.031608E1,2.6907373E1,4.976456E0,1.3759921E1,1.1581549E1,-1.8213029E-1,2.1613672E1,8.9634495E0,-1.9817142E0,7.484942E0,5.517401E0,8.38281E0,1.6960106E1,1.1677634E1,8.900797E0,6.025657E-1,9.299991E0,1.0831115E1,9.06746E0,2.0138996E0,1.3481266E1,1.0171499E1,1.5845047E0,-8.274247E0,5.7220078E0,9.200931E0,1.1442117E1,1.7724157E1,3.8722682E-1,7.3827014E0,1.4580628E0,7.477992E0,-7.445385E-1,-5.565524E0,1.318955E1,8.267632E0,4.5097733E-1,5.367169E0,9.733051E0,2.2487623E1,8.705501E0,-3.0657655E-1,1.2257452E1,1.5950231E1,-1.295327E0,1.42116E0,1.3000668E1,7.4231973E0,4.142345E-2,-3.9147742E0,1.5779634E1,7.1462827E0,1.0961727E1,2.6624367E0,-6.7195916E0,7.9032025E0,1.5628025E1,8.95948E0,1.1263605E1,9.17255E0,8.550873E0,1.2709643E1,-3.6348746E0,7.0214853E0,1.0378681E1,1.5102555E1,6.9993644E0,1.4868879E1,2.7488377E0,-2.3316193E0,8.543868E0,1.7343278E0,1.6668497E1,7.516587E0,9.113129E0,-2.7429962E0,1.4654683E1,6.5765004E0,4.043579E-4,-1.2722231E0,3.1285522E0,1.3242051E1,1.8746632E1,1.2249301E1,8.37587E0,3.8476E0,4.2852497E0,8.691995E0,6.5782137E0,1.7004393E1,-5.02669E-1,6.314875E0,1.2438841E1,2.479076E0,7.374329E0,9.942806E0,1.0808298E1,1.7172413E1,6.7049522E0,9.525002E0],"categories":[],"categories_nodes":[],"categories_segments":[],"categories_sizes":[],"default_left":[true,true,true,true,true,true,true,true,true,true,true,false,true,false,true,true,false,true,true,true,true,true,false,true,true,false,true,true,true,false,false,true,true,true,true,true,true,true,true,false,true,false,true,true,true,true,true,true,true,true,true,true,true,true,true,true,false,true,true,false,true,false,true,true,true,false,false,false,false,true,true,true,true,true,true,true,true,true,false,true,true,false,false,true,true,false,false,true,false,false,true,false,false,false,false,false,false,false,true,false,false,false,true,false,false,false,true,true,true,false,true,false,true,true,true,false,false,false,false,false,false,false,false,false,false,false,false,false,false,false,false,false,false,false,false,false,false,false,false,false,false,false,false,false,false,false,false,false,false,false,false,false,false,false,false],"id":9,"left_children":[1,3,5,7,9,11,13,15,17,19,21,-1,23,-1,25,27,-1,29,31,33,35,37,-1,39,41,-1,43,45,47,-1,-1,49,51,53,55,57,59,61,63,-1,65,-1,67,69,71,73,75,77,79,81,83,85,87,89,91,93,-1,95,97,-1,99,-1,101,103,105,-1,-1,-1,-1,107,109,111,113,115,117,119,121,123,-1,125,127,-1,-1,129,131,-1,-1,133,-1,-1,135,-1,-1,-1,-1,-1,-1,-1,137,-1,-1,-1,139,-1,-1,-1,141,143,145,-1,147,-1,149,151,153,-1,-1,-1,-1,-1,-1,-1,-1,-1,-1,-1,-1,-1,-1,-1,-1,-1,-1,-1,-1,-1,-1,-1,-1,-1,-1,-1,-1,-1,-1,-1,-1,-1,-1,-1,-1,-1,-1,-1,-1],"loss_changes":[1.468E3,1.7027812E3,9.504844E2,4.615047E3,3.7700312E3,5.9109766E2,2.8637344E3,6.859328E3,2.1656016E3,1.6870273E3,3.468164E3,0E0,7.517383E2,0E0,1.3172188E3,4.257922E3,0E0,2.0431272E3,2.3442227E3,7.398043E3,2.1616152E3,1.9597715E3,0E0,5.3226465E2,3.4789062E2,0E0,1.4807969E3,3.9492656E3,4.306911E3,0E0,0E0,1.6966992E3,1.4536344E3,1.2973911E3,6.1367188E1,2.6272305E3,1.8058313E3,2.253836E3,3.417377E3,0E0,1.09624756E2,0E0,5.258281E2,3.201129E3,6.4277344E2,4.8423438E3,1.14875E3,1.4828557E3,7.655791E2,5.57041E1,1.6201816E3,4.490249E2,1.984048E2,3.5410938E2,1.6605002E2,1.2979043E3,0E0,9.0889954E2,3.409043E2,0E0,6.0738525E1,0E0,3.3877734E2,1.6832855E2,9.4906445E2,0E0,0E0,0E0,0E0,4.354992E3,2.993209E3,1.2670391E3,3.3926562E2,3.0578906E3,2.995628E3,1.1008008E3,3.218789E3,2.3439284E2,0E0,1.6618306E3,1.434376E3,0E0,0E0,1.035616E3,2.418711E3,0E0,0E0,1.6117407E1,0E0,0E0,9.30001E2,0E0,0E0,0E0,0E0,0E0,0E0,0E0,4.2237305E2,0E0,0E0,0E0,1.4831079E2,0E0,0E0,0E0,1.5769062E3,6.6690977E3,9.973646E2,0E0,6.5801575E2,0E0,8.961992E2,1.1192031E3,5.180664E1,0E0,0E0,0E0,0E0,0E0,0E0,0E0,0E0,0E0,0E0,0E0,0E0,0E0,0E0,0E0,0E0,0E0,0E0,0E0,0E0,0E0,0E0,0E0,0E0,0E0,0E0,0E0,0E0,0E0,0E0,0E0,0E0,0E0,0E0,0E0,0E0,0E0,0E0,0E0,0E0],"parents":[2147483647,0,0,1,1,2,2,3,3,4,4,5,5,6,6,7,7,8,8,9,9,10,10,12,12,14,14,15,15,17,17,18,18,19,19,20,20,21,21,23,23,24,24,26,26,27,27,28,28,31,31,32,32,33,33,34,34,35,35,36,36,37,37,38,38,40,40,42,42,43,43,44,44,45,45,46,46,47,47,48,48,49,49,50,50,51,51,52,52,53,53,54,54,55,55,57,57,58,58,60,60,62,62,63,63,64,64,69,69,70,70,71,71,72,72,73,73,74,74,75,75,76,76,77,77,79,79,80,80,83,83,84,84,87,87,90,90,98,98,102,102,106,106,107,107,108,108,110,110,112,112,113,113,114,114],"right_children":[2,4,6,8,10,12,14,16,18,20,22,-1,24,-1,26,28,-1,30,32,34,36,38,-1,40,42,-1,44,46,48,-1,-1,50,52,54,56,58,60,62,64,-1,66,-1,68,70,72,74,76,78,80,82,84,86,88,90,92,94,-1,96,98,-1,100,-1,102,104,106,-1,-1,-1,-1,108,110,112,114,116,118,120,122,124,-1,126,128,-1,-1,130,132,-1,-1,134,-1,-1,136,-1,-1,-1,-1,-1,-1,-1,138,-1,-1,-1,140,-1,-1,-1,142,144,146,-1,148,-1,150,152,154,-1,-1,-1,-1,-1,-1,-1,-1,-1,-1,-1,-1,-1,-1,-1,-1,-1,-1,-1,-1,-1,-1,-1,-1,-1,-1,-1,-1,-1,-1,-1,-1,-1,-1,-1,-1,-1,-1,-1,-1],"split_conditions":[5.1054864E0,3.038359E1,1.3013756E1,-2.362112E0,4.8648952E1,5.60332E0,1.42625675E1,-4.9792733E0,4.3536282E-1,-5.9015747E1,-9.696626E0,5.481779E0,9.023811E0,-1.4941714E0,1.4785479E1,-1.0052292E1,7.4898643E0,-8.341115E-1,2.783638E1,-6.851228E1,4.350477E1,-6.6439926E1,5.237893E0,7.503438E0,-6.1906048E1,5.877324E0,2.9245506E1,-5.0704025E1,-6.505499E0,1.992952E0,-2.907646E0,9.3549716E-1,-2.7262192E1,-7.658382E1,-6.2533436E1,-3.238041E1,-3.3395256E1,5.18598E1,-5.902411E1,3.4453745E0,-3.5535545E0,2.2068398E0,-3.2115047E1,2.6713947E1,5.043165E1,-5.7671444E1,-3.7631275E1,-4.770998E1,2.4853644E0,6.36472E-1,9.860273E0,-5.470275E1,2.9092506E1,3.789489E1,-7.085998E1,4.2947838E1,8.072212E0,3.1733398E1,-2.690593E1,3.4744647E0,4.6280174E1,6.484102E0,5.664871E1,-6.3485893E1,-5.6610004E1,1.6552204E0,2.514843E0,5.088032E0,3.5032904E0,-3.8938965E1,-9.964474E0,3.519216E1,8.8738815E1,-6.758001E1,-5.670253E1,-3.8057167E1,-1.965532E1,-6.7029667E0,-2.4822743E0,-6.93562E1,2.72264E0,3.432635E0,5.3172474E0,4.5914726E0,1.19217205E1,4.3741885E-1,2.2433977E0,2.8356262E1,-1.6696573E0,3.9568653E0,3.8513336E1,1.352932E-1,1.6101507E0,2.9199154E0,6.7462873E0,2.6116502E0,-9.197297E-2,3.6772358E0,-1.0387941E1,-3.885981E-1,4.26348E-1,3.9002004E0,9.652657E1,1.2427036E-2,-1.1744323E0,4.7338905E0,-3.883405E1,2.1901226E1,5.487878E1,-2.0158775E0,3.7473244E1,4.688408E0,7.914836E1,8.669241E1,9.347235E1,2.5652618E0,3.8128932E0,-1.0904624E0,2.1064458E0,3.1136045E0,4.530767E0,2.0998094E0,4.460664E0,8.2465136E-1,-6.994858E-1,2.5631604E0,5.2029836E-1,5.0005493E0,2.254976E0,2.7339387E0,-8.228989E-1,4.396405E0,1.9729502E0,1.2130738E-4,-3.8166696E-1,9.385657E-1,3.9726155E0,5.6239896E0,3.6747904E0,2.512761E0,1.1542801E0,1.2855749E0,2.6075985E0,1.9734641E0,5.101318E0,-1.508007E-1,1.8944626E0,3.7316525E0,7.437228E-1,2.2122989E0,2.982842E0,3.2424896E0,5.151724E0,2.0114858E0,2.8575006E0],"split_indices":[1,0,1,0,0,1,1,0,0,1,1,0,1,0,1,1,0,0,0,1,0,1,0,1,0,0,1,0,1,0,0,0,1,1,1,1,1,0,1,0,0,0,0,1,0,0,1,0,1,0,0,1,0,0,1,0,0,0,1,0,0,0,0,1,1,0,0,0,0,0,0,1,0,0,0,0,1,1,0,0,1,0,0,0,0,0,0,0,0,0,0,0,0,0,0,0,0,0,1,0,0,0,0,0,0,0,1,1,0,0,0,0,1,0,0,0,0,0,0,0,0,0,0,0,0,0,0,0,0,0,0,0,0,0,0,0,0,0,0,0,0,0,0,0,0,0,0,0,0,0,0,0,0,0,0],"split_type":[0,0,0,0,0,0,0,0,0,0,0,0,0,0,0,0,0,0,0,0,0,0,0,0,0,0,0,0,0,0,0,0,0,0,0,0,0,0,0,0,0,0,0,0,0,0,0,0,0,0,0,0,0,0,0,0,0,0,0,0,0,0,0,0,0,0,0,0,0,0,0,0,0,0,0,0,0,0,0,0,0,0,0,0,0,0,0,0,0,0,0,0,0,0,0,0,0,0,0,0,0,0,0,0,0,0,0,0,0,0,0,0,0,0,0,0,0,0,0,0,0,0,0,0,0,0,0,0,0,0,0,0,0,0,0,0,0,0,0,0,0,0,0,0,0,0,0,0,0,0,0,0,0,0,0],"sum_hessian":[6.338E3,4.235E3,2.103E3,3.25E3,9.85E2,4.15E2,1.688E3,2.624E3,6.26E2,4.42E2,5.43E2,1.3E1,4.02E2,1.3E1,1.675E3,2.598E3,2.6E1,2.9E1,5.97E2,1.82E2,2.6E2,5.06E2,3.7E1,1.21E2,2.81E2,1.3E1,1.662E3,2.257E3,3.41E2,1.3E1,1.6E1,4.9E2,1.07E2,1.03E2,7.9E1,2.07E2,5.3E1,8.7E1,4.19E2,4.6E1,7.5E1,2.1E1,2.6E2,3.94E2,1.268E3,1.786E3,4.71E2,7E1,2.71E2,2.6E1,4.64E2,5.7E1,5E1,7.6E1,2.7E1,6.5E1,1.4E1,4.5E1,1.62E2,2.1E1,3.2E1,1.8E1,6.9E1,4.2E1,3.77E2,4.1E1,3.4E1,2.6E1,2.34E2,3.4E2,5.4E1,6.52E2,6.16E2,1.682E3,1.04E2,2.49E2,2.22E2,4.9E1,2.1E1,1.48E2,1.23E2,1.3E1,1.3E1,3.6E1,4.28E2,1.9E1,3.8E1,4E1,1E1,3.9E1,3.7E1,1.5E1,1.2E1,1.2E1,5.3E1,2.6E1,1.9E1,1E2,6.2E1,1.9E1,1.3E1,1.7E1,5.2E1,2.1E1,2.1E1,1.3E1,3.64E2,2.55E2,8.5E1,2.7E1,2.7E1,3.1E1,6.21E2,4.84E2,1.32E2,1.476E3,2.06E2,4.9E1,5.5E1,8.8E1,1.61E2,1.34E2,8.8E1,3.8E1,1.1E1,8.6E1,6.2E1,2.1E1,1.02E2,9E0,2.7E1,4.1E1,3.87E2,1.7E1,2.3E1,1.9E1,1.8E1,3.3E1,2.9E1,4E1,1.2E1,1.29E2,2.35E2,1.49E2,1.06E2,4.6E1,3.9E1,1.4E1,1.3E1,2.41E2,3.8E2,4.52E2,3.2E1,1.9E1,1.13E2],"tree_param":{"num_deleted":"0","num_feature":"2","num_nodes":"155","size_leaf_vector":"0"}},{"base_weights":[6.4310226E0,5.8594656E0,6.649256E0,6.165571E0,-2.483815E0,1.0461893E1,6.5679016E0,5.9531474E0,2.3690304E1,-2.479634E-1,-1.106417E1,5.687186E0,1.1517914E1,-8.77675E0,6.607573E0,6.9152684E0,4.457213E0,-1.3159549E0,1.3404032E0,1.2188189E1,8.242619E0,4.7516913E0,6.706524E0,6.003263E0,1.24664955E1,-5.5140233E-1,6.265582E0,-1.7525386E0,-2.2387543E-1,2.7297833E0,7.050429E0,1.120389E1,6.579763E0,6.5429344E0,8.914678E-1,1.05089855E1,1.7244358E1,-1.9989994E1,9.9282384E-1,2.9423101E1,5.309996E0,5.4642906E0,1.7989376E0,1.1371933E1,6.10779E0,1.6092531E1,7.4613924E0,3.480962E0,6.680328E0,6.05459E0,1.7620981E1,-5.560897E0,2.9623632E0,1.3065781E1,-6.8608255E0,2.6422148E1,1.002491E1,3.479212E0,-1.36560755E1,8.902814E0,3.9994748E0,-1.5991916E-1,2.5109859E0,2.2369125E0,7.1121526E0,9.518996E0,5.9244E0,2.3454144E0,1.2884478E1,1.1674738E1,6.4720054E0,6.4881434E0,-2.1491868E0,2.7908598E1,9.538601E0,8.594746E0,1.7820255E0,1.6446198E1,1.0858885E1,6.95166E0,1.2518855E1,7.1499233E0,1.2541907E0,1.1582191E1,5.6541743E0,-2.7004638E-1,5.091214E0,3.848114E0,1.5597818E0,7.945685E0,2.7821093E0,4.255188E0,8.839652E0,-2.9585621E0,3.6469772E0,1.349469E1,5.0817165E0,3.5789127E0,6.6298103E0],"categories":[],"categories_nodes":[],"categories_segments":[],"categories_sizes":[],"default_left":[true,true,true,true,true,true,true,true,false,true,false,false,true,false,true,true,true,true,false,false,false,true,true,true,true,true,true,false,false,true,true,true,true,true,true,true,true,false,true,false,true,false,true,false,true,false,true,true,true,true,true,false,true,true,false,false,true,true,false,true,true,false,true,false,true,false,true,true,false,true,true,false,false,false,false,false,false,false,false,false,false,false,false,false,false,false,false,false,false,false,false,false,false,false,false,false,false,false,false],"id":10,"left_children":[1,3,5,7,9,11,13,15,-1,17,-1,-1,19,-1,21,23,25,27,-1,-1,-1,29,31,33,35,37,39,-1,-1,41,43,45,47,49,51,53,55,-1,57,-1,59,-1,61,-1,63,-1,65,67,69,71,73,-1,75,77,-1,-1,79,81,-1,83,85,-1,87,-1,89,-1,91,93,-1,95,97,-1,-1,-1,-1,-1,-1,-1,-1,-1,-1,-1,-1,-1,-1,-1,-1,-1,-1,-1,-1,-1,-1,-1,-1,-1,-1,-1,-1],"loss_changes":[7.5171875E2,4.5102188E3,1.3518906E3,6.180074E3,1.2058738E3,4.084619E2,2.7894062E3,2.385711E3,0E0,8.827837E1,0E0,0E0,6.638379E1,0E0,7.901094E2,5.089164E3,5.9813564E3,1.4387962E1,0E0,0E0,0E0,1.0497559E3,2.3474688E3,2.4162988E3,1.1562188E3,5.302941E3,1.0576322E4,0E0,0E0,3.058003E2,3.6641992E2,1.9839365E3,1.2647188E3,4.1887734E3,1.152258E3,4.7083916E3,2.385463E3,0E0,6.02086E3,0E0,2.163246E3,0E0,1.3151282E2,0E0,3.3398926E2,0E0,1.5549463E2,1.3792952E3,4.0883125E3,2.724207E3,2.4776895E3,0E0,4.1681134E2,5.0029395E2,0E0,0E0,9.692139E1,1.1426376E3,0E0,1.0138496E3,1.6048291E3,0E0,8.175763E1,0E0,2.341499E2,0E0,1.6189868E2,8.323014E2,0E0,1.8392617E3,1.7312188E3,0E0,0E0,0E0,0E0,0E0,0E0,0E0,0E0,0E0,0E0,0E0,0E0,0E0,0E0,0E0,0E0,0E0,0E0,0E0,0E0,0E0,0E0,0E0,0E0,0E0,0E0,0E0,0E0],"parents":[2147483647,0,0,1,1,2,2,3,3,4,4,5,5,6,6,7,7,9,9,12,12,14,14,15,15,16,16,17,17,21,21,22,22,23,23,24,24,25,25,26,26,29,29,30,30,31,31,32,32,33,33,34,34,35,35,36,36,38,38,40,40,42,42,44,44,46,46,47,47,48,48,49,49,50,50,52,52,53,53,56,56,57,57,59,59,60,60,62,62,64,64,66,66,67,67,69,69,70,70],"right_children":[2,4,6,8,10,12,14,16,-1,18,-1,-1,20,-1,22,24,26,28,-1,-1,-1,30,32,34,36,38,40,-1,-1,42,44,46,48,50,52,54,56,-1,58,-1,60,-1,62,-1,64,-1,66,68,70,72,74,-1,76,78,-1,-1,80,82,-1,84,86,-1,88,-1,90,-1,92,94,-1,96,98,-1,-1,-1,-1,-1,-1,-1,-1,-1,-1,-1,-1,-1,-1,-1,-1,-1,-1,-1,-1,-1,-1,-1,-1,-1,-1,-1,-1],"split_conditions":[-7.2165794E1,-7.383501E1,-7.0859924E1,-7.4142136E1,-7.222658E1,-4.6996513E1,-7.07166E1,-9.64867E1,7.1070914E0,-7.2609985E1,-3.319251E0,1.7061558E0,2.9739206E1,-2.633025E0,-7.863185E1,-1.01539825E2,-8.6363754E1,3.887471E1,4.0212098E-1,3.6564567E0,2.4727857E0,1.4385051E1,-7.212667E1,-1.1125871E2,-2.9238567E1,-5.00402E1,-8.623396E1,-5.257616E-1,-6.716263E-2,-9.691402E1,-9.4768555E1,1.5491138E1,-6.789619E1,-1.1240991E2,-1.0655099E2,-3.831608E1,-1.0043947E2,-5.9969983E0,-8.663606E1,8.826931E0,-4.5393993E1,1.6392872E0,1.33294735E1,3.41158E0,-9.138257E1,4.8277597E0,5.664871E1,4.833142E1,-6.425189E1,-1.15344955E2,-1.1176869E2,-1.6682692E0,-1.0506506E2,-4.3784866E1,-2.0582478E0,7.926645E0,-9.934975E1,-9.275769E1,-4.0968227E0,-8.047883E1,-4.2011642E1,-4.797575E-2,1.3667218E1,6.710738E-1,8.586419E1,2.855699E0,6.0219704E1,1.3306368E1,3.8653433E0,4.885591E1,-5.8763878E1,1.9464431E0,-6.447561E-1,8.37258E0,2.8615804E0,2.5784237E0,5.3460765E-1,4.9338593E0,3.2576656E0,2.085498E0,3.7556567E0,2.144977E0,3.762572E-1,3.4746575E0,1.6962523E0,-8.101392E-2,1.5273644E0,1.1544342E0,4.6793455E-1,2.3837056E0,8.346328E-1,1.2765565E0,2.6518958E0,-8.8756865E-1,1.0940932E0,4.048407E0,1.524515E0,1.0736738E0,1.9889432E0],"split_indices":[0,0,0,0,0,1,0,0,0,0,0,0,1,0,1,0,0,1,0,0,0,0,1,0,1,1,0,0,0,1,1,0,1,0,0,1,0,0,0,0,1,0,0,0,1,0,0,0,1,0,0,0,0,1,0,0,0,0,0,0,1,0,0,0,0,0,0,0,0,0,1,0,0,0,0,0,0,0,0,0,0,0,0,0,0,0,0,0,0,0,0,0,0,0,0,0,0,0,0],"split_type":[0,0,0,0,0,0,0,0,0,0,0,0,0,0,0,0,0,0,0,0,0,0,0,0,0,0,0,0,0,0,0,0,0,0,0,0,0,0,0,0,0,0,0,0,0,0,0,0,0,0,0,0,0,0,0,0,0,0,0,0,0,0,0,0,0,0,0,0,0,0,0,0,0,0,0,0,0,0,0,0,0,0,0,0,0,0,0,0,0,0,0,0,0,0,0,0,0,0,0],"sum_hessian":[6.338E3,1.759E3,4.579E3,1.697E3,6.2E1,9.3E1,4.486E3,1.678E3,1.9E1,5E1,1.2E1,1.8E1,7.5E1,1.1E1,4.475E3,1.019E3,6.59E2,3E1,2E1,6E1,1.5E1,2.29E2,4.246E3,8.77E2,1.42E2,1.75E2,4.84E2,2.1E1,9E0,1.23E2,1.06E2,1.14E2,4.132E3,7.93E2,8.4E1,1.03E2,3.9E1,1.2E1,1.63E2,1.8E1,4.66E2,3E1,9.3E1,1.7E1,8.9E1,4.8E1,6.6E1,1.31E2,4.001E3,7.61E2,3.2E1,2E1,6.4E1,9E1,1.3E1,1.6E1,2.3E1,1.4E2,2.3E1,1.23E2,3.43E2,2.5E1,6.8E1,1.9E1,7E1,2.6E1,4E1,1.18E2,1.3E1,1.58E2,3.843E3,7.23E2,3.8E1,1.3E1,1.9E1,1E1,5.4E1,3.3E1,5.7E1,1.2E1,1.1E1,5.2E1,8.8E1,6.6E1,5.7E1,7E1,2.73E2,2.7E1,4.1E1,5.8E1,1.2E1,2.7E1,1.3E1,2.3E1,9.5E1,1.23E2,3.5E1,2E2,3.643E3],"tree_param":{"num_deleted":"0","num_feature":"2","num_nodes":"99","size_leaf_vector":"0"}},{"base_weights":[4.51519E0,4.368691E0,5.226897E0,4.4088707E0,-2.7869222E0,1.3026798E1,5.096996E0,3.7897162E0,4.520715E0,-1.29932E1,2.205921E0,3.9720957E0,5.293814E0,4.189998E0,-1.0876999E0,1.4025973E1,4.3736787E0,1.2071457E0,3.1838593E0,5.9712343E0,2.8886955E0,8.670464E0,4.994161E0,6.7159543E0,3.987124E0,-5.833788E0,2.9924254E0,2.659361E1,1.135457E1,1.2152894E1,4.2824817E0,8.4120417E-1,3.7127879E0,5.7580285E0,1.331126E1,1.2635599E-1,5.366985E0,9.108508E0,3.5762525E0,-5.20274E-1,4.213282E0,7.80146E0,1.5590493E1,5.8027773E0,1.5857716E1,-4.6947165E0,4.323297E0,1.7737954E0,3.36672E-1,4.570795E0,1.7796216E0,9.7587185E0,3.8862803E0,1.978571E1,8.338896E0,-1.5016425E0,1.503859E0,7.6579933E0,5.097683E0,3.8336077E0,5.4677243E0,1.0483061E1,6.3590646E0,9.694448E0,4.275609E0,6.9546276E-1,-1.6342315E-1,5.952359E0,2.9602938E0,5.125559E0,2.9340472E0,3.4606578E0,1.0593893E1,3.0108726E0,5.4997535E0,3.1450837E0,5.1566563E0,1.2199126E1,3.7676442E0,8.086672E0,1.2759497E1,2.6250825E0,4.376158E0,1.3768422E1,8.926097E0,4.436662E0,1.6065493E0,5.2444077E0,8.900839E0],"categories":[],"categories_nodes":[],"categories_segments":[],"categories_sizes":[],"default_left":[true,true,true,true,true,false,true,true,true,false,true,true,true,true,true,true,true,false,false,false,true,true,true,true,true,false,false,false,true,true,true,true,true,true,true,true,true,false,false,false,true,true,false,false,false,false,true,false,true,true,false,false,true,false,false,false,false,true,true,true,true,false,false,true,true,false,false,false,false,false,false,false,true,true,true,false,false,false,false,false,false,false,false,false,false,false,false,false,false],"id":11,"left_children":[1,3,5,7,9,-1,11,13,15,-1,17,19,21,23,25,27,29,-1,-1,-1,31,33,35,37,39,-1,-1,-1,41,43,45,47,49,51,53,55,57,-1,-1,-1,59,61,-1,-1,-1,-1,63,-1,65,67,-1,-1,69,-1,-1,-1,-1,71,73,75,77,-1,-1,79,81,-1,-1,-1,-1,-1,-1,-1,83,85,87,-1,-1,-1,-1,-1,-1,-1,-1,-1,-1,-1,-1,-1,-1],"loss_changes":[6.3809375E2,1.5254531E3,1.0248359E3,3.453125E2,1.5574125E3,0E0,2.1388086E2,1.5800957E3,6.1273203E3,0E0,1.6668167E1,3.3362134E2,8.6733984E2,3.5551074E2,1.2180645E3,1.9474473E3,3.0425469E3,0E0,0E0,0E0,1.7742029E2,8.9650635E2,1.5038184E3,3.730686E2,7.08626E2,0E0,0E0,0E0,7.362617E2,1.0842837E3,1.6006172E3,1.4459526E1,1.1792456E2,3.065359E2,7.04229E2,1.3681264E2,4.360293E2,0E0,0E0,0E0,2.933838E2,6.0979248E1,0E0,0E0,0E0,0E0,1.0584141E3,0E0,4.061104E0,9.8079834E1,0E0,0E0,2.3904053E1,0E0,0E0,0E0,0E0,9.3685205E2,5.6406055E2,4.483662E2,1.6820708E3,0E0,0E0,7.915088E1,6.9516406E2,0E0,0E0,0E0,0E0,0E0,0E0,0E0,1.2064746E2,2.2113098E2,4.561543E2,0E0,0E0,0E0,0E0,0E0,0E0,0E0,0E0,0E0,0E0,0E0,0E0,0E0,0E0],"parents":[2147483647,0,0,1,1,2,2,3,3,4,4,6,6,7,7,8,8,10,10,11,11,12,12,13,13,14,14,15,15,16,16,20,20,21,21,22,22,23,23,24,24,28,28,29,29,30,30,31,31,32,32,33,33,34,34,35,35,36,36,40,40,41,41,46,46,48,48,49,49,52,52,57,57,58,58,59,59,60,60,63,63,64,64,72,72,73,73,74,74],"right_children":[2,4,6,8,10,-1,12,14,16,-1,18,20,22,24,26,28,30,-1,-1,-1,32,34,36,38,40,-1,-1,-1,42,44,46,48,50,52,54,56,58,-1,-1,-1,60,62,-1,-1,-1,-1,64,-1,66,68,-1,-1,70,-1,-1,-1,-1,72,74,76,78,-1,-1,80,82,-1,-1,-1,-1,-1,-1,-1,84,86,88,-1,-1,-1,-1,-1,-1,-1,-1,-1,-1,-1,-1,-1,-1],"split_conditions":[5.221982E1,4.793303E1,5.4174995E1,-6.792172E1,4.879863E1,3.9080396E0,-5.4383736E1,-6.980658E1,-6.614092E1,-3.8979602E0,-1.3289848E1,-1.187427E2,-3.0327698E1,-1.05803246E2,-2.0329205E1,-1.0367654E2,-1.5234795E2,3.6214373E-1,9.551578E-1,1.7913704E0,-7.07888E1,-4.7560005E1,-1.980138E1,-9.2623886E1,-1.0147795E2,-1.7501365E0,8.9772767E-1,7.9780836E0,-6.69012E1,-1.6019351E2,-6.602249E1,-9.081915E1,1.731463E2,1.7316449E2,-3.6111412E1,-2.4561676E1,1.1270498E1,2.7325525E0,1.0728757E0,-1.560822E-1,-7.2943275E1,-6.7413956E1,4.6771483E0,1.7408333E0,4.7573147E0,-1.408415E0,-6.5342865E1,5.3213865E-1,-7.964224E1,-6.0073467E1,5.338865E-1,2.9276156E0,-5.2094864E1,5.935713E0,2.501669E0,-4.5049277E-1,4.5115772E-1,5.7044594E1,4.9164314E1,1.4385051E1,-7.212667E1,3.1449184E0,1.9077195E0,4.6500584E1,-1.1868306E2,2.0863883E-1,-4.9026947E-2,1.7857078E0,8.8808817E-1,1.5376678E0,8.802142E-1,1.0381974E0,9.816092E1,4.8197655E1,1.5055516E2,9.4352514E-1,1.546997E0,3.659738E0,1.1302933E0,2.4260015E0,3.8278491E0,7.8752476E-1,1.3128475E0,4.130527E0,2.6778293E0,1.3309987E0,4.819648E-1,1.5733224E0,2.6702518E0],"split_indices":[1,1,1,1,1,0,0,1,1,0,0,0,0,1,0,0,0,0,0,0,0,0,0,0,1,0,0,0,1,0,1,0,1,1,0,0,0,0,0,0,1,1,0,0,0,0,1,0,0,0,0,0,0,0,0,0,0,1,0,0,1,0,0,0,0,0,0,0,0,0,0,0,1,0,1,0,0,0,0,0,0,0,0,0,0,0,0,0,0],"split_type":[0,0,0,0,0,0,0,0,0,0,0,0,0,0,0,0,0,0,0,0,0,0,0,0,0,0,0,0,0,0,0,0,0,0,0,0,0,0,0,0,0,0,0,0,0,0,0,0,0,0,0,0,0,0,0,0,0,0,0,0,0,0,0,0,0,0,0,0,0,0,0,0,0,0,0,0,0,0,0,0,0,0,0,0,0,0,0,0,0],"sum_hessian":[6.338E3,5.262E3,1.076E3,5.233E3,2.9E1,1.6E1,1.06E3,8.06E2,4.427E3,9E0,2E1,1.61E2,8.99E2,7.45E2,6.1E1,6.6E1,4.361E3,1.1E1,9E0,5.5E1,1.06E2,7.1E1,8.28E2,5.3E1,6.92E2,2.8E1,3.3E1,1E1,5.6E1,4.9E1,4.312E3,3.1E1,7.5E1,4.5E1,2.6E1,5.9E1,7.69E2,2.9E1,2.4E1,3.3E1,6.59E2,3.2E1,2.4E1,1.9E1,3E1,1.9E1,4.293E3,1E1,2.1E1,5.1E1,2.4E1,1.3E1,3.2E1,1E1,1.6E1,2.7E1,3.2E1,7.8E1,6.91E2,5.09E2,1.5E2,9E0,2.3E1,3.6E1,4.257E3,1.2E1,9E0,2.6E1,2.5E1,1.2E1,2E1,3.3E1,4.5E1,1.13E2,5.78E2,3.37E2,1.72E2,2.9E1,1.21E2,2.6E1,1E1,2.46E2,4.011E3,1.3E1,3.2E1,5.5E1,5.8E1,5.4E2,3.8E1],"tree_param":{"num_deleted":"0","num_feature":"2","num_nodes":"89","size_leaf_vector":"0"}},{"base_weights":[3.17261E0,2.983717E0,3.551402E0,3.2643552E0,2.2075753E0,4.554534E0,3.2553055E0,3.0380497E0,5.6816196E0,-2.511406E0,2.5508776E0,1.01164255E1,4.3769026E0,-1.4319695E0,3.4417953E0,3.1510103E0,-6.990363E0,6.549765E0,3.7329998E0,-1.4159711E1,-5.615139E-1,9.0309305E0,2.3908074E0,3.05084E0,4.9640965E0,-3.4764495E-1,-7.1441255E0,1.0098983E1,3.3272407E0,3.3489563E0,1.3618301E0,-1.0126148E1,-5.104727E0,5.8899026E0,1.0648448E1,2.0864885E0,5.047803E0,-4.0706716E0,1.3653339E0,2.9893538E-1,2.9083352E0,4.856323E0,2.162875E0,9.7920065E0,4.7112117E0,-2.6241307E0,3.3546484E0,5.137118E0,1.3985074E1,-1.51553E0,3.4539943E0,3.1728399E0,7.0581946E0,-7.5052567E0,2.3301306E0,7.5019603E0,3.9843714E0,5.9131775E0,1.4200355E1,1.3858296E0,2.8269331E0,1.5975559E0,7.5360435E-1,8.334963E0,-1.1806728E0,8.016082E0,2.4822245E0,3.9543064E0,5.7015996E0,6.784094E-1,3.2005417E0,4.3023176E0,6.7680182E0,-3.467448E0,-1.1717169E0,1.1741859E1,3.3342242E0,3.4940908E0,2.3144512E0,3.487994E0,8.7974E0,5.1861577E0,7.676451E-1,2.4536896E0,7.3383617E0,-2.1641045E0,1.7726147E1,-2.4539208E0,4.134288E0,4.901262E0,1.1279008E1,1.7758775E0,5.171197E0,3.567971E0,2.383263E0,4.9017024E0,-6.4942236E0,4.9079494E0,1.1067622E1,1.6826773E0,3.6101081E0,3.0382857E0,1.1535337E1,2.5356748E0,-2.1201277E0,5.754695E0,1.2710745E0,1.0111088E1,5.1133E0,2.9599013E0,1.2360052E1,-5.0717616E0,1.64833E0,4.4705243E0,-2.95366E0,1.134018E0,-3.6046119E0,9.156533E0,-7.199184E0,2.4487433E0,-4.6121626E0,5.8318524E0,-2.0406787E0,2.0979025E0,5.155193E0,5.760026E0,-1.7469196E0,5.638243E0,3.5240288E0],"categories":[],"categories_nodes":[],"categories_segments":[],"categories_sizes":[],"default_left":[true,true,true,true,true,true,true,true,true,true,true,false,true,true,true,true,true,true,true,false,true,false,true,true,true,true,false,true,true,true,true,false,false,true,true,true,false,false,true,true,true,true,true,false,true,true,false,false,false,false,true,true,true,false,true,false,true,false,false,false,false,false,false,true,true,true,true,false,false,false,true,true,true,false,false,false,true,true,true,true,true,true,true,true,false,false,false,true,true,false,false,true,true,false,false,true,false,false,false,true,true,false,false,false,false,false,false,false,false,false,false,false,false,false,false,false,false,false,false,false,false,false,false,false,false,false,false,false,false],"id":12,"left_children":[1,3,5,7,9,11,13,15,17,19,21,-1,23,25,27,29,31,33,35,-1,37,-1,39,41,43,45,-1,47,49,51,53,-1,-1,55,57,59,-1,-1,61,63,65,67,69,-1,71,73,-1,-1,-1,-1,75,77,79,-1,81,-1,83,-1,-1,-1,-1,-1,-1,85,87,89,91,-1,-1,-1,93,95,97,-1,-1,-1,99,101,103,105,107,109,111,113,-1,-1,-1,115,117,-1,-1,119,121,-1,-1,123,-1,-1,-1,125,127,-1,-1,-1,-1,-1,-1,-1,-1,-1,-1,-1,-1,-1,-1,-1,-1,-1,-1,-1,-1,-1,-1,-1,-1,-1,-1,-1,-1],"loss_changes":[4.4296484E2,9.1546094E2,6.101113E2,1.6834883E3,1.8338081E3,4.2698242E2,1.4280098E3,3.2448887E3,4.238457E2,1.7409454E3,1.0696099E3,0E0,3.4615137E2,3.8772772E2,1.1606504E3,9.920488E2,1.375232E2,4.2951318E2,1.7131421E2,0E0,4.5858588E2,0E0,1.1120454E3,2.2196118E2,3.4455713E2,4.639268E2,0E0,4.2949585E2,9.511582E2,1.6323105E3,2.4387415E3,0E0,0E0,4.585298E2,3.1969263E2,1.6315506E1,0E0,0E0,5.046585E0,2.447326E3,1.7735098E3,1.3289429E1,1.5032648E2,0E0,2.2823242E2,3.758188E1,0E0,0E0,0E0,0E0,1.451791E3,6.592461E2,6.7717676E2,0E0,1.1339565E3,0E0,3.670359E2,0E0,0E0,0E0,0E0,0E0,0E0,3.1935186E3,1.1876489E3,5.8501465E2,1.4381196E3,0E0,0E0,0E0,8.913513E0,1.7014238E3,3.3756104E2,0E0,0E0,0E0,6.6917773E2,6.4121133E3,6.5482007E2,1.8866397E2,3.161206E2,1.4007991E3,8.620443E2,5.912081E2,0E0,0E0,0E0,5.8622156E2,2.0011819E3,0E0,0E0,2.6117617E3,7.6470264E2,0E0,0E0,1.6331543E2,0E0,0E0,0E0,3.0025662E3,2.0167383E2,0E0,0E0,0E0,0E0,0E0,0E0,0E0,0E0,0E0,0E0,0E0,0E0,0E0,0E0,0E0,0E0,0E0,0E0,0E0,0E0,0E0,0E0,0E0,0E0,0E0,0E0,0E0,0E0],"parents":[2147483647,0,0,1,1,2,2,3,3,4,4,5,5,6,6,7,7,8,8,9,9,10,10,12,12,13,13,14,14,15,15,16,16,17,17,18,18,20,20,22,22,23,23,24,24,25,25,27,27,28,28,29,29,30,30,33,33,34,34,35,35,38,38,39,39,40,40,41,41,42,42,44,44,45,45,50,50,51,51,52,52,54,54,56,56,63,63,64,64,65,65,66,66,70,70,71,71,72,72,76,76,77,77,78,78,79,79,80,80,81,81,82,82,83,83,87,87,88,88,91,91,92,92,95,95,99,99,100,100],"right_children":[2,4,6,8,10,12,14,16,18,20,22,-1,24,26,28,30,32,34,36,-1,38,-1,40,42,44,46,-1,48,50,52,54,-1,-1,56,58,60,-1,-1,62,64,66,68,70,-1,72,74,-1,-1,-1,-1,76,78,80,-1,82,-1,84,-1,-1,-1,-1,-1,-1,86,88,90,92,-1,-1,-1,94,96,98,-1,-1,-1,100,102,104,106,108,110,112,114,-1,-1,-1,116,118,-1,-1,120,122,-1,-1,124,-1,-1,-1,126,128,-1,-1,-1,-1,-1,-1,-1,-1,-1,-1,-1,-1,-1,-1,-1,-1,-1,-1,-1,-1,-1,-1,-1,-1,-1,-1,-1,-1],"split_conditions":[5.1054864E0,-2.7271564E1,1.4839474E1,-3.272093E1,-2.660265E1,5.60332E0,2.033973E1,-3.342195E1,-2.86405E1,-3.166432E1,-2.6093012E1,3.0349278E0,9.953961E0,1.9638956E1,2.1420494E1,4.885591E1,-3.8048103E1,-2.9210882E1,3.5755074E1,-4.2479134E0,3.8807007E1,2.7092793E0,-2.0599113E1,7.503438E0,1.0623458E1,1.7318588E1,-2.1432378E0,-8.077998E1,2.1901226E1,3.8707436E1,4.9353897E1,-3.0378447E0,-1.5314181E0,-3.1474237E1,-1.12739105E1,-5.3131666E0,1.514341E0,-1.2212015E0,7.255438E1,-9.7580956E1,-1.7550098E1,3.4586334E-1,-2.5538094E1,2.937602E0,1.42625675E1,-5.264904E1,1.0063945E0,1.5411354E0,4.1955223E0,-4.5465901E-1,2.2792185E1,-1.991679E1,-6.6656494E1,-2.2515771E0,-6.3485893E1,2.2505882E0,5.445709E1,1.7739533E0,4.2601066E0,4.157489E-1,8.4808E-1,4.792668E-1,2.2608131E-1,-1.1020706E2,6.762559E1,-1.7695675E1,3.0852192E1,1.1862919E0,1.71048E0,2.0352283E-1,5.6763615E1,1.3013756E1,-8.989303E1,-1.0402344E0,-3.5151508E-1,3.522558E0,2.9245506E1,-3.4915146E1,-4.466758E1,4.2241386E1,-5.149776E1,-7.0217545E1,-5.902411E1,-3.0906109E1,2.2015085E0,-6.492314E-1,5.3178444E0,-7.072769E1,8.451692E1,1.4703786E0,3.3837025E0,1.3224338E1,3.1277013E0,1.0703913E0,7.1497893E-1,-5.5780922E1,-1.9482671E0,1.4723849E0,3.3202868E0,-5.3702E1,2.94576E1,9.1148573E-1,3.4606013E0,7.607025E-1,-6.360383E-1,1.7264086E0,3.8132238E-1,3.0333264E0,1.53399E0,8.8797045E-1,3.7080157E0,-1.5215286E0,4.94499E-1,1.3411573E0,-8.86098E-1,3.402054E-1,-1.0813836E0,2.7469602E0,-2.1597552E0,7.34623E-1,-1.3836489E0,1.7495558E0,-6.1220366E-1,6.293708E-1,1.5465579E0,1.7280079E0,-5.240759E-1,1.691473E0,1.0572087E0],"split_indices":[1,1,1,1,1,1,1,1,1,0,1,0,1,1,1,0,0,1,0,0,0,0,1,1,1,1,0,0,1,0,0,0,0,1,0,0,0,0,0,0,1,0,0,0,1,0,0,0,0,0,1,0,1,0,1,0,0,0,0,0,0,0,0,0,0,1,0,0,0,0,0,1,0,0,0,0,1,0,1,0,1,1,1,1,0,0,0,0,0,0,0,0,1,0,0,0,0,0,0,0,1,0,0,0,0,0,0,0,0,0,0,0,0,0,0,0,0,0,0,0,0,0,0,0,0,0,0,0,0],"split_type":[0,0,0,0,0,0,0,0,0,0,0,0,0,0,0,0,0,0,0,0,0,0,0,0,0,0,0,0,0,0,0,0,0,0,0,0,0,0,0,0,0,0,0,0,0,0,0,0,0,0,0,0,0,0,0,0,0,0,0,0,0,0,0,0,0,0,0,0,0,0,0,0,0,0,0,0,0,0,0,0,0,0,0,0,0,0,0,0,0,0,0,0,0,0,0,0,0,0,0,0,0,0,0,0,0,0,0,0,0,0,0,0,0,0,0,0,0,0,0,0,0,0,0,0,0,0,0,0,0],"sum_hessian":[6.338E3,4.235E3,2.103E3,3.108E3,1.127E3,4.76E2,1.627E3,2.844E3,2.64E2,7.6E1,1.051E3,1.3E1,4.63E2,6.2E1,1.565E3,2.813E3,3.1E1,1.81E2,8.3E1,1E1,6.6E1,2.4E1,1.027E3,1.44E2,3.19E2,5.3E1,9E0,2.5E1,1.54E3,2.532E3,2.81E2,1E1,2.1E1,1.58E2,2.3E1,3.8E1,4.5E1,2.3E1,4.3E1,2.04E2,8.23E2,4.6E1,9.8E1,1.4E1,3.05E2,3.3E1,2E1,1.2E1,1.3E1,3.9E1,1.501E3,2.419E3,1.13E2,2.7E1,2.54E2,8.4E1,7.4E1,1.1E1,1.2E1,2.1E1,1.7E1,3E1,1.3E1,3.1E1,1.73E2,6.2E1,7.61E2,2.5E1,2.1E1,4.1E1,5.7E1,2.57E2,4.8E1,2E1,1.3E1,2E1,1.481E3,1.758E3,6.61E2,3.8E1,7.5E1,8.9E1,1.65E2,5.2E1,2.2E1,1.5E1,1.6E1,1.4E2,3.3E1,3.3E1,2.9E1,6.04E2,1.57E2,3.7E1,2E1,2.44E2,1.3E1,3.5E1,1.3E1,2.13E2,1.268E3,1.665E3,9.3E1,6.3E2,3.1E1,1.8E1,2E1,5.4E1,2.1E1,6.9E1,2E1,2.1E1,1.44E2,3.8E1,1.4E1,3.4E1,1.06E2,2.3E1,1E1,5.47E2,5.7E1,1.44E2,1.3E1,2.1E1,2.23E2,9.7E1,1.16E2,4.9E1,1.219E3],"tree_param":{"num_deleted":"0","num_feature":"2","num_nodes":"129","size_leaf_vector":"0"}},{"base_weights":[2.2295926E0,6.290628E0,2.2163882E0,-1.2534579E0,2.2348006E0,2.7129776E0,2.147374E0,2.1271205E0,6.0780478E0,-2.413977E0,2.3029912E0,2.5317652E0,-1.4302142E0,9.498546E0,4.965548E0,-1.6593166E1,-1.2752975E0,1.8953478E1,2.2408373E0,2.1569996E0,1.0518184E1,-5.9809914E0,6.2040124E-2,1.2162324E1,4.8244104E0,6.643516E0,-7.0150537E0,1.2027527E0,-9.248606E0,1.5059204E0,2.3282814E0,2.4853911E0,-3.5567448E0,1.8068611E1,4.706975E0,4.389382E0,-8.0455625E-1,4.680092E0,7.82877E0,4.984989E0,-4.2564872E-1,-4.7510576E0,-1.1861613E1,2.1882415E0,-3.781603E0,5.0951447E0,2.2697983E0,2.1563025E0,8.999781E0,-7.739569E0,-2.0439117E0,-1.4639615E0,7.555237E-1,1.272112E1,5.712521E0,-2.2413669E0,4.882124E0,1.6423476E0,1.4825453E1,-2.1087391E0,-1.0053484E1,4.3276496E0,8.566207E0,-8.402116E0,2.2979023E0],"categories":[],"categories_nodes":[],"categories_segments":[],"categories_sizes":[],"default_left":[true,false,true,false,true,true,true,true,true,true,true,true,true,true,true,false,true,false,true,true,true,false,true,false,false,true,false,true,true,true,true,true,true,false,false,false,true,false,true,false,true,false,false,true,true,true,true,false,false,false,false,false,false,false,false,false,false,false,false,false,false,false,false,false,false],"id":13,"left_children":[1,-1,3,-1,5,7,9,11,13,15,17,19,21,23,25,-1,27,-1,29,31,33,-1,35,-1,-1,37,-1,39,41,43,45,47,49,-1,-1,-1,51,-1,53,-1,55,-1,-1,57,59,61,63,-1,-1,-1,-1,-1,-1,-1,-1,-1,-1,-1,-1,-1,-1,-1,-1,-1,-1],"loss_changes":[3.2596875E2,0E0,4.0657422E2,0E0,2.5700586E2,1.895435E3,3.7818262E3,1.192612E3,4.9699316E2,2.8204556E3,5.282039E3,2.198144E3,5.7759894E2,3.6465308E2,2.2579414E3,0E0,3.2514785E3,0E0,3.259746E2,1.3410447E3,1.3628962E3,0E0,2.4728534E2,0E0,0E0,1.8909473E2,0E0,7.7815576E2,4.0197778E2,1.9853433E3,7.295469E2,1.4212349E3,2.3096967E2,0E0,0E0,0E0,5.7685925E1,0E0,5.381826E2,0E0,8.68673E2,0E0,0E0,3.32836E3,6.397961E2,2.1334668E2,1.3650586E3,0E0,0E0,0E0,0E0,0E0,0E0,0E0,0E0,0E0,0E0,0E0,0E0,0E0,0E0,0E0,0E0,0E0,0E0],"parents":[2147483647,0,0,2,2,4,4,5,5,6,6,7,7,8,8,9,9,10,10,11,11,12,12,13,13,14,14,16,16,18,18,19,19,20,20,22,22,25,25,27,27,28,28,29,29,30,30,31,31,32,32,36,36,38,38,40,40,43,43,44,44,45,45,46,46],"right_children":[2,-1,4,-1,6,8,10,12,14,16,18,20,22,24,26,-1,28,-1,30,32,34,-1,36,-1,-1,38,-1,40,42,44,46,48,50,-1,-1,-1,52,-1,54,-1,56,-1,-1,58,60,62,64,-1,-1,-1,-1,-1,-1,-1,-1,-1,-1,-1,-1,-1,-1,-1,-1,-1,-1],"split_conditions":[-1.769274E2,1.8871884E0,-1.7626901E2,-3.760374E-1,-9.64867E1,-1.01539825E2,-8.6363754E1,-1.1125871E2,-4.3784866E1,-5.00402E1,-8.623396E1,-1.1240991E2,-1.0655099E2,-9.729866E1,-9.8053635E1,-4.97795E0,-8.693797E1,5.6860437E0,-7.2165794E1,-1.15344955E2,-1.1176869E2,-1.7942975E0,-1.0506506E2,3.6486974E0,1.4473232E0,-1.0065651E2,-2.1045163E0,-3.6961235E1,-8.663606E1,-7.383501E1,-7.0859924E1,-1.1868306E2,-1.15054825E2,5.4205837E0,1.4120926E0,1.3168147E0,-1.0273063E2,1.4040276E0,-1.0043947E2,1.4954967E0,-8.8405624E1,-1.4253173E0,-3.558484E0,-7.4142136E1,-7.222658E1,-7.122914E1,-7.07166E1,6.4689076E-1,2.6999342E0,-2.3218708E0,-6.1317354E-1,-4.3918845E-1,2.2665711E-1,3.8163362E0,1.7137564E0,-6.724101E-1,1.4646373E0,4.927043E-1,4.447636E0,-6.3262177E-1,-3.0160453E0,1.2982949E0,2.5698621E0,-2.520635E0,6.8937075E-1],"split_indices":[0,0,0,0,0,0,0,0,1,1,0,0,0,0,0,0,0,0,0,0,0,0,0,0,0,0,0,1,0,0,0,0,0,0,0,0,0,0,0,0,0,0,0,0,0,0,0,0,0,0,0,0,0,0,0,0,0,0,0,0,0,0,0,0,0],"split_type":[0,0,0,0,0,0,0,0,0,0,0,0,0,0,0,0,0,0,0,0,0,0,0,0,0,0,0,0,0,0,0,0,0,0,0,0,0,0,0,0,0,0,0,0,0,0,0,0,0,0,0,0,0,0,0,0,0,0,0,0,0,0,0,0,0],"sum_hessian":[6.338E3,1.9E1,6.319E3,3.3E1,6.286E3,9.67E2,5.319E3,8.25E2,1.42E2,1.75E2,5.144E3,7.41E2,8.4E1,3.3E1,1.09E2,1.2E1,1.63E2,1.8E1,5.126E3,7.09E2,3.2E1,2E1,6.4E1,2E1,1.3E1,9.6E1,1.3E1,1.25E2,3.8E1,5.47E2,4.579E3,6.71E2,3.8E1,1.3E1,1.9E1,1E1,5.4E1,3.8E1,5.8E1,3.7E1,8.8E1,1.5E1,2.3E1,4.85E2,6.2E1,9.3E1,4.486E3,6.4E2,3.1E1,9E0,2.9E1,3.8E1,1.6E1,1.6E1,4.2E1,6.6E1,2.2E1,4.66E2,1.9E1,5E1,1.2E1,7.8E1,1.5E1,1.1E1,4.475E3],"tree_param":{"num_deleted":"0","num_feature":"2","num_nodes":"65","size_leaf_vector":"0"}},{"base_weights":[1.5637596E0,1.589506E0,-4.21413E-2,1.494095E0,2.0650325E0,-2.1438282E0,1.1048717E0,1.5816019E0,4.256087E-1,6.0387325E0,1.8241838E0,-4.881005E-1,-5.8624725E0,1.6377861E0,1.6538087E-1,1.4965315E0,3.6984327E0,3.0753682E0,-4.005602E-1,4.760045E0,1.0650254E1,9.4243336E-1,2.2834203E0,-9.645735E-2,-8.723239E-1,1.6063603E0,5.3428644E-1,4.16791E0,1.6395433E0,1.471198E0,1.213697E1,-3.5351562E0,1.6205451E-1,5.368013E0,2.227062E0,1.2036514E0,-6.9322896E0,4.353763E0,1.3765968E0,1.5069667E0,3.0570705E0,-5.474837E-1,1.8788762E0,3.5985389E0,7.3170457E0,7.204231E-1,6.1833634E0,2.5286243E0,-2.601294E-1,-8.387097E-1,1.801972E0,6.667784E0,2.767649E0,-9.4827074E-1,2.3138435E0,1.6201466E0,2.5416937E-1,2.7841532E0,5.267686E0,6.2245256E-1,-2.7784884E0,3.1634424E0,3.2332414E-1,5.782666E0,2.9357839E0,4.193578E0,-6.292598E-1,2.990989E0,1.8230329E0,-6.7433367E0,3.5400528E-1,2.6267142E0,-3.7765422E0,3.8635218E0,1.1017565E0,9.49771E0,5.96647E0,1.5689372E0,6.392353E0,-1.6628486E-1,-7.9733524E0,1.9077783E0,9.935225E0,1.503183E0,6.167466E0,-1.0566463E1,8.5252964E-1,-5.9159665E0,1.1871446E0,-1.2794293E0,-3.929134E0,1.6948723E0,1.37419615E1,5.319323E0,-8.048172E-1,3.466055E0,9.258389E0,3.331739E0,1.1655792E0,2.1339386E0,5.6847425E0,1.4336973E-1,-1.8726356E0,-1.4027474E0,1.0938021E0,3.7271059E0,1.380394E0,-3.0367348E0,-4.2774334E0,1.1947576E0,8.261681E0,-5.6922793E-1,3.105798E0,4.707917E0,6.769932E0,3.4108276E0,9.5892954E-1,2.988116E0,1.0966012E1,-2.316303E0,9.896534E-2,-2.7690158E0,2.4450498E0],"categories":[],"categories_nodes":[],"categories_segments":[],"categories_sizes":[],"default_left":[true,true,true,true,true,true,true,true,true,true,true,true,false,false,false,true,true,true,true,true,false,true,true,false,false,true,true,true,false,true,false,false,true,false,false,true,false,true,true,true,true,true,true,true,false,true,false,true,true,true,true,true,true,true,true,true,true,false,false,true,true,true,true,true,true,true,true,false,false,false,true,true,true,true,true,false,true,true,true,true,false,true,false,false,false,false,false,false,false,false,false,false,false,false,false,false,false,false,false,false,false,false,false,false,false,false,false,false,false,false,false,false,false,false,false,false,false,false,false,false,false,false,false],"id":14,"left_children":[1,3,5,7,9,11,13,15,17,19,21,23,-1,-1,-1,25,27,29,31,33,-1,35,37,-1,-1,39,41,43,-1,45,-1,-1,47,-1,-1,49,-1,51,53,55,57,59,61,63,-1,65,-1,67,69,71,73,75,77,79,81,83,85,-1,-1,87,89,91,93,95,97,99,101,-1,-1,-1,103,105,107,109,111,-1,113,115,117,119,-1,121,-1,-1,-1,-1,-1,-1,-1,-1,-1,-1,-1,-1,-1,-1,-1,-1,-1,-1,-1,-1,-1,-1,-1,-1,-1,-1,-1,-1,-1,-1,-1,-1,-1,-1,-1,-1,-1,-1,-1,-1,-1],"loss_changes":[2.6216113E2,2.7998145E2,2.4584555E2,4.8552637E2,9.8432666E2,2.1879276E2,3.277324E1,8.5992773E2,8.659457E2,2.9720898E2,3.9549146E2,3.828298E0,0E0,0E0,0E0,4.8760547E2,1.7198804E2,1.3485612E3,5.33171E2,6.1963867E1,0E0,7.036167E2,1.2049524E3,0E0,0E0,5.93499E2,6.919337E2,2.4262329E2,0E0,2.8210516E2,0E0,0E0,2.574336E2,0E0,0E0,4.02323E2,0E0,7.0092505E2,9.827325E2,5.5030566E2,1.452124E2,6.908047E2,4.2259766E2,1.6975623E2,0E0,3.3546252E2,0E0,7.270706E0,8.743493E2,7.734824E2,3.6239978E2,1.0012085E2,5.0267786E2,7.12831E2,9.7446924E2,1.8852529E3,2.100316E3,0E0,0E0,6.494647E2,1.519375E2,1.7788036E3,5.509918E2,2.0141498E2,6.690967E1,4.929431E1,5.0223267E1,0E0,0E0,0E0,2.6276196E2,4.285553E1,2.2036743E0,7.413388E2,6.413738E2,0E0,3.48667E1,9.785031E1,4.187572E2,6.752377E1,0E0,7.7565894E2,0E0,0E0,0E0,0E0,0E0,0E0,0E0,0E0,0E0,0E0,0E0,0E0,0E0,0E0,0E0,0E0,0E0,0E0,0E0,0E0,0E0,0E0,0E0,0E0,0E0,0E0,0E0,0E0,0E0,0E0,0E0,0E0,0E0,0E0,0E0,0E0,0E0,0E0,0E0,0E0,0E0],"parents":[2147483647,0,0,1,1,2,2,3,3,4,4,5,5,6,6,7,7,8,8,9,9,10,10,11,11,15,15,16,16,17,17,18,18,19,19,21,21,22,22,25,25,26,26,27,27,29,29,32,32,35,35,37,37,38,38,39,39,40,40,41,41,42,42,43,43,45,45,47,47,48,48,49,49,50,50,51,51,52,52,53,53,54,54,55,55,56,56,59,59,60,60,61,61,62,62,63,63,64,64,65,65,66,66,70,70,71,71,72,72,73,73,74,74,76,76,77,77,78,78,79,79,81,81],"right_children":[2,4,6,8,10,12,14,16,18,20,22,24,-1,-1,-1,26,28,30,32,34,-1,36,38,-1,-1,40,42,44,-1,46,-1,-1,48,-1,-1,50,-1,52,54,56,58,60,62,64,-1,66,-1,68,70,72,74,76,78,80,82,84,86,-1,-1,88,90,92,94,96,98,100,102,-1,-1,-1,104,106,108,110,112,-1,114,116,118,120,-1,122,-1,-1,-1,-1,-1,-1,-1,-1,-1,-1,-1,-1,-1,-1,-1,-1,-1,-1,-1,-1,-1,-1,-1,-1,-1,-1,-1,-1,-1,-1,-1,-1,-1,-1,-1,-1,-1,-1,-1,-1,-1],"split_conditions":[9.56996E1,5.043165E1,-2.0535954E1,4.3456375E1,5.103382E1,-2.5429459E1,1.1432474E2,3.8707436E1,-5.864689E1,5.086883E1,-9.696626E0,1.1444992E2,-1.7587419E0,4.9133587E-1,4.961426E-2,2.0648113E1,-6.5897045E0,-6.5570724E1,4.4420734E1,5.0727554E1,3.1950765E0,-1.06994915E1,7.62391E1,-2.8937206E-2,-2.6169717E-1,1.8079735E1,2.9811104E1,-2.1292885E1,4.91863E-1,4.9322582E1,3.641091E0,-1.0605469E0,4.819114E1,1.6104039E0,6.681186E-1,5.4483093E1,-2.0796869E0,6.542957E1,7.5880356E1,-3.1499714E-1,1.9990585E1,2.783638E1,3.4742657E1,-4.8612373E1,2.195114E0,4.544497E1,1.8550091E0,4.6331703E1,-3.246283E1,5.2575264E1,-5.251694E1,5.3260666E1,4.847654E1,7.417882E1,1.5122462E2,-5.8619423E0,4.3536282E-1,8.35246E-1,1.5803058E0,2.109856E1,-3.6421005E1,3.426708E1,-9.4768555E1,4.070828E1,4.2587967E1,4.4871723E1,4.8055786E1,8.972967E-1,5.4690987E-1,-2.0230012E0,4.8609337E1,-5.9487034E1,5.33376E1,-7.392851E1,-3.44468E1,2.8493133E0,5.928586E1,7.1736445E0,7.6894104E1,5.1212837E1,-2.392006E0,1.4065099E2,2.9805675E0,4.509549E-1,1.8502399E0,-3.1699393E0,2.557589E-1,-1.77479E0,3.5614341E-1,-3.8382882E-1,-1.1787403E0,5.084617E-1,4.1225886E0,1.595797E0,-2.4144517E-1,1.0398165E0,2.7775168E0,9.9952173E-1,3.4967378E-1,6.401816E-1,1.7054228E0,4.301092E-2,-5.617907E-1,-4.2082423E-1,3.2814065E-1,1.1181318E0,4.141182E-1,-9.1102046E-1,-1.2832301E0,3.584273E-1,2.4785042E0,-1.7076838E-1,9.3173945E-1,1.4123752E0,2.0309796E0,1.0232483E0,2.8767887E-1,8.9643484E-1,3.2898037E0,-6.948909E-1,2.9689603E-2,-8.3070475E-1,7.3351496E-1],"split_indices":[0,0,1,0,0,1,0,0,1,0,1,0,0,0,0,0,1,1,0,0,0,1,1,0,0,0,0,1,0,0,0,0,0,0,0,0,0,0,0,0,0,0,0,1,0,0,0,0,1,0,1,0,1,0,1,0,0,0,0,0,1,0,1,0,0,0,0,0,0,0,0,1,0,1,1,0,0,1,0,0,0,1,0,0,0,0,0,0,0,0,0,0,0,0,0,0,0,0,0,0,0,0,0,0,0,0,0,0,0,0,0,0,0,0,0,0,0,0,0,0,0,0,0],"split_type":[0,0,0,0,0,0,0,0,0,0,0,0,0,0,0,0,0,0,0,0,0,0,0,0,0,0,0,0,0,0,0,0,0,0,0,0,0,0,0,0,0,0,0,0,0,0,0,0,0,0,0,0,0,0,0,0,0,0,0,0,0,0,0,0,0,0,0,0,0,0,0,0,0,0,0,0,0,0,0,0,0,0,0,0,0,0,0,0,0,0,0,0,0,0,0,0,0,0,0,0,0,0,0,0,0,0,0,0,0,0,0,0,0,0,0,0,0,0,0,0,0,0,0],"sum_hessian":[6.338E3,6.238E3,1E2,5.199E3,1.039E3,3.5E1,6.5E1,4.805E3,3.94E2,5.8E1,9.81E2,2.5E1,1E1,4.1E1,2.4E1,4.621E3,1.84E2,9.3E1,3.01E2,4.7E1,1.1E1,3.37E2,6.44E2,1.3E1,1.2E1,4.147E3,4.74E2,1.49E2,3.5E1,8E1,1.3E1,4.5E1,2.56E2,3.7E1,1E1,3.27E2,1E1,1.95E2,4.49E2,3.883E3,2.64E2,2.63E2,2.11E2,1.28E2,2.1E1,7E1,1E1,3.8E1,2.18E2,7.4E1,2.53E2,7.8E1,1.17E2,1.29E2,3.2E2,3.561E3,3.22E2,2.37E2,2.7E1,1.73E2,9E1,1.15E2,9.6E1,2.8E1,1E2,1.9E1,5.1E1,2.1E1,1.7E1,1.8E1,2E2,3.4E1,4E1,6.3E1,1.9E2,1.3E1,6.5E1,8.9E1,2.8E1,1.17E2,1.2E1,3.05E2,1.5E1,3.473E3,8.8E1,1.6E1,3.06E2,1.3E1,1.6E2,4E1,5E1,1.02E2,1.3E1,1.7E1,7.9E1,1.8E1,1E1,8.1E1,1.9E1,9E0,1E1,3.2E1,1.9E1,5.9E1,1.41E2,1.7E1,1.7E1,1.9E1,2.1E1,4E1,2.3E1,1.04E2,8.6E1,2.8E1,3.7E1,2.1E1,6.8E1,1.7E1,1.1E1,1.2E1,1.05E2,3.1E1,2.74E2],"tree_param":{"num_deleted":"0","num_feature":"2","num_nodes":"123","size_leaf_vector":"0"}},{"base_weights":[1.1001018E0,1.7070601E0,1.046704E0,9.253206E-1,6.0348535E0,-3.3935723E0,1.1137869E0,1.5369321E0,-1.1176226E1,1.5364474E1,2.0952797E0,-8.573177E-1,-1.7764767E1,1.7514132E1,1.0821251E0,4.920145E-1,4.9930964E0,-3.184419E0,1.4923445E0,1.4099375E0,9.4520843E-1,1.8830464E0,-1.9256907E0,8.281118E0,2.3914595E0,-1.1581159E0,-4.7696114E0,7.6183504E-1,3.4615874E0,7.9340285E-1,2.954111E0,-6.6559477E0,9.846122E-1,1.2804826E0,8.84548E0,-1.2740332E0,-4.8440275E0,9.309347E0,4.93477E0,1.7213554E0,-3.8917652E-1,1.2867289E0,-1.8705791E0,5.855966E0,2.2434704E0,-1.4937989E0,1.0301089E0,4.5246735E0,6.6031784E-1,-2.868102E0,2.0535474E0,1.04267E0,9.297777E0,-6.7277894E0,1.1089948E0,7.8326173E0,2.991672E0,-5.168458E-1,3.4517453E0,-1.1764766E1,7.195842E-1,8.709295E0,9.9082696E-1,4.0693855E0,1.6859163E-1,-4.0766196E0,-1.8107069E0,1.1872354E0,-6.4078636E0,-1.0538751E1,8.456448E0,2.348422E0,-2.445153E0,6.361169E0,9.750646E0,-2.1427224E0,5.682159E0,5.9049025E0,9.1790706E-1,-1.2588083E0,6.870575E0,3.0870134E-1,1.131422E0],"categories":[],"categories_nodes":[],"categories_segments":[],"categories_sizes":[],"default_left":[true,true,true,true,true,true,true,true,false,false,false,true,false,false,true,true,true,true,true,true,true,true,true,true,false,false,false,true,false,true,true,false,true,true,false,true,false,false,false,false,false,true,true,true,true,true,true,false,true,true,false,true,false,true,true,true,false,true,true,false,true,false,true,false,false,false,false,false,false,false,false,false,false,false,false,false,false,false,false,false,false,false,false],"id":15,"left_children":[1,3,5,7,9,11,13,15,-1,-1,-1,17,-1,-1,19,21,23,25,27,29,31,33,35,37,-1,-1,-1,39,-1,41,43,-1,45,47,-1,49,-1,-1,-1,-1,-1,51,53,55,57,59,61,-1,63,65,-1,67,-1,69,71,73,-1,75,77,-1,79,-1,81,-1,-1,-1,-1,-1,-1,-1,-1,-1,-1,-1,-1,-1,-1,-1,-1,-1,-1,-1,-1],"loss_changes":[2.0366162E2,1.7232345E3,1.7400454E3,3.2294043E3,2.834676E3,3.1558335E3,2.963191E3,1.4926658E3,0E0,0E0,0E0,4.148449E2,0E0,0E0,2.5598096E2,1.0764568E3,8.014031E2,1.1653528E2,5.202777E1,1.6037417E3,1.2186882E3,8.403215E2,2.1633398E2,9.857446E1,0E0,0E0,0E0,3.2698063E1,0E0,1.5886604E3,9.7876904E2,0E0,4.556211E2,3.752557E2,0E0,5.2041583E2,0E0,0E0,0E0,0E0,0E0,1.9826202E3,2.742748E3,5.087683E2,1.2958495E3,1.6680175E3,1.1844106E3,0E0,2.658501E2,7.695856E1,0E0,1.0739253E3,0E0,4.2555107E3,5.255449E2,9.319995E1,0E0,1.2115543E3,1.672874E3,0E0,7.509623E2,0E0,3.7712695E2,0E0,0E0,0E0,0E0,0E0,0E0,0E0,0E0,0E0,0E0,0E0,0E0,0E0,0E0,0E0,0E0,0E0,0E0,0E0,0E0],"parents":[2147483647,0,0,1,1,2,2,3,3,4,4,5,5,6,6,7,7,11,11,14,14,15,15,16,16,17,17,18,18,19,19,20,20,21,21,22,22,23,23,27,27,29,29,30,30,32,32,33,33,35,35,41,41,42,42,43,43,44,44,45,45,46,46,48,48,49,49,51,51,53,53,54,54,55,55,57,57,58,58,60,60,62,62],"right_children":[2,4,6,8,10,12,14,16,-1,-1,-1,18,-1,-1,20,22,24,26,28,30,32,34,36,38,-1,-1,-1,40,-1,42,44,-1,46,48,-1,50,-1,-1,-1,-1,-1,52,54,56,58,60,62,-1,64,66,-1,68,-1,70,72,74,-1,76,78,-1,80,-1,82,-1,-1,-1,-1,-1,-1,-1,-1,-1,-1,-1,-1,-1,-1,-1,-1,-1,-1,-1,-1],"split_conditions":[-1.4169534E2,-1.4535567E2,-1.25723465E2,-1.4587685E2,-1.4339833E2,-1.2601124E2,-1.2486018E2,-6.291777E1,-3.3528678E0,4.6093426E0,6.285839E-1,-5.712133E1,-5.32943E0,5.2542396E0,-4.4799973E1,-1.6746559E2,-4.4473194E1,-1.4035327E2,-1.2750351E2,-5.1295944E1,-4.460298E1,-1.6832768E2,-1.5639336E2,-1.5220879E2,7.1743786E-1,-3.4743476E-1,-1.4308834E0,-1.2801343E2,1.0384762E0,-5.4530373E1,-8.022836E1,-1.9967843E0,-1.1868306E2,-1.05803246E2,2.653644E0,-1.6316284E2,-1.4532083E0,2.7928042E0,1.4804311E0,5.1640666E-1,-1.1675296E-1,-5.5801506E1,-5.3331818E1,-4.7313522E1,-6.771463E1,-3.6242096E1,-1.16448074E2,1.3574021E0,-1.769274E2,-1.66123E2,6.1606425E-1,-5.645868E1,2.7893333E0,-3.7518745E1,-5.179187E1,-8.92025E1,8.9750165E-1,-4.6357124E1,-1.5894028E1,-3.52943E0,-1.3758368E1,2.6127887E0,-7.590196E1,1.2208157E0,5.057749E-2,-1.222986E0,-5.4321206E-1,3.5617062E-1,-1.9223591E0,-3.1616254E0,2.5369344E0,7.0452666E-1,-7.335459E-1,1.9083507E0,2.9251938E0,-6.428167E-1,1.7046478E0,1.7714708E0,2.7537212E-1,-3.7764248E-1,2.0611725E0,9.2610404E-2,3.3942664E-1],"split_indices":[0,0,0,0,0,0,0,1,0,0,0,1,0,0,1,0,1,0,0,1,1,0,0,0,0,0,0,0,0,1,0,0,0,1,0,0,0,0,0,0,0,1,1,1,0,1,0,0,0,0,0,1,0,0,1,0,0,1,0,0,1,0,0,0,0,0,0,0,0,0,0,0,0,0,0,0,0,0,0,0,0,0,0],"split_type":[0,0,0,0,0,0,0,0,0,0,0,0,0,0,0,0,0,0,0,0,0,0,0,0,0,0,0,0,0,0,0,0,0,0,0,0,0,0,0,0,0,0,0,0,0,0,0,0,0,0,0,0,0,0,0,0,0,0,0,0,0,0,0,0,0,0,0,0,0,0,0,0,0,0,0,0,0,0,0,0,0,0,0],"sum_hessian":[6.338E3,5.1E2,5.828E3,4.33E2,7.7E1,8.6E1,5.742E3,4.13E2,2E1,2.2E1,5.5E1,7.4E1,1.2E1,1E1,5.732E3,3.18E2,9.5E1,3.7E1,3.7E1,1.686E3,4.046E3,2.02E2,1.16E2,4.1E1,5.4E1,1.7E1,2E1,2.8E1,9E0,1.206E3,4.8E2,2E1,4.026E3,1.87E2,1.5E1,9.6E1,2E1,3E1,1.1E1,1.5E1,1.3E1,1.018E3,1.88E2,9.3E1,3.87E2,7.2E1,3.954E3,2.9E1,1.58E2,6.5E1,3.1E1,9.89E2,2.9E1,7.1E1,1.17E2,5.4E1,3.9E1,1.18E2,2.69E2,1.2E1,6E1,1.9E1,3.935E3,1.9E1,1.39E2,2.9E1,3.6E1,9.71E2,1.8E1,5.7E1,1.4E1,8.7E1,3E1,3.3E1,2.1E1,9.4E1,2.4E1,1.36E2,1.33E2,4.6E1,1.4E1,6.73E2,3.262E3],"tree_param":{"num_deleted":"0","num_feature":"2","num_nodes":"83","size_leaf_vector":"0"}},{"base_weights":[7.728693E-1,8.0454993E-1,-1.3325521E-1,7.728102E-1,1.4603736E1,-1.8931893E0,2.1947192E-1,8.010883E-1,-7.880745E0,-6.869513E-1,-4.5721893E0,5.87589E-1,-1.5688196E0,7.7769685E-1,6.0275583E0,-3.8477978E-1,-9.595243E-1,7.4080247E-1,-2.0811035E-1,-3.0969093E0,1.9498596E0,7.9710966E-1,-2.0260959E0,8.093628E0,3.1799738E0,3.993388E-1,8.342886E-1,7.7935535E-1,8.949204E0,-1.0651772E0,-2.293096E0,6.5712893E-1,1.0367771E0,7.6497835E-1,2.5139213E0,7.787241E-1,-4.091007E0,-4.0563965E-1,5.831931E0],"categories":[],"categories_nodes":[],"categories_segments":[],"categories_sizes":[],"default_left":[true,true,true,true,false,true,true,true,false,true,false,true,true,true,true,false,false,true,false,false,false,true,true,false,false,false,true,true,false,false,false,false,false,true,true,false,false,false,false],"id":16,"left_children":[1,3,5,7,-1,9,11,13,-1,15,-1,17,19,21,23,-1,-1,25,-1,-1,-1,27,29,-1,-1,-1,31,33,-1,-1,-1,-1,-1,35,37,-1,-1,-1,-1],"loss_changes":[1.8207837E2,2.6713552E3,1.3388245E2,1.5019553E3,0E0,1.1319356E2,1.1941594E2,7.402097E2,0E0,1.772253E0,0E0,1.8440945E1,1.7272112E2,3.3183862E2,1.3311182E2,0E0,0E0,3.6890259E0,0E0,0E0,0E0,8.651968E2,8.333191E0,0E0,0E0,0E0,2.8342361E0,1.4805298E2,0E0,0E0,0E0,0E0,0E0,4.0140918E2,4.770351E2,0E0,0E0,0E0,0E0],"parents":[2147483647,0,0,1,1,2,2,3,3,5,5,6,6,7,7,9,9,11,11,12,12,13,13,14,14,17,17,21,21,22,22,26,26,27,27,33,33,34,34],"right_children":[2,4,6,8,-1,10,12,14,-1,16,-1,18,20,22,24,-1,-1,26,-1,-1,-1,28,30,-1,-1,-1,32,34,-1,-1,-1,-1,-1,36,38,-1,-1,-1,-1],"split_conditions":[8.680448E1,8.669241E1,-2.0535954E1,8.627565E1,4.381121E0,-2.5429459E1,1.415552E2,8.543733E1,-2.3642235E0,1.1444992E2,-1.3716569E0,1.1432474E2,1.4238577E2,8.497232E1,1.4262146E2,-1.1543394E-1,-2.878573E-1,1.8787893E1,-6.2433105E-2,-9.290728E-1,5.849579E-1,8.461088E1,8.5148865E1,2.4280884E0,9.539922E-1,1.1980165E-1,9.528497E1,8.1395065E1,2.6847615E0,-3.1955317E-1,-6.8792886E-1,1.9713868E-1,3.1103316E-1,8.082623E1,1.4888736E2,2.3361723E-1,-1.2273022E0,-1.216919E-1,1.7495794E0],"split_indices":[0,0,1,0,0,1,1,0,0,0,0,0,1,0,1,0,0,1,0,0,0,0,0,0,0,0,0,0,0,0,0,0,0,0,1,0,0,0,0],"split_type":[0,0,0,0,0,0,0,0,0,0,0,0,0,0,0,0,0,0,0,0,0,0,0,0,0,0,0,0,0,0,0,0,0,0,0,0,0,0,0],"sum_hessian":[6.338E3,6.124E3,2.14E2,6.111E3,1.3E1,3.5E1,1.79E2,6.092E3,1.9E1,2.5E1,1E1,1.49E2,3E1,6.066E3,2.6E1,1.3E1,1.2E1,1.25E2,2.4E1,2.1E1,9E0,6.025E3,4.1E1,1.4E1,1.2E1,2.8E1,9.7E1,6.013E3,1.2E1,1E1,3.1E1,5.4E1,4.3E1,5.965E3,4.8E1,5.949E3,1.6E1,2.6E1,2.2E1],"tree_param":{"num_deleted":"0","num_feature":"2","num_nodes":"39","size_leaf_vector":"0"}},{"base_weights":[5.4198456E-1,5.222391E-1,1.5193927E0,5.522692E-1,-5.822125E-1,2.3573904E0,-5.3739643E-1,5.178933E-1,2.9028416E0,-6.4012294E0,6.026765E-1,3.541788E0,1.8123726E0,-1.3926734E0,1.1487051E0,5.3009105E-1,-1.690801E0,1.053554E1,1.4195899E0,7.785087E0,-1.92703E-2,2.3630557E0,4.467536E0,-5.429077E-1,2.9204776E0,5.16577E-1,5.8274007E0,-4.2280273E0,-2.3000474E-1,2.804534E0,1.7227402E-1,-9.2556995E-1,4.158427E0,3.5943916E0,2.1138146E0,8.542968E-1,4.461707E-1,-1.3433603E0,5.02706E0,-1.7073445E0,1.2500434E0,-3.5848842E0,1.22546904E-1,4.8214477E-1,3.1332843E0,-2.3819997E0,5.514219E-1,7.073611E0,1.6591828E0,-7.1032894E-1,4.457672E0,2.087236E0,-6.115185E0,-9.7919726E-1,2.321322E0,7.287286E-1,-1.8269104E0,3.956539E0,1.3112789E0,-1.2975386E0,-9.19619E0,1.2830421E1,5.0174004E-1,-1.6202531E0,1.2750474E-1],"categories":[],"categories_nodes":[],"categories_segments":[],"categories_sizes":[],"default_left":[true,true,true,true,true,true,true,true,true,false,true,true,true,false,false,true,true,false,true,false,true,false,false,false,true,true,false,false,false,true,true,true,false,false,false,true,true,false,true,false,true,true,true,true,true,true,true,false,false,false,false,false,false,true,false,false,false,false,false,false,false,false,false,false,false],"id":17,"left_children":[1,3,5,7,9,11,13,15,17,-1,19,21,23,-1,-1,25,27,-1,29,-1,31,-1,-1,-1,33,35,-1,-1,-1,37,39,41,-1,-1,-1,43,45,-1,47,-1,49,51,53,55,57,59,61,-1,-1,-1,-1,-1,-1,63,-1,-1,-1,-1,-1,-1,-1,-1,-1,-1,-1],"loss_changes":[1.21545166E2,2.0645325E2,2.1671497E2,4.8743542E2,1.1415146E3,5.1032043E1,5.495687E1,1.6159949E2,9.699893E2,0E0,6.166067E2,1.890561E1,1.6600911E2,0E0,0E0,4.2172217E2,1.21337776E2,0E0,1.27349106E2,0E0,4.8848828E2,0E0,0E0,0E0,1.5777863E1,1.4035852E2,0E0,0E0,0E0,3.2941122E2,8.316608E1,2.9589017E2,0E0,0E0,0E0,8.6358167E2,1.4598882E3,0E0,1.4679181E2,0E0,1.6665822E2,4.4332895E2,1.8880458E2,5.0124316E2,2.0930823E2,1.288659E3,2.8760168E3,0E0,0E0,0E0,0E0,0E0,0E0,3.7098392E1,0E0,0E0,0E0,0E0,0E0,0E0,0E0,0E0,0E0,0E0,0E0],"parents":[2147483647,0,0,1,1,2,2,3,3,4,4,5,5,6,6,7,7,8,8,10,10,11,11,12,12,15,15,16,16,18,18,20,20,24,24,25,25,29,29,30,30,31,31,35,35,36,36,38,38,40,40,41,41,42,42,43,43,44,44,45,45,46,46,53,53],"right_children":[2,4,6,8,10,12,14,16,18,-1,20,22,24,-1,-1,26,28,-1,30,-1,32,-1,-1,-1,34,36,-1,-1,-1,38,40,42,-1,-1,-1,44,46,-1,48,-1,50,52,54,56,58,60,62,-1,-1,-1,-1,-1,-1,64,-1,-1,-1,-1,-1,-1,-1,-1,-1,-1,-1],"split_conditions":[1.5422635E2,1.4777545E2,1.7747937E2,1.4166486E2,1.4876369E2,-5.1861984E1,-5.4597885E1,1.4133356E2,1.418636E2,-1.9203689E0,1.4903674E2,-5.7730957E1,-4.522133E1,-4.1780204E-1,3.4461156E-1,1.410575E2,8.6993484E1,3.160662E0,8.497232E1,2.3355262E0,8.1395065E1,7.089167E-1,1.3402609E0,-1.6287231E-1,2.9220043E1,-9.64867E1,1.7482203E0,-1.2684083E0,-6.900143E-2,8.1306145E1,1.4298189E2,1.499664E2,1.2475281E0,1.0783175E0,6.341444E-1,-1.01539825E2,-8.6363754E1,-4.030081E-1,8.475224E1,-5.122034E-1,8.604262E1,7.9129196E1,7.36189E1,-1.1125871E2,-9.8053635E1,-8.663606E1,-8.623396E1,2.1220834E0,4.9775484E-1,-2.1309869E-1,1.3373017E0,6.261708E-1,-1.8345555E0,-1.1438337E1,6.963966E-1,2.1861859E-1,-5.480731E-1,1.1869618E0,3.933837E-1,-3.892616E-1,-2.758857E0,3.8491266E0,1.5052202E-1,-4.8607594E-1,3.8251422E-2],"split_indices":[1,1,1,1,1,0,0,1,1,0,1,0,0,0,0,1,0,0,0,0,0,0,0,0,0,0,0,0,0,0,1,1,0,0,0,0,0,0,0,0,0,0,0,0,0,0,0,0,0,0,0,0,0,0,0,0,0,0,0,0,0,0,0,0,0],"split_type":[0,0,0,0,0,0,0,0,0,0,0,0,0,0,0,0,0,0,0,0,0,0,0,0,0,0,0,0,0,0,0,0,0,0,0,0,0,0,0,0,0,0,0,0,0,0,0,0,0,0,0,0,0,0,0,0,0,0,0,0,0,0,0,0,0],"sum_hessian":[6.338E3,6.214E3,1.24E2,6.05E3,1.64E2,8.8E1,3.6E1,5.964E3,8.6E1,2.7E1,1.37E2,2.6E1,6.2E1,2.4E1,1.2E1,5.932E3,3.2E1,1.3E1,7.3E1,1E1,1.27E2,1.3E1,1.3E1,2E1,4.2E1,5.918E3,1.4E1,1.1E1,2.1E1,3.4E1,3.9E1,1.05E2,2.2E1,2.1E1,2.1E1,1.019E3,4.899E3,1.2E1,2.2E1,1.4E1,2.5E1,2.9E1,7.6E1,8.77E2,1.42E2,1.75E2,4.724E3,1.3E1,9E0,1.6E1,9E0,9E0,2E1,5.1E1,2.5E1,7.93E2,8.4E1,9.7E1,4.5E1,1.52E2,2.3E1,1.8E1,4.706E3,3.2E1,1.9E1],"tree_param":{"num_deleted":"0","num_feature":"2","num_nodes":"65","size_leaf_vector":"0"}},{"base_weights":[3.8139385E-1,-2.5535592E-1,4.1251504E-1,1.0338931E0,-1.1038254E0,3.8963811E0,3.8807145E-1,-2.2797264E-1,2.0315444E0,-1.5327544E0,5.8376044E-1,2.5447524E0,5.933731E0,-2.4798017E0,4.198821E-1,2.4800026E0,-1.8141942E0,1.3735417E0,2.7753632E0,-2.4049279E-1,-1.8737044E0,3.1130016E0,-1.7217445E0,-3.3315444E0,-1.7221779E0,3.0421543E0,3.8355163E-1,2.3037593E-1,-5.1098937E-1,-2.2881994E0,-5.336947E-1,1.0818727E0,6.1689997E0,-2.007415E0,4.1952366E-1,-3.113961E0,-2.1385734E0,3.048706E-2,-8.413702E0,1.0522973E1,3.7903687E-1,-3.8907166E0,1.7818656E0,-1.3615385E0,4.2303452E-1,1.271937E0,3.1631622E0,-1.6094665E-1,-1.3262724E1,1.2326435E1,3.995731E-1],"categories":[],"categories_nodes":[],"categories_segments":[],"categories_sizes":[],"default_left":[true,true,true,true,true,true,true,true,true,true,true,false,false,true,true,false,false,false,false,true,true,false,false,false,false,true,true,false,false,true,false,false,false,true,true,false,false,true,false,false,true,false,true,true,true,false,false,false,false,false,false],"id":18,"left_children":[1,3,5,7,9,11,13,15,17,19,21,-1,-1,23,25,-1,-1,-1,-1,27,29,-1,-1,-1,-1,31,33,-1,-1,35,-1,-1,-1,37,39,-1,-1,41,-1,-1,43,-1,45,47,49,-1,-1,-1,-1,-1,-1],"loss_changes":[1.2572156E2,3.2493222E2,5.131842E2,1.4901358E2,1.3046475E2,1.0055725E2,5.4868805E2,2.3215799E2,2.84906E1,6.2554688E1,2.2111337E2,0E0,0E0,3.6852295E1,5.64537E2,0E0,0E0,0E0,0E0,4.066139E0,6.1542114E1,0E0,0E0,0E0,0E0,4.898152E2,5.0467657E2,0E0,0E0,3.966339E0,0E0,0E0,0E0,1.1360751E3,2.357082E3,0E0,0E0,4.67056E2,0E0,0E0,4.4091772E2,0E0,2.9081696E1,2.0268274E3,1.5615032E3,0E0,0E0,0E0,0E0,0E0,0E0],"parents":[2147483647,0,0,1,1,2,2,3,3,4,4,5,5,6,6,7,7,8,8,9,9,10,10,13,13,14,14,19,19,20,20,25,25,26,26,29,29,33,33,34,34,37,37,40,40,42,42,43,43,44,44],"right_children":[2,4,6,8,10,12,14,16,18,20,22,-1,-1,24,26,-1,-1,-1,-1,28,30,-1,-1,-1,-1,32,34,-1,-1,36,-1,-1,-1,38,40,-1,-1,42,-1,-1,44,-1,46,48,50,-1,-1,-1,-1,-1,-1],"split_conditions":[-8.837352E1,-1.7468765E2,-1.6746559E2,-1.7626901E2,2.5832499E1,-1.6832768E2,-1.6381781E2,-1.769274E2,-1.7557689E2,-9.691402E1,3.789489E1,7.6342577E-1,1.7801194E0,-1.66123E2,-1.5519681E2,7.440008E-1,-5.442583E-1,4.1206253E-1,8.32609E-1,-5.962016E0,-8.941681E1,9.3390054E-1,-5.1652336E-1,-9.994634E-1,-5.1665336E-1,-1.5953857E2,-1.4535567E2,6.9112785E-2,-1.5329681E-1,-1.7286467E2,-1.6010842E-1,3.2456183E-1,1.8507E0,-1.4587685E2,-1.4339833E2,-9.341883E-1,-6.4157206E-1,-1.4920273E2,-2.5241108E0,3.156892E0,-1.25723465E2,-1.167215E0,-1.462147E2,-1.2601124E2,-1.2486018E2,3.8158113E-1,9.489487E-1,-4.8283998E-2,-3.9788172E0,3.6979306E0,1.1987193E-1],"split_indices":[1,0,0,0,0,0,0,0,0,1,0,0,0,0,0,0,0,0,0,0,1,0,0,0,0,0,0,0,0,0,0,0,0,0,0,0,0,0,0,0,0,0,0,0,0,0,0,0,0,0,0],"split_type":[0,0,0,0,0,0,0,0,0,0,0,0,0,0,0,0,0,0,0,0,0,0,0,0,0,0,0,0,0,0,0,0,0,0,0,0,0,0,0,0,0,0,0,0,0,0,0,0,0,0,0],"sum_hessian":[6.338E3,2.95E2,6.043E3,1.17E2,1.78E2,4.1E1,6.002E3,5.2E1,6.5E1,1.42E2,3.6E1,2.6E1,1.5E1,6.5E1,5.937E3,1.9E1,3.3E1,3.6E1,2.9E1,3E1,1.12E2,1.7E1,1.9E1,2.9E1,3.6E1,8E1,5.857E3,1.1E1,1.9E1,8.5E1,2.7E1,5E1,3E1,8.6E1,5.771E3,1E1,7.5E1,6.6E1,2E1,2.2E1,5.749E3,2E1,4.6E1,1.41E2,5.608E3,3.5E1,1.1E1,1.29E2,1.2E1,1E1,5.598E3],"tree_param":{"num_deleted":"0","num_feature":"2","num_nodes":"51","size_leaf_vector":"0"}},{"base_weights":[2.675791E-1,4.5304704E-1,1.817358E-1,2.052272E-1,2.145358E0,-9.1824465E0,2.0768133E-1,-2.9088035E-1,6.147287E-1,1.0747068E1,1.3708613E0,2.8756309E0,1.5927272E-1,4.572612E-1,-5.1369405E0,4.1472926E0,1.6153926E-1,-1.9305688E0,2.5073178E0,8.881234E-1,7.5033383E0,-5.291176E-1,3.1620353E-1,-5.051181E-2,4.6642256E0,-4.1771164E0,-1.0274879E1,6.482381E0,1.2622412E0,-1.7135543E0,4.2489037E-1,-6.3776755E0,-8.246518E-1,4.0403504E0,5.2940077E-1,-2.656144E-1,-6.754314E0,2.3208144E0,2.0484172E-1,3.7573364E-1,-3.166029E0,3.8294573E0,8.286642E0,-6.301354E0,-1.5488074E0,8.21069E0,5.6081495E0,-6.1414094E0,5.618714E0,-5.4394507E0,1.0631489E0,4.7887774E0,9.149339E-2,5.6617983E-2,-2.1493874E0,6.4773045E0,3.301205E0,-1.7214229E0,2.8243635E0,-3.250109E0,7.6612025E-2,-8.764731E0,-5.442091E0,3.8325682E0,1.4684007E0,-9.0957564E-1,3.542847E-1,8.006827E-2,3.8866134E0,-4.6390424E0,6.7251616E0,5.104262E0,2.9467707E0,-7.0698695E0,-5.001885E0,-9.1082835E-1,-2.1434138E0,3.1640646E0,7.595873E0,4.227019E0,7.8913116E0,-6.677173E-1,-1.0861064E1,6.0703163E0,2.8532782E0,3.017963E-1,-2.8144233E0,-7.9819614E-1,5.6667554E-1,5.825184E0,2.3896663E0,-8.5575795E-1,-2.5443E0,1.7060217E0,3.6109903E0,-6.613299E0,-5.373513E-2,8.535225E0,-3.53605E-1,2.9477398E0,7.145132E0,-3.7959757E0,2.2135665E0,-6.056485E-1,-7.9380283E0,3.4906526E0,2.843393E-1,-3.4375277E-1,1.1200699E0,4.3780065E0,2.2932968E0,-1.100943E1,-3.1374927E0,2.3097198E0,3.3828278E0,1.6702779E-1,-1.335519E0,8.187938E0,4.0860376E0,3.6558948E0,1.4442871E0,-6.329829E-1,1.235647E0,-4.317989E0,-1.5212335E-1,1.4394951E0,3.7153537E0,-6.558489E-1,-9.684939E0,2.1634018E0,-7.449112E-1,5.6836495E0,1.1999246E1,-2.0827794E0,1.4359085E-1,1.3297585E0,3.178458E0,2.0579169E0,-9.4078135E-1,1.0940506E0,6.0904465E0,-3.2579992E0,3.1198156E-1],"categories":[],"categories_nodes":[],"categories_segments":[],"categories_sizes":[],"default_left":[true,true,true,true,true,false,true,true,true,false,true,true,true,true,true,true,true,true,true,false,false,true,true,true,true,true,false,true,true,true,true,false,true,true,true,true,true,true,true,true,true,true,false,true,true,false,true,false,true,true,false,true,true,true,false,false,true,true,true,true,true,false,false,true,true,true,true,true,true,true,false,false,true,false,false,false,false,false,false,false,false,true,false,true,true,true,true,false,false,false,true,false,false,false,false,true,true,true,true,false,false,false,true,true,false,true,true,false,false,false,false,false,false,false,false,false,false,false,false,false,false,false,false,false,false,false,false,false,false,false,false,false,false,false,false,false,false,false,false,false,false,false,false],"id":19,"left_children":[1,3,5,7,9,-1,11,13,15,-1,17,19,21,23,25,27,29,31,33,-1,-1,35,37,39,41,43,-1,45,47,49,51,-1,53,55,57,59,61,63,65,67,69,71,-1,73,75,-1,77,-1,79,81,-1,83,85,87,-1,-1,89,91,93,95,97,-1,-1,99,101,103,105,107,109,111,-1,-1,113,-1,-1,-1,-1,-1,-1,-1,-1,115,-1,117,119,121,123,-1,-1,-1,125,-1,-1,-1,-1,127,129,131,133,-1,-1,-1,135,137,-1,139,141,-1,-1,-1,-1,-1,-1,-1,-1,-1,-1,-1,-1,-1,-1,-1,-1,-1,-1,-1,-1,-1,-1,-1,-1,-1,-1,-1,-1,-1,-1,-1,-1,-1,-1,-1,-1],"loss_changes":[1.0084204E2,8.4043317E2,1.0551328E3,3.557032E2,1.6907388E3,0E0,5.579941E2,2.8737756E3,1.5346129E3,0E0,8.902965E2,7.015515E2,4.5907727E2,1.4677932E3,4.798213E2,7.261343E2,4.2095868E2,2.9474658E2,5.3153015E2,0E0,0E0,1.2924492E3,7.7192487E2,8.165663E2,1.9203381E2,4.9830725E2,0E0,4.460962E1,1.647197E3,1.0920823E3,1.0863772E3,0E0,5.8494167E1,1.5694214E2,4.0777533E2,7.7444965E2,3.672119E1,2.289046E2,5.4641296E2,5.612714E2,1.1093677E3,5.472455E1,0E0,1.4570435E1,1.3980263E1,0E0,1.8486731E2,0E0,6.7851685E1,1.1569202E3,0E0,1.1414197E2,4.2557968E2,1.3968455E1,0E0,0E0,1.6553473E2,2.6316124E1,2.814856E1,8.3814557E2,2.4812039E3,0E0,0E0,1.694563E2,4.7129694E2,8.240137E2,6.334385E2,2.2077231E2,2.2843628E1,5.872125E2,0E0,0E0,3.0204468E0,0E0,0E0,0E0,0E0,0E0,0E0,0E0,0E0,1.4159173E1,0E0,9.68042E1,2.0730057E1,5.6732294E2,1.8748148E2,0E0,0E0,0E0,6.896994E1,0E0,0E0,0E0,0E0,6.8901575E2,6.444125E1,2.5777173E2,5.582692E2,0E0,0E0,0E0,8.446243E1,3.348938E2,0E0,3.8586902E2,2.7812503E2,0E0,0E0,0E0,0E0,0E0,0E0,0E0,0E0,0E0,0E0,0E0,0E0,0E0,0E0,0E0,0E0,0E0,0E0,0E0,0E0,0E0,0E0,0E0,0E0,0E0,0E0,0E0,0E0,0E0,0E0,0E0,0E0,0E0,0E0,0E0,0E0],"parents":[2147483647,0,0,1,1,2,2,3,3,4,4,6,6,7,7,8,8,10,10,11,11,12,12,13,13,14,14,15,15,16,16,17,17,18,18,21,21,22,22,23,23,24,24,25,25,27,27,28,28,29,29,30,30,32,32,33,33,34,34,35,35,36,36,37,37,38,38,39,39,40,40,41,41,43,43,44,44,46,46,48,48,49,49,51,51,52,52,53,53,56,56,57,57,58,58,59,59,60,60,63,63,64,64,65,65,66,66,67,67,68,68,69,69,72,72,81,81,83,83,84,84,85,85,86,86,90,90,95,95,96,96,97,97,98,98,102,102,103,103,105,105,106,106],"right_children":[2,4,6,8,10,-1,12,14,16,-1,18,20,22,24,26,28,30,32,34,-1,-1,36,38,40,42,44,-1,46,48,50,52,-1,54,56,58,60,62,64,66,68,70,72,-1,74,76,-1,78,-1,80,82,-1,84,86,88,-1,-1,90,92,94,96,98,-1,-1,100,102,104,106,108,110,112,-1,-1,114,-1,-1,-1,-1,-1,-1,-1,-1,116,-1,118,120,122,124,-1,-1,-1,126,-1,-1,-1,-1,128,130,132,134,-1,-1,-1,136,138,-1,140,142,-1,-1,-1,-1,-1,-1,-1,-1,-1,-1,-1,-1,-1,-1,-1,-1,-1,-1,-1,-1,-1,-1,-1,-1,-1,-1,-1,-1,-1,-1,-1,-1,-1,-1,-1,-1],"split_conditions":[-4.666902E1,-4.967678E1,-4.6357124E1,-4.1116936E1,-4.9512283E1,-2.754734E0,-1.4339833E2,-5.7671444E1,-1.991679E1,3.2241206E0,-4.780565E1,-1.4569353E2,-3.272093E1,-6.472881E1,-4.7616264E1,-5.5282814E1,4.3536282E-1,-4.9366013E1,-4.722035E1,2.6643702E-1,2.2510016E0,-3.342195E1,-2.86405E1,-5.3470024E1,-5.918567E1,-5.6335884E1,-3.082464E0,-3.7801422E1,-3.8057167E1,-5.5525528E1,1.1791673E1,-1.9133028E0,-6.765341E0,-4.7508522E1,-4.6898285E1,-1.1880228E2,-3.8048103E1,4.241494E0,-2.0599113E1,-5.6387375E1,-7.715132E1,-6.3385307E1,2.4859927E0,-5.7004166E1,-5.443553E1,2.463207E0,-3.0095829E1,-1.8424228E0,-3.065654E1,-8.476552E1,3.1894466E-1,-6.048088E1,-5.657427E1,-4.9186794E1,-6.448162E-1,1.9431914E0,-9.729866E1,-6.736458E1,-7.8728294E1,-3.717792E1,-1.1168494E2,-2.6294196E0,-1.6326274E0,-1.12739105E1,2.6716038E1,-2.219873E1,-1.7550098E1,-1.25735275E2,-1.5220879E2,-5.308379E1,2.0175486E0,1.5312786E0,-6.1666054E1,-2.120961E0,-1.5005655E0,-2.7324852E-1,-6.4302415E-1,9.492194E-1,2.2787619E0,1.2681057E0,2.3673935E0,-5.962016E0,-3.2583194E0,5.846962E0,8.712839E-1,3.324887E1,5.0728584E1,-2.3945884E-1,1.7000267E-1,1.7475553E0,-7.527939E1,-2.567274E-1,-7.6329005E-1,5.1180655E-1,1.0832971E0,-1.2699391E2,-1.2564574E2,-1.148217E2,-8.6363754E1,8.84322E-1,2.1435397E0,-1.1387928E0,4.6819138E1,-9.329727E1,-2.3814087E0,-1.7695675E1,-1.6724949E1,-1.0312583E-1,3.3602098E-1,1.3134019E0,6.8798906E-1,-3.302829E0,-9.412478E-1,6.92916E-1,1.0148484E0,5.010834E-2,-4.0065572E-1,2.4563813E0,1.2258114E0,1.0967685E0,4.3328613E-1,-1.8989488E-1,3.706941E-1,-1.2953967E0,-4.5637004E-2,4.3184856E-1,1.1146061E0,-1.9675468E-1,-2.9054818E0,6.4902055E-1,-2.2347337E-1,1.7050949E0,3.599774E0,-6.248338E-1,4.3077257E-2,3.9892757E-1,9.535374E-1,6.173751E-1,-2.8223443E-1,3.282152E-1,1.827134E0,-9.7739977E-1,9.359447E-2],"split_indices":[1,1,1,0,1,0,0,0,0,0,1,0,1,0,0,1,0,1,1,0,0,1,1,1,0,0,0,0,0,1,0,0,0,1,1,0,0,0,1,1,0,0,0,0,0,0,0,0,0,1,0,1,1,1,0,0,0,0,0,1,0,0,0,0,0,1,1,0,0,1,0,0,0,0,0,0,0,0,0,0,0,0,0,0,0,0,0,0,0,0,0,0,0,0,0,0,0,0,0,0,0,0,0,0,0,1,1,0,0,0,0,0,0,0,0,0,0,0,0,0,0,0,0,0,0,0,0,0,0,0,0,0,0,0,0,0,0,0,0,0,0,0,0],"split_type":[0,0,0,0,0,0,0,0,0,0,0,0,0,0,0,0,0,0,0,0,0,0,0,0,0,0,0,0,0,0,0,0,0,0,0,0,0,0,0,0,0,0,0,0,0,0,0,0,0,0,0,0,0,0,0,0,0,0,0,0,0,0,0,0,0,0,0,0,0,0,0,0,0,0,0,0,0,0,0,0,0,0,0,0,0,0,0,0,0,0,0,0,0,0,0,0,0,0,0,0,0,0,0,0,0,0,0,0,0,0,0,0,0,0,0,0,0,0,0,0,0,0,0,0,0,0,0,0,0,0,0,0,0,0,0,0,0,0,0,0,0,0,0],"sum_hessian":[6.338E3,2.004E3,4.334E3,1.749E3,2.55E2,1.1E1,4.323E3,7.91E2,9.58E2,2E1,2.35E2,7.6E1,4.247E3,6.86E2,1.05E2,1.08E2,8.5E2,6E1,1.75E2,5.4E1,2.2E1,7.88E2,3.459E3,6.13E2,7.3E1,9E1,1.5E1,5.9E1,4.9E1,1.04E2,7.46E2,1.1E1,4.9E1,9.8E1,7.7E1,7.57E2,3.1E1,1.81E2,3.278E3,5.4E2,7.3E1,6.1E1,1.2E1,4.9E1,4.1E1,1.7E1,4.2E1,1.8E1,3.1E1,4.4E1,6E1,5.2E1,6.94E2,3E1,1.9E1,2.1E1,7.7E1,3.9E1,3.8E1,7.7E1,6.8E2,1E1,2.1E1,6.4E1,1.17E2,3.87E2,2.891E3,4.99E2,4.1E1,6.4E1,9E0,2.3E1,3.8E1,2.8E1,2.1E1,2.1E1,2E1,2E1,2.2E1,2.1E1,1E1,2.4E1,2E1,3E1,2.2E1,6.48E2,4.6E1,1.1E1,1.9E1,1.9E1,5.8E1,2E1,1.9E1,1.7E1,2.1E1,3.7E1,4E1,3.2E1,6.48E2,5.2E1,1.2E1,1.4E1,1.03E2,3.72E2,1.5E1,6.2E1,2.829E3,3.55E2,1.44E2,3E1,1.1E1,1.1E1,5.3E1,1.8E1,2E1,1.1E1,1.3E1,1.3E1,1.7E1,1.3E1,9E0,3.24E2,3.24E2,2.9E1,1.7E1,3.5E1,2.3E1,1.3E1,2.4E1,9E0,3.1E1,1.9E1,1.3E1,1.44E2,5.04E2,5.5E1,4.8E1,4.1E1,3.31E2,3.3E1,2.9E1,2.1E1,2.808E3],