{"learner":{"attributes":{"best_iteration":"56","best_ntree_limit":"57"},"feature_names":["LD_01","LD_02"],"feature_types":["float","float"],"gradient_booster":{"model":{"gbtree_model_param":{"num_trees":"57","size_leaf_vector":"0"},"tree_info":[0,0,0,0,0,0,0,0,0,0,0,0,0,0,0,0,0,0,0,0,0,0,0,0,0,0,0,0,0,0,0,0,0,0,0,0,0,0,0,0,0,0,0,0,0,0,0,0,0,0,0,0,0,0,0,0,0],"trees":[{"base_weights":[2.1712027E2,2.105317E2,2.2739233E2,1.8713792E2,2.1143916E2,2.1586667E2,2.3381232E2,2.1837395E2,2.0861201E2,2.5314082E2,2.3028542E2,2.0654784E2,2.2315033E2,2.1749948E2,2.4058447E2],"categories":[],"categories_nodes":[],"categories_segments":[],"categories_sizes":[],"default_left":[true,true,true,false,true,false,true,false,true,false,true,false,false,false,false],"id":0,"left_children":[1,3,5,-1,7,-1,9,-1,11,-1,13,-1,-1,-1,-1],"loss_changes":[3.56096E5,3.792E4,1.212E5,0E0,2.3184E4,0E0,4.2456E4,0E0,2.932E4,0E0,1.13724E5,0E0,0E0,0E0,0E0],"parents":[2147483647,0,0,1,1,2,2,4,4,6,6,8,8,10,10],"right_children":[2,4,6,-1,8,-1,10,-1,12,-1,14,-1,-1,-1,-1],"split_conditions":[-3.697366E0,-2.8681083E0,4.8813906E0,5.614138E1,1.4407059E0,6.476E1,5.1279798E0,6.5512184E1,1.6320824E1,7.594225E1,5.9366736E0,6.196435E1,6.69451E1,6.524985E1,7.217535E1],"split_indices":[0,1,1,0,1,0,1,0,1,0,0,0,0,0,0],"split_type":[0,0,0,0,0,0,0,0,0,0,0,0,0,0,0],"sum_hessian":[5.968E3,3.649E3,2.319E3,1.44E2,3.505E3,8.42E2,1.477E3,9.93E2,2.512E3,2.17E2,1.26E3,2.213E3,2.99E2,5.72E2,6.88E2],"tree_param":{"num_deleted":"0","num_feature":"2","num_nodes":"15","size_leaf_vector":"0"}},{"base_weights":[1.5207275E2,1.4744084E2,1.5929451E2,1.3177295E2,1.4812137E2,1.4996529E2,1.6334041E2,1.7174007E2,1.4725845E2,1.5989941E2,1.4334036E2,1.6016187E2,1.7398239E2,1.4633209E2,1.5667659E2,1.5230824E2,1.3297061E2,1.727067E2,1.5532321E2],"categories":[],"categories_nodes":[],"categories_segments":[],"categories_sizes":[],"default_left":[true,true,true,false,true,true,true,false,true,false,true,true,false,false,false,false,false,false,false],"id":1,"left_children":[1,3,5,-1,7,9,11,-1,13,-1,15,17,-1,-1,-1,-1,-1,-1,-1],"loss_changes":[1.7616E5,1.9408E4,6.3072E4,0E0,4.5832E4,2.4071E4,2.6496E4,0E0,6.512E3,0E0,2.0479E4,4.9048E4,0E0,0E0,0E0,0E0,0E0,0E0,0E0],"parents":[2147483647,0,0,1,1,2,2,4,4,5,5,6,6,8,8,10,10,11,11],"right_children":[2,4,6,-1,8,10,12,-1,14,-1,16,18,-1,-1,-1,-1,-1,-1,-1],"split_conditions":[-3.697366E0,-2.0026264E0,3.5902667E0,3.9531887E1,-1.3308291E0,6.556195E-1,1.2154652E1,5.1522022E1,1.6899788E1,4.7969826E1,-7.5984985E-2,-3.29598E0,5.219472E1,4.3899628E1,4.700298E1,4.5692474E1,3.9891186E1,5.181201E1,4.6596966E1],"split_indices":[0,1,1,0,1,1,0,0,1,0,0,0,0,0,0,0,0,0,0],"split_type":[0,0,0,0,0,0,0,0,0,0,0,0,0,0,0,0,0,0,0],"sum_hessian":[5.968E3,3.649E3,2.319E3,1.6E2,3.489E3,7.13E2,1.606E3,1.16E2,3.373E3,2.76E2,4.37E2,1.249E3,3.57E2,3.086E3,2.87E2,2.27E2,2.1E2,3.38E2,9.11E2],"tree_param":{"num_deleted":"0","num_feature":"2","num_nodes":"19","size_leaf_vector":"0"}},{"base_weights":[1.0652902E2,1.03202736E2,1.1159686E2,8.240721E1,1.03465225E2,1.0469202E2,1.14159706E2,1.0643253E2,1.01811195E2,1.0901277E2,8.6774734E1,1.12010475E2,1.2193348E2,9.317379E1,1.07987175E2,1.0058523E2,1.0970622E2,1.2821486E2,1.0753023E2,7.287341E1,9.682136E1,1.19510376E2,1.0856986E2],"categories":[],"categories_nodes":[],"categories_segments":[],"categories_sizes":[],"default_left":[true,true,true,false,true,true,true,true,true,true,true,true,false,false,false,false,false,false,false,false,false,false,false],"id":2,"left_children":[1,3,5,-1,7,9,11,13,15,17,19,21,-1,-1,-1,-1,-1,-1,-1,-1,-1,-1,-1],"loss_changes":[8.9096E4,1.122E4,2.9688E4,0E0,6.672E3,4.07835E4,1.4828E4,1.5807E4,1.1362E4,9.88E2,1.1239875E4,2.181E4,0E0,0E0,0E0,0E0,0E0,0E0,0E0,0E0,0E0,0E0,0E0],"parents":[2147483647,0,0,1,1,2,2,4,4,5,5,6,6,7,7,8,8,9,9,10,10,11,11],"right_children":[2,4,6,-1,8,10,12,14,16,18,20,22,-1,-1,-1,-1,-1,-1,-1,-1,-1,-1,-1],"split_conditions":[-3.7764025E0,-2.9086187E1,3.3281522E0,2.4722164E1,1.9676075E0,2.198717E0,1.2154652E1,-2.0026264E0,1.6320824E1,-9.193469E0,2.5601587E0,-3.3106353E0,3.6580044E1,2.7952139E1,3.2396152E1,3.017557E1,3.291187E1,3.846446E1,3.225907E1,2.1862024E1,2.9046408E1,3.5853115E1,3.257096E1],"split_indices":[0,0,1,0,1,1,0,1,1,1,1,0,0,0,0,0,0,0,0,0,0,0,0],"split_type":[0,0,0,0,0,0,0,0,0,0,0,0,0,0,0,0,0,0,0,0,0,0,0],"sum_hessian":[5.968E3,3.616E3,2.352E3,4.9E1,3.567E3,6.48E2,1.704E3,1.254E3,2.313E3,5.18E2,1.3E2,1.347E3,3.57E2,1.38E2,1.116E3,2.014E3,2.99E2,3.1E1,4.87E2,5.8E1,7.2E1,4.13E2,9.34E2],"tree_param":{"num_deleted":"0","num_feature":"2","num_nodes":"23","size_leaf_vector":"0"}},{"base_weights":[7.46331E1,7.229397E1,7.828103E1,5.817949E1,7.246987E1,7.388765E1,8.07339E1,7.483322E1,7.137978E1,7.9840515E1,7.127226E1,9.028393E1,7.901888E1,6.5422745E1,7.609419E1,7.060611E1,7.703923E1,7.620893E1,6.4618454E1,7.0406746E1,8.3743576E1],"categories":[],"categories_nodes":[],"categories_segments":[],"categories_sizes":[],"default_left":[true,true,true,false,true,true,true,true,true,false,true,false,true,false,false,false,false,false,false,false,false],"id":3,"left_children":[1,3,5,-1,7,9,11,13,15,-1,17,-1,19,-1,-1,-1,-1,-1,-1,-1,-1],"loss_changes":[4.5274E4,4.846E3,1.9036E4,0E0,3.934E3,7.4345E3,1.7073E4,8.2645E3,5.446E3,0E0,1.461975E4,0E0,4.54135E4,0E0,0E0,0E0,0E0,0E0,0E0,0E0,0E0],"parents":[2147483647,0,0,1,1,2,2,4,4,5,5,6,6,7,7,8,8,10,10,12,12],"right_children":[2,4,6,-1,8,10,12,14,16,-1,18,-1,20,-1,-1,-1,-1,-1,-1,-1,-1],"split_conditions":[-3.697366E0,-2.9086187E1,4.8813906E0,1.7453848E1,1.4407059E0,2.966117E-1,5.1279798E0,-2.0026264E0,1.6899788E1,2.3952156E1,-1.5431879E0,2.708518E1,2.6855712E0,1.9626823E1,2.2828259E1,2.1181833E1,2.311177E1,2.286268E1,1.9385536E1,2.1122025E1,2.5123074E1],"split_indices":[0,0,1,0,1,1,1,1,1,0,0,0,0,0,0,0,0,0,0,0,0],"split_type":[0,0,0,0,0,0,0,0,0,0,0,0,0,0,0,0,0,0,0,0,0],"sum_hessian":[5.968E3,3.649E3,2.319E3,4.9E1,3.6E3,8.42E2,1.477E3,1.115E3,2.485E3,2.48E2,5.94E2,2.17E2,1.26E3,1.38E2,9.77E2,2.198E3,2.87E2,3.35E2,2.59E2,4.52E2,8.08E2],"tree_param":{"num_deleted":"0","num_feature":"2","num_nodes":"21","size_leaf_vector":"0"}},{"base_weights":[5.2284E1,5.1244946E1,5.6502113E1,5.1368645E1,3.7928448E1,5.188367E1,5.9859367E1,4.99065E1,5.285633E1,2.6114908E1,4.614954E1,5.5953262E1,4.0802914E1,6.485183E1,5.781102E1,5.152844E1,4.3607265E1,5.3820778E1,4.507207E1,6.774875E1,5.464781E1,4.9184174E1,3.4479317E1,4.8584385E1,6.0547447E1],"categories":[],"categories_nodes":[],"categories_segments":[],"categories_sizes":[],"default_left":[true,true,true,true,true,true,true,true,true,false,false,true,true,false,true,false,false,false,false,false,false,false,false,false,false],"id":4,"left_children":[1,3,5,7,9,11,13,15,17,-1,-1,19,21,-1,23,-1,-1,-1,-1,-1,-1,-1,-1,-1,-1],"loss_changes":[2.3266E4,5.959E3,1.503525E4,7.7E3,3.4565781E3,2.0264125E4,3.11275E3,2.2427E4,1.5134E4,0E0,0E0,1.88725E3,5.6181094E3,0E0,9.303625E3,0E0,0E0,0E0,0E0,0E0,0E0,0E0,0E0,0E0,0E0],"parents":[2147483647,0,0,1,1,2,2,3,3,4,4,5,5,6,6,7,7,8,8,11,11,12,12,14,14],"right_children":[2,4,6,8,10,12,14,16,18,-1,-1,20,22,-1,24,-1,-1,-1,-1,-1,-1,-1,-1,-1,-1],"split_conditions":[5.725888E0,5.4570227E0,9.44153E0,-6.7267704E0,5.597721E0,2.0231502E0,7.3473434E0,-8.25041E0,9.5948925E0,7.8344727E0,1.3844863E1,-9.193469E0,7.097084E0,1.945555E1,1.4140744E1,1.5458532E1,1.308218E1,1.6146235E1,1.3521622E1,2.0324625E1,1.6394344E1,1.4755253E1,1.0343796E1,1.4575316E1,1.8164234E1],"split_indices":[0,0,1,0,0,1,0,0,1,0,0,1,0,0,1,0,0,0,0,0,0,0,0,0,0],"split_type":[0,0,0,0,0,0,0,0,0,0,0,0,0,0,0,0,0,0,0,0,0,0,0,0,0],"sum_hessian":[5.968E3,4.799E3,1.169E3,4.752E3,4.7E1,4.99E2,6.7E2,2.414E3,2.338E3,2.1E1,2.6E1,3.62E2,1.37E2,1.86E2,4.84E2,1.914E3,5E2,2.075E3,2.63E2,3.1E1,3.31E2,5.6E1,8.1E1,1.15E2,3.69E2],"tree_param":{"num_deleted":"0","num_feature":"2","num_nodes":"25","size_leaf_vector":"0"}},{"base_weights":[3.6631283E1,3.5270256E1,3.8473705E1,3.5474667E1,2.6669004E1,3.81786E1,6.4362274E1,2.862614E1,3.5732483E1,3.556244E1,1.9258043E1,3.8338585E1,2.0082794E1,3.1223661E1,2.2416128E1,4.7832565E1,3.5202507E1,3.7449894E1,4.2131603E1],"categories":[],"categories_nodes":[],"categories_segments":[],"categories_sizes":[],"default_left":[true,true,true,true,true,true,false,true,true,false,false,true,false,false,false,false,false,false,false],"id":5,"left_children":[1,3,5,7,9,11,-1,13,15,-1,-1,17,-1,-1,-1,-1,-1,-1,-1],"loss_changes":[1.36105E4,5.111E3,1.683325E4,4.9135E3,4.8514844E3,6.465E3,0E0,1.3486719E3,1.906775E4,0E0,0E0,6.76825E3,0E0,0E0,0E0,0E0,0E0,0E0,0E0],"parents":[2147483647,0,0,1,1,2,2,3,3,4,4,5,5,7,7,8,8,11,11],"right_children":[2,4,6,8,10,12,-1,14,16,-1,-1,18,-1,-1,-1,-1,-1,-1,-1],"split_conditions":[-4.707206E0,-4.8736234E0,2.1126606E1,-2.8681083E0,5.4081936E0,1.8093115E1,1.9308683E1,-5.624035E0,-1.3308291E0,1.0668732E1,5.7774134E0,1.4140744E1,6.0248384E0,9.367099E0,6.7248387E0,1.4349771E1,1.0560753E1,1.1234968E1,1.2639482E1],"split_indices":[0,0,1,1,1,1,0,0,1,0,0,1,0,0,0,0,0,0,0],"split_type":[0,0,0,0,0,0,0,0,0,0,0,0,0,0,0,0,0,0,0],"sum_hessian":[5.968E3,3.444E3,2.524E3,3.361E3,8.3E1,2.498E3,2.6E1,1.26E2,3.235E3,3.6E1,4.7E1,2.475E3,2.3E1,8.6E1,4E1,1.32E2,3.103E3,2.014E3,4.61E2],"tree_param":{"num_deleted":"0","num_feature":"2","num_nodes":"19","size_leaf_vector":"0"}},{"base_weights":[2.5659767E1,2.4438532E1,2.709391E1,1.3140707E1,2.4854635E1,3.351469E1,2.5986559E1,2.0444702E1,-3.8892072E-1,2.5786058E1,1.8892017E1,2.1158607E1,3.4425957E1,2.398864E1,2.9251547E1,1.213928E1,2.477342E1,4.005677E0,-4.566086E0,4.905175E1,2.55937E1,7.7037416E0,1.9601768E1,3.487676E1,2.5273273E1,2.6917543E1,2.011659E1,2.8697035E1,4.5768723E1],"categories":[],"categories_nodes":[],"categories_segments":[],"categories_sizes":[],"default_left":[true,true,true,true,true,true,true,true,true,true,true,false,true,true,true,false,false,false,false,false,false,false,false,false,false,false,false,false,false],"id":6,"left_children":[1,3,5,7,9,11,13,15,17,19,21,-1,23,25,27,-1,-1,-1,-1,-1,-1,-1,-1,-1,-1,-1,-1,-1,-1],"loss_changes":[9.79225E3,1.4876625E4,1.8582125E4,1.1569932E4,1.6829375E4,3.7641875E3,1.45495E4,2.4316094E3,7.892826E2,1.0801125E4,3.2238906E3,0E0,6.451875E2,1.597075E4,6.773875E3,0E0,0E0,0E0,0E0,0E0,0E0,0E0,0E0,0E0,0E0,0E0,0E0,0E0,0E0],"parents":[2147483647,0,0,1,1,2,2,3,3,4,4,5,5,6,6,7,7,8,8,9,9,10,10,12,12,13,13,14,14],"right_children":[2,4,6,8,10,12,14,16,18,20,22,-1,24,26,28,-1,-1,-1,-1,-1,-1,-1,-1,-1,-1,-1,-1,-1,-1],"split_conditions":[5.0190315E0,-1.3773576E1,5.482361E0,-1.5223911E1,3.6722991E0,-6.118498E0,-1.4999184E-1,-3.4814354E1,2.3774612E0,-1.3635531E1,3.7527447E0,6.3475823E0,-2.1999927E0,-6.473851E0,2.1126606E1,3.6417842E0,7.4320264E0,1.2017032E0,-1.3698258E0,1.4715526E1,7.6781106E0,2.3111227E0,5.880531E0,1.0463028E1,7.581982E0,8.075263E0,6.0349774E0,8.609111E0,1.3730618E1],"split_indices":[1,0,1,0,1,0,0,0,1,0,1,0,0,0,1,0,0,0,0,0,0,0,0,0,0,0,0,0,0],"split_type":[0,0,0,0,0,0,0,0,0,0,0,0,0,0,0,0,0,0,0,0,0,0,0,0,0,0,0,0,0],"sum_hessian":[5.968E3,3.233E3,2.735E3,1.16E2,3.117E3,3.98E2,2.337E3,7.5E1,4.1E1,2.693E3,4.24E2,2.9E1,3.69E2,1.455E3,8.82E2,2.7E1,4.8E1,2E1,2.1E1,2E1,2.673E3,2.6E1,3.98E2,3.49E2,2E1,8.25E2,6.3E2,8.56E2,2.6E1],"tree_param":{"num_deleted":"0","num_feature":"2","num_nodes":"29","size_leaf_vector":"0"}},{"base_weights":[1.797898E1,2.8695738E1,1.7881777E1,7.0755343E0,1.80174E1,9.72959E0,3.7643394E0,1.2524098E1,1.8187765E1,1.4183198E1,1.7367188E0,2.9689796E1,1.8073868E1],"categories":[],"categories_nodes":[],"categories_segments":[],"categories_sizes":[],"default_left":[true,false,true,true,true,false,false,true,true,false,false,false,false],"id":7,"left_children":[1,-1,3,5,7,-1,-1,9,11,-1,-1,-1,-1],"loss_changes":[5.70475E3,0E0,8.545875E3,6.224822E2,5.241375E3,0E0,0E0,3.1789902E3,6.886125E3,0E0,0E0,0E0,0E0],"parents":[2147483647,0,0,2,2,3,3,4,4,7,7,8,8],"right_children":[2,-1,4,6,8,-1,-1,10,12,-1,-1,-1,-1],"split_conditions":[-8.648897E0,8.608722E0,-6.611761E0,1.3186659E1,-2.3713562E1,2.9188771E0,1.1293019E0,-2.4692188E1,-2.2133232E1,4.2549596E0,5.2101564E-1,8.9069395E0,5.4221606E0],"split_indices":[1,0,1,0,0,0,0,0,0,0,0,0,0],"split_type":[0,0,0,0,0,0,0,0,0,0,0,0,0],"sum_hessian":[5.968E3,5.1E1,5.917E3,7.4E1,5.843E3,4E1,3.4E1,1.78E2,5.665E3,1.54E2,2.4E1,5.3E1,5.612E3],"tree_param":{"num_deleted":"0","num_feature":"2","num_nodes":"13","size_leaf_vector":"0"}},{"base_weights":[1.2590603E1,1.1726276E1,1.360765E1,1.3382164E1,9.7474165E0,1.8112843E1,1.2832979E1,1.2999378E1,3.939694E1,1.0470285E1,4.8744342E-1,1.4047944E1,2.009248E1,8.379007E0,1.3578911E1,1.045285E1,1.4263599E1,8.613966E0,1.4998206E1,4.440694E0,-1.5508581E0,1.1720827E1,2.1099356E1,2.0625788E1,1.2888369E1,9.702038E0,-1.1065515E1,2.6239164E1,1.3133528E1],"categories":[],"categories_nodes":[],"categories_segments":[],"categories_sizes":[],"default_left":[true,true,true,true,true,true,true,true,false,true,true,true,true,true,true,false,false,false,false,false,false,false,false,false,false,false,false,false,false],"id":8,"left_children":[1,3,5,7,9,11,13,15,-1,17,19,21,23,25,27,-1,-1,-1,-1,-1,-1,-1,-1,-1,-1,-1,-1,-1,-1],"loss_changes":[5.0875625E3,1.0466625E4,9.316344E3,1.6994219E4,9.881547E3,2.9285156E3,7.653875E3,5.4332812E3,0E0,1.1386016E4,8.7714197E2,1.9515664E3,7.561406E2,8.802641E3,1.0938375E4,0E0,0E0,0E0,0E0,0E0,0E0,0E0,0E0,0E0,0E0,0E0,0E0,0E0,0E0],"parents":[2147483647,0,0,1,1,2,2,3,3,4,4,5,5,6,6,7,7,9,9,10,10,11,11,12,12,13,13,14,14],"right_children":[2,4,6,8,10,12,14,16,-1,18,20,22,24,26,28,-1,-1,-1,-1,-1,-1,-1,-1,-1,-1,-1,-1,-1,-1],"split_conditions":[5.0190315E0,1.9490155E0,5.482361E0,1.9404821E0,-2.564757E-1,-5.0500383E0,6.818817E0,-9.444514E0,1.1819082E1,-4.784851E0,7.097084E0,5.4133515E0,-2.1999927E0,-2.2855778E0,7.3218126E0,3.1358552E0,4.27908E0,2.58419E0,4.499462E0,1.3322082E0,-4.6525747E-1,3.5162482E0,6.329807E0,6.1877365E0,3.8665106E0,2.9106114E0,-3.3196545E0,7.8717494E0,3.9400585E0],"split_indices":[1,1,1,1,0,0,1,0,0,0,0,1,0,0,1,0,0,0,0,0,0,0,0,0,0,0,0,0,0],"split_type":[0,0,0,0,0,0,0,0,0,0,0,0,0,0,0,0,0,0,0,0,0,0,0,0,0,0,0,0,0],"sum_hessian":[5.968E3,3.233E3,2.735E3,1.757E3,1.476E3,3.98E2,2.337E3,1.733E3,2.4E1,1.369E3,1.07E2,1.33E2,2.65E2,3.37E2,2E3,5.78E2,1.155E3,9.73E2,3.96E2,3.6E1,7.1E1,1.02E2,3.1E1,2.45E2,2E1,3.16E2,2.1E1,6.6E1,1.934E3],"tree_param":{"num_deleted":"0","num_feature":"2","num_nodes":"29","size_leaf_vector":"0"}},{"base_weights":[8.823219E0,8.615548E0,1.2860289E1,8.785455E0,1.6770177E0,1.6273575E1,3.035068E0,8.6384E0,1.6038696E1,-7.4266434E0,4.1902843E0,1.2018527E1,1.960522E1,8.123264E0,6.737138E-1,8.4562845E0,1.3677182E1,2.3691402E1,1.240408E1,1.6249964E1,-2.3372802E-1,1.6236935E1,8.50198E0,1.8003994E1,2.4905678E1,9.6878994E-1,3.7565342E-1],"categories":[],"categories_nodes":[],"categories_segments":[],"categories_sizes":[],"default_left":[true,true,true,true,true,true,true,true,true,false,true,true,true,false,true,false,false,false,false,false,false,false,false,false,false,false,false],"id":9,"left_children":[1,3,5,7,9,11,13,15,17,-1,19,21,23,-1,25,-1,-1,-1,-1,-1,-1,-1,-1,-1,-1,-1,-1],"loss_changes":[4.8935312E3,6.6814375E3,9.676133E3,5.7748125E3,3.1656702E3,2.8122812E3,9.0766974E2,4.8726562E3,2.7379258E3,0E0,5.7658325E3,1.300874E3,5.6158203E2,0E0,4.297447E0,0E0,0E0,0E0,0E0,0E0,0E0,0E0,0E0,0E0,0E0,0E0,0E0],"parents":[2147483647,0,0,1,1,2,2,3,3,4,4,5,5,6,6,7,7,8,8,10,10,11,11,12,12,14,14],"right_children":[2,4,6,8,10,12,14,16,18,-1,20,22,24,-1,26,-1,-1,-1,-1,-1,-1,-1,-1,-1,-1,-1,-1],"split_conditions":[1.3442457E1,1.2994491E1,1.5065899E1,1.2154652E1,1.301248E1,1.3943969E1,6.556195E-1,2.0412434E1,1.2607311E1,-2.227993E0,1.3178046E1,1.3805201E1,1.4895983E1,2.4369793E0,7.481075E0,2.5368855E0,4.1031547E0,7.107421E0,3.7212243E0,4.8749895E0,-7.011841E-2,4.8710804E0,2.550594E0,5.4011984E0,7.4717035E0,2.90637E-1,1.1269603E-1],"split_indices":[0,0,0,0,0,0,1,1,0,0,0,0,1,0,1,0,0,0,0,0,0,0,0,0,0,0,0],"split_type":[0,0,0,0,0,0,0,0,0,0,0,0,0,0,0,0,0,0,0,0,0,0,0,0,0,0,0],"sum_hessian":[5.968E3,5.679E3,2.89E2,5.543E3,1.36E2,2.14E2,7.5E1,5.435E3,1.08E2,2.9E1,1.07E2,9.6E1,1.18E2,2.3E1,5.2E1,5.248E3,1.87E2,3.3E1,7.5E1,2.8E1,7.9E1,4.2E1,5.4E1,9.4E1,2.4E1,2.5E1,2.7E1],"tree_param":{"num_deleted":"0","num_feature":"2","num_nodes":"27","size_leaf_vector":"0"}},{"base_weights":[6.183492E0,2.8231328E0,6.3840637E0,4.8675957E0,-4.536405E0,6.1695366E0,1.5634466E1,2.42508E0,1.2345719E1,-7.067566E-1,-6.475884E0,1.1704043E1,6.0314164E0,1.7790514E1,1.2583219E1,5.4679823E0,-1.2395324E0,1.7256468E1,5.6545663E0,8.4254265E0,1.5435764E1,-6.899716E0,6.1935024E0,1.467889E1,1.9040516E1],"categories":[],"categories_nodes":[],"categories_segments":[],"categories_sizes":[],"default_left":[true,true,true,true,true,true,true,true,true,false,false,true,true,true,false,false,false,false,false,false,false,false,false,false,false],"id":10,"left_children":[1,3,5,7,9,11,13,15,17,-1,-1,19,21,23,-1,-1,-1,-1,-1,-1,-1,-1,-1,-1,-1],"loss_changes":[4.0050469E3,5.1077314E3,1.1080016E4,4.810401E3,5.450596E2,4.1383438E3,6.1162305E2,2.2481401E3,2.0382295E3,0E0,0E0,1.4971875E3,1.13064375E4,5.546875E-1,0E0,0E0,0E0,0E0,0E0,0E0,0E0,0E0,0E0,0E0,0E0],"parents":[2147483647,0,0,1,1,2,2,3,3,4,4,5,5,6,6,7,7,8,8,11,11,12,12,13,13],"right_children":[2,4,6,8,10,12,14,16,18,-1,-1,20,22,24,-1,-1,-1,-1,-1,-1,-1,-1,-1,-1,-1],"split_conditions":[-2.0650013E1,-2.17474E1,2.0412434E1,-2.3713562E1,1.993945E1,-1.5681114E1,2.6986551E1,-2.6601562E1,1.0569679E1,-2.1202698E-1,-1.9427652E0,1.15171795E1,-1.3720928E1,2.1997755E1,3.7749658E0,1.6403948E0,-3.7185973E-1,5.1769404E0,1.69637E0,2.527628E0,4.6307297E0,-2.0699148E0,1.8580508E0,4.4036674E0,5.712155E0],"split_indices":[0,0,1,0,1,0,1,0,1,0,0,1,0,1,0,0,0,0,0,0,0,0,0,0,0],"split_type":[0,0,0,0,0,0,0,0,0,0,0,0,0,0,0,0,0,0,0,0,0,0,0,0,0],"sum_hessian":[5.968E3,3.37E2,5.631E3,2.64E2,7.3E1,5.505E3,1.26E2,2E2,6.4E1,2.5E1,4.8E1,1.32E2,5.373E3,7.1E1,5.5E1,1.09E2,9.1E1,3.6E1,2.8E1,7.2E1,6E1,6.6E1,5.307E3,2.4E1,4.7E1],"tree_param":{"num_deleted":"0","num_feature":"2","num_nodes":"25","size_leaf_vector":"0"}},{"base_weights":[4.332941E0,3.9639213E0,5.843165E0,4.0687623E0,-6.5000987E0,9.099601E0,4.271371E0,-6.748934E-4,4.2105236E0,-1.3087558E1,-8.9179486E-1,7.639725E0,1.3003579E1,-3.406363E0,5.3117056E0,3.8343635E0,-3.1462607E0,1.5971384E1,3.9692512E0,1.2365422E1,6.2041497E0,1.5251808E1,7.362416E0,-6.8975234E0,-7.419278E-1,5.8357654E0,-1.4408123E0],"categories":[],"categories_nodes":[],"categories_segments":[],"categories_sizes":[],"default_left":[true,true,true,true,true,true,true,true,true,false,false,true,true,true,true,false,false,false,false,false,false,false,false,false,false,false,false],"id":11,"left_children":[1,3,5,7,9,11,13,15,17,-1,-1,19,21,23,25,-1,-1,-1,-1,-1,-1,-1,-1,-1,-1,-1,-1],"loss_changes":[3.303375E3,5.292328E3,5.949715E3,2.741961E3,1.7616633E3,2.0664004E3,6.3361387E3,1.9542781E3,1.2969578E4,0E0,0E0,1.816044E3,1.1813379E3,8.785697E2,2.4748984E3,0E0,0E0,0E0,0E0,0E0,0E0,0E0,0E0,0E0,0E0,0E0,0E0],"parents":[2147483647,0,0,1,1,2,2,3,3,4,4,5,5,6,6,7,7,8,8,11,11,12,12,13,13,14,14],"right_children":[2,4,6,8,10,12,14,16,18,-1,-1,20,22,24,26,-1,-1,-1,-1,-1,-1,-1,-1,-1,-1,-1,-1],"split_conditions":[5.725888E0,5.4570227E0,7.186469E0,-2.0026264E0,5.597721E0,9.664902E0,7.731378E0,-5.986354E0,-1.3516729E0,-3.9262674E0,-2.6753846E-1,-3.7071679E0,6.776425E0,7.3057485E0,1.5716629E1,1.1503091E0,-9.4387823E-1,4.791415E0,1.1907754E0,3.709627E0,1.861245E0,4.5755424E0,2.2087247E0,-2.069257E0,-2.2257835E-1,1.7507297E0,-4.3224373E-1],"split_indices":[0,0,0,1,0,1,0,1,1,0,0,1,0,0,0,0,0,0,0,0,0,0,0,0,0,0,0],"split_type":[0,0,0,0,0,0,0,0,0,0,0,0,0,0,0,0,0,0,0,0,0,0,0,0,0,0,0],"sum_hessian":[5.968E3,4.799E3,1.169E3,4.752E3,4.7E1,3.79E2,7.9E2,1.6E2,4.592E3,2.1E1,2.6E1,2.78E2,1.01E2,9.4E1,6.96E2,7.2E1,8.8E1,9.1E1,4.501E3,6.3E1,2.15E2,7.1E1,3E1,4E1,5.4E1,6.46E2,5E1],"tree_param":{"num_deleted":"0","num_feature":"2","num_nodes":"27","size_leaf_vector":"0"}},{"base_weights":[3.0352952E0,2.8904388E0,5.862016E0,3.0203977E0,-2.3897176E0,7.8938985E0,3.6795966E-2,2.9473417E0,1.0127233E1,-8.7614E0,-5.976786E-1,4.4363976E0,1.0077056E1,3.5118592E0,-1.5375118E0,2.989966E0,-8.293574E0,1.3441255E1,7.021045E0,8.0587435E0,-3.7281604E0,9.2767E0,2.379939E0,7.2401624E0,1.1852731E1,-6.816242E-1,-2.2773535E0],"categories":[],"categories_nodes":[],"categories_segments":[],"categories_sizes":[],"default_left":[true,true,true,true,true,true,true,true,true,false,true,true,true,false,true,false,false,false,false,false,false,false,false,false,false,false,false],"id":12,"left_children":[1,3,5,7,9,11,13,15,17,-1,19,21,23,-1,25,-1,-1,-1,-1,-1,-1,-1,-1,-1,-1,-1,-1],"loss_changes":[2.4271719E3,3.9048477E3,3.4321963E3,2.8485703E3,1.5590712E3,1.5781719E3,4.211818E2,2.6547695E3,4.8209082E2,0E0,2.9567117E3,8.2400183E2,5.74083E2,0E0,3.200843E1,0E0,0E0,0E0,0E0,0E0,0E0,0E0,0E0,0E0,0E0,0E0,0E0],"parents":[2147483647,0,0,1,1,2,2,3,3,4,4,5,5,6,6,7,7,8,8,10,10,11,11,12,12,14,14],"right_children":[2,4,6,8,10,12,14,16,18,-1,20,22,24,-1,26,-1,-1,-1,-1,-1,-1,-1,-1,-1,-1,-1,-1],"split_conditions":[1.3442457E1,1.2994491E1,1.5065899E1,1.2844989E1,1.301248E1,8.461838E0,6.556195E-1,1.2607311E1,1.2936152E1,-2.62842E0,1.3178046E1,-9.516984E0,1.4015978E1,1.0535578E0,7.481075E0,8.969898E-1,-2.4880724E0,4.032377E0,2.1063137E0,2.417623E0,-1.1184481E0,2.78301E0,7.1398175E-1,2.1720488E0,3.5558193E0,-2.0448726E-1,-6.832061E-1],"split_indices":[0,0,0,0,0,1,1,0,0,0,0,1,0,0,1,0,0,0,0,0,0,0,0,0,0,0,0],"split_type":[0,0,0,0,0,0,0,0,0,0,0,0,0,0,0,0,0,0,0,0,0,0,0,0,0,0,0],"sum_hessian":[5.968E3,5.679E3,2.89E2,5.543E3,1.36E2,2.14E2,7.5E1,5.488E3,5.5E1,2.9E1,1.07E2,8.4E1,1.3E2,2.3E1,5.2E1,5.468E3,2E1,2.5E1,3E1,2.8E1,7.9E1,2.4E1,6E1,5.2E1,7.8E1,2.5E1,2.7E1],"tree_param":{"num_deleted":"0","num_feature":"2","num_nodes":"27","size_leaf_vector":"0"}},{"base_weights":[2.126821E0,8.589508E0,2.0795758E0,-4.1405244E0,2.1686258E0,-4.8820826E-1,-5.428633E0,1.90513E0,3.3291714E0,-6.198607E0,-4.124108E0,2.1541793E0,-8.2545465E-1,5.5076027E0,2.1435323E0],"categories":[],"categories_nodes":[],"categories_segments":[],"categories_sizes":[],"default_left":[true,false,true,true,true,false,true,true,true,false,false,false,false,false,false],"id":13,"left_children":[1,-1,3,5,7,-1,9,11,13,-1,-1,-1,-1,-1,-1],"loss_changes":[1.8046582E3,0E0,3.2919492E3,3.9253442E2,1.7807461E3,0E0,3.671216E1,3.2422168E3,2.7776543E3,0E0,0E0,0E0,0E0,0E0,0E0],"parents":[2147483647,0,0,2,2,3,3,4,4,6,6,7,7,8,8],"right_children":[2,-1,4,6,8,-1,10,12,14,-1,-1,-1,-1,-1,-1],"split_conditions":[-9.171492E0,2.5768526E0,-6.611761E0,-8.159122E0,5.725888E0,-1.4646249E-1,-6.747529E0,-2.3758996E0,7.186469E0,-1.8595822E0,-1.2372324E0,6.462538E-1,-2.4763641E-1,1.6522809E0,6.4305973E-1],"split_indices":[1,0,1,1,0,0,1,0,0,0,0,0,0,0,0],"split_type":[0,0,0,0,0,0,0,0,0,0,0,0,0,0,0],"sum_hessian":[5.968E3,4.2E1,5.926E3,8.3E1,5.843E3,2.2E1,6.1E1,4.764E3,1.079E3,3.6E1,2.5E1,4.366E3,3.98E2,3.79E2,7E2],"tree_param":{"num_deleted":"0","num_feature":"2","num_nodes":"15","size_leaf_vector":"0"}},{"base_weights":[1.4891121E0,1.4318013E0,6.6726685E0,1.5066202E0,-6.8577595E0,1.4028958E0,9.815337E0,-4.307046E0,-1.0539464E1,1.4473614E0,-7.4680448E0,7.017114E0,1.1068258E1],"categories":[],"categories_nodes":[],"categories_segments":[],"categories_sizes":[],"default_left":[true,true,false,true,true,true,true,false,false,false,false,false,false],"id":14,"left_children":[1,3,-1,5,7,9,11,-1,-1,-1,-1,-1,-1],"loss_changes":[1.7636787E3,3.672706E3,0E0,5.0304414E3,4.523274E2,2.2915225E3,1.7476123E2,0E0,0E0,0E0,0E0,0E0,0E0],"parents":[2147483647,0,0,1,1,3,3,4,4,5,5,6,6],"right_children":[2,4,-1,6,8,10,12,-1,-1,-1,-1,-1,-1],"split_conditions":[4.9569725E1,2.342051E1,2.0018005E0,2.0412434E1,-2.1216274E1,1.9775965E1,2.1997755E1,-1.2921138E0,-3.1618392E0,4.3420842E-1,-2.2404134E0,2.1051342E0,3.3204777E0],"split_indices":[1,1,0,1,0,1,1,0,0,0,0,0,0],"split_type":[0,0,0,0,0,0,0,0,0,0,0,0,0],"sum_hessian":[5.968E3,5.904E3,6.4E1,5.852E3,5.2E1,5.781E3,7.1E1,3.2E1,2E1,5.753E3,2.8E1,2.4E1,4.7E1],"tree_param":{"num_deleted":"0","num_feature":"2","num_nodes":"13","size_leaf_vector":"0"}},{"base_weights":[1.0425781E0,5.87075E-1,1.6636338E0,1.5178335E0,-5.775165E-1,1.3308331E1,1.4230103E0,8.2497734E-1,9.845349E0,-9.95739E0,-1.414448E-1,-1.1487491E1,1.6452035E0,1.5645535E0,-1.4605614E0,1.5805133E1,4.9283843E0,-4.911853E0,-1.2963869E1,3.8467822E0,-1.0383441E0,3.975395E0,9.9760824E-1],"categories":[],"categories_nodes":[],"categories_segments":[],"categories_sizes":[],"default_left":[true,true,true,true,true,false,true,true,true,true,true,false,true,false,false,false,false,false,false,false,false,false,false],"id":15,"left_children":[1,3,5,7,9,-1,11,13,15,17,19,-1,21,-1,-1,-1,-1,-1,-1,-1,-1,-1,-1],"loss_changes":[1.6876108E3,3.7350962E3,7.0560806E3,1.1040988E4,6.2608364E3,0E0,7.118744E3,2.9924785E3,4.229801E3,9.6783594E2,5.240779E3,0E0,3.6689917E3,0E0,0E0,0E0,0E0,0E0,0E0,0E0,0E0,0E0,0E0],"parents":[2147483647,0,0,1,1,2,2,3,3,4,4,6,6,7,7,8,8,9,9,10,10,12,12],"right_children":[2,4,6,8,10,-1,12,14,16,18,20,-1,22,-1,-1,-1,-1,-1,-1,-1,-1,-1,-1],"split_conditions":[-4.707206E0,-8.25041E0,-4.439055E0,-8.985264E0,-8.055728E0,3.9924994E0,-4.3266134E0,-1.042775E1,-8.507796E0,-1.5090475E0,-5.562262E-1,-3.4462473E0,-3.3106353E0,4.6936607E-1,-4.3816844E-1,4.74154E0,1.4785154E0,-1.4735559E0,-3.8891609E0,1.1540347E0,-3.1150326E-1,1.1926185E0,2.992825E-1],"split_indices":[0,0,0,0,0,0,0,0,0,1,1,0,0,0,0,0,0,0,0,0,0,0,0],"split_type":[0,0,0,0,0,0,0,0,0,0,0,0,0,0,0,0,0,0,0,0,0,0,0],"sum_hessian":[5.968E3,3.444E3,2.524E3,1.914E3,1.53E3,5E1,2.474E3,1.768E3,1.46E2,6.7E1,1.463E3,4.1E1,2.433E3,1.336E3,4.32E2,6.5E1,8.1E1,2.6E1,4.1E1,2.68E2,1.195E3,5.28E2,1.905E3],"tree_param":{"num_deleted":"0","num_feature":"2","num_nodes":"23","size_leaf_vector":"0"}},{"base_weights":[7.30438E-1,-6.155394E-1,9.583596E-1,-6.991201E0,6.043127E-1,6.300188E0,6.482332E-1,1.5414865E-1,-1.4036675E1,1.4412259E1,-1.4940531E0,-8.4633553E-1,9.264133E0,3.4361815E-1,2.7729213E0,-2.3415709E0,5.0351768E0,-2.1247198E1,-9.812769E0,8.847939E0,2.0521868E1,-1.5676912E1,-6.083589E-2,-6.082661E0,9.656542E0,6.6142664E0,1.4232788E1,6.121704E-1,-9.608007E0,9.324361E0,2.390774E0],"categories":[],"categories_nodes":[],"categories_segments":[],"categories_sizes":[],"default_left":[true,true,true,true,true,true,true,true,true,true,true,true,true,true,true,false,false,false,false,false,false,false,false,false,false,false,false,false,false,false,false],"id":16,"left_children":[1,3,5,7,9,11,13,15,17,19,21,23,25,27,29,-1,-1,-1,-1,-1,-1,-1,-1,-1,-1,-1,-1,-1,-1,-1,-1],"loss_changes":[1.8317437E3,6.7316445E3,8.453075E3,6.9997544E3,2.1085719E4,5.9387734E3,3.1224915E3,8.645076E2,1.9234668E3,3.0820234E3,1.2845784E4,4.623446E3,2.5127832E3,1.128931E4,1.4923945E3,0E0,0E0,0E0,0E0,0E0,0E0,0E0,0E0,0E0,0E0,0E0,0E0,0E0,0E0,0E0,0E0],"parents":[2147483647,0,0,1,1,2,2,3,3,4,4,5,5,6,6,7,7,8,8,9,9,10,10,11,11,12,12,13,13,14,14],"right_children":[2,4,6,8,10,12,14,16,18,20,22,24,26,28,30,-1,-1,-1,-1,-1,-1,-1,-1,-1,-1,-1,-1,-1,-1,-1,-1],"split_conditions":[-1.1628689E1,6.1000854E-1,-1.0941994E1,4.2940193E-1,2.3261979E0,4.224741E-1,1.4164938E1,-1.2681608E1,-1.1698774E1,1.8728397E0,3.0591989E0,-1.1151238E1,-1.1428739E1,1.1980305E1,1.4220347E1,-7.0247126E-1,1.5105531E0,-6.37416E0,-2.9438307E0,2.6543818E0,6.1565604E0,-4.703074E0,-1.8250767E-2,-1.8247985E0,2.8969626E0,1.98428E0,4.2698364E0,1.8365112E-1,-2.8824024E0,2.7973084E0,7.172322E-1],"split_indices":[0,1,0,1,1,1,1,0,0,1,1,0,0,1,1,0,0,0,0,0,0,0,0,0,0,0,0,0,0,0,0],"split_type":[0,0,0,0,0,0,0,0,0,0,0,0,0,0,0,0,0,0,0,0,0,0,0,0,0,0,0,0,0,0,0],"sum_hessian":[5.968E3,8.64E2,5.104E3,1.38E2,7.26E2,2.79E2,4.825E3,6.9E1,6.9E1,9.5E1,6.31E2,8.2E1,1.97E2,4.221E3,6.04E2,4.6E1,2.3E1,2.4E1,4.5E1,5.1E1,4.4E1,5.7E1,5.74E2,5.5E1,2.7E1,1.3E2,6.7E1,4.111E3,1.1E2,3.2E1,5.72E2],"tree_param":{"num_deleted":"0","num_feature":"2","num_nodes":"31","size_leaf_vector":"0"}},{"base_weights":[5.119267E-1,-1.144514E-1,9.4624805E-1,2.450501E-1,-1.6344124E1,4.133778E0,5.7676E-1,-6.2093983E0,4.4508252E-1,-2.9791239E1,-7.291593E0,-3.2831614E0,5.6279306E0,-2.6478198E0,1.0774434E0,-1.315309E0,-1.3420796E1,1.1615206E1,3.0990846E-2,-5.4854927E0,-1.4274915E0,7.096807E0,-5.906169E0,-1.2684284E1,-1.9620243E0,4.4720035E0,4.9767128E-1],"categories":[],"categories_nodes":[],"categories_segments":[],"categories_sizes":[],"default_left":[true,true,true,true,true,true,true,true,true,false,false,true,true,true,true,false,false,false,false,false,false,false,false,false,false,false,false],"id":17,"left_children":[1,3,5,7,9,11,13,15,17,-1,-1,19,21,23,25,-1,-1,-1,-1,-1,-1,-1,-1,-1,-1,-1,-1],"loss_changes":[1.6239711E3,1.4269581E4,4.1491997E3,3.0923635E3,6.2344863E3,4.0745034E3,5.1046514E3,2.5234597E3,1.0739946E4,0E0,0E0,2.4555109E2,5.2092764E3,2.9003716E3,5.382417E3,0E0,0E0,0E0,0E0,0E0,0E0,0E0,0E0,0E0,0E0,0E0,0E0],"parents":[2147483647,0,0,1,1,2,2,3,3,4,4,5,5,6,6,7,7,8,8,11,11,12,12,13,13,14,14],"right_children":[2,4,6,8,10,12,14,16,18,-1,-1,20,22,24,26,-1,-1,-1,-1,-1,-1,-1,-1,-1,-1,-1,-1],"split_conditions":[2.9731007E0,2.8806164E0,3.6722991E0,-1.3773576E1,-5.69497E0,-1.2421997E1,5.0190315E0,2.0661638E0,-1.2696445E1,-8.937372E0,-2.187478E0,-2.6257645E1,-3.3687553E0,3.7527447E0,5.482361E0,-3.9459273E-1,-4.026239E0,3.484562E0,9.2972545E-3,-1.6456479E0,-4.2824748E-1,2.1290421E0,-1.7718507E0,-3.8052855E0,-5.886073E-1,1.3416011E0,1.493014E-1],"split_indices":[1,1,1,0,0,0,1,1,0,0,0,0,0,1,1,0,0,0,0,0,0,0,0,0,0,0,0],"split_type":[0,0,0,0,0,0,0,0,0,0,0,0,0,0,0,0,0,0,0,0,0,0,0,0,0,0,0],"sum_hessian":[5.968E3,2.444E3,3.524E3,2.392E3,5.2E1,3.65E2,3.159E3,7.1E1,2.321E3,2E1,3.2E1,6.1E1,3.04E2,4.24E2,2.735E3,4.3E1,2.8E1,8.2E1,2.239E3,2.7E1,3.4E1,2.7E2,3.4E1,2.6E1,3.98E2,3.98E2,2.337E3],"tree_param":{"num_deleted":"0","num_feature":"2","num_nodes":"27","size_leaf_vector":"0"}},{"base_weights":[3.5555542E-1,2.6435685E-1,2.9446523E0,5.4541783E0,2.2533035E-1,5.474504E0,-7.789224E-1,3.3149597E-1,-2.8194351E0,3.384683E0,1.0722437E1,1.936587E0,-1.8521441E0,2.5298592E-1,4.23595E0,-8.388929E0,-1.7834334E0,6.2655115E0,6.1815447E-1,4.3313134E-1,-3.1865966E0],"categories":[],"categories_nodes":[],"categories_segments":[],"categories_sizes":[],"default_left":[true,true,true,false,true,true,true,true,true,true,false,false,true,false,false,false,false,false,false,false,false],"id":18,"left_children":[1,3,5,-1,7,9,11,13,15,17,-1,-1,19,-1,-1,-1,-1,-1,-1,-1,-1],"loss_changes":[1.4086335E3,1.1668224E3,1.9165427E3,0E0,1.8515375E3,1.2907439E3,2.4547737E2,1.6950078E3,1.0986498E3,6.9747766E2,0E0,0E0,1.8435568E2,0E0,0E0,0E0,0E0,0E0,0E0,0E0,0E0],"parents":[2147483647,0,0,1,1,2,2,4,4,5,5,6,6,7,7,8,8,9,9,12,12],"right_children":[2,4,6,-1,8,10,12,14,16,18,-1,-1,20,-1,-1,-1,-1,-1,-1,-1,-1],"split_conditions":[1.3916378E1,-9.171492E0,1.4915108E1,1.6362536E0,1.2994491E1,1.4374542E1,6.556195E-1,1.2154652E1,1.301248E1,1.4131548E1,3.2167313E0,5.809761E-1,1.5521426E1,7.589578E-2,1.2707851E0,-2.5166788E0,-5.3503007E-1,1.8796536E0,1.8544635E-1,1.299394E-1,-9.5597905E-1],"split_indices":[0,1,0,0,0,0,1,0,0,0,0,0,0,0,0,0,0,0,0,0,0],"split_type":[0,0,0,0,0,0,0,0,0,0,0,0,0,0,0,0,0,0,0,0,0],"sum_hessian":[5.968E3,5.766E3,2.02E2,4.2E1,5.724E3,1.2E2,8.2E1,5.532E3,1.92E2,8.7E1,3.3E1,2.3E1,5.9E1,5.424E3,1.08E2,2.9E1,1.63E2,4.2E1,4.5E1,2.2E1,3.7E1],"tree_param":{"num_deleted":"0","num_feature":"2","num_nodes":"21","size_leaf_vector":"0"}},{"base_weights":[2.4971987E-1,2.0651647E-1,4.1707416E0,2.5858963E-1,-5.5480247E0,1.9332224E-1,6.7763677E0,-3.7099078E0,-8.172302E0,-2.2625206E0,2.7560163E-1,8.417448E0,4.9641113E0],"categories":[],"categories_nodes":[],"categories_segments":[],"categories_sizes":[],"default_left":[true,true,false,true,true,true,true,false,false,false,false,false,false],"id":19,"left_children":[1,3,-1,5,7,9,11,-1,-1,-1,-1,-1,-1],"loss_changes":[1.01029626E3,1.7709098E3,0E0,2.4885461E3,2.2533911E2,1.1717938E3,1.307102E2,0E0,0E0,0E0,0E0,0E0,0E0],"parents":[2147483647,0,0,1,1,3,3,4,4,5,5,6,6],"right_children":[2,4,-1,6,8,10,12,-1,-1,-1,-1,-1,-1],"split_conditions":[4.9569725E1,2.342051E1,1.2512225E0,2.120243E1,-2.1216274E1,-2.3713562E1,2.209222E1,-1.1129724E0,-2.4516907E0,-6.787562E-1,8.268049E-2,2.5252345E0,1.4892335E0],"split_indices":[1,1,0,1,0,0,1,0,0,0,0,0,0],"split_type":[0,0,0,0,0,0,0,0,0,0,0,0,0],"sum_hessian":[5.968E3,5.904E3,6.4E1,5.852E3,5.2E1,5.795E3,5.7E1,3.2E1,2E1,1.87E2,5.608E3,2.8E1,2.9E1],"tree_param":{"num_deleted":"0","num_feature":"2","num_nodes":"13","size_leaf_vector":"0"}},{"base_weights":[1.7498265E-1,-2.716124E-1,4.8469895E-1,-1.6027749E-2,-1.18063755E1,9.70148E0,4.1609293E-1,4.6113417E-1,-2.1058538E0,-2.1430483E1,-5.324175E0,-4.8242053E-1,8.4470165E-1,2.939688E-1,1.3314424E1,3.1195703E0,-4.440278E0,-1.9461486E-1,-1.2243267E1,7.118549E0,5.010505E-1],"categories":[],"categories_nodes":[],"categories_segments":[],"categories_sizes":[],"default_left":[true,true,true,true,true,false,true,true,true,false,false,true,true,false,false,false,false,false,false,false,false],"id":20,"left_children":[1,3,5,7,9,-1,11,13,15,-1,-1,17,19,-1,-1,-1,-1,-1,-1,-1,-1],"loss_changes":[8.2575037E2,7.207936E3,2.224914E3,2.3872358E3,3.1923257E3,0E0,1.3482949E3,4.183757E3,5.44212E3,0E0,0E0,3.8258696E3,5.1061885E3,0E0,0E0,0E0,0E0,0E0,0E0,0E0,0E0],"parents":[2147483647,0,0,1,1,2,2,3,3,4,4,6,6,7,7,8,8,11,11,12,12],"right_children":[2,4,6,8,10,-1,12,14,16,-1,-1,18,20,-1,-1,-1,-1,-1,-1,-1,-1],"split_conditions":[2.9731007E0,2.8806164E0,3.0736365E0,2.1050086E0,-5.69497E0,2.910444E0,-6.881608E0,2.0756423E0,-1.0396013E1,-6.4291453E0,-1.5972525E0,-7.1355867E0,-6.473851E0,8.8190645E-2,3.9943273E0,9.358711E-1,-1.3320835E0,-5.838446E-2,-3.6729803E0,2.1355648E0,1.5031515E-1],"split_indices":[1,1,1,1,0,0,0,1,0,0,0,0,0,0,0,0,0,0,0,0,0],"split_type":[0,0,0,0,0,0,0,0,0,0,0,0,0,0,0,0,0,0,0,0,0],"sum_hessian":[5.968E3,2.444E3,3.524E3,2.392E3,5.2E1,2.5E1,3.499E3,1.948E3,4.44E2,2E1,3.2E1,1.13E3,2.369E3,1.924E3,2.4E1,1.37E2,3.07E2,1.104E3,2.6E1,1.22E2,2.247E3],"tree_param":{"num_deleted":"0","num_feature":"2","num_nodes":"21","size_leaf_vector":"0"}},{"base_weights":[1.2200386E-1,5.0920997E-2,1.8874693E0,2.5999075E-1,-7.2856885E-1,3.339802E0,-7.424708E-1,6.89931E-2,7.3327446E0,-3.0453925E0,2.5550944E-1,2.1199574E0,7.4033947E0,1.216053E0,-1.5135058E0,1.8685429E-1,-1.1899633E1,1.1273745E1,-1.7060597E0,-5.803657E0,1.1225181E0,1.1458799E1,-9.6593276E-2,2.834014E0,-5.9256834E-1,8.596603E-2,-2.4417782E0],"categories":[],"categories_nodes":[],"categories_segments":[],"categories_sizes":[],"default_left":[true,true,true,true,true,true,true,true,true,true,true,true,false,false,true,false,false,false,false,false,false,false,false,false,false,false,false],"id":21,"left_children":[1,3,5,7,9,11,13,15,17,19,21,23,-1,-1,25,-1,-1,-1,-1,-1,-1,-1,-1,-1,-1,-1,-1],"loss_changes":[7.4897955E2,9.3546136E2,8.847952E2,6.113574E3,2.7686204E3,7.2289087E2,1.2717801E2,6.2203096E3,4.2582427E3,4.1681387E3,3.3659434E3,2.2635938E2,0E0,0E0,8.929463E1,0E0,0E0,0E0,0E0,0E0,0E0,0E0,0E0,0E0,0E0,0E0,0E0],"parents":[2147483647,0,0,1,1,2,2,3,3,4,4,5,5,6,6,7,7,8,8,9,9,10,10,11,11,14,14],"right_children":[2,4,6,8,10,12,14,16,18,20,22,24,-1,-1,26,-1,-1,-1,-1,-1,-1,-1,-1,-1,-1,-1,-1],"split_conditions":[1.3814161E1,9.795107E0,1.4915108E1,9.357292E0,1.403805E1,1.4374542E1,6.556195E-1,9.127932E0,6.4068055E0,6.616832E0,1.4183352E1,1.429101E1,2.2210186E0,3.6481592E-1,1.5521426E1,5.6056287E-2,-3.5698903E0,3.3821235E0,-5.1181793E-1,-1.7410972E0,3.3675542E-1,3.43764E0,-2.8977985E-2,8.502042E-1,-1.7777051E-1,2.578981E-2,-7.3253345E-1],"split_indices":[0,1,0,1,1,0,1,1,0,0,1,0,0,0,0,0,0,0,0,0,0,0,0,0,0,0,0],"split_type":[0,0,0,0,0,0,0,0,0,0,0,0,0,0,0,0,0,0,0,0,0,0,0,0,0,0,0],"sum_hessian":[5.968E3,5.738E3,2.3E2,4.525E3,1.213E3,1.48E2,8.2E1,4.407E3,1.18E2,3.61E2,8.52E2,1.15E2,3.3E1,2.3E1,5.9E1,4.365E3,4.2E1,8.2E1,3.6E1,2.17E2,1.44E2,2.5E1,8.27E2,9.1E1,2.4E1,2.2E1,3.7E1],"tree_param":{"num_deleted":"0","num_feature":"2","num_nodes":"27","size_leaf_vector":"0"}},{"base_weights":[8.6054675E-2,3.7736866E0,5.9286624E-2,-5.665167E0,9.718685E-2,1.4753104E0,-2.0680193E-2,-2.2219555E-2,5.6734867E0,-2.7395978E0,1.6847995E-1],"categories":[],"categories_nodes":[],"categories_segments":[],"categories_sizes":[],"default_left":[true,false,true,false,true,true,true,false,false,false,false],"id":22,"left_children":[1,-1,3,-1,5,7,9,-1,-1,-1,-1],"loss_changes":[5.889805E2,0E0,1.2864609E3,0E0,9.566123E2,2.9172454E3,2.791112E3,0E0,0E0,0E0,0E0],"parents":[2147483647,0,0,2,2,4,4,5,5,6,6],"right_children":[2,-1,4,-1,6,8,10,-1,-1,-1,-1],"split_conditions":[-9.171492E0,1.1321061E0,-2.9086187E1,-1.6995502E0,-1.5179686E1,-1.9630508E1,-1.1628689E1,-6.665867E-3,1.702046E0,-8.218794E-1,5.0543986E-2],"split_indices":[1,0,0,0,0,0,0,0,0,0,0],"split_type":[0,0,0,0,0,0,0,0,0,0,0],"sum_hessian":[5.968E3,4.2E1,5.926E3,3.8E1,5.888E3,4.63E2,5.425E3,3.42E2,1.21E2,3.52E2,5.073E3],"tree_param":{"num_deleted":"0","num_feature":"2","num_nodes":"11","size_leaf_vector":"0"}},{"base_weights":[6.0304355E-2,7.2058046E-1,-1.122758E-1,4.381437E-1,1.2900148E1,-3.5973823E0,6.8974696E-2,-2.4633455E0,1.1400034E0,-1.8219396E-2,-1.8629461E1,2.2489045E0,-1.7080772E-1,1.3617849E0,-6.2356315E0,5.324599E0,-4.2935184E-1,-1.6662089E0,8.48812E0,-1.3506274E1,-2.3841377E1,-4.148372E-1,5.587404E0,-5.5631986E0,7.058015E-4],"categories":[],"categories_nodes":[],"categories_segments":[],"categories_sizes":[],"default_left":[true,true,true,true,false,true,true,true,true,true,true,true,true,false,false,false,false,false,false,false,false,false,false,false,false],"id":23,"left_children":[1,3,5,7,-1,9,11,13,15,17,19,21,23,-1,-1,-1,-1,-1,-1,-1,-1,-1,-1,-1,-1],"loss_changes":[6.802518E2,4.2495757E3,2.9899766E3,2.466899E3,0E0,1.2589391E4,2.352574E3,3.4138503E3,6.405225E3,2.6776309E3,8.7956445E2,3.968551E3,3.7503438E3,0E0,0E0,0E0,0E0,0E0,0E0,0E0,0E0,0E0,0E0,0E0,0E0],"parents":[2147483647,0,0,1,1,2,2,3,3,5,5,6,6,7,7,8,8,9,9,10,10,11,11,12,12],"right_children":[2,4,6,8,-1,10,12,14,16,18,20,22,24,-1,-1,-1,-1,-1,-1,-1,-1,-1,-1,-1,-1],"split_conditions":[-1.0719093E1,-1.0757059E1,-1.0023151E1,4.908659E-1,3.8700447E0,5.0673265E0,-8.25041E0,3.0097324E-1,2.3138952E0,2.4711604E0,-1.0298493E1,-9.035698E0,-7.858706E0,4.085355E-1,-1.8706895E0,1.5973797E0,-1.2880556E-1,-4.9986267E-1,2.546436E0,-4.0518823E0,-7.1524134E0,-1.2445117E-1,1.6762213E0,-1.6689596E0,2.1174045E-4],"split_indices":[0,0,0,1,0,1,0,1,1,1,0,0,0,0,0,0,0,0,0,0,0,0,0,0,0],"split_type":[0,0,0,0,0,0,0,0,0,0,0,0,0,0,0,0,0,0,0,0,0,0,0,0,0],"sum_hessian":[5.968E3,1.236E3,4.732E3,1.209E3,2.7E1,2.33E2,4.499E3,2.35E2,9.74E2,1.89E2,4.4E1,4.45E2,4.054E3,1.17E2,1.18E2,2.65E2,7.09E2,1.59E2,3E1,2.4E1,2E1,2.48E2,1.97E2,1.24E2,3.93E3],"tree_param":{"num_deleted":"0","num_feature":"2","num_nodes":"25","size_leaf_vector":"0"}},{"base_weights":[4.130666E-2,-3.7610608E-1,3.332343E-1,-1.8870549E-1,-7.2695456E0,9.605914E0,2.6937255E-1,-4.8950887E0,-4.2689852E-2,-1.2185393E1,-3.3841106E-1,8.485977E-1,-2.7805653E-1,-1.5996121E0,-9.726326E0,7.1322002E0,-3.085261E-1,2.2389236E-1,5.3411694E0,-9.734985E0,-6.247841E-2],"categories":[],"categories_nodes":[],"categories_segments":[],"categories_sizes":[],"default_left":[true,true,true,true,true,false,true,true,true,false,false,true,true,false,false,false,false,false,false,false,false],"id":24,"left_children":[1,3,5,7,9,-1,11,13,15,-1,-1,17,19,-1,-1,-1,-1,-1,-1,-1,-1],"loss_changes":[7.2747375E2,3.1726663E3,2.0777046E3,1.6442738E3,2.2105823E3,0E0,1.1068616E3,1.1307701E3,4.431057E3,0E0,0E0,4.7586846E3,3.6588708E3,0E0,0E0,0E0,0E0,0E0,0E0,0E0,0E0],"parents":[2147483647,0,0,1,1,2,2,3,3,4,4,6,6,7,7,8,8,11,11,12,12],"right_children":[2,4,6,8,10,-1,12,14,16,-1,-1,18,20,-1,-1,-1,-1,-1,-1,-1,-1],"split_conditions":[3.0282593E0,2.8806164E0,3.134413E0,-1.3773576E1,2.9432638E0,2.8817744E0,7.837062E0,2.0661638E0,-1.2696445E1,-3.6556182E0,-1.01523325E-1,6.818817E0,7.899405E0,-4.7988364E-1,-2.917898E0,2.1396601E0,-9.255783E-2,6.7167714E-2,1.6023508E0,-2.9204957E0,-1.8743522E-2],"split_indices":[1,1,1,0,1,0,1,1,0,0,0,1,1,0,0,0,0,0,0,0,0],"split_type":[0,0,0,0,0,0,0,0,0,0,0,0,0,0,0,0,0,0,0,0,0],"sum_hessian":[5.968E3,2.456E3,3.512E3,2.392E3,6.4E1,2.3E1,3.489E3,7.1E1,2.321E3,3.7E1,2.7E1,1.695E3,1.794E3,4.3E1,2.8E1,8.2E1,2.239E3,1.489E3,2.06E2,3.9E1,1.755E3],"tree_param":{"num_deleted":"0","num_feature":"2","num_nodes":"21","size_leaf_vector":"0"}},{"base_weights":[2.8327532E-2,-1.1172994E0,9.9236436E-2,-3.9745634E0,8.7156475E-1,4.550641E0,-4.292609E-2,3.0045643E0,-5.4073668E0,5.193599E0,-1.9706625E0,2.1519506E-1,8.688817E0,-3.1606343E0,6.2957555E-2,-4.01151E0,-7.9650583E0,5.93837E-1,7.318599E0,1.4479795E0,-3.59647E0,-5.413878E-1,1.8017377E0,1.4599806E1,4.398338E0,-8.6011004E-1,-1.5536315E1,-1.6333412E-2,1.8248959E0],"categories":[],"categories_nodes":[],"categories_segments":[],"categories_sizes":[],"default_left":[true,true,true,true,true,true,true,false,true,true,true,true,true,true,true,false,false,false,false,false,false,false,false,false,false,false,false,false,false],"id":25,"left_children":[1,3,5,7,9,11,13,-1,15,17,19,21,23,25,27,-1,-1,-1,-1,-1,-1,-1,-1,-1,-1,-1,-1,-1,-1],"loss_changes":[4.8500348E2,1.981047E3,3.5579255E3,1.4462065E3,2.5407808E3,3.1198362E3,1.798992E3,0E0,3.9289844E2,7.9716235E2,6.9996436E2,1.0420562E2,2.192912E3,5.082866E3,7.3641907E2,0E0,0E0,0E0,0E0,0E0,0E0,0E0,0E0,0E0,0E0,0E0,0E0,0E0,0E0],"parents":[2147483647,0,0,1,1,2,2,3,3,4,4,5,5,6,6,8,8,9,9,10,10,11,11,12,12,13,13,14,14],"right_children":[2,4,6,8,10,12,14,-1,16,18,20,22,24,26,28,-1,-1,-1,-1,-1,-1,-1,-1,-1,-1,-1,-1,-1,-1],"split_conditions":[-2.3894553E0,-5.099213E0,-1.3308291E0,-8.159122E0,7.0154147E0,-1.4251413E0,6.7119054E-2,9.0136933E-1,-5.624035E0,-6.458831E0,-8.106022E0,6.975701E0,-6.0160255E0,-2.0271784E-1,1.33787E1,-1.2034531E0,-2.3895175E0,1.7815112E-1,2.1955798E0,4.3439385E-1,-1.0789411E0,-1.6241634E-1,5.405213E-1,4.379942E0,1.3195014E0,-2.5803304E-1,-4.660895E0,-4.900024E-3,5.474688E-1],"split_indices":[1,0,1,1,0,1,1,0,0,1,1,0,0,1,0,0,0,0,0,0,0,0,0,0,0,0,0,0,0],"split_type":[0,0,0,0,0,0,0,0,0,0,0,0,0,0,0,0,0,0,0,0,0,0,0,0,0,0,0,0,0],"sum_hessian":[5.968E3,3.47E2,5.621E3,1.42E2,2.05E2,1.73E2,5.448E3,2.4E1,1.18E2,8.1E1,1.24E2,8.5E1,8.8E1,1.78E2,5.27E3,7.8E1,4E1,2.6E1,5.5E1,4E1,8.4E1,5.8E1,2.7E1,3.6E1,5.2E1,1.51E2,2.7E1,5.044E3,2.26E2],"tree_param":{"num_deleted":"0","num_feature":"2","num_nodes":"29","size_leaf_vector":"0"}},{"base_weights":[1.9951116E-2,5.9878445E-1,-1.1726506E-1,-5.2073006E-2,8.130707E0,-8.269932E0,-6.1120868E-2,-3.418925E0,6.221227E-1,1.0884861E1,5.8557677E0,-1.4405395E-1,2.56156E0,-5.2878447E0,1.675025E0,2.977034E0,-2.072119E-1,6.6842217E0,4.693669E0,-1.0753511E-1,-6.8928156E0,1.9318493E-1,8.101319E0],"categories":[],"categories_nodes":[],"categories_segments":[],"categories_sizes":[],"default_left":[true,true,true,true,true,false,true,true,true,false,true,true,true,false,false,false,false,false,false,false,false,false,false],"id":26,"left_children":[1,3,5,7,9,-1,11,13,15,-1,17,19,21,-1,-1,-1,-1,-1,-1,-1,-1,-1,-1],"loss_changes":[4.7415982E2,5.6085493E3,2.2084749E3,2.3946196E3,5.0642383E2,0E0,1.0430975E3,1.6844097E3,1.7173121E3,0E0,1.8689209E1,1.1447906E3,1.9271085E3,0E0,0E0,0E0,0E0,0E0,0E0,0E0,0E0,0E0,0E0],"parents":[2147483647,0,0,1,1,2,2,3,3,4,4,6,6,7,7,8,8,10,10,11,11,12,12],"right_children":[2,4,6,8,10,-1,12,14,16,-1,18,20,22,-1,-1,-1,-1,-1,-1,-1,-1,-1,-1],"split_conditions":[-1.0941994E1,-1.1250212E1,-1.0896688E1,4.7369868E-1,-1.1104621E1,-2.4809797E0,1.6953955E1,-1.131093E1,2.3651218E0,3.2654583E0,-1.1001781E1,1.6430927E1,1.4458859E0,-1.5863534E0,5.025075E-1,8.931103E-1,-6.2163573E-2,2.0052667E0,1.4081007E0,-3.2260533E-2,-2.0678449E0,5.795548E-2,2.4303958E0],"split_indices":[0,0,0,1,0,0,1,0,1,0,0,1,0,0,0,0,0,0,0,0,0,0,0],"split_type":[0,0,0,0,0,0,0,0,0,0,0,0,0,0,0,0,0,0,0,0,0,0,0],"sum_hessian":[5.968E3,1.143E3,4.825E3,1.053E3,9E1,3.2E1,4.793E3,1.75E2,8.78E2,3.9E1,5.1E1,4.647E3,1.46E2,1.28E2,4.7E1,2.28E2,6.5E2,2.7E1,2.4E1,4.623E3,2.4E1,1.03E2,4.3E1],"tree_param":{"num_deleted":"0","num_feature":"2","num_nodes":"23","size_leaf_vector":"0"}},{"base_weights":[1.4689086E-2,9.9953926E-1,-7.78971E-2,5.421113E-3,4.185562E0,-2.915162E0,1.9435259E-2,3.7652342E0,-1.5499167E0,7.160228E0,1.9479822E0,2.511806E0,-6.440858E0,7.141972E0,-1.4465913E-2,-7.843521E-1,7.1548414E0,4.0605392E0,-3.1127052E0,1.1423604E0,2.9506438E0,-2.4849549E-1,8.403253E0,-4.3487463E0,-7.769709E0,-4.55108E0,3.4411512E-2],"categories":[],"categories_nodes":[],"categories_segments":[],"categories_sizes":[],"default_left":[true,true,true,true,true,true,true,true,true,false,true,true,true,false,true,false,false,false,false,false,false,false,false,false,false,false,false],"id":27,"left_children":[1,3,5,7,9,11,13,15,17,-1,19,21,23,-1,25,-1,-1,-1,-1,-1,-1,-1,-1,-1,-1,-1,-1],"loss_changes":[5.4435236E2,1.6247935E3,1.5070493E3,2.2981655E3,7.9809033E2,3.4794028E3,1.2743E3,1.7790627E3,2.4501313E3,0E0,5.3980713E1,1.1729644E3,2.7202344E2,0E0,1.1649465E3,0E0,0E0,0E0,0E0,0E0,0E0,0E0,0E0,0E0,0E0,0E0,0E0],"parents":[2147483647,0,0,1,1,2,2,3,3,4,4,5,5,6,6,7,7,8,8,10,10,11,11,12,12,14,14],"right_children":[2,4,6,8,10,12,14,16,18,-1,20,22,24,-1,26,-1,-1,-1,-1,-1,-1,-1,-1,-1,-1,-1,-1],"split_conditions":[-1.5179686E1,-1.9630508E1,-1.2816595E1,8.040184E0,-1.8041508E1,2.3261979E0,-1.2696445E1,-2.6764261E1,-2.6601562E1,2.1480684E0,-1.6275066E1,-1.3495232E1,-1.3824633E1,2.1425917E0,-1.1810534E1,-2.3530565E-1,2.1464524E0,1.2181618E0,-9.338116E-1,3.4270814E-1,8.8519317E-1,-7.454865E-2,2.5209758E0,-1.304624E0,-2.3309128E0,-1.3653241E0,1.0323454E-2],"split_indices":[0,0,0,1,0,1,0,0,0,0,0,0,0,0,0,0,0,0,0,0,0,0,0,0,0,0,0],"split_type":[0,0,0,0,0,0,0,0,0,0,0,0,0,0,0,0,0,0,0,0,0,0,0,0,0,0,0],"sum_hessian":[5.968E3,5.12E2,5.456E3,3.91E2,1.21E2,1.8E2,5.276E3,1.14E2,2.77E2,5.1E1,7E1,7.1E1,1.09E2,2.4E1,5.252E3,4.9E1,6.5E1,6E1,2.17E2,4E1,3E1,4.9E1,2.2E1,4.4E1,6.5E1,5.5E1,5.197E3],"tree_param":{"num_deleted":"0","num_feature":"2","num_nodes":"27","size_leaf_vector":"0"}},{"base_weights":[1.1142668E-2,-3.144887E-1,2.388868E-1,6.823889E-2,-1.7793642E0,2.3472013E0,2.6266219E-3,-6.0417045E-2,9.972016E0,1.8968657E0,-3.2631836E0,3.1027753E0,-4.6279674E0,-9.459102E0,8.414035E-2,-8.826144E-1,1.0509784E0,-5.584661E0,3.704155E0,-1.187647E1,-2.2491713E0,9.7656095E-1,6.545512E0,5.892125E0,3.554217E-2],"categories":[],"categories_nodes":[],"categories_segments":[],"categories_sizes":[],"default_left":[true,true,true,true,true,true,true,true,false,true,true,true,false,false,true,false,false,false,false,false,false,false,false,false,false],"id":28,"left_children":[1,3,5,7,9,11,13,15,-1,17,19,21,-1,-1,23,-1,-1,-1,-1,-1,-1,-1,-1,-1,-1],"loss_changes":[4.4273996E2,1.3776343E3,1.7498569E3,2.4839788E3,2.782714E3,1.8800304E3,2.43798E3,1.7599666E3,0E0,2.008315E3,3.1437224E3,2.3360066E3,0E0,0E0,8.8438556E2,0E0,0E0,0E0,0E0,0E0,0E0,0E0,0E0,0E0,0E0],"parents":[2147483647,0,0,1,1,2,2,3,3,4,4,5,5,6,6,7,7,9,9,10,10,11,11,14,14],"right_children":[2,4,6,8,10,12,14,16,-1,18,20,22,-1,-1,24,-1,-1,-1,-1,-1,-1,-1,-1,-1,-1],"split_conditions":[3.0282593E0,2.1050086E0,3.6722991E0,2.0756423E0,-1.0396013E1,-3.3687553E0,3.7527447E0,-6.0818615E0,2.991605E0,-1.3773576E1,-1.0023151E1,3.4160388E0,-1.3883903E0,-2.8377306E0,3.7953095E0,-2.6478434E-1,3.1529355E-1,-1.6753983E0,1.1112466E0,-3.562941E0,-6.747514E-1,2.929683E-1,1.9636537E0,1.7676376E0,1.0662652E-2],"split_indices":[1,1,1,1,0,0,1,0,0,0,0,1,0,0,1,0,0,0,0,0,0,0,0,0,0],"split_type":[0,0,0,0,0,0,0,0,0,0,0,0,0,0,0,0,0,0,0,0,0,0,0,0,0],"sum_hessian":[5.968E3,2.456E3,3.512E3,1.948E3,5.08E2,3.53E2,3.159E3,1.924E3,2.4E1,1.46E2,3.62E2,3.19E2,3.4E1,2.6E1,3.133E3,1.106E3,8.18E2,2.8E1,1.18E2,3.7E1,3.25E2,1.98E2,1.21E2,2.5E1,3.108E3],"tree_param":{"num_deleted":"0","num_feature":"2","num_nodes":"25","size_leaf_vector":"0"}},{"base_weights":[7.4722203E-3,3.855883E-1,-1.7109738E-1,2.062746E-2,4.7749085E0,-4.3519907E0,-3.810761E-2,-1.4284899E0,7.6000595E-1,1.0672658E1,2.1518638E0,1.21111505E-1,-7.7557745E0,-7.1986055E-1,3.240221E-1,3.5415685E-1,-6.4815927E0,5.7398033E0,2.8502992E-1,7.3086185E0,1.3857399E1,-7.174048E-1,6.336216E0,-1.9011389E0,1.9997201E0,-1.0805779E1,-2.685917E0,2.78545E-1,-3.2686E0,9.579701E-1,-9.122209E-1],"categories":[],"categories_nodes":[],"categories_segments":[],"categories_sizes":[],"default_left":[true,true,true,true,true,true,true,true,true,true,true,true,true,true,true,false,false,false,false,false,false,false,false,false,false,false,false,false,false,false,false],"id":29,"left_children":[1,3,5,7,9,11,13,15,17,19,21,23,25,27,29,-1,-1,-1,-1,-1,-1,-1,-1,-1,-1,-1,-1,-1,-1,-1,-1],"loss_changes":[4.0309305E2,3.0675974E3,2.2544792E3,1.8964741E3,2.251133E3,1.9041235E3,9.707304E2,5.389018E3,2.7704775E3,3.808335E2,1.2411666E3,2.1274768E2,1.068856E3,3.4718481E3,2.0134507E3,0E0,0E0,0E0,0E0,0E0,0E0,0E0,0E0,0E0,0E0,0E0,0E0,0E0,0E0,0E0,0E0],"parents":[2147483647,0,0,1,1,2,2,3,3,4,4,5,5,6,6,7,7,8,8,9,9,10,10,11,11,12,12,13,13,14,14],"right_children":[2,4,6,8,10,12,14,16,18,20,22,24,26,28,30,-1,-1,-1,-1,-1,-1,-1,-1,-1,-1,-1,-1,-1,-1,-1,-1],"split_conditions":[-8.25041E0,-8.985264E0,-7.858706E0,1.906407E0,-8.683256E0,3.7953095E0,2.9428446E0,-1.0780508E1,2.1050086E0,-8.954945E0,-8.348947E0,-8.152243E0,5.9958315E0,1.9442568E0,9.795107E0,1.0624706E-1,-1.9444779E0,1.7219411E0,8.550898E-2,2.1925857E0,4.15722E0,-2.1522145E-1,1.9008648E0,-5.703417E-1,5.9991604E-1,-3.241734E0,-8.057751E-1,8.35635E-2,-9.8058003E-1,2.8739104E-1,-2.736663E-1],"split_indices":[0,0,0,1,0,1,1,0,1,0,0,0,1,1,1,0,0,0,0,0,0,0,0,0,0,0,0,0,0,0,0],"split_type":[0,0,0,0,0,0,0,0,0,0,0,0,0,0,0,0,0,0,0,0,0,0,0,0,0,0,0,0,0,0,0],"sum_hessian":[5.968E3,1.914E3,4.054E3,1.768E3,1.46E2,1.24E2,3.93E3,5.97E2,1.171E3,4.4E1,1.02E2,5.4E1,7E1,1.363E3,2.567E3,4.42E2,1.55E2,1.01E2,1.07E3,2.3E1,2.1E1,6.1E1,4.1E1,2.6E1,2.8E1,4.3E1,2.7E1,9.8E2,3.83E2,1.697E3,8.7E2],"tree_param":{"num_deleted":"0","num_feature":"2","num_nodes":"31","size_leaf_vector":"0"}},{"base_weights":[5.7528676E-3,-8.3202267E-1,6.801587E-2,-2.572367E0,1.7034999E-1,6.449524E0,-2.9922502E-2,3.456206E0,-3.738839E0,1.5641433E0,-2.5721688E0,2.8764346E0,1.0699146E1,-5.5333934E0,1.2627784E-2,-2.6295254E0,-6.0015574E0,2.8579485E0,-1.9903646E-1,-3.3831465E-1,-4.1551356E0,1.3997366E0,3.918443E0,5.6246333E0,-5.0031867E-2],"categories":[],"categories_nodes":[],"categories_segments":[],"categories_sizes":[],"default_left":[true,true,true,true,true,true,true,false,true,true,true,true,false,false,true,false,false,false,false,false,false,false,false,false,false],"id":30,"left_children":[1,3,5,7,9,11,13,-1,15,17,19,21,-1,-1,23,-1,-1,-1,-1,-1,-1,-1,-1,-1,-1],"loss_changes":[3.1141412E2,7.2090576E2,3.4732876E3,1.0747786E3,1.0093418E3,1.2447039E3,1.2819398E3,0E0,3.0299695E2,3.9978082E2,3.1330872E2,6.68356E1,0E0,0E0,1.9107758E3,0E0,0E0,0E0,0E0,0E0,0E0,0E0,0E0,0E0,0E0],"parents":[2147483647,0,0,1,1,2,2,3,3,4,4,5,5,6,6,8,8,9,9,10,10,11,11,14,14],"right_children":[2,4,6,8,10,12,14,-1,16,18,20,22,-1,-1,24,-1,-1,-1,-1,-1,-1,-1,-1,-1,-1],"split_conditions":[-1.4544075E0,-5.099213E0,-1.3516729E0,-8.159122E0,1.3361525E1,-1.3728743E0,-1.3243533E0,1.0368619E0,-5.624035E0,-3.7071679E0,-7.9369016E0,-1.4251413E0,3.209744E0,-1.6600181E0,-5.562262E-1,-7.8885764E-1,-1.8004673E0,8.573846E-1,-5.9710942E-2,-1.014944E-1,-1.2465408E0,4.19921E-1,1.1755329E0,1.6873901E0,-1.5009561E-2],"split_indices":[1,0,1,1,0,1,1,0,0,1,1,1,0,0,1,0,0,0,0,0,0,0,0,0,0],"split_type":[0,0,0,0,0,0,0,0,0,0,0,0,0,0,0,0,0,0,0,0,0,0,0,0,0],"sum_hessian":[5.968E3,4.12E2,5.556E3,1.5E2,2.62E2,8.3E1,5.473E3,2.4E1,1.26E2,1.74E2,8.8E1,4.6E1,3.7E1,4.1E1,5.432E3,8.6E1,4E1,1E2,7.4E1,3.7E1,5.1E1,2E1,2.6E1,5.9E1,5.373E3],"tree_param":{"num_deleted":"0","num_feature":"2","num_nodes":"25","size_leaf_vector":"0"}},{"base_weights":[4.4862144E-3,-1.9402748E-1,2.4072024E-1,1.28836E-2,-4.055192E0,2.4947097E0,-1.3440491E-1,-4.1105054E-2,4.579066E0,-1.13671E1,-2.9099338E0,1.6405699E0,8.252966E0,-7.3533897E0,-2.150094E-2,-1.1440668E0,1.1612172E-1,-4.4360384E-1,-7.1362057E0,2.8067067E0,-3.3362653E0,7.4184856E0,-1.2296072E-1],"categories":[],"categories_nodes":[],"categories_segments":[],"categories_sizes":[],"default_left":[true,true,true,true,true,true,true,true,false,false,true,true,false,false,true,false,false,false,false,false,false,false,false],"id":31,"left_children":[1,3,5,7,9,11,13,15,-1,-1,17,19,-1,-1,21,-1,-1,-1,-1,-1,-1,-1,-1],"loss_changes":[2.7996707E2,2.5917415E3,2.3052449E3,7.594761E2,1.348636E3,1.8997007E3,1.9054337E3,5.281819E2,0E0,0E0,1.4978013E3,1.9826117E3,0E0,0E0,1.7393533E3,0E0,0E0,0E0,0E0,0E0,0E0,0E0,0E0],"parents":[2147483647,0,0,1,1,2,2,3,3,4,4,5,5,6,6,7,7,10,10,11,11,14,14],"right_children":[2,4,6,8,10,12,14,16,-1,-1,18,20,-1,-1,22,-1,-1,-1,-1,-1,-1,-1,-1],"split_conditions":[5.0365496E0,4.37129E0,5.482361E0,4.1503057E0,4.4780993E0,5.362779E0,5.5956135E0,-1.1628689E1,1.3737198E0,-3.41013E0,-6.7080107E0,5.094063E0,2.47589E0,-2.206017E0,5.6475163E0,-3.4322006E-1,3.4836516E-2,-1.3308115E-1,-2.1408617E0,8.4201205E-1,-1.0008796E0,2.225546E0,-3.6888216E-2],"split_indices":[1,1,1,1,1,1,1,0,0,0,0,1,0,0,1,0,0,0,0,0,0,0,0],"split_type":[0,0,0,0,0,0,0,0,0,0,0,0,0,0,0,0,0,0,0,0,0,0,0],"sum_hessian":[5.968E3,3.243E3,2.725E3,3.079E3,1.64E2,3.88E2,2.337E3,3.044E3,3.5E1,2.1E1,1.43E2,3.39E2,4.9E1,3.5E1,2.302E3,3.79E2,2.665E3,9.1E1,5.2E1,2.75E2,6.4E1,3E1,2.272E3],"tree_param":{"num_deleted":"0","num_feature":"2","num_nodes":"23","size_leaf_vector":"0"}},{"base_weights":[2.7550869E-3,4.9313322E-1,-1.3875976E-1,1.1263438E0,-1.2616249E0,-4.727053E0,-2.0997585E-3,-8.9231217E-1,2.1618896E0,-3.8816172E-1,-9.772746E0,-2.4044945E0,-1.711013E1,4.5978684E0,-8.9578874E-2,1.5948678E0,-2.240676E0,5.2364926E0,1.5120902E0,-6.3981857E0,3.1780028E-1,-7.6133914E0,1.1029513E0,-4.0513209E-1,8.545021E0,-8.343335E0,6.833114E-3],"categories":[],"categories_nodes":[],"categories_segments":[],"categories_sizes":[],"default_left":[true,true,true,true,true,true,true,true,true,true,false,true,false,true,true,false,false,false,false,false,false,false,false,false,false,false,false],"id":32,"left_children":[1,3,5,7,9,11,13,15,17,19,-1,21,-1,23,25,-1,-1,-1,-1,-1,-1,-1,-1,-1,-1,-1,-1],"loss_changes":[4.142919E2,1.4870038E3,2.9050486E3,2.0568027E3,2.6353306E3,3.8127554E3,1.8112169E3,1.1236836E3,1.2907009E3,1.3724735E3,0E0,2.0911685E3,0E0,1.6622607E3,3.5149333E3,0E0,0E0,0E0,0E0,0E0,0E0,0E0,0E0,0E0,0E0,0E0,0E0],"parents":[2147483647,0,0,1,1,2,2,3,3,4,4,5,5,6,6,7,7,8,8,9,9,11,11,13,13,14,14],"right_children":[2,4,6,8,10,12,14,16,18,20,-1,22,-1,24,26,-1,-1,-1,-1,-1,-1,-1,-1,-1,-1,-1,-1],"split_conditions":[-1.042775E1,1.4921019E1,-1.0023151E1,6.9180113E-1,-1.3824633E1,5.4922643E0,-9.741876E0,3.0097324E-1,1.472539E0,1.5165596E1,-2.931824E0,-1.0307537E1,-5.1330395E0,2.3556557E0,-9.6307955E0,4.7846037E-1,-6.722028E-1,1.5709479E0,4.5362708E-1,-1.9194558E0,9.534009E-2,-2.2840176E0,3.308854E-1,-1.2153963E-1,2.5635064E0,-2.5030007E0,2.0499344E-3],"split_indices":[0,1,0,1,0,1,0,1,1,1,0,0,0,1,0,0,0,0,0,0,0,0,0,0,0,0,0],"split_type":[0,0,0,0,0,0,0,0,0,0,0,0,0,0,0,0,0,0,0,0,0,0,0,0,0,0,0],"sum_hessian":[5.968E3,1.336E3,4.632E3,9.82E2,3.54E2,1.33E2,4.499E3,3.33E2,6.49E2,3.22E2,3.2E1,1.13E2,2E1,8.3E1,4.416E3,1.17E2,2.16E2,1.12E2,5.37E2,3.3E1,2.89E2,4.5E1,6.8E1,3.7E1,4.6E1,5E1,4.366E3],"tree_param":{"num_deleted":"0","num_feature":"2","num_nodes":"27","size_leaf_vector":"0"}},{"base_weights":[2.4500722E-4,3.7616032E-1,-1.772835E-1,1.21648096E-1,3.436405E0,-1.772315E0,-7.0694117E-3,-8.4814095E-1,6.163684E-1,6.6829906E0,7.8139216E-1,-6.318995E0,5.2686747E-2,2.6077466E0,-1.8779391E-1,-4.9988378E-2,-6.329531E0,8.133336E0,4.3200904E-1,7.5905867E0,4.522771E0,-3.1732907E0,4.6233115E0,-1.5068421E0,-7.7563105E0,3.707697E0,-2.7521179E0,8.680975E-2,7.1147532E0,-5.4309535E0,5.037085E-2],"categories":[],"categories_nodes":[],"categories_segments":[],"categories_sizes":[],"default_left":[true,true,true,true,true,true,true,true,true,true,true,true,true,true,true,false,false,false,false,false,false,false,false,false,false,false,false,false,false,false,false],"id":33,"left_children":[1,3,5,7,9,11,13,15,17,19,21,23,25,27,29,-1,-1,-1,-1,-1,-1,-1,-1,-1,-1,-1,-1,-1,-1,-1,-1],"loss_changes":[3.9841193E2,1.4911173E3,1.100907E3,8.492435E2,1.2618778E3,3.2447334E3,1.7324269E3,2.6159248E3,1.620671E3,9.506958E1,1.2605441E3,7.629697E2,2.880649E3,2.6921475E3,4.2821885E3,0E0,0E0,0E0,0E0,0E0,0E0,0E0,0E0,0E0,0E0,0E0,0E0,0E0,0E0,0E0,0E0],"parents":[2147483647,0,0,1,1,2,2,3,3,4,4,5,5,6,6,7,7,8,8,9,9,10,10,11,11,12,12,13,13,14,14],"right_children":[2,4,6,8,10,12,14,16,18,20,22,24,26,28,30,-1,-1,-1,-1,-1,-1,-1,-1,-1,-1,-1,-1,-1,-1,-1,-1],"split_conditions":[-8.25041E0,-8.985264E0,-7.2008715E0,1.906407E0,-8.507796E0,2.2211188E-1,-6.473851E0,1.5005234E0,1.9901962E0,-8.683256E0,-8.348947E0,-8.152243E0,3.7953095E0,6.1083574E0,-6.086669E0,-1.4996514E-2,-1.8988594E0,2.440001E0,1.2960272E-1,2.2771761E0,1.3568313E0,-9.5198727E-1,1.3869935E0,-4.5205265E-1,-2.3268933E0,1.1123091E0,-8.256354E-1,2.6042925E-2,2.134426E0,-1.6292862E0,1.5111255E-2],"split_indices":[0,0,0,1,0,1,0,1,1,0,0,0,1,1,0,0,0,0,0,0,0,0,0,0,0,0,0,0,0,0,0],"split_type":[0,0,0,0,0,0,0,0,0,0,0,0,0,0,0,0,0,0,0,0,0,0,0,0,0,0,0,0,0,0,0],"sum_hessian":[5.968E3,1.914E3,4.054E3,1.768E3,1.46E2,3.9E2,3.664E3,5.97E2,1.171E3,6.5E1,8.1E1,1.11E2,2.79E2,2.36E2,3.428E3,5.22E2,7.5E1,2.7E1,1.144E3,4.4E1,2.1E1,4E1,4.1E1,2.6E1,8.5E1,1.21E2,1.58E2,1.52E2,8.4E1,1.48E2,3.28E3],"tree_param":{"num_deleted":"0","num_feature":"2","num_nodes":"31","size_leaf_vector":"0"}},{"base_weights":[6.390618E-4,-9.229669E-2,4.99202E-1,1.7251408E-2,-6.5454063E0,1.0140617E1,1.4747363E-1,8.5997485E-2,-2.3447907E0,-1.2618727E1,1.1385795E0,-5.66603E0,4.5079172E-1,-7.813003E-2,1.5266087E0,-4.346953E0,2.4304206E0,-6.806444E-1,2.0999212E0],"categories":[],"categories_nodes":[],"categories_segments":[],"categories_sizes":[],"default_left":[true,true,true,true,true,false,true,true,true,false,false,false,true,false,false,false,false,false,false],"id":34,"left_children":[1,3,5,7,9,-1,11,13,15,-1,-1,-1,17,-1,-1,-1,-1,-1,-1],"loss_changes":[2.7661563E2,3.557364E3,3.179412E3,8.0382587E2,3.9344216E3,0E0,1.600141E3,1.1374148E3,1.3490698E3,0E0,0E0,0E0,1.6098219E3,0E0,0E0,0E0,0E0,0E0,0E0],"parents":[2147483647,0,0,1,1,2,2,3,3,4,4,6,6,7,7,8,8,12,12],"right_children":[2,4,6,8,10,-1,12,14,16,-1,-1,-1,18,-1,-1,-1,-1,-1,-1],"split_conditions":[1.4245514E1,1.3534065E1,1.4285355E1,1.1899251E1,1.28053E1,3.0421853E0,1.4293576E1,8.39736E0,1.2547964E1,-3.785618E0,3.4157386E-1,-1.6998091E0,1.1481004E0,-2.343901E-2,4.5798263E-1,-1.304086E0,7.291262E-1,-2.0419332E-1,6.299764E-1],"split_indices":[1,1,1,1,0,0,1,1,1,0,0,0,0,0,0,0,0,0,0],"split_type":[0,0,0,0,0,0,0,0,0,0,0,0,0,0,0,0,0,0,0],"sum_hessian":[5.968E3,5.031E3,9.37E2,4.948E3,8.3E1,3.2E1,9.05E2,4.809E3,1.39E2,4.6E1,3.7E1,4.4E1,8.61E2,4.318E3,4.91E2,9.8E1,4.1E1,5.11E2,3.5E2],"tree_param":{"num_deleted":"0","num_feature":"2","num_nodes":"19","size_leaf_vector":"0"}},{"base_weights":[1.4262328E-4,1.6126594E-1,-3.9442807E-1,8.135715E-2,8.993251E0,-2.4206302E0,1.11676104E-1,3.190194E-1,-9.067177E-1,-7.43452E-1,-1.7302315E1,1.4561885E1,-1.2130284E-1,2.0976579E-1,7.0605335E0,3.8153917E-1,-5.1756616E0,-5.0974197E0,5.370239E-1,-1.02516985E1,1.4517735E-1],"categories":[],"categories_nodes":[],"categories_segments":[],"categories_sizes":[],"default_left":[true,true,true,true,false,true,true,true,true,true,false,false,true,false,false,false,false,false,false,false,false],"id":35,"left_children":[1,3,5,7,-1,9,11,13,15,17,-1,-1,19,-1,-1,-1,-1,-1,-1,-1,-1],"loss_changes":[3.7954E2,2.9909558E3,1.7753577E3,9.8703687E2,0E0,8.623033E3,4.667866E3,2.4938984E3,4.4840645E3,1.7421844E3,0E0,0E0,3.6863735E3,0E0,0E0,0E0,0E0,0E0,0E0,0E0,0E0],"parents":[2147483647,0,0,1,1,2,2,3,3,5,5,6,6,7,7,8,8,9,9,12,12],"right_children":[2,4,6,8,-1,10,12,14,16,18,-1,-1,20,-1,-1,-1,-1,-1,-1,-1,-1],"split_conditions":[-2.8793535E0,-3.0599883E0,-1.4999184E-1,7.837062E0,2.6979754E0,9.079212E0,6.7759454E-1,-3.267465E0,-5.112853E0,-2.68122E0,-5.190695E0,4.3685656E0,1.1481004E0,6.292974E-2,2.1181602E0,1.1446176E-1,-1.5526985E0,-1.529226E0,1.6110718E-1,-3.0755098E0,4.3553207E-2],"split_indices":[0,0,0,1,0,1,0,0,0,0,0,0,0,0,0,0,0,0,0,0,0],"split_type":[0,0,0,0,0,0,0,0,0,0,0,0,0,0,0,0,0,0,0,0,0],"sum_hessian":[5.968E3,4.238E3,1.73E3,4.201E3,3.7E1,3.45E2,1.385E3,3.387E3,8.14E2,3.11E2,3.4E1,2.1E1,1.364E3,3.334E3,5.3E1,6.26E2,1.88E2,7E1,2.41E2,3.4E1,1.33E3],"tree_param":{"num_deleted":"0","num_feature":"2","num_nodes":"21","size_leaf_vector":"0"}},{"base_weights":[-1.9535288E-4,1.2077263E-1,-2.9308334E-1,5.7129793E-2,1.125854E1,-1.3779896E0,2.412749E-1,2.2395974E-1,-6.364616E-1,-8.7346023E-1,-6.9096165E0,2.36375E0,-2.4449722E-1,1.2326763E-1,7.379046E0,-3.7949293E0,3.6976555E-1,-8.286692E0,-4.8929855E-1,-1.0857824E1,-3.4366467E0,1.0900854E0,1.3661394E1,-1.1403165E-1,-3.6631649E0],"categories":[],"categories_nodes":[],"categories_segments":[],"categories_sizes":[],"default_left":[true,true,true,true,false,true,true,true,true,true,true,true,true,false,false,false,false,false,false,false,false,false,false,false,false],"id":36,"left_children":[1,3,5,7,-1,9,11,13,15,17,19,21,23,-1,-1,-1,-1,-1,-1,-1,-1,-1,-1,-1,-1],"loss_changes":[2.1151747E2,2.9942021E3,1.01195886E3,4.863636E2,0E0,1.6015049E3,1.2068938E3,2.4400112E3,2.591584E3,1.5024734E3,6.208618E2,3.1219993E3,4.2463785E2,0E0,0E0,0E0,0E0,0E0,0E0,0E0,0E0,0E0,0E0,0E0,0E0],"parents":[2147483647,0,0,1,1,2,2,3,3,5,5,6,6,7,7,8,8,9,9,10,10,11,11,12,12],"right_children":[2,4,6,8,-1,10,12,14,16,18,20,22,24,-1,-1,-1,-1,-1,-1,-1,-1,-1,-1,-1,-1],"split_conditions":[-2.9461002E0,-3.0599883E0,5.725888E0,7.837062E0,3.3775623E0,5.4570227E0,6.776425E0,7.7787004E0,9.881691E0,1.5513206E0,5.597721E0,6.616832E0,1.5809748E1,3.698029E-2,2.213714E0,-1.1384789E0,1.1092967E-1,-2.4860077E0,-1.4678957E-1,-3.2573473E0,-1.030994E0,3.2702562E-1,4.098418E0,-3.4209497E-2,-1.0989496E0],"split_indices":[0,0,0,1,0,0,0,1,1,1,0,0,1,0,0,0,0,0,0,0,0,0,0,0,0],"split_type":[0,0,0,0,0,0,0,0,0,0,0,0,0,0,0,0,0,0,0,0,0,0,0,0,0],"sum_hessian":[5.968E3,4.224E3,1.744E3,4.201E3,2.3E1,5.75E2,1.169E3,3.387E3,8.14E2,5.28E2,4.7E1,2.17E2,9.52E2,3.341E3,4.6E1,1.96E2,6.18E2,2.5E1,5.03E2,2.1E1,2.6E1,1.96E2,2.1E1,9.18E2,3.4E1],"tree_param":{"num_deleted":"0","num_feature":"2","num_nodes":"25","size_leaf_vector":"0"}},{"base_weights":[2.1866927E-5,-8.024681E-2,4.3063164E-1,-3.2566242E-2,-8.600283E0,7.181559E0,1.8426162E-1,-8.246357E-2,9.525944E0,-4.0131207E0,4.0316874E-1,-3.4051242E-3,-1.230677E1,6.3924046E0,1.9442652E-1],"categories":[],"categories_nodes":[],"categories_segments":[],"categories_sizes":[],"default_left":[true,true,true,true,false,false,true,true,false,false,true,false,false,false,false],"id":37,"left_children":[1,3,5,7,-1,-1,9,11,-1,-1,13,-1,-1,-1,-1],"loss_changes":[2.0634993E2,2.0439204E3,1.558783E3,2.3878909E3,0E0,0E0,8.3408417E2,4.812803E3,0E0,0E0,1.076435E3,0E0,0E0,0E0,0E0],"parents":[2147483647,0,0,1,1,2,2,3,3,6,6,7,7,10,10],"right_children":[2,4,6,8,-1,-1,10,12,-1,-1,14,-1,-1,-1,-1],"split_conditions":[1.4245514E1,1.4183352E1,1.4285355E1,1.4140744E1,-2.5800848E0,2.1544678E0,1.4293576E1,1.3534065E1,2.8577833E0,-1.2039362E0,1.4346611E1,-1.0215373E-3,-3.6920311E0,1.9177214E0,5.8327958E-2],"split_indices":[1,1,1,1,0,0,1,1,0,0,1,0,0,0,0],"split_type":[0,0,0,0,0,0,0,0,0,0,0,0,0,0,0],"sum_hessian":[5.968E3,5.031E3,9.37E2,5.004E3,2.7E1,3.2E1,9.05E2,4.979E3,2.5E1,4.4E1,8.61E2,4.948E3,3.1E1,2.8E1,8.33E2],"tree_param":{"num_deleted":"0","num_feature":"2","num_nodes":"15","size_leaf_vector":"0"}},{"base_weights":[-6.67997E-5,-1.8368952E-1,1.985377E-1,5.0340302E-2,-6.2627974E0,3.6657119E0,6.0231186E-2,-1.2454931E-1,1.6177664E0,-4.3693433E0,-7.2143817E0,8.067748E0,1.9900724E0,5.529319E-1,-4.6879178E-1,3.6682993E-2,-9.817643E0,4.2329698E0,-1.2069888E0,-3.530379E-1,6.6893682E0,3.654174E-1,6.447072E0,-2.583092E0,6.068476E-1],"categories":[],"categories_nodes":[],"categories_segments":[],"categories_sizes":[],"default_left":[true,true,true,true,true,true,true,true,true,false,false,false,true,true,true,false,false,false,false,false,false,false,false,false,false],"id":38,"left_children":[1,3,5,7,9,11,13,15,17,-1,-1,-1,19,21,23,-1,-1,-1,-1,-1,-1,-1,-1,-1,-1],"loss_changes":[2.1771576E2,4.413508E3,1.3750793E3,8.1929156E2,1.756831E2,7.953296E2,7.193925E2,4.202836E3,2.221302E3,0E0,0E0,0E0,8.9425006E2,1.5770275E3,3.02856E3,0E0,0E0,0E0,0E0,0E0,0E0,0E0,0E0,0E0,0E0],"parents":[2147483647,0,0,1,1,2,2,3,3,4,4,5,5,6,6,7,7,8,8,12,12,13,13,14,14],"right_children":[2,4,6,8,10,12,14,16,18,-1,-1,-1,20,22,24,-1,-1,-1,-1,-1,-1,-1,-1,-1,-1],"split_conditions":[-5.3741946E0,-5.7226334E0,-5.1832952E0,-6.086669E0,-3.1870313E0,1.0286884E0,6.2905507E0,-6.123464E0,-5.866451E0,-1.310803E0,-2.1643145E0,2.4203246E0,5.5805573E0,5.974369E0,-1.4999184E-1,1.1004899E-2,-2.945293E0,1.269891E0,-3.6209667E-1,-1.05911374E-1,2.0068107E0,1.0962522E-1,1.9341217E0,-7.749276E-1,1.8205428E-1],"split_indices":[0,0,0,0,1,1,1,0,0,0,0,0,1,1,0,0,0,0,0,0,0,0,0,0,0],"split_type":[0,0,0,0,0,0,0,0,0,0,0,0,0,0,0,0,0,0,0,0,0,0,0,0,0],"sum_hessian":[5.968E3,3.101E3,2.867E3,2.987E3,1.14E2,1.09E2,2.758E3,2.688E3,2.99E2,4E1,7.4E1,2.9E1,8E1,1.428E3,1.33E3,2.645E3,4.3E1,1.55E2,1.44E2,5.4E1,2.6E1,1.385E3,4.3E1,4.48E2,8.82E2],"tree_param":{"num_deleted":"0","num_feature":"2","num_nodes":"25","size_leaf_vector":"0"}},{"base_weights":[1.8303389E-6,7.48852E-2,-4.9029016E-1,9.666418E-3,1.1134521E0,-3.1353807E0,-1.2906505E-1,1.0211595E-1,-1.0025437E0,3.9485116E0,3.9146367E-1,-4.6412325E0,-1.95583E0,3.2708824E-1,-1.713078E0,4.331799E-2,2.9611754E0,-4.60426E0,5.8624893E-1,2.5431547E0,5.926714E0,-2.5353038E0,1.3755295E0,-9.959674E-2,5.280935E0,-5.3766994E0,1.331459E0],"categories":[],"categories_nodes":[],"categories_segments":[],"categories_sizes":[],"default_left":[true,true,true,true,true,true,true,true,true,true,true,false,false,true,true,false,false,false,false,false,false,false,false,false,false,false,false],"id":39,"left_children":[1,3,5,7,9,11,13,15,17,19,21,-1,-1,23,25,-1,-1,-1,-1,-1,-1,-1,-1,-1,-1,-1,-1],"loss_changes":[2.1918684E2,3.5078394E2,7.553746E2,4.5620328E2,6.247996E2,1.596643E2,5.0417963E2,7.508052E2,2.3374304E3,1.5729242E2,7.0911975E2,0E0,0E0,1.1461687E3,1.7471875E3,0E0,0E0,0E0,0E0,0E0,0E0,0E0,0E0,0E0,0E0,0E0,0E0],"parents":[2147483647,0,0,1,1,2,2,3,3,4,4,5,5,6,6,7,7,8,8,9,9,10,10,13,13,14,14],"right_children":[2,4,6,8,10,12,14,16,18,20,22,-1,-1,24,26,-1,-1,-1,-1,-1,-1,-1,-1,-1,-1,-1,-1],"split_conditions":[7.186469E0,6.0529995E0,7.731378E0,-2.186925E0,6.4068055E0,7.3057485E0,1.4573492E1,-2.4325125E0,6.8023944E0,9.558485E0,6.616832E0,-1.3923697E0,-5.86749E-1,1.4405889E1,1.4015978E1,1.2995397E-2,8.883527E-1,-1.381278E0,1.7587468E-1,7.629464E-1,1.7780143E0,-7.605912E-1,4.1265887E-1,-2.9879022E-2,1.5842805E0,-1.6130099E0,3.9943773E-1],"split_indices":[0,0,0,0,0,0,1,0,1,1,0,0,0,1,0,0,0,0,0,0,0,0,0,0,0,0,0],"split_type":[0,0,0,0,0,0,0,0,0,0,0,0,0,0,0,0,0,0,0,0,0,0,0,0,0,0,0],"sum_hessian":[5.968E3,5.178E3,7.9E2,4.873E3,3.05E2,9.4E1,6.96E2,4.466E3,4.07E2,6.1E1,2.44E2,4E1,5.4E1,5.41E2,1.55E2,4.377E3,8.9E1,1.24E2,2.83E2,3.7E1,2.4E1,6.1E1,1.83E2,4.99E2,4.2E1,7E1,8.5E1],"tree_param":{"num_deleted":"0","num_feature":"2","num_nodes":"27","size_leaf_vector":"0"}},{"base_weights":[3.919635E-5,-6.82877E-1,5.0793983E-2,-3.4021223E-1,-3.477553E0,5.167281E0,-8.817589E-3,5.2350817E0,-7.432329E-1,1.1820053E0,1.0584807E1,-8.5599816E-1,4.5660965E-2,-2.2491732E0,2.8382954E-1,4.565308E0,-1.7660568E0,9.793156E0,-2.2778094E-2],"categories":[],"categories_nodes":[],"categories_segments":[],"categories_sizes":[],"default_left":[true,true,true,true,false,true,true,false,true,false,false,true,true,false,false,false,false,false,false],"id":40,"left_children":[1,3,5,7,-1,9,11,-1,13,-1,-1,15,17,-1,-1,-1,-1,-1,-1],"loss_changes":[2.0692776E2,3.9432092E2,1.6949407E3,8.3301874E2,0E0,1.36927E3,2.5360461E2,0E0,5.3424805E2,0E0,0E0,1.646053E3,3.4445088E3,0E0,0E0,0E0,0E0,0E0,0E0],"parents":[2147483647,0,0,1,1,2,2,3,3,5,5,6,6,8,8,11,11,12,12],"right_children":[2,4,6,8,-1,10,12,-1,14,-1,-1,16,18,-1,-1,-1,-1,-1,-1],"split_conditions":[-1.4544075E0,1.3500093E1,-1.360987E0,-9.171492E0,-1.0432659E0,-1.3863161E0,2.3264259E-1,1.5705246E0,-5.099213E0,3.546016E-1,3.1754425E0,-9.387224E0,3.0097324E-1,-6.74752E-1,8.514886E-2,1.3695924E0,-5.2981704E-1,2.9379468E0,-6.8334285E-3],"split_indices":[1,0,1,1,0,1,1,0,0,0,0,0,1,0,0,0,0,0,0],"split_type":[0,0,0,0,0,0,0,0,0,0,0,0,0,0,0,0,0,0,0],"sum_hessian":[5.968E3,4.12E2,5.556E3,3.68E2,4.4E1,6.3E1,5.493E3,2.4E1,3.44E2,3.7E1,2.6E1,3.31E2,5.162E3,1.39E2,2.05E2,4.7E1,2.84E2,3.5E1,5.127E3],"tree_param":{"num_deleted":"0","num_feature":"2","num_nodes":"19","size_leaf_vector":"0"}},{"base_weights":[1.2424729E-3,5.2448086E-2,-5.952188E-1,8.758102E-3,3.8214374E0,-4.669676E0,-3.0810705E-1,8.178314E-1,-7.1202606E-2,9.950187E0,4.8651505E-2,-1.2048732E0,8.9870083E-1,2.4354745E-1,4.9199023E0,-5.1622543E0,-2.4471665E-2,-2.9557834E0,-4.8237467E-1,9.151691E0,-2.4332003E-1],"categories":[],"categories_nodes":[],"categories_segments":[],"categories_sizes":[],"default_left":[true,true,true,true,true,false,true,true,true,false,false,true,true,false,false,false,false,false,false,false,false],"id":41,"left_children":[1,3,5,7,9,-1,11,13,15,-1,-1,17,19,-1,-1,-1,-1,-1,-1,-1,-1],"loss_changes":[1.823374E2,9.053062E2,5.507183E2,3.517352E2,1.456231E3,0E0,4.7942596E2,1.1507651E3,1.1770505E3,0E0,0E0,3.1989178E2,1.7835685E3,0E0,0E0,0E0,0E0,0E0,0E0,0E0,0E0],"parents":[2147483647,0,0,1,1,2,2,3,3,4,4,6,6,7,7,8,8,11,11,12,12],"right_children":[2,4,6,8,10,-1,12,14,16,-1,-1,18,20,-1,-1,-1,-1,-1,-1,-1,-1],"split_conditions":[1.2914688E1,1.2154652E1,1.2938663E1,-5.562262E-1,1.4220347E1,-1.4009027E0,1.4293576E1,-1.3243533E0,-3.724423E-1,2.9850562E0,1.4595452E-2,1.3243679E1,1.4454366E1,7.306424E-2,1.4759707E0,-1.5486764E0,-7.3415E-3,-8.86735E-1,-1.447124E-1,2.7455075E0,-7.299601E-2],"split_indices":[0,0,0,1,1,0,1,1,1,0,0,0,1,0,0,0,0,0,0,0,0],"split_type":[0,0,0,0,0,0,0,0,0,0,0,0,0,0,0,0,0,0,0,0,0],"sum_hessian":[5.968E3,5.497E3,4.71E2,5.435E3,6.2E1,3E1,4.41E2,4.88E2,4.947E3,2.3E1,3.9E1,2.53E2,1.88E2,4.29E2,5.9E1,4.4E1,4.903E3,7.3E1,1.8E2,2.2E1,1.66E2],"tree_param":{"num_deleted":"0","num_feature":"2","num_nodes":"21","size_leaf_vector":"0"}},{"base_weights":[1.4101866E-3,-4.3074998E-1,6.5593764E-2,3.7301976E-2,-2.639538E0,8.54464E0,2.6257979E-2,3.9287326E-1,-2.4836755E0,-9.3052673E-1,-4.520933E0,-3.0949695E0,6.966266E-2,-1.6783491E-1,2.662475E0,-5.629222E0,-5.466739E-1,-4.2121873E0,1.1320736E0,-3.6101742E0,-2.3542461E0,6.5881743E0,1.0389694E-2],"categories":[],"categories_nodes":[],"categories_segments":[],"categories_sizes":[],"default_left":[true,true,true,true,true,false,true,true,true,true,false,true,true,false,false,false,false,false,false,false,false,false,false],"id":42,"left_children":[1,3,5,7,9,-1,11,13,15,17,-1,19,21,-1,-1,-1,-1,-1,-1,-1,-1,-1,-1],"loss_changes":[1.655939E2,7.982134E2,1.7334642E3,5.728707E2,4.2986218E2,0E0,7.0130334E2,7.13094E2,4.78264E2,4.921188E2,0E0,1.859607E1,1.9723584E3,0E0,0E0,0E0,0E0,0E0,0E0,0E0,0E0,0E0,0E0],"parents":[2147483647,0,0,1,1,2,2,3,3,4,4,6,6,7,7,8,8,9,9,11,11,12,12],"right_children":[2,4,6,8,10,-1,12,14,16,18,-1,20,22,-1,-1,-1,-1,-1,-1,-1,-1,-1,-1],"split_conditions":[-1.1810534E1,-1.3367894E1,-1.1729833E1,2.209222E1,3.0847025E0,2.563392E0,-1.1628689E1,1.6320824E1,2.741578E1,1.8728397E0,-1.35628E0,-1.1674166E1,-1.1569466E1,-5.0350476E-2,7.987426E-1,-1.6887666E0,-1.6400218E-1,-1.2636563E0,3.396221E-1,-1.0830523E0,-7.0627385E-1,1.9764524E0,3.1169083E-3],"split_indices":[0,0,0,1,1,0,0,1,1,1,0,0,0,0,0,0,0,0,0,0,0,0,0],"split_type":[0,0,0,0,0,0,0,0,0,0,0,0,0,0,0,0,0,0,0,0,0,0,0],"sum_hessian":[5.968E3,7.71E2,5.197E3,6.37E2,1.34E2,2.3E1,5.174E3,5.59E2,7.8E1,7.1E1,6.3E1,7E1,5.104E3,4.49E2,1.1E2,2.9E1,4.9E1,2.7E1,4.4E1,3.9E1,3.1E1,4.5E1,5.059E3],"tree_param":{"num_deleted":"0","num_feature":"2","num_nodes":"23","size_leaf_vector":"0"}},{"base_weights":[8.852756E-4,-1.4981449E-1,1.638803E-1,-7.940285E-3,-3.8347735E0,2.0059037E0,-2.0526137E-2,-6.027542E-2,4.6802597E0,-2.4754376E0,-5.324478E0,1.2888019E0,6.3124447E0,-3.2815502E0,8.7967545E-2,4.817526E-2,-4.11583E0,3.5673723E0,-9.394468E-2,-1.5089817E0,-8.527399E0,5.7996135E0,-2.9762523E-2],"categories":[],"categories_nodes":[],"categories_segments":[],"categories_sizes":[],"default_left":[true,true,true,true,true,true,true,true,false,false,false,true,false,true,true,false,false,false,false,false,false,false,false],"id":43,"left_children":[1,3,5,7,9,11,13,15,-1,-1,-1,17,-1,19,21,-1,-1,-1,-1,-1,-1,-1,-1],"loss_changes":[1.4664296E2,1.621697E3,9.7424634E2,7.334106E2,2.1969556E2,7.978922E2,9.230003E2,1.3003289E3,0E0,0E0,0E0,7.092393E2,0E0,7.682169E2,1.6980646E3,0E0,0E0,0E0,0E0,0E0,0E0,0E0,0E0],"parents":[2147483647,0,0,1,1,2,2,3,3,4,4,5,5,6,6,7,7,11,11,13,13,14,14],"right_children":[2,4,6,8,10,12,14,16,-1,-1,-1,18,-1,20,22,-1,-1,-1,-1,-1,-1,-1,-1],"split_conditions":[-5.3741946E0,-5.7226334E0,-4.8736234E0,-5.7583485E0,1.073148E0,-4.93696E0,-4.707206E0,-5.8163433E0,1.404078E0,-7.426313E-1,-1.5973436E0,2.844945E0,1.8937335E0,-4.7543373E0,-4.439055E0,1.44525785E-2,-1.2347491E0,1.0702118E0,-2.8183406E-2,-4.5269454E-1,-2.55822E0,1.7398841E0,-8.928757E-3],"split_indices":[0,0,0,0,1,0,0,0,0,0,0,1,0,0,0,0,0,0,0,0,0,0,0],"split_type":[0,0,0,0,0,0,0,0,0,0,0,0,0,0,0,0,0,0,0,0,0,0,0],"sum_hessian":[5.968E3,3.101E3,2.867E3,2.987E3,1.14E2,2.6E2,2.607E3,2.955E3,3.2E1,6.1E1,5.3E1,2.24E2,3.6E1,8.3E1,2.524E3,2.879E3,7.6E1,8.4E1,1.4E2,6.3E1,2E1,5E1,2.474E3],"tree_param":{"num_deleted":"0","num_feature":"2","num_nodes":"23","size_leaf_vector":"0"}},{"base_weights":[5.36389E-4,-1.12868614E-1,2.2547589E-1,-2.8253395E-2,-1.0522303E1,5.984486E0,2.5951779E-2,-1.0654152E-1,8.228733E0,8.212102E0,4.0683556E0,2.9885156E0,-4.9381386E-2,4.6687827E-2,-8.877903E0,-3.254657E0,4.3172535E-2],"categories":[],"categories_nodes":[],"categories_segments":[],"categories_sizes":[],"default_left":[true,true,true,true,false,true,true,true,false,false,false,false,true,false,false,false,false],"id":44,"left_children":[1,3,5,7,-1,9,11,13,-1,-1,-1,-1,15,-1,-1,-1,-1],"loss_changes":[1.5229024E2,3.495584E3,2.2991165E3,2.5464944E3,0E0,2.5257324E2,4.319995E2,5.2448193E3,0E0,0E0,0E0,0E0,5.6023615E2,0E0,0E0,0E0,0E0],"parents":[2147483647,0,0,1,1,2,2,3,3,5,5,6,6,7,7,12,12],"right_children":[2,4,6,8,-1,10,12,14,-1,-1,-1,-1,16,-1,-1,-1,-1],"split_conditions":[6.818817E0,6.7050543E0,7.3218126E0,6.526303E0,-3.1566908E0,-6.610141E0,-2.6723097E1,6.2905507E0,2.46862E0,2.4636307E0,1.2205067E0,8.965547E-1,-2.5239103E1,1.4006348E-2,-2.663371E0,-9.7639716E-1,1.2951761E-2],"split_indices":[1,1,1,1,0,0,0,1,0,0,0,0,0,0,0,0,0],"split_type":[0,0,0,0,0,0,0,0,0,0,0,0,0,0,0,0,0],"sum_hessian":[5.968E3,3.968E3,2E3,3.937E3,3.1E1,6.6E1,1.934E3,3.901E3,3.6E1,2.9E1,3.7E1,4.7E1,1.887E3,3.835E3,6.6E1,5.2E1,1.835E3],"tree_param":{"num_deleted":"0","num_feature":"2","num_nodes":"17","size_leaf_vector":"0"}},{"base_weights":[4.2078624E-4,-1.5900439E-1,1.8471822E-1,-5.597954E-2,-5.943954E0,1.5542634E0,-6.8416186E-2,-8.364414E-1,1.1519342E-1,-1.2593789E0,-1.1702453E1,1.9236572E-1,2.4034462E0,-6.4496217E0,3.1363152E-2,-2.678611E-1,-6.334816E0,2.7914684E0,-1.3288927E-1,-2.898177E-1,2.2356339E0,5.5106688E0,2.0147367E0,5.767051E0,-4.6876047E-2],"categories":[],"categories_nodes":[],"categories_segments":[],"categories_sizes":[],"default_left":[true,true,true,true,true,true,true,true,true,false,false,true,true,false,true,false,false,false,false,false,false,false,false,false,false],"id":45,"left_children":[1,3,5,7,9,11,13,15,17,-1,-1,19,21,-1,23,-1,-1,-1,-1,-1,-1,-1,-1,-1,-1],"loss_changes":[1.7540846E2,1.9074429E3,9.600605E2,4.2038297E2,1.4959248E3,4.9914575E2,1.4888362E3,1.7677708E3,1.7139935E3,0E0,0E0,1.6518134E2,3.101742E2,0E0,1.0337546E3,0E0,0E0,0E0,0E0,0E0,0E0,0E0,0E0,0E0,0E0],"parents":[2147483647,0,0,1,1,2,2,3,3,4,4,5,5,6,6,7,7,8,8,11,11,12,12,14,14],"right_children":[2,4,6,8,10,12,14,16,18,-1,-1,20,22,-1,24,-1,-1,-1,-1,-1,-1,-1,-1,-1,-1],"split_conditions":[4.8735995E0,4.627117E0,5.482361E0,-1.125474E1,-6.7080107E0,-5.0500383E0,5.5956135E0,-1.1377337E1,-1.042775E1,-3.778137E-1,-3.510736E0,5.4133515E0,-4.052814E0,-1.9348866E0,5.6475163E0,-8.0358334E-2,-1.9004449E0,8.3744055E-1,-3.9866783E-2,-8.694531E-2,6.706902E-1,1.6532007E0,6.04421E-1,1.7301154E0,-1.4062814E-2],"split_indices":[1,1,1,0,0,0,1,0,0,0,0,1,0,0,1,0,0,0,0,0,0,0,0,0,0],"split_type":[0,0,0,0,0,0,0,0,0,0,0,0,0,0,0,0,0,0,0,0,0,0,0,0,0],"sum_hessian":[5.968E3,3.2E3,2.768E3,3.145E3,5.5E1,4.31E2,2.337E3,5.65E2,2.58E3,3.1E1,2.4E1,1.66E2,2.65E2,3.5E1,2.302E3,5.13E2,5.2E1,2.18E2,2.362E3,1.35E2,3.1E1,2.8E1,2.37E2,3E1,2.272E3],"tree_param":{"num_deleted":"0","num_feature":"2","num_nodes":"25","size_leaf_vector":"0"}},{"base_weights":[-1.1228209E-4,1.6121888E0,-1.4279153E-2,4.060703E0,-4.6976024E-1,-2.8860798E0,4.7709327E-3,2.1003308E0,-1.7193658E-2,-3.6785324E0,8.142917E-3],"categories":[],"categories_nodes":[],"categories_segments":[],"categories_sizes":[],"default_left":[true,true,true,false,false,false,true,false,true,false,false],"id":46,"left_children":[1,3,5,-1,-1,-1,7,-1,9,-1,-1],"loss_changes":[1.3636252E2,2.6698697E2,3.2377603E2,0E0,0E0,0E0,2.7068143E2,0E0,5.399268E2,0E0,0E0],"parents":[2147483647,0,0,1,1,2,2,6,6,8,8],"right_children":[2,4,6,-1,-1,-1,8,-1,10,-1,-1],"split_conditions":[-8.648897E0,1.3493219E1,-2.9086187E1,1.2182109E0,-1.4092807E-1,-8.65824E-1,-2.6601562E1,6.300993E-1,-2.5239103E1,-1.1035597E0,2.4428754E-3],"split_indices":[1,0,0,0,0,0,0,0,0,0,0],"split_type":[0,0,0,0,0,0,0,0,0,0,0],"sum_hessian":[5.968E3,5.1E1,5.917E3,2.3E1,2.8E1,3.8E1,5.879E3,6E1,5.819E3,3.9E1,5.78E3],"tree_param":{"num_deleted":"0","num_feature":"2","num_nodes":"11","size_leaf_vector":"0"}},{"base_weights":[-1.205953E-4,3.9984232E-1,-5.0851997E-2,7.31194E-2,6.7241707E0,-8.345056E0,-6.7828344E-3,-2.230867E0,5.982176E-1,2.2352564E0,-2.8682321E-2,-2.0995623E-1,-4.830695E0,7.5096507E0,2.5005686E-1,5.0073395E0,-4.037002E-2,-2.5322714E0,2.1199469E-2],"categories":[],"categories_nodes":[],"categories_segments":[],"categories_sizes":[],"default_left":[true,true,true,true,false,false,true,true,true,true,true,false,false,false,false,false,false,false,false],"id":47,"left_children":[1,3,5,7,-1,-1,9,11,13,15,17,-1,-1,-1,-1,-1,-1,-1,-1],"loss_changes":[1.2113541E2,1.388064E3,1.936461E3,7.756188E2,0E0,0E0,2.5886765E2,6.2421423E2,1.2542054E3,3.2192163E2,6.5207043E2,0E0,0E0,0E0,0E0,0E0,0E0,0E0,0E0],"parents":[2147483647,0,0,1,1,2,2,3,3,6,6,7,7,8,8,9,9,10,10],"right_children":[2,4,6,8,-1,-1,10,12,14,16,18,-1,-1,-1,-1,-1,-1,-1,-1],"split_conditions":[-2.0271784E-1,-3.724423E-1,6.7119054E-2,-7.2790484E0,2.0172513E0,-2.5035167E0,1.5063232E-1,-2.8681083E0,-6.2645764E0,-9.7770605E0,3.1734434E-1,-6.298687E-2,-1.4492086E0,2.2528954E0,7.5017065E-2,1.5022019E0,-1.2111007E-2,-7.5968146E-1,6.3598407E-3],"split_indices":[1,1,1,0,0,0,1,1,0,0,1,0,0,0,0,0,0,0,0],"split_type":[0,0,0,0,0,0,0,0,0,0,0,0,0,0,0,0,0,0,0],"sum_hessian":[5.968E3,6.71E2,5.297E3,6.39E2,3.2E1,2.7E1,5.27E3,1.18E2,5.21E2,5E1,5.22E3,6.7E1,5.1E1,2.4E1,4.97E2,2.2E1,2.8E1,1.01E2,5.119E3],"tree_param":{"num_deleted":"0","num_feature":"2","num_nodes":"19","size_leaf_vector":"0"}},{"base_weights":[9.189529E-5,-2.3897298E-2,7.8982645E-1,3.7895862E-2,-1.1677184E0,3.2602057E0,-1.09386265E-1,6.79582E-3,2.7207835E0,-6.187186E-1,-4.893304E0,1.6417943E0,4.5042386E0,-9.2047393E-1,3.3340008E0,5.68575E-1,-5.8354437E-2,7.08775E0,3.2584E-2,-3.3384311E0,-2.4945858E-1,5.271587E-1,-6.4717603E0],"categories":[],"categories_nodes":[],"categories_segments":[],"categories_sizes":[],"default_left":[true,true,true,true,true,true,true,true,true,true,false,false,false,true,false,false,false,false,false,false,false,false,false],"id":48,"left_children":[1,3,5,7,9,11,13,15,17,19,-1,-1,-1,21,-1,-1,-1,-1,-1,-1,-1,-1,-1],"loss_changes":[1.1310214E2,4.0956604E2,3.9132245E2,4.5872314E2,6.0444006E2,8.723276E1,3.661444E2,1.9899112E2,7.393435E2,2.6028027E2,0E0,0E0,0E0,8.552512E2,0E0,0E0,0E0,0E0,0E0,0E0,0E0,0E0,0E0],"parents":[2147483647,0,0,1,1,2,2,3,3,4,4,5,5,6,6,7,7,8,8,9,9,13,13],"right_children":[2,4,6,8,10,12,14,16,18,20,-1,-1,-1,22,-1,-1,-1,-1,-1,-1,-1,-1,-1],"split_conditions":[1.4015978E1,1.2914688E1,1.4316923E1,1.2154652E1,1.4589386E1,1.41584215E1,1.4897711E1,-2.0271784E-1,1.4220347E1,1.2938663E1,-1.4679912E0,4.925383E-1,1.3512716E0,1.47110405E1,1.0002003E0,1.7057252E-1,-1.7506331E-2,2.1263251E0,9.775201E-3,-1.0015293E0,-7.483758E-2,1.581476E-1,-1.9415282E0],"split_indices":[0,0,0,0,1,0,1,1,1,0,0,0,0,1,0,0,0,0,0,0,0,0,0],"split_type":[0,0,0,0,0,0,0,0,0,0,0,0,0,0,0,0,0,0,0,0,0,0,0],"sum_hessian":[5.968E3,5.793E3,1.75E2,5.497E3,2.96E2,4.6E1,1.29E2,5.435E3,6.2E1,2.59E2,3.7E1,2.1E1,2.5E1,1.05E2,2.4E1,5.64E2,4.871E3,2.3E1,3.9E1,3E1,2.29E2,8.4E1,2.1E1],"tree_param":{"num_deleted":"0","num_feature":"2","num_nodes":"23","size_leaf_vector":"0"}},{"base_weights":[1.9535288E-4,-3.771338E-2,5.050083E-1,1.383461E-2,-6.968112E0,3.0242684E0,-3.3100465E-1,-5.1856555E-2,6.9961077E-1,4.8306174E0,-2.8770196E0,-6.542804E-1,3.1295302E0,2.6600778E-2,-4.6736836E0,5.3735275E0,3.5530216E-1,2.8414416E0,6.314611E0,-1.7568544E-1,-5.911505E0],"categories":[],"categories_nodes":[],"categories_segments":[],"categories_sizes":[],"default_left":[true,true,true,true,false,true,true,true,true,true,false,true,false,false,false,false,false,false,false,false,false],"id":49,"left_children":[1,3,5,7,-1,9,11,13,15,17,-1,19,-1,-1,-1,-1,-1,-1,-1,-1,-1],"loss_changes":[1.1424671E2,1.9838951E3,8.792589E2,2.483938E2,0E0,1.1225157E3,3.5332166E2,1.8248092E3,7.7375885E2,2.1821118E2,0E0,7.235929E2,0E0,0E0,0E0,0E0,0E0,0E0,0E0,0E0,0E0],"parents":[2147483647,0,0,1,1,2,2,3,3,5,5,6,6,7,7,8,8,9,9,11,11],"right_children":[2,4,6,8,-1,10,12,14,16,18,-1,20,-1,-1,-1,-1,-1,-1,-1,-1,-1],"split_conditions":[1.6056545E1,1.5633009E1,1.730681E1,1.4245514E1,-2.0904336E0,7.3318677E0,1.9466815E0,1.3534065E1,1.4285355E1,-6.9320216E0,-8.6310595E-1,-2.2413814E0,9.388591E-1,7.980234E-3,-1.4021051E0,1.6120583E0,1.0659065E-1,8.5243255E-1,1.8943833E0,-5.2705634E-2,-1.7734517E0],"split_indices":[1,1,1,1,0,0,0,1,1,0,0,0,0,0,0,0,0,0,0,0,0],"split_type":[0,0,0,0,0,0,0,0,0,0,0,0,0,0,0,0,0,0,0,0,0],"sum_hessian":[5.968E3,5.552E3,4.16E2,5.512E3,4E1,1.03E2,3.13E2,5.031E3,4.81E2,7.9E1,2.4E1,2.87E2,2.6E1,4.948E3,8.3E1,3.2E1,4.49E2,3.5E1,4.4E1,2.64E2,2.3E1],"tree_param":{"num_deleted":"0","num_feature":"2","num_nodes":"21","size_leaf_vector":"0"}},{"base_weights":[7.1091795E-6,-9.992027E-2,1.9821389E-1,-4.0169053E-2,-7.4499326E0,4.25869E0,5.7516165E-2,-9.592801E-2,5.841226E0,5.8448777E0,2.8943658E0,-1.7890935E0,1.2368274E-1,1.1405041E-2,-6.239714E0,-5.0497305E-1,-4.5778823E0,3.6968143E0,-2.5681358E-2],"categories":[],"categories_nodes":[],"categories_segments":[],"categories_sizes":[],"default_left":[true,true,true,true,false,true,true,true,false,false,false,true,true,false,false,false,false,false,false],"id":50,"left_children":[1,3,5,7,-1,9,11,13,-1,-1,-1,15,17,-1,-1,-1,-1,-1,-1],"loss_changes":[1.1824352E2,1.7427753E3,1.1429259E3,1.2919899E3,0E0,1.280758E2,2.3664702E2,2.573172E3,0E0,0E0,0E0,2.3762471E2,9.9757574E2,0E0,0E0,0E0,0E0,0E0,0E0],"parents":[2147483647,0,0,1,1,2,2,3,3,5,5,6,6,7,7,11,11,12,12],"right_children":[2,4,6,8,-1,10,12,14,-1,-1,-1,16,18,-1,-1,-1,-1,-1,-1],"split_conditions":[6.818817E0,6.7050543E0,7.3218126E0,6.526303E0,-2.2349799E0,-6.610141E0,7.732875E0,6.2905507E0,1.7523679E0,1.7534634E0,8.683098E-1,7.673053E0,7.837062E0,3.4215127E-3,-1.8719143E0,-1.5149193E-1,-1.3733647E0,1.1090443E0,-7.7044074E-3],"split_indices":[1,1,1,1,0,0,1,1,0,0,0,1,1,0,0,0,0,0,0],"split_type":[0,0,0,0,0,0,0,0,0,0,0,0,0,0,0,0,0,0,0],"sum_hessian":[5.968E3,3.968E3,2E3,3.937E3,3.1E1,6.6E1,1.934E3,3.901E3,3.6E1,2.9E1,3.7E1,6.6E1,1.868E3,3.835E3,6.6E1,4.6E1,2E1,7.4E1,1.794E3],"tree_param":{"num_deleted":"0","num_feature":"2","num_nodes":"19","size_leaf_vector":"0"}},{"base_weights":[-1.8042643E-5,-1.3157609E-1,1.5206477E-1,-1.0180223E-2,-3.1952455E0,1.3543011E0,4.889966E-3,-5.379243E-2,3.6789682E0,-1.8515474E0,-8.334733E0,2.3749577E-1,1.5387996E0,-1.0496889E0,1.3275903E-1,-8.319439E-1,5.7142064E-2,-6.7824044E0,5.311238E-1,1.8312662E0,1.4753941E0,2.4032003E-1,-5.4100523E0,4.68239E0,-1.4409338E-2],"categories":[],"categories_nodes":[],"categories_segments":[],"categories_sizes":[],"default_left":[true,true,true,true,true,true,true,true,false,true,false,false,true,true,true,false,false,false,false,false,false,false,false,false,false],"id":51,"left_children":[1,3,5,7,9,11,13,15,-1,17,-1,-1,19,21,23,-1,-1,-1,-1,-1,-1,-1,-1,-1,-1],"loss_changes":[1.19446075E2,1.1904731E3,4.8993716E2,4.9574493E2,8.270901E2,6.186139E1,3.3294424E2,2.6290363E2,0E0,1.1549662E3,0E0,0E0,2.1010132E0,1.5031506E3,1.4744425E3,0E0,0E0,0E0,0E0,0E0,0E0,0E0,0E0,0E0,0E0],"parents":[2147483647,0,0,1,1,2,2,3,3,4,4,5,5,6,6,7,7,9,9,12,12,13,13,14,14],"right_children":[2,4,6,8,10,12,14,16,-1,18,-1,-1,20,22,24,-1,-1,-1,-1,-1,-1,-1,-1,-1,-1],"split_conditions":[4.8735995E0,4.37129E0,5.0792103E0,4.1503057E0,-6.7080107E0,5.0365496E0,5.820649E0,-1.1628689E1,1.1036905E0,4.5158463E0,-2.50042E0,7.124873E-2,-4.53545E0,5.71416E0,6.2905507E0,-2.4958318E-1,1.714262E-2,-2.0347214E0,1.5933715E-1,5.493799E-1,4.4261825E-1,7.209601E-2,-1.6230158E0,1.4047171E0,-4.3228017E-3],"split_indices":[1,1,1,1,0,1,1,0,0,1,0,0,0,1,1,0,0,0,0,0,0,0,0,0,0],"split_type":[0,0,0,0,0,0,0,0,0,0,0,0,0,0,0,0,0,0,0,0,0,0,0,0,0],"sum_hessian":[5.968E3,3.2E3,2.768E3,3.079E3,1.21E2,3.01E2,2.467E3,3.044E3,3.5E1,9.7E1,2.4E1,4.3E1,2.58E2,2.66E2,2.201E3,3.79E2,2.665E3,3.1E1,6.6E1,4.1E1,2.17E2,2.06E2,6E1,6.8E1,2.133E3],"tree_param":{"num_deleted":"0","num_feature":"2","num_nodes":"25","size_leaf_vector":"0"}},{"base_weights":[-4.4455763E-4,4.9875802E-1,-4.3399327E-2,-2.6882157E-1,2.4027517E0,-7.1357846E-2,2.0641885E0,1.2288555E0,-1.846561E0,3.9011383E0,1.9601877E0,-2.3697885E-2,-2.2337768E0,3.901187E0,1.2826277E0,-1.768247E-1,3.0437698E0,-6.8618846E0,-9.44223E-1,-1.0688365E0,2.8967052E0,-5.7550725E-2,5.9363203E0,-5.2236004E0,-2.5277978E-3],"categories":[],"categories_nodes":[],"categories_segments":[],"categories_sizes":[],"default_left":[true,true,true,true,true,true,true,true,true,false,true,true,true,false,false,false,false,false,false,false,false,false,false,false,false],"id":52,"left_children":[1,3,5,7,9,11,13,15,17,-1,19,21,23,-1,-1,-1,-1,-1,-1,-1,-1,-1,-1,-1,-1],"loss_changes":[1.280157E2,6.919197E2,3.240582E2,8.009443E2,8.253894E1,5.5915497E2,9.83685E1,4.444452E2,7.4023126E2,0E0,3.0662668E2,1.071706E3,7.804986E2,0E0,0E0,0E0,0E0,0E0,0E0,0E0,0E0,0E0,0E0,0E0,0E0],"parents":[2147483647,0,0,1,1,2,2,3,3,4,4,5,5,6,6,7,7,8,8,10,10,11,11,12,12],"right_children":[2,4,6,8,10,12,14,16,18,-1,20,22,24,-1,-1,-1,-1,-1,-1,-1,-1,-1,-1,-1,-1],"split_conditions":[-1.7072847E1,-2.0650013E1,2.2463074E1,1.5320356E1,-1.9942926E1,1.7231104E1,4.148728E1,-2.576631E1,1.54185095E1,1.1703415E0,-1.9630508E1,1.674236E1,1.9333755E1,1.1703562E0,3.8478833E-1,-5.3047415E-2,9.13131E-1,-2.0585654E0,-2.832669E-1,-3.2065094E-1,8.690116E-1,-1.7265217E-2,1.7808962E0,-1.5670801E0,-7.5833936E-4],"split_indices":[0,0,1,1,0,1,1,0,1,0,0,1,1,0,0,0,0,0,0,0,0,0,0,0,0],"split_type":[0,0,0,0,0,0,0,0,0,0,0,0,0,0,0,0,0,0,0,0,0,0,0,0,0],"sum_hessian":[5.968E3,4.72E2,5.496E3,3.37E2,1.35E2,5.425E3,7.1E1,1.73E2,1.64E2,2.9E1,1.06E2,5.309E3,1.16E2,2E1,5.1E1,9.8E1,7.5E1,2.4E1,1.4E2,2.5E1,8.1E1,5.28E3,2.9E1,4.9E1,6.7E1],"tree_param":{"num_deleted":"0","num_feature":"2","num_nodes":"25","size_leaf_vector":"0"}},{"base_weights":[1.5325253E-5,2.7944443E-1,-6.622316E-2,-6.0921032E-2,4.2186284E0,-3.2613585E0,-2.12357E-2,1.8567103E-1,-4.4588594E0,7.0157933E0,1.985836E0,-4.4071784E0,-1.8703938E0,6.028832E0,-5.702287E-2,-7.99575E-2,1.886286E0,3.57641E0,-9.76334E0,2.7479553E0,1.052829E0,-1.6419773E0,2.5407434E-2],"categories":[],"categories_nodes":[],"categories_segments":[],"categories_sizes":[],"default_left":[true,true,true,true,true,true,true,true,true,false,true,false,false,false,true,false,false,false,false,false,false,false,false],"id":53,"left_children":[1,3,5,7,9,11,13,15,17,-1,19,-1,-1,-1,21,-1,-1,-1,-1,-1,-1,-1,-1],"loss_changes":[1.1049849E2,1.534089E3,6.936249E2,1.1438875E3,5.544072E2,9.854108E1,1.0309541E3,4.5143094E2,2.4218018E3,0E0,3.4082138E1,0E0,0E0,0E0,6.184E2,0E0,0E0,0E0,0E0,0E0,0E0,0E0,0E0],"parents":[2147483647,0,0,1,1,2,2,3,3,4,4,5,5,6,6,7,7,8,8,10,10,14,14],"right_children":[2,4,6,8,10,12,14,16,18,-1,20,-1,-1,-1,22,-1,-1,-1,-1,-1,-1,-1,-1],"split_conditions":[-1.0941994E1,-1.1250212E1,-1.0757059E1,-1.1377337E1,-1.1104621E1,1.2894509E0,-1.0719093E1,-1.1628689E1,1.7392987E-1,2.104738E0,-1.1001781E1,-1.3221536E0,-5.611181E-1,1.8086497E0,-1.0023151E1,-2.398725E-2,5.6588584E-1,1.0729231E0,-2.929002E0,8.2438666E-1,3.158487E-1,-4.925932E-1,7.6222303E-3],"split_indices":[0,0,0,0,0,1,0,0,1,0,0,0,0,0,0,0,0,0,0,0,0,0,0],"split_type":[0,0,0,0,0,0,0,0,0,0,0,0,0,0,0,0,0,0,0,0,0,0,0],"sum_hessian":[5.968E3,1.143E3,4.825E3,1.053E3,9E1,6.6E1,4.759E3,9.98E2,5.5E1,3.9E1,5.1E1,3.5E1,3.1E1,2.7E1,4.732E3,8.64E2,1.34E2,2.2E1,3.3E1,2.7E1,2.4E1,2.33E2,4.499E3],"tree_param":{"num_deleted":"0","num_feature":"2","num_nodes":"23","size_leaf_vector":"0"}},{"base_weights":[2.3520367E-4,1.5833586E-1,-1.1692257E-1,-3.4610312E-2,3.8261049E0,-7.6292357E0,-4.3910127E-2,1.6143507E-1,-2.1601877E0,1.2314031E0,7.6685743E0,-2.167734E0,3.1838518E-2,6.059563E-2,3.6573093E0,2.010677E0,-2.890858E0,6.779568E-1,1.9487873E0,3.2961853E0,-4.735999E0,2.311094E0,-9.6549496E-2],"categories":[],"categories_nodes":[],"categories_segments":[],"categories_sizes":[],"default_left":[true,true,true,true,true,false,true,true,true,true,false,true,true,false,false,false,false,false,false,false,false,false,false],"id":54,"left_children":[1,3,5,7,9,-1,11,13,15,17,-1,19,21,-1,-1,-1,-1,-1,-1,-1,-1,-1,-1],"loss_changes":[1.10580635E2,1.7983524E3,1.8804453E3,1.0067025E3,1.2567549E3,0E0,5.4656744E2,7.79557E2,6.27508E2,2.9250404E1,0E0,1.6574475E3,9.603391E2,0E0,0E0,0E0,0E0,0E0,0E0,0E0,0E0,0E0,0E0],"parents":[2147483647,0,0,1,1,2,2,3,3,4,4,6,6,7,7,8,8,9,9,11,11,12,12],"right_children":[2,4,6,8,10,-1,12,14,16,18,-1,20,22,-1,-1,-1,-1,-1,-1,-1,-1,-1,-1],"split_conditions":[-6.473851E0,-6.7267704E0,-6.2251925E0,-7.5035496E0,7.229329E0,-2.288771E0,-6.086669E0,-7.7937756E0,-5.4174596E-1,-6.5695276E0,2.3005724E0,-6.1688914E0,-5.843386E0,1.817869E-2,1.0971929E0,6.032032E-1,-8.672574E-1,2.0338705E-1,5.846362E-1,9.888556E-1,-1.4207997E0,6.9332826E-1,-2.896485E-2],"split_indices":[0,0,0,0,1,0,0,0,1,0,0,0,0,0,0,0,0,0,0,0,0,0,0],"split_type":[0,0,0,0,0,0,0,0,0,0,0,0,0,0,0,0,0,0,0,0,0,0,0],"sum_hessian":[5.968E3,2.54E3,3.428E3,2.414E3,1.26E2,3.2E1,3.396E3,2.211E3,2.03E2,7.6E1,5E1,1.16E2,3.28E3,2.15E3,6.1E1,3E1,1.73E2,4.4E1,3.2E1,3.7E1,7.9E1,1.74E2,3.106E3],"tree_param":{"num_deleted":"0","num_feature":"2","num_nodes":"23","size_leaf_vector":"0"}},{"base_weights":[4.8044097E-4,-2.7919102E-1,7.665683E-2,-9.611089E-2,-5.411572E0,2.9537039E0,-1.7699827E-2,-1.5188657E0,2.521525E-1,6.7742205E-1,4.707048E0,-3.7358682E0,6.338831E-2,-3.0954045E-1,-9.205192E0,-1.5875424E-1,1.4419875E0,7.321747E-1,6.2847943E0,5.679479E0,-7.263735E0,1.6472142E0,-2.5745146E-2],"categories":[],"categories_nodes":[],"categories_segments":[],"categories_sizes":[],"default_left":[true,true,true,true,false,true,true,true,true,false,true,true,true,false,false,false,false,false,false,false,false,false,false],"id":55,"left_children":[1,3,5,7,-1,9,11,13,15,-1,17,19,21,-1,-1,-1,-1,-1,-1,-1,-1,-1,-1],"loss_changes":[1.2718714E2,1.200336E3,1.2737828E3,6.123173E2,0E0,5.914861E2,1.3702499E3,2.255901E3,4.857177E2,0E0,5.221913E2,3.2632146E3,6.279749E2,0E0,0E0,0E0,0E0,0E0,0E0,0E0,0E0,0E0,0E0],"parents":[2147483647,0,0,1,1,2,2,3,3,5,5,6,6,7,7,8,8,10,10,11,11,12,12],"right_children":[2,4,6,8,-1,10,12,14,16,-1,18,20,22,-1,-1,-1,-1,-1,-1,-1,-1,-1,-1],"split_conditions":[9.9158996E-1,9.254354E-1,1.3325276E0,-1.131093E1,-1.6234716E0,1.112194E0,1.5649022E0,-1.1429587E1,1.9886392E-1,2.0322663E-1,-1.0828733E1,-1.09699E1,1.9490155E0,-9.286214E-2,-2.7615576E0,-4.7626276E-2,4.3259627E-1,2.1965241E-1,1.8854383E0,1.7038438E0,-2.1791205E0,4.9416426E-1,-7.7235443E-3],"split_indices":[1,1,1,0,0,1,1,0,1,0,0,0,1,0,0,0,0,0,0,0,0,0,0],"split_type":[0,0,0,0,0,0,0,0,0,0,0,0,0,0,0,0,0,0,0,0,0,0,0],"sum_hessian":[5.968E3,1.277E3,4.691E3,1.234E3,4.3E1,1.48E2,4.543E3,2.42E2,9.92E2,6.5E1,8.3E1,9.6E1,4.447E3,2.1E2,3.2E1,7.38E2,2.54E2,2.4E1,5.9E1,2.6E1,7E1,2.36E2,4.211E3],"tree_param":{"num_deleted":"0","num_feature":"2","num_nodes":"23","size_leaf_vector":"0"}},{"base_weights":[3.64943E-5,5.901171E-2,-3.104343E-1,1.8487208E-2,9.259075E0,-1.0598831E0,-3.3649854E-2,-3.1254473E-1,1.394083E-1,4.3658978E-1,-1.8828688E0,9.7320646E-2,-2.758422E0,7.8989305E-2,-3.7707164E0,1.4406529E1,5.7059694E-2,-1.609887E0,1.2671698E0,-1.1891383E0,-2.9981878E0,1.7440782E0,-2.7519494E-1],"categories":[],"categories_nodes":[],"categories_segments":[],"categories_sizes":[],"default_left":[true,true,true,true,false,true,true,true,true,true,true,true,false,false,false,false,false,false,false,false,false,false,false],"id":56,"left_children":[1,3,5,7,-1,9,11,13,15,17,19,21,-1,-1,-1,-1,-1,-1,-1,-1,-1,-1,-1],"loss_changes":[1.093112E2,1.8703068E3,1.9765062E2,2.0002719E2,0E0,3.17337E2,2.490032E2,1.8105851E3,4.29923E3,1.5841817E2,1.2487402E2,4.0903287E2,0E0,0E0,0E0,0E0,0E0,0E0,0E0,0E0,0E0,0E0,0E0],"parents":[2147483647,0,0,1,1,2,2,3,3,5,5,6,6,7,7,8,8,9,9,10,10,11,11],"right_children":[2,4,6,8,-1,10,12,14,16,18,20,22,-1,-1,-1,-1,-1,-1,-1,-1,-1,-1,-1],"split_conditions":[6.776425E0,6.616832E0,7.731378E0,1.8922473E0,2.7777226E0,-2.0293236E0,1.5016611E1,1.5009482E0,1.9237142E0,6.9676375E0,1.0286536E1,1.1328238E1,-8.275266E-1,2.3696793E-2,-1.131215E0,4.321959E0,1.7117908E-2,-4.8296613E-1,3.8015097E-1,-3.567415E-1,-8.994564E-1,5.2322346E-1,-8.255848E-2],"split_indices":[0,0,0,1,0,1,1,1,1,0,1,0,0,0,0,0,0,0,0,0,0,0,0],"split_type":[0,0,0,0,0,0,0,0,0,0,0,0,0,0,0,0,0,0,0,0,0,0,0],"sum_hessian":[5.968E3,5.016E3,9.52E2,4.995E3,2.1E1,2.56E2,6.96E2,1.336E3,3.659E3,9.1E1,1.65E2,6.65E2,3.1E1,1.201E3,1.35E2,2E1,3.639E3,2.6E1,6.5E1,1.03E2,6.2E1,1.22E2,5.43E2],"tree_param":{"num_deleted":"0","num_feature":"2","num_nodes":"23","size_leaf_vector":"0"}}]},"name":"gbtree"},"learner_model_param":{"base_score":"5E-1","num_class":"0","num_feature":"2"},"objective":{"name":"reg:squarederror","reg_loss_param":{"scale_pos_weight":"1"}}},"version":[1,5,0]}