{"learner":{"attributes":{"best_iteration":"55","best_ntree_limit":"56"},"feature_names":["LD_01","LD_02"],"feature_types":["float","float"],"gradient_booster":{"model":{"gbtree_model_param":{"num_trees":"56","size_leaf_vector":"0"},"tree_info":[0,0,0,0,0,0,0,0,0,0,0,0,0,0,0,0,0,0,0,0,0,0,0,0,0,0,0,0,0,0,0,0,0,0,0,0,0,0,0,0,0,0,0,0,0,0,0,0,0,0,0,0,0,0,0,0],"trees":[{"base_weights":[2.1489929E2,2.0888774E2,2.242368E2,1.8903021E2,2.0983493E2,2.1470439E2,2.2987405E2,2.3676292E2,2.0887704E2,2.534023E2,2.2569383E2,2.0760669E2,2.1992603E2,2.128129E2,2.3739894E2],"categories":[],"categories_nodes":[],"categories_segments":[],"categories_sizes":[],"default_left":[true,true,true,false,true,false,true,false,true,false,true,false,false,false,false],"id":0,"left_children":[1,3,5,-1,7,-1,9,-1,11,-1,13,-1,-1,-1,-1],"loss_changes":[3.00256E5,3.1344E4,8.004E4,0E0,4.328E4,0E0,9.0248E4,0E0,3.184E3,0E0,1.42768E5,0E0,0E0,0E0,0E0],"parents":[2147483647,0,0,1,1,2,2,4,4,6,6,8,8,10,10],"right_children":[2,4,6,-1,8,-1,10,-1,12,-1,14,-1,-1,-1,-1],"split_conditions":[-3.697366E0,-2.0026264E0,4.8813906E0,5.6709064E1,-1.3308291E0,6.441132E1,5.1279798E0,7.102888E1,1.6320824E1,7.602069E1,6.020153E0,6.228201E1,6.597781E1,6.3843872E1,7.121969E1],"split_indices":[0,1,1,0,1,0,1,0,1,0,0,0,0,0,0],"split_type":[0,0,0,0,0,0,0,0,0,0,0,0,0,0,0],"sum_hessian":[6.182E3,3.775E3,2.407E3,1.81E2,3.594E3,9.09E2,1.498E3,1.15E2,3.479E3,2.17E2,1.281E3,3.138E3,3.41E2,6.19E2,6.62E2],"tree_param":{"num_deleted":"0","num_feature":"2","num_nodes":"15","size_leaf_vector":"0"}},{"base_weights":[1.5051546E2,1.4620218E2,1.5703224E2,1.3263275E2,1.4685593E2,1.5410002E2,1.676655E2,1.5257639E2,1.4425331E2,1.6747327E2,1.497348E2,1.25228004E2,1.7029478E2,1.64196E2,1.5036566E2,1.4259015E2,1.5414113E2,1.5732465E2,1.7733374E2,1.597026E2,1.4717291E2],"categories":[],"categories_nodes":[],"categories_segments":[],"categories_sizes":[],"default_left":[true,true,true,false,true,true,true,true,true,true,true,false,false,false,false,false,false,false,false,false,false],"id":1,"left_children":[1,3,5,-1,7,9,11,13,15,17,19,-1,-1,-1,-1,-1,-1,-1,-1,-1,-1],"loss_changes":[1.50848E5,1.3656E4,5.052E4,0E0,3.0904E4,8.7708E4,3.6473E4,3.412E3,1.8492E4,1.8835E4,1.3932E4,0E0,0E0,0E0,0E0,0E0,0E0,0E0,0E0,0E0,0E0],"parents":[2147483647,0,0,1,1,2,2,4,4,5,5,6,6,7,7,8,8,9,9,10,10],"right_children":[2,4,6,-1,8,10,12,14,16,18,20,-1,-1,-1,-1,-1,-1,-1,-1,-1,-1],"split_conditions":[-3.7764025E0,-2.0026264E0,1.4140744E1,3.9789825E1,1.9676075E0,-3.3106353E0,1.1481004E0,-9.522996E-1,1.6320824E1,-3.390751E0,3.9675432E-1,3.75684E1,5.1088436E1,4.92588E1,4.51097E1,4.2777046E1,4.624234E1,4.7197395E1,5.3200123E1,4.791078E1,4.4151875E1],"split_indices":[0,1,1,0,1,0,0,1,1,0,1,0,0,0,0,0,0,0,0,0,0],"split_type":[0,0,0,0,0,0,0,0,0,0,0,0,0,0,0,0,0,0,0,0,0],"sum_hessian":[6.182E3,3.734E3,2.448E3,1.81E2,3.553E3,1.931E3,5.17E2,1.093E3,2.46E3,4.66E2,1.465E3,3.3E1,4.84E2,1.63E2,9.3E2,2.119E3,3.41E2,2.38E2,2.28E2,2.87E2,1.178E3],"tree_param":{"num_deleted":"0","num_feature":"2","num_nodes":"21","size_leaf_vector":"0"}},{"base_weights":[1.0544238E2,1.02401276E2,1.1003736E2,8.125013E1,1.0270114E2,1.0266581E2,1.1292896E2,1.0529561E2,1.0101228E2,1.0834628E2,8.340508E1,1.1125382E2,1.2943816E2,9.478316E1,1.0650209E2,9.9703476E1,1.08034E2,1.2720358E2,1.06942375E2,1.01746765E2,7.470518E1,1.19027534E2,1.0831915E2],"categories":[],"categories_nodes":[],"categories_segments":[],"categories_sizes":[],"default_left":[true,true,true,false,true,true,true,true,true,true,true,true,false,false,false,false,false,false,false,false,false,false,false],"id":2,"left_children":[1,3,5,-1,7,9,11,13,15,17,19,21,-1,-1,-1,-1,-1,-1,-1,-1,-1,-1,-1],"loss_changes":[7.5128E4,1.5344E4,4.0608E4,0E0,5.484E3,6.766E4,3.3968E4,8.004E3,9.934E3,6.395E2,1.8568625E4,2.3494E4,0E0,0E0,0E0,0E0,0E0,0E0,0E0,0E0,0E0,0E0,0E0],"parents":[2147483647,0,0,1,1,2,2,4,4,5,5,6,6,7,7,8,8,9,9,10,10,11,11],"right_children":[2,4,6,-1,8,10,12,14,16,18,20,22,-1,-1,-1,-1,-1,-1,-1,-1,-1,-1,-1],"split_conditions":[-3.7764025E0,-2.9086187E1,3.3281522E0,2.437504E1,2.1050086E0,2.0660367E0,1.33787E1,-2.0026264E0,1.6320824E1,-9.193469E0,-5.313856E-1,-3.3106353E0,3.8831448E1,2.8434948E1,3.1950628E1,2.9911043E1,3.2410202E1,3.8161076E1,3.2082714E1,3.052403E1,2.2411554E1,3.5708263E1,3.2495747E1],"split_indices":[0,0,1,0,1,1,0,1,1,1,0,0,0,0,0,0,0,0,0,0,0,0,0],"split_type":[0,0,0,0,0,0,0,0,0,0,0,0,0,0,0,0,0,0,0,0,0,0,0],"sum_hessian":[6.182E3,3.734E3,2.448E3,5.6E1,3.678E3,7E2,1.748E3,1.426E3,2.252E3,5.37E2,1.63E2,1.594E3,1.54E2,1.55E2,1.271E3,1.911E3,3.41E2,3.1E1,5.06E2,4.9E1,1.14E2,4.26E2,1.168E3],"tree_param":{"num_deleted":"0","num_feature":"2","num_nodes":"23","size_leaf_vector":"0"}},{"base_weights":[7.387069E1,7.086915E1,7.629553E1,7.2351105E1,6.7256516E1,7.5016E1,8.3084435E1,7.1327194E1,8.0612946E1,6.557479E1,7.619418E1,7.56252E1,5.821305E1,6.1530655E1,8.500184E1,5.730272E1,7.175724E1,5.495369E1,6.6468056E1,7.663118E1,6.990297E1,5.1307625E1,7.3766365E1,8.167739E1,9.22338E1],"categories":[],"categories_nodes":[],"categories_segments":[],"categories_sizes":[],"default_left":[true,true,true,true,true,true,true,true,false,true,false,true,true,false,true,false,false,false,false,false,false,false,false,false,false],"id":3,"left_children":[1,3,5,7,9,11,13,15,-1,17,-1,19,21,-1,23,-1,-1,-1,-1,-1,-1,-1,-1,-1,-1],"loss_changes":[3.9596E4,1.0001E4,2.3364E4,1.0797E4,7.359E3,2.5047E4,1.67145E4,6.436E3,0E0,2.979E3,0E0,1.0606E4,7.4924688E3,0E0,4.12725E3,0E0,0E0,0E0,0E0,0E0,0E0,0E0,0E0,0E0,0E0],"parents":[2147483647,0,0,1,1,2,2,3,3,4,4,5,5,6,6,7,7,9,9,11,11,12,12,14,14],"right_children":[2,4,6,8,10,12,14,16,-1,18,-1,20,22,-1,24,-1,-1,-1,-1,-1,-1,-1,-1,-1,-1],"split_conditions":[-6.086669E0,-8.25041E0,1.4140744E1,-9.035698E0,6.2409887E0,1.1980305E1,1.1481004E0,-2.9086187E1,2.4183886E1,-8.039875E0,2.2858255E1,7.186469E0,5.8497853E0,1.8459198E1,1.33787E1,1.7190817E1,2.1527172E1,1.6486107E1,1.9940418E1,2.2989355E1,2.0970892E1,1.5392288E1,2.212991E1,2.4503218E1,2.7670141E1],"split_indices":[0,0,1,0,1,1,0,0,0,0,0,0,0,0,0,0,0,0,0,0,0,0,0,0,0],"split_type":[0,0,0,0,0,0,0,0,0,0,0,0,0,0,0,0,0,0,0,0,0,0,0,0,0],"sum_hessian":[6.182E3,2.776E3,3.406E3,1.955E3,8.21E2,2.876E3,5.3E2,1.748E3,2.07E2,6.98E2,1.23E2,2.772E3,1.04E2,4.6E1,4.84E2,5.6E1,1.692E3,5.9E1,6.39E2,2.347E3,4.25E2,7.5E1,2.9E1,3.4E2,1.44E2],"tree_param":{"num_deleted":"0","num_feature":"2","num_nodes":"25","size_leaf_vector":"0"}},{"base_weights":[5.175385E1,5.074102E1,5.5908726E1,5.08958E1,3.445549E1,4.994645E1,6.0275494E1,4.9652397E1,5.2473007E1,2.182865E1,4.4403217E1,5.551904E1,3.0348091E1,5.067793E1,4.7151688E1,5.545625E1,4.747308E1,6.9919495E1,5.411596E1,2.3257662E1,3.4206047E1],"categories":[],"categories_nodes":[],"categories_segments":[],"categories_sizes":[],"default_left":[true,true,true,true,true,true,false,true,true,false,false,true,true,false,false,false,false,false,false,false,false],"id":4,"left_children":[1,3,5,7,9,11,-1,13,15,-1,-1,17,19,-1,-1,-1,-1,-1,-1,-1,-1],"loss_changes":[2.3182E4,1.0804E4,2.82845E4,7.069E3,5.3111562E3,5.4450875E4,0E0,4.7325E3,2.9541E4,0E0,0E0,4.278E3,2.3775781E3,0E0,0E0,0E0,0E0,0E0,0E0,0E0,0E0],"parents":[2147483647,0,0,1,1,2,2,3,3,4,4,5,5,7,7,8,8,11,11,12,12],"right_children":[2,4,6,8,10,12,-1,14,16,-1,-1,18,20,-1,-1,-1,-1,-1,-1,-1,-1],"split_conditions":[5.725888E0,5.4570227E0,7.188575E0,-6.086669E0,5.597721E0,2.2907388E0,1.808265E1,-8.25041E0,5.482361E0,6.548595E0,1.3320966E1,-9.193469E0,2.4730992E0,1.520338E1,1.4145507E1,1.6636875E1,1.4241924E1,2.097585E1,1.6234789E1,6.9772987E0,1.0261814E1],"split_indices":[0,0,1,0,0,1,0,0,1,0,0,1,1,0,0,0,0,0,0,0,0],"split_type":[0,0,0,0,0,0,0,0,0,0,0,0,0,0,0,0,0,0,0,0,0],"sum_hessian":[6.182E3,4.981E3,1.201E3,4.932E3,4.9E1,5.13E2,6.88E2,2.776E3,2.156E3,2.3E1,2.6E1,3.98E2,1.15E2,1.955E3,8.21E2,1.344E3,8.12E2,3.1E1,3.67E2,4.3E1,7.2E1],"tree_param":{"num_deleted":"0","num_feature":"2","num_nodes":"21","size_leaf_vector":"0"}},{"base_weights":[3.6252377E1,3.499268E1,3.8212666E1,2.688766E1,3.525593E1,4.4112385E1,3.6925983E1,3.0434557E1,1.982767E1,4.224694E1,3.471237E1,3.4473434E1,4.7693302E1,3.410208E1,4.0704327E1,2.5882067E1,3.4556866E1,3.612161E1,4.7437958E1,3.431978E1,3.994284E1,2.9318295E1,4.0772083E1,4.9187057E1,3.6455463E1,4.0543198E1,3.1756208E1,3.4606663E1,4.2547134E1],"categories":[],"categories_nodes":[],"categories_segments":[],"categories_sizes":[],"default_left":[true,true,true,true,true,true,true,true,false,true,true,true,true,true,true,false,false,false,false,false,false,false,false,false,false,false,false,false,false],"id":5,"left_children":[1,3,5,7,9,11,13,15,-1,17,19,21,23,25,27,-1,-1,-1,-1,-1,-1,-1,-1,-1,-1,-1,-1,-1,-1],"loss_changes":[1.39305E4,7.109E3,1.66505E4,2.4766094E3,1.2419E4,1.305975E4,1.976975E4,6.069375E2,0E0,6.5217812E3,5.60275E3,2.6686094E3,3.3771875E3,1.5953125E4,8.000375E3,0E0,0E0,0E0,0E0,0E0,0E0,0E0,0E0,0E0,0E0,0E0,0E0,0E0,0E0],"parents":[2147483647,0,0,1,1,2,2,3,3,4,4,5,5,6,6,7,7,9,9,10,10,11,11,12,12,13,13,14,14],"right_children":[2,4,6,8,10,12,14,16,-1,18,20,22,24,26,28,-1,-1,-1,-1,-1,-1,-1,-1,-1,-1,-1,-1,-1,-1],"split_conditions":[-3.697366E0,-5.048642E0,-3.3106353E0,-5.986354E0,-5.562262E-1,3.7670143E0,9.328178E0,-7.0433054E0,5.948301E0,-6.21963E0,1.809385E1,-3.469767E0,7.8248014E0,6.556195E-1,6.0529995E0,7.7646203E0,1.036706E1,1.0836483E1,1.4231388E1,1.0295934E1,1.1982853E1,8.795488E0,1.2231626E1,1.4756118E1,1.093664E1,1.216296E1,9.526863E0,1.0381999E1,1.2764141E1],"split_indices":[0,1,0,1,1,1,1,0,0,0,1,0,1,1,0,0,0,0,0,0,0,0,0,0,0,0,0,0,0],"split_type":[0,0,0,0,0,0,0,0,0,0,0,0,0,0,0,0,0,0,0,0,0,0,0,0,0,0,0,0,0],"sum_hessian":[6.182E3,3.775E3,2.407E3,1.22E2,3.653E3,4.25E2,1.982E3,7.9E1,4.3E1,2.58E2,3.395E3,1.18E2,3.07E2,1.14E3,8.42E2,4.1E1,3.8E1,1.22E2,1.36E2,3.165E3,2.3E2,6.8E1,5E1,2.68E2,3.9E1,3E2,8.4E2,2E2,6.42E2],"tree_param":{"num_deleted":"0","num_feature":"2","num_nodes":"29","size_leaf_vector":"0"}},{"base_weights":[2.5403025E1,2.4325615E1,2.6643917E1,2.6264095E1,2.1411276E1,3.2760902E1,2.561107E1,3.7816273E1,2.6061985E1,2.2459948E1,1.1284425E1,3.131356E1,4.2335056E1,2.4033907E1,2.9835299E1,1.8457296E1,2.6500069E1,2.0049934E1,2.7665834E1,8.400227E0,1.436511E1,3.3568546E1,2.4070086E1,1.9057201E1,2.5037848E1,3.0295437E1,2.2496206E1],"categories":[],"categories_nodes":[],"categories_segments":[],"categories_sizes":[],"default_left":[true,true,true,true,true,true,true,false,true,true,true,true,false,true,true,false,false,false,false,false,false,false,false,false,false,false,false],"id":6,"left_children":[1,3,5,7,9,11,13,-1,15,17,19,21,-1,23,25,-1,-1,-1,-1,-1,-1,-1,-1,-1,-1,-1,-1],"loss_changes":[7.61825E3,1.819925E4,1.7249E4,3.66075E3,1.3892E4,4.35575E3,1.563225E4,0E0,6.03725E3,1.4576125E4,1.00776465E3,5.0722188E3,0E0,8.4761875E3,1.5574375E3,0E0,0E0,0E0,0E0,0E0,0E0,0E0,0E0,0E0,0E0,0E0,0E0],"parents":[2147483647,0,0,1,1,2,2,3,3,4,4,5,5,6,6,8,8,9,9,10,10,11,11,13,13,14,14],"right_children":[2,4,6,8,10,12,14,-1,16,18,20,22,-1,24,26,-1,-1,-1,-1,-1,-1,-1,-1,-1,-1,-1,-1],"split_conditions":[5.0190315E0,2.1050086E0,5.482361E0,-9.278973E0,-2.564757E-1,5.362779E0,5.9366736E0,1.1344882E1,-6.611761E0,-4.784851E0,2.4730992E0,5.0792103E0,1.2700518E1,6.5806065E0,1.5809748E1,5.537189E0,7.950021E0,6.014981E0,8.29975E0,2.5200682E0,4.309533E0,1.0070564E1,7.221026E0,5.7171607E0,7.5113544E0,9.088632E0,6.7488623E0],"split_indices":[1,1,1,1,0,1,0,0,1,0,1,1,0,1,1,0,0,0,0,0,0,0,0,0,0,0,0],"split_type":[0,0,0,0,0,0,0,0,0,0,0,0,0,0,0,0,0,0,0,0,0,0,0,0,0,0,0],"sum_hessian":[6.182E3,3.32E3,2.862E3,1.989E3,1.331E3,4.09E2,2.453E3,3.1E1,1.958E3,1.205E3,1.26E2,3.59E2,5E1,1.791E3,6.62E2,1.09E2,1.849E3,8.27E2,3.78E2,6.7E1,5.9E1,2.71E2,8.8E1,3.04E2,1.487E3,6.2E2,4.2E1],"tree_param":{"num_deleted":"0","num_feature":"2","num_nodes":"27","size_leaf_vector":"0"}},{"base_weights":[1.7799103E1,1.3778863E1,1.8052622E1,1.5840832E1,6.9677477E0,1.779701E1,2.9356634E1,1.3114264E1,2.5392185E1,-2.3016357E-1,8.821927E0,1.760848E1,2.1100422E1,3.934402E1,2.5999714E1,1.5413007E1,1.0478121E1,1.1248596E1,1.7162042E0,1.7670559E1,9.084565E0,2.4013287E1,1.2427412E1,2.4327126E1,3.1673786E1],"categories":[],"categories_nodes":[],"categories_segments":[],"categories_sizes":[],"default_left":[true,true,true,true,true,true,true,true,false,false,true,true,true,false,true,false,false,false,false,false,false,false,false,false,false],"id":7,"left_children":[1,3,5,7,9,11,13,15,-1,-1,17,19,21,-1,23,-1,-1,-1,-1,-1,-1,-1,-1,-1,-1],"loss_changes":[6.053125E3,5.1000625E3,1.627375E4,7.063047E3,1.1764976E3,3.170375E3,3.2349844E3,1.1898398E3,0E0,0E0,1.1877222E3,2.6895E3,7.3310938E3,0E0,1.5952344E2,0E0,0E0,0E0,0E0,0E0,0E0,0E0,0E0,0E0,0E0],"parents":[2147483647,0,0,1,1,2,2,3,3,4,4,5,5,6,6,7,7,10,10,11,11,12,12,14,14],"right_children":[2,4,6,8,10,12,14,16,-1,-1,18,20,22,-1,24,-1,-1,-1,-1,-1,-1,-1,-1,-1,-1],"split_conditions":[-2.0650013E1,-2.2133232E1,2.120243E1,-2.3713562E1,-2.1444954E1,1.3442457E1,2.209222E1,-2.6601562E1,7.6176558E0,-6.9049075E-2,-2.1142365E1,1.9775965E1,1.5065899E1,1.1803206E1,-3.1156583E0,4.6239023E0,3.1434364E0,3.374579E0,5.148613E-1,5.301168E0,2.7253697E0,7.203986E0,3.7282238E0,7.298138E0,9.502136E0],"split_indices":[0,0,1,0,0,0,1,0,0,0,0,1,0,0,0,0,0,0,0,0,0,0,0,0,0],"split_type":[0,0,0,0,0,0,0,0,0,0,0,0,0,0,0,0,0,0,0,0,0,0,0,0,0],"sum_hessian":[6.182E3,3.7E2,5.812E3,2.83E2,8.7E1,5.686E3,1.26E2,2.22E2,6.1E1,1.8E1,6.9E1,5.385E3,3.01E2,2.9E1,9.7E1,1.16E2,1.06E2,5.1E1,1.8E1,5.345E3,4E1,2.24E2,7.7E1,7.9E1,1.8E1],"tree_param":{"num_deleted":"0","num_feature":"2","num_nodes":"25","size_leaf_vector":"0"}},{"base_weights":[1.2470175E1,1.1721695E1,1.33592005E1,1.3069138E1,9.764476E0,1.8419695E1,1.2599013E1,1.5251237E1,1.2278776E1,6.25397E0,1.1590476E1,1.7350014E1,2.4686352E1,8.075002E0,1.3234931E1,1.366267E1,2.8311508E1,5.2710996E0,1.2997196E1,7.525224E0,-7.3242517E0,1.4697261E1,9.128758E0,1.9483856E1,1.1688597E1,1.14622965E1,-2.4655325E0,2.4989923E1,1.3062426E1],"categories":[],"categories_nodes":[],"categories_segments":[],"categories_sizes":[],"default_left":[true,true,true,true,true,true,true,true,true,true,true,true,false,true,true,false,false,false,false,false,false,false,false,false,false,false,false,false,false],"id":8,"left_children":[1,3,5,7,9,11,13,15,17,19,21,23,-1,25,27,-1,-1,-1,-1,-1,-1,-1,-1,-1,-1,-1,-1,-1,-1],"loss_changes":[3.9576875E3,8.746719E3,1.0612406E4,3.2447812E3,8.747922E3,2.0251094E3,6.9530312E3,1.050543E4,7.3120156E3,8.219746E3,6.7796484E3,3.5897266E3,0E0,1.0917949E4,4.0333438E3,0E0,0E0,0E0,0E0,0E0,0E0,0E0,0E0,0E0,0E0,0E0,0E0,0E0,0E0],"parents":[2147483647,0,0,1,1,2,2,3,3,4,4,5,5,6,6,7,7,8,8,9,9,10,10,11,11,13,13,14,14],"right_children":[2,4,6,8,10,12,14,16,18,20,22,24,-1,26,28,-1,-1,-1,-1,-1,-1,-1,-1,-1,-1,-1,-1,-1,-1],"split_conditions":[5.0625176E0,2.1050086E0,5.482361E0,-1.0152995E1,2.9432638E0,5.362779E0,6.5806065E0,1.8618034E0,-9.1624975E0,2.8806164E0,3.6722991E0,5.0792103E0,7.4059057E0,6.319446E0,6.7050543E0,4.098801E0,8.493453E0,1.58133E0,3.899159E0,2.2575674E0,-2.1972756E0,4.4091783E0,2.7386277E0,5.845157E0,3.5065792E0,3.438689E0,-7.396598E-1,7.4969773E0,3.9187279E0],"split_indices":[1,1,1,0,1,1,1,1,0,1,1,1,0,1,1,0,0,0,0,0,0,0,0,0,0,0,0,0,0],"split_type":[0,0,0,0,0,0,0,0,0,0,0,0,0,0,0,0,0,0,0,0,0,0,0,0,0,0,0,0,0],"sum_hessian":[6.182E3,3.364E3,2.818E3,1.989E3,1.375E3,3.65E2,2.453E3,5.24E2,1.465E3,4.72E2,9.03E2,3.15E2,5E1,3.04E2,2.149E3,4.69E2,5.5E1,1.37E2,1.328E3,4.32E2,4E1,3.97E2,5.06E2,2.27E2,8.8E1,2.3E2,7.4E1,2.9E1,2.12E3],"tree_param":{"num_deleted":"0","num_feature":"2","num_nodes":"29","size_leaf_vector":"0"}},{"base_weights":[8.738203E0,5.7307E0,8.928646E0,7.1619205E0,1.046639E0,8.737431E0,1.6614574E1,5.2266846E0,1.4007012E1,-3.8772342E0,2.368167E0,8.792433E0,-2.6674914E0,2.1064585E1,1.4492484E1,3.1556497E0,7.7888327E0,1.1848674E1,1.5660183E1,4.0955477E0,-2.4840424E0,8.511199E0,1.1042639E1,1.32504635E1,1.895928E1],"categories":[],"categories_nodes":[],"categories_segments":[],"categories_sizes":[],"default_left":[true,true,true,true,true,true,true,true,true,false,true,true,false,false,true,false,false,false,false,false,false,false,false,false,false],"id":9,"left_children":[1,3,5,7,9,11,13,15,17,-1,19,21,-1,-1,23,-1,-1,-1,-1,-1,-1,-1,-1,-1,-1],"loss_changes":[3.4901875E3,2.4796602E3,8.3980625E3,3.6889004E3,5.81801E2,3.58275E3,1.01678516E3,1.1587261E3,3.566992E1,0E0,5.9688654E2,3.4795938E3,0E0,0E0,2.9246875E2,0E0,0E0,0E0,0E0,0E0,0E0,0E0,0E0,0E0,0E0],"parents":[2147483647,0,0,1,1,2,2,3,3,4,4,5,5,6,6,7,7,8,8,10,10,11,11,14,14],"right_children":[2,4,6,8,10,12,14,16,18,-1,20,22,-1,-1,24,-1,-1,-1,-1,-1,-1,-1,-1,-1,-1],"split_conditions":[-2.0650013E1,-2.2133232E1,2.0412434E1,-2.3713562E1,-2.1444954E1,1.9775965E1,2.209222E1,1.5165596E1,-2.2362957E1,-1.1631703E0,-2.1142365E1,1.4140744E1,-8.002475E-1,6.3193755E0,-3.1156583E0,9.466949E-1,2.33665E0,3.5546024E0,4.6980553E0,1.2286644E0,-7.4521273E-1,2.5533597E0,3.3127918E0,3.9751391E0,5.687784E0],"split_indices":[0,0,1,0,0,1,1,1,0,0,0,1,0,0,0,0,0,0,0,0,0,0,0,0,0],"split_type":[0,0,0,0,0,0,0,0,0,0,0,0,0,0,0,0,0,0,0,0,0,0,0,0,0],"sum_hessian":[6.182E3,3.7E2,5.812E3,2.83E2,8.7E1,5.673E3,1.39E2,2.22E2,6.1E1,1.8E1,6.9E1,5.646E3,2.7E1,4.2E1,9.7E1,1.24E2,9.8E1,3E1,3.1E1,5.1E1,1.8E1,5.023E3,6.23E2,7.9E1,1.8E1],"tree_param":{"num_deleted":"0","num_feature":"2","num_nodes":"25","size_leaf_vector":"0"}},{"base_weights":[6.121902E0,1.2475904E1,6.06493E0,8.443288E0,1.3676238E1,-2.8126162E-1,6.1563416E0,1.621573E1,1.001597E1,1.5519277E0,-2.0674632E0,8.5476675E0,5.9367375E0,-4.5307595E-1,4.7629967E0,-1.1388386E0,-3.6794176E0,5.2577934E0,1.1739897E1,-2.9926841E0,5.995707E0],"categories":[],"categories_nodes":[],"categories_segments":[],"categories_sizes":[],"default_left":[true,true,true,false,true,true,true,false,false,true,true,true,true,false,false,false,false,false,false,false,false],"id":10,"left_children":[1,3,5,-1,7,9,11,-1,-1,13,15,17,19,-1,-1,-1,-1,-1,-1,-1,-1],"loss_changes":[2.1625781E3,1.4591309E2,3.5578438E3,0E0,2.0939307E2,2.9135977E2,3.1227031E3,0E0,0E0,2.8543903E2,6.3170258E1,5.252301E3,2.9340625E3,0E0,0E0,0E0,0E0,0E0,0E0,0E0,0E0],"parents":[2147483647,0,0,1,1,2,2,4,4,5,5,6,6,9,9,10,10,11,11,12,12],"right_children":[2,4,6,-1,8,10,12,-1,-1,14,16,18,20,-1,-1,-1,-1,-1,-1,-1,-1],"split_conditions":[-8.648897E0,-9.776919E0,-6.611761E0,2.5329864E0,1.3500093E1,1.3186659E1,-5.562262E-1,4.8647194E0,3.0047913E0,2.3464289E0,1.4762812E1,-2.3894553E0,-3.724423E-1,-1.3592279E-1,1.428899E0,-3.4165162E-1,-1.1038253E0,1.5773381E0,3.521969E0,-8.978053E-1,1.7987121E0],"split_indices":[1,0,1,0,0,0,1,0,0,0,0,1,1,0,0,0,0,0,0,0,0],"split_type":[0,0,0,0,0,0,0,0,0,0,0,0,0,0,0,0,0,0,0,0,0],"sum_hessian":[6.182E3,5.3E1,6.129E3,1.4E1,3.9E1,8.7E1,6.042E3,2.1E1,1.8E1,4.3E1,4.4E1,5.05E2,5.537E3,2.7E1,1.6E1,2.9E1,1.5E1,2.5E2,2.55E2,3.6E1,5.501E3],"tree_param":{"num_deleted":"0","num_feature":"2","num_nodes":"21","size_leaf_vector":"0"}},{"base_weights":[4.2879653E0,3.8620949E0,4.9539943E0,4.1365266E0,7.3655564E-1,7.759526E0,4.348795E0,-5.475749E-1,4.3704724E0,6.16614E0,-6.372349E0,3.4386663E0,9.403755E0,4.1973085E0,1.5167676E1,1.6873715E0,-6.782821E0,1.3185244E1,4.111226E0,3.0851707E0,1.1040447E1,-8.089352E0,3.5531944E-1,1.3319324E0,9.644246E0,1.3533302E1,8.492386E0,7.136136E0,3.7267687E0],"categories":[],"categories_nodes":[],"categories_segments":[],"categories_sizes":[],"default_left":[true,true,true,true,true,true,true,true,true,true,true,true,true,true,false,false,false,false,false,false,false,false,false,false,false,false,false,false,false],"id":11,"left_children":[1,3,5,7,9,11,13,15,17,19,21,23,25,27,-1,-1,-1,-1,-1,-1,-1,-1,-1,-1,-1,-1,-1,-1,-1],"loss_changes":[1.734625E3,3.2358047E3,4.0548086E3,3.806004E3,1.1850402E4,2.9941758E3,3.1863008E3,2.3247283E3,7.5006562E3,2.5789995E3,1.5392144E3,1.5429019E3,1.0442422E3,2.6796172E3,0E0,0E0,0E0,0E0,0E0,0E0,0E0,0E0,0E0,0E0,0E0,0E0,0E0,0E0,0E0],"parents":[2147483647,0,0,1,1,2,2,3,3,4,4,5,5,6,6,7,7,8,8,9,9,10,10,11,11,12,12,13,13],"right_children":[2,4,6,8,10,12,14,16,18,20,22,24,26,28,-1,-1,-1,-1,-1,-1,-1,-1,-1,-1,-1,-1,-1,-1,-1],"split_conditions":[-3.697366E0,-4.8736234E0,-3.3106353E0,-2.0026264E0,3.6905427E0,3.7670143E0,2.1126606E1,-5.624035E0,-1.3516729E0,3.40929E0,-3.7581954E0,-3.443799E0,-3.501895E0,2.966117E-1,4.550303E0,5.0621146E-1,-2.0348465E0,3.9555733E0,1.2333679E0,9.2555124E-1,3.3121343E0,-2.4268055E0,1.0659584E-1,3.9957973E-1,2.8932738E0,4.059991E0,2.547716E0,2.140841E0,1.1180307E0],"split_indices":[0,0,0,1,1,1,1,0,1,1,0,0,0,1,0,0,0,0,0,0,0,0,0,0,0,0,0,0,0],"split_type":[0,0,0,0,0,0,0,0,0,0,0,0,0,0,0,0,0,0,0,0,0,0,0,0,0,0,0,0,0],"sum_hessian":[6.182E3,3.775E3,2.407E3,3.47E3,3.05E2,4.25E2,1.982E3,1.65E2,3.305E3,1.73E2,1.32E2,1.18E2,3.07E2,1.956E3,2.6E1,1.22E2,4.3E1,9.3E1,3.212E3,1.07E2,6.6E1,1.05E2,2.7E1,8.9E1,2.9E1,5.3E1,2.54E2,2.68E2,1.688E3],"tree_param":{"num_deleted":"0","num_feature":"2","num_nodes":"29","size_leaf_vector":"0"}},{"base_weights":[3.005343E0,2.4929893E0,3.5986094E0,-3.6628995E0,2.728901E0,6.152342E0,3.0673974E0,-6.3377273E-1,-1.4939497E1,5.6676836E0,2.074546E0,-1.383643E1,6.7667336E0,-1.0598661E0,3.6405318E0,5.606702E0,-1.7405982E0,6.5122256E0,-1.1274767E1,3.8577373E0,1.2210262E0,5.561496E0,1.03559675E1,1.9355483E-1,-9.131718E0,1.0423236E1,3.4099443E0],"categories":[],"categories_nodes":[],"categories_segments":[],"categories_sizes":[],"default_left":[true,true,true,true,true,true,true,true,false,true,true,false,true,true,true,false,false,false,false,false,false,false,false,false,false,false,false],"id":12,"left_children":[1,3,5,7,9,11,13,15,-1,17,19,-1,21,23,25,-1,-1,-1,-1,-1,-1,-1,-1,-1,-1,-1,-1],"loss_changes":[1.8704297E3,4.8329043E3,3.865E3,4.1919956E3,6.1399375E3,6.1358477E3,5.6147695E3,6.866564E2,0E0,8.401035E3,3.9798574E3,0E0,2.0101758E3,2.9358215E3,3.2222832E3,0E0,0E0,0E0,0E0,0E0,0E0,0E0,0E0,0E0,0E0,0E0,0E0],"parents":[2147483647,0,0,1,1,2,2,3,3,4,4,5,5,6,6,7,7,9,9,10,10,12,12,13,13,14,14],"right_children":[2,4,6,8,10,12,14,16,-1,18,20,-1,22,24,26,-1,-1,-1,-1,-1,-1,-1,-1,-1,-1,-1,-1],"split_conditions":[5.0190315E0,-1.3773576E1,5.71416E0,-1.4592787E1,-1.045542E1,-1.0176749E1,6.818817E0,-8.681717E0,-4.481849E0,3.7726762E0,8.0554575E-1,-4.150929E0,5.362779E0,6.7050543E0,7.3218126E0,1.6820107E0,-5.221795E-1,1.9536678E0,-3.3824303E0,1.1573212E0,3.6630785E-1,1.6684488E0,3.1067903E0,5.8066454E-2,-2.7395153E0,3.126971E0,1.0229833E0],"split_indices":[1,0,1,0,0,0,1,1,0,1,1,0,1,1,1,0,0,0,0,0,0,0,0,0,0,0,0],"split_type":[0,0,0,0,0,0,0,0,0,0,0,0,0,0,0,0,0,0,0,0,0,0,0,0,0,0,0],"sum_hessian":[6.182E3,3.32E3,2.862E3,1.22E2,3.198E3,4.91E2,2.371E3,9.7E1,2.5E1,5.81E2,2.617E3,1.4E1,4.77E2,2.89E2,2.082E3,1.4E1,8.3E1,5.54E2,2.7E1,8.46E2,1.771E3,3.59E2,1.18E2,2.51E2,3.8E1,6.7E1,2.015E3],"tree_param":{"num_deleted":"0","num_feature":"2","num_nodes":"27","size_leaf_vector":"0"}},{"base_weights":[2.10356E0,3.1316584E-1,2.2174654E0,1.3930055E0,-3.8279495E0,7.007589E0,2.0850022E0,2.8959334E-2,5.540804E0,-1.8030064E0,-4.6051445E0,2.2306035E0,9.890182E0,2.004354E0,6.942434E0,8.6353093E-1,-5.5838137E0,7.8075624E0,4.657E0,-3.959701E0,-5.619685E0,4.131847E0,1.9163208E-1,1.0937087E1,3.4379578E0,-2.952133E0,2.0909436E0,5.667911E0,9.800806E0],"categories":[],"categories_nodes":[],"categories_segments":[],"categories_sizes":[],"default_left":[true,true,true,true,true,true,true,true,true,false,true,true,true,true,true,false,false,false,false,false,false,false,false,false,false,false,false,false,false],"id":13,"left_children":[1,3,5,7,9,11,13,15,17,-1,19,21,23,25,27,-1,-1,-1,-1,-1,-1,-1,-1,-1,-1,-1,-1,-1,-1],"loss_changes":[1.2602402E3,1.6643481E3,3.6738242E3,1.6688872E3,1.12877686E2,2.1260747E3,2.2025684E3,1.0494121E3,1.0988623E2,0E0,1.3763306E1,2.3180304E2,6.176211E2,2.39542E3,2.7961133E2,0E0,0E0,0E0,0E0,0E0,0E0,0E0,0E0,0E0,0E0,0E0,0E0,0E0,0E0],"parents":[2147483647,0,0,1,1,2,2,3,3,4,4,5,5,6,6,7,7,8,8,10,10,11,11,12,12,13,13,14,14],"right_children":[2,4,6,8,10,12,14,16,18,-1,20,22,24,26,28,-1,-1,-1,-1,-1,-1,-1,-1,-1,-1,-1,-1,-1,-1],"split_conditions":[-2.0650013E1,-2.17474E1,-1.7072847E1,-2.3713562E1,1.993945E1,-1.9630508E1,2.120243E1,-2.4692188E1,-2.2712044E1,-5.4090196E-1,-2.1216274E1,-1.9942926E1,2.209222E1,-1.3720928E1,-3.1156583E0,2.5905928E-1,-1.6751442E0,2.3422687E0,1.3971001E0,-1.1879103E0,-1.6859056E0,1.2395542E0,5.7489626E-2,3.2811263E0,1.0313873E0,-8.856399E-1,6.272831E-1,1.7003734E0,2.9402418E0],"split_indices":[0,0,0,0,1,0,1,0,0,0,0,0,1,0,0,0,0,0,0,0,0,0,0,0,0,0,0,0,0],"split_type":[0,0,0,0,0,0,0,0,0,0,0,0,0,0,0,0,0,0,0,0,0,0,0,0,0,0,0,0,0],"sum_hessian":[6.182E3,3.7E2,5.812E3,2.94E2,7.6E1,1.55E2,5.657E3,2.22E2,7.2E1,2.2E1,5.4E1,5.9E1,9.6E1,5.566E3,9.1E1,1.94E2,2.8E1,1.8E1,5.4E1,3.6E1,1.8E1,3E1,2.9E1,8.2E1,1.4E1,9.5E1,5.471E3,6.5E1,2.6E1],"tree_param":{"num_deleted":"0","num_feature":"2","num_nodes":"29","size_leaf_vector":"0"}},{"base_weights":[1.4739261E0,1.3796487E0,3.305269E0,1.4895992E0,-2.8318577E0,2.1839383E0,1.5642256E1,1.3743092E0,8.036772E0,-1.1588259E1,-6.609842E-2,4.722859E0,-1.6784278E0,1.5388813E0,-1.7319034E0,1.5342715E1,3.6184113E0,1.1009298E1,-3.5893373E0,1.5662903E0,7.1911545E0,-2.5518763E-1,-7.112773E0],"categories":[],"categories_nodes":[],"categories_segments":[],"categories_sizes":[],"default_left":[true,true,true,true,true,true,false,true,true,false,true,true,true,false,false,false,false,false,false,false,false,false,false],"id":14,"left_children":[1,3,5,7,9,11,-1,13,15,-1,17,19,21,-1,-1,-1,-1,-1,-1,-1,-1,-1,-1],"loss_changes":[1.0629609E3,2.7279219E3,4.1436587E3,4.3163623E3,3.6319487E3,2.734062E3,0E0,2.883254E3,3.140232E3,0E0,4.5269624E3,1.2976826E3,8.567009E2,0E0,0E0,0E0,0E0,0E0,0E0,0E0,0E0,0E0,0E0],"parents":[2147483647,0,0,1,1,2,2,3,3,4,4,5,5,7,7,8,8,10,10,11,11,12,12],"right_children":[2,4,6,8,10,12,-1,14,16,-1,18,20,22,-1,-1,-1,-1,-1,-1,-1,-1,-1,-1],"split_conditions":[1.3442457E1,1.2994491E1,1.4897711E1,1.2154652E1,1.301248E1,1.4316923E1,4.692677E0,7.186469E0,1.2666317E1,-3.4764779E0,1.3178046E1,8.461838E0,1.47110405E1,4.616644E-1,-5.1957107E-1,4.6028147E0,1.0855235E0,3.3027897E0,-1.0768013E0,4.698871E-1,2.1573465E0,-7.6556295E-2,-2.133832E0],"split_indices":[0,0,1,0,0,0,0,0,0,0,0,1,1,0,0,0,0,0,0,0,0,0,0],"split_type":[0,0,0,0,0,0,0,0,0,0,0,0,0,0,0,0,0,0,0,0,0,0,0],"sum_hessian":[6.182E3,5.881E3,3.01E2,5.732E3,1.49E2,2.77E2,2.4E1,5.634E3,9.8E1,3.5E1,1.14E2,1.67E2,1.1E2,5.351E3,2.83E2,3.6E1,6.2E1,2.7E1,8.7E1,7.4E1,9.3E1,8.8E1,2.2E1],"tree_param":{"num_deleted":"0","num_feature":"2","num_nodes":"23","size_leaf_vector":"0"}},{"base_weights":[1.0332782E0,8.160144E-1,1.9329247E0,9.216042E-1,-9.617795E0,4.5830536E0,7.4887323E-1,-2.2409513E0,1.0425351E0,-1.7150373E1,-2.5659564E0,3.1746795E0,8.641335E0,-8.530141E0,1.2653849E0,3.1859416E-1,-4.207191E0,7.0493774E0,9.2111725E-1,4.039155E0,-1.7584378E0,1.1834972E1,4.146421E0,1.65961E0,-7.2747674E0],"categories":[],"categories_nodes":[],"categories_segments":[],"categories_sizes":[],"default_left":[true,true,true,true,true,true,true,true,true,false,false,true,true,false,true,false,false,false,false,false,false,false,false,false,false],"id":15,"left_children":[1,3,5,7,9,11,13,15,17,-1,-1,19,21,-1,23,-1,-1,-1,-1,-1,-1,-1,-1,-1,-1],"loss_changes":[1.2069556E3,5.4975527E3,3.768311E3,1.8889653E3,2.611919E3,2.093046E3,3.9983364E3,9.1728815E2,3.4593198E3,0E0,0E0,1.1883855E3,1.3146641E3,0E0,2.668433E3,0E0,0E0,0E0,0E0,0E0,0E0,0E0,0E0,0E0,0E0],"parents":[2147483647,0,0,1,1,2,2,3,3,4,4,5,5,6,6,7,7,8,8,11,11,12,12,14,14],"right_children":[2,4,6,8,10,12,14,16,18,-1,-1,20,22,-1,24,-1,-1,-1,-1,-1,-1,-1,-1,-1,-1],"split_conditions":[5.725888E0,5.4570227E0,7.186469E0,-2.0026264E0,5.597721E0,9.664902E0,7.3057485E0,-5.986354E0,-1.3516729E0,-5.145112E0,-7.6978695E-1,9.552956E0,1.0189509E1,-2.5590425E0,1.5809748E1,9.557825E-2,-1.2621573E0,2.1148133E0,2.7633518E-1,1.2117466E0,-5.275313E-1,3.5504918E0,1.2439263E0,4.9788302E-1,-2.1824303E0],"split_indices":[0,0,0,1,0,1,0,1,1,0,0,1,1,0,1,0,0,0,0,0,0,0,0,0,0],"split_type":[0,0,0,0,0,0,0,0,0,0,0,0,0,0,0,0,0,0,0,0,0,0,0,0,0],"sum_hessian":[6.182E3,4.981E3,1.201E3,4.932E3,4.9E1,3.7E2,8.31E2,1.81E2,4.751E3,2.3E1,2.6E1,2.76E2,9.4E1,4.3E1,7.88E2,7.9E1,1.02E2,9.3E1,4.658E3,2.35E2,4.1E1,5.4E1,4E1,7.54E2,3.4E1],"tree_param":{"num_deleted":"0","num_feature":"2","num_nodes":"25","size_leaf_vector":"0"}},{"base_weights":[7.227354E-1,4.0574306E-1,1.2195129E0,1.1261871E0,-3.2451802E-1,2.5621576E0,5.673052E-1,5.768835E-1,6.0125566E0,-2.1363199E0,4.055909E-1,-8.93257E0,2.8428307E0,-1.1024472E1,7.556702E-1,8.181119E-1,-6.6967726E0,9.489251E0,2.286968E0,-1.5143079E0,-1.3022936E1,8.809052E0,-3.0413872E-2,8.391562E0,2.2838964E0,1.1684351E1,5.6028247E-1],"categories":[],"categories_nodes":[],"categories_segments":[],"categories_sizes":[],"default_left":[true,true,true,true,true,true,true,true,true,true,true,false,true,false,true,false,false,false,false,false,false,false,false,false,false,false,false],"id":16,"left_children":[1,3,5,7,9,11,13,15,17,19,21,-1,23,-1,25,-1,-1,-1,-1,-1,-1,-1,-1,-1,-1,-1,-1],"loss_changes":[9.731709E2,1.9869651E3,2.1071912E3,5.0990063E3,2.4824631E3,2.564462E3,3.5499438E3,3.0058657E3,2.4652227E3,3.630175E3,4.902632E3,0E0,2.3657935E3,0E0,3.4035757E3,0E0,0E0,0E0,0E0,0E0,0E0,0E0,0E0,0E0,0E0,0E0,0E0],"parents":[2147483647,0,0,1,1,2,2,3,3,4,4,5,5,6,6,7,7,8,8,9,9,10,10,12,12,14,14],"right_children":[2,4,6,8,10,12,14,16,18,20,22,-1,24,-1,26,-1,-1,-1,-1,-1,-1,-1,-1,-1,-1,-1,-1],"split_conditions":[-3.697366E0,-8.375483E0,-2.3930874E0,-9.155397E0,-6.881608E0,1.7384028E0,-2.3579907E0,-9.387224E0,2.9876928E0,-7.1355867E0,-6.65961E0,-2.6797712E0,1.9442568E0,-3.3073418E0,-2.3000076E0,2.4543358E-1,-2.0090318E0,2.8467755E0,6.860904E-1,-4.542924E-1,-3.9068809E0,2.642716E0,-9.124162E-3,2.517469E0,6.85169E-1,3.5053055E0,1.6808474E-1],"split_indices":[0,0,0,0,0,1,0,0,1,0,0,0,1,0,0,0,0,0,0,0,0,0,0,0,0,0,0],"split_type":[0,0,0,0,0,0,0,0,0,0,0,0,0,0,0,0,0,0,0,0,0,0,0,0,0,0,0],"sum_hessian":[6.182E3,3.775E3,2.407E3,1.9E3,1.875E3,7.86E2,1.621E3,1.709E3,1.91E2,5.38E2,1.337E3,1.8E1,7.68E2,2.5E1,1.596E3,1.655E3,5.4E1,9.8E1,9.3E1,5.1E2,2.8E1,6.5E1,1.272E3,6.9E1,6.99E2,2.7E1,1.569E3],"tree_param":{"num_deleted":"0","num_feature":"2","num_nodes":"27","size_leaf_vector":"0"}},{"base_weights":[5.060637E-1,4.513725E0,4.706771E-1,5.5174313E0,2.3744009E0,-3.7092283E0,5.314683E-1,3.0458598E0,6.951802E0,1.4488983E-1,-4.503155E0,3.4666464E-1,1.3718452E0,-3.7705867E0,-6.877269E0,5.207744E-1,-3.7107677E0,3.1675994E0,4.9537033E-1],"categories":[],"categories_nodes":[],"categories_segments":[],"categories_sizes":[],"default_left":[true,true,true,true,false,true,true,false,false,false,true,true,true,false,false,false,false,false,false],"id":17,"left_children":[1,3,5,7,-1,9,11,-1,-1,-1,13,15,17,-1,-1,-1,-1,-1,-1],"loss_changes":[8.7473303E2,1.02851074E2,1.5596123E3,1.0645117E2,0E0,2.6992273E2,9.380309E2,0E0,0E0,0E0,1.0103027E2,3.5023357E3,1.7124443E3,0E0,0E0,0E0,0E0,0E0,0E0],"parents":[2147483647,0,0,1,1,2,2,3,3,5,5,6,6,10,10,11,11,12,12],"right_children":[2,4,6,8,-1,10,12,-1,-1,-1,14,16,18,-1,-1,-1,-1,-1,-1],"split_conditions":[-8.648897E0,1.3500093E1,-6.611761E0,-9.776919E0,7.1232027E-1,-8.159122E0,5.809969E0,9.13758E-1,2.0855405E0,4.346695E-2,1.4762812E1,6.7759454E-1,7.186469E0,-1.1311761E0,-2.0631807E0,1.5623233E-1,-1.1132303E0,9.502799E-1,1.486111E-1],"split_indices":[1,0,1,0,0,1,0,0,0,0,0,0,0,0,0,0,0,0,0],"split_type":[0,0,0,0,0,0,0,0,0,0,0,0,0,0,0,0,0,0,0],"sum_hessian":[6.182E3,5.3E1,6.129E3,3.5E1,1.8E1,8.7E1,6.042E3,1.4E1,2.1E1,1.5E1,7.2E1,4.954E3,1.088E3,5.7E1,1.5E1,4.751E3,2.03E2,3.56E2,7.32E2],"tree_param":{"num_deleted":"0","num_feature":"2","num_nodes":"19","size_leaf_vector":"0"}},{"base_weights":[3.5435683E-1,2.5078598E-1,1.7464119E0,2.9850134E-1,-1.5874928E1,8.072617E-1,7.277407E0,-7.5752205E-1,4.356155E-1,1.1818974E0,-4.1516867E0,1.1288622E1,5.511201E0,6.3301843E-1,-8.738305E0,5.3425555E0,1.8378332E-1,4.933721E-2,4.500903E0,3.9975922E0,6.3722143E0],"categories":[],"categories_nodes":[],"categories_segments":[],"categories_sizes":[],"default_left":[true,true,true,true,false,true,true,true,true,true,false,false,true,false,false,false,false,false,false,false,false],"id":18,"left_children":[1,3,5,7,-1,9,11,13,15,17,-1,-1,19,-1,-1,-1,-1,-1,-1,-1,-1],"loss_changes":[8.9100433E2,4.433663E3,2.2173433E3,8.314575E2,0E0,6.86719E2,3.770332E2,7.3299487E3,6.277739E3,1.2853469E3,0E0,0E0,3.317212E1,0E0,0E0,0E0,0E0,0E0,0E0,0E0,0E0],"parents":[2147483647,0,0,1,1,2,2,3,3,5,5,6,6,7,7,8,8,9,9,12,12],"right_children":[2,4,6,8,-1,10,12,14,16,18,-1,-1,20,-1,-1,-1,-1,-1,-1,-1,-1],"split_conditions":[1.658012E1,1.6430927E1,1.4458859E0,-1.1628689E1,-4.762479E0,-2.2413814E0,2.2736416E0,-1.1939592E1,-1.0941994E1,-1.03237E1,-1.245506E0,3.3865867E0,4.9017773E0,1.8990554E-1,-2.6214917E0,1.6027668E0,5.5135E-2,1.4801163E-2,1.350271E0,1.1992778E0,1.9116644E0],"split_indices":[1,1,0,0,0,0,0,0,0,0,0,0,0,0,0,0,0,0,0,0,0],"split_type":[0,0,0,0,0,0,0,0,0,0,0,0,0,0,0,0,0,0,0,0,0],"sum_hessian":[6.182E3,5.755E3,4.27E2,5.739E3,1.6E1,3.66E2,6.1E1,6.59E2,5.08E3,3.41E2,2.5E1,1.7E1,4.4E1,5.62E2,9.7E1,2.47E2,4.833E3,2.55E2,8.6E1,1.8E1,2.6E1],"tree_param":{"num_deleted":"0","num_feature":"2","num_nodes":"21","size_leaf_vector":"0"}},{"base_weights":[2.4822801E-1,-1.7618193E-1,5.2889675E-1,3.48341E-2,-1.263727E1,1.03363E1,3.8440812E-1,5.4839063E0,-3.120273E-1,-1.7782215E1,-6.3459673E0,1.6065992E1,4.8429103E0,-1.4677877E0,8.76874E-1,-4.4415045E0,1.5608858E1,-5.9943857E0,-1.6014456E-3,9.319577E-3,-1.0069078E1,8.577694E0,6.749145E-1],"categories":[],"categories_nodes":[],"categories_segments":[],"categories_sizes":[],"default_left":[true,true,true,true,true,true,true,true,true,false,false,false,false,true,true,false,false,false,false,false,false,false,false],"id":19,"left_children":[1,3,5,7,9,11,13,15,17,-1,-1,-1,-1,19,21,-1,-1,-1,-1,-1,-1,-1,-1],"loss_changes":[7.366035E2,6.474243E3,5.2703164E3,4.579468E3,1.2142593E3,1.6218677E3,3.3479407E3,1.4641001E4,4.0182705E3,0E0,0E0,0E0,0E0,9.795672E3,4.5028916E3,0E0,0E0,0E0,0E0,0E0,0E0,0E0,0E0],"parents":[2147483647,0,0,1,1,2,2,3,3,4,4,5,5,6,6,7,7,8,8,13,13,14,14],"right_children":[2,4,6,8,10,12,14,16,18,-1,-1,-1,-1,20,22,-1,-1,-1,-1,-1,-1,-1,-1],"split_conditions":[2.9432638E0,2.8806164E0,3.134413E0,-1.2696445E1,-5.69497E0,-6.3738656E0,-9.977224E0,-1.3773576E1,-1.1628689E1,-5.334665E0,-1.9037902E0,4.819798E0,1.4528731E0,-1.1076656E1,-9.466114E0,-1.3324513E0,4.6826577E0,-1.7983158E0,-4.804337E-4,2.7958732E-3,-3.0207236E0,2.5733082E0,2.0247436E-1],"split_indices":[1,1,1,0,0,0,0,0,0,0,0,0,0,0,0,0,0,0,0,0,0,0,0],"split_type":[0,0,0,0,0,0,0,0,0,0,0,0,0,0,0,0,0,0,0,0,0,0,0],"sum_hessian":[6.182E3,2.461E3,3.721E3,2.421E3,4E1,5.3E1,3.668E3,1.44E2,2.277E3,2.1E1,1.9E1,2.5E1,2.8E1,7.7E2,2.898E3,7.3E1,7.1E1,1.17E2,2.16E3,6.58E2,1.12E2,7.3E1,2.825E3],"tree_param":{"num_deleted":"0","num_feature":"2","num_nodes":"23","size_leaf_vector":"0"}},{"base_weights":[1.7381544E-1,3.8795915E0,1.4601494E-1,1.1057706E0,5.4674945E0,-3.8863986E0,1.7443484E-1,3.2593973E0,7.311092E0,7.5470004E0,1.513593E-1,-1.8185751E0,2.0083128E-1],"categories":[],"categories_nodes":[],"categories_segments":[],"categories_sizes":[],"default_left":[true,true,true,false,true,false,true,false,false,false,true,false,false],"id":20,"left_children":[1,3,5,-1,7,-1,9,-1,-1,-1,11,-1,-1],"loss_changes":[6.364214E2,1.965639E2,7.0409784E2,0E0,9.422467E1,0E0,1.0359457E3,0E0,0E0,0E0,5.927063E2,0E0,0E0],"parents":[2147483647,0,0,1,1,2,2,4,4,6,6,10,10],"right_children":[2,4,6,-1,8,-1,10,-1,-1,-1,12,-1,-1],"split_conditions":[-9.171492E0,-9.595112E0,-2.9086187E1,3.317312E-1,-9.776919E0,-1.1659197E0,-2.69121E1,9.778192E-1,2.1933277E0,2.2641003E0,-2.3713562E1,-5.455726E-1,6.0249384E-2],"split_indices":[1,1,0,0,0,0,0,0,0,0,0,0,0],"split_type":[0,0,0,0,0,0,0,0,0,0,0,0,0],"sum_hessian":[6.182E3,4.5E1,6.137E3,1.7E1,2.8E1,4.2E1,6.095E3,1.4E1,1.4E1,1.8E1,6.077E3,1.48E2,5.929E3],"tree_param":{"num_deleted":"0","num_feature":"2","num_nodes":"13","size_leaf_vector":"0"}},{"base_weights":[1.2232939E-1,-1.7386114E-2,8.053552E-1,1.3745224E-1,-6.0740914E0,2.002246E1,5.0750107E-1,-3.107323E-2,2.3194509E0,1.7304682E0,-7.8001423E0,2.0391328E-2,4.6034656E0,7.0066236E-2,-1.061783E1,1.6284225E1,1.4475342E0,-9.891708E0,-2.2415023E0,7.6975423E-1,-3.0056794E0,2.9665966E0,1.0050157E1],"categories":[],"categories_nodes":[],"categories_segments":[],"categories_sizes":[],"default_left":[true,true,true,true,true,false,true,true,true,false,true,true,true,false,false,false,false,false,false,false,false,false,false],"id":21,"left_children":[1,3,5,7,9,-1,11,13,15,-1,17,19,21,-1,-1,-1,-1,-1,-1,-1,-1,-1,-1],"loss_changes":[5.900533E2,4.815553E3,5.9999272E3,1.8412577E3,1.7377944E3,0E0,2.0649216E3,4.97861E3,4.347655E3,0E0,1.1985854E3,2.1021345E3,9.508926E2,0E0,0E0,0E0,0E0,0E0,0E0,0E0,0E0,0E0,0E0],"parents":[2147483647,0,0,1,1,2,2,3,3,4,4,6,6,7,7,8,8,10,10,11,11,12,12],"right_children":[2,4,6,8,10,-1,12,14,16,-1,18,20,22,-1,-1,-1,-1,-1,-1,-1,-1,-1,-1],"split_conditions":[1.4140744E1,1.1980305E1,1.4170878E1,9.357292E0,-8.256983E0,6.0067387E0,1.3943969E1,9.127932E0,9.449282E0,5.191405E-1,5.8497853E0,1.2666317E1,1.4897711E1,2.1019872E-2,-3.1853492E0,4.8852677E0,4.3426028E-1,-2.9675126E0,-6.724507E-1,2.3092628E-1,-9.0170383E-1,8.89979E-1,3.015047E0],"split_indices":[1,1,1,1,0,0,0,1,1,0,0,0,1,0,0,0,0,0,0,0,0,0,0],"split_type":[0,0,0,0,0,0,0,0,0,0,0,0,0,0,0,0,0,0,0,0,0,0,0],"sum_hessian":[6.182E3,5.133E3,1.049E3,5.006E3,1.27E2,1.5E1,1.034E3,4.648E3,3.58E2,2.3E1,1.04E2,9.25E2,1.09E2,4.605E3,4.3E1,2E1,3.38E2,7.5E1,2.9E1,7.42E2,1.83E2,8.5E1,2.4E1],"tree_param":{"num_deleted":"0","num_feature":"2","num_nodes":"23","size_leaf_vector":"0"}},{"base_weights":[8.69636E-2,1.21627E-1,-2.3719244E0,7.727347E-2,8.029937E0,7.811637E-1,-4.1633224E0,9.701493E-2,-6.9517465E0,1.2740895E1,3.134591E0,-5.0704756E0,6.242638E0,-2.662702E0,-4.881353E0,5.511437E-2,3.8372242E0],"categories":[],"categories_nodes":[],"categories_segments":[],"categories_sizes":[],"default_left":[true,true,true,true,true,true,true,true,false,false,false,false,false,false,false,false,false],"id":22,"left_children":[1,3,5,7,9,11,13,15,-1,-1,-1,-1,-1,-1,-1,-1,-1],"loss_changes":[5.2728674E2,2.138323E3,4.8901776E2,8.422725E2,7.441626E2,1.0543276E3,4.6264343E1,9.477688E2,0E0,0E0,0E0,0E0,0E0,0E0,0E0,0E0,0E0],"parents":[2147483647,0,0,1,1,2,2,3,3,4,4,5,5,6,6,7,7],"right_children":[2,4,6,8,10,12,14,16,-1,-1,-1,-1,-1,-1,-1,-1,-1],"split_conditions":[1.4915108E1,1.4374542E1,6.556195E-1,1.4316923E1,1.4707768E1,-3.2611496E0,1.5521426E1,1.3943969E1,-2.085524E0,3.8222687E0,9.4037735E-1,-1.5211427E0,1.8727915E0,-7.9881066E-1,-1.4644059E0,1.6534312E-2,1.1511673E0],"split_indices":[0,0,1,0,0,1,0,0,0,0,0,0,0,0,0,0,0],"split_type":[0,0,0,0,0,0,0,0,0,0,0,0,0,0,0,0,0],"sum_hessian":[6.182E3,6.097E3,8.5E1,6.064E3,3.3E1,3.1E1,5.4E1,6.048E3,1.6E1,1.6E1,1.7E1,1.5E1,1.6E1,1.9E1,3.5E1,5.982E3,6.6E1],"tree_param":{"num_deleted":"0","num_feature":"2","num_nodes":"17","size_leaf_vector":"0"}},{"base_weights":[6.1181147E-2,6.2781775E-1,-6.813894E-2,-6.799252E-2,9.565188E0,-1.21274E1,1.1418079E-2,-4.618496E0,7.935371E-1,1.1911064E1,5.64989E0,-6.686414E0,-1.5784633E1,-6.582849E-1,4.4516662E-1,4.1283138E-2,-8.569627E0,7.3181496E0,-8.866339E-1,9.643631E0,1.6709995E1,4.5232943E-1,-2.0563166E0,-5.7517757E0,6.2555003E-1],"categories":[],"categories_nodes":[],"categories_segments":[],"categories_sizes":[],"default_left":[true,true,true,true,true,true,true,true,true,true,false,false,false,true,true,false,false,false,false,false,false,false,false,false,false],"id":23,"left_children":[1,3,5,7,9,11,13,15,17,19,-1,-1,-1,21,23,-1,-1,-1,-1,-1,-1,-1,-1,-1,-1],"loss_changes":[4.5311752E2,7.1459526E3,4.8307124E3,4.1867246E3,6.9504297E2,5.5112305E2,1.453578E3,3.1302913E3,9.85078E3,3.9379932E2,0E0,0E0,0E0,3.05504E3,3.3984346E3,0E0,0E0,0E0,0E0,0E0,0E0,0E0,0E0,0E0,0E0],"parents":[2147483647,0,0,1,1,2,2,3,3,4,4,5,5,6,6,7,7,8,8,9,9,13,13,14,14],"right_children":[2,4,6,8,10,12,14,16,18,20,-1,-1,-1,22,24,-1,-1,-1,-1,-1,-1,-1,-1,-1,-1],"split_conditions":[-1.0941994E1,-1.125474E1,-1.0896688E1,4.7369868E-1,8.6840737E-1,-1.0925374E1,2.9428446E0,1.7392987E-1,2.3138952E0,-1.1048965E1,1.694967E0,-2.0059242E0,-4.73539E0,1.3325276E0,-9.977224E0,1.2384942E-2,-2.570888E0,2.195445E0,-2.6599017E-1,2.8930893E0,5.0129986E0,1.3569884E-1,-6.16895E-1,-1.7255328E0,1.8766502E-1],"split_indices":[0,0,0,1,1,0,1,1,1,0,0,0,0,1,0,0,0,0,0,0,0,0,0,0,0],"split_type":[0,0,0,0,0,0,0,0,0,0,0,0,0,0,0,0,0,0,0,0,0,0,0,0,0],"sum_hessian":[6.182E3,1.148E3,5.034E3,1.066E3,8.2E1,3.2E1,5.002E3,1.69E2,8.97E2,5E1,3.2E1,1.4E1,1.8E1,1.966E3,3.036E3,7.8E1,9.1E1,1.83E2,7.14E2,3.6E1,1.4E1,1.096E3,8.7E2,8.5E1,2.951E3],"tree_param":{"num_deleted":"0","num_feature":"2","num_nodes":"25","size_leaf_vector":"0"}},{"base_weights":[4.2860627E-2,-3.468389E-2,1.0856255E0,9.058138E-4,-1.2049402E1,4.195074E0,3.1414658E-1,5.3529292E-2,-1.2832508E0,4.8486686E0,1.6695002E0,-2.8488915E0,1.0196687E0,2.5964271E-2,8.966854E0,5.4196134E0,-1.8893622E0,3.8220227E0,7.431093E0,5.757319E-1,-9.7255535E0,5.987229E0,2.6045913E-2],"categories":[],"categories_nodes":[],"categories_segments":[],"categories_sizes":[],"default_left":[true,true,true,true,false,true,true,true,true,true,false,true,true,false,false,false,false,false,false,false,false,false,false],"id":24,"left_children":[1,3,5,7,-1,9,11,13,15,17,-1,19,21,-1,-1,-1,-1,-1,-1,-1,-1,-1,-1],"loss_changes":[4.999994E2,2.461278E3,1.0254004E3,3.8795947E2,0E0,1.3221472E2,7.705731E2,1.3547806E3,9.284058E2,1.4923108E2,0E0,1.489248E3,1.3917626E3,0E0,0E0,0E0,0E0,0E0,0E0,0E0,0E0,0E0,0E0],"parents":[2147483647,0,0,1,1,2,2,3,3,5,5,6,6,7,7,8,8,9,9,11,11,12,12],"right_children":[2,4,6,8,-1,10,12,14,16,18,-1,20,22,-1,-1,-1,-1,-1,-1,-1,-1,-1,-1],"split_conditions":[1.658012E1,1.6430927E1,1.730681E1,1.49880905E1,-3.6148207E0,5.3168955E0,1.809385E1,1.4897711E1,-2.69121E1,-6.9320216E0,5.008501E-1,-1.2699664E1,1.9775965E1,7.7892817E-3,2.6900563E0,1.625884E0,-5.668087E-1,1.1466068E0,2.2293282E0,1.7271957E-1,-2.9176662E0,1.7961687E0,7.813774E-3],"split_indices":[1,1,1,1,0,0,1,1,0,0,0,0,1,0,0,0,0,0,0,0,0,0,0],"split_type":[0,0,0,0,0,0,0,0,0,0,0,0,0,0,0,0,0,0,0,0,0,0,0],"sum_hessian":[6.182E3,5.755E3,4.27E2,5.739E3,1.6E1,8.4E1,3.43E2,5.514E3,2.25E2,6.6E1,1.8E1,6.2E1,2.81E2,5.498E3,1.6E1,1.8E1,2.07E2,4.9E1,1.7E1,4.2E1,2E1,4.6E1,2.35E2],"tree_param":{"num_deleted":"0","num_feature":"2","num_nodes":"23","size_leaf_vector":"0"}},{"base_weights":[3.050657E-2,4.522089E-1,-1.5187675E-1,1.9372539E-1,7.850789E0,-1.972334E0,1.2670107E-1,-1.24726E0,6.1679864E-1,1.1093809E1,1.302715E0,-1.5450932E0,-9.933504E0,3.6767938E0,-4.9396746E-2,-3.854303E-1,-1.3458199E1,2.6027014E0,-2.6691902E-1,9.011791E0,1.2746694E1,-1.0998785E0,-6.99115E0,-9.590058E-1,6.441855E0,-3.6431353E0,1.2255183E-1],"categories":[],"categories_nodes":[],"categories_segments":[],"categories_sizes":[],"default_left":[true,true,true,true,true,true,true,true,true,true,false,true,false,true,true,false,false,false,false,false,false,false,false,false,false,false,false],"id":25,"left_children":[1,3,5,7,9,11,13,15,17,19,-1,21,-1,23,25,-1,-1,-1,-1,-1,-1,-1,-1,-1,-1,-1,-1],"loss_changes":[4.756123E2,3.5689502E3,2.189569E3,1.1011738E3,1.3233865E3,1.9336182E3,2.3414192E3,4.309551E3,2.4506436E3,2.9665527E1,0E0,1.3137528E3,0E0,2.275011E3,2.2058682E3,0E0,0E0,0E0,0E0,0E0,0E0,0E0,0E0,0E0,0E0,0E0,0E0],"parents":[2147483647,0,0,1,1,2,2,3,3,4,4,5,5,6,6,7,7,8,8,9,9,11,11,13,13,14,14],"right_children":[2,4,6,8,10,12,14,16,18,20,-1,22,-1,24,26,-1,-1,-1,-1,-1,-1,-1,-1,-1,-1,-1,-1],"split_conditions":[-8.507796E0,-8.985264E0,-6.881608E0,9.9158996E-1,-8.683256E0,-7.1355867E0,-6.473851E0,8.984229E-1,2.7354555E0,-8.954945E0,3.908145E-1,6.308264E0,-2.9800513E0,4.7424297E0,-6.086669E0,-1.156291E-1,-4.03746E0,7.808105E-1,-8.007571E-2,2.7035375E0,3.8240082E0,-3.2996356E-1,-2.097345E0,-2.8770176E-1,1.9325565E0,-1.0929407E0,3.676555E-2],"split_indices":[0,0,0,1,0,0,0,1,1,0,0,1,0,1,0,0,0,0,0,0,0,0,0,0,0,0,0],"split_type":[0,0,0,0,0,0,0,0,0,0,0,0,0,0,0,0,0,0,0,0,0,0,0,0,0,0,0],"sum_hessian":[6.182E3,1.866E3,4.316E3,1.804E3,6.2E1,5.72E2,3.744E3,4.09E2,1.395E3,4.1E1,2.1E1,5.44E2,2.8E1,1.76E2,3.568E3,3.83E2,2.6E1,4.29E2,9.66E2,2.1E1,2E1,5.04E2,4E1,6.6E1,1.1E2,1.62E2,3.406E3],"tree_param":{"num_deleted":"0","num_feature":"2","num_nodes":"27","size_leaf_vector":"0"}},{"base_weights":[2.1139957E-2,-2.627859E-1,2.089434E-1,2.1906528E-1,-3.1517777E0,5.4597154E0,6.544577E-2,-4.2507148E-4,1.6547594E1,-1.2040314E1,-2.2558744E0,8.468599E0,3.362797E0,-3.136066E0,1.6467766E-1,1.7926137E-1,-9.186884E0,7.376115E0,-4.231543E0,1.1416337E1,4.9500456E0,1.568132E0,4.156224E0,-2.602215E0,-6.3080506E0,2.9424367E0,4.2282264E-3],"categories":[],"categories_nodes":[],"categories_segments":[],"categories_sizes":[],"default_left":[true,true,true,true,true,true,true,true,false,false,true,true,true,true,true,false,false,false,false,false,false,false,false,false,false,false,false],"id":26,"left_children":[1,3,5,7,9,11,13,15,-1,-1,17,19,21,23,25,-1,-1,-1,-1,-1,-1,-1,-1,-1,-1,-1,-1],"loss_changes":[3.297464E2,3.4279526E3,2.80407E3,7.5657354E3,2.775909E3,5.961509E2,1.1518325E3,3.4416682E3,0E0,0E0,6.1397197E3,3.5835938E2,7.89187E1,1.6816211E2,1.5670332E3,0E0,0E0,0E0,0E0,0E0,0E0,0E0,0E0,0E0,0E0,0E0,0E0],"parents":[2147483647,0,0,1,1,2,2,3,3,4,4,5,5,6,6,7,7,10,10,11,11,12,12,13,13,14,14],"right_children":[2,4,6,8,10,12,14,16,-1,-1,18,20,22,24,26,-1,-1,-1,-1,-1,-1,-1,-1,-1,-1,-1,-1],"split_conditions":[2.9432638E0,2.338974E0,3.2547016E0,2.2670398E0,-1.2890537E1,3.0736365E0,3.3949208E0,2.1999063E0,4.964278E0,-3.6120942E0,-9.921157E0,-3.7211668E0,-1.1775915E1,1.5664881E0,3.6722991E0,5.3778414E-2,-2.7560654E0,2.2128346E0,-1.269463E0,3.4249012E0,1.4850137E0,4.7043964E-1,1.2468672E0,-7.8066456E-1,-1.8924153E0,8.82731E-1,1.268468E-3],"split_indices":[1,1,1,1,0,1,1,1,0,0,0,0,0,0,1,0,0,0,0,0,0,0,0,0,0,0,0],"split_type":[0,0,0,0,0,0,0,0,0,0,0,0,0,0,0,0,0,0,0,0,0,0,0,0,0,0,0],"sum_hessian":[6.182E3,2.461E3,3.721E3,2.11E3,3.51E2,9.8E1,3.623E3,2.083E3,2.7E1,3.1E1,3.2E2,3.9E1,5.9E1,1.08E2,3.515E3,2.044E3,3.9E1,5.4E1,2.66E2,2E1,1.9E1,1.9E1,4E1,9.4E1,1.4E1,1.91E2,3.324E3],"tree_param":{"num_deleted":"0","num_feature":"2","num_nodes":"27","size_leaf_vector":"0"}},{"base_weights":[1.5518036E-2,7.422229E-1,-6.026967E-2,-2.82602E-1,3.5804968E0,-6.3533797E0,-7.0041963E-3,5.6969565E-1,-1.9272954E0,5.1270466E0,9.7717804E-1,-1.0899011E1,-2.0645432E-1,3.4082706E0,-4.366617E-2,-4.2760238E-1,4.147563E0,-8.324955E0,-9.7006416E-1,2.447874E0,6.2901406E0,-6.4026237E-1,2.5620458E0,-6.2844124E0,8.540016E0,-6.866216E0,1.1392672E-2],"categories":[],"categories_nodes":[],"categories_segments":[],"categories_sizes":[],"default_left":[true,true,true,true,true,true,true,true,true,true,true,false,false,true,true,false,false,false,false,false,false,false,false,false,false,false,false],"id":27,"left_children":[1,3,5,7,9,11,13,15,17,19,21,-1,-1,23,25,-1,-1,-1,-1,-1,-1,-1,-1,-1,-1,-1,-1],"loss_changes":[3.4057526E2,1.6997124E3,1.8771061E3,6.0385834E2,6.190449E2,1.3110078E3,6.9556915E2,1.01514233E3,8.921581E2,2.868672E2,1.528827E2,0E0,0E0,2.9883516E3,2.064605E3,0E0,0E0,0E0,0E0,0E0,0E0,0E0,0E0,0E0,0E0,0E0,0E0],"parents":[2147483647,0,0,1,1,2,2,3,3,4,4,5,5,6,6,7,7,8,8,9,9,10,10,13,13,14,14],"right_children":[2,4,6,8,10,12,14,16,18,20,22,-1,-1,24,26,-1,-1,-1,-1,-1,-1,-1,-1,-1,-1,-1,-1],"split_conditions":[-1.4592787E1,-1.9630508E1,-1.3720928E1,-2.2133232E1,-1.7072847E1,2.0194918E1,-1.3367894E1,-2.3713562E1,-2.1444954E1,-1.951238E1,-1.5681114E1,-3.2697034E0,-6.19363E-2,-5.7245547E-1,-1.3043004E1,-1.2828071E-1,1.2442689E0,-2.4974866E0,-2.9101926E-1,7.3436224E-1,1.8870423E0,-1.9207872E-1,7.6861376E-1,-1.8853238E0,2.562005E0,-2.059865E0,3.4178016E-3],"split_indices":[0,0,0,0,0,1,0,0,0,0,0,0,0,1,0,0,0,0,0,0,0,0,0,0,0,0,0],"split_type":[0,0,0,0,0,0,0,0,0,0,0,0,0,0,0,0,0,0,0,0,0,0,0,0,0,0,0],"sum_hessian":[6.182E3,5.83E2,5.599E3,4.29E2,1.54E2,4.6E1,5.553E3,2.83E2,1.46E2,9.6E1,5.8E1,2.6E1,2E1,5.8E1,5.495E3,2.22E2,6.1E1,1.8E1,1.28E2,3E1,6.6E1,2.9E1,2.9E1,2E1,3.8E1,4.3E1,5.452E3],"tree_param":{"num_deleted":"0","num_feature":"2","num_nodes":"27","size_leaf_vector":"0"}},{"base_weights":[1.0347122E-2,2.6468406E0,-9.413231E-3,4.3516192E0,-4.7719856E-3,-9.752652E-1,6.424648E-2,-2.8724961E0,4.269777E-1,8.008282E0,-2.162353E-2,-1.6323973E0,-6.188115E0,-2.6140175E0,1.5712492E0,1.4278154E1,2.609319E0,-3.4135506E0,2.5867664E-3],"categories":[],"categories_nodes":[],"categories_segments":[],"categories_sizes":[],"default_left":[true,true,true,false,false,true,true,true,true,true,true,false,false,false,false,false,false,false,false],"id":28,"left_children":[1,3,5,-1,-1,7,9,11,13,15,17,-1,-1,-1,-1,-1,-1,-1,-1],"loss_changes":[3.2214713E2,2.0795972E2,4.367469E2,0E0,0E0,1.1584912E3,3.8911816E3,7.50562E2,8.77518E2,2.0276433E3,4.634916E2,0E0,0E0,0E0,0E0,0E0,0E0,0E0,0E0],"parents":[2147483647,0,0,1,1,2,2,5,5,6,6,7,7,8,8,9,9,10,10],"right_children":[2,4,6,-1,-1,8,10,12,14,16,18,-1,-1,-1,-1,-1,-1,-1,-1],"split_conditions":[-9.171492E0,1.3500093E1,-1.4251413E0,1.3054858E0,-1.4315958E-3,-5.099213E0,-1.3516729E0,-5.843386E0,-6.60543E0,-6.0160255E0,-1.3243533E0,-4.897192E-1,-1.8564346E0,-7.8420526E-1,4.7137478E-1,4.2834463E0,7.827957E-1,-1.0240653E0,7.7602995E-4],"split_indices":[1,0,1,0,0,0,1,0,1,0,1,0,0,0,0,0,0,0,0],"split_type":[0,0,0,0,0,0,0,0,0,0,0,0,0,0,0,0,0,0,0],"sum_hessian":[6.182E3,4.5E1,6.137E3,2.7E1,1.8E1,4.34E2,5.703E3,1.84E2,2.5E2,6E1,5.643E3,1.35E2,4.9E1,6.8E1,1.82E2,2.7E1,3.3E1,3.9E1,5.604E3],"tree_param":{"num_deleted":"0","num_feature":"2","num_nodes":"19","size_leaf_vector":"0"}},{"base_weights":[7.675788E-3,4.1066724E-1,-9.9801175E-2,6.667743E-2,8.359419E0,-6.6360135E0,-3.3400638E-3,2.1228293E-1,-1.0497926E1,1.4008443E1,-7.2619386E0,-3.403398E0,-1.0469407E1,6.8417006E0,-5.0595924E-2,1.3313843E0,-4.6469295E-1,-1.32135315E1,2.3871942E0,-6.72475E0,2.851587E-2],"categories":[],"categories_nodes":[],"categories_segments":[],"categories_sizes":[],"default_left":[true,true,true,true,true,true,true,true,false,false,false,true,false,false,true,false,false,false,false,false,false],"id":29,"left_children":[1,3,5,7,9,11,13,15,-1,-1,-1,17,-1,-1,19,-1,-1,-1,-1,-1,-1],"loss_changes":[2.678409E2,3.5594878E3,3.0780315E3,1.9235206E3,4.8669814E3,8.441924E2,1.5568755E3,9.3474524E2,0E0,0E0,0E0,2.3038025E3,0E0,0E0,2.5240522E3,0E0,0E0,0E0,0E0,0E0,0E0],"parents":[2147483647,0,0,1,1,2,2,3,3,4,4,5,5,6,6,7,7,11,11,14,14],"right_children":[2,4,6,8,10,12,14,16,-1,-1,-1,18,-1,-1,20,-1,-1,-1,-1,-1,-1],"split_conditions":[-1.0457388E1,-1.070463E1,-1.0307537E1,-1.0738544E1,4.1290584E0,-1.0419529E1,-1.0163627E1,2.3138952E0,-3.1493778E0,4.2025332E0,-2.1785817E0,-1.0432039E1,-3.1408222E0,2.0525103E0,-1.0023151E1,3.994153E-1,-1.3940789E-1,-3.9640596E0,7.161583E-1,-2.017425E0,8.554761E-3],"split_indices":[0,0,0,0,1,0,0,1,0,0,0,0,0,0,0,0,0,0,0,0,0],"split_type":[0,0,0,0,0,0,0,0,0,0,0,0,0,0,0,0,0,0,0,0,0],"sum_hessian":[6.182E3,1.301E3,4.881E3,1.248E3,5.3E1,7E1,4.811E3,1.232E3,1.6E1,3.9E1,1.4E1,3.9E1,3.1E1,3.2E1,4.779E3,4.64E2,7.68E2,1.4E1,2.5E1,5.5E1,4.724E3],"tree_param":{"num_deleted":"0","num_feature":"2","num_nodes":"21","size_leaf_vector":"0"}},{"base_weights":[4.202524E-3,-4.285764E-1,1.6921245E-1,7.779579E-2,-3.2342927E0,8.974118E0,6.9730547E-3,-3.461917E-1,7.1398582E0,-2.0751778E1,-2.0817966E0,1.8299566E1,4.9605865E0,-6.6801906E0,1.0885344E-1,-3.2574208E0,4.8713186E-3,5.9423895E0,1.2092393E1,-1.2111026E0,-9.0992365E0,-4.9479917E-1,7.4278803E0,-9.766222E0,-1.5568261E0,8.100114E0,7.980126E-3],"categories":[],"categories_nodes":[],"categories_segments":[],"categories_sizes":[],"default_left":[true,true,true,true,true,true,true,true,true,false,true,false,true,true,true,false,false,false,false,false,false,false,false,false,false,false,false],"id":30,"left_children":[1,3,5,7,9,11,13,15,17,-1,19,-1,21,23,25,-1,-1,-1,-1,-1,-1,-1,-1,-1,-1,-1,-1],"loss_changes":[4.4161795E2,2.4254495E3,6.3953433E3,4.335117E3,5.226085E3,2.9408901E3,2.9963625E3,1.3961018E3,4.1444336E2,0E0,1.4920503E3,0E0,7.843573E2,1.0283127E3,3.491982E3,0E0,0E0,0E0,0E0,0E0,0E0,0E0,0E0,0E0,0E0,0E0,0E0],"parents":[2147483647,0,0,1,1,2,2,3,3,4,4,5,5,6,6,7,7,8,8,10,10,12,12,13,13,14,14],"right_children":[2,4,6,8,10,12,14,16,18,-1,20,-1,22,24,26,-1,-1,-1,-1,-1,-1,-1,-1,-1,-1,-1,-1],"split_conditions":[1.8922473E0,1.3325276E0,1.9490155E0,1.112194E0,1.3695567E0,-8.888741E0,2.0421138E0,-1.1628689E1,1.2410483E0,-6.2255335E0,1.8783314E0,5.48987E0,-4.669613E0,-4.4793544E0,2.0563254E0,-9.7722626E-1,1.4613956E-3,1.7827169E0,3.627718E0,-3.6333078E-1,-2.7297711E0,-1.4843975E-1,2.2283642E0,-2.9298668E0,-4.6704784E-1,2.4300342E0,2.3940378E-3],"split_indices":[1,1,1,1,1,0,1,0,0,0,1,0,0,0,1,0,0,0,0,0,0,0,0,0,0,0,0],"split_type":[0,0,0,0,0,0,0,0,0,0,0,0,0,0,0,0,0,0,0,0,0,0,0,0,0,0,0],"sum_hessian":[6.182E3,1.706E3,4.476E3,1.446E3,2.6E2,8E1,4.396E3,1.365E3,8.1E1,1.5E1,2.45E2,2.3E1,5.7E1,6.5E1,4.331E3,1.46E2,1.219E3,6.7E1,1.4E1,2.19E2,2.6E1,1.8E1,3.9E1,4E1,2.5E1,5.3E1,4.278E3],"tree_param":{"num_deleted":"0","num_feature":"2","num_nodes":"27","size_leaf_vector":"0"}},{"base_weights":[3.2182299E-3,-2.3169488E-1,2.349609E-1,-3.588083E-2,-2.858928E0,5.70546E0,8.5080855E-2,-1.265813E-1,5.062203E0,-1.3371728E1,-1.3898231E0,2.515503E0,6.8146987E0,-1.48141E1,1.8398476E-1,1.0305702E-1,-1.0921036E0,7.8754706E0,2.924175E0,-4.7105527E0,1.841611E0,7.349648E0,5.1284504E0,1.3998102E0,-1.3816884E-1],"categories":[],"categories_nodes":[],"categories_segments":[],"categories_sizes":[],"default_left":[true,true,true,true,true,true,true,true,true,false,true,false,true,false,true,false,false,false,false,false,false,false,false,false,false],"id":31,"left_children":[1,3,5,7,9,11,13,15,17,-1,19,-1,21,-1,23,-1,-1,-1,-1,-1,-1,-1,-1,-1,-1],"loss_changes":[3.366532E2,1.5797708E3,2.5519214E3,1.3226382E3,3.271074E3,2.7654663E2,4.469168E3,6.231484E2,2.77713E2,0E0,2.02605E3,0E0,1.7333252E1,0E0,1.1799412E3,0E0,0E0,0E0,0E0,0E0,0E0,0E0,0E0,0E0,0E0],"parents":[2147483647,0,0,1,1,2,2,3,3,4,4,5,5,6,6,7,7,8,8,10,10,12,12,14,14],"right_children":[2,4,6,8,10,12,14,16,18,-1,20,-1,22,-1,24,-1,-1,-1,-1,-1,-1,-1,-1,-1,-1],"split_conditions":[4.1001315E0,3.6722991E0,4.37129E0,3.6308022E0,3.7527447E0,-4.383938E0,4.4738274E0,-1.8180978E0,-3.9517348E0,-4.0115185E0,-7.858706E0,7.546509E-1,-2.074139E0,-4.44423E0,5.6475163E0,3.0917106E-2,-3.276311E-1,2.3626413E0,8.772525E-1,-1.4131658E0,5.524833E-1,2.2048945E0,1.5385352E0,4.1994306E-1,-4.1450653E-2],"split_indices":[1,1,1,1,1,0,1,0,0,0,0,0,0,0,1,0,0,0,0,0,0,0,0,0,0],"split_type":[0,0,0,0,0,0,0,0,0,0,0,0,0,0,0,0,0,0,0,0,0,0,0,0,0],"sum_hessian":[6.182E3,3.07E3,3.112E3,2.858E3,2.12E2,8.2E1,3.03E3,2.809E3,4.9E1,2.5E1,1.87E2,2.2E1,6E1,1.9E1,3.011E3,2.27E3,5.39E2,2E1,2.9E1,9.2E1,9.5E1,4.3E1,1.7E1,6.3E2,2.381E3],"tree_param":{"num_deleted":"0","num_feature":"2","num_nodes":"25","size_leaf_vector":"0"}},{"base_weights":[2.0154878E-3,-1.13606125E-1,4.8123753E-1,8.393642E-2,-2.334346E0,3.3415134E0,1.4319266E-1,3.7104294E-2,7.425612E0,-9.418047E0,-1.2930909E0,1.5061182E0,1.1155663E1,5.19714E-1,-1.8949089E0,-1.6994957E0,1.1362256E-1,1.24005375E1,1.9556458E0,-5.6704187E0,-1.07841015E1,4.4432445E0,-2.7884822E0,3.3094704E0,-4.3248534E0,-1.8267684E-2,5.2402654E0,-7.801855E0,1.9949548E-1],"categories":[],"categories_nodes":[],"categories_segments":[],"categories_sizes":[],"default_left":[true,true,true,true,true,true,true,true,true,true,true,true,false,true,true,false,false,false,false,false,false,false,false,false,false,false,false,false,false],"id":32,"left_children":[1,3,5,7,9,11,13,15,17,19,21,23,-1,25,27,-1,-1,-1,-1,-1,-1,-1,-1,-1,-1,-1,-1,-1,-1],"loss_changes":[3.4264496E2,2.1857527E3,1.1617372E3,1.5730736E3,2.9898289E3,1.8046388E3,8.26695E2,6.0453876E2,7.649164E2,2.0506152E2,3.066181E3,1.1079037E3,0E0,2.3085652E3,2.0799744E3,0E0,0E0,0E0,0E0,0E0,0E0,0E0,0E0,0E0,0E0,0E0,0E0,0E0,0E0],"parents":[2147483647,0,0,1,1,2,2,3,3,4,4,5,5,6,6,7,7,8,8,9,9,10,10,11,11,13,13,14,14],"right_children":[2,4,6,8,10,12,14,16,18,20,22,24,-1,26,28,-1,-1,-1,-1,-1,-1,-1,-1,-1,-1,-1,-1,-1,-1],"split_conditions":[5.725888E0,-2.3758996E0,6.4068055E0,-2.4325125E0,3.176931E0,6.3336096E0,1.4589386E1,-1.4544075E0,-2.3930874E0,-7.5984985E-2,5.820955E0,9.548927E0,3.346699E0,1.4293576E1,1.4626962E1,-5.098487E-1,3.408677E-2,3.7201614E0,5.8669376E-1,-1.7011257E0,-3.2352307E0,1.3329734E0,-8.365447E-1,9.928412E-1,-1.297456E0,-5.4803053E-3,1.5720797E0,-2.3405566E0,5.9848648E-2],"split_indices":[0,0,0,0,1,0,1,1,0,0,1,1,0,1,1,0,0,0,0,0,0,0,0,0,0,0,0,0,0],"split_type":[0,0,0,0,0,0,0,0,0,0,0,0,0,0,0,0,0,0,0,0,0,0,0,0,0,0,0,0,0],"sum_hessian":[6.182E3,4.981E3,1.201E3,4.575E3,4.06E2,1.26E2,1.075E3,4.547E3,2.8E1,5.1E1,3.55E2,1.03E2,2.3E1,9.08E2,1.67E2,1.91E2,4.356E3,1.4E1,1.4E1,1.5E1,3.6E1,7.3E1,2.82E2,7.9E1,2.4E1,8.16E2,9.2E1,4.3E1,1.24E2],"tree_param":{"num_deleted":"0","num_feature":"2","num_nodes":"29","size_leaf_vector":"0"}},{"base_weights":[1.6875312E-3,-1.07658856E-1,5.363377E-1,7.426805E-3,-3.4079328E0,1.2382541E1,2.7077445E-1,-8.1981115E-2,3.8103354E0,2.8206787E0,-4.381791E0,-1.0219823E1,5.317248E-1,-9.587854E-3,-1.4050601E1,1.342462E1,1.4950173E0,-7.0228987E0,-1.6470451E0,9.868909E0,2.1417463E-1],"categories":[],"categories_nodes":[],"categories_segments":[],"categories_sizes":[],"default_left":[true,true,true,true,true,false,true,true,true,false,true,false,true,false,false,false,false,false,false,false,false],"id":33,"left_children":[1,3,5,7,9,-1,11,13,15,-1,17,-1,19,-1,-1,-1,-1,-1,-1,-1,-1],"loss_changes":[3.6152872E2,1.9499916E3,3.2998594E3,1.6874426E3,1.0617405E3,0E0,2.81961E3,4.9033384E3,2.5175842E3,0E0,1.0718467E3,0E0,2.9747708E3,0E0,0E0,0E0,0E0,0E0,0E0,0E0,0E0],"parents":[2147483647,0,0,1,1,2,2,3,3,4,4,6,6,7,7,8,8,10,10,12,12],"right_children":[2,4,6,8,10,-1,12,14,16,-1,18,-1,20,-1,-1,-1,-1,-1,-1,-1,-1],"split_conditions":[1.4140744E1,1.1899251E1,1.4183352E1,1.0090378E1,-8.256983E0,3.7147624E0,1.4245514E1,1.008544E1,1.0189509E1,8.462036E-1,5.783976E0,-3.065947E0,1.4285355E1,-2.8763562E-3,-4.2151804E0,4.027386E0,4.485052E-1,-2.1068697E0,-4.9411356E-1,2.9606729E0,6.425239E-2],"split_indices":[1,1,1,1,0,0,1,1,1,0,0,0,1,0,0,0,0,0,0,0,0],"split_type":[0,0,0,0,0,0,0,0,0,0,0,0,0,0,0,0,0,0,0,0,0],"sum_hessian":[6.182E3,5.133E3,1.049E3,4.961E3,1.72E2,2.2E1,1.027E3,4.848E3,1.13E2,2.3E1,1.49E2,2.4E1,1.003E3,4.824E3,2.4E1,2.1E1,9.2E1,7.5E1,7.4E1,3.2E1,9.71E2],"tree_param":{"num_deleted":"0","num_feature":"2","num_nodes":"21","size_leaf_vector":"0"}},{"base_weights":[1.5388944E-3,1.1473845E0,-4.7541432E-2,4.050142E-1,4.8849444E0,-4.005476E0,-1.7951375E-2,8.26359E-1,-3.7022812E0,6.355986E-1,7.47548E0,9.064789E-1,-7.6371856E-2,3.1246347E0,2.8151099E-2,-6.8926E-1,2.87251E0,-5.972087E0,-3.671031E-2],"categories":[],"categories_nodes":[],"categories_segments":[],"categories_sizes":[],"default_left":[true,true,true,true,true,false,true,true,false,false,false,true,true,false,false,false,false,false,false],"id":34,"left_children":[1,3,5,7,9,-1,11,13,-1,-1,-1,15,17,-1,-1,-1,-1,-1,-1],"loss_changes":[3.477771E2,7.0278357E2,6.9442316E2,3.7167456E2,4.575882E2,0E0,3.1800055E2,3.558054E2,0E0,0E0,0E0,1.1000251E3,1.294749E3,0E0,0E0,0E0,0E0,0E0,0E0],"parents":[2147483647,0,0,1,1,2,2,3,3,4,4,6,6,7,7,11,11,12,12],"right_children":[2,4,6,8,10,-1,12,14,-1,-1,-1,16,18,-1,-1,-1,-1,-1,-1],"split_conditions":[-5.986354E0,-6.4263096E0,-5.048642E0,1.3861277E1,1.1090102E0,-1.2016429E0,-5.562262E-1,-8.648897E0,-1.1106844E0,1.906796E-1,2.242644E0,-1.4063039E0,-3.724423E-1,9.3739045E-1,8.44533E-3,-2.06778E-1,8.6175305E-1,-1.7916261E0,-1.1013093E-2],"split_indices":[1,1,1,0,0,0,1,1,0,0,0,1,1,0,0,0,0,0,0],"split_type":[0,0,0,0,0,0,0,0,0,0,0,0,0,0,0,0,0,0,0],"sum_hessian":[6.182E3,2.53E2,5.929E3,2.12E2,4.1E1,4.3E1,5.886E3,1.93E2,1.9E1,1.6E1,2.5E1,3.49E2,5.537E3,4.9E1,1.44E2,1.93E2,1.56E2,3.6E1,5.501E3],"tree_param":{"num_deleted":"0","num_feature":"2","num_nodes":"19","size_leaf_vector":"0"}},{"base_weights":[1.0674169E-3,6.4096695E-1,-6.5665156E-2,-7.237535E-2,2.6157813E0,-4.47311E0,-2.8355902E-2,9.810259E-1,-1.0187254E0,4.516282E0,1.265261E0,-3.269448E-1,-1.0566041E1,5.0644403E0,-5.8785804E-2,-1.960901E0,1.4995241E0,3.0235307E0,-2.4891381E0,1.8246509E0,6.837585E0,-2.5437418E-1,1.5412774E0,-1.3453736E0,3.2536663E-2],"categories":[],"categories_nodes":[],"categories_segments":[],"categories_sizes":[],"default_left":[true,true,true,true,true,true,true,true,true,true,true,false,false,false,true,false,false,false,false,false,false,false,false,false,false],"id":35,"left_children":[1,3,5,7,9,11,13,15,17,19,21,-1,-1,-1,23,-1,-1,-1,-1,-1,-1,-1,-1,-1,-1],"loss_changes":[2.640694E2,8.228809E2,9.207286E2,4.296605E2,3.921189E2,1.1838734E3,8.610193E2,3.1411877E2,1.356765E3,3.874015E2,3.8980927E1,0E0,0E0,0E0,6.488477E2,0E0,0E0,0E0,0E0,0E0,0E0,0E0,0E0,0E0,0E0],"parents":[2147483647,0,0,1,1,2,2,3,3,4,4,5,5,6,6,7,7,8,8,9,9,10,10,14,14],"right_children":[2,4,6,8,10,12,14,16,18,20,22,-1,-1,-1,24,-1,-1,-1,-1,-1,-1,-1,-1,-1,-1],"split_conditions":[-1.4592787E1,-1.9630508E1,-1.3720928E1,1.4921019E1,-1.8041508E1,-1.3972789E1,-1.3575237E1,-3.4814354E1,-2.6601562E1,-1.951238E1,-1.7614796E1,-9.8083444E-2,-3.1698124E0,1.5193322E0,-1.131093E1,-5.882703E-1,4.4985726E-1,9.0705925E-1,-7.467415E-1,5.473953E-1,2.0512755E0,-7.631226E-2,4.6238324E-1,-4.036121E-1,9.760999E-3],"split_indices":[0,0,0,1,0,0,0,0,0,0,0,0,0,0,0,0,0,0,0,0,0,0,0,0,0],"split_type":[0,0,0,0,0,0,0,0,0,0,0,0,0,0,0,0,0,0,0,0,0,0,0,0,0],"sum_hessian":[6.182E3,5.83E2,5.599E3,4.29E2,1.54E2,4.6E1,5.553E3,2.03E2,2.26E2,6.3E1,9.1E1,2.8E1,1.8E1,3.2E1,5.521E3,3E1,1.73E2,6E1,1.66E2,3E1,3.3E1,1.4E1,7.7E1,3.65E2,5.156E3],"tree_param":{"num_deleted":"0","num_feature":"2","num_nodes":"25","size_leaf_vector":"0"}},{"base_weights":[8.8275166E-4,2.8687277E-1,-1.3291435E-1,1.2666251E-1,2.016769E0,-7.429591E0,-3.4610648E-2,-7.729955E-1,5.597819E-1,3.3150303E0,-9.633481E0,-3.8239338E0,-8.540431E0,4.905912E0,-8.258013E-2,3.210044E-1,-3.5262947E0,1.3376263E1,3.0212697E-1,7.0319004E0,1.8657253E0,9.416397E-1,8.447795E0,-9.333822E0,-1.4702418E-2],"categories":[],"categories_nodes":[],"categories_segments":[],"categories_sizes":[],"default_left":[true,true,true,true,true,true,true,true,true,true,false,false,false,true,true,false,false,false,false,false,false,false,false,false,false],"id":36,"left_children":[1,3,5,7,9,11,13,15,17,19,-1,-1,-1,21,23,-1,-1,-1,-1,-1,-1,-1,-1,-1,-1],"loss_changes":[2.3662839E2,5.460015E2,3.0216875E3,7.037679E2,2.5578223E3,1.916394E2,9.858275E2,1.76924E3,4.0213767E3,8.0029895E2,0E0,0E0,0E0,5.5368475E2,2.5864019E3,0E0,0E0,0E0,0E0,0E0,0E0,0E0,0E0,0E0,0E0],"parents":[2147483647,0,0,1,1,2,2,3,3,4,4,5,5,6,6,7,7,8,8,9,9,13,13,14,14],"right_children":[2,4,6,8,10,12,14,16,18,20,-1,-1,-1,22,24,-1,-1,-1,-1,-1,-1,-1,-1,-1,-1],"split_conditions":[-8.230859E0,-8.985264E0,-8.055728E0,1.906407E0,7.2750864E0,-1.5090475E0,-7.9026775E0,-1.0780508E1,1.9901962E0,-8.673723E0,-2.8900445E0,-1.1471802E0,-2.5621295E0,-7.9519978E0,-7.858706E0,9.6301325E-2,-1.0578885E0,4.012879E0,9.063809E-2,2.1095703E0,5.597176E-1,2.8249192E-1,2.5343385E0,-2.8001468E0,-4.4107256E-3],"split_indices":[0,0,0,1,1,1,0,0,1,0,0,0,0,0,0,0,0,0,0,0,0,0,0,0,0],"split_type":[0,0,0,0,0,0,0,0,0,0,0,0,0,0,0,0,0,0,0,0,0,0,0,0,0],"sum_hessian":[6.182E3,1.97E3,4.212E3,1.804E3,1.66E2,5.5E1,4.157E3,5.86E2,1.218E3,1.5E2,1.6E1,1.4E1,4.1E1,3.9E1,4.118E3,4.2E2,1.66E2,2.3E1,1.195E3,4.1E1,1.09E2,1.9E1,2E1,2.9E1,4.089E3],"tree_param":{"num_deleted":"0","num_feature":"2","num_nodes":"25","size_leaf_vector":"0"}},{"base_weights":[4.922989E-4,-1.3287163E-1,2.630583E-1,-4.935879E-2,-8.829789E0,2.5459733E0,-9.267272E-3,-1.0903784E-1,7.977129E0,2.1941326E0,-1.5090951E1,-1.3745913E-2,5.2480264E0,-9.124025E0,1.9584487E-1,2.0443521E-2,-6.9441996E0,1.9952289E0,-3.6883645E0,3.3891032E0,6.8518157E0,-4.5897474E0,-1.2831367E1,5.660545E0,3.528008E-2],"categories":[],"categories_nodes":[],"categories_segments":[],"categories_sizes":[],"default_left":[true,true,true,true,true,true,true,true,false,false,false,true,true,true,true,false,false,false,false,false,false,false,false,false,false],"id":37,"left_children":[1,3,5,7,9,11,13,15,-1,-1,-1,17,19,21,23,-1,-1,-1,-1,-1,-1,-1,-1,-1,-1],"loss_changes":[2.1654402E2,2.9781382E3,1.2950166E3,1.9471002E3,2.7249912E3,1.5355345E3,3.4828845E3,3.570337E3,0E0,0E0,0E0,8.56314E2,2.98761E2,6.30322E2,1.5984932E3,0E0,0E0,0E0,0E0,0E0,0E0,0E0,0E0,0E0,0E0],"parents":[2147483647,0,0,1,1,2,2,3,3,4,4,5,5,6,6,7,7,11,11,12,12,13,13,14,14],"right_children":[2,4,6,8,10,12,14,16,-1,-1,-1,18,20,22,24,-1,-1,-1,-1,-1,-1,-1,-1,-1,-1],"split_conditions":[6.818817E0,6.7050543E0,7.837062E0,6.5806065E0,-2.9157372E0,-7.340887E0,7.899405E0,6.319446E0,2.393139E0,6.582398E-1,-4.5272856E0,-8.465725E0,7.503701E0,-6.593768E0,8.189898E0,6.1330567E-3,-2.08326E0,5.985687E-1,-1.1065094E0,1.016731E0,2.0555449E0,-1.3769243E0,-3.84941E0,1.6981635E0,1.0584024E-2],"split_indices":[1,1,1,1,0,0,1,1,0,0,0,0,1,0,1,0,0,0,0,0,0,0,0,0,0],"split_type":[0,0,0,0,0,0,0,0,0,0,0,0,0,0,0,0,0,0,0,0,0,0,0,0,0],"sum_hessian":[6.182E3,4.1E3,2.082E3,4.062E3,3.8E1,2.21E2,1.861E3,4.033E3,2.9E1,1.4E1,2.4E1,1.14E2,1.07E2,4E1,1.821E3,3.959E3,7.4E1,7.4E1,4E1,5.1E1,5.6E1,1.9E1,2.1E1,5.1E1,1.77E3],"tree_param":{"num_deleted":"0","num_feature":"2","num_nodes":"25","size_leaf_vector":"0"}},{"base_weights":[-3.8635117E-4,4.710503E-2,-6.0408413E-1,-6.981621E-4,5.0744205E0,-6.441887E0,-9.743753E-2,2.6878914E-2,-9.764663E0,8.832513E0,1.2693155E0,-1.3474766E0,2.082548E0,-1.1150135E-2,6.938711E0,4.203752E-1,-4.0453496E0,1.0586951E1,9.332012E-1],"categories":[],"categories_nodes":[],"categories_segments":[],"categories_sizes":[],"default_left":[true,true,true,true,true,false,true,true,false,false,false,true,true,false,false,false,false,false,false],"id":38,"left_children":[1,3,5,7,9,-1,11,13,-1,-1,-1,15,17,-1,-1,-1,-1,-1,-1],"loss_changes":[1.7729779E2,1.377768E3,1.3332964E3,1.5296682E3,7.609855E2,0E0,1.136434E3,1.489125E3,0E0,0E0,0E0,1.265602E3,1.4758455E3,0E0,0E0,0E0,0E0,0E0,0E0],"parents":[2147483647,0,0,1,1,2,2,3,3,4,4,6,6,7,7,11,11,12,12],"right_children":[2,4,6,8,10,-1,12,14,-1,-1,-1,16,18,-1,-1,-1,-1,-1,-1],"split_conditions":[1.2994491E1,1.2756098E1,1.301248E1,1.2607311E1,1.2936152E1,-1.9325662E0,1.4295339E1,1.2154652E1,-2.929399E0,2.649754E0,3.8079467E-1,2.2055106E0,1.3563698E1,-3.3450406E-3,2.0816135E0,1.2611257E-1,-1.2136049E0,3.1760855E0,2.7996036E-1],"split_indices":[0,0,0,0,0,0,1,0,0,0,0,1,0,0,0,0,0,0,0],"split_type":[0,0,0,0,0,0,0,0,0,0,0,0,0,0,0,0,0,0,0],"sum_hessian":[6.182E3,5.732E3,4.5E2,5.679E3,5.3E1,3.5E1,4.15E2,5.664E3,1.5E1,2.6E1,2.7E1,2.64E2,1.51E2,5.634E3,3E1,1.6E2,1.04E2,1.7E1,1.34E2],"tree_param":{"num_deleted":"0","num_feature":"2","num_nodes":"19","size_leaf_vector":"0"}},{"base_weights":[1.495993E-4,-2.1767367E-1,1.4423363E-1,-9.82727E-2,-7.2657585E0,5.978227E0,8.0833144E-2,-1.4692761E-1,6.063025E0,-1.0857784E1,-2.951242E0,8.083672E0,3.4685988E0,2.2447474E0,4.498445E-2,-3.9800797E-2,-6.6421866E0,8.565308E-1,2.8671763E0,-2.996809E0,8.665192E-2],"categories":[],"categories_nodes":[],"categories_segments":[],"categories_sizes":[],"default_left":[true,true,true,true,true,true,true,true,false,false,false,false,false,true,true,false,false,false,false,false,false],"id":39,"left_children":[1,3,5,7,9,11,13,15,-1,-1,-1,-1,-1,17,19,-1,-1,-1,-1,-1,-1],"loss_changes":[1.9408397E2,2.0711777E3,1.3762026E3,7.2695166E2,6.0336816E2,1.8331628E2,2.856023E2,1.6724784E3,0E0,0E0,0E0,0E0,0E0,4.9388153E1,4.595794E2,0E0,0E0,0E0,0E0,0E0,0E0],"parents":[2147483647,0,0,1,1,2,2,3,3,4,4,5,5,6,6,7,7,13,13,14,14],"right_children":[2,4,6,8,10,12,14,16,-1,-1,-1,-1,-1,18,20,-1,-1,-1,-1,-1,-1],"split_conditions":[2.9432638E0,2.8806164E0,3.0736365E0,2.8133159E0,-5.69497E0,-3.7211668E0,3.2547016E0,2.7055988E0,1.8189076E0,-3.2573354E0,-8.8537264E-1,2.4251015E0,1.0405797E0,-1.1775915E1,3.3331175E0,-1.194024E-2,-1.9926561E0,2.5695926E-1,8.601529E-1,-8.990427E-1,2.5995577E-2],"split_indices":[1,1,1,1,0,0,1,1,0,0,0,0,0,0,1,0,0,0,0,0,0],"split_type":[0,0,0,0,0,0,0,0,0,0,0,0,0,0,0,0,0,0,0,0,0],"sum_hessian":[6.182E3,2.461E3,3.721E3,2.421E3,4E1,3.9E1,3.682E3,2.403E3,1.8E1,2.1E1,1.9E1,2E1,1.9E1,5.9E1,3.623E3,2.365E3,3.8E1,1.9E1,4E1,4.8E1,3.575E3],"tree_param":{"num_deleted":"0","num_feature":"2","num_nodes":"21","size_leaf_vector":"0"}},{"base_weights":[4.50138E-6,-4.4208333E-2,5.9460515E-1,-1.8265849E-2,-8.801011E0,1.1841569E-3,4.097684E0,-3.0343097E-2,2.4465764E0,3.767842E0,-3.8225162E-1,5.324832E0,1.0402005E0,-1.6196849E-2,-1.9869608E0,-3.1165547E0,1.562088E-1,6.901298E0,2.8873081E0],"categories":[],"categories_nodes":[],"categories_segments":[],"categories_sizes":[],"default_left":[true,true,true,true,false,true,true,true,false,false,true,true,false,false,false,false,false,false,false],"id":40,"left_children":[1,3,5,7,-1,9,11,13,-1,-1,15,17,-1,-1,-1,-1,-1,-1,-1],"loss_changes":[1.6257104E2,1.3074482E3,8.897218E2,1.7094547E2,0E0,5.314879E2,2.270841E2,1.580968E2,0E0,0E0,4.922397E2,1.4915137E2,0E0,0E0,0E0,0E0,0E0,0E0,0E0],"parents":[2147483647,0,0,1,1,2,2,3,3,5,5,6,6,7,7,10,10,11,11],"right_children":[2,4,6,8,-1,10,12,14,-1,-1,16,18,-1,-1,-1,-1,-1,-1,-1],"split_conditions":[1.658012E1,1.6430927E1,1.4458859E0,1.6056545E1,-2.6403034E0,-2.2296171E1,7.945031E0,1.5633009E1,7.339729E-1,1.1303526E0,-2.0337597E1,2.2463074E1,3.1206015E-1,-4.859055E-3,-5.9608823E-1,-9.3496644E-1,4.686264E-2,2.0703895E0,8.6619246E-1],"split_indices":[1,1,0,1,0,0,0,1,0,0,0,1,0,0,0,0,0,0,0],"split_type":[0,0,0,0,0,0,0,0,0,0,0,0,0,0,0,0,0,0,0],"sum_hessian":[6.182E3,5.755E3,4.27E2,5.739E3,1.6E1,3.66E2,6.1E1,5.712E3,2.7E1,3.3E1,3.33E2,4.3E1,1.8E1,5.672E3,4E1,5.4E1,2.79E2,2.5E1,1.8E1],"tree_param":{"num_deleted":"0","num_feature":"2","num_nodes":"19","size_leaf_vector":"0"}},{"base_weights":[1.5608978E-4,2.4550177E-1,-1.1462589E-1,-6.415696E-2,1.1257095E0,-5.0549645E0,-4.8061777E-2,6.787607E-2,-7.3438187E0,-2.7258167E-1,2.45592E0,-2.740153E0,-5.761327E0,4.0097265E0,-8.7455675E-2,7.7693254E-1,-4.3301266E-1,-7.850853E0,1.2878884E0,1.2986692E1,1.5826768E0,1.7075424E0,6.011344E0,-6.6501627E0,-3.9297078E-2],"categories":[],"categories_nodes":[],"categories_segments":[],"categories_sizes":[],"default_left":[true,true,true,true,true,true,true,true,false,true,true,false,false,true,true,false,false,false,false,false,false,false,false,false,false],"id":41,"left_children":[1,3,5,7,9,11,13,15,-1,17,19,-1,-1,21,23,-1,-1,-1,-1,-1,-1,-1,-1,-1,-1],"loss_changes":[1.7414923E2,5.372959E2,1.3851991E3,1.4028248E3,9.548606E2,7.577844E1,6.6501575E2,5.0963358E2,0E0,2.978353E3,2.397975E3,0E0,0E0,1.7405902E2,1.3015519E3,0E0,0E0,0E0,0E0,0E0,0E0,0E0,0E0,0E0,0E0],"parents":[2147483647,0,0,1,1,2,2,3,3,4,4,5,5,6,6,7,7,9,9,10,10,13,13,14,14],"right_children":[2,4,6,8,10,12,14,16,-1,18,20,-1,-1,22,24,-1,-1,-1,-1,-1,-1,-1,-1,-1,-1],"split_conditions":[-8.230859E0,-1.0023151E1,-8.055728E0,-1.0138704E1,1.9693611E0,-1.5090475E0,-7.9026775E0,2.3138952E0,-2.2031457E0,-9.709511E0,-9.892605E0,-8.22046E-1,-1.7283981E0,-7.9519978E0,-7.858706E0,2.3307978E-1,-1.2990381E-1,-2.355256E0,3.8636655E-1,3.8960078E0,4.7480306E-1,5.1226276E-1,1.8034033E0,-1.9950489E0,-1.17891235E-2],"split_indices":[0,0,0,0,1,1,0,1,0,0,0,0,0,0,0,0,0,0,0,0,0,0,0,0,0],"split_type":[0,0,0,0,0,0,0,0,0,0,0,0,0,0,0,0,0,0,0,0,0,0,0,0,0],"sum_hessian":[6.182E3,1.97E3,4.212E3,1.458E3,5.12E2,5.5E1,4.157E3,1.433E3,2.5E1,2.5E2,2.62E2,1.4E1,4.1E1,3.9E1,4.118E3,5.93E2,8.4E2,4.2E1,2.08E2,1.9E1,2.43E2,1.9E1,2E1,2.9E1,4.089E3],"tree_param":{"num_deleted":"0","num_feature":"2","num_nodes":"25","size_leaf_vector":"0"}},{"base_weights":[-2.0149104E-4,-9.607196E-2,2.8840482E-1,-1.9425567E-2,-9.634915E0,7.9776344E0,4.663863E-2,-7.4236155E-2,2.9320946E0,1.2207571E1,4.3922157E0,-3.8327596E-1,6.839471E-1,-4.2879507E-2,-9.495095E0,7.176243E0,4.5170203E-2,5.8305573E-1,-2.8338754E0,1.3949854E0,-1.0352467E0],"categories":[],"categories_nodes":[],"categories_segments":[],"categories_sizes":[],"default_left":[true,true,true,true,false,true,true,true,true,false,false,true,true,false,false,false,false,false,false,false,false],"id":42,"left_children":[1,3,5,7,-1,9,11,13,15,-1,-1,17,19,-1,-1,-1,-1,-1,-1,-1,-1],"loss_changes":[1.7110403E2,3.3936624E3,2.8661992E3,7.453512E2,0E0,6.5918823E2,4.101485E2,1.3357167E3,1.0288887E3,0E0,0E0,2.1187263E3,7.385591E2,0E0,0E0,0E0,0E0,0E0,0E0,0E0,0E0],"parents":[2147483647,0,0,1,1,2,2,3,3,5,5,6,6,7,7,8,8,11,11,12,12],"right_children":[2,4,6,8,-1,10,12,14,16,-1,-1,18,20,-1,-1,-1,-1,-1,-1,-1,-1],"split_conditions":[9.328178E0,9.127932E0,9.543078E0,8.787246E0,-2.8904748E0,3.2514305E0,6.3395205E0,8.63933E0,8.940447E0,3.6622715E0,1.3176647E0,-4.898858E0,1.4573492E1,-1.2863853E-2,-2.8485286E0,2.152873E0,1.3551061E-2,1.7491673E-1,-8.501627E-1,4.1849566E-1,-3.1057402E-1],"split_indices":[1,1,1,1,0,0,0,1,1,0,0,0,1,0,0,0,0,0,0,0,0],"split_type":[0,0,0,0,0,0,0,0,0,0,0,0,0,0,0,0,0,0,0,0,0],"sum_hessian":[6.182E3,4.641E3,1.541E3,4.605E3,3.6E1,4.6E1,1.495E3,4.522E3,8.3E1,2E1,2.6E1,8.93E2,6.02E2,4.508E3,1.4E1,3.3E1,5E1,6.41E2,2.52E2,4.26E2,1.76E2],"tree_param":{"num_deleted":"0","num_feature":"2","num_nodes":"21","size_leaf_vector":"0"}},{"base_weights":[-7.808315E-6,-1.8878074E-1,1.2723762E-1,8.505549E-2,-1.7095163E0,7.8141346E0,7.273052E-2,-1.4983435E-2,7.527772E0,-6.4921217E0,-1.2660983E0,4.3859673E-1,-1.2513195E-1,1.2886891E-1,-3.0281537E0,4.640184E0,-2.3629777E0,6.7707855E-1,-7.0189624E0,-1.189262E1,-1.5428497E-2],"categories":[],"categories_nodes":[],"categories_segments":[],"categories_sizes":[],"default_left":[true,true,true,true,true,false,true,true,false,false,true,true,true,false,false,false,false,false,false,false,false],"id":43,"left_children":[1,3,5,7,9,-1,11,13,-1,-1,15,17,19,-1,-1,-1,-1,-1,-1,-1,-1],"loss_changes":[1.4854272E2,1.0370623E3,1.5471824E3,1.571882E3,7.976439E2,0E0,2.6565817E2,9.0370337E2,0E0,0E0,2.271954E3,2.2954504E3,3.0748215E3,0E0,0E0,0E0,0E0,0E0,0E0,0E0,0E0],"parents":[2147483647,0,0,1,1,2,2,3,3,4,4,6,6,7,7,10,10,11,11,12,12],"right_children":[2,4,6,8,10,-1,12,14,-1,-1,16,18,20,-1,-1,-1,-1,-1,-1,-1,-1],"split_conditions":[3.0282593E0,2.338974E0,3.134413E0,2.2670398E0,-1.2890537E1,2.3442404E0,5.6475163E0,2.1050086E0,2.2583318E0,-1.9476366E0,-9.921157E0,2.9005265E0,5.780341E0,3.8660675E-2,-9.0844613E-1,1.3920553E0,-7.0889336E-1,2.0312357E-1,-2.1056888E0,-3.5677862E0,-4.6285493E-3],"split_indices":[1,1,1,1,0,0,1,1,0,0,0,0,1,0,0,0,0,0,0,0,0],"split_type":[0,0,0,0,0,0,0,0,0,0,0,0,0,0,0,0,0,0,0,0,0],"sum_hessian":[6.182E3,2.489E3,3.693E3,2.11E3,3.79E2,2.5E1,3.668E3,2.083E3,2.7E1,3.1E1,3.48E2,1.287E3,2.381E3,1.989E3,9.4E1,5.4E1,2.94E2,1.248E3,3.9E1,2.1E1,2.36E3],"tree_param":{"num_deleted":"0","num_feature":"2","num_nodes":"21","size_leaf_vector":"0"}},{"base_weights":[-4.9563055E-4,-2.8222424E-1,9.3090326E-2,1.0038575E-2,-4.6845374E0,1.9532802E0,-1.1003332E-2,-2.5493407E-1,4.423973E0,3.1953957E0,-6.670435E0,3.4423643E-1,5.226712E0,-4.8398576E0,6.256901E-2,-2.1180255E0,1.340531E-1,3.3438923E0,9.025407E0,-1.2312159E1,-5.106919E0,2.6496198E0,-1.6800798E0,9.921122E0,3.194082E0,-7.05409E0,-1.1620343E0,5.4119244E0,-4.9532545E-3],"categories":[],"categories_nodes":[],"categories_segments":[],"categories_sizes":[],"default_left":[true,true,true,true,true,true,true,true,true,false,true,true,true,true,true,false,false,false,false,false,false,false,false,false,false,false,false,false,false],"id":44,"left_children":[1,3,5,7,9,11,13,15,17,-1,19,21,23,25,27,-1,-1,-1,-1,-1,-1,-1,-1,-1,-1,-1,-1,-1,-1],"loss_changes":[1.6304625E2,1.9840342E3,8.988703E2,1.6934983E3,1.5235938E3,1.2939062E3,1.5624254E3,9.902497E2,3.773534E2,0E0,6.163342E2,7.7914453E2,7.412129E2,5.292776E2,1.5647477E3,0E0,0E0,0E0,0E0,0E0,0E0,0E0,0E0,0E0,0E0,0E0,0E0,0E0,0E0],"parents":[2147483647,0,0,1,1,2,2,3,3,4,4,5,5,6,6,7,7,8,8,10,10,11,11,12,12,13,13,14,14],"right_children":[2,4,6,8,10,12,14,16,18,-1,20,22,24,26,28,-1,-1,-1,-1,-1,-1,-1,-1,-1,-1,-1,-1,-1,-1],"split_conditions":[1.5649022E0,1.3325276E0,1.9490155E0,1.112194E0,-1.2309295E1,1.8922473E0,2.0421138E0,-1.131093E1,1.2410483E0,9.5861876E-1,1.3695567E0,1.7752115E0,1.9237142E0,-4.4793544E0,2.0563254E0,-6.354077E-1,4.021593E-2,1.0031677E0,2.707622E0,-3.6936476E0,-1.5320758E0,7.94886E-1,-5.0402397E-1,2.9763365E0,9.5822465E-1,-2.1162271E0,-3.4861028E-1,1.6235774E0,-1.4859764E-3],"split_indices":[1,1,1,1,0,1,1,0,0,0,1,1,1,0,1,0,0,0,0,0,0,0,0,0,0,0,0,0,0],"split_type":[0,0,0,0,0,0,0,0,0,0,0,0,0,0,0,0,0,0,0,0,0,0,0,0,0,0,0,0,0],"sum_hessian":[6.182E3,1.541E3,4.641E3,1.446E3,9.5E1,2.45E2,4.396E3,1.365E3,8.1E1,1.9E1,7.6E1,1.65E2,8E1,6.5E1,4.331E3,2.35E2,1.13E3,6.7E1,1.4E1,1.5E1,6.1E1,7.7E1,8.8E1,2.3E1,5.7E1,4E1,2.5E1,5.3E1,4.278E3],"tree_param":{"num_deleted":"0","num_feature":"2","num_nodes":"29","size_leaf_vector":"0"}},{"base_weights":[8.731295E-6,2.8049332E-1,-1.0257132E-1,4.1950006E-2,4.5820165E0,-5.0587707E0,-4.16206E-2,1.4054175E-1,-8.972963E0,9.757623E0,2.5695698E0,-2.5622797E0,-9.299516E0,-5.9664166E-1,6.657886E-2,4.201059E-2,4.2941055E0,5.0564117E0,-2.7633166E0,-3.7179613E-1,-6.01888E0,3.3792708E0,7.148357E-3],"categories":[],"categories_nodes":[],"categories_segments":[],"categories_sizes":[],"default_left":[true,true,true,true,true,true,true,true,false,false,true,false,false,true,true,false,false,false,false,false,false,false,false],"id":45,"left_children":[1,3,5,7,9,11,13,15,-1,-1,17,-1,-1,19,21,-1,-1,-1,-1,-1,-1,-1,-1],"loss_changes":[1.7792682E2,1.6990287E3,1.3676254E3,1.3966708E3,8.8108704E2,5.5845605E2,2.6871674E2,6.358026E2,0E0,0E0,8.627433E2,0E0,0E0,8.877533E2,7.372725E2,0E0,0E0,0E0,0E0,0E0,0E0,0E0,0E0],"parents":[2147483647,0,0,1,1,2,2,3,3,4,4,5,5,6,6,7,7,10,10,13,13,14,14],"right_children":[2,4,6,8,10,12,14,16,-1,-1,18,-1,-1,20,22,-1,-1,-1,-1,-1,-1,-1,-1],"split_conditions":[-9.387224E0,-9.712137E0,-9.155397E0,-9.741876E0,1.1342998E0,-9.261557E0,-6.881608E0,-9.827633E0,-2.691889E0,2.9272869E0,-9.533497E0,-7.6868397E-1,-2.7898548E0,-7.1355867E0,-6.65961E0,1.2603178E-2,1.2882317E0,1.5169235E0,-8.2899505E-1,-1.1153884E-1,-1.8056641E0,1.0137813E0,2.1445071E-3],"split_indices":[0,0,0,0,1,0,0,0,0,0,0,0,0,0,0,0,0,0,0,0,0,0,0],"split_type":[0,0,0,0,0,0,0,0,0,0,0,0,0,0,0,0,0,0,0,0,0,0,0],"sum_hessian":[6.182E3,1.655E3,4.527E3,1.569E3,8.6E1,5.4E1,4.473E3,1.553E3,1.6E1,2.3E1,6.3E1,3.5E1,1.9E1,7.29E2,3.744E3,1.518E3,3.5E1,4.3E1,2E1,7.01E2,2.8E1,6.5E1,3.679E3],"tree_param":{"num_deleted":"0","num_feature":"2","num_nodes":"23","size_leaf_vector":"0"}},{"base_weights":[-3.593552E-4,1.7897591E-2,-1.2949001E0,-1.0842453E-2,5.144088E0,3.0485759E0,-2.4894757E0,3.9721257E-3,-5.2815804E0,6.326344E0,3.7417297E0,-4.6158977E0,-1.8527015E0,-1.8313194E-2,2.7331605E0,8.21938E-1,-3.212853E0],"categories":[],"categories_nodes":[],"categories_segments":[],"categories_sizes":[],"default_left":[true,true,true,true,true,false,true,true,false,false,false,false,true,false,false,false,false],"id":46,"left_children":[1,3,5,7,9,-1,11,13,-1,-1,-1,-1,15,-1,-1,-1,-1],"loss_changes":[1.4615443E2,8.9845544E2,4.538098E2,4.73599E2,3.269873E1,0E0,8.352356E1,3.679553E2,0E0,0E0,0E0,0E0,1.9908817E2,0E0,0E0,0E0,0E0],"parents":[2147483647,0,0,1,1,2,2,3,3,4,4,6,6,7,7,12,12],"right_children":[2,4,6,8,10,-1,12,14,-1,-1,-1,-1,16,-1,-1,-1,-1],"split_conditions":[1.4915108E1,1.4374542E1,3.6565837E-1,1.4316923E1,1.4707768E1,9.145728E-1,1.5234573E1,1.4015978E1,-1.5844742E0,1.8979033E0,1.122519E0,-1.3847693E0,1.5716629E1,-5.4939585E-3,8.199482E-1,2.465814E-1,-9.638559E-1],"split_indices":[0,0,1,0,0,0,0,0,0,0,0,0,0,0,0,0,0],"split_type":[0,0,0,0,0,0,0,0,0,0,0,0,0,0,0,0,0],"sum_hessian":[6.182E3,6.097E3,8.5E1,6.064E3,3.3E1,1.8E1,6.7E1,6.048E3,1.6E1,1.6E1,1.7E1,1.4E1,5.3E1,6E3,4.8E1,1.8E1,3.5E1],"tree_param":{"num_deleted":"0","num_feature":"2","num_nodes":"17","size_leaf_vector":"0"}},{"base_weights":[-8.035358E-5,4.4279657E-2,-5.1102847E-1,3.408643E-3,4.1561346E0,-1.6416882E0,2.1323758E-1,3.5046063E-2,-6.8231044E0,1.2525572E1,-8.414853E-1,-1.0345019E0,-4.2609587E0,2.1466115E0,-2.8502968E-1,1.4728436E0,3.6181337E-3,-3.0882332E0,1.8512466E0,-2.2267482E0,3.5490594E0,2.6640813E0,1.6421041E0,-3.7424169E0,4.2162654E-1],"categories":[],"categories_nodes":[],"categories_segments":[],"categories_sizes":[],"default_left":[true,true,true,true,true,true,true,true,false,false,true,true,false,true,true,false,false,false,false,false,false,false,false,false,false],"id":47,"left_children":[1,3,5,7,9,11,13,15,-1,-1,17,19,-1,21,23,-1,-1,-1,-1,-1,-1,-1,-1,-1,-1],"loss_changes":[1.4016443E2,9.562227E2,4.0488586E2,1.2172485E3,2.3528672E3,3.0253638E2,2.9153958E2,2.5349374E2,0E0,0E0,2.2351309E2,8.713308E2,0E0,1.1811493E1,5.903853E2,0E0,0E0,0E0,0E0,0E0,0E0,0E0,0E0,0E0,0E0],"parents":[2147483647,0,0,1,1,2,2,3,3,4,4,5,5,6,6,7,7,10,10,11,11,13,13,14,14],"right_children":[2,4,6,8,10,12,14,16,-1,-1,18,20,-1,22,24,-1,-1,-1,-1,-1,-1,-1,-1,-1,-1],"split_conditions":[1.2914688E1,1.2154652E1,1.3442457E1,1.1328238E1,1.4220347E1,1.4529257E1,1.3814161E1,-6.239132E0,-2.0469315E0,3.7576716E0,1.4313274E1,1.4293576E1,-1.2782876E0,1.3500093E1,1.3943969E1,4.418531E-1,1.0854402E-3,-9.2647E-1,5.55374E-1,-6.680245E-1,1.0647179E0,7.9922444E-1,4.9263126E-1,-1.1227251E0,1.2648797E-1],"split_indices":[0,0,0,0,1,1,0,1,0,0,1,1,0,0,0,0,0,0,0,0,0,0,0,0,0],"split_type":[0,0,0,0,0,0,0,0,0,0,0,0,0,0,0,0,0,0,0,0,0,0,0,0,0],"sum_hessian":[6.182E3,5.689E3,4.93E2,5.634E3,5.5E1,1.92E2,3.01E2,5.609E3,2.5E1,2E1,3.5E1,1.57E2,3.5E1,6.1E1,2.4E2,1.19E2,5.49E3,1.9E1,1.6E1,1.25E2,3.2E1,2.8E1,3.3E1,4E1,2E2],"tree_param":{"num_deleted":"0","num_feature":"2","num_nodes":"25","size_leaf_vector":"0"}},{"base_weights":[1.3910596E-4,-6.080787E-2,3.145865E-1,-3.527727E-2,-8.298603E0,6.467409E0,1.0537073E-1,-5.7125017E-2,4.6470723E0,-3.017872E0,2.708832E-1,1.4635645E-2,-2.0240824E0,6.0122538E0,1.6952698E-1],"categories":[],"categories_nodes":[],"categories_segments":[],"categories_sizes":[],"default_left":[true,true,true,true,false,false,true,true,false,false,true,false,false,false,false],"id":48,"left_children":[1,3,5,7,-1,-1,9,11,-1,-1,13,-1,-1,-1,-1],"loss_changes":[1.18513954E2,1.0891432E3,1.2917352E3,5.2863873E2,0E0,0E0,5.0327893E2,7.258238E2,0E0,0E0,5.3667816E2,0E0,0E0,0E0,0E0],"parents":[2147483647,0,0,1,1,2,2,3,3,6,6,7,7,10,10],"right_children":[2,4,6,8,-1,-1,10,12,-1,-1,14,-1,-1,-1,-1],"split_conditions":[1.4245514E1,1.4202121E1,1.4285355E1,1.4164938E1,-2.489581E0,1.9402229E0,1.4293576E1,1.1899251E1,1.3941218E0,-9.0536165E-1,1.4343989E1,4.3906937E-3,-6.0722476E-1,1.8036762E0,5.0858095E-2],"split_indices":[1,1,1,1,0,0,1,1,0,0,1,0,0,0,0],"split_type":[0,0,0,0,0,0,0,0,0,0,0,0,0,0,0],"sum_hessian":[6.182E3,5.179E3,1.003E3,5.164E3,1.5E1,3.2E1,9.71E2,5.141E3,2.3E1,4.8E1,9.23E2,4.961E3,1.8E2,1.5E1,9.08E2],"tree_param":{"num_deleted":"0","num_feature":"2","num_nodes":"15","size_leaf_vector":"0"}},{"base_weights":[2.8693088E-4,3.8188163E-2,-4.3626833E-1,9.471798E-3,2.9270904E0,-2.1452112E0,-1.106848E-1,3.2034002E-2,-4.8591223E0,8.728729E0,-5.385068E-1,1.3191605E-1,-3.618604E0,-8.580854E-1,1.1930773E0,-5.335341E-2,5.7867396E-1,-2.0578866E0,1.2806755E0,-2.1024241E0,2.4976578E0,1.337447E-1,-2.3707192E0,2.342237E0,-4.675172E-1],"categories":[],"categories_nodes":[],"categories_segments":[],"categories_sizes":[],"default_left":[true,true,true,true,true,true,true,true,false,false,true,true,false,true,true,false,false,false,false,false,false,false,false,false,false],"id":49,"left_children":[1,3,5,7,9,11,13,15,-1,-1,17,19,-1,21,23,-1,-1,-1,-1,-1,-1,-1,-1,-1,-1],"loss_changes":[1.02320465E2,4.7200772E2,2.7462595E2,6.1913904E2,1.1306445E3,2.6553055E2,4.063877E2,2.618842E2,0E0,0E0,1.0214052E2,1.7439905E2,0E0,3.978901E2,2.9115485E2,0E0,0E0,0E0,0E0,0E0,0E0,0E0,0E0,0E0,0E0],"parents":[2147483647,0,0,1,1,2,2,3,3,4,4,5,5,6,6,7,7,10,10,11,11,13,13,14,14],"right_children":[2,4,6,8,10,12,14,16,-1,-1,18,20,-1,22,24,-1,-1,-1,-1,-1,-1,-1,-1,-1,-1],"split_conditions":[1.2914688E1,1.2154652E1,1.301248E1,1.1328238E1,1.4220347E1,1.4334352E1,1.4295339E1,1.606534E0,-1.4577367E0,2.618619E0,1.4313274E1,1.29376955E1,-1.0855812E0,2.2055106E0,1.4708422E1,-1.6006025E-2,1.736022E-1,-6.17366E-1,3.842027E-1,-6.307273E-1,7.492974E-1,4.012341E-2,-7.112158E-1,7.026711E-1,-1.4025517E-1],"split_indices":[0,0,0,0,1,1,1,0,0,0,1,0,0,1,1,0,0,0,0,0,0,0,0,0,0],"split_type":[0,0,0,0,0,0,0,0,0,0,0,0,0,0,0,0,0,0,0,0,0,0,0,0,0],"sum_hessian":[6.182E3,5.689E3,4.93E2,5.634E3,5.5E1,7.8E1,4.15E2,5.609E3,2.5E1,2E1,3.5E1,3.1E1,4.7E1,2.64E2,1.51E2,4.852E3,7.57E2,1.9E1,1.6E1,1.6E1,1.5E1,1.6E2,1.04E2,8.9E1,6.2E1],"tree_param":{"num_deleted":"0","num_feature":"2","num_nodes":"25","size_leaf_vector":"0"}},{"base_weights":[2.0294214E-4,3.8665625E-1,-4.456487E-2,3.737102E0,2.8456066E-2,-1.2812526E0,4.8009504E-2,8.361832E-1,8.2953825E0,2.6847517E-1,-7.0851865E0,-1.27867985E1,-3.456602E-1,4.54003E0,-4.35288E-2,-3.6868876E-1,1.185822E0,-1.3437247E0,1.695689E0,-6.333386E-2,9.420862E0,-3.5872707E0,1.8525755E-2],"categories":[],"categories_nodes":[],"categories_segments":[],"categories_sizes":[],"default_left":[true,true,true,true,true,true,true,false,false,true,false,false,true,true,true,false,false,false,false,false,false,false,false],"id":50,"left_children":[1,3,5,7,9,11,13,-1,-1,15,-1,-1,17,19,21,-1,-1,-1,-1,-1,-1,-1,-1],"loss_changes":[1.06987274E2,7.703773E2,6.3454065E2,8.129021E2,9.939075E2,4.150678E3,2.120714E3,0E0,0E0,3.2951086E2,0E0,0E0,7.316671E2,2.3148264E3,1.1116877E3,0E0,0E0,0E0,0E0,0E0,0E0,0E0,0E0],"parents":[2147483647,0,0,1,1,2,2,3,3,4,4,5,5,6,6,9,9,12,12,13,13,14,14],"right_children":[2,4,6,8,10,12,14,-1,-1,16,-1,-1,18,20,22,-1,-1,-1,-1,-1,-1,-1,-1],"split_conditions":[-1.3635531E1,2.3261979E0,-1.131093E1,-1.822956E1,-1.412693E1,3.611954E-1,-1.1001781E1,2.5085497E-1,2.4886148E0,-2.0650013E1,-2.125556E0,-3.8360398E0,-1.1628689E1,2.4736744E-1,-1.0757059E1,-1.1060663E-1,3.5574663E-1,-4.0311745E-1,5.087067E-1,-1.900016E-2,2.8262587E0,-1.0761813E0,5.5577266E-3],"split_indices":[0,1,0,0,0,1,0,0,0,0,0,0,0,1,0,0,0,0,0,0,0,0,0],"split_type":[0,0,0,0,0,0,0,0,0,0,0,0,0,0,0,0,0,0,0,0,0,0,0],"sum_hessian":[6.182E3,6.41E2,5.541E3,6.1E1,5.8E2,3.85E2,5.156E3,3.8E1,2.3E1,5.62E2,1.8E1,2.8E1,3.57E2,1.02E2,5.054E3,3.32E2,2.3E2,2.4E2,1.17E2,5.3E1,4.9E1,8.6E1,4.968E3],"tree_param":{"num_deleted":"0","num_feature":"2","num_nodes":"23","size_leaf_vector":"0"}},{"base_weights":[-3.8207436E-5,2.1673517E-1,-7.931751E-2,6.376377E-2,3.7341533E0,-3.595567E0,-3.6073647E-2,-7.954393E-1,2.5472218E-1,6.962333E0,1.9687082E0,-6.168678E0,-8.9404297E-1,-3.358768E-1,1.3454928E-1,-4.600397E-2,-1.4482058E1,4.034096E0,1.377251E-1,5.069268E0,-1.9638287E0,1.0991972E-2,-2.1215043E0,7.360614E-1,-2.6408347E-1],"categories":[],"categories_nodes":[],"categories_segments":[],"categories_sizes":[],"default_left":[true,true,true,true,true,true,true,true,true,false,true,false,false,true,true,false,false,false,false,false,false,false,false,false,false],"id":51,"left_children":[1,3,5,7,9,11,13,15,17,-1,19,-1,-1,21,23,-1,-1,-1,-1,-1,-1,-1,-1,-1,-1],"loss_changes":[1.0627601E2,8.9079645E2,6.883808E2,2.6074905E2,3.795362E2,3.7680756E2,2.2890501E2,2.9636748E3,5.7427277E2,0E0,5.7083624E2,0E0,0E0,1.0052744E3,6.840539E2,0E0,0E0,0E0,0E0,0E0,0E0,0E0,0E0,0E0,0E0],"parents":[2147483647,0,0,1,1,2,2,3,3,4,4,5,5,6,6,7,7,8,8,10,10,13,13,14,14],"right_children":[2,4,6,8,10,12,14,16,18,-1,20,-1,-1,22,24,-1,-1,-1,-1,-1,-1,-1,-1,-1,-1],"split_conditions":[-9.387224E0,-9.680565E0,-9.155397E0,6.1000854E-1,1.1342998E0,2.268978E0,2.9428446E0,-1.0985163E1,8.746179E-1,2.0887E0,-9.533497E0,-1.8506035E0,-2.682129E-1,2.198717E0,5.71416E0,-1.3801192E-2,-4.3446174E0,1.2102288E0,4.131753E-2,1.5207806E0,-5.8914864E-1,3.2975918E-3,-6.364513E-1,2.2081843E-1,-7.922505E-2],"split_indices":[0,0,0,1,1,1,1,0,1,0,0,0,0,1,1,0,0,0,0,0,0,0,0,0,0],"split_type":[0,0,0,0,0,0,0,0,0,0,0,0,0,0,0,0,0,0,0,0,0,0,0,0,0],"sum_hessian":[6.182E3,1.655E3,4.527E3,1.587E3,6.8E1,5.4E1,4.473E3,2.88E2,1.299E3,2.3E1,4.5E1,2.7E1,2.7E1,1.622E3,2.851E3,2.74E2,1.4E1,3.8E1,1.261E3,2.5E1,2E1,1.359E3,2.63E2,1.136E3,1.715E3],"tree_param":{"num_deleted":"0","num_feature":"2","num_nodes":"25","size_leaf_vector":"0"}},{"base_weights":[-4.655325E-4,-7.5092815E-2,2.2187988E-1,-1.7129144E-2,-1.0751315E1,4.8180666E0,4.046484E-2,-5.6584954E-2,2.1075823E0,8.808872E0,2.5456312E0,-2.5601213E0,1.358877E-1,-3.3901915E-2,-6.8713336E0,-2.5773716E0,4.4960837E0,6.877403E-1,4.2762403E0,-4.7807574E0,-9.534302E-1,6.386088E0,1.6782409E-2],"categories":[],"categories_nodes":[],"categories_segments":[],"categories_sizes":[],"default_left":[true,true,true,true,false,true,true,true,true,false,true,true,true,false,false,false,false,false,false,false,false,false,false],"id":52,"left_children":[1,3,5,7,-1,9,11,13,15,-1,17,19,21,-1,-1,-1,-1,-1,-1,-1,-1,-1,-1],"loss_changes":[1.0261138E2,2.8650127E3,1.2955573E3,3.862504E2,0E0,5.126378E2,3.715883E2,6.9892883E2,9.5154956E2,0E0,1.22455124E2,1.8453937E2,1.0748525E3,0E0,0E0,0E0,0E0,0E0,0E0,0E0,0E0,0E0,0E0],"parents":[2147483647,0,0,1,1,2,2,3,3,5,5,6,6,7,7,8,8,10,10,11,11,12,12],"right_children":[2,4,6,8,-1,10,12,14,16,-1,18,20,22,-1,-1,-1,-1,-1,-1,-1,-1,-1,-1],"split_conditions":[9.26838E0,9.127932E0,9.543078E0,8.787246E0,-3.2253947E0,3.1679509E0,9.664902E0,8.63933E0,-2.2097588E0,2.6426618E0,6.0529995E0,6.4013147E0,9.844044E0,-1.0170575E-2,-2.0614002E0,-7.7321154E-1,1.3488252E0,2.063221E-1,1.2828722E0,-1.4342272E0,-2.8602907E-1,1.9158264E0,5.034723E-3],"split_indices":[1,1,1,1,0,0,1,1,0,0,0,0,1,0,0,0,0,0,0,0,0,0,0],"split_type":[0,0,0,0,0,0,0,0,0,0,0,0,0,0,0,0,0,0,0,0,0,0,0],"sum_hessian":[6.182E3,4.629E3,1.553E3,4.605E3,2.4E1,5.8E1,1.495E3,4.522E3,8.3E1,2E1,3.8E1,5.2E1,1.443E3,4.508E3,1.4E1,2.8E1,5.5E1,1.9E1,1.9E1,2.1E1,3.1E1,2.6E1,1.417E3],"tree_param":{"num_deleted":"0","num_feature":"2","num_nodes":"23","size_leaf_vector":"0"}},{"base_weights":[-3.8388575E-4,-5.5110317E-2,2.8197E-1,-2.391121E-2,-5.073519E0,4.7826705E0,1.2887834E-1,-4.708237E-2,7.412628E0,-3.3995738E0,-6.5349913E0,3.1722443E0,6.8131134E-2,-2.1740649E-2,-4.667549E0,-8.1759274E-1,3.7032604E-1],"categories":[],"categories_nodes":[],"categories_segments":[],"categories_sizes":[],"default_left":[true,true,true,true,true,false,true,true,false,false,false,false,true,false,false,false,false],"id":53,"left_children":[1,3,5,7,9,-1,11,13,-1,-1,-1,-1,15,-1,-1,-1,-1],"loss_changes":[9.555662E1,8.109106E2,6.911593E2,8.875898E2,5.6069458E1,0E0,1.7948332E2,6.010415E2,0E0,0E0,0E0,0E0,2.5565157E2,0E0,0E0,0E0,0E0],"parents":[2147483647,0,0,1,1,2,2,3,3,4,4,6,6,7,7,12,12],"right_children":[2,4,6,8,10,-1,12,14,-1,-1,-1,-1,16,-1,-1,-1,-1],"split_conditions":[1.4245514E1,1.4170878E1,1.4285355E1,1.4140744E1,1.4202121E1,1.4348012E0,-2.69121E1,1.3534065E1,2.2237885E0,-1.0198722E0,-1.9604975E0,9.516733E-1,-2.0337597E1,-6.522195E-3,-1.4002647E0,-2.4527784E-1,1.1109782E-1],"split_indices":[1,1,1,1,1,0,0,1,0,0,0,0,0,0,0,0,0],"split_type":[0,0,0,0,0,0,0,0,0,0,0,0,0,0,0,0,0],"sum_hessian":[6.182E3,5.179E3,1.003E3,5.148E3,3.1E1,3.2E1,9.71E2,5.133E3,1.5E1,1.6E1,1.5E1,1.8E1,9.53E2,5.106E3,2.7E1,2.42E2,7.11E2],"tree_param":{"num_deleted":"0","num_feature":"2","num_nodes":"17","size_leaf_vector":"0"}},{"base_weights":[-2.5961164E-4,7.4204214E-2,-2.1216644E-1,4.0749658E-2,5.3182425E0,-2.456338E0,1.0289955E-1,-6.558535E-2,7.74132E-1,6.812144E0,3.4697917E0,1.548258E0,-5.67409E0,6.2982635E0,9.293842E-3,-3.3082843E-2,-8.639709E0,-6.6488743E0,1.0254995E0,-4.0849543E0,2.7453272E0,-3.8488765E0,-9.816288E0,-5.878284E0,1.301464E-1],"categories":[],"categories_nodes":[],"categories_segments":[],"categories_sizes":[],"default_left":[true,true,true,true,true,true,true,true,true,false,false,true,true,false,true,false,false,false,false,false,false,false,false,false,false],"id":54,"left_children":[1,3,5,7,9,11,13,15,17,-1,-1,19,21,-1,23,-1,-1,-1,-1,-1,-1,-1,-1,-1,-1],"loss_changes":[9.7579735E1,8.025829E2,1.1372087E3,3.5472302E2,5.644397E1,2.5601724E3,8.1821063E2,1.1069121E3,1.0815776E3,0E0,0E0,6.113724E2,7.938618E2,0E0,9.905015E2,0E0,0E0,0E0,0E0,0E0,0E0,0E0,0E0,0E0,0E0],"parents":[2147483647,0,0,1,1,2,2,3,3,4,4,5,5,6,6,7,7,8,8,11,11,12,12,14,14],"right_children":[2,4,6,8,10,12,14,16,18,-1,-1,20,22,-1,24,-1,-1,-1,-1,-1,-1,-1,-1,-1,-1],"split_conditions":[-2.3758996E0,-2.4325125E0,-1.4999184E-1,-3.390751E0,-2.3930874E0,5.820955E0,6.7759454E-1,-3.4284391E0,1.7384028E0,2.0436432E0,1.0409375E0,2.5381384E0,9.079212E0,1.8894792E0,1.0500791E0,-9.924853E-3,-2.591913E0,-1.9946624E0,3.0764985E-1,-1.2254863E0,8.235982E-1,-1.154663E0,-2.9448864E0,-1.7634853E0,3.9043922E-2],"split_indices":[0,0,0,0,0,1,0,0,1,0,0,1,1,0,0,0,0,0,0,0,0,0,0,0,0],"split_type":[0,0,0,0,0,0,0,0,0,0,0,0,0,0,0,0,0,0,0,0,0,0,0,0,0],"sum_hessian":[6.182E3,4.575E3,1.607E3,4.547E3,2.8E1,1.97E2,1.41E3,3.972E3,5.75E2,1.4E1,1.4E1,8.8E1,1.09E2,2E1,1.39E3,3.958E3,1.4E1,1.8E1,5.57E2,1.5E1,7.3E1,7.7E1,3.2E1,2.7E1,1.363E3],"tree_param":{"num_deleted":"0","num_feature":"2","num_nodes":"25","size_leaf_vector":"0"}},{"base_weights":[-1.082409E-3,-1.04365386E-1,2.0226112E-1,6.879995E-2,-2.380234E0,1.9862183E0,-1.0542725E-2,2.5941398E-2,7.4509807E0,-6.044727E0,-1.4181136E0,2.7932182E-1,3.785356E0,-5.977428E0,1.2373435E-1,-2.73355E-1,4.8935068E-1,1.551049E0,-1.3692204E1,1.50583E0,-2.9477015E0,1.6719118E0,-2.2749116E0,2.4280267E0,4.9572115E0,-4.1219664E0,-7.3925095E0,3.8392146E0,1.4570765E-2],"categories":[],"categories_nodes":[],"categories_segments":[],"categories_sizes":[],"default_left":[true,true,true,true,true,true,true,true,false,true,true,true,true,true,true,false,false,false,false,false,false,false,false,false,false,false,false,false,false],"id":55,"left_children":[1,3,5,7,9,11,13,15,-1,17,19,21,23,25,27,-1,-1,-1,-1,-1,-1,-1,-1,-1,-1,-1,-1,-1,-1],"loss_changes":[1.29876E2,1.6163743E3,7.907964E2,1.2058838E3,1.013876E3,6.8069183E2,1.4926036E3,5.259331E2,0E0,3.5065486E3,1.0375697E3,4.1285843E2,1.597478E2,7.717908E1,7.389384E2,0E0,0E0,0E0,0E0,0E0,0E0,0E0,0E0,0E0,0E0,0E0,0E0,0E0,0E0],"parents":[2147483647,0,0,1,1,2,2,3,3,4,4,5,5,6,6,7,7,9,9,10,10,11,11,12,12,13,13,14,14],"right_children":[2,4,6,8,10,12,14,16,-1,18,20,22,24,26,28,-1,-1,-1,-1,-1,-1,-1,-1,-1,-1,-1,-1,-1,-1],"split_conditions":[6.818817E0,5.71416E0,7.837062E0,5.628149E0,5.820649E0,-7.340887E0,7.899405E0,-5.2804775E0,2.2352943E0,-1.3005589E1,6.2905507E0,-8.465725E0,7.503701E0,-6.593768E0,8.189898E0,-8.200651E-2,1.4680521E-1,4.6531472E-1,-4.1076617E0,4.5174903E-1,-8.843105E-1,5.0157356E-1,-6.8247354E-1,7.2840804E-1,1.4871635E0,-1.2365899E0,-2.217753E0,1.1517644E0,4.3712296E-3],"split_indices":[1,1,1,1,1,0,1,0,0,0,1,0,1,0,1,0,0,0,0,0,0,0,0,0,0,0,0,0,0],"split_type":[0,0,0,0,0,0,0,0,0,0,0,0,0,0,0,0,0,0,0,0,0,0,0,0,0,0,0,0,0],"sum_hessian":[6.182E3,4.1E3,2.082E3,3.811E3,2.89E2,2.21E2,1.861E3,3.79E3,2.1E1,5.9E1,2.3E2,1.14E2,1.07E2,4E1,1.821E3,2.303E3,1.487E3,3E1,2.9E1,7.9E1,1.51E2,7.4E1,4E1,5.1E1,5.6E1,1.9E1,2.1E1,5.1E1,1.77E3],"tree_param":{"num_deleted":"0","num_feature":"2","num_nodes":"29","size_leaf_vector":"0"}}]},"name":"gbtree"},"learner_model_param":{"base_score":"5E-1","num_class":"0","num_feature":"2"},"objective":{"name":"reg:squarederror","reg_loss_param":{"scale_pos_weight":"1"}}},"version":[1,5,0]}