{"learner":{"attributes":{"best_iteration":"242","best_ntree_limit":"243"},"feature_names":["PC_001","PC_002","ATF_01","ATF_02","ATF_03","ATF_04","ATF_05","ATF_06","ATF_07","ATF_08","ATF_09","ATF_10","ATF_11","ATF_12","ATF_13","ATF_14","ATF_15","ATF_16","ATF_17","ATF_18","ATF_19","ATF_20","ATF_21","ATF_22","ATF_23","ATF_24","ATF_25","ATF_26","ATF_27","ATF_28","ATF_29","ATF_30","ATF_31","ATF_32","ATF_33","ATF_34","ATF_35","ATF_36","ATF_37","ATF_38","ATF_39","ATF_40","ATF_41","ATF_42","ATF_43","ATF_44","ATF_45","ATF_46","ATF_47","ATF_48","ATF_49","ATF_50"],"feature_types":["float","float","float","float","float","float","float","float","float","float","float","float","float","float","float","float","float","float","float","float","float","float","float","float","float","float","float","float","float","float","float","float","float","float","float","float","float","float","float","float","float","float","float","float","float","float","float","float","float","float","float","float"],"gradient_booster":{"model":{"gbtree_model_param":{"num_trees":"243","size_leaf_vector":"0"},"tree_info":[0,0,0,0,0,0,0,0,0,0,0,0,0,0,0,0,0,0,0,0,0,0,0,0,0,0,0,0,0,0,0,0,0,0,0,0,0,0,0,0,0,0,0,0,0,0,0,0,0,0,0,0,0,0,0,0,0,0,0,0,0,0,0,0,0,0,0,0,0,0,0,0,0,0,0,0,0,0,0,0,0,0,0,0,0,0,0,0,0,0,0,0,0,0,0,0,0,0,0,0,0,0,0,0,0,0,0,0,0,0,0,0,0,0,0,0,0,0,0,0,0,0,0,0,0,0,0,0,0,0,0,0,0,0,0,0,0,0,0,0,0,0,0,0,0,0,0,0,0,0,0,0,0,0,0,0,0,0,0,0,0,0,0,0,0,0,0,0,0,0,0,0,0,0,0,0,0,0,0,0,0,0,0,0,0,0,0,0,0,0,0,0,0,0,0,0,0,0,0,0,0,0,0,0,0,0,0,0,0,0,0,0,0,0,0,0,0,0,0,0,0,0,0,0,0,0,0,0,0,0,0,0,0,0,0,0,0,0,0,0,0,0,0],"trees":[{"base_weights":[1.518922E2,1.8015105E2,1.3554384E2,1.8847441E2,1.713762E2,9.8160934E1,1.4888129E2,1.8172461E2,1.9299165E2,1.6283469E2,1.793895E2,4.6442795E1,1.0313625E2,1.75093E2,1.4259451E2,1.6817897E2,1.49507E2,1.0598719E2,9.582116E1,1.4799074E2,1.2797895E2,1.752737E2,1.4351262E2,1.4461182E2,1.5508333E2,1.095963E2,1.3538237E2],"categories":[],"categories_nodes":[],"categories_segments":[],"categories_sizes":[],"default_left":[true,true,true,true,true,true,true,false,false,true,false,false,true,false,true,false,true,false,false,true,true,false,false,false,false,false,false],"id":0,"left_children":[1,3,5,7,9,11,13,-1,-1,15,-1,-1,17,-1,19,-1,21,-1,-1,23,25,-1,-1,-1,-1,-1,-1],"loss_changes":[2.845904E6,1.33784E5,1.94984E6,2.08E2,4.7312E4,2.6256E5,4.53248E5,0E0,0E0,1.4172E4,0E0,0E0,9.594E3,0E0,1.66084E5,0E0,6.4025E2,0E0,0E0,1.8484E4,7.2263E4,0E0,0E0,0E0,0E0,0E0,0E0],"parents":[2147483647,0,0,1,1,2,2,3,3,4,4,5,5,6,6,9,9,12,12,14,14,16,16,19,19,20,20],"right_children":[2,4,6,8,10,12,14,-1,-1,16,-1,-1,18,-1,20,-1,22,-1,-1,24,26,-1,-1,-1,-1,-1,-1],"split_conditions":[-7.482746E0,-1.4210855E-14,-1.734049E-1,-4.667823E1,-4.667823E1,1.933755E2,-7.0305824E0,1.817246E1,1.9299166E1,8.202275E2,1.793895E1,4.6442795E0,1.0305426E3,1.75093E1,1.5444442E1,1.6817898E1,-1.2700572E2,1.059872E1,9.582116E0,3.0175392E1,-5.2782608E1,1.752737E1,1.4351262E1,1.4461182E1,1.5508333E1,1.095963E1,1.3538238E1],"split_indices":[12,17,38,0,0,4,13,0,0,3,0,0,2,0,12,0,0,0,0,8,0,0,0,0,0,0,0],"split_type":[0,0,0,0,0,0,0,0,0,0,0,0,0,0,0,0,0,0,0,0,0,0,0,0,0,0,0],"sum_hessian":[6.212E3,2.273E3,3.939E3,1.156E3,1.117E3,1.038E3,2.901E3,4.8E2,6.76E2,5.51E2,5.66E2,9.2E1,9.46E2,5.56E2,2.345E3,3.85E2,1.66E2,6.71E2,2.75E2,1.706E3,6.39E2,2.6E1,1.4E2,1.17E3,5.36E2,1.88E2,4.51E2],"tree_param":{"num_deleted":"0","num_feature":"52","num_nodes":"27","size_leaf_vector":"0"}},{"base_weights":[1.367353E2,1.6218172E2,1.2201402E2,1.6667209E2,1.4905278E2,8.836874E1,1.3401796E2,1.5969312E2,1.7117369E2,1.4225655E2,1.5483218E2,4.1848454E1,9.284394E1,1.5761513E2,1.2835828E2,1.6948167E2,1.5304936E2,1.7477261E2,1.5804771E2,9.540424E1,8.627376E1,1.3320921E2,1.1521934E2,1.7900383E2,1.4873105E2,9.6905624E1,8.584727E1,1.3016298E2,1.3960388E2,9.869466E1,1.21874084E2],"categories":[],"categories_nodes":[],"categories_segments":[],"categories_sizes":[],"default_left":[true,true,true,true,true,true,true,true,true,false,false,false,true,false,true,false,true,false,false,true,false,true,true,false,false,false,false,false,false,false,false],"id":1,"left_children":[1,3,5,7,9,11,13,15,17,-1,-1,-1,19,-1,21,-1,23,-1,-1,25,-1,27,29,-1,-1,-1,-1,-1,-1,-1,-1],"loss_changes":[2.307632E6,1.0922E5,1.579428E6,2.5632E4,1.108E3,2.12422E5,3.6734E5,1.8022E4,2.0136E4,0E0,0E0,0E0,7.699E3,0E0,1.34176E5,0E0,1.9666E4,0E0,0E0,1.323E3,0E0,1.5082E4,5.8351E4,0E0,0E0,0E0,0E0,0E0,0E0,0E0,0E0],"parents":[2147483647,0,0,1,1,2,2,3,3,4,4,5,5,6,6,7,7,8,8,12,12,14,14,16,16,19,19,21,21,22,22],"right_children":[2,4,6,8,10,12,14,16,18,-1,-1,-1,20,-1,22,-1,24,-1,-1,26,-1,28,30,-1,-1,-1,-1,-1,-1,-1,-1],"split_conditions":[-7.482746E0,8.093822E2,-1.734049E-1,-4.667823E1,8.712032E2,1.933755E2,-7.0305824E0,-1.0065651E2,5.904476E1,1.4225655E1,1.5483218E1,4.1848454E0,1.0305426E3,1.5761513E1,1.5444442E1,1.6948168E1,-5.2619186E1,1.7477262E1,1.5804771E1,4.8541702E1,8.627376E0,3.0175392E1,-5.2782608E1,1.7900383E1,1.4873105E1,9.690562E0,8.584727E0,1.3016298E1,1.3960388E1,9.869466E0,1.2187408E1],"split_indices":[12,3,38,0,2,4,13,0,1,0,0,0,2,0,12,0,1,0,0,0,0,8,0,0,0,0,0,0,0,0,0],"split_type":[0,0,0,0,0,0,0,0,0,0,0,0,0,0,0,0,0,0,0,0,0,0,0,0,0,0,0,0,0,0,0],"sum_hessian":[6.212E3,2.273E3,3.939E3,1.685E3,5.88E2,1.038E3,2.901E3,6.75E2,1.01E3,2.82E2,3.06E2,9.2E1,9.46E2,5.56E2,2.345E3,2.63E2,4.12E2,7.83E2,2.27E2,6.71E2,2.75E2,1.706E3,6.39E2,5.3E1,3.59E2,5.72E2,9.9E1,1.17E3,5.36E2,1.88E2,4.51E2],"tree_param":{"num_deleted":"0","num_feature":"52","num_nodes":"31","size_leaf_vector":"0"}},{"base_weights":[1.2309535E2,1.460131E2,1.0983696E2,1.5303384E2,1.3861687E2,7.956178E1,1.206385E2,1.5352577E2,1.1337688E2,1.3141551E2,1.4538324E2,3.7708607E1,8.358795E1,1.4188191E2,1.1554334E2,1.3575139E2,1.2060673E2,8.589101E1,7.767764E1,1.199041E2,1.03731865E2,1.4948163E2,1.158898E2,8.723197E1,7.734839E1,1.15577484E2,1.23514114E2,8.8641495E1,1.0962657E2],"categories":[],"categories_nodes":[],"categories_segments":[],"categories_sizes":[],"default_left":[true,true,true,true,true,true,true,false,false,true,false,false,true,false,true,false,true,true,false,true,true,false,false,false,false,false,false,false,false],"id":2,"left_children":[1,3,5,7,9,11,13,-1,-1,15,-1,-1,17,-1,19,-1,21,23,-1,25,27,-1,-1,-1,-1,-1,-1,-1,-1],"loss_changes":[1.8718E6,9.6868E4,1.278852E6,5.166E3,3.5372E4,1.71928E5,2.97716E5,0E0,0E0,9.497E3,0E0,0E0,6.2185E3,0E0,1.08396E5,0E0,5.42225E3,9.51E2,0E0,1.2386E4,4.72125E4,0E0,0E0,0E0,0E0,0E0,0E0,0E0,0E0],"parents":[2147483647,0,0,1,1,2,2,3,3,4,4,5,5,6,6,9,9,12,12,14,14,16,16,17,17,19,19,20,20],"right_children":[2,4,6,8,10,12,14,-1,-1,16,-1,-1,18,-1,20,-1,22,24,-1,26,28,-1,-1,-1,-1,-1,-1,-1,-1],"split_conditions":[-7.482746E0,-1.4210855E-14,-1.734049E-1,1.5422635E2,-4.667823E1,1.933755E2,-7.0305824E0,1.5352577E1,1.13376875E1,8.202275E2,1.4538324E1,3.7708607E0,1.0305426E3,1.4188191E1,1.5444442E1,1.3575139E1,-1.462147E2,4.8541702E1,7.7677646E0,1.1021234E2,-5.4018444E1,1.4948163E1,1.1588981E1,8.723197E0,7.734839E0,1.1557749E1,1.2351412E1,8.86415E0,1.0962657E1],"split_indices":[12,17,38,1,0,4,13,0,0,3,0,0,2,0,12,0,0,0,0,4,0,0,0,0,0,0,0,0,0],"split_type":[0,0,0,0,0,0,0,0,0,0,0,0,0,0,0,0,0,0,0,0,0,0,0,0,0,0,0,0,0],"sum_hessian":[6.212E3,2.273E3,3.939E3,1.156E3,1.117E3,1.038E3,2.901E3,1.139E3,1.7E1,5.51E2,5.66E2,9.2E1,9.46E2,5.56E2,2.345E3,3.85E2,1.66E2,6.71E2,2.75E2,1.706E3,6.39E2,1.9E1,1.47E2,5.72E2,9.9E1,7.91E2,9.15E2,1.84E2,4.55E2],"tree_param":{"num_deleted":"0","num_feature":"52","num_nodes":"29","size_leaf_vector":"0"}},{"base_weights":[1.1081274E2,1.3144757E2,9.887507E1,1.3775352E2,1.2480407E2,7.1632545E1,1.08594604E2,1.3818666E2,1.0266906E2,1.1834663E2,1.3087056E2,3.3978294E1,7.525474E1,1.277192E2,1.0400765E2,1.3316501E2,1.4149811E2,1.2221142E2,1.08704956E2,7.73264E1,6.993803E1,1.079277E2,9.3389656E1,1.439012E2,1.2919891E2,1.4396436E2,1.3002007E2,1.3117308E2,1.0363159E2,8.316139E1,7.55342E1,1.0928352E2,9.774216E1,7.1647125E1,9.672606E1],"categories":[],"categories_nodes":[],"categories_segments":[],"categories_sizes":[],"default_left":[true,true,true,true,true,true,true,true,false,true,false,false,true,false,true,true,true,false,true,true,false,true,true,false,false,false,false,false,false,false,false,false,false,false,false],"id":3,"left_children":[1,3,5,7,9,11,13,15,-1,17,-1,-1,19,-1,21,23,25,-1,27,29,-1,31,33,-1,-1,-1,-1,-1,-1,-1,-1,-1,-1,-1,-1],"loss_changes":[1.517464E6,7.8076E4,1.035472E6,3.394E3,2.8308E4,1.391535E5,2.41292E5,1.14E2,0E0,7.2845E3,0E0,0E0,5.0225E3,0E0,8.7568E4,1.421E3,2.76E2,0E0,5.4425E3,7.46E2,0E0,1.2894E4,3.94965E4,0E0,0E0,0E0,0E0,0E0,0E0,0E0,0E0,0E0,0E0,0E0,0E0],"parents":[2147483647,0,0,1,1,2,2,3,3,4,4,5,5,6,6,7,7,9,9,12,12,14,14,15,15,16,16,18,18,19,19,21,21,22,22],"right_children":[2,4,6,8,10,12,14,16,-1,18,-1,-1,20,-1,22,24,26,-1,28,30,-1,32,34,-1,-1,-1,-1,-1,-1,-1,-1,-1,-1,-1,-1],"split_conditions":[-7.482746E0,-1.4210855E-14,-1.734049E-1,1.5422635E2,-4.667823E1,1.933755E2,-7.0305824E0,-4.667823E1,1.0266906E1,8.202275E2,1.3087056E1,3.3978295E0,1.0305426E3,1.277192E1,1.5444442E1,-1.4169534E2,5.904476E1,1.2221142E1,-1.2700572E2,-5.2712685E1,6.9938025E0,1.4065099E2,-8.948049E1,1.43901205E1,1.2919891E1,1.4396436E1,1.3002007E1,1.3117309E1,1.0363159E1,8.316139E0,7.5534205E0,1.0928352E1,9.774216E0,7.1647124E0,9.672606E0],"split_indices":[12,17,38,1,0,4,13,0,0,3,0,0,2,0,12,0,1,0,0,1,0,1,0,0,0,0,0,0,0,0,0,0,0,0,0],"split_type":[0,0,0,0,0,0,0,0,0,0,0,0,0,0,0,0,0,0,0,0,0,0,0,0,0,0,0,0,0,0,0,0,0,0,0],"sum_hessian":[6.212E3,2.273E3,3.939E3,1.156E3,1.117E3,1.038E3,2.901E3,1.139E3,1.7E1,5.51E2,5.66E2,9.2E1,9.46E2,5.56E2,2.345E3,4.69E2,6.7E2,3.85E2,1.66E2,6.71E2,2.75E2,1.706E3,6.39E2,1.17E2,3.52E2,5.42E2,1.28E2,2.6E1,1.4E2,1.47E2,5.24E2,1.497E3,2.09E2,8.8E1,5.51E2],"tree_param":{"num_deleted":"0","num_feature":"52","num_nodes":"35","size_leaf_vector":"0"}},{"base_weights":[9.97621E1,1.18352844E2,8.9006996E1,1.2749006E2,1.143502E2,6.449457E1,9.775248E1,1.0823291E2,1.19424034E2,3.0617E1,6.775341E1,1.1497021E2,9.362289E1,1.1756089E2,1.0315085E2,1.2134283E2,1.1020132E2,6.961738E1,6.2969563E1,1.0828373E2,1.1888808E2,9.714705E1,8.4076996E1,1.2649433E2,9.9722435E1,1.2504683E2,1.12659294E2,7.080406E1,6.2121487E1,6.642973E1,5.8192337E1,1.14786064E2,9.982732E1,9.458384E1,1.0255558E2,7.701457E1,9.3907875E1],"categories":[],"categories_nodes":[],"categories_segments":[],"categories_sizes":[],"default_left":[true,true,true,false,true,true,true,true,true,false,true,true,true,false,true,true,false,true,true,true,false,true,true,false,false,false,false,false,false,false,false,false,false,false,false,false,false],"id":4,"left_children":[1,3,5,-1,7,9,11,13,15,-1,17,19,21,-1,23,25,-1,27,29,31,-1,33,35,-1,-1,-1,-1,-1,-1,-1,-1,-1,-1,-1,-1,-1,-1],"loss_changes":[1.231728E6,6.8588E4,8.38326E5,0E0,3.6456E4,1.12633E5,1.95574E5,2.2574E4,1.847E3,0E0,4.0605E3,1.718E3,7.0754E4,0E0,2.5961E4,8.491E3,0E0,1.57925E3,6.96625E2,4.7325E2,0E0,1.3965E4,3.72025E4,0E0,0E0,0E0,0E0,0E0,0E0,0E0,0E0,0E0,0E0,0E0,0E0,0E0,0E0],"parents":[2147483647,0,0,1,1,2,2,4,4,5,5,6,6,7,7,8,8,10,10,11,11,12,12,14,14,15,15,17,17,18,18,19,19,21,21,22,22],"right_children":[2,4,6,-1,8,10,12,14,16,-1,18,20,22,-1,24,26,-1,28,30,32,-1,34,36,-1,-1,-1,-1,-1,-1,-1,-1,-1,-1,-1,-1,-1,-1],"split_conditions":[-7.482746E0,-3.838664E0,-1.734049E-1,1.2749006E1,-4.667823E1,1.933755E2,-7.0305824E0,-1.0065651E2,6.1005653E1,3.0617E0,1.0305426E3,-6.1295128E1,1.5444442E1,1.1756089E1,-5.2619186E1,7.693572E2,1.1020132E1,4.8541702E1,-4.3980026E1,1.1941647E3,1.1888808E1,3.0175392E1,2.357114E1,1.2649433E1,9.972243E0,1.25046835E1,1.1265929E1,7.080406E0,6.2121487E0,6.6429734E0,5.819234E0,1.1478606E1,9.982732E0,9.4583845E0,1.0255558E1,7.7014575E0,9.390788E0],"split_indices":[12,17,38,0,0,4,13,0,1,0,2,0,12,0,1,3,0,0,0,2,0,8,0,0,0,0,0,0,0,0,0,0,0,0,0,0,0],"split_type":[0,0,0,0,0,0,0,0,0,0,0,0,0,0,0,0,0,0,0,0,0,0,0,0,0,0,0,0,0,0,0,0,0,0,0,0,0],"sum_hessian":[6.212E3,2.273E3,3.939E3,6.83E2,1.59E3,1.038E3,2.901E3,7.31E2,8.59E2,9.2E1,9.46E2,5.56E2,2.345E3,2.5E2,4.81E2,7.01E2,1.58E2,6.71E2,2.75E2,2.16E2,3.4E2,1.706E3,6.39E2,5.7E1,4.24E2,4.82E2,2.19E2,5.72E2,9.9E1,1.52E2,1.23E2,1.15E2,1.01E2,1.17E3,5.36E2,3.77E2,2.62E2],"tree_param":{"num_deleted":"0","num_feature":"52","num_nodes":"37","size_leaf_vector":"0"}},{"base_weights":[8.9815E1,1.0655358E2,8.013142E1,1.147597E2,1.0295866E2,5.807285E1,8.800141E1,1.12856804E2,1.2652024E2,9.745659E1,1.0752209E2,2.7588223E1,6.1005264E1,1.03533066E2,8.427629E1,1.1429653E2,8.3819824E1,1.05459724E2,9.26068E1,1.092424E2,9.9250496E1,6.2675423E1,5.671776E1,9.755427E1,1.0703414E2,8.920947E1,7.873107E1,1.14062996E2,8.9321625E1,1.1256804E2,1.0144457E2,6.793928E1,6.1072132E1,5.748573E1,4.2516533E1,9.9290924E1,7.42306E1,9.311149E1,8.339227E1,6.56403E1,8.053187E1],"categories":[],"categories_nodes":[],"categories_segments":[],"categories_sizes":[],"default_left":[true,true,true,true,true,true,true,true,false,true,true,false,true,true,true,false,false,false,true,true,false,true,true,true,false,true,true,false,false,false,false,false,false,false,false,false,false,false,false,false,false],"id":5,"left_children":[1,3,5,7,9,11,13,15,-1,17,19,-1,21,23,25,-1,-1,-1,27,29,-1,31,33,35,-1,37,39,-1,-1,-1,-1,-1,-1,-1,-1,-1,-1,-1,-1,-1,-1],"loss_changes":[9.98524E5,5.5268E4,6.78878E5,1.029E3,2.947E4,9.119675E4,1.59176E5,1.5419E4,0E0,1.8645E4,1.395E3,0E0,3.2265E3,1.2175E3,5.7152E4,0E0,0E0,0E0,2.2518E4,6.785E3,0E0,1.52225E3,5.66E2,1.41925E3,0E0,2.0246E4,2.09515E4,0E0,0E0,0E0,0E0,0E0,0E0,0E0,0E0,0E0,0E0,0E0,0E0,0E0,0E0],"parents":[2147483647,0,0,1,1,2,2,3,3,4,4,5,5,6,6,7,7,9,9,10,10,12,12,13,13,14,14,18,18,19,19,21,21,22,22,23,23,25,25,26,26],"right_children":[2,4,6,8,10,12,14,16,-1,18,20,-1,22,24,26,-1,-1,-1,28,30,-1,32,34,36,-1,38,40,-1,-1,-1,-1,-1,-1,-1,-1,-1,-1,-1,-1,-1,-1],"split_conditions":[-7.482746E0,-3.838664E0,-1.734049E-1,5.3649673E1,-4.667823E1,1.933755E2,-7.0305824E0,4.9274506E1,1.2652024E1,-9.7839584E1,6.1005653E1,2.7588222E0,1.0305426E3,-6.1295128E1,2.2016654E0,1.1429653E1,8.381983E0,1.0545973E1,-5.2619186E1,7.693572E2,9.92505E0,-5.2712685E1,1.14358246E2,-6.650852E1,1.0703414E1,9.953961E0,-9.151811E1,1.14063E1,8.932162E0,1.1256804E1,1.0144458E1,6.7939277E0,6.1072135E0,5.748573E0,4.251653E0,9.929092E0,7.42306E0,9.311149E0,8.339228E0,6.5640297E0,8.053187E0],"split_indices":[12,17,38,0,0,4,13,0,0,0,1,0,2,0,12,0,0,0,1,3,0,1,1,0,0,1,0,0,0,0,0,0,0,0,0,0,0,0,0,0,0],"split_type":[0,0,0,0,0,0,0,0,0,0,0,0,0,0,0,0,0,0,0,0,0,0,0,0,0,0,0,0,0,0,0,0,0,0,0,0,0,0,0,0,0],"sum_hessian":[6.212E3,2.273E3,3.939E3,6.83E2,1.59E3,1.038E3,2.901E3,5.97E2,8.6E1,7.31E2,8.59E2,9.2E1,9.46E2,5.56E2,2.345E3,5.66E2,3.1E1,2.68E2,4.63E2,7.01E2,1.58E2,6.71E2,2.75E2,2.16E2,3.4E2,1.233E3,1.112E3,5.7E1,4.06E2,4.82E2,2.19E2,1.47E2,5.24E2,2.58E2,1.7E1,1.98E2,1.8E1,7.29E2,5.04E2,1.39E2,9.73E2],"tree_param":{"num_deleted":"0","num_feature":"52","num_nodes":"41","size_leaf_vector":"0"}},{"base_weights":[8.086258E1,9.593986E1,7.21401E1,9.777813E1,8.2661514E1,5.229026E1,7.922205E1,1.03331184E2,9.480176E1,7.802371E1,9.101818E1,2.4859064E1,5.492892E1,9.3230125E1,7.586241E1,9.638911E1,1.0592188E2,9.057119E1,9.7892746E1,1.0163247E2,7.478725E1,2.8166061E1,2.2377842E1,5.642708E1,5.1082214E1,9.054902E1,1.0056924E2,7.881823E1,6.786016E1,9.951689E1,5.478628E1,9.282957E1,7.911884E1,9.9904495E1,8.933067E1,6.877945E1,8.025591E1,2.4360195E1,1.6163918E1,5.7422947E1,4.9437813E1,5.413874E1,4.68989E1,8.9227905E1,1.10334366E2,7.397914E1,8.143483E1,6.164829E1,7.653023E1],"categories":[],"categories_nodes":[],"categories_segments":[],"categories_sizes":[],"default_left":[true,true,true,true,true,true,true,true,true,true,false,true,true,true,true,true,false,true,true,false,true,false,true,true,true,false,true,true,true,false,false,false,false,false,false,false,false,false,false,false,false,false,false,false,false,false,false,false,false],"id":6,"left_children":[1,3,5,7,9,11,13,15,17,19,-1,21,23,25,27,29,-1,31,33,-1,35,-1,37,39,41,-1,43,45,47,-1,-1,-1,-1,-1,-1,-1,-1,-1,-1,-1,-1,-1,-1,-1,-1,-1,-1,-1,-1],"loss_changes":[8.10156E5,4.7424E4,5.49726E5,2.3128E4,3.866625E3,7.3839E4,1.295E5,2.092E3,8.251E3,6.840375E3,0E0,1.3280469E2,2.575E3,1.8535E3,5.0142E4,2.0182375E4,0E0,7.2945E3,3.8905E3,0E0,6.5375E1,0E0,3.2069922E2,1.8385E3,9.9E2,0E0,5.66E3,1.559E4,2.97505E4,0E0,0E0,0E0,0E0,0E0,0E0,0E0,0E0,0E0,0E0,0E0,0E0,0E0,0E0,0E0,0E0,0E0,0E0,0E0,0E0],"parents":[2147483647,0,0,1,1,2,2,3,3,4,4,5,5,6,6,7,7,8,8,9,9,11,11,12,12,13,13,14,14,15,15,17,17,18,18,20,20,22,22,23,23,24,24,26,26,27,27,28,28],"right_children":[2,4,6,8,10,12,14,16,18,20,-1,22,24,26,28,30,-1,32,34,-1,36,-1,38,40,42,-1,44,46,48,-1,-1,-1,-1,-1,-1,-1,-1,-1,-1,-1,-1,-1,-1,-1,-1,-1,-1,-1,-1],"split_conditions":[-7.482746E0,8.202275E2,-1.734049E-1,-3.838664E0,-2.80629E1,1.933755E2,-7.0305824E0,-7.590196E1,-4.667823E1,-1.462147E2,9.101818E0,-3.0121101E1,1.0305426E3,3.0661804E1,1.5444442E1,-8.1101654E1,1.0592189E1,1.580855E1,6.1005653E1,1.0163247E1,-7.590196E1,2.8166063E0,4.8780872E1,4.8841988E1,-4.3980026E1,9.054902E0,1.1941647E3,-4.6458633E1,2.357114E1,9.95169E0,5.478628E0,9.282957E0,7.9118843E0,9.99045E0,8.933067E0,6.877945E0,8.025592E0,2.4360197E0,1.6163918E0,5.742295E0,4.9437814E0,5.413874E0,4.68989E0,8.922791E0,1.1033437E1,7.3979144E0,8.143483E0,6.164829E0,7.653023E0],"split_indices":[12,3,38,17,0,4,13,0,0,0,0,1,2,0,12,0,0,1,1,0,0,0,0,0,0,0,2,0,0,0,0,0,0,0,0,0,0,0,0,0,0,0,0,0,0,0,0,0,0],"split_type":[0,0,0,0,0,0,0,0,0,0,0,0,0,0,0,0,0,0,0,0,0,0,0,0,0,0,0,0,0,0,0,0,0,0,0,0,0,0,0,0,0,0,0,0,0,0,0,0,0],"sum_hessian":[6.212E3,2.273E3,3.939E3,1.991E3,2.82E2,1.038E3,2.901E3,6.83E2,1.308E3,1.88E2,9.4E1,9.2E1,9.46E2,5.56E2,2.345E3,1.96E2,4.87E2,5.65E2,7.43E2,1.9E1,1.69E2,3.5E1,5.7E1,6.71E2,2.75E2,4.17E2,1.39E2,1.706E3,6.39E2,1.81E2,1.5E1,4.66E2,9.9E1,5.93E2,1.5E2,8.7E1,8.2E1,4.1E1,1.6E1,5.81E2,9E1,1.52E2,1.23E2,6.9E1,7E1,6.09E2,1.097E3,3.77E2,2.62E2],"tree_param":{"num_deleted":"0","num_feature":"52","num_nodes":"49","size_leaf_vector":"0"}},{"base_weights":[7.280567E1,8.638822E1,6.494792E1,8.803151E1,7.45161E1,4.7087856E1,7.131996E1,9.303612E1,8.5349174E1,7.0353966E1,8.201217E1,2.2447018E1,4.945798E1,8.39592E1,6.828869E1,9.147533E1,1.0466589E2,8.154445E1,8.812891E1,9.197739E1,6.7396194E1,2.530126E1,2.0109371E1,5.0800274E1,4.60106E1,8.4583534E1,6.0564693E1,7.094551E1,6.1095734E1,9.2653275E1,7.46004E1,8.804909E1,7.75486E1,8.993087E1,8.0456764E1,6.197966E1,7.232702E1,2.193575E1,1.41724415E1,5.5552505E1,4.9363834E1,4.8760254E1,4.2246834E1,8.195965E1,9.1996796E1,7.213744E1,6.210525E1,5.0075874E1,6.526597E1],"categories":[],"categories_nodes":[],"categories_segments":[],"categories_sizes":[],"default_left":[true,true,true,true,true,true,true,true,true,true,false,true,true,true,true,true,false,true,true,false,true,false,true,true,true,true,false,true,true,false,false,false,false,false,false,false,false,false,false,false,false,false,false,false,false,false,false,false,false],"id":7,"left_children":[1,3,5,7,9,11,13,15,17,19,-1,21,23,25,27,29,-1,31,33,-1,35,-1,37,39,41,43,-1,45,47,-1,-1,-1,-1,-1,-1,-1,-1,-1,-1,-1,-1,-1,-1,-1,-1,-1,-1,-1,-1],"loss_changes":[6.5749E5,3.7804E4,4.45033E5,1.8801E4,3.0595E3,5.956925E4,1.05451E5,2.841E3,6.657E3,5.8890625E3,0E0,1.1172266E2,2.04475E3,3.013E3,4.0499E4,5.2335E3,0E0,7.88325E3,3.0505E3,0E0,5.75625E1,0E0,2.9633008E2,1.845E3,7.964375E2,2.9635E3,0E0,1.3506E4,2.614325E4,0E0,0E0,0E0,0E0,0E0,0E0,0E0,0E0,0E0,0E0,0E0,0E0,0E0,0E0,0E0,0E0,0E0,0E0,0E0,0E0],"parents":[2147483647,0,0,1,1,2,2,3,3,4,4,5,5,6,6,7,7,8,8,9,9,11,11,12,12,13,13,14,14,15,15,17,17,18,18,20,20,22,22,23,23,24,24,25,25,27,27,28,28],"right_children":[2,4,6,8,10,12,14,16,18,20,-1,22,24,26,28,30,-1,32,34,-1,36,-1,38,40,42,44,-1,46,48,-1,-1,-1,-1,-1,-1,-1,-1,-1,-1,-1,-1,-1,-1,-1,-1,-1,-1,-1,-1],"split_conditions":[-7.482746E0,8.202275E2,-1.734049E-1,-3.838664E0,-2.80629E1,1.933755E2,-7.0305824E0,5.942742E1,-4.667823E1,-1.462147E2,8.201217E0,-2.7594818E1,1.0305426E3,1.3965692E2,1.5444442E1,4.9274506E1,1.046659E1,-1.0008742E2,6.1005653E1,9.197739E0,-7.590196E1,2.530126E0,4.8780872E1,-5.2712685E1,-4.3980026E1,3.0661804E1,6.0564694E0,1.4065099E2,-5.5368538E1,9.265327E0,7.4600406E0,8.804909E0,7.75486E0,8.993087E0,8.045676E0,6.197966E0,7.232702E0,2.193575E0,1.4172442E0,5.5552506E0,4.9363837E0,4.8760257E0,4.2246833E0,8.195965E0,9.199679E0,7.2137446E0,6.210525E0,5.0075874E0,6.526597E0],"split_indices":[12,3,38,17,0,4,13,0,0,0,0,1,2,1,12,0,0,0,1,0,0,0,0,1,0,0,0,1,0,0,0,0,0,0,0,0,0,0,0,0,0,0,0,0,0,0,0,0,0],"split_type":[0,0,0,0,0,0,0,0,0,0,0,0,0,0,0,0,0,0,0,0,0,0,0,0,0,0,0,0,0,0,0,0,0,0,0,0,0,0,0,0,0,0,0,0,0,0,0,0,0],"sum_hessian":[6.212E3,2.273E3,3.939E3,1.991E3,2.82E2,1.038E3,2.901E3,6.83E2,1.308E3,1.88E2,9.4E1,9.2E1,9.46E2,5.56E2,2.345E3,6.1E2,7.3E1,5.65E2,7.43E2,1.9E1,1.69E2,3.7E1,5.5E1,6.71E2,2.75E2,5.39E2,1.7E1,1.706E3,6.39E2,5.66E2,4.4E1,2.07E2,3.58E2,5.93E2,1.5E2,8.7E1,8.2E1,4E1,1.5E1,1.47E2,5.24E2,1.52E2,1.23E2,4.07E2,1.32E2,1.497E3,2.09E2,1.79E2,4.6E2],"tree_param":{"num_deleted":"0","num_feature":"52","num_nodes":"49","size_leaf_vector":"0"}},{"base_weights":[6.555179E1,7.7789696E1,5.847195E1,8.172634E1,7.364613E1,4.240384E1,6.420465E1,8.20708E1,5.537027E1,6.969112E1,7.7299545E1,2.0268349E1,4.453287E1,6.85779E1,5.71136E1,8.06109E1,8.992664E1,7.497959E1,6.5875984E1,8.190322E1,7.3337906E1,2.296785E1,1.8243341E1,5.0231495E1,4.3770252E1,6.535029E1,7.5605385E1,5.1338196E1,5.9761826E1,8.158746E1,5.763799E1,1.0433792E2,7.563843E1,7.7549614E1,6.0291153E1,7.678534E1,8.7998E1,7.437989E1,5.8815002E1,1.9832815E1,1.3243268E1,4.0561695E1,4.5260555E1,6.87976E1,6.023763E1,7.647508E1,6.08947E1,5.498642E1,3.309283E1,4.361839E1,6.1658333E1],"categories":[],"categories_nodes":[],"categories_segments":[],"categories_sizes":[],"default_left":[true,true,true,true,true,true,true,true,false,true,true,true,true,true,true,true,true,false,true,true,true,false,true,false,true,true,true,true,true,false,false,false,false,false,false,false,false,false,false,false,false,false,false,false,false,false,false,false,false,false,false],"id":8,"left_children":[1,3,5,7,9,11,13,15,-1,17,19,21,23,25,27,29,31,-1,33,35,37,-1,39,-1,41,43,45,47,49,-1,-1,-1,-1,-1,-1,-1,-1,-1,-1,-1,-1,-1,-1,-1,-1,-1,-1,-1,-1,-1,-1],"loss_changes":[5.3376E5,3.1075E4,3.60206E5,5.9595E3,1.07675E4,4.8062625E4,8.6076E4,5.825E3,0E0,6.097E3,4.4255E3,8.9375E1,1.917E3,3.5661E4,1.395475E4,1.70815E4,2.7113E4,0E0,1.6578125E4,1.22825E3,4.225E2,0E0,1.9830469E2,0E0,2.195125E3,1.7605E4,2.46925E3,2.1943375E4,2.048675E4,0E0,0E0,0E0,0E0,0E0,0E0,0E0,0E0,0E0,0E0,0E0,0E0,0E0,0E0,0E0,0E0,0E0,0E0,0E0,0E0,0E0,0E0],"parents":[2147483647,0,0,1,1,2,2,3,3,4,4,5,5,6,6,7,7,9,9,10,10,11,11,12,12,13,13,14,14,15,15,16,16,18,18,19,19,20,20,22,22,24,24,25,25,26,26,27,27,28,28],"right_children":[2,4,6,8,10,12,14,16,-1,18,20,22,24,26,28,30,32,-1,34,36,38,-1,40,-1,42,44,46,48,50,-1,-1,-1,-1,-1,-1,-1,-1,-1,-1,-1,-1,-1,-1,-1,-1,-1,-1,-1,-1,-1,-1],"split_conditions":[-7.482746E0,-1.4210855E-14,-1.734049E-1,1.5422635E2,-4.7667847E1,1.933755E2,2.2016654E0,5.3649673E1,5.537027E0,-4.666902E1,-2.6802559E1,-3.0121101E1,-1.2750351E2,9.6864026E2,-5.5368538E1,4.9274506E1,5.104458E1,7.497959E0,-9.7839584E1,-5.38852E1,8.5868904E1,2.296785E0,4.8780872E1,5.0231495E0,-6.067528E1,9.953961E0,1.14358246E2,1.4787671E2,5.017669E2,8.158747E0,5.763799E0,1.0433792E1,7.563843E0,7.7549615E0,6.029115E0,7.678534E0,8.7998E0,7.437989E0,5.8815002E0,1.9832815E0,1.3243269E0,4.0561695E0,4.526056E0,6.8797603E0,6.023763E0,7.647508E0,6.08947E0,5.498642E0,3.309283E0,4.361839E0,6.1658335E0],"split_indices":[12,17,38,1,0,4,12,0,0,1,1,1,0,2,0,0,1,0,0,1,0,0,0,0,0,1,1,4,2,0,0,0,0,0,0,0,0,0,0,0,0,0,0,0,0,0,0,0,0,0,0],"split_type":[0,0,0,0,0,0,0,0,0,0,0,0,0,0,0,0,0,0,0,0,0,0,0,0,0,0,0,0,0,0,0,0,0,0,0,0,0,0,0,0,0,0,0,0,0,0,0,0,0,0,0],"sum_hessian":[6.212E3,2.273E3,3.939E3,1.156E3,1.117E3,1.038E3,2.901E3,1.139E3,1.7E1,5.46E2,5.71E2,9.2E1,9.46E2,1.789E3,1.112E3,9.7E2,1.69E2,2.21E2,3.25E2,2.55E2,3.16E2,3.5E1,5.7E1,1.04E2,8.42E2,1.233E3,5.56E2,3.56E2,7.56E2,9.28E2,4.2E1,8.1E1,8.8E1,1.01E2,2.24E2,1.46E2,1.09E2,2.91E2,2.5E1,4.1E1,1.6E1,2.76E2,5.66E2,7.29E2,5.04E2,5.21E2,3.5E1,2.95E2,6.1E1,8.2E1,6.74E2],"tree_param":{"num_deleted":"0","num_feature":"52","num_nodes":"51","size_leaf_vector":"0"}},{"base_weights":[5.9021347E1,7.004966E1,5.2641296E1,7.145445E1,5.9913994E1,3.8181942E1,5.7800026E1,7.5629654E1,6.921817E1,6.897401E1,5.7167023E1,1.8301775E1,4.0093952E1,6.1734997E1,5.1419613E1,7.0422585E1,7.852284E1,6.9531364E1,4.6697563E1,4.7006065E1,6.1229702E1,2.0635214E1,1.6391552E1,4.1257523E1,3.7115643E1,5.8825714E1,6.806951E1,4.1724903E1,5.276031E1,7.194047E1,4.6524796E1,8.265779E1,7.4855194E1,6.677608E1,7.148525E1,5.3240246E1,2.5171734E1,1.7860767E1,1.1602219E1,4.214811E1,3.5108295E1,3.8099274E1,2.8112764E1,6.1927265E1,5.4225792E1,6.3046673E1,7.099631E1,6.2391285E1,2.8022856E1,4.0461304E1,5.4152557E1],"categories":[],"categories_nodes":[],"categories_segments":[],"categories_sizes":[],"default_left":[true,true,true,true,true,true,true,true,true,false,true,true,true,true,true,true,true,true,false,true,false,false,true,true,true,true,true,true,true,false,false,false,false,false,false,false,false,false,false,false,false,false,false,false,false,false,false,false,false,false,false],"id":9,"left_children":[1,3,5,7,9,11,13,15,17,-1,19,21,23,25,27,29,31,33,-1,35,-1,-1,37,39,41,43,45,47,49,-1,-1,-1,-1,-1,-1,-1,-1,-1,-1,-1,-1,-1,-1,-1,-1,-1,-1,-1,-1,-1,-1],"loss_changes":[4.33466E5,2.8097E4,2.91685E5,1.3364E4,3.1001875E3,3.875975E4,6.9685E4,4.77475E3,5.986E3,0E0,6.327375E3,7.629297E1,1.7505E3,2.8983E4,1.2265E4,5.866625E3,3.49E2,2.166E3,0E0,7.915953E3,0E0,0E0,1.8682227E2,2.200375E3,1.3730625E3,1.42475E4,3.71225E3,3.789567E4,1.4487E4,0E0,0E0,0E0,0E0,0E0,0E0,0E0,0E0,0E0,0E0,0E0,0E0,0E0,0E0,0E0,0E0,0E0,0E0,0E0,0E0,0E0,0E0],"parents":[2147483647,0,0,1,1,2,2,3,3,4,4,5,5,6,6,7,7,8,8,10,10,11,11,12,12,13,13,14,14,15,15,16,16,17,17,19,19,22,22,23,23,24,24,25,25,26,26,27,27,28,28],"right_children":[2,4,6,8,10,12,14,16,18,-1,20,22,24,26,28,30,32,34,-1,36,-1,-1,38,40,42,44,46,48,50,-1,-1,-1,-1,-1,-1,-1,-1,-1,-1,-1,-1,-1,-1,-1,-1,-1,-1,-1,-1,-1,-1],"split_conditions":[-7.482746E0,8.202275E2,-1.734049E-1,-3.838664E0,-5.6387375E1,1.933755E2,2.2016654E0,-6.2396988E1,1.5694763E2,6.897401E0,-4.0722626E1,-2.7594818E1,1.0305426E3,9.6864026E2,-9.151811E1,-6.650852E1,-2.6802559E1,-4.667823E1,4.6697564E0,-4.460298E1,6.12297E0,2.0635214E0,4.8780872E1,4.8841988E1,2.8429424E1,9.953961E0,-6.2396988E1,7.547038E2,5.017669E2,7.194047E0,4.6524796E0,8.2657795E0,7.4855194E0,6.677608E0,7.148525E0,5.3240247E0,2.5171735E0,1.7860768E0,1.1602219E0,4.214811E0,3.5108297E0,3.8099275E0,2.8112764E0,6.1927266E0,5.4225793E0,6.3046675E0,7.099631E0,6.2391286E0,2.8022857E0,4.0461307E0,5.415256E0],"split_indices":[12,3,38,17,1,4,12,0,1,0,1,1,2,2,0,0,1,0,0,1,0,0,0,0,1,1,0,2,2,0,0,0,0,0,0,0,0,0,0,0,0,0,0,0,0,0,0,0,0,0,0],"split_type":[0,0,0,0,0,0,0,0,0,0,0,0,0,0,0,0,0,0,0,0,0,0,0,0,0,0,0,0,0,0,0,0,0,0,0,0,0,0,0,0,0,0,0,0,0,0,0,0,0,0,0],"sum_hessian":[6.212E3,2.273E3,3.939E3,1.991E3,2.82E2,1.038E3,2.901E3,6.83E2,1.308E3,6E1,2.22E2,9.2E1,9.46E2,1.789E3,1.112E3,2.53E2,4.3E2,1.288E3,2E1,6.7E1,1.55E2,3.7E1,5.5E1,6.71E2,2.75E2,1.233E3,5.56E2,1.39E2,9.73E2,2.36E2,1.7E1,1.92E2,2.38E2,5.49E2,7.39E2,5.1E1,1.6E1,4E1,1.5E1,5.81E2,9E1,2.45E2,3E1,7.29E2,5.04E2,2.13E2,3.43E2,5.4E1,8.5E1,1.02E2,8.71E2],"tree_param":{"num_deleted":"0","num_feature":"52","num_nodes":"51","size_leaf_vector":"0"}},{"base_weights":[5.314011E1,6.307414E1,4.7393127E1,6.4332146E1,5.399631E1,3.4382378E1,5.2035023E1,6.810703E1,6.2310482E1,5.066165E1,6.0062145E1,1.6525467E1,3.6099705E1,6.1286625E1,4.9816277E1,6.233537E1,7.0297424E1,6.258896E1,4.225018E1,6.67458E1,4.7686596E1,6.632878E1,5.2250923E1,1.8625996E1,1.480501E1,4.1142952E1,3.542872E1,5.912484E1,6.7303345E1,4.4757435E1,5.2429913E1,6.5137024E1,2.6570581E1,6.878909E1,7.780635E1,6.3781624E1,5.8870182E1,4.0148075E1,5.1361576E1,3.2418594E1,6.053425E1,1.4273649E1,2.057013E1,1.6118252E1,1.0514511E1,3.0207085E1,4.2769547E1,3.250893E1,3.6792656E1,6.2643196E1,5.534169E1,5.7207405E1,7.630915E1,4.800799E1,3.5656334E1,4.6972763E1,5.6618088E1],"categories":[],"categories_nodes":[],"categories_segments":[],"categories_sizes":[],"default_left":[true,true,true,true,true,true,true,true,true,true,true,true,true,true,true,true,true,true,false,false,true,false,true,true,true,true,true,true,true,true,true,false,false,false,false,false,false,false,false,false,false,false,false,false,false,false,false,false,false,false,false,false,false,false,false,false,false],"id":10,"left_children":[1,3,5,7,9,11,13,15,17,19,21,23,25,27,29,31,33,35,-1,-1,37,-1,39,41,43,45,47,49,51,53,55,-1,-1,-1,-1,-1,-1,-1,-1,-1,-1,-1,-1,-1,-1,-1,-1,-1,-1,-1,-1,-1,-1,-1,-1,-1,-1],"loss_changes":[3.51714E5,2.2495E4,2.36166E5,1.0958E4,2.6815625E3,3.1265625E4,5.6516E4,4.26525E3,4.668E3,5.8609688E3,1.1845312E3,6.0333984E1,1.747E3,3.265625E3,2.8672E4,1.8008812E4,1.7475E2,1.962E3,0E0,0E0,2.4536875E3,0E0,5.758617E3,2.7927734E1,1.4605371E2,5.758125E2,2.161125E3,2.096875E3,8.363625E3,2.2132625E4,3.25605E4,0E0,0E0,0E0,0E0,0E0,0E0,0E0,0E0,0E0,0E0,0E0,0E0,0E0,0E0,0E0,0E0,0E0,0E0,0E0,0E0,0E0,0E0,0E0,0E0,0E0,0E0],"parents":[2147483647,0,0,1,1,2,2,3,3,4,4,5,5,6,6,7,7,8,8,9,9,10,10,11,11,12,12,13,13,14,14,15,15,16,16,17,17,20,20,22,22,23,23,24,24,25,25,26,26,27,27,28,28,29,29,30,30],"right_children":[2,4,6,8,10,12,14,16,18,20,22,24,26,28,30,32,34,36,-1,-1,38,-1,40,42,44,46,48,50,52,54,56,-1,-1,-1,-1,-1,-1,-1,-1,-1,-1,-1,-1,-1,-1,-1,-1,-1,-1,-1,-1,-1,-1,-1,-1,-1,-1],"split_conditions":[-7.482746E0,8.202275E2,-1.734049E-1,-3.838664E0,-2.80629E1,1.933755E2,-7.0305824E0,-7.590196E1,1.5694763E2,-1.2700572E2,-2.4896948E1,-2.7594818E1,-1.2750351E2,3.0661804E1,-4.6458633E1,-8.1101654E1,5.942742E1,1.2266874E1,4.225018E0,6.6745796E0,-8.595207E1,6.6328783E0,-3.0656266E0,-6.1471252E1,4.8780872E1,-9.7201935E1,-6.067528E1,1.1941647E3,1.1941647E3,9.6662524E2,1.1682745E2,6.5137024E0,2.6570582E0,6.8789096E0,7.7806354E0,6.3781624E0,5.887018E0,4.0148077E0,5.1361575E0,3.2418594E0,6.053425E0,1.427365E0,2.057013E0,1.6118252E0,1.0514511E0,3.0207086E0,4.2769547E0,3.250893E0,3.6792657E0,6.26432E0,5.534169E0,5.720741E0,7.630915E0,4.8007994E0,3.5656335E0,4.6972766E0,5.661809E0],"split_indices":[12,3,38,17,0,4,13,0,1,0,1,1,0,0,0,0,0,1,0,0,0,0,1,1,0,1,0,2,2,2,4,0,0,0,0,0,0,0,0,0,0,0,0,0,0,0,0,0,0,0,0,0,0,0,0,0,0],"split_type":[0,0,0,0,0,0,0,0,0,0,0,0,0,0,0,0,0,0,0,0,0,0,0,0,0,0,0,0,0,0,0,0,0,0,0,0,0,0,0,0,0,0,0,0,0,0,0,0,0,0,0,0,0,0,0,0,0],"sum_hessian":[6.212E3,2.273E3,3.939E3,1.991E3,2.82E2,1.038E3,2.901E3,6.83E2,1.308E3,1.88E2,9.4E1,9.2E1,9.46E2,5.56E2,2.345E3,1.96E2,4.87E2,1.288E3,2E1,2.6E1,1.62E2,4.8E1,4.6E1,3.7E1,5.5E1,1.04E2,8.42E2,4.17E2,1.39E2,8.05E2,1.54E3,1.81E2,1.5E1,4.14E2,7.3E1,9.63E2,3.25E2,5.7E1,1.05E2,1.5E1,3.1E1,1.4E1,2.3E1,4E1,1.5E1,1.6E1,8.8E1,2.76E2,5.66E2,2.08E2,2.09E2,6.9E1,7E1,5.9E2,2.15E2,6.74E2,8.66E2],"tree_param":{"num_deleted":"0","num_feature":"52","num_nodes":"57","size_leaf_vector":"0"}},{"base_weights":[4.784804E1,5.679842E1,4.2670124E1,5.791917E1,4.8708885E1,3.0963749E1,4.6846638E1,5.497246E1,6.0132065E1,5.6328552E1,4.6406155E1,1.4939023E1,3.2504757E1,5.111661E1,4.2777084E1,6.0824738E1,5.2102127E1,8.079118E1,5.9628487E1,3.7290833E1,5.0082024E1,1.6973652E1,1.3418582E1,3.709816E1,3.1894068E1,5.2318398E1,3.887194E1,3.7738884E1,4.533204E1,6.811055E1,5.464355E1,6.983515E1,4.9333485E1,5.848598E1,6.726583E1,4.282037E1,1.818338E1,1.3418142E1,1.9448679E1,1.4562549E1,9.802982E0,2.7364067E1,3.8540646E1,2.9269772E1,3.311988E1,4.7649677E1,5.503481E1,3.4726017E1,4.673183E1,3.985493E1,2.3216002E1,3.065096E1,4.6613586E1],"categories":[],"categories_nodes":[],"categories_segments":[],"categories_sizes":[],"default_left":[true,true,true,true,true,true,true,true,true,false,true,true,true,true,true,true,true,false,true,true,false,true,true,true,true,true,true,true,true,false,false,false,false,false,false,false,false,false,false,false,false,false,false,false,false,false,false,false,false,false,false,false,false],"id":11,"left_children":[1,3,5,7,9,11,13,15,17,-1,19,21,23,25,27,29,31,-1,33,35,-1,37,39,41,43,45,47,49,51,-1,-1,-1,-1,-1,-1,-1,-1,-1,-1,-1,-1,-1,-1,-1,-1,-1,-1,-1,-1,-1,-1,-1,-1],"loss_changes":[2.85513E5,1.77955E4,1.911835E5,9.684E3,2.3515625E3,2.5171812E4,4.82405E4,1.1378E4,6.90725E3,0E0,5.6044062E3,5.9935547E1,1.47325E3,1.872975E4,1.7495E4,8.843E3,2.54235E4,0E0,5.699E3,6.4059453E3,0E0,5.5833984E1,9.713867E1,4.1971875E2,1.742375E3,1.3636E4,2.6134375E3,1.4686125E4,1.71035E4,0E0,0E0,0E0,0E0,0E0,0E0,0E0,0E0,0E0,0E0,0E0,0E0,0E0,0E0,0E0,0E0,0E0,0E0,0E0,0E0,0E0,0E0,0E0,0E0],"parents":[2147483647,0,0,1,1,2,2,3,3,4,4,5,5,6,6,7,7,8,8,10,10,11,11,12,12,13,13,14,14,15,15,16,16,18,18,19,19,21,21,22,22,23,23,24,24,25,25,26,26,27,27,28,28],"right_children":[2,4,6,8,10,12,14,16,18,-1,20,22,24,26,28,30,32,-1,34,36,-1,38,40,42,44,46,48,50,52,-1,-1,-1,-1,-1,-1,-1,-1,-1,-1,-1,-1,-1,-1,-1,-1,-1,-1,-1,-1,-1,-1,-1,-1],"split_conditions":[-7.482746E0,8.202275E2,-1.734049E-1,-4.667823E1,-5.6387375E1,1.933755E2,3.456094E-1,-1.0951782E2,-4.4096397E1,5.6328554E0,-4.0722626E1,-3.0121101E1,-1.2750351E2,1.4065099E2,-4.6458633E1,1.720326E2,-5.2619186E1,8.079119E0,3.3100665E2,-4.460298E1,5.0082026E0,-5.125692E1,4.8780872E1,-9.7201935E1,-6.067528E1,-5.7671444E1,1.5172702E2,1.4787671E2,5.017669E2,6.811055E0,5.464355E0,6.9835153E0,4.9333487E0,5.848598E0,6.726583E0,4.2820373E0,1.818338E0,1.3418143E0,1.944868E0,1.4562548E0,9.802982E-1,2.7364068E0,3.8540647E0,2.9269772E0,3.311988E0,4.764968E0,5.503481E0,3.4726017E0,4.673183E0,3.9854932E0,2.3216002E0,3.0650961E0,4.661359E0],"split_indices":[12,3,38,0,1,4,12,0,0,0,1,1,0,1,0,9,1,0,4,1,0,0,0,1,0,0,1,4,2,0,0,0,0,0,0,0,0,0,0,0,0,0,0,0,0,0,0,0,0,0,0,0,0],"split_type":[0,0,0,0,0,0,0,0,0,0,0,0,0,0,0,0,0,0,0,0,0,0,0,0,0,0,0,0,0,0,0,0,0,0,0,0,0,0,0,0,0,0,0,0,0,0,0,0,0,0,0,0,0],"sum_hessian":[6.212E3,2.273E3,3.939E3,1.991E3,2.82E2,1.038E3,2.901E3,8.65E2,1.126E3,6E1,2.22E2,9.2E1,9.46E2,1.41E3,1.491E3,2.78E2,5.87E2,2.3E1,1.103E3,6.7E1,1.55E2,3.5E1,5.7E1,1.04E2,8.42E2,1.281E3,1.29E2,5.07E2,9.84E2,1.23E2,1.55E2,7.6E1,5.11E2,9.67E2,1.36E2,5.1E1,1.6E1,1.7E1,1.8E1,4.1E1,1.6E1,1.6E1,8.8E1,2.76E2,5.66E2,4.78E2,8.03E2,8.8E1,4.1E1,4.41E2,6.6E1,8.1E1,9.03E2],"tree_param":{"num_deleted":"0","num_feature":"52","num_nodes":"53","size_leaf_vector":"0"}},{"base_weights":[4.308136E1,5.114566E1,3.8416054E1,5.5406513E1,4.9281693E1,2.788523E1,4.2173157E1,5.0509407E1,5.7269882E1,4.6715572E1,5.2133E1,1.3506662E1,2.9267828E1,5.0027054E1,4.0290466E1,5.296198E1,1.9454573E1,5.846963E1,4.9270386E1,5.1764046E1,4.377914E1,5.35002E1,4.644714E1,1.5367583E1,1.2118734E1,2.966283E1,2.3354538E1,5.084004E1,3.68491E1,3.613529E1,4.243763E1,5.903452E1,4.750742E1,5.68842E1,7.16991E1,3.241381E1,5.2905712E1,6.6284256E1,5.0516884E1,7.7138275E1,4.2617764E1,5.0887978E1,6.1684895E1,3.1463928E1,4.7857975E1,1.2409546E1,1.8289532E1,1.3140967E1,8.880348E0,2.8836277E1,4.5546684E1,2.5522451E1,1.6396402E1,4.9159863E1,6.605565E1,2.8250248E1,4.3055954E1,3.9845375E1,3.052176E1,4.6826893E1,3.7471558E1],"categories":[],"categories_nodes":[],"categories_segments":[],"categories_sizes":[],"default_left":[true,true,true,true,true,true,true,true,true,true,true,true,true,true,true,true,false,true,true,true,true,true,true,true,true,true,true,true,true,true,true,false,false,false,false,false,false,false,false,false,false,false,false,false,false,false,false,false,false,false,false,false,false,false,false,false,false,false,false,false,false],"id":12,"left_children":[1,3,5,7,9,11,13,15,17,19,21,23,25,27,29,31,-1,33,35,37,39,41,43,45,47,49,51,53,55,57,59,-1,-1,-1,-1,-1,-1,-1,-1,-1,-1,-1,-1,-1,-1,-1,-1,-1,-1,-1,-1,-1,-1,-1,-1,-1,-1,-1,-1,-1,-1],"loss_changes":[2.31784E5,1.533E4,1.54712E5,3.34875E3,9.2055E3,2.0259812E4,4.08945E4,1.3974E4,1.80275E3,1.0290125E4,3.3065E3,5.3966797E1,1.51925E3,4.094E3,1.939725E4,3.2238125E3,0E0,4.709625E3,2.5746719E3,2.192875E3,1.7710938E4,9.560875E3,1.7072812E3,8.419141E1,7.5305664E1,1.02925E4,5.469375E2,1.0097625E4,7.0504297E2,1.557025E4,3.1835E4,0E0,0E0,0E0,0E0,0E0,0E0,0E0,0E0,0E0,0E0,0E0,0E0,0E0,0E0,0E0,0E0,0E0,0E0,0E0,0E0,0E0,0E0,0E0,0E0,0E0,0E0,0E0,0E0,0E0,0E0],"parents":[2147483647,0,0,1,1,2,2,3,3,4,4,5,5,6,6,7,7,8,8,9,9,10,10,11,11,12,12,13,13,14,14,15,15,17,17,18,18,19,19,20,20,21,21,22,22,23,23,24,24,25,25,26,26,27,27,28,28,29,29,30,30],"right_children":[2,4,6,8,10,12,14,16,18,20,22,24,26,28,30,32,-1,34,36,38,40,42,44,46,48,50,52,54,56,58,60,-1,-1,-1,-1,-1,-1,-1,-1,-1,-1,-1,-1,-1,-1,-1,-1,-1,-1,-1,-1,-1,-1,-1,-1,-1,-1,-1,-1,-1,-1],"split_conditions":[-7.482746E0,-3.838664E0,-1.734049E-1,-7.590196E1,-2.7287119E1,1.933755E2,-7.0305824E0,-8.1101654E1,8.085686E1,-4.7326912E1,6.1005653E1,-3.0121101E1,1.14358246E2,1.14358246E2,-4.6458633E1,-1.2601124E2,1.9454573E0,5.942742E1,1.02004906E2,-1.0147795E2,-1.4339833E2,8.295914E0,8.3515526E1,-4.563975E1,4.8780872E1,5.7044594E1,1.0305426E3,1.8147661E1,1.1941647E3,9.4293195E2,7.9300375E0,5.903452E0,4.750742E0,5.6884203E0,7.16991E0,3.2413812E0,5.290571E0,6.6284256E0,5.0516887E0,7.7138276E0,4.2617764E0,5.088798E0,6.1684895E0,3.1463928E0,4.7857976E0,1.2409546E0,1.8289531E0,1.3140968E0,8.880348E-1,2.8836277E0,4.5546684E0,2.5522451E0,1.6396402E0,4.9159865E0,6.605565E0,2.8250248E0,4.3055954E0,3.9845376E0,3.0521762E0,4.682689E0,3.747156E0],"split_indices":[12,17,38,0,0,4,13,0,1,1,1,1,1,1,0,0,0,0,1,1,0,1,1,1,0,1,2,1,2,2,1,0,0,0,0,0,0,0,0,0,0,0,0,0,0,0,0,0,0,0,0,0,0,0,0,0,0,0,0,0,0],"split_type":[0,0,0,0,0,0,0,0,0,0,0,0,0,0,0,0,0,0,0,0,0,0,0,0,0,0,0,0,0,0,0,0,0,0,0,0,0,0,0,0,0,0,0,0,0,0,0,0,0,0,0,0,0,0,0,0,0,0,0,0,0],"sum_hessian":[6.212E3,2.273E3,3.939E3,6.83E2,1.59E3,1.038E3,2.901E3,1.96E2,4.87E2,8.46E2,7.44E2,9.2E1,9.46E2,5.56E2,2.345E3,1.81E2,1.5E1,4.18E2,6.9E1,3.05E2,5.41E2,5.93E2,1.51E2,3.5E1,5.7E1,8.83E2,6.3E1,5.21E2,3.5E1,8.05E2,1.54E3,8.1E1,1E2,3.78E2,4E1,1.4E1,5.5E1,2E1,2.85E2,1.6E1,5.25E2,4.55E2,1.38E2,1.5E1,1.36E2,2E1,1.5E1,4.1E1,1.6E1,8.42E2,4.1E1,4.6E1,1.7E1,4.73E2,4.8E1,1.7E1,1.8E1,4.81E2,3.24E2,8.13E2,7.27E2],"tree_param":{"num_deleted":"0","num_feature":"52","num_nodes":"61","size_leaf_vector":"0"}},{"base_weights":[3.8793804E1,4.6064884E1,3.45874E1,4.702944E1,3.9112705E1,2.5112972E1,3.7967598E1,4.9915558E1,4.5485416E1,5.2684258E1,3.7936405E1,1.2212684E1,2.6353325E1,4.0798187E1,3.3381145E1,4.878391E1,5.712026E1,4.675464E1,4.181774E1,2.9989016E1,4.1542767E1,1.3836391E1,1.0892797E1,2.7300478E1,2.3951733E1,4.1733994E1,2.9893837E1,2.9609974E1,3.579351E1,4.9842476E1,2.8502924E1,6.5294334E1,4.7647995E1,4.5690044E1,6.230999E1,2.5597137E1,4.453521E1,3.64572E1,1.9992723E1,1.0750193E1,1.5822829E1,8.171711E0,1.2177521E1,2.960432E1,2.5121971E1,2.676049E1,2.0292929E1,3.700909E1,4.4142895E1,1.8143095E1,3.4509254E1,1.9958601E1,3.1229654E1,3.722747E1,2.483593E1],"categories":[],"categories_nodes":[],"categories_segments":[],"categories_sizes":[],"default_left":[true,true,true,true,true,true,true,true,true,false,true,true,true,true,true,true,true,true,true,true,false,true,true,true,true,true,true,true,true,false,false,false,false,false,false,false,false,false,false,false,false,false,false,false,false,false,false,false,false,false,false,false,false,false,false],"id":13,"left_children":[1,3,5,7,9,11,13,15,17,-1,19,21,23,25,27,29,31,33,35,37,-1,39,41,43,45,47,49,51,53,-1,-1,-1,-1,-1,-1,-1,-1,-1,-1,-1,-1,-1,-1,-1,-1,-1,-1,-1,-1,-1,-1,-1,-1,-1,-1],"loss_changes":[1.88433E5,1.34095E4,1.252265E5,6.606E3,2.51925E3,1.6303125E4,3.6313E4,2.790125E3,4.13825E3,0E0,6.3207188E3,4.8592773E1,1.50025E3,1.7018E4,9.065625E3,1.141775E4,3.625E3,1.3117E4,1.4111375E4,4.8316953E3,0E0,6.2862305E1,9.625586E1,2.629E3,2.2933281E3,1.710075E4,7.2379062E3,6.2548438E3,9.6658125E3,0E0,0E0,0E0,0E0,0E0,0E0,0E0,0E0,0E0,0E0,0E0,0E0,0E0,0E0,0E0,0E0,0E0,0E0,0E0,0E0,0E0,0E0,0E0,0E0,0E0,0E0],"parents":[2147483647,0,0,1,1,2,2,3,3,4,4,5,5,6,6,7,7,8,8,10,10,11,11,12,12,13,13,14,14,15,15,16,16,17,17,18,18,19,19,21,21,22,22,23,23,24,24,25,25,26,26,27,27,28,28],"right_children":[2,4,6,8,10,12,14,16,18,-1,20,22,24,26,28,30,32,34,36,38,-1,40,42,44,46,48,50,52,54,-1,-1,-1,-1,-1,-1,-1,-1,-1,-1,-1,-1,-1,-1,-1,-1,-1,-1,-1,-1,-1,-1,-1,-1,-1,-1],"split_conditions":[-7.482746E0,8.202275E2,-1.734049E-1,-3.838664E0,-1.462147E2,1.933755E2,2.2016654E0,5.3649673E1,1.2266874E1,5.268426E0,-7.659179E1,-2.7594818E1,1.0305426E3,1.4238577E2,1.3643965E1,4.9274506E1,2.7539654E1,1.0623458E1,2.1901226E1,-9.093664E1,4.154277E0,-5.125692E1,2.9806132E0,-2.4588879E1,-4.3980026E1,-6.1295128E1,1.4903674E2,-9.380109E1,6.0033203E1,4.9842477E0,2.8502924E0,6.5294337E0,4.7647996E0,4.5690045E0,6.230999E0,2.5597138E0,4.4535213E0,3.64572E0,1.9992723E0,1.0750192E0,1.5822829E0,8.171711E-1,1.2177521E0,2.960432E0,2.5121973E0,2.676049E0,2.0292928E0,3.7009091E0,4.4142895E0,1.8143095E0,3.4509256E0,1.9958601E0,3.1229656E0,3.722747E0,2.483593E0],"split_indices":[12,3,38,17,0,4,12,0,1,0,0,1,2,1,31,0,1,1,1,0,0,0,1,1,0,0,1,0,1,0,0,0,0,0,0,0,0,0,0,0,0,0,0,0,0,0,0,0,0,0,0,0,0,0,0],"split_type":[0,0,0,0,0,0,0,0,0,0,0,0,0,0,0,0,0,0,0,0,0,0,0,0,0,0,0,0,0,0,0,0,0,0,0,0,0,0,0,0,0,0,0,0,0,0,0,0,0,0,0,0,0,0,0],"sum_hessian":[6.212E3,2.273E3,3.939E3,1.991E3,2.82E2,1.038E3,2.901E3,6.83E2,1.308E3,1.9E1,2.63E2,9.2E1,9.46E2,1.789E3,1.112E3,5.97E2,8.6E1,9.63E2,3.45E2,8.5E1,1.78E2,3.7E1,5.5E1,6.71E2,2.75E2,1.645E3,1.44E2,4.39E2,6.73E2,5.66E2,3.1E1,4.3E1,4.3E1,9.05E2,5.8E1,5.1E1,2.94E2,5E1,3.5E1,1.7E1,2E1,2E1,3.5E1,3.2E2,3.51E2,1.52E2,1.23E2,5.61E2,1.084E3,4.2E1,1.02E2,6.5E1,3.74E2,5.93E2,8E1],"tree_param":{"num_deleted":"0","num_feature":"52","num_nodes":"55","size_leaf_vector":"0"}},{"base_weights":[3.492916E1,4.1481266E1,3.1138702E1,3.8871227E1,4.3614876E1,2.2615986E1,3.417935E1,4.368768E1,3.6124687E1,6.1023544E1,4.317815E1,1.1041869E1,2.3728739E1,4.0942844E1,3.2558956E1,5.0629787E1,3.9624702E1,5.226278E1,3.3693146E1,4.431221E1,3.7986317E1,1.261731E1,9.873632E0,2.4623945E1,2.162606E1,4.166473E1,2.9338188E1,3.593361E1,3.0376049E1,5.764475E1,4.307659E1,3.5641163E1,4.441464E1,6.0571247E1,4.7791393E1,2.9686527E1,3.8075336E1,4.5827034E1,3.9035217E1,3.9305817E1,1.9529732E1,9.962301E0,1.5313427E1,8.5531E0,1.2332978E1,2.63661E1,1.9932245E1,1.7318735E1,2.567085E1,4.0157795E1,5.5391716E1,2.1734238E1,3.4997818E1,2.9194803E1,3.8704945E1,3.2347588E1,2.7130735E1],"categories":[],"categories_nodes":[],"categories_segments":[],"categories_sizes":[],"default_left":[true,true,true,true,true,true,true,true,true,false,true,true,true,true,true,true,true,true,true,true,true,true,true,true,true,true,true,true,true,false,false,false,false,false,false,false,false,false,false,false,false,false,false,false,false,false,false,false,false,false,false,false,false,false,false,false,false],"id":14,"left_children":[1,3,5,7,9,11,13,15,17,-1,19,21,23,25,27,29,31,33,35,37,39,41,43,45,47,49,51,53,55,-1,-1,-1,-1,-1,-1,-1,-1,-1,-1,-1,-1,-1,-1,-1,-1,-1,-1,-1,-1,-1,-1,-1,-1,-1,-1,-1,-1],"loss_changes":[1.530115E5,1.0968E4,1.013305E5,1.207375E4,6.8155E3,1.3119375E4,3.04715E4,8.429875E3,2.42555E4,0E0,5.47625E3,4.6586914E1,1.2500625E3,3.44375E3,1.61905E4,4.5639062E3,2.95825E3,2.63E2,9.035625E3,6.141E3,4.711875E3,1.0513867E2,8.287842E1,4.8445625E3,4.6252812E3,8.5735E3,7.886289E2,1.597675E4,8.27825E3,0E0,0E0,0E0,0E0,0E0,0E0,0E0,0E0,0E0,0E0,0E0,0E0,0E0,0E0,0E0,0E0,0E0,0E0,0E0,0E0,0E0,0E0,0E0,0E0,0E0,0E0,0E0,0E0],"parents":[2147483647,0,0,1,1,2,2,3,3,4,4,5,5,6,6,7,7,8,8,10,10,11,11,12,12,13,13,14,14,15,15,16,16,17,17,18,18,19,19,20,20,21,21,22,22,23,23,24,24,25,25,26,26,27,27,28,28],"right_children":[2,4,6,8,10,12,14,16,18,-1,20,22,24,26,28,30,32,34,36,38,40,42,44,46,48,50,52,54,56,-1,-1,-1,-1,-1,-1,-1,-1,-1,-1,-1,-1,-1,-1,-1,-1,-1,-1,-1,-1,-1,-1,-1,-1,-1,-1,-1,-1],"split_conditions":[-7.482746E0,-4.667823E1,-1.734049E-1,-1.0065651E2,-4.4096397E1,1.933755E2,-7.0305824E0,-1.4012489E-1,-5.2619186E1,6.1023545E0,8.093822E2,-3.0121101E1,1.9817502E0,1.14358246E2,4.071153E-2,-1.462147E2,-4.115097E1,-6.666785E1,8.316295E2,5.904476E1,6.751726E1,-4.563975E1,3.53414E1,1.9115608E1,-3.59442E1,1.8147661E1,1.1941647E3,-5.7671444E1,7.503438E0,5.764475E0,4.307659E0,3.5641162E0,4.441464E0,6.0571246E0,4.7791395E0,2.9686527E0,3.8075337E0,4.5827036E0,3.9035218E0,3.9305818E0,1.9529732E0,9.962301E-1,1.5313427E0,8.5530996E-1,1.2332978E0,2.63661E0,1.9932245E0,1.7318735E0,2.567085E0,4.0157795E0,5.5391717E0,2.1734238E0,3.4997818E0,2.9194803E0,3.8704946E0,3.2347589E0,2.7130735E0],"split_indices":[12,0,38,0,0,4,13,37,1,0,3,1,1,1,7,0,1,0,2,1,0,1,1,0,0,1,2,0,1,0,0,0,0,0,0,0,0,0,0,0,0,0,0,0,0,0,0,0,0,0,0,0,0,0,0,0,0],"split_type":[0,0,0,0,0,0,0,0,0,0,0,0,0,0,0,0,0,0,0,0,0,0,0,0,0,0,0,0,0,0,0,0,0,0,0,0,0,0,0,0,0,0,0,0,0,0,0,0,0,0,0,0,0,0,0,0,0],"sum_hessian":[6.212E3,2.273E3,3.939E3,1.031E3,1.242E3,1.038E3,2.901E3,3.69E2,6.62E2,2.7E1,1.215E3,9.2E1,9.46E2,5.56E2,2.345E3,1.32E2,2.37E2,8.4E1,5.78E2,9.91E2,2.24E2,3.5E1,5.7E1,6.56E2,2.9E2,5.21E2,3.5E1,9.15E2,1.43E3,6.5E1,6.7E1,1.34E2,1.03E2,2.5E1,5.9E1,3.06E2,2.72E2,7.64E2,2.27E2,2.08E2,1.6E1,2E1,1.5E1,4E1,1.7E1,4.75E2,1.81E2,1.43E2,1.47E2,4.73E2,4.8E1,1.7E1,1.8E1,2.7E2,6.45E2,8.84E2,5.46E2],"tree_param":{"num_deleted":"0","num_feature":"52","num_nodes":"57","size_leaf_vector":"0"}},{"base_weights":[3.1451967E1,3.7357838E1,2.8035368E1,3.945761E1,3.5151398E1,2.0367424E1,3.0771055E1,3.8362522E1,4.5505863E1,3.7228443E1,3.2432987E1,9.987319E0,2.1365294E1,3.3841675E1,2.7846512E1,3.91388E1,2.0428314E1,5.6703854E1,3.3913532E1,3.302808E1,3.9963013E1,1.1438373E1,3.320612E1,1.1425789E1,8.92228E0,2.2245255E1,1.9145369E1,3.5927822E1,2.9422405E1,2.413385E1,2.9732996E1,3.808053E1,4.530556E1,8.850283E0,3.1077784E1,3.7346348E1,2.0546272E1,3.476987E1,2.1185766E1,2.7475128E1,4.0626205E1,4.6435673E1,3.255162E1,8.585913E0,1.3514841E1,9.91927E0,6.3537617E0,2.3072168E1,1.728458E1,3.1647276E1,1.8356537E1,3.0585835E1,3.9863617E1,1.9770401E1,3.2202175E1,2.5887697E1,1.2203492E1,1.706149E1,3.0849512E1],"categories":[],"categories_nodes":[],"categories_segments":[],"categories_sizes":[],"default_left":[true,true,true,true,true,true,true,true,true,true,true,true,true,true,true,true,true,false,true,true,true,false,true,true,true,true,true,true,true,true,true,false,false,false,false,false,false,false,false,false,false,false,false,false,false,false,false,false,false,false,false,false,false,false,false,false,false,false,false],"id":15,"left_children":[1,3,5,7,9,11,13,15,17,19,21,23,25,27,29,31,33,-1,35,37,39,-1,41,43,45,47,49,51,53,55,57,-1,-1,-1,-1,-1,-1,-1,-1,-1,-1,-1,-1,-1,-1,-1,-1,-1,-1,-1,-1,-1,-1,-1,-1,-1,-1,-1,-1],"loss_changes":[1.243185E5,9.1485E3,8.202275E4,5.917625E3,5.105125E3,1.0548594E4,2.511825E4,1.29275E4,2.0404406E4,5.8819375E3,7.6061562E3,4.0535156E1,1.4240312E3,1.195125E4,9.732125E3,4.4355E3,5.0268477E3,0E0,3.224875E3,4.4819688E3,1.9895E3,0E0,2.5926562E3,9.7538086E1,8.550098E1,2.3577812E3,2.1409531E3,1.8838625E4,1.1651625E4,1.03135E4,1.34094375E4,0E0,0E0,0E0,0E0,0E0,0E0,0E0,0E0,0E0,0E0,0E0,0E0,0E0,0E0,0E0,0E0,0E0,0E0,0E0,0E0,0E0,0E0,0E0,0E0,0E0,0E0,0E0,0E0],"parents":[2147483647,0,0,1,1,2,2,3,3,4,4,5,5,6,6,7,7,8,8,9,9,10,10,11,11,12,12,13,13,14,14,15,15,16,16,18,18,19,19,20,20,22,22,23,23,24,24,25,25,26,26,27,27,28,28,29,29,30,30],"right_children":[2,4,6,8,10,12,14,16,18,20,22,24,26,28,30,32,34,-1,36,38,40,-1,42,44,46,48,50,52,54,56,58,-1,-1,-1,-1,-1,-1,-1,-1,-1,-1,-1,-1,-1,-1,-1,-1,-1,-1,-1,-1,-1,-1,-1,-1,-1,-1,-1,-1],"split_conditions":[-7.482746E0,-1.4210855E-14,-1.734049E-1,5.3649673E1,-2.4867693E1,1.933755E2,3.456094E-1,4.9274506E1,5.4174995E1,-7.4142136E1,-1.9489258E1,-3.0121101E1,1.0305426E3,9.023811E0,-4.6458633E1,2.1901226E1,5.5832943E1,5.6703854E0,1.4918762E2,-8.1101654E1,-8.837352E1,1.1438373E0,-1.1951137E2,-5.125692E1,4.8197655E1,4.8541702E1,-7.7529655E1,-6.1295128E1,2.1901226E1,1.4787671E2,5.017669E2,3.8080528E0,4.530556E0,8.850283E-1,3.1077783E0,3.7346349E0,2.0546272E0,3.4769871E0,2.1185768E0,2.7475128E0,4.0626206E0,4.6435676E0,3.255162E0,8.5859126E-1,1.3514842E0,9.9192697E-1,6.3537616E-1,2.307217E0,1.728458E0,3.1647277E0,1.8356537E0,3.0585835E0,3.9863617E0,1.9770402E0,3.2202175E0,2.5887697E0,1.2203492E0,1.706149E0,3.0849512E0],"split_indices":[12,17,38,0,1,4,12,0,1,0,1,1,2,1,0,1,1,0,1,0,1,0,0,0,0,0,1,0,1,4,2,0,0,0,0,0,0,0,0,0,0,0,0,0,0,0,0,0,0,0,0,0,0,0,0,0,0,0,0],"split_type":[0,0,0,0,0,0,0,0,0,0,0,0,0,0,0,0,0,0,0,0,0,0,0,0,0,0,0,0,0,0,0,0,0,0,0,0,0,0,0,0,0,0,0,0,0,0,0,0,0,0,0,0,0,0,0,0,0,0,0],"sum_hessian":[6.212E3,2.273E3,3.939E3,1.156E3,1.117E3,1.038E3,2.901E3,9.85E2,1.71E2,6.26E2,4.91E2,9.2E1,9.46E2,1.41E3,1.491E3,9.43E2,4.2E1,8.5E1,8.6E1,2.52E2,3.74E2,1.8E1,4.73E2,3.5E1,5.7E1,6.71E2,2.75E2,9.53E2,4.57E2,5.07E2,9.84E2,8.11E2,1.32E2,2.1E1,2.1E1,6.7E1,1.9E1,2.18E2,3.4E1,2.1E1,3.53E2,1.9E1,4.54E2,1.7E1,1.8E1,3.9E1,1.8E1,5.72E2,9.9E1,1.4E1,2.61E2,4.08E2,5.45E2,1.04E2,3.53E2,4.41E2,6.6E1,8.1E1,9.03E2],"tree_param":{"num_deleted":"0","num_feature":"52","num_nodes":"59","size_leaf_vector":"0"}},{"base_weights":[2.8319477E1,3.3641945E1,2.5240389E1,3.1628178E1,3.584289E1,1.834307E1,2.7701132E1,3.9044228E1,3.0453447E1,4.8222927E1,3.451507E1,9.029849E0,1.9238304E1,3.3471115E1,2.6319384E1,4.4692513E1,2.313755E1,2.7615133E1,3.3565575E1,5.714858E1,4.270731E1,1.6881084E1,3.4865593E1,1.031499E1,8.037215E0,1.9570581E1,1.4348106E1,3.1922215E1,3.908442E1,2.917025E1,2.4476118E1,3.573512E1,5.5583744E1,3.602267E1,2.6507603E1,3.470497E1,2.8328535E1,4.7476955E1,2.99987E1,3.6399605E1,3.1311825E1,7.1550536E0,1.19273405E1,6.8132586E0,1.0310608E1,1.8804468E1,3.4481617E1,9.139261E0,1.6508053E1,3.36238E1,2.6670488E1,3.0457354E1,4.718636E1,2.342579E1,3.1534922E1,2.6269072E1,2.1530523E1],"categories":[],"categories_nodes":[],"categories_segments":[],"categories_sizes":[],"default_left":[true,true,true,true,true,true,true,true,true,true,true,true,true,true,true,true,false,true,true,false,true,false,true,true,true,true,true,true,true,true,true,false,false,false,false,false,false,false,false,false,false,false,false,false,false,false,false,false,false,false,false,false,false,false,false,false,false],"id":16,"left_children":[1,3,5,7,9,11,13,15,17,19,21,23,25,27,29,31,-1,33,35,-1,37,-1,39,41,43,45,47,49,51,53,55,-1,-1,-1,-1,-1,-1,-1,-1,-1,-1,-1,-1,-1,-1,-1,-1,-1,-1,-1,-1,-1,-1,-1,-1,-1,-1],"loss_changes":[1.009715E5,8.945E3,6.636375E4,9.230375E3,1.607275E4,8.488969E3,2.225575E4,1.3341203E4,8.233125E3,2.5808438E3,5.4565E3,3.5733887E1,1.258E3,3.595125E3,1.1614E4,9.427875E3,0E0,4.147875E3,1.9406875E3,0E0,2.637E3,0E0,4.08275E3,1.0317139E2,8.835571E1,9.450031E3,5.6918164E2,3.0530625E3,6.6707656E3,1.17040625E4,6.992E3,0E0,0E0,0E0,0E0,0E0,0E0,0E0,0E0,0E0,0E0,0E0,0E0,0E0,0E0,0E0,0E0,0E0,0E0,0E0,0E0,0E0,0E0,0E0,0E0,0E0,0E0],"parents":[2147483647,0,0,1,1,2,2,3,3,4,4,5,5,6,6,7,7,8,8,9,9,10,10,11,11,12,12,13,13,14,14,15,15,17,17,18,18,20,20,22,22,23,23,24,24,25,25,26,26,27,27,28,28,29,29,30,30],"right_children":[2,4,6,8,10,12,14,16,18,20,22,24,26,28,30,32,-1,34,36,-1,38,-1,40,42,44,46,48,50,52,54,56,-1,-1,-1,-1,-1,-1,-1,-1,-1,-1,-1,-1,-1,-1,-1,-1,-1,-1,-1,-1,-1,-1,-1,-1,-1,-1],"split_conditions":[-7.482746E0,-2.7287119E1,-1.734049E-1,-1.462147E2,-1.0171371E1,1.933755E2,-7.0305824E0,8.884486E2,8.316295E2,-3.838664E0,-5.8619423E0,-2.873605E1,1.14358246E2,4.1598244E1,4.071153E-2,-1.66123E2,2.313755E0,-5.6387375E1,1.2266874E1,5.714858E0,3.4254289E0,1.6881084E0,2.7246866E1,-6.1471252E1,3.53414E1,5.7044594E1,-9.291503E0,1.1791673E1,1.1941647E3,-5.7671444E1,7.503438E0,3.5735118E0,5.5583744E0,3.602267E0,2.6507604E0,3.4704971E0,2.8328536E0,4.7476954E0,2.99987E0,3.6399605E0,3.1311824E0,7.1550536E-1,1.1927341E0,6.8132585E-1,1.0310608E0,1.8804468E0,3.4481618E0,9.139261E-1,1.6508054E0,3.3623798E0,2.667049E0,3.0457354E0,4.718636E0,2.3425791E0,3.1534922E0,2.626907E0,2.1530523E0],"split_indices":[12,0,38,0,0,4,13,2,2,17,0,1,1,0,7,0,0,1,1,0,1,0,1,1,1,1,0,0,2,0,1,0,0,0,0,0,0,0,0,0,0,0,0,0,0,0,0,0,0,0,0,0,0,0,0,0,0],"split_type":[0,0,0,0,0,0,0,0,0,0,0,0,0,0,0,0,0,0,0,0,0,0,0,0,0,0,0,0,0,0,0,0,0,0,0,0,0,0,0,0,0,0,0,0,0,0,0,0,0,0,0,0,0,0,0,0,0],"sum_hessian":[6.212E3,2.273E3,3.939E3,1.195E3,1.078E3,1.038E3,2.901E3,1.59E2,1.036E3,1.01E2,9.77E2,9.2E1,9.46E2,5.56E2,2.345E3,1.16E2,4.3E1,5.47E2,4.89E2,3.5E1,6.6E1,2E1,9.57E2,3.6E1,5.6E1,8.83E2,6.3E1,4.41E2,1.15E2,9.15E2,1.43E3,6.6E1,5E1,6E1,4.87E2,3.97E2,9.2E1,4.6E1,2E1,6.62E2,2.95E2,1.4E1,2.2E1,3.9E1,1.7E1,8.42E2,4.1E1,2E1,4.3E1,3.29E2,1.12E2,5.8E1,5.7E1,2.7E2,6.45E2,8.84E2,5.46E2],"tree_param":{"num_deleted":"0","num_feature":"52","num_nodes":"57","size_leaf_vector":"0"}},{"base_weights":[2.5500648E1,3.0297949E1,2.2725382E1,3.1450949E1,2.6946066E1,1.6519844E1,2.4939312E1,3.1735077E1,1.625705E1,2.5873917E1,3.730074E1,8.165796E0,1.7322807E1,2.6739449E1,2.1258512E1,2.8648485E1,3.2833626E1,7.8737497E0,2.2805704E1,2.6774467E1,1.2597522E1,4.8390812E1,2.9113096E1,5.6837487E0,8.533707E0,1.8172222E1,1.5345529E1,2.8904268E1,2.3934187E1,2.6360184E1,1.8318022E1,3.0720787E1,5.8081927E0,4.439689E1,3.2391228E1,2.4498955E1,2.87171E1,-5.2238846E-1,2.729168E1,1.1295181E1,7.2697134E0,1.9697823E1,1.4082346E1,1.1319657E1,1.9158907E1,2.6949953E1,3.3245827E1,2.0042027E1,2.56163E1,1.629629E1,3.221382E1,2.007881E0,1.9927822E1],"categories":[],"categories_nodes":[],"categories_segments":[],"categories_sizes":[],"default_left":[true,true,true,true,true,true,true,true,true,true,true,true,true,true,true,true,true,false,false,true,true,false,false,false,true,true,true,true,true,true,true,false,false,false,false,false,false,false,false,false,false,false,false,false,false,false,false,false,false,false,false,false,false],"id":17,"left_children":[1,3,5,7,9,11,13,15,17,19,21,23,25,27,29,31,33,-1,-1,35,37,-1,-1,-1,39,41,43,45,47,49,51,-1,-1,-1,-1,-1,-1,-1,-1,-1,-1,-1,-1,-1,-1,-1,-1,-1,-1,-1,-1,-1,-1],"loss_changes":[8.203E4,7.940875E3,5.3718375E4,6.762625E3,5.5737812E3,6.828125E3,1.866E4,4.66775E3,1.6321104E3,6.083125E3,3.4036797E3,3.6421875E1,1.3116562E3,1.1119875E4,1.38885E4,2.0742312E4,4.767125E3,0E0,0E0,1.5155625E3,6.9545537E3,0E0,0E0,0E0,1.9363574E2,3.8219844E3,4.2506094E3,8.3779375E3,5.0712188E3,1.9975844E4,1.6002453E4,0E0,0E0,0E0,0E0,0E0,0E0,0E0,0E0,0E0,0E0,0E0,0E0,0E0,0E0,0E0,0E0,0E0,0E0,0E0,0E0,0E0,0E0],"parents":[2147483647,0,0,1,1,2,2,3,3,4,4,5,5,6,6,7,7,8,8,9,9,10,10,11,11,12,12,13,13,14,14,15,15,16,16,19,19,20,20,24,24,25,25,26,26,27,27,28,28,29,29,30,30],"right_children":[2,4,6,8,10,12,14,16,18,20,22,24,26,28,30,32,34,-1,-1,36,38,-1,-1,-1,40,42,44,46,48,50,52,-1,-1,-1,-1,-1,-1,-1,-1,-1,-1,-1,-1,-1,-1,-1,-1,-1,-1,-1,-1,-1,-1],"split_conditions":[-7.482746E0,8.093822E2,-1.734049E-1,1.5422635E2,3.473767E1,1.933755E2,1.3122122E1,-7.590196E1,1.720326E2,1.5779585E1,7.716882E1,-9.311023E1,1.9817502E0,3.456094E-1,-2.7105293E1,-8.1101654E1,-7.1848236E1,7.87375E-1,2.2805705E0,8.712032E2,2.2609333E1,4.8390813E0,2.9113097E0,5.683749E-1,-3.0121101E1,1.9115608E1,-3.59442E1,2.9688778E1,-4.629136E1,-5.085085E1,6.999437E2,3.0720787E0,5.808193E-1,4.439689E0,3.2391229E0,2.4498956E0,2.87171E0,-5.2238848E-2,2.729168E0,1.1295182E0,7.269713E-1,1.9697822E0,1.4082346E0,1.1319658E0,1.9158907E0,2.6949954E0,3.3245828E0,2.0042026E0,2.56163E0,1.629629E0,3.2213821E0,2.007881E-1,1.9927822E0],"split_indices":[12,3,38,1,1,4,7,0,9,1,1,0,1,12,1,0,0,0,0,2,1,0,0,0,1,0,0,0,1,0,2,0,0,0,0,0,0,0,0,0,0,0,0,0,0,0,0,0,0,0,0,0,0],"split_type":[0,0,0,0,0,0,0,0,0,0,0,0,0,0,0,0,0,0,0,0,0,0,0,0,0,0,0,0,0,0,0,0,0,0,0,0,0,0,0,0,0,0,0,0,0,0,0,0,0,0,0,0,0],"sum_hessian":[6.212E3,2.273E3,3.939E3,1.685E3,5.88E2,1.038E3,2.901E3,1.653E3,3.2E1,5.36E2,5.2E1,9.2E1,9.46E2,1.944E3,9.57E2,4.41E2,1.212E3,1.5E1,1.7E1,5.01E2,3.5E1,2E1,3.2E1,1.4E1,7.8E1,6.56E2,2.9E2,1.092E3,8.52E2,3.47E2,6.1E2,4.04E2,3.7E1,4.1E1,1.171E3,2.37E2,2.64E2,1.9E1,1.6E1,2.2E1,5.6E1,4.75E2,1.81E2,1.43E2,1.47E2,7.58E2,3.34E2,2.61E2,5.91E2,1.29E2,2.18E2,5.5E1,5.55E2],"tree_param":{"num_deleted":"0","num_feature":"52","num_nodes":"53","size_leaf_vector":"0"}},{"base_weights":[2.29597E1,2.7281412E1,2.0459564E1,2.9987024E1,2.6101074E1,1.4876379E1,2.2451456E1,2.8426884E1,3.3808796E1,2.4548563E1,2.7831108E1,7.3752913E0,1.5597313E1,2.7295845E1,2.1291704E1,3.0075188E1,-1.6649282E1,4.6427284E1,2.9192593E1,4.2128902E1,2.4072462E1,3.618162E1,2.7006674E1,5.153266E0,7.703837E0,1.64024E1,1.358059E1,2.7969614E1,1.6767973E1,-3.0288973E0,2.143901E1,2.702562E1,3.619671E1,3.5412365E1,5.0569237E1,1.857368E1,3.5936317E1,2.5425558E1,2.0175852E1,4.1066055E1,2.4224636E1,2.0495E1,2.791189E1,1.0214774E1,6.5554967E0,1.8363373E1,1.4567529E1,9.261283E0,1.5689912E1,2.5759748E1,3.5829308E1,1.1185798E1,2.3837301E1,1.8597021E1,2.2925064E1],"categories":[],"categories_nodes":[],"categories_segments":[],"categories_sizes":[],"default_left":[true,true,true,true,true,true,true,true,true,true,true,true,true,true,true,true,false,true,true,false,true,true,true,false,true,true,true,true,true,false,true,false,false,false,false,false,false,false,false,false,false,false,false,false,false,false,false,false,false,false,false,false,false,false,false],"id":18,"left_children":[1,3,5,7,9,11,13,15,17,19,21,23,25,27,29,31,-1,33,35,-1,37,39,41,-1,43,45,47,49,51,-1,53,-1,-1,-1,-1,-1,-1,-1,-1,-1,-1,-1,-1,-1,-1,-1,-1,-1,-1,-1,-1,-1,-1,-1,-1],"loss_changes":[6.65725E4,6.479375E3,4.3483125E4,3.1173125E3,3.59E3,5.503672E3,1.5723E4,3.7055938E4,9.8868125E3,6.07525E3,4.15175E3,2.819336E1,1.3148281E3,3.482E3,8.46975E3,7.8890312E3,0E0,4.9039062E2,9.644523E3,0E0,3.8473438E3,2.7429922E3,3.4479688E3,0E0,1.6082666E2,2.1504375E3,2.3692695E3,8.143625E3,1.154001E3,0E0,9.4225E3,0E0,0E0,0E0,0E0,0E0,0E0,0E0,0E0,0E0,0E0,0E0,0E0,0E0,0E0,0E0,0E0,0E0,0E0,0E0,0E0,0E0,0E0,0E0,0E0],"parents":[2147483647,0,0,1,1,2,2,3,3,4,4,5,5,6,6,7,7,8,8,9,9,10,10,11,11,12,12,13,13,14,14,15,15,17,17,18,18,20,20,21,21,22,22,24,24,25,25,26,26,27,27,28,28,30,30],"right_children":[2,4,6,8,10,12,14,16,18,20,22,24,26,28,30,32,-1,34,36,-1,38,40,42,-1,44,46,48,50,52,-1,54,-1,-1,-1,-1,-1,-1,-1,-1,-1,-1,-1,-1,-1,-1,-1,-1,-1,-1,-1,-1,-1,-1,-1,-1],"split_conditions":[-7.482746E0,-3.838664E0,-1.734049E-1,3.038359E1,-2.7287119E1,1.933755E2,-7.0305824E0,2.7827185E1,4.37675E1,-1.0147795E2,-1.0756524E1,-9.311023E1,1.0305426E3,1.14358246E2,-1.0676581E2,-1.2416211E1,-1.6649283E0,3.7538555E1,5.3649673E1,4.21289E0,-4.088113E0,3.4254289E0,1.111688E1,5.153266E-1,-3.0121101E1,-2.4588879E1,-5.075664E1,-2.6296473E0,6.063769E1,-3.0288973E-1,-4.6458633E1,2.702562E0,3.6196709E0,3.5412366E0,5.056924E0,1.8573681E0,3.5936317E0,2.5425558E0,2.0175853E0,4.1066055E0,2.4224637E0,2.0495002E0,2.791189E0,1.0214775E0,6.555497E-1,1.8363373E0,1.4567529E0,9.261283E-1,1.5689912E0,2.575975E0,3.5829308E0,1.1185797E0,2.3837302E0,1.8597021E0,2.2925065E0],"split_indices":[12,17,38,0,0,4,13,0,0,1,0,0,2,1,1,1,0,0,0,0,1,1,0,0,1,1,1,1,0,0,0,0,0,0,0,0,0,0,0,0,0,0,0,0,0,0,0,0,0,0,0,0,0,0,0],"split_type":[0,0,0,0,0,0,0,0,0,0,0,0,0,0,0,0,0,0,0,0,0,0,0,0,0,0,0,0,0,0,0,0,0,0,0,0,0,0,0,0,0,0,0,0,0,0,0,0,0,0,0,0,0,0,0],"sum_hessian":[6.212E3,2.273E3,3.939E3,6.83E2,1.59E3,1.038E3,2.901E3,4.91E2,1.92E2,8.46E2,7.44E2,9.2E1,9.46E2,5.56E2,2.345E3,4.74E2,1.7E1,4.9E1,1.43E2,2E1,8.26E2,6.3E1,6.81E2,1.4E1,7.8E1,6.71E2,2.75E2,5.21E2,3.5E1,1.4E1,2.331E3,3.2E2,1.54E2,1.6E1,3.3E1,5.7E1,8.6E1,6.09E2,2.17E2,4.3E1,2E1,8.6E1,5.95E2,2.2E1,5.6E1,3.2E2,3.51E2,9.2E1,1.83E2,4.1E2,1.11E2,2.1E1,1.4E1,8.05E2,1.526E3],"tree_param":{"num_deleted":"0","num_feature":"52","num_nodes":"55","size_leaf_vector":"0"}},{"base_weights":[2.0673443E1,2.4570358E1,1.8419064E1,2.52006E1,2.0047346E1,1.3396422E1,2.0210966E1,2.5381105E1,1.1123678E1,1.8636112E1,2.8926466E1,6.661337E0,1.4043694E1,2.1781067E1,1.7002142E1,2.3132566E1,2.6255789E1,3.0149664E1,1.7261786E1,3.371738E1,2.2613106E1,7.6208663E0,5.8912754E0,1.4767059E1,1.2231572E1,2.3596495E1,1.9429316E1,2.166483E1,1.4318643E1,2.43147E1,-4.2322435E0,3.8630436E1,2.5781183E1,7.4581127E0,2.035019E1,5.501332E0,9.670275E0,6.829743E0,3.5306363E0,1.5445213E1,1.0267584E1,2.4347912E1,1.1491203E1,2.1817583E1,2.7455511E1,1.6012781E1,2.0908543E1,1.5888998E1,3.0031551E1,-3.4814677E-1,1.5770121E1],"categories":[],"categories_nodes":[],"categories_segments":[],"categories_sizes":[],"default_left":[true,true,true,true,true,true,true,true,false,true,true,true,true,true,true,true,true,false,true,false,false,true,true,true,true,true,true,true,true,false,false,false,false,false,false,false,false,false,false,false,false,false,false,false,false,false,false,false,false,false,false],"id":19,"left_children":[1,3,5,7,9,11,13,15,-1,17,19,21,23,25,27,29,31,-1,33,-1,-1,35,37,39,41,43,45,47,49,-1,-1,-1,-1,-1,-1,-1,-1,-1,-1,-1,-1,-1,-1,-1,-1,-1,-1,-1,-1,-1,-1],"loss_changes":[5.41295E4,5.977125E3,3.5189625E4,4.77925E3,3.0070625E3,4.4359062E3,1.42505E4,3.25925E3,0E0,3.3879375E3,3.5667578E2,2.3820312E1,1.0607344E3,7.8455625E3,1.1676594E4,1.8185906E4,7.2733125E3,0E0,6.6001562E3,0E0,0E0,1.11864746E2,9.994812E1,1.8919062E3,2.1960898E3,6.90425E3,3.9760938E3,1.6339844E4,1.3012773E4,0E0,0E0,0E0,0E0,0E0,0E0,0E0,0E0,0E0,0E0,0E0,0E0,0E0,0E0,0E0,0E0,0E0,0E0,0E0,0E0,0E0,0E0],"parents":[2147483647,0,0,1,1,2,2,3,3,4,4,5,5,6,6,7,7,9,9,10,10,11,11,12,12,13,13,14,14,15,15,16,16,18,18,21,21,22,22,23,23,24,24,25,25,26,26,27,27,28,28],"right_children":[2,4,6,8,10,12,14,16,-1,18,20,22,24,26,28,30,32,-1,34,-1,-1,36,38,40,42,44,46,48,50,-1,-1,-1,-1,-1,-1,-1,-1,-1,-1,-1,-1,-1,-1,-1,-1,-1,-1,-1,-1,-1,-1],"split_conditions":[-7.482746E0,8.202275E2,-1.734049E-1,1.5694763E2,2.2622978E1,1.933755E2,1.3122122E1,-7.590196E1,1.1123679E0,-1.2700572E2,7.716882E1,-2.7594818E1,1.0305426E3,3.456094E-1,-2.7105293E1,-7.783556E1,-7.220677E1,3.0149665E0,-8.3819595E1,3.3717382E0,2.2613106E0,-4.563975E1,4.8197655E1,4.8841988E1,-7.7529655E1,2.8864819E1,-4.629136E1,2.0851242E1,6.999437E2,2.43147E0,-4.2322436E-1,3.8630435E0,2.5781183E0,7.458113E-1,2.035019E0,5.5013317E-1,9.670275E-1,6.829743E-1,3.5306364E-1,1.5445213E0,1.0267584E0,2.4347913E0,1.1491203E0,2.1817584E0,2.745551E0,1.6012782E0,2.0908544E0,1.5888999E0,3.0031552E0,-3.4814678E-2,1.5770121E0],"split_indices":[12,3,38,1,1,4,7,0,0,0,1,1,2,12,1,0,0,0,0,0,0,1,0,0,1,0,1,0,2,0,0,0,0,0,0,0,0,0,0,0,0,0,0,0,0,0,0,0,0,0,0],"split_type":[0,0,0,0,0,0,0,0,0,0,0,0,0,0,0,0,0,0,0,0,0,0,0,0,0,0,0,0,0,0,0,0,0,0,0,0,0,0,0,0,0,0,0,0,0,0,0,0,0,0,0],"sum_hessian":[6.212E3,2.273E3,3.939E3,1.991E3,2.82E2,1.038E3,2.901E3,1.965E3,2.6E1,2.46E2,3.6E1,9.2E1,9.46E2,1.944E3,9.57E2,5.58E2,1.407E3,2.4E1,2.22E2,1.8E1,1.8E1,3.7E1,5.5E1,6.71E2,2.75E2,1.092E3,8.52E2,3.47E2,6.1E2,5.35E2,2.3E1,4.9E1,1.358E3,5.4E1,1.68E2,2E1,1.7E1,3.8E1,1.7E1,5.81E2,9E1,1.4E1,2.61E2,7.52E2,3.4E2,2.61E2,5.91E2,2.07E2,1.4E2,5.5E1,5.55E2],"tree_param":{"num_deleted":"0","num_feature":"52","num_nodes":"51","size_leaf_vector":"0"}},{"base_weights":[1.8613253E1,2.2122547E1,1.658311E1,2.0392939E1,2.3540758E1,1.2065161E1,1.8194954E1,2.3673767E1,1.7774998E1,3.9264378E1,2.3092848E1,6.0226564E0,1.2645824E1,1.8843979E1,1.1875793E1,2.1870173E1,3.1731474E1,3.2358555E1,1.5264302E1,2.616395E1,4.754027E1,2.4018658E1,1.8860209E1,4.011016E0,6.3283777E0,1.2229694E1,1.5866316E1,1.798677E1,2.5672245E1,1.2648993E1,8.735978E-1,2.2869608E1,7.775048E-1,3.9772537E1,1.7479033E1,4.1948975E1,2.782324E1,1.0399683E1,1.849964E1,2.5098217E1,2.0258121E1,2.0001108E1,3.9257705E0,9.100195E0,5.4799767E0,1.2748348E1,-1.0805054E-1,2.6841206E1,8.416134E0,1.8895239E1,8.225035E0,1.3094708E1,3.1149008E1,1.7969711E1,1.0374392E1],"categories":[],"categories_nodes":[],"categories_segments":[],"categories_sizes":[],"default_left":[true,true,true,true,true,true,true,true,true,true,true,true,true,true,true,true,true,true,true,false,false,true,true,false,true,true,true,true,true,true,false,false,false,false,false,false,false,false,false,false,false,false,false,false,false,false,false,false,false,false,false,false,false,false,false],"id":20,"left_children":[1,3,5,7,9,11,13,15,17,19,21,23,25,27,29,31,33,35,37,-1,-1,39,41,-1,43,45,47,49,51,53,-1,-1,-1,-1,-1,-1,-1,-1,-1,-1,-1,-1,-1,-1,-1,-1,-1,-1,-1,-1,-1,-1,-1,-1,-1],"loss_changes":[4.389675E4,5.097875E3,2.84725E4,8.4430625E3,7.8474375E3,3.5693281E3,1.16781875E4,5.9184844E3,2.0669469E4,2.3339453E3,4.2925E3,3.1811768E1,1.0750781E3,1.49323125E4,2.3113281E3,7.8875E3,8.587797E3,2.4864766E3,7.59825E3,0E0,0E0,3.510625E3,3.7040703E3,0E0,1.3590869E2,5.395758E3,8.359418E3,2.059625E4,1.9637406E4,2.8997188E3,0E0,0E0,0E0,0E0,0E0,0E0,0E0,0E0,0E0,0E0,0E0,0E0,0E0,0E0,0E0,0E0,0E0,0E0,0E0,0E0,0E0,0E0,0E0,0E0,0E0],"parents":[2147483647,0,0,1,1,2,2,3,3,4,4,5,5,6,6,7,7,8,8,9,9,10,10,11,11,12,12,13,13,14,14,15,15,16,16,17,17,18,18,21,21,22,22,24,24,25,25,26,26,27,27,28,28,29,29],"right_children":[2,4,6,8,10,12,14,16,18,20,22,24,26,28,30,32,34,36,38,-1,-1,40,42,-1,44,46,48,50,52,54,-1,-1,-1,-1,-1,-1,-1,-1,-1,-1,-1,-1,-1,-1,-1,-1,-1,-1,-1,-1,-1,-1,-1,-1,-1],"split_conditions":[-7.482746E0,-4.667823E1,-1.734049E-1,-9.093664E1,-4.315132E1,1.933755E2,1.4065099E2,-3.0821643E0,-5.2619186E1,-7.443615E1,8.093822E2,-9.311023E1,5.7044594E1,5.595812E1,1.3817664E2,-8.845564E0,5.916623E1,-6.666785E1,-7.590196E1,2.616395E0,4.7540274E0,5.904476E1,6.751726E1,4.011016E-1,-4.3956528E1,2.8429424E1,1.14358246E2,4.9305817E1,4.24404E1,7.5880356E1,8.735978E-2,2.2869608E0,7.775048E-2,3.9772537E0,1.7479032E0,4.1948977E0,2.782324E0,1.0399684E0,1.849964E0,2.5098217E0,2.0258121E0,2.0001109E0,3.9257705E-1,9.100195E-1,5.4799765E-1,1.2748349E0,-1.0805055E-2,2.6841207E0,8.416134E-1,1.8895239E0,8.225035E-1,1.3094709E0,3.1149008E0,1.7969712E0,1.0374392E0],"split_indices":[12,0,38,0,0,4,1,1,1,8,3,0,1,0,4,1,1,0,0,0,0,1,0,0,0,1,1,0,16,0,0,0,0,0,0,0,0,0,0,0,0,0,0,0,0,0,0,0,0,0,0,0,0,0,0],"split_type":[0,0,0,0,0,0,0,0,0,0,0,0,0,0,0,0,0,0,0,0,0,0,0,0,0,0,0,0,0,0,0,0,0,0,0,0,0,0,0,0,0,0,0,0,0,0,0,0,0,0,0,0,0,0,0],"sum_hessian":[6.212E3,2.273E3,3.939E3,1.031E3,1.242E3,1.038E3,2.901E3,4.54E2,5.77E2,3.2E1,1.21E3,9.2E1,9.46E2,2.629E3,2.72E2,3.74E2,8E1,8.3E1,4.94E2,1.4E1,1.8E1,9.89E2,2.21E2,1.4E1,7.8E1,8.42E2,1.04E2,2.339E3,2.9E2,2.54E2,1.8E1,3.57E2,1.7E1,5E1,3E1,2.4E1,5.9E1,1.99E2,2.95E2,7.64E2,2.25E2,2.05E2,1.6E1,1.6E1,6.2E1,8.08E2,3.4E1,4.1E1,6.3E1,2.139E3,2E2,8.9E1,2.01E2,7.4E1,1.8E2],"tree_param":{"num_deleted":"0","num_feature":"52","num_nodes":"55","size_leaf_vector":"0"}},{"base_weights":[1.6759808E1,2.0637512E1,1.5245558E1,1.9819075E1,2.6388704E1,1.0865046E1,1.6566498E1,2.0130426E1,-3.4975765E0,3.359912E1,1.7003035E1,5.4403825E0,1.13863E1,1.8299755E1,1.4127632E1,1.9128376E1,2.6482887E1,3.8287968E1,2.1117983E1,1.9737373E1,5.762397E0,4.669095E0,6.3885984E0,1.0298282E1,1.2565071E1,2.3884295E1,1.7590635E1,1.1372454E1,1.5335446E1,1.9793396E1,-5.605901E0,3.3551094E1,1.87188E1,2.9290949E1,4.388806E1,2.6576717E1,1.2067885E1,1.7261446E1,2.58069E1,6.201107E0,2.2679868E0,9.453575E0,4.294069E0,1.2999536E1,7.119779E0,2.5772146E1,1.1106407E1,2.1416882E1,3.9651928E1,1.2808123E1,1.9704094E1,9.003271E0,1.7076998E1,1.6993422E1,7.551911E0],"categories":[],"categories_nodes":[],"categories_segments":[],"categories_sizes":[],"default_left":[true,true,true,true,true,true,true,true,false,true,true,true,true,true,true,true,true,true,true,true,false,true,true,true,true,true,true,true,true,false,false,false,false,false,false,false,false,false,false,false,false,false,false,false,false,false,false,false,false,false,false,false,false,false,false],"id":21,"left_children":[1,3,5,7,9,11,13,15,-1,17,19,21,23,25,27,29,31,33,35,37,-1,39,41,43,45,47,49,51,53,-1,-1,-1,-1,-1,-1,-1,-1,-1,-1,-1,-1,-1,-1,-1,-1,-1,-1,-1,-1,-1,-1,-1,-1,-1,-1],"loss_changes":[3.6167E4,7.676625E3,2.569675E4,1.11704375E4,1.3911078E4,2.8759688E3,1.4257625E4,9.0989375E3,0E0,6.214078E3,2.8061582E3,3.818628E1,1.0851484E3,7.5159375E3,4.5875938E3,2.1609562E4,1.0512234E4,3.0475156E3,1.4083486E3,6.966387E2,0E0,1.8825488E2,2.0977344E2,4.183246E3,8.382875E3,7.826664E3,1.77595E4,5.7928945E3,1.2673344E4,0E0,0E0,0E0,0E0,0E0,0E0,0E0,0E0,0E0,0E0,0E0,0E0,0E0,0E0,0E0,0E0,0E0,0E0,0E0,0E0,0E0,0E0,0E0,0E0,0E0,0E0],"parents":[2147483647,0,0,1,1,2,2,3,3,4,4,5,5,6,6,7,7,9,9,10,10,11,11,12,12,13,13,14,14,15,15,16,16,17,17,18,18,19,19,21,21,22,22,23,23,24,24,25,25,26,26,27,27,28,28],"right_children":[2,4,6,8,10,12,14,16,-1,18,20,22,24,26,28,30,32,34,36,38,-1,40,42,44,46,48,50,52,54,-1,-1,-1,-1,-1,-1,-1,-1,-1,-1,-1,-1,-1,-1,-1,-1,-1,-1,-1,-1,-1,-1,-1,-1,-1,-1],"split_conditions":[-7.641548E0,5.3649673E1,-1.734049E-1,5.1212837E1,5.4174995E1,1.933755E2,4.071153E-2,2.2963243E1,-3.4975764E-1,3.1003168E2,1.4918762E2,2.8356262E1,-3.4915146E1,-1.15344955E2,1.3643965E1,1.580855E1,7.716882E1,-2.6200802E1,6.7301544E1,1.440558E2,5.762397E-1,-4.04841E1,4.8197655E1,-2.7600039E1,-2.417212E1,-1.23923965E2,-5.225675E1,2.3742212E1,5.904476E1,1.9793396E0,-5.605901E-1,3.3551095E0,1.8718799E0,2.929095E0,4.3888063E0,2.6576717E0,1.2067885E0,1.7261447E0,2.5806901E0,6.201107E-1,2.2679868E-1,9.453575E-1,4.2940688E-1,1.2999536E0,7.119779E-1,2.5772147E0,1.1106408E0,2.141688E0,3.9651928E0,1.2808123E0,1.9704094E0,9.0032715E-1,1.7076998E0,1.6993421E0,7.551911E-1],"split_indices":[18,0,38,0,1,4,7,1,0,4,1,0,0,0,31,1,1,1,0,1,0,0,0,1,0,0,0,1,1,0,0,0,0,0,0,0,0,0,0,0,0,0,0,0,0,0,0,0,0,0,0,0,0,0,0],"split_type":[0,0,0,0,0,0,0,0,0,0,0,0,0,0,0,0,0,0,0,0,0,0,0,0,0,0,0,0,0,0,0,0,0,0,0,0,0,0,0,0,0,0,0,0,0,0,0,0,0,0,0,0,0,0,0],"sum_hessian":[6.212E3,1.741E3,4.471E3,1.528E3,2.13E2,1.038E3,3.433E3,1.508E3,2E1,1.19E2,9.4E1,9.2E1,9.46E2,2.003E3,1.43E3,1.306E3,2.02E2,8.5E1,3.4E1,7.5E1,1.9E1,5.4E1,3.8E1,4.97E2,4.49E2,2.22E2,1.781E3,4.39E2,9.91E2,1.272E3,3.4E1,1.04E2,9.8E1,3.5E1,5E1,2E1,1.4E1,5.6E1,1.9E1,3.2E1,2.2E1,1.4E1,2.4E1,2.67E2,2.3E2,4.3E1,4.06E2,1.94E2,2.8E1,5.48E2,1.233E3,3.12E2,1.27E2,8.16E2,1.75E2],"tree_param":{"num_deleted":"0","num_feature":"52","num_nodes":"55","size_leaf_vector":"0"}},{"base_weights":[1.5091021E1,1.7975922E1,1.3422149E1,2.0182283E1,1.701607E1,9.786164E0,1.4719311E1,1.8781826E1,2.3501078E1,2.7447386E1,1.6845554E1,1.0915569E1,7.6971784E0,1.2355514E1,1.6113684E1,2.0112688E1,-2.156931E1,3.371499E1,1.9365799E1,6.112897E0,1.7115313E1,8.726336E0,1.2224994E1,1.0209702E1,5.183798E0,2.8112818E1,1.2122416E1,1.8177391E1,1.2236742E1,1.7222717E1,2.5893385E1,2.7333199E1,4.1085155E1,1.0368525E1,2.5141386E1,1.1431174E1,-3.6683935E-1,2.9457489E1,1.6721205E1,1.0970196E1,2.2663944E0,1.5263124E1,8.672345E0,1.131224E1,2.0480328E0,-1.0583016E1,7.040998E0,1.3580624E1,9.955939E0,1.3259853E1,2.1544146E1,5.7620516E0,1.4586389E1],"categories":[],"categories_nodes":[],"categories_segments":[],"categories_sizes":[],"default_left":[true,true,true,true,true,true,true,true,true,false,true,true,true,true,true,true,false,true,true,true,true,true,true,true,true,false,true,true,true,false,false,false,false,false,false,false,false,false,false,false,false,false,false,false,false,false,false,false,false,false,false,false,false],"id":22,"left_children":[1,3,5,7,9,11,13,15,17,-1,19,21,23,25,27,29,-1,31,33,35,37,39,41,43,45,-1,47,49,51,-1,-1,-1,-1,-1,-1,-1,-1,-1,-1,-1,-1,-1,-1,-1,-1,-1,-1,-1,-1,-1,-1,-1,-1],"loss_changes":[2.9671375E4,4.4724375E3,1.8438812E4,2.7376875E3,2.3675625E3,2.3673047E3,9.365875E3,2.6532906E4,7.7523125E3,0E0,4.4350625E3,1.8197031E3,2.2709688E3,3.6297031E3,1.43551875E4,7.4225938E3,0E0,1.5109648E3,7.222215E3,1.3826348E3,6.9447188E3,3.671416E3,4.3792812E3,1.6235664E3,5.5209917E3,0E0,3.235625E3,1.9366438E4,9.59157E3,0E0,0E0,0E0,0E0,0E0,0E0,0E0,0E0,0E0,0E0,0E0,0E0,0E0,0E0,0E0,0E0,0E0,0E0,0E0,0E0,0E0,0E0,0E0,0E0],"parents":[2147483647,0,0,1,1,2,2,3,3,4,4,5,5,6,6,7,7,8,8,10,10,11,11,12,12,13,13,14,14,15,15,17,17,18,18,19,19,20,20,21,21,22,22,23,23,24,24,26,26,27,27,28,28],"right_children":[2,4,6,8,10,12,14,16,18,-1,20,22,24,26,28,30,-1,32,34,36,38,40,42,44,46,-1,48,50,52,-1,-1,-1,-1,-1,-1,-1,-1,-1,-1,-1,-1,-1,-1,-1,-1,-1,-1,-1,-1,-1,-1,-1,-1],"split_conditions":[-7.482746E0,-3.838664E0,-1.734049E-1,2.9688778E1,-1.0147795E2,6.9172296E2,2.7307299E1,2.6255516E1,4.37675E1,2.7447386E0,-1.66123E2,-5.8621407E1,-4.3980026E1,-1.7286467E2,9.023811E0,-1.2416211E1,-2.156931E0,4.0049423E1,5.3649673E1,-1.7001202E2,-1.462147E2,-8.4942184E1,2.2934431E1,2.0559944E1,-3.4362045E1,2.811282E0,9.008187E0,-5.7671444E1,2.1901226E1,1.7222718E0,2.5893385E0,2.73332E0,4.1085157E0,1.0368525E0,2.5141387E0,1.1431174E0,-3.6683936E-2,2.945749E0,1.6721205E0,1.0970196E0,2.2663943E-1,1.5263125E0,8.672345E-1,1.131224E0,2.0480327E-1,-1.0583017E0,7.0409983E-1,1.3580624E0,9.9559397E-1,1.3259853E0,2.1544147E0,5.762052E-1,1.4586389E0],"split_indices":[12,17,38,0,1,2,24,0,0,0,0,0,0,0,1,1,0,0,0,0,0,0,0,1,0,0,7,0,1,0,0,0,0,0,0,0,0,0,0,0,0,0,0,0,0,0,0,0,0,0,0,0,0],"split_type":[0,0,0,0,0,0,0,0,0,0,0,0,0,0,0,0,0,0,0,0,0,0,0,0,0,0,0,0,0,0,0,0,0,0,0,0,0,0,0,0,0,0,0,0,0,0,0,0,0,0,0,0,0],"sum_hessian":[6.212E3,2.273E3,3.939E3,6.83E2,1.59E3,1.038E3,2.901E3,4.85E2,1.98E2,2.3E1,1.567E3,6.71E2,3.67E2,1.08E3,1.821E3,4.7E2,1.5E1,5.5E1,1.43E2,3.9E1,1.528E3,2.54E2,4.17E2,1.82E2,1.85E2,1.4E1,1.066E3,1.186E3,6.35E2,3.16E2,1.54E2,3.2E1,2.3E1,5.7E1,8.6E1,2.1E1,1.8E1,4.5E1,1.483E3,1.88E2,6.6E1,2.23E2,1.94E2,1.6E2,2.2E1,1.9E1,1.66E2,6.34E2,4.32E2,4.84E2,7.02E2,1.7E2,4.65E2],"tree_param":{"num_deleted":"0","num_feature":"52","num_nodes":"53","size_leaf_vector":"0"}},{"base_weights":[1.3587776E1,1.678434E1,1.2339564E1,1.607212E1,2.1794619E1,8.812069E0,1.3403259E1,1.6347244E1,-4.4628534E0,2.8402668E1,1.3531272E1,4.212504E0,9.254463E0,1.4867862E1,1.1342835E1,1.5435546E1,2.1913252E1,3.2851124E1,1.6914865E1,1.8616892E1,7.9518495E0,2.0020761E0,4.578882E0,8.872657E0,1.2231689E1,1.9949066E1,1.4223655E1,1.178084E1,5.5811887E0,1.6068714E1,-1.390223E1,2.7747225E1,1.5091856E1,2.4392908E1,3.8394894E1,2.189176E1,8.819556E0,1.4607509E1,2.6998287E1,1.1031162E0,1.1341743E1,6.680764E0,3.6504233E0,9.319762E0,-1.7153704E0,3.14528E1,8.678695E0,1.7694763E1,3.441942E1,1.0211284E1,1.6166107E1,9.218481E0,1.2934188E1,1.1681482E1,4.532065E-1],"categories":[],"categories_nodes":[],"categories_segments":[],"categories_sizes":[],"default_left":[true,true,true,true,true,true,true,true,false,true,true,true,true,true,true,true,true,true,true,true,true,false,true,true,true,true,true,true,true,false,false,false,false,false,false,false,false,false,false,false,false,false,false,false,false,false,false,false,false,false,false,false,false,false,false],"id":23,"left_children":[1,3,5,7,9,11,13,15,-1,17,19,21,23,25,27,29,31,33,35,37,39,-1,41,43,45,47,49,51,53,-1,-1,-1,-1,-1,-1,-1,-1,-1,-1,-1,-1,-1,-1,-1,-1,-1,-1,-1,-1,-1,-1,-1,-1,-1,-1],"loss_changes":[2.458275E4,5.8659062E3,1.6661625E4,8.711281E3,1.1301055E4,2.0751953E3,1.0194125E4,7.3192188E3,0E0,5.4744844E3,2.6043203E3,6.614905E1,9.679531E2,6.2760312E3,3.5455469E3,2.4371844E4,7.938367E3,3.0022344E3,1.2170566E3,1.285834E3,1.1018796E3,0E0,1.2978174E2,4.006711E3,6.897741E3,6.6653438E3,1.37235625E4,3.8083594E3,3.216772E3,0E0,0E0,0E0,0E0,0E0,0E0,0E0,0E0,0E0,0E0,0E0,0E0,0E0,0E0,0E0,0E0,0E0,0E0,0E0,0E0,0E0,0E0,0E0,0E0,0E0,0E0],"parents":[2147483647,0,0,1,1,2,2,3,3,4,4,5,5,6,6,7,7,9,9,10,10,11,11,12,12,13,13,14,14,15,15,16,16,17,17,18,18,19,19,20,20,22,22,23,23,24,24,25,25,26,26,27,27,28,28],"right_children":[2,4,6,8,10,12,14,16,-1,18,20,22,24,26,28,30,32,34,36,38,40,-1,42,44,46,48,50,52,54,-1,-1,-1,-1,-1,-1,-1,-1,-1,-1,-1,-1,-1,-1,-1,-1,-1,-1,-1,-1,-1,-1,-1,-1,-1,-1],"split_conditions":[-7.641548E0,5.3649673E1,-1.734049E-1,5.1212837E1,5.32209E1,1.933755E2,4.071153E-2,2.1901226E1,-4.4628534E-1,3.1003168E2,1.4166486E2,-9.311023E1,5.7044594E1,-1.15344955E2,1.4149077E2,1.580855E1,7.716882E1,-2.6200802E1,6.7301544E1,8.634995E1,1.4777545E2,2.0020762E-1,-3.0121101E1,2.8429424E1,6.826958E1,-1.23923965E2,-4.667823E1,1.3643965E1,7.5880356E1,1.6068715E0,-1.390223E0,2.7747226E0,1.5091857E0,2.4392908E0,3.8394895E0,2.189176E0,8.819556E-1,1.4607509E0,2.6998289E0,1.1031162E-1,1.1341743E0,6.6807646E-1,3.6504233E-1,9.3197626E-1,-1.7153704E-1,3.1452801E0,8.678695E-1,1.7694763E0,3.441942E0,1.0211284E0,1.6166108E0,9.218481E-1,1.2934188E0,1.1681483E0,4.5320652E-2],"split_indices":[18,0,38,0,1,4,7,1,0,4,1,0,1,0,1,1,1,1,0,0,1,0,1,1,1,0,0,31,0,0,0,0,0,0,0,0,0,0,0,0,0,0,0,0,0,0,0,0,0,0,0,0,0,0,0],"split_type":[0,0,0,0,0,0,0,0,0,0,0,0,0,0,0,0,0,0,0,0,0,0,0,0,0,0,0,0,0,0,0,0,0,0,0,0,0,0,0,0,0,0,0,0,0,0,0,0,0,0,0,0,0,0,0],"sum_hessian":[6.212E3,1.741E3,4.471E3,1.528E3,2.13E2,1.038E3,3.433E3,1.508E3,2E1,1.17E2,9.6E1,9.2E1,9.46E2,2.003E3,1.43E3,1.299E3,2.09E2,8.3E1,3.4E1,4.9E1,4.7E1,1.4E1,7.8E1,8.42E2,1.04E2,2.22E2,1.781E3,1.328E3,1.02E2,1.272E3,2.7E1,1.11E2,9.8E1,3.5E1,4.8E1,2E1,1.4E1,3.5E1,1.4E1,1.6E1,3.1E1,2.2E1,5.6E1,8.08E2,3.4E1,1.5E1,8.9E1,1.94E2,2.8E1,5.83E2,1.198E3,4.15E2,9.13E2,4.6E1,5.6E1],"tree_param":{"num_deleted":"0","num_feature":"52","num_nodes":"55","size_leaf_vector":"0"}},{"base_weights":[1.223481E1,1.4609562E1,1.0861098E1,1.3407886E1,1.5928001E1,9.955803E0,1.4325468E1,1.8949135E1,1.2539989E1,2.6644388E1,1.4794055E1,8.416356E0,1.1878484E1,1.5029164E1,6.2554693E0,2.4016823E1,5.0430317E0,1.5950362E1,1.1169061E1,3.42327E1,2.2169409E1,-6.6830844E-1,1.51175585E1,7.856227E0,1.2152976E1,1.3426659E1,6.1216125E0,1.4491769E1,2.7853146E1,-3.662176E-1,1.5491612E1,1.6533432E1,3.3377026E1,7.543399E0,1.6654209E0,3.1180701E0,1.8683537E1,-1.949394E1,1.2441779E1,2.6181295E1,1.2134738E1,1.7627768E1,1.3223389E1,8.804879E0,4.7403803E0,2.8922024E1,1.064338E1,1.0741573E1,2.0586882E1,-2.54745E1,7.780549E0,1.5093181E1,6.638279E0,3.5807854E1,1.8041563E1,-1.1409714E1,6.0191154E0],"categories":[],"categories_nodes":[],"categories_segments":[],"categories_sizes":[],"default_left":[true,true,true,true,true,true,true,true,true,true,true,true,true,true,true,true,true,true,true,false,true,false,true,true,true,true,true,true,true,true,false,false,false,false,false,false,false,false,false,false,false,false,false,false,false,false,false,false,false,false,false,false,false,false,false,false,false],"id":24,"left_children":[1,3,5,7,9,11,13,15,17,19,21,23,25,27,29,31,33,35,37,-1,39,-1,41,43,45,47,49,51,53,55,-1,-1,-1,-1,-1,-1,-1,-1,-1,-1,-1,-1,-1,-1,-1,-1,-1,-1,-1,-1,-1,-1,-1,-1,-1,-1,-1],"loss_changes":[2.0109562E4,3.3891875E3,1.22143125E4,5.5142188E3,1.2717625E4,9.155531E3,4.5285312E3,1.1154367E4,4.670203E3,2.70475E3,4.902172E3,3.5463281E3,1.2288547E4,4.75125E3,4.103316E3,7.6435547E3,3.5902893E2,1.0288242E4,2.923839E4,0E0,2.379582E3,0E0,4.321953E3,4.439336E3,5.3879297E3,2.0792688E4,1.5713324E4,3.3004844E3,1.6173711E3,2.8893325E3,0E0,0E0,0E0,0E0,0E0,0E0,0E0,0E0,0E0,0E0,0E0,0E0,0E0,0E0,0E0,0E0,0E0,0E0,0E0,0E0,0E0,0E0,0E0,0E0,0E0,0E0,0E0],"parents":[2147483647,0,0,1,1,2,2,3,3,4,4,5,5,6,6,7,7,8,8,9,9,10,10,11,11,12,12,13,13,14,14,15,15,16,16,17,17,18,18,20,20,22,22,23,23,24,24,25,25,26,26,27,27,28,28,29,29],"right_children":[2,4,6,8,10,12,14,16,18,20,22,24,26,28,30,32,34,36,38,-1,40,-1,42,44,46,48,50,52,54,56,-1,-1,-1,-1,-1,-1,-1,-1,-1,-1,-1,-1,-1,-1,-1,-1,-1,-1,-1,-1,-1,-1,-1,-1,-1,-1,-1],"split_conditions":[-7.482746E0,-2.7287119E1,2.2640224E0,-1.462147E2,-1.0171371E1,-6.204175E-1,7.36189E1,8.884486E2,-4.7326912E1,-3.838664E0,-5.8619423E0,5.7044594E1,5.904476E1,6.608876E1,8.5965515E1,-1.66123E2,9.322853E2,-1.1329236E2,-4.7140404E1,3.42327E0,3.4254289E0,-6.683084E-2,-2.6802559E1,1.9817502E0,6.1005653E1,3.0869347E1,6.269274E1,5.1212837E1,9.217781E2,1.4618767E2,1.5491613E0,1.6533432E0,3.3377025E0,7.543399E-1,1.665421E-1,3.11807E-1,1.8683537E0,-1.9493941E0,1.2441779E0,2.6181295E0,1.2134738E0,1.7627767E0,1.3223389E0,8.804879E-1,4.7403803E-1,2.8922024E0,1.0643381E0,1.0741574E0,2.0586882E0,-2.54745E0,7.780549E-1,1.5093181E0,6.638279E-1,3.5807855E0,1.8041563E0,-1.1409714E0,6.0191154E-1],"split_indices":[12,0,32,0,0,37,0,2,1,17,0,1,1,0,0,0,2,0,1,0,1,0,1,1,1,0,1,0,2,1,0,0,0,0,0,0,0,0,0,0,0,0,0,0,0,0,0,0,0,0,0,0,0,0,0,0,0],"split_type":[0,0,0,0,0,0,0,0,0,0,0,0,0,0,0,0,0,0,0,0,0,0,0,0,0,0,0,0,0,0,0,0,0,0,0,0,0,0,0,0,0,0,0,0,0,0,0,0,0,0,0,0,0,0,0,0,0],"sum_hessian":[6.212E3,2.273E3,3.939E3,1.195E3,1.078E3,3.126E3,8.13E2,1.59E2,1.036E3,1.01E2,9.77E2,1.739E3,1.387E3,7.47E2,6.6E1,1.16E2,4.3E1,2.94E2,7.42E2,3.5E1,6.6E1,2E1,9.57E2,1.515E3,2.24E2,1.092E3,2.95E2,7.19E2,2.8E1,3.9E1,2.7E1,6.6E1,5E1,2.4E1,1.9E1,5.2E1,2.42E2,2.9E1,7.13E2,4.6E1,2E1,4.08E2,5.49E2,1.16E3,3.55E2,1.7E1,2.07E2,7.96E2,2.96E2,1.4E1,2.81E2,6.67E2,5.2E1,1.4E1,1.4E1,1.4E1,2.5E1],"tree_param":{"num_deleted":"0","num_feature":"52","num_nodes":"57","size_leaf_vector":"0"}},{"base_weights":[1.1016624E1,1.3692762E1,9.971712E0,1.305063E1,1.8216726E1,7.095014E0,1.083919E1,1.3451074E1,9.364882E-1,2.1651285E1,5.8878026E0,8.072175E0,5.291354E0,-1.0611894E1,1.0949017E1,1.2511666E1,1.9650585E1,-7.27456E0,1.1717575E1,1.4366998E1,2.519681E1,-2.4525811E-1,8.961997E0,1.0984289E1,7.2358603E0,7.551389E0,3.039323E0,1.1408129E1,6.719126E0,1.3085127E1,-1.376139E1,2.6368715E1,1.1669075E1,1.0727539E1,1.9280651E1,2.8927603E1,1.5501978E1,1.6865726E1,1.8776673E0,7.938759E0,1.6138754E1,-4.3820477E0,8.125706E0,6.5385666E0,1.6472343E1,-1.1098284E1,4.71425E0,1.1039298E1,2.0740406E1,-6.166365E0,7.4655375E0],"categories":[],"categories_nodes":[],"categories_segments":[],"categories_sizes":[],"default_left":[true,true,true,true,true,true,true,true,true,true,true,true,true,false,true,true,true,false,false,true,true,false,true,true,true,true,true,true,true,false,false,false,false,false,false,false,false,false,false,false,false,false,false,false,false,false,false,false,false,false,false],"id":25,"left_children":[1,3,5,7,9,11,13,15,17,19,21,23,25,-1,27,29,31,-1,-1,33,35,-1,37,39,41,43,45,47,49,-1,-1,-1,-1,-1,-1,-1,-1,-1,-1,-1,-1,-1,-1,-1,-1,-1,-1,-1,-1,-1,-1],"loss_changes":[1.7237062E4,4.82275E3,1.1082875E4,7.404625E3,8.934227E3,1.7884883E3,8.206406E3,8.373469E3,4.5114414E3,3.9510469E3,9.072007E2,1.5571367E3,1.8500469E3,0E0,6.5591562E3,1.9585812E4,1.0041117E4,0E0,0E0,8.125E2,3.5663672E3,0E0,1.7600957E3,2.1951934E3,5.463133E3,1.5457627E3,4.4566997E3,1.03759375E4,3.2872598E3,0E0,0E0,0E0,0E0,0E0,0E0,0E0,0E0,0E0,0E0,0E0,0E0,0E0,0E0,0E0,0E0,0E0,0E0,0E0,0E0,0E0,0E0],"parents":[2147483647,0,0,1,1,2,2,3,3,4,4,5,5,6,6,7,7,8,8,9,9,10,10,11,11,12,12,14,14,15,15,16,16,19,19,20,20,22,22,23,23,24,24,25,25,26,26,27,27,28,28],"right_children":[2,4,6,8,10,12,14,16,18,20,22,24,26,-1,28,30,32,-1,-1,34,36,-1,38,40,42,44,46,48,50,-1,-1,-1,-1,-1,-1,-1,-1,-1,-1,-1,-1,-1,-1,-1,-1,-1,-1,-1,-1,-1,-1],"split_conditions":[-7.641548E0,5.3649673E1,-1.734049E-1,4.9274506E1,1.4166486E2,6.9172296E2,-1.0676581E2,2.1901226E1,5.5832943E1,-2.4733425E1,1.4777545E2,-5.2712685E1,-4.3980026E1,-1.0611894E0,1.4065099E2,1.580855E1,7.716882E1,-7.2745603E-1,1.1717576E0,7.505905E1,4.847654E1,-2.4525812E-2,1.4932599E2,-6.2444603E1,-4.4337486E1,-5.4598618E1,-3.4362045E1,1.0605538E2,-4.009116E0,1.3085127E0,-1.376139E0,2.6368716E0,1.1669075E0,1.0727539E0,1.9280652E0,2.8927603E0,1.5501978E0,1.6865727E0,1.8776673E-1,7.938759E-1,1.6138754E0,-4.3820477E-1,8.125706E-1,6.538567E-1,1.6472343E0,-1.1098284E0,4.7142503E-1,1.1039299E0,2.0740407E0,-6.166365E-1,7.465538E-1],"split_indices":[18,0,38,0,1,2,1,1,1,12,1,1,0,0,1,1,1,0,0,0,1,0,1,1,1,0,0,1,18,0,0,0,0,0,0,0,0,0,0,0,0,0,0,0,0,0,0,0,0,0,0],"split_type":[0,0,0,0,0,0,0,0,0,0,0,0,0,0,0,0,0,0,0,0,0,0,0,0,0,0,0,0,0,0,0,0,0,0,0,0,0,0,0,0,0,0,0,0,0,0,0,0,0,0,0],"sum_hessian":[6.212E3,1.741E3,4.471E3,1.528E3,2.13E2,1.038E3,3.433E3,1.479E3,4.9E1,1.66E2,4.7E1,6.71E2,3.67E2,1.7E1,3.416E3,1.287E3,1.92E2,2.8E1,2.1E1,5.6E1,1.1E2,1.6E1,3.1E1,1.47E2,5.24E2,1.82E2,1.85E2,3.08E3,3.36E2,1.26E3,2.7E1,1.03E2,8.9E1,3.4E1,2.2E1,7.8E1,3.2E1,1.4E1,1.7E1,9.4E1,5.3E1,3.7E1,4.87E2,1.65E2,1.7E1,1.9E1,1.66E2,2.965E3,1.15E2,1.8E1,3.18E2],"tree_param":{"num_deleted":"0","num_feature":"52","num_nodes":"51","size_leaf_vector":"0"}},{"base_weights":[9.918208E0,1.1905E1,8.769E0,1.2590528E1,9.922478E0,7.973274E0,1.1815026E1,1.2797241E1,1.8482691E0,8.970187E0,1.9383942E1,5.9858546E0,8.973667E0,1.3323201E1,8.437463E0,1.7851643E1,1.2386651E1,-5.8460016E0,8.584939E0,9.792516E0,1.1120802E0,2.7955418E1,1.3341973E1,1.1461842E1,4.3227487E0,6.989062E0,1.1089681E1,1.0791363E1,1.52520275E1,-2.3401296E0,1.2080126E1,2.4176506E1,1.0214929E1,8.354761E0,1.3443411E1,5.4834237E0,1.069224E1,1.7270245E1,-5.90529E0,1.0178548E1,1.5137205E1,1.4329299E1,-5.5037265E0,2.1045262E-1,6.1256266E0,4.536234E0,9.392791E0,1.3660547E1,4.0501385E0,5.8835015E0,1.7008041E1,7.7118125E0,1.8082975E1,8.667333E0,-5.5317335E0,1.8193127E1,4.787862E0],"categories":[],"categories_nodes":[],"categories_segments":[],"categories_sizes":[],"default_left":[true,true,true,true,true,true,true,true,true,true,true,true,true,true,true,true,true,false,false,true,true,false,true,true,true,true,true,true,true,true,true,false,false,false,false,false,false,false,false,false,false,false,false,false,false,false,false,false,false,false,false,false,false,false,false,false,false],"id":26,"left_children":[1,3,5,7,9,11,13,15,17,19,21,23,25,27,29,31,33,-1,-1,35,37,-1,39,41,43,45,47,49,51,53,55,-1,-1,-1,-1,-1,-1,-1,-1,-1,-1,-1,-1,-1,-1,-1,-1,-1,-1,-1,-1,-1,-1,-1,-1,-1,-1],"loss_changes":[1.4081375E4,2.9655938E3,9.455594E3,3.7202188E3,5.133051E3,6.1633906E3,4.0340703E3,3.211375E3,1.7607019E3,3.4591719E3,2.3718145E3,9.512957E3,8.648953E3,2.575039E3,1.000009E4,5.6457812E3,6.4194062E3,0E0,0E0,1.8255898E3,5.998153E3,0E0,3.333496E1,1.194899E4,5.981782E3,6.2955234E3,1.811479E4,7.405541E3,6.605867E3,2.3314905E3,8.382641E3,0E0,0E0,0E0,0E0,0E0,0E0,0E0,0E0,0E0,0E0,0E0,0E0,0E0,0E0,0E0,0E0,0E0,0E0,0E0,0E0,0E0,0E0,0E0,0E0,0E0,0E0],"parents":[2147483647,0,0,1,1,2,2,3,3,4,4,5,5,6,6,7,7,8,8,9,9,10,10,11,11,12,12,13,13,14,14,15,15,16,16,19,19,20,20,22,22,23,23,24,24,25,25,26,26,27,27,28,28,29,29,30,30],"right_children":[2,4,6,8,10,12,14,16,18,20,22,24,26,28,30,32,34,-1,-1,36,38,-1,40,42,44,46,48,50,52,54,56,-1,-1,-1,-1,-1,-1,-1,-1,-1,-1,-1,-1,-1,-1,-1,-1,-1,-1,-1,-1,-1,-1,-1,-1,-1,-1],"split_conditions":[-7.482746E0,8.093822E2,2.2640224E0,1.5422635E2,3.473767E1,-5.7004166E1,5.60332E0,-1.462147E2,1.720326E2,9.226063E0,7.716882E1,-1.4169534E2,-6.204175E-1,-6.2396988E1,2.120028E1,1.720326E2,-7.590196E1,-5.8460015E-1,8.584939E-1,-1.04265396E2,-8.082959E1,2.7955418E0,1.3074844E2,2.75779E1,-4.4337486E1,1.0968555E0,5.904476E1,9.217781E2,-6.360425E1,9.023811E0,5.1212837E1,2.4176507E0,1.0214928E0,8.354761E-1,1.3443412E0,5.483424E-1,1.069224E0,1.7270244E0,-5.90529E-1,1.0178548E0,1.5137205E0,1.4329299E0,-5.5037266E-1,2.1045262E-2,6.1256266E-1,4.5362338E-1,9.392791E-1,1.3660548E0,4.0501386E-1,5.883502E-1,1.7008041E0,7.711813E-1,1.8082975E0,8.6673325E-1,-5.5317336E-1,1.8193127E0,4.787862E-1],"split_indices":[12,3,32,1,1,0,1,0,9,1,1,0,37,0,1,9,0,0,0,0,0,0,1,8,1,42,1,2,1,1,0,0,0,0,0,0,0,0,0,0,0,0,0,0,0,0,0,0,0,0,0,0,0,0,0,0,0],"split_type":[0,0,0,0,0,0,0,0,0,0,0,0,0,0,0,0,0,0,0,0,0,0,0,0,0,0,0,0,0,0,0,0,0,0,0,0,0,0,0,0,0,0,0,0,0,0,0,0,0,0,0,0,0,0,0,0,0],"sum_hessian":[6.212E3,2.273E3,3.939E3,1.685E3,5.88E2,3.126E3,8.13E2,1.653E3,3.2E1,5.36E2,5.2E1,1.049E3,2.077E3,5.6E2,2.53E2,1.21E2,1.532E3,1.5E1,1.7E1,4.85E2,5.1E1,2E1,3.2E1,2.43E2,8.06E2,1.074E3,1.003E3,2.45E2,3.15E2,6.4E1,1.89E2,6.5E1,5.6E1,3.2E2,1.212E3,8.5E1,4E2,1.5E1,3.6E1,1.4E1,1.8E1,2.08E2,3.5E1,2.46E2,5.6E2,5.33E2,5.41E2,7.34E2,2.69E2,1.38E2,1.07E2,8.7E1,2.28E2,1.4E1,5E1,1.02E2,8.7E1],"tree_param":{"num_deleted":"0","num_feature":"52","num_nodes":"57","size_leaf_vector":"0"}},{"base_weights":[8.930593E0,-1.5005549E1,9.010316E0,1.1240595E1,8.137709E0,1.0409587E1,1.3900374E1,5.6637115E0,8.88759E0,1.1200746E1,-5.6667414E0,2.3859127E1,1.1269199E1,2.1470947E0,6.0030794E0,1.3002191E1,8.4567795E0,8.902641E0,1.3995266E1,-3.642769E1,1.0581058E1,1.1401957E1,2.9778404E1,-4.1954117E0,1.3137202E1,1.5306357E0,2.961406E0,4.5420117E0,6.7035937E0,9.570021E0,1.7746058E1,-8.801212E0,8.628515E0],"categories":[],"categories_nodes":[],"categories_segments":[],"categories_sizes":[],"default_left":[true,false,true,true,true,true,true,true,true,true,true,true,true,true,true,true,true,false,false,false,false,false,false,false,false,false,false,false,false,false,false,false,false],"id":27,"left_children":[1,-1,3,5,7,9,11,13,15,17,19,21,23,25,27,29,31,-1,-1,-1,-1,-1,-1,-1,-1,-1,-1,-1,-1,-1,-1,-1,-1],"loss_changes":[1.1991344E4,0E0,1.19610625E4,3.6990156E3,8.214625E3,1.6966938E4,1.0500648E4,1.227082E3,5.9470625E3,8.012203E3,3.1872697E4,5.9281523E3,9.501469E3,4.215219E1,9.388086E2,5.0728984E3,9.251891E3,0E0,0E0,0E0,0E0,0E0,0E0,0E0,0E0,0E0,0E0,0E0,0E0,0E0,0E0,0E0,0E0],"parents":[2147483647,0,0,2,2,3,3,4,4,5,5,6,6,7,7,8,8,9,9,10,10,11,11,12,12,13,13,14,14,15,15,16,16],"right_children":[2,-1,4,6,8,10,12,14,16,18,20,22,24,26,28,30,32,-1,-1,-1,-1,-1,-1,-1,-1,-1,-1,-1,-1,-1,-1,-1,-1],"split_conditions":[-1.0676581E2,-1.5005549E0,-7.641548E0,3.4742657E1,-1.734049E-1,2.7827185E1,4.37675E1,1.933755E2,-7.163411E1,-3.4963417E1,2.9688778E1,-7.443615E1,4.8541702E1,2.8356262E1,-4.497986E1,-8.0657906E1,-6.980658E1,8.9026415E-1,1.3995266E0,-3.6427689E0,1.0581058E0,1.1401957E0,2.9778404E0,-4.1954118E-1,1.3137202E0,1.5306358E-1,2.961406E-1,4.542012E-1,6.703594E-1,9.570021E-1,1.7746058E0,-8.8012123E-1,8.6285156E-1],"split_indices":[1,0,18,0,38,0,0,4,1,1,0,8,0,0,1,1,1,0,0,0,0,0,0,0,0,0,0,0,0,0,0,0,0],"split_type":[0,0,0,0,0,0,0,0,0,0,0,0,0,0,0,0,0,0,0,0,0,0,0,0,0,0,0,0,0,0,0,0,0],"sum_hessian":[6.212E3,2E1,6.192E3,1.738E3,4.454E3,1.328E3,4.1E2,1.038E3,3.416E3,1.266E3,6.2E1,8.4E1,3.26E2,9.2E1,9.46E2,3.21E2,3.095E3,6.97E2,5.69E2,2.1E1,4.1E1,2.8E1,5.6E1,3.5E1,2.91E2,5.4E1,3.8E1,3.09E2,6.37E2,1.88E2,1.33E2,3E1,3.065E3],"tree_param":{"num_deleted":"0","num_feature":"52","num_nodes":"33","size_leaf_vector":"0"}},{"base_weights":[8.038741E0,-1.3576454E1,8.110739E0,9.775637E0,7.1468825E0,1.0908307E1,8.510719E0,6.451349E0,9.806291E0,9.249133E0,1.6975193E1,-1.6757097E1,8.859595E0,4.012543E0,7.218991E0,1.1179953E1,6.7445436E0,8.059129E0,2.1110367E1,1.8234049E1,-1.7213947E0,3.1779085E1,8.500883E0,5.389901E0,-1.1314191E1,5.309633E0,8.7412815E0,8.943211E0,1.3165645E1,-2.9508684E0,1.0025898E1],"categories":[],"categories_nodes":[],"categories_segments":[],"categories_sizes":[],"default_left":[true,false,true,true,true,true,true,true,true,true,true,false,true,true,true,true,true,false,false,false,false,false,false,false,false,false,false,false,false,false,false],"id":28,"left_children":[1,-1,3,5,7,9,11,13,15,17,19,-1,21,23,25,27,29,-1,-1,-1,-1,-1,-1,-1,-1,-1,-1,-1,-1,-1,-1],"loss_changes":[9.779031E3,0E0,9.8681875E3,3.1566094E3,7.1986875E3,1.1851766E4,9.633773E3,5.8027188E3,3.339711E3,1.3083781E4,6.0331562E3,0E0,8.461078E3,1.58515625E4,6.836414E3,2.365039E3,8.1103623E3,0E0,0E0,0E0,0E0,0E0,0E0,0E0,0E0,0E0,0E0,0E0,0E0,0E0,0E0],"parents":[2147483647,0,0,2,2,3,3,4,4,5,5,6,6,7,7,8,8,9,9,10,10,12,12,13,13,14,14,15,15,16,16],"right_children":[2,-1,4,6,8,10,12,14,16,18,20,-1,22,24,26,28,30,-1,-1,-1,-1,-1,-1,-1,-1,-1,-1,-1,-1,-1,-1],"split_conditions":[-1.0676581E2,-1.3576454E0,-7.482746E0,-2.6802559E1,2.2640224E0,2.2837559E1,-2.6367653E1,-7.4142136E1,5.60332E0,-3.4963417E1,9.322853E2,-1.6757097E0,-1.4405867E2,6.179286E0,9.4293195E2,-5.6296455E1,2.120028E1,8.059129E-1,2.1110368E0,1.8234049E0,-1.7213947E-1,3.1779087E0,8.500883E-1,5.3899014E-1,-1.1314191E0,5.309633E-1,8.7412816E-1,8.943211E-1,1.3165644E0,-2.9508683E-1,1.0025898E0],"split_indices":[1,0,12,1,32,0,1,0,1,1,2,0,0,18,2,0,1,0,0,0,0,0,0,0,0,0,0,0,0,0,0],"split_type":[0,0,0,0,0,0,0,0,0,0,0,0,0,0,0,0,0,0,0,0,0,0,0,0,0,0,0,0,0,0,0],"sum_hessian":[6.212E3,2E1,6.192E3,2.267E3,3.925E3,1.192E3,1.075E3,3.114E3,8.11E2,9.38E2,2.54E2,1.4E1,1.061E3,7.47E2,2.367E3,5.58E2,2.53E2,8.54E2,8.4E1,2.38E2,1.6E1,1.5E1,1.046E3,6.86E2,6.1E1,1.052E3,1.315E3,2.65E2,2.93E2,6.4E1,1.89E2],"tree_param":{"num_deleted":"0","num_feature":"52","num_nodes":"31","size_leaf_vector":"0"}},{"base_weights":[7.236365E0,9.095743E0,6.5104537E0,8.559534E0,1.2884376E1,4.80712E0,7.2611823E0,8.799247E0,-9.073105E0,1.594059E1,1.9828728E0,5.845417E0,2.5213454E0,8.009298E0,4.599832E0,8.08457E0,1.3357288E1,1.8711626E1,7.2479415E0,-3.523966E0,4.8464165E0,4.7560196E0,1.299357E1,-5.1805725E0,5.250262E0,7.0472403E0,1.3834182E1,-4.5115E0,7.4876356E0,8.577842E0,-1.0087401E1,1.5059195E1,-3.9169178E0,2.229484E1,1.1995282E1,1.5539677E1,-4.671021E0,1.20173235E1,-1.3985854E0,2.7861176E0,6.2797484E0,3.236253E0,2.5582014E1,3.0589748E-2,-1.4691709E1,1.4322158E1,3.584435E0,7.6151247E0,-1.15501585E1,1.6599632E1,1.0773135E0,-2.740639E0,-2.2037397E1,1.3551487E1,3.3227153E0],"categories":[],"categories_nodes":[],"categories_segments":[],"categories_sizes":[],"default_left":[true,true,true,true,true,true,true,true,false,true,true,true,true,true,true,true,true,true,true,false,true,true,true,true,true,true,true,true,true,false,false,false,false,false,false,false,false,false,false,false,false,false,false,false,false,false,false,false,false,false,false,false,false,false,false],"id":29,"left_children":[1,3,5,7,9,11,13,15,-1,17,19,21,23,25,27,29,31,33,35,-1,37,39,41,43,45,47,49,51,53,-1,-1,-1,-1,-1,-1,-1,-1,-1,-1,-1,-1,-1,-1,-1,-1,-1,-1,-1,-1,-1,-1,-1,-1,-1,-1],"loss_changes":[8.32675E3,3.4285938E3,5.683625E3,6.542547E3,7.098301E3,3.2390762E3,6.1392344E3,4.807617E3,0E0,3.8870156E3,7.7399414E2,7.2737266E3,9.064891E3,1.3463891E4,1.8004695E4,1.1802094E4,6.027E3,2.7648945E3,4.2233994E3,0E0,1.4498417E3,2.4408105E3,1.5148059E4,5.6011904E3,4.7543447E3,2.2044648E4,1.2047367E4,5.0605312E3,1.3062557E4,0E0,0E0,0E0,0E0,0E0,0E0,0E0,0E0,0E0,0E0,0E0,0E0,0E0,0E0,0E0,0E0,0E0,0E0,0E0,0E0,0E0,0E0,0E0,0E0,0E0,0E0],"parents":[2147483647,0,0,1,1,2,2,3,3,4,4,5,5,6,6,7,7,9,9,10,10,11,11,12,12,13,13,14,14,15,15,16,16,17,17,18,18,20,20,21,21,22,22,23,23,24,24,25,25,26,26,27,27,28,28],"right_children":[2,4,6,8,10,12,14,16,-1,18,20,22,24,26,28,30,32,34,36,-1,38,40,42,44,46,48,50,52,54,-1,-1,-1,-1,-1,-1,-1,-1,-1,-1,-1,-1,-1,-1,-1,-1,-1,-1,-1,-1,-1,-1,-1,-1,-1,-1],"split_conditions":[-7.641548E0,5.3649673E1,-9.633671E-2,5.1212837E1,1.4166486E2,7.9300375E0,4.9305817E1,2.2963243E1,-9.073105E-1,3.1003168E2,1.4777545E2,1.475838E3,2.2792185E1,2.1901226E1,5.3649673E1,1.580855E1,1.5694763E2,4.847654E1,7.07865E1,-3.523966E-1,1.4932599E2,-4.497986E1,2.0851242E1,1.1846902E3,2.8153078E1,1.4839474E1,1.5694763E2,5.2575264E1,2.943483E1,8.577842E-1,-1.0087402E0,1.5059195E0,-3.9169177E-1,2.229484E0,1.1995282E0,1.5539677E0,-4.671021E-1,1.2017324E0,-1.3985854E-1,2.7861175E-1,6.2797487E-1,3.236253E-1,2.5582016E0,3.0589749E-3,-1.4691709E0,1.4322158E0,3.584435E-1,7.6151246E-1,-1.1550158E0,1.6599633E0,1.0773136E-1,-2.7406392E-1,-2.20374E0,1.3551487E0,3.3227155E-1],"split_indices":[18,0,38,0,1,1,0,1,0,4,1,2,1,1,0,1,1,1,0,0,1,1,0,2,1,1,1,0,1,0,0,0,0,0,0,0,0,0,0,0,0,0,0,0,0,0,0,0,0,0,0,0,0,0,0],"split_type":[0,0,0,0,0,0,0,0,0,0,0,0,0,0,0,0,0,0,0,0,0,0,0,0,0,0,0,0,0,0,0,0,0,0,0,0,0,0,0,0,0,0,0,0,0,0,0,0,0,0,0,0,0,0,0],"sum_hessian":[6.212E3,1.741E3,4.471E3,1.528E3,2.13E2,1.37E3,3.101E3,1.508E3,2E1,1.66E2,4.7E1,9.41E2,4.29E2,2.419E3,6.82E2,1.306E3,2.02E2,1.25E2,4.1E1,1.6E1,3.1E1,8.18E2,1.23E2,1.12E2,3.17E2,2.078E3,3.41E2,1.64E2,5.18E2,1.272E3,3.4E1,1.84E2,1.8E1,8E1,4.5E1,2.4E1,1.7E1,1.4E1,1.7E1,3.58E2,4.6E2,7E1,5.3E1,7.3E1,3.9E1,4.8E1,2.69E2,2.017E3,6.1E1,2.8E2,6.1E1,1.5E2,1.4E1,2.1E2,3.08E2],"tree_param":{"num_deleted":"0","num_feature":"52","num_nodes":"55","size_leaf_vector":"0"}},{"base_weights":[6.5143356E0,-1.2953467E1,6.5792975E0,7.977328E0,5.769998E0,1.7915844E1,7.8406E0,5.1630526E0,8.09126E0,2.1866405E1,1.2507522E1,5.9572816E0,8.582464E0,3.0071163E0,5.8418856E0,1.3591536E1,7.3953876E0,7.381957E0,-7.5930514E0,2.0923805E1,8.10593E0,4.264449E0,-1.0973445E1,-1.3542527E0,6.149847E0,1.0635564E1,2.7662357E1,5.8936586E0,9.7641115E0],"categories":[],"categories_nodes":[],"categories_segments":[],"categories_sizes":[],"default_left":[true,false,true,true,true,true,true,true,true,false,false,true,true,true,true,true,true,false,false,false,false,false,false,false,false,false,false,false,false],"id":30,"left_children":[1,-1,3,5,7,9,11,13,15,-1,-1,17,19,21,23,25,27,-1,-1,-1,-1,-1,-1,-1,-1,-1,-1,-1,-1],"loss_changes":[7.9425938E3,0E0,6.960875E3,2.9414531E3,5.4894844E3,3.674834E2,3.077125E3,4.5413047E3,3.0074102E3,0E0,0E0,1.2333922E4,9.263625E3,1.3195306E4,5.256133E3,3.449162E3,2.5142969E3,0E0,0E0,0E0,0E0,0E0,0E0,0E0,0E0,0E0,0E0,0E0,0E0],"parents":[2147483647,0,0,2,2,3,3,4,4,5,5,6,6,7,7,8,8,11,11,12,12,13,13,14,14,15,15,16,16],"right_children":[2,-1,4,6,8,10,12,14,16,-1,-1,18,20,22,24,26,28,-1,-1,-1,-1,-1,-1,-1,-1,-1,-1,-1,-1],"split_conditions":[-1.0676581E2,-1.2953467E0,-7.482746E0,-1.0147795E2,2.2640224E0,-1.7739483E1,-7.590196E1,-7.4142136E1,-1.15344955E2,2.1866405E0,1.2507522E0,-8.1101654E1,-7.220677E1,6.179286E0,5.017669E2,-1.23923965E2,2.4845844E1,7.381957E-1,-7.593052E-1,2.0923805E0,8.1059307E-1,4.2644492E-1,-1.0973445E0,-1.3542527E-1,6.149847E-1,1.0635564E0,2.7662358E0,5.893659E-1,9.7641116E-1],"split_indices":[1,0,12,1,32,12,0,0,0,0,0,0,0,18,2,0,0,0,0,0,0,0,0,0,0,0,0,0,0],"split_type":[0,0,0,0,0,0,0,0,0,0,0,0,0,0,0,0,0,0,0,0,0,0,0,0,0,0,0,0,0],"sum_hessian":[6.212E3,2E1,6.192E3,2.267E3,3.925E3,2.9E1,2.238E3,3.114E3,8.11E2,1.5E1,1.4E1,6.35E2,1.603E3,7.47E2,2.367E3,8.9E1,7.22E2,5.75E2,6E1,5.8E1,1.545E3,6.86E2,6.1E1,9.7E1,2.27E3,7.5E1,1.4E1,4.44E2,2.78E2],"tree_param":{"num_deleted":"0","num_feature":"52","num_nodes":"29","size_leaf_vector":"0"}},{"base_weights":[5.864548E0,9.319865E0,5.554577E0,7.06617E0,1.6204716E1,2.451319E0,6.2780285E0,9.156887E0,-4.446006E0,1.8213046E0,2.0530733E1,3.8980575E0,-7.704725E0,3.3078225E0,6.927721E0,5.8001766E0,1.7293274E1,5.2578397E0,-9.07115E0,2.8212673E1,1.319936E1,2.6235447E0,1.166915E1,7.335397E0,-1.1888677E1,5.720678E0,-2.3558336E-1,1.1928868E1,6.4573174E0,1.0061419E1,-3.8681753E0,3.6330304E0,2.4174143E1,-1.4500677E1,-5.529536E-1,3.431782E1,1.9310455E1,1.4001153E0,2.0766611E1,-1.665881E1,3.006391E0,1.3994489E1,7.3972545E0,-2.9798117E0,1.6547441E1,-6.046212E0,-2.1377588E1,4.981781E0,2.396979E1,-1.6363228E1,1.8617957E0,2.2920464E1,1.0126197E1,-6.547374E0,7.0019584E0],"categories":[],"categories_nodes":[],"categories_segments":[],"categories_sizes":[],"default_left":[true,true,true,true,true,true,true,true,true,false,true,true,true,true,true,true,true,false,true,true,true,true,true,true,true,true,true,true,true,false,false,false,false,false,false,false,false,false,false,false,false,false,false,false,false,false,false,false,false,false,false,false,false,false,false],"id":31,"left_children":[1,3,5,7,9,11,13,15,17,-1,19,21,23,25,27,29,31,-1,33,35,37,39,41,43,45,47,49,51,53,-1,-1,-1,-1,-1,-1,-1,-1,-1,-1,-1,-1,-1,-1,-1,-1,-1,-1,-1,-1,-1,-1,-1,-1,-1,-1],"loss_changes":[6.6026562E3,7.798832E3,1.2790422E4,9.331229E3,7.7404688E3,1.5898625E4,8.902047E3,8.830557E3,2.7405957E3,0E0,5.03425E3,9.338908E3,8.582373E3,7.1147197E3,8.8485625E3,9.638329E3,8.841637E3,0E0,1.8882224E3,1.8373789E3,4.5246045E3,6.0591743E3,1.2176484E3,2.9000332E3,5.747241E3,6.5552725E3,1.1463579E4,6.2075273E3,2.4623469E4,0E0,0E0,0E0,0E0,0E0,0E0,0E0,0E0,0E0,0E0,0E0,0E0,0E0,0E0,0E0,0E0,0E0,0E0,0E0,0E0,0E0,0E0,0E0,0E0,0E0,0E0],"parents":[2147483647,0,0,1,1,2,2,3,3,4,4,5,5,6,6,7,7,8,8,10,10,11,11,12,12,13,13,14,14,15,15,16,16,18,18,19,19,20,20,21,21,22,22,23,23,24,24,25,25,26,26,27,27,28,28],"right_children":[2,4,6,8,10,12,14,16,18,-1,20,22,24,26,28,30,32,-1,34,36,38,40,42,44,46,48,50,52,54,-1,-1,-1,-1,-1,-1,-1,-1,-1,-1,-1,-1,-1,-1,-1,-1,-1,-1,-1,-1,-1,-1,-1,-1,-1,-1],"split_conditions":[-1.4169534E2,-4.5553623E1,-7.590196E1,-1.5519681E2,-5.6982994E0,-7.9553665E1,7.3590796E2,-1.66123E2,-1.3203093E-1,1.8213046E-1,-1.4339833E2,2.788506E1,4.24404E1,2.2934431E1,-6.65689E1,-1.7001202E2,-1.4664319E-1,5.2578396E-1,1.6873755E1,-7.0305824E0,6.0468636E0,-1.4035327E2,-9.027278E1,-7.73004E1,1.185633E1,1.8185993E1,2.8864819E1,-5.0057995E1,-6.2396988E1,1.0061419E0,-3.8681754E-1,3.6330304E-1,2.4174144E0,-1.4500678E0,-5.529536E-2,3.4317822E0,1.9310455E0,1.4001153E-1,2.076661E0,-1.665881E0,3.0063912E-1,1.3994489E0,7.397255E-1,-2.9798117E-1,1.6547441E0,-6.0462123E-1,-2.137759E0,4.981781E-1,2.396979E0,-1.6363229E0,1.8617956E-1,2.2920463E0,1.0126197E0,-6.547374E-1,7.0019585E-1],"split_indices":[0,1,0,0,37,0,2,0,32,0,0,34,16,0,0,0,38,0,34,13,46,0,0,0,1,0,0,1,0,0,0,0,0,0,0,0,0,0,0,0,0,0,0,0,0,0,0,0,0,0,0,0,0,0,0],"split_type":[0,0,0,0,0,0,0,0,0,0,0,0,0,0,0,0,0,0,0,0,0,0,0,0,0,0,0,0,0,0,0,0,0,0,0,0,0,0,0,0,0,0,0,0,0,0,0,0,0,0,0,0,0,0,0],"sum_hessian":[6.212E3,5.09E2,5.703E3,3.85E2,1.24E2,1.079E3,4.624E3,3.26E2,5.9E1,2.9E1,9.5E1,9.45E2,1.34E2,8.31E2,3.793E3,2.32E2,9.4E1,1.9E1,4E1,4.5E1,5E1,8.13E2,1.32E2,2.9E1,1.05E2,4.94E2,3.37E2,3.24E2,3.469E3,1.61E2,7.1E1,3.2E1,6.2E1,2.4E1,1.6E1,2.5E1,2E1,2E1,3E1,1.5E1,7.98E2,8.4E1,4.8E1,1.4E1,1.5E1,6.6E1,3.9E1,4.76E2,1.8E1,3.8E1,2.99E2,4.4E1,2.8E2,1.39E2,3.33E3],"tree_param":{"num_deleted":"0","num_feature":"52","num_nodes":"55","size_leaf_vector":"0"}},{"base_weights":[5.280405E0,-1.2386654E1,5.3394604E0,6.8210387E0,4.7599306E0,6.350435E0,1.0144966E1,5.8478136E0,3.8124251E0,6.7157855E0,-4.5690384E0,1.2908144E1,3.2005486E-1,4.059141E0,8.53024E0,-9.746065E0,4.1367974E0,5.972973E0,1.1626658E1,-1.112611E1,6.7149262E0,6.510505E0,1.607713E1,-4.614212E0,2.9313824E0,3.5988839E0,1.1507517E1,3.5912683E0,1.2359245E1,-1.59514675E1,8.278797E0,1.4632951E1,3.7326949E0],"categories":[],"categories_nodes":[],"categories_segments":[],"categories_sizes":[],"default_left":[true,false,true,true,true,true,true,true,true,true,true,true,true,