{"learner":{"attributes":{"best_iteration":"21","best_ntree_limit":"22"},"feature_names":["PC_001","PC_002"],"feature_types":["float","float"],"gradient_booster":{"model":{"gbtree_model_param":{"num_trees":"22","size_leaf_vector":"0"},"tree_info":[0,0,0,0,0,0,0,0,0,0,0,0,0,0,0,0,0,0,0,0,0,0],"trees":[{"base_weights":[2.1563895E2,2.1042088E2,2.2736885E2,2.0804839E2,2.2046371E2,2.1006172E2,2.3698839E2],"categories":[],"categories_nodes":[],"categories_segments":[],"categories_sizes":[],"default_left":[true,true,true,false,false,false,false],"id":0,"left_children":[1,3,5,-1,-1,-1,-1],"loss_changes":[3.248E5,5.4848E4,2.60216E5,0E0,0E0,0E0,0E0],"parents":[2147483647,0,0,1,1,2,2],"right_children":[2,4,6,-1,-1,-1,-1],"split_conditions":[8.295914E0,3.829699E1,-2.4561676E1,6.2414516E1,6.6139114E1,6.301852E1,7.109652E1],"split_indices":[1,0,0,0,0,0,0],"split_type":[0,0,0,0,0,0,0],"sum_hessian":[6.087E3,4.226E3,1.861E3,3.436E3,7.9E2,6.73E2,1.188E3],"tree_param":{"num_deleted":"0","num_feature":"2","num_nodes":"7","size_leaf_vector":"0"}},{"base_weights":[1.509904E2,1.4897433E2,1.6670065E2,1.4591542E2,1.5492949E2,1.595601E2,1.7546777E2,1.4669395E2,1.3738995E2,1.8287297E2,1.5163269E2,1.5760455E2,1.8235345E2,1.4365916E2,1.4964642E2,1.3876868E2,1.5534682E2,1.4513683E2,1.23744965E2,1.04272606E2,1.3289325E2],"categories":[],"categories_nodes":[],"categories_segments":[],"categories_sizes":[],"default_left":[true,true,true,true,true,false,true,true,false,false,true,false,false,true,false,false,false,false,true,false,false],"id":1,"left_children":[1,3,5,7,9,-1,11,13,-1,-1,15,-1,-1,17,-1,-1,-1,-1,19,-1,-1],"loss_changes":[1.67984E5,7.5848E4,1.4822E4,3.664E3,1.39752E5,0E0,7.791E3,7.824E3,0E0,0E0,5.6416E4,0E0,0E0,3.0268E4,0E0,0E0,0E0,0E0,7.519625E3,0E0,0E0],"parents":[2147483647,0,0,1,1,2,2,3,3,4,4,6,6,7,7,10,10,13,13,18,18],"right_children":[2,4,6,8,10,-1,12,14,-1,-1,16,-1,-1,18,-1,-1,-1,-1,20,-1,-1],"split_conditions":[9.2834465E1,1.8079735E1,7.5880356E1,-8.341115E-1,1.8185993E1,4.7868034E1,1.410575E2,-7.2165794E1,4.1216988E1,5.4861893E1,3.0869347E1,4.728137E1,5.470604E1,2.1420494E1,4.489393E1,4.1630604E1,4.6604046E1,4.354105E1,2.2622978E1,3.1281782E1,3.9867977E1],"split_indices":[1,0,0,0,0,0,1,0,0,0,0,0,0,1,0,0,0,0,1,0,0],"split_type":[0,0,0,0,0,0,0,0,0,0,0,0,0,0,0,0,0,0,0,0,0],"sum_hessian":[6.087E3,5.404E3,6.83E2,3.587E3,1.817E3,3.87E2,2.96E2,3.272E3,3.15E2,1.86E2,1.631E3,8.9E1,2.07E2,1.638E3,1.634E3,3.74E2,1.257E3,1.519E3,1.19E2,4.2E1,7.7E1],"tree_param":{"num_deleted":"0","num_feature":"2","num_nodes":"21","size_leaf_vector":"0"}},{"base_weights":[1.0577439E2,1.03068695E2,1.1185988E2,1.0451158E2,9.939312E1,1.03370285E2,1.16896774E2,1.0315417E2,1.1097927E2,9.9794815E1,7.1858894E1,1.0039687E2,1.1201639E2,1.2688832E2,1.1442597E2,9.55188E1,1.0399137E2,1.1555665E2,1.038899E2,9.443544E1,1.02463425E2,9.284679E1,1.0412207E2,1.1704088E2,9.065633E1,1.03719666E2,1.20200516E2,9.576153E1,7.581995E1,9.9912224E1,8.139882E1,8.333949E1,1.0681624E2,1.16059265E2,1.2640297E2,7.864901E1,9.717041E1,1.06741264E2,7.374375E1],"categories":[],"categories_nodes":[],"categories_segments":[],"categories_sizes":[],"default_left":[true,true,true,true,true,true,true,true,true,true,false,true,true,false,true,false,false,false,false,true,false,true,false,false,false,true,true,true,false,true,false,false,false,false,false,false,false,false,false],"id":2,"left_children":[1,3,5,7,9,11,13,15,17,19,-1,21,23,-1,25,-1,-1,-1,-1,27,-1,29,-1,-1,-1,31,33,35,-1,37,-1,-1,-1,-1,-1,-1,-1,-1,-1],"loss_changes":[8.8712E4,1.2032E4,6.7538E4,1.503E4,6.235E3,6.8015E3,1.4143E4,6.092E3,4.5445E3,7.371E3,0E0,5.2955E3,7.74175E3,0E0,4.5709E4,0E0,0E0,0E0,0E0,2.83575E3,0E0,6.831125E3,0E0,0E0,0E0,1.236575E4,8.7E2,1.47125E3,0E0,1.1786E4,0E0,0E0,0E0,0E0,0E0,0E0,0E0,0E0,0E0],"parents":[2147483647,0,0,1,1,2,2,3,3,4,4,5,5,6,6,7,7,8,8,9,9,11,11,12,12,14,14,19,19,21,21,25,25,26,26,27,27,29,29],"right_children":[2,4,6,8,10,12,14,16,18,20,-1,22,24,-1,26,-1,-1,-1,-1,28,-1,30,-1,-1,-1,32,34,36,-1,38,-1,-1,-1,-1,-1,-1,-1,-1,-1],"split_conditions":[8.295914E0,-2.7271564E1,-2.1758945E1,3.829699E1,9.759665E1,1.01304E2,1.2418733E1,-8.837352E1,5.181356E1,-5.7559288E1,2.1557669E1,-7.275435E1,1.7747937E2,3.8066498E1,5.043165E1,2.8655642E1,3.1197412E1,3.4666996E1,3.1166971E1,-6.490037E1,3.0739029E1,-8.082959E1,3.1236622E1,3.5112267E1,2.71969E1,2.6392262E1,1.410575E2,-2.4868288E1,2.2745985E1,5.916623E1,2.4419647E1,2.5001848E1,3.2044872E1,3.481778E1,3.792089E1,2.3594704E1,2.9151125E1,3.202238E1,2.2123127E1],"split_indices":[1,1,0,0,0,1,1,1,0,0,0,0,1,0,0,0,0,0,0,0,0,0,0,0,0,1,1,1,0,1,0,0,0,0,0,0,0,0,0],"split_type":[0,0,0,0,0,0,0,0,0,0,0,0,0,0,0,0,0,0,0,0,0,0,0,0,0,0,0,0,0,0,0,0,0,0,0,0,0,0,0],"sum_hessian":[6.087E3,4.226E3,1.861E3,3.015E3,1.211E3,7.01E2,1.16E3,2.506E3,5.09E2,1.191E3,2E1,5.31E2,1.7E2,2.2E2,9.4E2,2.59E2,2.247E3,3E2,2.09E2,4.08E2,7.83E2,1.84E2,3.47E2,1.34E2,3.6E1,3.36E2,6.04E2,3.77E2,3.1E1,1.09E2,7.5E1,4.8E1,2.88E2,3.74E2,2.3E2,3.3E1,3.44E2,8.4E1,2.5E1],"tree_param":{"num_deleted":"0","num_feature":"2","num_nodes":"39","size_leaf_vector":"0"}},{"base_weights":[7.413955E1,7.2103424E1,7.835283E1,7.3199776E1,6.903745E1,7.2440575E1,8.205594E1,7.223769E1,7.787393E1,6.939072E1,5.1042984E1,6.792355E1,7.505385E1,8.820845E1,8.02361E1,7.35525E1,6.808279E1,8.437929E1,7.403957E1,6.9573364E1,3.996593E1,7.499339E1,5.8408993E1,9.040617E1,7.545497E1,7.277304E1,8.426059E1,7.236179E1,8.352301E1,6.1859367E1,7.124947E1,7.288428E1,8.838992E1,8.4449486E1,7.0104004E1,6.4557465E1,7.092296E1,6.1959747E1,4.986656E1,4.319633E1,7.373219E1,8.1334335E1,8.864624E1,7.35812E1,6.598321E1,6.434045E1,5.0381058E1,7.923736E1,5.51434E1,5.1670353E1,7.1448906E1,8.161873E1,6.3043842E1,6.4386314E1,7.310696E1,7.255583E1,5.4140736E1,9.3038635E1,7.2161156E1],"categories":[],"categories_nodes":[],"categories_segments":[],"categories_sizes":[],"default_left":[true,true,true,true,true,true,true,true,true,true,false,true,false,true,true,true,true,true,true,true,false,false,true,false,false,true,true,true,false,true,false,true,false,false,true,true,true,true,false,false,true,false,false,false,false,false,false,false,false,false,false,false,false,false,false,false,false,false,false],"id":3,"left_children":[1,3,5,7,9,11,13,15,17,19,-1,21,-1,23,25,27,29,31,33,35,-1,-1,37,-1,-1,39,41,43,-1,45,-1,47,-1,-1,49,51,53,55,-1,-1,57,-1,-1,-1,-1,-1,-1,-1,-1,-1,-1,-1,-1,-1,-1,-1,-1,-1,-1],"loss_changes":[4.6578E4,8.784E3,3.723E4,7.938E3,3.4635E3,3.96775E3,6.4145E3,8.731E3,6.2745E3,3.013E3,0E0,1.52615E4,0E0,6.06E2,2.2131E4,1.6489E4,7.772E3,1.810125E3,7.353625E3,2.6645E3,0E0,0E0,8.23125E2,0E0,0E0,6.37525E3,5.54E2,8.391E3,0E0,2.909875E3,0E0,1.4914688E3,0E0,0E0,2.283E3,1.000625E3,7.185E3,3.2798125E3,0E0,0E0,3.143875E3,0E0,0E0,0E0,0E0,0E0,0E0,0E0,0E0,0E0,0E0,0E0,0E0,0E0,0E0,0E0,0E0,0E0,0E0],"parents":[2147483647,0,0,1,1,2,2,3,3,4,4,5,5,6,6,7,7,8,8,9,9,11,11,13,13,14,14,15,15,16,16,17,17,18,18,19,19,22,22,25,25,26,26,27,27,29,29,31,31,34,34,35,35,36,36,37,37,40,40],"right_children":[2,4,6,8,10,12,14,16,18,20,-1,22,-1,24,26,28,30,32,34,36,-1,-1,38,-1,-1,40,42,44,-1,46,-1,48,-1,-1,50,52,54,56,-1,-1,58,-1,-1,-1,-1,-1,-1,-1,-1,-1,-1,-1,-1,-1,-1,-1,-1,-1,-1],"split_conditions":[5.1054864E0,-2.7271564E1,-2.1758945E1,3.8707436E1,3.850478E0,2.1901226E1,1.2418733E1,-8.341115E-1,-6.1060997E1,1.0013823E2,1.5312896E1,1.4839474E1,2.2516155E1,2.0264606E1,5.043165E1,-3.4915146E1,1.4000367E1,-7.491504E1,4.2587967E1,-7.6206474E1,1.1989779E1,2.2498018E1,2.1420494E1,2.7121853E1,2.2636492E1,1.8657804E1,1.410575E2,-5.7671444E1,2.5056904E1,-4.286106E1,2.1374844E1,-7.5203735E1,2.6516977E1,2.5334846E1,4.3900345E1,-1.2174635E2,-1.9542038E1,-5.762574E1,1.49599695E1,1.29588995E1,-1.5650455E1,2.4400301E1,2.6593874E1,2.207436E1,1.9794964E1,1.9302135E1,1.5114318E1,2.3771208E1,1.654302E1,1.5501106E1,2.1434673E1,2.448562E1,1.8913153E1,1.9315895E1,2.1932087E1,2.176675E1,1.6242222E1,2.7911592E1,2.1648348E1],"split_indices":[1,1,0,0,1,1,1,0,1,0,0,1,0,0,0,0,0,1,0,0,0,0,1,0,0,1,1,0,0,1,0,1,0,0,0,0,1,0,0,0,0,0,0,0,0,0,0,0,0,0,0,0,0,0,0,0,0,0,0],"split_type":[0,0,0,0,0,0,0,0,0,0,0,0,0,0,0,0,0,0,0,0,0,0,0,0,0,0,0,0,0,0,0,0,0,0,0,0,0,0,0,0,0,0,0,0,0,0,0,0,0,0,0,0,0,0,0,0,0,0,0],"sum_hessian":[6.087E3,4.116E3,1.971E3,3.015E3,1.101E3,7.67E2,1.204E3,2.514E3,5.01E2,1.077E3,2.4E1,2.91E2,4.76E2,2.64E2,9.4E2,1.897E3,6.17E2,1.78E2,3.23E2,1.069E3,8E0,1.63E2,1.28E2,2.2E2,4.4E1,3.36E2,6.04E2,1.702E3,1.95E2,2.15E2,4.02E2,5.1E1,1.27E2,8.3E1,2.4E2,2.37E2,8.32E2,8.6E1,4.2E1,1.2E1,3.24E2,3.74E2,2.3E2,1.42E3,2.82E2,1.73E2,4.2E1,3.5E1,1.6E1,1.9E1,2.21E2,1.5E1,2.22E2,2.16E2,6.16E2,3.3E1,5.3E1,2E1,3.04E2],"tree_param":{"num_deleted":"0","num_feature":"2","num_nodes":"59","size_leaf_vector":"0"}},{"base_weights":[5.2000347E1,5.0560753E1,5.4979458E1,5.106683E1,4.614843E1,5.0835983E1,5.7574654E1,5.0226067E1,5.387535E1,3.930428E1,4.8882896E1,5.9942467E1,4.9704845E1,6.1933678E1,5.62859E1,5.135173E1,4.5836514E1,5.6447098E1,5.151677E1,2.4160152E1,4.079319E1,4.982128E1,3.63426E1,4.3614258E1,5.16158E1,5.1126644E1,5.90667E1,4.663192E1,5.1850662E1,4.677488E1,3.450247E1,5.4545517E1,6.380456E1,5.266644E1,4.5211586E1,4.4575005E1,5.2087437E1,4.5881485E1,2.6924583E1,4.6946507E1,3.3240704E1,6.720372E1,5.1082504E1,3.9769375E1,5.2875362E1,5.6999104E1,6.2167492E1,5.623178E1,4.5046856E1,6.1781982E1,5.142855E1,3.4508083E1,4.7708008E1,3.7762585E1,2.2569632E1,5.6573536E1,4.6750614E1,5.16532E1,6.791681E1,3.458484E1,5.4928204E1,5.630332E1,4.0084633E1,4.2231194E1,5.8602173E1,4.5769394E1,5.2633457E1,5.772881E1,4.918861E1,6.2094418E1,5.450658E1,4.6244827E1,6.3705837E1],"categories":[],"categories_nodes":[],"categories_segments":[],"categories_sizes":[],"default_left":[true,true,true,true,true,true,true,true,true,true,true,false,true,false,true,true,true,true,true,false,false,true,true,true,true,true,true,true,true,true,true,true,false,true,true,true,false,false,false,true,false,false,true,false,true,true,true,false,false,false,false,false,false,false,false,false,false,false,false,false,false,false,false,false,false,false,false,false,false,false,false,false,false],"id":4,"left_children":[1,3,5,7,9,11,13,15,17,19,21,-1,23,-1,25,27,29,31,33,-1,-1,35,37,39,41,43,45,47,49,51,53,55,-1,57,59,61,-1,-1,-1,63,-1,-1,65,-1,67,69,71,-1,-1,-1,-1,-1,-1,-1,-1,-1,-1,-1,-1,-1,-1,-1,-1,-1,-1,-1,-1,-1,-1,-1,-1,-1,-1],"loss_changes":[2.333E4,6.836E3,1.8278E4,5.993E3,6.2010625E3,4.9315E3,3.2835E3,1.17285E4,2.157E3,1.9231562E3,1.79025E3,0E0,5.768E3,0E0,1.04805E4,2.904E3,4.67175E3,1.962125E3,8.59125E2,0E0,0E0,1.030875E3,1.01059375E3,4.3504688E3,8.81375E2,4.5901875E3,3.3525E2,9.0584375E2,5.3535E3,4.569E3,1.0539297E3,2.3505625E3,0E0,2.240125E3,5.9477812E3,2.5882344E3,0E0,0E0,0E0,4.5050938E3,0E0,0E0,1.760625E3,0E0,2.331625E3,1.378E3,2.7121875E3,0E0,0E0,0E0,0E0,0E0,0E0,0E0,0E0,0E0,0E0,0E0,0E0,0E0,0E0,0E0,0E0,0E0,0E0,0E0,0E0,0E0,0E0,0E0,0E0,0E0,0E0],"parents":[2147483647,0,0,1,1,2,2,3,3,4,4,5,5,6,6,7,7,8,8,9,9,10,10,12,12,14,14,15,15,16,16,17,17,18,18,21,21,22,22,23,23,24,24,25,25,26,26,27,27,28,28,29,29,30,30,31,31,33,33,34,34,35,35,39,39,42,42,44,44,45,45,46,46],"right_children":[2,4,6,8,10,12,14,16,18,20,22,-1,24,-1,26,28,30,32,34,-1,-1,36,38,40,42,44,46,48,50,52,54,56,-1,58,60,62,-1,-1,-1,64,-1,-1,66,-1,68,70,72,-1,-1,-1,-1,-1,-1,-1,-1,-1,-1,-1,-1,-1,-1,-1,-1,-1,-1,-1,-1,-1,-1,-1,-1,-1,-1],"split_conditions":[5.1054864E0,-8.359232E0,-2.1758945E1,3.0869347E1,-3.4424295E0,-1.2107295E2,1.2418733E1,-8.341115E-1,4.8841988E1,-1.06374756E2,3.850478E0,1.798274E1,-7.275435E1,1.8580105E1,5.043165E1,-1.6381781E2,-1.7586388E1,4.507363E1,-2.4663807E1,7.248046E0,1.2237958E1,-4.3576088E1,-3.2130527E0,4.4570877E1,-7.205588E1,2.6392262E1,1.410575E2,-1.05803246E2,-1.5519681E2,-9.265001E1,2.8848286E1,4.273858E1,1.9141369E1,-2.5086636E1,-1.4141516E1,-9.176628E1,1.5626231E1,1.3764446E1,8.077375E0,2.2622978E1,9.972212E0,2.0161118E1,-6.051609E1,1.1930813E1,2.7276083E1,6.0711063E1,7.5880356E1,1.6869535E1,1.3514057E1,1.8534595E1,1.5428566E1,1.0352426E1,1.4312403E1,1.1328775E1,6.7708898E0,1.6972061E1,1.4025185E1,1.549596E1,2.0375044E1,1.0375452E1,1.6478462E1,1.6890997E1,1.2025391E1,1.2669358E1,1.7580652E1,1.3730819E1,1.5790038E1,1.7318644E1,1.4756583E1,1.8628326E1,1.6351974E1,1.3873448E1,1.9111752E1],"split_indices":[1,1,0,0,1,0,1,0,0,0,1,0,0,0,0,0,1,0,1,0,0,0,0,1,0,1,1,1,0,1,0,0,0,1,1,0,0,0,0,1,0,0,0,0,0,0,0,0,0,0,0,0,0,0,0,0,0,0,0,0,0,0,0,0,0,0,0,0,0,0,0,0,0],"split_type":[0,0,0,0,0,0,0,0,0,0,0,0,0,0,0,0,0,0,0,0,0,0,0,0,0,0,0,0,0,0,0,0,0,0,0,0,0,0,0,0,0,0,0,0,0,0,0,0,0,0,0,0,0,0,0,0,0,0,0,0,0,0,0,0,0,0,0,0,0,0,0,0,0],"sum_hessian":[6.087E3,4.116E3,1.971E3,3.683E3,4.33E2,7.67E2,1.204E3,2.849E3,8.34E2,1.28E2,3.05E2,7.9E1,6.88E2,2.64E2,9.4E2,2.259E3,5.9E2,3.88E2,4.46E2,1.3E1,1.15E2,2.81E2,2.4E1,1.7E2,5.18E2,3.36E2,6.04E2,2.25E2,2.034E3,5.42E2,4.8E1,3.15E2,7.3E1,3.71E2,7.5E1,9.1E1,1.9E2,1E1,1.4E1,1.26E2,4.4E1,1.3E1,5.05E2,4.8E1,2.88E2,3.74E2,2.3E2,2.7E1,1.98E2,7.7E1,1.957E3,4.1E1,5.01E2,3.6E1,1.2E1,2.45E2,7E1,3.52E2,1.9E1,3.8E1,3.7E1,2.2E1,6.9E1,9.3E1,3.3E1,1.21E2,3.84E2,1.18E2,1.7E2,1.15E2,2.59E2,2.3E1,2.07E2],"tree_param":{"num_deleted":"0","num_feature":"2","num_nodes":"73","size_leaf_vector":"0"}},{"base_weights":[3.6489643E1,3.5837376E1,4.0244057E1,3.4251667E1,3.6491657E1,3.100242E1,4.193564E1,3.530398E1,2.8487635E1,5.7530525E1,3.637778E1,4.4509937E1,2.2943151E1,4.1233955E1,5.4380775E1,3.645622E1,3.240768E1,2.5967009E1,3.3177185E1,2.9429615E1,3.6607937E1,2.479428E1,1.271635E1,4.8512928E1,4.0530746E1,3.399622E1,4.2255787E1,1.7028254E1,3.4493557E1,2.7869833E1,-2.6871948E0,4.1114525E1,2.0995731E1,3.6784634E1,2.7802935E1,3.9407127E1,3.6126812E1,2.7377535E1,1.421842E1,-3.390224E0,2.2719316E1,4.0317413E1,5.3499912E1,4.415484E1,3.9699837E1,3.563156E1,1.5317344E1,5.705758E1,3.886506E1,1.9987305E1,6.7320786E0,3.1166265E1,3.711164E1,3.1254194E1,2.3568602E1,3.750725E1,4.2611286E1,2.2972776E1,3.639022E1,2.185141E1,3.376357E1,4.9999077E1,3.82574E1,3.5770829E0,4.0298584E1],"categories":[],"categories_nodes":[],"categories_segments":[],"categories_sizes":[],"default_left":[true,true,true,true,true,true,true,true,true,false,true,false,true,true,false,true,true,true,true,true,true,true,true,true,true,true,true,true,true,true,false,false,false,false,false,true,true,true,false,false,false,false,false,true,true,false,false,false,false,false,false,false,false,false,false,false,false,false,false,false,false,false,false,false,false],"id":5,"left_children":[1,3,5,7,9,11,13,15,17,-1,19,-1,21,23,-1,25,27,29,31,33,35,37,39,41,43,45,47,49,51,53,-1,-1,-1,-1,-1,55,57,59,-1,-1,-1,-1,-1,61,63,-1,-1,-1,-1,-1,-1,-1,-1,-1,-1,-1,-1,-1,-1,-1,-1,-1,-1,-1,-1],"loss_changes":[1.34665E4,4.141E3,1.2660125E4,8.298875E3,6.683E3,1.4437016E4,4.3245E3,3.133625E3,1.9990781E3,0E0,4.753E3,0E0,1.4074414E3,1.698625E3,0E0,1.1646125E4,1.1506656E4,8.907758E3,6.9685312E3,4.369297E2,3.3235E3,1.6870625E3,2.65484E3,2.1353125E2,2.315E2,1.9278812E4,1.1283281E4,1.2973887E3,1.7267188E3,1.4760312E3,0E0,0E0,0E0,0E0,0E0,1.482E3,9.628E3,1.3796211E3,0E0,0E0,0E0,0E0,0E0,2.0162969E3,1.16649375E4,0E0,0E0,0E0,0E0,0E0,0E0,0E0,0E0,0E0,0E0,0E0,0E0,0E0,0E0,0E0,0E0,0E0,0E0,0E0,0E0],"parents":[2147483647,0,0,1,1,2,2,3,3,4,4,5,5,6,6,7,7,8,8,10,10,12,12,13,13,15,15,16,16,17,17,18,18,19,19,20,20,21,21,22,22,23,23,24,24,25,25,26,26,27,27,28,28,29,29,35,35,36,36,37,37,43,43,44,44],"right_children":[2,4,6,8,10,12,14,16,18,-1,20,-1,22,24,-1,26,28,30,32,34,36,38,40,42,44,46,48,50,52,54,-1,-1,-1,-1,-1,56,58,60,-1,-1,-1,-1,-1,62,64,-1,-1,-1,-1,-1,-1,-1,-1,-1,-1,-1,-1,-1,-1,-1,-1,-1,-1,-1,-1],"split_conditions":[6.1005653E1,-7.4142136E1,-5.649199E1,-8.070458E1,-7.347996E1,-1.187427E2,1.7316449E2,-3.4314396E1,-7.590196E1,1.725916E1,-8.837352E1,1.3352982E1,-6.0073467E1,7.616647E1,1.6314234E1,-4.1534843E1,-3.228766E1,-7.632915E1,-7.496925E1,5.69482E0,-6.2837902E1,1.731463E2,-5.670751E1,5.0405785E1,2.9220043E1,-4.5607388E1,-1.2358734E2,-1.1103155E2,-1.0206923E2,-1.3279369E1,-8.061585E-1,1.2334358E1,6.29872E0,1.1035391E1,8.34088E0,-6.789619E1,-6.169356E1,-7.07888E1,4.2655263E0,-1.0170672E0,6.8157954E0,1.2095224E1,1.6049974E1,1.5303516E2,4.140886E1,1.0689468E1,4.5952034E0,1.7117275E1,1.1659518E1,5.9961915E0,2.0196238E0,9.34988E0,1.1133492E1,9.376259E0,7.070581E0,1.1252176E1,1.2783386E1,6.8918333E0,1.0917067E1,6.5554233E0,1.0129071E1,1.4999723E1,1.1477221E1,1.0731249E0,1.2089576E1],"split_indices":[1,0,0,0,0,0,1,1,0,0,1,0,0,1,0,1,1,0,0,0,1,1,0,0,0,1,0,0,0,1,0,0,0,0,0,1,1,0,0,0,0,0,0,1,0,0,0,0,0,0,0,0,0,0,0,0,0,0,0,0,0,0,0,0,0],"split_type":[0,0,0,0,0,0,0,0,0,0,0,0,0,0,0,0,0,0,0,0,0,0,0,0,0,0,0,0,0,0,0,0,0,0,0,0,0,0,0,0,0,0,0,0,0,0,0,0,0,0,0,0,0,0,0,0,0,0,0,0,0,0,0,0,0],"sum_hessian":[6.087E3,5.195E3,8.92E2,1.533E3,3.662E3,1.41E2,7.51E2,1.292E3,2.41E2,1.7E1,3.645E3,5.1E1,9E1,7.15E2,3.6E1,9.16E2,3.76E2,1.61E2,8E1,1.21E2,3.524E3,7.5E1,1.5E1,5.7E1,6.58E2,6.48E2,2.68E2,4.6E1,3.3E2,1.51E2,1E1,4.7E1,3.3E1,1.8E1,1.03E2,5.05E2,3.019E3,5.9E1,1.6E1,6E0,9E0,2.5E1,3.2E1,1.13E2,5.45E2,5.95E2,5.3E1,4.7E1,2.21E2,3.5E1,1.1E1,1.51E2,1.79E2,8.1E1,7E1,3.25E2,1.8E2,6.1E1,2.958E3,3.4E1,2.5E1,5.3E1,6E1,9E0,5.36E2],"tree_param":{"num_deleted":"0","num_feature":"2","num_nodes":"65","size_leaf_vector":"0"}},{"base_weights":[2.559359E1,2.4770494E1,2.746867E1,2.5936483E1,2.3777102E1,3.372977E1,2.644982E1,2.4775883E1,3.0500278E1,4.197325E1,2.3461327E1,1.9333376E1,2.739336E1,2.4981733E1,1.4217224E1,2.6194674E1,3.5106487E1,2.9588116E1,5.1640465E1,2.1140543E1,2.4661346E1,2.284456E1,1.3998796E1,2.619808E1,3.0537104E1,2.4651058E1,3.3675735E1,5.7486644E0,1.7805267E1,3.1436201E1,1.9009802E1,4.706245E1,3.239417E1,2.1876072E1,5.3523693E0,3.0043295E1,2.3491093E1,2.0048359E1,3.4844482E1,1.1986767E1,1.778483E1,2.4566599E1,2.7326569E1,2.9923584E1,4.4482685E1,2.393545E1,2.8344437E1,2.0346886E1,3.337855E1,2.0417395E1,8.276298E0,3.405519E1,2.406028E1,-6.344152E0,2.2075592E1,1.7568302E0,7.8369527E0,3.407716E1,2.8595001E1,2.269454E1,2.8619253E1,2.7532665E1,1.6456038E1,1.3937043E1,8.968211E0,2.4057674E1,1.0143922E1,2.9681646E1,2.2012554E1,2.19841E1,2.8930305E1,3.684747E1,2.9108437E1],"categories":[],"categories_nodes":[],"categories_segments":[],"categories_sizes":[],"default_left":[true,true,true,true,true,false,true,true,true,true,true,true,true,true,true,true,true,false,false,true,true,true,true,true,true,true,false,false,false,true,true,false,true,true,true,true,true,true,false,true,true,true,true,true,false,false,false,false,false,false,false,false,false,false,false,false,false,false,false,false,false,false,false,false,false,false,false,false,false,false,false,false,false],"id":6,"left_children":[1,3,5,7,9,-1,11,13,15,17,19,21,23,25,27,29,31,-1,-1,33,35,37,39,41,43,45,-1,-1,-1,47,49,-1,51,53,55,57,59,61,-1,63,65,67,69,71,-1,-1,-1,-1,-1,-1,-1,-1,-1,-1,-1,-1,-1,-1,-1,-1,-1,-1,-1,-1,-1,-1,-1,-1,-1,-1,-1,-1,-1],"loss_changes":[8.71575E3,4.2955E3,1.08965E4,9.52E3,1.2242375E4,0E0,1.0173625E4,3.018125E3,6.79525E3,3.021789E3,5.7865E3,3.239039E3,4.479375E3,3.542625E3,8.6998145E2,7.1226406E3,4.4747188E3,0E0,0E0,8.929156E3,8.65975E3,3.0930547E3,3.809912E2,1.2158125E3,1.9287188E3,3.2041875E3,0E0,0E0,0E0,1.8409453E3,1.1756699E3,0E0,1.3124062E3,4.3291562E3,3.0783472E2,5.5621875E2,4.3585E3,2.074207E3,0E0,1.9290918E2,9.542163E2,4.9511094E3,4.4790625E3,1.00440625E3,0E0,0E0,0E0,0E0,0E0,0E0,0E0,0E0,0E0,0E0,0E0,0E0,0E0,0E0,0E0,0E0,0E0,0E0,0E0,0E0,0E0,0E0,0E0,0E0,0E0,0E0,0E0,0E0,0E0],"parents":[2147483647,0,0,1,1,2,2,3,3,4,4,6,6,7,7,8,8,9,9,10,10,11,11,12,12,13,13,14,14,15,15,16,16,19,19,20,20,21,21,22,22,23,23,24,24,25,25,29,29,30,30,32,32,33,33,34,34,35,35,36,36,37,37,39,39,40,40,41,41,42,42,43,43],"right_children":[2,4,6,8,10,-1,12,14,16,18,20,22,24,26,28,30,32,-1,-1,34,36,38,40,42,44,46,-1,-1,-1,48,50,-1,52,54,56,58,60,62,-1,64,66,68,70,72,-1,-1,-1,-1,-1,-1,-1,-1,-1,-1,-1,-1,-1,-1,-1,-1,-1,-1,-1,-1,-1,-1,-1,-1,-1,-1,-1,-1,-1],"split_conditions":[9.023811E0,-4.6515465E1,1.3013756E1,-5.1295944E1,-1.365108E2,1.0118932E1,2.1901226E1,-5.179187E1,-6.988517E1,-1.535391E2,-3.272093E1,-5.762574E1,7.516087E1,-5.206504E1,-9.501286E0,-8.022836E1,-6.3742783E1,8.876435E0,1.549214E1,-3.342195E1,-2.7271564E1,-7.641667E1,-3.5920162E1,6.1005653E1,1.5122462E2,3.8707436E1,1.0102721E1,1.7245994E0,5.3415804E0,-1.2346925E2,-7.118054E1,1.4118735E1,-4.978669E0,-4.6357124E1,-3.32486E1,-3.1685457E1,6.0069565E1,-1.1626117E2,1.0453345E1,-5.1419285E1,-1.438262E0,-5.3702E1,-5.649199E1,7.9129196E1,1.3344806E1,7.180635E0,8.503331E0,6.104066E0,1.0013566E1,6.125219E0,2.4828894E0,1.02165575E1,7.2180843E0,-1.9032457E0,6.622678E0,5.2704906E-1,2.351086E0,1.0223148E1,8.578501E0,6.8083625E0,8.585776E0,8.2598E0,4.9368114E0,4.1811132E0,2.6904635E0,7.217303E0,3.0431767E0,8.904494E0,6.6037664E0,6.5952306E0,8.679092E0,1.1054241E1,8.732532E0],"split_indices":[1,1,1,1,0,0,1,1,0,0,1,0,0,1,0,0,0,0,0,1,1,0,0,1,1,0,0,0,0,0,0,0,0,1,1,1,0,0,0,0,0,0,0,0,0,0,0,0,0,0,0,0,0,0,0,0,0,0,0,0,0,0,0,0,0,0,0,0,0,0,0,0,0],"split_type":[0,0,0,0,0,0,0,0,0,0,0,0,0,0,0,0,0,0,0,0,0,0,0,0,0,0,0,0,0,0,0,0,0,0,0,0,0,0,0,0,0,0,0,0,0,0,0,0,0,0,0,0,0,0,0,0,0,0,0,0,0,0,0,0,0,0,0,0,0,0,0,0,0],"sum_hessian":[6.087E3,4.24E3,1.847E3,1.939E3,2.301E3,2.54E2,1.593E3,1.551E3,3.88E2,3.7E1,2.264E3,1.89E2,1.404E3,1.52E3,3.1E1,2.04E2,1.84E2,1.8E1,1.9E1,7.78E2,1.486E3,1.12E2,7.7E1,1.024E3,3.8E2,1.468E3,5.2E1,1E1,2.1E1,1.16E2,8.8E1,3.1E1,1.53E2,7.43E2,3.5E1,2.61E2,1.225E3,9.3E1,1.9E1,5.3E1,2.4E1,4.28E2,5.96E2,3.67E2,1.3E1,1.236E3,2.32E2,1.9E1,9.7E1,7.7E1,1.1E1,1.25E2,2.8E1,5E0,7.38E2,1.5E1,2E1,6.3E1,1.98E2,1.065E3,1.6E2,2.8E1,6.5E1,3E1,2.3E1,1.2E1,1.2E1,1.39E2,2.89E2,1.41E2,4.55E2,3.4E1,3.33E2],"tree_param":{"num_deleted":"0","num_feature":"2","num_nodes":"73","size_leaf_vector":"0"}},{"base_weights":[1.795988E1,1.7317455E1,1.917694E1,1.743553E1,8.377319E0,3.1580948E1,1.905418E1,1.702632E1,1.8935509E1,-7.338932E0,1.2568428E1,1.754812E1,2.0041328E1,1.7644907E1,1.4792559E1,2.1026972E1,1.7293869E1,1.5970264E1,8.915951E0,2.2971361E1,1.683261E1,2.2772034E1,1.8975842E1,1.7468725E1,2.8266127E1,-3.0380015E0,1.5117416E1,2.0134394E1,2.857527E1,1.1644174E1,1.7962448E1,2.005E1,2.4945345E1,1.6232725E1,2.0861874E1,1.9684042E1,2.4663439E1,1.3586441E1,2.0539225E1,1.8375158E1,1.52793255E1,3.3071632E1,1.5098225E1,2.3256653E1,1.4751565E1,2.25443E1,1.3610302E1,3.4052006E1,2.1206757E1,1.7761293E1,5.96927E0,1.8599228E1,1.1591399E1,1.7472889E1,1.2600159E1,1.8116245E1,4.7426453E1,2.3248037E1,1.2205617E1,4.697216E0,1.5504808E1,1.960928E1,2.2679972E1],"categories":[],"categories_nodes":[],"categories_segments":[],"categories_sizes":[],"default_left":[true,true,true,true,true,false,true,true,true,false,true,true,true,true,true,true,true,false,false,true,true,true,true,true,true,false,true,true,true,true,true,false,false,true,true,true,false,true,true,false,false,false,false,false,false,false,false,false,false,false,false,false,false,false,false,false,false,false,false,false,false,false,false],"id":7,"left_children":[1,3,5,7,9,-1,11,13,15,-1,17,19,21,23,25,27,29,-1,-1,31,33,35,37,39,41,-1,43,45,47,49,51,-1,-1,53,55,57,-1,59,61,-1,-1,-1,-1,-1,-1,-1,-1,-1,-1,-1,-1,-1,-1,-1,-1,-1,-1,-1,-1,-1,-1,-1,-1],"loss_changes":[4.428E3,4.071125E3,2.5868125E3,2.09725E3,3.6491394E3,0E0,2.73475E3,4.0321875E3,2.5066875E3,0E0,3.9189062E2,2.8340625E3,3.1960625E3,4.0496875E3,3.98475E3,1.8703438E3,1.5812656E3,0E0,0E0,4.1914062E1,1.4427344E3,1.5295469E3,7.3293438E3,4.46425E3,1.9052578E3,0E0,1.6460781E3,4.8501406E3,7.306621E2,1.7338228E3,1.4964531E3,0E0,0E0,2.6900625E3,5.850965E3,3.3410625E3,0E0,3.4400469E3,9.448125E2,0E0,0E0,0E0,0E0,0E0,0E0,0E0,0E0,0E0,0E0,0E0,0E0,0E0,0E0,0E0,0E0,0E0,0E0,0E0,0E0,0E0,0E0,0E0,0E0],"parents":[2147483647,0,0,1,1,2,2,3,3,4,4,6,6,7,7,8,8,10,10,11,11,12,12,13,13,14,14,15,15,16,16,19,19,20,20,21,21,22,22,23,23,24,24,26,26,27,27,28,28,29,29,30,30,33,33,34,34,35,35,37,37,38,38],"right_children":[2,4,6,8,10,-1,12,14,16,-1,18,20,22,24,26,28,30,-1,-1,32,34,36,38,40,42,-1,44,46,48,50,52,-1,-1,54,56,58,-1,60,62,-1,-1,-1,-1,-1,-1,-1,-1,-1,-1,-1,-1,-1,-1,-1,-1,-1,-1,-1,-1,-1,-1,-1,-1],"split_conditions":[2.4853644E0,1.9817502E0,2.72264E0,3.324887E1,2.00362E0,9.474285E0,-2.1758945E1,-8.341115E-1,4.8841988E1,-2.2016797E0,2.073708E0,-9.934975E1,2.0264606E1,-4.9792733E0,4.3536282E-1,-2.0098026E1,4.9353897E1,4.7910795E0,2.6747854E0,6.2435696E1,1.610741E2,-4.6783886E0,4.9164314E1,-3.4376442E1,-2.362112E0,-9.114005E-1,9.3549716E-1,-3.1665783E1,4.534594E1,4.9048946E1,8.674309E1,6.015E0,7.483604E0,4.4441147E1,-4.522133E1,-1.1030581E1,7.399032E0,1.8657804E1,1.4149077E2,5.5125475E0,4.583798E0,9.92149E0,4.5294676E0,6.976996E0,4.42547E0,6.7632904E0,4.083091E0,1.0215602E1,6.362027E0,5.328388E0,1.7907811E0,5.5797687E0,3.4774199E0,5.241867E0,3.7800477E0,5.4348736E0,1.4227937E1,6.9744115E0,3.6616852E0,1.4091649E0,4.6514425E0,5.882784E0,6.803992E0],"split_indices":[1,1,1,0,1,0,0,0,0,0,1,0,0,0,0,1,0,0,0,1,1,0,0,1,0,0,0,1,0,0,0,0,0,1,0,0,0,1,1,0,0,0,0,0,0,0,0,0,0,0,0,0,0,0,0,0,0,0,0,0,0,0,0],"split_type":[0,0,0,0,0,0,0,0,0,0,0,0,0,0,0,0,0,0,0,0,0,0,0,0,0,0,0,0,0,0,0,0,0,0,0,0,0,0,0,0,0,0,0,0,0,0,0,0,0,0,0,0,0,0,0,0,0,0,0,0,0,0,0],"sum_hessian":[6.087E3,3.994E3,2.093E3,3.941E3,5.3E1,1.8E1,2.075E3,3.106E3,8.35E2,1.1E1,4.2E1,8.29E2,1.246E3,2.427E3,6.79E2,3.62E2,4.73E2,2E1,2.2E1,9.3E1,7.36E2,3.44E2,9.02E2,2.39E3,3.7E1,1.2E1,6.67E2,3.27E2,3.5E1,5.2E1,4.21E2,4.2E1,5.1E1,6.45E2,9.1E1,1.35E2,2.09E2,2.05E2,6.97E2,1.685E3,7.05E2,2.6E1,1.1E1,2.6E1,6.41E2,2.37E2,9E1,1.8E1,1.7E1,2.4E1,2.8E1,3.81E2,4E1,4.78E2,1.67E2,8.4E1,7E0,9E1,4.5E1,3.7E1,1.68E2,4.93E2,2.04E2],"tree_param":{"num_deleted":"0","num_feature":"2","num_nodes":"63","size_leaf_vector":"0"}},{"base_weights":[1.2600225E1,9.765263E0,1.2794677E1,1.0874795E1,3.3891304E0,2.15668E1,1.2744407E1,9.374997E0,1.5797814E1,-3.2665804E-1,6.6506534E0,2.347104E1,1.522079E1,1.1881149E1,1.3228555E1,1.6745405E1,7.7544684E0,1.7155993E1,1.0392898E1,1.2392677E1,-4.6793647E0,1.30725E1,2.1070257E1,1.825526E1,1.0946216E1,1.8422882E1,6.8622227E0,1.2236101E1,3.0886738E1,-6.5603895E0,5.7580047E0,1.3132199E1,-9.386208E0,1.859859E1,2.6595772E1,5.823985E0,8.707179E0,1.2363199E1,-7.8382688E0,-4.0577216E0,-9.648316E0,1.4941304E1,1.2881477E1,1.8791965E1,3.497701E1],"categories":[],"categories_nodes":[],"categories_segments":[],"categories_sizes":[],"default_left":[true,true,true,true,true,true,true,true,true,false,false,false,false,true,true,true,true,false,false,true,true,true,true,false,false,false,true,true,false,true,false,true,false,false,true,false,false,false,false,false,false,false,false,false,false],"id":8,"left_children":[1,3,5,7,9,11,13,15,17,-1,-1,-1,-1,19,21,23,25,-1,-1,27,29,31,33,-1,-1,-1,35,37,-1,39,-1,41,-1,-1,43,-1,-1,-1,-1,-1,-1,-1,-1,-1,-1],"loss_changes":[3.231125E3,2.7575781E3,2.2360625E3,2.3327656E3,7.2932025E2,1.7367188E1,2.2100625E3,2.9755781E3,3.869453E2,0E0,0E0,0E0,0E0,1.73815E4,4.1545E3,2.0294727E2,1.9201289E3,0E0,0E0,5.3671875E3,1.2550178E3,4.885625E3,4.4770312E2,0E0,0E0,0E0,3.3239062E2,5.120625E3,0E0,3.7043677E2,0E0,1.414625E3,0E0,0E0,5.8541895E2,0E0,0E0,0E0,0E0,0E0,0E0,0E0,0E0,0E0,0E0],"parents":[2147483647,0,0,1,1,2,2,3,3,4,4,5,5,6,6,7,7,8,8,13,13,14,14,15,15,16,16,19,19,20,20,21,21,22,22,26,26,27,27,29,29,31,31,34,34],"right_children":[2,4,6,8,10,12,14,16,18,-1,-1,-1,-1,20,22,24,26,-1,-1,28,30,32,34,-1,-1,-1,36,38,-1,40,-1,42,-1,-1,44,-1,-1,-1,-1,-1,-1,-1,-1,-1,-1],"split_conditions":[-7.9635605E1,-8.4071304E1,-7.7529655E1,-8.837352E1,-8.207893E1,3.3068516E1,-5.6684624E1,-1.05803246E2,3.8157005E1,-9.799742E-2,1.9951961E0,7.0413127E0,4.566237E0,-5.7671444E1,1.5694763E2,-5.962016E0,-1.769274E2,5.146798E0,3.1178694E0,-5.826599E1,-5.670751E1,1.5496338E2,1.7613397E2,5.476578E0,3.2838647E0,5.526865E0,-9.582718E1,-5.9085922E1,9.266022E0,-5.7004166E1,1.7274015E0,-6.1060997E1,-2.8158624E0,5.5795774E0,-4.5616096E1,1.7471956E0,2.6121538E0,3.7089598E0,-2.3514807E0,-1.2173165E0,-2.894495E0,4.4823914E0,3.8644433E0,5.63759E0,1.0493103E1],"split_indices":[1,1,1,1,1,0,0,1,0,0,0,0,0,0,1,0,0,0,0,0,0,1,1,0,0,0,1,0,0,0,0,1,0,0,0,0,0,0,0,0,0,0,0,0,0],"split_type":[0,0,0,0,0,0,0,0,0,0,0,0,0,0,0,0,0,0,0,0,0,0,0,0,0,0,0,0,0,0,0,0,0,0,0,0,0,0,0,0,0,0,0,0,0],"sum_hessian":[6.087E3,3.94E2,5.693E3,3.35E2,5.9E1,3E1,5.663E3,2.59E2,7.6E1,2.8E1,3.1E1,2.1E1,9E0,2.044E3,3.619E3,4.5E1,2.14E2,5.9E1,1.7E1,1.983E3,6.1E1,3.551E3,6.8E1,3.4E1,1.1E1,1.5E1,1.99E2,1.968E3,1.5E1,5.2E1,9E0,3.542E3,9E0,5E1,1.8E1,1.3E2,6.9E1,1.956E3,1.2E1,3E1,2.2E1,4.24E2,3.118E3,1.1E1,7E0],"tree_param":{"num_deleted":"0","num_feature":"2","num_nodes":"45","size_leaf_vector":"0"}},{"base_weights":[8.832627E0,8.534485E0,1.0061582E1,8.563297E0,-8.094157E0,1.3783181E1,9.659525E0,7.2931643E0,8.775823E0,2.113108E1,1.1564298E1,6.5517125E0,1.016249E1,8.351378E0,-2.955592E0,1.4545602E1,8.561013E0,1.23266E1,9.3572855E0,1.3968036E1,2.6685393E0,1.551972E1,9.6824465E0,7.109233E0,1.2413583E1,-6.794359E0,9.7010446E-1,1.1965525E1,2.1050058E1,1.4057867E1,8.355857E0,1.2943096E1,8.6279E0,4.024334E0,-1.3971893E0,1.2796971E1,2.8520842E1,-1.5500523E1,1.0001837E1,7.4565477E0,-3.074621E0,6.9096646E0,1.4654181E1,-4.176123E-1,-2.205679E1,-3.7181923E-1,3.1664288E0,1.8934807E1,6.171093E0,2.816251E1,1.3627374E1,3.494232E1,1.1539985E1,-1.2910363E-1,8.526789E0,5.2623305E0,-8.930537E0,-4.609432E0,4.2033434E0,9.460976E0,1.2496868E1],"categories":[],"categories_nodes":[],"categories_segments":[],"categories_sizes":[],"default_left":[true,true,true,true,false,true,true,true,true,false,true,true,true,true,true,true,true,true,false,false,true,true,true,true,true,true,true,true,true,true,true,false,false,true,true,false,false,false,true,false,false,false,false,false,false,false,false,false,false,false,false,false,false,false,false,false,false,false,false,false,false],"id":9,"left_children":[1,3,5,7,-1,9,11,13,15,-1,17,19,21,23,25,27,29,31,-1,-1,33,35,37,39,41,43,45,47,49,51,53,-1,-1,55,57,-1,-1,-1,59,-1,-1,-1,-1,-1,-1,-1,-1,-1,-1,-1,-1,-1,-1,-1,-1,-1,-1,-1,-1,-1,-1],"loss_changes":[2.1448125E3,2.4198125E3,1.6369688E3,1.258125E3,0E0,1.598E3,1.6075234E3,7.703211E3,5.0697812E3,0E0,3.4390625E1,4.340154E3,2.2157031E3,3.1511836E3,1.0162701E3,2.2486426E3,4.4419062E3,3.1983398E1,0E0,0E0,5.6236444E2,2.2545293E3,6.9676406E3,1.7702031E3,1.7362207E3,3.2998271E3,1.0138552E2,4.2849014E3,1.780752E3,7.1689473E3,5.6574688E3,0E0,0E0,1.2658899E3,4.871221E2,0E0,0E0,0E0,1.0112656E3,0E0,0E0,0E0,0E0,0E0,0E0,0E0,0E0,0E0,0E0,0E0,0E0,0E0,0E0,0E0,0E0,0E0,0E0,0E0,0E0,0E0,0E0],"parents":[2147483647,0,0,1,1,2,2,3,3,5,5,6,6,7,7,8,8,10,10,11,11,12,12,13,13,14,14,15,15,16,16,17,17,20,20,21,21,22,22,23,23,24,24,25,25,26,26,27,27,28,28,29,29,30,30,33,33,34,34,38,38],"right_children":[2,4,6,8,-1,10,12,14,16,-1,18,20,22,24,26,28,30,32,-1,-1,34,36,38,40,42,44,46,48,50,52,54,-1,-1,56,58,-1,-1,-1,60,-1,-1,-1,-1,-1,-1,-1,-1,-1,-1,-1,-1,-1,-1,-1,-1,-1,-1,-1,-1,-1,-1],"split_conditions":[2.9245506E1,2.9023596E1,4.036264E1,-6.894153E1,-2.4282472E0,-7.205588E1,-5.649199E1,-7.07277E1,-1.3355887E2,6.3393245E0,1.1432474E2,-1.187427E2,-3.8691372E1,-7.491504E1,-2.2128773E1,-1.4535567E2,-6.5342865E1,3.0983427E1,2.8071856E0,4.190411E0,1.731463E2,-4.7560005E1,-3.606022E1,-7.5203735E1,-9.204978E1,-1.08839355E2,3.346428E1,-1.5234795E2,-1.433302E2,-8.778253E1,-1.23923965E2,3.882929E0,2.58837E0,-6.0073467E1,-6.2009098E1,3.8390915E0,8.5562525E0,-4.650157E0,8.543733E1,2.2369645E0,-9.2238635E-1,2.0728996E0,4.3962545E0,-1.252837E-1,-6.6170373E0,-1.1154577E-1,9.499287E-1,5.6804423E0,1.851328E0,8.448753E0,4.0882125E0,1.0482697E1,3.4619956E0,-3.873109E-2,2.5580368E0,1.5786992E0,-2.6791613E0,-1.3828297E0,1.261003E0,2.8382928E0,3.7490606E0],"split_indices":[1,1,1,1,0,0,0,1,0,0,0,0,0,1,0,0,1,1,0,0,1,0,0,1,0,0,0,0,0,0,0,0,0,0,0,0,0,0,0,0,0,0,0,0,0,0,0,0,0,0,0,0,0,0,0,0,0,0,0,0,0],"split_type":[0,0,0,0,0,0,0,0,0,0,0,0,0,0,0,0,0,0,0,0,0,0,0,0,0,0,0,0,0,0,0,0,0,0,0,0,0,0,0,0,0,0,0,0,0,0,0,0,0,0,0,0,0,0,0,0,0,0,0,0,0],"sum_hessian":[6.087E3,4.905E3,1.182E3,4.897E3,8E0,1.12E2,1.07E3,7.07E2,4.19E3,2.4E1,8.8E1,1.51E2,9.19E2,6.41E2,6.6E1,1.48E2,4.042E3,6.2E1,2.6E1,5.1E1,1E2,7.3E1,8.46E2,4.93E2,1.48E2,3.3E1,3.3E1,1.08E2,4E1,1.43E2,3.899E3,5.1E1,1.1E1,7.5E1,2.5E1,6.2E1,1.1E1,1E1,8.36E2,4.77E2,1.6E1,4.4E1,1.04E2,2.4E1,9E0,2.1E1,1.2E1,4.8E1,6E1,1.9E1,2.1E1,1.4E1,1.29E2,7.7E1,3.822E3,6.9E1,6E0,1.6E1,9E0,6.91E2,1.45E2],"tree_param":{"num_deleted":"0","num_feature":"2","num_nodes":"61","size_leaf_vector":"0"}},{"base_weights":[6.194156E0,5.4850183E0,6.5212464E0,5.802575E0,-2.5494807E0,1.8348093E1,6.390392E0,4.5450068E0,6.868604E0,-3.9690905E0,2.8446722E0,1.4614506E1,2.1006044E1,-9.322135E0,6.473225E0,5.246226E0,-7.6066947E0,1.5757494E1,6.4244137E0,-1.0092605E1,2.2350481E-1,3.35607E1,1.681708E1,-3.3901837E0,-1.610146E1,1.0516067E1,6.280383E0,5.7060084E0,1.2154056E0,-1.8665548E1,2.0433614E0,2.0136202E1,1.2067079E1,5.8106875E0,1.1239767E1,6.1926823E0,-2.3105128E0,1.3850256E1,7.6059456E0,-2.0527358E0,6.452668E0,5.491366E0,3.5516285E1,-3.0847328E0,1.9683788E1,3.522945E0,1.4233391E0,7.1866713E0,3.0864174E0,1.285998E1,6.6525574E0,-3.8382262E-1,-3.3079474E0,1.7689655E1,1.2049679E1,4.8113236E0,1.941372E1,1.8078352E1,-6.9765E0,6.2525415E0,8.389711E0],"categories":[],"categories_nodes":[],"categories_segments":[],"categories_sizes":[],"default_left":[true,true,true,true,true,true,true,true,true,true,false,false,true,true,true,true,true,true,true,false,true,false,false,false,false,true,true,true,true,false,true,false,false,true,true,false,true,true,true,true,true,false,false,false,false,false,false,false,false,false,false,false,false,false,false,false,false,false,false,false,false],"id":10,"left_children":[1,3,5,7,9,11,13,15,17,19,-1,-1,21,23,25,27,29,31,33,-1,35,-1,-1,-1,-1,37,39,41,43,-1,45,-1,-1,47,49,-1,51,53,55,57,59,-1,-1,-1,-1,-1,-1,-1,-1,-1,-1,-1,-1,-1,-1,-1,-1,-1,-1,-1,-1],"loss_changes":[1.3763594E3,4.933914E3,6.3223125E3,2.4556055E3,5.7795264E2,1.3957324E2,5.418703E3,7.3168457E3,3.8550273E3,1.5169873E3,0E0,0E0,6.97791E2,8.301349E2,3.1273125E3,1.4905332E3,5.053912E3,5.165E2,2.7599648E3,0E0,5.5884436E2,0E0,0E0,0E0,0E0,1.6896914E3,5.6295938E3,4.443922E3,6.731714E3,0E0,1.8837395E1,0E0,0E0,3.164086E3,7.096992E2,0E0,4.8695786E1,3.7446094E2,3.2394194E3,8.0557817E3,1.4334219E3,0E0,0E0,0E0,0E0,0E0,0E0,0E0,0E0,0E0,0E0,0E0,0E0,0E0,0E0,0E0,0E0,0E0,0E0,0E0,0E0],"parents":[2147483647,0,0,1,1,2,2,3,3,4,4,5,5,6,6,7,7,8,8,9,9,12,12,13,13,14,14,15,15,16,16,17,17,18,18,20,20,25,25,26,26,27,27,28,28,30,30,33,33,34,34,36,36,37,37,38,38,39,39,40,40],"right_children":[2,4,6,8,10,12,14,16,18,20,-1,-1,22,24,26,28,30,32,34,-1,36,-1,-1,-1,-1,38,40,42,44,-1,46,-1,-1,48,50,-1,52,54,56,58,60,-1,-1,-1,-1,-1,-1,-1,-1,-1,-1,-1,-1,-1,-1,-1,-1,-1,-1,-1,-1],"split_conditions":[-6.666785E1,-6.8696655E1,-6.630684E1,-4.1769417E1,-6.69901E1,-6.65689E1,-6.530307E1,-4.3351307E1,-4.0338753E1,1.4809319E1,8.534017E-1,4.3843517E0,-6.640986E1,-6.594565E1,-5.9085922E1,-4.5288116E1,-4.2004444E1,-1.1304148E2,-7.256499E1,-3.0277815E0,-6.81738E1,1.0068211E1,5.045124E0,-1.0170552E0,-4.830438E0,-4.7314648E1,-5.670751E1,-4.6225487E1,-7.4142136E1,-5.5996647E0,-9.985686E1,6.0408607E0,3.6201236E0,-8.623396E1,-7.0128815E1,1.8578048E0,-6.772507E1,-6.3385307E1,-6.051609E1,-6.733827E1,1.410575E2,1.6474098E0,1.0654886E1,-9.2541987E-1,5.9051366E0,1.0568836E0,4.2700174E-1,2.1560016E0,9.2592525E-1,3.857994E0,1.9957672E0,-1.1514679E-1,-9.9238425E-1,5.3068967E0,3.6149037E0,1.4433972E0,5.8241158E0,5.423506E0,-2.09295E0,1.8757626E0,2.5169134E0],"split_indices":[0,0,0,1,0,0,0,1,1,1,0,0,0,0,0,1,1,0,0,0,0,0,0,0,0,1,0,1,0,0,0,0,0,0,0,0,0,0,0,1,1,0,0,0,0,0,0,0,0,0,0,0,0,0,0,0,0,0,0,0,0],"split_type":[0,0,0,0,0,0,0,0,0,0,0,0,0,0,0,0,0,0,0,0,0,0,0,0,0,0,0,0,0,0,0,0,0,0,0,0,0,0,0,0,0,0,0,0,0,0,0,0,0,0,0,0,0,0,0,0,0,0,0,0,0],"sum_hessian":[6.087E3,1.927E3,4.16E3,1.854E3,7.3E1,4.4E1,4.116E3,8.53E2,1.001E3,5.8E1,1.5E1,2.1E1,2.3E1,2.1E1,4.095E3,8.07E2,4.6E1,4.6E1,9.55E2,2.3E1,3.5E1,4E0,1.9E1,1.2E1,9E0,1.84E2,3.911E3,7.24E2,8.3E1,2.1E1,2.5E1,1.9E1,2.7E1,8.49E2,1.06E2,1E1,2.5E1,8.4E1,1E2,7.9E1,3.832E3,7.2E2,4E0,6.8E1,1.5E1,6E0,1.9E1,5.63E2,2.86E2,7.7E1,2.9E1,9E0,1.6E1,2.4E1,6E1,8.2E1,1.8E1,1.5E1,6.4E1,3.477E3,3.55E2],"tree_param":{"num_deleted":"0","num_feature":"2","num_nodes":"61","size_leaf_vector":"0"}},{"base_weights":[4.347062E0,4.0527472E0,4.9064894E0,4.285169E0,1.2953908E0,6.5889306E0,4.374614E0,4.06267E0,6.3409467E0,1.5485926E1,5.265561E-1,4.5774593E0,8.846266E0,8.5282576E-1,4.8477564E0,4.2180915E0,-8.927292E-1,1.6697042E1,4.985787E0,-3.6452127E0,1.8050528E0,6.765049E0,7.3595256E-1,1.4721E1,8.4075E0,3.337756E0,-2.758071E0,1.5984567E1,4.675395E0,4.079437E0,2.8702772E1,3.872356E0,-4.7225747E0,-8.62499E0,6.026537E0,-9.672758E-1,-5.629483E0,-9.651999E0,2.5426977E0,4.5808887E0,1.2221022E1,2.0512059E0,-2.9851801E0,5.2204447E0,8.6986475E0,2.339931E0,2.0742311E1,-4.7713733E0,1.7009845E0,2.6337502E0,5.0217843E0,4.229932E0,-7.099562E0,6.345903E0,1.5407404E0,-8.262428E0,-2.8769386E0,1.2064337E1,4.8673244E0,-8.597401E0,-1.0979411E-1,3.6904778E0,-9.4772935E-1,9.117954E0,-8.325193E-1,6.189665E0,1.4522472E1,-1.78452E0,5.088468E0,-5.522461E0,-7.563436E-1,1.12543335E1,8.447129E0,4.4765725E0,-9.939824E-1,-3.2125263E0,-6.5860763E0,4.896982E0,-1.6258581E0,5.4233046E0,5.78365E-1,7.1053834E0,4.735294E0],"categories":[],"categories_nodes":[],"categories_segments":[],"categories_sizes":[],"default_left":[true,true,true,true,true,true,true,true,true,false,true,true,true,true,true,true,true,false,true,true,true,true,true,false,true,true,true,false,true,true,false,true,true,false,true,false,true,false,true,true,true,true,true,false,true,true,false,true,true,true,true,false,false,false,false,false,false,false,false,false,false,false,false,false,false,false,false,false,false,false,false,false,false,false,false,false,false,false,false,false,false,false,false],"id":11,"left_children":[1,3,5,7,9,11,13,15,17,-1,19,21,23,25,27,29,31,-1,33,35,37,39,41,-1,43,45,47,-1,49,51,-1,53,55,-1,57,-1,59,-1,61,63,65,67,69,-1,71,73,-1,75,77,79,81,-1,-1,-1,-1,-1,-1,-1,-1,-1,-1,-1,-1,-1,-1,-1,-1,-1,-1,-1,-1,-1,-1,-1,-1,-1,-1,-1,-1,-1,-1,-1,-1],"loss_changes":[9.824844E2,2.5547266E3,1.8449922E3,1.6593281E3,3.3958213E3,2.2343281E3,2.651957E3,2.5661328E3,4.9409824E3,0E0,1.5906569E3,2.2387935E3,4.8197656E2,1.7140428E3,2.622246E3,1.0834891E4,1.8797405E3,0E0,4.556582E3,3.6651733E2,1.9514243E3,1.9698594E3,4.8575803E2,0E0,1.5965527E2,1.9139015E3,7.083552E2,0E0,9.6625195E2,5.428797E3,0E0,2.5552124E2,3.486266E2,0E0,2.0130107E3,0E0,6.543353E2,0E0,8.648395E2,3.0285918E3,5.763926E2,8.595382E2,1.4285791E2,0E0,3.413672E1,7.737744E2,0E0,1.3159961E2,2.737763E2,1.160786E3,6.7252344E2,0E0,0E0,0E0,0E0,0E0,0E0,0E0,0E0,0E0,0E0,0E0,0E0,0E0,0E0,0E0,0E0,0E0,0E0,0E0,0E0,0E0,0E0,0E0,0E0,0E0,0E0,0E0,0E0,0E0,0E0,0E0,0E0],"parents":[2147483647,0,0,1,1,2,2,3,3,4,4,5,5,6,6,7,7,8,8,10,10,11,11,12,12,13,13,14,14,15,15,16,16,18,18,19,19,20,20,21,21,22,22,24,24,25,25,26,26,28,28,29,29,31,31,32,32,34,34,36,36,38,38,39,39,40,40,41,41,42,42,44,44,45,45,47,47,48,48,49,49,50,50],"right_children":[2,4,6,8,10,12,14,16,18,-1,20,22,24,26,28,30,32,-1,34,36,38,40,42,-1,44,46,48,-1,50,52,-1,54,56,-1,58,-1,60,-1,62,64,66,68,70,-1,72,74,-1,76,78,80,82,-1,-1,-1,-1,-1,-1,-1,-1,-1,-1,-1,-1,-1,-1,-1,-1,-1,-1,-1,-1,-1,-1,-1,-1,-1,-1,-1,-1,-1,-1,-1,-1],"split_conditions":[2.4853644E0,-8.359232E0,1.3013756E1,-1.8432182E1,-1.15717865E2,9.953961E0,2.1901226E1,-2.4568958E1,-1.7550098E1,4.6457777E0,-6.505499E0,6.6926627E0,1.0623458E1,-5.762574E1,2.2792185E1,-2.485902E1,-6.754457E1,5.009113E0,-1.6724949E1,-9.2624115E1,-1.0655099E2,5.1054864E0,4.1486454E-1,4.4163003E0,-5.5780922E1,-6.755393E1,-3.5920162E1,4.79537E0,2.9245506E1,-2.4963135E1,8.610832E0,-2.1296162E1,-2.4158276E1,-2.5874972E0,-1.4590325E1,-2.9018274E-1,-3.7710094E0,-2.8955998E0,1.9817502E0,3.3373904E0,-5.694658E1,-3.582384E1,5.6763615E1,1.5661335E0,-1.2265305E1,2.1420494E1,6.222694E0,-5.1419285E1,-1.438262E0,-5.3702E1,4.4115005E1,1.2689795E0,-2.1298687E0,1.9037709E0,4.6222213E-1,-2.4787285E0,-8.6308163E-1,3.619301E0,1.4601973E0,-2.5792203E0,-3.2938235E-2,1.1071434E0,-2.843188E-1,2.7353864E0,-2.497558E-1,1.8568995E0,4.356742E0,-5.3535604E-1,1.5265405E0,-1.6567384E0,-2.269031E-1,3.3763E0,2.534139E0,1.3429718E0,-2.9819474E-1,-9.6375793E-1,-1.9758229E0,1.4690948E0,-4.8775744E-1,1.6269914E0,1.7350951E-1,2.1316152E0,1.4205883E0],"split_indices":[1,1,1,1,0,1,1,1,1,0,1,1,1,0,1,1,0,0,1,0,0,1,0,0,0,0,0,0,1,1,0,1,1,0,1,0,0,0,1,1,0,0,0,0,0,1,0,0,0,0,1,0,0,0,0,0,0,0,0,0,0,0,0,0,0,0,0,0,0,0,0,0,0,0,0,0,0,0,0,0,0,0,0],"split_type":[0,0,0,0,0,0,0,0,0,0,0,0,0,0,0,0,0,0,0,0,0,0,0,0,0,0,0,0,0,0,0,0,0,0,0,0,0,0,0,0,0,0,0,0,0,0,0,0,0,0,0,0,0,0,0,0,0,0,0,0,0,0,0,0,0,0,0,0,0,0,0,0,0,0,0,0,0,0,0,0,0,0,0],"sum_hessian":[6.087E3,3.994E3,2.093E3,3.683E3,3.11E2,5E2,1.593E3,3.326E3,3.57E2,1.5E1,2.96E2,2.66E2,2.34E2,1.89E2,1.404E3,3.225E3,1.01E2,4E1,3.17E2,6.9E1,2.27E2,1.69E2,9.7E1,1.4E1,2.2E2,1.12E2,7.7E1,2E1,1.384E3,3.208E3,1.7E1,4.5E1,5.6E1,2.2E1,2.95E2,3E1,3.9E1,1.3E1,2.14E2,1.22E2,4.7E1,7.2E1,2.5E1,2E1,2E2,1.07E2,5E0,5.3E1,2.4E1,2.02E2,1.182E3,3.166E3,4.2E1,2.1E1,2.4E1,1.8E1,3.8E1,4.6E1,2.49E2,2.5E1,1.4E1,1.61E2,5.3E1,6.6E1,5.6E1,1.4E1,3.3E1,3.2E1,4E1,1.1E1,1.4E1,1.4E1,1.86E2,6.5E1,4.2E1,3E1,2.3E1,1.2E1,1.2E1,8.5E1,1.17E2,1.4E2,1.042E3],"tree_param":{"num_deleted":"0","num_feature":"2","num_nodes":"83","size_leaf_vector":"0"}},{"base_weights":[3.051007E0,1.9966865E0,3.196295E0,2.6489692E0,-2.2534359E0,8.252654E0,3.0875688E0,2.2722309E0,9.532645E0,-3.5442119E0,2.2721996E1,2.24365E1,5.997446E0,6.6341305E0,2.9461915E0,2.0038426E0,1.0515058E1,7.5867004E0,1.13619995E1,-6.0702443E0,-2.1018038E0,1.624061E1,3.5415047E1,8.349399E0,1.1118002E0,1.6144941E0,7.652523E0,-1.8027477E-1,3.1462548E0,6.7815404E0,1.5983983E0,1.3710976E1,6.267633E0,-3.0970752E0,-1.2896143E1,-3.2671494E0,-1.4252326E0,5.9023505E-1,1.0241453E1,-3.965053E0,9.227347E0,-6.8712974E0,6.9411573E0,1.398352E1,6.1531596E0,-2.7919744E1,7.6065737E-1,1.0051425E1,3.008812E0,7.8833594E0,3.0027733E0,9.194592E-1,4.085786E0,-1.740067E0,-6.1327654E-1,1.2248046E1,8.422321E0,3.6338868E0,-5.966797E0,7.3611846E0,1.5810654E1,5.4097686E0,1.0123233E1,3.6783721E0,8.367002E0,3.1270878E0,-5.8629646E0,4.206584E0,1.4466561E1,-7.972669E0,3.072352E0],"categories":[],"categories_nodes":[],"categories_segments":[],"categories_sizes":[],"default_left":[true,true,true,true,true,true,true,true,true,true,false,true,true,true,true,true,true,false,false,true,true,false,false,true,true,true,true,true,true,true,true,false,false,false,false,false,true,false,true,true,true,false,true,false,true,false,true,true,true,false,false,false,false,false,false,false,false,false,false,false,false,false,false,false,false,false,false,false,false,false,false],"id":12,"left_children":[1,3,5,7,9,11,13,15,17,19,-1,21,23,25,27,29,31,-1,-1,33,35,-1,-1,37,39,41,43,45,47,49,51,-1,-1,-1,-1,-1,53,-1,55,57,59,-1,61,-1,63,-1,65,67,69,-1,-1,-1,-1,-1,-1,-1,-1,-1,-1,-1,-1,-1,-1,-1,-1,-1,-1,-1,-1,-1,-1],"loss_changes":[9.261797E2,2.057457E3,2.9151836E3,1.6432661E3,3.2720632E3,3.4480405E3,2.6068047E3,1.3284199E3,3.1273926E1,3.333806E2,0E0,6.3104297E2,1.1168164E3,1.01003613E3,3.152414E3,1.1359175E3,1.7197852E2,0E0,0E0,6.5007446E2,4.4226776E1,0E0,0E0,9.6288525E2,1.3962346E3,1.6297281E3,1.489706E3,7.9559287E3,4.464539E3,1.6784961E2,9.200088E2,0E0,0E0,0E0,0E0,0E0,9.413757E0,0E0,9.030664E1,3.4111646E2,4.332666E1,0E0,5.244153E1,0E0,7.143384E2,0E0,4.642264E3,2.3132754E3,3.2656055E3,0E0,0E0,0E0,0E0,0E0,0E0,0E0,0E0,0E0,0E0,0E0,0E0,0E0,0E0,0E0,0E0,0E0,0E0,0E0,0E0,0E0,0E0],"parents":[2147483647,0,0,1,1,2,2,3,3,4,4,5,5,6,6,7,7,8,8,9,9,11,11,12,12,13,13,14,14,15,15,16,16,19,19,20,20,23,23,24,24,25,25,26,26,27,27,28,28,29,29,30,30,36,36,38,38,39,39,40,40,42,42,44,44,46,46,47,47,48,48],"right_children":[2,4,6,8,10,12,14,16,18,20,-1,22,24,26,28,30,32,-1,-1,34,36,-1,-1,38,40,42,44,46,48,50,52,-1,-1,-1,-1,-1,54,-1,56,58,60,-1,62,-1,64,-1,66,68,70,-1,-1,-1,-1,-1,-1,-1,-1,-1,-1,-1,-1,-1,-1,-1,-1,-1,-1,-1,-1,-1,-1],"split_conditions":[-6.792172E1,-7.07277E1,-6.5342865E1,-7.163411E1,4.767232E1,-8.778253E1,-1.3355887E2,6.0219704E1,1.3306368E1,-2.2128773E1,6.8165994E0,-1.095535E2,4.7011612E1,-5.4947586E1,-1.01539825E2,-1.05803246E2,9.652657E1,2.2760103E0,3.4086E0,-1.08839355E2,2.3169138E1,4.8721833E0,1.0624515E1,-3.0956718E1,4.9322582E1,-1.4385138E2,-5.2111183E1,-6.2178795E1,-9.9054726E1,-5.962016E0,-7.491504E1,4.1132927E0,1.8802899E0,-9.291226E-1,-3.868843E0,-9.8014486E-1,3.5263847E1,1.7707053E-1,-6.609909E1,4.8055786E1,5.8421696E1,-2.0613892E0,-1.4035327E2,4.195056E0,-1.4535567E2,-8.375924E0,-1.1125871E2,-1.0065651E2,-9.735399E1,2.3650079E0,9.00832E-1,2.7583778E-1,1.2257358E0,-5.220201E-1,-1.8398297E-1,3.674414E0,2.5266964E0,1.0901661E0,-1.7900392E0,2.2083554E0,4.7431965E0,1.6229306E0,3.03697E0,1.1035117E0,2.5101006E0,9.381264E-1,-1.7588894E0,1.2619753E0,4.3399687E0,-2.3918009E0,9.217056E-1],"split_indices":[1,1,1,1,0,0,0,0,0,0,0,0,0,1,0,1,0,0,0,0,0,0,0,0,0,0,1,1,0,0,1,0,0,0,0,0,0,0,1,0,0,0,0,0,0,0,0,0,0,0,0,0,0,0,0,0,0,0,0,0,0,0,0,0,0,0,0,0,0,0,0],"split_type":[0,0,0,0,0,0,0,0,0,0,0,0,0,0,0,0,0,0,0,0,0,0,0,0,0,0,0,0,0,0,0,0,0,0,0,0,0,0,0,0,0,0,0,0,0,0,0,0,0,0,0,0,0,0,0,0,0,0,0,0,0,0,0,0,0,0,0,0,0,0,0],"sum_hessian":[6.087E3,7.39E2,5.348E3,6.41E2,9.8E1,1.11E2,5.237E3,6.09E2,3.2E1,9.4E1,4E0,1.4E1,9.7E1,1.99E2,5.038E3,5.91E2,1.8E1,1.8E1,1.4E1,3.3E1,6.1E1,1.1E1,3E0,6.5E1,3.2E1,3.4E1,1.65E2,3.03E2,4.735E3,4.5E1,5.46E2,9E0,9E0,2.4E1,9E0,2.1E1,4E1,1.3E1,5.2E1,2E1,1.2E1,1.3E1,2.1E1,3E1,1.35E2,9E0,2.94E2,9.1E1,4.644E3,3.4E1,1.1E1,4.3E2,1.16E2,2.8E1,1.2E1,2.2E1,3E1,4E0,1.6E1,1.1E1,1E0,1.6E1,5E0,6.5E1,7E1,2.17E2,7.7E1,4E1,5.1E1,2.6E1,4.618E3],"tree_param":{"num_deleted":"0","num_feature":"2","num_nodes":"71","size_leaf_vector":"0"}},{"base_weights":[2.1439576E0,2.641546E0,1.9107771E0,1.971364E0,5.7561507E0,6.2490352E-3,2.3763392E0,1.0553985E0,2.8347871E0,3.2307964E1,5.2677865E0,1.1238338E0,-4.5828724E0,5.597112E0,2.100967E0,2.0864983E0,-3.3044477E0,1.5411382E1,1.8952302E0,2.9864416E0,7.9419785E0,5.8629966E-1,2.0173721E1,-2.8678653E0,-1.0410456E1,4.959041E0,1.4501135E1,-3.7150073E0,2.3140666E0,9.584312E-1,6.537925E0,1.0307792E1,-5.3732195E0,8.382504E0,1.9590033E1,1.7122148E0,8.636094E0,6.7383614E0,-3.512986E0,2.2890999E1,6.9727054E0,7.619531E0,-6.1708517E-2,-5.124644E0,-7.0584434E-1,-1.2719545E1,-8.155414E0,6.387265E0,-7.6734376E-1,-6.5963966E-1,-2.8357594E1,8.39948E0,2.2216394E0,1.7761897E0,-7.404004E0,3.51911E1,5.797945E0,-9.459386E0,-2.9453979E0,1.4777123E1,6.318248E-2,1.9401844E0,-3.8009312E0,1.1542563E1,4.575368E0,2.0991898E-1,8.001938E0,-7.8559647E0,-8.053014E-1,8.949558E0,3.8724914E0,2.7710812E0,9.966782E0,-1.1182196E1,7.7193254E-1,-6.462146E0,3.109131E-1,2.9394348E0,8.101902E0,-8.743813E0,4.403518E0,-8.441309E0,1.5722612E0,2.969038E0,1.4767559E1,-5.9240804E0,2.342488E0],"categories":[],"categories_nodes":[],"categories_segments":[],"categories_sizes":[],"default_left":[true,true,true,true,true,true,true,true,true,false,true,true,true,true,true,true,true,true,true,true,true,true,false,true,true,true,false,true,true,true,true,false,true,true,false,true,true,true,true,false,true,true,true,true,false,false,false,true,true,true,false,true,true,false,false,false,false,false,false,false,false,false,false,false,false,false,false,false,false,false,false,false,false,false,false,false,false,false,false,false,false,false,false,false,false,false,false],"id":13,"left_children":[1,3,5,7,9,11,13,15,17,-1,19,21,23,25,27,29,31,33,35,37,39,41,-1,43,45,47,-1,49,51,53,55,-1,57,59,-1,61,63,65,67,-1,69,71,73,75,-1,-1,-1,77,79,81,-1,83,85,-1,-1,-1,-1,-1,-1,-1,-1,-1,-1,-1,-1,-1,-1,-1,-1,-1,-1,-1,-1,-1,-1,-1,-1,-1,-1,-1,-1,-1,-1,-1,-1,-1,-1],"loss_changes":[7.0133203E2,4.0381152E3,3.6788037E3,1.2608115E3,4.2774736E3,4.190196E3,2.9452031E3,3.4998484E3,9.6838955E3,0E0,2.0383359E3,6.7158286E3,1.5692397E3,1.4166143E3,3.8172178E3,3.1522617E3,4.251318E3,1.5099473E3,9.302134E2,4.5105728E3,2.086289E3,2.9173289E3,0E0,6.062831E2,8.372217E1,2.0168276E3,0E0,8.18814E3,1.6490254E3,3.4528923E3,2.4887153E3,0E0,1.2618013E3,1.222641E3,0E0,9.462263E2,1.8323608E2,9.634751E2,7.9331396E2,0E0,8.662573E2,5.869297E2,5.450412E3,4.4548328E2,0E0,0E0,0E0,1.1408052E3,2.1007644E3,1.7153275E3,0E0,1.4777402E3,2.890294E3,0E0,0E0,0E0,0E0,0E0,0E0,0E0,0E0,0E0,0E0,0E0,0E0,0E0,0E0,0E0,0E0,0E0,0E0,0E0,0E0,0E0,0E0,0E0,0E0,0E0,0E0,0E0,0E0,0E0,0E0,0E0,0E0,0E0,0E0],"parents":[2147483647,0,0,1,1,2,2,3,3,4,4,5,5,6,6,7,7,8,8,10,10,11,11,12,12,13,13,14,14,15,15,16,16,17,17,18,18,19,19,20,20,21,21,23,23,24,24,25,25,27,27,28,28,29,29,30,30,32,32,33,33,35,35,36,36,37,37,38,38,40,40,41,41,42,42,43,43,47,47,48,48,49,49,51,51,52,52],"right_children":[2,4,6,8,10,12,14,16,18,-1,20,22,24,26,28,30,32,34,36,38,40,42,-1,44,46,48,-1,50,52,54,56,-1,58,60,-1,62,64,66,68,-1,70,72,74,76,-1,-1,-1,78,80,82,-1,84,86,-1,-1,-1,-1,-1,-1,-1,-1,-1,-1,-1,-1,-1,-1,-1,-1,-1,-1,-1,-1,-1,-1,-1,-1,-1,-1,-1,-1,-1,-1,-1,-1,-1,-1],"split_conditions":[-4.6515465E1,-5.0861336E1,-3.272093E1,-3.5389763E1,-5.0736717E1,-3.4376442E1,-2.7271564E1,-5.7671444E1,-1.991679E1,9.6923895E0,-6.988517E1,-3.4963417E1,-3.342195E1,5.829184E1,-2.5308132E1,-7.648164E1,-6.3522133E1,-5.8029583E1,6.0219704E1,-7.8046295E1,-6.640986E1,-1.2650902E2,6.052117E0,-3.3528732E1,-3.32486E1,4.2587967E1,4.350341E0,-2.5732853E1,-2.4963135E1,-5.3470024E1,-7.016411E1,3.0923376E0,-5.4530373E1,-3.3114166E1,5.87701E0,5.8432434E1,9.916553E1,-1.2346925E2,-4.8702744E1,6.8673E0,-1.8794693E1,-1.535391E2,-1.0618192E2,5.996752E0,-2.1175331E-1,-3.8158638E0,-2.4466243E0,-1.12739105E1,4.6819138E1,-2.693957E1,-8.507278E0,6.762559E1,-2.485902E1,5.3285694E-1,-2.2212014E0,1.0557331E1,1.7393836E0,-2.8378158E0,-8.8361937E-1,4.4331374E0,1.8954745E-2,5.8205533E-1,-1.1402794E0,3.4627693E0,1.3726104E0,6.29757E-2,2.4005814E0,-2.3567896E0,-2.4159044E-1,2.6848676E0,1.1617475E0,8.313244E-1,2.9900346E0,-3.3546588E0,2.3157977E-1,-1.9386438E0,9.327393E-2,8.8183045E-1,2.4305706E0,-2.623144E0,1.3210555E0,-2.5323927E0,4.7167838E-1,8.907114E-1,4.430268E0,-1.7772242E0,7.0274645E-1],"split_indices":[1,1,1,0,1,1,1,0,0,0,0,1,1,0,1,0,1,1,0,0,0,0,0,1,1,0,0,1,1,1,0,0,1,0,0,0,0,0,1,0,0,0,0,0,0,0,0,0,0,1,0,0,1,0,0,0,0,0,0,0,0,0,0,0,0,0,0,0,0,0,0,0,0,0,0,0,0,0,0,0,0,0,0,0,0,0,0],"split_type":[0,0,0,0,0,0,0,0,0,0,0,0,0,0,0,0,0,0,0,0,0,0,0,0,0,0,0,0,0,0,0,0,0,0,0,0,0,0,0,0,0,0,0,0,0,0,0,0,0,0,0,0,0,0,0,0,0,0,0,0,0,0,0,0,0,0,0,0,0,0,0,0,0,0,0,0,0,0,0,0,0,0,0,0,0,0,0],"sum_hessian":[6.087E3,1.939E3,4.148E3,1.597E3,3.42E2,8.15E2,3.333E3,7.76E2,8.21E2,5E0,3.37E2,6.56E2,1.59E2,2.61E2,3.072E3,6.28E2,1.48E2,5.6E1,7.65E2,1.83E2,1.54E2,6.39E2,1.7E1,1.24E2,3.5E1,2.45E2,1.6E1,1.08E2,2.964E3,5.02E2,1.26E2,1.9E1,1.29E2,2.2E1,3.4E1,7.46E2,1.9E1,1.16E2,6.7E1,8E0,1.46E2,5.3E1,5.86E2,6E1,6.4E1,1.5E1,2E1,1.96E2,4.9E1,9.7E1,1.1E1,4.3E1,2.921E3,4.58E2,4.4E1,2E0,1.24E2,4.7E1,8.2E1,1.2E1,1E1,7.17E2,2.9E1,1E1,9E0,1.9E1,9.7E1,2.5E1,4.2E1,8.8E1,5.8E1,1.8E1,3.5E1,4E1,5.46E2,4.8E1,1.2E1,6.6E1,1.3E2,1.9E1,3E1,2.1E1,7.6E1,2.4E1,1.9E1,4.2E1,2.879E3],"tree_param":{"num_deleted":"0","num_feature":"2","num_nodes":"87","size_leaf_vector":"0"}},{"base_weights":[1.507888E0,7.6520166E0,1.4914522E0,-2.1713543E-1,1.5630103E0,4.2775517E0,-1.2498279E0,8.70951E0,1.5356712E0,5.0584555E0,1.643453E0,4.014777E-1,-2.0478747E0,-4.74737E0,1.580066E0,4.3725095E0,6.8269596E0,-2.6691973E0,3.034518E0,-3.7771544E0,-1.1600313E-2,-1.6134925E0,-5.9885087E0,2.2339427E0,1.3420035E0,3.718548E0,1.7559433E-1,-4.8542695E0,-2.866563E0,4.7251997E0,-2.1644278E0,1.692919E0,4.874534E0,1.4707099E-1,1.6634513E0],"categories":[],"categories_nodes":[],"categories_segments":[],"categories_sizes":[],"default_left":[true,false,true,true,true,true,true,false,true,true,false,true,true,true,true,false,false,false,true,true,true,false,false,true,true,false,false,false,false,false,false,false,false,false,false],"id":14,"left_children":[1,-1,3,5,7,9,11,-1,13,15,-1,17,19,21,23,-1,-1,-1,25,27,29,-1,-1,31,33,-1,-1,-1,-1,-1,-1,-1,-1,-1,-1],"loss_changes":[6.033721E2,0E0,7.428447E2,1.1425453E3,1.1254912E3,8.630768E1,2.6438608E2,0E0,1.6275508E3,1.2607483E1,0E0,5.4172363E2,4.7533002E2,1.4981018E2,8.9486914E2,0E0,0E0,0E0,6.974826E1,5.7684082E1,6.526707E2,0E0,0E0,2.1889692E3,1.624919E3,0E0,0E0,0E0,0E0,0E0,0E0,0E0,0E0,0E0,0E0],"parents":[2147483647,0,0,2,2,3,3,4,4,5,5,6,6,8,8,9,9,11,11,12,12,13,13,14,14,18,18,19,19,20,20,23,23,24,24],"right_children":[2,-1,4,6,8,10,12,-1,14,16,-1,18,20,22,24,-1,-1,-1,26,28,30,-1,-1,32,34,-1,-1,-1,-1,-1,-1,-1,-1,-1,-1],"split_conditions":[-1.769274E2,2.2956052E0,-8.837352E1,-1.05803246E2,-1.6832768E2,-5.962016E0,-1.7286467E2,2.612853E0,-1.66123E2,-9.2623886E1,4.930359E-1,-1.7626901E2,-9.582718E1,-1.6746559E2,-4.722035E1,1.3117529E0,2.048088E0,-8.0075926E-1,-1.7497412E2,-7.9047035E1,-9.4768555E1,-4.8404777E-1,-1.7965527E0,-5.0861336E1,-3.272093E1,1.1155645E0,5.2678302E-2,-1.456281E0,-8.5996896E-1,1.41756E0,-6.4932835E-1,5.0787574E-1,1.4623603E0,4.41213E-2,4.9903542E-1],"split_indices":[0,0,1,1,0,0,0,0,0,0,0,0,1,0,1,0,0,0,0,0,1,0,0,1,1,0,0,0,0,0,0,0,0,0,0],"split_type":[0,0,0,0,0,0,0,0,0,0,0,0,0,0,0,0,0,0,0,0,0,0,0,0,0,0,0,0,0,0,0,0,0,0,0],"sum_hessian":[6.087E3,1.5E1,6.072E3,2.44E2,5.828E3,4.5E1,1.99E2,2.1E1,5.807E3,3.4E1,1.1E1,6.5E1,1.34E2,4E1,5.767E3,2.7E1,7E0,3E1,3.5E1,7.2E1,6.2E1,1.2E1,2.8E1,1.537E3,4.23E3,2.8E1,7E0,3.1E1,4.1E1,1.9E1,4.3E1,1.277E3,2.6E2,8.97E2,3.333E3],"tree_param":{"num_deleted":"0","num_feature":"2","num_nodes":"35","size_leaf_vector":"0"}},{"base_weights":[1.0568027E0,9.896078E-1,2.12006E0,1.0175253E0,-1.1361638E1,1.2859541E1,1.3170717E0,9.874593E-1,1.2378788E1,2.190151E1,-5.648573E0,-5.7095447E0,1.6850947E0,1.0488894E0,-2.854705E0,6.5192014E-1,4.211029E0,1.0180093E0,9.22336E0,-4.6498666E0,8.135855E0,1.3541026E0,-1.4861285E1,2.6819365E0,8.262883E0,1.0609741E0,-1.1134697E0,-8.479167E0,-1.8016756E0,9.653876E-1,1.5057373E1,2.249387E0,4.5490975E0,1.3005451E1,5.6960263E0],"categories":[],"categories_nodes":[],"categories_segments":[],"categories_sizes":[],"default_left":[true,true,true,true,false,true,true,true,false,false,false,false,true,true,true,true,true,true,false,true,false,true,false,true,true,false,false,false,false,false,false,false,false,false,false],"id":15,"left_children":[1,3,5,7,-1,9,11,13,-1,-1,-1,-1,15,17,19,21,23,25,-1,27,-1,29,-1,31,33,-1,-1,-1,-1,-1,-1,-1,-1,-1,-1],"loss_changes":[4.328623E2,1.986668E3,3.096211E3,1.9402935E3,0E0,4.3074575E3,8.810886E2,1.3488071E3,0E0,0E0,0E0,0E0,8.349784E2,1.4074941E3,1.8135151E3,2.5146438E3,5.540359E2,5.1338086E2,0E0,8.354365E2,0E0,1.1573306E3,0E0,4.5494446E1,2.3025793E2,0E0,0E0,0E0,0E0,0E0,0E0,0E0,0E0,0E0,0E0],"parents":[2147483647,0,0,1,1,2,2,3,3,5,5,6,6,7,7,12,12,13,13,14,14,15,15,16,16,17,17,19,19,21,21,23,23,24,24],"right_children":[2,4,6,8,-1,10,12,14,-1,-1,-1,-1,16,18,20,22,24,26,-1,28,-1,30,-1,32,34,-1,-1,-1,-1,-1,-1,-1,-1,-1,-1],"split_conditions":[1.4149077E2,1.4133356E2,1.418636E2,1.410575E2,-3.4084916E0,8.952464E1,-6.537505E1,1.3965692E2,3.7136366E0,6.570453E0,-1.694572E0,-1.7128634E0,1.5694763E2,1.3716959E2,9.528497E1,1.5496338E2,-4.522133E1,1.14358246E2,2.767008E0,9.0243164E1,2.4407566E0,1.5422635E2,-4.458386E0,2.1185764E2,-7.636552E0,3.1829226E-1,-3.3404094E-1,-2.5437503E0,-5.4050267E-1,2.896163E-1,4.517212E0,6.7481613E-1,1.3647293E0,3.9016354E0,1.708808E0],"split_indices":[1,1,1,1,0,0,0,1,0,0,0,0,1,1,0,1,0,1,0,0,0,1,0,1,0,0,0,0,0,0,0,0,0,0,0],"split_type":[0,0,0,0,0,0,0,0,0,0,0,0,0,0,0,0,0,0,0,0,0,0,0,0,0,0,0,0,0,0,0,0,0,0,0],"sum_hessian":[6.087E3,5.727E3,3.6E2,5.715E3,1.2E1,2.4E1,3.36E2,5.701E3,1.4E1,1.6E1,8E0,1.6E1,3.2E2,5.612E3,8.9E1,2.28E2,9.2E1,5.592E3,2E1,7.7E1,1.2E1,2.19E2,9E0,6.8E1,2.4E1,5.482E3,1.1E2,3.2E1,4.5E1,2.14E2,5E0,5.7E1,1.1E1,7E0,1.7E1],"tree_param":{"num_deleted":"0","num_feature":"2","num_nodes":"35","size_leaf_vector":"0"}},{"base_weights":[7.419862E-1,6.3875747E-1,1.3721896E0,7.0008105E-1,-5.7320495E0,8.122864E0,9.7878975E-1,6.656361E-1,6.404251E0,-8.055241E0,3.2370162E0,1.551124E1,6.4421167E0,-2.1538923E0,1.5974022E0,7.0469135E-1,-3.8861167E0,6.172638E-1,1.4369521E1,-3.3464382E0,-8.632315E0,2.8339188E0,9.571728E0,4.6028585E0,-3.2420332E0,5.592759E0,1.1274388E0,6.735517E-1,1.3880332E1,-7.7110085E0,-2.3774858E0,4.5872498E0,-1.128249E0,6.1489625E0,2.5964692E0,-5.782453E-1,-4.6905274E0,1.3293066E0,7.741558E0,-4.7944517E0,1.3373746E0,1.1468023E0,3.93613E-1,5.393301E-1,-1.0432531E0,-3.015329E0,-5.5178714E0,9.985642E0,3.6417517E-1,-2.4917498E0,-7.58786E0,8.366655E0,1.1384132E0],"categories":[],"categories_nodes":[],"categories_segments":[],"categories_sizes":[],"default_left":[true,true,true,true,true,true,true,true,true,true,false,false,true,true,true,true,true,true,false,false,false,false,false,true,true,true,true,true,false,false,false,false,false,false,false,true,true,false,true,true,true,false,false,false,false,false,false,false,false,false,false,false,false],"id":16,"left_children":[1,3,5,7,9,11,13,15,17,19,-1,-1,21,23,25,27,29,31,-1,-1,-1,-1,-1,33,35,37,39,41,-1,-1,-1,-1,-1,-1,-1,43,45,-1,47,49,51,-1,-1,-1,-1,-1,-1,-1,-1,-1,-1,-1,-1],"loss_changes":[3.9517896E2,2.0484458E3,2.2653406E3,1.01428906E3,1.0679178E3,4.8372046E2,1.5731523E3,9.189646E2,1.4200726E3,7.980542E1,0E0,0E0,4.245647E2,1.00013055E3,1.2648779E3,2.087619E3,2.3556256E2,1.3683913E2,0E0,0E0,0E0,0E0,0E0,4.297406E1,4.4487158E2,6.401616E2,7.610442E2,6.7520264E2,0E0,0E0,0E0,0E0,0E0,0E0,0E0,2.238927E1,8.7309204E1,0E0,7.744707E2,1.16173096E2,8.114271E2,0E0,0E0,0E0,0E0,0E0,0E0,0E0,0E0,0E0,0E0,0E0,0E0],"parents":[2147483647,0,0,1,1,2,2,3,3,4,4,5,5,6,6,7,7,8,8,9,9,12,12,13,13,14,14,15,15,16,16,17,17,23,23,24,24,25,25,26,26,27,27,35,35,36,36,38,38,39,39,40,40],"right_children":[2,4,6,8,10,12,14,16,18,20,-1,-1,22,24,26,28,30,32,-1,-1,-1,-1,-1,34,36,38,40,42,-1,-1,-1,-1,-1,-1,-1,44,46,-1,48,50,52,-1,-1,-1,-1,-1,-1,-1,-1,-1,-1,-1,-1],"split_conditions":[5.4483093E1,5.235642E1,5.595812E1,5.130571E1,2.8550323E1,5.5070198E1,-3.44468E1,5.103382E1,9.9983635E0,5.2575264E1,9.711049E-1,4.6533723E0,5.5137978E1,-7.5203735E1,-2.4315292E1,5.086883E1,5.1212837E1,5.181356E1,4.3108563E0,-1.0039315E0,-2.5896945E0,8.501757E-1,2.8715184E0,9.652657E1,5.9398575E1,6.562259E1,-1.4141516E1,-4.4799973E1,4.1640997E0,-2.3133028E0,-7.1324575E-1,1.3761749E0,-3.3847472E-1,1.8446888E0,7.789408E-1,-6.58748E1,6.725129E1,3.98792E-1,8.301551E1,1.0013823E2,-1.06994915E1,3.440407E-1,1.1808391E-1,1.6179904E-1,-3.1297594E-1,-9.045987E-1,-1.6553615E0,2.9956927E0,1.0925256E-1,-7.47525E-1,-2.2763581E0,2.5099967E0,3.4152398E-1],"split_indices":[0,0,0,0,1,0,1,0,1,0,0,0,0,1,1,0,0,0,0,0,0,0,0,0,0,0,1,1,0,0,0,0,0,0,0,1,0,0,0,0,1,0,0,0,0,0,0,0,0,0,0,0,0],"split_type":[0,0,0,0,0,0,0,0,0,0,0,0,0,0,0,0,0,0,0,0,0,0,0,0,0,0,0,0,0,0,0,0,0,0,0,0,0,0,0,0,0,0,0,0,0,0,0,0,0,0,0,0,0],"sum_hessian":[6.087E3,5.232E3,8.55E2,5.183E3,4.9E1,4.6E1,8.09E2,5.153E3,3E1,3.9E1,1E1,7E0,3.9E1,1.33E2,6.76E2,5.11E3,4.3E1,1.8E1,1.2E1,5E0,3.4E1,1.9E1,2E1,1.8E1,1.15E2,7E1,6.06E2,5.099E3,1.1E1,1.1E1,3.2E1,5E0,1.3E1,9E0,9E0,4.1E1,7.4E1,2.4E1,4.6E1,2E1,5.86E2,1.894E3,3.205E3,1.2E1,2.9E1,2.6E1,4.8E1,3.5E1,1.1E1,1.2E1,8E0,1.5E1,5.71E2],"tree_param":{"num_deleted":"0","num_feature":"2","num_nodes":"53","size_leaf_vector":"0"}},{"base_weights":[5.2200776E-1,-2.131519E-1,6.236148E-1,2.7890292E-1,-3.4018998E0,4.2992673E0,5.470512E-1,1.514725E-2,5.145935E0,-4.3802376E0,1.5866895E1,1.5149142E1,2.5408738E0,5.828223E0,4.9711388E-1,2.1531363E-1,-7.93914E0,3.7704258E0,6.545184E0,-6.362634E0,-3.2224677E0,1.0213306E1,2.6169365E1,4.1658797E0,-1.301067E0,1.5282818E0,8.275664E0,-3.778482E0,5.3773725E-1,-1.6174899E-1,2.3095813E0,-9.764353E0,-3.5739288E0,-3.8400586E0,-1.2032809E1,-4.004178E0,-2.7244165E0,4.6322685E-1,6.65359E0,-5.931253E0,4.8538737E0,-2.1914165E1,8.4990084E-1,1.0094037E1,4.928546E-1,4.8789415E0,-3.2567832E-1,-8.324836E-1,5.268801E0,-1.1555971E0,1.9432474E0,1.4818214E1,5.0638375E0,3.3005486E0,1.1746887E1,-2.7369118E0,3.1114647E0,6.258376E0,2.3417871E1,-6.2416043E0,5.2711064E-1],"categories":[],"categories_nodes":[],"categories_segments":[],"categories_sizes":[],"default_left":[true,true,true,true,true,true,true,true,true,true,false,true,true,true,true,true,true,false,false,true,true,false,false,true,true,false,false,true,true,true,true,false,false,false,false,false,false,true,true,false,true,false,true,true,true,false,false,false,false,false,false,false,false,false,false,false,false,false,false,false,false],"id":17,"left_children":[1,3,5,7,9,11,13,15,17,19,-1,21,23,25,27,29,31,-1,-1,33,35,-1,-1,37,39,-1,-1,41,43,45,47,-1,-1,-1,-1,-1,-1,49,51,-1,53,-1,55,57,59,-1,-1,-1,-1,-1,-1,-1,-1,-1,-1,-1,-1,-1,-1,-1,-1],"loss_changes":[4.5489075E2,1.1620376E3,1.5029697E3,8.240622E2,1.935788E3,2.0410481E3,1.3792988E3,9.729397E2,3.8836243E1,1.9753662E2,0E0,5.486343E2,5.985219E2,5.0302124E2,9.039988E2,4.7101694E2,8.46145E1,0E0,0E0,4.4011047E2,1.3229553E1,0E0,0E0,6.1406335E2,8.552466E2,0E0,0E0,4.13163E3,2.2017776E3,4.1970538E2,8.505098E2,0E0,0E0,0E0,0E0,0E0,0E0,6.933061E1,4.4415222E2,0E0,1.0042102E2,0E0,3.3298807E2,1.079979E3,1.1849144E3,0E0,0E0,0E0,0E0,0E0,0E0,0E0,0E0,0E0,0E0,0E0,0E0,0E0,0E0,0E0,0E0],"parents":[2147483647,0,0,1,1,2,2,3,3,4,4,5,5,6,6,7,7,8,8,9,9,11,11,12,12,13,13,14,14,15,15,16,16,19,19,20,20,23,23,24,24,27,27,28,28,29,29,30,30,37,37,38,38,40,40,42,42,43,43,44,44],"right_children":[2,4,6,8,10,12,14,16,18,20,-1,22,24,26,28,30,32,-1,-1,34,36,-1,-1,38,40,-1,-1,42,44,46,48,-1,-1,-1,-1,-1,-1,50,52,-1,54,-1,56,58,60,-1,-1,-1,-1,-1,-1,-1,-1,-1,-1,-1,-1,-1,-1,-1,-1],"split_conditions":[-6.792172E1,-7.07277E1,-6.541295E1,-7.163411E1,4.767232E1,-8.778253E1,-1.5234795E2,-7.1851654E1,1.3306368E1,-2.2128773E1,4.7600684E0,-1.095535E2,4.8055786E1,-1.6019351E2,-6.4899765E1,-7.392851E1,4.1317482E1,1.1311278E0,1.9635553E0,-1.08839355E2,2.3169138E1,3.063992E0,7.8508096E0,-6.6656494E1,4.9322582E1,4.5848456E-1,2.4826994E0,-9.095519E1,-6.425189E1,-1.769274E2,-9.204978E1,-2.929306E0,-1.0721787E0,-1.1520176E0,-3.609843E0,-1.2012534E0,-8.17325E-1,-3.0956718E1,4.39077E1,-1.7793759E0,5.8421696E1,-6.5742497E0,-2.4319235E1,3.9278736E0,-6.3105167E1,1.4636825E0,-9.77035E-2,-2.4974509E-1,1.5806404E0,-3.4667915E-1,5.8297426E-1,4.4454646E0,1.5191513E0,9.901646E-1,3.5240662E0,-8.210736E-1,9.3343943E-1,1.8775129E0,7.0253615E0,-1.8724813E0,1.581332E-1],"split_indices":[1,1,1,1,0,0,0,1,0,0,0,0,0,0,1,1,0,0,0,0,0,0,0,1,0,0,0,0,1,0,0,0,0,0,0,0,0,0,0,0,0,0,0,0,1,0,0,0,0,0,0,0,0,0,0,0,0,0,0,0,0],"split_type":[0,0,0,0,0,0,0,0,0,0,0,0,0,0,0,0,0,0,0,0,0,0,0,0,0,0,0,0,0,0,0,0,0,0,0,0,0,0,0,0,0,0,0,0,0,0,0,0,0,0,0,0,0,0,0,0,0,0,0,0,0],"sum_hessian":[6.087E3,7.39E2,5.348E3,6.41E2,9.8E1,1.08E2,5.24E3,6.09E2,3.2E1,9.4E1,4E0,1.4E1,9.4E1,4.8E1,5.192E3,5.95E2,1.4E1,1.8E1,1.4E1,3.3E1,6.1E1,1.1E1,3E0,6.6E1,2.8E1,1.8E1,3E1,4.8E1,5.144E3,5.05E2,9E1,9E0,5E0,2.4E1,9E0,2.1E1,4E1,2.7E1,3.9E1,1.6E1,1.2E1,9E0,3.9E1,2.3E1,5.121E3,1.5E1,4.9E2,4.4E1,4.6E1,1.3E1,1.4E1,5E0,3.4E1,1.1E1,1E0,1.5E1,2.4E1,1.9E1,4E0,2.5E1,5.096E3],"tree_param":{"num_deleted":"0","num_feature":"2","num_nodes":"61","size_leaf_vector":"0"}},{"base_weights":[3.6923572E-1,3.0794972E-1,1.1363968E0,3.3361384E-1,-1.285307E1,6.8012714E0,4.2721945E-1,3.767082E-1,-2.2079184E0,9.689894E0,3.2681854E0,2.0150647E-2,1.1678325E1,3.534045E-1,6.7862024E0,-2.5827088E0,2.143919E0,1.3981872E1,5.8652916E0,-1.0971026E1,7.5927687E0,-1.0094622E1,2.3248143E-1,3.7725067E-1,-3.2876558E0,-3.8664427E0,-1.803027E0,9.295518E0,3.3458383E0,1.5130404E1,-5.869683E-3,3.3136907E-1,4.816932E0,-2.293343E0,-4.1545606E0,5.7082033E0,-2.490587E0,-1.3456799E0,1.6255808E0],"categories":[],"categories_nodes":[],"categories_segments":[],"categories_sizes":[],"default_left":[true,true,true,true,false,true,true,true,true,true,true,true,false,true,false,true,false,false,false,false,true,false,true,true,true,false,true,false,false,false,true,false,false,false,false,false,false,false,false],"id":18,"left_children":[1,3,5,7,-1,9,11,13,15,17,19,21,-1,23,-1,25,-1,-1,-1,-1,27,-1,29,31,33,-1,35,-1,-1,-1,37,-1,-1,-1,-1,-1,-1,-1,-1],"loss_changes":[2.8588483E2,1.9089497E3,1.8049248E3,6.1735205E2,0E0,4.786194E2,1.8363344E3,8.2448645E2,1.5885373E2,3.6119995E2,1.5611881E3,8.3564575E2,0E0,4.8025592E2,0E0,8.010736E1,0E0,0E0,0E0,0E0,1.0629639E2,0E0,1.3529956E3,1.1150854E3,2.1503235E1,0E0,3.0342438E2,0E0,0E0,0E0,8.2406116E2,0E0,0E0,0E0,0E0,0E0,0E0,0E0,0E0],"parents":[2147483647,0,0,1,1,2,2,3,3,5,5,6,6,7,7,8,8,9,9,10,10,11,11,13,13,15,15,20,20,22,22,23,23,24,24,26,26,30,30],"right_children":[2,4,6,8,-1,10,12,14,16,18,20,22,-1,24,-1,26,-1,-1,-1,-1,28,-1,30,32,34,-1,36,-1,-1,-1,38,-1,-1,-1,-1,-1,-1,-1,-1],"split_conditions":[7.516087E1,7.417882E1,7.9129196E1,7.07865E1,-3.8559213E0,5.4174995E1,1.5070192E2,6.9455956E1,7.36189E1,7.728255E1,7.686836E1,7.967584E1,3.5034976E0,6.7301544E1,2.0358608E0,7.210478E1,6.431757E-1,4.1945615E0,1.7595875E0,-3.2913082E0,1.5014993E2,-3.0283866E0,8.010851E1,6.542092E1,6.831165E1,-1.1599329E0,7.2649765E1,2.7886555E0,1.0037515E0,4.5391216E0,1.410575E2,9.941073E-2,1.4450797E0,-6.8800294E-1,-1.2463682E0,1.7124611E0,-7.471761E-1,-4.03704E-1,4.8767427E-1],"split_indices":[0,0,0,0,0,1,1,0,0,0,0,0,0,0,0,0,0,0,0,0,1,0,0,0,0,0,0,0,0,0,1,0,0,0,0,0,0,0,0],"split_type":[0,0,0,0,0,0,0,0,0,0,0,0,0,0,0,0,0,0,0,0,0,0,0,0,0,0,0,0,0,0,0,0,0,0,0,0,0,0,0],"sum_hessian":[6.087E3,5.638E3,4.49E2,5.628E3,1E1,4.9E1,4E2,5.535E3,9.3E1,2.6E1,2.3E1,3.87E2,1.3E1,5.516E3,1.9E1,8.6E1,7E0,1.1E1,1.5E1,5E0,1.8E1,7E0,3.8E2,5.481E3,3.5E1,3.1E1,5.5E1,1.2E1,6E0,5E0,3.75E2,5.426E3,5.5E1,1.8E1,1.7E1,4E0,5.1E1,2.06E2,1.69E2],"tree_param":{"num_deleted":"0","num_feature":"2","num_nodes":"39","size_leaf_vector":"0"}},{"base_weights":[2.6007316E-1,2.428433E0,2.4352431E-1,2.9918418E0,5.827878E-1,-1.179931E0,2.9598603E-1,2.4672742E0,4.453848E0,3.41354E0,-1.541509E0,3.3521333E0,2.5503013E-1,-3.673824E-1,-2.1041079E0,5.0627093E0,1.366032E0,-3.4251704E0,2.9376513E-1,-2.5368888E0,1.5110087E0,-3.3306863E0,-6.494359E-1,2.1235442E0,4.484609E-1,-4.8950534E0,-1.9860525E0,5.139874E0,2.671897E-1,2.0002968E0,-4.5153618E-1,-4.0867906E0,-2.675305E0,2.7476761E0,-2.1788177E0,-2.2544506E0,3.1671448E0,6.175876E0,2.346681E0,-6.504007E0,2.899289E-1],"categories":[],"categories_nodes":[],"categories_segments":[],"categories_sizes":[],"default_left":[true,true,true,true,false,true,true,false,false,false,true,true,true,true,true,false,true,true,true,false,true,true,true,false,false,false,true,true,true,false,false,false,false,false,false,false,false,false,false,false,false],"id":19,"left_children":[1,3,5,7,-1,9,11,-1,-1,-1,13,15,17,19,21,-1,23,25,27,-1,29,31,33,-1,-1,-1,35,37,39,-1,-1,-1,-1,-1,-1,-1,-1,-1,-1,-1,-1],"loss_changes":[2.1786935E2,4.608963E1,4.5162183E2,1.5853363E1,0E0,3.6235504E2,7.287452E2,0E0,0E0,0E0,1.3133948E2,2.5468213E2,8.2111084E2,2.7279526E2,2.3871326E2,0E0,2.476532E1,1.1719824E2,7.319418E2,0E0,3.547219E1,2.5240784E1,3.3330203E2,0E0,0E0,0E0,5.1399643E1,7.521362E1,8.7398083E2,0E0,0E0,0E0,0E0,0E0,0E0,0E0,0E0,0E0,0E0,0E0,0E0],"parents":[2147483647,0,0,1,1,2,2,3,3,5,5,6,6,10,10,11,11,12,12,13,13,14,14,16,16,17,17,18,18,20,20,21,21,22,22,26,26,27,27,28,28],"right_children":[2,4,6,8,-1,10,12,-1,-1,-1,14,16,18,20,22,-1,24,26,28,-1,30,32,34,-1,-1,-1,36,38,40,-1,-1,-1,-1,-1,-1,-1,-1,-1,-1,-1,-1],"split_conditions":[-1.05803246E2,-5.962016E0,-8.837352E1,-9.2623886E1,1.7483635E-1,-1.769274E2,-8.4071304E1,7.401823E-1,1.3361545E0,1.024062E0,-1.7286467E2,2.6091108E1,-7.9635605E1,-1.7626901E2,-9.582718E1,1.5188129E0,3.8157005E1,-8.207893E1,-7.7529655E1,-7.610667E-1,-1.7497412E2,-7.9047035E1,-9.4768555E1,6.3706326E-1,1.3453828E-1,-1.4685161E0,2.3661043E1,3.3068516E1,-7.718674E1,6.000891E-1,-1.3546085E-1,-1.2260373E0,-8.025915E-1,8.2430285E-1,-6.5364534E-1,-6.763352E-1,9.5014346E-1,1.8527629E0,7.0400435E-1,-1.9512022E0,8.6978674E-2],"split_indices":[1,0,1,0,0,0,1,0,0,0,0,0,1,0,1,0,0,1,1,0,0,0,1,0,0,0,0,0,1,0,0,0,0,0,0,0,0,0,0,0,0],"split_type":[0,0,0,0,0,0,0,0,0,0,0,0,0,0,0,0,0,0,0,0,0,0,0,0,0,0,0,0,0,0,0,0,0,0,0,0,0,0,0,0,0],"sum_hessian":[6.087E3,4.5E1,6.042E3,3.4E1,1.1E1,2.14E2,5.828E3,2.7E1,7E0,1.5E1,1.99E2,7.6E1,5.752E3,6.5E1,1.34E2,4E1,3.6E1,5.9E1,5.693E3,3E1,3.5E1,7.2E1,6.2E1,1.9E1,1.7E1,2.8E1,3.1E1,3E1,5.663E3,2.8E1,7E0,3.1E1,4.1E1,1.9E1,4.3E1,3E1,1E0,2.1E1,9E0,1.8E1,5.645E3],"tree_param":{"num_deleted":"0","num_feature":"2","num_nodes":"41","size_leaf_vector":"0"}},{"base_weights":[1.8253231E-1,1.9628678E-1,-2.0721853E0,1.5871008E-1,3.2717986E0,-4.2753606E0,2.8740437E0,1.7781562E-1,-1.1265076E1,2.5052633E0,9.186739E0,1.7003514E-1,7.8845725E0,3.4500556E0,1.5145749E0,1.9092588E-1,-4.1133895E0,5.005455E-2,2.6681406E0,1.7302011E-1,9.018978E0],"categories":[],"categories_nodes":[],"categories_segments":[],"categories_sizes":[],"default_left":[true,true,true,true,true,false,false,true,false,true,false,true,false,false,true,true,false,false,false,false,false],"id":20,"left_children":[1,3,5,7,9,-1,-1,11,-1,13,-1,15,-1,-1,17,19,-1,-1,-1,-1,-1],"loss_changes":[1.8921042E2,6.988957E2,4.1549176E2,1.3071832E3,3.0796747E2,0E0,0E0,3.5669412E2,0E0,5.6550293E1,0E0,5.346467E2,0E0,0E0,5.730674E1,9.370778E2,0E0,0E0,0E0,0E0,0E0],"parents":[2147483647,0,0,1,1,2,2,3,3,4,4,7,7,9,9,11,11,14,14,15,15],"right_children":[2,4,6,8,10,-1,-1,12,-1,14,-1,16,-1,-1,18,20,-1,-1,-1,-1,-1],"split_conditions":[1.7747937E2,1.5694763E2,-5.4597885E1,1.5496338E2,1.7613397E2,-1.2826083E0,8.6221313E-1,1.5422635E2,-3.3795228E0,1.6999335E2,2.7560217E0,1.5303516E2,2.365372E0,1.0350168E0,-5.1861984E1,1.5254654E2,-1.2340169E0,1.5016366E-2,8.004422E-1,5.1906034E-2,2.7056935E0],"split_indices":[1,1,0,1,1,0,0,1,0,1,0,1,0,0,0,1,0,0,0,0,0],"split_type":[0,0,0,0,0,0,0,0,0,0,0,0,0,0,0,0,0,0,0,0,0],"sum_hessian":[6.087E3,6.051E3,3.6E1,5.979E3,7.2E1,2.5E1,1.1E1,5.97E3,9E0,6.5E1,7E0,5.965E3,5E0,3.2E1,3.3E1,5.937E3,2.8E1,1.5E1,1.8E1,5.926E3,1.1E1],"tree_param":{"num_deleted":"0","num_feature":"2","num_nodes":"21","size_leaf_vector":"0"}},{"base_weights":[1.2853964E-1,6.0092056E-1,7.1868524E-2,2.3065707E-1,1.3629608E1,-3.6971273E0,1.4246196E-1,5.506303E-1,-8.307353E0,-5.0573613E-2,-1.6623518E1,2.9595032E0,6.2118165E-2,1.27283E-1,7.987422E0,-4.840558E0,8.846918E0,-2.9405352E1,-7.2192316E0,-1.2131287E0,7.263072E0,-5.3557544E0,1.5012391E-1,5.780672E-1,-3.0175996E0,-1.6211807E1,-2.0835104E0,1.0738877E1,6.9910097E0,-4.896122E0,-2.2721037E-1,9.366097E0,-1.4930319E0,-2.9701083E0,-1.9223318E1,1.1238497E1,6.0407307E-2,-3.1204116E-1,3.257858E0,1.7341422E0,-5.6831193E0,1.0912666E0,-3.8232574E0,1.7840963E1,-1.1420801E0,3.842005E0,1.231778E1,1.207547E0,-6.53601E0,2.0595638E1,3.0200546E0,-4.9916315E0,1.6515858E-1],"categories":[],"categories_nodes":[],"categories_segments":[],"categories_sizes":[],"default_left":[true,true,true,true,false,true,true,true,false,true,true,true,true,true,false,true,true,false,false,true,true,true,true,true,true,false,true,false,false,false,true,true,false,true,false,true,true,false,false,false,false,false,false,false,false,false,false,false,false,false,false,false,false],"id":21,"left_children":[1,3,5,7,-1,9,11,13,-1,15,17,19,21,23,-1,25,27,-1,-1,29,31,33,35,37,39,-1,41,-1,-1,-1,43,45,-1,47,-1,49,51,-1,-1,-1,-1,-1,-1,-1,-1,-1,-1,-1,-1,-1,-1,-1,-1],"loss_changes":[1.6293472E2,3.142135E3,1.4471294E3,1.7393528E3,0E0,4.7128374E3,1.2079751E3,1.9289191E3,0E0,3.4097126E3,2.4322046E3,2.666478E3,2.475893E3,8.254068E2,0E0,1.5964785E3,2.3240967E1,0E0,0E0,2.748535E2,1.3582283E3,2.6888022E3,5.081811E3,1.2151365E3,9.344632E2,0E0,2.4167448E2,0E0,0E0,0E0,1.0287073E3,9.146919E2,0E0,1.0804843E3,0E0,3.0907456E3,2.6833774E3,0E0,0E0,0E0,0E0,0E0,0E0,0E0,0E0,0E0,0E0,0E0,0E0,0E0,0E0,0E0,0E0],"parents":[2147483647,0,0,1,1,2,2,3,3,5,5,6,6,7,7,9,9,10,10,11,11,12,12,13,13,15,15,16,16,19,19,20,20,21,21,22,22,23,23,24,24,26,26,30,30,31,31,33,33,35,35,36,36],"right_children":[2,4,6,8,-1,10,12,14,-1,16,18,20,22,24,-1,26,28,-1,-1,30,32,34,36,38,40,-1,42,-1,-1,-1,44,46,-1,48,-1,50,52,-1,-1,-1,-1,-1,-1,-1,-1,-1,-1,-1,-1,-1,-1,-1,-1],"split_conditions":[-1.16448074E2,-1.1868306E2,-1.0655099E2,-1.2098297E2,4.0888824E0,-1.1125871E2,-9.9054726E1,-1.23923965E2,-2.492206E0,-1.1240991E2,-1.0951782E2,-1.010027E2,-9.5169235E1,-1.2652083E2,2.3962266E0,-4.210121E1,-1.1176869E2,-8.821606E0,-2.1657696E0,-5.2777107E1,-9.47502E0,-9.569749E1,-9.275769E1,-4.115097E1,-5.4815758E1,-4.8635426E0,-1.13746155E2,3.2216632E0,2.097303E0,-1.4688367E0,-4.371165E1,-1.0065651E2,-4.4790956E-1,-4.2794437E1,-5.7669954E0,-3.1816263E1,-8.6363754E1,-9.361235E-2,9.7735745E-1,5.202427E-1,-1.7049359E0,3.2738E-1,-1.1469773E0,5.352289E0,-3.4262404E-1,1.1526016E0,3.695334E0,3.622641E-1,-1.960803E0,6.178692E0,9.060164E-1,-1.4974895E0,4.954758E-2],"split_indices":[0,0,0,0,0,0,0,0,0,0,0,0,0,0,0,1,0,0,0,1,1,0,0,1,1,0,0,0,0,0,1,0,0,1,0,1,0,0,0,0,0,0,0,0,0,0,0,0,0,0,0,0,0],"split_type":[0,0,0,0,0,0,0,0,0,0,0,0,0,0,0,0,0,0,0,0,0,0,0,0,0,0,0,0,0,0,0,0,0,0,0,0,0,0,0,0,0,0,0,0,0,0,0,0,0,0,0,0,0],"sum_hessian":[6.087E3,6.51E2,5.436E3,6.34E2,1.7E1,9.9E1,5.337E3,6.12E2,2.2E1,7.8E1,2.1E1,1.47E2,5.19E3,5.8E2,3.2E1,5.1E1,2.7E1,8E0,1.3E1,7.5E1,7.2E1,8.2E1,5.108E3,5.08E2,7.2E1,9E0,4.2E1,1.1E1,1.6E1,1.5E1,6E1,5.8E1,1.4E1,7.1E1,1.1E1,4E1,5.068E3,3.82E2,1.26E2,2.6E1,4.6E1,1.5E1,2.7E1,2E0,5.8E1,2.1E1,3.7E1,3.3E1,3.8E1,1.8E1,2.2E1,1.02E2,4.966E3],"tree_param":{"num_deleted":"0","num_feature":"2","num_nodes":"53","size_leaf_vector":"0"}}]},"name":"gbtree"},"learner_model_param":{"base_score":"5E-1","num_class":"0","num_feature":"2"},"objective":{"name":"reg:squarederror","reg_loss_param":{"scale_pos_weight":"1"}}},"version":[1,5,0]}