{"learner":{"attributes":{"best_iteration":"55","best_ntree_limit":"56"},"feature_names":["LD_01","LD_02"],"feature_types":["float","float"],"gradient_booster":{"model":{"gbtree_model_param":{"num_trees":"56","size_leaf_vector":"0"},"tree_info":[0,0,0,0,0,0,0,0,0,0,0,0,0,0,0,0,0,0,0,0,0,0,0,0,0,0,0,0,0,0,0,0,0,0,0,0,0,0,0,0,0,0,0,0,0,0,0,0,0,0,0,0,0,0,0,0],"trees":[{"base_weights":[1.5499124E2,1.5776111E2,1.4841016E2,1.6286917E2,1.5526212E2,1.5621252E2,1.4618736E2,1.4673792E2,1.6729846E2,1.5701619E2,1.3812328E2,1.2902094E2,1.4796823E2,1.511599E2,1.2479534E2,1.1176237E2,1.5738882E2,1.2857748E2,1.5495454E2],"categories":[],"categories_nodes":[],"categories_segments":[],"categories_sizes":[],"default_left":[true,true,true,true,true,false,true,true,false,true,true,false,false,false,false,false,false,false,false],"id":0,"left_children":[1,3,5,7,9,-1,11,13,-1,15,17,-1,-1,-1,-1,-1,-1,-1,-1],"loss_changes":[6.7856E4,1.9488E4,3.178E3,5.6334E4,4.9772E4,0E0,1.7074E4,5.587E3,0E0,1.8648E4,1.6869E4,0E0,0E0,0E0,0E0,0E0,0E0,0E0,0E0],"parents":[2147483647,0,0,1,1,2,2,3,3,4,4,6,6,7,7,9,9,10,10],"right_children":[2,4,6,8,10,-1,12,14,-1,16,18,-1,-1,-1,-1,-1,-1,-1,-1],"split_conditions":[7.837062E0,1.3325276E0,-1.7072847E1,-1.1048965E1,-2.1421509E0,4.6863758E1,-9.37421E0,-1.1276758E1,5.018954E1,1.3911738E0,9.144054E0,3.8706284E1,4.4390472E1,4.534797E1,3.7438602E1,3.3528713E1,4.721665E1,3.8573246E1,4.6486366E1],"split_indices":[1,1,0,0,0,0,0,0,0,1,0,0,0,0,0,0,0,0,0],"split_type":[0,0,0,0,0,0,0,0,0,0,0,0,0,0,0,0,0,0,0],"sum_hessian":[5.006E3,3.507E3,1.499E3,1.131E3,2.376E3,3.17E2,1.182E3,2.51E2,8.8E2,2.148E3,2.28E2,1.18E2,1.064E3,2.04E2,4.7E1,2E1,2.128E3,1.51E2,7.7E1],"tree_param":{"num_deleted":"0","num_feature":"2","num_nodes":"19","size_leaf_vector":"0"}},{"base_weights":[1.0806771E2,1.1001191E2,1.0344355E2,1.0784688E2,1.1295691E2,9.5378654E1,1.0532673E2,1.1022251E2,1.0059962E2,1.1582491E2,1.0634563E2,1.01029274E2,8.962375E1,1.3530786E2,1.04789246E2,1.1067039E2,6.844962E1,8.292107E1,1.08346146E2,1.17047615E2,1.017058E2,1.1451987E2,8.401066E1,6.2416416E1,9.186661E1,1.03237526E2,1.1311855E2],"categories":[],"categories_nodes":[],"categories_segments":[],"categories_sizes":[],"default_left":[true,true,true,true,true,true,true,true,true,true,true,false,true,false,true,false,false,false,false,false,false,false,false,false,false,false,false],"id":1,"left_children":[1,3,5,7,9,11,13,15,17,19,21,-1,23,-1,25,-1,-1,-1,-1,-1,-1,-1,-1,-1,-1,-1,-1],"loss_changes":[3.4064E4,1.0408E4,1.2933E4,2.4446E4,1.5744E4,6.0325E2,5.433E3,2.1312E4,6.23655E4,5.722E3,7.43625E4,0E0,3.7855E3,0E0,3.831E3,0E0,0E0,0E0,0E0,0E0,0E0,0E0,0E0,0E0,0E0,0E0,0E0],"parents":[2147483647,0,0,1,1,2,2,3,3,4,4,5,5,6,6,7,7,8,8,9,9,10,10,12,12,14,14],"right_children":[2,4,6,8,10,12,14,16,18,20,22,-1,24,-1,26,-1,-1,-1,-1,-1,-1,-1,-1,-1,-1,-1,-1],"split_conditions":[7.837062E0,-5.3660793E0,9.357292E0,4.033393E0,-1.1104393E0,8.39736E0,9.449282E0,-5.3948665E0,5.0343556E0,6.6501584E0,2.198717E0,3.0308783E1,8.5250025E0,4.059236E1,2.0336607E1,3.320112E1,2.0534887E1,2.4876322E1,3.2503845E1,3.5114285E1,3.0511742E1,3.435596E1,2.52032E1,1.8724926E1,2.7559984E1,3.0971258E1,3.3935566E1],"split_indices":[1,0,1,1,0,1,1,0,1,1,1,0,1,0,1,0,0,0,0,0,0,0,0,0,0,0,0],"split_type":[0,0,0,0,0,0,0,0,0,0,0,0,0,0,0,0,0,0,0,0,0,0,0,0,0,0,0],"sum_hessian":[5.054E3,3.542E3,1.512E3,2.063E3,1.479E3,2.96E2,1.216E3,1.543E3,5.2E2,1.02E3,4.59E2,1.41E2,1.55E2,1.7E1,1.199E3,1.525E3,1.8E1,1.62E2,3.58E2,9.32E2,8.8E1,3.33E2,1.26E2,1.4E1,1.41E2,1.022E3,1.77E2],"tree_param":{"num_deleted":"0","num_feature":"2","num_nodes":"27","size_leaf_vector":"0"}},{"base_weights":[7.580229E1,7.744836E1,7.230833E1,7.683968E1,8.886021E1,7.894369E1,7.0492096E1,7.763245E1,5.4274643E1,7.278256E1,8.819422E1,6.677029E1,7.547113E1,7.123291E1,7.8707214E1,4.478099E1,6.3299316E1,8.197388E1,6.3848724E1,1.9933292E1,6.72576E1,6.21651E1,7.7401886E1],"categories":[],"categories_nodes":[],"categories_segments":[],"categories_sizes":[],"default_left":[true,true,true,true,false,true,true,true,true,true,false,true,true,false,false,false,false,false,false,false,false,false,false],"id":2,"left_children":[1,3,5,7,-1,9,11,13,15,17,-1,19,21,-1,-1,-1,-1,-1,-1,-1,-1,-1,-1],"loss_changes":[2.299E4,1.6546E4,1.3802E4,5.3066E4,0E0,1.2788E4,1.8514E4,1.5654E4,6.7612188E3,1.184575E4,0E0,1.545775E4,8.9585E3,0E0,0E0,0E0,0E0,0E0,0E0,0E0,0E0,0E0,0E0],"parents":[2147483647,0,0,1,1,2,2,3,3,5,5,6,6,7,7,8,8,9,9,11,11,12,12],"right_children":[2,4,6,8,-1,10,12,14,16,18,-1,20,22,-1,-1,-1,-1,-1,-1,-1,-1,-1,-1],"split_conditions":[7.4796124E0,1.1858594E1,-1.7072847E1,7.0569267E0,2.6658064E1,1.6608128E1,5.597721E0,-1.1250212E1,8.566779E0,1.4921019E1,2.6458267E1,-1.623084E1,9.5588045E0,2.1369873E1,2.3612165E1,1.3434298E1,1.8989796E1,2.4592165E1,1.9154617E1,5.979988E0,2.017728E1,1.864953E1,2.3220566E1],"split_indices":[1,0,0,0,0,1,0,0,0,1,0,0,1,0,0,0,0,0,0,0,0,0,0],"split_type":[0,0,0,0,0,0,0,0,0,0,0,0,0,0,0,0,0,0,0,0,0,0,0],"sum_hessian":[4.97E3,3.364E3,1.606E3,3.201E3,1.63E2,3.36E2,1.27E3,3.09E3,1.11E2,2.07E2,1.29E2,7.35E2,5.35E2,4.54E2,2.636E3,5.7E1,5.4E1,9.8E1,1.09E2,8E0,7.27E2,7.2E1,4.63E2],"tree_param":{"num_deleted":"0","num_feature":"2","num_nodes":"23","size_leaf_vector":"0"}},{"base_weights":[5.326974E1,5.294023E1,6.16647E1,5.3581333E1,4.9870296E1,6.4410385E1,5.2206493E1,5.155318E1,5.452404E1,4.8304375E1,6.1767193E1,6.584626E1,4.5759666E1,4.371334E1,5.9484783E1,5.2817272E1,4.3874462E1,6.746385E1,5.3899044E1,5.3368397E1,4.5644344E1],"categories":[],"categories_nodes":[],"categories_segments":[],"categories_sizes":[],"default_left":[true,true,true,true,true,true,true,true,true,true,false,false,false,false,false,false,false,false,false,false,false],"id":3,"left_children":[1,3,5,7,9,11,13,15,17,19,-1,-1,-1,-1,-1,-1,-1,-1,-1,-1,-1],"loss_changes":[1.0436E4,6.722E3,1.33775E3,4.713E3,1.26465E4,6.29E2,2.4324219E2,9.981E3,1.79485E4,7.613E3,0E0,0E0,0E0,0E0,0E0,0E0,0E0,0E0,0E0,0E0,0E0],"parents":[2147483647,0,0,1,1,2,2,3,3,4,4,5,5,6,6,7,7,8,8,9,9],"right_children":[2,4,6,8,10,12,14,16,18,20,-1,-1,-1,-1,-1,-1,-1,-1,-1,-1,-1],"split_conditions":[1.3805201E1,1.1899251E1,1.463833E1,-7.858706E0,2.741578E1,1.7979366E1,1.4374542E1,-8.507796E0,-7.702668E0,-1.7072847E1,1.8530159E1,1.975388E1,1.37279005E1,1.3114003E1,1.7845436E1,1.5845182E1,1.3162339E1,2.0239157E1,1.6169714E1,1.6010519E1,1.3693304E1],"split_indices":[0,1,1,0,1,0,0,0,0,0,0,0,0,0,0,0,0,0,0,0,0],"split_type":[0,0,0,0,0,0,0,0,0,0,0,0,0,0,0,0,0,0,0,0,0],"sum_hessian":[4.952E3,4.772E3,1.8E2,3.934E3,8.38E2,1.35E2,4.5E1,1.266E3,2.668E3,7.45E2,9.3E1,1.23E2,1.2E1,2.4E1,2.1E1,1.082E3,1.84E2,1.18E2,2.55E3,2.5E2,4.95E2],"tree_param":{"num_deleted":"0","num_feature":"2","num_nodes":"21","size_leaf_vector":"0"}},{"base_weights":[3.7396523E1,4.1353077E1,3.619283E1,3.2409126E1,4.376849E1,3.691959E0,3.640335E1,3.569581E1,1.7314117E1,7.5015205E1,4.3200344E1,3.8360256E1,-4.355016E0,3.2881756E1,3.718156E1,3.8869896E1,2.528692E1,-5.226335E-1,3.0545881E1,3.8800926E1,4.6401455E1,-1.09388485E1,8.534046E0,3.3899387E1,-1.9694372E1,4.4649597E1,3.606837E1],"categories":[],"categories_nodes":[],"categories_segments":[],"categories_sizes":[],"default_left":[true,true,true,true,true,true,true,true,true,false,true,false,true,true,true,false,false,false,false,false,false,false,false,false,false,false,false],"id":4,"left_children":[1,3,5,7,9,11,13,15,17,-1,19,-1,21,23,25,-1,-1,-1,-1,-1,-1,-1,-1,-1,-1,-1,-1],"loss_changes":[2.2473E4,2.3792625E4,2.63245E4,1.18843125E4,1.3020875E4,7.4204077E3,9.306E3,5.8230625E3,1.1108515E4,0E0,1.09025E4,0E0,1.96026E3,3.8333875E4,2.44855E4,0E0,0E0,0E0,0E0,0E0,0E0,0E0,0E0,0E0,0E0,0E0,0E0],"parents":[2147483647,0,0,1,1,2,2,3,3,4,4,5,5,6,6,7,7,8,8,10,10,12,12,13,13,14,14],"right_children":[2,4,6,8,10,12,14,16,18,-1,20,-1,22,24,26,-1,-1,-1,-1,-1,-1,-1,-1,-1,-1,-1,-1],"split_conditions":[1.3325276E0,-1.1048965E1,1.3911738E0,-1.1276758E1,-1.1001781E1,-7.8329363E0,2.6957831E0,5.512591E-1,-1.1203594E1,2.2504562E1,-6.0610895E0,1.1508078E1,-1.7265743E0,2.6877398E0,3.5705655E0,1.1660969E1,7.5860763E0,-1.5679005E-1,9.163765E0,1.1640278E1,1.3920437E1,-3.2816546E0,2.560214E0,1.0169817E1,-5.908312E0,1.3394879E1,1.0820512E1],"split_indices":[1,0,1,0,0,0,1,1,0,0,0,0,0,1,1,0,0,0,0,0,0,0,0,0,0,0,0],"split_type":[0,0,0,0,0,0,0,0,0,0,0,0,0,0,0,0,0,0,0,0,0,0,0,0,0,0,0],"sum_hessian":[5.032E3,1.166E3,3.866E3,2.51E2,9.15E2,2.5E1,3.841E3,2.05E2,4.6E1,1.4E1,9.01E2,4E0,2.1E1,7.03E2,3.138E3,1.55E2,5E1,2E1,2.6E1,3.85E2,5.16E2,1.4E1,7E0,6.9E2,1.3E1,4.02E2,2.736E3],"tree_param":{"num_deleted":"0","num_feature":"2","num_nodes":"27","size_leaf_vector":"0"}},{"base_weights":[2.6159428E1,2.5999058E1,3.845425E1,3.0096382E1,2.5609295E1,5.2020008E1,3.2309948E1,2.7333403E1,3.628861E1,1.9483631E1,2.5923792E1,2.8720564E1,1.3380269E1,4.266262E1,2.8933891E1,1.7276716E1,3.9262775E1,2.9938112E1,2.547009E1],"categories":[],"categories_nodes":[],"categories_segments":[],"categories_sizes":[],"default_left":[true,true,true,true,true,false,false,true,true,true,true,false,false,false,false,false,false,false,false],"id":5,"left_children":[1,3,5,7,9,-1,-1,11,13,15,17,-1,-1,-1,-1,-1,-1,-1,-1],"loss_changes":[8.9675E3,7.20275E3,3.570414E3,6.3307812E3,8.2915E3,0E0,0E0,5.4222812E3,4.813E3,9.230422E3,7.142E3,0E0,0E0,0E0,0E0,0E0,0E0,0E0,0E0],"parents":[2147483647,0,0,1,1,2,2,3,3,4,4,7,7,8,8,9,9,10,10],"right_children":[2,4,6,8,10,-1,-1,12,14,16,18,-1,-1,-1,-1,-1,-1,-1,-1],"split_conditions":[1.5234573E1,-1.7072847E1,1.5716629E1,1.6608128E1,-1.2310997E1,1.5606003E1,9.692985E0,-1.9942926E1,2.209222E1,2.0194918E1,-1.0500076E1,8.61617E0,4.014081E0,1.2798787E1,8.680168E0,5.183015E0,1.1778833E1,8.981434E0,7.6410275E0],"split_indices":[0,0,0,1,0,0,0,0,1,1,0,0,0,0,0,0,0,0,0],"split_type":[0,0,0,0,0,0,0,0,0,0,0,0,0,0,0,0,0,0,0],"sum_hessian":[5.054E3,4.992E3,6.2E1,4.27E2,4.565E3,1.7E1,4.5E1,2.99E2,1.28E2,2.26E2,4.339E3,2.71E2,2.8E1,6.6E1,6.2E1,2.05E2,2.1E1,4.34E2,3.905E3],"tree_param":{"num_deleted":"0","num_feature":"2","num_nodes":"19","size_leaf_vector":"0"}},{"base_weights":[1.8104671E1,1.7961859E1,2.5846216E1,1.8151968E1,1.0242619E1,4.028546E1,2.0117168E1,1.8069696E1,3.6820946E1,-3.8234115E0,1.3094059E1,-1.8060078E1,2.4305704E1,1.8350023E1,1.4201466E1,-5.4285645E0,1.6240366E-1,1.8996168E1,5.4582334E0],"categories":[],"categories_nodes":[],"categories_segments":[],"categories_sizes":[],"default_left":[true,true,true,true,true,false,true,true,false,true,true,false,false,false,false,false,false,false,false],"id":6,"left_children":[1,3,5,7,9,-1,11,13,-1,15,17,-1,-1,-1,-1,-1,-1,-1,-1],"loss_changes":[5.046125E3,7.0005E3,6.469211E3,6.67325E3,4.863077E3,0E0,1.08329E4,4.9E3,0E0,1.3523633E2,4.4030625E3,0E0,0E0,0E0,0E0,0E0,0E0,0E0,0E0],"parents":[2147483647,0,0,1,1,2,2,3,3,4,4,6,6,7,7,9,9,10,10],"right_children":[2,4,6,8,10,-1,12,14,-1,16,18,-1,-1,-1,-1,-1,-1,-1,-1],"split_conditions":[3.2898567E1,1.8725574E1,4.1181206E1,1.809385E1,2.0176659E1,1.2085639E1,4.9569725E1,1.4843764E1,1.1046284E1,-4.311871E0,2.209222E1,-5.4180236E0,7.2917113E0,5.5050073E0,4.26044E0,-1.6285695E0,4.87211E-2,5.6988506E0,1.6374701E0],"split_indices":[1,1,1,1,1,0,1,1,0,0,1,0,0,0,0,0,0,0,0],"split_type":[0,0,0,0,0,0,0,0,0,0,0,0,0,0,0,0,0,0,0],"sum_hessian":[4.983E3,4.896E3,8.7E1,4.777E3,1.19E2,2.3E1,6.4E1,4.758E3,1.9E1,2E1,9.9E1,6E0,5.8E1,4.433E3,3.25E2,1.4E1,6E0,5.5E1,4.4E1],"tree_param":{"num_deleted":"0","num_feature":"2","num_nodes":"19","size_leaf_vector":"0"}},{"base_weights":[1.2547876E1,1.3128881E1,1.0383659E1,1.4749782E1,1.1358223E1,6.844784E0,1.4003099E1,1.3318081E1,1.982916E1,1.2586827E0,1.2770922E1,9.416732E0,-2.7481694E0,2.8541025E1,1.2980378E1,9.22548E0,1.4462539E1,2.5914484E1,1.7664036E1,-5.449403E0,1.6830168E1,3.148571E1,1.233986E1,-7.515724E0,1.0936103E1,-1.159432E1,5.701477E0,1.8143734E1,1.1825075E1],"categories":[],"categories_nodes":[],"categories_segments":[],"categories_sizes":[],"default_left":[true,true,true,true,true,true,true,true,true,true,true,true,true,false,true,false,false,false,false,false,false,false,false,false,false,false,false,false,false],"id":7,"left_children":[1,3,5,7,9,11,13,15,17,19,21,23,25,-1,27,-1,-1,-1,-1,-1,-1,-1,-1,-1,-1,-1,-1,-1,-1],"loss_changes":[6.216125E3,1.12524375E4,1.366075E4,1.4818375E4,2.7178016E4,1.3472432E4,7.5096953E3,7.4590625E3,5.5239062E3,2.4638604E4,1.3099875E4,1.1144672E4,8.736739E3,0E0,2.7501719E3,0E0,0E0,0E0,0E0,0E0,0E0,0E0,0E0,0E0,0E0,0E0,0E0,0E0,0E0],"parents":[2147483647,0,0,1,1,2,2,3,3,4,4,5,5,6,6,7,7,8,8,9,9,10,10,11,11,12,12,14,14],"right_children":[2,4,6,8,10,12,14,16,18,20,22,24,26,-1,28,-1,-1,-1,-1,-1,-1,-1,-1,-1,-1,-1,-1,-1,-1],"split_conditions":[9.2842686E-1,4.033393E0,9.097033E0,3.0282593E0,5.0190315E0,7.0569267E0,9.56825E0,-1.1240162E1,3.382329E0,-6.5299797E0,5.0625176E0,1.606534E0,7.4858136E0,8.562308E0,-3.0865293E0,2.7676442E0,4.338762E0,7.7743454E0,5.299211E0,-1.6348209E0,5.0490503E0,9.445713E0,3.7019582E0,-2.2547174E0,3.280831E0,-3.4782963E0,1.7104431E0,5.4431205E0,3.5475228E0],"split_indices":[0,1,0,1,1,0,0,0,1,0,1,0,0,0,1,0,0,0,0,0,0,0,0,0,0,0,0,0,0],"split_type":[0,0,0,0,0,0,0,0,0,0,0,0,0,0,0,0,0,0,0,0,0,0,0,0,0,0,0,0,0],"sum_hessian":[5.051E3,3.978E3,1.073E3,2.073E3,1.905E3,5.44E2,5.29E2,1.62E3,4.53E2,2.34E2,1.671E3,4.29E2,1.15E2,3.3E1,4.96E2,3.56E2,1.264E3,1.16E2,3.37E2,1.64E2,7E1,3.6E1,1.635E3,3.5E1,3.94E2,5.6E1,5.9E1,8.8E1,4.08E2],"tree_param":{"num_deleted":"0","num_feature":"2","num_nodes":"29","size_leaf_vector":"0"}},{"base_weights":[9.218049E0,1.1084004E1,8.409019E0,1.0605233E1,2.3351242E1,3.5323613E0,8.982441E0,8.378E0,1.3353311E1,3.4846706E1,1.0611251E1,8.978415E0,-4.8847237E0,7.6228905E0,1.0496784E1,9.4027405E0,7.6982814E-1,1.5332657E1,9.944694E0,1.7428585E1,4.452286E1,7.661264E0,1.3906129E1,7.111409E0,3.46424E1,-1.677336E1,4.0815195E-1,1.0426669E1,6.530712E0,1.4484073E1,8.161417E0],"categories":[],"categories_nodes":[],"categories_segments":[],"categories_sizes":[],"default_left":[true,true,true,true,true,true,true,true,true,true,true,true,true,true,true,false,false,false,false,false,false,false,false,false,false,false,false,false,false,false,false],"id":8,"left_children":[1,3,5,7,9,11,13,15,17,19,21,23,25,27,29,-1,-1,-1,-1,-1,-1,-1,-1,-1,-1,-1,-1,-1,-1,-1,-1],"loss_changes":[7.4745E3,8.638516E3,9.758391E3,8.811969E3,7.8315527E3,1.7004617E4,6.3682344E3,6.29225E3,4.239711E3,4.111699E3,1.6561743E2,1.0534477E4,9.193905E3,4.996828E3,1.3653906E4,0E0,0E0,0E0,0E0,0E0,0E0,0E0,0E0,0E0,0E0,0E0,0E0,0E0,0E0,0E0,0E0],"parents":[2147483647,0,0,1,1,2,2,3,3,4,4,5,5,6,6,7,7,8,8,9,9,10,10,11,11,12,12,13,13,14,14],"right_children":[2,4,6,8,10,12,14,16,18,20,22,24,26,28,30,-1,-1,-1,-1,-1,-1,-1,-1,-1,-1,-1,-1,-1,-1,-1,-1],"split_conditions":[2.0563254E0,2.0125628E0,2.6957831E0,-6.0610895E0,-7.875045E0,-6.325752E0,-3.9223123E0,1.5649022E0,6.9676375E0,-9.775175E0,-5.5285487E0,2.6569457E0,-5.3495855E0,-1.3824633E1,6.6501584E0,2.8208222E0,2.3094845E-1,4.5997972E0,2.9834082E0,5.2285757E0,1.3356859E1,2.2983792E0,4.1718388E0,2.1334229E0,1.039272E1,-5.032008E0,1.2244559E-1,3.128001E0,1.9592137E0,4.345222E0,2.4484253E0],"split_indices":[1,1,1,0,0,0,0,1,0,0,0,1,0,0,1,0,0,0,0,0,0,0,0,0,0,0,0,0,0,0,0],"split_type":[0,0,0,0,0,0,0,0,0,0,0,0,0,0,0,0,0,0,0,0,0,0,0,0,0,0,0,0,0,0,0],"sum_hessian":[5.012E3,1.512E3,3.5E3,1.457E3,5.5E1,3.69E2,3.131E3,8.07E2,6.5E2,2.8E1,2.7E1,2.24E2,1.45E2,1.653E3,1.478E3,7.11E2,9.6E1,4.09E2,2.41E2,1.1E1,1.7E1,1.6E1,1.1E1,2.1E2,1.4E1,4.4E1,1.01E2,4.61E2,1.192E3,5.44E2,9.34E2],"tree_param":{"num_deleted":"0","num_feature":"2","num_nodes":"31","size_leaf_vector":"0"}},{"base_weights":[6.676114E0,6.439249E0,1.3976675E1,6.490286E0,-7.7580056E0,1.8216948E1,8.789824E0,6.43222E0,2.1820404E1,2.4639973E1,1.1817306E1,2.1858158E1,7.917493E0,6.5013456E0,-6.1922626E0,2.0539083E1,3.137467E1,4.657293E0,1.4279817E1,4.6602664E0,1.0696634E1],"categories":[],"categories_nodes":[],"categories_segments":[],"categories_sizes":[],"default_left":[true,true,true,true,false,true,true,true,false,true,true,false,true,false,false,false,false,false,false,false,false],"id":9,"left_children":[1,3,5,7,-1,9,11,13,-1,15,17,-1,19,-1,-1,-1,-1,-1,-1,-1,-1],"loss_changes":[8.651359E3,3.599375E3,3.314875E3,4.2045E3,0E0,3.2438555E3,6.5913135E2,4.2849375E3,0E0,5.1556055E2,7.269175E2,0E0,5.8381104E2,0E0,0E0,0E0,0E0,0E0,0E0,0E0,0E0],"parents":[2147483647,0,0,1,1,2,2,3,3,5,5,6,6,7,7,9,9,10,10,12,12],"right_children":[2,4,6,8,-1,10,12,14,-1,16,18,-1,20,-1,-1,-1,-1,-1,-1,-1,-1],"split_conditions":[1.38486E1,1.3814161E1,1.4560641E1,1.3805201E1,-2.3274019E0,1.5716629E1,1.391811E1,1.3442457E1,6.5461216E0,1.5278984E1,-3.2611496E0,6.557448E0,1.4316923E1,1.9504038E0,-1.8576789E0,6.1617255E0,9.412401E0,1.397188E0,4.283945E0,1.39808E0,3.2089903E0],"split_indices":[0,0,1,0,0,0,0,0,0,0,1,0,0,0,0,0,0,0,0,0,0],"split_type":[0,0,0,0,0,0,0,0,0,0,0,0,0,0,0,0,0,0,0,0,0],"sum_hessian":[5.054E3,4.897E3,1.57E2,4.88E3,1.7E1,8.5E1,7.2E1,4.863E3,1.7E1,4.1E1,4.4E1,3E0,6.9E1,4.837E3,2.6E1,2.8E1,1.3E1,1.2E1,3.2E1,3.3E1,3.6E1],"tree_param":{"num_deleted":"0","num_feature":"2","num_nodes":"21","size_leaf_vector":"0"}},{"base_weights":[4.8130465E0,9.4817203E-1,5.3344707E0,-3.9096737E0,3.8085341E0,9.844357E0,5.1027493E0,-2.4151483E0,-3.8845703E1,2.6231894E0,2.4717243E1,4.9883037E0,2.4501642E1,-2.3941664E-2,5.303752E0,1.5717652E1,-3.4803882E0,8.855499E0,1.7838871E0,-3.9272327E0,1.2912815E1,2.7806915E1,1.9349152E1,-4.3544197E0,6.6439996E0,1.3436836E1,5.001085E0],"categories":[],"categories_nodes":[],"categories_segments":[],"categories_sizes":[],"default_left":[true,true,true,true,true,true,true,true,false,true,false,true,true,true,true,false,false,false,false,false,false,false,false,false,false,false,false],"id":10,"left_children":[1,3,5,7,9,11,13,15,-1,17,-1,19,21,23,25,-1,-1,-1,-1,-1,-1,-1,-1,-1,-1,-1,-1],"loss_changes":[1.0061055E4,8.282533E3,4.5489844E3,1.1445208E4,9.229172E3,1.5109561E4,4.3157734E3,4.1689653E3,0E0,1.8463647E3,0E0,1.1496218E4,3.645703E2,4.6201147E3,9.853125E3,0E0,0E0,0E0,0E0,0E0,0E0,0E0,0E0,0E0,0E0,0E0,0E0],"parents":[2147483647,0,0,1,1,2,2,3,3,4,4,5,5,6,6,7,7,9,9,11,11,12,12,13,13,14,14],"right_children":[2,4,6,8,10,12,14,16,-1,18,-1,20,22,24,26,-1,-1,-1,-1,-1,-1,-1,-1,-1,-1,-1,-1],"split_conditions":[1.1498386E-1,-6.21963E0,4.8125786E-1,-6.2251925E0,-1.3243533E0,4.6481833E-1,8.960907E-1,-3.198714E1,-1.1653711E1,-6.020342E0,7.415173E0,-1.114794E1,-1.119713E1,-1.0157192E1,1.2265571E0,4.715296E0,-1.0441165E0,2.6566498E0,5.3516614E-1,-1.1781698E0,3.8738446E0,8.342075E0,5.8047457E0,-1.3063259E0,1.9932E0,4.031051E0,1.5003256E0],"split_indices":[1,0,1,0,1,1,1,0,0,0,0,0,0,0,1,0,0,0,0,0,0,0,0,0,0,0,0],"split_type":[0,0,0,0,0,0,0,0,0,0,0,0,0,0,0,0,0,0,0,0,0,0,0,0,0,0,0],"sum_hessian":[4.994E3,5.94E2,4.4E3,2.2E2,3.74E2,2.13E2,4.187E3,2.12E2,8E0,3.55E2,1.9E1,1.61E2,5.2E1,1.58E2,4.029E3,1.1E1,2.01E2,4.1E1,3.14E2,7.6E1,8.5E1,2.9E1,2.3E1,9.6E1,6.2E1,1.43E2,3.886E3],"tree_param":{"num_deleted":"0","num_feature":"2","num_nodes":"27","size_leaf_vector":"0"}},{"base_weights":[2.80725E0,2.8936725E0,-7.25088E0,2.5289476E0,6.3016205E0,1.0573404E1,-1.2972584E1,2.8400953E0,-9.66728E0,1.46245165E1,5.2780952E0,3.4498386E0,7.7181524E-1,-1.1970735E1,3.000665E-1,4.652725E0,2.2228128E1],"categories":[],"categories_nodes":[],"categories_segments":[],"categories_sizes":[],"default_left":[true,true,true,true,true,false,false,true,true,false,true,false,false,false,false,false,false],"id":11,"left_children":[1,3,5,7,9,-1,-1,11,13,-1,15,-1,-1,-1,-1,-1,-1],"loss_changes":[4.3793906E3,6.164074E3,4.5225312E3,1.707761E4,4.0117852E3,0E0,0E0,5.5235664E3,2.5750361E3,0E0,4.443997E3,0E0,0E0,0E0,0E0,0E0,0E0],"parents":[2147483647,0,0,1,1,2,2,3,3,4,4,7,7,8,8,10,10],"right_children":[2,4,6,8,10,-1,-1,12,14,-1,16,-1,-1,-1,-1,-1,-1],"split_conditions":[1.5716629E1,9.097033E0,-3.2611496E0,7.186469E0,9.81544E0,3.1720214E0,-3.8917754E0,8.39736E0,7.731378E0,4.3873553E0,1.5234573E1,1.0349517E0,2.3154458E-1,-3.5912206E0,9.0019956E-2,1.3958176E0,6.668439E0],"split_indices":[0,0,1,0,0,0,0,1,0,0,0,0,0,0,0,0,0],"split_type":[0,0,0,0,0,0,0,0,0,0,0,0,0,0,0,0,0],"sum_hessian":[5.013E3,4.971E3,4.2E1,4.492E3,4.79E2,1E1,3.2E1,4.381E3,1.11E2,5.1E1,4.28E2,3.383E3,9.98E2,9E1,2.1E1,4.14E2,1.4E1],"tree_param":{"num_deleted":"0","num_feature":"2","num_nodes":"17","size_leaf_vector":"0"}},{"base_weights":[2.3162222E0,-2.836688E-2,2.7153902E0,-3.0066116E0,2.6899474E0,1.109713E1,2.6024494E0,-5.9320307E0,2.962004E-1,3.1602921E0,-9.764756E0,3.0197375E0,1.8513332E1,2.4037693E0,7.2748237E0,-3.3587842E0,-1.4762329E1,4.686031E0,-8.17519E0,1.8222835E0,8.487365E0,-3.4019444E0,5.7585077E0,2.3258614E1,1.0883861E1,2.5261362E0,-1.4485571E1,1.9385015E1,6.1485972E0],"categories":[],"categories_nodes":[],"categories_segments":[],"categories_sizes":[],"default_left":[true,true,true,true,true,true,true,true,true,true,false,true,true,true,true,false,false,false,false,false,false,false,false,false,false,false,false,false,false],"id":12,"left_children":[1,3,5,7,9,11,13,15,17,19,-1,21,23,25,27,-1,-1,-1,-1,-1,-1,-1,-1,-1,-1,-1,-1,-1,-1],"loss_changes":[4.638324E3,5.853259E3,3.9801445E3,3.3351848E3,2.245186E3,3.2986953E3,3.8628418E3,4.1086416E3,6.0999473E3,2.586133E3,0E0,5.120404E2,7.967715E2,8.326105E3,2.1994082E3,0E0,0E0,0E0,0E0,0E0,0E0,0E0,0E0,0E0,0E0,0E0,0E0,0E0,0E0],"parents":[2147483647,0,0,1,1,2,2,3,3,4,4,5,5,6,6,7,7,8,8,9,9,11,11,12,12,13,13,14,14],"right_children":[2,4,6,8,10,12,14,16,18,20,-1,22,24,26,28,-1,-1,-1,-1,-1,-1,-1,-1,-1,-1,-1,-1,-1,-1],"split_conditions":[4.456541E-1,-6.21963E0,4.8024517E-1,-3.0226417E-2,2.966117E-1,-1.1662542E1,2.0336607E1,-3.724423E-1,3.0097324E-1,-1.363657E0,-2.929427E0,-1.1813433E1,2.1305237E0,1.9333755E1,2.0412434E1,-1.0076354E0,-4.428699E0,1.4058093E0,-2.452557E0,5.466851E-1,2.5462096E0,-1.0205834E0,1.7275524E0,6.9775844E0,3.2651584E0,7.578409E-1,-4.3456717E0,5.815505E0,1.8445792E0],"split_indices":[1,0,1,1,1,0,1,1,1,1,0,0,0,1,1,0,0,0,0,0,0,0,0,0,0,0,0,0,0],"split_type":[0,0,0,0,0,0,0,0,0,0,0,0,0,0,0,0,0,0,0,0,0,0,0,0,0,0,0,0,0],"sum_hessian":[4.955E3,7.21E2,4.234E3,3.44E2,3.77E2,5.5E1,4.179E3,1.82E2,1.62E2,3.64E2,1.3E1,2.7E1,2.8E1,4.01E3,1.69E2,1.42E2,4E1,1.07E2,5.5E1,2.92E2,7.2E1,8E0,1.9E1,1.6E1,1.2E1,3.982E3,2.8E1,1.3E1,1.56E2],"tree_param":{"num_deleted":"0","num_feature":"2","num_nodes":"29","size_leaf_vector":"0"}},{"base_weights":[1.4049566E0,1.0128735E0,4.8146973E0,3.3257492E0,6.83314E-1,6.124439E0,-3.0684617E-1,-5.873622E0,4.300077E0,-2.6171734E0,1.3996447E0,1.3342785E1,5.3143883E0,-3.6369474E0,4.1401076E0,2.7613149E0,-8.468269E0,1.0753954E1,1.912386E0,2.2017553E-1,-2.1715963E1,4.590542E0,6.995637E-1,2.8191963E1,5.1490335E0,3.8472726E0,8.945185E0,2.0649152E0,-6.5395017E0,4.9221582E0,-5.106453E0],"categories":[],"categories_nodes":[],"categories_segments":[],"categories_sizes":[],"default_left":[true,true,true,true,true,true,true,true,true,true,true,true,true,true,true,false,false,false,false,false,false,false,false,false,false,false,false,false,false,false,false],"id":13,"left_children":[1,3,5,7,9,11,13,15,17,19,21,23,25,27,29,-1,-1,-1,-1,-1,-1,-1,-1,-1,-1,-1,-1,-1,-1,-1,-1],"loss_changes":[6.5579727E3,3.3545894E3,3.3960752E3,4.9460557E3,9.120176E3,2.2855215E3,1.5551732E3,1.2108284E3,7.6381367E3,3.7287453E4,7.075975E3,4.721658E3,1.90454E3,1.00650146E3,3.5054242E2,0E0,0E0,0E0,0E0,0E0,0E0,0E0,0E0,0E0,0E0,0E0,0E0,0E0,0E0,0E0,0E0],"parents":[2147483647,0,0,1,1,2,2,3,3,4,4,5,5,6,6,7,7,8,8,9,9,10,10,11,11,12,12,13,13,14,14],"right_children":[2,4,6,8,10,12,14,16,18,20,22,24,26,28,30,-1,-1,-1,-1,-1,-1,-1,-1,-1,-1,-1,-1,-1,-1,-1,-1],"split_conditions":[9.097033E0,-1.3575237E1,1.4546719E1,-2.9086187E1,-9.892605E0,-6.956936E0,1.4708422E1,-8.681717E0,8.040184E0,-1.0163627E1,-7.702668E0,1.3211281E1,1.3629164E1,1.4608498E1,1.5065899E1,8.283945E-1,-2.5404809E0,3.2261863E0,5.737158E-1,6.605266E-2,-6.514789E0,1.3771626E0,2.0986912E-1,8.457589E0,1.5447102E0,1.1541818E0,2.6835556E0,6.194746E-1,-1.9618505E0,1.4766475E0,-1.5319359E0],"split_indices":[0,0,1,0,0,1,1,1,1,0,0,0,0,1,0,0,0,0,0,0,0,0,0,0,0,0,0,0,0,0,0],"split_type":[0,0,0,0,0,0,0,0,0,0,0,0,0,0,0,0,0,0,0,0,0,0,0,0,0,0,0,0,0,0,0],"sum_hessian":[4.908E3,4.403E3,5.05E2,5.48E2,3.855E3,4.02E2,1.03E2,5.2E1,4.96E2,6.87E2,3.168E3,3.9E1,3.63E2,5.9E1,4.4E1,1.2E1,4E1,1.33E2,3.63E2,5.99E2,8.8E1,5.69E2,2.599E3,1.3E1,2.6E1,2.6E2,1.03E2,2E1,3.9E1,4.1E1,3E0],"tree_param":{"num_deleted":"0","num_feature":"2","num_nodes":"31","size_leaf_vector":"0"}},{"base_weights":[8.4501344E-1,1.4237553E-1,2.3161824E0,2.0806491E0,-2.2932198E0,1.160257E1,8.514089E-1,1.5407311E0,1.5587198E1,-1.3203293E1,-1.6004869E0,1.3485567E1,2.5660303E0,-1.4398239E0,3.4172697E0,8.539436E-1,4.701141E0,1.2393496E1,2.5190739E1,-6.91665E0,-1.867398E1,4.5705557E-1,-4.8286924E0,7.832991E0,2.0367352E1,5.540234E0,-9.651539E0,-8.3306706E-1,-1.5192202E1,2.8346647E1,2.5887568E0],"categories":[],"categories_nodes":[],"categories_segments":[],"categories_sizes":[],"default_left":[true,true,true,true,true,true,true,true,true,true,true,true,true,true,true,false,false,false,false,false,false,false,false,false,false,false,false,false,false,false,false],"id":14,"left_children":[1,3,5,7,9,11,13,15,17,19,21,23,25,27,29,-1,-1,-1,-1,-1,-1,-1,-1,-1,-1,-1,-1,-1,-1,-1,-1],"loss_changes":[5.142323E3,1.5904595E4,2.1862867E4,1.3656583E4,1.1262614E4,3.6918535E3,8.1767085E3,3.9137915E3,1.8961016E3,2.93175E3,9.334456E3,6.881324E3,1.4706359E3,6.12044E3,1.3475846E4,0E0,0E0,0E0,0E0,0E0,0E0,0E0,0E0,0E0,0E0,0E0,0E0,0E0,0E0,0E0,0E0],"parents":[2147483647,0,0,1,1,2,2,3,3,4,4,5,5,6,6,7,7,8,8,9,9,10,10,11,11,12,12,13,13,14,14],"right_children":[2,4,6,8,10,12,14,16,18,20,22,24,26,28,30,-1,-1,-1,-1,-1,-1,-1,-1,-1,-1,-1,-1,-1,-1,-1,-1],"split_conditions":[-3.3106353E0,4.033393E0,-2.68122E0,3.8370397E0,4.554794E0,7.431243E0,9.328178E0,3.134413E0,-5.770562E0,4.2783074E0,-5.8163433E0,5.0931168E0,-3.0599883E0,9.053213E0,9.449282E0,2.561831E-1,1.4103423E0,3.7180488E0,7.557222E0,-2.074995E0,-5.6021943E0,1.3711667E-1,-1.4486078E0,2.3498974E0,6.1102057E0,1.6620703E0,-2.8954618E0,-2.4992013E-1,-4.5576606E0,8.503995E0,7.7662706E-1],"split_indices":[0,1,0,1,1,1,1,1,0,1,0,1,0,1,1,0,0,0,0,0,0,0,0,0,0,0,0,0,0,0,0],"split_type":[0,0,0,0,0,0,0,0,0,0,0,0,0,0,0,0,0,0,0,0,0,0,0,0,0,0,0,0,0,0,0],"sum_hessian":[4.974E3,3.367E3,1.607E3,1.875E3,1.492E3,2.18E2,1.389E3,1.804E3,7.1E1,8.8E1,1.404E3,1.8E2,3.8E1,7.34E2,6.55E2,1.483E3,3.21E2,5.5E1,1.6E1,4.2E1,4.6E1,8.58E2,5.46E2,1E2,8E1,3.1E1,7E0,7.04E2,3E1,2E1,6.35E2],"tree_param":{"num_deleted":"0","num_feature":"2","num_nodes":"31","size_leaf_vector":"0"}},{"base_weights":[1.4846909E0,6.055046E0,1.3388231E0,2.8806086E0,9.23335E0,-7.3575706E0,1.4596552E0,6.430091E0,-1.9019594E0,7.6566505E0,1.4667434E1,-1.2014868E1,-3.1427436E0,5.106915E0,1.2553954E0,3.0615144E0,1.4486469E1,2.329187E0,-3.7619865E0,7.5201774E0,-9.496576E0,1.0232035E1,1.7572821E0,-1.4243984E1,1.352376E0],"categories":[],"categories_nodes":[],"categories_segments":[],"categories_sizes":[],"default_left":[true,true,true,true,true,true,true,true,true,false,false,false,true,true,true,false,false,false,false,false,false,false,false,false,false],"id":15,"left_children":[1,3,5,7,9,11,13,15,17,-1,-1,-1,19,21,23,-1,-1,-1,-1,-1,-1,-1,-1,-1,-1],"loss_changes":[3.2958994E3,1.5170693E3,5.058798E3,1.3363296E3,5.388584E2,1.2578008E3,3.524088E3,1.176883E3,2.7634396E2,0E0,0E0,0E0,2.510431E3,4.291003E3,6.766852E3,0E0,0E0,0E0,0E0,0E0,0E0,0E0,0E0,0E0,0E0],"parents":[2147483647,0,0,1,1,2,2,3,3,4,4,5,5,6,6,7,7,8,8,12,12,13,13,14,14],"right_children":[2,4,6,8,10,12,14,16,18,-1,-1,-1,20,22,24,-1,-1,-1,-1,-1,-1,-1,-1,-1,-1],"split_conditions":[-6.4263096E0,-6.747529E0,-5.048642E0,1.3386147E1,1.3624838E1,-5.099213E0,-2.1254744E1,2.3464289E0,-9.595112E0,2.2969952E0,4.4002304E0,-3.6044605E0,1.1090102E0,1.4921019E1,-2.0650013E1,9.1845435E-1,4.345941E0,6.987561E-1,-1.128596E0,2.2560532E0,-2.848973E0,3.0696106E0,5.2718467E-1,-4.2731953E0,4.057128E-1],"split_indices":[1,1,1,0,0,0,0,0,1,0,0,0,0,1,0,0,0,0,0,0,0,0,0,0,0],"split_type":[0,0,0,0,0,0,0,0,0,0,0,0,0,0,0,0,0,0,0,0,0,0,0,0,0],"sum_hessian":[4.955E3,1.52E2,4.803E3,7.7E1,7.5E1,6.5E1,4.738E3,4.4E1,3.3E1,6E1,1.5E1,3E1,3.5E1,2.5E2,4.488E3,3.2E1,1.2E1,1E1,2.3E1,1.3E1,2.2E1,9.8E1,1.52E2,2.7E1,4.461E3],"tree_param":{"num_deleted":"0","num_feature":"2","num_nodes":"25","size_leaf_vector":"0"}},{"base_weights":[1.6375593E0,6.4214125E0,1.349358E0,-5.0816836E0,8.521054E0,1.6664376E0,-6.142217E-1,1.279978E0,-7.7907667E0,9.280637E0,-9.725488E0,1.4447131E0,7.458967E0,1.0679716E1,-1.5324754E0,-9.34381E0,-6.3181176E0,-9.9100274E-1,1.0268311E1,1.7308836E0,-3.0142252E0,1.3249457E1,5.5482006E0,-4.8526654E0,3.246139E-1],"categories":[],"categories_nodes":[],"categories_segments":[],"categories_sizes":[],"default_left":[true,true,true,true,true,true,true,false,true,true,false,true,true,false,true,false,false,false,false,false,false,false,false,false,false],"id":16,"left_children":[1,3,5,7,9,11,13,-1,15,17,-1,19,21,-1,23,-1,-1,-1,-1,-1,-1,-1,-1,-1,-1],"loss_changes":[6.815965E3,6.830121E3,2.9086182E3,7.682799E2,3.3888809E3,5.153578E3,6.7573213E3,0E0,1.186438E1,2.3333867E3,0E0,4.9485063E3,1.564002E3,0E0,3.7134407E3,0E0,0E0,0E0,0E0,0E0,0E0,0E0,0E0,0E0,0E0],"parents":[2147483647,0,0,1,1,2,2,3,3,4,4,5,5,6,6,8,8,9,9,11,11,12,12,14,14],"right_children":[2,4,6,8,10,12,14,-1,16,18,-1,20,22,-1,24,-1,-1,-1,-1,-1,-1,-1,-1,-1,-1],"split_conditions":[-2.8681083E0,-9.646606E0,1.4608498E1,-3.198714E1,1.499925E1,1.4183352E1,-2.6601562E1,3.8399342E-1,-2.6764261E1,-9.377172E0,-2.9176464E0,1.0344601E1,1.42781725E1,3.2039149E0,1.5760529E1,-2.803143E0,-1.8954353E0,-2.9730085E-1,3.0804932E0,5.192651E-1,-9.042676E-1,3.9748373E0,1.6644603E0,-1.4557997E0,9.738418E-2],"split_indices":[1,0,1,0,0,1,0,0,0,1,0,1,1,0,1,0,0,0,0,0,0,0,0,0,0],"split_type":[0,0,0,0,0,0,0,0,0,0,0,0,0,0,0,0,0,0,0,0,0,0,0,0,0],"sum_hessian":[4.949E3,2.8E2,4.669E3,4.3E1,2.37E2,4.02E3,6.49E2,1.3E1,3E1,2.28E2,9E0,3.873E3,1.47E2,4.8E1,6.01E2,1.2E1,1.8E1,2E1,2.08E2,3.64E3,2.33E2,3.5E1,1.12E2,2.15E2,3.86E2],"tree_param":{"num_deleted":"0","num_feature":"2","num_nodes":"25","size_leaf_vector":"0"}},{"base_weights":[-5.861489E-1,2.2904382E0,-7.8472704E-1,8.3020324E-1,1.826819E1,-3.5234704E0,-4.1427442E-1,-1.6652477E0,5.026772E0,-2.5384934E0,-2.9843184E1,1.04511E1,-7.9062575E-1,1.0242639E0,-1.6974413E1,7.8358746E0,-3.580064E0,1.7109109E0,-3.5006845E0,1.2585918E0,1.3562549E1,-5.8830543E0,-5.013498E-1],"categories":[],"categories_nodes":[],"categories_segments":[],"categories_sizes":[],"default_left":[true,true,true,true,false,true,true,true,true,true,false,true,true,false,false,false,false,false,false,false,false,false,false],"id":17,"left_children":[1,3,5,7,-1,9,11,13,15,17,-1,19,21,-1,-1,-1,-1,-1,-1,-1,-1,-1,-1],"loss_changes":[2.8567915E3,7.520834E3,4.7426914E3,3.118653E3,0E0,1.4364086E4,1.6855762E4,7.716957E3,2.711754E3,2.205731E3,0E0,3.9300078E3,5.864476E3,0E0,0E0,0E0,0E0,0E0,0E0,0E0,0E0,0E0,0E0],"parents":[2147483647,0,0,1,1,2,2,3,3,5,5,6,6,7,7,8,8,9,9,11,11,12,12],"right_children":[2,4,6,8,-1,10,12,14,16,18,-1,20,22,-1,-1,-1,-1,-1,-1,-1,-1,-1,-1],"split_conditions":[-1.9942926E1,-2.0650013E1,-1.1228668E1,1.54185095E1,5.4804573E0,-1.1276758E1,-1.0719093E1,1.5320356E1,-2.1254744E1,4.9006492E-1,-8.952955E0,-1.1048965E1,-9.962639E0,3.0727917E-1,-5.0923243E0,2.3507624E0,-1.0740193E0,5.132733E-1,-1.0502053E0,3.7757754E-1,4.0687647E0,-1.7649163E0,-1.5040495E-1],"split_indices":[0,0,0,1,0,0,0,1,0,1,0,0,0,0,0,0,0,0,0,0,0,0,0],"split_type":[0,0,0,0,0,0,0,0,0,0,0,0,0,0,0,0,0,0,0,0,0,0,0],"sum_hessian":[4.997E3,3.22E2,4.675E3,2.96E2,2.6E1,5.56E2,4.119E3,1.86E2,1.1E2,5.37E2,1.9E1,1.37E2,3.982E3,1.59E2,2.7E1,8.3E1,2.7E1,9.9E1,4.38E2,3.5E1,1.02E2,2.13E2,3.769E3],"tree_param":{"num_deleted":"0","num_feature":"2","num_nodes":"23","size_leaf_vector":"0"}},{"base_weights":[-8.4031634E-2,-3.9218473E0,1.1092282E-1,-4.7380313E-1,-1.0812013E1,1.7218447E0,-2.701301E-1,-1.5952243E1,4.3979007E-1,-7.8366375E0,-1.8299974E1,5.595726E-1,6.7733855E0,-1.7165123E1,-1.454055E-1,-1.7701591E1,-6.5530143E0,-2.4693294E0,3.1960454E0,-8.730317E0,-4.889229E0,8.15345E-1,-2.6193775E1,1.6249561E1,4.7763467E0,-2.6462495E-1,-2.9823956E1,3.116832E0,-3.3544236E-1],"categories":[],"categories_nodes":[],"categories_segments":[],"categories_sizes":[],"default_left":[true,true,true,true,true,true,true,true,true,true,false,true,true,true,true,false,false,false,false,false,false,false,false,false,false,false,false,false,false],"id":18,"left_children":[1,3,5,7,9,11,13,15,17,19,-1,21,23,25,27,-1,-1,-1,-1,-1,-1,-1,-1,-1,-1,-1,-1,-1,-1],"loss_changes":[3.714496E3,5.6966997E3,2.90089E3,2.283716E3,1.6389502E3,5.3038335E3,8.0513037E3,3.1983887E1,1.2346884E3,1.1272363E2,0E0,5.0576343E3,3.1205923E3,5.9824443E3,2.353738E3,0E0,0E0,0E0,0E0,0E0,0E0,0E0,0E0,0E0,0E0,0E0,0E0,0E0,0E0],"parents":[2147483647,0,0,1,1,2,2,3,3,4,4,5,5,6,6,7,7,8,8,9,9,11,11,12,12,13,13,14,14],"right_children":[2,4,6,8,10,12,14,16,18,20,-1,22,24,26,28,-1,-1,-1,-1,-1,-1,-1,-1,-1,-1,-1,-1,-1,-1],"split_conditions":[-4.0687065E0,-6.4263096E0,1.3325276E0,-9.694317E0,1.1090102E0,9.254354E-1,1.3911738E0,1.3500093E1,9.928901E0,-5.099213E0,-5.4899926E0,9.0797323E-1,9.839078E-1,1.3695567E0,-2.17474E1,-5.3104777E0,-1.9659044E0,-7.4079883E-1,9.5881367E-1,-2.6190953E0,-1.4667687E0,2.446035E-1,-7.858133E0,4.8748684E0,1.432904E0,-7.9387486E-2,-8.947187E0,9.3504965E-1,-1.0063271E-1],"split_indices":[1,1,1,1,0,1,1,0,0,0,0,1,1,1,0,0,0,0,0,0,0,0,0,0,0,0,0,0,0],"split_type":[0,0,0,0,0,0,0,0,0,0,0,0,0,0,0,0,0,0,0,0,0,0,0,0,0,0,0,0,0],"sum_hessian":[4.963E3,2.39E2,4.724E3,1.6E2,7.9E1,9.03E2,3.821E3,8E0,1.52E2,5.8E1,2.1E1,7.35E2,1.68E2,2.7E1,3.794E3,6E0,2E0,7.4E1,7.8E1,4.3E1,1.5E1,7.29E2,6E0,2.8E1,1.4E2,1.2E1,1.5E1,2.08E2,3.586E3],"tree_param":{"num_deleted":"0","num_feature":"2","num_nodes":"29","size_leaf_vector":"0"}},{"base_weights":[5.4230355E-2,-3.1609287E0,3.903648E-1,-1.2687385E0,-7.4489665E0,-1.0469337E1,4.630638E-1,-5.311755E-1,-1.0186755E1,-1.1258771E1,-2.809158E-1,7.840858E0,3.897306E-1,-1.4117502E0,2.9286764E0,-3.2818227E0,-2.0215971E1,-7.4405713E0,-1.7482576E1,-3.8034036E0,1.5921929E0,9.95064E0,2.0444055E0,-9.211949E0,4.4408587E-1],"categories":[],"categories_nodes":[],"categories_segments":[],"categories_sizes":[],"default_left":[true,true,true,true,true,false,true,true,true,true,true,true,true,false,false,false,false,false,false,false,false,false,false,false,false],"id":19,"left_children":[1,3,5,7,9,-1,11,13,15,17,19,21,23,-1,-1,-1,-1,-1,-1,-1,-1,-1,-1,-1,-1],"loss_changes":[5.377844E3,3.8121406E3,3.5614983E3,2.1520415E3,3.9293145E3,0E0,2.4186265E3,9.3031854E2,1.6649312E3,2.10371E3,3.425539E2,5.177439E2,2.3176812E3,0E0,0E0,0E0,0E0,0E0,0E0,0E0,0E0,0E0,0E0,0E0,0E0],"parents":[2147483647,0,0,1,1,2,2,3,3,4,4,6,6,7,7,8,8,9,9,10,10,11,11,12,12],"right_children":[2,4,6,8,10,-1,12,14,16,18,20,22,24,-1,-1,-1,-1,-1,-1,-1,-1,-1,-1,-1,-1],"split_conditions":[-6.69066E-1,6.9676375E0,-3.1913399E1,-1.2992785E0,1.3462753E1,-3.1408014E0,-3.724423E-1,5.1125383E-1,-6.2640862E0,1.0001343E1,1.375229E1,-6.392643E0,-2.0271784E-1,-4.2352507E-1,8.786029E-1,-9.8454684E-1,-6.0647917E0,-2.2321715E0,-5.244773E0,-1.1410211E0,4.7765788E-1,2.985192E0,6.1332166E-1,-2.7635849E0,1.3322577E-1],"split_indices":[1,0,0,1,0,0,1,0,0,0,0,0,1,0,0,0,0,0,0,0,0,0,0,0,0],"split_type":[0,0,0,0,0,0,0,0,0,0,0,0,0,0,0,0,0,0,0,0,0,0,0,0,0],"sum_hessian":[4.974E3,4.7E2,4.504E3,3.27E2,1.43E2,2.9E1,4.475E3,3.03E2,2.4E1,9.3E1,5E1,4.3E1,4.432E3,2.42E2,6.1E1,1.5E1,9E0,5.9E1,3.4E1,1.7E1,3.3E1,3.1E1,1.2E1,2.4E1,4.408E3],"tree_param":{"num_deleted":"0","num_feature":"2","num_nodes":"25","size_leaf_vector":"0"}},{"base_weights":[3.60432E-1,5.7144433E-1,-3.3485882E0,4.3508035E-1,7.9845257E0,-2.1418177E1,-1.5648384E0,5.440845E-1,-8.157437E0,2.8245312E1,4.2670636E0,3.1503963E0,-7.3803573E0,4.4214293E-1,3.3672638E1,-2.200011E1,-1.8812046E0,1.1388201E1,1.5505856E0,9.682817E0,-2.4535623E0,-1.4724444E1,-2.2612011E0],"categories":[],"categories_nodes":[],"categories_segments":[],"categories_sizes":[],"default_left":[true,true,true,true,true,false,true,true,true,false,true,true,true,false,false,false,false,false,false,false,false,false,false],"id":20,"left_children":[1,3,5,7,9,-1,11,13,15,-1,17,19,21,-1,-1,-1,-1,-1,-1,-1,-1,-1,-1],"loss_changes":[3.8963748E3,4.7567476E3,8.60456E3,4.3363057E3,6.2815664E3,0E0,6.741528E3,1.5412055E4,4.997643E3,0E0,1.3944836E3,5.002366E3,4.102213E3,0E0,0E0,0E0,0E0,0E0,0E0,0E0,0E0,0E0,0E0],"parents":[2147483647,0,0,1,1,2,2,3,3,4,4,6,6,7,7,8,8,10,10,11,11,12,12],"right_children":[2,4,6,8,10,-1,12,14,16,-1,18,20,22,-1,-1,-1,-1,-1,-1,-1,-1,-1,-1],"split_conditions":[1.730681E1,1.6199015E1,1.7461224E1,1.5528864E1,1.6430927E1,-6.425453E0,-1.3824633E1,1.5516558E1,1.5760529E1,8.473594E0,-1.7604092E1,2.209222E1,2.0394173E1,1.3264288E-1,1.0101791E1,-6.6000333E0,-5.643614E-1,3.4164603E0,4.6517572E-1,2.9048452E0,-7.360687E-1,-4.4173336E0,-6.7836034E-1],"split_indices":[1,1,1,1,1,0,0,1,1,0,0,1,1,0,0,0,0,0,0,0,0,0,0],"split_type":[0,0,0,0,0,0,0,0,0,0,0,0,0,0,0,0,0,0,0,0,0,0,0],"sum_hessian":[4.975E3,4.708E3,2.67E2,4.624E3,8.4E1,2.3E1,2.44E2,4.567E3,5.7E1,1.2E1,7.2E1,1.35E2,1.09E2,4.554E3,1.3E1,1.7E1,4E1,1.9E1,5.3E1,6.2E1,7.3E1,4.4E1,6.5E1],"tree_param":{"num_deleted":"0","num_feature":"2","num_nodes":"23","size_leaf_vector":"0"}},{"base_weights":[3.9166626E-1,-1.5128163E0,8.434955E-1,3.236944E0,-2.2648993E0,1.4261545E1,7.994889E-1,1.78905E0,1.3441372E1,-1.9388609E0,-7.579001E0,1.7061296E0,8.7466545E-2,4.2060723E0,-7.080473E0,5.932914E-1,-2.6270163E0,-4.500295E1,-3.0511236E0,1.1807737E0,1.6761158E1,-5.4115234E1,3.31254E-1],"categories":[],"categories_nodes":[],"categories_segments":[],"categories_sizes":[],"default_left":[true,true,true,true,true,false,true,true,false,true,true,true,true,false,false,false,false,false,false,false,false,false,false],"id":21,"left_children":[1,3,5,7,9,-1,11,13,-1,15,17,19,21,-1,-1,-1,-1,-1,-1,-1,-1,-1,-1],"loss_changes":[4.2538716E3,3.3937903E3,2.3475745E3,1.8966936E3,1.4043057E3,0E0,2.57107E3,2.4951318E3,0E0,1.3485222E3,7.8268896E3,1.3837212E4,2.951144E4,0E0,0E0,0E0,0E0,0E0,0E0,0E0,0E0,0E0,0E0],"parents":[2147483647,0,0,1,1,2,2,3,3,4,4,6,6,7,7,9,9,10,10,11,11,12,12],"right_children":[2,4,6,8,10,-1,12,14,-1,16,18,20,22,-1,-1,-1,-1,-1,-1,-1,-1,-1,-1],"split_conditions":[8.960907E-1,-6.509948E0,9.0797323E-1,-6.611761E0,8.0554575E-1,4.278464E0,-5.8163433E0,-6.747529E0,4.0324116E0,-1.1276758E1,8.3217514E-1,-6.086669E0,-5.792321E0,1.2618217E0,-2.124142E0,1.7798743E-1,-7.8810495E-1,-1.3500885E1,-9.1533715E-1,3.5423213E-1,5.0283475E0,-1.6234571E1,9.937621E-2],"split_indices":[1,1,1,1,1,0,0,1,0,0,1,0,0,0,0,0,0,0,0,0,0,0,0],"split_type":[0,0,0,0,0,0,0,0,0,0,0,0,0,0,0,0,0,0,0,0,0,0,0],"sum_hessian":[4.941E3,9.47E2,3.994E3,1.29E2,8.18E2,1.2E1,3.982E3,1.14E2,1.5E1,7.72E2,4.6E1,1.751E3,2.231E3,9E1,2.4E1,1.65E2,6.07E2,4E0,4.2E1,1.693E3,5.8E1,9E0,2.222E3],"tree_param":{"num_deleted":"0","num_feature":"2","num_nodes":"23","size_leaf_vector":"0"}},{"base_weights":[-8.638709E-3,-2.8510913E-1,3.671057E0,1.00728E0,-9.775646E-1,4.9586506E0,-2.4893637E0,4.9071112E-1,5.9249153E0,-6.760914E0,-4.9923497E-1,7.559597E0,2.0579083E0,-2.7687382E1,1.2897754E0,6.814023E-1,-7.5720115E0,8.6502905E0,-7.214822E0,2.7161646E0,-8.759863E0,2.8685434E1,-6.45923E-1,4.0838695E0,9.124511E0,-1.5611599E1,4.838431E0,1.0405997E1,-1.5626211E0],"categories":[],"categories_nodes":[],"categories_segments":[],"categories_sizes":[],"default_left":[true,true,true,true,true,true,true,true,true,true,true,true,true,false,true,false,false,false,false,false,false,false,false,false,false,false,false,false,false],"id":22,"left_children":[1,3,5,7,9,11,13,15,17,19,21,23,25,-1,27,-1,-1,-1,-1,-1,-1,-1,-1,-1,-1,-1,-1,-1,-1],"loss_changes":[5.0805605E3,4.157897E3,2.7806533E3,4.114915E3,8.364825E3,2.164854E3,5.8445464E3,2.2621953E3,5.5772593E3,4.3999023E3,1.1984041E4,7.894971E2,6.8555396E3,0E0,1.4204269E3,0E0,0E0,0E0,0E0,0E0,0E0,0E0,0E0,0E0,0E0,0E0,0E0,0E0,0E0],"parents":[2147483647,0,0,1,1,2,2,3,3,4,4,5,5,6,6,7,7,8,8,9,9,10,10,11,11,12,12,14,14],"right_children":[2,4,6,8,10,12,14,16,18,20,22,24,26,-1,28,-1,-1,-1,-1,-1,-1,-1,-1,-1,-1,-1,-1,-1,-1],"split_conditions":[1.6199015E1,2.1804726E0,4.1181206E1,2.0125628E0,2.6711807E0,-1.3824633E1,4.9569725E1,1.5716629E1,-5.2871428E0,-1.2627586E1,2.6877398E0,1.7447437E1,-1.1723204E1,-8.306215E0,-1.7832298E1,2.044207E-1,-2.2716036E0,2.5950873E0,-2.1644466E0,8.1484944E-1,-2.627959E0,8.605631E0,-1.9377692E-1,1.2251608E0,2.7373533E0,-4.68348E0,1.4515293E0,3.1217992E0,-4.6878636E-1],"split_indices":[1,1,1,1,1,0,1,0,0,0,1,1,0,0,0,0,0,0,0,0,0,0,0,0,0,0,0,0,0],"split_type":[0,0,0,0,0,0,0,0,0,0,0,0,0,0,0,0,0,0,0,0,0,0,0,0,0,0,0,0,0],"sum_hessian":[4.992E3,4.644E3,3.48E2,1.62E3,3.024E3,2.88E2,6E1,1.467E3,1.53E2,2.3E2,2.794E3,1.51E2,1.37E2,7E0,5.3E1,1.434E3,3.3E1,1.27E2,2.6E1,4E1,1.9E2,1.3E1,2.781E3,4.8E1,1.03E2,1.8E1,1.19E2,1.2E1,4.1E1],"tree_param":{"num_deleted":"0","num_feature":"2","num_nodes":"29","size_leaf_vector":"0"}},{"base_weights":[-2.1315414E-1,4.26511E0,-3.6389652E-1,1.3292588E0,1.5364979E1,-1.0373459E0,7.9995316E-1,-1.1832372E-1,5.261792E0,-1.7221707E-1,-3.5868607E0,2.366906E0,-8.6620444E-1,6.250622E0,-1.0160769E0,8.000914E0,-6.549327E-1,-3.3793843E-1,1.37363405E1,-1.1323274E1,-2.000493E0,1.424001E0,8.7858305E0,-5.2439766E0,5.808781E-1],"categories":[],"categories_nodes":[],"categories_segments":[],"categories_sizes":[],"default_left":[true,true,true,true,false,true,true,true,true,true,true,true,true,false,false,false,false,false,false,false,false,false,false,false,false],"id":23,"left_children":[1,3,5,7,-1,9,11,13,15,17,19,21,23,-1,-1,-1,-1,-1,-1,-1,-1,-1,-1,-1,-1],"loss_changes":[3.3788984E3,5.291349E3,3.795176E3,7.406693E2,0E0,6.7641377E3,4.6362026E3,5.552543E2,5.724719E2,5.285271E3,9.513309E3,5.5254688E3,5.457479E3,0E0,0E0,0E0,0E0,0E0,0E0,0E0,0E0,0E0,0E0,0E0,0E0],"parents":[2147483647,0,0,1,1,2,2,3,3,5,5,6,6,7,7,8,8,9,9,10,10,11,11,12,12],"right_children":[2,4,6,8,-1,10,12,14,16,18,20,22,24,-1,-1,-1,-1,-1,-1,-1,-1,-1,-1,-1,-1],"split_conditions":[-2.4692188E1,-2.6017075E1,-3.390751E0,1.5414646E1,4.6094937E0,-5.7583485E0,6.6501584E0,-8.681717E0,-2.6723097E1,-5.764093E0,-5.3660793E0,5.2270813E0,9.357292E0,1.8751866E0,-3.048231E-1,2.4002743E0,-1.9647981E-1,-1.0138153E-1,4.1209025E0,-3.3969822E0,-6.0014796E-1,4.2720032E-1,2.6357493E0,-1.5731931E0,1.7426343E-1],"split_indices":[0,0,0,1,0,0,1,1,0,0,0,1,1,0,0,0,0,0,0,0,0,0,0,0,0],"split_type":[0,0,0,0,0,0,0,0,0,0,0,0,0,0,0,0,0,0,0,0,0,0,0,0,0],"sum_hessian":[5.002E3,1.62E2,4.84E3,1.29E2,3.3E1,3.066E3,1.774E3,9.5E1,3.4E1,2.29E3,7.76E2,9.14E2,8.6E2,1.1E1,8.4E1,2.3E1,1.1E1,2.264E3,2.6E1,1.31E2,6.45E2,7.98E2,1.16E2,2.13E2,6.47E2],"tree_param":{"num_deleted":"0","num_feature":"2","num_nodes":"25","size_leaf_vector":"0"}},{"base_weights":[1.142102E-1,-3.409359E-2,5.3674207E0,1.9381703E-1,-3.055305E0,4.768505E0,2.0344864E1,-3.336846E-3,3.0879116E0,-1.2065253E1,5.379933E-2,1.2947008E1,4.004537E0,-6.006649E0,2.3251884E-1,3.7390814E0,1.2051563E0,-1.3920726E1,-2.8455782E0,-1.6636384E0,5.571242E0,-1.5685466E1,4.963659E0],"categories":[],"categories_nodes":[],"categories_segments":[],"categories_sizes":[],"default_left":[true,true,true,true,true,true,false,true,true,true,true,false,true,false,false,false,false,false,false,false,false,false,false],"id":24,"left_children":[1,3,5,7,9,11,-1,13,15,17,19,-1,21,-1,-1,-1,-1,-1,-1,-1,-1,-1,-1],"loss_changes":[3.9157937E3,3.3669924E3,1.140876E3,2.5944465E3,9.609063E3,7.8540063E2,0E0,6.030364E3,3.5103174E2,1.46579E3,2.4350896E3,0E0,2.4196108E3,0E0,0E0,0E0,0E0,0E0,0E0,0E0,0E0,0E0,0E0],"parents":[2147483647,0,0,1,1,2,2,3,3,4,4,5,5,7,7,8,8,9,9,10,10,12,12],"right_children":[2,4,6,8,10,12,-1,14,16,18,20,-1,22,-1,-1,-1,-1,-1,-1,-1,-1,-1,-1],"split_conditions":[2.120243E1,1.5320356E1,4.9017773E0,1.311933E1,1.5760529E1,-2.411005E1,6.1034594E0,-4.0687065E0,1.4546719E1,3.4131298E0,1.4458859E0,3.8841026E0,-2.1444954E1,-1.8019948E0,6.975565E-2,1.1217245E0,3.615469E-1,-4.176218E0,-8.536735E-1,-4.9909154E-1,1.6713727E0,-4.70564E0,1.4890977E0],"split_indices":[1,1,0,0,1,0,0,1,1,0,0,0,0,0,0,0,0,0,0,0,0,0,0],"split_type":[0,0,0,0,0,0,0,0,0,0,0,0,0,0,0,0,0,0,0,0,0,0,0],"sum_hessian":[5.025E3,4.888E3,1.37E2,4.546E3,3.42E2,1.33E2,4E0,4.257E3,2.89E2,8.7E1,2.55E2,1E1,1.23E2,1.6E2,4.097E3,2.14E2,7.5E1,7.2E1,1.5E1,1.95E2,6E1,5E0,1.18E2],"tree_param":{"num_deleted":"0","num_feature":"2","num_nodes":"23","size_leaf_vector":"0"}},{"base_weights":[-3.750255E-1,6.4123907E0,-6.075954E-1,4.2237105E0,1.54454975E1,-2.628866E-1,-2.4306293E0,5.9578166E0,-4.044772E0,1.284259E1,1.8261854E1,-3.0592716E-1,1.566253E1,-3.7183807E0,-9.147552E-1,1.7461582E0,1.0138293E1,-1.8231388E1,-1.1499513E0,5.0250125E0,-4.320421E-1,-4.8457637E0,7.28791E-1,1.1164756E1,-1.8637023E0],"categories":[],"categories_nodes":[],"categories_segments":[],"categories_sizes":[],"default_left":[true,true,true,true,true,true,true,true,true,false,false,true,false,true,true,false,false,false,false,false,false,false,false,false,false],"id":25,"left_children":[1,3,5,7,9,11,13,15,17,-1,-1,19,-1,21,23,-1,-1,-1,-1,-1,-1,-1,-1,-1,-1],"loss_changes":[7.9092686E3,3.2166792E3,3.0427788E3,1.9597856E3,5.3222656E-2,2.797267E3,1.4996914E3,1.954252E3,9.6465985E2,0E0,0E0,2.7344436E3,0E0,2.0892168E3,4.0901077E3,0E0,0E0,0E0,0E0,0E0,0E0,0E0,0E0,0E0,0E0],"parents":[2147483647,0,0,1,1,2,2,3,3,4,4,5,5,6,6,7,7,8,8,11,11,13,13,14,14],"right_children":[2,4,6,8,10,12,14,16,18,-1,-1,20,-1,22,24,-1,-1,-1,-1,-1,-1,-1,-1,-1,-1],"split_conditions":[-6.4263096E0,-6.509948E0,1.42781725E1,1.3603424E1,1.036708E1,1.4269919E1,1.6199015E1,3.5454514E0,1.375229E1,3.8527772E0,5.4785566E0,-1.9942926E1,4.698759E0,1.383553E1,1.658012E1,5.238475E-1,3.0414882E0,-5.4694166E0,-3.4498543E-1,1.5075039E0,-1.2961264E-1,-1.4537292E0,2.186373E-1,3.349427E0,-5.591107E-1],"split_indices":[1,1,1,0,0,1,1,0,0,0,0,0,0,0,1,0,0,0,0,0,0,0,0,0,0],"split_type":[0,0,0,0,0,0,0,0,0,0,0,0,0,0,0,0,0,0,0,0,0,0,0,0,0],"sum_hessian":[5.007E3,1.65E2,4.842E3,1.34E2,3.1E1,4.073E3,7.69E2,1.11E2,2.3E1,1.9E1,1.2E1,4.063E3,1E1,4.15E2,3.54E2,5.6E1,5.5E1,3E0,2E1,9.3E1,3.97E3,3.31E2,8.4E1,2.5E1,3.29E2],"tree_param":{"num_deleted":"0","num_feature":"2","num_nodes":"25","size_leaf_vector":"0"}},{"base_weights":[-2.5284272E-1,-1.45016985E1,-1.7744653E-1,1.6809349E-1,-2.4827464E0,7.17679E0,-9.5432125E-2,-2.2542017E0,-1.6678495E1,9.653655E0,2.2278495E0,-9.056247E-1,8.2116055E-1,-5.7630734E0,-1.4955686E0],"categories":[],"categories_nodes":[],"categories_segments":[],"categories_sizes":[],"default_left":[true,false,true,true,true,true,true,true,false,false,false,false,false,false,false],"id":26,"left_children":[1,-1,3,5,7,9,11,13,-1,-1,-1,-1,-1,-1,-1],"loss_changes":[5.3066636E3,0E0,3.9171682E3,7.90018E3,2.0420398E3,1.8784609E3,3.0625518E3,1.6737312E3,0E0,0E0,0E0,0E0,0E0,0E0,0E0],"parents":[2147483647,0,0,2,2,3,3,4,4,5,5,6,6,7,7],"right_children":[2,-1,4,6,8,10,12,14,-1,-1,-1,-1,-1,-1,-1],"split_conditions":[-3.4814354E1,-4.3505096E0,7.0569267E0,-3.805924E0,1.6709991E1,5.1125383E-1,-6.086669E0,3.9675432E-1,-5.0035486E0,2.8960967E0,6.6835487E-1,-2.7168742E-1,2.4634817E-1,-1.7289221E0,-4.486706E-1],"split_indices":[0,0,0,1,1,0,0,1,0,0,0,0,0,0,0],"split_type":[0,0,0,0,0,0,0,0,0,0,0,0,0,0,0],"sum_hessian":[4.941E3,2.5E1,4.916E3,4.276E3,6.4E2,1.54E2,4.122E3,6.31E2,9E0,1.02E2,5.2E1,2.188E3,1.934E3,1.11E2,5.2E2],"tree_param":{"num_deleted":"0","num_feature":"2","num_nodes":"15","size_leaf_vector":"0"}},{"base_weights":[4.0218332E-1,-3.7670717E0,6.0972154E-1,-1.7915393E0,-7.7974954E0,8.086782E-1,-2.1744497E0,-3.674435E0,1.652922E1,-1.0340401E1,1.7857249E0,3.3189008E-1,2.6193845E0,-3.9057097E0,6.4575477E0,-5.8653316E0,-2.7241144E0,-1.2759438E1,-8.306086E0,5.0002837E0,4.1199258E-1,1.2974513E0,-1.0309349E0,9.065425E0,7.64962E-1,-2.029747E0,-7.3130636E0],"categories":[],"categories_nodes":[],"categories_segments":[],"categories_sizes":[],"default_left":[true,true,true,true,true,true,true,true,false,true,true,true,true,true,false,false,false,false,false,false,false,false,false,false,false,false,false],"id":27,"left_children":[1,3,5,7,9,11,13,15,-1,17,19,21,23,25,-1,-1,-1,-1,-1,-1,-1,-1,-1,-1,-1,-1,-1],"loss_changes":[4.2880273E3,1.8571555E3,2.615752E3,5.5456113E3,1.8948955E3,3.8020698E3,4.7326543E3,2.8592004E2,0E0,1.9420508E2,7.3010956E1,4.591165E3,1.0966545E4,1.6662705E3,0E0,0E0,0E0,0E0,0E0,0E0,0E0,0E0,0E0,0E0,0E0,0E0,0E0],"parents":[2147483647,0,0,1,1,2,2,3,3,4,4,5,5,6,6,7,7,9,9,10,10,11,11,12,12,13,13],"right_children":[2,4,6,8,10,12,14,16,-1,18,20,22,24,26,-1,-1,-1,-1,-1,-1,-1,-1,-1,-1,-1,-1,-1],"split_conditions":[-4.0687065E0,1.3361525E1,1.674236E1,9.973923E0,1.3861277E1,9.357292E0,4.9569725E1,-7.0433054E0,4.9587665E0,1.3462753E1,1.499925E1,3.6505034E0,1.0344601E1,2.1997755E1,1.9372643E0,-1.7595996E0,-8.1723434E-1,-3.8278315E0,-2.4918258E0,1.5000852E0,1.2359778E-1,3.892354E-1,-3.0928048E-1,2.7196276E0,2.2948861E-1,-6.0892415E-1,-2.1939192E0],"split_indices":[1,0,1,0,0,1,1,0,0,0,0,1,1,1,0,0,0,0,0,0,0,0,0,0,0,0,0],"split_type":[0,0,0,0,0,0,0,0,0,0,0,0,0,0,0,0,0,0,0,0,0,0,0,0,0,0,0],"sum_hessian":[4.952E3,2.34E2,4.718E3,1.58E2,7.6E1,4.404E3,3.14E2,1.44E2,1.4E1,6E1,1.6E1,3.487E3,9.17E2,2.62E2,5.2E1,4.2E1,1.02E2,2.5E1,3.5E1,4E0,1.2E1,2.041E3,1.446E3,2.04E2,7.13E2,1.7E2,9.2E1],"tree_param":{"num_deleted":"0","num_feature":"2","num_nodes":"27","size_leaf_vector":"0"}},{"base_weights":[2.0550889E-1,4.1142806E-1,-4.8410926E0,7.361453E-1,-1.1408015E0,-1.788623E1,-3.65463E0,6.4227283E-1,1.2986999E1,-1.8797272E1,-4.9852565E-1,-1.9370653E1,-4.9968567E0,-5.450994E0,2.5684328E0,4.8018628E-1,4.8025346E0,1.739275E1,1.0270594E1,-1.3980318E0,1.8901119E0,-6.028429E0,1.1345441E1],"categories":[],"categories_nodes":[],"categories_segments":[],"categories_sizes":[],"default_left":[true,true,true,true,true,true,true,true,true,false,true,false,false,true,false,false,false,false,false,false,false,false,false],"id":28,"left_children":[1,3,5,7,9,11,13,15,17,-1,19,-1,-1,21,-1,-1,-1,-1,-1,-1,-1,-1,-1],"loss_changes":[5.168855E3,2.4091226E3,2.9527588E3,4.5365303E3,9.369078E3,2.0933984E2,2.0261997E3,2.64306E3,1.8040039E2,0E0,1.7193693E3,0E0,0E0,1.4262344E3,0E0,0E0,0E0,0E0,0E0,0E0,0E0,0E0,0E0],"parents":[2147483647,0,0,1,1,2,2,3,3,4,4,5,5,6,6,7,7,8,8,10,10,13,13],"right_children":[2,4,6,8,10,12,14,16,18,-1,20,-1,-1,22,-1,-1,-1,-1,-1,-1,-1,-1,-1],"split_conditions":[1.8725574E1,6.4068055E0,2.0176659E1,6.2079477E0,6.4835324E0,-4.311871E0,5.1792553E1,1.6056545E1,6.3336096E0,-5.6391816E0,1.4269919E1,-5.8111963E0,-1.499057E0,4.9017773E0,7.7052987E-1,1.4405589E-1,1.4407604E0,5.217825E0,3.0811782E0,-4.1940957E-1,5.670336E-1,-1.8085288E0,3.4036324E0],"split_indices":[1,0,1,0,0,0,1,1,0,0,1,0,0,0,0,0,0,0,0,0,0,0,0],"split_type":[0,0,0,0,0,0,0,0,0,0,0,0,0,0,0,0,0,0,0,0,0,0,0],"sum_hessian":[4.971E3,4.777E3,1.94E2,3.951E3,8.26E2,1.5E1,1.79E2,3.922E3,2.9E1,2.8E1,7.98E2,1.3E1,2E0,1.39E2,4E1,3.776E3,1.46E2,9E0,2E1,5.8E2,2.18E2,1.35E2,4E0],"tree_param":{"num_deleted":"0","num_feature":"2","num_nodes":"23","size_leaf_vector":"0"}},{"base_weights":[-3.099419E-1,-4.506009E-1,1.7334275E0,-4.8626818E-2,-1.5089172E0,6.082843E-1,7.1639695E0,-2.6213577E-1,7.3348E0,-1.8299685E1,-9.9562824E-1,6.361922E0,1.3843049E-2,3.0594013E0,1.024301E1,-5.51289E-2,-7.2126284E0,1.4735234E1,9.318405E-1,-2.7932936E1,-1.2173076E1,-3.2235441E0,-1.8283652E-1,9.204627E-1,-2.706243E0,-1.7410539E0,4.666969E0,1.1974791E1,8.112437E0],"categories":[],"categories_nodes":[],"categories_segments":[],"categories_sizes":[],"default_left":[true,true,true,true,true,true,true,true,true,true,true,false,true,true,true,false,false,false,false,false,false,false,false,false,false,false,false,false,false],"id":29,"left_children":[1,3,5,7,9,11,13,15,17,19,21,-1,23,25,27,-1,-1,-1,-1,-1,-1,-1,-1,-1,-1,-1,-1,-1,-1],"loss_changes":[1.4324119E3,1.9827893E3,1.9569966E3,5.3286724E3,1.1039336E4,9.1310516E2,6.637595E2,4.7260596E3,4.4878135E3,1.9026982E3,2.2557068E3,0E0,6.0174927E2,2.0105186E2,1.7235352E1,0E0,0E0,0E0,0E0,0E0,0E0,0E0,0E0,0E0,0E0,0E0,0E0,0E0,0E0],"parents":[2147483647,0,0,1,1,2,2,3,3,4,4,5,5,6,6,7,7,8,8,9,9,10,10,12,12,13,13,14,14],"right_children":[2,4,6,8,10,12,14,16,18,20,22,-1,24,26,28,-1,-1,-1,-1,-1,-1,-1,-1,-1,-1,-1,-1,-1,-1],"split_conditions":[1.6953955E1,7.4796124E0,-2.2413814E0,6.723427E0,7.732875E0,1.730681E1,1.973445E1,6.3861337E0,-6.610141E0,-8.0812235E0,9.26838E0,1.9085766E0,4.1181206E1,1.4458859E0,2.2463074E1,-1.653867E-2,-2.1637886E0,4.4205704E0,2.7955216E-1,-8.379881E0,-3.651923E0,-9.6706325E-1,-5.485096E-2,2.7613884E-1,-8.1187296E-1,-5.223162E-1,1.4000907E0,3.5924373E0,2.4337313E0],"split_indices":[1,1,0,1,1,1,1,1,0,0,1,0,1,0,1,0,0,0,0,0,0,0,0,0,0,0,0,0,0],"split_type":[0,0,0,0,0,0,0,0,0,0,0,0,0,0,0,0,0,0,0,0,0,0,0,0,0,0,0,0,0],"sum_hessian":[4.98E3,4.66E3,3.2E2,3.378E3,1.282E3,2.66E2,5.4E1,3.284E3,9.4E1,3.7E1,1.245E3,2.4E1,2.42E2,2.4E1,3E1,3.19E3,9.4E1,4.3E1,5.1E1,1.3E1,2.4E1,3.32E2,9.13E2,1.82E2,6E1,6E0,1.8E1,1.4E1,1.6E1],"tree_param":{"num_deleted":"0","num_feature":"2","num_nodes":"29","size_leaf_vector":"0"}},{"base_weights":[-3.0415398E-1,-4.3723625E-1,3.1540527E0,2.3419398E-1,-9.932696E-1,1.1877914E1,1.1377833E0,-4.3469915E-1,5.0603323E0,-1.3101115E1,-6.653939E-1,6.572876E0,1.5999375E1,-6.202388E0,2.2248404E0,-1.7003445E-1,-6.566178E0,6.026988E0,-2.0482082E1,-7.8486814E0,-2.2241547E1,-2.319282E0,2.2684279E-1,-1.0056222E1,-3.353691E0,4.824019E0,-3.022958E0],"categories":[],"categories_nodes":[],"categories_segments":[],"categories_sizes":[],"default_left":[true,true,true,true,true,true,true,true,true,true,true,false,false,true,true,false,false,false,false,false,false,false,false,false,false,false,false],"id":30,"left_children":[1,3,5,7,9,11,13,15,17,19,21,-1,-1,23,25,-1,-1,-1,-1,-1,-1,-1,-1,-1,-1,-1,-1],"loss_changes":[2.3222986E3,1.8135334E3,3.2757515E3,7.107404E3,1.0539225E4,6.600957E2,1.2346146E3,3.1373518E3,6.740558E3,3.1860986E3,3.8195337E3,0E0,0E0,1.8584265E2,1.8423384E3,0E0,0E0,0E0,0E0,0E0,0E0,0E0,0E0,0E0,0E0,0E0,0E0],"parents":[2147483647,0,0,1,1,2,2,3,3,4,4,5,5,6,6,7,7,8,8,9,9,10,10,13,13,14,14],"right_children":[2,4,6,8,10,12,14,16,18,20,22,-1,-1,24,26,-1,-1,-1,-1,-1,-1,-1,-1,-1,-1,-1,-1],"split_conditions":[1.3805201E1,3.5705655E0,3.6565837E-1,3.0282593E0,3.7527447E0,-6.6131945E0,1.3943969E1,2.8133159E0,1.789884E0,3.6722991E0,-6.7267704E0,1.9718629E0,4.799813E0,8.599273E0,1.5495985E1,-5.1010337E-2,-1.9698534E0,1.8080965E0,-6.144625E0,-2.3546045E0,-6.6724644E0,-6.957846E-1,6.805284E-2,-3.0168667E0,-1.0061073E0,1.4472058E0,-9.068875E-1],"split_indices":[0,1,1,1,1,1,0,1,0,1,0,0,0,1,0,0,0,0,0,0,0,0,0,0,0,0,0],"split_type":[0,0,0,0,0,0,0,0,0,0,0,0,0,0,0,0,0,0,0,0,0,0,0,0,0,0,0],"sum_hessian":[5.042E3,4.856E3,1.86E2,2.2E3,2.656E3,3.4E1,1.52E2,1.933E3,2.67E2,6.9E1,2.587E3,1.6E1,1.8E1,1.9E1,1.33E2,1.854E3,7.9E1,2.58E2,9E0,4.5E1,2.4E1,9.06E2,1.681E3,7E0,1.2E1,8.9E1,4.4E1],"tree_param":{"num_deleted":"0","num_feature":"2","num_nodes":"27","size_leaf_vector":"0"}},{"base_weights":[6.031888E-1,1.115972E0,-7.4734205E-1,8.9066505E-1,1.1801676E1,2.640034E0,-1.5996457E0,9.8831797E-1,-2.584461E1,4.314014E0,1.6170624E1,1.0624058E1,7.55993E-1,-8.443522E0,-1.013185E0,6.682871E-1,3.136638E0,5.5754185E0,3.3566735E0,1.7451517E1,1.1904839E1,3.7129908E0,1.3254399E1,-5.738387E-1,1.1470794E1,-1.5133683E1,-5.802782E0,-3.25764E-2,-2.5597334E0],"categories":[],"categories_nodes":[],"categories_segments":[],"categories_sizes":[],"default_left":[true,true,true,true,true,true,true,true,false,true,true,true,true,true,true,false,false,false,false,false,false,false,false,false,false,false,false,false,false],"id":31,"left_children":[1,3,5,7,9,11,13,15,-1,17,19,21,23,25,27,-1,-1,-1,-1,-1,-1,-1,-1,-1,-1,-1,-1,-1,-1],"loss_changes":[3.4745625E3,8.743393E3,3.991271E3,9.325135E3,2.3837305E3,4.1737075E3,4.4225303E3,2.4386309E3,0E0,1.6305359E1,4.905078E1,9.142451E2,3.2268296E3,1.44921E3,1.5437734E3,0E0,0E0,0E0,0E0,0E0,0E0,0E0,0E0,0E0,0E0,0E0,0E0,0E0,0E0],"parents":[2147483647,0,0,1,1,2,2,3,3,4,4,5,5,6,6,7,7,9,9,10,10,11,11,12,12,13,13,14,14],"right_children":[2,4,6,8,10,12,14,16,-1,18,20,22,24,26,28,-1,-1,-1,-1,-1,-1,-1,-1,-1,-1,-1,-1,-1,-1],"split_conditions":[-2.7124352E0,-3.030599E0,1.1252592E0,-3.0599883E0,4.121244E0,6.913831E0,2.037066E0,-3.697366E0,-7.753383E0,-2.8793535E0,-2.7217455E0,2.341972E0,6.556195E-1,3.2398002E0,1.3534065E1,2.0048614E-1,9.409914E-1,1.6726257E0,1.0070021E0,5.2354555E0,3.5714517E0,1.1138973E0,3.97632E0,-1.7215163E-1,3.4412382E0,-4.5401053E0,-1.7408347E0,-9.772921E-3,-7.679201E-1],"split_indices":[0,0,1,0,1,0,1,0,0,0,0,0,1,0,1,0,0,0,0,0,0,0,0,0,0,0,0,0,0],"split_type":[0,0,0,0,0,0,0,0,0,0,0,0,0,0,0,0,0,0,0,0,0,0,0,0,0,0,0,0,0],"sum_hessian":[5.015E3,3.635E3,1.38E3,3.561E3,7.4E1,2.77E2,1.103E3,3.549E3,1.2E1,2.8E1,4.6E1,5.2E1,2.25E2,8.6E1,1.017E3,3.09E3,4.59E2,1E1,1.8E1,3.3E1,1.3E1,1.5E1,3.7E1,2.01E2,2.4E1,2.3E1,6.3E1,6.23E2,3.94E2],"tree_param":{"num_deleted":"0","num_feature":"2","num_nodes":"29","size_leaf_vector":"0"}},{"base_weights":[-1.9810434E-1,-3.8809815E-1,4.1490655E0,2.4925508E-2,-1.8051867E0,3.328386E0,1.2180683E1,-6.676708E-2,1.780715E1,-3.7745807E0,-4.6392635E-1,4.537278E0,-3.581192E0,1.3958509E-2,-1.5643292E1,-1.4000788E0,-8.000443E0,-7.443016E0,3.6079937E-1,1.2478934E1,3.707331E0,-5.801849E0,5.8983016E0],"categories":[],"categories_nodes":[],"categories_segments":[],"categories_sizes":[],"default_left":[true,true,true,true,true,true,false,true,false,true,true,true,true,false,false,false,false,false,false,false,false,false,false],"id":32,"left_children":[1,3,5,7,9,11,-1,13,-1,15,17,19,21,-1,-1,-1,-1,-1,-1,-1,-1,-1,-1],"loss_changes":[4.122202E3,2.7983218E3,1.3370576E3,6.038924E3,2.8483955E3,1.6116589E3,0E0,4.633826E3,0E0,4.3737974E3,3.7036873E3,1.0280945E3,6.4469147E2,0E0,0E0,0E0,0E0,0E0,0E0,0E0,0E0,0E0,0E0],"parents":[2147483647,0,0,1,1,2,2,3,3,4,4,5,5,7,7,9,9,10,10,11,11,12,12],"right_children":[2,4,6,8,10,12,-1,14,-1,16,18,20,22,-1,-1,-1,-1,-1,-1,-1,-1,-1,-1],"split_conditions":[1.809385E1,7.3040015E-1,1.9466815E0,-1.4999184E-1,3.979561E0,-7.182069E0,3.654205E0,-1.1104393E0,5.342145E0,1.3325276E0,5.3780537E0,1.890878E1,9.9727356E-1,4.1875527E-3,-4.692988E0,-4.2002365E-1,-2.4001331E0,-2.232905E0,1.08239815E-1,3.7436805E0,1.1121993E0,-1.7405547E0,1.7694906E0],"split_indices":[1,0,0,0,1,0,0,0,0,1,0,1,0,0,0,0,0,0,0,0,0,0,0],"split_type":[0,0,0,0,0,0,0,0,0,0,0,0,0,0,0,0,0,0,0,0,0,0,0],"sum_hessian":[4.988E3,4.78E3,2.08E2,3.702E3,1.078E3,1.9E2,1.8E1,3.684E3,1.8E1,4.36E2,6.42E2,1.62E2,2.8E1,3.666E3,1.8E1,2.8E2,1.56E2,6.7E1,5.75E2,1.4E1,1.48E2,2.3E1,5E0],"tree_param":{"num_deleted":"0","num_feature":"2","num_nodes":"23","size_leaf_vector":"0"}},{"base_weights":[1.5812868E-1,-6.581683E0,2.4002305E-1,-3.382959E0,-1.1580373E1,1.6503026E0,-1.0664675E-1,7.1127325E-1,8.58975E0,-1.960761E1,-3.2546695E-2,-6.069694E0,1.6228133E0,1.7103724E1,7.253483E0,1.7037668E1,-1.0196482E-1],"categories":[],"categories_nodes":[],"categories_segments":[],"categories_sizes":[],"default_left":[true,true,true,false,false,true,true,true,true,false,true,false,false,false,false,false,false],"id":33,"left_children":[1,3,5,-1,-1,7,9,11,13,-1,15,-1,-1,-1,-1,-1,-1],"loss_changes":[2.758583E3,9.2018994E2,2.413393E3,0E0,0E0,6.340811E3,5.7259854E3,5.319435E3,1.195665E3,0E0,4.681232E3,0E0,0E0,0E0,0E0,0E0,0E0],"parents":[2147483647,0,0,1,1,2,2,5,5,6,6,7,7,8,8,10,10],"right_children":[2,4,6,-1,-1,8,10,12,14,-1,16,-1,-1,-1,-1,-1,-1],"split_conditions":[-2.69121E1,-3.198714E1,-1.0668698E1,-1.0148877E0,-3.474112E0,-1.1048965E1,-1.0527061E1,4.456541E-1,-1.1001781E1,-5.882283E0,-1.0500076E1,-1.8209083E0,4.8684403E-1,5.1311173E0,2.176045E0,5.1113005E0,-3.0589446E-2],"split_indices":[0,0,0,0,0,0,0,1,0,0,0,0,0,0,0,0,0],"split_type":[0,0,0,0,0,0,0,0,0,0,0,0,0,0,0,0,0],"sum_hessian":[4.994E3,5.9E1,4.935E3,3.7E1,2.2E1,9.73E2,3.962E3,8.58E2,1.15E2,1.4E1,3.948E3,1.01E2,7.57E2,1.4E1,1.01E2,1.5E1,3.933E3],"tree_param":{"num_deleted":"0","num_feature":"2","num_nodes":"17","size_leaf_vector":"0"}},{"base_weights":[-6.0890503E-2,-2.3961453E0,2.4425055E-1,2.4194386E0,-2.721063E0,1.1715915E1,1.4464618E-1,-2.710904E0,4.6942334E0,-5.2202287E0,-1.6764457E0,1.608918E1,7.514589E-2,-6.852669E0,7.2857933E0,5.5378947E0,2.1037588E0,-2.210396E0,-9.015438E0,9.251966E0,-2.564467E0,-1.1671885E0,5.0327617E-1],"categories":[],"categories_nodes":[],"categories_segments":[],"categories_sizes":[],"default_left":[true,true,true,true,true,false,true,true,true,true,true,false,true,false,false,false,false,false,false,false,false,false,false],"id":34,"left_children":[1,3,5,7,9,-1,11,13,15,17,19,-1,21,-1,-1,-1,-1,-1,-1,-1,-1,-1,-1],"loss_changes":[3.5577952E3,9.09397E2,5.0441494E3,4.4453323E2,1.4036221E3,0E0,4.851379E3,5.467748E2,4.517224E1,1.7963208E3,3.7406118E3,0E0,2.3201204E3,0E0,0E0,0E0,0E0,0E0,0E0,0E0,0E0,0E0,0E0],"parents":[2147483647,0,0,1,1,2,2,3,3,4,4,6,6,7,7,8,8,9,9,10,10,12,12],"right_children":[2,4,6,8,10,-1,12,14,16,18,20,-1,22,-1,-1,-1,-1,-1,-1,-1,-1,-1,-1],"split_conditions":[1.1498386E-1,-8.648897E0,-2.69121E1,-9.694317E0,-5.986354E0,3.5147746E0,1.5063232E-1,1.3500093E1,1.375229E1,-6.509948E0,-5.048642E0,4.826754E0,-9.892605E0,-2.0558007E0,2.185738E0,1.6613685E0,6.3112766E-1,-6.6311884E-1,-2.7046316E0,2.77559E0,-7.693401E-1,-3.5015658E-1,1.5098286E-1],"split_indices":[1,1,0,1,1,0,1,0,0,1,1,0,0,0,0,0,0,0,0,0,0,0,0],"split_type":[0,0,0,0,0,0,0,0,0,0,0,0,0,0,0,0,0,0,0,0,0,0,0],"sum_hessian":[4.991E3,5.76E2,4.415E3,3.6E1,5.4E2,3.7E1,4.378E3,1.1E1,2.5E1,1.58E2,3.82E2,1.8E1,4.36E3,8E0,3E0,1.8E1,7E0,8.9E1,6.9E1,2.8E1,3.54E2,1.117E3,3.243E3],"tree_param":{"num_deleted":"0","num_feature":"2","num_nodes":"23","size_leaf_vector":"0"}},{"base_weights":[-3.4898585E-1,-1.381753E-1,-7.169398E0,-1.4627159E0,2.7307302E-1,-9.693876E0,7.837562E-2,-7.25753E-1,-1.7779297E1,3.9917722E0,-3.9896825E-1,-2.329228E1,-8.423881E0,7.4559677E-1,-1.7814504E0,-1.5380669E1,-5.023093E1,3.1850355E0,3.3682484E1,-1.1448332E1,-2.2846763E-1,-1.0335436E1,-4.68308E0],"categories":[],"categories_nodes":[],"categories_segments":[],"categories_sizes":[],"default_left":[true,true,true,true,true,true,false,true,true,true,true,false,true,false,false,false,false,false,false,false,false,false,false],"id":35,"left_children":[1,3,5,7,9,11,-1,13,15,17,19,-1,21,-1,-1,-1,-1,-1,-1,-1,-1,-1,-1],"loss_changes":[7.241283E3,2.6624219E3,2.763584E3,1.3911716E4,9.323308E3,1.7380186E3,0E0,1.7239382E3,3.1193877E3,1.3569649E4,5.9505815E3,0E0,6.952759E2,0E0,0E0,0E0,0E0,0E0,0E0,0E0,0E0,0E0,0E0],"parents":[2147483647,0,0,1,1,2,2,3,3,4,4,5,5,7,7,8,8,9,9,10,10,12,12],"right_children":[2,4,6,8,10,12,-1,14,16,18,20,-1,22,-1,-1,-1,-1,-1,-1,-1,-1,-1,-1],"split_conditions":[2.0412434E1,-9.892605E0,5.1792553E1,-1.0088094E1,-7.702668E0,-2.411005E1,2.3512688E-2,-1.3575237E1,2.3992324E0,-7.748576E0,-7.443855E0,-6.9876842E0,2.741578E1,2.2367904E-1,-5.3443515E-1,-4.6142006E0,-1.506928E1,9.555107E-1,1.0104746E1,-3.4344997E0,-6.854029E-2,-3.100631E0,-1.4049242E0],"split_indices":[1,0,1,0,0,0,0,0,1,0,0,0,1,0,0,0,0,0,0,0,0,0,0],"split_type":[0,0,0,0,0,0,0,0,0,0,0,0,0,0,0,0,0,0,0,0,0,0,0],"sum_hessian":[5.036E3,4.886E3,1.5E2,1.157E3,3.729E3,1.11E2,3.9E1,1.108E3,4.9E1,5.7E2,3.159E3,8E0,1.03E2,4.63E2,6.45E2,4.7E1,2E0,5.56E2,1.4E1,4.7E1,3.112E3,6.7E1,3.6E1],"tree_param":{"num_deleted":"0","num_feature":"2","num_nodes":"23","size_leaf_vector":"0"}},{"base_weights":[-5.041121E-1,1.6963968E0,-7.33999E-1,-6.171125E-1,3.6029665E0,4.1685734E-2,-1.4616357E0,2.800302E-1,-8.50023E0,1.1113697E1,2.5376987E0,-6.4393373E0,2.205158E-1,-5.051291E0,-6.9644916E-1,-6.6940457E-1,9.600581E0,2.9479592E0,-1.643156E1,-1.3337256E0,-1.799469E1,-5.5366486E-1,1.6510646E0,-6.2949305E0,6.9725237E0,-4.3894653E0,-3.4413877E-1],"categories":[],"categories_nodes":[],"categories_segments":[],"categories_sizes":[],"default_left":[true,true,true,true,true,true,true,true,false,false,true,true,true,true,true,false,false,false,false,false,false,false,false,false,false,false,false],"id":36,"left_children":[1,3,5,7,9,11,13,15,-1,-1,17,19,21,23,25,-1,-1,-1,-1,-1,-1,-1,-1,-1,-1,-1,-1],"loss_changes":[2.5346333E3,2.0929744E3,2.5596904E3,1.5229207E3,2.052041E3,2.5465881E3,6.42389E3,1.7231821E3,0E0,0E0,1.8305948E3,3.4568315E3,2.368756E3,6.1896934E3,2.509589E3,0E0,0E0,0E0,0E0,0E0,0E0,0E0,0E0,0E0,0E0,0E0,0E0],"parents":[2147483647,0,0,1,1,2,2,3,3,4,4,5,5,6,6,7,7,10,10,11,11,12,12,13,13,14,14],"right_children":[2,4,6,8,10,12,14,16,-1,-1,18,20,22,24,26,-1,-1,-1,-1,-1,-1,-1,-1,-1,-1,-1,-1],"split_conditions":[-1.4592787E1,-2.2362957E1,3.6505034E0,-2.3713562E1,-2.2133232E1,-1.3467102E1,5.0365496E0,1.5652624E1,-2.550069E0,3.3341093E0,4.1181206E1,2.4556441E0,2.0125628E0,-2.2758489E0,-9.640291E0,-2.0082138E-1,2.8801744E0,8.843878E-1,-4.929468E0,-4.001177E-1,-5.398407E0,-1.6609946E-1,4.953194E-1,-1.8884792E0,2.0917573E0,-1.3168397E0,-1.0324164E-1],"split_indices":[0,0,1,0,0,0,1,1,0,0,1,1,1,0,0,0,0,0,0,0,0,0,0,0,0,0,0],"split_type":[0,0,0,0,0,0,0,0,0,0,0,0,0,0,0,0,0,0,0,0,0,0,0,0,0,0,0],"sum_hessian":[5.007E3,4.73E2,4.534E3,2.14E2,2.59E2,2.195E3,2.339E3,1.93E2,2.1E1,3.1E1,2.28E2,5.8E1,2.137E3,4.1E2,1.929E3,1.76E2,1.7E1,2.24E2,4E0,4.1E1,1.7E1,1.387E3,7.5E2,3.72E2,3.8E1,1.67E2,1.762E3],"tree_param":{"num_deleted":"0","num_feature":"2","num_nodes":"27","size_leaf_vector":"0"}},{"base_weights":[-3.204172E-2,3.8363978E-1,-9.019215E-1,-1.454658E-1,5.9075646E0,3.8251548E0,-1.5074129E0,-6.9850795E-2,-3.9012547E1,8.256584E0,-4.3070993E0,1.3137445E1,3.2711658E0,-3.0669172E0,-1.3145207E-3,3.4873727E-1,-2.1650984E0,1.548776E1,6.085614E0,-1.3414109E0,-9.578268E0,6.931701E0,1.3972962E0,-2.724242E0,-2.6610422E1,-1.4596355E0,1.2566298E0],"categories":[],"categories_nodes":[],"categories_segments":[],"categories_sizes":[],"default_left":[true,true,true,true,true,true,true,true,false,true,true,false,true,true,true,false,false,false,false,false,false,false,false,false,false,false,false],"id":37,"left_children":[1,3,5,7,9,11,13,15,-1,17,19,-1,21,23,25,-1,-1,-1,-1,-1,-1,-1,-1,-1,-1,-1,-1],"loss_changes":[1.8093955E3,9.897255E3,4.636812E3,9.081523E3,7.137917E3,9.062639E2,3.3704766E3,2.7073179E3,0E0,3.689125E3,8.625797E2,0E0,1.1907034E3,5.6152896E3,1.342844E3,0E0,0E0,0E0,0E0,0E0,0E0,0E0,0E0,0E0,0E0,0E0,0E0],"parents":[2147483647,0,0,1,1,2,2,3,3,4,4,5,5,6,6,7,7,9,9,10,10,12,12,13,13,14,14],"right_children":[2,4,6,8,10,12,14,16,-1,18,20,-1,22,24,26,-1,-1,-1,-1,-1,-1,-1,-1,-1,-1,-1,-1],"split_conditions":[7.4796124E0,5.780341E0,-2.2133232E1,5.71416E0,-2.4325125E0,-2.69121E1,-2.3014054E0,4.37129E0,-1.1703764E1,5.873999E0,-2.1421509E0,3.9412339E0,1.4921019E1,-2.4438345E0,1.4014017E1,1.0462119E-1,-6.495296E-1,4.646328E0,1.8256843E0,-4.024233E-1,-2.8734806E0,2.0795105E0,4.191889E-1,-8.172726E-1,-7.983127E0,-4.3789068E-1,3.7698898E-1],"split_indices":[1,1,0,1,0,0,0,1,0,1,0,0,1,0,1,0,0,0,0,0,0,0,0,0,0,0,0],"split_type":[0,0,0,0,0,0,0,0,0,0,0,0,0,0,0,0,0,0,0,0,0,0,0,0,0,0,0],"sum_hessian":[5.002E3,3.385E3,1.617E3,3.09E3,2.95E2,1.83E2,1.434E3,3.085E3,5E0,2.4E2,5.5E1,9E0,1.74E2,7.04E2,7.3E2,2.572E3,5.13E2,5.4E1,1.86E2,3.6E1,1.9E1,5.8E1,1.16E2,6.95E2,9E0,3.38E2,3.92E2],"tree_param":{"num_deleted":"0","num_feature":"2","num_nodes":"27","size_leaf_vector":"0"}},{"base_weights":[2.743981E-1,1.1793712E0,-8.6421436E-1,1.0300782E0,2.4022049E1,-6.937177E0,-3.2204062E-1,1.1776601E0,-3.8076944E0,-2.6461682E0,-1.8771719E1,3.0604932E0,-5.156639E-1,9.449839E-1,6.5563354E0,-1.7511766E1,8.9542156E-1,-1.6441412E1,8.271444E-1,-3.061823E1,-1.4422264E1,-3.3687693E-1,1.8365503E1,-5.338666E0,-8.9089416E-2],"categories":[],"categories_nodes":[],"categories_segments":[],"categories_sizes":[],"default_left":[true,true,true,true,false,true,true,true,true,true,true,true,true,false,false,false,false,false,false,false,false,false,false,false,false],"id":38,"left_children":[1,3,5,7,-1,9,11,13,15,17,19,21,23,-1,-1,-1,-1,-1,-1,-1,-1,-1,-1,-1,-1],"loss_changes":[5.139693E3,9.452352E3,7.271121E3,1.9764641E3,0E0,9.141891E3,1.3304458E3,3.3490486E3,5.3007314E3,6.4342363E3,2.0316562E3,5.7258325E3,3.9496738E3,0E0,0E0,0E0,0E0,0E0,0E0,0E0,0E0,0E0,0E0,0E0,0E0],"parents":[2147483647,0,0,1,1,2,2,3,3,5,5,6,6,7,7,8,8,9,9,10,10,11,11,12,12],"right_children":[2,4,6,8,-1,10,12,14,16,18,20,22,24,-1,-1,-1,-1,-1,-1,-1,-1,-1,-1,-1,-1],"split_conditions":[-4.934463E0,-4.93696E0,-4.1973524E0,-5.14046E0,7.206615E0,-4.439055E0,-3.6573122E0,-5.3718405E0,-5.102852E0,-4.867008E0,-4.3971825E0,-3.697366E0,-3.390751E0,2.834952E-1,1.9669007E0,-5.25353E0,2.6862648E-1,-4.9324236E0,2.4814333E-1,-9.18547E0,-4.326679E0,-1.0106308E-1,5.509651E0,-1.6015998E0,-2.6726825E-2],"split_indices":[0,0,0,0,0,0,0,0,0,0,0,0,0,0,0,0,0,0,0,0,0,0,0,0,0],"split_type":[0,0,0,0,0,0,0,0,0,0,0,0,0,0,0,0,0,0,0,0,0,0,0,0,0],"sum_hessian":[4.986E3,2.778E3,2.208E3,2.761E3,1.7E1,1.8E2,2.028E3,2.68E3,8.1E1,1.33E2,4.7E1,1.09E2,1.919E3,2.57E3,1.1E2,2E1,6.1E1,2.6E1,1.07E2,1.1E1,3.6E1,9E1,1.9E1,1.55E2,1.764E3],"tree_param":{"num_deleted":"0","num_feature":"2","num_nodes":"25","size_leaf_vector":"0"}},{"base_weights":[2.7152678E-1,-1.9145113E1,3.69161E-1,1.9019794E-1,3.2245915E0,5.7457894E-1,-2.8704872E0,1.9340856E0,1.1109309E1,2.2130518E-1,2.536738E0,-2.5906234E0,-2.650699E1,4.400649E0,-5.477068E-1,9.133474E0,1.3361459E1],"categories":[],"categories_nodes":[],"categories_segments":[],"categories_sizes":[],"default_left":[true,false,true,true,true,true,true,true,true,false,false,false,false,false,false,false,false],"id":39,"left_children":[1,-1,3,5,7,9,11,13,15,-1,-1,-1,-1,-1,-1,-1,-1],"loss_changes":[9.47244E3,0E0,2.5386284E3,5.5039956E3,2.9598691E3,2.8802915E3,3.3843599E3,1.5511497E3,6.040869E1,0E0,0E0,0E0,0E0,0E0,0E0,0E0,0E0],"parents":[2147483647,0,0,2,2,3,3,4,4,5,5,6,6,7,7,8,8],"right_children":[2,-1,4,6,8,10,12,14,16,-1,-1,-1,-1,-1,-1,-1,-1],"split_conditions":[-3.4814354E1,-5.743534E0,1.6953955E1,1.3534065E1,9.9727356E-1,7.899405E0,1.674236E1,-1.7072847E1,2.2736416E0,6.639156E-2,7.6102144E-1,-7.7718705E-1,-7.9520974E0,1.3201947E0,-1.6431203E-1,2.7400424E0,4.0084376E0],"split_indices":[0,0,1,1,0,1,1,0,0,0,0,0,0,0,0,0,0],"split_type":[0,0,0,0,0,0,0,0,0,0,0,0,0,0,0,0,0],"sum_hessian":[4.992E3,2.4E1,4.968E3,4.676E3,2.92E2,4.155E3,5.21E2,2.52E2,4E1,3.522E3,6.33E2,5.16E2,5E0,1.26E2,1.26E2,2.4E1,1.6E1],"tree_param":{"num_deleted":"0","num_feature":"2","num_nodes":"17","size_leaf_vector":"0"}},{"base_weights":[1.19858645E-1,2.3201337E-1,-4.8180223E0,1.0892495E-1,4.4737954E0,-3.5178742E0,-1.44485445E1,-7.9041266E-1,6.594414E-1,6.796127E0,2.7766125E0,-3.974989E-1,-5.5914993E0,3.0248457E-1,-2.7347298E0,5.219935E0,4.8074305E-1,5.737538E0,9.011693E0,-5.8512025E0,5.471528E0,-2.1535E0,9.360644E-1,-3.1068404E0,-6.1479383E0],"categories":[],"categories_nodes":[],"categories_segments":[],"categories_sizes":[],"default_left":[true,true,true,true,true,true,false,true,true,true,true,true,true,false,false,false,false,false,false,false,false,false,false,false,false],"id":40,"left_children":[1,3,5,7,9,11,-1,13,15,17,19,21,23,-1,-1,-1,-1,-1,-1,-1,-1,-1,-1,-1,-1],"loss_changes":[2.7928574E3,2.5735364E3,1.3515356E3,2.373041E3,5.289873E2,6.448263E2,0E0,3.8682163E3,2.4203452E3,8.4326904E1,1.9386162E3,9.80271E1,6.3853027E1,0E0,0E0,0E0,0E0,0E0,0E0,0E0,0E0,0E0,0E0,0E0,0E0],"parents":[2147483647,0,0,1,1,2,2,3,3,4,4,5,5,7,7,8,8,9,9,10,10,11,11,12,12],"right_children":[2,4,6,8,10,12,-1,14,16,18,20,22,24,-1,-1,-1,-1,-1,-1,-1,-1,-1,-1,-1,-1],"split_conditions":[2.2557537E1,1.7440315E1,-3.1156583E0,-7.0964146E0,1.8725574E1,-2.1216274E1,-4.3345637E0,3.7953095E0,-6.539322E0,1.809385E1,2.0176659E1,-2.1444954E1,-1.7739151E1,9.0745375E-2,-8.2041895E-1,1.5659806E0,1.4422292E-1,1.7212614E0,2.703508E0,-1.7553608E0,1.6414585E0,-6.4605004E-1,2.8081933E-1,-9.3205214E-1,-1.8443816E0],"split_indices":[1,1,0,0,1,0,0,1,0,1,1,0,0,0,0,0,0,0,0,0,0,0,0,0,0],"split_type":[0,0,0,0,0,0,0,0,0,0,0,0,0,0,0,0,0,0,0,0,0,0,0,0,0],"sum_hessian":[5.04E3,4.929E3,1.11E2,4.791E3,1.38E2,9.9E1,1.2E1,1.819E3,2.972E3,5.7E1,8.1E1,4E1,5.9E1,1.165E3,6.54E2,1.11E2,2.861E3,4.1E1,1.6E1,1.9E1,6.2E1,1.7E1,2.3E1,1.2E1,4.7E1],"tree_param":{"num_deleted":"0","num_feature":"2","num_nodes":"25","size_leaf_vector":"0"}},{"base_weights":[-2.8170934E-1,-5.929314E-1,2.2469163E0,-1.227107E0,1.3569242E-2,7.397029E0,1.6155702E0,-1.0555763E0,-1.6053164E1,2.186864E1,-1.3994029E-1,9.167614E0,-2.3726609E0,-8.974006E0,1.8533958E0,-1.2233559E0,1.7025108E1,4.3418E0,-4.5563832E-1,1.1709055E1,7.783429E0,-1.5142301E1,5.6060867E0,2.312671E0,-2.7814772E0],"categories":[],"categories_nodes":[],"categories_segments":[],"categories_sizes":[],"default_left":[true,true,true,true,true,true,true,true,false,false,true,true,false,true,true,false,false,false,false,false,false,false,false,false,false],"id":41,"left_children":[1,3,5,7,9,11,13,15,-1,-1,17,19,-1,21,23,-1,-1,-1,-1,-1,-1,-1,-1,-1,-1],"loss_changes":[3.9636965E3,1.7246881E3,1.7828796E3,5.557581E3,7.695988E3,1.059636E3,1.2582391E3,6.5976025E3,0E0,0E0,3.2250674E3,8.827246E1,0E0,1.0741665E3,1.0345858E3,0E0,0E0,0E0,0E0,0E0,0E0,0E0,0E0,0E0,0E0],"parents":[2147483647,0,0,1,1,2,2,3,3,4,4,5,5,6,6,7,7,10,10,11,11,13,13,14,14],"right_children":[2,4,6,8,10,12,14,16,-1,-1,18,20,-1,22,24,-1,-1,-1,-1,-1,-1,-1,-1,-1,-1],"split_conditions":[7.731378E0,3.8370397E0,9.56825E0,3.7953095E0,3.8774004E0,1.5132437E1,-9.694317E0,3.7527447E0,-4.8159494E0,6.5605927E0,4.37129E0,8.565153E0,-7.117983E-1,1.3500093E1,1.4793124E1,-3.6700678E-1,5.1075325E0,1.3025401E0,-1.366915E-1,3.5127165E0,2.335029E0,-4.5426903E0,1.6818261E0,6.938013E-1,-8.344432E-1],"split_indices":[0,1,0,1,1,1,1,1,0,0,1,0,0,0,1,0,0,0,0,0,0,0,0,0,0],"split_type":[0,0,0,0,0,0,0,0,0,0,0,0,0,0,0,0,0,0,0,0,0,0,0,0,0],"sum_hessian":[5.034E3,4.483E3,5.51E2,2.191E3,2.292E3,5.9E1,4.92E2,2.167E3,2.4E1,1.5E1,2.277E3,5E1,9E0,1E1,4.82E2,2.148E3,1.9E1,1.49E2,2.128E3,1.5E1,3.5E1,7E0,3E0,4.39E2,4.3E1],"tree_param":{"num_deleted":"0","num_feature":"2","num_nodes":"25","size_leaf_vector":"0"}},{"base_weights":[1.6567622E-1,-2.3992106E-1,1.5480033E0,-1.312879E-1,-1.456748E1,1.4458679E1,7.984613E-1,-2.5102434E-1,9.10576E0,1.2882962E1,1.9406921E1,7.552735E0,2.376434E-1,-3.458886E0,2.1587031E-2,1.3760141E1,5.6993127E0,8.568888E0,1.624055E1,1.0177673E1,5.168282E0,-1.4888648E0,2.45803E0],"categories":[],"categories_nodes":[],"categories_segments":[],"categories_sizes":[],"default_left":[true,true,true,true,false,true,true,true,true,true,false,true,true,false,false,false,false,false,false,false,false,false,false],"id":42,"left_children":[1,3,5,7,-1,9,11,13,15,17,-1,19,21,-1,-1,-1,-1,-1,-1,-1,-1,-1,-1],"loss_changes":[2.7953018E3,5.998195E3,1.0933247E4,4.2349907E3,0E0,2.3339648E2,4.0512769E3,3.3048083E3,6.9846704E2,5.8508105E2,0E0,4.6064014E2,3.7950066E3,0E0,0E0,0E0,0E0,0E0,0E0,0E0,0E0,0E0,0E0],"parents":[2147483647,0,0,1,1,2,2,3,3,5,5,6,6,7,7,8,8,9,9,11,11,12,12],"right_children":[2,4,6,8,-1,10,12,14,16,18,-1,20,22,-1,-1,-1,-1,-1,-1,-1,-1,-1,-1],"split_conditions":[9.5588045E0,9.552956E0,9.965496E0,9.328178E0,-4.370244E0,9.942668E0,-2.5239103E1,-1.2310997E1,3.2514305E0,6.994219E-1,5.822077E0,1.5414646E1,5.597721E0,-1.0376658E0,6.4761094E-3,4.1280427E0,1.7097939E0,2.5706663E0,4.8721647E0,3.053302E0,1.5504847E0,-4.4665945E-1,7.37409E-1],"split_indices":[1,1,1,1,0,1,0,0,0,0,0,1,0,0,0,0,0,0,0,0,0,0,0],"split_type":[0,0,0,0,0,0,0,0,0,0,0,0,0,0,0,0,0,0,0,0,0,0,0],"sum_hessian":[4.984E3,3.854E3,1.13E3,3.826E3,2.8E1,6.1E1,1.069E3,3.778E3,4.8E1,4.9E1,1.2E1,8.1E1,9.88E2,2.95E2,3.483E3,1.9E1,2.9E1,2.3E1,2.6E1,3.7E1,4.4E1,5.56E2,4.32E2],"tree_param":{"num_deleted":"0","num_feature":"2","num_nodes":"23","size_leaf_vector":"0"}},{"base_weights":[-3.1623387E-1,-4.0573323E-1,1.0143543E1,-1.2387658E1,-3.442799E-1,4.5501518E-1,-1.10696E0,1.7555916E-1,8.501154E0,-7.9433365E0,-8.096365E-1],"categories":[],"categories_nodes":[],"categories_segments":[],"categories_sizes":[],"default_left":[true,true,false,false,true,true,true,false,false,false,false],"id":43,"left_children":[1,3,-1,-1,5,7,9,-1,-1,-1,-1],"loss_changes":[4.6342812E3,3.6074312E3,0E0,0E0,2.9759932E3,5.3590317E3,5.071044E3,0E0,0E0,0E0,0E0],"parents":[2147483647,0,0,1,1,4,4,5,5,6,6],"right_children":[2,4,-1,-1,6,8,10,-1,-1,-1,-1],"split_conditions":[1.5716629E1,-3.4814354E1,3.0430632E0,-3.7162976E0,4.033393E0,3.8370397E0,4.4738274E0,5.2667752E-2,2.5503464E0,-2.383001E0,-2.4289095E-1],"split_indices":[0,0,0,0,1,1,1,0,0,0,0],"split_type":[0,0,0,0,0,0,0,0,0,0,0],"sum_hessian":[4.945E3,4.904E3,4.1E1,2.4E1,4.88E3,2.383E3,2.497E3,2.304E3,7.9E1,1.03E2,2.394E3],"tree_param":{"num_deleted":"0","num_feature":"2","num_nodes":"11","size_leaf_vector":"0"}},{"base_weights":[-7.355139E-2,5.521846E0,-1.9324853E-1,4.118474E0,7.850901E0,4.6991497E-1,-8.9334404E-1,6.20675E0,7.948518E-1,3.0842966E-1,2.9088459E1,-1.744899E1,-7.518239E-1,5.0920477E0,7.9928145E0,-2.3390465E0,3.871975E0,1.8880617E1,2.4079713E-1,-2.0625E1,-1.2975436E1,-8.813673E0,-6.541596E-1],"categories":[],"categories_nodes":[],"categories_segments":[],"categories_sizes":[],"default_left":[true,true,true,true,false,true,true,true,true,true,false,true,true,false,false,false,false,false,false,false,false,false,false],"id":44,"left_children":[1,3,5,7,-1,9,11,13,15,17,-1,19,21,-1,-1,-1,-1,-1,-1,-1,-1,-1,-1],"loss_changes":[3.3257212E3,3.075935E2,2.2572742E3,4.6008948E2,0E0,1.153085E4,5.5279756E3,4.0928345E1,2.6942828E2,3.115566E3,0E0,1.654248E1,1.8413696E3,0E0,0E0,0E0,0E0,0E0,0E0,0E0,0E0,0E0,0E0],"parents":[2147483647,0,0,1,1,2,2,3,3,5,5,6,6,7,7,8,8,9,9,11,11,12,12],"right_children":[2,4,6,8,-1,10,12,14,16,18,-1,20,22,-1,-1,-1,-1,-1,-1,-1,-1,-1,-1],"split_conditions":[-2.6601562E1,-2.69121E1,4.37129E0,-3.198714E1,2.3552704E0,4.2777386E0,4.4738274E0,-3.4814354E1,-2.9086187E1,-1.905917E1,8.726538E0,-7.542259E0,-2.6017075E1,1.5276144E0,2.3978446E0,-7.01714E-1,1.1615925E0,5.6641855E0,7.2239146E-2,-6.1875005E0,-3.892631E0,-2.644102E0,-1.9624789E-1],"split_indices":[0,0,1,0,0,1,1,0,0,0,0,0,0,0,0,0,0,0,0,0,0,0,0],"split_type":[0,0,0,0,0,0,0,0,0,0,0,0,0,0,0,0,0,0,0,0,0,0,0],"sum_hessian":[4.963E3,1.03E2,4.86E3,6.6E1,3.7E1,2.496E3,2.364E3,4E1,2.6E1,2.483E3,1.3E1,1.9E1,2.345E3,2.7E1,1.3E1,1.3E1,1.3E1,8E0,2.475E3,9E0,1E1,2.7E1,2.318E3],"tree_param":{"num_deleted":"0","num_feature":"2","num_nodes":"23","size_leaf_vector":"0"}},{"base_weights":[-2.1061605E-2,1.66054E0,-3.2249457E-1,-5.7467586E-1,4.0248704E0,-2.2424254E0,2.6136946E-2,5.216267E-1,-6.3828835E0,6.22929E0,2.4271708E0,-1.1862935E0,-1.2403398E1,6.5259504E0,-3.345452E-1,2.7084432E0,-1.1741968E0,-7.8986635E0,-2.238829E0,3.5323353E0,7.821905E0,-3.127585E1,3.5443668E0,-2.1861835E0,1.1248392E1,-1.9364109E1,-8.535633E0,-5.040381E0,8.413389E0,9.913736E-1,-7.2950125E-1],"categories":[],"categories_nodes":[],"categories_segments":[],"categories_sizes":[],"default_left":[true,true,true,true,true,true,true,true,true,true,true,true,true,true,true,false,false,false,false,false,false,false,false,false,false,false,false,false,false,false,false],"id":45,"left_children":[1,3,5,7,9,11,13,15,17,19,21,23,25,27,29,-1,-1,-1,-1,-1,-1,-1,-1,-1,-1,-1,-1,-1,-1,-1,-1],"loss_changes":[2.5243416E3,4.0028984E3,2.8267168E3,2.4866753E3,1.280977E3,6.949918E3,8.383294E3,1.2232618E3,3.7176758E2,6.338325E2,8.206223E3,7.347814E3,1.4769814E3,4.146585E3,1.7749501E3,0E0,0E0,0E0,0E0,0E0,0E0,0E0,0E0,0E0,0E0,0E0,0E0,0E0,0E0,0E0,0E0],"parents":[2147483647,0,0,1,1,2,2,3,3,4,4,5,5,6,6,7,7,8,8,9,9,10,10,11,11,12,12,13,13,14,14],"right_children":[2,4,6,8,10,12,14,16,18,20,22,24,26,28,30,-1,-1,-1,-1,-1,-1,-1,-1,-1,-1,-1,-1,-1,-1,-1,-1],"split_conditions":[-1.1607412E1,-1.8813894E1,-9.155397E0,-1.9942926E1,-1.3575237E1,-9.559153E0,-8.25041E0,1.4921019E1,-1.951238E1,-1.5681114E1,-1.3467102E1,-9.712137E0,1.1952493E0,-1.1319691E-1,1.9299917E0,8.1253296E-1,-3.5225907E-1,-2.369599E0,-6.716487E-1,1.0597006E0,2.3465717E0,-9.382755E0,1.0633101E0,-6.5585506E-1,3.3745177E0,-5.8092327E0,-2.56069E0,-1.5121144E0,2.5240169E0,2.974121E-1,-2.1885039E-1],"split_indices":[0,0,0,0,0,0,0,1,0,0,0,0,1,1,1,0,0,0,0,0,0,0,0,0,0,0,0,0,0,0,0],"split_type":[0,0,0,0,0,0,0,0,0,0,0,0,0,0,0,0,0,0,0,0,0,0,0,0,0,0,0,0,0,0,0],"sum_hessian":[4.978E3,7.56E2,4.222E3,3.89E2,3.67E2,6.48E2,3.574E3,3.28E2,6.1E1,1.53E2,2.14E2,5.88E2,6E1,1.87E2,3.387E3,1.43E2,1.85E2,4.4E1,1.7E1,5.8E1,9.5E1,6E0,2.08E2,5.45E2,4.3E1,2E1,4E1,2.6E1,1.61E2,7.77E2,2.61E3],"tree_param":{"num_deleted":"0","num_feature":"2","num_nodes":"31","size_leaf_vector":"0"}},{"base_weights":[-1.3251023E-1,3.1401057E0,-3.2747895E-1,-5.554879E0,4.2405033E0,-9.626209E-1,7.225827E-1,-3.980086E0,-6.3007503E0,1.0809346E0,5.537495E0,-7.884648E-1,-1.4984478E1,1.8164582E0,-6.1391276E-1,-7.99573E0,-4.1870646E0,3.7298799E0,-2.9285142E0,4.455264E0,7.7963295E0,1.5394536E-1,-1.9100915E0,-5.6855816E-1,2.5339878E0,1.500372E1,-8.303224E-1],"categories":[],"categories_nodes":[],"categories_segments":[],"categories_sizes":[],"default_left":[true,true,true,true,true,true,true,false,true,true,true,true,false,true,true,false,false,false,false,false,false,false,false,false,false,false,false],"id":46,"left_children":[1,3,5,7,9,11,13,-1,15,17,19,21,-1,23,25,-1,-1,-1,-1,-1,-1,-1,-1,-1,-1,-1,-1],"loss_changes":[3.1887646E3,2.7121465E3,3.145976E3,1.250946E1,1.01849805E3,7.1652017E3,2.6004795E3,0E0,3.81745E1,7.9686304E2,3.9795605E2,3.069916E3,0E0,1.6751118E3,2.719683E3,0E0,0E0,0E0,0E0,0E0,0E0,0E0,0E0,0E0,0E0,0E0,0E0],"parents":[2147483647,0,0,1,1,2,2,3,3,4,4,5,5,6,6,8,8,9,9,10,10,11,11,13,13,14,14],"right_children":[2,4,6,8,10,12,14,-1,16,18,20,22,-1,24,26,-1,-1,-1,-1,-1,-1,-1,-1,-1,-1,-1,-1],"split_conditions":[-2.1254744E1,-3.977009E-1,-3.390751E0,-3.198714E1,-2.6723097E1,-3.443799E0,6.8512564E0,-1.1940259E0,-2.6764261E1,-2.69121E1,1.6630398E1,3.4160388E0,-4.4953437E0,-3.1317112E0,-3.2809818E0,-2.398719E0,-1.2561195E0,1.118964E0,-8.785543E-1,1.3365793E0,2.338899E0,4.618361E-2,-5.730275E-1,-1.7056745E-1,7.601964E-1,4.5011163E0,-2.4909672E-1],"split_indices":[0,1,0,0,0,0,1,0,0,0,1,1,0,0,0,0,0,0,0,0,0,0,0,0,0,0,0],"split_type":[0,0,0,0,0,0,0,0,0,0,0,0,0,0,0,0,0,0,0,0,0,0,0,0,0,0,0],"sum_hessian":[4.995E3,2.8E2,4.715E3,3.1E1,2.49E2,2.938E3,1.777E3,1.2E1,1.9E1,7.3E1,1.76E2,2.903E3,3.5E1,9.77E2,8E2,9E0,1E1,4.4E1,2.9E1,1.21E2,5.5E1,1.578E3,1.325E3,2.26E2,7.51E2,1E1,7.9E2],"tree_param":{"num_deleted":"0","num_feature":"2","num_nodes":"27","size_leaf_vector":"0"}},{"base_weights":[-2.0890445E-1,-2.898914E0,-5.3470343E-2,1.9702873E0,-4.7873893E0,5.7716284E0,-1.1699185E-1,-1.5180703E0,2.3038439E1,-4.0789843E0,-9.096642E0,1.250474E0,1.3320391E1,-2.173232E0,5.1930465E-2,-2.9079723E0,4.4790583E0,-4.6674924E0,1.1826396E0,-1.1820608E1,-6.7989783E0,-8.330388E-1,3.2604294E0,-1.3627473E0,-9.102188E0,-1.9856279E-1,1.9122177E0],"categories":[],"categories_nodes":[],"categories_segments":[],"categories_sizes":[],"default_left":[true,true,true,true,true,true,true,true,false,true,true,true,false,true,true,false,false,false,false,false,false,false,false,false,false,false,false],"id":47,"left_children":[1,3,5,7,9,11,13,15,-1,17,19,21,-1,23,25,-1,-1,-1,-1,-1,-1,-1,-1,-1,-1,-1,-1],"loss_changes":[2.089605E3,2.519767E3,1.7493854E3,5.693954E3,5.6427637E2,1.7239282E3,1.6242974E3,5.7149817E2,0E0,5.3502295E2,8.861841E1,1.409124E2,0E0,1.9812095E3,2.014386E3,0E0,0E0,0E0,0E0,0E0,0E0,0E0,0E0,0E0,0E0,0E0,0E0],"parents":[2147483647,0,0,1,1,2,2,3,3,4,4,5,5,6,6,7,7,9,9,10,10,11,11,13,13,14,14],"right_children":[2,4,6,8,10,12,14,16,-1,18,20,22,-1,24,26,-1,-1,-1,-1,-1,-1,-1,-1,-1,-1,-1,-1],"split_conditions":[-3.3279028E0,-6.956936E0,-2.176619E0,-7.6162477E0,-3.805924E0,-5.614059E-1,-1.8813894E1,-8.159122E0,6.911532E0,-4.0687065E0,-2.0163577E0,-1.0886267E1,3.9961174E0,-1.9630508E1,1.4269919E1,-8.7239176E-1,1.3437176E0,-1.4002478E0,3.5479188E-1,-3.5461826E0,-2.0396936E0,-2.4991165E-1,9.7812885E-1,-4.088242E-1,-2.7306566E0,-5.9568837E-2,5.736653E-1],"split_indices":[1,1,1,1,1,0,0,1,0,1,0,0,0,0,1,0,0,0,0,0,0,0,0,0,0,0,0],"split_type":[0,0,0,0,0,0,0,0,0,0,0,0,0,0,0,0,0,0,0,0,0,0,0,0,0,0,0],"sum_hessian":[4.997E3,2.72E2,4.725E3,7.6E1,1.96E2,5E1,4.675E3,6.6E1,1E1,1.7E2,2.6E1,3.2E1,1.8E1,3.54E2,4.321E3,5.4E1,1.2E1,1.53E2,1.7E1,1E1,1.6E1,1.6E1,1.6E1,3.18E2,3.6E1,3.809E3,5.12E2],"tree_param":{"num_deleted":"0","num_feature":"2","num_nodes":"27","size_leaf_vector":"0"}},{"base_weights":[7.9824334E-1,8.9372045E-1,-7.2450705E0,5.3415937E0,7.682171E-1,1.9331373E0,-9.388683E0,1.6107733E0,7.358282E0,1.1011511E0,-1.03473194E-1,-9.964097E0,-6.5473766E0,-8.7371635E-1,2.3529603E0,1.64072E1,5.7136216E0,2.646968E-1,2.3134136E0,-5.2156086E0,3.4621257E-1],"categories":[],"categories_nodes":[],"categories_segments":[],"categories_sizes":[],"default_left":[true,true,true,true,true,false,true,true,true,true,true,false,false,false,false,false,false,false,false,false,false],"id":48,"left_children":[1,3,5,7,9,-1,11,13,15,17,19,-1,-1,-1,-1,-1,-1,-1,-1,-1,-1],"loss_changes":[3.8615947E3,2.765798E3,1.1789465E3,1.01139795E3,1.4009834E3,0E0,1.3237793E1,9.240965E1,1.2159067E3,3.5412969E3,3.0707764E3,0E0,0E0,0E0,0E0,0E0,0E0,0E0,0E0,0E0,0E0],"parents":[2147483647,0,0,1,1,2,2,3,3,4,4,6,6,7,7,8,8,9,9,10,10],"right_children":[2,4,6,8,10,-1,12,14,16,18,20,-1,-1,-1,-1,-1,-1,-1,-1,-1,-1],"split_conditions":[1.5495985E1,-2.5239103E1,-3.2611496E0,-2.9086187E1,8.189898E0,5.799412E-1,2.571296E1,-8.681717E0,-2.69121E1,-5.3660793E0,8.91381E0,-2.9892292E0,-1.964213E0,-2.621149E-1,7.0588815E-1,4.92216E0,1.7140865E0,7.940905E-2,6.940241E-1,-1.5646826E0,1.03863776E-1],"split_indices":[0,0,1,0,1,0,0,1,0,0,1,0,0,0,0,0,0,0,0,0,0],"split_type":[0,0,0,0,0,0,0,0,0,0,0,0,0,0,0,0,0,0,0,0,0],"sum_hessian":[5.019E3,4.961E3,5.8E1,1.35E2,4.826E3,1.1E1,4.7E1,4.8E1,8.7E1,3.492E3,1.334E3,3.7E1,1E1,1.1E1,3.7E1,1.2E1,7.5E1,2.067E3,1.425E3,1.07E2,1.227E3],"tree_param":{"num_deleted":"0","num_feature":"2","num_nodes":"21","size_leaf_vector":"0"}},{"base_weights":[1.408891E-1,2.3329434E0,-1.790184E-1,1.9558257E0,2.3445156E1,-2.0046339E1,-9.1455646E-2,-4.945434E0,2.4768958E0,-2.4129386E-1,4.7317333E0,4.346148E-1,-1.5375836E1,3.221377E0,-3.0724769E0,1.893678E-1,-2.0326762E0,1.8943304E1,4.011724E0],"categories":[],"categories_nodes":[],"categories_segments":[],"categories_sizes":[],"default_left":[true,true,true,true,false,false,true,true,true,true,true,false,false,false,false,false,false,false,false],"id":49,"left_children":[1,3,5,7,-1,-1,9,11,13,15,17,-1,-1,-1,-1,-1,-1,-1,-1],"loss_changes":[3.4800432E3,4.985998E3,7.532535E3,2.2489863E3,0E0,0E0,3.1181387E3,2.47579E3,2.4019797E3,3.228256E3,1.2542249E3,0E0,0E0,0E0,0E0,0E0,0E0,0E0,0E0],"parents":[2147483647,0,0,1,1,2,2,3,3,6,6,7,7,8,8,9,9,10,10],"right_children":[2,4,6,8,-1,-1,10,12,14,16,18,-1,-1,-1,-1,-1,-1,-1,-1],"split_conditions":[1.9886392E-1,1.849752E-1,2.3264259E-1,-1.2449497E1,7.033547E0,-6.013902E0,1.3943969E1,-1.7998182E1,1.3361525E1,1.1980305E1,1.3974064E1,1.3038445E-1,-4.612751E0,9.664131E-1,-9.217431E-1,5.681034E-2,-6.098029E-1,5.6829915E0,1.2035172E0],"split_indices":[1,1,1,0,0,0,0,0,0,1,0,0,0,0,0,0,0,0,0],"split_type":[0,0,0,0,0,0,0,0,0,0,0,0,0,0,0,0,0,0,0],"sum_hessian":[4.961E3,6.31E2,4.33E3,6.21E2,1E1,1.8E1,4.312E3,4.3E1,5.78E2,4.183E3,1.29E2,2.9E1,1.4E1,5.1E2,6.8E1,3.373E3,8.1E2,5E0,1.24E2],"tree_param":{"num_deleted":"0","num_feature":"2","num_nodes":"19","size_leaf_vector":"0"}},{"base_weights":[-4.187798E-1,8.075997E0,-5.316852E-1,4.282271E0,1.0933721E1,-6.468989E-1,2.9985623E0,9.9424925E0,1.3830098E0,1.4066614E1,5.4010363E0,-3.5165653E-1,-2.1382852E0,9.256821E0,-9.6795607E-1,4.0803388E-2,2.599488E0,7.3784633E0,-1.881504E0,-5.9571356E-1,3.4371939E0,-6.626276E0,-1.8788147E0,1.2676558E1,5.538476E0,1.8692358E0,-2.5997455E0],"categories":[],"categories_nodes":[],"categories_segments":[],"categories_sizes":[],"default_left":[true,true,true,true,true,true,true,false,true,false,true,true,true,true,true,false,false,false,false,false,false,false,false,false,false,false,false],"id":50,"left_children":[1,3,5,7,9,11,13,-1,15,-1,17,19,21,23,25,-1,-1,-1,-1,-1,-1,-1,-1,-1,-1,-1,-1],"loss_changes":[4.82572E3,6.687124E2,2.0201489E3,4.7856323E2,5.653584E2,2.1154282E3,3.9062495E3,0E0,3.418199E1,0E0,2.2989294E2,3.7128506E3,9.1216455E2,7.0545215E2,4.5394046E2,0E0,0E0,0E0,0E0,0E0,0E0,0E0,0E0,0E0,0E0,0E0,0E0],"parents":[2147483647,0,0,1,1,2,2,3,3,4,4,5,5,6,6,8,8,10,10,11,11,12,12,13,13,14,14],"right_children":[2,4,6,8,10,12,14,-1,16,-1,18,20,22,24,26,-1,-1,-1,-1,-1,-1,-1,-1,-1,-1,-1,-1],"split_conditions":[-6.956936E0,2.3464289E0,2.120243E1,-3.198714E1,1.3500093E1,1.1628758E1,2.741578E1,2.9827478E0,-1.9688927E1,4.2199845E0,-9.516984E0,9.357292E0,1.1980305E1,-1.868108E1,4.1181206E1,1.2241017E-2,7.7984643E-1,2.2135391E0,-5.644512E-1,-1.7871407E-1,1.0311582E0,-1.9878829E0,-5.636444E-1,3.8029673E0,1.6615429E0,5.6077075E-1,-7.799237E-1],"split_indices":[1,0,1,0,0,1,1,0,0,0,1,1,1,0,1,0,0,0,0,0,0,0,0,0,0,0,0],"split_type":[0,0,0,0,0,0,0,0,0,0,0,0,0,0,0,0,0,0,0,0,0,0,0,0,0,0,0],"sum_hessian":[5.026E3,6.5E1,4.961E3,2.9E1,3.6E1,4.805E3,1.56E2,9E0,2E1,2.2E1,1.4E1,4.012E3,7.93E2,6E1,9.6E1,1E1,1E1,1.1E1,3E0,3.77E3,2.42E2,4.2E1,7.51E2,3E1,3E1,3.5E1,6.1E1],"tree_param":{"num_deleted":"0","num_feature":"2","num_nodes":"27","size_leaf_vector":"0"}},{"base_weights":[2.81519E-1,8.5606104E-1,-1.18177E0,-2.8635287E-1,1.6198968E0,-2.5780995E0,1.2130445E0,8.322176E-2,-5.0044446E0,2.729699E0,1.3247705E-1,-5.169678E0,-1.6533884E0,5.3588614E0,-4.905066E-2,-1.2059544E-1,9.082374E0,-8.6109705E0,-1.6305647E0,2.4623678E0,2.4557983E1,-1.0847036E1,4.095312E-1,-6.126743E0,-1.4677215E0,1.3356875E0,-3.0586941E0,4.4467463E0,9.131244E0,-1.1682751E1,6.8199086E-1],"categories":[],"categories_nodes":[],"categories_segments":[],"categories_sizes":[],"default_left":[true,true,true,true,true,true,true,true,true,true,true,true,true,true,true,false,false,false,false,false,false,false,false,false,false,false,false,false,false,false,false],"id":51,"left_children":[1,3,5,7,9,11,13,15,17,19,21,23,25,27,29,-1,-1,-1,-1,-1,-1,-1,-1,-1,-1,-1,-1,-1,-1,-1,-1],"loss_changes":[4.2609453E3,3.175916E3,4.781632E3,2.5444558E3,3.5999048E3,2.155457E3,2.757746E3,2.4845776E3,1.2757656E3,7.227921E3,2.8425535E3,8.3070166E2,2.8058625E3,3.8261987E2,3.4523782E3,0E0,0E0,0E0,0E0,0E0,0E0,0E0,0E0,0E0,0E0,0E0,0E0,0E0,0E0,0E0,0E0],"parents":[2147483647,0,0,1,1,2,2,3,3,4,4,5,5,6,6,7,7,8,8,9,9,10,10,11,11,12,12,13,13,14,14],"right_children":[2,4,6,8,10,12,14,16,18,20,22,24,26,28,30,-1,-1,-1,-1,-1,-1,-1,-1,-1,-1,-1,-1,-1,-1,-1,-1],"split_conditions":[-2.7217455E0,2.7055988E0,1.0105796E1,2.429759E0,7.1600237E0,-1.6362553E0,1.3793404E1,2.3651218E0,2.6405902E0,6.9487047E0,7.3218126E0,7.9117746E0,6.4068055E0,1.2685254E1,1.4164938E1,-3.6178634E-2,2.7247121E0,-2.5832913E0,-4.8916942E-1,7.3871034E-1,7.3673954E0,-3.254111E0,1.22859366E-1,-1.838023E0,-4.4031647E-1,4.0070626E-1,-9.1760826E-1,1.334024E0,2.7393732E0,-3.5048254E0,2.0459726E-1],"split_indices":[0,1,1,1,1,0,1,1,1,1,1,1,0,1,1,0,0,0,0,0,0,0,0,0,0,0,0,0,0,0,0],"split_type":[0,0,0,0,0,0,0,0,0,0,0,0,0,0,0,0,0,0,0,0,0,0,0,0,0,0,0,0,0,0,0],"sum_hessian":[5.066E3,3.638E3,1.428E3,1.458E3,2.18E3,9.02E2,5.26E2,1.353E3,1.05E2,1.248E3,9.32E2,2.36E2,6.66E2,1.22E2,4.04E2,1.324E3,2.9E1,5E1,5.5E1,1.234E3,1.4E1,2.2E1,9.1E2,1.87E2,4.9E1,2.13E2,4.53E2,1E2,2.2E1,2.3E1,3.81E2],"tree_param":{"num_deleted":"0","num_feature":"2","num_nodes":"31","size_leaf_vector":"0"}},{"base_weights":[-4.3507075E-1,-1.660078E-1,-1.9482405E0,-2.202718E-1,5.138057E0,-1.7354208E1,-1.675699E0,-1.756877E-1,-5.8447027E0,7.5672083E0,-8.435747E0,-1.8243256E0,8.367058E0,-2.6000845E-1,2.9373448E0,1.1674862E1,5.3803215E0,-1.4503835E0,-8.431798E0],"categories":[],"categories_nodes":[],"categories_segments":[],"categories_sizes":[],"default_left":[true,true,true,true,true,false,true,true,false,true,false,true,false,false,false,false,false,false,false],"id":52,"left_children":[1,3,5,7,9,-1,11,13,-1,15,-1,17,-1,-1,-1,-1,-1,-1,-1],"loss_changes":[2.0333306E3,1.2220634E3,3.1367898E3,1.0521656E3,1.4816663E3,0E0,1.1227886E3,1.0948354E3,0E0,2.6955542E2,0E0,1.7964048E3,0E0,0E0,0E0,0E0,0E0,0E0,0E0],"parents":[2147483647,0,0,1,1,2,2,3,3,4,4,6,6,7,7,9,9,11,11],"right_children":[2,4,6,8,10,-1,12,14,-1,16,-1,18,-1,-1,-1,-1,-1,-1,-1],"split_conditions":[6.8747454E0,6.5320086E0,6.8968883E0,6.4068055E0,1.0286536E1,-5.2062626E0,2.571296E1,5.725888E0,-1.7534109E0,6.616832E0,-2.5307243E0,1.5716629E1,2.5101175E0,-7.800254E-2,8.812035E-1,3.5024588E0,1.6140965E0,-4.3511507E-1,-2.5295396E0],"split_indices":[0,0,0,0,1,0,0,0,0,0,0,0,0,0,0,0,0,0,0],"split_type":[0,0,0,0,0,0,0,0,0,0,0,0,0,0,0,0,0,0,0],"sum_hessian":[4.994E3,4.241E3,7.53E2,4.199E3,4.2E1,1.2E1,7.41E2,4.167E3,3.2E1,3.6E1,6E0,7.31E2,1E1,4.058E3,1.09E2,1.1E1,2.5E1,6.93E2,3.8E1],"tree_param":{"num_deleted":"0","num_feature":"2","num_nodes":"19","size_leaf_vector":"0"}},{"base_weights":[4.2262014E-2,-3.5465375E-2,8.775034E0,1.5159805E0,-5.195367E-1,8.6586696E-1,1.1385184E1,-5.804872E-1,2.1656446E0,-1.0842712E1,-2.9272813E-1,1.3697243E1,4.697726E0,1.7810233E0,-8.382707E0,1.0294417E0,4.5442033E0,-6.125889E0,-2.1789925E1,-2.063041E0,2.3398682E-1],"categories":[],"categories_nodes":[],"categories_segments":[],"categories_sizes":[],"default_left":[true,true,true,true,true,false,true,true,true,true,true,false,false,false,false,false,false,false,false,false,false],"id":53,"left_children":[1,3,5,7,9,-1,11,13,15,17,19,-1,-1,-1,-1,-1,-1,-1,-1,-1,-1],"loss_changes":[3.3853647E3,3.7137834E3,8.9848267E2,1.602969E3,8.821505E3,0E0,4.4589307E2,5.1555107E3,2.4221895E3,4.049039E3,3.4402915E3,0E0,0E0,0E0,0E0,0E0,0E0,0E0,0E0,0E0,0E0],"parents":[2147483647,0,0,1,1,2,2,3,3,4,4,6,6,7,7,8,8,9,9,10,10],"right_children":[2,4,6,8,10,-1,12,14,16,18,20,-1,-1,-1,-1,-1,-1,-1,-1,-1,-1],"split_conditions":[1.5716629E1,-1.0208696E1,-3.2611496E0,9.397486E-1,-9.962639E0,2.597601E-1,2.571296E1,5.088354E-1,-1.2696445E1,-1.0023151E1,1.7022786E0,4.109173E0,1.4093177E0,5.34307E-1,-2.514812E0,3.0883253E-1,1.363261E0,-1.8377668E0,-6.536978E0,-6.1891234E-1,7.019605E-2],"split_indices":[0,0,1,1,0,0,0,1,0,0,1,0,0,0,0,0,0,0,0,0,0],"split_type":[0,0,0,0,0,0,0,0,0,0,0,0,0,0,0,0,0,0,0,0,0],"sum_hessian":[4.986E3,4.943E3,4.3E1,1.175E3,3.768E3,1.1E1,3.2E1,2.78E2,8.97E2,8E1,3.688E3,2.3E1,9E0,2.14E2,6.4E1,6.08E2,2.89E2,5.7E1,2.3E1,8.45E2,2.843E3],"tree_param":{"num_deleted":"0","num_feature":"2","num_nodes":"21","size_leaf_vector":"0"}},{"base_weights":[4.7695166E-1,8.298747E-1,-8.434464E-1,6.148828E-1,3.6832998E0,-1.774294E0,1.7740371E0,6.688574E-1,-1.5880616E1,2.9144337E0,9.454828E0,-1.9293507E1,-1.4978862E0,3.6166663E0,-4.809972E0,-8.95735E-1,9.2567396E-1,4.116432E0,-6.1803284E0,-1.1290051E0,-8.9568615E0,-3.5524232E0,4.243801E0,5.4288974E0,-7.4282436E0],"categories":[],"categories_nodes":[],"categories_segments":[],"categories_sizes":[],"default_left":[true,true,true,true,true,true,true,true,false,true,false,false,true,true,true,false,false,false,false,false,false,false,false,false,false],"id":54,"left_children":[1,3,5,7,9,11,13,15,-1,17,-1,-1,19,21,23,-1,-1,-1,-1,-1,-1,-1,-1,-1,-1],"loss_changes":[2.3283647E3,2.416007E3,2.5711958E3,3.2754905E3,1.1972036E3,3.738526E3,3.3779285E3,1.4698585E3,0E0,2.703754E3,0E0,0E0,2.100269E3,9.907046E2,1.6756241E3,0E0,0E0,0E0,0E0,0E0,0E0,0E0,0E0,0E0,0E0],"parents":[2147483647,0,0,1,1,2,2,3,3,4,4,5,5,6,6,7,7,9,9,12,12,13,13,14,14],"right_children":[2,4,6,8,10,12,14,16,-1,18,-1,-1,20,22,24,-1,-1,-1,-1,-1,-1,-1,-1,-1,-1],"split_conditions":[9.2842686E-1,-2.593765E0,1.3054236E1,-2.68122E0,-1.4999184E-1,-6.8148365E0,1.5065899E1,-1.387728E1,-4.764185E0,9.079212E0,2.8364487E0,-5.788052E0,1.2994491E1,-9.377172E0,-3.2611496E0,-2.687205E-1,2.777022E-1,1.2349297E0,-1.8540986E0,-3.3870155E-1,-2.6870584E0,-1.065727E0,1.2731404E0,1.6286693E0,-2.2284732E0],"split_indices":[0,0,0,0,0,1,0,0,0,1,0,0,0,1,1,0,0,0,0,0,0,0,0,0,0],"split_type":[0,0,0,0,0,0,0,0,0,0,0,0,0,0,0,0,0,0,0,0,0,0,0,0,0],"sum_hessian":[4.994E3,3.941E3,1.053E3,3.666E3,2.75E2,7.77E2,2.76E2,3.655E3,1.1E1,2.44E2,3.1E1,1.1E1,7.66E2,2.16E2,6E1,5.15E2,3.14E3,2.16E2,2.8E1,7.31E2,3.5E1,1.7E1,1.99E2,1.2E1,4.8E1],"tree_param":{"num_deleted":"0","num_feature":"2","num_nodes":"25","size_leaf_vector":"0"}},{"base_weights":[5.242485E-1,-1.771691E0,7.6504385E-1,-6.168291E0,-2.8349854E-2,3.322696E0,5.439654E-1,-4.866804E0,-1.5625272E1,6.041126E0,-7.795281E-1,1.8300006E0,7.514405E0,-2.6439269E0,7.22402E-1,-2.2429752E0,-6.1348305E0,-4.757899E0,-2.013245E1,1.7056671E1,4.6096025E0,-1.5022326E1,3.5688323E-3,-1.1089804E-1,3.393885E0,8.957259E0,6.9839015E0,-1.1736929E1,-1.3314371E0,2.3061016E0,5.691106E-1],"categories":[],"categories_nodes":[],"categories_segments":[],"categories_sizes":[],"default_left":[true,true,true,true,true,true,true,true,true,true,true,true,true,true,true,false,false,false,false,false,false,false,false,false,false,false,false,false,false,false,false],"id":55,"left_children":[1,3,5,7,9,11,13,15,17,19,21,23,25,27,29,-1,-1,-1,-1,-1,-1,-1,-1,-1,-1,-1,-1,-1,-1,-1,-1],"loss_changes":[2.7893857E3,3.671252E3,2.579434E3,1.5978618E3,1.573094E3,2.2575195E3,2.39273E3,3.8881714E2,6.879109E2,5.2059766E2,3.4241753E3,8.168831E2,1.0159668E1,2.6457605E3,9.65145E2,0E0,0E0,0E0,0E0,0E0,0E0,0E0,0E0,0E0,0E0,0E0,0E0,0E0,0E0,0E0,0E0],"parents":[2147483647,0,0,1,1,2,2,3,3,4,4,5,5,6,6,7,7,8,8,9,9,10,10,11,11,12,12,13,13,14,14],"right_children":[2,4,6,8,10,12,14,16,18,20,22,24,26,28,30,-1,-1,-1,-1,-1,-1,-1,-1,-1,-1,-1,-1,-1,-1,-1,-1],"split_conditions":[-9.522996E-1,-6.0610895E0,-1.8041508E1,-1.3005061E0,-6.0045705E0,-2.0650013E1,-1.2579515E1,-6.1476173E0,-6.2640862E0,-6.04875E0,-5.89794E0,1.5165596E1,-1.9942926E1,1.8728397E0,4.8125786E-1,-6.728926E-1,-1.8404492E0,-1.4273697E0,-6.0397353E0,5.1170015E0,1.3828808E0,-4.506698E0,1.0706497E-3,-3.3269413E-2,1.0181655E0,2.687178E0,2.0951705E0,-3.5210788E0,-3.9943114E-1,6.918305E-1,1.7073318E-1],"split_indices":[1,0,0,1,0,0,0,1,0,0,0,1,0,1,1,0,0,0,0,0,0,0,0,0,0,0,0,0,0,0,0],"split_type":[0,0,0,0,0,0,0,0,0,0,0,0,0,0,0,0,0,0,0,0,0,0,0,0,0,0,0,0,0,0,0],"sum_hessian":[5.042E3,4.78E2,4.564E3,1.35E2,3.43E2,3.62E2,4.202E3,1.2E2,1.5E1,3.7E1,3.06E2,2.68E2,9.4E1,2.22E2,3.98E3,4E1,8E1,5E0,1E1,3E0,3.4E1,1.5E1,2.91E2,1.2E2,1.48E2,2.1E1,7.3E1,2.7E1,1.95E2,3.5E2,3.63E3],"tree_param":{"num_deleted":"0","num_feature":"2","num_nodes":"31","size_leaf_vector":"0"}}]},"name":"gbtree"},"learner_model_param":{"base_score":"5E-1","num_class":"0","num_feature":"2"},"objective":{"name":"reg:squarederror","reg_loss_param":{"scale_pos_weight":"1"}}},"version":[1,5,0]}